0.024188882 0.0021914563 -0.08976116 0.060162492 -0.03243858 0.037214663 -0.00768856 -0.011969531 -0.0002302255 0.018416235 0.03197177 -0.020228006 -0.012880142 0.016388895 -0.023472354 -0.00929338 0.031350862 0.00839466 0.006056419 0.011536181 0.053638656 -0.023325576 -0.048422474 0.007301696 -0.03977699 -0.00035610594 0.03420123 -0.0129856905 -0.03086969 0.008650335 0.06359083 -0.011185583 0.07335082 -0.06777425 -0.023623247 -0.012763574 0.093734525 -0.09628495 0.019966612 0.044574115 0.016224366 0.054307215 -0.02687171 0.021093965 -0.098277465 0.033548806 -0.007855554 0.048917554 0.1525334 0.14945324 -0.054211218 -0.015962906 0.05497681 -0.018561516 0.0806222 -0.01100759 0.03706745 0.013333948 -0.027846921 0.0030088937 0.0033457514 0.046907082 -0.015766054 -0.031860057 -0.038003325 -0.005623357 0.027514832 -0.07541181 0.017118856 0.04124751 0.022003647 0.012147716 -0.0171873 0.0052824686 0.030925736 0.026940431 -0.0117193265 -0.020522961 -0.0029411768 -0.0048769526 -0.024930477 0.016184118 0.014807823 -0.018316776 -0.0063753566 0.057141148 -0.027285758 -0.029666016 -0.01886856 -0.030017503 0.005514731 -0.016285766 0.012078504 0.00064286153 0.003180143 0.04100537 -0.07052718 0.046574745 0.001055266 0.00019377032 0.018249782 0.060575962 -0.054659452 0.02517961 0.035116978 0.003989953 0.09766414 -0.04844455 0.047125276 -0.07427461 0.028852645 0.0394638 0.064700775 0.0840336 0.10769229 -0.030032918 0.012863391 0.052910194 -0.046211038 0.061875805 -0.03681646 -0.021492403 -0.02006855 -0.09819788 -0.03481393 -0.0025495684 0.0066933865 -0.058427874 0.0169028 -0.027347298 -0.018425765 0.0389022 -0.039051253 0.023123056 0.017435206 -0.015189695 0.02684756 -0.013301534 -0.007313507 0.0034144241 0.01821451 -0.025416747 -0.042605452 0.014650829 -0.012804882 -0.013624197 0.050866954 0.021466155 0.0064261933 0.018959742 0.060841568 0.026619758 0.07935582 0.022898763 -0.072911434 -0.003928756 -0.025213405 -0.061101723 0.10493002 0.07101233 0.030627377 -0.03167257 0.031427488 -0.0050068307 -0.0060186815 4.7459114e-05 0.06567636 -0.05136866 -0.0028292127 0.05191136 -0.020056713 0.052575424 -0.050874613 0.00906339 -0.019537723 0.027383635 0.042793464 0.011620438 0.05162086 0.055956375 -0.00342411 0.008424921 0.012488631 -0.01678161 -0.0030771918 0.09751014 -0.015565997 -0.0076274956 -0.004843776 -0.039922345 -0.03288865 -0.0047813887 -0.0359019 0.042030364 0.002960344 -0.020587672 0.051726338 -0.019669322 0.008035766 -0.021558477 -0.005216811 -0.009886409 0.0066050887 -0.009652824 0.03859552 0.025937064 -0.03568884 -0.027765611 0.025458304 -0.00094237376 -0.009224461 0.04096377 -0.017628476 0.018129323 0.017213536 0.09628186 0.012000302 0.027602402 0.047364227 -0.041398823 0.021721303 -0.015204341 -0.025467675 -0.005820114 0.05340586 0.030058675 -0.044580273 0.012742898 -0.013635481 -0.007125622 0.001939962 0.046154525 -0.0059756036 0.035917044 0.03097025 -0.020528428 0.040734917 -0.061869774 0.0176653 -0.048303667 -0.007356055 0.013262194 0.0005802368 0.054135226 0.037270367 0.033732865 -0.010039669 0.007881285 -0.02064911 0.019659221 0.078878 -0.004690071 -0.02890536 0.030728802 -0.030499745 -0.021389462 -0.0051424173 -0.015830373 0.022390706 -0.080738224 0.011823225 0.0683908 -0.061898485 0.010215047 0.01745794 0.0043271286 0.0033705833 0.0049606534 0.016010243 0.0038364765 0.029401306 -0.005715537 -0.020788496 0.03781508 -0.026921919 -0.022996204 0.01027629 0.017207196 -0.013517321 -0.017652404 0.06421963 -0.011258854 0.034385398 0.08633197 -0.02448809 -0.012839272 0.019129915 -0.027732529 0.036084846 0.02093972 0.055497527 -0.05966844 0.03924929 -0.025925105 -0.019207446 -0.038554404 0.064301215 -0.0063528847 0.013155708 0.045598395 0.00055182696 0.04969067 -0.07994257 -0.00020037121 -0.017408589 0.0035423893 -0.03244876 0.0036153977 0.036688272 0.064739056 0.04664875 0.01662452 -0.0028839274 0.012356203 -0.022155471 0.055695675 -0.011218303 0.060145855 0.023995694 -0.0042842273 -0.058035187 -0.047401406 -0.04129706 0.034181867 -0.0048725083 -0.014740814 0.026713464 -0.039102048 -0.0032625347 -0.01534425 -0.01746119 0.011243393 0.042245984 -0.011918992 0.024400128 0.023734957 -0.030128118 -0.044653922 0.03545215 -0.028356917 -0.027962895 0.029555703 -0.014804244 0.018452099 -0.029697105 0.07363822 -0.012139982 0.07942168 0.009189116 0.021346929 0.002195002 0.019650636 -0.07382574 -0.033606574 -0.0047138217 0.11058466 -0.018437471 -0.0027863425 0.061175 -0.042281963 -0.022695689 0.016113363 0.029451394 0.022559414 0.071260214 0.019968906 0.041122127 -0.101483315 0.019921679 -0.035019208 -0.038737938 0.0025305892 -0.02807839 -0.01310133 0.01923855 0.09560143 0.056988038 0.03720094 0.030343127 -0.022421438 0.06175269 0.012010783 -0.047941625 -0.0056090686 -0.12324223 -0.038503904 -0.0040183957 -0.022352567 -0.04986889 -0.037014414 0.00467725 0.06713345 -0.009724314 -0.08085459 0.050871745 -0.045419462 0.010171759 0.023380004 0.012135421 0.037770543 0.038130373 0.0025529775 -0.023257168 0.00067728246 -0.022734696 -0.04648657 0.029190658 -0.005745275 0.034428865 -0.030127926 0.076606065 -0.004588333 0.107182324 0.0024098053 0.03526794 0.010586903 0.010012932 0.07297949 -0.019009188 0.005096427 0.06677865 -0.013074173 -0.032297496 0.08476186 -0.07479392 -0.00083177915 -0.01837027 0.0302997 0.0142550515 0.043994833 0.004813538 0.06281037 -0.10676767 0.036545552 -0.035996765 -0.05298602 -0.028397564 -0.02252864 -0.002081594 0.015605906 0.09739721 0.11113037 -0.021287834 -0.0031387745 0.057164874 0.053059664 0.06197712 0.050286207 0.0395069 -0.114101395 0.044340715 -0.016409505 -0.03939338 -0.02696784 -0.034134176 0.000885299 0.035923183 -0.010386638 -0.082651645 -0.012043437 -0.017027562 -0.019380476 0.02768533 0.014963235 0.010128958 0.05843151 -0.041212153 -0.028737133 0.01373977 -0.029753776 -0.018360442 0.034952965 0.04646268 0.047313366 -0.010551257 0.105763614 -0.029623708 0.07511988 0.03784798 0.042001612 -0.023151023 -0.0019698741 0.03949997 0.0022405 0.06220359 0.09245594 -0.043585654 -0.008749193 0.058851015 -0.09176199 0.0053819604 -0.0813797 0.13649486 -0.064591624 0.02335197 0.03693156 0.06551551 -0.12278738 0.0045705796 -0.016388422 -0.09122748 -0.07802404 -0.047124613 -0.055386633 -0.051063538 0.17942326 0.13766313 -0.031112071 0.0010350822 0.06270065 0.016539263 -0.041564543 -0.01833132 0.030904371 -0.061738953 -0.030487228 -0.04014926 -0.013846768 0.014964585 -0.00017951199 -0.06466319 0.01787491 0.05010007 -4.940867e-05 0.016090281 -0.05357629 -0.0028180862 0.028830826 -0.011817275 0.016910508 0.061867837 -0.0024499753 0.004155859 0.016256712 -0.010345617 -0.030669905 0.06799325 0.010108097 0.0034250272 -0.009541581 0.080251984 -0.024131846 0.03656216 -0.03964705 0.06696058 -0.050847914 -0.01263823 0.02537868 0.015162775 -0.02675353 0.057372615 0.0017038187 -0.006195741 0.046365358 -0.113851465 0.03571905 -0.10678673 0.17522734 -0.0951507 -0.032156374 0.01155905 0.02829091 -0.026376005 -0.110488534 0.025149196 -0.103926614 -0.049372952 -0.04803652 -0.034086265 -0.063632205 0.28923312 0.24010018 -0.04563655 -0.048809584 -0.011557233 0.02422283 -0.04743942 0.06616578 0.015276058 0.009320293 -0.048805926 -0.06085805 0.004453001 0.037000842 -0.028250515 -0.078212544 0.025875172 0.032843806 0.04185718 0.07264943 -0.04951461 -0.013848833 0.021496385 -0.0033049635 0.009469665 0.07667667 -0.019335931 -0.01670213 0.010746975 0.019793099 0.012683457 0.070719294 0.042572603 0.032978967 -0.03774874 0.040891387 0.027113827 0.17194876 -0.065804936 0.079738766 -0.036288142 0.026276557 0.04274662 0.13888985 -0.0869578 0.11491084 0.005562878 -0.032742344 0.19259858 -0.10763033 0.07138271 -0.19366035 0.24330406 -0.12756196 -0.036641456 0.036252547 0.053412825 0.20309888 -0.36202163 0.19440702 -0.123452865 0.030702893 -0.0016743736 -0.060943503 -0.059389114 0.30589375 0.25242734 -0.028622441 0.06020921 0.016963277 -0.012455294 0.007587416 0.10517387 0.11487773 -0.034875423 -0.06570628 -0.019770628 0.011855471 0.03961972 0.039418425
-0.057858888 0.013006045 0.046083223 0.008459064 -0.036672432 -0.04849935 -0.02285418 0.0025480962 0.0017075946 0.016264632 0.0433011 0.013608559 -0.08373674 0.051344972 0.049823873 0.009119113 -0.037005384 -0.020908456 -0.09911708 -0.0068855593 0.059917275 0.01305253 -0.047608506 0.00813743 0.022247668 0.017490141 -0.045365714 0.0025679644 0.07549907 -0.031248422 0.010614252 -0.003882285 0.01358368 -0.020999609 -0.0027778752 -0.07096015 -0.015333679 -0.04986648 0.03514911 0.0025382957 -0.058693178 -0.081145465 0.025048453 -0.08734902 -0.003192466 -0.056495413 -0.029053321 0.035588138 0.04695452 0.0010270978 -0.06389811 -0.067701235 -0.03527386 0.021732321 0.020465322 0.02744187 0.06540374 0.060141183 0.01885426 -0.06523845 -0.034380604 -0.035367902 0.044850193 0.07741918 -0.040918607 -0.01485454 -0.0029664303 0.041271888 0.029839808 -0.016794434 -0.019095792 0.0214632 0.006273594 -0.027711477 0.008416173 0.08822878 -0.0007538378 -0.08821058 0.0816824 0.022859741 0.027465403 -0.015585373 -0.0071051964 -0.091661826 0.034339644 0.061734404 0.020066354 -0.03363031 -0.012301588 0.0028063473 -0.01587327 -0.032541323 -0.017106256 0.108843334 -0.05088956 -0.015849004 0.013928899 0.04269898 -0.043877505 -0.008847795 -0.033877883 -0.0076008965 -0.004130474 -0.01093755 0.03159991 -0.0200759 -0.047808193 0.03528204 -0.06974084 0.016754165 -0.03470031 -0.058900654 0.06521796 0.0017953082 -0.03125544 -0.049423415 -0.07305659 -0.008232626 0.003345156 0.04283799 -0.018967045 0.001840055 -0.014074672 -0.005153913 0.038148895 -0.12399616 -0.012359108 -0.016558295 -0.032635048 0.020487279 -0.039780777 0.01155405 0.015219213 -0.00037546115 -0.0071436996 -0.060998704 -0.004257541 -0.0067072003 0.016489806 0.021015782 0.041164335 -0.005903691 -0.05667431 0.096231245 0.055011984 -0.00043659445 -0.027537014 -0.005904808 -0.069897324 0.0068853744 0.0608052 0.022512881 0.02895943 0.0075184666 -0.0058663725 0.035090324 -0.032362387 -0.009303594 0.044685926 -0.024082327 -0.017381785 0.00058630505 0.059716474 0.021270037 -0.037730616 -0.010195356 -0.030372284 0.043726027 -0.0056973635 0.06292735 0.0018318708 -0.041378025 -0.04044012 -0.032912422 0.016005544 -0.02902428 -0.028073924 0.045887098 0.012991852 -0.021699091 -0.031406656 -0.020643419 0.0072209165 -0.030911358 0.012940107 -0.062396552 0.06390216 0.009586217 -0.006242241 -0.043068483 0.02179282 -0.019206576 -0.042851742 0.06699618 0.027273921 -0.05069491 -0.0071111764 -0.013978971 -0.0048599234 0.07893022 -0.07159821 -0.017178914 -0.0049277307 -0.010145124 -0.013920342 0.07071472 -0.020487603 -0.093500525 0.06428206 0.0055694277 0.016407494 -0.03208562 -0.009385141 -0.050920222 0.0040385565 0.06623212 -0.003286875 -0.074792944 0.01984028 0.046753928 -0.008953841 -0.028416093 -0.0028392638 0.118074216 0.022691347 -0.03103604 0.024221255 0.06176796 -0.023472782 -0.04115514 -0.001945077 -0.06695565 0.025616128 -0.007403568 0.0628297 -0.013195435 -0.03324673 -0.032485854 -0.0012448021 -0.013375094 -0.006502719 0.015131748 0.06510186 0.051666982 -0.012067828 -0.050581433 -0.07066436 0.016542217 0.0595779 0.031759944 -0.034951538 0.013922875 0.10103118 0.04955631 0.0025318908 -0.040541604 -0.044462103 0.031462356 -0.024010358 -0.031970613 -0.025507025 0.014487506 0.008080492 0.019411108 -0.0046846443 0.01109064 0.0074251615 0.01826787 -0.013382312 0.0030300897 0.042012017 0.003146956 -0.09085446 0.09804261 0.025097916 -0.046294894 -0.0037639416 0.017135946 -0.061891418 0.044151325 0.059503812 -0.012273633 -0.053190514 0.07614539 0.0032509204 0.050407045 -0.025161652 -0.05891493 0.092468105 -0.012939584 0.010516704 0.069619395 0.053770892 0.03913724 -0.024571864 0.029036796 -0.06600404 0.02987741 -0.034802616 0.03152775 0.058012933 -0.049753353 -0.08219754 0.022852322 -0.023913998 -0.04367391 0.066369995 0.063507475 0.04059745 -0.017493874 -0.046204202 -0.088630915 -0.014233448 -0.04651197 0.07447363 -0.002273726 0.016257541 0.014581948 -0.033085473 0.051727504 -0.04957636 0.03647492 -0.021832785 -0.037712682 0.028356936 -0.048503377 0.019980071 0.01986283 -0.018105898 0.011571032 -0.049502943 0.007834303 0.036049787 0.01431395 -0.0118731195 0.03664888 -0.00033926844 -0.041367885 0.0585788 0.0025385325 -0.008274877 0.046541777 0.009748458 -0.09682343 0.0068041864 0.082281806 0.029354889 -0.07756278 0.037303787 0.037432827 0.025769863 -0.062168844 -0.11595661 0.13759388 -0.041661512 0.040477786 0.11079151 0.031993542 0.0077272416 -0.061909284 0.05883548 -0.017083636 0.044948217 -0.020290675 0.042072922 0.05818638 -0.01528036 -0.1256898 0.0015324486 -0.04308468 -0.050545555 0.07745784 0.035986643 0.0084350025 0.009550184 -0.011826376 -0.05662022 -0.011350858 -0.06268155 0.017428637 -0.049464043 -0.016399994 0.02204397 -0.059433576 0.007895828 0.014929189 -0.06348175 -0.038152296 0.03912366 0.0046792496 -0.07317815 0.042306103 0.012227537 0.0073333737 -0.012294801 0.018499 0.0045732083 0.02526883 -0.003551207 0.0026252586 0.022924455 -0.023310086 -0.044883065 0.08042919 0.03505199 -0.01933769 0.042066816 -0.020013569 -0.08207418 0.063008025 0.071073465 0.017479425 -0.12460727 0.030301828 0.017836433 0.010728617 -0.052699264 -0.039829403 0.17598635 -0.03514403 0.08215586 0.14706548 0.03743933 0.029565785 -0.05679093 0.0228048 -0.06589285 0.023203708 -0.020328963 0.042242017 0.080066524 0.006925773 -0.105753 -0.014791023 0.008223518 -0.051080327 0.084760495 0.009772101 0.0029519368 0.023342937 0.0018817656 -0.031993117 -0.0012626456 -0.0658952 0.084597096 0.012106097 0.010260484 0.02077929 -0.005486683 0.035871357 -0.062489748 0.012421265 -0.010416448 0.10192523 0.021232788 -0.05947101 0.07319198 0.02403087 0.07243905 0.06635292 -0.060452603 -0.000954654 0.0020780605 0.0021869903 0.00033835298 0.041239623 -0.016609456 -0.08872127 0.076103516 0.029325536 0.003402268 0.07563004 0.020704702 -0.052246556 0.047638368 0.053620424 -0.0062630447 -0.09999125 0.012272886 0.009199745 0.020546636 0.012798625 -0.031086922 0.13218275 -0.06653832 0.041718766 0.18245843 0.04435438 0.020366767 -0.049292624 0.05290046 -0.0067606973 -0.0042530424 -0.012135343 0.021323502 0.06724484 0.0033200192 -0.15597555 -0.07511098 -0.034675933 -0.095882155 0.12925898 0.0050818934 0.008186566 -0.020402946 -0.02095609 -0.031662706 -0.007798203 -0.054043263 0.027744416 -0.075285934 0.032249194 0.14590071 -0.06609184 0.012548713 -0.0104060965 -0.08766012 0.011393757 0.04712697 -0.07267556 -0.048124198 0.03912099 0.0370886 0.020506367 -0.00720595 -0.022157636 -0.0013931926 0.043944575 0.003347577 -0.014245612 -0.007818886 0.027083118 -0.04498359 0.09364216 0.03849346 -0.0023445406 0.06359615 -0.0023965915 -0.032926682 0.07665543 0.09430615 0.035945706 -0.003236596 0.015783086 0.060230363 -0.023464296 0.08881343 0.039850168 -0.008109525 -0.032120634 0.060930733 0.20337974 0.09569426 0.022062702 -0.09119193 0.069978274 -0.015293028 -0.03185426 -0.04245623 -0.02332232 0.13904156 0.029983925 -0.16518797 -0.152104 0.036202148 -0.06612625 0.18363722 -0.005226121 0.033021152 -0.040081285 0.007263899 -0.03875553 0.0014231089 -0.03982343 -0.030021643 0.02901615 -0.001767503 0.13432217 -0.005458311 -0.021868521 0.0023857662 -0.04865202 -0.015670171 0.007159052 -0.028876344 -0.047897644 0.055168215 0.015613867 0.036180325 -0.15251479 -0.07401285 -0.04220354 0.022933308 -0.024639487 -0.009189964 0.007340078 0.017150907 -0.02787545 0.048600294 0.018371744 0.012400784 0.057794195 0.018549858 -0.08392249 0.11379918 0.098649494 0.021230768 0.14932945 -0.03506288 0.13843802 -0.119939454 0.10961794 -0.027068282 -0.23388483 0.11003072 -0.0008090171 0.27927125 0.23529679 0.078077644 -0.15735036 0.11245926 0.010519079 -0.027249023 -0.019907115 -0.043725856 0.21162239 0.023820128 -0.17700356 -0.20150638 0.037647955 -0.12001069 0.18290688 -0.016561499 0.024506133 -0.009356678 0.016656017 0.0036617059 -0.014264196 -0.0056103575 -0.08522313 0.2146771 0.055771705 0.11354208 -0.071812354 -0.12787968 0.07317498 -0.1009581 0.100521915 0.22779946 0.0031324385
0.05352821 0.014510249 -0.025892658 -0.009080323 0.03160891 0.06336158 0.039596193 0.011555495 -0.02601925 0.01727943 0.0012887444 -0.00050642254 0.0053144423 0.00214609 0.008504146 -0.021016773 -0.02964358 0.012597851 0.014104471 -0.04236521 -0.02328829 0.00021023712 -0.02850425 0.032729343 0.032772254 -0.0071466183 -0.0274946 -0.04283298 0.014516714 -0.00257382 -0.012249512 0.05552296 -0.05285165 0.022472205 0.0014211709 0.0071199867 0.007500103 -0.06617982 0.04440023 0.011361045 0.01614501 0.083958425 0.07542896 -0.10058431 0.01144315 -0.034286354 0.09662491 0.029205298 -0.15369457 -0.009104838 -0.056971375 -0.10538101 -0.05148802 -0.012692563 -0.042417176 -0.03514573 -0.010799471 -0.031262293 0.042427927 0.076121345 0.003960246 0.039654836 0.012585193 -0.0056849923 -0.009159486 0.04289733 0.04841263 0.016856007 -0.02028026 -0.028521217 0.018530447 0.036528967 -0.009876161 -0.018352063 0.033544105 0.04111249 0.040253237 0.012207535 -0.010378013 0.02694504 -0.0014401089 -0.029000646 -0.016655408 0.020512847 -0.019912846 -0.032072574 -0.007826064 0.08983419 0.078202896 -9.298366e-05 -0.015080382 0.01844675 -0.02998242 0.081432454 -0.022417154 0.02603556 0.006552364 -0.03137743 0.014292621 -0.008492443 -0.00813942 -0.022748875 -0.07042803 0.043919742 -0.017731925 -0.019536342 0.051992454 0.07067673 -0.08166214 0.030372605 -0.032154106 0.14329578 -0.0013121591 -0.15623115 -0.015825149 -0.102528244 -0.0847105 -0.019454636 0.036853004 -0.075070836 -0.009839094 0.025087845 -0.014926476 -0.042535387 -0.004091805 0.03161201 0.010914464 0.019943755 -0.016827513 -0.0051892055 0.048132777 0.023798138 0.016255138 -0.05178362 0.059814773 0.04757118 0.05179729 -0.00061316637 0.00025382484 -0.027909793 0.03445051 0.023811566 0.030091567 -0.047938954 -0.021343516 0.0017757323 -0.031124188 -0.00022372603 0.00032262295 -0.018947924 -0.009104948 0.030788144 0.0085203955 0.0015308555 -0.01700604 -0.0011775305 0.073541425 -0.019508164 0.019193614 0.00017841365 -0.036556154 0.06628609 -0.038846057 0.036563903 -0.046704717 -0.0044904556 -0.0037390422 -0.07391585 0.030204002 -0.0067237495 -0.03127777 0.017635051 0.11477598 -0.08162133 0.027933292 -0.041374642 0.11749625 0.02307122 -0.16294892 -0.0019860927 -0.07988513 -0.03272245 -0.0028223647 -0.025070805 0.00030743846 0.012653113 0.017927773 0.015640387 -0.027237635 -0.006289084 0.01751401 -0.0075189266 0.050335895 -0.04786778 0.02655209 0.011028564 0.028863903 -0.027363067 -0.048111755 -0.0049831243 0.04932892 -0.005427476 0.012888857 -0.029841863 0.00042831263 0.018408198 0.011142413 0.030544646 0.0018171298 0.031290863 -0.034583088 -0.014849759 -0.027414108 0.036824565 0.024713183 -0.016995132 0.028335242 -0.0072708973 -0.014612741 0.0023150514 -0.002795246 0.032513317 -0.048739064 -0.0036080016 -0.053867258 0.011783276 0.04358644 0.023320666 0.06701283 -0.013492859 0.02130391 -0.021078313 -0.061518155 0.0052928478 -0.00819113 -0.0076357108 -0.0051769256 0.073949106 -0.03344403 -0.0064971326 -0.015449942 0.110785365 0.028437661 -0.14242722 -0.031213876 -0.029351922 -0.08506607 -0.02717874 0.052877873 -0.0023144782 -0.085028894 0.009003936 0.024751343 -0.070358925 -0.064777195 0.0055236192 0.059600208 0.013898435 -0.012852251 -0.03046686 0.00046540378 0.044595815 -0.040743403 -0.016032409 0.010847726 0.022333879 -0.011622416 0.0058569596 -0.001865069 -0.0044715893 -0.005781311 0.0065878257 0.011650873 -0.038398437 0.032164495 0.014230213 -0.011655655 -0.031877305 0.028863885 0.023516307 0.008924327 0.019360699 0.053257264 -0.026758745 0.0027489278 -0.01201744 0.0024384698 -0.000494448 0.036991935 -0.029894365 0.020702947 0.016678464 -0.032118265 0.04465598 0.0020941095 0.035177615 -0.008751888 -0.045047417 0.03442101 -0.034070417 0.0027450083 0.0032509512 0.020364128 0.008942716 -0.023411656 -0.0430385 0.18410583 0.05427109 -0.10613306 0.0019925262 0.022323526 -0.046775028 -0.014920787 0.04336705 0.014242295 0.059528984 0.055710316 -0.007520484 -0.0045045805 -0.045489077 0.0018274997 -0.03479306 -0.043480348 0.02582929 -0.022166703 -0.022392174 0.07174037 -0.07098821 -0.06731918 0.05264251 0.009079153 -0.010054902 0.013675177 -0.0127610415 -0.033191666 0.018616028 0.008689458 0.025893325 -0.045316808 0.04421973 -0.03365525 0.00091223576 0.005157228 0.005881334 -0.024885368 -0.01569492 -0.00070059183 0.089396924 0.03781208 -0.016542977 -0.022169063 -0.047143187 0.065957874 0.048684806 0.023091871 -0.015890967 0.024334824 -0.055046365 -0.019706259 -0.0030022291 0.03785384 -0.033602282 0.024109997 -0.016002132 -0.003960566 -0.0066086063 -0.018768352 -0.018141877 0.04694819 -0.02114941 -0.030164707 0.11734798 -0.023870545 -0.059000846 0.0019419444 -0.0149354 -0.025964485 0.0025596388 0.08002775 -0.073977426 0.03831852 -0.004957688 0.019732848 0.05721796 0.06403257 0.045878593 -0.021089334 0.0076574315 -0.03149593 0.030371405 -0.014557485 0.06265513 -0.107987516 -0.05946856 -0.0028447497 0.019349841 0.0138866175 -0.0014057946 -0.04873754 0.011025461 -0.009965547 0.015903512 0.03692813 -0.03398653 -0.0057287537 -0.005817732 0.0037361013 -0.0017999937 0.009349557 0.009993303 -0.0035387794 0.022072518 0.018716892 0.030717354 -0.011335497 -0.016096411 1.5383528e-05 -0.021779539 -0.080149196 0.056486912 -0.016415596 0.034959465 0.015618279 0.0371847 -0.006425819 0.067949586 -0.07993173 -0.008140489 0.007931629 -0.032579385 -0.012967573 -0.017602634 -0.08753429 0.0708833 -0.01359739 -0.0072774705 0.10290482 -0.004974026 -0.040011436 -0.02419946 0.039224803 -0.039683715 -0.048577916 0.07281504 -0.06396386 0.08160981 -0.03239169 0.048631668 -0.023608916 0.020619856 0.03172425 -0.045287017 0.008843623 -0.008822103 0.05182622 -0.022441996 0.059790067 -0.03608529 0.0160001 -0.06859574 0.026251303 0.014480282 -0.0033363954 0.014790078 -0.013346813 -0.0257593 -0.0014374314 0.011063606 -0.016375836 0.034648985 0.0052677933 -0.005697532 -0.010954739 0.042085405 -0.023170374 -0.010547837 0.05352619 -0.01995026 -0.0087619545 0.08006824 -0.0056038313 -0.022158269 0.049348164 0.01330714 0.0079467045 -0.007387214 0.00042927478 0.0048171133 0.07913123 -0.019085601 0.06301254 -0.08590523 0.033791848 0.0047402694 -0.03965919 -0.013812044 -0.07723705 -0.112108685 0.12728 -0.04192894 0.030191567 0.041645393 -0.0012847444 -0.01808929 -0.0041823997 0.09513913 0.025432613 -0.03381887 0.08703643 -0.005538592 0.023526799 0.0014786414 -0.03197023 -0.048923846 0.0499971 0.021820229 -0.014159116 0.021035358 0.03896315 0.00500577 -0.036156964 0.061462544 -0.024964452 -0.054326825 0.027556738 0.077458695 0.013907202 0.010954651 0.012844159 -0.01060848 0.011042692 0.0036586875 0.0037793776 -0.0017186675 -0.019817507 -0.013659683 -0.021038428 -0.0033498006 -0.006177797 -0.012657032 0.0015199807 0.005257975 0.040748052 0.013432024 0.023709964 0.01982787 -0.07063379 0.15093976 -0.0766923 0.055369508 0.05346182 -0.036547665 0.039686296 0.10538566 -0.041326206 0.0707654 -0.095052406 0.012097766 0.042705324 -0.06578759 -0.007978257 -0.109452344 -0.1709421 0.072497 -0.035843153 0.03174982 0.019383514 -0.025173344 0.032087356 0.01708875 0.119136326 0.04429276 -0.046678174 0.0016134508 -0.027499631 0.035416204 0.008233412 -0.07294314 0.005792721 -0.046619244 0.010585212 0.011049542 -0.046761326 0.062316995 -0.0036231806 -0.0071374476 0.042972952 -0.06302878 -0.13467254 0.07913188 0.11501665 0.005438399 -0.015460455 0.004697918 -0.0040800236 0.0058456985 0.006190678 0.0026174146 -0.061593216 0.04225998 0.024644172 0.002208713 0.0013160745 0.03826766 -0.031331237 0.019034121 0.017762825 0.004270487 -0.062009893 0.14591251 -0.1325848 -0.031968985 0.33010137 0.094835594 0.043894242 0.08581191 -0.06875684 0.048788697 0.16809991 -0.03479494 0.06988361 -0.056823593 -0.035124965 0.06188753 -0.173555 -0.06480505 -0.21630134 -0.0575783 -0.043992955 0.025576754 0.026039997 -0.092427276 -0.055026025 0.018879263 0.043743897 0.12284617 0.11068511 0.01572493 0.041824043 -0.08077456 0.022888107 -0.06258586 -0.15953198 -0.004475161 -0.07026229 -0.022924477 -0.044290517 -0.14050299 -0.04531268 0.017207798
0.060906466 -0.042179517 -0.08763882 -0.005717821 -0.13163173 -0.0021702468 -0.01703099 -0.021399809 0.02040473 0.018612428 0.033329267 0.037172977 -0.063383505 0.013552958 -0.016743282 -0.012208757 -0.055319365 0.02629764 -0.0088778 -0.020456748 0.008339604 -0.022327926 0.09726522 0.03252654 -0.05473512 0.05776119 -0.029665625 0.011764435 -0.021568255 -0.037521463 0.00010147344 0.0331386 -0.06936131 0.035603993 0.06114144 0.011438292 0.031296514 0.010633071 0.02646079 0.019559482 -0.072608344 -0.010481784 0.036670204 0.04715906 -0.016882315 0.018626532 0.020160748 0.09661901 -0.026542984 -0.026438981 0.023785038 0.018788084 -0.033310782 0.03349831 0.016470265 0.005389416 0.06381007 -0.009340415 -0.09440514 -0.014765991 0.008663677 -0.04997106 -0.06577586 0.044825327 0.047207933 0.015121548 -0.0437757 -0.04755946 -0.008182332 -0.08020248 -0.012775776 -0.010073946 -0.04728837 0.026893428 -0.005737847 0.004792393 0.006691615 -0.044951294 0.015993342 -0.03188309 -0.011550187 -0.024435068 0.018560465 -0.046148174 0.00025709416 0.02403121 -0.021574602 0.016293362 0.069240175 -0.0628479 0.027110556 -0.02509155 -0.021900535 -0.08294651 -0.019876936 -0.06752255 0.019961761 -0.061029334 0.001639814 0.05976157 0.06095651 0.02179173 0.009238963 -0.003137471 0.028956011 -0.07852868 -0.011337565 0.03416723 0.07190476 0.00276137 -0.01690608 -0.0031646697 0.05766061 0.018042823 -0.040565845 0.0070783333 0.035067677 -0.010455337 -0.01490003 -0.029668244 0.026574442 -0.0044151787 -0.015168141 -0.0168225 -0.020343881 -0.0048895897 0.06218515 0.02032337 0.05939835 -0.01614325 -0.0040282374 -0.022155276 -0.03774893 0.0357948 -0.10963863 -0.044237155 0.009469652 -0.030013682 0.009701055 -0.02437675 0.013677223 0.01596148 -0.039409213 0.05070895 -0.040334634 -0.034324948 -0.04949741 0.019388663 -0.05019043 -0.018574825 0.01820205 0.0014355031 -0.020696148 0.08572442 -0.017912213 0.011681756 -0.020244913 -0.010731447 -0.05659613 0.00301606 -0.02309158 -0.007934375 -0.015436113 -0.008090981 0.088387996 0.0076785698 0.0016772889 0.013135991 0.027445363 -0.03081013 -0.019811079 -0.008764039 0.069947936 0.07033592 -0.01447666 0.0014928763 0.027823204 0.055743415 -0.0062062135 -0.03820106 -0.038362388 -0.029059617 -0.017837852 0.037319325 -0.049837664 0.014015879 0.008440167 -0.08822952 0.017078474 -0.013226955 -0.03286578 0.003131822 -0.038134065 0.011692266 0.05728829 -0.0041196286 -0.035790812 0.0011004584 0.052512746 -0.058665927 -0.04105905 -0.0012480213 -0.022002174 0.0054998295 0.019952126 0.044944197 0.058032934 -0.011540034 0.051453643 -0.0550436 -0.03768278 -0.06017304 -0.008470657 -0.048612975 -0.02868452 0.03480624 -0.008635453 -0.015689744 -0.009279904 -0.03342294 0.007777989 -0.041311115 0.06607795 0.03761447 -0.0013732257 -0.029390108 0.010333198 0.045300893 -0.08349769 0.09096315 0.028990058 -0.041228026 0.01877057 0.031188378 -0.010605978 -0.048217602 -0.0089193275 0.05564724 0.022005195 -0.0067421603 -0.0005995971 -0.02007538 0.035374667 -0.010071861 -0.032697663 -0.01690381 -0.0038549409 -0.0026196677 0.04706972 0.06444822 0.029779004 -0.019659134 -0.023537194 0.11666983 0.032282505 -0.06561638 0.008588915 0.0046414756 0.04585479 0.07212659 -0.07766946 -0.018491952 -0.019513411 -0.01640311 -0.14020586 -0.031783134 0.0068683964 0.00922108 -0.014597706 0.029638521 0.0035977412 0.01861618 -0.037369095 0.048124593 -0.024443602 -0.025401223 -0.027442785 0.015977498 -0.046271395 -0.033861693 0.042082757 -0.019001901 -0.011367164 0.060854435 -0.008446184 0.01081691 0.007474297 0.013517649 0.011252135 0.022432635 -0.008669459 0.0062113553 0.038535126 -0.0299919 0.08574649 0.02394526 -0.005689933 0.018177371 -0.00655526 -0.047259893 -0.017603764 0.00015525492 0.08543294 0.0093380995 0.013998532 0.016697003 -0.011370436 0.047207 0.0010900114 -0.034907084 -0.0042065694 -0.021921283 -0.04599312 0.011307088 0.07157293 0.09506912 -0.086504936 -0.042815324 -0.096210144 -0.028495876 0.04156645 -0.008515812 -0.01333392 0.10856838 0.065068215 -0.10756407 -0.026652837 -0.048339605 0.0041283173 -0.18730249 0.009106682 -0.015624778 -0.0049390527 0.00047705733 -0.032902118 0.03370364 0.009213306 -0.041683696 0.05158161 -0.047304004 -0.023225741 -0.032903615 0.012362439 -0.021346262 -0.024631402 0.01562834 -0.026070423 0.023571242 0.0007651176 -0.022267198 0.002146987 -0.011332804 0.057602875 0.06545156 -0.018323513 -0.009358259 -0.021866223 0.029730877 -0.030346373 0.065947786 0.019486226 -0.03809969 0.006067643 -0.0049214563 -0.02376755 -0.010849017 -0.035337638 0.052978806 0.0126769 0.04296433 0.0072561284 0.013019141 0.06495657 0.04818938 -0.009729058 0.0069064014 -0.021351911 -0.056465812 -0.02233367 0.06051332 0.02972786 -0.08279762 -0.10448729 -0.05022577 -0.019413345 0.02320459 -0.041547604 0.009686563 0.028337888 0.13456583 -0.16965748 -0.010874872 -0.09221696 0.034905482 -0.043648418 0.0316915 -0.017124502 0.052405294 0.017202819 -0.014410867 0.011002947 0.0026562999 -0.048044097 0.061450243 -0.019522933 -0.013391345 -0.027563017 0.008672911 -0.05145386 -0.021157693 0.008287968 -0.012821882 -0.0039632376 0.02261856 -0.039978135 -0.03519756 -0.022743177 -0.029947778 0.11622359 -0.04202073 -0.050326467 -0.044363547 0.02788233 0.030516947 0.06639484 0.01900251 -0.024934666 0.047923505 0.082074724 -0.027729888 -0.047129862 -0.024980918 0.04522704 -0.008995466 0.055690072 -0.027745325 0.024576817 0.021693887 0.026605884 -0.00039831104 0.034654245 -0.055396255 -0.058993485 -0.09039326 0.014049887 -0.003444896 -0.065797076 -0.080401346 -0.07010504 0.021042999 -0.03688349 0.033491895 0.059775375 -0.008505557 0.04351062 -0.20950256 -0.024410887 -0.0776665 0.070446506 -0.09802701 0.056553148 -0.02093192 0.035636675 0.021705434 0.015703864 0.022709427 0.021703776 -0.051324777 0.019103188 -0.029899795 -0.009036371 -0.020889908 -0.011873496 -0.02829362 -0.03721331 -0.006213205 -0.003402582 -0.02575199 -0.017831342 0.008665339 -0.009321393 -0.014336537 -0.03256966 0.06332901 -0.029785564 -0.05876562 -0.052527536 -0.07813963 -0.026914522 0.05261154 -0.014437156 -0.023640927 0.008383428 0.08295241 0.03125748 0.004223692 0.021710541 0.005573586 -0.008589529 0.078145325 -0.011428238 0.008542546 0.031238407 0.03730556 -0.020129476 0.0585542 -0.013441965 -0.06375546 -0.011538233 0.04373947 0.05881479 -0.10609268 -0.1406896 0.04640955 0.010932009 -0.04648035 -0.03071796 0.05752999 -0.048719358 0.06574824 -0.22459677 -0.015707172 -0.05156319 0.052154113 -0.15480953 -0.056240935 -0.020388251 0.021808462 -0.011795873 -0.032054257 0.0062049064 0.056349322 -0.066341 0.072488904 -0.06886937 -0.023851981 -0.008114313 -0.0142371105 -0.051117584 -0.0006665382 -0.01216089 -0.0036300903 0.031942334 -0.048739713 0.028702956 0.067456916 0.011427428 -0.033416584 0.04142724 -0.016011488 -0.039931726 -0.037168264 -0.10146446 -0.15384045 0.017143102 -0.037061747 -0.05427082 0.039123315 0.050171997 0.06652479 0.03207104 0.032899708 -0.016821811 0.0042507015 0.13219456 -0.039401453 0.10711451 0.031830117 0.05241818 0.0024355208 0.01799856 -0.024559349 -0.074350245 0.051559478 0.019803885 0.035219714 -0.12887186 -0.16255377 -0.14927147 0.013135014 0.0459694 0.0099572595 -0.00097264675 0.004190505 0.03409238 -0.2416542 0.0037092797 -0.085290365 -0.08312948 -0.12441657 -0.07086222 -0.03812898 0.019050192 -0.014772797 0.024241792 0.016308233 0.017542187 -0.04588614 0.047803994 -0.06760601 -0.014030526 -0.021553632 0.0036898134 -0.03476767 -0.013168971 0.003515651 -0.039499946 0.054126 -0.051119097 -0.0063420753 0.10583813 -0.13191503 -0.09422105 0.08957249 -0.02559393 -0.12038303 -0.022818353 -0.2349563 -0.03573306 -0.0207018 -0.017345123 -0.006038374 0.0016619546 0.10150667 0.12699205 0.012701468 0.02693772 -0.046430733 0.01630196 0.21411978 -0.013050831 0.12072689 0.03185457 0.03754789 0.034957577 0.018179314 0.00054973195 -0.056881126 -0.07123149 0.02872803 -0.00016704442 -0.18145153 -0.21009442 -0.09744998 0.0024638467 -0.03766159 -0.08913429 0.178974 -0.096377395 0.1527972
-0.042549655 -0.03318349 -0.05359565 0.00085054606 0.009203263 -0.025101649 -0.04011494 0.0075292606 0.03462107 -0.01266144 0.0023106083 0.04480342 -0.0031204436 0.02481975 -0.03597501 -0.03170499 0.036455087 -0.0028548185 -0.025904678 0.010957972 0.029119669 -0.029681977 0.049535822 0.009190991 -0.00417943 -0.018954998 0.08176828 -0.055243716 -0.024312463 -0.047036257 0.09860848 -0.037087057 -0.027917925 0.021373592 -0.106969796 -0.002095902 -0.01736679 -0.016892932 0.06789459 0.0515991 0.013392181 0.031777672 -0.04506205 0.0039097983 0.049800985 -0.04389525 0.0044297962 0.0155196255 -0.09433861 0.013583666 -0.026442515 -0.09289964 0.035294913 0.009544247 -0.08741529 -0.036789086 0.06997626 -0.002403141 0.014724007 0.005394739 0.051278282 -0.0034709135 0.03150693 0.05743006 0.0057749646 -0.028696984 -0.012818895 -0.0140689295 0.042977713 0.058587708 -0.07032239 0.0014778812 -0.0085558705 -0.00021672204 0.0067165843 -0.023698134 0.046456434 0.008342439 -0.012347395 0.012092462 -0.010883011 0.018177979 0.041319374 -0.040020674 0.018087585 0.003822809 -0.00939981 0.013042075 0.03449774 -0.034889907 0.0037605993 -0.008627797 -0.015669439 -0.0788796 0.014598328 0.06752987 -0.027471917 -0.0024395816 0.010588291 -0.089666866 0.026796915 -0.039048668 0.00860814 0.030772949 0.07000959 0.06050921 0.00716637 -0.044993255 0.07415163 0.022921199 0.020693079 -0.016772922 -0.022171572 -0.10109389 0.01847375 -0.07668747 -0.06167885 0.038295094 0.030700717 -0.065644205 -0.02405412 0.09354774 0.0011329236 0.011129104 -0.0006768547 -0.007814131 0.012463828 -0.03514405 0.10587346 0.0120606115 -0.012263827 0.0023436276 -0.0792872 0.056918364 -0.0938433 -0.023858037 -0.01732051 0.005852088 -0.0018385813 -0.0006028028 -0.004570751 0.01949235 0.015904523 0.01820127 -0.023489468 -0.04028346 0.025784206 0.0048166085 0.008522385 0.021016693 0.032450553 -0.01755928 -0.0051742503 0.014173277 0.011994251 0.0016939989 0.027368335 0.020501744 -0.043081675 -0.051142715 0.084209934 -0.081869245 0.009753537 0.03997801 -0.06614737 0.0038572385 -0.0030190386 -0.009539934 0.085660934 0.050998308 0.090281814 -0.021170521 -0.054095734 0.05394999 -0.002628227 -0.0046052863 0.005461111 -0.012656187 -0.09993769 -0.013978863 -0.07403265 -0.04271987 -0.0011492209 -0.062153097 0.0790215 0.08593356 0.037644237 0.034370344 0.0878259 -0.0072714854 0.0056637796 0.06609472 -0.06409064 0.049319696 -0.034922738 -0.043854456 0.013318444 -0.057376396 -0.022727385 -0.018278439 0.00730059 0.0048073693 -0.01771907 0.008892257 0.022146553 0.0065932325 0.02188019 0.026031949 0.029363187 -0.011789474 -0.032418896 -0.01895605 -0.008246912 -0.019140866 -0.0013955268 -0.0038307891 0.008411043 0.09686363 -0.024425996 -0.004785888 0.03126461 0.045331094 -0.021775104 0.01771226 0.019832958 0.077488005 -0.046563774 -0.013116001 0.030635491 -0.068629205 0.02710508 -0.009926373 -0.032477308 0.03078706 0.040606733 0.04338209 0.015001877 -0.07189855 0.05424129 -0.008525247 -0.045426905 0.03371476 -0.0439614 -0.11792736 -0.03824839 -0.113593645 -0.064670004 0.046992082 0.023827204 -0.031654626 0.0020722945 0.066627845 0.008984521 0.0018540992 -0.026020842 0.03591889 -0.069720276 -0.05008721 0.04479078 -0.05746701 -0.028339937 0.036298476 -0.096699014 -0.025406148 0.0019184287 -0.012542043 -0.015752768 -0.015511737 0.05258826 0.023298979 0.015934212 0.001931005 0.009418872 -0.0009451933 -0.032895893 -0.029395256 0.014516005 -0.0057320665 0.001513673 0.0024170673 0.034951143 -0.028558413 0.07277463 0.033755567 0.020137487 0.05582222 0.028436216 -0.053620074 0.022741638 -0.00397633 0.05916339 -0.091356546 -0.02274486 0.0014262567 -0.07728386 0.043528207 -0.019737152 0.0020177842 0.061018102 0.030038036 0.06050109 -0.031906806 -0.026557913 0.06858412 0.018462855 -0.010212634 0.040834777 0.009089919 -0.06848706 -0.04839389 -0.063389465 -0.052254915 0.007653347 -0.00031553686 -0.00079992757 -0.08169559 0.062795974 -0.013689602 0.035697337 0.017037474 -0.036615834 0.050474714 0.005199136 -0.08121414 0.04434792 0.0027472477 0.025891406 -0.11455989 0.036505964 0.042189695 -0.049957618 -0.009446263 0.007880648 0.024413953 0.0075569693 0.014180241 0.011355392 0.025088632 0.028872304 0.021906007 -0.046021882 0.0018811553 0.025081431 0.020446505 -0.018533468 -0.0118423505 -0.02242025 0.029665867 0.0019452784 -0.012486557 0.03657505 0.0069674356 0.046895806 -0.0014891757 -0.0703216 0.05879396 -0.08514548 -0.08347906 0.07112545 -0.06700412 0.018146371 -0.053034663 -0.014419644 0.016433671 0.086823575 0.024789086 -0.03655955 -0.03716993 0.0028727292 0.030090861 -0.007297793 0.05745437 0.021212487 -0.090931736 -0.01077688 -0.09829317 -0.026633168 -0.023700574 -0.058377143 -0.027682004 0.10304365 0.034673583 0.024389405 0.1127557 -0.04863436 -0.06182025 0.016750759 -0.004306653 -0.0028115527 0.050996255 -0.027535534 0.0046358737 -0.02389371 -0.02644592 -0.03099887 -0.0052543846 0.012013634 0.044666417 0.039719805 -0.007715757 0.019123103 0.012711166 0.027398454 0.043882623 0.0060192654 -0.0078040133 -0.020004412 0.010627684 -0.010720416 -2.2968496e-05 -0.015822418 -0.016520962 0.03445973 0.026018126 -0.0075321393 0.06981135 0.042354695 -0.004239373 -0.07564444 0.0055846022 0.08629571 -0.0789134 -0.018853862 0.08983385 -0.04192875 0.030951409 -0.016600195 0.00805551 0.010407802 0.044790395 0.007070856 0.004775837 0.018628811 -0.015012357 0.057707474 -0.03094216 0.06159255 -0.00017579185 -0.0853852 -0.042333655 -0.10443663 0.031123241 0.0057495865 -0.0008074838 0.05667278 0.072931185 0.06161024 0.023024432 0.021144135 -0.01832621 0.014052885 -0.0057401387 -0.08809141 0.0017758966 0.02064813 0.021796223 0.06880956 0.04852221 0.07515913 -0.035522096 -0.0844269 0.009807272 0.0113792475 0.03035405 0.003083113 0.00982328 0.022231355 0.010466568 0.016083919 -0.0037896996 -0.024596704 -0.021364216 0.019100828 -0.020246059 -0.05756766 0.0065979217 0.0042328886 0.143471 -0.01349519 0.00940925 0.08488426 0.018123383 -0.021615582 -0.02123468 -0.046699204 0.049536966 -0.08317456 0.0028232597 0.080286026 -0.04483132 0.016391862 -0.031176828 -0.00034599847 0.022214916 0.04703485 -0.008644312 0.02403165 0.0025633236 -0.05564695 0.08018814 -0.031563822 0.035817012 5.6539317e-05 -0.03565798 -7.8186655e-05 -0.049286153 0.028315641 -0.02492803 -0.014679 0.0026366727 -0.031774327 0.10887202 0.07404716 0.15368675 -0.04283761 -0.12087139 -0.0483878 -0.06296529 0.005656104 -0.031504832 -0.037837043 0.026791096 0.0626642 0.08396386 0.029944623 -0.09474192 -0.02256834 0.005473207 0.009654766 0.030029189 0.030270036 -0.009920874 -0.010806429 0.059975974 0.027682947 -0.027102618 0.005818717 -0.021446573 0.0354374 -0.051356297 -0.006850275 0.007853204 0.14519943 -0.017569494 -0.024026537 0.10843442 -0.053542953 -0.05576043 0.017098323 -0.05162843 0.10194484 -0.09338062 -0.094605535 0.09405817 -0.054851122 0.075413935 -0.0295266 0.008938667 -0.018076915 0.03595875 -0.071353726 -0.012186866 0.07698929 -0.0062890407 0.037783105 -0.04122525 0.10204776 0.023499085 -0.06091554 0.015597459 -0.047135483 0.034989826 -0.0033343628 0.08129541 -0.024940534 0.06303225 0.04329969 -0.00934526 0.11248604 0.012130548 -0.020412913 0.017803483 -0.03379348 -0.115566894 -0.03239527 0.008533295 0.057763807 0.15863396 -0.015055771 0.007474658 -0.24471375 0.008128599 0.03192019 0.013883653 -0.009174841 0.057652615 -0.0045866286 0.027681256 0.06906366 0.015989145 -0.07053272 0.011566565 0.018597439 0.012682727 -0.06548057 -0.007494025 0.05913942 0.26985922 -0.012839777 0.07239397 0.036065705 -0.11080466 -0.32378742 -0.13486274 -0.08151951 0.029035235 -0.10798413 -0.1060441 0.24478687 -0.07861241 0.04443774 0.04516067 -0.0847659 -0.029051265 0.10502606 -0.030687472 0.0021590563 0.060077835 -0.016800504 0.0013190482 -0.05786633 0.11430107 0.04583811 -0.05102607 0.02086352 -0.10265987 0.07041129 0.02557013 0.08379392 0.08196522 0.023214862 0.04456547 -0.016912386 -0.055364627 -0.0965838 -0.027425531 -0.06332131 0.0026493247 -0.06481451 -0.018478766
0.0054818788 0.04612247 -0.080174394 -0.055213016 -0.001993775 0.03007941 0.011543381 0.021667298 -0.0052235583 0.022720132 0.011659966 -0.051817402 -0.14251922 0.090861216 0.09451602 0.024533067 0.015722666 -0.067027956 0.035055134 -0.0017811741 -0.09556265 0.0021307557 0.026469735 -0.0394064 -0.046884682 0.02526309 0.016749054 -0.004803907 0.009214166 -0.02175221 0.011624118 0.011417183 0.03487119 0.038939387 0.0056550847 0.04773708 0.058570642 0.007836216 0.0011599378 -0.044687312 -0.031407364 0.059082042 -0.043673895 0.039156944 -0.040273935 -0.003359372 -0.1265134 -0.0061611105 0.051578715 0.060400173 -0.015991896 0.052428845 0.0021068435 0.067455724 -0.02097954 -0.05346165 0.049000822 -0.026248787 -0.02741681 0.037475865 -0.07286904 0.003493467 -0.04943268 -0.056254465 -0.02439057 -0.01888963 0.03728182 -0.029642629 -0.00982979 -0.022847107 0.022449497 0.011115249 1.1725235e-05 -0.005885159 0.0062979464 -0.006936324 -0.049101356 -0.12306847 0.07024167 0.08308401 0.030861095 0.032676715 -0.019083966 0.03782359 0.015006263 -0.07455562 -0.014180085 0.021683443 -0.057304 -0.030251179 -0.013435349 0.0046402556 0.032525636 0.053357534 -0.0731824 -0.015567773 -0.0022322466 0.010991395 0.037206206 -0.0017957253 -0.0028943105 0.039193455 0.034009445 -0.0018974938 -0.049447786 -0.01301818 0.023894837 -0.024569107 0.039491218 -0.023120753 0.004236429 -0.12742071 -0.0065439353 0.090316854 0.058886737 -0.012404835 0.029583715 0.015744004 -0.016558954 -0.039535195 -0.041323606 0.01197116 0.036645517 0.00045094357 -0.005564092 -0.023570724 -0.052635517 -0.048734725 -0.022332922 0.00527539 -0.0116812475 0.07944764 -0.04152158 0.008790408 -0.059374776 -0.011302956 0.019493094 0.013844239 0.026125817 -0.002757736 0.021786055 -0.029726664 -0.14851394 0.119280316 0.054123543 0.047467075 0.02823118 -0.07206885 0.00470359 0.027134899 -0.09420424 0.04216892 0.04699084 -0.065727256 -0.040637694 0.001296129 0.00141247 0.050780445 0.032246932 -0.078140356 0.03429332 -0.020952133 0.00013517225 0.06702661 -0.021830274 0.029506618 0.017888358 0.037532695 0.019417133 -0.04496034 -0.0015763688 0.06383844 -0.06229753 0.029680712 0.0021525705 0.0054931776 -0.09031275 -0.0055406885 0.056504384 0.030612566 0.008903072 0.005932942 -0.008551865 0.088090695 0.009816854 0.0047229696 -0.006191805 -0.00873997 -0.022458648 0.033680912 0.010701728 -0.0017476204 -0.042832095 -0.05120692 0.060704306 -0.03522938 0.07580967 -0.006677058 -0.044397455 -0.06907313 0.028214736 0.018571917 0.00088828395 0.015125131 0.01232337 0.014918024 -0.054330606 -0.17500307 0.074512035 0.07690862 0.061306152 0.05297898 -0.060394205 0.04403911 0.006605728 -0.08883848 -0.00043709995 0.012011812 -0.038241252 -0.04754234 -0.03211365 0.02156234 0.018125517 0.030034862 -0.09174345 0.04039268 -0.019745305 0.0058097774 0.021648215 -0.030397104 0.015573441 -0.013639327 0.006193713 0.030184673 -0.039141517 0.0046150573 0.010488151 -0.05593458 0.02659533 -0.008851116 -0.00025797542 -0.09643728 0.015459627 0.07666597 0.031266525 0.021801658 0.02801998 -0.014628887 0.053713184 0.008351624 0.04875376 -0.0507764 -0.010278205 0.04419414 -0.0720329 0.051202584 0.026648642 -0.009469988 -0.011213802 -0.028244428 -0.061481737 0.10915216 0.006007294 -0.10845392 -0.023601696 0.066790976 0.014623868 -0.010136954 0.00076327496 0.028185409 0.006949679 -0.07038069 -0.1562818 0.08143929 0.06983492 0.046499465 0.06369211 -0.08555988 0.0056249104 0.045494124 -0.08363862 0.00829229 0.017606286 -0.052930064 -0.096208595 0.039262317 0.06876924 0.036504436 0.018854426 -0.040474605 0.0016814087 -0.004905777 0.007415863 0.06382806 -0.026072137 -0.011283607 -0.028533183 0.050960068 0.020054903 0.004152419 0.016256554 0.014633179 -0.044133436 0.03374782 0.02734031 0.013916075 -0.071688995 0.067096174 0.0655393 0.03713464 0.001717849 0.031788114 -0.028452761 -0.0128223095 -0.04869283 -0.0030781745 -0.029638063 -0.055244688 0.037999675 0.023784788 -0.013988318 -0.007626749 -0.027082771 -0.03861915 -0.0059322873 -0.08122683 0.08580943 -0.003639413 -0.06789609 -0.1004579 0.04606219 0.023874441 -0.023595732 -0.0044634566 -0.004141976 0.017493593 -0.059092373 -0.16166434 0.11352504 0.08709865 0.06077922 0.06291665 -0.06768459 0.016369715 0.02397166 -0.062373374 0.013282547 0.009143444 -0.10391051 -0.08733492 0.014518018 0.015742572 0.05726708 0.03514689 -0.08462673 -0.01075373 -0.024684707 0.033852454 0.03600069 -0.01400145 0.0025201805 -0.052117106 0.050850984 0.03843684 -0.018605424 0.00047252516 0.0025728012 -0.08228703 0.051962063 0.027307507 -0.0010002081 -0.09043129 0.030532846 0.0995665 0.038169894 0.03804983 0.051586896 0.013896132 0.018757567 0.0013207085 0.010045883 -0.027141465 -0.031120239 0.019588849 -0.0012446776 -0.04200209 0.0033421263 0.012134969 -0.032186627 0.007353552 -0.12983932 0.11218074 0.048013065 -0.11854975 -0.1157797 0.03498637 0.028246155 -0.0293648 -0.015510264 0.03674804 0.037026033 -0.08384421 -0.17939587 0.100672774 0.08496495 0.08215862 0.036432568 -0.056556776 0.05605973 0.034419272 -0.08795854 0.05622318 -0.010112931 -0.124183476 -0.12775934 0.028927108 -0.0036504536 0.09124235 0.066128224 -0.15640594 -0.020180654 0.014581941 0.033752136 0.016178496 -0.006183461 -0.023047725 -0.05555277 0.0012711989 0.027195616 0.019989382 0.0013719965 0.034950897 -0.07615907 0.015695605 0.012719939 -0.005176759 -0.044339642 0.071347766 0.089652345 0.019483384 -0.00018007206 0.04142304 -0.022801775 0.0059650606 0.039709408 0.021349164 -0.038929336 -0.08274211 0.028760387 0.04977164 -0.00585723 0.056996524 0.004823552 -0.060659606 0.08040769 -0.14368625 0.15025847 0.054415714 -0.07021971 -0.13912061 0.08530236 0.017356427 -0.033803526 0.028371265 0.00983607 0.0040813694 -0.0931515 -0.17595778 0.089873694 0.07529033 0.06979442 0.037946988 -0.0805672 0.024902226 0.009383517 -0.08914375 -0.0020064076 0.056103583 -0.100384876 -0.1715472 0.059602596 0.022348907 0.076559745 0.036115557 -0.17803353 0.0009311749 -0.048326842 0.048260573 -0.0419254 -0.002628925 -0.01219446 -0.0456732 0.009032758 0.04665471 0.0026123812 -0.012359809 0.05890782 -0.045859322 0.021600349 0.009827364 -0.013431614 -0.054623503 0.05980227 0.08406181 0.020426637 0.0076540885 0.038328737 -0.021429945 -0.014980343 0.052138507 0.0145792635 -0.10711016 -0.10140712 0.02158666 -0.011060453 0.044865716 0.04185802 0.021410905 -0.039413556 0.01155712 -0.11808854 0.15943852 0.04225144 -0.08583219 -0.15608308 -0.027984135 -0.011523775 -0.06078844 -0.022385702 0.018173007 0.036946345 -0.09770586 -0.1970812 0.1182137 0.0998336 0.07835338 0.054376084 -0.08552097 -0.004431277 0.009771934 -0.075506926 -0.0036052535 0.009385278 -0.13833821 -0.24351326 0.1353777 0.047147024 0.05210022 0.124435365 -0.22141919 -0.058373712 -0.030038524 0.086184636 -0.05124513 -0.0060666814 -0.025572946 -0.05714612 -0.0043740547 0.047298215 0.02934027 -0.030019118 0.098183826 0.012698757 -0.0103548225 0.039412733 0.0019343146 -0.018775698 0.013893709 0.06100364 0.041101385 0.033750094 0.008860187 -0.02079227 -0.060596205 0.09452872 -0.036358267 -0.12983918 -0.07896151 -0.034337215 -0.0071174894 0.007582138 0.030488014 0.076197274 -0.01811544 0.056985386 -0.13188556 0.22437201 -0.039750002 -0.021328622 -0.090700954 -0.14559132 -0.009294486 -0.03480775 -0.032426823 -8.194516e-05 -0.004630998 -0.09414377 -0.22364934 0.14515583 0.099946186 0.081014365 0.054722484 -0.10853989 -0.009116345 -0.014488937 -0.052807707 -0.022078363 -0.1798033 -0.056765437 -0.34127986 0.20125152 0.10051756 0.13022967 0.043112487 -0.33594757 -0.092752025 -0.041924164 0.122373514 -0.062367834 0.020124042 -0.058423873 -0.052427817 -0.03507993 0.04675643 -0.004572348 -0.07000626 0.15583596 0.08336776 -0.108006254 0.0765936 0.07128129 -0.016509164 0.021492064 0.061466604 0.022843745 0.056179512 0.008183679 -0.016730098 -0.16182986 0.060529392 -0.06970904 -0.2589913 -0.14526838 -0.03312227 0.025339445 -0.023921257 0.074191466 0.030981714 -0.006061998 0.16264683
0.065357685 0.02832048 0.010192226 -0.016290806 -0.04373476 -0.02881155 -0.079379655 -0.04890119 0.20051329 0.064067125 0.04289616 0.020136192 -0.040545046 0.010498626 0.011790139 -0.0017479842 -0.006409436 -0.021893833 -0.0053170496 -0.031267636 0.026759526 -0.029960528 0.04699874 0.017433329 0.02965994 -0.042681243 -0.018059801 0.041891817 -0.027334195 0.012703563 0.007267734 -4.7551268e-05 0.013873978 0.004709896 0.015809787 -0.014660701 -0.019288123 0.0025505763 0.041374028 0.040255513 -0.017244233 0.0015195156 -0.04239039 -0.00951588 0.031069942 -0.03817236 0.04013955 0.005449411 -0.019189822 -0.02230406 -0.040226087 0.022586636 0.007537512 -0.002893277 0.015319882 -0.023421742 0.02635998 0.062083688 0.072921626 0.003425555 0.017892873 -0.008077708 0.0013473692 -0.008278466 -0.019924352 0.048360314 0.027928866 0.014670737 0.007879286 0.025971036 0.009793778 -0.08893552 -0.10117541 0.18160145 0.055273023 0.030387318 -0.023938568 -0.002217095 -0.0016308641 0.032299206 -0.018035596 0.004087164 0.01008607 -0.028761357 0.009981203 -0.021563005 -0.0057552434 -0.02794164 0.034652982 0.028428486 -0.018915322 -0.052370537 -0.0043481085 -0.023869775 -0.038650904 -0.02991041 0.005185006 0.025888095 -0.030069891 0.00017584955 -0.011813063 -0.055711113 -0.01476452 0.048867974 0.03024503 0.0037820567 0.008736395 -0.04643235 0.019167561 0.0054662754 -0.01672092 0.036936503 0.004155018 0.014400861 -0.01509775 -0.019761775 0.020472055 -0.007477757 0.016454458 -0.030018654 0.06391326 -0.021900702 -0.0530083 -0.0255939 -0.008910003 -0.00088177755 0.03919485 -0.008834126 -0.02749905 0.0068468116 0.029030716 0.036763538 0.03435768 -0.026157502 -0.012657805 -0.013376237 -0.080451824 -0.13925233 0.20902368 0.04580164 0.009847834 -0.0027968362 0.007295094 0.004568292 0.021298194 -0.020766405 0.026512546 -0.025708636 -0.015680699 -0.0036175728 -0.025133949 0.014069134 0.010653868 0.024413038 0.021850346 0.0030753908 0.016051259 -0.032301836 0.03611202 -0.028629875 0.021701012 -0.015093661 0.013996786 0.019670168 -0.01213101 -0.02153332 -0.012471933 -0.011348785 0.02790027 0.0072322306 0.007550526 0.007040417 -0.0028001892 -0.038332924 0.048819844 -0.011044606 0.025898647 0.008742338 -0.03341199 -0.022532107 -0.01783533 0.02300257 -0.014220955 -0.004878996 0.016892899 -0.0110346135 -0.009438854 -0.02586916 0.07282202 -0.013945049 0.04116195 0.018095441 0.0070516462 0.0241733 -0.055030107 0.010215257 0.02997707 -0.005791219 0.011251184 -0.008380738 0.032683067 -0.06324028 -0.20481336 0.21601382 0.047338057 0.014414886 0.015890488 0.009332244 -0.01393717 -0.0025996347 0.0016263607 0.023401804 -0.02439338 -0.028392725 -0.004067426 0.011610649 -0.0017014818 -0.00155552 -0.021102197 0.036480315 -0.015880922 0.020246899 0.049828757 -0.012758343 -0.040784772 -0.049696054 0.02933527 -0.00049551704 -0.015651029 0.0008800353 -0.032438673 0.026246728 -0.010318111 0.023396024 0.017371532 0.017218938 0.04181089 0.025651744 -0.028017668 0.026744986 -0.009033132 0.010980274 0.007744487 -0.004742979 -0.01646746 -0.0024999753 0.0111775575 -0.0050223274 0.014978251 -0.111193635 -0.0010335321 -0.026788041 -0.049727406 -0.03606619 -0.06834839 -0.022833003 0.025107076 -0.008031267 -0.045856595 -0.0012490501 -0.0013701761 0.0013420664 -0.005484178 -0.022143327 -0.021272924 0.0637471 -0.115147166 -0.2878633 0.23282224 0.038343657 -0.002467321 0.0142462095 0.003030531 0.011537011 -0.0001539795 0.0022378133 0.017598275 -0.029785171 -0.030673914 -0.0023961875 0.012683211 -0.015814874 -0.012345634 0.020290699 0.020815529 0.033618543 -0.013087923 -0.0040485365 0.00010869791 -0.04523486 -0.004524789 0.013235463 0.031079654 0.0277429 0.0036026891 -0.018563544 0.014583771 0.01334144 0.019944418 0.021923352 0.0086412765 0.017849157 0.001994767 -0.0492002 0.019652901 -0.012914873 0.012002614 -0.0015297312 -0.0105596855 -0.013048444 0.012255998 0.0030446914 0.03287578 -0.004984791 0.045180034 -0.022669517 -0.028541557 -0.04451234 -0.059889346 0.017907027 0.008032011 -0.014350507 -0.008648872 0.035010386 0.040357213 0.012035777 0.0121388165 -0.021092441 -0.018349705 -0.013118313 -0.022408197 -0.118828356 -0.35865065 0.21580854 0.033390094 0.02807452 -0.006279648 -0.005745011 0.0164235 -0.02810453 -0.002889846 -0.0022488083 -0.020825582 -0.014096982 -0.028641857 0.003304002 0.011948085 -0.037696157 0.005349958 0.011604202 0.0024234457 -0.023324823 -0.02442503 0.028453777 -0.059379235 -0.01488414 -0.023256598 0.0030285283 0.020409113 0.023513405 -0.027327495 -0.0010361926 0.0005002751 -0.002730299 0.041364066 -0.026472136 0.018738067 -0.0042080255 -0.04471738 0.032235928 -0.011696763 0.044407222 0.0019932387 -0.012437359 0.010449905 -0.007840573 0.019127967 -0.0071047437 -0.023349093 -0.051610027 0.09982102 -0.03887794 0.024434365 -0.039597 -0.03637598 0.054278795 -0.018381102 -0.05811534 -0.030855952 0.018037932 0.01579761 0.018616414 0.0043832487 -0.08784299 0.0133672925 0.040157452 -0.11641471 -0.4437874 0.21498935 0.039571185 -0.009291056 0.0019120517 -0.003430581 -0.008966264 -0.021197679 -0.014000412 0.00815973 -0.00038450345 -0.024755925 -0.010314821 0.015609707 -0.0004053871 0.005086604 0.030565761 -0.0055333884 -0.029707322 0.0017330506 -0.007951123 -0.037423454 -7.1959286e-05 -0.007499837 -0.039100986 -0.043500576 0.003572483 0.026010755 -0.031777333 -0.002372914 0.04630592 0.009950391 0.020443039 -0.022064658 0.009631587 0.011196661 -0.04966625 0.008205465 -0.017630571 -0.013146081 -0.0045479834 0.002437035 0.0024094607 0.020310408 0.0044090073 -0.00058665645 0.030696314 -0.051884916 0.0384771 -0.055676877 -0.039553963 -0.018095456 -0.022891128 0.0077521293 0.010229662 -0.010956157 -0.03200393 -0.002099921 -0.010589488 0.006761201 -0.0064704893 -0.09831822 -0.011505797 0.011156988 -0.12760781 -0.58638257 0.18955153 0.06482922 0.005823876 -0.010848816 -0.0319982 0.014841711 0.0051748673 0.001696622 0.0055248314 0.014527814 0.0047609825 -0.00092957553 0.010011334 0.009192346 0.08275382 -0.025084877 -0.008986771 -0.033256836 -0.02085717 -0.014102618 -0.04843497 -0.0061680465 0.002759352 -0.039387718 -0.01446474 -0.024389124 0.021007607 0.00012712728 -0.0078046056 0.04702874 0.019028576 -0.000748309 0.0093072625 -0.03254971 0.019157527 -0.021678617 0.053479664 -0.012368132 -0.012749371 0.025657464 0.003885087 0.030291127 -0.010229088 -0.0094577735 0.02657659 0.06541513 -0.04881438 -0.012398965 -0.03617346 -0.027033646 -0.027473753 0.0021404198 0.024129694 0.02186949 0.00049858855 -0.020090908 -0.017652502 -0.01804256 0.023413172 -0.0019762411 -0.20400988 -0.013325327 -0.017362459 -0.1516825 -0.7338865 0.21220446 0.06822053 0.026211793 -0.011144392 -0.024588559 0.021183202 0.017497547 0.0010275366 -0.011374705 0.009412294 -0.0025980994 0.0006147898 -0.0256511 -0.0046153814 -0.003244007 0.050146207 -0.06720007 0.0005703195 -0.029334448 -0.037618294 -0.050474457 0.034975965 0.02481014 -0.06184664 -0.028739342 -0.024079198 0.006432668 -0.009432361 0.041834503 -0.006076984 0.026198708 0.012044794 0.028708033 -0.029339211 -0.010066868 -0.0342418 0.03751396 -0.010698907 0.02586735 -0.006399278 0.03573167 0.07096558 0.028024556 0.012436525 -0.025352819 -0.038816236 -0.05980567 0.039312586 -0.038634542 -0.07294437 -0.019094722 -0.07843541 0.00096387055 0.035777412 -0.02398878 0.004216541 -0.051422875 -0.012951459 -0.0044237603 0.0024502059 -0.4058255 -0.00040351946 -0.041870445 -0.19835187 -0.9863775 0.1798399 0.04769283 0.015388063 -0.017317954 -0.030126842 0.010549802 -0.018836005 0.007637218 -0.017026972 -0.0045059756 0.0067736288 -0.021308701 -0.010708664 0.011738744 0.120936915 0.16301359 -0.15937974 0.058950502 0.011615905 0.110974714 -0.01952891 0.12458306 0.010053603 -0.040515542 -0.09125675 -0.035569035 0.0033425349 -0.04674431 0.053895652 -0.0167928 0.04021682 0.013578766 0.029218294 -0.08999365 -0.050190616 0.022030706 0.0735247 -0.0062585846 0.008872151 0.018490668 0.03473919 0.043351185 0.022887075 0.0024245768 -0.00087894197 0.028370693 0.027101822 -0.034645885 0.016433198 -0.029963244 -0.007066385 -0.014115098 0.11441825 0.03174591 0.008721095 -0.04954735 -0.06254831
0.038368866 0.030967124 0.0608372 -0.055547483 0.04865613 -0.019980818 0.016564537 -0.048554752 -0.0054328176 0.008207478 -0.022286732 0.07505185 -0.020299722 0.016072886 -0.02778389 -0.06285539 -0.039085153 -0.0020327915 -0.022332093 -0.013745805 -0.014961068 0.019879842 0.06236875 0.022957947 0.00092037884 0.0445013 0.012603594 -0.07055339 -0.036740083 0.09103842 -0.015398294 0.033919316 0.044313475 -0.04869727 -0.046489693 -0.019426228 -0.032055173 -0.024008038 0.013476246 0.02315579 -0.014382122 -0.030193582 0.06394176 -0.011329568 -0.015122546 -0.041305795 -0.071566686 -0.008886905 0.029787745 -0.050729748 0.01119438 0.039645936 -0.011604576 -0.03126372 -0.012860839 0.0915749 -0.032620728 -0.08851594 0.017543526 0.09076933 0.051018655 -0.026286822 0.058655713 -0.00603747 -0.09404261 0.007156565 0.08089524 0.07542303 0.00036701496 0.032026205 0.081414744 -0.01027745 -0.05101301 0.029260853 -0.018053424 -0.010109557 0.07475396 -0.009456117 0.02659376 0.023920162 -0.0889561 -0.017323395 0.0069251005 -0.03948546 -0.0036852297 0.01532622 0.02183681 0.08530052 -0.013259795 0.048120193 0.021151368 0.0384478 -0.037885442 -0.031149095 0.047092568 -0.057713963 0.0044177664 0.010060907 -0.060296398 -0.026783533 -0.010644367 -0.0010835921 -0.0071777753 -0.01253323 -0.009442975 -0.037743025 -0.009964355 0.06610019 0.034202073 -0.011173466 -0.048424736 -0.005375548 0.0016485316 0.024159266 -0.037342355 -0.007486362 0.08243359 0.01107918 -0.054540917 -0.03762393 0.062180676 -0.061612576 -0.009352504 -0.007873565 -0.016165068 0.057946254 0.015715282 0.03663789 0.050669197 -0.08711 0.05565057 0.060528632 -0.0085367905 -0.13217367 -0.013625068 0.0076970956 0.018687999 -0.03165128 -0.010767535 0.0063197147 0.0023956595 0.05366774 -0.012302018 -0.019405974 -0.004461592 -0.04435133 -0.028569605 0.008792997 -0.025719175 0.025914585 0.0075077335 0.029584063 0.13718262 -0.006099256 0.033014916 0.045004737 -0.00036251973 0.005229594 -0.09266357 0.07295124 -0.03331494 -0.04578373 -0.03531568 -0.04410271 -0.02711363 -0.009963722 0.031339765 -0.041047804 0.016724948 0.006662723 -0.010184218 -0.010301508 0.0701079 0.024609929 0.0016674352 -0.08972455 -0.008331339 0.015697423 0.04284199 -0.0576864 -0.014624096 0.0891031 -0.005311269 -0.0019510818 0.0051139886 0.010075067 -0.013321708 -0.06020724 -0.029178483 -0.06281668 0.042776737 -0.118286245 0.0090727005 -0.03903863 -0.08315842 0.062886156 0.06595188 0.03461134 -0.02656303 0.009903413 0.02436974 0.04176563 -0.03399468 0.0014670261 -0.026582751 0.0026872521 0.062101766 0.015454483 -0.012052089 0.029416183 -0.073908724 -0.0376717 -0.025939045 -0.041135307 0.004658785 0.02779842 0.04077644 0.1426009 -0.033446778 0.038545247 0.026891734 0.04129142 0.017720489 -0.06826306 -0.025377365 -0.050493922 -0.053947292 0.002884372 -0.024967812 -0.059902288 -0.0037409172 -0.0006934848 -0.05422214 -0.0052846624 -0.0021039038 -0.024031796 0.0028635256 0.028303681 0.055249758 0.01907864 -0.07920027 -0.014186086 0.016918618 0.007408371 -0.015990522 0.0070717614 0.047025163 0.015471248 -0.061282497 -0.01917928 0.07925447 0.0011705456 -0.077473484 -0.0004626742 0.041640084 0.087156475 -0.09477147 0.03375881 -0.0033154294 0.026953679 0.047220413 0.06584897 0.07174605 -0.019100247 0.060024988 -0.031949714 0.050417326 -0.0479852 0.007840312 -0.038616296 0.021455552 0.04512893 0.0047513535 0.00024200909 -0.012418019 -0.061305285 -0.06349728 0.01642822 -0.04435811 0.00019669156 0.01883509 0.036992837 0.097378574 0.009166043 0.07121954 0.013411491 -0.04203151 -0.07745047 -0.03459562 0.06383273 -0.04557757 -0.018906863 0.0044260337 -0.041903 -0.024964385 0.0009476396 0.016623043 -0.08517585 -0.027491586 -0.0048249294 -0.0033717377 0.0401003 0.008491108 0.08637305 0.028341383 -0.044506736 -0.05804223 -0.004789166 0.048916753 -0.026742557 -0.0102866925 0.07984012 -0.017141191 -0.02199602 -0.041501436 -0.014009287 -0.048420038 -0.058375612 -0.09003135 0.021347998 0.08535595 -0.049723484 -0.017240426 0.029446157 -0.12802559 0.06198794 0.074045695 0.04170139 -0.036208346 0.010476704 0.0047142906 0.039449383 -0.035679873 -0.0036889974 -0.031202866 0.036616296 0.054476388 -0.030713223 0.007968232 -0.013245348 -0.09653061 -0.03226691 0.008516313 -0.07067888 0.009609063 0.0080266865 0.016433142 0.1510733 -0.010795889 0.1107492 0.025952168 -0.02040003 -0.04093151 -0.084899366 -0.0003371884 -0.054156445 0.004426185 0.0009726004 -0.022055166 0.005313697 0.02970142 0.07222693 -0.08404652 -0.05841642 -0.036644917 -0.0021971653 0.023389164 0.017108364 0.07485335 0.055641368 -0.0446662 -0.009200382 0.025775574 0.06332033 0.010576863 -0.018217739 0.07250237 -0.012379307 0.0631651 -0.06266693 0.045038037 -0.02789765 -0.044820573 -0.02956513 -0.044012725 0.05203807 -0.05846736 -0.013552556 0.015422987 -0.06809493 0.033840716 0.120797336 0.0447614 -0.09058923 0.009208025 0.01081671 0.03008736 -0.018217864 -0.016996475 -0.020649709 0.03660542 0.062234472 -0.007628083 0.017151311 -0.025812248 -0.093247324 -0.07071171 -0.018222807 -0.07391434 -0.016612763 0.027063796 -0.00051922427 0.20557682 -0.013533507 0.07543706 0.07423314 -0.050433148 -0.041648135 -0.0755846 0.055705182 -0.0697335 -0.0030322282 0.009570064 0.03431684 -0.035951316 0.04931802 0.008039698 -0.11040796 -0.059238024 -0.032742053 0.008754385 0.0094104335 0.030010777 0.045737036 0.07004226 -0.072808705 -0.018864777 0.017467584 0.055520426 -0.010780175 -0.017431803 0.063714474 -0.019015308 -0.044498734 -0.011540039 0.019568123 0.046263766 -0.037712466 0.061133225 -0.010099833 0.13813895 -0.017766992 0.036029696 0.015098402 -0.1429131 0.046967883 0.11660285 0.04690922 -0.09394318 0.033728585 0.025764104 0.035340663 -0.033323 0.016202945 0.0064685 0.04628764 0.07947029 0.0368093 0.019962525 0.008408632 -0.055612646 -0.06683419 -0.0016816275 -0.069841966 0.024301937 0.002065281 0.008615908 0.20783329 -0.036145862 0.06283352 0.09355468 -0.035098642 0.040598758 0.002624616 0.011951543 -0.083006985 0.0055681495 0.021793911 0.037264545 -0.06610256 0.048160393 0.005471741 -0.10663274 -0.057170033 -0.031169038 0.004997738 -0.02907722 0.03934185 0.019798808 0.09002169 -0.04806029 -0.022958713 0.037675567 0.05407473 -0.010931024 0.020724878 0.08751587 0.019049488 0.048642006 -0.00045508074 0.07182858 0.05682634 0.0065104063 -0.026099972 -0.053291664 0.01901918 -0.017967265 0.004794511 0.013695681 -0.05548502 0.07720917 0.110028304 -0.03331798 -0.07072511 -0.036868416 0.056781627 0.055109743 -0.029308824 -0.0024938404 -0.008251868 0.08013845 0.07912421 0.033198092 0.0026335304 -0.01978799 -0.07771094 -0.08380074 0.0015807272 -0.067040496 0.015687637 0.038639303 0.026049241 0.19564173 -0.011355314 -0.010539965 0.16976823 0.03456926 -0.007916914 -0.013090909 -0.099208355 -0.073003806 0.065494485 0.007626112 -0.03198799 -0.1027667 0.0545346 -0.012089516 -0.0675716 -0.0260171 0.015584993 -0.012812282 0.019424897 0.040744137 0.07243173 0.042639516 -0.038571108 -0.026488833 0.08554966 0.07244343 -0.012138016 -0.0057518296 0.07156242 -0.0114563685 -0.027473731 -0.0053460184 0.04774463 0.1029955 -0.07024067 -0.026187347 0.04420393 0.03806566 0.052046083 0.011195461 0.041236505 -0.16468546 0.031813364 0.1121981 -0.07417409 0.13123575 0.018076312 0.0045990706 0.06902101 -0.03244553 0.02219897 -0.018252386 0.0871742 0.041262515 -0.019622134 0.00095486833 0.035774596 -0.09892744 -0.071123965 -0.032393306 -0.043147895 0.008032893 0.020380028 -0.017895319 0.3586573 -0.09680273 -0.06664012 0.14456387 0.18842943 -0.07482226 0.08568994 -0.11160214 -0.18945117 0.11482907 -0.051525325 -0.06628237 -0.1433835 0.07144304 -0.07877695 -0.017357152 -0.143776 0.008794413 -0.027770227 0.018841004 0.058215853 0.02482132 0.056810006 -0.027285576 -0.0019157627 0.077099614 0.09180973 0.013870299 0.018696772 0.06253006 0.005248682 -0.056071226 -0.07421172 -0.12717003 -0.028108528 0.022473894 0.004231933 0.1670216 0.036286112 -0.031240176 0.06862735 -0.058958754 -0.13722263
0.018486293 -0.015611419 0.011351725 0.08907154 0.002813579 0.021759624 0.0031825488 0.008447719 0.0134410495 0.024419902 0.021648616 -0.11298343 -0.017993249 0.0116787795 -0.034063652 0.061946366 -0.051970057 -0.029652817 -0.018093036 0.031336483 -0.01025289 -0.016546844 0.024700476 -0.017071942 0.02959326 -0.025737254 -0.030788207 -0.014508772 0.026009375 0.010812682 0.04249992 -0.031439655 -0.07133875 -0.033675898 -0.043924693 0.0058217584 -0.059081793 0.026409252 0.03979148 -0.016256632 -0.0030045148 0.0044802316 -0.0085759135 0.009516168 0.030829662 0.03055674 -0.022758568 -0.011427277 -0.005538095 0.022266753 -0.018093633 -0.025797905 -0.0052779857 0.044109203 -0.0026008661 -0.03532732 -0.02951116 0.018214267 0.04022328 -0.020953106 0.02394501 -0.028945481 0.04296173 0.029949732 -0.039202496 -0.03792834 -0.038094513 -0.010400328 0.033461574 0.059883967 0.04035535 0.0038030073 -0.0063078864 0.025293589 0.00628313 -0.021834427 -0.098206975 -0.02243789 -0.036512803 -0.026892003 0.06960169 -0.034215372 0.010925854 -0.018426163 0.021167831 -0.019287474 0.0073215966 0.052146275 -0.03906933 0.023761155 -0.031551987 0.0428386 -0.050181337 -0.013733411 -0.01902962 -0.006707264 -0.037620652 0.016726587 0.02973465 -0.01933325 0.027978795 -0.04086892 0.0420889 0.031889144 0.031066088 -0.0008475054 0.028865512 -0.014590643 -0.008539218 0.022773763 0.030070962 -0.027243432 0.0076213507 0.023870204 -0.048789613 -0.01921452 0.011663625 0.027927252 -0.017305402 -6.145662e-05 0.07815876 0.032876108 0.03601481 0.03237889 -0.008287527 -0.017630441 0.06148885 0.018229004 0.029292027 0.025793865 0.01517052 -0.021430245 -0.026751842 0.029571263 -0.07833944 0.046194144 0.008876466 0.010198994 -0.011836759 0.012502886 -0.004914909 -0.109553084 0.015830763 -0.03278122 0.008560112 0.09130323 0.008538176 0.022641381 -0.028490042 -0.009891809 -0.007952379 -0.017423661 -0.062517405 0.027355969 0.021560872 -0.034015734 0.0024048183 -0.0016068154 0.042538717 0.0040641646 0.008702449 -0.008614843 0.018882036 -0.053976692 -0.03667308 0.010477783 -0.014864564 0.018944245 0.0023417757 0.026381277 0.037441652 -0.016568245 -0.017875768 0.00671732 0.047475867 0.0053446465 -0.009535495 0.030431269 0.007044725 -0.030486256 0.016298102 -0.0048401286 0.0052456623 0.0069316467 0.008505358 -0.047726627 0.020082287 0.09200606 0.03901716 -0.04905757 -0.0096837375 0.059026826 0.08567185 -0.017681196 -0.025104659 0.020142369 -0.008339402 -0.021414153 0.016282756 0.039669674 -0.0229508 0.030331535 -0.005997576 -0.00594972 0.01098553 0.014844658 -0.09010857 0.019665541 -0.03533201 -0.02771739 0.087468565 -0.021279005 0.02443237 0.0061497097 0.011460415 0.017749287 -0.0036933806 -0.01490316 -0.03237021 0.040242575 -0.059284873 -0.013754052 0.049743976 0.09243355 0.0031225572 0.013626397 -0.028357796 0.032590885 0.05590994 -0.035522573 0.056415252 -0.0010028858 0.014313306 0.011017722 -0.0047609853 0.041801553 0.018392865 -0.025999002 0.030422557 0.009035016 0.005747185 0.00026179547 -0.021792734 0.016504921 -0.029773723 -0.0016744031 0.038042255 -0.00325916 -0.04641799 0.06333808 -0.015068233 -0.018216815 0.056619037 -0.045512248 0.007284447 0.058919717 0.011713705 -0.0035290616 0.091655776 0.036990695 0.037610255 0.019799735 -0.001630756 0.11409816 0.029969843 0.0058448487 0.028223706 0.004759889 0.016971236 0.024977643 -0.0155979525 -0.08384232 -0.0067586894 -0.0072477087 -0.048845667 0.07597412 0.0058567533 0.027258642 0.004693596 -0.0056999284 -0.0002907161 -0.028730553 -0.07521916 -0.090375 0.0443474 -0.03355348 -0.026941424 0.049424686 0.026703225 -0.015259062 0.030101119 -0.018716877 -0.0064542023 0.04197636 -0.019186268 0.05332816 -0.0039661317 0.009413294 0.043227486 0.012118195 0.0039025946 0.027348496 0.0028636297 0.0040074075 -0.002685348 0.020762928 -0.029693145 -0.028827187 0.03163969 -0.014720272 -0.029881638 -0.027204055 0.0017850937 0.031774484 0.0189839 0.00186178 -0.013992145 0.026637452 -0.025486177 0.045971744 0.018549874 0.01133586 0.0058551393 -0.013888173 -0.04492057 0.03362838 0.023655036 -0.030628882 0.12494194 0.01520925 0.010195878 0.01577285 0.01944709 0.01850891 0.027811177 -0.01567232 -0.1302632 0.020861337 -0.060312875 -0.046771307 0.07639557 0.020549363 0.029954027 -0.04704177 -0.026777927 0.013697101 -0.00117285 0.02697403 -0.09936756 0.0434287 -0.028976904 -0.067430735 0.04678356 -0.036240693 -0.032317378 -0.0144057255 -0.029975697 -0.034966834 -0.007091779 -0.008888593 0.07574714 0.013674166 0.027624095 0.035835125 0.047276944 0.05112512 0.0371547 -0.058384575 0.015065573 0.010079185 -0.014256357 0.02401522 0.017380374 -0.014638812 -0.0027092074 -0.0012730123 0.020686684 6.0442704e-05 0.058251522 0.019428724 0.034698118 0.04170183 -0.013199867 -0.027441561 0.007016389 0.025157342 -0.045594137 0.062471237 -0.019690732 -0.051504914 0.025465298 0.08204028 -0.060167614 0.06682413 -0.034973174 0.114537485 0.034533404 -0.026543196 0.013469411 0.020241704 -0.01576523 -0.1453523 0.0077478494 -0.05270661 -0.047961716 0.07510672 -0.008655723 0.005614185 -0.024598118 0.002925848 -0.028671307 0.011145624 0.0452968 -0.046736497 0.08861378 -0.035238717 -0.08091731 -0.006999696 -0.029853787 -0.020167528 -0.0056533637 -0.01531337 -0.028625729 0.00990628 -0.024257936 0.032311365 0.0243464 -0.00044081447 0.012884794 0.031270906 0.06106209 -0.014774527 -0.030176952 0.018930102 0.018006628 -0.032325517 -0.029186847 0.027947886 -0.0010731005 0.0015516276 -0.029327024 0.019139428 0.028214192 -0.043275468 0.08109655 0.11352263 0.0148844905 0.019015143 -0.04684577 -0.015318723 0.046184592 0.019645596 -0.005924476 0.010250023 -0.04529343 0.03242795 0.11730002 -0.1319064 0.07816092 -0.06169577 0.0038392136 0.059089612 -0.027256273 0.040760074 0.038558517 -0.0127763 -0.098554134 0.03694541 -0.036759116 -0.065835916 0.091907285 -0.023002941 0.00445101 -0.02776622 0.004775684 -0.0096057905 -0.0127663845 0.012386732 -0.135175 0.13126089 0.0014492269 -0.037586957 -0.01148146 0.064162165 0.01589443 -0.016742053 -0.046799585 -0.02264167 0.032269504 -0.01362695 0.025991103 0.048381124 -0.0080635175 0.02899708 0.056027703 0.030120388 -0.024228271 -0.048069913 0.02710671 0.012443673 -0.029585816 -0.034757704 0.016790247 0.049013272 0.0006270981 0.004647437 -0.021994524 0.0074031358 0.038886074 0.047622368 0.0535157 0.082426675 0.013539855 0.036980607 0.016569832 0.035774965 -0.1784857 -0.08835142 -0.14853004 -0.0767399 0.016583862 0.12003746 -0.16540967 0.068842724 -0.093539245 0.007045321 0.03752345 -0.040841907 0.010239322 0.040455896 0.0049453275 -0.1572987 0.050541185 -0.03551206 -0.0754791 0.10779821 0.05089518 0.030580172 -0.0466198 -0.03280883 -0.005516864 -0.006715776 -0.05176924 -0.17877206 0.08880672 0.017574066 -0.030435607 0.06737499 0.10498789 0.048740763 -0.055087425 -0.059845198 -0.01499565 0.031777598 -0.011495869 0.029630225 0.024439752 -0.04455648 0.05795251 0.07389994 -0.0074149757 -0.084434785 -0.04091361 0.0296961 0.08490203 -0.0035692372 -0.048636008 0.043297093 0.024110923 -0.003255552 0.0032208443 -0.050788287 0.0042972136 0.057898276 0.05305729 0.028370894 -0.0054374044 0.053297993 0.06469507 -0.015947921 0.08518636 -0.14490737 -0.029588431 -0.11506964 -0.10786212 0.014819597 0.19740175 -0.109908104 0.31425235 -0.067829445 0.13103963 0.0931282 -0.0031059417 0.0013011671 0.016777214 -0.05052603 -0.163036 0.032095544 -0.016975766 -0.04567913 0.11141633 0.06455138 0.025452372 -0.007291612 -0.028989479 -0.018976033 0.0024374435 -0.13209043 -0.49345845 0.028195502 0.11760867 -0.09036066 0.16340058 0.334277 0.015941389 -0.072348855 -0.01603015 0.042122316 0.005402843 -0.015229558 0.13610981 0.028959233 -0.013574677 0.05349674 0.061603975 -0.08798308 -0.14596042 -0.018643972 0.0032594649 0.06811188 0.060613107 -0.06610208 0.029752158 -0.011211392 -0.027059874 0.0024811788 -0.0856258 0.01587309 -0.14884178 0.016549857 0.08521618 -0.052461796 -0.0655026 0.008232531 0.01833954 -0.0049193054 -0.08776089 -0.015780428 -0.07248551 -0.15631172
-0.069154635 0.004770632 0.019190881 0.0034243509 -0.033093892 0.039283115 -0.01738198 -0.012589641 -0.011156606 0.020492492 0.041270807 -0.029136337 -0.03523298 -0.010117003 0.044518832 0.038076125 0.044762585 0.015926164 -0.047078185 0.020406393 -0.030860709 -0.005747416 -0.019172266 -0.04992047 0.06601046 -0.042386558 0.04270401 0.013783979 0.04931662 -0.026307251 0.028238038 0.016252419 0.047205172 0.023956696 -0.004153327 -0.04080562 -0.049285524 0.019089306 -0.02509226 -0.050978392 0.0137274405 -0.0044914153 -0.08567462 0.061049566 -0.021426328 -0.029911587 0.062749036 -0.00095393445 -0.076431274 -0.10714854 -0.038809992 -0.05498467 0.068748996 -0.018565448 -0.030294517 -0.02666554 0.07449479 -0.058605995 -0.0013601739 0.048405793 -0.018649457 0.027980398 0.068314105 -0.031951457 -0.012484967 -0.042436026 -0.008555568 -0.017093295 0.024418913 -0.02316865 0.03412226 -0.008577996 -0.05086317 -0.0033647371 0.031980027 -0.000112059446 -0.03155943 -0.032469075 -0.0069074756 0.07020651 0.06330546 0.02565995 -0.015024536 -0.037760656 0.021590423 0.0003410159 -0.013211704 -0.02787876 -0.021518096 0.06769589 -0.029798886 0.0124193095 -0.088117875 0.0013266475 -0.058746018 0.0069853114 -0.025258759 0.06964733 -0.03009696 -0.008618331 -0.06385838 -0.022830132 0.0249897 -0.0068659303 -0.02814168 0.024899034 0.00829674 -0.08988754 0.05825944 -0.03699746 -0.012215823 0.05787076 -0.042501476 -0.041785486 -0.024833316 -0.058831427 -0.001300804 0.076460935 0.00881665 -0.0068572406 0.013761354 0.008446287 -0.019517465 0.020508425 0.035105668 -0.012119361 0.028548982 0.020294009 0.012444482 -0.022282789 -0.0404323 -0.021511968 0.01688636 0.0057321936 0.07336827 0.02216248 -0.05601247 -0.010614214 0.022290347 0.008844569 -0.007842474 -0.03409047 0.002495619 -0.0058002295 0.036459103 0.04719124 0.03247316 0.020370813 -0.024924917 0.004929916 -0.019722644 -0.019990385 -0.041050673 -0.030727776 0.046475083 -0.031221053 0.0067042946 0.033051867 0.07809812 0.02593583 0.008358175 0.000553082 -0.011681047 -0.016145024 -0.023082929 -0.046260245 0.015444732 0.009085324 -0.011316334 -0.018084202 0.031248275 0.016719406 -0.08118559 0.056459017 -0.018966163 0.009794552 0.009911262 -0.004931932 -0.052814 -0.02223242 0.00036652622 -0.035136633 0.044352464 -0.013170935 -0.0792481 0.02282394 0.012442723 0.0390296 0.078053206 0.014002493 -0.007275588 0.024119208 0.0052905385 0.0016067001 0.05520664 -0.102013186 0.0066764536 0.05899804 0.03925569 0.08610118 0.050094184 -0.025627168 -0.03468223 -0.002000899 6.148665e-05 -0.010806619 -0.053554375 -0.02960612 -0.021383682 0.05085629 0.065831 0.048029914 0.010609958 0.0018127045 0.039789192 -0.018476443 -0.0024986889 -0.054593343 -0.03108073 -0.024381103 -0.025950838 -0.0013435165 -0.098211646 -0.03780378 -0.00587917 0.01837452 0.0038013188 -0.02563321 -0.012441784 -0.05576531 -0.05116959 0.0057487884 0.023538774 -0.015957542 -0.018327031 0.032879155 -0.025185801 -0.07081788 0.026829263 -0.002775855 0.052656878 0.0031236499 -0.044426978 -0.03446554 -0.037236717 0.049646743 0.0035747634 0.07794889 -0.08307671 0.022001462 0.030489173 0.026163626 0.046367135 -0.060041748 -0.012185833 0.066357486 0.0051622405 -0.012930681 -0.10193801 -0.0021308071 -0.07404 0.014502463 0.047534626 0.018198818 0.029260539 0.009934079 -0.04950621 0.007090899 0.011445232 0.0026397891 -0.0065340535 -0.034830734 0.0059626605 0.0034061142 0.018899256 0.0075961156 0.068215944 -0.01740927 -0.0055299434 0.0038013584 -0.0067984536 0.0027291824 0.0034067964 -0.0024036681 0.012524596 -0.011928549 0.01887295 -0.014801856 -0.042521458 0.0015724606 0.09700137 -0.013884115 -0.041643422 0.0787879 -0.060822964 -0.041915923 -0.014969779 0.024143523 -0.032777328 -0.0018121836 0.075941384 0.014047027 -0.031442672 0.015893092 0.040674515 -0.01089745 0.026573336 -0.071522534 -0.0017793291 -0.01925372 0.012387121 -0.0021877012 0.08259283 -0.0073895664 -0.023919402 0.054990426 0.004360075 -0.01163382 0.09476652 0.034131754 -0.05563454 0.06388197 0.052781638 0.08995142 -0.021901144 -0.069774434 -0.0026160022 -0.026387729 -0.008173913 -0.0020423392 -0.022072058 -0.037092518 -0.0059716324 -0.015742585 0.008751298 0.020096034 -0.015302714 -0.031860452 -0.048383504 0.027765835 0.064832054 0.030993655 0.0016936837 -0.00078564195 0.0059013 -0.028602554 0.017237978 0.071365036 -0.01615785 0.082049236 -0.014065324 -0.0009271503 0.011481715 0.08728849 -0.037427876 0.10136914 -0.012714906 -0.029633258 0.04567501 -0.11565252 -0.08966708 -0.0036576034 -0.018327888 -0.005206736 -0.0047980417 0.06560749 -0.027754448 -0.02781176 -0.028057901 0.018986663 -0.0018772816 0.0070241787 -0.030028624 0.027414298 -0.03665188 0.019058665 -0.002234101 0.05305078 0.058631573 -0.08052822 -0.01224294 -0.02385667 -0.08604842 -0.04181848 0.045023054 0.10998129 0.0037437638 0.033547953 -0.0332554 0.03732926 -0.061722957 0.027797546 -0.015505525 -0.06998301 0.04310975 0.05752597 -0.061280366 0.048747342 -0.011393066 0.046223525 0.024946181 -0.03821671 -0.023258844 -0.028967831 0.029318253 0.02237538 0.034400344 -0.028757073 0.030146485 -0.0065695643 -0.030340996 0.019173509 -0.0068090833 0.0656818 0.08422796 0.015070642 -0.004584266 -0.024328468 0.034136143 -0.004483179 0.13316672 0.032216236 -0.015304978 0.045026258 -0.12511118 -0.06869015 -0.0015462541 0.004688065 -0.031488173 0.033234935 0.06174321 -0.037352122 -0.010536766 0.016696643 -0.048337895 0.0047212127 0.024683272 -0.028314557 0.043225136 0.02647303 0.030260935 0.00752568 0.049546555 -0.031811953 0.021911236 0.027804159 0.023182033 0.11522969 -0.0054713646 -0.017709695 0.1337202 0.047295675 0.036906123 0.075186364 -0.006710929 -0.10318267 0.016766356 0.017762411 0.04751602 0.034642298 -0.02367085 -0.052554827 0.021256607 -0.008495098 0.041805 0.01775494 -0.045195494 -0.037472725 -0.0017928116 0.020347064 0.019995896 0.047419686 -0.017885465 0.02741924 0.042024806 -0.03465411 0.023757586 -0.14220767 -0.005966371 0.09785078 -0.00627545 0.050733957 -0.04622822 0.05502671 -0.03147866 0.10338133 0.032849487 -0.058424965 0.0011635175 -0.13860843 -0.043961488 -0.04165165 -0.034515668 0.008837855 -0.0006333141 0.051190697 -0.047747 0.016592858 -0.05298213 -0.020353418 0.01583701 -0.038067337 -0.025425369 0.033483524 0.038704295 0.07237118 0.068902805 0.0405219 -0.018838672 -0.077532694 -0.017554458 -0.008657527 0.005106588 0.008211834 0.02129506 0.014032891 0.072535895 -0.0056702453 0.0015592168 0.010351891 -0.1059387 0.042701893 -0.04465997 0.04306828 0.01631979 -0.11722524 -0.030326806 0.02953967 0.013298005 0.015285583 -0.028842254 -0.008044891 -0.0075510354 -0.0029799696 0.03357945 0.04627843 0.036998585 -0.022693694 0.042323194 0.025446447 -0.04001266 0.014364414 -0.113861635 0.05010786 0.10420735 0.012374419 0.06571328 -0.00878277 0.021663692 -0.12206106 0.13525833 0.058127467 -0.20660985 -0.015933558 -0.11258874 -0.06254651 -0.03146514 -0.0002210113 0.027010294 0.042099994 0.11471424 -0.057857115 0.09863917 -0.0901611 -0.06746506 0.025852514 -0.085232474 -0.019105945 0.094041824 0.07579923 0.03529265 0.13266289 0.028356845 -0.013623201 0.012664678 -0.035301365 -0.011509871 0.050318073 -0.04441174 -0.02113133 0.08288047 0.08881318 0.07154895 0.027242346 0.02236004 -0.09066448 0.016796734 -0.040711302 0.14705984 0.01437352 -0.1598048 -0.030718539 0.028551865 -0.015482734 0.008781751 -0.0046355193 -0.0052203983 0.029902011 -0.038085956 0.025354167 0.04948877 0.033841986 -0.011120383 0.039373685 0.051239874 -0.015278214 -0.005805358 -0.40709496 0.101313375 0.13170646 0.0097827315 0.18631868 -0.065992154 -0.11571041 -0.21279372 0.06176113 0.06894357 -0.31963584 0.08083905 -0.101710565 -0.055997673 -0.061300382 -0.020939615 0.016117213 0.0063213496 0.103843294 -0.042259376 0.20723511 -0.22242787 0.024278594 0.015445026 -0.13563815 -0.082265355 0.093553685 0.073051885 0.103853256 0.16028722 0.02870874 -0.0266156 0.0842772 0.029955732 0.0047102366 0.21055223 -0.06873041 -0.054813724 0.0058754934 -0.006736194 0.079080895 -0.07656754 -0.006921785
-0.00797063 -0.09837236 -0.020110982 0.0489591 0.025189618 0.010549671 -0.05733676 -0.010324595 -0.0080386745 0.017631851 0.013237832 0.056694906 -0.01327033 0.012604266 0.05781129 -0.116477765 -0.020605784 0.025155203 -0.038212363 -0.04926954 -0.003958734 -0.04974303 0.065824986 -0.08863047 0.047654435 0.006609716 0.021223472 -0.0664949 0.023723513 0.019684019 -0.031487625 0.08095599 -0.058134653 -0.06347127 -0.04351269 0.021141127 -0.037430894 -0.031100333 -0.05086104 0.10188038 -0.0017927962 0.017143501 0.018002981 0.10057112 -0.06155859 0.018782066 -0.07313783 0.05164184 0.061029784 0.018984463 0.012860442 0.08917695 -0.017011005 -0.06295851 0.01611687 -0.013764074 0.06094481 0.025451329 0.033397015 0.014230587 -0.10603303 -0.047864556 -0.052268136 -0.033870928 -0.1116442 0.0339042 -0.08910391 -0.022555433 0.09366377 0.020583047 0.079247005 -0.030936087 -0.0023307102 0.00841183 0.0029521384 -0.01999492 0.04683667 0.01315141 0.0026583993 0.047240008 -0.08048982 -0.011458979 0.030298123 -0.040926483 0.016471887 -0.036298823 -0.02877646 0.03126995 -0.053000156 0.044864498 0.002289238 0.046773892 0.07766733 -0.11942676 0.016571403 -0.01821598 -0.0055563995 0.021049483 0.0092115635 -0.046645284 0.0027837662 -0.0066313883 -0.035515387 -0.029524345 0.057887044 0.021655248 0.05782549 0.025713984 0.0777476 -0.05775603 0.03153794 -0.032208644 0.06720803 0.082616605 -0.004497236 -0.013566022 0.10025941 0.0033917213 0.0043728286 -0.0232294 0.08147302 0.029066268 0.032791566 -0.020414073 0.006438124 -0.02138252 0.0702013 -0.039502677 0.023783494 -0.06392135 -0.02772252 -0.05879054 0.08129946 0.0044821543 -0.014805839 0.02168313 -0.03040747 0.0044495566 0.034721144 0.0055851224 0.02056655 0.038134042 -0.020225765 -0.0033852397 0.040833145 -0.090133294 -0.010670775 0.0052855387 -0.014920484 0.0043735337 1.492809e-05 -0.023702363 0.061050247 -0.05697548 0.018105092 0.011184298 0.031552322 0.13946283 -0.02036558 -0.0036144024 0.035406567 -0.06089138 -0.061616175 0.010228075 -0.022311516 0.020290906 -0.015271709 -0.01908867 -0.050278258 0.038026664 0.010598764 0.06312519 -0.009883076 0.16677757 -0.11521785 0.045702986 -0.060030703 0.001896673 0.06462694 0.024227865 -0.028964965 0.021708027 -0.043211125 0.040876854 0.066720426 0.0020905756 0.05296468 -0.028680507 0.01569655 0.024151871 -0.04257281 -0.012308839 -0.050367825 -0.06517688 -0.018175047 0.013357829 -0.02512357 0.016335608 0.05783762 0.016067684 -0.020634918 -0.034124866 -0.00074076076 0.003006387 0.009285503 -0.015333374 0.053659633 0.01672374 0.0034208011 0.0458124 -0.10043647 -0.041631736 0.026782464 -0.004053491 0.004732966 0.006554528 -0.064856865 0.07901924 -0.07359757 0.060074013 0.01131429 0.041616928 0.034136944 -0.02444617 -0.027305463 0.016111277 -0.033928517 0.00689035 0.009306393 -0.027061976 0.05515759 -0.030451853 -0.02401852 -0.028705508 -0.028475162 0.0016126328 0.08292953 0.0043359743 0.18129744 -0.09718508 0.0021876663 -0.038832545 0.02907561 0.0697436 -0.00027215484 -0.019325545 0.038664475 0.018814782 0.031229997 -0.04649787 -0.022309937 0.097795635 0.030978166 -0.043870553 -0.017085107 -0.034255832 0.014289599 -0.017202687 0.07149596 0.010765222 -0.011427049 -0.02120579 -0.00080775976 0.114333406 0.07486573 -0.025723571 -0.015840258 -0.013028551 0.047992587 0.006904943 -0.015747648 0.06349244 -0.020114556 -0.014391037 0.040061202 -0.09251276 -0.008804737 0.051267177 -0.019225875 -0.046057485 -0.04945753 -0.03607372 0.10930126 -0.012426266 -0.021606168 0.040758863 0.03967142 -0.039411332 -0.0027727198 -0.03475083 0.007107103 -0.038149457 -0.022549234 -0.027323587 -0.052280344 0.03065315 -0.041146003 -0.01980015 -0.026992438 -0.038793873 -0.05891027 0.074219055 0.0324447 0.16900425 -0.07561074 -0.0030356422 -0.054684572 0.010940133 0.089276336 0.030079143 -0.0495687 0.017939204 0.024428692 0.07169919 0.038599286 -0.030677298 0.00015349261 0.04137825 -0.067344055 -0.11696132 -0.06170558 -0.0032039192 -0.062925704 -0.02453119 -0.039160673 -0.02176607 -0.044610687 0.10763983 0.0048734215 0.042146392 0.018186644 -0.014198178 0.020972427 -0.0047729956 -0.00035609963 0.023491597 0.08129442 -0.00671476 -0.0005059888 0.036918547 -0.07984813 -0.039259363 0.057946533 -0.014012494 -0.012012019 -0.0013550303 -0.037370417 0.049577065 0.015505934 -0.008162257 0.023340672 0.11424232 -0.019671593 -0.041398082 0.020883866 0.015317756 -0.05087058 -0.018952722 -0.07317265 -0.03962242 -0.009617728 -0.05939414 -0.04700076 -0.004324617 -0.029067727 -0.03888679 0.06691163 0.05146845 0.19378862 -0.10790627 0.023214346 -0.066075906 0.02547273 0.07148028 0.032511238 -0.022448935 0.017029917 0.025892723 0.016908413 -0.0035776542 0.018625272 0.049129445 0.047587257 -0.02046926 0.016667096 -0.081297375 -0.059161622 -0.07712107 0.054791305 -0.06268712 0.019285446 0.0101132 0.2348022 0.053517755 -0.008960167 0.022382217 -0.016802443 0.010222005 0.006280108 0.0019356803 -0.0010013017 0.06406745 -0.01196887 0.031147618 0.021091184 -0.057619188 -0.02382431 0.0022135347 -0.025558265 -0.023895735 -0.038930956 -0.035612237 0.07282795 -0.028144438 -0.01835094 0.07487116 0.053136323 0.06375343 0.005454139 -0.026356168 0.013341447 -0.025815347 -0.075002864 -0.027947336 -0.0499473 0.00613566 -0.0794382 0.0018200079 -0.04661968 0.02920916 -0.007572964 0.072688356 0.02012179 0.17806916 -0.11465966 0.06227162 -0.045196638 0.04322607 0.06686998 0.052229494 -0.028334927 0.025930453 0.04451184 -0.031947296 -0.006391117 0.052472785 0.19206652 -0.10525617 0.017114347 -0.005601673 -0.08505874 -0.002353979 -0.08589952 0.07458535 -0.009604843 -0.00065776444 0.09324259 0.35776785 0.007530697 0.046065334 -0.053712443 -0.020989193 -0.039805718 0.01993515 0.003147218 -0.0036727728 0.054015297 0.028760213 -0.001662591 0.061434917 -0.04609919 -0.033188164 0.029688222 0.00033270413 -0.016247775 -0.023395533 -0.051404957 -0.044731025 0.039247453 -0.07859996 0.05980328 0.08728983 0.028077193 0.03257718 0.0063033206 -0.022722803 0.0031728458 -0.054619346 0.019961517 -0.0185834 -0.093551375 -0.03872879 0.001462179 -0.07294501 0.037058417 -0.04292418 0.067194015 -0.015763083 0.18475993 -0.06813617 0.018798362 -0.016956266 0.023202501 0.053812366 0.02682253 0.038629476 0.051550396 0.012717747 0.049633835 -0.012855212 -0.015171939 0.13127787 0.08617935 0.0328003 0.031184144 -0.15507162 -0.014193988 -0.19218124 0.1413858 -0.09333131 -0.051101867 0.11727229 0.38452095 0.0023797436 0.080091156 -0.0158657 -0.04946967 -0.026396783 0.043360624 0.027053384 0.020629536 0.044930402 -0.023244109 0.0038358064 0.077936344 -0.077652775 -0.018836372 0.04236369 -0.015326127 -0.007308218 -0.07096779 -0.04349668 -0.043737065 0.09063767 -0.03804592 0.06611001 0.10752017 -0.004054325 -0.023554973 0.008237171 -0.033217434 0.052155733 -0.052079715 0.010333896 0.030069234 -0.14170414 -0.008557642 -0.022462476 -0.10703233 0.08668656 -0.056606296 0.05307909 0.0014639936 0.1825862 -0.047327697 0.101524316 0.025914975 0.06101995 0.041179225 0.005277737 0.0124563 0.0755126 -0.01394432 0.024298958 -0.11973833 -0.0014176365 0.24249825 -0.01724468 0.053352576 -0.012556627 -0.11420215 -0.099660754 -0.15795767 0.08036964 -0.054263115 -0.04131009 0.113512866 0.4240904 -0.01719484 0.04746111 -0.20189908 -0.06907463 -0.038100746 0.003577106 0.0024500482 -0.027229855 0.09541049 -0.0028148894 -0.0014158781 0.09559741 -0.09379814 -0.02547116 0.018178394 -0.041606292 -0.031551696 -0.047012288 -0.09477815 -0.28260726 0.13631131 -0.015432931 0.063378975 0.24608192 -0.12246415 -0.13304314 0.06698588 -0.10628462 0.10577404 -0.07654585 -0.2717119 0.1119974 -0.22922279 0.022497883 -0.04310587 -0.14958279 0.1826006 -0.00974634 -0.011242061 0.005421635 0.21124303 -0.062354095 0.117404364 0.05444644 0.035164118 0.05389898 -0.04084295 0.042663753 0.093117386 -0.019251896 0.07756796 -0.09051667 0.085912675 0.19685793 -0.08680978 0.09799262 -0.092267014 -0.101886675 0.01924337 -0.2302015 0.09884134 -0.18092927
0.053931136 0.016788423 0.021706834 -0.044118643 0.0005593197 0.00088893704 -0.023684563 -0.030474158 -0.03769167 0.010665843 0.034296453 0.017397953 -0.0079522515 -0.025305565 -0.025941854 -0.042610835 -0.0012858302 0.00913681 0.019928807 0.065924235 -0.05255272 -0.02315646 0.045389555 0.035637397 0.009269665 0.012400735 0.00952047 -0.0064023924 -0.0633709 0.03282241 -0.008931513 0.029240694 -0.06554483 0.0069998982 -0.05890372 0.003539076 -0.039757047 0.07982829 -0.04275033 0.058910135 0.021941835 0.09740912 -0.043139886 0.017045103 0.03772766 -0.046558525 0.031374827 -0.04489639 0.029870842 0.021798467 -0.020179613 0.054510344 -0.02369721 0.026222628 0.0976301 0.02306415 0.008895297 0.0791637 -0.08684328 0.020781232 0.0014694787 -0.04661706 0.08462017 -0.06808645 -0.0073986533 -0.0022851375 0.0074673533 0.005241781 -0.07098306 -0.061998893 0.004075301 -0.044505056 0.006900412 -0.036087647 -0.012147232 0.028445976 0.018371593 0.009823005 -0.028352508 0.011856776 -0.050885897 -0.03782522 0.022670591 0.042677373 0.057051677 -0.08441033 -0.015841553 0.09824289 -0.00012099331 0.006659066 -0.009046189 -0.021843515 0.08006307 -0.067976974 0.0093284175 0.027646402 0.01247415 -0.106045954 0.043984465 -0.05251183 -0.004616369 -0.012495417 0.048969634 -0.014607827 0.037663866 0.02110621 0.06323316 -0.011012698 0.03207191 0.05024394 -0.068879575 0.045148242 -0.0662876 0.049489185 0.029043155 0.022446033 0.04845981 0.0060021775 -0.021039795 -0.0041706837 -0.07840183 0.008061263 -0.041438155 0.056531236 -0.007215972 -0.06939119 0.07460817 -0.045756765 0.016550824 0.027324134 0.030073619 0.022814885 0.016643776 0.026361715 0.049340107 -0.027706407 -0.02194916 0.003170896 0.008447707 -0.029002555 0.008092134 0.03613325 -0.020082233 -0.05551632 -0.0053746365 -0.00015175364 -0.02961215 0.009945342 0.0569737 0.059019938 -0.0705659 -0.039880373 0.019596621 0.0039395182 0.022831833 -0.02819551 0.011783837 -0.007926141 -0.0773293 -0.012997218 0.005956943 0.013660804 -0.00601847 -0.03276814 -0.0878163 -0.014759227 0.06577156 0.016563218 -0.011056801 0.019525902 0.014591429 0.06296592 -0.013175522 0.03580978 0.03436116 -0.069137774 -0.01957065 -0.082435526 0.036806073 0.004845526 0.024500689 0.0043148515 0.01259777 -0.12582146 -0.08785765 -0.006636199 -0.00983793 0.02923991 -0.08205107 -0.009050845 0.04454213 0.01226741 0.0962774 0.028903147 -0.08373041 -0.0016870766 0.0040226215 -0.031600397 0.023037808 0.079257384 -0.051047616 -0.031377424 0.023542648 -0.033278808 -0.039008994 0.027762 0.034440577 0.0182299 -0.04324508 0.016993612 -0.043091856 -0.006780906 0.004780421 0.05241939 0.043348666 -0.05948552 -0.02035485 -0.006792308 -0.018037716 -0.024587354 0.002077027 -0.015067425 -0.0023120472 0.026044413 -0.032758452 0.042956192 -0.0062985257 -0.063412815 0.003416829 -0.06588621 -0.03431868 0.063813835 0.0071759033 -0.005081125 0.025362562 0.016572276 0.06735442 0.019218639 0.039118093 0.007404685 -0.040506706 0.029633433 -0.07977662 0.028800325 0.033534914 0.015042586 0.029445453 0.017960288 0.09717711 -0.016043855 -0.03090847 0.019647826 -0.0017068684 0.05919052 0.031905636 -0.015133542 0.041661922 0.09130892 -0.1032574 -0.021021651 0.038536835 -0.030943997 0.037502464 -0.07459924 -0.0067327837 -0.0037467938 -0.03235466 0.0059779584 0.025004476 0.0035240566 0.01885763 0.028930997 -0.007997016 -0.030383505 -0.011553335 -0.02148821 0.004523182 0.025434896 0.05214398 0.015939297 -0.08462722 -0.047033478 -0.0111202 0.019454949 -0.018160148 0.048302185 -0.02975206 0.009476484 0.03325102 -0.024217028 0.12343545 0.0015684991 -0.113304 -0.020949475 -0.05535186 -0.034220107 0.07138323 -0.03454342 0.021322764 -0.013561498 0.04047975 0.072483875 0.013731209 0.03334082 -0.011772093 -0.04669281 -0.018093316 -0.08265822 0.03089647 0.010607077 0.03243214 -0.004864483 0.014591036 0.06536029 -0.016951151 0.03167638 0.041732557 -0.048114337 0.028732033 0.043619517 -0.015431925 0.05651327 0.0049188295 0.056213647 0.012285617 0.018206455 -0.03611291 0.088242 -0.024945512 0.0022651767 0.041162144 -0.03515183 0.035183467 -0.020568013 0.015960407 -0.01001218 0.033968184 0.016938685 -0.06893965 0.020165328 -0.042188905 -0.003460513 0.019756788 0.032604508 0.056203816 -0.10408658 -0.017834974 -0.016188916 0.010486515 -0.019509159 0.0069551175 -0.02800914 -0.034816373 0.029149007 0.010799454 0.15164044 0.023150615 -0.07545587 0.0043157754 -0.009307412 -0.026516825 0.10730268 -0.0180339 0.020891823 0.035190366 0.013325212 0.08184246 0.016141798 0.008512084 -0.022554832 -0.05717456 -0.028873522 -0.08865326 -0.015639026 0.051968552 -0.023233987 0.024621332 -0.011277944 0.023578297 -0.0034327328 -0.111325115 0.05510014 -0.112795405 0.065718405 0.076201946 0.03277128 0.124417916 -0.03723663 0.036081642 0.06786563 0.0002228 0.0051855347 0.02103574 -0.023714367 -0.048894618 0.0012869108 0.0020361461 0.021940501 -0.024660049 0.01051788 -0.0037304272 0.011383044 0.01132394 -0.06072928 0.023231564 -0.024350462 0.0024374935 0.033871125 0.045195837 0.053214066 -0.086253494 -0.0369986 -0.027605774 -0.060322348 0.0025782795 -0.0050310297 -0.1281098 -0.009590938 -0.051635947 0.0059251934 0.16122194 0.021470807 -0.10338577 -0.007934543 -0.022362567 -0.022043195 0.12767725 -0.023084687 0.059065618 0.03348306 -0.029038658 0.049015243 0.0313745 -0.009775722 -0.063170955 -0.009881352 -0.037669223 -0.03207273 -0.03483033 0.01669128 -0.021557894 -0.046166535 -0.012973264 -0.059091598 -0.084820196 0.006006564 -0.035616662 -0.13385604 -0.033302322 -0.01699005 0.03648855 0.12007247 0.016160738 0.016769141 0.01769811 0.05776012 -0.013199509 0.007863149 0.052417863 0.06950859 -0.08117361 0.0039908667 0.023547754 -0.016198348 -0.031855825 0.015580546 0.04477269 0.015591069 -0.031055566 -0.024005385 -0.07651565 -0.032028336 0.00811658 0.048888847 0.050813183 -0.10692774 -0.01560828 0.0653533 -0.026185958 -0.0018117161 -0.060733072 0.0007804131 -0.037087012 -0.028866403 -0.033312608 0.073004626 0.021162858 -0.07350256 0.011372761 -0.020499289 0.0076480084 0.1135698 0.014073277 0.048338506 0.019009244 -0.014617743 0.033260524 0.07129327 -0.04480053 -0.046667278 0.011603666 -0.027260397 -0.042116728 9.3803756e-05 0.022537991 -0.056526806 -0.037015885 -0.017568946 0.035368122 0.030115623 -0.03205725 -0.052922662 -0.089117065 -0.0650052 -0.022977412 0.021329178 0.05016092 0.02409316 0.12201384 0.054956734 0.013495662 -0.067579575 -0.068251565 -0.055819612 0.06731122 -0.074486576 -0.043336347 0.04856562 0.018171102 -0.0081259785 0.02799705 0.04549074 0.036956936 -0.08094493 0.020590158 -0.038783766 -0.035276223 0.012235868 0.09763208 0.08062178 -0.11199077 -0.0037627243 0.036959365 -0.0052541425 0.015805366 -0.11333153 0.027082747 -0.033582523 -0.0459971 0.03407146 0.04647004 0.03841608 -0.042806573 -0.010951062 -0.034208614 0.004535812 0.0006734189 0.16728021 -0.06615735 0.035262924 -0.029543411 0.025392821 0.09523862 -0.13426319 -0.015554025 -0.016568054 -0.035280097 -0.028253455 -0.034728 -0.008899955 -0.048547667 -0.11349784 -0.050997805 -0.025380112 0.014905021 -0.048160803 -0.07809301 -0.047924433 0.033237513 -0.016630664 0.04910206 -0.01725467 0.076042496 0.018003346 0.09395447 0.054461576 -0.040758487 0.01428058 0.075561084 0.092749275 -0.014478015 -0.056943513 0.062158424 -0.0132061 0.000390074 -0.0009752938 0.005513718 0.02536022 -0.07700314 0.035022557 -0.037312616 -0.043097354 -0.006589202 0.060668435 0.03775758 -0.08457307 -0.039732374 0.17730005 -0.08534717 -0.0052859485 -0.10506796 0.09363863 -0.1812255 -0.26898947 -0.07691825 0.038688615 0.037933335 0.0070348564 0.022989776 -0.033811167 -0.0027680704 -0.1520234 0.4297305 -0.19469157 0.10773506 0.03155839 0.05467688 0.10867229 -0.16600412 0.0029894665 -0.033652864 -0.03258288 0.0073809535 -0.06707669 -0.03390345 -0.09126915 -0.14755715 -0.028440174 0.09549835 -0.11100331 -0.0055185207 0.0003735553 -0.16541865 -0.053699594 0.016326545 -0.11311916 0.042733308 -0.11366224 0.010985642 0.1838942
