-0.016997045 -0.016910747 0.0060638473 -0.044402197 -0.07169257 -0.018941965 -0.031648513 0.0012210854 0.005292135 -0.017038293 0.005667614 -0.035744715 0.112742655 0.014543651 -0.026580894 -0.0030488616 -0.046645112 -0.03450688 0.02549111 0.03349881 0.004897765 0.029309465 -0.07137252 0.042852953 -0.111852065 0.02880535 0.018921643 0.016162306 0.028293625 0.0039892513 -0.023988584 -0.034530994 0.02219639 -0.026529888 0.04579441 -0.033779033 -0.014725442 0.0133620035 0.0039311983 0.004858161 -0.033256482 0.013381769 -0.09655428 0.10396547 0.03148982 -0.050317362 0.01798597 0.013069377 0.036037505 0.1281976 0.06479595 -0.013648095 -0.0021632335 0.020185187 0.04457078 -0.011085169 0.015967542 0.022235705 0.034205504 0.027407596 0.016775845 0.04588337 -0.060813654 -0.021260694 -0.012423201 -0.0084913345 -0.02059724 -0.012842238 0.013520924 0.01576759 -0.013347085 -0.0308962 -0.03136287 0.03657705 -0.010664458 0.0010524329 0.0058592716 -0.074114054 0.11997181 -0.03361248 -0.008642453 -0.016367743 -0.0628084 -0.010825402 0.048564304 0.001045991 0.020242007 0.062121756 -0.075233996 -0.04872206 -0.057441805 -0.029828234 0.0042185 -0.032948446 -0.03894503 -0.0068963785 -0.02939252 -0.040704057 0.007747851 0.040706597 0.019502487 -0.01380281 -0.06253217 0.038598895 0.025029292 0.018861659 -0.0039701834 0.06441827 -0.11268327 0.0850364 0.05012404 -0.0740971 0.012643225 0.02996326 0.0013905752 0.11749611 0.037064124 0.010024754 0.017459657 0.03796121 -0.021669552 0.047161248 0.010806452 0.06556157 0.04444919 -0.033586185 -0.043366462 0.0051480215 0.013747959 -0.04898336 -0.03201137 -0.038310744 -0.035360582 -0.016541902 -0.043213647 -0.024341468 -0.073177055 -0.020540046 0.004833533 0.009361113 -0.021472603 -0.0005275049 0.0019758486 -0.036496405 0.118154466 0.005051747 -0.04907218 -0.0010489761 -0.028539853 -0.03193537 0.04061708 0.0146669075 -0.0048413845 0.0340392 -0.044635955 0.026541015 -0.063883774 0.003820526 0.032703243 0.017893603 -0.026878819 0.055437647 0.00010952178 -0.013256388 0.058209706 0.052806593 0.011631713 -0.01779656 -0.056137737 -0.0042014704 0.04373995 0.0038027868 -0.008498696 0.06298618 -0.09965119 0.052516393 0.025680043 -0.06579278 0.043841146 0.053234067 0.009514604 0.106261715 0.051879924 0.0009875449 -5.6365338e-05 0.02180734 -0.025663875 0.0063011525 -0.009516084 0.02754956 0.07532489 0.0006740483 -0.013443884 -0.004846346 -0.04448165 -0.022573123 0.023020761 -0.063743755 -0.010549632 0.062388916 -0.09009674 -0.03010252 -0.05845371 -0.021006923 0.010793576 -0.008678513 0.002442109 -0.0110087935 -0.017520593 -0.0560612 0.09996413 -0.017734291 -0.019292032 -0.02114174 -0.04811633 -0.0035299545 0.04446831 0.012699104 0.015584786 0.06818253 -0.046580378 -0.007824627 0.020493248 -0.025072105 0.016633991 -0.022102669 -0.034851644 -0.0051896577 0.0034922494 -0.0028164966 0.021206727 0.02406612 0.019504255 -0.0010774761 -0.06780783 0.03154178 0.058212575 -0.007299467 -0.014932872 0.04860287 -0.07611772 0.048841797 0.017663304 -0.084577225 0.04164538 0.05548154 0.01344239 0.12738217 0.041620113 -0.014506507 -0.009222555 0.011741893 0.044753138 -0.06324938 -0.0154581545 0.05052082 0.032274578 0.035480373 0.020199334 0.02220369 0.0063550607 -0.017410805 0.050866976 -0.011188016 -0.058065794 0.034305777 -0.0037128646 -0.084432356 -0.030497015 0.06961876 0.015070212 -0.038209077 -0.012232972 0.0019478139 -0.029932966 -0.05815123 0.10710725 -0.013029891 -0.02559363 -0.024467781 -0.03099566 -0.02393708 0.029289655 0.0032116892 0.025541957 0.03962763 -0.079000264 -0.032018546 0.019615022 -0.013639935 -0.014680598 -0.043044005 0.011019962 -0.025774933 0.051209077 -0.01093043 0.0034669002 0.006782186 -0.008823389 0.021956371 -0.08350919 0.0052764607 0.094168946 -0.015561192 -0.008731361 0.09336402 -0.03902898 0.01719512 0.03887894 -0.04773248 0.036760714 0.055532373 -0.013586383 0.09545103 0.020061662 0.0034094015 0.025188563 0.021510229 0.022676153 -0.026223995 0.01500309 0.043186154 0.038525805 -0.010821055 -0.04847322 0.015896585 0.032782104 -0.013296664 -0.022338234 -0.020342378 -0.07840303 0.032221492 -0.0056817974 -0.09627377 -0.033113774 -0.043974765 0.036427423 -0.048418272 0.008193543 -0.0006950768 0.0003337616 -0.084040366 0.11459591 0.009084101 -0.014708601 -0.038870994 -0.052000213 -0.018853392 0.027817667 0.03772674 0.0039720843 0.050589167 -0.044011544 -0.022986114 0.055205867 -0.015070159 0.00507503 -0.02851952 0.05490389 -0.010186448 0.034263585 -0.003284545 0.03529053 0.034575064 0.007717675 0.029944535 -0.089877084 0.023786066 0.072739236 -0.013426807 -0.016713172 0.05479377 -0.013267557 -0.010312593 0.05737804 -0.05850667 0.016222486 0.0654277 0.012059956 0.07147962 0.03133428 -0.05028836 0.045424074 0.0022761396 0.0022218965 0.07662203 -0.0754156 0.09040301 0.032509517 0.0073972824 0.03268287 0.0064528026 0.030074324 0.012640647 -0.039024226 -0.036925547 -0.09601954 0.040413745 -0.09162913 -0.08047467 -0.035589743 0.031410366 -0.0011118602 -0.024057921 -0.021897312 0.0055362927 -0.035540868 -0.08720375 0.12902424 -0.005774894 -0.03812426 -0.050187558 -0.034042697 -0.025821572 0.03914895 0.017079052 0.017321292 0.07642134 0.019903073 -0.020043796 0.058422867 -0.048987836 -0.0005213411 -0.025183827 -0.01466712 -0.02115551 0.0507351 0.019397447 0.03181202 0.04516112 -0.019509362 0.041770335 -0.086001866 0.043843232 0.06416535 0.0018182513 0.009128013 0.057174154 -0.0324543 -0.04770773 0.059383772 -0.07637071 0.029741246 0.09335915 -0.02871826 0.042312253 0.02588502 0.048197117 0.08360543 -0.005907638 0.03732531 0.0068361633 -0.04630586 0.008740303 -0.01161897 -0.0396901 -0.00016012446 0.032665253 0.015335209 0.03669471 -0.008744038 0.0130430795 -0.12492719 0.025869412 -0.041489616 -0.046898853 -0.041036766 -0.02772889 -0.03647369 -0.007294939 -0.02724452 0.012092123 -0.0214137 -0.08305435 0.114524856 -0.013466844 -0.052945286 -0.045383316 -0.016299874 -0.019050822 0.043235175 0.045215797 0.018297276 0.08183333 0.09506757 -0.072511025 0.08479937 0.0009545506 -0.035865903 0.0043873168 -0.026736327 -0.06483437 -0.0068310807 0.009665961 0.044081546 0.035554733 -0.00046010021 0.0048606335 -0.13791977 0.057173073 0.075476974 0.0057104034 0.009598812 0.06821949 -0.012580973 -0.048047867 0.064572126 -0.10612692 0.015781216 0.10837064 -0.016701104 -0.03826143 0.0036345595 0.037060823 0.07572614 -0.012716168 0.05595266 0.038792983 -0.0628888 0.027658619 -0.025742102 -0.019235093 0.015705558 0.054097213 -0.060391266 0.037884895 -0.043306816 -0.054710086 -0.14346014 0.028298913 0.029518923 -0.046027765 -0.02035901 -0.05678481 -0.043519937 0.045285612 -0.032839365 0.010033892 -0.035802938 -0.10273682 0.12671569 0.0010486239 -0.05373414 -0.037528798 -0.03160286 -0.011085861 0.03888069 0.035738174 0.03757528 0.07934715 -0.06513509 -0.112338886 0.10854775 0.030874884 -0.04162236 -0.07905678 -0.059603613 -0.053075477 0.063200496 -0.06950416 0.006776066 0.02849513 0.0012004443 0.018397339 -0.13161823 0.086551294 0.061979428 -0.019940972 -3.3551027e-05 0.097184725 0.0005300701 -0.06577095 0.09337693 -0.107804514 0.027017387 0.10687529 -0.07294993 -0.05054387 -0.06682871 0.07679279 0.11406652 0.016774833 0.008232628 0.049168773 0.020342559 -0.05418836 0.0133877015 -0.094757356 0.023707146 0.004144939 0.006059849 -0.06647012 -0.0013446125 -0.0375308 -0.15991415 0.06133798 0.10753057 -0.05909683 -0.064137995 -0.10157076 -0.09410544 0.029162096 -0.015841842 0.0019803336 -0.027236851 -0.097749166 0.11708543 -0.016570488 -0.041224193 -0.048868597 -0.06873759 -0.06409749 0.054375123 0.017796423 0.0076336176 0.106126636 -0.052063618 -0.19759881 0.12239627 0.10402519 0.049256448 -0.054915678 -0.2600719 -0.18402973 0.11606685 -0.23097573 0.073319264 0.23300089 -0.0022226877 0.0705963 -0.120629884 0.13613366 0.007332814 -0.041181415 0.032244496 0.09093646 0.030238109 -0.10690429 0.09202511 -0.1118681 0.009315077 0.11461942 -0.16149706 -0.1590181 -0.10793745 0.088800766 0.10332366 -0.0045077275 -0.014369675 0.072550245 0.073859885 0.021420382 -0.025427975 0.033123035 -0.10792841 -0.098088905 -0.012938506 -0.08342042 0.18784466 -0.06684914
0.06491709 0.061874434 0.08738251 0.0018669283 0.012885929 0.014635628 -0.036117837 -0.053224545 0.022228649 -0.0052862107 -0.1075316 -0.02944851 0.07304176 -0.02432647 0.0064036157 0.09027963 0.007822801 0.043714505 0.029316394 -0.05165913 -0.043554805 0.024627078 0.0023398546 -0.00864533 0.02834967 -0.05579219 0.05844794 0.006639707 0.011579114 0.04977297 -0.0027832284 -0.034123987 0.01610449 -0.017798781 -0.030390935 0.013067339 -0.03545197 0.10966292 -0.016314957 -0.036989056 0.03588334 -0.016545508 -0.006802096 -0.04459327 0.016552974 0.029581906 -0.048943594 -0.01652863 -0.033096436 -0.084282935 -0.17746386 0.044236224 0.045291286 -0.016348708 -0.0020947235 0.0092531415 -0.036967006 0.026633976 -0.046904236 0.015300451 0.0127903735 0.022751367 0.044355173 0.04753882 -0.01942908 0.025216823 0.025024349 -0.007884158 0.020870257 -0.046989758 0.0010645136 0.047704678 -0.009456227 -0.06211987 -0.004893285 -0.0025883846 -0.10072359 -0.05935116 0.056789678 -0.056907408 -0.0012660194 0.090157375 0.009127134 0.023125108 0.009566114 -0.052357674 -0.055780627 0.01136246 0.00295237 0.0043985182 0.017147772 -0.014657987 0.009148939 0.023396976 0.062409636 0.048949856 -0.0066286083 -0.038318954 0.008153291 -0.026561527 0.0015621022 0.06477364 -0.06762454 0.0959044 0.021849066 -0.04960429 0.010990558 -0.030886827 0.015090319 -0.03653992 0.050816156 0.034225233 -0.018196288 -0.031984225 -0.0037916002 -0.060464088 -0.17253186 0.039227173 0.031909578 -0.0090564005 0.036946293 0.021928523 -0.048276797 0.024823446 -0.051841296 0.040472213 -0.0025582318 0.0033512851 -0.003637227 0.036549866 -0.029736027 0.015054987 0.033370662 0.0126118725 -0.035748985 0.014208005 -0.018350279 0.07773259 -0.004491303 -0.06211091 0.0035563626 0.014446195 -0.12225839 -0.047109716 0.06262863 -0.051198926 0.00827404 0.10131399 0.03980881 0.04076592 0.044706613 -0.06056259 -0.064325705 -0.012762584 0.0138631705 -0.013899022 0.009224372 -0.016674155 0.016218077 0.047582157 0.045043636 -0.023930695 -0.026794087 -0.026810275 0.05084461 0.032375656 0.01535157 0.043113884 -0.0610676 0.05957041 0.02539962 -0.03070329 -0.01774055 0.022596477 0.011106735 -0.06267077 0.03241273 0.013018531 -0.047027297 0.00999202 -0.0049546715 -0.046782114 -0.15109022 0.01470139 0.037294943 0.010016498 -0.035459507 -0.039593127 0.02880063 0.047364 -0.02219029 -0.006337798 -0.047094338 0.007491967 -0.01643193 0.00047744086 -0.015228739 -0.008286349 0.044882204 -0.0028338956 -0.028747292 -0.011394534 0.004809623 0.05554404 -0.008910106 -0.056438185 0.014342258 -0.008115219 -0.100867204 -0.055021666 0.0648 -0.036920924 -0.025756119 0.0886028 0.03255963 0.03511555 0.002126707 -0.038195398 -0.051965695 0.033428654 0.008967707 -0.037120216 0.008492209 0.027051602 -0.021389263 0.040973883 0.06245611 -0.01290215 -0.043448254 -0.0123902215 0.011400126 -0.022611879 0.037357405 0.05759871 -0.04056178 0.041540515 0.043812558 -0.06679809 -0.0124138845 -0.023006614 -0.011637877 -0.06148757 0.037928235 0.004693581 -0.04051966 -0.01220779 0.0012011625 -0.050372377 -0.12046215 0.0153098265 -0.008932384 -0.009604095 -0.07728678 0.012660564 -0.0063383803 -0.014823256 -0.024769612 0.024736917 0.01512963 -0.02615079 -0.015692327 0.050195076 -0.042779826 0.02916138 -0.0008839697 -0.013389443 0.018045217 0.0053407107 0.0777606 0.011942886 -0.00095852895 -0.028686726 0.00637168 -0.0060061803 -0.104490586 -0.047748882 0.07764353 -0.04476137 -0.016722353 0.1192396 0.05531916 0.048561737 -0.00084218784 -0.06738613 -0.053192068 -0.0013776011 -0.019533886 -0.07938501 0.032505088 0.0038324643 0.021474147 0.097994864 -0.03306868 0.07536597 -0.06332873 0.008470145 -0.004747246 -0.040340398 0.040607505 0.05101836 -0.05614969 0.038572848 0.03358013 -0.079665944 -0.02303486 -0.014601182 -0.028869893 -0.03637263 0.03095681 -0.0019298362 -0.017390035 0.0065308763 0.04891595 -0.025069257 -0.11597367 -0.009624053 0.01162791 -0.016826866 -0.021839289 0.0018868342 0.051985804 0.014752507 -0.035493165 0.045244433 -0.08496062 0.0035907417 -0.054974277 0.0028922486 0.021012263 -0.053865854 -0.038862135 -0.0645994 0.05290442 0.018185303 -0.0061887926 0.079697125 0.017207293 -0.001847577 0.0052160695 -0.005465712 -0.117231905 -0.06011465 0.06388428 -0.039796777 0.0026529168 0.09176535 0.051475365 0.02521454 0.017833099 -0.031296343 -0.047189865 0.0024813665 -0.008723396 -0.08566528 0.10013504 0.010828206 0.0047112564 0.14044891 0.04798693 0.023355342 -0.029244538 -0.06557948 -0.0148460725 0.0069277314 0.032905016 0.06507016 -0.04218054 0.021683468 0.041692536 -0.054845717 -0.06215865 0.021405125 -0.041724008 0.033508733 0.006551478 0.019523384 -0.02216656 0.0078043705 0.019334393 -0.010265954 -0.11495516 0.013640349 0.009454725 -0.00443843 0.0077825366 0.043926757 0.07876009 -0.0074535455 -0.030637518 0.007874316 -0.009322812 -0.034461547 0.0025043858 0.015494844 0.040770136 -0.027512243 -0.03921366 -0.09572024 0.07222429 -0.042991348 0.010775992 0.06594055 0.020735696 -0.0064711096 -0.009495038 -0.007478199 -0.10344601 -0.06273199 0.08245525 -0.055630572 -0.010606919 0.13010585 0.053231657 0.038210627 0.004322665 -0.07684513 -0.07086681 -0.008987972 -0.013203699 -0.04056731 0.09611274 -0.016273575 0.007016829 0.07569119 0.07981592 0.047552105 -0.036814835 -0.05895338 0.02102087 -0.04075358 0.07404076 0.05657155 -0.025964977 0.026853058 0.03912802 -0.09030559 -0.052933257 0.014328488 -0.04955565 0.0433793 -0.008774483 -0.030143425 -0.01713838 0.02184873 0.041642915 -0.010854401 -0.10062266 0.002080789 -0.008532422 -0.00768993 0.02664113 0.016121231 0.023368536 -0.026857395 -0.04519827 -0.0027822533 -0.021862961 -0.06820403 -0.041826267 -0.000757489 -0.0037450038 0.07569515 -0.051417697 -0.15328196 -0.035688024 0.0047574965 0.029014887 -0.014971574 -0.00026343096 -0.0040447083 0.026304826 -0.0044493154 -0.12933344 -0.03817172 0.10426573 -0.039490137 -0.0031773238 0.10833392 0.07970753 0.018294623 0.0070341704 -0.04922494 -0.05261203 -0.003204057 -0.071082704 -0.092936315 0.078511596 0.03925121 0.00831921 0.11620025 0.073564775 0.025796212 -0.041378513 -0.09978531 -0.04211364 -0.003735986 0.0928834 0.096255004 -0.044346765 0.0079278145 0.031243054 -0.06566685 -0.061728545 0.02791857 -0.0878788 0.04888828 -0.018700378 0.0126847625 -0.026870018 0.04578922 0.019504534 0.0076447073 -0.056405142 -0.0062386286 0.017802265 -0.013992085 0.0036742142 0.082135044 0.065035984 0.0040834383 -0.053503938 -0.06989573 -0.062168796 -0.017643275 -0.041440345 0.018213533 0.070289284 0.106683 -0.08363023 -0.16386601 -0.0104067 0.021168847 0.0053134337 0.047569208 -0.03266802 0.006738269 0.01598367 0.013887975 -0.12426475 -0.04685356 0.09417845 -0.012722747 -0.0020750873 0.15131655 0.07337716 0.017613908 0.0216922 -0.059582952 -0.04046945 0.027354628 -0.100769356 -0.14545451 0.061310135 0.07922001 0.035935417 0.19383721 0.17646138 0.08550706 0.0056377808 -0.104569316 -0.019372584 -0.06912235 0.10747985 0.072914355 -0.0018246719 -0.018291997 0.026379548 -0.07350244 -0.104706 0.0092592565 -0.10972925 0.13182777 -0.030203614 -0.007703708 -0.032752044 0.040023644 0.016249903 0.030985428 -0.08238115 -0.0015620452 0.036983233 -0.043416016 0.0756845 -0.048388314 0.0036057245 0.026810136 -0.05118516 -0.0708063 0.034740422 0.019260708 -0.07899478 0.014539251 0.055635612 -0.018235829 -0.04837481 -0.19792788 0.32612798 0.095032975 -0.14905564 0.054306153 -0.06076748 -0.008825553 0.0034631528 -0.006091434 -0.1728278 -0.07293199 0.07770199 -0.005675592 -0.02065754 0.13160402 0.07361829 0.039037243 0.030445578 -0.06931031 -0.0469369 -0.01367529 -0.4627072 -0.40821835 0.12442078 0.17870061 -0.07075257 0.39221373 0.13673364 0.12297527 0.13646464 -0.047206294 -0.08596316 -0.050091676 0.123618014 0.09981551 -0.029971188 -0.008020356 0.050744165 -0.0783869 -0.07763603 0.023724524 -0.118811145 0.16125232 -0.053896215 -0.03787699 -0.042540092 0.03568879 0.050740387 -0.028283924 -0.09146688 0.0070494134 0.056690972 -0.057621226 -0.17876238 -0.12599 -0.035839092 -0.05576863 -0.11367773 -0.05635771 0.031103272 0.032599855 -0.00025973574 0.04767756 0.103764 0.105455115
-0.009014313 -0.0070995297 0.026651904 0.0622045 0.025081513 0.079348154 0.012863777 0.006765137 -0.006850699 -0.0042593065 0.08233232 -0.055729024 -0.1581675 -0.016276982 -0.045387086 -0.052031223 0.060615268 0.0047183763 0.043653782 -0.0130240675 -0.051242527 -0.026398145 0.031241719 0.010517335 -0.018125037 -0.08376557 0.012401689 -0.08921411 0.027009487 -0.043115042 -0.0174526 -0.018570917 0.014357398 0.032107472 0.017664745 0.016376154 0.00518476 -0.030068489 0.0014658147 0.0028824797 -0.028270924 -0.014459965 0.014439809 -0.019574607 0.026313376 0.0114759 0.054654665 -0.08336057 0.01766776 -0.04450945 -0.013138797 0.016931962 -0.020702925 -0.018887859 -0.006663069 -0.021966146 0.042003088 -0.00061062584 -0.0395132 0.0016423474 0.001311654 0.045825288 0.039036963 0.055749577 -0.03402818 0.035571694 0.007219546 -0.026995217 -0.008727496 0.016005863 0.058286205 0.028395496 0.013268211 0.0032700864 0.022226548 0.018811304 0.0784314 -0.083251685 -0.18176162 -0.035992216 -0.07886158 -0.014275627 0.023713157 0.026907967 0.027208174 -0.021442892 -0.06362659 -0.044867806 0.0664378 -0.021005219 -0.059567727 -0.025909431 -0.021964783 0.021138247 0.014598019 0.023686217 -0.023191381 -0.0052051204 0.06750587 -0.019884245 0.010375764 0.021589614 0.0087384675 0.0006856956 0.006789804 -0.0042786226 0.0033638468 -0.013057364 -0.012611935 -0.02441594 0.021326771 -0.000510876 0.04221171 -0.07776339 -0.00095760537 -0.06496805 -0.017145252 -0.005060075 -0.022544086 0.0070088645 0.03600147 0.040139873 0.022361167 0.03432319 -0.004178434 -0.004035083 0.04060977 0.030452378 0.0070868414 -0.011576145 0.043089874 0.04026369 0.03415988 -0.005559445 0.0079327915 0.013073484 0.01416207 0.012448421 0.023719825 -0.002409458 0.006546743 -0.014174505 0.054071013 -0.07348963 -0.19291659 -0.015701687 -0.065593235 -0.035273302 0.06041558 -0.017095227 0.03182038 -0.04166974 -0.07393214 -0.010179126 0.0020213232 -0.04374098 -0.016707642 -0.06675851 -0.0031006597 -0.019239469 -0.004371206 -0.0380692 -0.0019911232 -0.006368762 -0.006406486 0.044662457 0.014796112 -0.011953338 0.02403014 -0.03766827 0.009196213 -0.00031760745 -0.01842073 -0.02773631 -0.01797019 0.02375906 -0.002452886 0.013226611 0.03339168 -0.0728424 0.03436705 -0.0673302 0.007428382 -0.019498669 -0.02207044 -0.015149348 0.014360991 0.046076875 0.05628143 -0.10375432 -0.023653295 -0.0020890206 -0.08017222 0.110867664 -0.0705915 0.046921138 0.048685372 0.0285266 0.009909171 0.0037914983 -0.05371663 -0.0669201 -0.06069488 0.0007417134 -0.025115147 -0.019457815 0.00979483 0.010516736 0.072498254 -0.047339197 -0.17708811 -0.047789287 -0.095528565 -0.0586404 0.05160378 0.0350246 0.050250117 -0.032507613 -0.046859615 -0.038772877 0.06929813 -0.005661162 -0.045282725 -0.035906643 -0.012411915 -0.062020067 -0.050808907 0.028738894 0.03158711 -0.009651166 -0.008843456 -0.08396129 -0.013245824 0.021164691 -0.006911359 -0.027071191 0.005736615 -0.012602601 0.013830932 -0.01915062 -0.039711658 0.00851332 -0.0064150607 0.021204548 0.04719345 -0.025662044 -0.00869408 -0.005583515 0.031870592 -0.005845461 -0.01782639 0.010279421 -0.02212674 0.055573326 0.031551257 -0.046719503 0.06690946 -0.07825167 -0.0013539698 -0.067219086 -0.0527812 0.015040352 -0.021125216 -0.043779783 0.006740148 -0.008746134 -0.019669404 0.08046245 -0.0066596656 -0.012538361 -0.029560864 0.02648608 0.016946152 -0.008790829 0.0720243 -0.06587705 -0.18765007 -0.035146613 -0.09362114 -0.051362988 0.045561798 0.012833264 0.02109113 -0.020727603 -0.073041916 -0.013642672 -0.063766964 -0.026487695 -0.042902373 -0.092785515 -0.07023796 0.007867463 0.05485835 -0.003380228 0.03077563 0.016378075 -0.023949241 0.0085756285 0.017124178 0.054148026 0.03956733 -0.03883513 0.025701234 -0.02333713 0.0078587355 -0.039151162 -0.046142187 0.027534088 0.032129705 -0.022501655 0.0685407 -0.018959247 -0.016805412 -0.023537317 0.038086835 -0.008390426 -0.045643054 0.022453455 0.0029963427 -0.008129062 0.024193507 -0.036534596 -0.050105166 0.07016183 0.037044838 0.051739637 -0.0482758 0.030650135 -0.037630368 -0.02403591 -0.035086323 -0.029353255 -0.032641105 0.05037994 -0.067223206 -0.116343856 -0.023889886 0.023582403 0.034099787 -0.019714948 0.075835854 -0.048686486 -0.17995656 -0.06403559 -0.06438396 -0.04353778 0.070156425 0.02039287 0.036822766 -0.015800387 -0.050315153 -0.042641114 -0.09724545 -0.0726498 -0.048321426 -0.048803374 -0.07100241 -0.060650595 -0.0056711175 0.05721511 0.0037817622 -0.036627688 0.02046146 -0.07521931 0.009108883 0.037006076 0.061180934 -0.0724093 0.014127544 -0.024571355 0.014547025 -0.031100903 -0.061565436 0.033652466 0.04449921 0.03947952 0.030995414 -0.023864152 -0.052288096 0.021102289 0.050702073 -0.042512503 -0.04099512 0.0680876 0.0075719045 -0.01623379 -0.012615182 -0.07468369 -0.03622037 -0.036248498 0.07775617 -0.015967214 0.00016351408 0.07351502 -0.023499168 0.09326505 -0.051743727 -0.062030185 -0.041188832 0.111649364 -0.061534975 -0.17817032 0.010844207 0.022260219 -0.0032313406 -0.0046356 0.04680497 -0.09244221 -0.17331041 -0.063044764 -0.09701366 -0.06406989 0.07100824 0.04391594 0.03242183 -0.024133543 -0.06751236 -0.028439797 -0.07863973 -0.1165561 -0.08640849 -0.09022944 -0.05986077 -0.106237635 -0.022710124 0.0020221462 -0.015053376 -0.035018414 0.04051165 -0.0060993354 -0.036784418 0.013137126 0.022550542 -0.05695524 -0.003672991 -0.035378534 0.016206022 -0.0036957725 -0.11063974 0.04793297 0.06891867 0.0098238075 0.03638125 0.0009131863 -0.055117764 -0.001351383 0.037549276 -0.0038003072 -0.042065285 0.024001857 -0.0727127 0.09993237 -0.009527901 0.0043352298 0.07726755 0.016828766 0.11752468 -0.009598771 -0.025679275 0.04824761 -0.01766645 -0.03418688 -0.056577384 -0.061045315 -0.06508657 0.07275749 -0.17384775 -0.14624698 -0.017923575 -0.035535295 0.0067312643 0.0064609144 0.0555761 -0.083797455 -0.16910107 -0.059894074 -0.079199016 -0.080111615 0.066519216 0.003644268 0.05679739 -0.052572776 -0.049629748 -0.042765558 -0.048549168 -0.19410901 -0.07211091 -0.095160246 -0.10813193 -0.11658442 -0.08442746 -0.0031492263 -0.040228095 -0.019913733 -0.009607793 -0.0246522 -0.03333302 0.03772167 0.06417016 -0.07928894 -0.011583011 -0.07754308 0.042412404 0.015049291 -0.12465563 0.07184615 0.089411214 0.039311655 0.04185253 0.026457584 -0.0033447198 -0.028032873 0.048269067 0.016474212 -0.00865083 0.034856338 -0.13130175 0.0451255 0.069061264 0.032289274 -0.05328355 -0.06412183 0.012857947 0.008801075 -0.05486768 -0.05330294 -0.041204274 -0.08910481 -0.01327723 -0.052918024 -0.07467984 -0.055228733 -0.09891047 -0.12420618 0.010272015 -0.07692858 0.0031097976 0.019407634 0.034562763 -0.07996646 -0.1974582 -0.0626328 -0.096556775 -0.093301006 0.08961825 0.05555441 0.058135573 -0.022126427 -0.06554478 -0.027434867 -0.12313641 -0.17452273 -0.085567735 -0.20036954 -0.2426938 -0.15085782 0.010963891 0.04695662 0.011861093 -0.05088965 0.044145737 -0.05229506 -0.015613387 0.045826238 0.03232808 -0.042921014 0.023362089 -0.031806856 0.032865427 -0.0015963351 -0.16467102 0.08424071 0.11894198 -0.009908057 0.011900422 0.023540957 -0.05254354 -0.028575694 0.03290534 0.010287047 0.022865402 -0.0024164824 -0.076508604 0.05024716 0.07281579 0.072206005 -0.00744744 0.021352522 -0.0033562866 -0.027185638 -0.08708933 0.03594869 0.0925469 -0.13874246 -0.077373445 -0.06006026 -0.066918656 0.027530346 -0.05016439 -0.0074165887 0.02439607 -0.05110523 -0.011128606 -0.009270646 0.006654999 -0.11214685 -0.1712935 -0.09457159 -0.112815715 -0.10467651 0.08872316 0.043015935 0.040308595 -0.067356214 -0.08021308 -0.02555298 0.14337403 -0.35025203 -0.011844357 -0.35862476 -0.4062257 -0.12941663 0.075114205 0.04435317 0.016488433 -0.015062391 -0.06056488 0.10591374 -0.036698587 0.05358544 0.05955972 -0.030904224 -0.041921675 -0.030732742 0.031093111 -0.0023476654 -0.16298276 0.054188695 0.13926232 -0.011171757 0.03148558 0.010320657 -0.034678746 -0.028071256 0.007043713 0.01866454 0.049973994 -0.009915834 0.073538 0.06576407 0.15269226 -0.031930447 -0.06020777 0.03175651 0.02759907 -0.12528653 -0.20251895 0.026233528 0.07448936 -0.111666664
-0.007228542 7.7236065e-05 0.025860006 0.03401984 -3.0867736e-06 -0.11218793 0.013740589 0.01647274 -0.005452327 -0.0007214237 -0.011261736 -0.06147259 0.023604946 -0.0019690935 -0.05151228 -0.038976025 -0.032496575 -0.01876333 0.08003417 -0.010513986 -0.010738424 0.08463211 -0.07382408 -0.010880065 0.044268094 -0.0038062616 -0.036948334 -0.000427569 -0.05246041 0.046859853 0.0024662402 0.053301137 0.007205753 0.025394117 0.027510777 -0.030955376 -0.028558247 -0.0066193524 0.020439224 0.03954952 -0.067859426 -0.017882895 0.038066592 -0.080561705 0.04060071 0.0039875647 -0.0055226483 0.010678697 -0.0013689682 -0.013421321 -0.07973578 0.045423374 0.024440618 0.008357762 0.07418165 0.002516439 -0.026987383 -0.035370663 0.0014442934 -0.0007661269 0.0013511134 -0.020962318 -0.05389707 -0.022985607 0.023242852 -0.026651 0.0217742 0.012314245 0.055020247 0.020748299 0.031186221 -0.060479373 0.016390972 0.021155626 0.0048852107 -0.0067293984 -0.0131900525 -0.06700467 0.031136347 0.017407892 -0.0660675 -0.01020841 -0.044652432 0.027791137 0.05721844 0.013045842 -0.0030415691 0.06832109 -0.0022932177 0.022836702 0.05257541 -0.009751806 -0.06323942 0.002475252 -0.05617317 0.013685835 -0.0038226412 0.008702731 0.016592186 0.0015250882 0.03908339 -0.0068204533 -0.021003982 -0.029117206 0.04303295 0.005077634 -0.041878793 0.005119089 0.018252807 -0.05488527 0.045780055 0.0006334681 0.0007443909 0.02495548 0.030966476 -0.0028377895 -0.036517777 0.07035652 0.069213174 -0.003372853 0.035153836 0.018337138 -0.037641525 0.021449989 0.015329232 -0.011154109 -0.0110108275 0.04742942 0.06388639 0.020141814 0.000913005 -0.033500776 -0.014289252 0.029341662 0.050974518 0.06546948 -0.016996955 -0.10238482 0.022742549 -0.013864539 -0.0023274836 -0.022635896 -0.030096272 -0.06415359 0.022643719 0.019578181 -0.033849675 -0.029222263 -0.034753237 0.010297825 0.042163003 0.024557093 -0.026122628 0.088960506 -0.020964162 -0.0101194205 0.045397006 -0.025588907 -0.02738662 -0.013714639 -0.048013367 -0.0059850933 -0.01828537 0.088570796 -0.0041942876 0.022279272 0.031795666 -0.006691796 -0.0064214054 -0.0014971809 0.052506763 0.013931357 -0.042384006 0.007877062 -0.01945125 -0.009265743 0.042967737 -0.0029574153 0.04736806 0.014563262 0.009437953 0.023171684 -0.038827978 0.031542726 0.068189315 -0.0089608235 -0.017147418 0.021410791 -0.002600564 0.048416108 0.018231532 0.08536885 -0.008897137 0.020259531 0.05039254 0.040843435 0.0031867623 -0.06411541 -0.012213158 0.02097742 0.0029401623 0.043328445 0.02640774 -0.05378288 0.009683086 -0.038234442 0.017446123 -0.0069581554 -0.004747043 -0.077220365 0.011167081 0.020356562 -0.040070854 -0.047793478 -0.014999684 -0.006949773 0.042830765 0.031589378 -0.025345163 0.062284954 -0.0706325 0.018400013 0.049127817 -0.032667354 0.004865804 -0.007642882 -0.08308929 0.037661817 0.022844067 0.053207215 0.0067873076 0.052480303 0.0026991132 0.013229947 -0.042420615 0.01289498 0.025704099 -0.011351412 -0.02155785 0.014684496 -0.0025816897 -0.011300737 0.04055412 -0.0040274574 0.051803045 0.059072167 0.011740862 0.021907613 -0.03744188 0.034184497 0.069970034 0.01604601 -0.016299415 -0.027332112 -0.047629405 -0.02281066 0.03502899 0.10092205 -0.04935208 0.0003442727 -0.060888503 0.018913966 -0.030606104 -0.06669669 -0.012055741 -0.0016246013 -0.052750487 0.13642012 0.038925312 -0.08143055 -0.0074255876 -0.022794588 -7.788201e-05 0.006122587 -0.036857255 -0.07523519 0.010404899 -0.005581549 -0.03630173 -0.036607735 -0.04213308 0.02948884 0.050398383 0.022864712 0.0025113814 0.0908878 -0.08320378 0.006522355 0.069992974 -0.050924927 0.04085203 0.05241622 -0.04779528 0.014162669 0.054790996 0.060325142 -0.0009533676 0.03198946 0.0030042238 -0.016946934 -0.019664304 -0.009818578 0.012143524 -0.009735842 -0.020646958 0.013359089 -0.045650203 -0.0058176746 0.068444915 0.005692129 0.03976232 0.014190308 0.023518717 0.02932579 -0.018989746 0.013748483 0.07133416 -0.0025707704 0.08311023 0.020977821 -0.04209606 0.014108053 0.0028825295 0.05601623 0.016254736 -0.021482758 0.024696738 0.04931149 -0.06520796 -0.053431753 -0.0036583163 -0.005542943 -0.0414463 0.06653847 0.07486371 -0.11955691 -0.017184138 -0.009970243 -0.01092657 0.01251243 -0.0466331 -0.040542237 0.010163232 0.009317021 -0.05622666 -0.02675654 -0.022773849 -0.004091286 0.040755294 0.042624623 -0.011424591 0.09767271 -0.08649685 0.09425675 0.086796746 -0.045490332 -0.011791617 -0.002074772 -0.02695139 0.038265303 0.020782249 0.12001676 0.0035223893 0.040181354 0.012509968 0.027932461 -0.046528317 -0.01064237 0.035527393 -0.013378413 0.018232282 0.013110709 -0.051870946 0.03193033 0.05057351 -0.02230626 0.08588442 0.032726888 0.034044135 0.015513825 -0.0003635689 0.029680632 0.071249835 0.011873558 0.06434028 -0.038248446 -0.023297107 -0.04716139 0.0768606 0.044440478 -0.0704512 -0.021383155 0.010350201 0.083731525 -0.00044373336 -0.049441792 -0.032365985 0.0007445041 0.031761087 0.11033327 0.060141843 -0.14728282 -0.0027006436 -0.012346022 -0.023776714 -0.02163179 -0.050266653 -0.052383237 0.0023053072 0.030904775 -0.06670765 -0.03423252 -0.060303595 0.035150163 0.06348122 0.06964623 -0.030839745 0.09464906 -0.048623558 0.05432425 0.048007168 -0.020765858 0.0021692135 -0.07443198 -0.048385452 -0.0009589016 0.09749742 0.09358823 0.036685567 -0.026864484 0.009828226 0.023117237 -0.028157685 -0.016070869 0.017863313 -0.043809224 -0.017433887 -0.016354427 -0.08076636 0.054242175 0.03049292 0.003014155 0.052505 0.048895575 -0.0027110982 0.0073491572 -0.005311364 0.039225034 0.06744869 -0.020244218 0.005524976 -0.030058207 -0.019528365 -0.039001323 0.03937819 0.016620502 0.062121276 0.03097636 0.050020475 0.05132642 -0.043507274 -0.123488985 -0.028110106 0.019302836 0.08629004 0.09905506 0.016404089 -0.13846791 0.015566514 0.004112061 0.009416405 0.016181393 -0.07555271 -0.03469307 0.030536681 0.02072518 -0.06814746 -0.03162326 -0.0503877 -0.0116631575 0.08690016 0.05526395 -0.008883278 0.04854607 -0.091075525 0.07265167 -0.00037288186 0.052945018 -0.044240803 -0.08547273 -0.019167073 0.0017432554 0.122883216 0.052847575 0.040745854 0.045836985 -0.0038055067 0.055792693 -0.044368573 -0.012449621 -0.004664246 -0.050379034 0.0081075085 0.02827966 -0.07966191 0.06570902 0.008669846 -0.0035326334 0.087914206 0.0813656 0.0010437666 0.008224349 0.0045870882 0.020512762 0.07224576 -0.0122473035 0.076353475 -0.01920479 -0.041172538 -0.0216279 0.07644173 0.07779527 0.0036894581 0.01152806 0.00212291 0.08488351 -0.079827026 -0.0812886 -0.045898862 0.0040131304 0.03526357 0.027836172 0.07738492 -0.2493539 0.024213327 0.012690931 -0.0027352588 0.012515228 -0.09590068 -0.056045752 0.02544362 0.041513138 -0.06925718 -0.0566642 -0.048890956 -0.0033984508 0.096733905 0.040430818 -0.008935305 0.11342707 -0.111443244 0.10691868 0.00070437265 0.09654082 -0.14926268 -0.14019409 -0.031866822 0.04829867 0.1356133 -0.01587844 0.06622108 0.091426075 -0.015936226 0.038607854 -0.030635895 -0.04773649 -0.004365893 -0.05544108 -0.004525712 0.03254512 -0.10897258 0.089889534 -0.021256506 0.007101068 0.082179405 0.061407477 -0.01430118 -0.016893627 -0.024130853 0.01937955 0.06938856 -0.06355793 0.07718724 -0.040371343 -0.030491438 -0.03074603 0.048613667 0.11076441 0.013752324 0.031438913 0.006814682 0.017220365 -0.07197401 -0.21969132 -0.100360975 0.02346867 -0.23348606 -0.046457384 -0.015827583 -0.19176994 0.03134144 0.0054266863 -0.02748232 -0.008074643 -0.1434049 -0.060059015 0.009286856 0.05622411 -0.091461875 -0.026471566 -0.065453574 0.020272488 0.09833895 0.033902746 -0.009999397 0.099026516 -0.52948445 -0.026956383 0.048821483 0.19100015 -0.28684428 -0.16992773 0.021314671 -0.064949 0.22517177 -0.24211188 0.2913716 0.36158547 -0.023066893 0.04055469 -0.024341222 -0.028604895 -0.021326164 -0.036610484 0.026659274 0.017001187 -0.119148836 0.13743438 -0.06151317 -0.019264162 0.10488232 0.08045162 -0.0011986321 -0.0057374206 -0.012388251 0.026705867 0.06311322 -0.03991838 -0.06252999 -0.08639191 -0.0038446682 0.12204508 -0.21504591 0.13312332 0.119012184 0.011810128 0.08631484 -0.061108638 0.11983571 -0.16866644
-0.046138775 -0.013403546 -0.0058971946 0.04062137 0.0021561817 -0.036775816 -0.056649785 0.03779339 -0.007825862 -0.008379718 -0.0037713489 -0.029898679 0.024812585 -0.022821376 -0.061428748 -0.06543871 0.007931763 0.022360627 0.03405323 -0.038336456 0.11385394 -0.055708528 -0.027010744 -0.0028898893 -0.03595243 -0.016569937 0.004993401 0.009835454 -0.04479519 -0.04181284 -0.040921774 0.008965003 -0.043276787 -0.038339563 -0.014730635 0.02960332 0.03708333 -0.023697278 -0.061180685 -0.033065073 0.012132186 -0.0069861533 -0.13995424 0.062032692 0.07155984 -0.013215321 0.076835625 0.033901393 0.18322358 0.06442233 -0.029404182 -0.017161524 -0.011786411 0.0013948169 -0.0019262861 -0.021347862 0.037958145 0.035281803 -0.0155086 0.0028729409 0.004674104 -0.0054288316 0.02149536 -0.017412342 -0.018251674 -0.04754641 -0.072681606 -0.006401021 0.01212469 0.045983713 -0.012014909 0.015358691 -0.04685567 0.047803435 -0.0093722725 -0.020613486 -0.028030703 -0.010533181 0.017308293 0.0012357165 -0.04187805 -0.06800453 0.040716033 0.03123857 0.019272989 -0.027917136 0.097956434 -0.07091533 -0.0011128021 0.014346252 -0.012869063 -0.016692728 0.014442776 0.028929072 0.01220169 0.007259085 -0.023852877 0.0029085495 -0.011440516 -0.023837846 -0.010157644 0.032956894 0.061861426 -0.028004395 -0.025771575 -0.03950677 -0.00023895147 0.004335729 -0.14932084 0.053788643 0.08760395 -0.006056964 0.05636851 0.019269878 0.18871863 0.081002064 -0.026364101 -0.0063115084 -0.009812985 -0.038082827 -0.01814016 0.036691703 0.025717981 0.06459526 0.005985982 0.0008606013 -0.03305994 -0.030035201 0.029427346 -0.005087684 -0.07758415 -0.03658508 -0.10825408 0.0041711787 0.02437842 0.026672272 -0.05242195 -0.053077392 -0.024526168 0.029383639 -0.0021553969 -0.017648533 -0.027622003 -0.025822755 0.016658505 0.010409425 -0.052269362 -0.034015182 0.035846107 0.023224708 0.005385615 -0.027671395 0.1250694 -0.06283834 -0.008273428 0.032843094 -0.028341386 -0.008483208 -0.021723704 -0.017175252 -0.03530635 0.05488762 -0.023291804 -0.01824043 -0.0133665465 0.03334303 0.01264994 0.018971357 0.04075283 -0.016011253 -0.029229298 -0.021287793 -0.022781115 0.005388612 -0.1115637 0.06671111 0.07854583 0.012354874 0.08188419 0.014496323 0.17497842 0.089936346 0.006481299 -0.0070749666 -0.008451585 -0.0036645017 0.0019843269 0.023563523 0.018094758 0.060388237 0.013259656 -0.03389771 0.02612895 -0.0067807417 -0.032035142 0.02045001 -0.016133916 -0.049142834 -0.13485017 0.03401131 0.016007766 0.0401 -0.0005610278 -0.020478057 -0.011028913 0.020852929 0.019561488 0.015422251 -0.020527737 0.019696122 0.0029823242 0.018008126 -0.027127359 -0.022714935 0.029648485 0.015217582 0.0063514663 -0.023279663 0.118393056 -0.058019824 -0.014047999 0.0003622797 -0.045983907 -0.019572591 0.020665204 0.014389353 -0.05021336 0.060961545 -0.06669061 -0.027988773 0.016548103 -0.039274268 0.007872497 0.0024250865 0.01880411 -0.0064510154 0.00036039235 -0.008722452 -0.026739143 -0.014674703 -0.126675 0.043875918 0.073537126 0.033317532 0.057024825 0.009157463 0.1831526 0.08613479 0.01267269 0.009642419 -0.014113716 0.012985508 -0.024206253 0.022223461 0.0262221 0.046761796 0.02610686 0.014358448 -0.025093295 -0.086095825 0.028264439 0.0070390324 -0.07238825 -0.05649275 -0.11301495 0.030972056 0.056972377 -0.034815248 -0.039016027 -0.050316323 -0.029236773 0.019833608 0.013171637 0.000102951824 -0.0027264603 -0.017047388 0.029174164 -0.014011071 -0.065932415 -0.056329947 0.0089666415 0.045810763 0.0264364 -0.011963221 0.13150197 -0.07142845 0.010221699 0.056370974 -0.004410221 -0.022773933 -0.01474658 -0.015279396 -0.001035209 0.0927977 -0.04372557 -0.028596878 0.049112383 -0.013676473 0.033529315 0.009508008 -0.025069587 0.016566636 0.035454236 0.007948045 -0.044832077 -0.030419804 -0.10536489 0.038672753 0.074004956 0.018303607 0.064217664 0.0010516584 0.18685198 0.10118805 0.03942037 0.025111698 -0.016836945 -0.0020740433 0.004008186 -0.010181529 0.05878175 0.023802415 0.06166326 -0.02638667 0.040436458 -0.032586 -0.04288988 -0.040813066 0.038915474 -0.041607056 -0.12194863 0.040450316 0.056523573 0.0072459476 0.016809449 -0.011301616 -0.024509016 0.028111933 0.010737322 -0.02450956 -0.016150052 -0.0088116145 0.0011537202 -0.0036719886 -0.052942384 -0.033228815 -0.0010671312 0.038491633 0.009697127 -0.02254979 0.12539703 -0.07013348 0.022425635 0.0077137365 -0.018158192 0.0014476546 -0.05485652 -0.0106016565 -0.01794502 0.07523856 -0.08570572 -0.035416435 0.0605715 -0.014374884 0.059500407 0.0053967126 -0.025967237 0.027250972 0.0327442 -0.004180479 -0.06197634 -0.017797928 -0.10539564 0.03318432 0.084957115 0.0054583554 0.069429 0.0074374997 0.20720455 0.08470334 0.02202602 -0.0046968884 -0.014725419 0.0004776352 -0.04327124 -0.023331998 -0.02395542 0.07239666 0.029990021 0.036721755 -0.02793232 -0.05177963 -0.0053662043 -0.015273192 -0.033008657 -0.026071616 -0.15259522 0.049474753 0.11344626 0.05409828 0.03827287 -0.02657063 0.007641209 0.04206044 0.008247519 0.019725725 -0.03371737 -0.030420111 0.034044746 -0.028694162 -0.05621247 -0.03805254 0.03442136 0.052419115 -0.015517532 -0.031652 0.131652 -0.06368141 0.0023100988 -0.014857439 0.016268749 0.0050693196 -0.0944719 0.0039481414 -0.048100397 0.07946162 -0.11658943 -0.0028470394 0.12468119 -0.06977019 0.0313733 -0.013342078 -0.08114815 0.03896113 0.044645537 -0.013491773 -0.068463355 -0.008180302 -0.0635678 0.008141497 0.10139177 -0.0052589537 0.09572438 0.014543067 0.21084417 0.14202403 0.07797101 0.0063256905 0.0013058889 0.007353168 0.011308614 0.021718161 0.067949966 0.045815617 0.0041244263 0.015229074 -0.04971285 -0.021019613 -0.009598331 -0.013945173 -0.006475495 -0.019524002 -0.20501228 0.029680131 0.07368556 -0.047864366 0.04602542 -0.019681351 0.020378835 0.03255993 0.015157375 0.0060486007 -0.01743091 -0.005333244 0.04545072 -0.028600005 -0.07439943 -0.053767536 0.012443896 0.03191448 -0.024248224 -0.03964033 0.14724573 -0.061346836 0.020928899 0.0018104458 0.043169107 -0.04161743 -0.113298595 0.033214144 -0.08677681 0.13809015 -0.10824155 -0.0044419332 0.12168137 -0.053580638 0.03909082 -0.006737744 -0.09264672 0.037632886 0.072069235 0.007457007 -0.07737071 -0.0057694204 -0.054757092 0.008708015 0.08112256 0.026638981 0.12672958 0.027933944 0.19422317 0.14769268 0.08087727 -0.0037513832 -0.037423536 -0.0016838948 0.01184557 -0.048798837 0.051764816 0.08477844 0.018184261 -0.06484465 -0.043084998 -0.025317846 -0.016919548 -0.05240145 -0.11420615 -0.0015010989 -0.16895257 0.058743082 0.041774016 0.01933415 0.08205064 -0.074028425 0.0053285514 0.01965456 0.0063840626 0.02278889 -0.040881425 -0.032260574 0.026474886 0.0047074324 -0.08505461 -0.04418615 0.01399217 0.0756174 -0.0030748814 -0.06681148 0.14992501 -0.103906 -0.026709743 -0.013642575 0.09109651 -0.031694002 -0.146016 -0.0404407 -0.008595181 0.13475846 -0.10933371 -0.05206453 0.17619765 -0.09401636 0.075584054 0.016311254 -0.11235184 0.06887728 0.100802794 0.032507654 -0.09910975 0.0070072957 -0.07899713 0.026792038 0.056719285 0.022458188 0.11474204 0.025656946 0.20812681 0.14045866 0.08866526 -0.002680211 -0.0026373805 -0.017923696 -0.0033965819 -0.038562443 0.06506519 0.10930611 -0.06629199 -0.08901374 -0.0105864415 -0.04543477 -0.037065733 -0.08416855 -0.06491543 0.047504175 -0.1923649 0.044401206 -0.0030152402 -0.039615806 0.19081947 -0.0046683904 0.017287593 0.036571156 0.023896383 -0.018759709 -0.026054818 -0.003270207 0.02631384 -0.035749573 -0.08400837 -0.019247143 0.0031507572 0.07136168 -0.03747719 -0.054506153 0.14602807 -0.09666152 -0.09732927 -0.066638954 0.19031855 -0.14948764 -0.26282427 -0.08530645 0.14726315 0.28087676 -0.10479836 -0.10529234 0.3670766 -0.14357369 0.06312792 0.0061241635 -0.13394137 0.07813333 0.13365035 -0.0015038159 -0.07846178 -0.012982673 -0.059201922 0.07528853 0.023986362 0.010912813 0.124977864 0.033143174 0.19784509 0.17655703 0.106709674 -0.02277645 -0.050520305 -0.016109858 -0.048968114 -0.089216635 0.09820721 0.1027303 -0.058384683 -0.07492845 -0.008640076 0.0346769 -0.04125586 -0.13821177 0.0756235 -0.0009322673
-0.07469723 0.10227504 0.033441115 -0.034673207 -0.019604107 -0.042147208 -0.038554847 0.023816992 0.0006537606 0.0053691585 -0.047757678 0.064532384 0.039804753 -0.0046275565 0.0073935846 0.083650604 0.07487264 0.053667296 -0.0114082005 0.029492423 -0.010926881 0.11090065 -0.004382301 -0.008020357 0.03111885 -0.02134413 0.020481156 -0.019671073 -0.024144271 0.022200096 -0.056752138 -0.09576389 0.030811917 -0.040557377 -0.011414271 0.056783468 -0.014288505 0.008453377 0.0012610678 -0.03781355 0.018928051 -0.05364448 -0.026127622 0.043750487 -0.02216859 0.040697373 0.0058368985 -0.10509475 -0.1032776 0.06804357 -0.04014308 -0.00845198 0.042363115 0.022404723 0.011241297 -0.02981862 0.023454238 -0.009004425 0.031899348 -0.096596695 -0.06727252 -0.018087696 0.0021747807 0.030737387 0.011469612 0.023717849 -0.07122831 0.10274988 -0.0031355496 -0.019218648 0.009614182 0.022122215 -0.009295444 0.017350152 -0.010313858 0.010122245 -0.054582298 0.0748286 0.03430468 0.015111271 -0.0050597936 0.0992901 0.06820406 0.072226964 0.009758461 0.043631557 0.008890284 0.09245683 0.012970011 0.0469802 0.037722614 -0.030688426 0.018753607 0.0092461165 0.04420597 -0.0059942575 -0.05200646 -0.029206121 -0.0101826815 -0.038185023 0.027256755 0.039760023 0.0030302776 -0.02111099 0.013222397 -0.03946225 -0.0005987476 -0.04077449 -0.035931755 0.05269841 -0.0128473425 0.03676581 0.01969463 -0.089501046 -0.08493832 0.0845322 0.0069952584 0.013047905 0.04075628 0.0011469909 -0.05764977 -2.140239e-05 -0.053957846 -0.021795576 -0.053292792 0.010476956 0.013918987 -0.07849987 -0.033942636 -0.003063651 -0.03442013 -0.020280255 -0.036611587 0.096912116 -0.008830995 -0.025827765 -0.061668925 -0.011144929 0.004603545 0.044774782 -0.0030834232 -0.009204826 -0.055409282 0.039083317 0.0357626 0.025840258 0.03294583 0.1069392 0.07472936 0.07896979 0.0029840346 0.0019527319 0.0006280895 0.07463234 -0.003089918 0.018658996 -0.048617564 0.06683709 0.0040265075 0.058840822 -0.026699807 0.024398334 -0.042574942 -0.05130821 0.013401351 -0.0646792 0.04526692 0.01842146 -0.010023801 0.004524361 -0.009105678 -0.023171045 -0.004855833 -0.038538493 -0.015684891 0.0031490151 0.020390775 0.06746596 0.031109145 -0.07669208 -0.09573567 0.06601796 -0.036414575 0.021020418 0.05444872 -0.026042422 0.05308421 -0.017480912 0.058076303 -0.014298832 0.0074200486 -0.00032791073 -0.022954868 -0.021881146 0.018427681 -0.024263045 -0.024014167 0.02277754 -0.05038178 0.09541893 -0.021371761 -0.02825882 -0.06237955 -0.052610297 0.006838416 0.01217837 -0.027630432 0.018834915 -0.06351919 0.07266865 0.03609679 0.037196204 0.02193767 0.10284595 0.05468195 0.095142104 0.010944287 0.022442363 0.0050279656 0.10402125 0.010349532 0.054200612 0.02515651 0.03847032 0.06402105 0.016148107 0.04686201 0.021873826 0.0050095636 -0.03832038 0.023353124 0.007095567 0.054626297 0.019971976 0.018581664 -0.031594045 0.025282707 0.025358396 -0.06751158 -0.026365364 -0.00864171 0.032274842 0.00055777165 0.038223263 -0.00645621 -0.043133978 -0.045892023 0.07933749 -0.021289267 0.027791066 0.044662435 -0.02606987 -0.005046526 0.0006161763 -0.00916376 -0.02427051 -0.037753962 -0.037309248 0.026870595 0.047155976 -0.026468584 0.0013426665 0.07210958 0.06957177 -0.045108188 0.076261364 -0.0022811708 -0.017260512 0.0308474 -0.09736259 0.0031568047 0.01453202 -0.00624874 -0.012872011 -0.03256466 0.080439195 0.018093666 0.012460008 0.0091542015 0.12617557 0.08335916 0.10446174 0.0043765213 -0.008680229 0.016934076 0.061392818 0.012365691 0.0078756185 0.02936128 0.01510209 0.026618171 0.009280118 -0.06593732 0.053336717 -0.045200583 -0.036381632 0.013765879 0.03351302 0.047740694 0.0022202039 0.041033458 -0.0578276 0.030435363 0.00022425322 -0.07861373 -0.015976543 -0.020457843 0.0060802144 0.013251819 0.04766441 0.008218143 -0.056833055 -0.028722519 0.12513348 0.0068702833 0.035860777 0.03778087 -0.017888002 -0.0019421536 0.05360955 0.07573978 -0.053995542 -0.021061618 0.046939153 -0.0023979715 0.04505305 0.047038767 0.059726514 -0.014443825 0.0312514 -0.015273983 0.030842539 -0.043200508 0.006075082 0.00697391 -0.028794216 0.010994449 0.022724856 -0.02018251 0.01227065 -0.0223354 0.03881974 0.05708653 0.010393584 0.0491741 0.15518652 0.05098952 0.10981218 0.004324766 0.013254947 -0.009271255 0.06530709 0.03423493 0.01147029 0.022694498 0.0820499 0.06106163 0.046170544 0.08712817 3.3348715e-05 0.05911775 -0.02021958 -0.04533717 0.013374055 0.05673903 -0.02810054 0.02256933 -0.05353318 0.03236626 0.037881434 -0.06521792 -0.037697475 0.03869663 -0.029091176 0.0050943047 0.020151444 0.03286021 -0.035231963 -0.01957945 0.08828024 0.040804796 -0.00219321 0.028485628 -0.035683192 0.023989528 -0.017597143 0.07287316 0.0024207395 -0.010855632 -0.06006134 -0.069086194 0.054333415 -0.029125523 -0.054083776 0.07439178 0.031293463 -0.012437904 0.0047804676 -0.06471988 0.042605884 0.036520787 -0.009867033 0.011697308 0.02766958 -0.013925548 -0.020604631 -0.052849595 0.06901502 0.028690238 0.045376934 0.03696292 0.12291194 0.07261875 0.062303606 0.008090643 0.012844442 -0.012090222 0.08224176 0.046633992 -0.01103647 0.06125895 0.0911574 0.08484016 0.10157006 -0.00935396 0.08919835 0.09519743 0.008014958 -0.069445014 0.057612948 0.049711887 -0.03963061 0.03489101 -0.029915445 -0.017552327 0.010906434 -0.059577916 5.129606e-05 0.034681093 -0.04590983 0.03374326 0.009736398 0.03199928 -0.045604758 0.014891794 0.11798887 0.05364785 0.001269819 -0.0024283258 -0.019885946 0.001719579 0.009625853 0.05538578 -0.015961125 0.020894598 0.010663641 -0.011586701 0.053925186 -0.018417079 0.05809622 0.0033924554 -0.039919972 -0.022133857 0.013201592 -0.1000194 0.054016758 0.10434673 -0.027062234 0.020847397 0.0046373755 -0.016340954 0.014402525 -0.053751756 0.04026288 0.056117997 0.037364483 0.026146287 0.16337438 0.08618035 0.1196475 0.029285075 0.010587474 -0.020214353 0.10813629 0.07719219 0.017356128 0.06025666 0.023179542 0.11461332 0.1248574 0.034218464 0.10566963 0.10846497 -0.05527521 -0.09427702 0.052661933 0.076328814 -0.042750232 0.020121895 0.0019273238 -0.032032475 0.04083749 -0.0667292 -0.00015040569 0.057500966 -0.078278914 0.025434218 -0.00094007497 0.010096436 -0.025651231 0.06922 0.06601408 0.02756794 -0.05119194 0.00068202266 -0.026614202 0.063592866 -0.013208095 -0.025599003 -0.041635845 0.09897476 0.009949343 -0.048961114 0.09222489 0.011757412 0.07226799 0.009254324 0.023731822 -0.0108084865 -0.07068834 -0.031673722 0.05614327 0.09331309 -0.030889086 0.010655352 -0.010662481 -0.010510702 -0.0055356966 -0.019426102 0.076551564 0.024343615 0.009740797 0.044097777 0.19725063 0.102238655 0.084009714 0.035983615 -0.008255607 -0.036377456 0.11763613 0.039014306 -0.020837111 0.06444071 0.009512725 0.07726206 0.21312083 0.058686823 0.23302788 0.16687906 -0.015786262 -0.20321295 0.15436621 0.08116441 0.0058362833 0.02894937 -0.008079408 -0.022142634 0.0012117295 -0.04535772 0.018695042 0.093346246 -0.11147536 0.03176312 -0.005144336 0.0026040466 -0.010131684 0.08775272 0.10871983 0.034738645 -0.034921665 0.026588397 -0.028283924 0.034456797 -0.0098121315 -0.010658075 -0.14150889 0.023815032 -0.091877066 -0.0073438874 0.031205298 0.02899549 0.16435394 0.013519008 0.088780634 -0.057778075 -0.106216796 0.1550057 0.19833289 0.091870494 0.04734245 0.025552502 -0.010011349 -0.008963107 0.006598794 -0.022479264 0.043881766 0.06509833 0.009345336 0.040954653 0.20984903 0.10832891 0.1294436 0.020187952 -0.010261429 -0.060330823 0.106246665 -0.15617731 0.09140755 0.11604604 0.011484274 0.089559354 0.28838825 0.3288112 0.47927943 0.27485192 -0.04463206 -0.37516043 0.1202011 0.082843155 0.0019813415 0.015078717 0.024412468 -0.078661524 -0.017190682 -0.06679131 -0.0055112895 0.1549346 -0.18819763 -0.0013653678 -0.03774214 -0.006538655 0.0030888694 0.09653227 0.11112811 0.02835363 -0.0076728193 0.02599731 -0.0037909017 0.024154946 -0.0048782625 -0.016898565 -0.30495518 0.058002606 -0.20536481 -0.022203859 0.12923707 0.0969299 0.19574495 -0.12832715 -0.047525585
-0.00078443583 0.0624579 0.13785915 0.0332609 -0.006374808 -0.034019023 0.05444338 -0.026000138 -0.028758269 0.016585732 0.009790114 -0.024107305 0.032091632 0.03111727 -0.034416024 -0.008569815 -0.004203474 -0.076562844 0.02032033 -0.03115507 0.058614314 -0.08022685 -0.069655314 -0.0003511067 -0.030742282 0.019839326 0.08140466 -0.04268994 -0.117141075 0.013171627 -0.035168473 0.035494495 -0.0029251005 0.07594723 0.0047387895 -0.0014800533 -0.056196235 0.06948914 0.011593268 0.044800542 0.0007868692 0.015345959 0.004807072 -0.05911203 0.029612595 -0.00058243325 -0.06851009 -0.029538644 0.035313994 0.037800092 0.022426674 -0.040918253 0.011994881 -0.0054076794 0.08098077 0.049194172 0.039055794 -0.08524503 -0.027704779 0.0066081784 0.045966122 0.012470185 -0.03780686 -0.0028572804 -0.050467476 0.19913498 -0.015086178 0.05925952 0.11893821 0.007365798 -0.0131501835 -0.033098705 0.015291082 -0.0049984227 -0.0029329914 0.01417686 -0.011229544 -0.039047074 0.028826272 0.010342063 -0.028451765 0.029493986 -0.035888948 -0.08798227 -0.005608223 -0.022106977 0.054018784 -0.07139037 0.020672899 0.019681908 -0.01223107 0.0043530897 -0.027155567 0.04073009 -0.08332154 9.225681e-05 -0.026359119 0.06378748 -0.030501895 -0.021392804 -0.021344354 0.0064215595 -0.0701204 0.05693708 0.034989946 0.027156359 0.018648444 -0.009761195 0.0142035065 -0.06502296 0.023924338 -0.009332628 -0.060977027 -0.011158699 0.00039029177 0.01978215 0.018615574 -0.020397985 -0.014578982 0.002444163 -0.023288019 -0.016767899 0.025047055 -0.0344001 0.0066504558 0.028539287 0.010422595 -0.019414905 -0.03974094 0.03613171 -0.05969664 0.12261766 -0.0066436417 0.049442425 0.06709867 -0.032643043 0.025604676 0.023603503 0.03125358 0.009337606 -0.008073342 0.018663323 -0.01499167 -0.023807041 0.040741626 0.025131062 -0.039005417 0.026817305 -0.024764812 -0.053614333 -0.022405226 -0.017322913 0.03387718 -0.054423146 -0.02872105 0.009499128 0.020303292 0.02462674 0.029890753 0.02526895 0.017518574 -0.06071623 0.021999184 0.02807693 -0.01840531 0.004922441 -0.03335664 0.0031985214 -0.03931363 0.026960863 0.059800994 0.02053878 0.021830026 0.008457188 0.034262694 -0.027369736 0.032589532 -0.019556802 -0.040828023 -0.01674042 -0.025677482 0.029194092 0.021623457 -0.008276053 0.0026831888 -0.004912996 -0.01049305 0.075333364 -0.007243943 -0.06055999 0.029442834 0.031062055 0.08413085 -0.0478248 0.02791097 0.057562735 -0.027952816 0.1202023 -0.007306924 0.033556875 0.031369 0.0055996906 0.016630284 0.009948233 0.0057577817 0.0027430286 -0.0022247948 0.0251496 -0.017244766 -0.050754663 0.02957412 -0.002871703 -0.026146866 0.0138805695 -0.04532461 -0.054448344 0.028047277 -0.014873519 0.047176123 -0.079709105 0.026820198 -0.021797149 0.050199717 0.0023813194 0.044019684 -0.06604499 -0.10305811 -0.066486895 0.044877112 -0.026604937 -0.027922666 0.006208745 -0.003399102 -0.011466118 -0.053429827 0.06411043 0.073932745 -0.020129643 -0.004662607 0.02914406 0.045671117 -0.03722912 -0.0047906223 -0.0007213019 -0.06359769 -0.015709208 -0.023870936 0.017420162 -0.030818071 -0.0072387783 0.0026500686 0.010415543 0.01590085 0.07157814 -0.040022466 -0.045741636 0.065343514 0.048899353 0.041391455 -0.011422058 -0.041385382 0.019394815 -0.000897962 0.17221048 -0.033619866 0.022121966 0.036532212 -0.018921861 -0.046311364 0.017503843 -0.01117938 0.013945531 -0.012893647 0.028134923 -0.031862576 -0.016689947 0.03461684 0.011119999 -0.030125765 0.03406873 -0.047836374 -0.07642079 -0.0036540844 -0.016784472 0.010943386 -0.074439146 -0.057668474 0.014880184 -0.005197865 0.054881226 0.08744997 -0.007882266 -0.14090328 -0.077718735 0.017437818 -0.025785007 -0.05189042 -0.017227571 -0.02982254 0.013847996 -0.038727917 0.0054923673 0.054635443 -0.029869089 0.00017293937 0.033925742 0.049096603 -0.04892362 0.012598974 -0.041287925 -0.04227353 -0.005880384 -0.018389288 0.013426703 -0.0054961517 -0.014057645 0.0072394107 -0.0052052685 0.002506978 0.08406212 0.0068518724 -0.04307005 -0.050568834 0.0060922443 0.018297283 -0.028795399 -0.02695085 0.06959025 -0.074259624 0.16226384 -0.01571993 0.020727709 -0.015191458 -0.04850594 -0.035102684 -0.020157697 -0.012438256 0.011106504 0.00013887962 0.018263077 0.0014863957 -0.032587606 0.05655996 0.01847985 -0.053320218 0.023540337 -0.05453861 -0.11073107 0.0071939887 0.022939691 -0.0001687617 -0.08147289 0.05946952 0.08327644 0.044070747 0.050273217 0.018533915 0.01948259 -0.0611511 -0.0147874 -0.010889951 -0.00796347 -0.07334569 -0.019621506 -0.0054424247 -0.0232112 -0.026464181 0.012702882 0.044920526 -0.0040432294 0.02832233 -0.0042316765 0.04401398 -0.010237987 -0.011242923 -0.02030396 -0.017936358 -0.017246637 -0.024073595 0.013653275 0.02312153 -0.008126211 -0.004921979 0.0077894595 -0.0039232844 0.019099759 0.017703047 -0.0958593 -0.0032682603 0.046561126 0.0547014 -0.07809716 0.00981859 0.080945246 -0.11783952 0.13814107 -0.043915898 -0.03255646 0.030163068 0.019659102 -0.025959348 -0.030874126 -0.008941538 0.017998086 -0.026838887 0.014758071 -0.02581773 -0.008021186 0.063704915 0.023663016 -0.04261018 0.022742728 -0.049721945 -0.118669555 0.0005869007 -0.007148088 -0.012211653 -0.04079079 0.008802876 0.027094498 0.07634706 0.033317883 0.00027878562 0.007288549 -0.08363044 -0.110848084 0.0077339048 -0.02356051 -0.0719706 -0.06989664 -0.015751533 0.019751329 -0.041351225 0.009723948 0.038429108 -0.009320925 0.029060205 0.01473862 0.0013885096 0.013980544 -0.02182848 0.0016619596 -0.0065297666 0.011207054 -0.023712415 -0.007964531 0.042878844 -0.016809706 -0.053859487 0.018599514 -0.012515489 0.03910779 -0.00016739951 -0.09023 -0.061582245 -0.02423366 0.00233773 -0.02960776 0.022448486 0.05273696 -0.10978246 0.17864724 -0.04767761 -0.05243685 -0.028709125 0.02843804 0.011658125 0.016208488 -0.018214513 0.0003362397 0.00063185475 0.008490852 -0.029162431 -0.033754036 0.04680801 0.030696828 -0.011979252 -0.010165036 -0.037008505 -0.08084646 -0.0035376807 -0.0042703613 0.029219493 -0.092142366 -0.050764196 -0.011980408 0.08356052 0.0059800725 -0.036524497 0.037811697 -0.016423149 -0.07818433 -0.0067882473 -0.04304908 -0.07704933 -0.09247907 -0.03927748 0.026177453 -0.0064349663 -0.007801957 0.034533437 0.0018630722 0.024633937 0.023871867 0.0009771335 0.04092381 -0.055444404 -0.041434675 -0.0055706436 0.007675055 -0.053503603 0.0010604392 -0.0012328107 -0.016913205 0.0016720163 -0.016695881 -0.006567603 0.08929074 -0.010834332 -0.068766646 0.0071371184 0.10218804 0.05876625 0.008927893 -0.025285877 0.13727307 -0.08588887 0.17185268 -0.04862444 -0.075955786 -0.17653096 -0.04932544 -0.06974549 -0.0062126503 -0.008282233 -0.020413471 -0.00078789314 0.028293788 -0.02810177 -0.058755383 0.059746068 0.041842055 -0.031542875 0.0015786218 -0.048321337 -0.11295508 -0.0011179406 -0.023288196 -0.0007527446 -0.11470022 -0.029787999 0.008065102 0.097837165 -0.07822866 -0.06999641 0.060578864 -0.02446139 -0.037700593 -0.041991584 -0.017228154 0.033167563 -0.23963942 -0.038148846 0.020559462 0.0034585835 0.010743665 0.042650264 -0.017779747 0.04182794 0.06405745 -0.015087206 0.047916535 -0.015913794 -0.052994017 -0.004269847 -0.023133129 -0.028852364 -0.0031625326 -0.012974917 0.0025378754 -0.01492754 -0.028924342 0.12317063 0.043965165 0.026349416 -0.12664762 0.000971562 0.043603778 0.03208797 0.0030145037 0.014488974 0.036713574 -0.18284597 0.19221394 -0.042258225 -0.06092202 -0.3724928 0.008766604 -0.24217324 -0.024370769 0.013502587 0.014212316 -0.0044351285 0.017067418 -0.04010709 -0.051964715 0.054316517 -0.0049485476 -0.022384748 0.008178256 -0.050282802 -0.106349 0.019586252 -0.016988395 -0.00029362322 -0.14920938 -0.18653372 -0.047187418 0.16356656 -0.048463885 -0.17522322 -0.15104894 -0.10374262 -0.101723656 0.049525354 -0.08826935 0.4213721 -0.52020687 -0.00476849 0.046708383 0.021859787 -0.017655255 -0.0014058476 -0.03971138 0.032392245 0.07434629 -0.030132715 0.095371984 -0.048612773 -0.076937355 0.0073528145 -0.011641208 -0.029416326 0.033482302 0.0036157249 -0.015934316 -0.0010777903 0.0075393366 -0.072178096 -0.05451834 0.038171895 0.099852346 -0.13353346 -0.023628822 0.06875232 -0.038709857 -0.03792774 -0.1535071 -0.03430967 0.14117917
-0.031951133 0.003856382 0.0027122821 -0.0021857661 0.07576739 0.0033236756 0.022704683 -0.054447852 0.028898882 0.011167049 0.1495702 0.03755716 -0.006343579 -0.0064023016 0.012088382 -0.018393388 0.11014341 -0.06350621 -0.06187663 -0.05403636 -0.046718128 -0.044548623 -0.007432022 -0.047512304 0.0029425675 -0.011237907 0.023020945 -0.031374395 0.050056044 0.0070584174 -0.09004954 -0.02386488 -0.0057060556 0.0065948623 0.0054800194 -0.004726492 0.039528377 -0.055144224 0.024863971 -0.026713941 0.012068772 -0.009434813 0.0023207527 -0.03133077 -0.0131837325 0.04117046 -0.027965743 0.0006355309 -0.029666366 0.021147624 -0.04283643 0.03717714 -0.025932612 0.019573541 -0.044200357 -0.047917437 0.013586914 0.01848259 -0.0136969425 -0.003241963 -0.08096165 -0.051460985 0.036857292 -0.03531562 -0.06689419 0.021114696 0.010467569 -0.00043510163 0.05352524 -0.024207229 -0.016230458 -0.014149172 0.009886477 -0.024527801 0.02254251 0.0017714022 0.17066877 0.016345639 0.0026238167 -0.024522923 0.012351131 -0.037949543 0.10498166 -0.07501958 -0.05730699 -0.049511902 -0.065950714 -0.038856428 0.08260927 -0.025599996 0.05494134 0.0038828475 0.00430959 -0.062117327 0.04439196 -0.000847187 -0.08704727 -0.015933447 -0.036529932 -0.0020487069 0.0076908064 0.018725002 0.02917626 -0.041278318 0.041008152 0.005442853 0.009792119 -0.05403285 -0.008143226 -0.021127136 0.009319556 0.026971353 -0.03629599 -0.00022176224 -0.0027878636 -0.006906048 -0.010245513 0.023265816 -0.03207933 -0.019351494 -0.06018725 -0.029031005 -0.029176382 0.0010286692 -0.010807731 0.06320401 -0.15289278 0.0017003041 0.032186925 0.071004905 0.017188683 -0.026181662 -0.020357491 0.015541525 0.019540856 0.036738828 0.027757255 -0.017048595 0.010369163 0.0031544813 -0.004002686 -0.0074099964 0.1524933 0.036689267 0.014749591 0.016850298 0.011719247 -0.025426684 0.098531224 -0.0618884 -0.06978665 -0.023699395 -0.06077614 -0.038696364 0.047464423 -0.036637552 -0.006579354 0.028382238 0.015304619 -0.023553085 0.08776358 0.038828176 -0.12093886 -0.06548775 -0.029715136 -0.08167345 -0.01676324 -0.0028586185 -0.00022312954 -0.036120135 0.017863784 -0.011667534 0.030053006 -0.027770542 0.0022103097 -0.014145228 0.0020438172 0.04194694 -0.017690096 0.011598308 -0.013351728 -0.009126832 -0.021085091 0.012056433 -0.022117583 0.0050681634 -0.051741973 -0.020070327 -0.07673638 0.041308567 -0.014334964 0.019198745 -0.13723135 -0.039442245 0.04468009 -0.0064740386 0.043257263 0.015314338 9.974897e-05 0.013909691 0.029140059 0.025599875 -0.024923725 -0.039584156 0.009409805 0.00047072134 0.0052276226 -0.0013237272 0.16395463 0.0027491075 -0.021312878 0.0014467228 -0.002817353 -0.021957437 0.10282205 -0.06196064 -0.09300625 -0.05154166 -0.06940231 -0.03470282 0.037184574 -0.056418113 -0.00083886785 0.03948884 0.005842149 -0.039962795 0.062697954 -0.00299667 -0.096133076 -0.064014226 -0.01778614 -0.049597442 -0.012528493 0.0015086931 0.016918773 -0.012232614 -0.027161077 -0.0041526603 0.027154772 0.004871019 -0.005890816 -0.014181904 0.026434127 0.043335732 -0.024946423 0.012788069 -0.013078579 -0.008568753 -0.0020647766 0.03226054 -0.020686189 0.012330077 -0.098153315 -0.054221347 0.08095438 0.021191873 0.007626336 0.006021243 -0.071011975 -0.0152455615 0.010956244 0.011411248 0.043917157 0.039486926 0.017300574 0.03131631 0.028493 -0.045072187 0.008528543 -0.09297278 0.004083988 0.00046857825 0.010435284 -0.008740687 0.1809679 0.026075587 -0.0066314973 -0.004714749 0.010135587 -0.03600994 0.11491398 -0.08279871 -0.052763887 -0.035909224 -0.07658922 -0.06411072 0.15388964 -0.0058333585 0.0012439443 0.04014833 0.069921486 0.05782902 0.07696145 0.007281655 -0.11632394 -0.101026766 -0.048187338 0.019179393 -0.0036929424 0.007576644 -0.014607183 -0.010057101 0.0068740104 0.036269628 0.013717354 -0.004317563 0.019693535 -0.023158098 0.011943911 0.0014917598 -0.037924863 0.04039932 0.008857382 -0.021612331 -0.0074255522 0.0418235 -0.0061996067 -0.0233608 -0.09200451 -0.039389156 -0.018510936 0.016045218 0.09810072 0.048220642 -0.071771264 -0.017494721 -0.006702837 0.050122563 0.015430135 0.05835128 0.027085029 0.017678868 0.03014392 0.02349245 0.025760604 -0.0075410134 0.0016222914 -0.0030353162 0.01392259 0.002449292 0.1944651 0.022260599 0.014846611 -0.00047492102 0.010079883 -0.06477361 0.11672115 -0.0824787 -0.10982714 -0.04047566 -0.096764006 -0.027145702 0.069153614 -0.03703962 0.002286119 0.027479656 0.017183507 -0.0069176303 0.043746825 -0.07641824 -0.09397605 -0.08128539 -0.08552582 -0.014411815 -0.016614664 -0.0428185 -0.0022227361 0.04792473 -0.007438907 0.036351945 0.017481431 -0.0376992 -0.0047120014 -0.00979426 0.0040679066 -0.017404322 -0.048927013 0.023470206 0.03063479 0.004988075 -0.008851877 0.020127261 -0.00957347 -0.0002870353 -0.09652736 0.01702598 -0.004236582 -0.01875999 -0.0015924899 0.10184948 -0.090442225 0.034460768 0.03140945 0.04661642 0.030186761 0.050812855 0.023959449 0.0024337673 0.03061362 -0.08863059 0.038779724 0.0024621454 0.012570406 0.0020439902 0.014953573 0.0062237927 0.19988956 0.021133179 -0.006487933 -0.006898882 -0.0019265189 -0.025087703 0.12119603 -0.08732162 -0.085650995 -0.06909921 -0.08956499 -0.041783005 0.08454456 -0.005236546 0.0008005278 -0.015271274 -0.021437636 -0.11077531 0.09683852 -0.09577271 -0.08145202 -0.12563801 -0.09651328 -0.035984136 -0.022032337 -0.04486129 0.013615874 0.05611904 -0.041805 0.017450051 0.022414206 -0.0060763154 -0.011012815 -0.03352094 -0.004096467 0.027968366 -0.040091768 0.045012716 0.027285675 -0.006252712 -0.009914345 -0.005227695 0.005495171 -0.018327892 -0.18223612 -0.0035165765 0.0039928663 0.049941737 0.042096112 0.051714025 -0.08512838 0.016775586 0.049208086 0.018230597 0.044359155 0.07551369 0.023019362 0.03520616 -0.04343415 -0.070664175 0.050701115 -0.096638046 -0.0009626432 0.007381117 0.016891954 -0.017491939 0.19836341 0.01341165 -0.0024074782 -0.002060029 -0.014609697 -0.039522123 0.1289321 -0.075372614 -0.08235252 -0.0613527 -0.07065303 -0.03338082 0.1647058 0.038950566 -0.0014337043 -0.026456343 -0.0032399227 -0.090769626 0.116084754 -0.059864264 -0.0880228 -0.16023928 -0.13298747 -0.051270742 -0.023273364 -0.029744819 -0.0051093623 0.043503087 -0.029510394 0.039465178 0.0016764532 -0.030781407 -0.010405821 -0.048759233 0.038707785 -0.013906214 -0.049965248 0.010777954 -0.0091342125 0.017293729 0.01805413 0.048282955 0.012568901 -0.02826778 -0.06342234 -0.06015077 -0.026262488 0.03089514 0.11916278 0.14328994 -0.05375903 -0.00037036985 0.054473896 -0.021936836 0.016210726 0.02254309 0.0269842 0.058344744 -0.08511934 -0.012085183 0.054634973 -0.17698376 0.017088493 0.032047033 -0.007082585 -0.014205385 0.24558245 0.030559584 -0.015893675 -0.0018751118 0.026304688 -0.04997769 0.14258699 -0.064154245 -0.09752441 -0.10738988 -0.11120287 -0.082648724 0.24569131 -0.04120626 0.009960264 0.0009290087 -0.054050293 -0.050291054 0.20082146 -0.103057764 -0.05502639 -0.2112786 -0.20421083 -0.04459725 -0.029496023 -0.02787659 0.007305853 0.03446209 -0.062114432 0.049043298 -0.00065200694 -0.020171262 0.026250279 -0.05082084 0.038299188 -0.02955171 -0.06367367 0.016989741 0.024149917 -0.010068831 0.016044496 0.03743223 0.058175266 -0.020119146 -0.09541018 -0.06662706 -0.035652295 0.011530287 0.048393916 0.047245596 -0.09399269 -0.091657706 0.060718574 0.033692956 -0.0030131491 0.10382456 0.04714127 0.0941632 -0.019159187 0.10132148 0.16335401 -0.38636804 0.030474305 0.032611858 -0.0007135508 -0.0061476724 0.2888075 0.0009631164 -0.019217515 0.0019018842 -0.011427257 -0.08380729 0.19234273 -0.07803858 -0.07797515 -0.09540098 -0.1372363 -0.07358943 0.56884843 -0.119880304 0.025819184 -0.10080833 -0.06419388 -0.24431083 0.33920532 -0.06099412 -0.010241359 -0.32350832 -0.28975034 -0.17846467 -0.015120111 -0.05689433 0.003395969 0.07502923 -0.08764085 0.052318946 0.029078366 -0.0010859638 -0.00037776618 -0.11195353 0.08521935 -0.020907242 -0.025787268 -0.013299882 0.0031685145 0.009547104 0.014829539 0.052926134 0.03301896 -0.00956581 0.0049051587 -0.15043578 0.006123652 -0.08803837 -0.011056134 -0.033959005 -0.03241425 -0.023289038 0.05874846 -0.08219836 0.1113349 0.034821972
-0.019118216 0.024584947 0.035854843 -0.0024478978 -0.010729695 -0.063596345 0.026955148 -0.012377578 0.014233475 0.003969641 0.032864194 -0.018434979 0.026955802 -0.0113069005 -0.0059831864 0.020834627 -0.04595318 0.026237125 -0.1316943 -0.14608712 0.14156064 0.0017795608 -0.00010744954 -0.027268462 0.001983208 0.045242134 -0.008096593 0.06180081 0.01827851 0.07044704 0.03963088 0.0043250914 -0.07970369 -0.052477863 -0.03203994 0.015830593 0.012537779 -0.0017270602 -0.008740052 -0.049912978 0.017105458 -0.034340546 0.020749513 -0.106144026 0.1158106 0.051920578 -0.024779266 0.0855879 -0.0679393 0.09736094 0.06793421 0.055484433 0.17409435 0.038819328 -0.024241699 -0.0106810015 -0.06354766 -0.018378174 0.061490625 -0.04798578 -0.0025392454 0.023144858 -0.0035343852 0.03845118 -0.028542513 -0.0029520378 -0.0076064747 0.024166608 0.0015800743 0.0059106685 -0.0065650665 -0.03640002 -0.0007409642 -0.005561812 0.0018768191 0.00021779406 0.023521297 -0.01799969 0.051722128 0.0077765943 0.017336423 0.040496502 -0.03782745 0.023299847 -0.114367 -0.15102267 0.1463446 -0.021451589 0.017879052 -0.049277373 0.009185971 -0.0077487817 0.036833353 0.008158667 -0.04158641 0.021694118 0.035349924 -0.0021807186 -0.08391433 -0.015096637 -0.0133737875 0.025042932 0.003119949 -0.0046977815 0.0035946104 -0.027810674 0.014337451 -0.048511613 0.03803789 -0.091902904 0.045014545 0.016089344 -0.045190915 0.10778547 -0.021157127 0.103946954 0.06495991 -0.02004818 0.15985374 0.019527683 0.020800011 0.004368456 0.019405955 -0.054066055 0.029563734 0.013599363 0.009440516 0.06785883 -0.01634128 0.057030704 -0.14600076 -0.019579127 -0.02151117 0.03469378 -0.017715096 0.041742492 -0.013689251 -0.07251256 -0.002932135 0.0035900339 0.010707548 -0.014811109 0.0125094745 -0.036095496 0.034499515 0.009091972 0.0014740719 0.0137445815 -0.03400113 0.004716632 -0.13286605 -0.14970405 0.131087 -0.001513607 0.0127977105 -0.044071205 0.03539622 0.0045884605 -0.011232778 0.006324065 -0.03656903 0.0067816162 -0.013315906 -0.036365774 -0.01377102 -0.051204905 -0.025829071 0.036387153 -0.026858948 0.00091221795 0.036240645 -0.029950902 -0.010813935 -0.045047507 0.03581269 -0.0387739 0.012699397 0.037002563 -0.024287513 0.104317084 -0.0030597348 0.09640713 0.08565865 -0.024583139 0.11724244 -0.005579968 -0.03062535 -0.008550097 0.044526756 -0.044155266 0.0074133687 -0.02501978 0.022966407 0.026927728 0.072455935 0.05403847 -0.12911087 -0.025637772 -0.024635017 0.018407479 -0.040249735 -0.014220091 0.00023440187 -0.038469307 -0.007325263 -0.0064765844 0.002142826 -0.013673125 0.012483278 -0.034041137 0.033346172 -0.008213979 -0.01034411 0.016633002 -0.03968734 0.038191404 -0.12162418 -0.14362584 0.12447448 0.024625178 -0.01318946 -0.048878245 0.045168128 -0.037578642 0.010141686 -0.051610634 -0.0059154867 0.046366643 -0.0037257005 -0.033127364 -0.024308676 -0.019819178 -0.0035468577 0.017596023 -0.019571315 0.024884572 0.03530945 -0.019731574 0.011374391 -0.053015295 0.04706076 -0.0041419975 -0.07734807 0.025016006 -0.06852844 0.1310939 0.0038735415 0.10980174 0.07277251 -0.064751975 0.10173179 0.0014589493 -0.07477692 -0.018714316 -0.0006341762 -0.030779116 0.012973167 0.00968534 0.011768559 0.020422015 0.012133015 0.026502104 -0.09103664 0.017818958 -0.029583972 0.0013987673 -0.06228084 0.021602677 0.007536428 -0.050786197 0.0058742724 0.009171636 0.0016505759 -0.0013162359 0.011821237 -0.030857496 0.041665446 -0.0072169923 -0.02051011 0.012662589 -0.0403068 -0.010238694 -0.11888772 -0.13664061 0.12128606 0.0035697545 -0.0048356 -0.013409311 0.018636182 -0.014429773 0.038259406 -0.005013935 0.0040536546 0.013464058 -0.044469297 -0.07474111 -0.01635214 -0.0072408076 -0.028961862 0.020004068 -0.0420675 0.032820415 0.009557463 -0.0153524475 0.011185878 -0.038987327 0.027334323 0.06517521 -0.13699044 0.040054638 -0.05474991 0.12655203 0.00065685454 0.10462246 0.053670492 -0.05399073 0.09109074 -0.012056613 -0.048912052 0.0369966 -0.023398051 0.0025551377 0.026154226 0.0122302985 -0.0121283 0.05810924 -0.016219176 0.020695329 -0.17644143 -0.05429975 -0.018083343 -0.030065002 -0.008804735 0.00016772487 -0.011290562 0.0024923582 0.011441856 -0.00430402 -0.002015932 -0.008808189 0.002336471 -0.042819683 0.07040645 -0.016694468 0.007272161 0.0031070628 -0.011945119 0.009877 -0.13211086 -0.15579607 0.13794652 0.008391524 -0.035555534 -0.029554807 0.037126143 -0.0042416095 0.033328872 0.013640483 0.020113083 -0.039766934 -0.050222043 -0.060944945 0.0041555087 -0.061749306 -0.011704944 0.027525293 -0.0655107 0.04173577 0.0479905 0.014750478 0.00042893484 -0.024441132 0.031058343 0.09608089 -0.22107336 0.016360221 -0.092150584 0.15741272 -0.015529364 0.11174067 0.037460078 -0.04658267 0.09180384 -0.01318291 0.038628936 -0.0017183067 0.023209373 -0.035715092 -0.0036650957 0.036521036 0.024188781 0.05079307 -0.017824797 0.034847826 -0.18270391 -0.04408176 0.010750538 -0.035742242 -0.02335678 -0.07793605 -0.034763064 0.006359171 0.024728922 -0.013617506 -0.0016615555 0.0036629566 -0.012557453 -0.034049198 0.05277988 -0.0051454837 -0.019922698 0.031261284 -0.013569414 0.03038537 -0.13372649 -0.13977773 0.106193826 -0.011127888 -0.0042036995 -0.010909305 0.054677423 -0.040169083 -0.0002268861 0.00736342 -0.03581601 -0.057780676 -0.07523707 -0.084995724 0.054618496 0.0006682654 -0.0094223255 -0.0041900375 -0.07768709 0.04503323 0.023797262 0.028583568 0.009627674 -0.03091121 0.034981202 0.17443004 -0.27612552 0.03162855 -0.10962805 0.15639766 -0.008001193 0.08233352 0.04941696 -0.030163566 0.09600681 -0.010540124 -0.03717776 0.058478262 0.0015309758 -0.037481777 0.02685262 0.028717114 0.007548157 -0.0015395759 -0.015298693 0.023083605 -0.15182066 0.043995183 0.013498648 -0.06264508 -0.049238138 -0.013033175 0.008616464 0.00093432615 0.021238154 -0.0078742765 -0.009302972 -4.321077e-05 0.011521968 -0.0330619 0.05502136 0.007835034 -0.0036914204 -0.003470965 -0.019816633 0.0057781735 -0.15320465 -0.14524597 0.12746513 -0.019777225 0.07008802 -0.06432499 0.028629584 -0.033994548 -0.007100799 -0.058950216 0.00886067 -0.06193605 -0.0931357 -0.12037854 0.11809754 -0.022592487 -0.02996235 -0.006358966 -0.06739863 0.07063143 0.021008896 -0.0021037196 0.0036317525 -0.0045835553 0.030053956 0.23531988 -0.35373867 -0.0055463845 -0.1431818 0.12881179 -0.055426188 0.10756009 0.048009284 0.007958144 0.12305487 -0.026023386 0.021261044 -0.0068937624 0.006814443 -0.04216937 0.0026423403 0.011527785 0.010914164 -0.018621583 -0.042418428 0.027324576 -0.1493506 -0.040238142 0.0055359434 -0.10722308 0.02274662 0.029847251 0.039582394 0.0020606632 0.021176491 -0.005229474 0.0011029923 -0.0011217786 -0.0052190567 -0.04234727 0.057857912 -0.016634004 0.00019320057 0.035451233 -0.0082075205 -0.0059987647 -0.13238956 -0.18052796 0.13195342 -0.012360809 0.048600085 -0.0939127 0.030116754 -0.041407507 -0.09764083 -0.064339034 0.029396381 -0.038632262 -0.09184674 -0.17419605 0.24808869 0.017921071 -0.014694119 0.004578489 -0.09002913 0.09062859 0.028383313 0.025499525 0.024318708 -0.022521606 0.026295193 0.306728 -0.40511099 -0.016895745 -0.15484412 0.119781055 -0.12268515 0.12416753 0.032595683 0.010296362 0.12755719 -0.026716635 -0.03219479 0.01106473 -0.06746988 -0.008870836 0.028801678 0.07418466 0.031651583 0.027943505 0.06440877 0.017907517 -0.0984714 -0.053648036 -0.005961517 -0.11978257 0.042083967 0.085710235 -0.008313704 0.016866269 0.028660566 -0.012478162 0.00887076 0.009651439 0.014245023 -0.025749698 0.060122106 -0.0042742225 -0.005313054 -0.0058891354 -0.0071634543 0.026342042 -0.14410223 -0.21102746 0.16075769 -0.0027182505 0.10440399 -0.16220048 0.068469785 -0.02720153 -0.06608188 0.04519594 -0.042741038 0.024625318 -0.09229069 -0.2397048 0.32560664 0.100125045 -0.03635887 -0.018914016 -0.08569034 0.08921226 -0.0012193396 0.019172711 0.023365373 -0.028747464 0.054006938 0.3561389 -0.4614955 -0.007870142 -0.16604823 0.09804719 -0.18570009 0.12948562 0.048629962 0.042838134 0.12951685 -0.030311221 0.09298582 -0.027679862 -0.094014704 0.03388547 0.15690066 0.08173648 0.0034396402 0.031632695 0.065656915 0.0067472467 -0.0982786 -0.025293052
-0.025564449 0.06291531 -0.010751808 -0.027250005 -0.02016413 0.027386839 0.04976291 0.050449904 0.004471121 -0.019515887 0.047147937 -0.014324421 0.019143349 0.039679248 0.05163375 0.065415464 0.04137015 -0.0012645005 -0.13881706 0.0040708804 -0.09472382 0.002710377 -0.007819234 0.07199403 0.04641075 -0.031301964 -0.024091363 0.028373595 0.09165911 -0.053514954 -0.020589393 -0.09317978 -0.0048819287 -0.010325787 -0.0016192644 0.022459986 0.041716445 0.008212854 -0.06770283 -0.05023797 -0.017406235 0.008528047 0.010546679 -0.01564871 -0.016213814 -0.014560087 -0.104574025 -0.011590507 -0.041657157 -0.031166969 -0.0011846646 -0.0035962544 0.08479909 0.0024612558 -0.006064849 0.03239046 0.006415964 0.0031617696 0.027304333 -0.019941315 -0.02624327 0.00474333 0.0008543863 0.026697427 0.08276398 0.03539908 -0.04602052 0.055816498 -0.00021476379 -0.00064603233 0.00850642 0.040385693 0.04573259 0.042236574 -0.0111740595 0.009183885 0.012374165 -0.007817925 -0.01992273 0.019658025 0.07149431 0.057002377 0.051705733 -0.0056705996 -0.113870904 -0.009459199 -0.10563378 -0.007651384 -0.0048421724 0.031176567 -0.007153368 -0.031199992 -0.010831419 0.013236517 0.09943477 -0.020100871 -0.053578768 -0.09902592 -0.01102722 -0.03003371 0.005762493 0.014686678 0.047846593 0.0021677755 -0.050877 -0.020837279 -0.029946642 0.025162688 0.021229902 0.0077737807 -0.03264628 -0.005928265 -0.073308155 -0.00973906 -0.019578401 -0.005496375 -0.028631618 -0.004830641 0.044165887 0.033948544 -0.10231677 0.048564166 0.016360825 -0.0046389373 0.0030849269 0.06687773 -0.0047641774 -0.013186432 -0.007920447 0.046536133 0.042506732 0.071275294 -0.045907456 0.043009076 -0.028449887 -0.039467555 -0.025256962 0.052848175 0.03654515 0.025346776 -0.0067081456 0.0018149901 0.052852295 -0.035366006 -0.020597227 0.00032989163 0.07188602 0.028320247 0.033820346 -0.023496997 -0.17116831 -0.035052188 -0.09775744 -0.0005294978 0.037120488 0.033372138 0.018380867 -0.05102282 0.010439337 0.058571868 0.012448377 0.04650836 -0.08674909 -0.060212158 -0.107533365 -0.034308944 0.012963963 0.022052048 0.061650816 -0.03836251 -0.06658252 -0.033013232 -0.029586168 0.022638632 0.009689688 0.010570056 -0.0034117515 0.0034568198 -0.07969006 -0.028958686 -0.023749374 -0.04850298 0.006835985 0.01220245 0.039964665 -0.010582401 -0.030956874 0.044859614 0.013181522 -0.0064802095 -0.012929193 -0.018222943 0.022949124 -0.051007427 0.0036857736 0.019928275 0.040925242 0.031252872 -0.03366817 0.055862233 -0.007977967 -0.017302629 -0.004290326 0.0208006 0.031080348 0.018755818 0.006976968 -0.008858682 0.057808336 -0.0016216694 0.008915515 -0.0071565197 0.047429357 0.07664555 0.028620256 -0.0068509057 -0.15876718 -0.051297724 -0.109218754 -0.023501638 0.06939303 -0.00016226014 -0.040761974 -0.059832986 -0.0090427175 0.0063020717 0.05963499 0.024096072 -0.1326699 -0.07042748 -0.07064007 -0.028879058 0.0025903983 0.044989467 0.04713494 -0.052140187 -0.037103634 -0.027780917 -0.0124498205 -0.025348734 0.01623437 0.005896083 0.01037464 -0.014260473 -0.060193356 -0.00445351 -0.047175415 -0.0130486665 -0.020100737 0.018208679 0.030851694 -0.007415502 -0.013324006 0.03792336 0.019735614 -0.034763597 -0.017790249 0.043917723 -0.035162922 -0.05298188 -0.009806326 0.026272679 0.114421 0.006415779 -0.0147153055 0.019349907 0.017837238 -0.031863146 -0.010298889 0.008311387 0.021143414 0.004274435 -0.011722318 -0.004208922 0.03123935 -0.03695347 -0.009116151 -0.0013299455 0.039478745 0.059919056 0.06562211 -0.040215414 -0.19823453 -0.03467336 -0.122133635 -0.025569886 0.060062334 -0.016329998 -0.029200861 -0.04399092 -0.0062782327 0.03548708 0.12232553 -0.006876144 -0.14098437 -0.098362595 -0.08349601 -0.0006982129 0.02481993 0.04194838 0.047223188 -0.059190225 -0.017601501 -0.05905134 0.009586603 0.00039043833 0.02559791 -0.023798892 -0.0059768553 0.025782818 -0.0588698 -0.007653768 -0.023388924 -0.042418297 -0.03636786 0.01638949 0.0443245 -0.023475135 -0.007025317 0.06889147 -0.023364522 -0.055137977 -0.010810083 -0.003173819 0.008468513 -0.03206936 -0.011416241 0.03109255 0.10659478 0.06993529 0.03856624 0.018316025 -0.028736439 -0.09780726 -0.037163842 0.049762715 0.0143347485 -0.016277678 0.013407711 0.011454592 0.032840505 -0.044789672 0.010818552 0.020963948 0.050710954 0.07205647 0.065696254 0.008560354 -0.17577378 -0.06725467 -0.10816351 -0.03993943 -0.009588919 -0.052685916 -0.02366968 -0.042052392 0.076791175 0.063044816 0.09656025 -0.010316304 -0.15602526 -0.15051413 -0.077702306 -0.066570185 0.01172613 0.07568719 0.0692867 -0.07011589 -0.030481333 -0.07537974 0.005944 0.010757755 0.073962845 -0.06760252 -0.0018189412 0.0306206 -0.052238435 -0.055329885 -0.0018432054 0.0018652023 -0.020305134 -0.0025770226 0.036330055 -0.007206635 -0.10472402 0.043797743 0.030603288 -0.06987976 -0.05894118 -0.016721142 0.0021657012 -0.05977325 -0.08977597 0.042253517 0.067841515 0.052498914 0.051896024 -0.008894622 -0.018108375 -0.07068676 -0.023735065 -0.017399881 -0.013953329 -0.028499661 0.0072625335 -0.011975002 0.061156075 -0.038960274 -0.026662502 0.010470948 0.07620153 0.06340853 0.09452939 -0.018608307 -0.2160856 -0.043938626 -0.11666533 -0.0435695 0.044327732 -0.03580563 -0.07550531 0.00727902 0.05761992 0.09620296 0.13837643 -0.0017402786 -0.18207295 -0.18698779 -0.11315415 -0.041989412 0.026122961 0.036800344 0.06603719 -0.039640967 -0.052818254 -0.042768057 0.009046324 0.009205008 0.10000892 -0.10213177 0.014501411 -0.0052379128 -0.047856785 -0.002679073 -0.0021997334 -0.04384861 -0.030600375 -0.010770996 0.019625282 0.0023697636 -0.05412691 0.057278555 0.014146596 -0.07931501 0.024653284 0.022747805 -0.026844963 -0.030265374 -0.08245193 0.018061262 0.042229455 0.10254425 0.11843766 -0.03543764 0.038638566 -0.060600784 0.059402253 0.023593552 -0.011355749 -0.01179204 -0.01571431 0.021399224 0.05513186 -0.017801505 -0.013325651 -0.011116238 0.077343956 0.056563903 0.09987998 -0.013076719 -0.20476034 -0.064588524 -0.14188273 -0.052369986 0.005565575 0.0021744743 -0.07295364 -0.025004968 0.052638717 0.082932785 0.15951046 -0.041343234 -0.24100646 -0.19549294 -0.19523595 -0.027169866 0.010071686 0.050044153 0.07445521 -0.026906848 -0.051872347 -0.06513386 0.025767988 -0.01761582 0.12532811 -0.12755203 0.05393416 0.004749889 -0.036319096 -0.01984735 0.0036860728 -9.635304e-05 -0.011361119 -0.04888207 0.0055592586 0.009064907 -0.0032215824 0.11767985 -0.03240433 -0.06277231 0.018136207 -0.017824242 -0.049002238 0.007182349 -0.09450322 -0.014286757 0.03636295 0.09787911 0.1713493 -0.06398318 0.054691684 0.01939263 0.050038483 0.0095630195 -0.032970242 0.0062009413 -0.008290216 0.0066858595 0.059851814 -0.050250784 -0.048381187 0.012069743 0.063529216 0.070187524 0.121840395 0.0081709735 -0.24794008 -0.10763792 -0.14793172 -0.031562086 0.07446706 -0.014324777 -0.07966572 0.06449498 0.091562495 0.045633182 0.14767958 -0.06343073 -0.2349797 -0.21753159 -0.3221773 -0.16189675 0.027718248 0.08204546 0.0801822 -0.015770491 -0.097280465 -0.08271751 0.015276526 -0.05240827 0.1629565 -0.18356234 0.050399184 0.037766714 -0.05911904 -0.0006537053 0.02417397 -0.023914319 -0.026450798 -0.060401767 -0.027562778 0.0075042993 0.021223532 0.043611076 -0.016043002 -0.026673311 0.102203116 0.0495215 -0.015390777 -0.030300686 -0.0030042992 0.038997393 -0.01821839 0.07602401 0.24854168 -0.12329069 0.07816186 0.015561757 0.05847754 -0.15394017 -0.032283902 0.021641046 0.0033840449 0.010802667 0.08492356 -0.008266567 -0.020584604 0.017188132 0.075087085 0.09362579 0.11457947 -0.045143574 -0.2501261 -0.12937301 -0.20935567 -0.07656885 0.06439828 -0.10574521 -0.124597944 0.19341761 0.05594772 0.20749943 0.3257809 -0.11981144 -0.28287393 -0.22402382 -0.44031903 -0.19825554 -0.014363979 0.070491225 0.07128647 0.06600256 -0.112050325 -0.077320255 -0.004643542 -0.021300893 0.20105776 -0.22810641 0.08535162 0.041764848 -0.057235528 0.010676595 0.024152678 -0.0074652233 0.012938543 -0.071937025 -0.038179982 -0.023307983 0.016832843 -0.043773536 -0.07536168 0.024705492 0.045973044 0.10371966 -0.0910269 -0.04093358 -0.010445478 0.07325745 0.03163717 0.14685647
-0.00017857586 0.013811584 -0.010386284 -0.022697862 0.03173285 0.0037462406 0.03266171 0.016841574 -0.026063792 -0.0015822378 0.043054726 0.027487144 -0.021652406 0.036826707 -0.028370906 -0.051136732 -0.007503736 0.030084275 0.005777181 0.020912988 -0.013590003 0.087361105 -0.048401408 -0.009417417 0.030926965 -0.020816589 0.00115239 -0.045485698 0.027220188 -0.014560898 0.0153478915 0.005722374 -0.028054181 0.0004456557 0.03629546 -0.0018977529 -0.029464912 0.05344831 -0.0054919897 0.026902987 -0.04735334 -0.0126088355 -0.023290463 0.037985105 0.0027885193 -0.026196308 0.00053309975 -0.001570435 -0.07233663 0.012138582 -0.005813902 -0.011966266 -0.004387199 -0.02765359 -0.060370464 0.039178442 -0.03768535 -0.022713853 0.01796364 -0.02929042 -0.005275742 0.03318149 -0.008106699 0.04209645 0.05526204 0.014061564 0.027295772 0.025623338 0.035542935 -0.050790947 0.02067449 -0.015216862 0.013582199 -0.027083145 -0.0053329803 0.010653727 0.05704669 0.044089735 -0.005555494 0.013039303 -0.02513692 -0.034176037 0.026353111 0.0014771394 -0.00055418396 0.031409502 0.0037758579 0.052033335 0.032331746 -0.024284605 0.015769864 -0.008129636 0.026418258 0.0028840795 0.012994724 -0.026221829 -0.0053987233 -0.008272293 -0.033475876 0.006348283 0.020116976 0.004421111 -0.044313144 0.031448904 0.030478396 -0.0024792347 -0.037128013 -0.009520489 0.022613622 0.036340326 -0.026415333 0.01823964 0.026643733 0.0074391775 -0.043908607 -0.0023838365 0.019731302 -0.0059940564 -0.012545691 -0.013043368 0.07412241 0.0051049883 -0.11902305 -0.04858532 0.018478682 0.018377736 -0.061067414 -0.01610384 0.03187821 0.047704116 0.031826742 -0.066607825 0.021338908 0.043212295 0.013225837 -0.036288187 -0.035547987 0.019252982 -0.0028707508 0.0043833926 -0.030500991 -0.0046629114 0.0497945 0.037339006 -0.033121724 -0.0017213674 -0.0049327407 -0.019190887 0.015749477 -0.007917414 -0.0012272381 0.023358794 -0.0062460606 0.06968416 -0.0095286835 0.03657968 0.0050608786 -0.00083998626 -0.017364547 0.061145872 0.06048475 -0.013999242 -0.018296529 0.009642792 -0.01125896 -0.057922367 0.014665217 -0.0020156696 -0.05107884 -0.0015155704 0.026998008 0.016390048 -0.0423884 -0.006998938 -0.02032041 0.029640546 -0.039636888 0.005106924 0.060117666 -0.014673276 -0.021772651 0.037502103 0.029716423 0.01839379 -0.0014984405 0.02745703 -0.05676196 -0.010204626 0.05360633 -0.04484955 -0.02316095 0.001325735 0.056489427 0.034699213 0.02785276 0.034445696 0.0172895 -0.12206801 0.036160152 0.019280089 0.033859044 0.0416925 0.015277068 0.012206102 0.0018934825 0.06206038 -0.020005878 0.035257388 0.06099307 0.05355961 -0.036227293 0.019071858 -0.04239211 0.0094984835 0.046577755 0.037689686 0.009348055 0.008975984 -0.012082771 0.074754685 -0.009596565 0.037811127 0.00042963866 -0.012810966 -0.027428657 -0.00018734478 0.038485497 0.022284068 -0.02125635 -0.0062874253 -0.01482334 0.060685582 0.007550305 -0.041674882 -0.023684701 -0.004238399 0.0052596573 0.038175136 -0.025670681 -0.013420631 0.02479402 0.037501696 -0.048968416 -0.029059153 0.049286947 -0.019325037 -0.027777463 0.0029723872 -0.032703638 0.05265921 0.028614346 0.03211651 -0.08586298 0.036688555 -0.011494688 -0.03015267 0.0010164271 -0.0049607353 -0.00041450496 -0.009599177 0.023328394 0.04583079 0.009550252 0.034217134 0.069076605 0.04415914 0.034109756 0.043464296 -0.015598925 -0.107911885 0.009634001 0.118888974 -0.0089399805 0.005986312 0.06719232 0.027477099 -0.0007076646 0.016530989 -0.03303788 -0.033247206 0.033300288 0.035382934 0.00440768 0.014010076 -0.0061894637 0.092937835 -0.036314566 0.01107751 -0.012639743 -0.010919112 -0.031009907 -0.013497861 0.033194803 0.020418959 -0.061576698 -0.07189112 0.020778827 0.01718243 0.026954183 0.008700909 -0.012586961 -0.018223835 0.031441428 -0.007359681 -0.01353453 0.016417895 -0.0019447858 0.048081078 -0.0053877383 0.012620866 0.063970305 -0.021935534 -0.03444329 -0.0020480226 -0.044102754 0.06571287 0.0053735543 0.016996317 -0.0022623574 -0.0046597165 0.014134135 -0.019805962 -0.019028898 0.078733 0.06435225 0.014616718 0.010151114 0.021318348 0.008850483 -0.11796611 0.027250044 0.030564047 0.042288527 -0.0178478 -0.06645714 -0.07544827 0.021411564 0.09873012 -0.019275604 0.016603295 0.03450685 0.066617064 -0.00797968 -0.00027876606 -0.03242557 -0.02645322 0.05684683 0.045183077 -0.006345476 -0.010962407 0.018801484 0.07790568 -0.049596634 0.020977125 -0.001492195 0.014229729 -0.006586083 -0.017739065 0.039118815 0.038065 -0.07051772 -0.060290083 -0.005379554 0.078834236 -0.0099171195 -0.0012685374 0.0025285557 -0.028101072 0.03939996 0.015376992 0.014354739 -0.00572096 0.0056406124 0.028310142 -0.023701632 0.026541464 0.085277244 -0.015033228 -0.01289669 0.004350785 -0.03414389 0.062947586 -0.009897577 0.01427836 -0.045615807 0.02890512 0.042567387 -0.09282489 -0.057503562 0.040448148 -0.055741813 -0.029844372 -0.05286568 0.017050616 -0.027982872 -0.011651647 0.0059175915 0.040898833 0.050403688 -0.051196624 -0.006144846 -0.06879649 -0.00503521 0.07283106 -0.014296688 0.015030638 0.02003651 0.035543904 -0.032228153 0.022194328 -0.017438691 -0.022580825 0.06847881 0.030053396 -0.023820845 -0.00392363 -0.021234868 0.0786731 -0.057894427 0.0771177 -0.07190735 0.005147574 0.006685773 0.015563999 0.06386531 0.1187416 -0.089193724 -0.068855025 -0.010386943 0.076965354 0.015930168 0.0024614206 -0.022465574 -0.027586197 0.045371555 0.043702554 -0.008968602 -0.023971474 0.0037849015 0.007832279 0.0016231057 -0.0058250283 0.09913984 0.021676997 -0.01865341 -0.017623994 -0.017659865 0.0069938092 -0.022469157 -0.001479882 0.026656926 -0.00845762 0.006454748 0.0030416176 -0.025354555 0.019133557 -0.008841836 -0.03844607 0.0056427866 -0.0037266456 0.033166166 -0.09958087 0.027486196 0.045058567 0.08699526 0.07294466 0.0025087022 -0.10081145 0.02427501 0.02616667 -0.008660226 0.010991395 0.039022878 0.07320578 -0.014713276 0.020449532 -0.014238586 -0.02631925 0.06458954 0.056090865 -0.028655 -0.03321868 -0.00600048 0.11510449 -0.11363726 0.097510636 0.0020432943 -0.057669885 -0.058786474 -0.042421762 0.09521062 0.125622 -0.12870994 -0.03531117 -0.039771132 0.11432699 0.00674605 -0.022822928 0.0069441744 -0.0058790073 0.022975754 0.023042478 0.019562347 -0.0043109125 0.012151297 0.004497653 -0.0059466376 0.01783195 0.10689477 0.038678512 -0.008337052 -0.008048349 -0.03604846 0.014099499 -0.02708644 -0.01014832 -0.01180266 0.020521568 0.07956858 -0.009621209 -0.020536778 0.072270855 -0.07774782 -0.020057857 -0.017718459 0.04971227 -0.034891535 -0.0712277 0.03775681 0.05204545 0.025898935 -0.022863181 -0.06356695 -0.2218714 0.02431918 -0.0029403423 -0.008457665 0.010958848 0.023895776 0.08860296 -0.017798292 0.01371539 -0.058880232 -0.029572204 0.10774146 0.02798743 -0.043570366 -0.025741935 -0.016693806 0.09644075 -0.1620074 0.093417995 0.068485886 -0.06662882 -0.088670984 -0.07295871 0.050315756 0.15998544 -0.20356204 -0.13041435 -0.015127345 0.13037357 -0.026968645 0.004713727 0.0037687062 -0.050725717 0.024679856 -0.022339473 0.025853261 0.0048193405 -0.007118714 -0.02422462 0.030672014 0.014944091 0.14403148 0.06953741 -0.008633369 0.013211746 -0.046428807 0.03995756 -0.002875532 -0.0061146817 -0.07872274 -0.027019056 0.07921225 0.006048545 -0.041361183 0.038242612 -0.015565784 -0.02223872 -0.04831425 -0.08623678 -0.024036122 -0.055718288 0.025437716 0.046475053 -0.06796574 -0.00053894124 0.1386288 -0.35667413 -0.003133884 -0.011656668 -0.0007226122 0.024137806 -0.01699122 0.060032345 -0.02047408 0.011830683 -0.05522598 -0.051838502 0.111060485 0.087727845 -0.05822747 -0.033266842 -0.028679807 0.14564936 -0.31987438 0.20587598 0.07045781 0.026391454 -0.20342799 -0.3410988 0.26533952 0.3756033 -0.24375013 -0.26804453 0.13122296 0.46757755 -0.059089795 0.0007138042 -0.010794698 -0.024387177 0.010200163 0.001230858 0.055379312 -0.011183517 0.0011765866 -0.028928583 0.050177537 0.035682518 0.15178329 0.0866669 -0.015568392 -0.030577818 -0.015643876 0.017586324 0.03296312 -0.0039501116 -0.120932996 0.021537824 0.08094522 0.163735 -0.0979501 -0.06737763 0.042147182 0.0814231 -0.09572781 -0.1923965 0.10498691 0.061752055
-0.020935662 -0.0040428047 0.05594355 0.030103832 0.02146059 0.019170709 -0.0058755684 0.022471398 0.03414977 0.0047144135 -0.038342163 -0.04275205 -0.01869623 -0.06034267 -0.024283832 -0.049727827 -0.0025875072 0.13385895 -0.11256713 0.0045571523 -0.008080862 0.04615573 0.10070327 0.04452373 -0.055624332 0.054451205 -0.044355836 -0.010523633 -0.054656807 0.00046865654 0.084725015 -0.045550633 -0.040593043 -0.026066765 -0.039939877 -0.054887984 -0.009597757 0.026835583 -0.05594244 0.06477951 0.058772895 0.04170264 -0.070944555 0.054656792 0.024250228 -0.014735654 0.01725547 -0.046881966 -0.06721068 -0.032605533 0.004838881 -0.061868593 -0.01963255 -0.007032023 0.019475043 -0.05201048 0.072149985 0.03315148 -0.082537144 -0.07235492 0.019557439 0.041017365 -0.077231124 0.035637397 0.033868697 -0.039841957 -0.037708327 -0.0496136 0.036203407 0.05865612 0.017688269 -0.017019106 0.004090094 0.03531927 -0.0016741786 0.021560716 -0.06077891 -0.07336814 -0.0011529617 -0.070548 -0.042743374 -0.023844393 -0.017644404 0.15182436 -0.092971526 0.0023733429 0.00762053 0.045505077 0.060886025 -0.011954384 -0.03569208 0.033235274 0.02797645 0.03978126 0.0059708026 -0.015724663 0.05855214 -0.020185135 0.007284176 -0.02694824 -0.044953205 -0.029860394 -0.024787301 0.04009152 -0.033471752 0.038079645 0.017073154 0.019615756 -0.030111194 0.025746161 -0.011282526 -0.01387252 0.008923807 -0.06073112 -0.039044354 -0.077252224 -0.028567579 -0.031767886 -0.032807905 -0.021449845 -0.003195377 -0.017461576 -0.016799016 0.01160098 0.019266583 -0.03038862 0.0053025065 0.030857278 -0.031734243 0.0036415174 0.016602037 0.0063014333 -0.063750245 -0.064053714 -0.0076962723 0.009782959 0.008491521 -0.021164618 0.0039060058 0.046668325 0.023635851 0.020095546 -0.050364003 -0.06683431 -0.05601452 -0.06262296 -0.019813953 -0.05694029 -0.0022206956 0.1474538 -0.080902025 -0.015742686 0.011370815 0.0606584 -0.0013390819 -0.00074555824 -0.04405576 0.053037602 -0.011387845 0.0060982695 0.010647145 -0.0010862 0.01377555 -0.018973738 -0.00042102046 0.030556126 -0.029143853 -0.02986936 -0.030160662 0.06083711 -0.037062515 0.025029816 0.022514917 0.008595405 0.017978795 0.018379236 0.017188804 -0.018839914 -0.011868537 -0.03685581 -0.018273415 -0.07668831 0.0128569165 -0.025896568 -0.04639449 -0.01670183 -0.059999794 -0.046081435 0.041893523 0.0437539 -0.017259909 -0.033642296 0.04199562 0.011373986 0.02419132 0.022404073 0.07644137 -0.036910195 -0.05260406 -0.113510415 0.007806947 0.13367853 -0.08331239 0.0045627775 0.012132066 -0.005620863 0.017037675 0.041033074 -0.040178005 -0.0681828 -0.018462611 -0.071938254 -0.039351087 -0.03152975 -0.020719428 0.13454345 -0.0755963 -0.011504621 0.0006896504 0.035839863 0.0053807055 -0.0008873613 -0.010483346 0.03497028 -0.06873899 -0.03175644 -0.06527642 -0.0048798625 -0.019738318 -0.007946069 -0.025992732 0.010826317 -0.037084408 -0.00436639 -0.0055213864 0.07277834 -0.070944875 0.02109101 0.021866854 -0.027007438 0.043846563 -0.023660904 -0.04447026 -0.0018886604 -0.023414994 -0.04227686 -0.023556458 -0.04750681 0.029851608 0.0018364006 -0.047951773 -0.027340757 0.018875657 0.03476587 -0.010198319 -0.00035095037 -0.041654646 -0.052093767 0.0017095689 -0.015322537 0.01842324 0.025799567 -0.00748429 -0.054661024 -0.04890461 -0.121532135 0.04843957 0.038987644 -0.0283723 0.013443119 0.016150143 0.00789338 0.002872253 0.02678092 -0.05025861 -0.026937967 -0.02285154 -0.044297203 -0.010569989 -0.029708063 -0.012170743 0.13756603 -0.110721275 -0.009265908 0.024164835 0.05654842 -0.007756067 0.037605062 -0.01700988 0.046821203 -0.03523029 -0.007888669 -0.026094992 0.038635083 -0.00610024 -0.05732175 -0.022125281 0.01496387 -0.0061669424 0.00354834 -0.043293964 0.062403522 -0.053296246 0.009777781 0.031043485 -0.0072209765 0.076884 -0.04600708 -0.013616155 0.014664636 -0.022298183 -0.009039365 -0.004886235 -0.07420255 -0.012990894 -0.009387851 -0.05828753 -0.006644323 -0.0015824019 0.056192055 0.032872576 0.07307035 0.029853621 -0.034821562 0.029165963 -0.06660636 -0.011595521 -0.03831737 -0.03121875 0.00066390214 -0.07216109 -0.15788154 -0.010617409 0.078105494 0.018064514 0.022313187 0.029457211 -0.028582389 -0.00069473207 0.012255588 -0.034302697 -0.065234184 -0.04324401 -0.070269406 -0.011793597 -0.03569029 -0.047401708 0.11662296 -0.0917748 -0.02512507 -0.0143447295 0.051353123 -0.01061302 0.056187958 -0.018990085 0.018296292 0.06491996 -0.031569254 -0.033397727 0.03103264 -0.049070407 0.021223176 -0.032823443 0.0058958344 -0.014671997 0.004861731 -0.06286651 0.095874 -0.0529951 -0.025974488 -0.0008342155 0.0032596071 0.086078666 -0.05612778 -0.06641334 -0.0010924578 -0.027382901 -0.020672882 0.02539176 -0.029305438 -0.019597463 0.02341153 -0.021079138 0.025219874 -0.03084899 0.011721565 -0.029364526 0.0059340736 -0.021018138 -0.009718288 0.05014635 -0.005620856 -0.033333693 0.004156365 0.00059623946 -0.00090189977 -0.06691722 -0.2036047 0.01243292 0.07358855 -0.023856841 -0.033104833 0.02625573 -0.027948305 0.021379724 0.0121768955 -0.050921835 -0.06001558 -0.049866408 -0.067417584 -0.036451753 -0.049176827 -0.049446233 0.1704256 -0.11039661 -0.017474947 0.02420952 0.031919323 0.0078089773 -0.0065819467 -0.0043431763 -0.0056869914 0.04222715 -0.08720756 0.027121685 0.06877973 -0.023130784 -0.0059468253 -0.010686475 0.006774317 -0.0021891394 0.018310644 -0.07765206 0.08082613 -0.043391887 -0.040187947 -0.02348221 0.0010904166 0.111049734 -0.02541055 -0.053575873 0.020994406 -0.01754757 -0.056109246 0.01104835 -0.081003524 -0.048522037 0.03584288 0.015029652 -0.010032928 -0.00925783 0.07953658 0.031063661 -0.060643505 0.08338908 -0.11831682 0.02089466 -0.056476407 -0.002097731 0.008183234 0.008128907 -0.059661582 -0.06767438 -0.29585657 0.015405132 0.08228579 0.03261839 -0.02926404 0.0037425493 0.0011517137 0.0011791587 0.012207544 -0.04071 -0.06556767 -0.047530103 -0.08626573 -0.038403895 -0.06472808 -0.03307502 0.15427183 -0.104661085 -0.011136467 -0.006143078 0.033109512 0.00076015195 -0.022855582 0.025002679 0.0059778052 0.054083146 -0.05636439 0.0055105845 0.08777582 -0.043963395 -0.02768992 -0.0069033485 0.032423683 0.036675576 0.04120594 -0.036681768 0.087826826 -0.03380537 -0.068247765 -0.038063083 -0.006210628 0.10897353 -0.058452457 -0.11135451 0.0037892282 -0.015821677 -0.057153996 -0.0003192377 -0.10003995 -0.04209205 0.0713352 0.013734488 -0.0010242054 0.030406604 0.04384056 -0.008272184 -0.042016357 0.08958806 -0.0074788323 0.020870354 0.008584637 -0.03903188 0.093922354 -0.06398182 -0.066221096 -0.075775936 -0.39010355 0.05489224 0.17726433 0.021479467 -0.045537625 0.028566785 0.003688028 0.009874834 0.020056732 -0.032155443 -0.069914624 -0.036999393 -0.07212828 -0.033579364 -0.052912824 -0.048243087 0.16019595 -0.09216002 -0.017157441 0.0047084703 0.05773211 -0.011077774 -0.0068207495 0.032115553 0.023871373 -0.016815886 -0.06017125 0.047653988 0.18314727 -0.063369595 -0.05419064 -0.04671871 0.051148754 0.003225791 0.08117026 -0.05476992 0.02969841 -0.02106925 -0.05223272 -0.042811595 -0.011781586 0.11737152 -0.017725132 -0.109830596 0.021978037 -0.013908473 -0.07294584 0.02191714 -0.093813814 -0.09468315 0.038038537 0.026232382 0.015487803 0.008132843 0.029259918 -0.02970714 -0.053804364 0.15134284 -0.06575598 0.08542961 0.06415261 -0.025979057 0.10511055 -0.032772195 -0.0144297425 -0.0676842 -0.49230695 -0.093217865 0.3886242 0.019683903 0.014067173 0.040269535 -0.0005750189 -0.006394286 -0.0019828933 -0.056288786 -0.08392822 -0.041499067 -0.05187588 -0.0007075578 -0.0690156 -0.039515205 0.18082406 -0.10369709 -0.020128435 0.027960889 0.05968868 0.026099142 -0.1039364 0.05938267 0.0023604676 -0.016911743 -0.08247427 -0.15992974 0.32897863 0.043234028 -0.15968211 0.047519695 0.14016056 0.064191185 0.12543267 0.0054868343 -0.030070744 0.042234983 -0.1433583 -0.03822481 0.027468989 0.08925895 0.007928378 -0.14137627 -0.03245737 0.02104447 -0.068333276 0.051137213 -0.0065738456 -0.025014445 -0.020971807 -0.049707044 0.016836582 0.01926083 0.062108852 0.06353287 -0.24006699 0.278919 -0.12370028 -0.059637412 0.15515989 -0.06448152 0.27438757 -0.11991013 -0.08586146
