-0.025423272 -0.023157615 -0.060906842 -0.01362978 -0.012853364 -0.028689979 0.02676765 0.0032291345 -0.0028566911 0.022584777 1.4613086e-07 0.034739517 -0.035300054 -0.028361341 -0.047747374 0.00622079 -0.035848264 0.01564659 0.031044047 0.067546256 0.0053063706 0.0036814183 0.055161595 -0.031394627 0.00027165917 -0.054768138 4.9533897e-05 -0.05284136 -0.02719954 0.013344067 0.016465496 -0.0014793858 -0.026541876 -0.017098185 -0.036792647 0.022912666 0.030642975 -0.032247722 0.0060656434 -0.07384418 -0.0069431453 0.026332498 -0.04020858 -0.045993153 -0.02268496 -0.008893454 -0.032267157 -0.048881553 0.012604972 0.04624039 -0.033155695 -0.035159115 -0.0117605515 0.023395073 0.01858514 -0.013976252 -0.002135991 0.022278076 -2.0835867e-06 0.012826197 0.022917949 -0.010557758 -0.03509352 -0.006603588 -0.043995827 -0.027248928 0.01412654 0.01780084 0.012603725 0.029787906 0.02317663 0.033853114 0.0063378485 0.0056409854 0.02134818 -0.031068394 0.044048086 0.018435592 0.019025112 0.029138789 -0.02167203 -0.02333356 -0.037969872 0.022905825 0.071787745 -0.024166387 0.04635858 -0.02784149 0.0334473 -0.0089193685 -0.005481933 0.011381525 0.002149822 1.5297257e-05 0.011723517 -0.034094702 0.008682429 0.0240246 -0.027252555 0.0067907837 -0.019329585 0.01630484 0.0030507355 -0.0136233205 0.0060408777 -0.023015674 2.069422e-06 0.012388333 0.035783093 -0.04456626 0.0035509102 0.015075018 -0.037097983 -0.04552844 -0.019496022 0.0100634545 0.019935079 0.05141996 0.006086835 0.04368084 0.050453812 -0.05234757 -0.021244606 -0.07720465 -0.016546069 -0.013816497 0.028908534 -0.017134206 0.0035466158 0.00039558308 0.02061258 0.047351874 0.026172718 -0.005971203 -0.0041982685 -0.011554886 -0.009614019 0.018607233 -0.03677077 -0.007867775 -0.042026125 0.028767569 0.012377643 -0.01483376 -0.003217577 0.01280434 -0.04779807 -0.044892292 0.003738707 0.051444016 -0.016061276 0.016933417 -0.0052794507 0.033558592 5.2050353e-07 0.003668234 0.04638466 -0.012109683 -0.011408011 -0.03226935 -0.039749775 0.008519881 0.011824746 0.05733296 -0.050013334 -0.018325657 0.023214273 0.006338352 0.030016325 -0.00071293075 -0.026479986 -0.030692 -0.02506491 0.025152879 0.023514522 0.03959625 -0.027477702 0.032529812 0.017697252 -0.019286579 0.004129315 0.02824745 0.000110248395 0.04480889 0.0050732545 0.033584166 0.017060664 0.016501669 0.008957026 -0.016403826 0.049907945 -0.1050582 -0.005791359 0.0149993375 -0.027917441 0.0019928098 -0.015673561 0.029584466 -0.022566264 -0.0027228263 -0.005324825 0.013029577 8.177155e-07 0.062364314 0.0431034 -0.032078218 0.0041581444 -0.037493497 0.018760705 -0.03697307 -0.014214388 0.017352879 0.025624745 0.030465147 -0.023644593 -0.011606621 -0.0039590467 -0.0059906235 -0.0013144909 -0.011815002 -0.048154216 -0.010862619 0.028721722 0.021414815 0.02915476 -0.0012062672 0.0035782745 0.015974358 0.051322754 -0.044009093 0.04345812 -0.017549407 -0.0039058279 0.031590708 0.020161066 0.014263945 0.0014583712 0.023260517 -0.017004088 0.0035866876 0.013606236 0.027277572 -0.06383041 -0.00212612 -0.04746054 0.032885723 0.0074619 -0.012654842 -2.476189e-05 -0.0160875 1.8574567e-06 0.06878181 0.033360925 -0.057767686 -0.017386291 -0.061998438 0.022822741 0.017656704 0.031765223 0.0191221 -0.03285412 -0.004926316 0.033727635 0.035534605 -0.024859466 -0.048138335 -0.0070906733 -0.046539962 -0.0048411316 0.032467138 0.03314769 0.008556039 -0.015316059 -0.0036846916 -0.0013179674 0.033912547 -0.0047976063 -0.024194524 0.0074133235 -0.0076498645 0.016783526 0.02290094 -0.010443508 0.022038542 0.0013927527 -0.042979494 0.04549894 0.0017937154 0.03197767 0.024423549 -0.022435173 0.026356457 -0.015000766 0.03665397 0.047727875 -0.032394 -0.038359936 0.029094838 1.8835145e-06 0.07472504 -0.004080924 -0.040931318 -0.027788198 -0.038840763 -0.004431703 -0.019205987 -0.00614236 0.025437985 -0.021733338 -0.0039248695 0.019825362 0.060507707 0.002971183 -0.020042293 -0.047204774 -0.022869822 0.005216932 0.029678956 0.0036581196 0.045969296 0.041880235 -0.0023546712 0.004624053 -0.021025134 0.0577494 -0.0038983852 0.021192044 0.030825296 0.0052203094 -0.020055551 -0.042865407 0.049442567 0.009242497 0.016692856 0.007853713 -0.017230898 -0.007810311 0.04270064 0.02958762 0.057654075 -0.033063456 -0.014293562 0.008778034 -0.043688957 -0.011680001 -0.033422712 1.1833423e-06 0.054875907 -0.019346528 -0.029493522 -0.02193736 -0.04619356 -0.026924381 -0.041403215 0.04899861 0.051007986 -0.020253222 0.008929634 -0.0084549375 -0.020376869 -0.018215992 -0.017713899 -0.041331053 0.011319574 0.076537006 -0.0721246 0.013878225 0.040200014 0.006419725 0.049593624 0.0029821536 0.016033344 0.040595263 0.031446736 -0.020787895 0.010768199 0.000658945 -0.02095278 0.06238311 0.029661877 0.009538382 -0.0002659037 -0.064559594 -0.08493836 -0.028038817 -0.005282128 0.02073306 0.051244598 -0.03037058 -0.06177517 0.03153581 -0.031590506 -0.026253587 0.006934794 -8.871332e-07 0.04754993 -0.004186642 -0.05035826 -0.048758805 -0.032277577 -0.013568615 -0.010979842 0.021518428 0.053457633 0.0337435 0.03244355 -0.00040919546 0.0021965934 0.00408757 -0.047060013 -0.030039057 0.0777476 0.026032135 -0.010949356 -0.037336092 0.095189475 0.031440653 0.02726845 0.02868273 -0.029276803 -0.01575684 0.016989268 0.0013470893 0.03184862 -0.028300503 -0.024150252 -0.0021824737 -0.0031819465 0.015111219 0.03959391 -0.0334058 -0.055092424 -0.01825546 0.027746953 0.052097373 0.05841889 -0.05006071 -0.14415437 0.03130738 -0.058911826 -0.04313269 0.023257826 -1.4331321e-06 0.052627716 0.043793827 -0.038988184 -0.0070958994 -0.017950986 -0.032796625 -0.045075823 0.018409053 0.09750799 -0.042329047 0.028794711 0.06597754 0.012642165 0.07343676 -0.026256956 -0.05385103 0.08286112 0.0498661 0.025201933 -0.061630245 0.0327222 -0.04514246 0.05313319 0.11421184 0.19510296 -0.022743229 0.033804085 -0.057434965 0.050366078 -0.058028962 0.0329681 0.037125636 -0.07460693 0.06118034 0.04776036 0.009824242 0.044656664 0.15960759 -0.23628281 0.120902404 0.19195704 0.008241152 -0.09709077 0.09404275 -0.09870285
-0.07378446 0.11249247 -0.017400825 -0.0043419087 -0.036686826 -0.016194468 -0.022984818 -0.06733152 -0.031623095 0.0026104886 -3.547456e-07 0.013775647 0.008271664 0.018356215 -0.03944482 -0.04811694 -0.016390676 -0.020367716 0.04351339 -0.03873284 0.0054898327 0.016288646 -0.020052101 0.031787712 -0.004857305 -0.04293615 -0.022484617 -0.041507855 0.0027676732 -0.008219005 -0.008433148 -0.008261259 -0.064423695 0.0049978113 -0.026407927 -0.004510266 -0.012509615 -0.04727195 -0.04157905 -0.006916761 -0.012276713 -0.04070555 -0.06076846 0.06181039 -0.03047165 0.056215204 0.009597598 0.03921496 -0.055543516 0.10319399 0.018410232 -0.014163085 -0.04362725 0.013474146 -0.034960497 -0.029970737 -0.026080132 0.021117508 -1.066009e-07 0.003562453 -0.036084615 0.0067962585 -0.06570088 -0.060042385 -0.016296418 0.03744786 -0.01081766 -0.0032967625 -0.00068253657 0.0035764244 -0.0045978124 0.004608382 0.009677031 -0.016932461 -0.0058192518 0.026014922 -0.018570194 -0.012641537 0.011073432 -0.013045964 -0.054857813 -0.012285415 -0.004466498 0.01670942 0.04041877 -0.009825031 0.015202781 -0.0145112695 -0.027691307 0.022501592 -0.0053394153 0.02469456 -0.0071951826 0.01874942 -0.035115138 0.005264294 -0.061448056 0.09686027 0.034724575 -0.057787277 -0.061237402 -0.004285785 -0.021069719 -0.06947731 0.00014242934 -0.0029692377 9.320208e-08 -0.031435408 0.016670698 0.0018668651 -0.037780814 -0.034060653 -0.0068540936 0.02534233 0.004113446 0.0033485058 0.029906403 0.032735188 0.0061446265 0.0046950784 -0.002315609 -0.006036241 -0.024831075 0.00090300885 -0.018560594 -0.012262423 0.00481898 -0.0041226265 0.009414751 0.023342872 0.043013938 -0.00916889 0.01601627 -0.053346936 -0.011584954 -0.025596788 0.021750573 -0.008487687 -0.023754159 -0.014872916 0.012284568 0.0804737 -0.051057335 0.007162687 -0.028649626 0.080559045 -0.008166068 -0.053207662 -0.1009078 -0.01958396 0.0023472314 -0.055859853 -0.0042883814 -0.0044648773 1.8924314e-07 0.0058580525 0.0002786644 0.0026613623 -0.06480958 -0.07035452 -0.016532283 0.023243248 0.018052412 -0.006728527 0.037354033 0.02239817 -0.037418514 0.043257672 -7.203228e-05 0.005917241 -0.022205038 0.014085999 -0.0070449626 0.025271187 0.030127803 -0.029937355 0.0045096185 0.010652885 -0.005638793 0.011013742 0.06046168 -0.0071882177 0.019749833 -0.015258892 0.0020528822 -0.055188477 -0.025750417 0.010823396 0.015962396 0.05494692 -0.03455124 -0.019710355 -0.10443986 0.09137853 -0.04573364 -0.05761997 -0.053845625 0.0123939905 -0.032993913 -0.062215496 0.002644542 0.036309358 -5.419908e-07 -0.0026042424 -0.0035943752 -0.041529935 -0.03212842 -0.015585198 -0.042833716 -0.0055287005 0.005828939 -0.034642007 0.027027007 -0.01756799 0.005564548 0.014506747 0.0267766 -0.071058825 0.023758935 0.021053962 -0.011476725 0.03961782 0.035681177 -0.01555202 0.006573784 0.015976906 0.032022357 -0.052193835 0.028628668 -0.043245655 0.028663209 -0.00713178 -0.003017321 0.012462343 -0.05391068 -0.00092002907 0.014563011 0.0052556805 0.033574175 0.046724066 -0.07157088 0.039631262 -0.03606319 -0.054736637 -0.052991085 0.0017258244 0.0052545834 -0.07276714 -0.03672361 0.0019208303 1.06859005e-07 -0.03293963 0.006748125 -0.008900623 -0.06277637 -0.043186583 -0.0075336187 0.021796003 0.002297784 0.00289629 0.0278485 0.035590135 -0.0018683032 0.0048595085 0.0055157165 -0.08658461 0.043680184 -0.004939391 0.017556952 -0.00015405455 -0.04083257 0.0068828864 -0.03516759 -0.00878615 0.04418654 0.011353714 -0.0068600145 -0.045355868 0.046665516 -0.06435438 0.026055168 0.050149124 -0.11899422 0.07555 -0.010161309 0.023603588 0.025177186 0.015559338 -0.08837102 0.06218972 -0.017158398 -0.073796675 -0.020213287 0.04456261 -0.028099477 -0.0999791 -0.040428218 -0.023331475 -6.0899174e-07 -0.053213257 -0.02493906 -0.03768882 -0.032756414 -0.058177702 0.017974239 0.025578804 0.03650521 0.0011079697 0.028409101 0.0029417449 -0.0031955922 0.023153642 0.015903173 -0.031104488 0.040747512 0.014843869 0.043027814 -0.034475062 0.0060594403 0.008413281 -0.017444445 0.03417426 0.065806575 -0.0056093396 0.07840343 -0.031121697 0.034286007 -0.04244374 -0.022306217 0.013653445 -0.077210516 0.044839982 -0.061470084 0.084911585 -0.004084301 -0.03095658 -0.11547921 -0.009293055 -0.027531352 -0.050793275 -0.040249053 0.009505253 -0.005318979 -0.0889202 -0.028082024 0.023424532 2.2003712e-07 -0.060083017 0.040694036 -0.0043039666 -0.018929878 -0.06787447 -0.024420734 0.034156002 0.03137738 -0.023836955 0.026283862 0.029714914 -0.027725182 0.030450614 0.034563888 -0.048424166 0.06862224 -0.002154973 0.047527663 0.006165906 0.009926356 0.00089843984 -0.03445726 0.0006478651 0.043043014 0.06397888 -0.007529651 -0.0077006496 0.07202975 -0.053528585 0.0014538084 0.011524368 -0.10811554 0.033337332 -0.08642463 0.0013869547 -0.020781498 -0.07168428 -0.06839099 0.004982316 -0.0038670928 -0.09838072 -0.029262532 0.061311375 -0.041287657 -0.1134891 -0.01223412 -0.016724449 3.5580686e-07 -0.017129606 0.005816845 -0.021846883 -0.032993454 -0.055886015 -0.022783497 0.0019081548 0.041074518 0.002144793 0.04503145 0.03140254 -0.02581383 0.062818624 0.07823853 -0.024564356 0.09599187 0.0011138204 0.020490328 0.055722 0.017889103 0.006643953 -0.021051144 0.075009555 0.06303532 0.047382835 -0.007068009 0.058217388 0.047957193 -0.075276114 -0.06002191 0.027582075 -0.08358083 0.07686124 -0.100384325 0.01664266 -0.052984837 -0.044098746 -0.084002905 -0.035398237 -0.018455384 -0.08513245 -0.07414206 0.1270529 -0.027116088 -0.11812596 -0.016438862 -0.0007633124 -5.047561e-07 -0.06520545 0.017323812 -0.06406163 -0.026886411 -0.048658326 -0.011827798 0.033806972 0.04355731 -0.03934622 -0.0050608637 0.038181458 0.03568291 0.042603347 0.12708513 -0.060068723 0.10670291 0.030080322 -0.031818304 0.08925308 0.1488475 -0.07519482 0.017795349 0.066535644 0.19402447 0.26266414 0.008329283 0.026655901 0.08065287 -0.01041248 -0.1545078 0.0047664586 -0.0789348 0.06783417 -0.05597244 -0.016245935 0.016186522 0.005989352 -0.025091194 -0.049759608 0.39133945 0.01695293 -0.118605435 -0.23354244 -0.004109511 0.117026664
0.04298833 -0.010031275 0.0017052601 0.026919406 -0.024215316 -0.010196452 0.013535475 -0.0066002803 0.013660395 -0.0638526 2.18033e-06 -0.03319886 0.005402194 0.062005304 -0.019001959 -0.0010379218 -0.010974645 0.021661203 -0.0027536005 -0.011039959 -0.03898028 -0.0022441386 0.0023604475 0.006274522 -0.004645524 -0.0045345486 -0.0066473973 -0.033453576 0.03276008 -0.041112345 -0.044506203 0.015364012 0.024961898 0.004526891 -0.024548365 0.002033313 0.015975362 0.006715138 -0.005803018 -0.028255947 0.016883964 -0.01298901 -0.0023330294 0.015463175 -0.023042284 -0.017737543 0.0032990195 -0.019535713 -0.009904898 0.023129905 -0.030118888 -0.031518515 -0.0031402113 -0.021026745 0.024739385 0.023695057 0.014052064 -0.048353866 -3.5410697e-08 -0.0012483578 -0.027986735 0.036712296 -0.0043855705 -0.007851943 -0.018801253 -0.027686445 0.0064895586 -0.010646014 -0.04280178 0.016720599 0.006275679 0.02546135 -0.01203811 -0.013549625 0.032950662 -0.01032876 0.017018484 -0.0578607 -0.049889624 -0.002229401 0.04090563 -0.018054564 0.016408402 0.04469923 0.051127806 -0.056710195 0.0051204925 0.033341147 0.017240318 -0.026579998 -0.012420326 0.031513993 -0.015262531 -0.0047702524 0.025216907 -0.0061680386 0.025746325 -0.020727169 -0.032796856 -0.04113929 0.05670836 -0.023357805 0.021373015 -0.016774757 -0.026828531 -0.04980049 2.44537e-07 -0.0042267833 0.010313052 0.05630043 -0.038788807 -0.026477398 0.0060832794 -0.017632542 0.01870631 -0.044144608 0.018011829 -0.015442999 0.013102245 0.007101412 0.038165513 -0.024381366 -0.021608967 -0.05098345 0.034143448 -0.04204435 0.013664611 0.06408355 0.027875042 -0.019066857 0.004435763 0.031463843 0.045387663 -0.012495452 -0.04481653 0.046155866 0.035601225 -0.026287125 -0.061298802 -0.007834741 0.024921982 -0.019948771 -0.0065118903 -0.007667783 -0.0125493705 0.024475569 -0.00041153902 -0.02680891 0.049860265 -0.0488489 0.003485561 0.020533625 -0.04909433 -0.09846687 -3.913616e-07 0.009987329 -0.011015932 0.013233559 -0.028850468 0.0049999524 0.030182622 -0.04948518 0.033900585 -0.0018737547 -0.022098448 0.0003050543 -0.011494538 -0.0046046264 0.044425 -0.034637906 0.020876352 -0.04932745 -0.025099786 -0.002514791 0.019208524 0.030059062 0.014095693 -0.010934617 -0.010571272 0.026592148 0.017288236 0.010979389 -0.027826661 0.0037546647 0.012800884 7.282303e-05 -0.04250921 0.042846736 0.0066151894 0.018662138 0.027966367 0.030242728 0.042831033 -0.005717917 0.016058786 -0.013609495 0.053734142 -0.038320065 0.02081249 0.03476381 0.0060789427 -0.08080088 9.374945e-07 -0.03557595 0.05108678 0.024096377 0.025405666 0.0068194554 -0.0038634408 -0.0053060073 0.03715345 -0.0092384815 -0.041671433 -0.000114098824 -0.00231567 0.016095672 0.0392699 -0.018473024 0.022348726 -0.0009924492 0.01530464 -0.001378839 -0.0128792655 0.014250604 0.020876205 -0.040491886 0.030985733 0.04426895 -0.010855621 -0.018073525 -0.024760762 0.044096097 -0.007936176 -0.012655221 0.030757308 0.0155261 -0.01603347 0.061475296 0.019921012 -0.026285786 0.042945385 -0.018539878 -0.06329517 -0.014002378 0.025490241 -0.014547533 -0.010045822 0.020653145 -0.009150905 -0.03963544 -1.7335676e-06 -0.004950189 0.038942467 -0.0025049602 0.016924065 0.0121956 -0.0138557395 -0.021258783 0.028992321 0.0014574621 -0.052429043 0.003818825 -0.030449351 0.005949076 0.025164887 -0.016122876 0.022434158 -0.015214914 -0.026039192 -0.019534841 0.02318715 0.0073910784 0.05521831 0.011503464 0.0532005 0.011416229 -0.0025062924 0.015069891 -0.071647175 -0.014380847 -0.025777813 -0.010381876 -0.045560442 0.042744648 -0.015801478 -0.0102453865 0.02893192 -0.07386148 0.08426388 -0.030780934 -0.032651745 -0.027953573 0.023413533 0.03169544 -0.0067067957 0.051729184 -0.06224291 -0.053290956 -9.884404e-07 0.013392089 0.054593764 0.030311637 -0.018672394 -0.0041780393 0.039573297 -0.004050011 -0.024080489 -0.009451892 -0.0069393613 -0.010353781 -0.020707443 0.016693423 -0.030662516 -0.0017777962 0.02719985 -0.008947119 0.012824252 0.009433948 0.030249715 -0.019898338 0.018772481 -0.011072228 0.039081607 -0.014838085 0.0033510756 -0.011518453 -0.018783353 -0.022822218 -0.008597534 0.010942486 -0.024424188 0.048189033 -0.053008568 0.016622124 0.019364148 0.041629728 0.05989114 0.015433093 -0.037428267 -0.07144458 0.053638678 -0.050375316 -0.04886488 0.062067825 -0.008759573 -0.051313546 -5.2688233e-07 -0.034413457 -0.002800216 0.030419985 -0.014677118 0.015729498 -0.0216737 -0.047735155 -0.0064654374 -0.056913923 0.033085648 -0.008884733 -0.010272128 0.05339552 0.0098785795 -0.013945912 0.0013823347 -0.021097232 0.008731198 -0.032756083 -0.008381326 0.03286325 0.061870873 -0.023965834 -0.022785906 -0.0073573827 0.011047067 0.042330507 -0.05009894 -0.030264327 0.029554931 -0.039682154 0.0008349655 0.059650112 -0.04906775 0.023511617 -0.010045628 0.035187144 0.082522005 0.022878274 -0.020988718 -0.03604631 0.04698451 0.014324929 -0.006709744 0.032826036 -0.005048998 -0.050916504 9.698422e-07 0.03140607 0.024136564 -0.036807537 0.0324406 -0.015116996 -0.0030655144 -0.040106136 0.0105751995 -0.065792136 -0.026969913 0.023900358 -0.0046492717 0.03623543 0.044680353 0.0068368344 0.03788003 0.027998567 0.020779608 -0.009141581 -0.046089005 -0.03052074 0.08725052 -0.033876907 -0.07097427 0.01246839 -0.057706982 -0.032969113 0.0035234154 -0.03216118 0.008726769 -0.01182937 0.019043325 0.06383161 -0.02571045 0.024565136 -0.025881143 -0.0007533797 0.10500143 -0.017765297 0.045256816 -0.037724137 -0.0006533138 -0.06284605 -0.01261153 0.07252752 -0.033789262 -0.07628719 -1.2990233e-07 0.013270752 0.014118422 -0.02947934 0.021487588 0.011582452 -0.013958864 -0.03539475 0.0026169207 -0.027642451 0.04560064 -0.0060558296 -0.045233063 0.058542565 0.06478561 -0.018578226 0.098694935 0.07414893 -0.11306241 0.06771962 0.028340315 -0.07841956 0.09679228 0.033795416 -0.2858637 0.09444421 -0.05294144 -0.045494054 0.015755305 -0.04974972 -0.14318383 0.05030639 0.03813888 -0.018024199 0.011183954 0.056001198 -0.12809677 -0.06198484 0.042949747 0.026137032 0.27900842 -0.16579819 0.32588604 0.027613418 0.14747983 -0.058265373
0.021017106 0.0122881 0.036190145 -0.053525086 -0.0058390396 -0.016987387 -0.015680196 0.05012717 -0.032141328 -0.041417524 -6.555526e-07 -0.032939784 -0.006934238 0.03473783 -0.031886145 0.03880487 0.02205536 0.00104526 -0.030432677 -0.004815293 -0.035151448 0.023172094 0.044146523 0.0027414574 0.008637426 0.0083173085 -0.033118088 0.036129247 0.004948789 0.03530984 -0.030283783 0.007264074 -0.008187261 -0.016653383 0.026830403 0.04160633 0.060657747 -0.00026443077 0.035422362 -0.01926762 -0.04329773 -0.018578695 0.036091335 0.01455406 -0.024079181 0.020605585 -0.052654516 -0.036059678 0.007192214 0.0084640095 0.024530528 -0.003550779 -0.024183359 0.006435597 0.040951893 0.00015502766 0.0061247856 -0.035467513 4.3117092e-07 -0.01457201 0.0012183372 0.0060501825 -0.041275546 0.04568031 -0.028831365 -0.036862556 -0.022007437 0.030725004 -0.0081078475 0.025484754 -0.0062314006 -0.014575236 0.043238066 0.0032427313 -0.07395592 0.0125273 -0.0034179254 0.04466347 0.0114795705 -0.0359384 0.03573675 0.005158159 0.0032492876 0.058890495 0.016958214 0.012324247 0.038094025 -0.018943122 -0.010270406 0.002007585 -0.0053438153 0.02872475 -0.0045870673 -0.007196806 0.056344498 0.040539596 -0.020282997 0.018922832 -0.014972945 -0.05030347 -0.071505174 0.024422113 -0.011037858 0.032445494 -0.02702408 0.00095079327 4.8943315e-07 0.025161818 0.025631366 0.05496707 0.0049820174 -0.014201288 0.0026245678 -0.021312077 -0.019423632 -0.023177262 0.018862372 0.0417606 0.001737715 -0.018058596 0.015877675 0.016141849 0.014114133 0.02140774 -0.018463532 0.026662199 -0.014863317 0.014911291 0.034034625 -0.027902726 0.03529775 0.057604022 -0.010177981 -0.030714743 0.07046089 -0.06903697 -0.037296914 -0.020982157 0.026967281 0.0019044742 -0.018716572 0.010340016 0.0026969435 -0.107386895 -0.011718303 0.0048760567 0.007800129 0.020190904 -0.038417436 0.022917371 -0.031224117 0.0071920264 -0.019881781 -0.01206737 -4.287648e-07 -0.026088513 -0.018926982 0.03286155 0.03171316 0.04941208 0.020116428 0.014505661 -0.021510877 0.023350159 -0.031473983 0.047308907 0.020969857 -0.0057496848 7.6002376e-05 0.036282122 0.007580781 -0.003256884 0.02759617 0.021674337 -0.037162747 0.004227902 0.036991134 -0.004336473 0.022367684 0.024884842 -0.002663999 -0.014517875 0.07879147 -0.017408768 0.027656976 0.0076112766 0.08187917 0.004520589 -0.032108642 -0.02352995 -0.010843372 -0.04403472 -0.01580423 -0.013147089 0.060060088 -0.039140463 0.013957664 0.041012596 0.046821743 0.00494276 -0.014564295 0.008575419 1.8766191e-06 -0.04745905 0.041668586 -0.0003931112 0.02632529 -0.011691574 -0.043632187 -0.026969163 -0.08268166 -0.0070968475 0.015522594 0.0048768055 -0.0036462937 -0.0119134765 -0.0049382974 0.036809016 -0.028983362 -0.0070958175 -0.017467747 0.05685399 0.0038429447 0.0011242615 0.03941646 0.01787515 -0.0144597655 0.018552912 -0.041395105 -0.042141967 0.021915007 0.007551514 -0.067654654 -0.035465054 0.06114503 0.014507328 -0.043178316 -0.036366165 -0.025936576 -0.043208387 0.045772634 0.035803583 0.04253956 -0.026462253 -0.01594042 0.0348512 0.020253843 0.022948973 0.0077269305 -0.020696398 -5.817398e-07 0.0057554655 0.019391881 0.030382117 0.006653991 0.008818684 -0.002842706 0.030993268 -0.016413568 0.009586661 0.024750447 0.032056775 0.00732713 0.03624231 0.03088956 -0.031563308 0.008146942 0.012090736 0.007988928 0.07404191 0.016434548 0.020889005 0.025545325 -0.027223872 -0.02272612 -0.009088796 -0.007775501 0.0033155617 0.06507192 0.005387596 0.00639603 -0.037326872 0.08030053 0.014453832 -0.041198056 -0.01208897 -0.005579714 -9.8636956e-05 0.019090522 -0.017219545 0.066301905 0.056340475 -0.028620867 -0.017139958 0.0033978592 0.023376347 -0.036507573 -0.008011108 5.28978e-07 -0.042572446 0.0366111 0.0059103793 0.014183491 -0.014982236 0.009504694 0.019461583 -0.07860325 -0.0128179025 -0.0050188205 0.0011785546 0.008047578 -0.013925374 0.0345873 -0.001811053 0.024671366 0.035819042 -0.060138896 -0.013726412 -0.00025385033 -0.02359192 0.011618694 0.016004521 -0.0155351525 -0.007345608 -0.08727504 0.0020941438 0.0059013776 -0.0025668994 -0.042648032 -0.039670072 0.06634518 -0.0129335625 -0.058070023 -0.00491459 0.02344835 -0.010942833 0.01303903 -0.007482795 0.012460749 -0.029959328 -0.014829139 0.005466118 -0.034621213 0.007715467 -0.035993986 -0.00749512 2.6785885e-06 -0.040013574 -0.015417427 0.0078005493 -0.018784363 0.032128494 0.014537697 -0.019149931 -0.0428104 0.034843072 -0.018254602 0.021033775 -0.0007833783 0.0302479 0.05442795 0.0068459865 0.021782732 0.029928576 -0.044877004 0.068025365 -0.02626041 0.028052233 0.038231954 0.027791847 0.019270444 -0.008573789 -0.10005878 -0.018951813 0.008387847 -0.021459576 -0.036464315 -0.10044571 0.13185257 -0.02252565 0.01670281 -0.04167398 0.023479952 -0.07445307 0.0042235195 -0.00021797068 0.039780714 0.06086198 0.026471304 0.06264619 -0.0074303527 -0.0040830728 0.0017347181 -0.047098577 -2.3481728e-07 0.015962653 0.015477947 0.046808444 0.030683635 0.012785605 -0.037543185 0.022022799 -0.0075027007 0.0065504336 0.014787495 0.05220223 -0.011889325 -0.015354036 0.07084754 -0.04790762 -0.014731186 0.0465373 -0.054734178 0.061245184 -0.070745364 -0.022876333 0.0039145397 0.008363746 -0.013541714 -0.09849341 -0.13339658 0.022581689 0.0016561256 -0.0021188145 0.013825632 -0.10146109 0.06423341 -0.019960262 -0.022014894 -0.01533674 0.0020511865 0.030722126 -0.08743705 -0.019291166 -0.0014047641 -0.04578325 -0.0041902363 0.084112465 -0.010819843 -0.048200633 0.026393373 -0.014046276 7.043828e-08 -0.038957976 0.0027361077 0.046194904 0.02415563 0.011966775 -0.0136571145 -0.020805284 -0.016649174 0.024821403 -0.0031362583 0.051668577 -0.02914638 0.02123522 -0.019396096 -0.052047063 -0.03844974 0.001827251 -0.034548063 0.12319167 -0.015097808 0.0013596882 0.030629804 0.0901803 -0.031337418 -0.09308786 -0.19405276 0.022572687 -0.04083076 -0.10855395 0.0052081645 -0.1079056 0.21160823 0.035542686 0.036487382 0.029717375 0.044074763 0.065270185 -0.024419269 0.019545339 0.16191939 0.07741705 -0.35977003 0.2642085 0.097069554 -0.20742166
-0.010252736 0.021976272 0.009325528 -0.019899584 -0.023405896 0.013861274 -0.016965628 -0.06317506 0.035431743 -0.005673527 -3.2940204e-06 0.032592405 -0.012252388 0.016340405 -0.045260318 -0.0076611177 -0.014993191 -0.010877233 0.03222241 -0.03953526 0.023039501 -0.0004743635 0.027241642 -0.022755293 0.016117634 0.087700255 0.0066553373 0.01730762 -0.036254644 -0.03143903 -0.032151125 0.018496778 0.01642973 0.0004673032 0.08679431 -0.071073875 -0.008408149 -0.026315065 -0.0030917071 0.0049163825 0.015068655 0.019054225 0.071229495 0.060023744 -0.014903633 -0.010027235 -0.0015380218 -0.054855093 0.018188246 -0.006178673 0.038347553 -0.031123621 -0.012096495 0.022169609 0.0045981836 0.011574503 0.07663932 -0.00053547265 -1.3307459e-06 0.023289833 -0.018650055 0.0018667575 -0.03577621 -0.070631124 -0.004283111 0.005270959 0.015607912 -0.039727002 -0.026420932 -0.03333462 0.015666045 -0.041803967 0.02283103 0.06962481 -0.03811048 -0.040900625 0.014452466 -0.031148886 -0.03741988 0.015224818 0.04987761 0.016182425 0.029978476 -0.029552264 -0.029827325 0.058217105 -0.02041963 -0.025314217 -0.02554016 0.048773564 -0.02104263 0.043782353 -0.011618167 0.030102406 0.03663448 -0.025971899 -0.034584694 0.012493379 -0.0034768253 -0.023935553 -0.030607836 0.02839476 -0.005304605 -0.023397528 0.05178481 0.028197952 1.1148052e-06 0.035795655 -0.013712987 -0.036935396 -0.017364351 -0.044228047 0.010201366 -0.028871203 0.033734392 -0.025105685 0.016352795 -0.041919492 -0.0067377146 -0.035633676 0.016044032 -0.005680345 0.021442506 -0.037587393 0.01581897 0.01733122 -0.010285589 0.04598235 -0.0071083456 -0.0014017479 0.0325881 0.050848246 0.006715603 0.04787173 -0.029083557 -0.021197945 0.07118484 0.023554657 0.040348485 0.04470267 -0.055919748 0.010321987 0.03658744 -0.018650373 -0.03363845 -0.042926677 -0.013084713 0.047498677 0.0325406 0.031023594 -0.03335706 -0.04103901 0.06615607 -0.038695417 1.2151942e-06 0.018292697 -0.0031861921 -0.031271152 -0.01307205 -0.03900512 0.0016755991 -0.0047200806 0.0066243997 -0.020898238 0.030574698 -0.057043463 -0.028118312 -0.019694652 0.024673663 0.0018812086 -0.0024132614 -0.0052080955 0.012995936 -0.021229092 -0.00844991 -0.02556631 0.028556554 0.019171651 0.03301595 -0.03516472 0.012311888 0.03181892 0.021849 0.018016221 0.06528355 -0.008262121 0.01804813 0.04374253 -0.007633536 -0.042531 0.0053126663 -0.042842735 0.029492432 -0.005210369 -0.02779628 0.019498492 0.0148928845 0.020065285 -0.030365676 0.022688756 0.03612464 -0.01183754 -1.1720057e-06 0.0047175875 0.02493102 0.0071791583 -0.003325052 -0.02656839 -0.017319083 0.01547595 0.010007418 -0.010047191 0.0015089714 -0.008416551 0.0063946284 -0.0055599376 -0.0120764235 0.009718523 -0.08487119 -0.008979356 -0.0054926383 -0.031258527 -0.020373242 -0.0076982547 -0.0013656592 0.014388357 -0.0064188065 0.0008700081 -0.0077499794 0.0034558987 -0.023198456 0.029740727 0.0123920655 0.029179787 -0.028789833 0.0221368 0.01645076 0.041877985 0.024713129 -0.010920189 -0.032112353 0.049890354 -0.024710203 0.009699421 -0.01373668 0.039127793 -0.021041865 -0.034341313 0.030937985 -0.037304364 1.5291529e-06 0.04662839 -0.039713413 0.0026172246 -0.03702211 -0.017993018 0.007030923 0.01613302 0.043096762 -0.0075573134 0.05304446 -0.05152817 0.012871867 0.003810467 0.0053760014 0.029734517 -0.04359333 -0.02046415 -0.04738431 -0.002801279 0.002008683 0.0023240114 0.014193623 0.037961498 -0.012520224 -0.046659667 0.034373794 0.060697835 0.0022170076 0.00088961894 0.044584047 -0.007873264 0.0057006082 0.09865878 -0.028245429 -0.048909806 0.008203767 -0.0018675193 -0.008901678 0.02518478 0.011357716 -0.025881197 0.066590875 0.06203444 -0.059455693 0.017147783 0.070055544 -0.04590408 1.0103056e-07 0.038154434 -0.024129776 -0.030961154 -0.008605069 -0.03487676 0.014122288 -0.038369153 0.023543645 -0.014385508 0.054352876 -0.03360195 -0.01388108 -0.00048357467 -0.066428244 0.028144721 -0.0022449433 -0.027897745 -0.022859974 -0.013590748 0.033480994 -0.035425674 0.058172513 0.009191846 0.020267053 -0.049952414 0.016015103 -0.012833552 0.05662073 -0.05410261 0.0073362114 0.00068028184 0.036703836 0.062120296 -0.015168007 0.018136365 0.0013694958 0.0011117121 0.011360735 0.03530222 -0.00017948047 -0.04443104 0.013570574 0.028340798 -0.050653685 -0.055489097 0.04982007 0.012496288 1.0261998e-06 0.039947104 -0.0270496 0.020319846 -0.016883185 -0.040355034 -0.038849525 -0.005283521 0.010063039 -0.04611163 0.035276983 -0.015750285 -0.03312508 -0.03992285 -0.013816885 -0.007097901 0.014326417 -0.04195947 -0.016577346 -0.025849627 0.026574187 -0.060158264 -0.0064989137 0.0024624418 0.019794976 -0.036436804 0.044170685 0.016367683 -0.034104627 0.018655803 0.03821047 -0.029553052 0.008511858 -0.015450798 0.016124118 0.003371408 -0.0018243579 0.02800475 0.025962394 0.022187773 0.019065369 -0.0016645237 -0.0003356763 0.067365706 -0.039118018 -0.029319169 -0.0024877214 0.0003168585 -1.0729618e-06 -0.0009611462 -0.024214374 0.017907277 -0.0011007448 -0.077643126 0.011117542 0.0023185546 0.045046266 -0.050474524 -0.0020816876 -0.018649973 -0.0153809 -0.009128662 -0.033220824 0.022294251 -0.031767312 -0.0012715228 -0.008664896 -0.02138443 0.058786742 -0.030641068 0.09701215 0.009634701 0.05885397 -0.0663313 -0.0090206675 0.015387932 0.019987576 0.05060746 0.05613874 -0.0070170243 0.07372531 0.097725235 0.03190477 0.044998825 -0.031851605 -0.014369752 -0.019499328 -0.038074426 0.025135368 0.027251348 0.09215326 0.08083857 -0.01126919 0.025765235 0.029055445 -0.014319386 -5.14916e-07 0.010369093 0.0023051042 -0.03023459 -0.04210688 -0.076153114 0.016449621 -0.013492349 0.03469456 -0.05033227 0.029733753 -0.034001313 -0.007559154 -0.015211684 -0.13389182 -0.08721916 0.04213698 -0.07958417 0.038971025 -0.028190272 -0.0021200534 -0.12146267 0.092710376 0.00902677 0.21726815 -0.17649734 -0.024536906 0.004757702 0.017635232 -0.042982124 0.105456166 -0.0010644321 -0.049263787 0.0016183119 -0.004389462 0.07546638 0.1081097 0.013870191 0.05454318 -0.081130855 -0.016051807 -0.026334064 -0.28396899 0.07889795 0.3034579 0.18545975
0.007982643 0.03833732 0.02254088 0.0057675904 -0.027950205 0.0076797605 -0.0007576916 -0.024580833 -0.028927019 0.0068453923 -6.2855304e-07 -0.07990242 -0.017171403 0.023196232 0.0167872 -0.006476515 -0.0057546 -0.027374323 -0.03353046 -0.035472743 0.014856439 0.031123215 -0.029934365 -0.021759814 -0.017986652 0.023060618 0.027636671 0.044504736 -0.01763237 -0.0493717 0.044977427 0.019819254 -0.013305803 -0.016912844 -0.042788763 -0.03581615 -0.0056907684 0.02437954 -0.045198366 -0.027820952 0.0032666468 0.022472333 -0.0008963635 -0.02646704 -0.008839727 -0.010898366 0.0040775095 -0.028256118 -0.013809932 0.02401402 0.05856985 -0.013050821 0.03342379 -0.0056429524 0.02326553 -0.04143694 -0.0056317337 0.037138157 -7.073163e-07 -0.07200327 0.010981887 0.002226207 0.04366993 -0.0018862364 -0.03903131 0.028935071 0.0438566 -0.031101258 -0.01505687 -0.009005193 0.015087565 -0.043144736 -0.044145808 0.010057746 0.010490229 -0.011176059 0.0237571 -0.02033057 0.032839525 0.005895935 -0.05881193 -0.0057202554 0.005487398 0.016247267 -0.058336694 0.022036858 -0.0066234493 -0.014830004 0.016144017 0.015924303 -0.047540575 0.0003140722 0.027623963 0.0009889466 0.017236356 -0.019737199 0.040837795 0.011337713 0.074913144 -0.0296283 0.04234991 -0.023361929 0.014354038 0.026910855 -0.037519466 0.018724274 2.229639e-07 -0.08358141 -0.00402921 0.007259986 0.011737743 -0.002214466 -0.0476224 -0.010278001 0.0046136705 -0.0056952266 -0.00075048354 -0.016911533 0.01321177 0.009666206 -0.030157374 -0.01653693 0.011677167 -0.024999995 -0.011597162 -0.03217013 0.030546367 0.0028262076 -0.004306069 0.020670677 -0.012858636 -0.006572209 -0.063573144 0.02385837 -0.010540145 -0.009466803 -0.0057073105 0.05452392 0.0049294382 -0.022093741 -0.0035337734 -0.02979797 0.003981487 -0.011729309 0.053575892 0.048935186 0.033232726 0.003647028 0.023139833 -0.007505215 -0.010186278 -0.022747051 -0.053356316 0.048409663 6.5651045e-07 -0.11616185 -0.0028593908 0.014114467 0.016662661 0.002491987 -0.0011081652 0.014012943 0.023991844 -0.010054303 -0.020150205 -0.026266754 0.010389579 -0.02438377 -0.012711437 0.033867188 -0.005084205 0.042584606 0.060032733 -0.017111469 0.021322241 0.012927159 0.01236132 0.04633506 0.0052682166 -0.021191744 -0.003637201 -0.0040798797 0.0065510287 -0.01694083 0.024628714 0.061167814 -0.02596456 -0.0023747745 -0.00019434908 -0.04036325 -0.0028354602 -0.039620146 0.05971656 0.054240774 0.030777005 -0.039284624 -0.0041247886 0.03566117 0.010182521 0.005664204 0.0102733895 0.0064962585 -3.146879e-07 -0.060131572 -0.010469177 -0.0023980963 -0.00070416904 0.009766118 -0.011504624 -0.0030775168 0.024423128 -0.0044451933 -0.020858826 0.020457711 -0.006364874 -0.0031400344 -0.038511492 -0.020273756 -0.009852324 0.00378981 -0.0033064154 -0.042957358 0.011510003 0.029295353 -0.029153889 0.0028085154 -0.020483669 0.027915142 0.0013336345 0.027764909 0.009761962 0.022077234 0.051210377 0.068963915 0.018706085 0.00466326 0.031517614 -0.042026546 0.0039504743 0.004492524 0.013710301 0.052086655 0.006993874 -0.030832084 0.025330337 0.016446097 -0.021421826 0.0084247105 -0.043574765 0.010483901 -4.4499455e-07 -0.07306552 -0.035861913 0.0023047605 0.008387015 0.048311938 -0.054899618 -0.0059833536 -0.006407231 0.02866933 -0.024471987 -0.0043349117 -0.0015689043 -0.008403433 -0.018169083 -0.029371122 0.0038999934 -0.0027085186 0.0062150736 -0.058108684 0.02215618 -0.0343062 -0.047152948 -0.009172501 0.009678902 -0.027742941 -0.020471448 -0.0077059907 -0.017562598 0.023035945 -0.0034169687 0.03970095 -0.0017502852 0.039540067 0.020916846 0.014017908 0.01991477 -0.032912236 -0.0013899882 0.008743878 0.019716678 0.042393908 0.00324952 0.0045007863 0.0341112 -0.035986956 0.0017472947 0.008991476 -3.238532e-07 -0.112313844 0.0026989065 0.00084796397 -0.00981321 0.020756489 -0.013233784 0.02051889 0.037120093 -0.037133712 -0.034506578 -0.0015221409 -0.0060540857 -0.044989385 -0.012741565 -0.022484517 -0.041790623 0.04136023 0.02901251 -0.048698906 -0.041928124 -0.0021411544 -0.04345047 -0.027324302 -0.0021415078 -0.05982334 -0.011032372 -0.019907951 -0.021970438 -0.03513927 -0.0221929 0.036029913 -0.016334128 -0.0031145734 0.011782022 0.014296552 -0.022824207 -0.005318774 0.03556773 -0.012066593 0.016970936 -0.02168231 -0.035200987 0.03207237 0.010367498 -0.021478904 -0.018758755 0.025172377 2.7905529e-07 -0.12657611 0.010975105 -0.00011572411 0.023394411 0.058354173 0.026097896 -0.0014757782 0.008792092 0.0010753238 -0.028444406 -0.02201736 -0.031122774 -0.027511237 -0.08225348 -0.040071122 -0.019709112 0.033601377 0.041771796 -0.036314473 -0.042341057 -0.0141750155 0.005258859 0.048622705 -0.015271606 -0.042935524 -0.008904754 0.007657986 0.016137082 -0.010040469 -0.00086619024 0.10480633 0.007714031 0.054670665 -0.031504497 -0.007275682 0.019883443 -0.00392234 0.055204988 0.0032976477 -0.005059801 0.016437974 -0.05164077 0.1517655 0.05200009 -0.017254826 0.011492695 0.007652231 5.1818216e-07 -0.1342687 -0.020991344 0.013000089 0.012488871 0.02759076 0.014035795 0.016249184 0.0070902663 -0.040793113 -0.0169113 0.044755545 -0.0047452087 0.0020874732 -0.0744915 -0.093744 0.024437407 0.026681129 0.03933694 -0.07478046 -0.04797678 0.03586329 -0.077136524 0.084547326 -0.01403585 -0.10007086 -0.039023038 -0.008847119 -0.019293752 -0.024773883 -0.049552843 0.12678856 -0.00027754373 -0.019626599 -0.036701113 0.028977852 0.027431175 0.053631075 0.0008685888 0.010480174 0.042332403 -0.0020339899 -0.10139001 0.22893605 0.016502207 -0.040541876 0.0060495716 0.012101287 -1.3411062e-06 -0.13857955 -0.012078141 -0.0094851265 -0.004989725 0.041901655 0.0012084073 -0.058251515 0.021697279 -0.027431928 -0.032890387 0.037297223 0.020812655 -0.038359214 0.021439329 -0.060335867 -0.021981362 0.09929447 0.09602277 -0.24054764 -0.12936853 0.065873995 -0.016208803 0.10772776 -0.06500183 -0.26593974 0.01958488 -0.029111361 0.043278504 0.015093507 -0.030086825 0.032541443 -0.015213812 -0.047503896 0.04972938 -0.04342515 0.030019691 -0.024016382 0.11808968 0.11021537 -0.1538792 -0.36444035 -0.044875138 0.31230628 -0.15604693 0.19478989
-0.028427616 -0.0035237465 0.0129627315 0.05471776 0.03751784 -0.0004555845 -0.01764777 0.021298079 -0.029287241 -0.04696723 1.7425677e-06 0.053752813 -0.010186111 -0.01410134 0.025086228 0.0054371348 0.005370229 0.020813977 -0.0031832524 -0.029112918 0.0037762811 -0.034607455 0.0374081 -0.0010777169 -0.026757218 -0.017479213 -0.034614332 0.028113946 -0.01476464 0.024289975 0.016639063 0.010344067 0.008379158 0.010655317 0.00040089092 -0.028761717 0.080000535 -0.018068679 -0.04208838 -0.01218413 -0.049123567 0.08309082 -0.062759064 -0.016445056 0.073671944 -0.0010718331 -0.0046287677 0.07571691 -0.0447227 0.03409462 -0.014869519 -0.01726858 0.02055394 -0.0075062225 -0.06879329 0.032654595 -0.030339738 0.024784988 -3.6001893e-07 0.019075077 0.011754865 -0.018074555 -0.03258006 -0.044804152 -0.020890594 -0.005394371 -0.0057335235 0.035350155 0.0011371453 -0.022707323 0.012653174 -0.017022457 -0.020168858 -0.0026424485 -0.01740777 0.0017580532 0.0049252827 0.037685808 -0.0005756966 -0.015125588 -0.007041982 0.05527665 -0.024850938 -0.04945616 0.076575175 -0.035171643 -0.06106415 -0.04046494 -0.05981824 -0.00053985015 0.003775509 -0.001059377 0.035502832 0.042435784 2.4757674e-05 0.04905004 -0.012730038 0.03693244 0.037627477 -0.025154108 0.010374798 0.0838979 -0.007953694 0.010538342 0.0028649925 -0.027707588 -2.6776576e-07 -0.002529331 -0.038858034 -0.0602699 -0.018633757 0.019015644 -0.013676247 -0.011887629 -0.049858972 0.01719852 -0.014012927 -0.032250203 0.026093341 -0.015918257 -0.015555246 -0.016325423 0.020976657 -0.038687438 0.017386839 0.009830046 0.01489887 0.0010346976 -0.014562978 0.039020885 0.0054225773 0.018594155 0.07877006 -0.009432389 -0.024164444 0.011162874 -0.023280237 0.037363373 -0.0874224 -0.03708849 0.07675656 0.03823796 -0.0031392407 0.04648325 -0.057043526 0.047480933 0.08805808 -0.032230403 -0.004508549 -0.011391387 -0.004938189 -0.0057820263 -0.023569366 0.03177461 3.173275e-07 0.021610146 -0.030329457 -0.013706548 -0.010311736 -0.0107111465 -0.0077515477 0.041396875 0.015450216 0.03298626 -0.010212969 0.01510613 -0.0050379136 -0.004272485 -0.04437671 -0.018272107 0.0061351843 -0.01046424 0.0138096465 -0.025986243 0.039427392 -0.051729277 0.042397566 0.056920744 -0.044845365 -0.0057894643 0.089646876 0.043540068 -0.0074243336 0.025281271 -0.019637717 0.046009548 -0.008769263 -0.08257914 0.013827637 0.032959975 -0.019666454 0.018904552 -0.05599273 0.06376882 0.058839664 0.0043882756 -0.0024350767 0.033462178 -0.052483875 -0.01823284 -0.016215166 -0.027869845 -1.4685828e-06 0.020886488 -0.017532768 -0.031711757 0.042831626 -0.045509435 -0.03038949 -0.008840787 0.026031174 -0.02899369 0.0031599945 0.014160401 0.0174914 -0.04913781 0.0034984858 -0.013975763 -0.015759205 -0.011813379 -0.016993864 -0.018167546 -0.011902053 -0.05871694 0.06376886 0.035721313 -0.03695622 0.0068277563 0.093213946 0.014535702 -0.06439809 0.013222289 -0.030312615 0.050279405 -0.036149923 -0.05806262 0.0078113144 -0.03873495 0.014786373 0.041124746 -0.0031937347 0.036440138 0.096843824 0.017498605 -0.0467282 0.039070684 -0.018312687 0.029209793 -0.025290336 -0.019456265 5.580951e-07 0.013468581 0.011626975 -0.054786127 0.021667914 -0.035461478 -0.01548939 0.023874836 -0.026090663 -0.01445529 0.032605525 0.0050442927 0.060546987 -0.014494453 0.049139038 -0.061356924 0.023246849 0.015415715 0.006578812 0.00029469075 -0.0038443545 -0.060686015 0.015806569 0.07185666 -0.044648502 -0.009298348 0.10151842 0.022887278 -0.016687585 0.023244886 -0.05050467 0.055970848 -0.04853401 -0.015438582 -0.020187043 -0.031924978 0.056446455 0.10355653 -0.008699798 0.02440913 0.04366088 -0.0058397274 0.030232456 -0.009759659 -0.0117180925 -0.016682103 -0.031113656 -0.0023996762 6.674846e-07 0.012373586 -0.03785761 0.0019432757 0.0027717904 -0.0561778 -0.016415788 0.014836292 -0.018998668 -0.039779477 0.047460366 -0.0046501504 0.0005974499 -0.03996366 0.048926502 -0.040255032 0.030016677 -0.03701729 -0.010525789 -0.017580131 0.025416404 -0.062059186 0.03256941 0.010398761 -0.009902223 -0.009650734 0.07053291 0.020279093 -0.026414301 -0.005516642 -0.055166688 -0.017188499 0.0038045682 0.0012360162 -0.0040979134 -0.025758676 0.02002911 0.08145242 -0.024251463 0.027675245 0.08710228 0.006109422 0.028772298 0.019814707 0.000650259 -0.007703739 -0.029558215 2.7915024e-05 -7.719927e-07 0.022531219 -0.01014008 -0.055111498 0.01293272 -0.018118627 -0.038018 -0.030875409 -0.029824475 -0.000106331805 -0.031425677 -0.005182455 0.012364447 -0.035554823 0.036746148 -0.015958453 -0.0039063375 0.023468412 0.0018163045 0.0041255895 -0.049394205 -0.032288443 0.06559158 -0.027189003 0.009609929 0.005309911 0.08226099 0.034650598 0.023996368 -0.010470197 -0.059405323 0.047093637 -0.033860836 0.034663882 -0.03976281 -0.022397509 0.03931874 0.06098581 -0.007261762 0.022122324 0.071546026 -0.034699563 -0.03392436 0.053067707 -0.042157963 0.024653949 0.00403246 -0.012177885 -2.4452157e-07 0.06356151 -0.024835188 -0.07509275 0.016515167 -0.046929516 0.008870141 -0.0074403062 -0.031402767 -0.048185684 0.02614579 0.011711587 -0.019137567 0.013497459 0.07319439 -0.029441549 0.022565287 -0.0063195396 0.026105387 0.036771256 -0.0626438 -0.12880193 0.06866061 0.005498133 -0.0005179258 -0.00072346925 0.027868629 0.009545245 0.039417926 0.07138962 0.012078811 0.030309249 -0.11919988 0.030983742 0.028290933 -0.019590724 0.033065725 0.100405864 0.009265851 0.07758515 0.13911676 0.08684937 0.014976396 -0.02851306 -0.02438385 0.014053854 -0.039391838 0.018425163 1.1044881e-07 0.081543475 -0.025438378 -0.04953422 0.010655897 -0.00091244176 0.018750897 0.0023087803 -0.024336262 -0.056578487 0.038683925 0.036180492 0.037868615 -0.029409263 0.02526193 0.0023970057 -0.0046610762 -0.037263636 0.09737445 -0.05267019 -0.10957066 -0.10996812 0.026237225 -0.026617693 -0.12524351 -0.026736999 0.039740484 0.053029884 -0.015354658 -0.026360411 0.046576932 -0.01708182 -0.08169642 -0.03668736 -0.048683487 0.06759164 -0.055359624 0.09979377 0.16869779 -0.107067056 -0.1008745 -0.15451644 0.035085797 0.123888664 0.119759806 0.13857716
-0.054389346 0.035271093 0.028590163 0.0064588706 -0.01677711 0.037033785 0.015701154 -0.03902522 0.007884794 0.01937891 -3.9189617e-06 0.04210562 -0.0144350445 -0.022136502 0.0506771 0.010826451 -0.013839852 -0.026181972 -0.008767972 0.04711313 -0.060475003 -0.02482735 0.008107504 -0.04212598 0.026043909 -0.037719764 -0.044271544 0.02432005 -0.04169648 -0.0037763908 0.015165413 0.005883657 0.011084133 -0.05626064 -0.018939035 0.023263773 -0.0034423831 0.0011389748 -0.0116750905 -0.07133484 -0.0880145 0.021852462 0.035103504 -0.005536461 0.03738374 0.0062418436 0.0012523393 -0.015743442 -0.04353476 0.020925201 0.06425257 -0.051663797 -0.04284306 0.015724815 -0.03599805 -0.048294317 -0.023800723 0.0064161527 -1.4128521e-08 0.05765384 -0.0093969535 -0.042003494 -0.025846625 -0.02253806 0.03511896 0.010584542 -0.0009919722 -0.018913988 -0.002101347 0.019386504 -0.009065549 -0.0064393654 0.035812628 -0.03103517 -0.055385135 0.017766891 -0.041449238 -0.0060541513 0.025785472 -0.020456124 0.008127354 -0.0042733713 0.018191984 0.010072318 0.02584393 -0.02376368 -0.009942467 -0.022753004 0.018978287 0.0064126905 -0.02884424 0.02962996 -0.0076689087 -0.061405364 0.04022358 -0.027826114 0.00553424 -0.04222297 -0.012646785 0.013440081 -0.057631426 -0.0028737288 0.0064651803 -0.00035312583 0.0052901194 2.2842438e-05 2.1790295e-07 0.0027688874 -0.012797746 -0.036717467 0.02838394 0.010177144 -0.04455891 -0.022578964 -0.034764454 0.012581641 0.012400957 -0.008559971 -0.012298394 -0.013131427 -0.008482005 -0.03385218 -0.05374375 0.022994656 -0.040588487 0.033884212 -0.0021793828 -0.055786155 0.03221069 0.014642072 -0.019871773 0.05908564 -0.010175365 0.0719384 0.013509696 -0.04965634 -0.039504383 0.007037311 -0.033988193 -0.021585304 -0.03566104 0.026335994 -0.008253404 0.02612492 -0.030390022 -0.0089379465 0.013887525 0.020913314 0.019184066 0.05720419 -0.021181935 -0.0018506097 0.0072921757 -0.012088047 1.3145386e-06 0.022516374 -0.002964465 -0.029112654 0.008906842 -0.01900206 -0.029381676 0.016943315 -0.02628835 -0.0051914183 -0.009761136 -0.023031512 -0.011858772 -0.021300815 -0.0026724571 0.012285338 -0.0061499476 0.009520183 -0.097095616 -0.059293263 0.012891075 0.018094607 0.0023879635 0.004640509 0.0049431897 -0.03147105 0.022090562 0.0024561782 -0.017019019 -0.0052830405 0.01691849 0.037233803 -0.0020139804 0.026506666 0.053720966 -0.037477724 -0.008598443 -0.024341786 -0.036461588 -0.012885596 0.0019568566 0.018838355 -0.0028130834 0.020668324 -0.03251743 -0.021314843 0.010901121 -0.021726137 -6.81247e-07 0.026579017 0.019449228 -0.04917925 0.0006524472 -0.010283761 0.012169317 0.0034968792 0.022261146 0.0282403 -0.059571713 0.012700946 -0.0070163626 -0.029017912 -0.0100903 -0.024160119 -0.046541892 -0.055296738 -0.044436995 0.003303224 -0.031113585 -0.03324794 0.049038008 0.001776673 -0.011522404 0.010327898 0.030439308 -0.026149211 -0.012389616 -0.046074335 0.04487801 0.058839608 0.011212178 0.022692312 -0.021975474 -0.045359895 0.03457182 -0.023213593 -0.029917222 0.006518846 0.0022882896 -0.0050313487 -0.010513684 -0.028508412 0.011168819 0.023815975 -0.022160668 -0.0022209536 -2.5743786e-06 0.02564928 0.029596098 -0.040263187 0.027906582 -0.041945748 -0.0039290134 0.02589776 0.012008229 0.030000526 -0.02620614 -0.023001922 0.0077322517 -0.011183383 -0.021486145 0.004097429 -0.0029034184 -0.01430616 -0.08739945 -0.0057133203 0.015618373 -0.071789354 -0.031000465 0.0022929166 -0.034497224 -0.009620939 0.006218465 0.023909336 -0.041008413 0.011377881 -0.052419204 0.0638316 -0.029301768 -0.067863174 -0.047217574 -0.0130866375 -0.027354913 0.0033520162 0.003444775 0.002330042 0.048602406 -0.03264428 -0.03597526 -0.029653227 -0.0111661265 -0.05128481 -0.013185437 -0.0085316785 7.2299775e-07 0.018457834 0.02379069 0.010163918 0.037436545 -0.031396072 -0.03640332 0.023981033 0.024941688 0.026729036 -0.045001514 0.019764625 0.0052270256 -0.0141319875 0.011724206 -0.042958885 -0.061751164 0.019076785 -0.019038787 -0.07870924 0.019561157 -0.026591655 0.010130893 -0.017634755 -0.03546355 0.018809544 0.034316607 0.074011564 0.054759722 0.019877046 0.013969182 0.054415036 -0.02711896 -0.021680664 0.031631764 0.04995915 -0.020003175 0.06672987 -0.023706762 -0.054148458 0.06435823 -0.025807519 0.009743944 -0.058536615 0.0013349227 -0.0032712778 -0.060964417 -0.009127616 -1.3859186e-06 -0.0013422562 -0.011105814 -0.03181932 0.02569065 -0.037150387 -0.031000644 0.016463954 0.015920814 -0.0386064 0.01136195 -0.0035386928 -0.07223119 0.022237891 0.00057543337 0.011871007 0.004531166 -0.047734454 0.024117427 0.012140758 0.07254414 -0.050482824 0.008737387 0.0026831417 -0.044662442 -0.0052106185 0.024226775 0.027501358 -0.034346867 -0.039611183 0.017328985 0.053434256 -0.0033470371 0.01192959 0.016091743 -0.042028766 -0.0035146042 0.07702403 -0.0194297 -0.020779971 0.03163929 -0.0166608 -0.03331602 -0.017675905 0.015413129 -0.019595139 -0.0025278714 0.01524414 -5.0103813e-07 0.05576687 0.010344117 -0.045795172 0.0049907104 0.005232802 0.008635146 0.023489125 -0.036064263 -0.02946616 0.022149611 -0.028468288 -0.059560798 -0.004939524 -0.011835769 0.052927688 -0.025791103 -0.0035669846 -0.0026272899 -0.0470011 0.051299877 -0.11404706 0.02297563 0.004832017 -0.009915061 -0.0046195216 -0.038989685 0.035226215 0.0287231 0.02163655 -0.017912326 0.02964394 -0.09691784 -0.030418022 0.04650445 -0.042407084 -0.039890297 0.062193822 -0.013900054 -0.066471554 0.06980387 -0.053110052 0.044688653 0.0053066174 -0.028169012 -0.013990271 -0.008428492 0.001283305 3.73476e-06 0.0363142 -0.014319847 -0.014490866 0.0026012543 -0.040850524 -0.05537214 -0.07036013 0.0018286961 3.9191393e-05 -0.014485364 -0.015638206 -0.066262454 -0.020397007 -0.028369112 -0.022048866 0.0029806185 -0.0490287 -0.07442675 -0.10535296 0.05331609 -0.16636239 -0.050594028 0.022006156 -0.03852302 -0.12409375 0.06335433 0.009866438 -0.069465846 -0.06872778 -0.023163633 0.0590033 -0.08373892 0.007647274 0.10253969 0.026166284 -0.014096959 0.08537317 -0.05087466 0.08559846 -0.15626146 0.008979229 -0.0782688 -0.09128249 -0.0072816634 0.19358227
-0.0074474798 0.016365143 -0.008837707 0.0031084982 -0.0038426397 -0.014163667 0.033386104 0.03991168 0.017144052 -0.01593934 8.7187243e-07 -0.03755088 0.024847606 0.0064649265 0.042367067 0.019700902 -0.039906517 0.00019612206 -0.006071853 0.018174242 0.009288978 0.00639906 0.0084670205 0.017396096 0.030798865 0.015723014 -0.012193632 -0.012541243 -0.021835703 0.034987535 0.00048645787 0.0003162829 -0.0066063185 0.018022362 0.015543085 0.07719577 -0.06567269 -0.06520309 0.0051413034 0.005558311 -0.017355615 0.016255064 -0.007877897 0.021149853 0.029053077 0.054756492 0.005294912 0.02310819 -0.023716781 0.045511764 0.015547198 0.0004394296 0.027424805 0.017116738 0.020937048 0.06777333 0.045423646 0.025652017 1.0069771e-07 -0.026233202 -0.021880416 0.0058343266 -0.027488094 -0.025135826 -0.05487766 -0.016359244 0.029007979 0.061977983 0.019694371 -0.050512955 0.02729808 0.059655547 0.026186578 -0.03640678 0.01619748 0.008813577 0.009291993 0.030591995 -0.0070428625 0.005653774 -0.014994423 0.029568711 0.014995573 -0.047710825 -0.040496405 -0.03726058 -0.014970857 0.005576505 -0.029366015 0.01011929 -0.017434841 0.01805455 -0.011390307 0.065990224 0.007492736 -0.049598895 0.010640626 0.059329785 0.014028835 0.02252194 -0.029792523 0.0067834333 0.055669967 0.017918749 0.028202953 0.038522147 1.7817715e-07 -0.011715542 0.031594887 0.020158188 -0.025427122 -0.0378252 -0.0006663014 0.02209747 -0.024818815 0.013839576 -0.012201477 -0.043588076 0.026094295 0.00013877489 0.014535794 -0.0071757254 0.0039038353 -0.001973351 -0.031186609 -0.022411155 0.04638705 -0.0111036245 0.022864731 0.0758933 0.0071107014 -0.00046654607 -0.024635054 0.006869928 0.02988941 0.020084942 0.008273184 0.031845894 0.054245878 0.003986579 -0.018780682 0.062006574 0.0021778943 -0.03399862 -0.04980402 0.015400329 0.06251784 -0.04092589 -0.022169754 -0.02885275 0.057027392 0.057026796 0.06932803 -0.011159405 7.927625e-07 0.00034617915 -0.0030184265 0.019436372 0.010907012 -0.04254269 -0.035441276 -0.002442077 0.033045486 0.003949864 -0.009548862 -0.02158638 0.048971124 0.008257575 -0.03752872 -0.0063864584 0.0056469194 0.023112675 -0.020934323 -0.0030625714 0.034718875 0.0024797865 -0.04477027 0.034645833 -0.05513162 0.03977953 -0.01176524 0.026725246 0.00632259 0.04723741 0.050711952 0.024161223 -0.0015760654 -0.019828163 -0.07088243 0.032592226 -0.048091713 0.021112703 -0.026861252 0.038515866 0.0730408 0.018395865 0.012046921 -0.02234025 0.045227043 0.038297176 0.026315054 -0.010603201 9.2404326e-07 0.0040244344 0.0038714013 -0.019301537 0.017923402 -0.0048615118 -0.050009623 -0.009837037 -0.0059504705 0.08151491 0.05160523 -0.024993386 0.004158229 0.049002763 -0.0407481 -0.025354406 -0.012631824 0.00438685 0.0050687906 0.004179334 0.012269081 -0.05250124 -0.02093947 0.011776937 -0.04265838 0.013052795 -0.03354504 0.02242346 0.045977123 0.010098297 0.08105504 0.056347918 0.020888615 -0.02894159 -0.026899498 0.06560504 0.0018272406 -0.010486184 -0.005058647 -0.031035027 0.07688469 -0.033757944 -0.017314889 0.035014637 -0.018924044 0.046431806 0.027913455 0.020037854 -9.837895e-07 -0.043351095 -0.009348145 -0.010797572 0.03655088 -0.05660143 0.00011283562 0.020956146 -0.010885967 0.022202786 0.045542397 -0.05804752 0.043758422 0.047561914 -0.037161052 0.04577356 0.0037300359 0.035214912 0.031072319 -0.043242898 0.037529208 -0.039955992 0.019158369 0.018615631 -0.012970881 -0.027824083 -0.06379066 -0.040181465 0.027628846 -0.014610851 -0.0014465924 0.0048283543 0.010184022 -0.04113665 -0.09678871 0.044771027 0.010221832 0.013248875 -0.012741382 0.017802486 0.07109996 -0.0072101327 0.0065584234 0.012968174 -0.0030824596 0.07060566 0.009011433 0.024012538 1.6220316e-06 -0.044148088 -0.00983032 0.007689108 -0.0075204773 -0.028781824 -0.0046505965 0.0013596772 0.015154369 0.026606098 0.031568058 0.010337091 -0.017849285 0.032367412 -0.017879063 0.012490768 -0.021067118 0.01078076 0.035805184 0.039085135 0.056652505 -0.05888794 -0.00038791887 -0.028741075 -0.05597268 0.030897556 -0.03393246 0.00046825985 0.014962132 0.01803904 -0.009829136 0.026407085 0.04045106 -0.04871162 -0.039042965 0.012901619 -0.01494529 0.013043504 -0.012770117 -0.012233137 0.07298009 -0.032890245 0.004200619 0.039167456 0.009351895 0.04583875 0.038920257 -0.0188153 8.729074e-07 -0.05769246 0.026683344 -0.012407081 -0.02028987 -0.027827226 -0.028748568 0.02191932 0.0073835384 0.00825732 -5.619133e-05 -0.0429053 -0.029824035 0.028746737 -0.035312768 0.0029084762 0.008197675 0.06444786 0.00721201 0.064213894 0.08363497 -0.12177655 -0.044992607 -0.072944455 -0.010945894 -0.007627419 -0.07695655 -0.016195877 0.00909955 0.017320089 0.021962237 -0.006028568 0.03586924 0.025554052 -0.084153414 0.05199032 -0.010665169 0.005168328 -0.019999832 -0.020175632 0.08537937 -0.04721846 0.04399643 0.08199931 -0.009240442 0.087968096 0.022856848 0.028323634 -1.2635916e-06 -0.05946664 -0.012616182 0.004739777 -0.0031456712 -0.003983383 0.0036795486 0.020993866 0.00014269716 0.0484217 0.05475747 -0.038219064 -0.008509032 0.03545972 -0.058613416 0.0074551217 0.014723079 0.068655826 0.06711737 0.11920748 0.0841773 -0.071990445 0.032264516 -0.11603096 -0.0112563735 -0.004043628 -0.07140918 -0.0143821845 0.062030572 -0.05522993 0.011472546 0.0005191324 0.07221316 0.04409713 -0.041776143 -0.027223997 0.031426646 0.08237196 0.0051792897 -0.033576876 0.07989505 -0.048538048 0.06561604 0.105777115 0.042816885 0.061354287 0.049081407 0.010700549 -2.1942767e-06 -0.01767555 -0.022226019 -0.020398322 -0.009658675 0.03235361 0.02274732 0.011041396 0.012299642 -0.0030391102 -0.012306875 -0.079334624 0.011910646 0.0044487687 -0.060142927 0.055433758 0.028462727 -0.022201374 0.043596417 0.16654603 0.09083862 -0.10783889 0.028815337 -0.20706798 -0.010273879 -0.056710284 -0.15824461 -0.06465073 0.0580013 -0.11119755 0.004817759 -0.08121715 0.02928441 0.06057507 -0.046741858 0.06709857 0.039336618 0.047702186 -0.0823963 0.05251008 -0.0074001127 0.09516017 -0.05059706 0.1400657 0.05102277 -0.075912416
0.004230602 0.031267904 0.001565043 -0.016762033 -0.032031372 -0.03582784 -0.010707447 -0.038051266 -0.027981713 0.02176368 8.379334e-07 0.013481929 0.0386558 0.029715836 -0.008976934 -0.01156491 -0.026562322 0.020786155 -0.019692775 0.00339201 -0.044712115 -0.0066297697 0.010228381 0.00044777576 -0.019962562 0.023524087 0.026411204 0.02725835 -0.019182105 0.022539455 0.0054920833 0.018881101 0.04883139 0.015093571 -0.0027125333 0.03136098 0.0024992991 -0.025366768 -0.00909869 0.05140528 0.023935948 -0.05812536 -0.013057212 0.01254806 0.0047741355 -0.023414895 -0.0035970246 -0.10895489 0.03238464 0.04665911 0.008771793 0.03151472 -0.02399631 0.013085169 0.023119787 -0.06124063 -0.008266411 0.015300592 1.3019924e-06 0.018908557 0.025978625 0.0067152013 0.019691514 -0.05540495 -0.012189072 -0.013797154 -0.022391077 0.036662586 -0.026393224 -0.04205609 0.027000735 0.05063181 0.005541104 0.015080518 -0.0073217605 -0.029698588 -0.02202611 -0.025338493 0.015047304 0.036351353 -0.066192076 0.014848319 0.01162189 -0.037981436 0.034884367 0.0060267095 0.03206394 -0.01530237 0.024536507 -0.034128238 -0.017987117 -0.021181071 0.0059177103 0.03697549 -0.025336992 -0.057203967 -0.024731787 0.035140328 0.016437337 0.017919447 -0.03243567 -0.009824072 -0.00858199 -0.017098695 -0.010124417 -0.029257553 2.1985568e-07 -0.014612281 -0.009634021 0.011981321 0.005956218 -0.036752332 -0.010421814 -0.01646847 -0.0007353926 -0.008171935 0.021417867 -0.018563747 -0.015150236 0.026313042 -0.016717711 -0.02064142 -0.031716727 0.00041374532 -0.018936353 -0.0059500113 -0.010320309 0.009838846 0.025005136 0.023199366 0.0028402146 0.012206024 0.029207576 0.0009953241 -0.023511026 0.0226976 -0.001404949 -0.030081049 -0.042990945 0.00035933536 0.04786778 0.034299783 0.013018454 -0.06097147 0.009508335 -0.013246525 0.058323123 0.027216192 -0.0062247356 -0.024507975 -0.033725735 -0.032781888 0.0085959295 0.024229843 -3.2473088e-07 0.0050200163 -0.008075966 -0.008299772 0.010550652 -0.05963583 -0.02294334 -0.0050129816 -0.01866004 0.026081463 -0.06929846 -0.02769338 -0.02013062 0.016984396 0.021650929 -0.04498614 0.03293696 0.006662722 0.001055732 0.014679061 0.026394472 0.024421725 0.0067066415 -0.06249327 0.031899687 -0.017852148 -0.027232418 -0.021114277 0.0037806712 -0.015861096 0.012047937 -0.04877765 -0.03947094 -0.04271512 -0.0040923194 -0.040900998 -0.011170019 -0.093062624 -0.00034689184 -0.005386368 0.026563482 -0.016486352 0.0012543224 -0.00628134 -0.04159251 0.0020211975 0.016273156 -0.030977184 -2.5012923e-07 -0.017920002 -7.1163646e-05 -0.019210296 0.017772404 -0.04812404 0.026953794 0.018328192 -0.009117551 -0.0020016427 -0.027955595 -0.008740585 0.03586963 -0.019202434 0.014298566 0.010239491 0.0027664334 0.03836886 0.00064255216 0.003108827 0.04674671 0.052938696 -0.03468041 -0.055010624 0.012385772 0.02701043 0.039157253 0.017523594 -0.010186257 0.012686447 0.0004646539 0.0075336643 -0.0066518495 -0.002132829 0.047466207 0.015500098 0.044312384 -0.08780305 0.00076612603 0.043550156 -0.016520927 -0.017607756 0.07502156 -0.016989695 0.00027530792 0.003743866 -0.036760442 0.028128244 6.422139e-08 0.03730136 0.008744746 0.003474225 -0.0185892 -0.035149656 -0.03096396 0.027845958 0.033554323 -0.013284453 -0.021456912 0.0047547556 -0.031568926 0.037170153 0.012873378 -0.041271828 0.0029288428 0.034821358 -0.025930999 0.015373055 0.021855459 0.051730063 -0.032468315 -0.030197898 -0.0013612162 -0.005425739 0.01346464 -0.027349625 0.011714159 -0.008395902 0.068884246 -0.05076014 -0.013882003 -0.008333834 -0.023999395 0.05491298 0.030522596 -0.08259699 -0.029371994 0.03098516 -0.015525343 0.006936508 0.057117984 -0.020863997 0.018688379 -0.022952227 -0.04859806 0.0114341285 7.124789e-07 0.029720997 0.00071330706 0.0051599434 0.002501524 0.014788428 0.008562548 -0.010848031 0.011520201 0.02830548 -0.027868286 -0.030590076 0.014071098 0.0014393652 0.023121556 -0.067039244 -0.00028682125 0.025307905 0.0023953745 -0.00041047612 0.045360144 0.026221726 0.0008731528 -0.0057702535 -0.00028568032 0.0049832026 -0.017377323 0.025565132 0.011254484 -0.0051633427 0.019709216 -0.060323015 0.011143451 0.005268951 0.017745273 0.029974144 0.0066740834 -0.08766932 -0.026699599 0.06923838 0.015317217 -0.019356554 0.008075511 -0.016588591 -0.009777666 0.029422661 -0.0017938698 0.033753857 -5.3833384e-07 0.015737927 -0.00085165806 -0.04193852 -0.021353453 -0.032632057 0.037819404 0.022447808 0.012690486 0.038196456 0.0032046735 -0.027137198 -0.022866419 0.053791996 0.030086355 -0.02834381 0.021319091 0.02189588 0.026061136 -0.052314393 0.020074055 -0.021035759 0.00016615383 0.012245335 -0.017772647 0.06481295 0.0023201718 0.020342235 0.036995277 0.015030244 0.040920638 -0.08328936 0.018637462 0.014338717 0.0064984877 0.07078388 -0.0553499 -0.08472054 -0.035314403 0.044045176 -0.01796408 0.028830316 0.0869184 -0.0030652236 -0.008257623 -0.019848648 0.025802502 -0.04231473 -7.625646e-07 0.020428652 0.045048248 -0.03879263 0.0089644985 -0.022150913 0.007828997 0.025486825 0.0034649651 0.013972885 -0.04975116 0.025658932 0.008229702 0.039025255 0.031764902 -0.03544054 -0.037167728 -0.010463925 -0.04582387 0.05427736 0.073011585 0.018812085 0.0021053741 0.013000472 -0.06918553 0.08744659 -0.032443967 0.006050975 0.07035499 0.022300832 0.07564514 -0.012680917 0.040060442 0.025001768 -0.034911912 0.017673418 -0.028644608 -0.1042222 0.0025973911 -0.016903037 -0.048632238 -0.004863656 0.116065115 -0.01213783 -0.04547348 0.039588198 -0.032642405 0.031711787 -1.482557e-07 0.02499157 0.007855431 -0.036786642 -0.021586543 0.000709925 0.024001384 0.006890607 0.039468613 -0.007678031 -0.020780234 -0.024454048 -0.0034725138 0.008494059 -0.0104536805 -0.037487656 -0.08596748 -0.007695167 -0.06469093 0.008153867 0.0731564 0.040542085 -0.05608584 -0.022910776 -0.15696591 0.37708938 -0.027409583 0.09787453 0.11891944 -0.033059187 0.09489492 -0.108229734 0.07235661 -0.009361253 -0.031693447 0.0120418 -0.08519419 0.061926764 0.080900155 -0.21197166 0.21056847 0.4249632 0.18557437 -0.27920347 -0.22462276 -0.011793499
0.022338698 0.03370827 -0.033563454 0.02157474 0.026087599 0.030562207 -0.007104068 0.014142108 -0.0025261084 -0.037916243 9.161936e-07 -0.03030357 0.031502496 -0.041149568 0.022185795 0.012129911 0.0074674673 -0.0024101965 0.07111828 -0.03398426 0.02651622 0.040545728 -0.028599577 -0.008719763 -0.006954838 0.0072528017 0.0069565857 -0.0036275587 -0.04103912 -0.024696317 0.031084774 -0.0347817 0.017908918 0.0018699444 0.042985093 0.06601116 -0.0073965965 -0.03678573 -0.033494823 0.010764539 0.0029847333 -0.02183908 -0.07549214 -0.018077498 0.004293508 0.02705773 0.009211101 0.057801466 0.008380323 0.047416665 0.0011673537 -0.0027718556 -0.0004909901 0.0013368806 0.036065914 0.011595349 0.014682038 -0.026674213 9.4462587e-07 -0.022166142 0.027427753 -0.016851218 0.036320146 -0.0055708005 -0.0020883468 -0.028190315 0.011779358 -0.000654552 0.035857055 -0.014200038 -0.0076723457 0.042533565 -0.03723685 0.032775216 0.013915258 -0.0089231245 -0.036200177 0.019557524 -0.0066160406 -0.046033494 0.012958557 0.010512316 0.04128428 -0.0049313963 -0.0109175565 0.035629246 -0.033097204 -0.031549152 0.09535328 -0.020782167 -0.026969798 0.061872117 0.03434217 0.046395626 0.039473213 -0.031341244 0.023762796 -0.012110748 0.030438086 0.013445558 0.023235464 0.021429488 0.02076667 0.0508628 -0.010138605 -0.040255547 -2.5927278e-07 0.038091242 0.050537992 -0.04923341 0.01607415 0.0070466595 -0.023030443 -0.0049283435 0.030484222 -0.021447051 0.013250725 0.013904764 -0.011417547 -0.009827571 -0.024649033 0.0034017062 0.0066165556 0.021532673 0.019709466 0.002465433 -0.0037606338 -0.00175231 0.0019757065 -0.007141155 0.0007839862 0.010826327 -0.034445792 0.00070299965 -0.060917027 -0.07820179 0.026626661 -0.021811891 -0.06254689 0.06354005 0.044945095 0.058868315 0.0002647443 -0.0062389853 -0.018270068 -0.00932268 0.010650678 0.021411302 -0.0086603435 0.028384201 0.0132963685 0.011463424 -0.0040628794 -0.048076488 -2.851879e-07 -0.01044423 0.032296814 0.012256186 0.032804113 -0.053569768 0.012612487 -0.042487692 0.047435638 0.0021721912 0.03562892 -0.02149646 0.0129514 -0.0050463025 -0.03225052 -0.0021790983 0.03739541 -0.010113984 0.035226837 0.0077307 -0.012737559 0.057664227 0.0054666614 -0.0028848897 0.007594926 0.013038144 -0.0040587517 0.042796757 -0.025268499 -0.063525654 0.0275642 -0.050123405 0.022093393 0.0525538 0.039451968 0.10356918 0.027374242 0.009121445 -0.026500259 -0.057932794 -0.03757995 0.0076598823 0.0083430195 0.013753864 0.028180456 0.016675752 0.01605255 -0.02827116 4.5517135e-07 -0.041768108 0.009296811 -0.041252863 0.020226384 -0.044804037 0.012057026 0.013441111 0.03785926 -0.052449975 0.018844811 -0.0027950143 -0.009320201 0.022490498 -0.05568231 0.004058167 0.019408828 -0.028990326 -0.0032836788 -0.012134875 0.013110521 0.017500741 -0.007733581 0.021621682 0.03592654 0.031339373 0.055211622 0.007112973 0.007938657 -0.02275511 0.004068516 0.017284714 -0.07114219 0.034741458 0.027252363 0.049092427 0.018131416 -0.014355285 0.02299355 0.0064634997 -0.056308087 0.011804732 0.018432118 0.0117394375 0.0268284 0.0378861 -0.005611169 -0.0309201 -2.0144946e-06 0.015920162 0.032208674 0.004068423 0.030340562 -0.049670067 -0.03385105 -0.017852359 0.061084714 0.0012092484 0.0002963832 0.021581523 -0.04402945 -0.014372525 -0.046742108 0.04177798 0.016102431 0.015780907 -0.017368369 -0.026432144 0.034574375 0.031423613 -0.041280124 0.0015123273 0.051069744 -0.010279851 -0.04835298 -0.027507288 -0.0134573355 -0.03603478 0.019690452 0.035239633 -0.056890976 0.089756064 -0.03191635 0.073885955 0.06109518 -0.007988187 0.021655804 -0.0035072563 -0.071130134 0.050737996 0.025092011 0.00049722224 -0.013184624 0.014019746 0.05708168 -0.04776003 5.0525904e-07 0.0016518087 0.009851079 -0.019359358 0.01105408 -0.02939834 -0.012102993 -0.020446088 0.002092118 -0.036278684 0.0016266801 -0.004804174 0.0072518657 0.0011299563 0.021848546 0.010974357 0.026823727 -0.038022485 -0.002730201 -0.0732713 0.042544734 0.062178735 -0.042490568 0.02169531 -0.038038608 -0.026670663 0.002386768 -0.022874976 -0.055970598 -0.03286628 0.043277916 0.021124026 -0.050903942 0.066802725 0.019974843 0.03561356 0.035567407 -0.022345122 0.017883416 0.008030636 -0.043307718 0.030352449 0.027976591 -0.047437824 -0.009375149 0.014313588 0.018203165 0.009143925 -1.4152121e-06 0.01932524 -0.00011236399 -0.0027727333 0.036404464 0.0033628214 -0.04872057 -0.03302497 0.009329412 -0.022168126 0.009624493 -0.012062264 -0.006872013 0.009421922 0.036168013 0.012197931 0.060242325 -0.021219304 0.020602409 -0.04078448 0.007133849 0.008081789 0.013071059 0.015657704 -0.02371269 0.010565219 0.0011721903 0.015804375 -0.0030661405 0.024957359 0.0054126526 0.0011990042 -0.09847397 0.0870486 -0.01957842 0.06434223 0.022391615 -0.05363562 0.0018767866 -0.020046024 -0.024897449 0.036591943 0.026078768 0.007843678 0.01600688 -0.00090320036 -0.016650239 -0.048618603 7.6950454e-07 -0.0093568135 0.04448395 0.010052659 0.050289895 -0.050594762 -0.0397872 -0.0062940503 0.047604192 -0.03493791 -0.0007748573 0.020794686 -0.049200226 0.01728839 0.05693444 0.057425033 0.03242359 0.01589383 -0.017874938 -0.12447562 0.065542445 0.02093502 -0.049653232 0.10950809 -0.0054196925 -0.05598114 -0.012796601 -0.018428082 0.0558254 -0.017813744 0.081956424 0.028272985 -0.03658582 0.036808636 0.017223435 0.07002155 -0.00018270403 -0.04856426 0.04785592 -0.032319542 -0.05070301 -0.0052497094 -0.03595449 -0.0005390426 -0.016108382 0.042081043 -0.040185336 -0.021829367 -8.010735e-07 0.020565068 -0.0076974216 -0.005977273 0.04325149 -0.030795213 -0.03778657 -0.051356476 0.057446487 -0.03819042 0.0034298836 0.009262948 -0.04011174 0.03183067 0.19738975 0.13663897 0.009174527 0.01830428 -0.004654852 -0.27139705 0.12582794 0.03135418 0.086745284 0.07065425 -0.009234078 0.13472983 -0.02291274 -0.003554215 -0.0043503908 0.04393719 -0.1011982 0.022415316 0.035228588 0.06218062 0.055268686 -0.0129403 -0.04698259 0.016430033 -0.058923155 -0.12850751 0.061401278 -0.28773928 0.120509446 -0.34410992 -0.1347871 -0.12174138
-0.018054988 -0.0072237994 -0.00959508 -0.035883863 -0.009842616 0.008547395 0.023518348 -0.025868148 -0.028488548 -0.005934235 -5.6352157e-08 -0.054749846 -0.0016417725 -0.028225882 -0.012544359 -0.029898254 0.0014025653 -0.013182062 0.008223158 0.02987794 0.022713983 0.0027725797 0.008554657 0.022026522 -0.023023779 0.0038203066 0.0039589913 0.010037319 -0.0063400557 -0.024239855 0.0045378623 0.034559775 -0.029304974 0.079617314 0.040777232 -0.014084616 0.0116898 0.013525131 -0.0023423752 -0.031397548 -0.03296353 0.05850032 0.036367934 -0.023166353 0.064626 0.02015836 0.035267398 -0.010498902 -0.025169427 -0.009504019 0.009289207 0.0015137396 0.03850257 0.011324132 -0.02918049 -0.02127462 -0.024013199 -0.03449364 1.0278794e-06 -0.05857305 -0.0145299155 -0.010355947 0.022035923 -0.023729522 -0.0012745094 -0.020001 -0.03257461 0.027306996 -0.004863029 0.058201123 -0.008333758 -0.009260586 0.0112283435 -0.026989799 0.015729608 0.0206836 0.0015943452 0.007950255 0.01035202 -0.050740138 -0.009620664 0.041343573 0.011784531 0.026564656 0.019668004 -0.0042688358 -0.016684197 -0.022516295 0.010483455 0.032563824 0.07190098 0.0025174478 0.04486071 -0.005595187 0.014123946 0.043945376 0.0038644767 0.015286356 0.03810634 -0.017674578 0.03989703 -0.013721186 0.022843098 -0.014293692 0.0047956747 0.047618106 2.731939e-07 -0.02345395 -0.025053306 0.025508495 0.002354191 -0.021823399 -0.025412632 0.011438006 -0.025467016 -0.0054692244 0.029313382 -0.0026395668 0.022721954 -0.014095233 -0.07641773 0.0047078524 0.011654255 -0.028680861 -0.01722081 -0.045955315 0.030915195 -0.0062450217 -0.0097546 0.007068947 0.032482952 0.0068942048 -0.0069295513 -0.00853036 0.0023829623 -0.04988069 0.000953428 0.052502114 0.016011715 0.0074427766 0.036033574 0.024834989 -0.0051448555 0.014387139 0.0001578823 -0.0032074444 -0.045091003 0.014046015 0.009228691 0.00069086876 0.0008423146 0.017241403 -0.0072690896 0.0262268 -4.6601332e-07 -0.031574998 -0.022766089 -0.03964222 0.008019116 0.011326399 -0.009513234 0.01926603 0.033961624 0.032312725 0.018583322 0.02967681 -0.013786337 0.019094903 -0.0824699 -0.023126135 -0.019696541 -0.001975792 -0.002977892 -0.06535052 0.044314258 0.013457865 -0.031188305 0.016960837 0.011972228 -0.004787411 0.023709554 -0.020491755 -0.0054478813 -0.008882996 -0.012847995 -0.015534344 0.059075825 0.01800664 0.034366257 0.013273521 -0.0071155424 0.035410795 -0.009184165 -0.029577922 -0.045097243 0.035733454 0.055643875 0.041618854 0.04664831 0.03309199 0.011359674 0.043692987 8.3148956e-07 -0.06272139 -0.019567613 0.017785983 0.0005985209 -0.003745304 0.012408635 0.019794594 -0.0011955115 0.002087957 -0.0020082972 -0.008690802 0.003706634 0.027541593 -0.053456414 -0.033314236 0.009332592 0.019148009 0.0011724624 0.00055559364 0.006438876 0.032743156 -0.00863311 0.037690468 0.030717978 -0.072661415 0.06646061 -0.05240887 -0.026988618 -0.024006628 0.023328787 0.009294144 0.030741422 0.0045006713 0.038776673 -0.013198478 0.04204453 0.06842484 -0.03054475 -0.01602629 -0.005799407 0.011312671 0.02468246 -0.030550605 0.04607565 0.029749746 -0.029278934 -0.0037894272 -2.503053e-07 -0.052245803 -0.034856882 -0.015301271 -0.0060503287 0.011924506 -0.0105156135 0.019269586 0.004545769 -0.0014802105 -0.00086111977 0.039993793 -0.0057038753 -0.02943238 -0.051636428 -0.016990127 0.007128737 0.014276165 -0.014591937 0.009876636 0.047801472 0.027604897 -0.058266327 0.011150483 0.030489182 -0.07383451 0.085082665 -0.029002873 -0.008260381 -0.016342076 -0.017551744 0.028941073 0.13038202 -0.0043794313 0.051852956 0.047469426 0.009503891 0.04185299 0.00741736 -0.06568461 -0.015830742 0.02079029 0.055648886 0.0072265817 0.00100033 0.018381752 -0.0008548355 0.020431 1.4488318e-06 -0.05869102 -0.028388394 0.010443158 0.032991767 0.040068258 -0.02139278 0.013756569 -0.030444525 -0.022622306 -0.012172789 0.01809416 0.013675248 -0.03119594 -0.038576778 0.024752272 0.017714383 0.010103284 0.010878056 0.06751062 0.051437672 0.045084935 -0.0074868444 0.0027299663 0.005140513 -0.029684534 0.045758154 -0.07188156 -0.012116314 -0.07058861 0.010611596 -0.027683498 0.08173832 0.0012864233 0.03655041 -0.014492336 -0.01201281 0.058166075 -0.018398196 -0.02292797 -0.060828075 -0.0046368614 0.08164764 0.05271041 0.0054489328 4.7891215e-05 0.06406562 0.0340629 3.7090868e-07 -0.1311506 -0.015161179 0.029150385 0.047346774 -0.002168412 -0.005286911 -0.013686912 0.014394545 0.02654577 0.026355734 0.036589246 0.010497776 -0.043066964 -0.017880118 -0.0075400784 0.0631047 -0.05559107 -0.00072710466 0.07311821 -0.029409237 0.04043413 0.007231129 0.017300107 -0.017666768 -0.009613374 0.069598 -0.068718776 0.019005321 -0.04130738 -0.0030623726 -0.04105417 0.08952064 -0.037882276 0.018300096 0.0038714563 0.05341372 0.10909875 -0.02795592 -0.018161578 -0.001368225 0.007058773 0.07087971 0.04304307 -0.011768609 0.02665719 0.057495985 0.015852345 -8.0120554e-07 -0.10680627 -0.028020225 0.02820521 -0.009308537 0.032590907 0.011134596 -0.002736649 0.011338453 0.04001478 -0.014340007 -0.0057930234 -0.03336344 -0.038318112 0.02647022 0.014392714 0.05975399 -0.027243482 0.0255128 0.04268153 -0.07875309 0.08498039 -0.011477445 0.014815997 0.004193001 0.020959817 0.04324294 -0.053903442 0.0097603435 -0.06625033 -0.015599863 -0.11867388 0.06343016 -0.06470199 0.04812207 -0.01212999 0.045951724 0.09135711 -0.0404679 -0.04468052 -0.0014256139 0.0045698993 0.047344375 0.19972366 0.027317226 0.027936818 0.056643657 0.01086954 1.3930035e-07 -0.13545771 -0.0032386594 -0.024721865 0.016890801 -0.01137968 -0.032043185 0.046822306 -0.029185094 0.014444759 -0.008525587 0.037558693 -0.00088585133 -0.03364462 0.022917295 0.08799647 0.011778939 -0.08582491 0.01102433 0.097350456 -0.18730189 0.06810569 -0.044730358 0.016859751 -0.028619649 0.03821445 0.09213723 -0.0075228196 -0.029732578 -0.039915852 -0.07078528 0.009178878 0.049736775 -0.057915162 0.08573657 -0.034540933 0.075699456 0.11128917 0.14179537 0.05174372 0.19637217 0.20569679 -0.36227977 0.4205003 -0.03104277 -0.026078979
-0.057263076 -0.029366234 -0.021205205 0.005483984 -0.07098758 -0.011946753 0.012912134 -0.07360245 0.03890244 0.08852258 5.7611203e-08 -0.025109403 -0.011070714 0.03416411 0.014759408 -0.02342421 -0.02163646 -0.054076917 0.0154249305 0.020990428 -0.04832954 -0.016559044 0.050312713 0.020563928 -0.024104096 -0.006085507 0.007980123 -0.013527491 0.0248784 -0.026637726 -0.007260064 0.02685007 -0.044928387 0.026087618 0.00016187712 0.017879209 -0.02423545 -0.00089915254 0.004913757 -0.004061485 -0.03966161 0.01929228 0.01106397 -0.028723054 0.024323618 -0.017019747 -0.01573955 -0.009115672 -0.07730758 0.015551376 0.0009462007 0.02638516 -0.0374469 0.042521473 0.022596836 -0.04162567 0.04298979 0.09965553 1.674819e-07 -0.004466334 -0.0057659736 0.027221363 -0.008675663 -0.040625975 -0.066282615 -0.016227512 -0.0037422637 0.043422204 -0.052372288 -0.022505455 0.04446708 -0.03721837 -0.0012337924 0.023809453 -0.056984503 0.0043748827 -0.018383736 -0.037639234 0.025402853 0.009758942 -0.012656653 0.015930396 -0.015604578 0.002209965 -0.0019812735 0.01826905 -0.013001185 -0.01688684 0.002932067 -0.009274528 0.03603029 0.011213756 0.055524744 -0.04052259 0.00073947327 -0.00090613286 -0.07297251 0.0015540381 -0.020796774 0.038447928 -0.104650244 0.016454646 0.028119698 -0.079420045 0.0134061985 0.060985032 -4.43365e-07 -0.05088632 0.022712996 -0.023579447 0.014816599 -0.010108016 -0.050428092 -0.051305816 0.0042163343 0.026038436 -0.05098606 -0.025003504 0.06595461 0.009442724 -0.024596237 0.027072556 0.0002530041 -0.00399751 0.019139016 -0.06425879 0.0016449316 0.0065937387 -0.011696104 -0.04442361 0.010834965 0.026821291 0.02470667 0.0028196773 0.012645798 -0.01004377 -0.026130015 0.033956144 -0.010002294 0.009695091 -0.010788887 -0.0016068813 0.011434295 -0.012745944 -0.08958694 0.017467178 0.019284341 0.043460105 -0.029335452 0.0069921906 -0.013823439 -0.09658322 0.019843215 0.103986256 -2.0347517e-07 0.0012747649 -0.012802364 -0.018257946 0.016694143 -0.03587971 -0.040233783 -0.022102598 0.02160629 0.0023900825 -0.041771017 -0.041022204 0.00763023 0.007871782 -0.0032575347 0.00775824 -0.03842247 -0.04637271 -0.0144292815 0.010219375 -0.030208236 0.03947145 -0.048831895 -0.011691383 0.0063209883 -0.008322549 -0.014390098 -0.015950881 0.0005409139 -0.015430349 0.014349599 0.015637726 0.010621842 -0.048939075 -0.0008936236 -0.030015957 -0.007897076 0.0024194652 -0.117860936 0.025723195 0.015000454 0.040205974 -0.07677696 0.00863869 0.0062168343 -0.13082108 0.059003986 0.08753439 -4.5154508e-07 -0.019677458 0.022851845 0.03284574 0.07087376 -0.004751422 -0.01583951 -0.0471621 -0.00013887566 0.06347225 -0.036833465 -0.038507596 0.0053072115 0.022832654 -0.046711788 0.04314001 -0.0027932515 -0.022772204 0.0014803142 -0.027706265 -0.04626471 0.041927263 0.019179488 -0.06302512 0.034328587 -0.030267332 -0.015271098 -0.034458976 0.01713941 0.018916098 -0.009383934 0.0007957656 -0.024135616 -0.0036925834 0.002025477 -0.031295452 -0.0010134886 -0.01875491 -0.12428726 0.0142472545 -0.0026500367 -0.01021795 -0.10297051 0.015474742 0.023102053 -0.087835655 0.04090093 0.06835809 -2.883292e-07 -0.023568312 0.019208428 0.029423105 0.03138069 -0.0024163222 -0.03520264 -0.04575967 -0.012150601 -0.0045219073 -0.04893007 -0.07051743 0.05344641 0.0010069995 -0.040925454 0.015507572 0.014852108 -0.020506015 0.0066934945 -0.04585221 -0.06728197 0.008150215 0.039051194 -0.040548906 0.026939716 -0.026739288 0.0570881 -0.00700033 -0.002911045 0.033669453 -0.02543992 0.006378133 -0.011025942 0.030340305 0.020363668 0.010178549 -0.08639938 -0.013288087 -0.13607052 0.00016266553 0.0050521055 -0.005826382 -0.09010401 -0.0005378336 -0.005481977 -0.07139395 0.0062812073 0.11235831 -3.1892284e-07 -0.030199552 -0.014150804 0.037600573 0.032201856 -0.020320818 -0.028815515 -0.059019554 -0.027917495 0.037374135 -0.022248462 -0.02927209 0.023927975 0.03612403 -0.03701769 -0.0067608436 2.030304e-06 -0.049716804 -0.0038167725 -0.008700842 -0.036635492 0.008497478 -0.0013130353 -0.03306946 0.019712219 -0.00614439 0.03810171 -0.05314444 -0.022425383 0.028706195 0.067869395 0.0036079558 -0.0049338704 -0.03378228 0.03960968 -0.019889507 0.010667655 -0.015857082 -0.16623087 0.026003463 0.0005430891 -0.033822946 -0.088531636 0.0232273 -0.028458113 -0.10868267 0.021319022 0.10887571 -3.4031206e-07 -0.04325417 0.01607592 0.018241491 0.0166611 -0.0044910414 -0.071484275 -0.043739203 -0.013317105 -0.007695639 -0.038030937 -0.039886273 0.043064326 -0.030170681 -0.04740193 0.050391033 -0.015867928 -0.04857636 -0.038780224 -0.00515581 -0.032693103 -0.007114583 0.036715664 -0.11584508 0.030740418 -0.030999571 0.045093466 -0.03035432 0.0071990825 0.002824824 -0.013989984 0.019957634 0.05608745 0.00081010524 0.07319101 -0.02660638 0.018349856 -0.0053740153 -0.17728513 0.0009490591 0.0075828894 -0.0024392868 -0.06300342 0.016355285 -0.010403324 -0.09769581 0.0116947135 0.11325851 5.728328e-07 -0.052473377 0.009670689 -0.009730674 0.013244848 -0.00086335716 -0.055201318 -0.039374687 -0.014291778 0.011888335 -0.060666177 -0.05888593 0.034472205 -0.012884181 0.0044324975 0.019818531 0.02646683 -0.037341878 -0.026444307 -0.03431183 -0.03890058 -0.005189135 0.1082032 -0.12561741 0.033163346 -0.0050482517 0.04201538 -0.06695304 -0.05993691 -0.005653722 -0.017930483 0.025993109 0.009569066 -0.007601159 0.080466226 -0.0037301562 0.035720848 0.020740354 -0.2077502 0.0459439 0.021486066 0.024609076 -0.0017076446 0.026486224 0.0134766055 -0.09441514 0.060673926 0.12557524 8.3965e-08 -0.037123162 -0.022862257 -0.013533704 0.03635169 -0.036510747 -0.050099112 -0.0055554346 -0.02717269 0.024658674 -0.040519252 -0.10524221 0.04606136 0.0025746732 -0.086666584 0.048694696 0.026891023 -0.032474883 -0.08902195 -0.06340694 -0.05247257 0.006830367 0.13621926 -0.22921121 0.045474634 0.028787322 0.07336917 -0.10973768 -0.072158866 0.07472734 0.0061114663 -0.0002984299 -0.02494519 -0.07331256 0.10006845 -0.13999912 0.020540329 0.017839754 0.063695595 0.033627823 0.030617619 0.06381604 -0.31172857 -0.04035015 -0.07617309 0.14621143
0.040750727 0.008079919 0.084836595 0.04203926 -0.03922437 0.05588786 0.01446058 0.058524374 -0.0025163624 -0.03257246 4.436904e-06 -0.009140235 0.048781324 -0.068643235 -0.046555225 0.01318252 -0.011022382 -0.020001996 0.022920853 -0.0023136453 -0.05782397 0.010296489 -0.004442435 0.033563703 -0.0028522909 -0.0013262113 0.020044943 0.0018854832 -0.0012960511 -0.027475074 0.011798102 -0.008159021 0.017447185 -0.013567396 -0.04370551 -0.018442472 0.07452802 0.009483213 -0.026576318 0.027359813 -0.002267159 0.07164801 0.033669423 -0.003391954 0.058370065 0.008232034 -0.059285145 -0.06256197 -0.024467828 0.02356638 0.051451836 0.049092717 0.018830502 0.0020014034 -0.010888058 -0.0022445733 0.009788459 0.017195482 2.8008067e-06 -0.03121802 -0.00065696257 -0.056029078 -0.050561298 0.0038925535 0.0054488736 -0.0135516515 0.0016748881 0.018973708 -0.024222316 0.0039202576 0.0010251277 -0.024290245 0.0030626662 0.019721728 0.011497752 0.01063473 -0.021483168 -0.011140172 0.031313673 0.018181507 0.012334458 0.01164483 0.0035023135 0.045257304 0.05440276 -0.023182498 -0.026220571 -0.06272596 0.0064476426 0.08300425 0.07008089 0.022508213 -0.024353474 0.022366738 -0.01713044 -0.08899413 -0.043732055 -0.026068702 0.003084767 0.0151104005 -0.0009364304 0.019043464 -0.051876612 0.03894301 -0.038145736 -0.024992613 -4.044791e-06 0.013884921 0.011464866 -0.027373265 -0.012246111 0.016377699 -0.029728677 -0.04901309 0.035479557 0.02507565 -0.05598375 0.0010072334 -0.0122324815 0.017884713 -0.008554708 0.011651314 0.0036920258 0.0125897415 -0.024872549 -0.03136069 0.056744803 0.007021499 0.011373878 -0.026420362 0.0058309343 0.025435328 0.022908079 0.02867477 -0.0022534002 -0.04787789 -0.049783144 0.033265036 0.021120435 -0.0038175608 0.008198994 0.006547902 0.0069356835 -0.04888183 -0.014598243 -0.020812541 0.044201255 -0.0022667225 0.034989074 0.039388716 -0.035463084 -0.02596713 -0.014177289 -0.016348742 -3.6870215e-06 -0.056205474 0.032920007 -0.052117605 -0.06560048 -0.016424173 -0.038302716 -0.0125428615 0.031658653 -0.033877548 -0.04640205 0.03705212 -0.008332089 -0.035997253 0.04649899 0.028819956 0.038249847 0.028298706 -0.004370823 -0.04395723 0.024561623 0.010417119 0.005056072 -0.06843602 0.0009012849 -0.062440548 0.06642893 0.028229259 -0.021700744 -0.024864584 -0.0112855 0.012956214 -0.013664713 0.024203999 0.06870138 0.017275574 0.038157023 0.02702239 -0.048612323 0.011347919 0.03446727 -0.008136735 0.009362697 0.013098743 -0.035449464 -0.014669769 0.01538657 0.015673503 -2.3592584e-07 -0.052211206 0.06923324 -0.0067098644 -0.05969653 -0.035335027 -0.009679808 -0.020546786 0.00753334 0.040145103 -0.024843417 -0.02377572 0.012641497 -0.014710325 0.050127544 0.015286787 -0.021415772 -0.004586856 -0.037870795 0.0040554916 0.027499834 0.05102007 0.0041637984 -0.022138486 -0.025082858 -0.100774 -0.021787625 0.016324135 0.017634632 -0.029917393 -0.0070809103 -0.011634801 0.05644623 -0.038696222 0.005001586 0.03267097 -0.026756661 -0.0034184367 0.0012063781 -0.06457493 0.025329378 0.011500376 0.06848899 -6.0869434e-06 0.013369746 -0.01839155 -0.0044250134 0.009386877 9.882398e-07 0.021589411 0.0048842183 -0.02344201 -0.06907654 0.021038074 -0.00043775878 -0.011565227 0.012536491 0.013404795 -0.00839347 0.008181301 -0.0020827842 -0.0032995928 0.007946161 -0.0387939 -0.023043986 -0.033997376 -0.005649115 -0.042512152 0.026082804 0.0125007685 0.020078259 -0.044319406 -0.025990138 -0.0128259 0.052239195 0.012995847 -0.01584147 -0.02998556 0.0131916115 -0.0034680031 -0.011551416 0.04379475 0.052555874 0.03225652 -0.013284222 -0.037794475 -0.01558634 0.01899202 -0.037309717 -0.009026699 0.034615226 -0.0011060897 -0.018468179 0.029796056 -0.014067519 -0.0166666 6.284145e-07 -0.028776126 0.028934544 -0.026731038 -0.04744308 -0.011402371 -0.028190168 -0.026908811 -0.014226556 0.04201364 0.0017069372 -0.04027042 -0.016305417 -0.011093619 0.048010632 -0.04576944 -0.0120586455 -0.0035828692 -0.022376163 0.006928304 0.00252014 0.025316412 0.0071800565 -0.034478188 -0.038110282 -0.036054622 0.07100221 0.02832954 0.025080021 0.021505743 0.056676976 0.067621455 -0.03849525 0.0017347073 -0.046018615 0.0038537479 -0.034021035 0.012390068 -0.004364324 0.03100963 -5.3608423e-05 -0.042042326 0.036544558 0.027556088 -0.04625107 -5.4016396e-06 -0.007707834 0.031898092 2.2660893e-06 -0.036057375 0.040455736 -0.043384187 -0.043796517 0.011259646 0.0028905028 0.0071930643 0.020328786 -0.0032533456 -0.04116551 -0.04325095 -0.035489608 0.0024981692 -4.170126e-05 -0.07743995 -0.018104926 0.022398029 -0.0152156325 0.02186196 0.014485867 0.03299929 0.024489218 -0.04746455 -0.055044565 -0.039475307 -0.077588364 0.0020296276 0.012856105 0.056621827 0.053952206 0.04391252 -0.10796187 0.021939747 0.04830159 0.013447362 0.0025767752 0.018074226 -0.017058829 0.02392922 -0.013894261 -0.016868278 0.025007406 0.025734315 0.0075519364 0.020657305 0.0058120703 0.05426045 4.8097427e-06 -0.024788342 0.021035653 -0.079382695 -0.06882692 -0.033421647 0.0031324716 -0.031628836 0.0112549225 0.046555478 -0.020619394 -0.048627883 -0.045858435 -0.008252055 0.02296449 -0.108735345 0.01159536 -0.031463582 -0.02283224 -0.036968037 0.05708508 0.06410879 0.07292734 0.0030656592 0.0046712826 0.031685524 0.019590145 0.014813712 -0.003671439 0.027853888 0.021548802 0.06282701 -0.016052186 0.07556401 -0.022873396 0.013740047 -0.015921554 0.015160666 -0.06250606 -0.014616609 -0.001041997 -0.049458824 0.14318639 0.13952419 -0.022949992 0.009225537 -0.00033791535 0.042511046 -6.604956e-07 -0.021279823 0.06415529 -0.047883775 -0.0152956145 0.0110286595 0.0033835594 0.00855965 0.029720739 0.056784768 0.0076229745 -0.04889412 -0.02120285 -0.043082215 0.08535751 -0.11846938 -0.04081077 -0.07271983 -0.061639853 -0.040960975 0.13819619 -0.008589278 0.020095186 0.03773073 -0.045641758 -0.022976277 -0.0032428068 -0.02622549 -0.0027747175 0.024852633 0.04893065 -0.06317042 -0.09940851 -0.019300587 -0.06988786 -0.0152491545 -0.028100142 -0.023368033 0.1345926 0.044881526 -0.12690951 0.1129128 -0.105457045 0.008666675 -0.04394083 -0.08947241
-0.007934698 0.010843524 -0.018908512 -0.006662311 0.03262704 0.008079824 0.0061955294 -0.003680007 -0.016914628 -0.033047356 -4.3838682e-07 -0.04680313 -0.015817972 -0.00067061564 0.033200085 -0.006371582 -0.010796921 0.025943689 0.009022757 0.059944153 0.021764783 -0.013948566 -0.012700129 -0.018823106 -0.05315617 0.02185911 -0.027294045 0.04188822 -0.038508967 0.012368375 0.033396084 0.03873326 0.031897455 0.0016561034 0.0033411328 0.00391391 0.013521373 0.025369968 0.070893764 -0.006352225 0.014380368 -0.03178 -0.0049905134 0.032124653 0.10889434 -0.017847622 -0.03221629 -0.017946854 -0.031607676 -0.02168427 -0.031401128 0.07323262 0.039767373 -0.030257408 0.016811412 0.044536654 0.010248105 -0.04087912 1.3560195e-07 -0.045452558 0.03959601 -0.05482249 0.016817426 0.0071951374 0.03950275 -0.038211174 -0.003130666 0.01840503 -0.0004599506 -0.039451197 0.006901747 0.0072589214 -0.0007702849 0.019428799 0.020914836 -0.0071526403 -0.027175693 0.012954624 0.020928014 0.022911813 0.012802448 0.039052814 -0.0038369677 0.028375976 0.056267828 0.015609381 0.011725305 0.021761071 0.026066514 0.0003332028 -0.03409363 0.0074701053 0.0031464437 -0.038322248 -0.01563525 -0.032211825 -0.017496562 -0.014895836 0.0010151122 -0.023359958 0.051094342 0.001749787 0.005052598 0.028518831 0.017968323 -0.011570549 5.4404296e-07 -0.035968896 0.046515748 -0.07146384 -0.020135129 0.050176088 0.026971096 0.027509585 0.0018740005 0.00020842279 0.010708718 -0.01132534 0.054405514 0.015793478 -0.023196442 0.03548132 0.01997475 0.026263762 -0.038818795 0.037485346 -0.046765354 0.011087514 -0.03052299 -0.02978864 0.0065688933 0.043131683 -0.047654744 0.03835083 0.01452983 -0.006053877 -0.11355672 0.02049786 0.012435087 0.011188654 0.030511454 0.010854573 0.014787692 -0.036446907 -0.031309705 -0.023993563 -0.06323146 0.027348282 -0.008877473 -0.055359144 0.024467943 0.021713153 0.012891997 -0.008272314 3.4602434e-07 -0.04766041 0.010640406 -0.04048925 0.01514024 0.033702698 0.042841066 -0.022579309 0.0029667565 0.07120378 -0.020239769 0.025878672 0.054905374 -0.018504348 0.0008660132 -0.04384257 0.011034309 -0.00054484495 -0.028685236 0.04161236 0.017059574 0.030558998 0.0009373289 -0.018881364 0.040557407 0.027132263 0.06876933 -0.015917635 0.04257274 0.035042364 -0.0055457046 -0.044062488 0.00683023 -0.047868643 -0.0057259114 0.046656094 -0.034668945 -0.06000342 -0.04802636 -0.03842956 -0.014633673 -0.005108596 0.025232319 -0.0048998226 -0.015243825 0.039013278 -0.0054605724 -0.008315115 -7.065451e-07 -0.09521933 0.03835381 -0.03994926 -0.0125680035 0.061053693 0.04907839 -0.0025899925 0.015495859 0.057528324 -0.01475451 0.009818031 -0.0021913243 0.04212303 0.016189462 0.0068085873 0.027125591 -0.015343773 -0.029014448 -0.037605066 0.009071807 -0.023656422 -0.0033375968 -0.01218608 0.041538995 0.053237226 0.00357952 0.04456201 -0.0463782 0.0073918016 -0.04786659 0.015179593 0.039480638 -0.0066284197 -0.011169043 -0.061487947 -0.030574262 0.0023943242 -0.007634739 -0.0006433474 0.0027607188 -0.0071711205 -0.057652887 -0.03443431 0.02888561 0.037744384 -0.011942911 -0.043529294 -1.6510457e-07 -0.057769813 0.020942764 -0.02664337 0.01606071 0.06714048 -0.01130615 0.0014324896 0.025236323 0.015534774 0.009235272 -0.019354587 0.069217175 0.02696962 0.06600611 -0.030681722 0.013723242 0.01930379 0.04081239 -0.033307377 -0.026004069 -0.02309399 0.013443133 -0.0052024587 0.03500179 0.098827064 0.0088626295 -0.0028110533 0.0013010164 0.016675884 -0.023265192 0.027662652 0.0072986307 -0.009310577 0.06930378 -0.016855696 -0.020952806 -0.009350784 -0.026956487 0.003114899 0.002349045 -0.010860921 0.046630412 -0.068183534 0.032091282 0.008013253 -0.013810084 -0.028877363 -8.2360106e-07 -0.041433245 0.037520994 -0.031132983 0.04628152 0.028752493 -4.522579e-05 -0.024227178 0.027272413 0.04559278 0.010336838 -0.001327679 0.014329341 0.014533156 0.05161531 -0.07229226 -0.018662106 0.011469702 0.0017493066 -0.036525004 -0.007751256 -0.05507379 -0.012600397 -0.018234877 0.023527421 0.024739737 0.035098284 0.029122155 -0.012903937 0.02865645 -0.05341842 -0.003982753 -0.0028808392 -0.030563464 0.014791144 -0.06877897 -0.058511622 -0.033495948 0.013231557 -0.018932784 0.0095127355 -0.07435822 0.016052889 -0.05189927 -0.019765638 0.0054395534 -0.01952018 -0.054832328 -5.598095e-07 -0.09042249 -0.005129183 -0.034030367 0.03642477 0.046104003 0.026220212 0.019727677 0.011431252 0.028820714 0.019927975 0.00665724 0.007930239 0.0123622995 0.102360316 -0.12224038 0.017427996 -0.022974774 0.006855488 0.008144403 -0.08045554 0.016028326 -0.006924645 0.002195091 -0.015473797 0.08254507 -0.00826986 0.07582752 0.0069323443 0.015045087 -0.049741108 0.02623941 0.014303601 -0.03919213 0.03561976 0.01758986 -0.04981777 -0.0064598094 0.009347269 0.004588113 0.04821508 -0.015127524 -0.024456795 -0.11795264 -0.019386249 0.041073263 -0.005962552 0.004294169 1.5734412e-07 -0.08274557 0.049632024 -0.031274524 -0.01683407 -0.009354586 0.021737501 0.04256118 0.025286445 0.072298706 0.02340996 0.013518513 0.072948925 0.019122193 0.152596 -0.13187008 0.026101105 -0.064176135 -0.02126926 -0.00360557 -0.13785918 -0.020562466 -0.009914174 -0.051299203 -0.03086425 0.019499784 0.09995632 0.043617826 0.0538995 0.013538308 0.010701463 -0.05120355 -0.038919266 -0.015906725 0.058942664 0.04013042 0.032246623 -0.04645975 -0.026640432 0.009588573 -0.0003808828 -0.053185735 -0.008883462 -0.13432254 -0.03321518 0.04809776 -0.034358338 0.0027090064 2.6912704e-07 -0.04883553 0.032039266 -0.086522795 0.001190734 0.02877929 0.0035707243 0.008376904 -0.0016774448 0.05729492 0.018070085 0.00904324 0.024666928 0.021355849 0.32428393 -0.2009457 -0.02635307 -0.01724491 0.08195022 -0.11802531 -0.18582612 0.07461883 0.015201176 -0.044043038 0.06616043 0.053486414 0.09246342 0.028080866 -0.044380736 0.07877231 -0.024891201 -0.050978906 0.00751404 -0.0031673885 0.03679008 0.0024679222 0.10363237 0.027075656 0.20559074 -0.28355336 0.050839905 -0.055974096 -0.31481883 0.200373 -0.19791861 -0.43506813
0.028752659 -0.015737064 0.0097110495 0.0155716445 0.005769521 -0.05404 0.0066924086 0.007598419 0.0065467632 0.059180364 -8.5805345e-07 -0.026228413 -0.003999443 0.068896174 -0.015254859 0.04087402 -0.007042467 0.0047952426 -0.040829692 -0.062848344 0.03911844 0.008587829 0.059558984 -0.035254512 0.008423657 -0.06210236 -0.0049755694 -0.021558503 0.009148345 -0.00069120683 -0.023381146 -0.0366997 -0.0057795234 0.028443199 -0.05701362 0.03484296 0.0028213633 -0.056776546 0.003278781 0.053117514 0.043458022 -0.027030746 -0.018734548 0.045256466 0.022836307 -0.027059648 -0.024855306 -0.009725346 0.049268857 0.0109723555 -0.05830629 0.031180223 -0.031770922 -0.025864774 0.048300147 -0.03398292 -0.033888634 0.02402695 -1.4534282e-06 -0.006095311 -0.0054679555 0.015016116 -0.009756269 0.019513337 0.01427173 -0.06900511 -0.028538357 -0.037044648 0.0058699367 -0.004670569 0.0410931 0.02361247 -0.012370984 -0.009201315 0.0054282807 -0.010040926 0.010594293 0.018224942 -0.012211824 -0.009719267 0.020492274 0.011954485 0.003978132 -0.014647813 0.0002314817 -0.05328873 0.011111535 0.018623058 -0.021382816 -0.010770838 -0.033430282 0.041506927 -0.016084095 -0.0029285618 -0.06411557 0.00811474 0.017429916 -0.016579615 -0.026557896 -0.02040586 -0.021236015 0.01667998 0.016540991 0.011772869 -0.008500363 0.03658009 1.0886221e-06 0.032490507 -0.052243613 0.069675066 0.043904204 -0.031554732 0.045865264 -0.016586129 -0.024173582 -0.0260343 -0.008620503 0.012860708 0.055021543 0.023283692 -0.024744036 -0.0018903031 -0.00437235 -0.03727172 0.032491963 -0.02065781 -0.0032047892 -0.016789796 -0.022617934 0.0049302317 0.00827542 -0.014500292 0.024408136 -0.0039304164 0.007311036 0.0091768 -0.024965601 0.010153136 -0.040498286 0.04433158 -0.03025437 0.009063265 0.035400014 0.0024920462 0.0024776005 -0.0021962894 -0.05083559 -0.036855232 -0.027103873 0.01683632 0.020623893 -0.0032405865 0.02044079 0.02420005 -2.5476988e-06 -0.009010163 -0.018320382 0.034309242 0.025477545 -0.005950872 0.02629813 -0.052055478 -0.03398558 -0.0531037 0.051797718 0.018040095 0.049684532 -0.039529316 0.042495254 0.038446903 -0.0065179095 -0.016940828 0.010222514 0.038227636 -0.034073606 -0.042402137 0.017401852 0.01645241 0.008727307 -0.051382784 0.042182438 0.007102738 0.00055280235 -0.019172166 -0.03160765 -0.0140653355 0.044595983 -0.019969875 -0.06952089 0.0066565215 0.028349087 0.001776892 0.04005661 -0.03136507 -0.071789265 -0.030648585 -0.0011785602 -0.044021156 -0.0002620425 0.030699642 0.022344943 0.0655205 -2.1305482e-06 -0.00071762333 -0.0015148291 0.060625914 -0.020061983 0.012806533 -0.011266564 0.013700434 -0.004828725 -0.034352068 -0.010212644 0.03572468 0.034771 -0.028816866 0.0050086556 0.014336253 0.013569551 0.020755403 -0.036726315 -0.019738033 -0.017450836 -0.036098577 -0.019559532 0.008110556 0.011776147 -0.0045127803 0.04657881 -0.008391484 0.012603783 -0.0006747262 0.008345365 -0.018640185 0.025078967 0.04406531 -0.06522281 -0.029911762 -0.038527455 0.01585854 0.03707944 -0.021484587 -0.03020057 -0.048027605 0.011233378 -0.036449477 -0.00016158626 -0.019325214 0.041801576 0.0053135543 -8.97489e-08 -0.003588698 0.009184855 0.045469757 -0.013993752 -0.03627378 -0.0007432106 -0.036138754 0.0020786996 -0.009331546 -0.008470512 0.050566137 0.0026104443 -0.022584822 -0.03264066 0.03100161 -0.022243258 -0.008978382 0.0046009007 0.025324237 0.0011708875 -0.028762972 -0.00018934523 0.008186454 -0.03516334 -0.020393249 0.015387042 -0.036509942 0.027068019 -0.021679282 0.004537168 0.0014509374 0.00669302 0.03472642 -0.01289161 0.0046501304 0.005002062 0.039887384 -0.02457419 -0.0016922639 -0.017180286 -0.033043806 -0.03187655 -0.031896755 0.028174613 -0.006359423 -0.002692519 0.04024751 -4.1808985e-07 0.02543788 -0.042797033 0.032705236 0.0005592729 0.031622965 0.039984412 -0.046408005 0.0056682643 0.0030842132 -0.013341965 -0.006395398 0.05750883 -0.034539558 -0.040989943 0.052204717 0.012322297 -0.049003664 0.003835933 0.028144795 -0.022340411 -0.028186139 0.022582967 0.01876365 0.035828985 -0.018170627 0.016747843 -0.014955504 0.019334776 0.027056744 0.047625687 -0.06454396 -8.759316e-05 0.0072882227 0.038407028 -0.015976558 -0.0027324688 0.07415793 -0.05239046 -0.058628373 -0.032241344 -0.017166603 -0.011649123 0.034542535 0.008018832 0.03349378 -0.025927683 0.051855527 -1.0352247e-06 0.038434714 -0.044602443 0.013505635 0.01949957 0.010091765 0.00792151 -0.0014441126 -0.020580437 -0.045766063 0.044667285 0.043926388 -0.020831939 0.0026690129 -0.064611256 0.07488508 0.0006539797 -0.045451485 0.012431519 0.044127114 -0.059612323 -0.0017060537 -0.011748995 -0.005090647 0.07858042 3.468858e-05 0.023377618 -0.004350925 0.018622108 -0.011189608 0.011414236 -0.026689239 0.0015005486 -0.0024546098 -0.037925754 0.009463536 0.022635337 0.051990982 0.002712165 0.027513703 -0.011332033 -0.056478236 -0.021187369 -0.02445663 -0.018609228 -0.008773479 -0.0133376075 0.016454168 -2.2292245e-07 0.010395222 -0.025513694 0.0639241 0.034389757 0.01584722 0.011825099 0.0069880807 -0.039933797 -0.04431656 0.035893757 0.02341996 0.051423132 -0.0010584085 -0.12714101 0.062104028 0.037088525 -0.062898785 0.0011905088 0.02387132 -0.018873878 0.006724009 -0.030516965 0.037386935 0.09802205 -0.017872294 0.0127758095 -0.032070223 -0.009441037 -0.0034401864 -0.06829432 -0.018301167 0.053203464 -0.027785163 0.019196592 -0.05180959 0.015848562 0.042668723 -0.0889255 0.003529026 0.010351266 -0.075149685 -0.0109134335 -0.0100391945 0.031496122 0.01656957 0.032709632 0.06260456 5.210964e-07 -0.027999185 -0.07177432 0.03220996 -0.00653084 -0.034070168 0.039787278 0.044388913 -0.026380952 -0.03042593 0.01867861 0.027383046 0.06566791 -0.041965384 -0.2803722 0.04681608 0.012976148 -0.025573982 -0.017786307 0.26532724 0.04221799 -0.008467423 -0.080361165 0.008309661 0.055449706 -0.22232996 -0.032937426 -0.013870391 0.0034663756 0.044822305 0.011412236 -0.021625489 0.05607261 -0.011055355 -0.030181034 -0.0069043087 -0.018789835 0.062118486 -0.17441775 0.092995696 -0.006324669 0.29226643 -0.3089749 0.2005856 0.34806302 0.33057436
