-0.00043540215
0.012099475
-0.04103326
0.013483878
-0.021464212
-0.07330936
-0.0516237
0.02687414
-0.021090737
-0.017178176
-0.038190234
-0.044847175
0.035067998
0.04935663
-0.0842794
0.016929673
0.07899886
0.05831736
0.008143653
-0.00094606297
-0.059091732
-0.025817493
-0.041331515
-0.00879795
-0.019779665
0.018702883
-0.050541464
0.10218059
-0.0064981882
0.021874133
-0.04369081
-0.018224632
7.597019e-05
-0.042563614
-0.018748945
-0.04258439
-0.015080639
-0.044297915
0.062489398
-0.075639114
0.08072473
-0.09712182
0.05491733
0.06788879
-0.07493981
-0.08141118
-0.032555364
-0.044266745
-0.05704076
0.07069662
-0.010096541
0.017370751
0.03335006
-0.028722124
0.044547386
0.034849573
-0.10192233
0.00426094
-0.061615128
-0.027017348
0.044897724
-0.03673877
-0.09818317
-0.089860864
-0.0041094953
-0.026329169
-0.07610521
-0.008324
0.07055465
0.035236377
-0.05312231
0.023451854
0.009424268
-0.015442532
0.004585252
-0.023837848
0.041782655
-0.08228154
0.03795349
0.045263384
-0.016316071
-0.0513767
-0.02479525
-0.009582714
-0.050740067
-0.0041968892
0.0013309532
-0.13387634
-0.04390097
0.045247607
0.0260984
-0.029509123
0.068465576
-0.085382305
-0.008581318
-0.039920185
-0.021110492
0.09372112
-0.008286908
-0.0008135831
-0.0018822631
0.0028915796
0.07378091
-0.032942962
-0.040397506
-0.021494247
0.0102076465
-0.057768255
0.020755008
-0.053876378
-0.05545231
0.035809588
-0.042860627
-0.074913375
-0.023363177
0.0023935004
0.020118242
0.026710473
-0.021551196
-0.05121312
-0.024206692
-0.05894967
-0.031584505
-0.00727009
-0.024136482
0.02920438
8.256606e-05
-0.06922164
0.002640681
0.06902578
0.0476969
0.036179844
-0.04557558
0.023588447
0.013180846
-0.030598039
-0.06977482
-0.040024694
-0.02622229
-0.0015036395
0.009104717
0.088275775
-0.0444301
-0.014299251
0.0828254
0.027385676
0.027663857
0.027843354
0.020552872
-0.046431527
-0.049827904
0.023245096
0.06655384
0.026706418
0.020432109
0.053934418
-0.102768674
-0.11632151
-0.05759249
0.025323534
-0.02275773
-0.018516118
-0.0615256
-0.020557132
0.011992105
0.021381557
-0.009903316
-0.014513993
0.059398826
-0.04312473
-0.058729317
-0.052262794
-0.03176747
0.056158684
-0.07986627
0.031508714
0.0055995425
0.018716024
-0.008369677
0.010362928
-0.08229113
0.027971635
-0.01715567
-0.119134724
-0.026858022
-0.028031621
-0.044166997
0.055827793
-0.0021194918
0.058603354
0.0047554914
-0.025622323
-0.048590466
-0.08737234
0.0002648527
-0.001973231
-0.05762061
-0.032214228
-0.04030301
0.062038835
0.00996381
-0.0067022475
-0.0016846387
0.028720168
0.026033193
-0.07330469
-0.023026997
-0.004462727
-0.027914984
0.081219
-0.07167531
0.02194433
-0.06404452
0.052710544
-0.043597832
0.08225483
-0.10486103
-0.04281586
-0.03359195
-0.0049625877
0.04262903
0.03574773
0.07486091
-0.06449402
-0.036189735
-0.005005493
0.033942748
0.01873353
0.0018152387
-0.04525043
0.022698484
0.018647857
0.040986188
0.051060632
0.07574942
-0.026900899
-0.09866378
0.012215809
-0.074904844
0.030923642
-0.034425195
0.034412723
-0.07614141
0.065001346
-0.025182646
0.023358447
-0.09346677
-0.035572905
-0.09236221
-0.016020762
-0.12605745
-0.047319453
-0.06389088
0.015585571
-0.027124286
-0.032401495
-0.059016358
-0.078905754
-0.01719413
0.014790414
-0.0266992
0.019034984
-0.03713714
0.049293924
-0.05507101
0.0005779196
-0.026810704
0.005548868
-0.013380533
-0.047854666
0.054324545
-0.05315327
0.005886281
-0.022627156
-0.06856605
-0.0041196477
0.028382804
0.06462746
-0.0039047068
-0.08849388
0.02937208
-0.012236851
-0.03596779
0.0401265
-0.011712321
-0.047366906
0.04154894
0.00016798485
0.003126033
0.06022377
-0.0065449374
-0.019140251
-0.002856465
-0.018154392
0.024856212
-0.09984214
-0.045526538
0.014532567
-0.101204894
-0.026174659
0.035323177
-0.049050167
0.023350421
0.055599634
0.03362354
0.045135066
-0.008629382
0.017078249
0.049112365
0.10987623
0.010892573
0.062146038
0.07997997
0.012103542
0.0137393605
0.052317355
-0.09455625
-0.102700725
-0.010913142
0.035127185
0.030597074
0.01267305
-0.029469922
0.021740193
0.0015617758
0.036054693
-0.07665228
-0.004624187
0.018786628
-0.03262382
-0.00095430977
-0.047125563
-0.07557934
0.0335212
-0.008332992
-0.017789278
0.059047
-0.0063581453
0.026880626
-0.010497639
0.107034445
-0.023532294
0.02048962
0.019990027
-0.033984937
-0.04570241
-0.069963194
0.0032363688
-0.038185246
0.024178071
0.04781356
0.024764242
0.0028093972
-0.03576415
0.08835274
0.015733643
0.010588204
0.025395721
0.016385475
-0.022464298
0.0533744
0.04110289
-0.06076537
-0.047477894
0.008809533
-0.11859351
0.013484841
0.0819695
-0.037198845
-0.055579193
0.055297244
0.021646516
-0.007777403
0.036390714
-0.003465763
0.00012912808
-0.12137396
0.066789925
0.0076026167
-0.09488101
-0.05647626
-0.015239918
-0.027047236
0.00081999204
0.017459204
0.06509516
-0.027456913
0.03500095
0.024594622
-0.023885196
-0.0052001057
-0.07236979
-0.10764435
-0.0009265873
0.009224528
0.037866566
-0.048622113
-0.039526276
-0.016292457
-0.0013379775
0.099975556
-0.0053360583
-0.04341877
0.007404351
-0.03019718
-0.087968655
0.06872397
-0.030224605
0.027153362
-0.031347856
-0.06781824
-0.06971559
-0.008468406
-0.05839153
0.002777378
0.01265621
-0.07234399
-0.027205186
0.020670906
0.016424773
-0.082960635
-0.027854566
0.018567206
0.022250563
0.060809117
-0.032732137
-0.00926263
0.066386625
0.025888938
0.0014117905
0.03949618
-0.037245598
-0.05997406
-0.016103392
-0.029324178
-0.022065097
-0.038133115
0.010743311
0.0580308
0.05104194
-0.0650148
-0.037358247
0.073035195
-0.057320006
-0.06843607
-0.053848635
-0.06383487
0.028341206
0.01295632
0.037011616
0.053202044
0.0588946
-0.07995641
0.04179206
0.005945306
0.04110849
-0.021776691
0.052004874
-0.0041523734
-0.06038991
-0.042880133
0.05393923
-0.06891276
0.01131509
0.06256432
-0.09296829
-0.07565867
0.047218647
0.0005443888
-0.0147470655
0.081101604
-0.0733489
-0.053326692
0.01302249
-0.031143092
-0.04120664
0.025803626
-0.08949868
-0.025711173
-0.014701399
-0.025509631
-0.025279572
0.03474661
0.057130605
0.06238255
-0.094386265
0.040253043
0.07111317
-0.005371263
0.03894015
0.021022614
0.0070702224
0.059484195
0.020510715
-0.027848927
-0.03337499
0.012878275
0.021824779
-0.038907774
0.027400365
0.0005659131
0.0075039226
-0.013149811
-0.0061301733
-0.03948927
-0.032204982
-0.023961687
0.050181836
0.018354023
-0.046921533
-0.038676742
0.015797464
