-0.015211853
-0.004459969
0.07886743
-0.0073411954
0.02008405
0.032250933
-0.250021
-0.020102283
0.18305437
-0.09669167
-0.008221978
-0.014441105
-0.082841486
-0.06373486
0.025944775
0.14644903
-0.012358927
0.08250965
-0.08144456
0.007717415
0.049025167
0.023319386
-0.07004195
-0.07485669
-0.0117022
-0.072493434
-0.11220454
0.16621037
0.06298999
-0.033667598
0.031097077
0.046009213
-0.17609346
-0.28509504
-0.016919345
0.113221645
-0.031302053
-0.31397092
-0.06721361
-0.04564436
-0.039597105
-0.02998137
0.023476806
0.12585568
-0.02421145
0.14286567
-0.1103151
-0.0973163
-0.05225092
-0.12821703
0.09543828
-0.040470827
-0.09911634
-0.09064981
0.050582845
0.055207547
-0.22042479
-0.28709453
-0.02424985
0.02510391
0.068563916
0.0038483944
-0.022360753
-0.20502785
-0.06774923
-0.037583314
-0.010633727
-0.011698064
0.120293915
-0.073309585
-0.014597235
-0.1003193
-0.020648083
-0.02276338
-0.053079396
-0.14533354
0.1881835
-0.05635048
0.07074102
-0.05664983
0.06551366
0.039928462
-0.0053394698
-0.053294964
0.0042359717
-0.1787226
-0.14137584
-0.14483495
-0.077956036
-0.032569252
-0.041974094
-0.09241223
-0.12117267
-0.0320663
-0.10098477
-0.01856262
-0.07378271
-0.080331944
0.09289809
-0.08362916
0.0964827
-0.056037918
-0.013645005
0.00016686507
0.14020263
-0.049318466
0.08005088
0.03486648
-0.15146776
0.03677633
0.049966544
0.01256033
0.0059069293
0.13410696
0.16032565
0.053235598
0.014949743
-0.105317995
-0.13222837
-0.13851547
0.050579347
-0.05338554
0.0010994717
-0.12678121
-0.102698706
0.049892668
0.03878667
-0.07888177
0.049769707
-0.04203431
-0.017849546
-0.016230542
-0.07713395
0.012101543
-0.0041369353
0.21164553
0.058927197
0.18255937
-0.08383189
0.12311287
0.10797786
-0.36774617
0.16773933
-0.04310875
0.18696906
-0.033583853
-0.06562197
-0.01884148
-0.07108899
-0.093853645
0.14491284
-0.07084223
-0.15833385
-0.012230624
0.037642073
-0.07864729
-0.0048719468
0.1668192
-0.09140585
-0.19912423
-0.14884898
-0.07453136
0.046515934
-0.10981094
-0.07302641
-0.1426119
-0.036078557
0.155688
-0.03295518
-0.24674127
0.025189426
-0.13777205
-0.1429979
-0.053270634
0.032567404
-0.108026244
0.038760655
-0.022697775
-0.035494458
-0.04029364
-0.05329245
-0.2557854
-0.08391143
0.043865275
-0.14936532
0.0011323415
0.0061568143
0.10698099
0.21985649
0.14999482
-0.07928042
-0.20614837
-0.4627736
0.114188746
0.08248587
-0.0097017875
-0.24315998
0.039760605
-0.1606462
0.08633796
-0.03868557
0.13453472
-0.059132252
-0.038928173
0.058788147
0.059139833
0.26826105
0.1506032
0.04915212
0.08717896
0.010558392
-0.18482009
0.05362282
0.041373305
-0.2692314
-0.059748184
0.0578788
-0.10963278
-0.0960212
0.06061472
-0.038584113
0.004330418
-0.010127007
0.05444705
0.060157876
-0.13675159
-0.0916149
0.104787976
0.0015968494
-0.06214538
-0.2646904
0.035712097
-0.0017630716
0.010163737
-0.005999081
0.11165056
-0.22443889
-0.019187236
0.039256833
-0.199086
-0.2717489
0.071242005
-0.020609448
0.108253695
0.007647237
0.28811836
-0.031277385
-0.012553827
-0.06379893
-0.19197483
0.0018862247
0.1061494
-0.012906371
-0.0007367901
0.038550947
-0.07067647
0.050249733
-0.08719759
0.0700845
-0.0035099173
-0.13500153
-0.10354589
-0.020682208
-0.027211787
0.15912211
0.01676938
-0.044797245
-0.013604649
-0.011883253
0.02520471
0.083685145
-0.060633555
-0.2785226
-0.16775315
0.049848747
0.0843187
-0.18809594
-0.13404599
-0.3072357
-0.21685478
0.1166362
0.15259492
0.18087256
0.052430354
0.034174584
-0.00089430495
-0.08530489
-0.14856976
-0.029482469
-0.033778097
0.032115456
-0.09675051
-0.068449505
-0.04112962
0.05055462
0.18040037
-0.057365086
-0.036102764
-0.14971575
-0.18678859
0.088831164
-0.15449178
0.11540476
0.04334799
-0.0073315916
-0.08001284
-0.07159244
0.104718275
-0.05531869
0.13108462
-0.33841297
-0.09291334
0.05408985
-0.075237595
-0.10004916
-0.31932935
-0.07091537
-0.021942424
-0.06236321
0.15926622
0.08756927
-0.03970591
0.043666087
0.0823723
-0.08315392
0.13178685
-0.006946099
0.040177807
-0.034861248
-0.12628044
0.09637792
0.024858534
0.072869085
0.013805054
-0.07451059
-0.33500543
0.0062973094
-0.26111323
-0.053731762
-0.04575746
-0.14411229
-0.06774899
-0.22167684
-0.1575172
0.16340372
-0.14017062
0.03362446
-0.025551
0.057729077
-0.09172351
-0.038056508
0.072199754
-0.13746235
0.07636475
0.30861342
0.099664986
0.056761123
-0.1711724
-0.23851965
-0.05638514
0.08664998
0.068239845
0.010780258
-0.5464788
0.12506194
0.029736219
0.06644994
0.06464276
-0.18416512
-0.04961807
-0.15849054
-0.18990324
0.007837505
-0.005008319
-0.0006291685
-0.10330117
0.0633163
0.039734606
0.078353345
-0.12996283
-0.18572472
-0.022762246
-0.12073152
-0.25789452
0.0041828
0.011257957
-0.14697844
-0.19660068
-0.044980675
-0.16770051
-0.07095264
0.07309933
0.19768879
0.13200775
0.10724404
-0.065406986
-0.06711195
-0.46001115
0.019647263
0.031629726
0.09511794
-0.06745926
0.11561084
-0.012572997
-0.031079756
-0.026803607
-0.035608444
0.02432146
0.014104389
-0.06532263
0.014277653
-0.047038633
-0.2755605
-0.005378936
0.05390417
0.0015340848
-0.0110507095
-0.23572075
-0.33370528
-0.21398701
-0.32578075
-0.26529825
0.013105238
-0.08214255
0.047432724
-0.40207174
-0.03652338
0.20291984
-0.16942932
0.011766819
-0.099880576
-0.27197266
-0.08276973
-0.1127658
-0.13360584
-0.31179067
-0.07014717
-0.009899506
0.21818805
-0.27089804
0.08585674
-0.13921794
-0.09366663
-0.07956677
0.04762089
0.09396233
0.008126608
0.10567823
0.021509094
0.019219942
-0.066207536
0.013110672
-0.15657583
-0.19231273
-0.02892653
-0.40909567
0.091897435
0.32578024
-0.17215613
-0.017570417
-0.14852937
-0.061512426
-0.14049453
-0.032524005
-0.14070426
-0.14847955
-0.11991906
-0.31530744
-0.032969993
-0.08672912
-0.035403315
-0.043756664
-0.035845943
0.033871528
0.02512131
-0.22901922
-0.048953053
0.12587747
-0.23624523
0.03789262
-0.09484491
-0.18034141
-0.06198065
0.009996033
-0.020848976
0.049375355
0.13857348
0.029576195
-0.1351277
-0.02209009
0.105217926
-0.007755897
-0.11102737
-0.10242612
0.023318142
0.28388
-0.18540333
-0.010705118
0.09461841
-0.05818346
0.08632015
-0.015242523
0.04922664
-0.011586164
-0.07444167
0.059637077
0.05715807
0.05695159
-0.13928159
-0.086067855
-0.14361665
0.09613707
