0.033051
-0.015672775
-0.035682127
0.08009986
-0.036985703
-0.027733488
-0.07238259
0.04103206
0.20471431
-0.10390346
-0.06722206
-0.13576823
0.058240537
0.077580795
0.01843728
0.01891038
0.10231473
0.08600323
0.07984744
0.11453912
-0.03720987
0.028398093
-0.23156793
0.0146538615
-0.145504
0.002758039
-0.16926786
0.14071323
-0.069031656
0.038102943
-0.0200625
-0.08671722
-0.11928051
-0.04323234
-0.23047379
-0.045234147
-0.022655625
-0.0060169077
0.09751331
-0.2824754
0.06110207
-0.17175113
-0.06352185
0.13844965
-0.07996923
-0.041751184
-0.06777083
0.0053668343
-0.17092583
-0.0068419375
-0.13072456
0.24194604
0.09432073
-0.120461196
-0.010807911
0.120603725
-0.24122317
0.031977504
-0.25175107
-0.14777301
0.10273423
-0.011223124
-0.104048334
-0.13945408
-0.014943509
-0.034473266
-0.42136884
0.055922072
0.1661366
-0.024902353
-0.036900926
-0.1574103
0.13305594
-0.00046838552
-0.009123915
-0.042009626
0.03621555
-0.032398783
-0.0021677571
-0.26011083
-0.04931342
-0.015703762
-0.07264149
-0.0156214135
-0.021910923
0.08820053
0.019597637
-0.1914928
0.096608005
0.0027061831
0.10939417
-0.05720359
0.04372483
0.038600903
0.028890578
-0.049531985
-0.11082677
0.18730107
0.0005322707
-0.0072368453
-0.08561717
0.0361869
-0.06322643
-0.26239046
0.061678793
-0.025491439
0.1539592
-0.07406996
-0.13156937
-0.13562639
-0.016831454
0.042774078
-0.07013682
-0.103976205
-0.04896597
-0.09711263
0.06438721
0.05720958
-0.2339124
-0.036022674
0.022412378
-0.3969907
-0.20367067
-0.16213252
-0.077375
0.052543268
-0.028247384
-0.13997866
-0.020657975
0.16325398
-0.03647934
0.16864493
-0.058162063
0.055293273
0.037669946
-0.20721908
-0.42782146
-0.14034493
0.109033115
-0.01333572
-0.0039161933
0.1141399
0.009588478
-0.004663603
0.07604168
0.08033745
0.038935293
0.050001238
-0.047822703
-0.033032507
-0.26703262
0.0606237
0.09677707
-0.043519806
0.14248231
0.052330144
-0.1027818
-0.05281307
-0.105254225
0.0059854933
-0.045802798
0.0838353
0.24781093
0.026692912
-0.018004114
0.08157464
0.09714837
-0.21954416
0.16965592
-0.01733059
-0.037437484
-0.07961035
-0.09469321
-0.020685133
-0.24154848
0.07629063
-0.032813437
0.08043471
-0.10981349
0.04613941
-0.10410813
-0.031318087
-0.24524504
-0.35136464
-0.038688727
-0.08509261
-0.109541014
0.06987268
-0.04574482
0.09335605
-0.16199087
-0.058590192
-0.08880447
-0.21586828
0.00896092
-0.09318844
-0.16600797
-0.28494042
-0.06670586
0.036576398
-0.13673802
-0.07845639
-0.016721524
0.060136963
-0.096235
0.05650636
0.13151067
-0.120775685
-0.18751712
0.12601006
-0.09392335
0.0744334
-0.20639744
0.021441992
-0.1497876
0.069951825
-0.027360262
-0.06075892
-0.11096008
-0.064017124
0.01412356
0.077993736
0.1074008
-0.069599025
-0.08752896
-0.021774529
0.043884445
0.13741817
0.12919493
-0.17766461
0.1033622
-0.07786583
0.044814654
0.049710732
0.092085384
0.026548132
-0.1878486
0.022253362
-0.18666376
0.13290726
-0.27373347
-0.037457284
-0.21225075
0.09043742
-0.06851996
0.04552171
-0.10683429
-0.05874078
-0.08975954
-0.055174526
-0.17273559
-0.028439429
-0.08065145
0.06506513
-0.008940029
-0.041836876
0.05050909
-0.01801217
-0.018844912
0.085791625
-0.102512024
-0.11584927
-0.010834575
0.07995597
-0.10761117
-0.013026819
-0.0056895027
0.020620462
0.019540457
-0.33072773
0.15578967
-0.40641683
-0.03562216
-0.09637872
0.015626578
0.007084786
-0.0075609707
0.048686
0.054157287
-0.051785365
0.09230339
-0.009254692
0.020257883
0.077613674
-0.20217443
0.0051782797
0.1856721
0.044958685
0.048076328
0.12083977
0.07952945
-0.18068056
0.024228629
0.046789367
0.028982194
-0.15605143
-0.047312424
-0.03012923
-0.17620979
-0.039552394
0.059894048
0.008164515
0.3130333
-0.01231718
0.08785627
0.04785425
-0.060252406
0.051733557
0.07169674
0.19933905
0.23050645
-0.025084956
0.15318702
0.03547226
0.032713626
0.05864879
-0.17003623
0.09736947
-0.11590499
0.025419995
0.021328805
-0.035350908
-0.36704296
-0.027111424
-0.049412455
0.04127686
-0.4060456
-0.04489408
-0.0454516
-0.16825007
-0.15964566
-0.12903063
-0.11587587
-0.14637144
0.084530726
-0.03142551
-0.0008781797
-0.03525016
0.06126955
0.021249529
0.07719628
-0.037116792
0.032497704
0.06640205
-0.04225948
-0.062422365
-0.004454259
0.03972877
-0.041076537
-0.20732649
0.13183157
0.033304874
-0.0018819309
-0.032451637
0.16708747
0.040975142
0.0038262766
-0.05417421
-0.0056405524
-0.111027814
0.036003765
0.12065068
-0.12960155
-0.056118775
0.054168105
-0.13323541
-0.04148922
-0.030419255
-0.11406818
-0.075308084
-0.12289065
0.008544425
-0.058124196
0.037031066
0.016770227
-0.29498395
-0.2788651
0.16507213
0.052902594
-0.40406886
-0.04086143
-0.10305163
-0.1023695
-0.16992092
0.12518716
0.005505839
0.035715353
0.10786899
0.06465492
0.0013001631
0.01756102
-0.051770527
-0.15526897
0.06149151
-0.11088094
0.08184019
-0.036797106
-0.097130805
-0.00084286596
-0.23563497
0.14690688
-0.051812947
-0.030942354
-0.054572217
-0.08603121
-0.09816905
0.07905152
0.15700723
0.090144895
0.08153733
-0.07289086
-0.2786696
0.04510612
-0.12211107
-0.032132223
0.08469913
-0.095070295
0.038416576
0.26501736
0.0020694204
-0.22349136
-0.058056008
-0.026827935
0.016274283
-0.043471407
-0.055711396
-0.037093673
0.12512547
0.10919614
0.03316509
0.081887454
-0.26894367
0.026601197
-0.030320354
-0.031052217
-0.069429085
-0.016716953
0.042572476
0.027355723
0.1392377
0.029832121
-0.22129658
0.08065396
-0.083571166
-0.03732433
-0.046244007
-0.3775188
-0.039318584
0.030445607
-0.043039918
0.07224326
0.0048525115
0.103707135
0.09388165
0.0052347644
-0.00444161
-0.066654384
-0.038478684
0.02244543
-0.16030769
-0.051866807
-0.009488551
-0.13980852
-0.02399058
0.32434726
-0.19372742
-0.13324323
-0.014368275
-0.049917918
0.10994242
0.12989841
-0.014418894
-0.12680402
0.11230354
-0.08291936
-0.032966144
-0.151955
-0.10613913
-0.05516294
-0.0849008
-0.05114317
0.04656973
0.07934223
0.05727868
0.01859187
-0.0066672065
0.05603748
0.15548852
-0.19479173
0.1051449
-0.040473424
0.049686868
0.07985547
-0.04228613
0.09518449
-0.019848716
0.00876638
-0.008965904
0.16861993
-0.14223976
0.06615766
0.08844613
0.13963085
-0.0017088269
0.06298818
0.027699916
0.038244907
-0.103364296
0.09960413
-0.010608617
-0.20117174
0.102216996
