0.032035615
-0.017490584
-0.11122519
-0.025555208
-0.19161169
-0.09150722
-0.037049137
0.100108065
-0.25403962
-0.08485788
-0.16602531
-0.13435866
-0.0071983472
0.16523752
-0.15705553
-0.014038138
0.13772799
0.09867028
0.018294487
0.10863429
-0.14273663
0.12621287
-0.0070487256
-0.017661812
-0.09885871
0.08150754
-0.22108574
0.12225049
-0.02968388
0.10935068
0.036607005
-0.04777909
0.0058342633
-0.08806598
-0.008129113
-0.06351898
-0.0047827447
-0.05225091
0.037726305
-0.20143574
0.14587432
-0.053586263
-0.104778126
0.1135723
0.012375795
-0.31380805
-0.057542875
-0.0128011685
-0.26432437
0.26156536
-0.04303497
0.09496273
0.04673413
-0.1184925
0.119995676
0.11157871
-0.18758638
0.063130096
-0.13225749
-0.04249747
0.15413986
-0.14414333
0.05178042
-0.2187973
-0.06097843
-0.089964464
-0.14631824
0.04789401
0.21466652
0.07165925
-0.055265132
0.100868665
0.0726587
0.12295708
0.007236001
-0.07624409
0.060368024
-0.1649778
0.15416571
0.05291192
0.004602483
0.034054577
-0.03802892
-0.04301585
-0.29771098
0.107364096
0.0061113094
-0.26593462
-0.14323023
0.048048306
0.13186377
-0.4669383
0.17317851
-0.13747585
0.14445192
0.022745261
-0.11213066
0.27004108
-0.0699994
-0.004650488
-0.15345582
-0.015017323
0.13540377
-0.13625495
-0.038079955
-0.05076971
0.02261545
-0.019610608
0.038491063
-0.09164659
-0.16530709
0.05472087
-0.15260713
-0.12249631
-0.0682869
0.03607738
0.07084654
-0.040643163
-0.039810453
-0.079653844
-0.030452695
-0.08779188
-0.23642446
-0.02738287
-0.051150866
0.00017673886
-0.24704607
0.009337649
-0.06999562
0.11618789
-0.041503903
-0.073726624
-0.1679009
0.16937654
0.032064628
-0.06748989
-0.12006028
-0.14765829
-0.32140958
-0.11443157
-0.0033378466
0.088324964
0.04962563
-0.027500045
0.13566077
0.14655058
0.14675489
0.07941425
0.103759274
-0.09264048
-0.1341582
0.07091624
-0.0030659963
-0.018965023
0.16290602
0.003853914
-0.2398615
-0.11882006
-0.16718857
0.017810946
-0.079979986
-0.014390716
0.17714235
0.025239445
-0.09541327
-0.022076998
0.034427036
-0.17212543
0.31394196
-0.06139748
0.024635991
-0.08129984
-0.18867315
0.11746771
-0.18090053
-0.008810521
0.033902645
0.1372705
-0.13098708
0.119456515
-0.18619622
-0.0011021638
-0.0529254
-0.37131217
0.041706767
-0.061896197
-0.0043119825
0.041776918
0.07281988
0.03986045
-0.15096658
-0.008950183
-0.09756205
-0.23588556
0.059376914
-0.062794656
-0.14483415
-0.08574097
0.0067451526
-0.040150136
0.13655749
-0.36423236
-0.06161176
0.08373324
0.026637021
0.07462257
0.052875835
-0.1744254
0.06040464
0.18504393
-0.1931073
-0.14804378
-0.2980673
-0.06466156
-0.22982368
-0.03888398
-0.14718464
-0.050625775
-0.004292774
-0.03464824
0.06868627
-0.11319273
0.14467044
-0.16296524
-0.046278957
-0.20478988
-0.14480157
-0.11426
0.12659256
-0.107321315
0.046227805
-0.013828804
0.06156938
0.09213647
0.2479837
-0.033102628
-0.23485065
0.049976133
-0.15909101
0.17977096
-0.18512268
0.12438925
-0.14999552
0.16276297
-0.07651677
0.013053052
-0.1829354
0.02556061
-0.12276121
-0.10798748
-0.1390355
-0.12673888
0.047072027
0.038585708
0.0094307605
0.03242998
0.047670215
-0.09677088
-0.03599817
0.0048634503
-0.062453303
-0.10216615
-0.07829053
0.103084475
-0.31585214
-0.1993456
-0.042346124
-0.0673273
-0.08491047
-0.24623738
0.024444412
-0.22981657
-0.010950507
-0.09767672
-0.04846674
-0.16906968
-0.003586784
0.05330888
-0.13758753
-0.4714613
0.20083448
-0.09208172
-0.14706826
0.10448501
-0.09531546
-0.0024144233
0.12195711
-0.0596304
-0.02151553
0.12121516
-0.055475466
0.015978213
0.021474574
0.034331907
0.057208188
-0.216695
-0.060723085
0.08247986
-0.2467139
0.08974461
0.04439925
-0.045908533
0.012245524
0.11769374
0.043334845
-0.08499261
-0.14120662
0.01462757
-0.040124986
0.15833369
0.15493588
0.030253513
0.16415177
-0.06724944
0.013575052
0.19349366
-0.25270128
-0.1275379
-0.12760074
0.017243616
0.034094583
-0.07090493
-0.07377854
-0.019981312
-0.06212514
0.104095966
0.082324274
-0.26583427
-0.023447914
-0.09302652
-0.049391948
-0.0033530546
-0.016393919
-0.054148406
0.120240584
-0.10070115
0.060589537
-0.09291851
0.10521932
0.012132804
0.1363823
0.021581843
-0.04376636
0.087506376
-0.22681789
-0.29662156
-0.09054553
0.07278004
-0.045191973
-0.03712494
0.2092789
0.034850173
0.08636011
-0.0557474
0.24625778
-0.17152886
-0.24510626
-0.0020863744
0.039117556
0.010677425
-0.02282556
0.1625822
-0.09053382
-0.111405745
-0.026418092
-0.16696502
-0.22034375
-0.0058007105
-0.029234078
-0.08941915
-0.040531844
-0.008294522
0.14180249
0.07727349
0.06908275
-0.22344114
-0.3594015
0.08203279
-0.047539413
-0.09175055
-0.030126242
-0.023561133
-0.0731466
0.024607908
0.13231537
0.12015379
0.14241531
0.05918771
0.08486039
-0.10486307
-0.06376558
-0.09063072
-0.30519688
-0.024155144
-0.10244715
0.017895875
-0.04744429
-0.27669707
-0.05069199
0.1282041
0.13437293
-0.17449453
-0.05957041
-0.1317901
-0.19701363
-0.021520184
0.06946196
-0.07144316
0.17238156
-0.122772545
-0.10695675
0.00704372
0.0036682202
-0.07352599
-0.05191778
0.12423949
-0.13134822
-0.057325143
0.1862052
0.1225263
-0.21577619
0.0031411755
-0.044852037
-0.053777143
0.102835685
-0.14713478
-0.13318501
0.21538918
0.100545615
0.09345878
0.14622346
-0.24850847
-0.17802726
-0.16705677
-0.025002945
-0.032656383
0.008992363
0.02863831
0.08369766
0.18145159
-0.06369891
-0.08031162
0.26510563
-0.071072794
-0.035025537
-0.05849244
-0.2411784
0.029044332
0.023458866
0.073275685
-0.1810047
0.028258806
-0.21543719
0.04923858
0.0091621345
-0.0067184456
-0.06290063
-0.11241752
-0.18377267
-0.06766807
-0.21646065
0.11067208
-0.29453182
0.1291334
0.1336362
-0.14292021
-0.03241248
0.08021634
-0.016485684
-0.23237647
0.052956946
0.024481075
-0.21954454
-0.1796694
-0.0501824
-0.09846935
-0.119541034
-0.23678638
-0.11081894
0.017438453
-0.06094265
-0.017975021
0.08378148
0.056688383
-0.013924357
-0.12521401
0.1051371
0.21418935
0.0033858935
0.0056001944
-0.089796804
-0.07709118
0.04338697
-0.082692154
-0.14414357
-0.08507201
0.02655469
0.0405345
-0.088239916
0.010297582
0.039692707
0.00967118
0.0030123955
-0.03345958
-0.054021303
-0.04088272
-0.039337896
0.17337182
0.09745597
-0.07440074
-0.15366259
0.24768056
