0.011991236
-0.017320447
-0.039923985
0.058125567
-0.072239585
-0.042837795
-0.13978718
-0.010412836
0.20826714
-0.12607403
-0.1061303
-0.16669498
0.072942466
0.021428416
0.048304316
-0.005647972
0.07584437
0.040984128
0.11105917
0.12078562
-0.060117498
-0.11058747
-0.24313691
-0.036024004
-0.17706428
-0.021041682
-0.21876517
0.1210731
-0.04441212
0.02466457
-0.147654
-0.12608595
-0.09361417
-0.056892216
-0.40969402
-0.058729682
-0.04588383
-0.06582828
0.10105312
-0.2960246
-0.030537093
-0.24141946
-0.082960896
0.10665025
-0.14138207
-0.032904606
-0.08866798
-0.023225173
-0.20394856
0.0032794045
-0.17341156
0.25002176
0.08823297
-0.15218821
-0.00886183
0.09081252
-0.3488049
0.008528297
-0.24226476
-0.1830523
0.09734047
-0.028220948
-0.14341868
-0.16252232
-0.039526813
-0.039096687
-0.61051
0.050427765
0.17422113
-0.046869464
-0.040787518
-0.24401765
0.06387576
-0.074052095
-0.06847023
-0.036284138
0.019885145
-0.0747769
-0.005981843
-0.31600037
-0.07876453
-0.0008224667
-0.09068957
-0.038706742
-0.09323123
0.08091662
0.007413084
-0.20877953
0.1002851
0.017405344
0.08735251
-0.085444115
0.045389954
0.0854084
0.038672954
-0.06467258
-0.105422646
0.17762469
-0.000189018
-0.012034412
-0.20879081
-0.09961463
-0.110158496
-0.46749783
0.026258577
-0.029021626
0.13141954
-0.12039876
-0.21699719
-0.16286458
-0.03414805
0.0229347
-0.06863814
-0.13078721
-0.077819884
-0.11195072
0.035587467
0.03699912
-0.2643396
-0.14158538
0.03650732
-0.60389996
-0.20957772
-0.15365918
-0.099694364
0.05090965
-0.06313913
-0.13338739
-0.06754373
0.15858158
-0.060120557
0.15279248
-0.08579166
0.08761255
0.016754445
-0.21330395
-0.50507224
-0.35664594
0.07889959
-0.025096752
-0.014525305
0.11327931
-0.015757047
0.021193912
0.052459862
0.03478574
0.044732273
0.048349988
-0.06030217
-0.06727003
-0.30390307
0.023391979
0.10412619
-0.03480395
0.101520486
0.03110099
-0.10924921
-0.045198705
-0.14206253
-0.039761998
-0.061832983
0.09843149
0.31656542
-0.0035563204
-0.08541483
0.071678974
0.049621534
-0.23398976
0.15254894
-0.047490258
-0.05946061
-0.09222211
-0.1058207
-0.03881944
-0.27910814
-0.08646809
-0.06040554
0.051563326
-0.16049922
0.014664155
-0.12100091
-0.069557264
-0.27572852
-0.42164755
-0.07112253
-0.10795458
-0.107249565
0.05139821
-0.035203222
0.07700348
-0.16284646
-0.0950028
-0.08492996
-0.28180638
-0.009085224
-0.11204443
-0.22006698
-0.30120224
-0.0741109
0.05234283
-0.14069797
-0.09685853
7.941387e-05
0.020446317
-0.09837769
0.08332873
0.1228126
-0.15159494
-0.20647061
0.0736847
-0.14236625
0.060908128
-0.23897907
0.0021615631
-0.1664532
0.09428369
-0.038388085
-0.2049288
-0.12203771
-0.07542123
0.014601012
0.052520085
0.07013025
-0.07169573
-0.17497352
-0.023806358
0.033330377
0.15251775
0.10148229
-0.1857899
0.073475696
-0.12176495
0.017055191
0.046204034
-0.010737766
0.018413866
-0.19832455
0.00091906206
-0.1623398
0.11404875
-0.30934185
-0.05381147
-0.19778699
0.05715652
-0.06976907
-0.012579622
-0.14809754
-0.08187818
-0.106181525
-0.11867067
-0.19625783
-0.033191573
-0.089680254
0.043304253
0.028949097
-0.039097533
-0.0138840405
0.019697933
-0.04618647
0.04081918
-0.131648
-0.1631399
-0.026219513
-0.08237665
-0.12386752
-0.052514553
0.013122129
0.0010823745
0.00068649754
-0.3786441
0.14474967
-0.5240456
-0.07203299
-0.18935104
0.008687733
-0.026588697
-0.031707685
0.015713587
0.0676054
-0.078887336
0.06982343
-0.018491419
-0.008787956
0.05536122
-0.25997806
-0.047141306
0.12550017
0.019446762
0.07882269
0.12214293
0.004299109
-0.21137872
0.020720929
0.041029874
0.01869978
-0.17142448
-0.057513136
-0.016962025
-0.19419377
-0.078891456
0.06198742
-0.010706107
0.32081288
-0.04326101
0.054064617
0.018482367
-0.08591911
0.059533205
0.04258115
0.23645714
0.21769412
-0.08197539
0.14183453
0.039345637
0.007903585
0.07136166
-0.29767454
0.09218402
-0.12419958
0.011523889
0.008182901
-0.04260872
-0.40406534
-0.14149861
-0.06322055
0.05856491
-0.569275
-0.061643668
-0.032575745
-0.17444173
-0.20490433
-0.20393601
-0.1332836
-0.16695632
0.06709338
-0.043083128
-0.023768455
-0.045835383
0.07373082
0.0019795618
0.10760402
-0.03798215
0.025623241
0.048129514
-0.069362625
-0.14156519
0.002872347
0.040261135
-0.066529244
-0.36746654
0.11824181
0.02684784
0.0027401322
-0.06318293
0.15114193
0.04107063
-0.03544414
-0.06216642
-0.0034514416
-0.12326982
0.015894268
0.12756677
-0.20077054
-0.11632716
0.047199223
-0.2040124
-0.07030323
-0.07489312
-0.120615646
-0.08022923
-0.12828162
-0.0018125302
-0.05995764
0.02215655
-0.0067257998
-0.29711276
-0.26987156
0.116882406
0.054768406
-0.646819
-0.059439797
-0.108937524
-0.11823258
-0.3170252
0.11054653
-0.018567262
0.036670495
0.05847425
-0.012900493
-0.012055322
0.0004997905
-0.13835391
-0.20122857
0.07816511
-0.18564409
0.06685681
-0.0561361
-0.061727144
-0.008604231
-0.30892685
0.11368077
-0.06366319
-0.03487155
-0.07721802
-0.107304074
-0.11972406
0.052377164
0.20197502
-0.09498113
0.03836541
-0.08799031
-0.521937
0.033839732
-0.17571439
-0.050602764
0.0716602
-0.09637654
0.023692897
0.2648721
-0.011206066
-0.24655336
-0.08054432
-0.038664002
-0.03810786
-0.06470876
-0.087584205
-0.06260549
0.12583077
0.08211393
0.0454823
0.083803795
-0.35865414
0.014029367
-0.014123857
-0.062991075
-0.091512926
-0.024914352
0.05941016
-0.06901879
0.121799275
0.016713113
-0.24301988
0.07572448
-0.12464084
-0.03487827
-0.06444033
-0.44252083
-0.07990424
0.034199934
-0.041633055
0.066642314
-0.0029941224
0.11148646
0.06362584
0.017674636
-0.018734463
-0.1016224
-0.03760555
9.6499825e-05
-0.18295677
-0.029768713
-0.0149389375
-0.17087954
-0.025588537
0.30959424
-0.3406952
-0.1589595
-0.006570083
-0.04588287
0.07876507
0.12025694
-0.05369969
-0.15670067
0.040416174
-0.14298025
-0.03191549
-0.20549251
-0.135594
-0.06543942
-0.090121955
-0.05508013
-0.07447127
0.08052666
0.022761244
0.016534483
-0.039430566
0.032758657
0.12868989
-0.25173107
0.04123433
-0.041756786
0.035588168
0.035398625
-0.061261006
0.084547125
-0.041285686
-0.031078685
-0.018093055
0.18511234
-0.1613766
0.09447744
0.14217567
0.107411265
-0.05472734
0.05263123
0.04281862
0.028931905
-0.1045709
0.071822666
-0.0087062735
-0.24123238
0.092141055
