0.052062873
-0.056484096
-0.1163038
-0.0030092616
0.17140847
-0.04488394
0.022361843
-0.041224737
0.020964656
-0.079382055
-0.15685058
0.034462478
-0.06022931
0.1073216
-0.15659638
-0.08521566
0.0499632
0.13540968
0.040936735
-0.07270388
-0.020059044
0.14873654
-0.078303516
-0.086149074
0.017544722
-0.06420669
0.0473736
0.1584509
0.016495725
0.008732143
0.043526627
-0.12881139
0.037129037
0.009396508
-0.09551983
0.058785435
0.18804124
-0.1339579
-0.07163334
-0.26251477
0.068198904
-0.0824825
0.06464131
-0.009901902
-0.05991824
-0.058821443
-0.044002797
-0.019283831
-0.11260832
0.19539148
-0.04436907
-0.09686164
0.09248453
0.0056739044
0.078231476
-0.32664365
0.072203204
0.041464716
-0.10453738
-0.012523772
-0.0112234345
0.04946369
-0.08345693
-0.094171494
-0.04802114
-0.15483181
0.117549084
-0.10388199
-0.15821257
-0.03922178
-0.20101514
-0.018755635
-0.038202032
0.036149815
-0.038193043
0.11544101
0.14423606
-0.09556563
0.07091668
-0.09586511
0.07051087
0.0935771
0.027439008
-0.0050675
-0.019204892
-0.0968543
-0.072919525
0.15068461
-0.21773897
0.009800649
-0.12496975
0.027975965
-0.065965615
-0.056398697
0.027258102
-0.1088499
-0.14896703
0.14992967
0.01105369
-0.14697058
-0.08828091
0.021471031
-0.07119075
0.004179714
-0.032330066
-0.030516604
0.03277552
-0.046024974
0.0483105
-0.029731266
-0.06423996
-0.06757346
-0.035804715
-0.113006994
0.04056699
0.03575437
-0.18919517
0.16077968
-0.051466875
-0.018510977
-0.03186517
-0.10242024
-0.07456433
0.13485223
0.030397037
-0.12687287
0.0760775
-0.08697358
0.14045867
-0.027270967
0.034511555
0.08245185
0.054870795
0.02086246
0.122509144
-0.13548717
-0.07080907
0.09353655
-0.09906445
-0.036076903
0.14267121
0.03227554
-0.04511337
0.19690202
-0.062385853
-0.1006832
-0.03118636
-0.09172102
0.18348497
-0.022828642
0.049662124
-0.106921546
-0.057301432
0.1481539
0.22552039
0.005624899
0.015973352
-0.01973487
-0.012439534
-0.25257146
-0.05084266
0.0054965997
0.044476926
-0.03455873
0.023793796
0.019830491
0.14436714
-0.050951503
-0.10078721
-0.11480439
0.0041871793
0.11265582
0.053922843
0.09122809
-0.0931066
0.08820762
0.014707975
0.005077199
0.015256646
-0.009451904
0.03581731
0.0062121316
0.113201685
0.016740981
-0.021338249
0.027173612
0.06265425
-0.10448562
-0.049454734
-0.07610805
-0.056297787
-0.15092917
-0.13057089
-0.15699953
-0.119523816
-0.09857478
-0.08007527
0.029700486
-0.057143558
-0.103838906
-0.12362293
0.0834704
-0.10723136
-0.09645334
0.07244382
-0.18365246
-0.0036026367
0.24883844
-0.044285126
-0.009658773
-0.044786964
-0.020386105
-0.08151743
-0.044643294
0.02624853
0.036958635
0.009908038
-0.1660937
0.014290723
0.10477225
-0.12292111
0.007395587
0.07391954
-0.09801264
-0.18975548
-0.14475721
-0.06816817
0.02826189
-0.0917741
-0.11142485
0.061547592
0.020682754
-0.23558995
0.054252505
-0.08453121
0.13313982
0.042363912
-0.04330392
-0.11803136
-0.044362437
0.13845189
0.031185485
-0.15694216
-0.0773342
0.20177709
-0.03796383
-0.26564136
0.06568171
0.108865924
0.054199297
-0.047568467
0.021319475
0.14723629
0.049658097
0.013392204
-0.07185969
-0.0838859
-0.013480599
0.091283046
-0.09808864
-0.041243892
-0.26218316
-0.105424315
-0.0347423
0.029446913
0.02804394
-0.007291996
-0.05279859
0.066614226
-0.030382171
-0.030545142
0.14678842
-0.04654107
-0.035736967
0.108091176
-0.012282343
-0.03198827
0.06285873
0.03800717
-0.061568465
-0.056178685
-0.09198722
0.1611265
0.12180349
0.043008346
0.16811223
-0.22746938
-0.21141568
-0.011923375
0.05201016
-0.06704702
-0.2107399
0.07279845
0.02305815
0.14669771
0.048476055
-0.10275725
-0.15864848
-0.024064504
-0.15951353
-0.010119723
0.048872523
0.027334182
0.052132737
-0.01147246
-0.06776926
0.14995305
0.06119957
0.10450483
-0.06314491
-0.14419298
-0.09691816
0.11036569
-0.09535854
-0.12230815
0.07821018
0.20596522
-0.06755637
-0.17513618
0.03263073
0.004729797
0.0069241333
-0.01570477
0.13641731
-0.038056284
0.046847787
-0.14120157
-0.051116526
-0.07879237
-0.08531316
0.0027409422
0.056537814
0.08008031
0.030515369
-0.06276906
-0.18305522
0.107853696
0.07367331
-0.19470783
-0.20427479
-0.22834054
0.071415626
-0.09827849
-0.12181664
-0.09145195
0.10725096
0.15266547
0.028201547
0.03997081
0.09774097
-0.001854598
-0.021167642
-0.18956585
0.11961486
0.19620763
-0.10077799
-0.13176136
-0.021522613
-0.004266316
0.13098873
-0.025955822
-0.078623734
-0.13595788
0.035404723
-0.12389029
0.004217996
-0.12221307
0.042978827
0.017466981
0.1203182
0.17063923
-0.04056603
-0.14502735
0.04101037
-0.01795264
-0.120002165
0.024705198
-0.171623
-0.13908485
-0.047515426
0.10988019
0.11009697
0.049050413
0.07450087
-0.07363595
-0.014448232
-0.00955902
0.13238864
-0.1058821
0.005725744
0.05844617
0.061301414
0.066482484
-0.046517435
-0.076100275
0.034431867
0.013289891
-0.04431597
0.10383334
-0.11795762
-0.09756797
-0.17037539
-0.07336056
-0.07453583
-0.056304093
0.0432942
-0.11321067
0.058860905
0.06987625
0.14997852
-0.075887725
-0.010889619
0.09679058
-0.0981619
-0.046725675
0.009539837
0.08771671
0.007813294
0.10513069
0.009594327
-0.003930573
-0.120524995
0.07139873
0.10698219
-0.09546506
0.016106425
-0.01570384
-0.06634238
-0.08300114
0.03997164
0.073479295
-0.07850626
-0.26455572
0.14518861
-0.1518136
-0.046284825
-0.13319345
-0.030233547
-0.03896215
-0.033570137
0.1203012
0.12030602
0.17103744
-0.056749064
0.10962121
0.13418563
-0.2420115
-0.08274459
-0.08520454
0.08428156
-0.006478506
0.002945253
0.013726266
0.057694316
-0.15320876
-0.003739032
-0.022076631
-0.0782177
-0.015238177
0.0065945
-0.07749809
-0.01120232
-0.058368172
-0.14641207
-0.0287328
-0.03406726
-0.015921328
0.107557505
-0.1727847
-0.082614124
0.023518322
-0.07616996
-0.088704914
-0.09233356
-0.060365427
0.03077603
-0.14449689
-0.1408493
-0.060389783
-0.10038751
0.11185972
0.03504126
-0.0027540976
-0.13831861
-0.036915526
-0.015022995
0.06724358
-0.1599104
-0.10291846
0.04889405
-0.116867185
0.04585564
-0.19662102
-0.13271192
-0.050658487
0.09667307
0.066514015
0.06217873
-0.32863945
-0.09864722
0.024413934
0.12424989
0.07914988
0.17221823
-0.09530948
0.18036304
-0.07562546
-0.11122682
0.07311864
-0.118223295
-0.23088834
-0.036442906
