0.04787963 0.00047011173 -0.013478368 -0.025240872 -0.02574088 -0.012768959 0.06762606 0.04455104 -0.034779146 -0.0048048305 0.03021286 0.014116827 -0.014358873 -0.020568244 0.014596198 0.064089455 -0.050363902 0.024422696 0.09320592 0.009102902 -0.062974565 -0.055674836 -0.030356811 -0.02742462 -0.0018024702 0.047261443 -0.03065292 -0.08852094 -0.026102193 -0.026774252 0.0403358 -0.008587392 0.036753017 0.068797626 0.04194263 -0.046899337 -0.029979646 -0.038800966 -0.02745682 0.02773529 0.039349895 0.026680224 -0.046017338 -0.033021502 0.008660121 -0.037184857 0.0044110413 0.027406322 0.046669785 0.015347271 0.022094497 -0.010815008 -0.06123814 0.017815998 -0.022330819 0.007213409 -0.015500876 0.035718836 -0.023624022 -0.039935432 -0.0053025368 0.01270004 0.06535228 0.08604746 -0.10293856 -0.035635374 0.03916306 -0.06437625 -0.038269218 0.008923363 -0.0845846 -0.00071403745 0.021660535 -0.02846703 0.022100968 0.008109136 0.033112187 -0.032126438 -0.01332907 0.026680274 -0.024979882 0.013588916 0.0011672836 -0.041385278 -0.00044644793 -0.033842877 -0.040246136 0.072043285 -0.09166565 -0.016525721 0.008482382 0.018719465 0.03190374 0.051555805 -0.05647832 0.026456313 0.014865698 0.067720644 -0.017286222 0.043249544 0.0054830257 -0.02158109 -0.011796943 0.021782348 -0.053437565 -0.09547089 -0.0009410041 -0.044157848 0.012098141 -0.051713936 0.018574627 0.054606162 -0.054181423 0.000384877 0.026235702 -0.06575974 -0.033826742 -0.022504874 -0.08849488 0.05808253 -0.024401225 -0.006905176 -0.025334993 0.02532936 0.022539664 -0.014188923 0.01687468 0.07052423 -0.07745404 0.004622406 -0.014282667 -0.040420394 -0.032874763 -0.049526088 -0.10419965 0.024894437 0.009788607 -0.028785354 -0.009337219 0.05531698 -0.08531501 -0.030309964 0.054690573 -0.03458815 0.08287794 -0.047883596 -0.007025604 0.028477436 -0.04638099 -0.03380621 0.01159312 0.018862318 -0.050554752 -0.030614637 -0.0022886351 -0.014845197 0.046127554 -0.03664833 -0.029841509 0.008082696 -0.0055677406 0.040058356 -0.03620305 0.05787384 0.076133795 -0.045086425 0.015952928 -0.05601435 0.010295682 -0.013552357 -0.00723969 0.0462131 -0.004293055 -0.026929984 -0.07945601 -0.012136905 0.013651396 -0.02331945 -0.03768083 -0.017013364 -0.03318345 -0.020232588 0.03541395 0.03341031 0.038656686 -0.0015434875 -0.05493495 -0.10249465 0.022719959 0.01680724 -0.049423397 -0.08669572 -0.010705344 0.009863798 -0.019005422 -0.032274276 0.041042123 -0.014314753 -0.009065472 0.007831675 -0.117231816 0.0042068716 -0.004834156 -0.049234778 0.023049738 -0.04100509 -0.015075806 -0.02953562 0.025637958 0.06317114 -0.04229049 0.047624536 -0.055445768 -0.10179284 0.025259152 -0.044890847 0.018042106 -0.00063321006 -0.01652879 0.048060335 -0.02021022 -0.02424873 -0.013200897 0.030987248 -0.026024831 0.00023574635 -0.02997536 0.020333083 0.058444723 0.027646916 -0.01041642 -0.07798539 -0.12999485 -0.006852611 0.04996726 -0.04020249 -0.009992866 -0.05845845 0.06565361 0.01856433 -0.0071300045 0.013982236 -0.020197367 0.05567535 0.09236339 0.007688767 0.03322454 -0.04596338 -0.0063975714 0.008897966 -0.03363135 -0.0012769211 -0.1116496 -0.09959329 -0.026260013 0.025813367 0.07311417 0.019584578 -0.022372358 -0.049829144 0.062179577 -0.017879214 0.045181684 -0.038045704 -0.04638661 -0.026377916 0.010006008 0.071676 0.06777709 0.008496856 0.09549885 0.0006901269 0.081621446 -0.039151214 0.003902281 0.034261625 -0.055916026 -0.013923278 -0.008355381 0.005143675 0.032394152 -0.031115316 -0.04959567 0.009292784 -0.0065201297 -0.0902669 -0.00229367 0.011856008 1.2019333e-05 0.0012226306 -0.008093737 0.017178623 -0.012105034 -0.04889857 -0.0046908017 -0.06512936 -0.047699 -0.037466545 -0.01914063 0.025108323 0.016034426 -0.08222508 0.025881613 0.00030771154 -0.103885226 -0.13263959 -0.11555522 0.042527236 0.053202488 0.020569269 0.0736634 0.06724606 -0.0049148244 0.014689864 0.09751669 -0.04134001 0.0047071814 0.034433052 -0.08207602 0.0074004275 0.024510588 0.034476433 0.020396296 -0.0027170307 -0.040983234 0.064234614 -0.005099292 0.002068215 -0.007428589 0.004894764 0.03462721 -0.007271734 0.009082372 0.0047911545 0.06494026 -0.017440395 0.03202748 0.0034248147 -0.04104256 -0.028168052 -0.0061504985 -0.028198207 0.013476409 0.012470418 -0.032560643 -0.027975973 -0.080091916 0.019674642 -0.06219136 -0.039758593 -0.01802967 -0.08649595 0.04213053 0.013362591 0.059204925 -0.005934645 -0.0033378438 -0.053095084 -0.025860773 -0.022059886 -0.045061775 -0.05350075 -0.05426611 0.05281843 0.008670817 -0.049107216 -0.057370916 -0.01266826 0.020601148 -0.040774856 -0.0057168137 0.013404517 0.0070987497 -0.0397283 -0.042785905 -0.034158774 0.021238958 -0.050720066 0.027559469 0.0076849447 0.06876047 -0.0605937 -0.069191016 -0.00047976 0.051100064 -0.024218379 -0.06546822 -0.012610853 -0.0073297285 -0.022849794 -0.009766039 0.038524374 0.034489006 0.027229145 -0.058619723 0.011764057 -0.02319022 0.017374486 0.0043823486 -0.050597366 -0.03518938 0.025361108 -0.0041212756 -0.04135942 0.004549305 -0.006362528 -0.027222624 0.0139 0.07089099 0.05734304 -0.037195597 -0.020641966 -0.010562923 -0.050809003 -0.015605194 -0.029507149 -0.0029182427 -0.022375671 -0.009599727 -0.01560026 0.018238991 0.0010897996 -0.014972816 -0.0040154955 0.01651931 -0.011493901 -0.051574506 0.043344453 0.053114496 0.007858882 0.019753315 0.016932791 0.00043940675 0.008049881 -0.023100685 -0.036005955 -0.03597952 -0.023029735 -0.07945469 0.0020087168 -0.02717742 0.0364027 -0.012616501 0.083475105 -0.014440196 -0.06862583 0.022346646 -0.054706115 0.0209919 0.027491465 0.060061548 -0.06247057 -0.06409844 -0.02114099 0.046941306 -0.047991294 0.026621714 -0.056429245 0.042774793 0.024045695 -0.024796212 -0.009102286 0.0101809325 -0.10427519 -0.052848317 0.00056823064 0.04531191 -0.09677051 0.011414729 0.05920404 0.009416692 -0.02070238 0.032847658 -0.064495094 -0.029160941 0.019192968 -0.028795438 -0.040974237 -0.033893283 0.018343866 -0.02005192 -0.008444899 0.000323662 -0.052580725 0.015455195 -0.04014842 -0.012154913 -0.006222808 -0.017109135 0.040479444 0.04395849 -0.02207605 -0.030078601 -0.09305158 -0.031786796 0.0026805059 -0.04175593 0.0068125315 -0.0010633346 -0.010616921 0.036030874 -0.052274056 -0.088654384 0.0044809934 0.01781928 0.04239701 0.002632931 -0.017665446 0.0013037036 -0.00016893916 -0.037735514 -0.010481184
0.02832453 -0.032171737 0.015219504 0.01813532 -0.018431993 -0.031116331 -0.09392368 0.0088668605 0.055819917 -0.06278294 -0.01627392 -0.03295909 -0.00027867907 0.0062264223 0.013319277 -0.033702653 -0.07167854 0.051454954 -0.063241675 -0.088458575 -0.018539712 -0.06240066 0.004587558 0.0123309465 -0.04900589 0.043070123 0.037433747 0.016711216 0.040330827 0.005749411 0.11013194 -0.05417104 -0.0027994667 0.039497472 -0.057259228 -0.031431302 0.04601951 0.022727294 -0.0011517719 0.0312315 0.01242031 0.004641463 0.04309226 -0.10857914 0.011801563 -0.07082836 -0.066912495 0.00043734247 -0.07548304 0.026418857 0.013975003 -0.10352954 -0.052700333 0.049056582 0.026381006 -0.0065848273 0.0009487088 0.00049386465 0.069449805 0.049615167 -0.019467806 0.049041707 0.0062510152 0.013222057 -0.03614882 0.011138623 -0.045417525 0.02808736 -0.04095602 0.0075408076 -0.005453279 0.0202329 -0.047695756 0.007309152 -0.012587174 0.029402366 0.028298173 0.027287144 0.003712626 -0.08970954 -0.0767514 0.032568794 0.012394353 0.055903424 -0.03502358 -0.0052939276 -0.051420845 -0.03863136 0.021172978 -0.0082796635 -0.09487777 -0.13095069 -0.040125594 -0.012790633 0.019164778 0.07306014 -0.0013103255 0.04850631 -0.07208184 -0.051809113 0.04461299 -0.014582044 -0.07580793 0.05454774 -0.0021374123 0.03480788 -0.01318812 -0.009388685 0.027580397 -0.03985941 -0.014645096 0.028404966 0.07314627 0.02175988 0.042845547 0.015949424 0.017360315 -0.07934565 0.042819083 0.014760496 0.0355235 0.025116146 0.008533595 0.009490237 -0.11741 -0.043660134 -0.12127357 0.03907975 -0.078757435 -0.011491532 -0.011791613 0.06711628 0.0066079167 -0.044899218 0.018192649 -0.119773425 0.014230373 -0.019417906 -0.012577692 0.009548911 0.050104816 -0.0013719564 -0.014693817 0.06408846 -0.017288575 -0.044848938 -0.033319224 0.009719377 0.03778356 0.022211127 0.0044236197 -0.004001822 -0.051125348 -0.081860356 -0.033116106 -0.07527955 0.023404628 0.028217593 -0.011390715 0.02137827 0.00075133826 0.0007351672 -0.026047656 -0.013752803 -0.017112354 0.066765495 0.041373808 0.001405706 0.015631031 -0.023099015 -0.004823399 -0.00551365 -0.0049129347 -0.025463315 -0.040457096 -0.014184827 -0.0069230217 0.0016382514 -0.08407878 0.062132224 -0.027803304 0.0016986751 0.017153617 0.07378945 -0.10247034 -0.018394612 0.028188694 -0.023855511 -0.0011365165 -0.04005319 0.010729898 -0.009730192 0.0140399095 0.06835756 0.031094681 -0.018416129 -0.0077210823 0.0040857475 -0.016899824 0.011804314 0.026008902 0.017407563 -0.022565251 -0.020002875 -0.03403485 0.025716849 -0.0782032 -0.0154169435 -0.027009344 -0.022163687 -0.024373641 -0.029894523 -0.0030165121 -0.038486235 0.027880128 0.0687242 0.06793913 0.012368725 -0.092172325 -0.016298736 0.06928129 -0.11681019 0.038729392 -0.017915735 -0.026116977 -0.018348034 -0.021534638 -0.007570119 0.02102672 -0.060365833 0.026944855 -0.008839872 0.028180128 0.06475838 -0.008287786 -0.03329077 -0.034613397 0.015801573 0.0033425624 -0.035270974 0.025132915 -0.05143425 -0.025611656 0.046182875 0.041828398 0.0064773373 0.016595958 -0.038304757 0.0018873558 -0.0052868947 0.010349221 -0.015060058 -0.018824533 0.0013104931 0.040746383 -0.019258203 0.068455845 -0.1039446 0.02558365 -0.10467347 0.0067780195 0.02420778 -0.041983385 -0.048339594 -0.049237717 -0.021872612 -0.07637863 0.082534604 -0.034044955 0.062119354 0.02253055 -0.01578252 -0.034581624 -0.10878739 0.00031850697 0.0059727356 -0.064351074 0.039036363 -0.06375286 -0.05544061 0.026638154 -0.0379945 0.06377973 0.024180144 -0.108852364 -0.04808779 0.062672615 -0.01631393 -0.019048356 0.0605494 0.035594247 -0.004388032 -0.005841266 -0.0689629 0.023778936 0.060342055 -0.05162379 0.045149643 -0.027580526 0.008179968 -0.00045585178 0.027560895 -0.031044913 0.010722478 -0.0073307366 -0.017296705 0.008939075 -0.02677932 0.015410229 0.086849235 -0.006182756 0.004463513 0.0082096 -0.078872144 -1.0337797e-05 0.008571619 -0.03190462 0.023068653 -0.016882248 -0.004571959 0.029165564 -0.06228455 -0.028135242 -0.0465172 0.0358191 0.0006757009 0.036890402 -0.053583138 -0.039631136 -0.013665568 -0.030701637 -0.007284727 -0.00016030682 0.039517213 0.030715935 0.038798336 0.04055066 -0.025904695 -0.020261394 -0.03534681 -0.008075203 -0.026688302 0.046843 -0.06534688 -0.07354658 0.04598968 0.07311993 -0.064995304 0.0069933347 -0.048955444 0.022645667 0.017820405 0.03520476 -0.07700177 -0.065156795 0.008186845 0.014848831 -0.061471935 0.04752801 -0.0014997512 0.056784492 0.04605565 -0.016980333 -0.014868174 0.003025757 0.01461958 -0.10283065 0.03956011 -0.016962864 -0.009553864 -0.055997003 0.016458461 0.032141898 0.0368952 -0.018289555 0.0032542455 -0.10259719 -0.04339487 -0.070832744 0.018224727 -0.014649881 -0.012576168 -0.04009326 -0.027515449 0.03786849 0.01662975 0.03141672 -0.047772884 0.09854928 0.04865046 -0.0013794786 -0.0012623576 0.07836565 0.03442957 -0.020462425 -0.04532229 0.007431395 0.07959165 -0.06713335 -0.0556673 -0.036963157 0.02249431 0.040760558 -0.0052573057 0.01381601 0.00090822595 -0.010418049 -0.05480316 0.022402614 -0.03513303 -0.017247481 -0.0037675176 -0.011639602 -0.04412945 0.00059435243 -0.03749105 0.0042137858 0.023271006 -0.00653828 -0.032116883 0.010422509 -0.00982763 -0.038470887 -0.015532668 -0.004799379 -0.009563023 -0.084860176 -0.03394353 -0.041140262 -0.021672461 0.006895482 0.023006953 -0.06837466 -0.03470438 0.041635465 -0.042934377 -0.013468363 -0.08336383 0.099868126 -0.033179957 0.011007052 -0.04220366 -0.049894802 -0.017086854 0.008548725 -0.04290541 -0.045982406 0.030057538 -0.06469552 0.015026718 0.065726236 0.004291535 -0.052541114 0.009841765 0.026485706 0.04421997 -0.008474436 0.042539764 -0.03892407 0.0019577516 0.011040984 -0.052615784 -0.026980024 -0.053679086 0.0049772044 -0.12382234 -0.031125959 -0.03851312 -0.010936352 -0.011867751 -0.08950949 -0.036426473 -0.022681508 0.039741818 0.01189024 0.0039653727 -0.024433663 -0.049998567 -0.094532706 -0.03953578 -0.039443955 -0.024646318 -0.018562224 -0.049396906 -0.0862043 0.047364775 0.005750934 0.036354005 -0.07903734 -0.11192097 -0.05998364 -0.056630928 -0.0151398415 0.078069955 0.043976538 -0.0568866 0.006755382 -0.02461803 -0.026590288 0.022053156 -0.02866799 0.038419735 0.010147841 0.0524016 0.02720353 0.033885825 0.005503625 0.058262706 -0.063829206 0.06115132 -0.060704097 -0.03573786
-0.0026072713 -0.012658965 0.015861971 0.009947487 0.03822978 -0.03396464 -0.029463233 0.008407538 -0.041685976 -0.00043865552 0.026066849 0.04946221 0.017252045 0.027892703 0.0057530464 0.018493095 0.001093054 -0.01895511 -0.05604666 0.010980712 -0.046386715 0.014587317 -0.019673327 0.007176195 -0.024510859 0.021787515 0.026595104 0.02425503 0.041871294 -0.037024632 0.0020998914 -0.04022309 -0.039799202 -0.02388104 -0.01854914 -0.023910858 -0.0034631481 -4.434415e-05 0.0047612907 0.016544327 0.010001088 -0.024476137 0.020596236 0.0022322147 0.0021319452 0.00014333532 0.0025569464 -0.06608992 0.0052133547 0.0031199956 -0.014301223 -0.036984015 0.019000292 -0.033753596 0.0030308089 -0.045755908 0.0012163746 0.052809827 0.059460346 -0.002170346 -0.03813325 0.038364735 -0.021428475 -0.016400993 0.007929649 -0.05385764 0.030247236 -0.029566262 0.027182039 -0.018071476 -0.05323372 0.035331592 -0.0025996866 0.0054636747 0.022456188 -0.022985635 -0.015152474 -0.04235507 0.015117865 0.032317486 -0.0011191865 0.019229421 -0.016653068 0.020298082 -0.025335478 0.057441488 -0.041389816 0.037977837 -0.032670163 -0.05431188 0.012736998 -0.033114303 -0.034403052 -0.039960753 -0.015889445 -0.04620105 -0.00568803 -0.0015371535 0.021274732 0.009832045 0.03632114 0.01944997 0.019213678 0.09608375 0.027976105 0.04505949 0.012503917 -0.05375829 0.011853056 0.0321811 -0.053791024 -0.006915786 -0.046030696 0.02687968 0.0034062082 -0.015279839 0.01645907 -0.0065394198 -0.028082088 -0.0027780149 0.014968794 -0.0035583344 0.035658807 0.062775366 0.01657907 -0.03932444 -0.024789924 0.027936483 -0.030369302 0.014639013 0.0085259415 -0.007911648 0.035952244 -0.031082409 -0.047368843 -0.0022096226 -0.0047233864 0.01225295 -0.0665006 -0.023526872 -0.011116184 0.0007680024 -0.032700125 0.0017169111 0.0197507 -0.026537178 -0.002164802 -0.01222697 0.0041361405 0.04857819 -0.02220297 0.048743963 0.035636608 0.0012208122 -0.023912013 -0.029370382 -0.01230846 -0.024667855 -0.018410277 -0.0069313324 -0.03520322 0.022095436 -0.022469178 0.022884218 -0.015423817 0.039114367 0.027429827 0.025280304 0.020410724 -0.043611847 0.035917588 0.05451861 0.029028304 0.069253474 0.01713604 -0.0068593253 0.045854844 -0.005975454 0.02883243 -0.00998918 -0.006878809 0.042579222 0.053303774 -0.032779116 -0.012806159 -0.017632145 -0.054081753 0.014727753 0.018614681 0.0075880755 -0.0141950855 -0.01886986 0.0046747783 0.037860826 0.008307588 -0.020549204 0.005995824 0.032762375 -0.029951544 -0.052264445 -0.02492349 -0.040835243 -0.034296427 -0.0031375948 0.01923813 -0.02226961 0.033727754 -0.00695925 -0.0012779362 -0.004175237 -4.2264663e-05 -0.019420065 0.040346883 -0.0033590498 0.062136065 0.0133262575 -0.03338959 0.035531245 -0.015301197 -0.034563918 -0.012015517 -0.010391775 0.00084116234 0.015847996 -0.03879524 -0.01565702 -0.024350932 -0.0021003697 -0.01714152 -0.026141651 0.031919 -0.030121326 -0.047200818 -0.042797767 -0.020679137 0.0037399319 0.025795873 -0.01494222 -0.04102526 0.049311224 0.016232757 -0.0061016195 -0.015727282 0.018829694 -0.016751397 -0.02934873 0.050854627 -0.012373503 0.053933915 0.011850007 -0.014542995 0.012451302 -0.009839937 0.035012856 0.009491183 -0.0244394 0.0067448467 0.007642787 -0.003124943 -0.0009952704 -0.0034356883 -0.008070195 0.01436763 0.024994168 -0.0011862508 0.06646721 0.02145841 0.03655974 -0.017704917 0.01426651 0.04941589 -0.02443233 0.021715203 0.007214203 0.0021171947 0.015162993 0.023881689 -0.02367363 0.028934551 -0.010566432 -0.03453519 0.0036642482 0.026887788 0.027674837 0.002150818 -0.03392152 0.0076619973 0.0519761 0.010429164 -0.009789179 -0.03017686 -0.02008878 0.010077926 0.019663602 -0.035722625 -0.0111430455 -0.019467283 0.0042735045 -0.03089825 0.0006973987 -0.0093816165 0.006138196 0.042110577 0.011371544 -0.021145165 -0.0072624804 0.018137168 0.010432924 0.010784071 -0.040703103 0.005343301 -0.0020066646 0.011518952 -0.002363105 0.0047822967 -0.0013398476 -0.0013497453 -0.040267434 0.018454583 0.013139611 0.025567926 -0.033677407 0.020446355 0.040212695 -0.041330308 -0.06351027 0.008534536 0.008421228 -0.006342877 0.024886139 0.0006895418 -0.04107356 0.011538985 -0.033774037 -0.060323324 0.04161304 -0.029085211 0.04659391 -0.003121455 0.0483498 -0.00031050705 -0.0613669 0.030247053 -0.021611936 -0.0026267376 -0.008035297 -0.025607178 0.01136779 -0.0014189258 0.010311334 0.046852507 -0.0029295294 -0.0018451563 0.0055755675 -0.05869317 -0.01637879 -0.009443747 -0.019453252 0.0003858027 0.026985632 0.009179792 -0.034522966 -0.02494675 -0.011602851 -0.014053315 -0.046599884 0.034225494 -0.006717024 0.011644825 -0.0053081466 -0.0032933243 -0.018771885 0.029855147 -0.015893059 0.01536778 -0.04477231 -0.032209933 0.01765609 0.019852158 0.0024487781 0.0016428087 0.047372855 -0.04746512 -0.0137313325 -0.0056649 0.021180002 0.0329567 -0.0017406251 -0.02295749 0.0035690414 -0.033303615 -0.018459754 -0.001214567 0.04634396 -0.021893475 -0.019771203 0.0022551 0.0008194759 0.0010837273 0.046055373 -0.041087776 -0.00020779266 -0.04250477 0.011686319 0.05662436 0.03432988 0.023675777 0.028018214 -0.089758806 0.031566978 0.051802706 0.010610503 -0.018734165 0.0021646211 0.0024735928 -0.031108955 0.05907525 0.02267995 -0.03338081 0.038470577 -0.01236675 -0.037588466 0.01758968 -0.032511853 0.0076079187 -0.008038472 0.0054721916 -0.0031368465 0.015588382 -0.010548827 0.044783894 -0.0015158239 0.0021743884 0.038766496 0.008321559 -0.029825518 0.0058108587 -0.045823045 0.08514937 0.030898254 -0.0135907885 -0.0030264687 0.029528104 -0.05913611 -0.035467964 -0.02758737 -0.013140861 0.034012526 0.055105444 -0.016424587 0.011926488 -0.01727997 0.0029382664 0.034628842 -0.010974807 0.01405865 -0.06202357 0.042644992 -0.010231053 -4.295521e-05 -0.013990421 0.035381373 -0.021120708 -0.018584728 0.019760162 0.024131298 0.058965888 -0.029669622 -0.014525881 0.031099135 0.025098657 0.016191864 0.019533549 -0.014870157 -0.022576565 0.014545812 0.00215919 -0.007099139 0.035218593 0.0015322664 0.023899639 -0.0068454933 0.0021320963 0.018470053 -0.0009477621 -0.012608783 -0.0049939556 -0.013358582 -0.0049909046 -0.031582933 -0.006146084 -0.022857927 0.026082272 -0.0019874559 0.0153221525 0.00050997105 0.03635074 -0.022606665 -0.022915216 -0.03924036 0.034890085 0.0029558009 -0.0005826539 -0.051171437 0.031508032 0.039214015 0.023872893 -0.000100347395 0.031733762 0.021604428 0.060590737 -0.047143444
0.08481609 0.085467756 -0.038632136 -0.16977552 0.03392874 -0.03468383 0.04856495 -0.027369821 0.0242005 -0.14642407 -0.019111658 0.0029458764 -0.0022969786 0.026722433 -0.027603095 0.055044837 -0.064526685 0.058303453 0.058285516 -0.060057003 0.021448545 -0.040951163 -0.05761945 0.027823973 0.001961063 0.013230156 -0.04960052 0.0063910168 -0.017567582 0.004268819 0.025658954 -0.068208404 0.028338838 -0.049728815 0.002034298 -0.026759809 0.07079223 0.0070732413 -0.011718245 -0.049398415 0.008571139 0.004248228 0.013806997 -0.050885454 0.013697585 0.012109753 0.06355667 -0.036705982 -0.010845484 0.07173101 0.010500643 -0.06835028 -0.0032355778 0.017630244 -0.086768486 -0.068697676 -0.02930628 -0.075270176 -0.046280075 -0.036390077 0.024092818 -0.02004408 -0.033273745 0.007829152 0.05807269 -0.039315768 -0.058259394 0.02819436 -0.018461484 0.026251175 -0.013011084 0.089862645 -0.0154967485 -0.008016161 -0.03719993 -0.1271355 -0.020648157 -0.064034216 -0.0062782634 -0.051651694 -0.053960603 -0.024008386 0.010546321 -0.028205624 -0.035614725 -0.034709744 -0.0080784 0.02369327 0.020162715 0.04910463 -0.05776944 -0.052633714 -0.067327216 0.035433967 0.02804224 -0.054756597 0.002217296 -0.08691368 -0.097101904 0.01184501 -0.064685 -0.0070344224 -0.04705357 0.018243568 -0.06688141 -0.016372096 -0.04731412 -0.08287286 -0.05797086 0.026050372 -0.002504255 0.065386 -0.018723674 -0.03118684 -0.013234568 -0.04792333 -0.025203122 -0.018903272 0.004649704 0.061022785 -0.032459985 0.07310078 -0.092153154 -0.021898873 -0.025343088 0.047658786 0.023568429 0.0077021094 -0.039147705 -0.0050987494 -0.027619123 -0.006732786 -0.056814328 -0.041763563 0.032572202 0.05526141 -0.030819837 -0.111469865 -0.08364587 -0.037726462 0.010672005 -0.043140166 0.06532768 -0.07450661 0.064288765 0.036803864 -0.023020513 0.012901804 -0.00014241574 0.01298157 -0.060231764 0.045814704 -0.07699705 0.005535188 -0.027616331 -0.06754444 0.04407126 0.02697768 -0.013037388 0.047681585 -0.0057804505 0.06100999 -0.03793801 -0.039592113 -0.02899168 0.012799354 0.09778239 0.090776995 -0.093626335 -0.05125639 -0.041848574 0.027791148 -0.010376711 0.062570326 0.06829144 0.056915604 0.025130944 0.022035979 0.04372526 0.0048901024 -0.00328303 -0.0070059663 -0.018273143 -0.028718924 0.029095618 -0.04361412 -0.012825231 0.04590978 -0.038903393 0.06760351 0.0102950595 0.019172918 -0.03837436 -0.0049861344 -0.03726783 -0.0041790754 0.022653371 -0.009043754 -0.049130876 0.044816148 0.01561926 -0.014859046 0.057463016 -0.028508082 -0.05070862 -0.021386817 -0.010101253 0.04325453 -0.038245685 0.05106028 -0.00924046 -0.082755715 0.0400723 -0.033691466 -0.049322598 -0.03404394 0.047372654 0.021143986 -0.024232298 0.057027627 0.06985804 -0.08156042 0.05478978 -0.09341074 0.040615547 -0.05996194 -0.09327291 0.034423776 0.08404029 -0.040424924 0.05035925 0.0022263925 -0.005417322 0.0014615186 -0.061058883 0.023853576 0.035769768 0.08211862 0.0019206557 -0.09167336 0.08320357 0.011818168 -0.07386965 0.0421413 0.06503501 0.017964866 -0.032754585 -0.029917507 0.0442191 -0.110442914 -0.004508755 -0.05917997 0.002143353 -0.017361555 0.055609003 0.022989547 -0.06412703 0.03416339 0.10093981 -0.028351583 -0.024453793 -0.019633124 -0.055801407 0.05976267 -0.02500749 -0.00341741 0.055231355 0.031548228 -0.011897097 0.022640456 -0.010605368 -0.016916115 0.005555095 0.00089723425 2.2269547e-05 0.025246909 -0.019368483 -0.006140116 0.015991537 -0.05091533 -0.0031738055 0.06941026 0.024062557 -0.029177016 -0.04411129 -0.010322999 0.010968793 0.03487344 -0.0025171055 0.12779021 -0.03167484 -0.028043324 -0.02728091 -0.017137447 -0.07269257 -0.0020101736 0.028100567 0.028764246 -0.007062795 0.046340752 -0.008286965 0.06692204 -0.02031158 0.04770181 -0.011038022 0.016611658 -0.0071896156 -0.09581266 -0.052146837 0.052103072 0.040907536 0.0052583134 -0.10864219 0.010289788 -0.007912418 0.06198059 0.02842078 -0.068801336 -0.005071374 -0.055509545 -0.05250072 -0.021145988 -0.066410616 -0.0056219795 0.030271376 0.02875145 -0.0044783587 -0.035724398 0.06914712 -0.0055259503 0.023179885 0.012220326 -0.009936093 -0.017813258 0.030517668 -0.09045123 -0.04063997 -0.0542548 0.046835832 0.055542413 0.013317615 -0.062904745 0.07786108 -0.041243624 -0.088272594 0.06985707 -0.034671545 0.00055290695 0.0058579748 -0.122523226 -0.021645296 0.102316745 -0.041546512 0.010707651 -0.06304531 0.15793048 0.003864354 -0.050338995 -0.081411086 -0.004482011 0.07078772 0.048603326 -0.034797568 -0.08627955 -0.0020869295 0.017700566 0.08254084 0.07152806 0.036895312 0.026151948 -0.09637375 -0.07479866 0.0049151713 0.0023186381 -0.039767854 -0.017644623 -0.00061323517 0.010405392 -0.02982711 -0.03845179 -0.09119977 0.048875768 0.011605673 -0.0045748334 0.06434109 -0.012665176 -0.025189023 -0.11107542 0.10723764 -0.022965617 0.023450134 -0.008322445 0.04257016 0.062438216 0.031283412 -0.04023834 0.05743967 0.055584516 -0.042548113 -0.012197476 -0.06441118 0.04979906 0.04287063 0.0061680716 0.004553314 -0.016087964 0.05313189 0.0629099 0.0076261912 -0.046252258 0.04569598 0.015695402 -0.055504803 -0.032097626 -0.03916115 -0.09353843 0.03003321 -0.023377761 -0.090693794 -0.085425146 0.088193685 0.05134593 0.005842136 0.047385212 -0.08547987 0.032318298 -0.011968656 0.009191875 -0.09042506 -0.051661957 -0.02490462 -0.018262662 -0.065249585 -0.018736139 -0.0032078603 -0.06743634 -0.10169549 0.0058524515 0.033890594 -0.024156632 0.055303086 -0.009489272 -0.01542769 -0.059355684 -0.010475281 0.001162855 -0.039566223 -0.025853252 -0.004920725 0.021285802 0.08099904 -0.029557016 -0.072936185 -0.030377578 0.1160447 0.009774126 0.0964073 0.034701087 -0.026497945 -0.060713347 0.07834732 0.024507063 -0.019307537 0.05480904 0.006920769 0.04154713 0.046121474 0.009973239 0.14352617 0.035321265 0.03707978 -0.06521585 -0.02288923 0.012912921 -0.021555603 -0.076400466 0.0053215288 0.028826833 -0.013399512 -0.09590065 -0.052335247 -0.01985502 -0.05921364 0.015980942 -0.043646257 0.0042762747 -0.070662454 0.003977606 -0.01197145 -0.0068915864 0.011314577 0.049930487 0.03034779 0.005378936 0.04226301 0.039689 -0.036264807 0.031354938 -0.052657466 -0.07214597 -0.045916285 0.002358727 0.097858354 -0.019473499 0.025923952 -0.058756225 -0.119955316 -0.081464045 0.034457993 -0.033637922 -0.050427206 0.055544823
-0.04502862 0.029875254 0.020503106 -0.023708386 0.009126961 0.00019128846 0.017579732 0.0014387433 0.0020208692 0.026741363 0.027434861 -0.014643391 -0.018549401 -0.010541296 0.0020474866 0.011594027 0.0014022978 0.018566137 0.032094575 0.02361368 -0.019291947 -0.004379665 0.0033383104 -0.000109614324 0.020639664 0.010569913 -0.016690806 0.02983426 -0.021829244 0.015434408 0.034071382 -0.0020333775 0.034159433 0.0006853925 -0.028372375 -0.010799289 0.033102337 0.02086157 -0.012697172 0.0017094885 -0.0149958655 0.023980925 -0.02334273 0.0056924415 0.015194109 -0.0068901624 0.022400167 0.021185815 -0.0022645665 -0.0005473162 0.021650286 0.049810246 0.0197763 -0.022975283 -0.031228825 -0.019553281 0.038098373 -0.015764045 -0.029235642 -0.043797705 -0.03486778 0.017298734 0.026987167 -0.0055712666 0.020272458 0.011103594 0.029905709 -0.0123502845 -0.0018173849 0.014548045 0.022299835 -0.0056040543 0.021219345 -0.028650003 0.003791232 0.013962225 0.0048150215 -0.05241839 -0.015389723 -0.0064207376 0.02462072 0.0038603633 -0.0008571973 -0.0011736795 0.015459477 0.027907448 -0.008811191 -0.0045796437 -0.014430346 -0.028282916 0.018880382 -0.01594889 0.004283911 0.0011557157 -0.001777304 0.012025585 0.05010711 -0.007066339 0.004332332 0.03206575 -0.028578788 -0.032270506 -0.02708628 -0.03168321 0.036801774 0.0401843 -0.013952635 -0.010821921 -0.042014845 0.035172112 0.020628225 0.017466092 0.016321117 -0.01182185 2.593548e-05 0.0020758642 0.03843692 -0.015205694 -0.04136624 -0.033862155 0.058325045 -0.04286853 -0.047545422 -0.057032708 0.031059664 -0.016017497 -0.053093538 -0.005766802 0.033911932 0.01442427 -0.05443196 -0.005654933 0.035789415 -0.0033079234 -0.034893446 -0.00836698 -0.005719403 -0.020825224 -0.0037402683 -0.019773494 -0.04323447 -0.026690578 0.003390962 -0.031417426 0.008020422 -0.0011184701 0.02076602 -0.010717821 0.043059327 0.011943434 -0.050098922 -0.017726034 0.019937625 0.034078408 -0.023736702 0.027837351 -0.002245075 -0.020766746 0.013379688 -0.03311455 0.01112091 -0.013263181 0.002988825 0.039284807 -0.05792501 -0.017244948 0.0051765908 -0.056009207 -0.03907867 -0.0021286474 0.04478508 0.04457818 0.04176294 -0.00042415544 0.019587476 -0.048152197 0.011413248 0.036679726 -0.033127874 0.0072960914 -0.013213765 -0.029896688 0.011500494 0.010553336 -0.010936611 -0.037239417 -0.02037239 -0.026754126 0.023416473 -0.03791241 -0.017190158 -0.018095374 0.0013288787 -0.0247848 -0.027262045 -0.0062527345 -0.06101189 0.040883597 -0.011183201 0.0119308885 -0.020874746 -0.0031940888 -0.010835382 0.020685298 -0.023113772 0.022936206 0.029758899 -0.03018569 0.010293676 0.042969003 0.0019688474 0.02352452 -0.019597651 -0.04848348 0.019883638 0.020513587 0.019679217 -0.0005189527 -0.0024350234 -0.0061206184 -0.028402733 0.020864675 -0.04388748 -0.025770174 -0.038440857 -0.036905598 -0.012929327 0.035439886 -0.024851535 -0.010391829 0.0029534916 0.03178512 0.0126507245 -0.01840994 -0.022563199 0.04347041 5.485006e-05 0.0043783453 0.033205256 -0.018552205 0.043149624 0.027747937 0.029121798 -0.033129267 -0.008735328 0.0031846354 0.004935778 -0.01623985 0.049176328 -0.014720006 0.012800342 0.022890782 -0.016294697 -0.010594389 0.003601967 0.034434307 0.0030058383 -0.021532208 -0.029949311 -0.01692484 0.017220581 0.011100179 0.02274419 0.012647274 0.061277036 0.014966676 -0.01902478 -0.028271928 -0.06399301 0.0031735457 0.030565286 0.019345034 -0.024767507 0.05406689 0.03222816 -0.027974484 -0.002849538 0.035389513 -0.008560465 -0.013629348 0.051055707 -0.028515607 0.04151098 -0.007983326 0.010427105 0.034311134 -0.019819582 0.028794147 0.0033447903 0.027249146 -0.033600926 0.019618584 0.03144249 -0.031161977 -0.007928142 0.018358441 0.00025192116 -0.01702929 -0.012877271 0.00672504 0.0011650142 0.01333157 -0.034725387 -0.051146593 -0.004297379 -0.022214774 -0.042787254 0.020597793 -0.011193629 0.014339029 0.05593997 -0.017297532 0.0077470336 0.025585577 0.049619816 0.0121559575 0.027087003 -0.034326408 0.018749774 -0.038551226 -0.046554267 0.029957652 -0.042380266 -0.003814801 -0.03322822 -0.0063848314 0.054598816 -0.026880313 -0.01344989 -0.02293595 0.020522548 -0.03639797 -0.0023638601 -0.022127861 -0.00638082 0.004466199 -0.0009553426 0.02940923 0.03138803 0.018955935 -0.037780497 0.0143385185 0.027331876 -0.026128804 0.048666887 -0.03653057 0.01833235 0.0031524422 0.019617556 -0.01866037 -0.046324607 0.025779674 -0.005000369 -0.013088041 0.014698587 0.013493644 0.011711862 0.025623076 -0.009360524 0.005133979 -0.016700804 0.064896084 0.014031051 0.0004414082 0.0035189234 -0.040069077 0.055337373 -0.038264148 0.05031445 -0.0056091417 -0.04326773 -0.0066809026 0.0055690254 -0.011961986 -0.02603949 0.01639028 0.0024505614 -0.0028067236 0.013624307 -0.0043144347 -0.00076829974 -0.005802343 -0.03786223 -0.017367024 -0.018115211 0.014703199 -0.030884283 0.01752733 0.0090494165 0.013801253 0.0074704452 0.01059566 -0.074430466 0.056161165 0.03736663 0.021829747 -0.014623549 0.007946202 0.003726802 0.040562503 -0.027980095 0.03990557 0.011130966 -0.0020981317 0.010027278 0.004854378 0.068228126 0.0042825122 -0.05201258 0.010175051 -0.021881713 -0.03191649 0.0013808536 -0.0036983197 -0.0032219656 -0.027366946 -0.019028302 0.014902267 -0.008546525 0.02597478 -0.025626458 -0.012358659 0.001783958 -0.08331786 -0.00028381913 -0.02185172 0.014019039 -0.0006706044 -0.031009346 -0.00031252493 -0.031233313 0.015800195 -0.021798506 0.006250338 0.038734913 -0.032932885 -0.0034135822 -0.080480024 0.040244732 -0.008182167 0.033020597 0.046600085 0.019850949 0.016708616 -0.023739025 0.026388867 0.013075347 0.002182615 -0.007179496 0.0022165638 -0.030833201 -0.012665343 -0.0034077377 0.04752081 -0.007638079 0.031037854 -0.006315539 0.029160267 0.0063711875 -0.022850685 0.03833757 0.001608524 0.027489627 -0.0025413206 0.0018400956 -0.040664006 -0.026325239 0.00459868 0.041606393 0.03266019 0.029198209 0.051473226 0.009649325 0.043551996 -0.05083526 0.021213522 0.033400353 -0.009913413 0.023244426 -0.02690751 -0.04168022 -0.028168663 -0.04623104 -0.0039796084 -0.05157881 0.013808624 0.025243087 -0.014601914 -0.020535761 -0.055363607 0.056000233 0.04637105 -0.009292788 -0.03101647 -0.08117027 -0.016103752 0.017573351 -0.058084786 0.0047608363 0.039127216 -0.021178909 -0.053838685 0.011588319 0.008867406 -0.010242428 -0.0108794235 0.015980942 0.002653803 -0.022236343 0.024658602 0.0021142391 0.036371503
-0.024382735 -0.07690461 -0.02362629 -0.031968992 -0.0013076056 0.01995555 0.02944129 0.038862858 -0.035640873 0.0444839 -0.044955928 0.0017093658 0.08046101 -0.007383872 -0.02223354 -0.041750465 0.013705733 -0.0035114568 0.0106367525 -0.021216877 -0.029217767 0.027549332 0.08668434 0.050882366 -0.037614603 -0.0046463907 -0.043295108 0.086851545 -0.08979974 -0.06397456 -0.028080316 0.0018600206 0.023058143 -0.00052192283 0.034698986 0.0072727497 0.031515133 -0.032372642 -0.0041366583 0.012258057 0.008964303 -0.11062345 0.029068762 -0.018627308 0.016334394 -0.02964198 0.0012063916 -0.04077463 -0.029932639 -0.05361284 0.015672384 0.0013085969 -0.13451764 -0.06137858 -0.025872568 0.018061042 0.005194465 0.035116818 0.05088421 -0.049064785 0.020302638 0.028941717 0.022941314 -0.019791586 -0.04709836 -0.025777694 -0.01280059 0.07089506 -0.08538382 0.015483466 -0.057407916 0.039476324 -0.0075717755 -0.033094168 -0.06277342 -0.13547638 0.022296859 0.03159226 -0.06683113 -0.058967385 0.02103914 0.042923227 0.07144286 -0.013017932 0.010764795 0.0065639084 -0.06264393 0.03361975 0.018008526 0.051877577 -0.12110272 -0.031565588 -0.1548203 -0.09775709 -0.011297611 -0.0955655 0.036781605 -0.043851767 -0.04816351 -0.036606915 -0.06430572 -0.0047810297 -0.05242827 -0.023584047 0.0020527062 -0.078145824 0.049409498 0.07275188 -0.10046328 0.08699539 -0.06041583 -0.08248425 0.024519099 -0.046603 -0.013938171 0.049205992 0.04699784 0.04179642 0.06600783 0.00811811 -0.07940754 -0.05181847 -0.06505831 0.025864575 -0.011773176 -0.007636107 -0.023853071 -0.037826516 0.06397831 -0.03919457 0.08529981 0.021565763 -0.09948993 -0.044116963 0.019655952 -0.037003912 0.025058832 -0.033458106 -0.10393591 -0.009990827 0.05760823 0.032057706 -0.03387631 -0.018778004 0.011531054 -0.13486683 -0.04827462 -0.0051338263 -0.051039986 0.012547491 0.02470658 -0.2332795 0.020384269 0.027485386 -0.061758924 0.013231649 -0.028161263 0.06948076 -0.048697457 -0.07075241 -0.029126618 -0.055921257 -0.0020360593 -0.016299661 -0.035074573 -0.011117036 -0.022424214 -0.087618604 -0.018610159 0.008915324 -0.030745365 -0.0773478 0.04353999 -0.080085196 -0.055243704 -0.21245061 0.00709181 -0.048424378 -0.0016065405 -0.0045760376 -0.11452958 -0.036311995 0.06347417 -0.04823352 0.033260845 -0.098131336 0.052459706 -0.008676799 0.06339658 -0.038171064 0.008292768 -0.007302891 -0.026527721 0.024738235 0.014887419 -0.044064764 -0.02621889 -0.043904122 -0.107510075 -0.070093066 -0.13256773 -0.033636466 -0.051277537 -0.0810935 -0.057806525 0.01117042 0.015136219 0.023380985 -0.07001546 -0.025812447 -0.08124785 0.024225475 0.015253166 -0.02480575 0.0060288813 -0.00062838267 -0.0028388698 0.069223665 0.00944793 -0.010700494 -0.006017354 -0.03372251 0.09062278 -0.028828703 -0.030912424 0.044400454 0.0012468231 -0.04247653 -0.052410632 0.005214226 -0.0047703986 -0.04448413 -0.121621825 0.010539382 0.03692008 0.03358055 0.02472128 -0.020261694 -0.017878355 0.024067251 -0.074700296 -0.030026186 0.064361185 0.03131369 0.01951119 0.03316729 0.06043153 -0.13024737 -0.046091825 -0.0041469876 -0.008482781 0.09755089 0.03460032 0.06013117 -0.12712312 -0.06378036 0.041655224 0.08176298 -0.17019269 -0.078208454 -0.058945023 0.04019251 -0.06619622 -0.10896509 0.03491469 -0.023558423 -0.1377089 -0.03776769 0.033174857 0.033191346 0.058883574 -0.05150443 -0.12528108 0.038989272 -0.035124943 0.06175916 0.15914747 0.034531344 0.027583757 -0.027901376 0.05590068 0.0014012139 0.024628133 -0.05802408 -0.0031582094 -0.049659602 -0.011518537 -0.051905636 0.030601887 -0.0910171 -0.090621255 0.02942298 -0.02478097 -0.016382977 -0.009153587 0.012705918 -0.05185553 -0.008645122 -0.007482463 -0.0510947 -0.0101262815 -0.0018529437 -0.06402506 -0.027362451 0.011107184 -0.049536657 0.051769324 -0.042462192 0.03554785 0.037420932 -0.049496178 0.0457826 -0.07565429 0.011586788 0.03960338 0.023678977 0.006887435 0.032926187 -0.050190598 0.086927585 0.0333402 -0.086833365 -0.016197372 0.014632963 -0.04898982 0.111659594 -0.024397692 -0.052782316 -0.043094717 -0.051209375 0.008039318 0.005019528 -0.13687968 -0.041923385 0.0036384594 0.0814206 -0.11170825 -0.085515216 0.011385339 -0.03675584 0.011961109 -0.02746552 0.048591718 0.087260984 0.019382909 -0.0038516603 0.0069243186 0.07222267 0.007442886 0.041934635 0.044439465 0.0007025047 -0.0273816 -0.035027143 0.08349527 -0.07869551 0.027237192 0.013781094 -0.041805666 0.02707318 -0.009561595 -0.10399441 -0.03273282 -0.09885075 -0.054776322 -0.010025726 -0.04705954 0.029200373 0.005320426 0.049489755 -0.06912175 0.020458272 -0.092053 -0.006465754 -0.09372126 0.021122312 -0.04197646 -0.053495113 0.03428151 -0.08766679 -0.116684064 -0.08051887 -0.04667651 0.06833465 0.116564155 0.0015820613 -0.13226764 -0.05415282 -0.02915679 -0.011468154 -0.07228217 -0.03521873 -0.108520776 -0.029076803 0.025853377 0.112251684 -0.13141312 0.04903383 -0.16002496 -0.015670635 0.029892417 -0.008841884 -0.056372955 0.011213932 0.002577345 -0.08532232 -0.010094518 0.0419152 -0.036126066 -0.022169396 -0.029759834 -0.022260563 0.027914377 0.010174055 -0.09000767 0.073308825 -0.012730469 -0.0014220744 -0.15540686 0.019561257 -0.13198085 0.051346604 -0.02964642 -0.020366881 0.06627807 -0.08030661 0.009286405 0.025625013 0.01096454 0.09272329 -0.021567177 0.044772264 0.0003476583 0.022764225 0.06830788 6.609012e-05 -0.024542231 0.03679805 -0.096240915 -0.08640184 0.08532955 0.0050336746 -0.0053377026 -0.07112963 0.025689328 0.00069569366 -0.036267165 0.0012205596 0.07767915 -0.09308592 -0.09001356 -0.016761929 -0.06637018 -0.042351756 -0.22363001 -0.060788393 -0.017183466 -0.03994302 -0.010955276 0.008262243 -0.021576852 -0.08346624 0.044524897 -0.022440245 0.01167981 0.12318333 0.04089524 0.026926985 -0.01578446 0.013416354 -0.01843711 -0.15125804 -0.025905468 -0.07523466 0.07200866 -0.048620712 0.045756366 -0.002251971 -0.013137181 0.044416614 0.027426612 0.030734736 -0.05885002 0.0468226 -0.035352718 -0.020039089 -0.04542795 -0.010603524 0.035051942 -0.03229586 0.038081344 0.01599276 0.07035198 -0.035140187 0.018812373 0.07213003 0.04870642 -0.022314968 0.029271893 -0.048014782 -0.035061028 -0.023754345 -0.030718574 -0.0926929 -0.092521064 0.017130502 -0.02153945 0.027621763 0.01434714 -0.13261978 -0.006413925 0.0727539
-0.007970431 -0.014713692 -0.035817634 -0.0062773237 0.024772596 0.07410804 -0.018498257 -0.010821548 0.0015457509 0.0008664346 0.044593632 -0.074253 -0.0102545535 -0.0902319 0.018599408 -0.032906346 0.037368108 -0.04334529 -0.026642572 0.0057356763 0.03346203 -0.03374413 -0.08423326 -0.0043166196 0.05552035 -0.035823338 0.0049833744 0.0024485455 0.013253018 -0.024557818 0.01394482 -0.0102961 -0.033748485 0.0059088343 -0.012492735 -0.020623252 0.0443376 -0.011518775 -0.017723696 -0.010874996 0.017255615 0.005860303 0.049041715 -0.04753928 0.0035060772 -0.038510513 -0.051819813 0.015255486 -0.014984447 -0.012174503 0.01226097 -0.036334977 0.005481913 -0.03779472 -0.048983924 -0.02747866 -0.06364359 -0.046889696 0.008882698 -0.013760162 -0.0283462 0.039128415 -0.032871157 0.03311351 0.02916377 0.03782776 0.024538964 -0.05443454 -0.0027870184 0.023325345 0.024819274 -0.036348123 0.022391645 -0.008152972 0.041491095 -0.026950154 -0.015545598 0.006089298 0.07063508 0.024192689 -0.050939873 0.008864513 -0.04860857 0.031647306 0.084313616 -0.011314303 -0.03487022 0.024854654 0.016742567 0.021368748 0.064039335 0.008191806 -0.09951488 0.03163768 -0.025499754 0.004182622 0.013932854 0.023499785 -0.02980614 0.01612973 -0.038282525 -0.022499766 -0.018488705 0.026619835 -0.028673245 -0.03764402 0.029149188 0.002735679 0.013959945 -0.027278572 0.01885452 -0.051777612 0.055170305 -0.014165711 -0.0041586147 -0.021843398 0.022173565 -0.016327405 0.053932723 -0.048032325 -0.023157079 0.058754742 -0.004547426 -0.03337508 -0.0403456 -0.07185096 0.038019568 -0.0004109146 -0.01782685 -0.079344414 0.07422025 -0.07620457 -0.06690307 -0.036305487 -0.010845173 -0.01250777 -0.06995142 0.024199111 -0.008838817 0.07082569 0.031669002 -0.046759542 -0.016557109 0.025100768 -0.02279843 0.027104113 -0.015128883 0.020609822 -0.04654009 -0.009830112 -0.026975676 0.040048465 -0.03079341 -0.044421606 0.01446781 -0.05094448 -0.028922355 -0.0038629547 -0.06662669 0.06518228 0.060701 -0.07677168 -0.04088876 -0.07472074 0.0519835 -0.07138719 -0.019148208 0.0031364113 -0.024245838 -0.0022046159 -0.04223739 0.036539916 -0.031225894 -0.031362526 0.01509726 0.0782944 -0.014140199 0.053147152 -0.0029093549 -0.056955047 -0.039893318 0.03230146 -0.022182679 0.0059553473 0.03299393 0.022902356 0.016676025 -0.024458693 -0.0049296105 0.04651334 0.04758314 -0.040662996 -0.030050881 -0.007958353 -0.06736277 -0.04394465 0.05383308 0.10392237 -0.06270163 0.05486234 0.03249617 0.013983266 -0.0073531116 0.12256869 0.076903954 -0.030842155 -0.005082834 -0.039721224 0.04567416 0.018482743 -0.035964 0.0023070727 0.044197418 0.022466533 -0.0293384 -0.043908015 0.04538728 -0.0028301822 0.043747414 -0.0005548341 0.001669216 0.018508814 -0.06833892 0.0010071262 -0.008755848 0.008794443 0.008699141 0.023954544 -0.0023019605 0.079625554 -0.020768242 -0.04521092 0.08722384 0.07246444 0.031616114 0.004354727 0.04340183 0.0016907494 0.0076514147 -0.0084801195 0.028408164 -0.009193456 -0.009769271 0.039548457 -0.026088256 0.040239595 -0.021765934 0.041661747 -0.011223227 0.040354636 0.03507478 -0.0170779 -0.04809971 0.025493605 -0.08031993 0.01627454 0.006110746 -0.0037150192 -0.006373149 -0.02681479 -0.048035953 0.057201393 -0.01275886 0.106010616 0.009818417 0.018735934 -0.0647527 0.011322239 0.019429857 0.060596824 0.03449832 -0.05371619 -0.05337281 -0.014500025 -0.020254208 -0.007182664 0.04543182 -0.010448341 -0.065683484 -0.0321186 -0.032748416 0.0038522948 0.065685175 -0.06166331 -0.06226453 -0.009379235 -0.00974623 0.007901384 -0.07156297 0.030418763 -0.062431335 -0.00028118576 0.025183737 -0.034960292 0.0019252945 0.005787687 0.025645385 0.032830935 -0.06198813 0.02242235 -0.018984333 -0.021179263 0.028629215 -0.021490026 0.014958699 0.054701854 -0.029991511 0.04423104 -0.043387983 -0.04171752 0.03586254 -0.030681362 -0.051299818 0.074404 -0.055933636 0.03537412 0.030802373 -0.004901449 -0.021094775 -0.041689876 -0.012310876 0.07770068 -0.013560793 -0.029010586 0.027706826 0.0040847263 -0.106527515 0.07167136 0.00865351 0.015110769 -0.010819708 0.046143055 -0.016672844 -0.0045739063 -0.03670957 -0.028221997 -0.02180291 -0.03143181 -0.004051171 0.07742622 0.037419677 -0.06706693 -0.05748435 -0.09401835 0.0026150981 -0.0072947876 -0.01833434 -0.031547405 -0.04744482 -0.016201729 0.029116578 -0.00016480652 0.0068337424 -0.031187637 0.00963204 0.035067018 -0.009023618 -0.043880634 0.0002732186 -0.017678678 -0.03897052 -0.0011172753 -0.0018364168 0.04515158 0.021835824 -0.024929063 0.04445972 -0.0017348774 0.020846512 -0.056205794 -0.008885084 -0.051588498 -0.08787849 0.023448076 0.052067712 -0.03982296 0.0027487278 0.07688454 -0.024508346 0.062421877 -0.037408303 -0.035889912 -0.00347405 -0.03968286 -0.04876445 0.027669176 -0.05549454 -0.0017138323 -0.025112078 0.017632827 -0.0137610715 0.0044143754 -0.08204705 0.060521252 -0.06126288 0.0020452426 -0.016594993 -0.033961732 0.05677313 -0.02191767 0.007960728 -0.05481421 0.0010351007 0.0058153253 -0.01812635 -0.004208651 -0.029813595 -0.06103004 0.020060208 -0.089181304 0.034154743 -0.022138478 0.07061817 0.047922216 -0.029659946 -0.02716364 -0.005208847 0.0674393 0.039181087 0.021746967 0.011650936 -0.04382417 0.01817635 -0.041125458 0.061531194 -0.024785984 -0.047194414 0.0015039771 -0.031351216 -0.008946187 -0.059823092 0.0019400225 -0.038516987 0.00015217286 -0.0045354683 0.0025478366 0.010021682 -0.013904539 -0.01636304 -0.039735824 0.057152573 -0.02534347 0.07132843 0.055788815 0.0420774 -0.017749924 0.059172332 -0.054114193 0.015235898 0.029614989 -0.0153830815 -0.07238586 -0.0272137 -0.016017083 -0.032625988 0.06333477 0.017737737 -0.058712997 0.04462599 -0.021517133 0.03672658 -0.039966784 0.018035136 0.020530637 0.011735594 -0.05020652 0.03177414 0.031106811 -0.029493049 0.006656372 -0.01259135 -0.04987151 -0.037977044 0.025706284 -0.010175669 0.055038717 0.002640972 -0.029845212 -0.01575119 -0.03910379 -0.023838632 -0.04448955 -0.020997075 -0.006131347 0.035212222 -0.079935126 0.048571676 -0.03898895 0.0077385213 0.008819942 -0.054833677 -0.0045945733 0.0010555001 -0.020837445 -0.008376049 -0.02814693 -0.036130138 0.08271519 -0.006136819 -0.012226105 -0.009886362 -0.07285676 0.07230471 0.004990086 0.06548097 0.036269404 -0.051056962 -0.017101265 0.0054030605 0.06941889 -0.06959226 0.06627736
0.0035510075 0.023348322 -0.013452207 -0.024456404 -0.020567834 -0.05267549 0.043005362 0.036519162 0.055725705 -0.04625007 -0.02801076 0.005981258 0.034480587 0.001469671 -0.03544559 -0.0034337426 0.002055332 -0.017701631 -0.021621134 -0.014784248 0.06004769 0.005609505 0.018566856 0.043305624 -0.023289334 0.02370955 -0.02035637 0.032595452 0.034972552 0.051410634 0.027192956 -0.012471112 -0.02215979 0.0038795017 -0.03130555 0.03288875 0.016148338 0.0006255139 0.010715502 -0.0007943287 -0.0076437662 -0.014783351 -0.05341677 -0.043575656 -0.027711477 -0.039225172 0.049027845 -0.0038623938 -0.048014328 0.0033199366 0.015175904 -0.003851165 0.016395124 -0.0059954873 0.006381217 -0.008944517 0.02318461 -0.049184423 -0.009516311 -0.011671454 0.049203373 -0.0065454207 0.037349746 -0.027000744 -0.002503994 -0.0010018625 -0.016139995 -0.004029974 0.0039241454 0.00038207223 -0.041203 -0.010273995 0.008589712 0.018394312 0.012178114 -0.007093028 0.045718003 -0.025730234 0.019964421 0.004998642 -0.024930969 -0.018504981 -0.0034348748 0.018931096 -0.0018310968 -0.026547223 0.035606276 -0.016566813 0.0067198994 -0.030498073 -0.04264219 0.012900604 0.011709952 -0.021997415 0.020302301 0.021622216 0.0170323 0.0073671034 0.013770711 0.0049898718 -0.01652399 0.038814392 0.0041218502 0.02849085 0.016137706 0.0054379404 -0.044141777 -0.018633649 -0.013491389 0.013776593 -0.06688346 0.018302731 0.047090665 0.0089535415 -0.0353155 -0.08280902 -0.032098033 -0.0027775143 -0.05369628 -0.0038608199 0.0045501213 0.032616973 0.0065866313 0.02074107 0.011963059 -0.040450133 -0.035048425 0.014046726 -0.07687469 -0.007868045 0.015897803 -0.0155478725 -0.055147666 0.04274664 -0.06411233 -0.016144626 -0.065079935 -0.022684315 0.011271941 -0.019873055 0.025914777 -0.059180353 -0.044120237 -0.019731743 0.028783308 0.01698911 -0.016479643 -0.06673965 0.025014695 -0.0024643552 0.02769477 -0.0036254541 0.021387532 0.019088617 0.009492319 -0.024325171 0.0012355589 0.0048414543 -0.0098719755 -0.018083343 -0.038047247 -0.0071194703 -0.0039367094 0.0042204494 0.003827385 -0.03802426 0.041338857 -0.035128124 0.007485209 0.0048810826 0.0033550938 0.03443931 0.053171884 0.020943351 -0.03742025 0.0013198857 0.0021340074 0.0049062297 -0.0015879609 -0.018437782 0.0019895895 -0.05518736 0.005004526 0.030505167 0.03873512 0.047345266 -0.014151973 0.00788398 -0.021475738 0.035883103 0.034425694 -0.029676024 -0.003344104 0.04423652 -0.0019703228 -0.05830243 0.018781748 0.0068374 -0.032153495 -0.0019636066 0.05007307 0.0016604456 -0.03866365 0.03897524 0.023149453 -0.0028746913 -0.0076959706 0.039489742 -0.018956337 0.029520486 -0.03662711 0.021132257 0.024637623 -0.031271506 0.0071034348 0.012318475 0.004368643 -0.013765527 0.018617762 0.05612945 -0.044038787 0.019135945 0.05960771 -0.008109882 0.005687857 -0.012968067 0.06688542 0.0077601396 -0.022120183 0.03560052 -0.010308739 0.032221336 0.029433135 -0.025607357 0.011493993 -0.054319546 0.0107307 0.018652026 -0.046600707 0.021990925 0.01532432 0.029189402 0.0017380253 -0.0076397955 0.0118591655 -0.020013064 0.026974965 0.04001947 -0.048067026 0.022182208 -0.03923375 -0.008295936 0.008946009 -0.009606607 -0.08275884 -0.01116046 -0.0052985055 0.004724151 0.0256751 -0.040689033 0.001427532 0.017589472 -0.015578484 -0.008659639 -0.0075781955 0.03454831 0.0017756354 -0.015868817 0.03152005 0.015919382 0.022441626 -0.037517272 -0.0121510625 -0.024968859 0.081780784 0.042034924 -0.026740216 0.047669105 0.011808269 -0.0355104 0.05427046 0.066037074 0.010739089 -0.02254883 0.020949446 0.05523466 0.016943835 0.051397815 -0.028898904 0.01465116 -0.04919856 0.047455337 -0.0011710658 -0.0038757396 0.019057851 0.024209375 -0.017806498 -0.0026936766 -0.0026507748 -0.029575335 -0.018149283 0.012610305 0.021214345 -0.03087218 0.0033912514 -0.03696114 -0.020275751 0.021087725 -0.009025299 0.012438101 -0.01984899 -0.016118282 -0.010691058 0.016333977 -0.00087289064 -0.047878653 -0.0057950555 -0.010313361 0.012638044 0.030923238 -0.048876002 0.030171601 -0.017669225 -0.027496103 -0.0001746685 0.016957752 -0.027063696 -0.009383453 0.029513285 -0.01723914 -0.073255554 -0.032201007 -0.032486755 -0.05864185 0.021273848 -0.014271942 0.020424062 -0.02688746 -0.01667292 -0.022035822 0.023952635 0.027599484 0.01247202 -0.014978537 -0.018709619 0.029675443 -0.058012 0.025326101 0.030260943 -0.008776291 -0.040692743 0.0038059568 0.013749944 0.014392665 -0.009213639 0.03355108 -0.009641505 -0.00803346 0.017826864 0.051152173 -0.022901453 -0.045961708 -0.011850591 0.025855396 0.014831235 -0.020767473 -0.011490568 0.033772126 -0.022517595 0.002216514 -0.024716584 0.010712823 0.055979818 -0.031131476 -0.040768355 -0.028719366 0.014245098 0.022035416 0.016136976 -0.06194303 -0.012770871 0.016707439 0.011585557 -0.013755796 0.021641916 -0.0010809773 0.027789284 0.018764392 -0.012793732 -0.02467095 0.043908115 0.010753461 0.008253406 -0.02298167 0.014069597 0.027334433 -0.0055215745 -0.022574648 0.051656842 0.038082093 -0.040963035 -0.0031535928 0.049974475 -0.04255245 -0.021668036 0.026498282 -0.01705689 0.023401031 -0.0048774984 0.031891484 0.07294891 0.040584426 0.04254208 0.012564683 0.030706242 -0.0134510575 -0.009302232 0.046435818 -0.015740653 0.023938933 -0.030536676 0.000949776 -0.012925572 0.0020769266 -0.05685889 0.0076339464 -0.031649828 -0.026304046 -0.049060576 0.03509293 0.01546348 0.0386792 -0.012582162 0.005166841 0.045292005 -0.01161325 0.025083413 -0.010427524 0.019621504 0.040577687 -0.01726417 -0.05062258 0.019970102 0.04275944 -0.005787874 -0.020868827 0.019730713 -0.013127746 -0.00043649072 -0.010350176 -0.014596882 0.017820965 -0.006009731 -0.02693127 -0.036665514 0.0009425238 -0.01099996 0.077952966 -0.04955068 -0.011252578 0.01748294 0.0037877401 0.09224948 -0.009687445 0.057099774 0.02875876 -0.036765322 0.012797156 0.022804817 0.0036091555 0.04060624 -0.039147098 0.0035995112 -0.03253997 0.011732755 0.035818543 0.010728847 -0.04523456 -0.02812563 -0.064456545 0.08841908 -0.058293145 0.004492686 0.033564523 0.022731341 0.026981365 0.04946044 0.019364122 0.013788775 -0.03489313 -0.016684355 -0.047429588 -0.039716333 -0.020302087 0.036300782 -0.018361941 0.0049871835 -0.017662637 -0.052408446 -0.05439648 0.053232875 -0.010434135 0.0506568 -0.011497478 -0.021737063 -0.010440404 0.027596071 0.018576723 -0.006016111 -0.018597422 0.041012138 0.0035904888
0.0825881 0.00086307124 -0.0036627613 0.021564512 -0.022901474 -0.04866191 -0.0004869857 -0.026602378 -0.05697508 -0.037163112 -0.024660002 -0.12242829 0.008786456 -0.036613088 0.055042006 -0.05858542 -0.028962702 -0.013772471 0.082782246 -0.07921098 0.03564124 0.044773486 0.013540532 0.021087024 0.027840583 -0.048699744 0.027804568 -0.07249622 -0.022781773 -0.0061772247 0.011226479 -0.016127406 -0.020686503 -0.026580993 0.061404254 -0.05519922 0.029168746 0.06211147 -0.061731026 -0.0054845437 -0.0025234066 0.063483715 -0.048660994 0.024793096 -0.002961998 0.014195798 0.025327293 -0.07231069 0.03052333 0.020338314 -0.062326506 0.0047644894 0.024914954 -0.0094399275 -0.1483722 -0.006026169 -0.036823694 0.078536905 -0.0417262 -0.11040155 -0.1070415 -0.045222834 0.0533543 0.047077976 -0.02214489 0.033738155 -0.035364546 0.045117684 -0.033441115 -0.0018757029 -0.02982625 0.042238377 -0.027881015 -0.00018446948 -0.0071222666 0.039002348 0.0063286005 -0.11532768 0.0034186207 -0.00923691 0.06765087 -0.060505595 0.005217398 -0.04294651 0.020611316 -0.005689266 0.0013205985 0.027537132 -0.061489716 0.028934628 -0.07216549 0.039198842 -0.021779535 0.020446612 -0.07689036 -0.012164336 -0.020938898 -0.038473528 -0.039711054 -0.011431936 -0.012034227 0.030302167 -0.050967544 0.017340545 -0.022756092 -0.028173942 -0.035517592 0.02917142 -0.0029108662 0.009448007 0.035664406 0.04451086 -0.054562166 -0.038264763 -0.07471957 -0.011809671 0.018901365 0.04021192 0.004970167 -0.020884046 -0.014964863 -0.034163598 0.003297527 0.017588714 -0.02047546 0.007736451 -0.06460152 -0.020498693 0.06321828 0.026394188 0.007521688 0.050362527 -0.07765719 -0.0018409777 -0.0062382724 0.06374142 0.041712347 0.028588368 -0.052871507 -0.016442003 -0.007973748 -0.021321647 0.04564979 -0.032739308 -0.011215549 -0.09145125 0.02809024 -0.021076905 -0.031153895 0.072817564 -0.005693336 -0.0076586986 0.019349063 -0.020256814 0.058456134 0.04227398 0.037210856 -0.037764743 0.07227557 0.026143545 -0.002650208 0.070672534 -0.026094357 0.022296792 0.025717115 0.032456897 0.025568211 -0.008740791 -0.035094753 -0.009353812 0.032284837 -0.024978895 -0.03631991 -0.1093921 -0.048066787 -0.04137958 -0.0035845265 0.009315059 -0.057627756 0.010435978 -0.024018237 -0.035159905 0.03646177 0.03976197 0.004105206 -0.08305961 0.025291305 0.012145887 -0.11795129 -0.051641434 0.0135103855 0.016835349 -0.017818613 -0.049591903 -0.048201166 0.012306051 0.00087350036 0.01784934 0.07348143 -0.07291163 -0.022317393 0.04446995 0.013088335 -0.055650305 -0.0338842 -0.0013215163 -0.018265592 -0.013914062 -0.0073171672 0.044383343 0.0028279505 -0.00829243 -0.10722587 0.06965962 0.018004738 0.009194538 0.05967331 0.015144174 -0.10317071 -0.03402386 0.059122726 -0.020736028 -0.028662898 -0.018554844 -0.060389757 -0.028394897 -0.05387877 0.03905796 0.040033374 0.010505286 0.036968786 -0.040586337 -0.07906815 -0.004708896 0.0019817413 0.056473974 -0.056383234 -0.032588992 -0.005194885 0.014274485 0.0376409 -0.04906678 0.008251775 0.005554891 -0.046258643 0.013006441 0.014744003 -0.06431366 -0.004313025 0.028376633 0.015330622 0.021005053 0.06395714 0.030523302 0.0019016614 -0.037677918 0.06871294 0.102205336 0.05760591 -0.015464344 -0.011530419 -0.03190599 -0.02459282 0.027956976 0.007845291 -0.0247095 0.01666878 -0.04499799 0.006440561 0.04163722 0.04215109 0.054334424 -0.060510132 0.019599672 -0.10688497 0.04827873 0.013228044 -0.039416157 0.010512536 0.008162081 0.04338729 0.019312957 0.017754326 0.0021169435 -0.06420623 0.024112336 -0.03407096 0.019044671 0.00017556583 0.044803698 -0.023660861 -0.014671191 0.026677793 -0.03799826 0.043542247 -0.005395424 0.0065263086 0.054219928 0.055473022 -0.054870926 0.022511058 0.052811425 0.05083766 -0.0940224 -0.115121625 -0.0040311366 -0.03603432 -0.05696843 -0.09505403 -0.047679674 0.00031705308 -0.015306485 -0.040549178 -0.0037629378 -0.05661578 -0.04836086 0.053231522 0.014393692 -0.010109582 0.061590243 -0.02758387 -0.0075799674 -0.039208736 0.08392445 -0.10670615 -0.0749235 -0.0019570957 -0.0750734 -0.012899698 0.010758674 -0.022082245 -0.022512272 -0.04138441 0.0053491783 -0.032674775 0.029999956 0.059783265 -0.041435454 -0.027366083 -0.048623115 0.015440791 -0.089035526 0.010678205 0.03388604 0.0104804095 -0.015164161 0.0025807477 0.015414068 -0.02649099 0.017733669 -0.050570246 0.028171374 -0.05774215 -0.041071292 -0.019269502 0.0067197727 -0.05636059 -0.0064281286 0.04299537 -0.09617276 0.047573045 -0.05272228 0.068424925 -0.045277316 -0.05771792 -0.037688676 -0.040202197 -0.050052334 -0.051407196 0.015511665 0.079009056 0.07372161 -0.005528881 0.0787062 -0.0073446757 0.0249204 -0.010581048 0.039813746 -0.034174096 -0.089920044 0.026330022 -0.028930673 -0.029208057 0.009059361 -0.011020098 -0.021830497 -0.00046874935 -0.09949814 -0.0021228679 0.053564098 0.001968299 0.05005797 0.0071024974 -0.013685334 -0.032251522 -0.019237466 -0.005268596 0.04444202 -0.10802819 -5.7385246e-06 -0.078250214 -0.060761865 0.039742433 -0.031946037 -0.06422711 -0.084346555 -0.018642642 -0.007770577 0.0763053 -0.062184986 0.00044387678 -0.018975005 0.032322474 -0.012423679 0.025063433 0.040783327 0.035005383 0.054009654 0.01447802 -0.015365332 -0.060044978 -0.04863451 0.022599472 0.009830206 0.054093007 -0.04015654 -0.050309077 0.01572026 0.021924589 -0.032824352 -0.014019945 0.03209525 0.020152671 -0.045015756 0.087645136 0.013951647 0.03014501 -0.025125045 -0.020662282 0.018599832 -0.016660878 8.546048e-05 -0.07035348 0.030807655 0.039340068 -0.009006392 0.037773095 0.02331453 0.024206622 -0.0656916 0.04630101 -0.05988364 -0.002893009 -0.06549962 -0.035989 -0.037183955 -0.017984882 -0.07505259 -0.07817935 -0.047037132 0.05511923 -0.044752516 -0.046922736 -0.056210164 0.017293658 -0.0016516875 0.0012410035 -0.030616572 -0.0015598529 0.075972386 0.028745774 0.06632058 -0.02824786 0.05403644 0.008680894 -0.047853403 0.02092506 -0.007854676 -0.055374727 -0.037938666 0.011967985 -0.004510314 0.042108063 0.008228654 0.02539238 -0.08035891 -0.01449121 -0.06113734 -0.102531485 -0.028864203 0.03187042 0.016370263 -0.06653803 -0.041483544 -0.037475627 0.013184244 -0.011219125 -0.018656608 -0.052190628 -0.014208518 0.023995876 -0.07577993 -0.020770362 0.006464456 -0.046454992 0.02312018 -0.02020423 0.006743914 0.035494734 0.009333557 0.03513955 0.032225642
-0.046433087 -0.03040906 -0.068631336 -0.14986049 -0.0065211253 -0.1003928 -0.040786337 -0.010756933 -0.11398258 -0.036309607 -0.17947954 0.104077496 -0.0025203878 -0.074964285 -0.018252691 0.023020571 -0.016816845 0.019034952 -0.018709186 0.0062865987 0.059526682 3.5513972e-06 -0.069083646 -0.037130054 -0.082864664 -0.03066827 0.12711005 0.0682633 -0.021704406 -0.1092017 0.0092715705 -0.058158673 -0.05996232 -0.011740842 -0.018330976 -0.058658615 0.016763685 -0.060097344 -0.03131655 -0.035660762 -0.033088237 0.023827698 0.052281965 0.01355511 -0.021806108 -0.067628786 0.0358708 0.025279403 0.02297624 -0.02253237 0.032762665 -0.067781694 -0.055823527 -0.04755143 0.0073973667 -0.009655685 0.09784169 0.014347484 0.0023793073 -0.14104025 0.07886441 0.019914588 -0.018200321 -0.012625785 -0.0056235204 0.018443247 -0.045567065 -0.061749693 -0.03753967 -0.05603036 0.00501322 0.051768616 -0.05434056 0.040480427 0.0047870753 -0.022084769 -0.030899562 -0.07263734 -0.0070732604 -0.122665025 -0.039633457 0.0027110132 -0.005425432 -0.15915747 -0.03888094 -0.040463634 -0.031841192 0.028608715 -0.072515 0.06318054 0.010147887 -0.0064637484 -0.1027519 -0.024364704 -0.09494337 -0.034365606 0.007091001 0.029078774 0.016573185 -0.040355068 -0.0041297525 0.02118953 0.01115538 -0.062981635 0.049040552 -0.012428758 0.043044005 -0.09218117 -0.04541814 0.11471392 0.00031199813 -0.039745893 0.056142885 -0.13606769 -0.010456691 -0.041828603 -0.09455919 0.027550558 -0.14328355 0.0630213 -0.05691527 -0.016126892 -0.02651352 -0.05653388 -0.009925115 0.029711293 -0.027878426 -0.011339593 -0.01669489 0.063611455 -0.14201494 -0.079569094 0.0053182165 0.040587246 -0.08271588 0.067457534 0.00091922405 -0.086901866 0.053766634 0.02408208 -0.064800605 -0.04481501 0.014351049 0.00088529225 0.054644257 -0.001995496 -0.11553855 -0.0156374 -0.025257664 0.043736227 0.053209428 0.0513591 0.02422851 0.033511788 0.011307658 -0.04012674 0.042102523 -0.06294647 -0.013315657 0.026016202 -0.009719227 0.07730286 0.027414165 -0.0363203 0.0062974542 -0.019795027 -0.02757705 0.06578535 -0.059804454 -0.07898644 0.007981704 0.0046157697 0.020037971 0.0631076 0.040580872 0.014770939 -0.020776676 -0.11543662 -0.09604876 -0.046461336 -0.12318983 -0.012199808 -0.06126462 0.03533763 0.011678529 -0.059856635 -0.037608612 -0.01620927 0.057250295 0.011835242 0.04307981 -0.1086892 0.014531086 -0.10697378 -0.13860321 0.009336237 0.007816962 -0.0186023 -0.053043548 -0.021837573 -0.051724974 -0.07856678 0.03936459 0.07106649 -0.13919576 -0.18106423 0.026282156 0.03059207 -0.07905245 -0.024713548 -0.0746588 -0.005250222 0.024482615 -0.015979456 0.036761247 0.061555907 -0.07349297 -0.053106397 -0.08620597 0.006563669 -0.008831415 -0.074099384 0.06270621 -0.071773574 0.078490146 -0.034445383 0.07250206 -0.01665796 -0.057497352 -0.005157413 -0.013253992 0.038201634 0.024548057 0.045047477 -0.08601921 -0.13288485 0.1092357 0.061226316 -0.12692149 -0.023247898 -0.026457911 -0.055530354 -0.09461338 -0.18023783 0.041450065 0.013091399 -0.0937856 0.014627554 0.007994501 -0.064451784 -0.040933676 0.018940788 0.041574534 -0.082522266 -0.009821885 0.113507874 -0.057027593 0.010522924 0.0008302302 0.001474019 -0.0051302146 -0.0996149 -0.02522335 -0.08643987 0.024105739 0.0053610383 0.004581556 0.031895272 -0.043697134 -0.011829066 -0.0019747599 0.0096566 0.061938126 -0.0010619138 0.013832485 -0.024105785 0.08306653 0.10271916 -0.066643395 -0.0055269753 0.025389161 0.014809563 -0.0019792349 -0.093729906 -0.037801117 0.04919081 -0.0006464429 -0.034974627 0.06887094 0.042474292 -0.057855707 0.07828789 0.018457893 -0.028634781 -0.06590281 -0.019419225 -0.06409148 0.06846254 0.037620824 -0.100273624 -0.093767464 -0.068730325 -0.08715764 -0.054471467 -0.015158636 -0.010013899 0.033330623 -0.19158904 -0.0631226 -0.001962834 -0.061390415 0.00572818 0.0082112355 -0.030875463 -0.033340942 -0.0021094705 -0.04548767 -0.021589588 -0.081825085 -0.034157407 0.03467863 0.051520128 0.06899437 0.008482925 -0.011425462 0.0054001063 0.07575268 -0.06960037 -0.017912215 -0.09745337 0.10057353 0.014778575 -0.04780382 -0.021313973 -0.009218156 -0.16306083 -0.05075162 -0.2039589 -0.09200781 -0.04836393 -0.036304314 -0.092035994 0.028679002 0.003320974 -0.037341297 0.03452865 -0.018923981 0.027251806 0.007493674 -0.107527845 -0.11584963 0.048588518 0.017712211 0.07250097 0.039161447 0.040156897 -0.021567505 0.016661769 -0.050962202 0.070585415 0.040848423 0.010945452 -0.0006445948 -0.097073086 -0.017783668 0.002218819 -0.009460739 -0.037813164 0.06863025 0.113169365 -0.02761291 0.026618565 0.045015745 -0.103566706 0.0661818 -0.07759226 -0.031946767 -0.0055322787 0.0065878625 -0.04069274 0.044716056 0.04590875 -0.005733018 -0.02919833 0.01926864 -0.02735149 -0.059376366 -0.017150942 0.058302693 -0.030044334 -0.040055368 -0.08319931 0.004121882 0.023475543 -0.017982341 -0.019793546 0.06822837 -0.002956585 -0.018802656 0.03335957 0.038127627 0.023173358 -0.018402306 0.03866158 -0.03433584 -0.0024782033 -0.04201376 0.03426001 0.050889377 -0.009118007 -0.0067129475 0.028518492 -0.10895513 0.052359723 -0.10308424 0.005413965 -0.06916547 -0.05059157 0.05502025 -0.08913386 -0.063957945 0.07587503 -0.028264053 0.045013737 -0.08563841 -0.0831341 -0.039296504 0.026459659 -0.047868446 0.13435955 0.08697816 -0.04865412 -0.05493087 -0.012577953 0.05814051 0.01335133 -0.068841346 -0.069883 0.0011855043 -0.05896019 -0.031575743 -0.12853487 0.0059755743 0.024032224 -0.1438272 0.0713087 -0.11339427 0.02124664 0.014659466 0.02172181 0.041633103 -0.005799909 0.02390187 -0.029131649 -0.060721822 -0.044250444 0.04293508 -0.013487822 0.003478237 0.015157411 -0.053365674 0.025269542 -0.08550867 0.10122356 0.038427614 -0.051470086 -0.0036076624 0.047924634 -0.1147729 0.07421997 -0.07480998 -0.15135336 0.052933432 0.040414352 0.06362946 -0.048050243 -0.110556096 -0.018900895 0.07343297 0.016260155 -0.019439004 -0.05243394 -0.058816217 -0.05507643 -0.076450676 -0.034615893 -0.048541375 -0.052380774 -0.0057681412 -0.10725579 -0.019737517 0.124858886 -0.0034143825 -0.029948149 -0.0009444892 0.051297978 -0.057341456 -0.092333056 0.0031462687 -0.06873984 0.018877974 0.0445064 -0.010110143 -0.08309221 0.048798084 -0.026665393 -0.03557202 0.0027528263 0.05110051 0.028522236 -0.093555845 0.034960154
-0.07550992 -0.012849766 0.024089871 0.018966367 -0.0131186675 0.022017494 -0.011618631 0.036397982 -0.027355477 -0.070368424 0.043003704 0.014830093 0.056903034 -0.02325034 0.04389173 -0.07543768 0.010719545 -0.007622432 0.032111537 -0.052113477 -0.033235554 0.012488209 0.033131626 0.0077583804 -0.035692945 0.07660824 0.012585029 -0.00096372643 -0.017200066 -0.059702307 0.040458575 0.013395853 -0.012112473 0.017106595 0.0235785 -0.029702557 -0.024899703 0.0369233 0.10826027 -0.024359895 0.09020159 -0.0068977475 0.0047188033 -0.045202933 0.009405679 0.019032836 0.050307706 0.040257517 0.025813827 0.037023436 0.0125581445 0.019843439 -0.031918056 0.14525485 0.016203173 0.0014042249 0.022057468 0.045925412 -0.027067266 0.045262262 -0.0018653633 -0.0057095913 -0.028596481 -0.07460182 0.011674566 0.10157671 0.021028059 -0.0028034379 -0.09493646 -0.02520235 -0.024522446 -0.0085175885 -0.037427906 -0.022341646 0.058450956 -0.045802206 0.0058955504 0.01032523 0.001507406 0.031877406 0.016360873 -0.06827857 0.021696214 0.0032881605 -0.028140586 0.036193445 -0.024384031 0.05936312 0.0014418659 -0.03634393 -0.015911642 -0.014038266 -0.04191 -0.050266698 -0.016373694 0.026011901 -0.04250406 0.048942894 -0.14641157 0.009571952 0.054376405 -0.017839367 -0.027910214 0.063449375 -0.07884056 -0.0054454845 0.025647046 -0.02592467 -0.041217096 -0.02766668 -0.04239214 0.018458877 -0.031189188 -0.045590494 -0.008226826 0.018892558 0.03065719 0.09303462 0.011504803 0.025285985 -0.021234445 -0.037919987 -0.024103211 -0.042343095 -0.055978354 0.014285342 -0.009641915 0.0077982103 -0.015404327 0.041526634 -0.053151857 -0.04565206 0.058871083 0.014994665 0.0022639015 -0.08395109 0.011636372 -0.015984042 -0.0062222206 0.060361113 -0.0033904477 -0.071809135 0.034599382 -0.01693343 -0.091108896 0.002189632 -0.0313682 -0.037410595 0.003282108 -0.04364913 -0.03946341 0.014998146 -0.042879056 -0.050810397 -0.0067561357 -0.010531544 0.030775372 0.02575823 -0.122640654 -0.13429797 -0.08930873 0.005530486 -0.04744987 0.0038072686 -0.024712928 -0.020797163 0.05741466 0.0005398846 0.04789605 -0.004185977 0.0359206 0.017096791 0.017646888 -0.106927134 -0.04712386 -0.021897031 0.10444089 -0.0090831285 0.029167559 -0.02705294 -0.012198715 -0.02546672 0.06866505 0.075816855 0.008754129 -0.008471949 0.0010509654 -0.0023559628 0.01674776 -0.028457796 -0.052245323 0.027408259 0.023294881 0.04808677 -0.039173245 -0.008106939 -0.007757662 0.023493988 -0.031903412 0.007748527 -0.06513291 0.010523473 -0.008051236 0.032325532 -0.00022075714 0.004271154 -0.017951123 0.023715883 0.06675404 0.07264823 -0.004789524 -0.09993606 -0.015237389 0.017536128 -0.032890998 0.026225168 0.026623288 0.057830185 0.012031983 -0.059142772 0.027590273 -0.059397034 -0.012478627 0.03402101 -0.01000016 -0.0040394105 0.010950923 -0.023007538 -0.007975699 -0.027359119 -0.031053232 0.00010511053 0.06840846 0.022964917 -0.071809426 0.05060997 -0.00060044136 0.0075570587 0.009281644 0.0046504415 -0.07498784 -0.026010985 -0.022482235 0.018143995 -0.022663498 -0.0078682145 0.011350699 0.0123839015 -0.07834517 0.04125853 -0.050708678 0.04508982 -0.110206895 -0.059550863 0.047595058 0.0066699493 -0.022085434 -0.009944165 0.041778427 0.009380894 0.08278755 0.03788914 -0.049652416 -0.018949065 0.07598577 -0.035836607 -0.012536035 -0.017030038 0.03331548 0.010736401 0.011854989 -0.047792085 0.030252198 -0.060550794 0.04595989 -0.012735178 -0.054430675 0.04475466 0.039510004 0.03866851 0.06492026 -0.012934512 -0.008260176 -0.08428364 0.05098695 -0.018994682 -0.02019774 0.011617259 0.040729135 -0.025318986 0.041888744 0.006240317 0.026520435 -0.011714526 -0.010230465 0.007804668 -0.05563633 -0.047321115 0.01189365 -0.0050083925 0.0043654256 0.10386568 0.042224992 0.0322751 0.046871573 -0.01989522 0.0150984535 -0.008567136 0.049752094 0.0016184966 0.022554547 0.031696346 -0.039152503 0.002663163 -0.048494477 0.05803236 0.048118077 -0.02571601 -0.014355073 0.011492006 -0.015878363 -0.008027447 0.016075421 -0.032471925 0.0803957 0.07426493 0.047991756 -0.060428936 0.0098033575 -0.06603384 0.017400984 -0.001680363 0.070209354 -0.13190588 0.049892806 0.0798837 -0.03294129 0.011734637 0.04204841 -0.048999492 0.028548228 0.01789523 0.031492878 0.023401631 -0.09072005 -0.006423409 0.026902916 0.059127714 0.022331994 -0.024345143 0.08194097 0.03417369 0.05657602 -0.013210676 -0.095735714 -0.008933109 -0.03032913 -0.061513096 -0.01535548 -0.057450373 0.016327487 0.100332946 0.038466845 0.043611545 -0.032256003 -0.0026140048 0.0012254089 0.039034843 0.024193296 0.0024453807 -0.04734661 -0.0012310215 0.015620055 -0.00015401906 -0.034467664 -0.01942124 -0.0045664534 0.012424571 0.026885515 -0.028558439 -0.058501255 0.009437545 0.019850051 -0.015734604 0.05451094 0.029203868 0.026188238 0.02843363 0.042692058 0.0011803312 0.049899302 0.024024097 0.034199033 0.061639 -0.016909847 -0.070915185 -0.01633575 0.012195321 -0.0044752695 -0.0054996163 0.005691766 -0.004483097 0.016508276 -0.01103858 -0.015495512 -0.021995796 0.0047789323 -0.01336324 0.0072093825 -0.020472405 -0.027464438 0.043534443 -0.03681849 -0.0008200177 -0.03586505 -0.009214806 0.011876131 -0.01619365 0.009986029 -0.06541125 0.12236696 0.054420233 0.0024939852 -0.009334425 -0.028488202 0.0039361087 -0.055153612 -0.01384489 -0.008672616 0.00028331246 -0.01806357 -0.0023100877 0.00067153375 -0.016461058 0.027547346 0.018821267 0.0050238627 0.010418492 0.065315366 -0.08157702 0.02104216 -0.044244766 -0.0625744 -0.08858319 -0.025559146 0.0026760395 -0.032413386 0.088886194 -0.009276003 -0.04959978 0.06344421 0.048106615 -0.06928335 -0.033361178 0.027424421 0.021951608 -0.011255006 -0.039676517 -0.0026087782 -0.04315642 0.013144733 0.01092541 0.041867208 -0.042739853 -0.021859176 -0.025979051 -0.01677766 -0.023461014 -0.050156027 -0.0025167994 0.02871149 -0.07126112 -0.0063332613 -0.10078035 0.097011305 -0.019463383 0.014386784 -0.004033181 -0.010524815 0.05273934 0.030338002 0.0006619615 0.037199482 0.10247188 0.023142552 0.04298445 -0.046342276 -0.0021452128 -0.013443739 -0.0058755535 -0.017402599 -0.033915572 0.0056714374 0.0034623204 0.07730052 -0.028528111 -0.062260076 -0.0046119154 -0.058693357 -0.036175873 -0.029157113 -0.041032482 0.037168484 0.07944241 -0.03121817 0.0030659402 -0.14172103 -0.030686116 -0.009313843 0.015081153 0.002284786 0.017199656
0.050548583 0.050327092 -0.050202873 -0.060276534 -0.03724809 -0.058795 -0.05352961 0.02823462 0.0075514033 0.0602028 0.016256375 -0.015450452 0.032304283 -0.030873211 -0.03323631 0.014396564 -0.09989907 -0.04205586 -0.037669234 -0.032330766 -0.0811413 0.0042374735 0.017340273 0.025759885 -0.13319816 -0.029131653 -0.02271596 -0.033362363 -0.08584235 -0.0033545634 -0.060284268 -6.5132124e-05 -0.08792037 -0.013747413 -0.062872104 -0.009064271 -0.0074904826 0.01736465 0.035676382 -0.056183554 0.0834315 -0.04105352 0.05520112 -0.015267924 -0.09163502 -0.06807668 -0.047522694 0.038574457 0.039957628 0.07422076 0.010826634 -0.023980247 0.046367604 -0.014074853 -0.06159285 -0.06523982 0.033198085 0.025637912 0.040684894 -0.017660052 -0.026652096 -0.07412251 -0.032149516 -0.026229583 0.08398098 0.040793367 0.075552896 -0.028426992 -0.09465676 0.06634019 0.060108677 0.021339549 -0.052644126 -0.07207991 0.0036911112 0.0026384555 -0.02843541 -0.03101273 0.081723176 -0.038030107 0.14644697 -0.0045494772 0.066016875 0.015127533 -0.053875595 -0.020140516 0.022860961 -0.11242299 0.018548321 -0.002903402 -0.01314966 -0.04209485 -0.032765366 -0.017454097 0.054354914 0.009719977 -0.062480547 -0.03938518 0.018416615 -0.030974137 -0.09195858 -0.03706829 -0.079249285 0.05569176 0.008899199 0.059955142 0.036133114 -0.024527743 0.019619167 -0.064101964 -0.024594909 0.07712401 -0.0096666 -0.06164015 -0.006525799 0.07839838 0.051013127 -0.010951489 -0.008943881 -0.012617969 -0.040787566 -0.067593075 0.03692342 -0.0703733 -0.005366586 0.04705722 0.006419354 0.0017072969 -0.029370401 -0.046440464 0.06490817 -0.037629735 0.033599533 -0.020512138 0.01088877 -0.013509568 -0.0127338255 -0.011213021 -0.031495094 0.030701319 -0.009737979 -0.003768587 -0.035768192 0.018477349 0.00393699 0.009811312 -0.04599121 0.04375079 0.02845935 0.014014097 0.009997343 -0.032731075 0.026135977 0.020205181 0.0894316 -0.02125207 0.07511001 -0.023094462 -0.056311864 -0.0116669275 -0.024906443 -0.041618057 0.032233164 -0.0759982 0.0031655077 0.016219908 0.08003332 0.011918756 0.01723753 0.016093649 0.041951578 -0.056412313 -0.040174015 0.052232176 0.009506178 -0.07977048 0.0043500294 0.09703097 -0.03885165 -0.0009070409 0.01801575 0.005278003 0.017248243 -0.033970293 -0.008101191 0.04799007 0.016619911 -0.073549725 -0.032108005 0.010032992 0.04047825 0.08139218 -0.0032617787 -0.04406292 -0.036490504 0.029776286 0.06604229 -0.021988925 0.0036916493 0.06381195 -0.051267497 0.05014406 0.011072332 0.0060738153 -0.07274876 0.017131563 0.014457772 0.010784547 -0.049098577 0.03346655 -0.013699457 -0.083777346 -0.00748925 -0.051032037 0.01144285 0.00906401 0.017432414 -0.085325666 -0.00028973565 -0.015674217 -0.047949206 -0.021769628 0.009943789 -0.017401649 -0.049794514 0.009642041 0.03541135 -0.002130177 -0.032130644 -0.043135904 -0.02193679 -0.026707273 -0.010229638 0.09686499 0.029733583 0.044076737 0.024782982 -0.006005187 0.010333217 0.027650345 0.04453729 0.013988996 -0.032404114 0.051965915 -0.01687869 0.017162975 -0.1026186 0.06733121 -0.08918066 0.071390495 0.046014957 -0.04820092 0.021613752 -0.019477801 0.02145581 -0.11180939 -0.031564333 0.056498826 0.0050718877 -0.016443612 0.0034214922 -0.03260397 -0.022840863 0.018687418 -0.064563625 -0.033592314 -0.043386884 0.0137630785 -0.060361955 -0.015411095 0.04086756 0.09553208 0.010374964 -0.07983875 -0.0032370107 -0.027710805 0.023683336 0.0110688545 -0.06578861 0.08523304 0.014379478 -0.05466279 -0.070789315 0.033929963 0.012820767 0.016955178 0.04143614 0.024564935 0.022037482 0.02414551 -0.00014002845 -0.037526887 0.050722927 0.013059286 -0.036125075 0.055110205 0.030348442 -0.022821816 0.04418986 0.015682017 -0.040656023 0.09354106 -0.098729886 -0.035762124 0.006239185 -0.012207968 -9.654109e-05 -0.07608318 0.009735496 0.00833305 0.029886506 0.0005816768 0.0058601657 -0.022847071 -0.07561785 0.03394979 0.031173227 -0.043118946 -0.0837611 0.078709476 -0.0014324342 0.02565873 0.040738977 0.00867862 -0.00315437 0.005763128 -0.007053575 0.014221983 0.08099089 0.035250615 -0.024445828 -0.022434974 0.046141613 0.0053702625 -0.013682621 0.031172901 0.0113231195 -0.005441922 -0.012947516 -0.00012967033 0.013036613 -0.06676787 0.028974969 0.016112186 0.030929135 0.018439546 0.0055892817 -0.06620239 0.0031851404 0.0031195432 0.023042949 -0.01706531 0.011214748 -0.06705021 0.093537346 0.0008058227 -0.04662582 0.008404909 0.027954856 -0.0032143993 0.049541116 0.077119865 -0.007462119 -0.11215647 0.044424433 0.021691972 -0.033397898 -0.009675446 -0.022832934 0.030793466 -0.10469199 0.018724108 0.01608955 -0.050040897 -0.0036822134 -0.021623496 -0.0055362135 -0.006598079 0.012215973 -0.08569727 0.037015144 0.0030918752 0.0296113 -0.004930996 0.017852096 0.030168831 -0.03962757 0.061937578 0.0084675625 -0.03705639 -0.02806049 -0.04269967 0.010421706 0.03338546 0.00965412 -0.12743488 0.022203151 -0.07772005 0.030083619 0.006388916 0.055659484 0.05204158 -0.056970596 -0.0029741966 0.05394736 0.03520413 -0.07570801 -0.010352129 -0.008422362 -0.07883878 -0.027682131 0.013754685 -0.005105968 -0.04439038 -0.063928545 -0.006175943 -0.00019291812 0.06418177 -0.033921022 -0.023288539 -0.017767662 0.06269949 0.019806417 -0.0029275399 0.044073697 -0.006610125 0.014316568 0.03704168 -0.061985392 -0.08398724 -0.04561381 0.09762044 -0.027328115 -0.10339244 -0.004957821 0.0025329927 -0.033008736 0.014312716 0.08992555 0.037171673 -0.017243603 -0.076374024 -0.0729149 -0.00438199 0.03765205 0.03777623 -0.0005875602 -0.0056163324 0.012066049 0.025936158 0.0050284807 0.051603004 0.085598305 -0.040640753 -0.060009222 -0.0031991869 0.036989003 -0.07172249 -0.014872815 0.005375775 0.06062811 -0.03057489 -0.016552888 0.024145579 0.04531261 0.051109653 0.08077723 0.060886636 0.056818392 -0.050016295 -0.1226061 -0.017519148 -0.07259349 -0.013603992 0.039026648 0.0028284579 -0.009983804 0.06549895 0.047578633 0.014840685 0.026360393 -0.02008266 -0.05755947 0.0037399177 0.02563618 -0.05800048 0.0031878399 -0.030542154 -0.013987634 -0.011043994 -0.034068298 -0.035455797 0.03097854 -0.043272156 -0.007899158 0.09391233 -0.021548003 -0.010754879 -0.057565767 0.0867674 0.02951645 -0.07648371 -0.029093603 0.0042922553 0.06754692 0.0025198255 -0.009503733 -0.018951625 -0.056882296 -0.03884455 -0.046402358 0.025739452
0.017330064 -0.0059839212 0.0050267875 -0.0057624774 -0.07532636 0.05412999 -0.018284304 -0.0023810759 0.121818736 0.029467015 0.0742514 0.06759074 0.07267811 -0.08192367 0.082539834 0.0060328813 0.07481352 0.0011219669 0.008011912 0.0009349305 -0.013226577 0.08018752 -0.011293974 0.0018138028 -0.076080576 -0.009717458 -0.012044108 -0.08104244 -0.037958834 -0.022611216 0.08158625 -0.004789609 0.020324584 -0.07373885 -0.0073845587 0.012489834 -0.025211925 -0.049809497 -0.0812836 -0.0014379206 0.0787611 -0.011332087 0.0782046 0.02522647 -0.019804617 -0.026674656 -0.026554238 -0.0055391747 0.00049541664 -0.002222109 0.0038098719 0.079812236 -0.015389533 -0.011791628 -0.015813742 0.043059874 -0.07309487 0.011453563 -0.020084886 0.043992702 -0.048851755 -0.03512602 -0.021297656 0.03444582 -0.01837124 0.030321805 -0.04031919 0.08007907 -0.078180425 0.05321211 0.020283205 0.08825169 0.010453698 -0.02994887 -0.05746246 0.008321107 -0.00862206 0.063415416 0.030938279 0.017970707 0.048784196 0.011339037 -0.041315857 -0.011221245 -0.0014859391 -0.051095936 -7.0283524e-05 0.027714629 0.03476975 0.074376866 0.015944589 0.08805214 -0.00869285 -0.07446146 -0.02521924 -0.062054742 -0.044503298 -0.007346814 -0.018178463 -0.061758056 0.022911824 -0.0014425479 -0.043360528 -0.042586405 -0.044536013 -0.0284012 -0.010982084 -0.24754325 -0.045956895 -0.045865804 0.042588912 -0.10660309 -0.08297764 0.05355764 -0.067030594 0.010081495 0.016293105 0.056006286 0.022709036 -0.041175336 0.08646601 0.011896487 -0.09755909 0.046744592 -0.033283673 -0.009291634 -0.040945202 0.022751523 -0.023366582 -0.040071968 0.015583059 -0.0062877 -0.08510735 0.010930395 -0.021781703 0.04654882 -0.053192206 0.024663439 -0.02544308 -0.018175442 0.016213534 -0.03003349 -0.009254095 0.06543001 -0.00893442 -0.023639634 0.010751311 -0.018607235 0.0101800375 0.079222135 -0.06088275 -0.038342558 -0.15010902 -0.12280267 -0.08520914 -0.011320039 -0.012231235 -0.048368465 -0.026230507 0.05508262 0.024945067 -0.013522822 0.0058519566 -0.037756328 0.099881664 -0.039239626 -0.008014543 0.03010794 0.017374394 -0.019607682 0.018460413 0.042425048 -0.050208017 -0.110547684 -0.01622267 -0.07266956 -0.088544466 0.023286805 -0.046095364 0.08287664 -0.033040028 0.053492248 -0.06245602 0.026755499 0.029937122 0.019611603 0.11081787 0.099734105 -0.062392313 -0.081386365 -0.07387055 -0.0057445867 -0.090839274 0.06325392 0.13528056 0.014115406 -0.043046962 -0.008348385 -0.0030056208 -0.011343124 0.0626801 0.042863064 -0.08267176 -0.0072950325 -0.06570229 -0.008576158 -0.020338072 0.033580672 0.024156414 0.008891856 -0.0796509 0.012946291 -0.02430354 0.08592916 -0.052416615 0.04056556 0.03891577 0.04494423 0.08092203 0.07680108 0.06059086 -0.011067414 0.06176836 -0.0734364 -0.0038905211 0.09664357 0.04648374 -0.0320908 0.00079517387 -0.021495799 0.0695282 -0.05745463 -0.06850531 -0.028323906 0.056448147 -0.018300943 0.0016874833 0.020140748 -0.054152545 0.08199438 0.014578975 -0.028905854 -0.024919402 -0.11683065 -0.029756485 0.044013985 0.015423586 0.003217679 -0.003101654 -0.022278154 0.0308876 -0.009944357 0.007429978 0.05165374 0.06917409 0.036843594 -0.031197464 0.0034744395 -0.041430842 -0.027833667 0.052108005 -0.0058222427 0.03647693 -0.0363409 -0.055854745 0.092656925 -0.06722463 0.019391952 -0.012899092 0.0028596902 0.036358014 -0.0001691563 0.0005162638 0.017076403 -0.022252528 0.019424412 -0.0030733151 -0.041170172 -0.039041236 0.041258927 -0.0108154295 0.008947001 0.052846342 0.026134308 -0.013518326 0.06669441 0.074683264 0.055871624 -0.011041279 0.017548205 -0.026367797 -0.020774955 0.0008872413 0.0017338046 -0.0038121743 0.01954379 0.04912332 -0.028777594 0.00030641395 -0.14437176 0.06529129 0.0013895013 -0.036555722 -0.031741247 0.009983816 -0.044816706 -0.020546053 -0.025335299 -0.035321273 -0.023040479 -0.0019874885 0.03016722 0.013686718 0.014933532 -0.046622086 0.0061698738 0.007086659 -0.06581858 0.027228897 0.08355733 0.040511545 -0.037945613 -0.020064734 0.0030017588 -0.05048905 -0.031740427 0.042701952 -0.028429927 -0.060787495 0.020759253 -0.06881799 -0.070695415 0.028226117 0.025041476 0.014994515 0.059711598 -0.011089161 -0.0062273503 -0.0011249427 0.019636594 0.05277053 -0.13582665 0.018035809 -0.04495517 0.0033182441 -0.005925944 -0.04549671 0.018673252 0.0062665613 -0.01287987 0.021322636 -0.11053007 0.020306999 -0.025098477 -0.03270644 -0.034221523 -0.11687781 0.005990078 0.012606082 0.0097678555 -0.019451834 0.028642753 -0.008873852 0.009016716 -0.001127062 -0.0011142344 -0.035849214 0.041325152 -0.035703227 0.09456476 0.009750574 0.08637138 0.008674974 0.033776734 0.029570024 0.04340895 0.08999784 -0.044372424 0.0024183227 -0.022124382 0.046616394 -0.032091074 -0.0028323226 -0.05615581 -0.030427901 0.07587017 -0.051145256 0.0052932124 -0.047941204 0.08202882 0.05314972 0.031302333 -0.0039232336 -0.0063636685 0.0068229474 -0.061355453 -0.0053634085 0.035768453 -0.074532844 0.0137532875 -0.014700585 -0.06254498 0.009710782 -0.06375385 0.009118664 0.05082304 -0.06173722 0.03837052 -0.011102495 -0.02790434 0.09979914 -0.008166826 -0.034386422 -0.0052833124 0.00043367123 -0.031508528 0.0351669 0.008599565 -0.07742934 -0.031802516 0.04852875 0.016606297 0.022754567 0.018858405 0.06747401 -0.030993251 0.03706925 0.011165099 0.039799634 -0.047114324 -0.05204885 0.022747645 -0.0023261188 0.042875197 0.004936524 -0.05475653 0.052159242 -0.016919697 -0.02378142 -0.01056847 -0.025402 0.019137325 -0.028333908 -0.007829944 0.010791935 -0.06959462 -0.038455103 -0.1463511 -0.01807502 0.0059325825 -0.04605915 -0.018376382 -0.02652245 0.012047233 -0.02309535 -0.020752626 -0.092327096 -0.028879281 0.021077696 -0.021831337 -0.0045936783 -0.031121748 -0.02424449 -0.012201216 -0.017263778 -0.028404722 -0.08152368 0.014528703 -0.015886553 0.011593285 0.019374821 -0.023325143 0.009768546 -0.0046618762 0.00038349666 0.010976918 -0.056161705 -0.040763993 -0.08018693 -0.045113448 -0.029355641 -0.009503763 0.0034326978 -0.029988788 -0.017484276 0.08346379 -0.0037553487 -0.061580904 0.0039027063 0.022922575 -0.033010446 0.019457152 0.004813116 -0.096207336 -0.040883347 0.026900982 -0.0029478057 0.029572645 -0.017411264 -0.03577109 -0.03290592 -0.089072004 0.047841404 -0.0032461053 0.0048809904 0.09639086 0.025929257 0.052064143 -0.00116554 0.08248583 0.06079961 0.020503504
-0.02712784 -0.039796975 0.0008994005 0.074954376 0.07948597 0.034432467 0.06664611 -0.06745174 -0.004786149 -0.052919347 -0.06654871 0.012529486 -0.02603173 0.008560048 0.0083915 0.046092637 -0.074733734 -0.004708477 -0.011353558 -0.00927898 0.0034029093 -0.10867914 -0.053895414 0.0664363 0.008345306 -0.035610657 -0.03505744 0.05614506 -0.054781273 -0.0023738386 0.06022611 -0.035832588 0.051346768 0.014543965 0.034966175 -0.039046023 0.04994163 0.026155915 -0.03886344 -0.016270442 0.00946883 0.0048720376 -0.055309165 0.033418585 -0.015770325 0.027507508 0.051330537 -0.003996813 0.025009107 -0.0705039 0.008182544 0.013082081 0.054237254 -0.090915315 -0.04311464 -0.076421656 0.0050244047 0.040496085 -0.012125637 0.05715306 -0.0111043565 0.015788104 0.020500202 0.030297562 0.03187938 0.045166932 -0.013105551 -0.029164257 -0.025509428 -0.02695146 0.03457362 0.091801524 0.02248883 -0.03869906 0.035091586 -0.12185872 0.0037354624 -0.07014515 0.021740466 -0.0847178 0.03155771 -0.04925926 -0.028261801 0.0057289037 -0.107209586 -0.07617224 -0.03334907 -0.0628858 0.081361786 0.019874511 0.076824725 -0.047557116 -0.009322177 0.0042204186 0.054040253 0.051967222 -0.0009260286 -0.07216053 0.01612067 0.0033146273 0.00556991 -0.026119001 -0.010442054 0.053562984 0.059996698 -0.020877397 0.06434234 0.07005799 0.08381605 -0.009656282 0.0030552675 -0.031744435 0.05974329 -0.078080356 -0.08268483 -0.0042610713 0.028667727 0.04985781 0.04032818 0.039270878 0.047597323 -0.037216887 0.036366712 -0.026740286 -0.008375309 0.035940737 -0.008173631 -0.0282098 0.023112094 -0.0075865863 0.014997332 -0.008405283 0.082574405 0.017658848 0.05162695 -0.03509296 0.018170124 -0.06533069 0.03313066 -0.044785433 -0.09470102 0.006646597 -0.021184707 -0.029323775 -0.0032477444 0.03685292 -0.05389797 -0.0821082 0.007683972 -0.03488482 0.026007826 -0.04090424 -0.009232999 0.035197828 0.025535705 -0.087840274 -0.036151156 0.057017792 0.007908927 -0.027163401 0.04287696 -0.005547625 0.0003519245 -0.01427937 0.007070905 0.02306413 0.004255423 -8.06568e-05 0.033934116 -0.021177923 -0.014248765 -0.04409865 -0.03524226 0.039951105 0.05698752 -0.0018001994 0.06632888 0.014860729 0.043461557 -0.065165855 0.015065352 0.027826011 0.051816728 0.028520623 0.0018212385 -0.09397192 -0.09606495 -0.024618864 0.037643977 0.049449515 0.047698025 0.017757293 -0.0115997465 -0.008747213 -0.030683093 -0.014992937 -0.029083926 -0.01208713 -0.01295315 -0.022542736 -0.016490676 -0.0063171447 0.021842819 0.012044545 -0.020300891 0.08443734 0.058120146 -0.022284687 -0.039637446 0.010689663 0.034392986 -0.03422627 0.03703981 -0.02761046 0.005947991 -0.02580647 0.02318192 0.020944549 -0.05791312 -0.021108015 0.02844556 0.03399504 0.036074802 -0.062268928 -0.020779083 0.013060751 0.045002475 -0.0027278562 -0.09422829 0.031917673 0.033319533 0.03094781 0.10055326 -0.01680905 0.04074017 -0.0052666375 0.022261925 0.026911959 -0.015950937 -0.048504412 -0.0067502568 0.043835472 -0.039396796 0.03620026 0.028220009 0.103165664 0.027920239 -0.034104053 -0.0350213 -0.006274539 -0.06341291 0.03711898 0.051747765 0.013057357 0.043312136 -0.00384505 -0.05254123 0.079260096 -0.052151415 0.014406417 -0.020061156 -0.11644787 -0.03575454 -0.04657805 0.049961414 -0.055422276 0.010537293 -0.030993821 -0.019888509 0.025678309 -0.044824325 -0.017855547 -0.023291236 -0.000274304 0.003820905 -0.0035107052 -0.011431763 0.053590618 -0.012893675 -0.02040309 0.0038970355 -0.059828907 0.009948957 -0.0023053256 -0.09024793 -0.023603858 -0.035700656 -0.045779556 0.039216727 -0.027920611 -0.06102376 -0.0031668758 0.041979976 -0.068015434 -0.0058262832 -0.059467465 -0.0856259 -0.059944637 0.013284016 -0.00039436464 -0.12173852 0.031294465 0.013882039 0.09178616 0.012204096 -0.08417363 -0.0012404384 -0.08822579 -0.004119684 0.002007693 -0.029657995 -0.033962812 0.033928227 -0.06479445 0.025818761 0.035466295 0.050443 -0.003221209 -0.014462418 -0.014429409 0.028001584 0.0070063523 -0.05763831 0.0050696763 -0.008303244 0.04605558 0.05835787 0.0047309124 -0.021521194 -0.02591024 0.054295786 0.026308307 -0.07049068 0.010579352 0.10354139 0.027125066 -0.03302657 0.0036324859 -0.022345956 -0.10885869 -0.099259116 -0.14320837 0.038608983 0.037432082 -0.04042455 0.07624056 -0.09133117 0.07086225 0.07079159 -0.055645816 -0.036784213 0.023635585 -0.039263695 -0.014956283 -0.024823336 0.010390286 -0.020564934 0.096092254 -0.064005956 0.01690673 0.04347391 -0.013250367 0.0040807603 -0.03218437 -0.046644732 -0.016204577 0.034715254 0.039964773 -0.05213251 -0.10511583 -0.0056353463 0.009240427 -0.046463583 -0.009475786 0.032658115 -0.0010626413 0.06643545 0.0293764 -0.01596326 -0.022746317 -0.0025650077 0.023810543 0.037804093 -0.011528323 0.034568924 0.017191794 0.011873633 0.042811166 -0.010263163 -0.0143840015 0.021012038 0.054932326 -0.041776117 0.07879987 0.018722154 -0.00011072889 -0.01030056 4.674854e-05 -0.04580355 0.09670878 0.038258523 0.01714183 -0.0024986754 -0.034916572 -0.031784423 0.059028637 0.027015535 0.017032254 0.003613988 -0.003981344 0.06325735 -0.039260585 -0.0160724 0.014446848 0.022460803 -0.07890649 0.020883149 -0.12075397 -0.025458306 -0.020936275 -0.02763351 0.011108604 0.013038785 0.022517037 -0.020243013 0.04668708 0.0069092438 -0.023633087 -0.04748868 0.057118833 0.06278107 -0.035163127 -0.025556149 0.0023957756 0.025108054 -0.04196756 -0.039272673 0.03180196 -0.049859848 -0.02646544 0.048653778 -0.069982775 -0.029769368 -0.015313644 0.023220949 -0.0011302889 -0.06846524 -0.0074658915 0.0022900451 0.025428014 0.076850474 -0.05702638 0.02840836 0.033874925 0.011129232 -0.032177977 0.013289112 0.03133809 0.042143706 0.04814437 0.046056625 -0.02061545 -0.029368347 0.018873017 0.032010827 -0.032131217 0.035154153 -0.04698586 0.049306218 0.10178914 0.04873546 -0.053496357 -0.004667534 -0.037335984 -0.02771557 -0.053565983 0.0059441957 -0.08554129 0.026061922 0.0095914155 0.044434976 0.04929696 -0.055788536 0.020224191 -0.062890425 0.0598348 -0.05766712 -0.058983915 -0.029661058 -0.04047791 0.045179587 -0.10532345 0.0019168044 -0.045178797 0.0133245485 0.0336898 0.020706102 0.031074224 0.0012611967 -0.02032754 -0.03145432 -0.056387056 0.014737305 -0.034324408 -0.013598594 0.00031337969 -0.035873875 -0.059349053 -0.002923251 -0.09229036 0.021269107 0.0061423527
0.018542483 -0.08556241 0.00035703322 -0.0764159 -0.05037701 -0.09002761 0.06498011 -0.011911661 -0.03899955 0.0026539678 0.025639264 -0.12949196 -0.0059030135 -0.04810099 0.004052896 0.07378073 -0.03144634 -0.086291276 0.037637163 -0.016472893 0.007199865 -0.011918048 -0.099807255 -0.11136143 -0.06367145 0.035209633 -0.051982243 0.0048937174 0.033392146 0.019676983 -0.008640755 -0.14316042 -0.06241205 0.01580637 -0.040828153 0.010448262 0.047706097 -0.009604499 -0.09538054 -0.026407639 0.02218268 -0.067353316 -0.050299235 -0.09875961 0.014577502 -0.02153001 -0.007857559 0.011300501 -0.021197304 -0.046916675 0.009778778 -0.07356186 0.011231727 -0.15689091 -0.040567175 -0.0048373076 0.0463832 0.02921303 0.02649906 -0.07873355 -0.11480395 -0.082270205 -0.085828364 0.011820287 0.0075100753 0.05753345 0.038575772 0.041840624 -0.044882536 0.031821728 0.020275585 0.04482708 -0.015283239 -0.096133284 -0.03234232 -0.014987756 -0.035587184 -0.04529385 0.024840564 0.029190455 0.046184115 -0.022019673 0.030408015 -0.0817421 -0.008112423 -0.12517612 -0.022105671 -0.059227157 -0.057298142 -0.007214817 0.008315233 -0.027091268 -0.019298118 -0.1414889 -0.004312808 -0.012391763 -0.05695698 -0.083494216 -0.07219803 -0.0993236 -0.094816454 -0.11566927 0.0060649044 0.10320831 -0.076367356 0.018249556 0.005197888 -0.02161829 -0.13070351 -0.09401317 -0.021910295 -0.0051726094 0.027529184 -0.099608704 -0.021998636 0.00040218487 -0.10471198 -0.0030584435 -0.07328204 0.0023565101 -0.012226169 -0.04464179 0.06773645 -0.13618177 -0.077631995 0.064399496 0.01598247 -0.07313188 0.0007659603 -0.003621908 0.05386655 -0.012689984 -0.032171052 -0.06787823 -0.11040457 -0.065796226 0.027835445 0.0071034604 -0.007411464 0.027574204 0.03994419 -0.08348709 -0.022421034 -0.070588514 -0.054323833 0.016943354 -0.029375048 0.07509725 -0.026448788 0.059725102 -0.021929082 0.061782237 -0.014454719 -0.11991226 -0.08991716 -0.006781138 -0.15324934 -0.01784408 0.027440803 0.043820594 0.073538065 -0.076015465 0.01629291 -0.060825948 0.03865793 -0.017243689 0.007570228 -0.03265488 -0.060036637 0.028106535 -0.07620568 0.041659825 -0.08586457 -0.015957525 0.057364605 -0.046128593 0.06631698 0.0055230297 -0.0921144 0.051241137 0.033664104 -0.02008562 -0.073859185 0.042584058 -0.020999802 -0.02019198 0.049562547 -0.073354036 -0.10810358 0.04161056 0.01476102 -0.005871967 0.018244045 0.08757617 -0.017779727 -0.034223165 0.022036137 -0.07037962 -0.035433866 0.047975007 0.07891585 0.008205462 0.0010398125 0.01032981 -0.018069224 -0.027229173 -0.09789354 -0.0660961 -0.06916747 -0.053251494 -0.015397431 0.036225587 0.097921275 0.007414138 0.075466886 -0.055765 0.034270857 -0.07726899 -0.010701125 -0.041708946 -0.06692981 -0.02206442 -0.10429317 -0.060775284 -0.11855241 -0.093046114 -0.08348699 0.06819105 0.04569135 0.037645914 -0.063246466 -0.061884396 0.03704476 0.038043786 0.010517934 0.010385241 0.013815639 0.0422526 0.05644916 0.033096414 -0.064003654 0.0453442 -0.093824364 0.05783379 -0.106042825 0.053755414 0.081574865 -0.0069765854 -0.107345074 0.04217443 0.03184071 -0.014822867 -0.1466262 0.007092144 -0.0749253 -0.05681433 -0.005148417 0.015512378 -0.045998488 -0.16843408 -0.0041002445 0.003719175 -0.035689592 0.007867802 -0.001005567 -0.024932193 -0.028680766 0.0189725 0.017477863 0.012847023 0.0334097 -0.042763192 0.00440287 0.030092366 -0.004288357 -0.083787285 -0.027006026 -0.103265405 -0.016296616 -0.020943966 -0.030033996 -0.09547838 -0.025498293 -0.0047883103 -0.00480649 -0.06878229 -0.085984595 -0.06927273 0.007727034 -0.028144084 -0.024266433 -0.09492966 0.049044173 0.043646697 -0.042940382 0.040407203 -0.053930473 -0.016669214 0.015658095 0.040093534 -0.08583674 -0.024288483 -0.06113754 0.048459895 0.12011844 -0.015342691 -0.033505484 0.016491553 0.041339874 -0.08274149 0.07587853 -0.061120797 -0.017322846 -0.021399347 0.027811674 -0.010004533 0.07366304 0.04090252 -0.08082163 0.06427596 -0.042722575 0.0028618898 -0.002470182 0.00799039 -0.00449951 -0.036701612 -0.062276162 0.029656209 -0.007449863 -0.020894773 -0.07288575 -0.011580569 -0.028188488 0.0722612 0.001946681 -0.0936967 -0.011846657 0.040238943 0.02091729 -0.010173668 -0.050528392 0.05231673 -0.07808992 0.06876801 0.06918109 -0.076557726 -0.0076018097 -0.12734936 -0.15570112 -0.122406475 -0.033073876 0.06251504 0.0044595557 -0.0499157 0.09307676 -0.026430989 0.0008058437 -0.077818416 0.015851114 -0.006834306 0.03195045 -0.0066152425 0.12264457 0.030251326 -0.10460602 -0.085099876 -0.055688787 0.045240115 -0.038266163 -0.029843448 -0.049791787 -0.037351724 -0.0040209983 -0.041253783 0.100586906 0.008520142 -0.07684119 -0.014457403 0.006393371 -0.05231223 -0.0003607455 -0.10939443 -0.0089101475 -0.01396258 -0.037710268 -0.14868747 0.0634847 -0.048022836 0.04077608 0.026279438 -0.0077713514 0.033456992 -0.08380728 0.015496273 -0.056651317 -0.046934072 0.096838556 -0.04006125 0.023183659 -0.027926242 0.004098898 -0.13207129 -0.022805542 -0.007255276 0.015811644 -0.06640016 0.012521961 -0.06262815 0.0047670607 -0.029450433 -0.03258203 -0.11777519 -0.043854147 -0.009353673 0.026596805 -0.077181995 0.04979624 -0.0068126586 -0.10364866 -0.11843268 0.014026189 -0.04179956 0.06490728 0.02319531 -0.028637698 0.05511337 -0.07581412 0.014305133 0.045187715 -0.10082793 0.04880964 0.065172546 -0.10594869 -0.0769319 -0.014406296 -0.030580217 -0.011130657 0.035349153 0.020204287 -0.04358218 0.044388622 0.033958025 -0.041888483 -0.093233064 0.053401344 -0.11554706 -0.049008016 0.01582166 -0.04356184 -0.0075920965 0.00014875377 -0.07035702 -0.07480122 -0.08123061 -0.007983385 0.035153262 0.020181991 -0.07144991 -0.051075768 0.038374137 0.07170271 -0.04967506 0.03232861 -0.0012681835 0.010402551 -0.090057716 -0.035622634 0.017200375 0.0010348291 -0.054463584 -0.079829566 0.009836381 -0.068566196 0.053666506 -0.069365844 -0.015516819 0.06313195 0.03604923 -0.032169692 0.0208153 -0.061422348 -0.03980758 -0.029334456 -0.019749127 -0.07047071 0.0013276013 0.05051914 -0.09318587 -0.08053009 0.0048779324 -0.008874095 0.017194675 -0.06694341 -0.07458954 -0.0031365347 0.05009665 -0.037455324 0.035643794 0.12141253 0.025145214 0.101871334 -0.060337555 -0.07334929 0.021796813 0.009112949 0.0687559 -0.04590928 0.007988266 0.073243946 -0.10357688 0.009596361 0.013614016
