-0.0018322878 -0.006563103 -0.0018058214 -0.0049737114 0.00018382627 -0.004376523 0.0011485241 -0.009179797 -0.00036738432 0.004657276 -0.0036327466 0.0024054048 0.001797226 0.0016508751 0.0031876636 0.0005636664 0.0029788357 -0.00014866318 0.010407484 -0.0057832547 0.0025414256 0.0022998673 0.00046233964 0.0013832108 -0.0004681446 -0.000919219 0.00048719713 -0.0009128551 0.00050982303 0.00027280088 0.007161581 -0.0009766172 -0.00013164004 -9.051962e-05 -0.0020148403 0.00046607025 -0.0006939485 0.0027197127 0.0012076673 0.00016591251 0.00090366503 -0.0017514273 -0.0006891442 0.000981623 -0.0014431262 -0.00037243016 -0.0024586988 0.0010043355 -0.002379834 -0.00037370587 -0.0006083782 0.0004133833 0.0035802992 -0.0017797021 0.0009842599 0.00028818252 -0.0006241885 0.0008026683 -0.011080503 -0.0018890849 1.6172531e-05 0.00049832586 -0.0009489664 0.0010632959 -0.008619932 0.0012993993 -0.004626381 0.003923373 -0.0005095922 0.0010788405 -0.0002618432 0.000809294 -7.51158e-05 -0.0005185678 -0.0029828001 0.0004936982 0.0023004606 -0.017649326 0.00038343223 0.0012264969 -0.00021776704 -0.0014635727 0.011953335 9.7792254e-05 0.004189724 0.0021914653 -0.001956377 -0.001474525 0.0009936474 -0.00076491846 0.0009389478 -0.0007990358 -0.0025364251 0.0003641042 0.0001827927 -0.002359773 0.0005230414 0.0032421309 0.0024124412 -0.0006422975 -0.003227678 0.003474393 0.0020524233 0.001102548 -0.005056152 0.0011585441 0.002504336 -0.0052005183 -0.008754983 0.0058084982 0.0012176258 0.003251638 -0.0014705323 0.0012620216 0.00012505926 -0.0005285042 5.7148627e-05 0.00058472 0.0016311649 0.0023670404 0.0010310473 -0.00096358656 0.003085171 3.3798835e-05 -0.0032608162 -0.00026011816 0.0070874197 0.0031998765 0.0015082678 -0.00038358386 0.0011389911 -8.92901e-06 2.6608886e-05 -0.00043737332 0.005663552 -1.4784939e-05 -0.0012848284 0.00060958514 -0.0006967774 0.00032987917 -0.00055476226 0.0023897693 -0.0008489431 0.007040595 -0.0014047693 -0.002425913 -7.301831e-05 0.0015843845 -0.0014576485 -0.00081151136 -0.0011254961 0.001092139 0.0009733586 -0.0028446 -0.000940185 -0.0016589297 -0.0013072372 -0.00017101497 -0.007867682 -0.00069546816 -0.0018097676 -0.002332078 -0.024901746 -0.0028105215 -0.00860595 0.00034557172 -0.0017447867 -0.00053557183 0.0014763591 0.0027786938 -0.0006430743 -0.000354898 0.00054552173 0.001560905 -0.0014444669 -0.00066905114 -0.0035140214 0.00034881197 -0.0012861242 0.005936755 -0.0006690111 0.0021247992 -0.0003376617 -0.0017953551 -0.00410056 0.0013974503 -0.00039249987 -0.0010581025 -0.0032406284 0.0025157328 0.0013512393 0.0006885255 -0.00035233883 0.0012426549 0.0010402227 -0.0019431058 -0.0111467345 -0.004128449 -0.0009149415 -0.009679514 -0.001892641 0.0010986765 0.0016486298 -0.0008837901 -0.0013162319 0.0032408538 0.00010456146 0.0036363036 0.0009053358 -4.0693605e-05 -0.0005722081 0.015754603 0.0006745648 -0.0030100683 -0.0010023888 -0.0021179612 0.0010725218 0.00048363025 -0.0012486993 -0.00083226204 -0.00024962457 -0.0012342647 -0.0024821644 -0.011539029 -0.0007094695 -0.0006637423 -0.005434651 -0.00061376346 0.00045885713 -0.001920845 0.00017350171 0.001197196 0.0002819906 -0.0026677104 -0.00013250756 -0.0022230786 0.0022326622 0.0021272504 -0.0014750062 0.0014131967 0.0024606 0.0015891516 0.0004913408 0.0012996695 -0.00092693476 0.0013478717 0.0009893079 -0.00012252718 0.00025263074 0.004268499 -0.0013482004 -0.00023121035 0.0015232152 0.0015150975 0.0036507964 -0.0019226528 9.59676e-05 -0.0023933414 -0.00033103998 0.0013189507 0.0007576023 -0.0007765918 0.007740303 -0.026973842 0.027674144 8.0206344e-05 -0.00063411694 0.0011038791 -0.0016345623 0.008052272 8.635828e-05 0.009239719 -0.005197744 -0.0004391491 0.0060659745 -0.00025234115 0.0008275946 0.00073773024 0.0018206028 -0.0008291634 -0.0012368835 0.00059807743 -0.0033943409 -0.00025543646 0.0023175837 0.0008288396 -0.00063726044 -0.0014125584 -0.0035298327 0.000173428 0.0013011631 -0.0004377431 0.0024400016 -0.00076273637 0.0010867341 0.0012807271 -0.0065768487 0.0012812784 0.0016003377 -0.00027090384 -0.00018275814 0.0030508449 0.000114280374 0.0024551735 0.0012764154 -9.7396085e-05 0.0017740179 -0.00041698985 0.0005741304 -0.00032717458 -0.0016753583 -0.004827257 -0.0034831478 0.00832126 -0.0035250608 -0.0021949706 -0.00546238 0.001239478 0.0026951984 -0.00012230212 0.00026531797 0.003151942 0.00081671984 -0.0008894461 -0.0030245502 -0.0014314322 -0.0012422941 -0.0019991829 0.00017594111 -0.0015578379 4.6692232e-05 -0.0009415636 -0.00027327688 -0.0029838805 -0.001903358 -0.0019293993 -0.0015709328 0.0049998187 0.001397072 -0.0021511887 0.00210838 -0.0002209056 -0.0009752078 0.0019222186 -0.0008899299 0.002044747 -0.0014959972 -0.0005486435 0.0007793393 -0.006416038 -0.0020109545 -0.0002607274 -0.0012683113 -0.00050137227 -0.000119521785 -0.0013409397 0.0013711645 0.015785322 0.0068287435 -0.001710216 0.0022596924 0.001737031 0.0011296037 -0.0012167116 0.00020737195 0.0037865345 0.0023562077 0.001022233 0.001104006 -4.4315613e-05 -0.0019327116 0.00022472139 -0.002918441 0.0017836285 -0.0041253148 -0.00017090997 -0.00090301473 -0.00027187238 -0.00035890547 0.0008967745 0.0009586362 0.002948458 0.0010673755 0.0009806427 -0.020588292 0.00064701756 0.0012382778 -0.00019456464 -0.00043697745 0.0033692217 -0.0003756995 -0.00613052 0.00055248436 -0.00090582925 -0.0065353108 0.0022651178 0.00077289314 5.6124652e-05 -0.00039048668 -0.0003799995 0.0010610032 0.0011196283 0.0016613661 -0.00062385463 0.0020097354 0.0011169617 0.0009653348 0.00027653723 0.0050765043 0.00030879388 0.0008185426 0.000599066 -0.0047918106 0.0007495434 -0.0009951692 -0.0042117415 -0.0006512658 -0.0019822302 -0.0020109063 -0.0017858024 -0.0011987832 0.00083705207 0.007812661 -0.0022298188 0.0016282455 -0.0018612657 0.007979128 0.0028011114 -0.0015327616 0.00041329404 -0.0020826282 0.016482385 0.001824605 0.0018173021 -0.0024798638 0.0067488183 0.00087919604 0.002733162 -0.0005476739 0.00079812045 0.002181508 -0.000139825 -0.008830663 -0.0017707115 -0.0018982401 0.00028824224 4.0380717e-05 0.0010202379 0.00022943695 -0.0004202864 0.004290236 -0.0019180706 0.0024268345 0.0015412942 0.0016284689 0.0030286524 0.0008752772 0.0009465511 0.0062134983 6.8033594e-05 0.0016692575 0.007618938 -0.0025595443 -0.00027601156 0.001671811 0.00050887075 -0.002384263 0.0016220475 -0.002402427 -0.0016158106 0.0007545499 -0.0021258283 -0.0021751763 0.0009562448 0.00032518106 -0.0023564803 -0.00200159 -0.002169754 0.0022579355 -5.6665016e-05 -0.00826857 -0.00013481353 0.0004731166 0.0012407154 -0.0044963057 -0.00069377857 0.0038499243 -0.0006734398 0.013823096 -0.00056956353 -0.0011395308 -0.0013321548 -0.0013351351 -0.000127153 1.784849e-05 0.00021848253 -0.014562502 -0.00040120908 0.0048964387 0.0082905665 0.0015044587 -0.00028281947 -0.0020899216 0.001080062 -0.00026668597 0.001334353 0.0019225662 -0.00014146372 0.0017321433 -0.003252528 -0.0057240715 -0.0013402733
0.002781373 -0.011637467 0.002659356 0.011978164 -0.0009077378 -0.006492891 0.0043070326 0.0013186136 -0.011029886 -0.00092802127 -0.011486639 0.0039463597 -0.00023783535 0.001964556 0.005279237 0.0008704841 0.0013262405 0.0010779168 0.0005628782 0.003331533 -0.0010454917 -0.0022023753 0.0029438802 -0.0005197115 -0.011038855 0.0010230638 -0.0005660899 -0.00044138287 0.0023966078 -0.0013924387 -0.00030241223 -0.0016071118 -0.0002866708 -0.00581643 0.007331952 -0.0035516454 0.00469746 -0.011657782 0.0011332273 -0.007631962 -0.0047973515 0.01668516 0.00017220485 -0.0004060964 0.005318805 -0.0010832858 0.0025847051 0.01417652 0.0024511325 -0.0023876827 0.00096542697 0.0022738532 0.0061481073 -0.002301509 -0.00075830624 0.0027490696 0.0022500604 0.00019332019 0.02042683 0.002666524 -0.001177824 0.014853716 0.0006747906 -0.001910511 -0.0023477734 -0.0047252537 0.010610138 0.0016647215 -0.0012685149 -0.0011383466 -0.007004621 -0.00059038564 -0.00036704523 -0.0037448974 0.0002558839 -0.001553841 0.0055535585 0.0022578777 0.0010691836 -0.0021489428 -0.0038529334 -0.0015264283 -0.00043113084 -0.0015888978 -0.0066495044 0.004482287 -0.0054824944 -0.004659303 -0.004793432 -0.0018177704 0.00016477118 0.0003735957 0.0048217657 -0.0045136074 0.0013074536 0.00222892 -0.00221868 -6.9559464e-05 -0.0026483794 -0.0015916487 -0.01018357 0.0043510213 0.0014682127 0.00017658352 0.011162081 0.00033164961 -0.003677773 0.004090933 -0.002458094 -0.012521557 -0.0041487725 -0.010749084 -0.013270694 -0.0003607652 -0.0022704809 -0.0057391017 -0.0013320522 0.00027977434 -0.0010453014 0.0003645986 -0.002515413 0.0006178189 0.010339714 0.008456294 -0.022255043 -0.0018343754 0.0012193188 -0.0041824635 0.0011817517 0.002281176 0.0023039929 -0.0022222013 0.0014111118 -0.0013188047 0.0018732082 -0.0023009859 0.013868148 0.00080656266 -0.0015241634 -0.0048327404 -0.0018985096 0.003148521 -0.0016167881 -0.027950307 0.00092688994 0.0043161577 0.0017023861 0.005288839 -0.0152113335 -0.0004511567 -0.0006027296 0.0022385775 0.004131339 -0.0038718074 -0.040296316 0.0015644784 0.0004982078 0.0012683303 -0.0006109415 -0.0003304776 0.010886151 0.0012929676 0.0023245565 0.00023485284 0.0014390463 -0.0039470475 0.00212117 4.2612064e-06 0.006780342 -0.0079708705 -0.010059314 0.0014742587 0.004528865 -0.00078420504 -0.00236386 0.0009468834 0.0024997722 0.001804942 0.0083320495 -0.0015821056 -0.0015804939 0.0027632613 -0.003351973 0.003933716 0.0078303395 0.01039576 -0.0013350981 -0.0011403707 0.0037712264 0.0053365016 0.0028145781 0.0002717122 -0.0041463873 -0.004041546 -0.0020659487 7.945979e-05 -0.004020792 0.0094813835 -0.0030322976 -0.0020650288 0.00044230442 -0.0022464776 -0.003722278 0.00045754528 0.00081997906 -0.0006537584 -9.858831e-05 -0.0027590955 -0.0013574996 -0.0023756148 0.0017362898 0.0011929761 -0.0003916467 -0.0009723876 -0.0012024991 -0.0028125362 0.0038371796 0.00035702667 0.0002796754 0.0062166876 -0.0012490553 -0.0015139243 0.0016415296 -0.010148059 0.0015733561 -0.01251928 0.021962166 0.00070046925 -0.0011146832 -0.0018645624 0.00240284 -0.0010858239 -0.00022259926 0.0034700579 0.0042276136 0.0009897357 0.0029072645 8.4186664e-05 -0.0028733856 -0.0010607899 -0.0113268895 0.0018844393 0.005756984 0.005573703 -0.008889701 -0.02320215 -0.0017726324 -0.009469914 0.009606546 0.0007200447 0.003589912 0.0005317723 -0.0011162355 0.001970996 0.023100771 -0.019294946 -0.0063952175 -0.0011161658 0.003906309 0.0020470188 0.0027964844 0.0012433811 0.0072341757 0.0059868493 -0.003704988 -7.1059067e-06 -0.0030828235 0.0007362337 0.0010863062 -0.0022573508 0.01713423 -0.0009260481 0.005100838 0.018159447 -0.017030971 6.175066e-05 -0.004875003 -0.00076691475 -0.00030757586 -0.001957693 0.0155044515 -0.0036693267 0.023458563 0.0002581792 0.00034484436 -0.0061663277 -0.00062509615 -0.0045204167 0.0007726452 -0.0050897924 -0.00032021475 -0.004704461 -0.000531123 0.005266739 -0.0024647494 0.0024170533 0.0016005267 -0.0017104577 -0.00833869 -0.0014768397 0.0003002253 0.0027503278 -0.0016440563 0.00069742306 -0.0036086154 -0.0019950029 -0.008061358 -0.0027608213 -0.012593208 0.0011336274 -0.013000509 0.004014119 -0.0036454205 -0.0021801696 -0.0029652382 -0.004044617 -0.009851448 -0.001709119 -0.0046456163 -0.0014449046 0.0084550055 -0.0042193825 0.0011593178 -0.00093991106 -0.003149405 -0.0005666336 0.00010969992 -0.0007879457 -0.0017366381 -2.5206306e-05 -0.011429483 0.0013057936 0.00046437967 -0.0030223813 0.0014172117 -0.00034536739 0.0013502248 -0.0003714729 -0.0022947825 -0.0058986386 0.0022228176 0.0030149221 0.00048108085 0.0019127653 0.0011195596 0.0059977397 0.0037076895 0.0036968938 0.0013016976 0.0059754685 -0.001513353 -0.0043108533 0.009771003 -0.007676741 -0.0027123108 0.0013519098 0.0066222954 -0.0074451757 0.004594029 7.18131e-05 -0.0038246787 -0.0060105603 -0.00046895753 8.83734e-05 0.018512016 0.005702616 -0.0003840628 -0.0010891221 -0.0027116172 -0.0004925631 0.0011031096 0.0025653404 0.0021382961 0.008472731 0.0020660334 0.0033096718 0.0015636429 -0.0021036474 0.0016506052 0.009806065 -0.0052501564 0.0071366625 -0.0012234729 0.0012062257 0.002415239 -0.007824429 -0.0040746485 0.005910678 0.007234676 -0.0073628817 -0.006834986 -0.0013970042 -0.0018558407 0.0056475652 -0.0054701404 0.00095292286 0.003978661 -0.00089028414 9.8038894e-05 0.0016300938 0.00065310276 -0.004726971 -0.004976904 -0.002784186 -0.004044072 -0.00090444816 -0.0044896333 -0.0030871592 0.01841042 -0.00081614347 0.00025248 0.0017240468 0.0115287285 0.020447034 0.0008615151 0.0029299962 -0.0010782375 0.0004032221 -0.001555638 -0.0055452804 0.0016262591 -0.0024727252 0.0027247092 -0.0033281853 -0.014757814 -0.0020403722 0.004061417 -0.011589284 0.00028242005 -0.00013008896 0.0019007548 -0.0014041776 0.008043871 -4.179935e-06 0.008152659 0.003277435 -0.017535312 0.0036441172 4.6203928e-05 -0.0063123736 0.0025412457 -0.006776721 -0.0068628127 0.0063039935 -0.00781011 0.0035695375 -0.0008720911 0.0030049088 -0.009133475 0.0050674146 -0.0011206878 0.0010507066 -0.003590384 -0.0040668324 -0.0018584821 0.017747859 -0.009221825 0.0016169595 -0.0048999195 -0.002606866 -0.010335551 0.026804347 -0.000821544 -0.0009449257 0.008981813 -0.00016806621 -0.0016305313 0.0024884406 0.0023397615 -0.0028653897 0.0021046489 0.0013640426 0.005360258 -0.025958452 -0.007246192 -0.011839462 -0.006431846 -0.01208225 0.005639153 0.00035030898 -0.004313967 -0.0069038603 -0.0019619667 0.0009928031 -0.007980667 -0.0058470587 -0.011785352 -0.0012856823 -0.003501528 0.0037875827 0.000941606 -0.00036925546 0.006347447 0.013441121 0.0044097984 -0.0010748667 -0.0153341675 0.0007679646 -0.008674138 0.0030636024 0.0023221166 0.0016299719 -0.006051185 -0.0011501132 -0.00026635404 -0.0010284996 0.00057833793 0.00063769985 7.255371e-05 -0.0097781895 -0.0004594827 0.0019353597
0.0013491597 0.0036813081 0.0061724484 -0.0024935866 0.0027814365 -0.010652127 -0.003983747 -0.00019504492 0.00040701544 -0.0016380592 0.014758617 0.010428351 -0.0024887354 -0.0007168915 -0.0007500874 -0.0020209919 -0.0002962207 0.001719713 0.005403415 0.026450012 0.00208342 -0.008123334 0.0011917906 -0.0018897201 -0.0022470243 0.0032744256 0.000676408 0.0002513209 0.0011295669 0.0037105638 0.003606097 0.00015137267 0.0015389271 -0.0022995912 -0.012079314 -0.0044616307 -0.0027572697 0.014114726 0.00065146823 -0.0012324051 0.0043450627 -0.002881745 0.0018238542 -0.0017685104 0.0019894182 0.001246235 -0.0020237318 -0.015964113 -0.0019531044 0.003093054 -0.0019716553 0.0003322814 0.0013214791 -0.00025466376 -0.002458316 0.0016906923 0.0024429434 -0.0022574293 0.032662638 -0.0006503217 0.0031058744 0.0032355252 -0.00033172694 0.0012543115 -0.0014025576 -0.011546929 -0.0092263715 -0.0016181405 0.00079358264 0.0026142604 0.0145761045 -0.00052962604 -0.0023897972 0.0020783956 0.0028730032 0.0003602542 -0.0054975525 -0.021781864 0.0018658222 0.0051406333 0.0013828496 -0.0015774914 0.005223527 4.3647615e-05 -0.0075340327 0.0018052066 0.002053751 -0.003936894 0.0032953862 -0.003263071 0.0007022488 -0.0009885447 0.0027442812 0.0037509212 -0.0010476961 0.0008145312 0.00020591076 -0.00048478317 -0.005106031 0.0010614773 0.0009767044 0.012616679 -0.0031419792 -0.001505885 0.004505136 -0.0013892761 -0.0009968386 -0.00017632182 0.00029979247 0.011916041 -0.0020026977 0.0013912095 -0.0025248362 0.0019387428 -0.001701737 -0.0022919164 0.0058516385 -0.00032957023 -0.003998127 -0.0028146366 -0.003753022 0.000586989 -0.002801846 -0.004477771 0.00051926303 0.00504311 -0.0077867378 0.010671024 -0.000709525 0.002617646 -0.00042700878 -0.00027708715 0.00406118 -0.0042150086 -0.00022506254 -0.0032541917 -0.0031696248 -0.010307663 0.0022729929 -0.008724885 -0.0018674443 -0.0036211163 0.0015498603 -0.024543379 -0.0011039576 0.0024761404 -0.0015611083 0.0032844332 -0.005011606 0.0018502857 0.0042099827 -0.0029605674 0.012141177 0.0061096842 -0.0011684551 0.0018060398 0.0012913999 -5.6295816e-05 -0.009652503 0.0010491087 0.008479283 0.003771375 0.005256891 -0.0013171986 -0.0029121554 0.011345296 -0.0016481408 0.016890213 -0.007410323 -0.007901891 -0.006101578 -0.0026342692 -0.0011314348 0.008221931 -0.0021692568 -0.00920527 -0.0032114834 0.0005319169 0.0034673142 -0.015045884 0.0007254561 0.00408639 -0.0033027788 0.003816352 0.009632267 0.009632932 7.6175194e-05 -0.0050666467 0.0010554739 -0.0016865691 -0.0016277108 0.0014610345 0.0060152593 -0.001508739 -0.00039070248 -0.004996459 0.00841898 0.0011525059 -8.937837e-05 0.0013825854 -0.0022924908 -0.0024991075 -0.0019294636 -0.0012665044 -0.0016495012 0.0009395675 0.00022904776 0.0006640934 0.00022996374 -0.0028955806 -0.0083901165 -0.0059748036 0.0010458821 -0.01225334 -0.0027772333 0.0037975912 -0.0013441988 0.0005741224 -0.0011829326 -0.0027393529 -0.0034962862 -0.0022864144 -0.0004537537 0.00016710817 -0.0018706986 -0.0049074204 0.009979491 -0.003637517 0.0036107204 -0.0004589796 -0.0006916788 -0.0038750186 0.0031171897 -0.0022639332 -0.003517539 0.006280218 -0.00081392523 0.0040855883 0.0031033251 -0.001011851 0.0012554596 0.0019059586 -0.0016334588 -0.0031682714 0.0025072047 0.006572506 4.3709842e-05 -0.013923096 0.0024719164 0.011375531 0.0010599471 -0.0033452716 -0.0014474496 0.00024822587 -0.01588363 -0.014264253 -0.00092876225 -0.00056556053 0.0006024224 0.0066266255 -0.0006020056 0.0002341063 0.00035695254 0.010588725 -0.0059135547 0.0018555541 0.0006857625 -0.00017769828 -0.0077614 0.0073206765 0.0026445475 0.00039468505 0.010395186 0.025112152 -0.007228161 -0.004491553 -0.0051555284 0.0012652626 0.0027514577 0.0009033119 -0.008307509 0.00058209006 -0.033077978 -0.00033756168 0.0011424521 0.00016428907 -0.0022803224 -0.0031808906 0.003445448 -0.0006814323 -0.00012798529 0.000976051 0.0001770227 -0.013013592 -0.0077492194 -0.00755636 -0.00557519 -0.01820683 -0.004606253 -0.00028795516 0.0034124493 0.00017621463 0.0027092227 -0.0016732872 -0.00088661857 0.0035431571 -0.0005427386 -0.0027100418 -0.02024061 0.0033662885 -0.0023271325 -0.006208613 0.0012286701 -0.031130668 0.007192358 -0.0012197334 -0.017887786 -0.0046359454 -0.012794785 0.001545057 -0.005592928 0.0027935796 3.304621e-05 0.0025535787 0.0051441304 0.0008357018 0.0008499393 0.001334567 0.0009704736 0.0020994714 0.00202791 0.00077425037 0.00050988025 0.012192827 0.0025727593 0.0004264542 -0.0013552881 -0.0010640307 -0.0072610034 -0.0023342844 -0.0016900584 0.001551193 -0.0020468186 0.0016317972 -0.016063103 0.002089975 0.0049123624 0.0048387325 -0.0029639502 -0.004278607 0.0018093237 0.0022596354 0.002988486 0.0045490363 0.0005186038 0.011235649 0.0027236089 0.0030036874 0.0099027315 0.0009481142 -0.007954022 0.0066956286 0.0035380905 0.011565269 0.0029540744 -0.007689079 -0.002311191 0.0022506623 0.010812831 -1.3330181e-05 0.0017900467 -0.0055462983 0.0021957196 0.009947488 -0.0013268571 0.0067753815 -0.0005376878 0.0012536794 -0.0034937023 -0.0035604225 0.00062706386 -0.0072830785 -0.00037485684 -0.0019273264 5.9916587e-05 0.009300531 -0.00010826403 -0.0046151374 -0.009912336 6.789066e-05 -0.0025443472 -0.0031771534 0.0011850089 0.0028926677 0.004863588 0.0005215838 -0.009443867 -0.014413041 -0.0027272534 0.0015953772 -0.0010359628 0.0043817325 0.015339277 0.0003322245 0.009949433 -0.0033819962 -0.00060660456 0.0006859463 0.022420522 0.0019289296 0.003362257 -0.0020844126 0.0077952733 0.004568794 -0.0021889263 0.007733156 0.0034403289 0.0031804992 0.0101559805 0.0054628504 -0.0019236361 -0.003187766 0.011861729 0.00030842278 0.0011530275 -0.0016265396 -0.016298069 0.0020321477 0.005131951 -0.0014816081 -0.005404831 -0.0345455 0.0025436596 0.004236309 0.0048253336 0.0068153655 -0.017700553 -0.0036889734 -0.00044543663 0.0051557617 0.0020558734 -0.004123709 -0.010310167 0.0062837647 0.0034156928 0.00025384326 0.0025855955 1.1060834e-05 0.0029455137 0.0048643025 -0.00220757 0.0003186611 -0.00059408473 -0.00049069576 0.0023921763 0.04799078 0.002946132 0.0029128245 -0.00068526104 -0.0006792294 -0.00314128 0.00097312906 0.0030800758 0.002975602 0.0046616616 0.0026253024 -0.0004273113 -0.002977547 0.0006583303 -0.0009353115 -0.001477991 0.00090197026 8.084336e-05 0.004090449 0.012175927 0.015641984 -0.0064598653 0.0077453107 -0.0043895314 -0.006419359 -0.0084746545 -0.0082554 0.0020949983 0.0013035941 0.0031642383 0.01480338 0.007965543 -0.00415751 0.0006806107 0.00041380496 -0.00086882827 0.0030291579 0.013756623 -0.009861657 0.004929639 0.0017967925 0.023305546 0.0029037897 0.006848518 -0.00067473133 -0.003803871 -0.0031326564 -0.007735315 -0.0027820624 0.00085265026 -0.000706482 0.004013473 0.00031843968 0.0034701999 -0.0018409668 -0.0093783215 0.0054089534
0.0006381702 7.851543e-05 0.0034272706 -0.0021155453 7.000149e-05 0.0050553586 -0.0015945206 0.0028129283 0.0047346046 0.0021613084 0.00481834 0.0020924956 -1.3956361e-05 -0.00070559216 0.0015908825 0.0013876908 -9.7787146e-05 0.00036097472 -0.002317286 -0.0054608975 0.0019733876 0.0010895395 -0.0009792576 -0.0012183546 -0.00036792396 -0.00064963894 -0.0012503469 -0.0005667975 0.0014536196 0.00084699836 0.0019548235 0.0015205538 0.0014464397 -0.0026089726 0.0012899385 -0.0048625683 -0.0011550224 -0.004058737 0.0005175516 -0.0018126753 0.003973611 -0.0073140273 -0.00078940636 0.0018264676 -0.00029327328 -0.0030242219 -0.001104139 0.030227 0.0010090963 0.00052309997 -0.001230709 0.00094586174 0.0039950637 0.0021547447 0.0011637649 0.00035597247 -0.0010666451 0.00039073202 -0.028624197 -0.00083430385 -0.0036203042 -0.011250726 0.0010427585 0.0003181702 -0.002176723 0.0023512004 -0.007213399 0.002166953 -0.0021829302 0.0022435454 0.011418362 0.001254354 -0.0014635643 0.0003629617 0.0007309199 0.0028023978 0.001430356 0.008845744 0.0022559664 -0.00071264413 0.00064137153 0.029285248 -0.00012486582 0.0023748274 0.0067398706 0.0031378544 -0.0011972702 0.0029237545 0.0077749393 0.0002564015 0.00383324 -0.00060550915 -0.0128116775 0.0015416103 0.00053643103 -0.0007048816 0.0019706967 -0.00020952754 0.0015983782 -0.00033555113 0.029006345 0.002485053 0.0079039205 0.00026559603 -0.004488426 0.004513454 0.0032065983 -0.0007247794 0.003101065 -0.00063081563 -0.0011701524 0.015443837 -0.0036095344 -0.0040168893 0.0018656715 -0.0024254436 0.0010198948 0.0002299825 0.016187528 -0.00035232987 0.00036174414 -0.006941738 -0.0029187978 0.004528328 0.0016972465 -0.0012891499 0.0032327408 -0.038094543 -0.0007037437 0.0008803114 -0.0011144902 -0.0015343138 0.00072768633 0.0012108104 0.0028651212 0.008441622 -0.0013187663 0.00095829205 -8.747698e-05 0.0007662667 0.0005209377 0.0004055784 0.0014071784 0.034500677 0.0002848915 0.0056376643 -0.0035249158 -0.0015256492 0.009496394 -0.0032731197 0.0017850532 0.0008654086 -0.01324591 0.0012463634 0.040317565 -5.172512e-05 0.003739517 0.001577921 -0.0014735232 0.002875923 0.0020075445 0.0008737535 0.0015001205 -0.0003427304 0.00038433252 0.0015460998 0.0028492846 -0.0027103655 -0.004618436 -0.0070719207 0.017778711 7.51616e-05 0.009585067 -0.005206438 0.0067614187 0.021213692 -0.0005918123 -0.0021780133 0.06297193 0.0007421579 0.0018869708 0.0012769322 -0.0008244839 -0.0013358726 -0.006384808 -0.012830217 0.0013224209 0.0006848297 -0.0025861633 0.00019408674 0.0002730005 -0.00047446476 0.002074801 0.0003405883 0.01670454 -0.0032005413 0.00470124 0.004605698 -0.0009875572 -0.0014052157 0.00382539 0.0012283549 -5.2507763e-05 -0.0061982963 0.0014512348 0.0023773576 -0.006688895 -0.0018929922 0.00066592905 -0.00074710196 -0.0007107899 -0.0061858557 -0.0029673704 0.0007105321 0.0033261848 0.00031252502 -0.0029330845 0.0016465596 0.0008937771 -0.00069731736 -0.00042709013 -0.0023245553 0.0010321942 0.0004829411 0.0033162115 -0.0024071909 -0.0060958136 0.0007532106 0.0039600665 -0.0015712328 -0.0019096653 -0.0018560899 -0.0004956848 0.0028471397 0.002976373 -0.0006477682 2.6181931e-05 0.0002716314 0.0014432617 0.0036265096 0.005835245 0.0014287937 0.0019970804 -0.0008661463 0.0018000704 -0.0013962724 -0.0029663048 0.0032061054 0.000723142 0.0038902874 0.0019374288 0.002065364 -0.00023523282 0.0016866308 -0.00077056146 -0.0035252445 -0.0029716466 -0.0029338535 -0.0014264204 -0.0052947905 0.0011808225 -0.00011395047 -0.001583028 -0.002488799 0.000285751 -0.0010480764 0.013682599 0.002348721 -0.0036403642 -0.0015709231 0.0024850986 -0.00010107011 0.0012390731 -0.0095208995 -0.002330933 0.0016539124 0.00020440016 0.0009595108 0.001318824 0.0029392818 -0.00013920557 -0.00010915599 0.057606336 0.0025581147 0.00056016975 0.0012662677 -0.00019089771 0.0032326085 0.0007657104 0.0024554853 0.0016292902 -0.00097493874 -0.0034334196 -0.03252286 -0.007899676 -0.012181942 -0.0010448955 -0.0035031117 -0.00048792665 0.0020651896 -0.00046750414 0.0034295358 0.0014356689 0.0012980863 0.001958802 0.0011875051 0.0013489823 0.00031910368 0.025449585 -0.0009927895 -0.00077140296 -0.0043245936 0.0015299214 0.0303345 0.0028844688 0.001269788 -0.048014116 -0.0028333273 -0.0014339418 0.0023822186 -0.004221786 -0.002280698 -0.00034315302 0.0005133896 0.00015602079 0.0496552 0.003005979 -0.0010323061 0.0011419946 0.00065669074 -0.00090438145 0.0016273815 -0.0023434886 -0.002254497 -0.011210293 -0.0010871325 -9.925795e-05 -0.005439901 0.016774982 -0.0025716187 0.0021661627 -0.0054923184 0.0017426016 -0.0025699667 0.004863285 0.008499583 0.0016112713 3.5961628e-05 0.006128854 0.0026573325 0.000548041 -0.0038763087 -0.0023583318 0.009019279 -0.002900868 -0.003971418 -0.0039667916 0.0015875507 0.0015603342 -0.0027162735 -0.0016244606 0.005183633 -0.002108017 0.0024977692 0.023043713 -0.0018081187 0.001974036 0.0001456804 0.0011346551 -0.0017850848 -0.0008015815 -0.00034156247 0.0006777348 0.003686801 -0.0015056765 0.0047529577 -0.0009175991 -0.0034587062 -0.00086802716 0.014310292 0.0062048496 0.0008276411 -0.002887848 -0.002356721 -3.7497775e-05 0.003546847 -0.0004898101 0.0018758145 0.0013846325 0.00034692296 -0.0031016686 0.0012626764 0.0018396333 8.029405e-05 -0.002227559 0.000120523255 -0.0074695586 -0.0023978413 0.00061448844 -0.0003774791 -0.0004224112 0.0039508212 1.7989594e-05 0.0011778777 -0.0010034236 -0.0022572337 0.0012708659 -0.00035132346 0.009172433 0.0007585701 1.5026606e-06 -0.0010448993 0.016225012 -0.002374106 -0.00066807325 0.0020691215 0.0018367047 0.00086970086 -0.004501495 -0.0019178037 0.0020563486 -0.0022332086 0.002176706 -0.000111299945 0.013075506 0.001972676 -0.012250695 0.01506817 0.0007310911 -0.0023598 0.0019404625 -0.009355903 0.00077185314 -0.0021487537 0.005770557 -0.0017442338 -0.005516451 -0.0024620565 0.0011775035 -0.0031328336 0.0019872729 0.00012791467 0.007003904 -0.004636197 0.018696688 0.01169596 0.0014899354 0.0010680867 -0.00272644 0.00065079797 0.0033614826 -0.00077576225 -0.00023850499 -0.0012473338 -0.0017948351 0.024374846 -0.004592835 -0.00026717345 0.009158138 0.0015723725 -0.0044018333 -0.004933741 0.001916667 0.00034270118 -0.006230823 -0.0021631704 0.0009852817 0.0010747634 -0.0008755492 0.0021155654 0.0019448898 0.0017102734 0.001409383 -0.005130752 -0.0059606656 0.010815566 0.00024556433 -0.0014653627 -0.0018502792 0.002838059 -0.005232483 0.0057442053 -0.0024737664 0.0022767254 -0.0050002555 -0.0066999565 0.0022799706 -0.001137758 -0.0040245987 0.00450734 0.0015529008 -0.000522335 0.00017303017 0.0024629403 -0.003461178 0.0025449456 0.0024896148 0.0030645232 -0.0013840367 -0.00046560503 0.0012478312 -8.80015e-05 0.0040570665 0.0018296825 0.0010058755 0.0017326499 0.004534999 -0.0039750407 -0.0077185933 0.001113148 0.00458527 0.005638239
0.0007158533 0.0005644336 -0.0073703453 0.0025835657 0.001097744 0.0036984244 -0.00072642753 -0.0030452975 0.003609266 -0.0013818083 0.00020128825 0.0004731688 -0.0018808573 0.0023585712 4.6993817e-05 0.001595686 -0.00087862293 0.00019436759 -0.0020820217 -0.0003620812 -0.000876905 -0.006965553 -0.00039683195 0.0005747221 0.0023555318 0.001941718 -0.0003598787 -0.0012235121 0.0015177163 -0.00050230784 0.0009391804 -0.00059247494 -0.00069246086 -0.004239039 0.00022966813 0.013587117 -0.014705402 -0.00641197 -0.00023131284 0.0013264761 -0.0014030768 -0.000821237 0.0019453492 -4.358763e-06 -0.0020890406 -0.0025563757 -0.0021335257 -0.01888208 0.0025262109 -0.0023174172 -0.0005968009 -0.0053552166 0.07215388 -0.0007962577 -0.0016767533 0.00017645248 -0.0035874825 0.0022508106 0.024917403 0.00019305645 -0.00040667356 0.00956406 0.0037284908 0.003688608 0.00021477161 -0.0017308663 0.006145896 0.0021883054 -0.0012015712 0.0021030582 -0.0009596633 -0.0019397679 -0.0007155523 -0.0018525842 -0.00037155717 0.0019248289 0.0014046864 0.0032666863 -0.00047196026 -0.0002746975 -0.0034882757 0.014905224 0.0023825401 0.0026099668 -0.006645557 -0.003534228 0.002241245 0.0043798983 -0.0032443986 0.008133148 0.00020110668 0.00043710571 0.0042509106 0.0017434121 0.0014496393 -0.0012345958 0.0011995479 0.00079644204 -0.001393868 0.0013559457 0.008730537 -0.006917797 -0.0026023453 0.0047986237 -0.0054938216 -0.012455649 0.0014590439 -0.0008647486 -0.0019780567 -0.0074155955 -0.00052289764 -0.0071357684 0.00051095465 0.004160833 0.0022416613 0.0016338688 0.0003937773 -0.0014639667 0.01386358 0.0029812504 -0.0047383 -0.015149295 0.0033886442 -0.0061762524 0.0034460905 -4.2372045e-05 -0.0008460288 0.029622976 -0.00035328686 0.0006204138 0.0022342114 -0.0026661903 -0.0012183762 0.0035477434 -0.004241682 0.0009102907 0.0077223685 -4.8233953e-05 -0.0012020075 0.003025103 -0.001045048 0.0025206935 -0.0029675877 -0.00087493774 0.0008726017 0.008356654 0.004659991 -0.0015411202 -0.01069951 -0.0012251061 -0.0013971111 -0.00023998796 8.6384876e-05 0.0033584586 -0.0082306955 -0.00030363954 0.0024106924 0.0005311045 -0.0014710139 0.0028391439 0.000908138 0.00064401294 -7.526959e-05 0.000631801 -0.0031289116 -0.0026824584 0.002782954 0.0033623872 0.008346222 -0.0033583979 0.0028268097 0.003000969 -0.0027789695 -0.0009548304 0.014117528 -0.0068379347 0.0018528382 -0.00041049795 0.0032055362 0.0013431687 0.00021826976 3.7169646e-06 -0.0022891532 0.0011474258 0.005794658 -0.0035964642 -0.0006876083 -0.0036132438 0.0041479156 0.0012602315 -0.0020413925 -0.001830943 -0.0057961154 -0.0024105203 -0.0045530964 -0.02161097 -0.012547996 -0.0014094219 -0.00268502 0.008101261 0.0019258606 0.0017182489 0.00017504925 0.0060977214 0.0012368012 -0.0019097519 0.007519838 0.0008989021 -0.00686928 0.0051448145 -0.0009961356 0.0023621402 -0.0009136797 0.0009774137 0.0018994907 -0.0014072481 -0.003899055 0.0004899123 -0.0006102585 -0.00486165 -0.0023566172 -0.003051375 0.0016343943 0.0011366968 -0.0013467094 0.0013036428 0.0041415105 -0.00039274796 0.0017029822 -0.001732132 0.0010542664 -0.00081628835 0.004252867 -9.365752e-06 0.0010012257 -0.0021743872 -0.001055294 0.0024059536 -4.2284522e-05 -0.001332128 -0.0033487133 0.00022795673 -0.0018304923 0.0019513018 -0.0063239885 0.0058142827 0.0020874403 0.00010256966 0.0070806458 0.00022645609 7.878908e-05 0.002585326 0.0021778734 0.00096502726 -0.0034569425 -0.0057409075 0.0011971316 0.0019754379 -0.0020568068 -0.00015068562 -0.004966089 -0.0022217247 0.0035770752 -0.0034748863 -0.0012705235 -0.00017157305 0.008036123 -0.0011358928 0.00315829 -0.0011474673 0.0006984034 0.00053045404 -0.0007509377 0.010010227 0.011804999 -0.00179137 -0.0002280948 -0.0017885012 -0.00087824854 0.0019058576 0.002290983 -0.017607944 -0.012233692 0.0007941485 0.0010924621 0.0007583019 0.0006149066 0.002276541 0.0033733544 -0.007837553 0.001586871 -0.0055569094 0.0012969621 -0.043049056 -0.009949042 0.009539037 -0.0004911072 0.01145023 0.00046517936 0.0023769557 0.0007956057 0.0015876452 0.0026617714 0.0012041428 -9.106949e-05 0.002075796 -0.011603063 0.00014270448 -0.021271212 -0.0016283741 -0.0005710434 -0.010958969 0.0005239799 -0.01614335 0.00034667467 -0.00038006777 -0.017016608 -0.0008572532 -0.0009185637 0.001631574 0.0028003408 0.021047372 -0.00020963226 -0.00032708046 0.0015618285 0.0012097785 -0.0017494437 0.0016260418 0.0023032336 0.0022751184 0.0011478118 -0.001815567 -0.0001286508 0.0019356973 -0.0003583186 0.008460988 -0.0005876058 0.0029299601 -0.015888743 -0.0015499955 0.0014147742 -0.001029557 0.00095473544 0.0019772486 0.0027764828 -0.017444465 0.00045811126 0.002862269 -0.00046721564 -0.0003116148 -0.001745267 -0.0010150515 0.00019637574 0.005800001 -0.0003807565 7.4584e-05 -0.001963022 0.0012911233 -0.0069182613 -0.002553297 -0.0006564033 -0.00566753 0.0007571968 0.0002820717 -0.0051694824 -0.0008774662 -0.0026307462 0.0018561173 -0.00492978 0.0006884096 -0.0012216014 -0.00036701182 -0.0015628071 -0.0036830588 0.0037878193 -0.007437261 -9.144718e-05 0.0006652175 -0.0014735807 0.005495621 -0.00077542244 -0.001884115 0.0028366398 -0.00050418894 0.0052132383 0.0050954567 0.002531813 -0.001104548 0.0031713773 0.00023850794 -0.0037045036 0.005506071 0.0023640408 -0.00013242305 -0.0040387185 0.0004364074 0.004681824 0.0042376798 0.0018554342 -0.0016371263 -0.00038339276 0.0019809229 0.006478036 0.0018201855 0.0067302333 -0.0011222885 -0.0006978081 0.0006527313 0.031122554 0.00076690887 -0.0033389528 0.0012462911 0.0006107305 0.002493109 0.0015618312 -0.012480941 0.0013647355 0.0014484426 -0.0014444925 0.009781295 0.001083464 0.0011123397 -0.0019066292 0.0024284213 -0.008050742 9.6744414e-05 -0.00862462 0.014582222 -0.006444436 -0.00056863134 6.9621565e-05 0.008497974 0.003972817 0.0018562598 0.0029387942 -0.005590891 0.0017839953 -0.000417545 -0.0011283618 -0.00032453815 -0.0011384765 -0.004005665 0.0025170557 -0.009166597 0.00057849893 -0.013283266 0.002539364 -0.00039784185 -0.0010323568 -0.0025128394 0.002934575 0.00074478437 0.00063713227 0.0017106939 0.00039563962 -0.037211344 0.0026358673 -0.0009530664 -0.010831873 -0.00014385168 0.0012809725 0.0096220495 -0.0051302477 0.0014232 -0.002237899 0.0011943533 -0.0009846184 -0.00014844668 -0.0011630143 -0.00010942579 0.0007221993 0.0004817387 -0.00040467866 -0.0004298738 0.016406296 -0.008510518 -0.0015081103 0.00091777457 -0.005200299 0.0005229336 -0.0028533186 0.006583695 0.0011359004 -0.00062636554 0.0027120514 -0.0018836167 -3.389758e-05 -0.00040289934 0.004950979 0.0007493303 -0.00042258206 0.0009952118 0.001056537 -0.0032948316 0.0036753998 -0.0015277594 -0.009090835 -0.017712986 -0.00015515203 0.0009279517 0.0008480077 0.003712295 -0.0056084767 0.0032631913 -0.0026313562 0.00050098315 -0.0046225023 -0.0016155227 0.003875403 -0.0023000224 0.009670966 0.00032403885
0.0024479392 -0.021221125 0.003657339 0.0008791438 -0.0024123085 0.0029653148 0.00027947573 -0.0009996992 0.0015282887 0.0020005105 -0.0006210416 -0.0023637488 0.0013333919 -0.0042700325 -0.00032401722 0.0048263962 -0.001982742 0.00039665203 -0.0019024422 -0.0028405983 0.0011915292 0.0038848158 -0.0007655148 0.00049389433 0.0022484579 -0.0014195074 0.002179534 -0.0014875749 0.0018280407 0.002524465 -0.0021235798 0.0030673782 -0.00069972366 0.016254954 -0.0017098908 -0.001416343 -0.001980559 0.009566321 -0.00042828958 0.0034887434 -0.002285882 0.013744667 0.0019544307 -0.00086100947 0.00017023571 0.0017649105 -0.0020468216 0.04522672 0.00067328056 0.0068605356 -0.011032746 -0.024255784 -0.0009376022 -0.0014463541 -0.0021913594 0.0037971085 -0.0010322556 -0.00037612062 0.028030891 -0.0006161419 -0.0033133673 -0.0042757965 0.001121053 -0.0009373744 0.0033416667 -0.004410142 -0.0012032927 -0.0003114508 -0.00015302059 -0.0006875839 -0.003803125 -0.0026687619 0.0016972236 -0.0017457729 0.0019862645 -0.0010735367 0.00025067825 -0.0109545 0.00023521934 -0.001281075 0.0012569361 -0.0030457843 -0.0028724251 -0.0011073888 0.001260083 0.0024539053 -0.0012339476 0.0031976341 -0.0025214553 0.0053761485 -0.0009314724 -0.0030680513 0.014954622 0.0008946747 0.0004839235 -0.0019700185 -0.00066867005 0.0022805843 0.0028951121 0.0011377604 -0.010475779 -5.3134914e-05 0.0026524444 -0.0021895538 -0.0010039661 0.008776408 -0.0001942011 0.0028013901 -0.00018609308 0.0065516215 -0.0010746147 0.0010048948 0.0023432516 -0.003748511 -0.0008008928 -0.0004308876 0.00044888502 -0.00058821175 0.00055907934 -0.0020004322 -0.0019674732 -0.0037669097 -0.0012103417 0.00019256168 0.0052267197 0.0001894711 0.0009003041 -0.021102065 0.00084181613 0.0007782442 0.0027424307 0.0036801384 0.00018737938 0.00069954 -0.0056040226 0.0032874234 -0.007464076 0.00064018165 0.00038038782 0.00036339767 -0.0018866336 -0.0013273332 -0.0029381663 0.008192532 -2.9536799e-05 0.008996883 0.0032441288 0.00071847584 -0.0020243446 0.00084893394 0.0006914542 -0.002251532 0.015614997 0.00609174 -0.0142089445 -0.0021952332 0.0009970864 -0.00022564946 5.1830416e-06 -0.0014667482 0.0057853935 -0.0023117177 -0.0037417402 0.0014624347 0.003877153 0.0002478165 -0.0026939707 0.00020985272 -0.0029170327 -0.0029511638 -0.0069173863 -0.00015276019 -0.0016912419 -0.0010118185 0.002667323 0.0005036621 0.004512875 0.00049971306 0.008013801 -0.0037395814 -0.0007992282 0.0011758449 0.00021163393 -0.0015034145 0.0036249957 -0.0055770106 0.00015533899 -0.0007341217 0.009945539 -0.0031879696 -0.001945474 -0.00084700575 -0.0010073232 -0.0016544068 0.00012225502 0.0032776645 0.0011117852 -0.0010847645 -0.0007087518 -0.00052133325 0.00075466133 0.00035499563 -0.0003606121 0.0022450897 0.00041819605 0.0009961999 0.026081651 0.000911502 0.0017389107 0.0030106397 7.114601e-05 -0.0031725345 0.0022994494 0.0024517574 0.0017484233 -0.00035619264 -0.003600749 3.178148e-05 -0.0011299707 0.0011717691 0.0005277303 0.0008608027 -3.6517456e-05 0.006499699 0.0025902085 -0.0027878715 0.004487043 0.0033213985 0.0007142316 -0.00024792866 -0.00043220082 -0.0011228902 -0.0012675283 -0.0031064483 0.0016929288 0.00015468957 -0.00059757347 -0.0003573164 0.00095662044 0.001399079 -0.0047920435 0.0014877515 -0.0037998052 -0.0024588828 0.0036455197 -0.003479034 0.0017078085 -0.0014132998 0.00072467636 0.0016779599 -0.00039233553 0.0050177877 0.0024464596 -4.2286483e-05 0.0022011742 -0.051926814 7.058713e-06 -0.0006987021 -0.0016495816 0.0019191471 -0.0029376855 -0.00034641763 -0.00010260019 0.008339585 0.0042526405 -0.0002156023 -0.0030880533 -0.0005985864 -0.0020589929 0.0030277262 -0.0003631099 -0.003821643 0.0029923457 -0.0032427988 0.0037511752 0.0016389195 -0.003294731 -0.0014873595 0.003993722 -0.0017152369 -0.0016320886 0.0035748421 -0.0061325133 -0.0014804472 0.0018007025 0.0010154953 0.00049018906 0.023136856 0.0035492824 0.0020936807 0.0003154728 0.0015504576 -0.0005522894 -0.00404148 -0.0024793684 -0.003984042 0.0026855122 0.00074734556 -0.00017362903 0.0004523464 0.0016421443 0.0006179129 0.00019211558 -0.0018731918 -0.0009061218 0.0018805141 0.0026489794 0.0014947596 -0.00043634084 0.00055496854 0.00056368037 0.006128403 -0.0009086439 -0.021354683 -0.005601956 0.0029369052 0.00473366 -0.0012150307 0.0018845083 -0.0017086514 0.009847219 -0.0051913834 -0.0025580719 -0.00054984697 -0.001591903 0.0025436599 0.0015001262 0.00018200168 -1.0766625e-05 -0.0013722361 -7.487407e-06 -0.0016399318 -0.00017031554 -0.0010474325 0.006288855 -0.0011518172 -0.0028266225 0.0026753733 2.2671104e-05 0.0009828423 -0.00058289256 -0.046400554 -0.0015539746 -0.0011511666 -0.0007997124 -0.00847843 0.00021885005 -0.001229355 -0.019454053 -0.0015216434 0.0001126049 -0.0012461268 0.0005599014 -0.00074628514 0.0008539813 -5.816085e-05 0.00054318836 0.00014855214 0.0014465093 0.0023506668 0.0022722334 0.004547413 -0.0018674773 0.0009608219 0.0051884167 0.011095018 0.00092725264 -0.0028259319 0.0019846107 -0.00036034282 -0.0032284856 0.00040996054 -0.002187652 0.0013256426 -0.0018697507 -0.0018469187 0.0014284535 0.00023861854 -0.0004781026 -0.0015634258 0.0007711891 -0.0065865223 0.00041027676 -0.0010352547 -0.0009600406 -0.014379809 0.0011483224 0.0029826378 -0.0018878911 0.001062193 0.0010434133 -1.2344694e-05 0.0020703538 0.0025636498 0.0047177514 0.006776273 -0.0049391594 0.0042750305 -0.00030167593 -0.0021492604 0.00033399824 0.0011198662 0.000524553 -0.0019392057 -0.0021435055 -0.0039026837 0.004150963 0.0017328801 0.021793129 -0.0008106952 0.004598947 0.004333116 0.0038655263 0.0032666903 0.003561631 -0.00834006 -0.0024109473 -0.00091734785 0.0016263644 -0.0032762699 0.0016033947 3.986797e-05 0.0019046416 0.0015758501 0.0024415834 -0.00080697954 0.0052003744 -0.006652664 -0.0022224463 -2.099249e-05 0.00036496858 0.0076628546 0.00045602556 -0.00014831954 -0.005163772 0.004628795 0.0042779692 0.0011204948 -0.003645972 -0.004006633 0.0019102022 0.004617788 0.0029645683 -0.009831043 -0.002171002 0.0043762447 0.002643154 -0.0023727515 -0.0031879584 0.0023081673 0.00034909474 -0.0029740985 -0.003712566 0.0011731903 -0.0016456734 -0.010425366 -0.0026016983 -0.00017605927 0.042736314 -0.0026819536 -0.0016806646 -0.0055775284 0.0056609088 -0.0011500269 -0.006161696 -0.0005912315 -0.00021764071 -0.0025347078 0.0030823445 -0.00089603 -0.0012846997 -0.0021201838 0.00017503281 -0.0011509194 -0.0024662106 -0.0034276259 -0.0023562955 -0.0035933098 0.0014589109 -0.0049682613 -0.0020035983 -0.0010160224 -0.0029590102 0.00016506723 0.002902473 0.0072383275 0.0013634523 -0.002713451 0.0067431317 -0.002841321 0.00076686195 -0.0018726564 0.0035385694 -0.00088614423 0.0026880628 0.0037585336 0.0028985576 -0.0029042794 0.0019392535 -0.003272405 -0.002157077 -0.0032093185 -0.008413244 -1.8994455e-05 -0.002087142 0.0024974789 -0.00073767715 -0.00048591403 0.0015269335 0.0003405038 -0.0031082705 -0.0017125651
0.0029107092 -0.00017729496 -0.0031089105 0.0038200745 -0.0035843363 -0.001250727 0.0013056928 -0.0062253666 0.0021336242 0.007724382 0.0005723918 0.0002459707 0.0019156099 0.0006306179 0.0026108895 -0.00243939 -2.1209155e-05 0.0016458504 -0.009810344 0.00057225 -0.0011336808 0.0020017165 0.00036244854 -0.00032227635 0.00030397414 0.003954346 8.763682e-05 0.0015078014 -0.00087282393 -0.0016772338 -0.0029062484 -0.0031674656 -0.002953621 0.00032498024 -0.0041428073 0.0005648023 -0.0024175132 -0.0015761192 -0.00014830193 0.0015936553 -0.00041723202 0.0029151062 -0.0011722359 -0.0033536726 0.00014829304 0.0017729204 5.5970115e-05 -0.0032758405 -0.00023133091 -0.004527077 0.0017265419 0.002026341 0.00031555747 -0.00033096707 -0.0018889928 0.0026480204 -9.6116404e-05 0.00055971806 -0.008626335 0.0030220388 -0.0017273566 -0.007345676 -8.6681146e-05 -0.0026400203 -0.009680141 -2.9608602e-05 0.006531629 -0.0006102708 -0.0017561757 0.0016852384 0.0021123728 0.002753256 0.0001705195 0.0010052541 0.0007028736 -0.0018269178 -0.0014581823 0.027373595 -0.0020153632 -0.003872649 -0.0009190223 -0.0004656962 0.016188147 0.0031776996 0.00065153977 0.00035263816 -0.0021376673 6.962298e-05 -0.0004739102 0.0023841963 0.00063524407 -0.0022317423 0.0010107014 0.00044754695 -0.0006070619 -0.00093915785 -0.0029730308 -0.0017492227 0.0032649578 0.0043952256 0.002031528 -0.0019864517 -0.00025436748 0.0025432988 0.0016165178 -0.00014006069 -0.005554236 -0.004279739 -0.006490947 -0.0085296985 -0.00046220928 -0.0038788377 0.00048227017 -0.003112679 0.0020100402 -0.00028168617 0.0011452122 -0.0007434389 0.00015766745 0.00064718694 -0.00013637336 0.00035306285 -0.0016458279 0.0019074563 0.0025880022 -0.001284893 -0.00079916365 -0.0022959246 -0.0021318984 -0.0014475696 0.0014409294 0.0025546772 -0.00023963313 -0.003088433 -0.009903683 0.00022443678 0.0011346474 0.0035317987 0.0013875752 -0.004902091 -0.001208268 0.001691657 -0.0006432839 -0.0009061729 -0.0011408838 -0.00092888426 0.0022265005 0.0003327181 0.0029062594 0.00081879203 0.0004866945 0.00018471498 -0.0017523629 0.00010392853 0.000802842 -0.0022906924 -0.00046714192 -0.00020904157 -0.009576981 0.0013857168 0.00046483026 0.002345683 0.007541872 0.0025245105 -0.014018599 0.0016539345 0.0009571438 -0.00095813366 0.0020330967 -0.0067879837 -0.0014375976 0.0046739466 -0.0021567487 0.00038141527 0.0010523034 0.0013177809 0.0019840272 -7.872395e-05 -0.0073308633 -0.009604951 0.0014476187 -0.0007091842 0.0031103273 0.00055640796 0.0026579401 0.0023569574 -5.8098853e-05 -0.0003809382 -0.005003645 0.002877981 -0.0027256813 -0.0008836135 0.0036275715 -0.0017560216 -0.00035629005 0.0035872045 0.0105481 -0.0008843091 -5.461623e-05 -0.0026289027 0.0046376986 0.0011305116 -0.0045273486 0.0018851333 -0.00073310785 -0.00063185894 0.002476379 0.0005702531 -0.0004888228 -0.0029808185 -0.0029055614 -0.017815853 0.00016794498 0.0015180188 -0.00020451036 -0.0044353004 -0.00135473 0.002392426 0.00046678094 0.005659371 -0.0024715466 0.0008641987 -0.0012946498 0.013452679 0.0013265711 0.0013461277 0.0013731035 0.001395527 0.0020719005 0.0013681443 -0.00019054786 0.0011846671 -0.00087616115 -0.0017096112 -0.001257601 0.0057121767 0.001294313 0.0037119472 0.0019271341 0.001206097 0.0023240452 -0.0028267426 0.002832485 -0.0002751211 8.653769e-06 -0.004359718 0.0017139035 -0.0013215314 0.0021542758 0.0008439181 -0.0006906242 0.0059557115 -0.00042768504 0.0010073917 -0.0032629464 -0.0029238076 -0.00083042454 -0.001994546 0.00040989288 -0.0047077993 -0.00017630962 0.0016424175 0.0019448492 0.019314129 -0.006077789 0.0004699174 -0.0019951593 -0.00033398508 0.0034790062 -0.003695602 0.003732119 0.012970299 0.00089629117 -0.00046697486 -0.0020171693 0.0012249366 0.00037346306 0.0017530815 -0.0012328111 0.0018532932 -0.0007561351 -0.0017983367 0.0036662044 0.0009020761 0.0020970553 -0.00048370933 -0.001347204 0.001457595 -0.00083301886 -0.0037941933 -0.0010798823 0.0034006173 -0.0022288025 -0.0019055097 5.32478e-05 -3.173433e-05 0.021647627 -0.00049177784 0.0012508843 0.00051253184 -0.0006711468 -0.002100049 0.0012499043 0.00092087797 -0.001429327 -0.0004412099 -0.00035257425 -0.002341823 0.0014576007 -8.392489e-05 0.0003191553 0.0038387424 0.0002495224 0.012952718 -0.0018578148 -9.727951e-05 0.0009800688 0.0024554539 0.00092134345 -0.00049337925 -0.0013623255 -0.0004773807 -0.001963878 0.001458596 -0.0022108124 0.00114193 -0.0015000447 -0.0018134215 0.00090639637 -0.0020485881 0.001421387 -0.00013142753 0.0015923454 -0.0035755753 0.0018056422 -0.0018761336 -0.0018144232 0.00091089355 -0.00096248015 0.0057419487 0.0016020255 0.00016457349 0.0022528095 -0.0016627695 0.0033518823 -0.003200805 0.001707507 -0.0030072874 -0.0012449357 0.003657412 0.0008794903 0.0030129827 0.0026688431 -0.0025651318 -0.0015003516 -0.00108572 -0.0025936053 -0.012278276 -0.009360252 -0.00062035595 6.758549e-05 -0.0017338309 -0.0022955604 0.0022710513 -0.001468907 -0.0060288105 -0.0019363784 -0.0016200573 0.0011959932 0.0026356848 0.0023393687 -0.00048368168 -0.0025501046 0.0010373315 0.005683071 -0.0014889693 0.00023141982 0.00016227778 0.0014503773 -0.0021927708 0.0060579292 0.003050123 0.0021740054 -0.0004286625 0.024001265 -5.3488424e-05 -5.504801e-05 0.00048259855 -0.0027266478 -0.0026522146 0.0012119126 0.0010612702 -0.0013967043 0.0015614496 -0.0037595825 0.003912774 0.00045386064 0.0017412326 0.0059640026 0.0009506848 0.0019363324 0.0038603276 0.0008571201 0.001463251 0.0009760505 -0.0027452465 0.00017984645 0.00033000362 -0.006530148 -0.0037408683 0.0013868829 0.0012151037 0.0035817919 -1.6383941e-06 -0.00020783478 -0.00020056574 0.0006371662 0.00073546433 0.007346954 0.0013528643 0.0026180143 0.0016083966 -0.026974143 -3.5570098e-05 0.0023866694 0.0007168672 0.0020064686 0.001991392 -0.0015830455 -0.0015224632 -0.00029077305 -0.0067859106 -0.0017852875 0.0031937596 0.00010285262 0.0026280894 0.004589154 0.00091449404 0.0015211253 0.001480148 -0.0011442351 0.0040197833 0.010971278 -5.2568605e-05 -0.00064162514 -0.0009779719 -0.00030524167 -0.0010614722 -0.0035772573 0.006099971 -0.003743901 0.0043348423 -0.000673041 -0.00040041478 0.0010582438 -0.016316736 0.0019145939 -0.00030137022 -0.0044826665 2.1966198e-06 -0.0014860727 -0.0077474695 0.0012032284 -0.0002953587 -0.0065095015 0.0012559138 -1.8138302e-05 -0.0024092493 -0.0010099376 -0.00041043203 0.0010863175 -0.0008411723 -0.0006327564 -0.0046232273 0.0013507023 -0.0014001464 -0.0019775054 4.6939047e-05 0.0044449847 0.0019632776 0.015994001 0.0034366173 0.0017869734 0.0022162262 0.0023938327 -0.0021583026 0.00048379536 0.0023312068 -0.012197698 -0.0009181317 0.0024873195 0.0023566445 0.0016956399 0.00091242633 0.0026870756 0.002190806 0.0071841255 0.0011259365 0.0031711857 0.008307945 0.00027770735 0.00083647505 -0.0004396248 0.0022810833 6.706999e-05 -0.0004132067 0.0020042919 0.0006377286 -0.00021720778 0.0033791196 -0.006318939 -0.00071416516
-0.0042480747 0.012524525 -0.0063526747 -0.0062866025 0.006274985 0.004117112 -0.0033755247 0.00542036 -0.0058316067 -0.0014149717 -0.0057552005 -0.0018970557 -0.00010744319 0.0004662836 0.001314886 0.004626108 -0.0026625453 -0.0011832139 0.005418375 0.008578253 0.0053869514 -0.0018473199 0.0011229751 0.0016920218 -0.006738816 -0.0020838848 -0.00012775094 -0.0023637395 -0.0020978253 0.0025740291 -0.0016463198 0.0019909132 -0.0014445151 0.0030513292 0.01024774 -0.0017339395 6.9512025e-05 0.022382466 0.00062078645 -0.0051273266 0.006764956 -0.018072994 0.0021792357 0.0010525828 -0.00053134013 0.0016878889 0.004297659 -0.008042503 -0.0018115889 0.0016558688 0.004129306 -0.0041688066 0.009698615 0.00022322641 0.0050590914 -0.0005124994 0.0005913996 0.0018596709 -0.0018568046 -0.00014394897 -0.0030626357 0.004731561 0.0016504161 0.0013334611 -0.001442611 -0.0020553833 -0.010262032 0.004601701 0.0016088058 0.001188885 0.011486621 0.0006728622 -0.0017769934 -0.0019411535 0.0021103274 -0.00022579893 0.000989799 -0.0070356536 -0.0035796545 -0.0019861583 -0.0011209146 0.0021378652 0.003309223 0.0022525084 -0.0003624961 -0.0036083874 0.004334339 -0.005256489 -0.00056057447 0.002990904 0.00023331397 -0.002350939 -0.0009082776 -0.00039827172 -0.0017980346 -0.0006169155 -7.973456e-05 -0.0018104704 0.0047226385 -0.0019252223 0.0014136021 0.0011563989 7.1383125e-05 0.0012658893 -0.0028510424 -0.00599968 -0.0011386197 0.004451151 0.0006550551 0.033691436 -0.0009825069 0.0019363204 0.013018742 0.006350118 0.0020055147 -0.010156254 -0.002562759 0.0017259348 -0.0027719825 0.0018111314 0.001786405 0.0040888586 0.0031300099 -0.014130171 0.014152051 -0.0037324377 -0.010187886 0.039404463 0.0009974273 -0.0015180073 0.0002355971 0.0013665005 0.0016304082 -0.004914748 -0.0008777915 0.0032439462 -0.007404645 0.0032538823 -0.0018199527 0.0013041433 0.00024919532 0.0014227321 -0.0014501758 0.008778329 -0.00084830105 -0.0013208425 -0.004542291 -0.0005956024 -0.0025808618 -0.0033848374 -0.0011806388 -0.003506478 0.018609216 -0.00087724597 0.0027789683 0.0016125975 0.00055139157 -0.0010389526 -0.001789498 0.0012813127 0.008828618 0.00018299482 0.0011523169 0.0013327514 0.0039457846 -0.010813541 -0.002811673 0.00434295 -0.001225356 0.011879409 0.010609278 0.0010203108 -0.00051568064 -0.0008654747 0.0017475683 -0.0024205057 0.008195965 0.0019876824 -0.008391427 -0.009136552 0.0010241973 -0.0017996333 -0.0012252965 0.0022415807 0.0045762747 0.0099762 -0.0029640552 0.0013992621 -0.006851021 0.002377438 0.0049742786 -0.00052438217 0.0026969064 -0.00084624364 -0.0044594444 -0.00071976916 0.007230216 0.0034888384 -0.0014704019 -2.6770966e-05 -0.00029073423 0.0024645035 -0.001601446 -0.0027484817 0.003709082 -0.0009980733 0.009109895 0.0028257684 0.0063518486 -0.0024863088 0.010205928 -0.003540769 0.00026258486 -0.0014818272 0.004058652 0.0037696117 -0.007489932 0.0010814844 -0.0014945057 -0.012695178 -0.005363299 8.1600454e-05 0.001912003 0.010975199 0.00011091763 0.011050502 -0.017787108 -0.0016496676 -0.00069681095 0.0010615288 -0.001988499 -0.00013074909 -0.002713341 0.0002972334 0.00013446111 0.0023659528 -0.0012025177 -0.0018532571 0.0017377198 -0.0038176326 0.029159347 -0.007965445 -0.0029987001 0.0025411337 -0.0014697125 0.013591914 -0.0017319743 -0.003299251 -0.00539182 -0.0012209727 0.00027878486 0.0065444447 -0.0035751255 0.0030954052 -0.019497234 0.011712889 0.0027283884 -0.0024912742 -0.0006782651 -0.008270893 0.0025490515 0.004651022 0.0035908383 -0.0013935138 0.0007480422 -0.002798612 0.0033166076 -0.0011411048 -0.0006014023 -0.0035054842 0.012504897 0.00043891207 -0.0014915726 0.0031572871 -0.0013544224 -0.0012302907 0.0025420897 0.0006231288 -0.0015069804 0.00025210896 0.011085802 0.0011610163 -0.024951015 -0.0007511673 -0.003153581 -0.00060902425 0.0011304618 0.00097144174 -0.0026348487 -0.00045586895 -0.00164815 -0.0010455323 -0.0016591393 0.01433473 0.0061447266 0.011266617 -0.0063299546 -0.008073319 0.0037955586 0.0012411404 -0.00018959335 -0.006568 -0.004189397 -0.001421537 -0.0023185534 -0.0022732723 0.0034730185 -0.0005807866 -0.0048699277 0.0017999464 -0.004685383 -0.014530673 0.005005917 -0.014447673 -0.0018732424 0.0020500433 0.0015550337 -0.00044152443 -0.01632741 0.00048180798 -0.004027785 0.006118211 -0.001562452 -0.0024732407 0.00054942176 0.003614989 0.0013661144 0.0003349018 -0.00058030104 0.0037387041 -0.0073395544 0.0021794764 0.0008033308 -0.0069346544 -0.0008364433 0.0056580137 -0.00031581905 0.0070279795 -0.0017433114 -3.5778347e-05 -0.0027875607 0.004736432 -0.0036262535 0.0037802146 -0.003962083 0.0012964902 -0.0004521498 0.006154527 -0.0027929686 -0.013122335 -0.00048619046 -0.0036711253 0.010256683 -0.0054575866 -0.00081499165 -0.0009410926 -0.0022239657 0.007981141 -0.0014386598 -0.0031524159 -0.0051627 0.016085781 0.00096965424 0.0007793019 -0.0148884645 -0.0062175775 -0.0005167892 -0.0014297809 -0.0011353103 0.0011880023 -0.002295518 0.0029764574 0.0001306016 0.01360552 0.0074592764 0.0067058206 -0.0006984507 -0.0023623395 -0.0027874056 -0.0076373382 0.0007774416 0.010449511 -0.00040799758 -0.0016462305 -0.0035148072 0.0007612056 0.0010867101 0.010783727 0.0069483807 -0.011500466 -0.0032879242 0.00061465474 0.0011091908 0.0017980002 0.0024285873 0.011629123 -0.0008069328 0.003119951 0.00079623127 -0.00017702667 0.0016091329 -0.0006176261 0.011714847 -0.0024596588 -0.0063072583 0.0014204588 -0.0006397288 -0.0014455081 -0.021221746 0.00041908814 -0.0021348298 -0.0016289843 -0.009594113 -0.0057796356 0.0011723541 -0.0041812053 -0.0011901945 -2.2177164e-06 0.006592608 0.0022964245 -0.0022611578 -0.0007435437 0.0048143975 -0.00616665 -0.005672547 0.0012175131 -0.007813473 0.0076596304 0.014044449 0.001821324 0.0013007071 -0.01802208 0.0070792255 -0.0013167394 -0.004881756 0.008466999 0.006829807 -0.0003262352 -0.0014748394 0.006343851 -0.00015119613 0.008883546 0.005910115 -0.0018407059 -0.00016186941 -0.011021883 -0.0021495873 0.0034308478 -0.01001376 0.0059740962 -0.00014459614 -0.0043922104 -0.00014905389 0.0018151569 -4.611598e-05 0.0053606955 -0.008312158 -0.0011927536 -0.017992962 0.00054968975 0.017699473 -0.025178418 -0.003820765 -0.00011622499 -0.004973365 0.000422029 3.3464974e-05 0.0023625018 0.003003193 0.0019330696 -0.0018826197 0.0043730508 -3.3247812e-05 0.021407273 0.019189471 0.010735282 -0.0052593746 -0.012784389 -0.007151721 -0.005428812 0.017663114 -0.00092033925 -0.004288761 0.0014219346 -0.008615506 0.003335367 -0.006438591 -0.0004351689 -0.00096183864 0.0012738104 0.0013578724 -0.0014696079 -0.0022510006 0.008024636 -0.0016492504 0.0027660762 0.0040665306 -0.0024921212 -0.00982415 3.7077614e-05 -0.00010952952 0.002141624 0.0028686963 -0.0042877467 -0.00040965527 -0.0009922094 0.00085182564 0.00357015 0.009246052 0.0028457507 0.002334069 -0.00078237755
0.00083190325 0.002880061 0.007362408 -0.0026643048 0.00029860754 0.0027960972 0.0034850382 0.009600743 -0.013815416 -0.00024607938 0.0051070172 0.0086364355 -0.0007414862 -0.0034778537 -0.001853635 0.0016824708 0.0014078594 -0.0010744005 -0.0013880517 -0.016285466 0.004396465 -0.0044371416 0.0003910788 0.007439309 -0.0043545594 0.0006709273 -0.0011814658 0.0031152798 0.0027562934 -0.0040728226 0.0017618933 -0.004776749 0.00059102196 -0.0010954659 -0.0040972345 0.0098129 0.00018623756 -0.009900308 -0.0016627129 0.0036938197 0.0029454941 -0.0022183533 0.003533816 -0.0020231155 -0.0016157184 0.0006065432 -0.0014421286 -0.0035121362 0.0012296914 0.0041608685 -0.0020445662 -0.0023219264 0.0024645983 0.0029709346 -0.0011153185 -0.0041961116 0.00051036297 -0.0019743675 -0.026560172 0.0007790985 0.00036541306 -0.00028503142 0.0011313672 0.0020492943 -0.0013425075 -0.013999672 0.0062824916 0.0010517717 -0.00073309965 -0.00036268364 -0.014138034 0.0038579514 0.0007485435 -0.0003052408 0.0032935487 -8.737587e-05 0.00021596579 0.016495181 2.245322e-06 -0.0010219897 -0.005038509 -0.0029778304 -0.00071004283 0.0011018468 0.0013707441 0.00010234384 0.002639447 -0.008038698 0.00049539236 0.0026731137 -0.0031235632 0.0017842135 -0.001107053 -0.0011351254 -0.0017199791 -0.0034984716 0.0034277623 0.001662907 0.007740802 0.0015004777 0.0005060157 0.014169961 -0.00047662004 -0.00017969929 -0.00097406784 -0.0007039791 0.0049912385 -0.006905632 0.004271797 -0.021230403 0.008402916 0.0016900968 0.00022702281 0.004494149 -0.0033437 -0.012159055 0.004433268 -0.0018715601 0.0006883351 -0.0009246497 -0.0022538812 -0.0007288525 0.0014452471 -0.002145515 -0.0015843172 -0.0012252285 0.007892748 -0.00092763716 0.0007263083 -0.0011240598 0.0034907337 0.0008543089 -0.0015651969 0.0036215528 0.0009526286 -0.0053329053 -0.0021468115 -0.009944835 0.002001533 -0.011485787 0.0019184699 0.0038234794 -0.00046892356 0.010724397 -0.0029865017 0.0019621218 0.004214165 -0.0009948227 0.012372871 -0.0019812016 0.00048800904 -0.001291987 -0.015813185 0.0020534392 0.0075113843 0.00038675172 -0.0010444202 0.0034936478 0.0011888162 -0.0010474825 0.014480387 -0.00017477779 -0.008271072 0.0004499223 0.0053174114 0.010801652 8.309468e-05 -0.010226926 0.0025261587 0.016886862 -0.0013616087 -0.0012155737 -0.0031739667 0.0031228177 -0.0025888097 0.000804069 -0.0029241985 0.0009814244 -0.016055323 0.01885591 0.0030792078 7.958896e-07 -0.0033578598 -0.0013513311 -0.015441472 -0.004641992 -0.00018292137 0.0029166923 -0.006903009 0.0010787206 0.0011098906 -0.002040147 0.0029023706 -0.00063709106 -0.009041163 0.004483981 -0.009911975 0.007816465 -0.0043732766 0.0043111835 -0.0029877336 -0.004065884 -0.005520783 -4.8594145e-05 -0.0058752047 -0.0029246511 0.0022739505 -0.0050441674 -0.0017245047 -0.005412539 0.0056446115 0.004492782 -0.0035288061 -0.013248581 0.0009814132 -0.0005136265 -0.0005957717 0.0011609953 0.00064215297 -0.0024263042 -0.0011229005 -0.008198276 -0.0012848374 0.0025681967 -0.0029764904 0.0066053867 -0.041915223 0.0013624398 -0.001447147 -0.0013533895 0.0007377901 0.002962238 -0.0009724868 0.0011830226 -0.0044044377 -0.002560475 0.00090183964 -0.00076263543 -0.0002860243 0.00048871164 0.0030790302 0.0041530095 0.0017146106 0.002737021 -0.0068908096 0.0019085523 -0.0044900137 -0.010215346 -0.00083991466 0.0060300175 -0.00016576471 0.0056963027 0.0024246995 0.000767215 0.008677142 0.018774211 0.00045148598 0.0050788354 0.0038650734 0.013337501 0.00068221183 -0.0023122733 -0.009885425 -0.016518814 0.0066126576 0.0002819464 0.00076665316 0.0039892076 0.0036197111 0.0019187324 0.0066071916 -0.0026350357 -0.008523953 -0.010892672 0.0026335905 0.0012683369 -0.0034486854 0.00021857896 0.0025003818 -0.0012180782 0.006955894 -0.0045533134 0.0033200132 0.00053696457 -0.0007051687 0.0036530949 -0.0039483104 0.0022537566 -0.0039968994 0.0010816619 -0.001889789 -0.0030735738 0.001182739 -0.0018996923 -0.0032664589 -0.001483277 0.008569878 0.022415018 -0.0051862285 0.0014002831 0.0027807474 -0.0025597145 -0.0016903054 0.00088681263 0.0028226823 -0.0056540286 0.004125172 0.0014480635 0.008949414 0.0006906294 -0.008033731 0.001672131 -0.001550743 0.031583007 0.0060453364 0.0007049737 0.01161691 -0.0045660757 0.022542814 0.00048315898 0.00022098803 -0.0066288114 0.00064377644 0.0038256324 0.0033630934 -0.0017699525 -0.00027787325 -0.0011781432 -0.003599471 -0.002915623 0.004212528 -0.0015763139 -0.00079565117 0.006752092 0.0005337754 0.0015161138 0.0014525366 -0.00076472067 0.0040232884 0.01248562 0.0031832138 0.0025263983 0.00050743134 0.0017498272 0.01792032 -0.0029853922 0.0005532342 0.013248059 -0.002037828 -0.0023598238 0.00045733305 0.0013620167 0.008972871 -0.001504089 -0.0012472027 -0.017632574 -0.0051564025 0.0038382623 -0.006700984 0.00018230846 -0.007397253 6.544156e-05 0.0010371967 -0.0017170317 -0.0044750515 0.0062490646 0.003059218 0.00056281924 -0.0008036649 -0.001947298 -8.981786e-06 -0.01299589 -0.0030938466 0.0011037615 -0.004094376 0.005322236 0.0020145804 -0.0002514978 0.00027275342 -0.0050089075 -0.0047683483 -0.0007916208 0.0020632786 0.0015296013 0.0017199317 -0.0021324893 -0.00809435 0.00030428192 0.0015706241 -0.00052414654 -0.00472648 0.0030878407 -0.0008833873 0.0015705865 -0.0019569045 0.0048428103 -0.003451285 -0.012564894 0.0011732291 0.0061720703 -0.002706945 0.010221262 -0.004328034 9.6860924e-05 0.0077575636 -0.0017451199 -0.0045473487 -0.003792854 -0.017199209 0.0019318671 0.0007268371 0.0009237404 -0.005430058 -0.005898467 0.00031199394 -0.005000586 0.0015618008 0.0035050674 -0.006579887 0.005948195 0.0013686032 0.0029358037 -0.011304827 0.004742008 0.0013734958 -0.008494572 0.002489976 -0.0006209384 -0.0047707213 -0.0028492953 0.0015788043 0.047344062 -0.0003133733 0.001152772 0.0035775476 -0.009242241 0.030982785 0.00034442198 -7.7563964e-05 0.00051487144 -0.0003939038 -0.008552668 0.011114443 -0.0064365426 -0.0047163176 0.00014413199 -0.00049329334 0.00088934763 0.0051041306 0.0078044105 0.0016307357 0.003633847 -0.0027850645 -0.0001740608 0.0016680686 -0.036039546 -0.0045637875 0.0025440564 0.0032360358 0.0030753019 0.007905429 7.646723e-06 -0.00047420658 0.0032840837 -0.0033311516 -0.002584924 -0.00043591423 -0.0013547898 0.003225466 -0.00075017975 0.0020255868 -0.008732935 0.0012123532 0.0029883666 -0.0036002076 -0.0040628514 -0.009251475 -0.0025414578 0.0029716508 0.0009113448 0.021185312 0.0088077895 0.0024986416 0.00092812 -0.00785226 -0.0022685004 0.0077996603 -0.0018245854 0.0049348823 0.0012628703 -0.0039789523 -0.0023667684 -0.015758825 -0.0033590596 0.0043760273 0.0026675856 -0.0104961535 -0.00895301 -0.0060297046 -0.006627236 0.0014576302 -0.0017846196 0.011638123 -0.002239385 0.0021817102 0.0026443582 -0.008099573 0.004799025 -0.0020942057 0.006102585 -0.0060444116 0.0016874052
0.0022479463 0.0006254458 0.0036334426 -0.011807892 -0.0008191337 0.008324062 -0.0011991349 0.0037230619 -0.03092684 -0.0019389434 0.0021226394 -0.0013990679 0.0030452812 -0.0016308657 -0.0014682944 0.005570806 0.00021229393 0.002416952 -0.0030053868 -0.0007069044 0.014285784 0.0022106834 0.0018558829 0.0023437885 -0.0005741234 0.0026017234 0.0031322704 -0.0018028101 0.00037176823 -0.0016204027 0.0035045177 -0.0026463722 -0.0010221989 0.006989113 -0.00013087335 0.004817022 0.0057718097 -0.0021331275 -0.00021146209 0.0011676275 0.0037789578 0.028017677 0.0014820563 -0.0010140302 -0.00066335226 0.001786326 9.330124e-05 -0.00038288574 -0.0011701853 -0.0027871064 -0.0032330255 -0.0010224128 0.008310571 0.0027234121 -0.0016022245 -0.0017659114 0.00029966296 0.00064195273 0.032706995 0.0018676856 -0.00083721697 0.0018563936 -4.4838303e-06 -0.000118639226 0.0021408547 0.004231849 0.013777011 -0.0012020457 0.0006526242 0.0009836913 -0.048729565 -0.0016568009 0.0019116839 -0.00038900715 0.0018621789 0.0011035935 -0.0029208816 -0.0021803908 3.6488666e-05 -0.0016923755 -0.0027029398 0.008452574 -0.0006884532 -0.00020227616 -0.013811199 9.260094e-05 0.0028595587 0.0006449615 -0.0046322607 0.0025135458 0.0034173212 -0.0052161785 -0.0038141368 -0.0006613371 1.6091655e-05 -0.0010350592 -0.0028944472 0.0035935384 0.015686493 0.0042831684 -0.0052305805 -0.00055836653 0.0028683825 0.0008255528 0.002864067 -0.0016705999 0.0030087472 -0.0014812336 0.0031438528 0.022468377 -0.0009663827 -0.008058706 0.0035337934 -0.007922186 0.0037746085 -0.0025271026 0.0028396626 0.048667956 0.0010284336 -0.00012827854 -0.0056167534 0.0011678628 0.0039441325 -0.00039623794 -0.0013910095 -0.0006037839 -0.0064293677 0.047388617 -0.00091416185 -0.0019174322 1.0914314e-05 -0.0006901572 0.0022509948 -0.0005219773 -0.002549203 0.02750443 0.012080164 -0.0057305438 0.0012008072 0.0012046128 0.00059521274 0.0027342327 0.00035770316 -0.0007889895 0.0021192625 -0.006689754 0.00015316262 -0.001097447 -0.013654411 0.002216658 0.0013327211 0.0020255854 0.024095044 0.0032711765 -0.035480097 0.0032251726 -0.0010132174 0.0016047474 -0.005507774 -0.0016164467 0.0018536382 0.00385739 -0.0072128447 0.0036124173 -0.00029467477 0.0004128934 0.0015212572 -0.00018180281 -0.001023509 0.009319771 0.016516335 0.0023270168 0.006172438 -0.0028031876 0.0018160813 -0.00015513573 0.024755852 0.0022283792 -0.01252628 -0.00085363263 2.6712354e-05 0.0022913367 3.723977e-05 0.009340684 0.014514085 0.015189791 -0.0007204863 0.0038071363 0.011655603 -0.00041016442 0.0047148108 0.001846525 -0.0070886044 0.0008440915 -0.008063433 0.002775802 0.0033990508 0.0012785424 0.0005327232 -0.0023921612 0.0010690388 -0.00063028943 -0.00034733795 -0.010131887 0.0016011893 0.001563168 0.0040556313 -0.0027423785 -0.00028055336 0.00075446407 -0.00052758586 -0.0044147843 0.0011933699 0.0011733185 -0.0003622126 -0.002434325 0.000922866 0.00031805827 0.0041092094 -0.0013773872 -7.3023925e-06 0.0068328977 0.001456594 0.00288048 0.0016734287 -0.0056432616 0.06827245 0.0017306944 0.0018692234 0.0023889388 -0.0017652253 0.0035153376 0.0017773801 0.0020566543 -0.0043042516 0.00094615837 0.00025539784 -0.0003336566 0.0011790325 -0.0032161756 -4.0022056e-05 -0.007816682 -0.0016918968 -0.0016021669 -0.0018455937 0.01020423 -0.0030515844 0.0007146066 0.0005028209 0.0021368682 0.0016705801 -0.0041499864 -0.0012688191 -6.1576124e-05 0.004729404 -0.00031076735 -0.005502098 -0.0025640342 0.0013743396 -0.0026343924 0.0034485022 -0.0014207677 0.002912453 0.006244496 0.0019660317 0.0019884724 -0.0071903057 0.0005953802 0.001174561 0.0030920762 -0.0006403024 0.002145474 -0.0050623394 -0.0007912184 -0.0036554816 0.00092027534 0.0026193329 0.0012703572 -0.002295663 -0.00023645442 -0.0035260303 -0.0025014484 -0.008585383 0.00014842101 0.00074067013 0.0017710649 -0.00056875945 -0.0003322383 0.010514316 0.0009278272 -0.000108800494 0.001406231 0.005677502 0.0048926896 0.006240323 0.016250221 0.0037976694 -0.0034692504 -0.003972754 -0.0013484878 0.00023161786 -0.0024352232 -0.0005858734 -0.0016066509 0.00016738239 0.0005448106 -0.0075409757 -0.002370032 -0.013330115 0.003119607 -0.0016839822 -0.0038316078 0.0012679156 -0.026161376 0.0027711676 -0.001273048 0.011758992 -0.001328038 -0.011105544 -0.0024853188 0.005795671 -0.00062852324 0.0014397859 -0.00025530573 -0.00012214463 0.0031195004 0.0020056472 -0.0026433438 -0.003480069 0.0026896116 -0.010333594 0.0012742024 -0.0017704464 0.0018515611 -0.0046551665 7.010677e-05 0.0007134016 0.014693191 0.000421631 -0.008437936 -0.00025750228 0.011638645 -0.00047088234 -0.00019662859 -0.003171244 1.0009897e-05 -0.00081481744 -0.0031613708 -0.0025365555 0.0042694216 -0.00095732725 -0.0011455828 -0.00054052705 0.00180802 8.879042e-05 0.0036240995 0.015692215 0.0009449411 0.0018048409 -0.0004533508 0.0023681687 0.001936626 -0.0034806498 -0.003762053 -0.004680244 -0.0034580985 0.00026283244 8.454587e-05 0.00095450156 0.0002008118 -0.0021744599 0.0024453485 6.618024e-05 0.0023518526 0.0003947142 0.0074448655 -0.000596029 0.00040615362 0.00029438376 0.016138267 0.00423812 0.00028796532 -0.00075192726 -0.00040524738 0.00033086835 0.00097292004 -0.0039754645 0.0034471664 -0.0029572498 0.0026621222 -2.5016227e-05 -0.0051651285 -0.0010894892 7.064464e-06 0.0010471239 -0.0006328678 -0.0009941605 -0.0055496013 0.0035324828 0.0005717676 0.0025780257 0.0042243064 0.0011414823 -0.000524488 0.0016442154 -0.0010425027 -0.0033109847 0.0012963564 -0.005909487 0.0028735476 0.0010320017 -0.00049254857 -0.0069196676 0.00065468386 -0.0005669996 -0.00084690435 0.0019281702 0.0017058374 0.0022907315 -0.0004952978 0.00083301804 0.0017793948 -0.0008439404 0.002010219 -0.014230571 0.0027483266 0.066253096 -0.015151414 0.008223535 0.00085270026 0.00094312587 0.024248248 0.00058690365 -0.0003765044 0.00478512 -0.0050261356 0.0018093457 0.0017219441 0.0034803431 0.0145335235 -0.00083884236 0.0034161361 0.003296206 -0.0011511428 0.0026896074 -0.0029999167 0.0033461694 -0.0009972105 -0.0011907393 0.00029455274 0.0023067736 0.0003824579 -0.0017295757 -0.0011733247 0.0014489909 -0.0076817283 0.0025995076 -0.0016275004 -0.017495124 -0.0002873551 -0.0035162857 -0.0069448687 -0.0021414165 -0.0008486575 0.0021643639 0.0029351006 -0.0009578126 0.0023363293 -0.001207423 0.0012706195 0.0007802419 0.015370908 0.0026797326 -0.0014276282 0.004481265 -0.013028107 0.0010305863 -0.0024763609 -0.0008558602 0.009427707 0.0046384432 0.004713512 -0.00073962734 0.0016132406 0.0016942136 -0.0008544804 0.007422393 0.00037760055 -0.0011684654 0.0008037848 -0.0016169589 0.004077514 -0.0033616046 0.0003992401 0.0022432914 0.00082546164 -0.0039838287 0.0022580933 0.002809891 -0.0012853128 -0.00016487723 0.000371247 -0.0023195806 -0.002902906 0.0035726563 0.003109228 0.0057760524 -0.0030862482 -0.0023001402 -0.0013179883 0.002905076 0.000683502
0.0004642807 -0.0012472284 -0.002451969 -0.016636608 -0.00019431481 -0.00911446 -0.0026900242 0.0035603798 -0.043845672 -0.0012823887 0.00039995025 -0.00012850223 0.003403312 -0.0023806337 -0.002159672 0.015179398 -0.0004790085 0.00054101046 0.0011631871 -0.0044741347 0.0005708448 -0.0075641098 0.0024501022 -0.0023736649 0.00478201 0.0003305867 0.002825306 0.00018031964 0.00037318538 0.0040494534 -0.008627168 0.0026285467 0.0010739039 -0.0047159134 0.0030361342 -0.004458614 -0.0072694696 -0.0047655753 0.0016634759 0.001669562 -0.01473015 -0.004148544 0.0013281027 -0.0042665564 0.00015794451 -0.0027968483 2.2467362e-05 0.00018217652 0.0006687228 -0.00564882 -0.0019200331 -0.0009463166 0.005154083 -0.002752323 -0.00050985365 -0.0040627527 0.0014575676 -0.0032309731 -0.016426954 -0.0025210436 0.0011532966 -0.0069441614 0.001131666 -0.00024395234 -0.0019472453 0.0034279262 0.004265027 -0.0007287439 0.0017178626 0.0023998977 -0.010609874 -0.000121793186 -0.0014182908 -0.00031291688 -0.00072697154 0.0008813973 -0.004076638 -0.0006023404 -0.0015007171 -0.0009196278 0.0021579 0.0013213321 7.6910634e-05 -0.0046989205 0.006726225 0.0040405067 0.0027600925 -0.005222833 0.0017875149 -0.002397246 0.00062428456 -0.002743724 0.0038285502 -0.00080067705 -0.00056011445 -0.001607204 -0.0027582187 -0.0036188117 -0.0001896089 -0.0044015734 0.0011342211 -0.0012851931 0.014365118 -0.0025552742 -0.0068308096 0.0004089877 0.00844159 -0.0013025254 0.001965675 0.004770824 0.0017015084 0.00590638 0.0018463191 0.008620645 -0.0015760621 -0.0011834977 0.0018785879 -0.0028831076 -0.0042834636 6.3415675e-05 -0.0009796963 -0.008093286 -0.007160148 0.00022489957 0.0028132116 3.073646e-05 -0.011426771 -0.011246367 -0.0007246931 0.0044844258 0.0041934634 0.0011700635 -0.0019560899 -0.003633324 -0.0019581332 0.010858781 -0.010538191 0.0027939796 -0.00057994644 -0.003484541 0.00026394438 0.0012528604 -0.0032251035 -0.009337266 -0.00101325 0.0038792263 -0.0014149332 -0.0011978264 0.00074201066 -0.00097460026 0.0018998407 0.0044286847 -0.012982564 0.0008747246 0.02558667 0.0039012134 -0.0003125546 0.0011484604 -0.0010056172 0.0021574018 -0.0017847385 0.00062662596 0.0008259979 9.327207e-05 -0.0014498617 -0.005135644 -0.0029160976 0.005656148 -0.012904238 0.040962595 0.014098281 0.001169619 -0.0067924503 0.0040018987 0.0018332315 -0.0010413383 0.002274077 0.0025398454 -0.007607151 0.00065546064 0.0017377007 -0.00016561587 4.9085822e-05 0.0057139667 -0.0043897224 -0.013558264 0.0015622036 -0.0013785111 -0.018466823 0.0004309709 0.00038785549 -0.0022448925 -0.021335743 -0.0003195754 0.0021649417 0.0003477706 0.00045354667 -0.00012876307 0.00049951574 -0.004050352 -0.00041178314 -0.0036796625 0.00033951266 0.0061776484 -0.0016550599 -0.0019093114 0.0010844333 0.0011286386 -0.0040127905 0.0010318662 -0.0030815152 -0.0005292736 0.0006364021 -0.0033971875 -0.00088162086 -0.0010044829 0.004893286 -0.0008428713 0.0008926017 0.0013816073 -0.0019408019 0.00044445728 -0.00092558615 0.0010848915 0.0020044134 0.009609034 -0.01031411 0.0013448653 -0.0021563817 -0.00035727103 -0.0008249586 -0.0017705221 0.0010945336 0.0005996651 -0.0005626067 0.001713691 0.00032656116 -0.00033235844 -0.0010816669 -0.0019541888 -0.00023492618 -0.010612939 -0.0004785876 -0.0013180104 0.0024820648 -0.0038169532 -0.0021221454 0.0051876414 0.012409741 -0.00051572593 0.0023649815 -0.0019211905 0.0037645192 -0.00019770417 0.020983642 -0.004136714 -0.0009010419 0.0018092503 0.0021359758 -0.0022260936 -0.0040398156 0.00084951514 0.0035067357 0.0069710943 -0.00012311571 -2.4746401e-05 -0.0014204711 -0.0034371547 -0.01553282 -0.005812887 -0.0012103312 0.001208407 0.009281964 -0.004432582 0.00088127074 -0.0016969261 -0.0021804844 -0.0013147778 0.00014884723 0.0037876312 -0.0015449013 0.008478517 0.0038311644 -3.8954582e-05 0.0011857244 0.0018014313 -0.0003015665 0.002015054 0.0064556254 -0.008598831 0.003952874 -0.0022718438 0.00357356 0.0018392589 0.0018456485 -0.01099987 -0.0026496304 0.002700628 -0.010508349 -0.0019092248 -0.0011358588 -0.009498697 -0.003517468 0.0008284602 0.0020255474 0.0016321498 0.0015512829 0.00037104185 0.00046059434 -0.0014292466 0.0048663677 0.0026687635 -0.00020336136 0.023035053 -0.0032468226 -0.00048698645 -0.0006756885 0.0022702843 0.0066694077 -0.0022622342 -0.0063794227 0.0018083829 -0.0033685442 -0.0012780366 -0.0010158663 0.00014517107 0.0033352305 0.0011390564 0.0006274427 0.00010892905 0.008205334 -0.00014181875 -0.004800825 0.00038601644 0.0027457625 0.0029332775 0.0010392325 -0.012107225 0.00031417163 -0.0066930433 0.0031495627 -0.005421268 0.0042832363 -0.00327098 -0.00080331333 -0.006294506 0.0013216141 -0.0034385337 -0.003177472 0.0010799516 -0.0013587644 0.001145947 -0.0014669744 0.06729205 -0.0028875417 0.010162077 -0.008289171 0.0006894212 0.00970345 0.00084642717 -0.0032685706 -0.00020076735 0.00074445514 0.007171551 -0.005308972 0.00064590166 0.00029354595 -0.0017610706 -0.0041724765 0.00091625744 -0.00012371925 0.001955573 -0.0015586788 0.007603334 0.0022270845 5.0612092e-05 -8.764737e-06 -0.0018336205 0.001334772 0.002925392 0.005722459 0.0004948224 -0.0026482749 -0.0022884128 0.0011474974 0.0033637937 -0.0025599005 0.0024140188 0.0017921951 -0.0015248933 0.0055829324 0.0011353828 0.0018860772 0.0010397697 0.003125985 0.0026682832 0.0022110753 0.0026351502 0.000187514 -0.004764823 0.00091018056 -0.0034941281 -0.005039667 0.0016601853 0.00059086725 0.0023919363 0.00070363434 -0.0005519738 -0.00011083584 0.0011521379 0.0006312348 -0.0010693191 0.0036477984 -0.002534821 0.002106818 0.0045408783 0.00033858835 -0.00319014 -0.0018843147 0.0049472684 0.0022068354 0.00012548451 -0.00019219924 0.0026365996 0.0036117153 0.00069315056 -0.0014707341 -0.020298272 -0.0054590637 0.0041708024 -0.0014392448 -0.035010166 -0.0038334923 -0.0017719764 0.003625731 -0.0028468631 -0.0122776935 -0.0014228531 0.00063931994 -0.0029479845 -0.0030495464 -0.004799819 -0.014258326 0.005102788 -0.0005081628 0.0077124415 0.0031687634 -0.00068524515 -0.00043878527 0.0010505351 6.0658793e-05 -0.00016084738 -0.003022633 -0.00033791258 -0.0019449394 0.008902683 -0.0039288243 0.002694523 0.011072982 -0.00070537423 0.0068411394 0.008986596 -0.0014949584 0.0027359535 -0.00033365446 -0.00129284 -0.001168378 -7.026865e-05 0.0029873294 -0.00025740472 -0.0013755069 -0.011640232 0.00061482814 -0.0015022162 -0.007410988 0.006457007 -0.0014710983 0.0013526526 0.0026067896 0.004621692 -0.008899554 0.0027497534 0.0011573727 -0.0008336809 0.0011292951 0.002045191 -0.0023747291 -0.00041653888 0.0008063066 -0.0004941532 -0.0021330765 -0.0018015411 0.0034238102 0.005145132 -0.0031485308 -0.0021713804 -0.0010851634 0.006404599 -0.0023205155 -0.001706126 0.0014725231 -0.0013146473 0.00046109842 0.0070242505 -0.0016650348 -0.0027906115 0.00975531 -0.00017896366 -0.002862107 -0.002043593 -0.0024367725 0.00053598394
0.0011363073 -0.002122002 -0.0013878141 -0.006418165 0.00037414627 -0.0005517063 0.02321599 0.001906448 0.005280914 -0.003972973 -0.0045729917 0.0012266593 0.0012001658 0.0023029533 -0.000114871815 -0.0016995781 -0.0001681111 -0.002225559 -0.0034092416 -0.0003970313 0.0017912645 0.00056437077 0.0018741097 -0.0013546469 0.0017771675 -0.00048965303 -0.00020976702 -0.0002500925 -0.002337664 -0.0023775157 0.0023323721 -0.00048326232 -0.0026056806 0.019350039 -0.0005428592 0.003233329 0.0015285925 0.04114614 -0.001382916 -0.002802596 0.0028307026 -0.0028405245 -0.00029055102 -0.00045475105 0.0004076762 0.0020737273 0.00096476066 -0.0060664034 0.002543683 0.00042029514 0.010255613 -0.00028670626 0.0016883 -0.004740568 0.0002204054 1.5846152e-05 0.0018030534 0.00039353053 0.018630818 -7.742338e-05 0.0024058558 -0.041547082 0.0006990577 0.0013914822 0.0010293751 0.0020136388 -0.0024024982 0.0039012346 -0.00015795203 -0.0012617495 -0.0016915597 -0.0017879843 0.00016242081 -0.0010145595 -0.00012011233 -0.0037225175 0.00025524205 -0.009902842 5.538022e-05 -0.0019421591 -0.0004461816 -0.002274105 0.0005980367 -0.0041987556 -0.0023126253 -0.00018590076 -0.00021248685 -0.004856064 0.036223385 0.00088049326 -0.000364754 0.00020139261 0.00087305106 0.0016729493 -0.0018970656 0.0025568653 -0.0016060116 -0.022132223 0.0014246261 -0.00013456597 -0.0005093422 -0.0020968209 0.011306694 -0.0013004992 -0.004809669 -0.002291376 0.0015906971 -0.0009128324 0.0022823904 -0.004968958 0.00083490735 -0.0050365445 0.00460671 0.0011159682 0.0014364163 0.001134491 0.0009477623 -0.0023947698 -0.0036289522 0.0032795875 -0.0004630125 -0.00127266 -0.004849741 0.0005269712 -0.0034618375 -0.00087748485 0.00463702 0.010079 0.0013595084 -0.0003539397 -0.0012201546 -0.00032276483 0.0021618062 0.0021295915 0.0034153978 0.0059948484 -0.0010240248 -0.002742359 0.004466845 0.0014242034 0.0020465201 -0.0018989386 -0.0015410373 -0.0053027044 -0.0030377754 -0.0001266525 -0.0008882205 0.0003528491 0.0028402712 0.00040648083 -0.0015451097 0.0011031717 0.006881564 0.00345744 0.024100835 0.0011319441 -0.0028041136 -8.067411e-05 -0.005837016 0.001218659 0.0010177145 -0.00065438845 -0.0030178335 -0.0008191269 0.00065060856 -0.0011464799 -0.001244192 -0.0018147251 0.004173576 0.0064229146 0.0039059182 0.00015955232 0.0009042025 -0.0031298304 -0.001854458 0.000366137 0.012571681 0.0005074469 -0.013924929 0.0018099729 0.0021719662 0.0022478576 -0.0013323354 -0.0018887559 0.0016100452 -0.004421075 0.0006107214 0.00017108538 -0.024469992 0.00046189205 0.0018272699 -0.0014686997 0.0043021524 0.0023757587 -0.0055346787 0.0022041763 -0.0027409561 0.0014782358 -0.0005424842 0.001975083 -8.0350655e-05 0.0033127137 0.0018447447 -0.0057892483 -0.000794094 -0.00041996664 -0.0023802056 -0.00012071411 -0.004384739 0.000978845 -0.00094991503 -0.006400218 0.0022100897 -0.002423 -0.0011118448 -0.0011309875 -0.015106761 -0.00085183256 0.0016878326 0.0059501287 -0.002116677 0.0003544853 -0.0009056159 -0.0037567748 -0.0013779859 -0.006940255 0.0063504525 0.005546093 -0.0012833842 -2.468538e-06 0.00047366947 -0.002395167 -0.0033818604 0.0021542404 -0.00078238663 0.0012830227 -0.0003181386 -0.0014979554 -0.0022865797 -0.00089014135 0.002192077 -0.0010266267 0.002392045 -0.0022370962 0.0038688597 0.0038302469 0.00020368792 -0.00020339881 0.00032137666 -0.0030856442 0.0007865852 -0.0030641265 0.001268859 0.00014784625 -0.02389059 -0.0079668015 -0.0002470198 0.00079257647 -0.00035901472 0.0029086352 -5.6320427e-05 0.0009928099 -0.0019717582 0.008442378 -0.001927381 -0.000851049 -0.0006284923 0.0020054297 -0.000299413 0.0023713775 -0.0023285458 3.471587e-05 0.00055852736 -0.00475616 -0.0005617228 -0.00018826601 -0.0012602445 -0.001305761 -0.004909051 0.0020903964 -0.0012466038 0.0049970658 -0.006051469 0.002806482 0.003229694 0.0008624464 -0.00083957793 0.0010590826 0.0021349043 0.0010405022 0.00022496065 -0.00090770103 -0.0145643465 -0.0019157594 -0.0010348248 -0.00041379928 0.0005327594 -0.0012531027 -0.0034740833 0.00025502514 6.183019e-05 -0.004274533 -0.0027628904 -0.00047235115 -0.0003997928 -0.0031787101 -0.0058968277 -0.0012417688 -0.010523039 0.00013546768 0.0066679004 0.0029878877 -0.0018488566 -0.026971588 -0.0040640645 -0.00021425061 0.0048244423 -0.00042048597 0.0060451417 0.0011473536 0.0016389797 0.00080252014 0.0015593554 0.00040543437 0.0013178615 -0.0023415934 0.0025908456 4.3056385e-05 0.00033131067 0.0013874045 -0.028712371 -0.0009197734 -0.0011367478 0.0019277019 0.0014490606 -0.008668045 -0.0029749784 0.0012583947 0.0017886099 -0.0031532368 -0.0015887244 -0.00017338542 -0.00087944465 -0.0027960322 0.0017477564 -0.0019639009 -0.002351881 -0.0054571456 -0.0039430414 0.004326736 0.0006472514 -0.0012467819 -0.00055490236 0.0009826962 0.0002646694 0.0013697951 0.00031895924 -0.0014536717 0.0033974948 0.0025682964 -0.0012343469 -0.007340789 -0.0015819054 0.0009385849 -0.015470628 0.0037505548 0.0028756922 0.001367692 0.0023489913 -0.00026014275 0.0030460602 -0.0045619733 -0.0025922055 -0.0018710527 0.0026118907 0.004232372 -0.0021367967 0.00061178417 0.00048557547 0.00200014 -0.007155335 -0.0027297914 -0.0005815977 -0.0014460747 0.0016495392 0.0012717946 -0.0015012296 0.0013497138 0.0035641422 -0.0021211624 -0.002643018 -0.0013556518 0.0020619286 0.0033032643 -0.004506241 -0.00029881185 0.00058113 -0.0004486893 0.0013164921 -0.0020773623 0.0013537651 0.004509756 0.00519312 -0.003855966 0.0014888486 -0.0013667111 -0.00045041667 0.0014514459 0.0012377179 0.0019744243 0.0009368002 0.0011936876 0.0013484141 0.0019120892 -0.0013003021 -0.0013157909 -0.00037124552 0.00087565376 0.001522003 0.004166903 -0.0021104526 0.019946435 -0.0022170416 0.0028933287 0.00922384 -0.00039438883 -0.0072891233 -0.004269377 -0.0029790965 -5.5688502e-05 -0.0027920033 0.0092968 -0.0016934653 -0.0001931927 0.0047525736 0.0015110362 0.003815943 -0.0027201306 0.0010548976 -0.00011905618 3.641694e-05 -0.0075374586 -0.0049910583 0.0014707494 0.001311492 0.006628571 -0.00042279263 0.00016611465 -0.0042878124 0.00039592086 0.0012613252 -0.0005472018 0.0018407191 -3.4737102e-06 -0.0037043686 -0.0075098462 -0.0020456363 0.001452503 0.006574396 -0.0029294067 -0.00080206344 0.005619433 0.030297417 -0.001052392 0.0032903736 -0.0004464493 -0.0031837472 0.0025694347 0.0010749096 -0.0012577006 -0.0013743684 0.0018633488 -0.0047230213 0.0044580507 -0.00028725894 -0.0047886786 -0.0010930968 -0.0014691787 -0.0034299728 -0.004488476 -0.0011614594 -0.00013990342 0.00057587074 0.00014141119 0.0036497873 0.0001742078 0.0016292401 0.0011859577 -0.003452646 -0.0014875605 -0.0011806613 -0.0016064851 -0.0009917032 -0.00038292925 -0.0045283344 -0.00132741 0.002324018 0.00081662316 -0.0011020929 0.00036449629 0.0018413858 0.0004133095 -0.00246048 0.001740137 -0.0006699718 -9.198714e-05 -0.0076075187 -0.002924728 0.0007668354 -0.006945259 -0.00019287808 -0.0015814075
