-0.0018996779 0.00070212805 0.001657769 0.0010796956 -0.007734448 -0.0016902816 -0.001453053 0.0029245554 -0.0018448713 0.000202393 0.000878594 -0.0049620387 -0.016294079 0.0015139076 -0.0015115273 -0.00092773535 -0.0013610281 -0.015083267 0.000711326 -0.0029649825 -0.00030304678 0.0013726332 -0.00063449726 0.0006066606 -0.00040129403 0.0010063404 -0.008911363 0.000838935 -0.0011567234 -0.0011399551 -0.0014600672 0.00033610474 0.0042665307 0.0008785191 -0.0026791105 -0.0009210139 2.4015965e-06 -0.00203305 -0.002168805 0.0009612827 0.00083809096 -0.00060581026 -0.014285141 -0.0008309095 -0.0005803834 0.002295976 -0.0008185347 0.001415601 -0.00056802534 0.00077530375 0.0014238211 -0.00059790956 -0.003069252 0.0025256712 -0.0012530292 -0.0013930602 -0.0010629038 -2.2328533e-05 0.00093313574 0.0032874867 -0.0011613746 -0.0014764486 0.0021928812 0.00017807554 -0.00089383917 0.0010930414 -9.702329e-05 0.0049146805 0.00017695765 -0.0014435027 0.0032123234 0.0014623709 -0.0007097327 -0.0054060915 0.00010446961 0.0053945268 -0.0054369266 0.0006673499 0.00060742 0.0014608561 -0.0022533545 -0.00020090249 0.0016725627 0.00028085188 5.8551876e-05 0.0014215278 -0.011347959 0.00078136456 -0.00019662493 0.001770595 0.0028851915 0.002587844 0.020610446 -0.008098223 -0.0016599769 8.960163e-05 0.003025754 -3.5423268e-06 0.00025667762 -0.0010360006 0.001440628 -0.01733637 0.0012072764 -4.3019074e-05 0.0037372715 0.001002748 -0.00029348067 -0.0028523956 -0.0009919062 -0.00019781027 -0.0011695796 -0.0011555462 0.0041387607 0.00015245087 0.00043212407 -0.00038408174 0.0010861555 0.00057461247 0.008502673 0.0014296446 0.0014922805 -0.0027759261 0.0009342222 -0.0005936762 -0.00091447396 -0.004901679 -3.6579644e-05 -0.00051308965 -0.0023357049 0.0012312012 0.017611647 -0.00045271096 0.0017428839 -0.0009329872 -0.00021936197 0.0018767748 -0.0003570125 -0.0005958615 0.0022149005 0.0006710726 -0.00040832805 0.0008229752 -0.00018872817 0.0006879999 0.0019156244 0.0016147891 0.0011194503 -0.00074184575 -0.0006419644 0.001504407 -0.0033950957 -0.00053515437 0.00054991763 -0.0012675219 0.00021045975 -0.00026836124 0.0009646323 0.0014106208 -0.006407179 -0.0013621909 -0.0034171175 0.0009375617 -0.00012675289 -0.0012020163 -0.0017519193 -0.00032614832 -0.0020826212 -0.00028191824 -0.001306749 0.0008113975 0.0003014732 -0.0019922543 0.00032829834 0.0015100893 0.0018669907 0.003875179 0.0029768103 0.001525366 0.00010876557 -0.0024124642 0.0019323752 0.0005016136 -0.00011962477 0.0006834588 0.0016677494 -0.0001900296 -0.0008172542 0.0008946332 0.0007595087 0.00034467207 0.00064375496 0.0008720555 0.00014809189 0.002927488 -0.00056989776 -0.0016561839 -4.925495e-05 0.00031034742 0.003317094 0.0008863215 -0.0008803388 0.0063403123 0.0019009965 0.013437061 -0.0022922894 0.00013949838 -0.0014197003 -0.0001076732 -0.000490054 -0.0024581538 -3.0100273e-05 -0.0013328379 0.00079782004 -0.0005344921 -0.007729788 -0.0010443188 -0.002180101 0.0049687675 0.000485434 -0.00029817864 -0.0036434392 -0.0057713245 0.014637221 -0.0022201722 0.0062462706 0.0029914249 0.00029542073 0.000465534 -0.0025717788 -0.0028347578 -0.00049254484 0.0010373247 0.0043446585 -0.0018108091 0.004303818 -0.0006024032 -0.0029102715 -0.0015646655 0.0029960496 -0.001971625 0.0026458153 -0.0027002948 0.00082070194 -0.0011066064 -0.00057847146 -0.00012342929 -0.0016547347 0.0038087084 -0.0012882215 -0.0016461652 0.0002681507 0.0010192975 -0.0012768981 0.004627552 0.0008327408 -0.001568931 -0.0010779168 -0.00053071615 -0.009944728 0.00041720303 0.0006720493 -0.00093827676 0.0012147819 -0.0009046077 -0.0011988598 -0.008285587 0.0028105152 0.005933826 0.0016268687 -0.0005634396 0.002394589 -0.0005398444 -0.00025519796 0.0017003105 -0.0010915869 0.00023170757 0.00066638936 0.00057909277 0.00064978393 0.0017714222 -0.0014150639 -0.0046607996 -0.0008909857 -0.00054945296 0.0018310538 0.00047681073 -0.0048127747 0.00065749144 -0.0014252837 0.002574763 -0.00029400756 0.00024900908 -0.00036810857 0.008143701 -0.0004653133 0.0001706439 -0.0011583162 -0.00040087715 0.0013835785 -0.0015933448 -0.0012837827 0.00028402568 -0.0009744433 0.002503524 0.0011532105 -0.0013899026 -0.00058069703 0.0008174707 0.0008536017 -0.001975977 0.0010937756 0.0036510571 -0.001821646 -0.006901473 0.0014866387 0.0014808383 -0.0046376036 0.0024091161 0.0005516877 0.0014473207 0.0012070106 -0.0045983833 -0.0003676709 -0.0016716012 0.004721507 -0.0010714257 0.00047702083 0.0022977192 -0.00026073997 0.00078598777 -0.0005724582 0.0017809463 0.0018962792 0.0010748361 -0.00075597636 -0.00039487355 -0.0003618326 0.0017607709 -0.0029369157 0.019355217 0.0018433116 0.006934568 -0.0017215202 -0.0009465499 0.005674759 -0.004304411 0.0144965155 0.00069422583 0.00047773373 -0.0021010612 -0.002209435 -0.005220639 0.00014442674 0.0019344928 -0.0018244222 -0.0026381363 -0.002466084 -0.0040886174 8.418591e-05 0.0022429351 0.001457937 -0.0003736058 -0.0010129231 0.0006191987 0.004307586 0.001486972 -0.0014336309 0.0011148666 0.0004160331 -0.00041356616 -0.0011410158 0.001356326 -0.0019387784 -0.0011649341 -0.0003008092 -0.001486164 0.0009758129 0.0024637007 -0.0011962589 -0.00039526814 -0.00077704433 -0.0010136461 0.0015409535 -0.0017758035 -0.00088435394 -0.00017510723 0.00082668726 -0.015054159 0.0009264415 0.0021331382 -0.0015731108 -0.002240333 0.0013162687 0.00080470846 0.00035962023 -0.0036860248 -0.0012040234 0.0016987234 -0.003267977 0.0012329166 -0.00081812695 -0.00020446489 -0.0015422908 0.00057854026 -0.006131488 0.0043516476 -0.00022190106 0.000498395 -0.0002861383 0.00037031114 0.00021666293 0.0010312295 0.00061102386 -0.00063584227 -0.0005968828 0.0010510529 -0.00084852317 0.0060438034 0.0002036957 0.0005357405 0.0011742567 -0.00026432893 0.0016097705 0.0031887717 0.0022040496 0.0015263808 -0.0004023901 0.0021716938 0.0010070289 0.00031963477 0.00401785 -0.00079276075 -0.0018385394 0.00036547062 -0.0042459 0.0018226394 -0.0071411324 0.0031790454 0.004387347 -0.024631407 -0.00040242702 -0.0013200077 -0.00012640009 -0.00014118612 -0.0010858198 0.001667315 0.002022617 -0.001644614 0.0027059515 0.0016844702 -0.0016310489 -0.00067375094 -0.0015344078 -0.0010465871 -0.0005464512 -0.0009875671 0.0006869364 -0.0015265293 -0.0004378956 0.0018547273 0.0017900378 0.0024226722 -0.005647194 0.0009821737 7.866611e-05 0.0014249425 0.0016867672 0.002739576 -0.0020191795 0.00039458432 -0.00058898533 -0.00015233486 -0.0043713516 -0.00027361888 -0.0006706115 0.0018629469 0.00016570059 -0.0037241 0.0009971674 0.004080689 0.00010799408 -0.0016526625 0.0010470931 -0.0077497964 0.00021826786 -0.0003704128 -0.0027889858 0.0018604643 -0.0044242823 -0.00073189265 0.00072565634 0.0006369411 0.00018019 8.963053e-05 -0.00047836578 -3.8587354e-05 0.0024745895 0.0009906398 0.0013581403 0.00048354085 0.011127119 -0.0036608968 0.00071573147 5.851768e-05 0.0044132257 0.0037139854 0.0003285554 -0.0054426976 0.002139551 0.017680913 -0.0008610599 0.001622428
0.0028183847 0.0027563388 -0.002928574 -0.00010946027 -0.006959346 -0.003910132 0.0004324929 0.0017789386 0.0014804229 0.0006384774 -0.015958987 -0.0034263884 0.01606422 -6.606476e-05 0.0018364139 0.0036268022 0.007957353 -0.00043433323 -0.012279105 -0.001289992 0.0070756054 -0.0015639743 0.003367884 0.0002924053 0.002634188 0.00023635286 0.010533011 -0.0004538298 0.0007134331 -0.003693092 -0.0011029453 0.0035149376 0.009203069 -0.023993297 0.02029938 -0.0017312878 0.000701074 -0.016819956 0.00039474564 0.0025574125 0.0032926195 0.002286248 -0.00827563 0.00083360355 0.0017780897 0.0014610176 0.0026750832 -0.003223051 -2.4247029e-05 0.0023612923 -0.002865586 0.0031091752 0.010092868 0.0018125658 0.0026447042 -0.0014810343 -0.0021032745 0.00046070432 0.0011511799 0.009496522 -0.0011676536 0.0032905096 -0.0015683469 -0.0016779541 0.006363015 -0.0012168614 0.00048314253 0.007926796 -0.0030993808 -0.006298151 0.0046278965 -0.0018819345 0.0050177495 -0.00848753 0.0014442424 -0.004304509 0.0039772196 0.00011327688 0.0058926335 -0.0003071054 0.00029458955 0.005281028 -0.0013037367 -0.0013141267 0.0030401 0.0045030774 -0.007368204 -0.0008903841 -9.538566e-05 -0.00029278136 0.006805161 -0.0052861543 0.008695349 -0.00412529 -0.012716358 0.00011730181 -0.0017086545 0.0031990067 -0.0013361265 -0.006873484 -0.006774233 0.00070975145 -0.0015590511 0.0018775603 0.0024826 -0.0019655607 0.0010155803 -0.0041771852 0.0008548403 -0.002483144 0.009883639 -0.003329088 -0.0036380547 -0.003914551 -0.004396213 0.008302808 -0.0011613219 0.0008895728 0.019544909 -0.00045779423 0.000267161 -0.0018254264 -0.001819385 -0.00087223435 0.0020140235 -0.0011144904 0.0017532845 0.00035979148 -0.0038296445 -0.00056120363 -0.012815503 -0.00226077 0.0016045147 0.0009995654 -0.003416159 -0.003302476 -0.0021804527 0.0010338565 -0.00038262055 0.00030555757 -0.0046949564 -0.001275461 -0.0008802729 -0.00019103043 -0.00053832325 -0.001957562 0.0023037854 -0.00074293494 -0.0021135504 0.0019084084 -0.0021801433 -0.0015767139 -0.00022395994 0.0031426318 -0.00089966226 -0.010496966 0.0009791409 0.0034843253 -0.015553892 -0.002373096 -0.008984985 -0.0039893566 0.0032440291 -0.0045898757 -0.0011106353 0.0038032453 -0.008029838 -0.0011909361 0.008880031 -0.0011585401 0.0018634677 -0.0009749707 -0.0074678706 0.002738902 0.0010883595 -0.0009577624 -0.0024858867 0.00079086993 0.00097001507 -0.0025260542 -0.015580955 -0.0046191174 -0.00436281 0.0003244271 -0.0024546657 -0.002494493 -0.0013477384 -0.014842901 0.0010056914 0.0012168596 -0.0013544026 0.0049764733 0.0005311484 0.0091682 -0.002138772 0.003860407 0.001528835 -0.0018969259 -0.005904062 -0.0046527437 0.000982506 0.028571935 -0.00013719645 0.006733654 0.00070249214 -0.00048587902 -0.0033808858 0.0047707628 -0.0027317442 0.009689763 -0.0012600247 -0.0022741884 0.00088528305 0.0022938217 0.0019895392 -0.00042824104 -0.011895107 -0.027584404 0.0088365385 -0.002420834 0.0018947253 -0.0043376507 0.0107961595 0.0017754597 -0.0140985595 -0.0007278958 -0.005050687 -8.187286e-05 -0.0002421388 -0.0021991835 0.00046215983 -0.004154742 0.0035973475 -0.012090102 -0.0015422975 -0.0033916538 -0.0014502667 -0.009235125 -0.012648347 0.00032522026 0.0048277965 -0.01072802 -0.00063482986 -0.0014317117 0.0008712281 -0.0023188656 0.0030954338 0.0133921085 -0.0021379665 -0.0037985316 0.0016410822 -0.0026414825 0.003074837 -0.0128811635 -0.0015556437 0.005393603 -0.0003625482 -0.0010819999 0.0009689386 -0.001250192 0.0020906508 -0.0013226047 0.0012154987 0.0006284452 0.003015822 0.0124303205 0.0021142683 -0.013043056 0.0015682685 0.005257424 -0.00035837482 -0.0016500901 0.002694716 -0.0041755214 0.0024052442 0.0018153326 0.0009684665 -0.0038600347 0.0026013262 0.002015752 0.0033655805 -0.009506333 0.001662542 -0.0026533839 0.0016499537 0.0015723242 -0.0018762163 -0.0013538874 -0.0017032084 0.0026264773 -0.00045469007 0.0013926101 -0.002649508 0.0016590365 0.0018949177 0.00035280804 0.0020263845 0.0028330295 -0.0014854544 0.0067313774 0.02606867 0.0018191574 0.000845184 -0.012429618 0.0032547296 0.00969166 -0.0009401004 -0.0019248766 0.00045246398 0.0007458295 0.0054657594 0.013545981 0.0001382975 0.011002315 0.0029036943 -0.001623754 0.0015568944 -0.0011106421 0.004994942 0.0022403449 -0.0005330051 -0.008028718 0.0006428449 -0.0016111131 0.00096838054 -0.0020459301 -0.0019662222 0.0031389305 -0.013143697 -0.0007313353 0.0027424148 0.0046512173 0.0153835565 -0.0017390334 -0.0005367783 -0.00596485 -0.011105767 0.00060936355 0.0034072304 0.0037507894 0.0010698498 0.0003247286 0.01447535 -0.013023893 -0.00024521037 -0.005245459 -0.00024142532 -0.0026160264 0.0020088 -0.0052279322 -0.0035315375 -0.0002670056 -0.0033359702 0.0030107782 0.001893642 -0.0027490398 0.0017886412 -0.0056635696 0.004978135 0.0036352563 0.00010919169 0.014235102 0.00070012273 6.715407e-05 -0.012582542 -0.0005304222 0.006051164 -0.0067845187 0.0012937074 0.00011748988 0.0031518182 0.0042581526 0.009635148 -0.00036953398 0.0015783523 0.0016051733 0.004310749 -0.0019565602 0.012676271 -0.001056507 0.001430118 0.015091983 0.003161709 0.00046628015 -0.0034868217 0.0026569031 -0.006055344 -0.00771921 0.0030797455 -0.0029903236 -0.0022608999 0.0019588766 0.0025684396 -0.0008707439 0.0013462179 0.0069512166 -0.0032712703 0.004277557 0.0035168468 -0.009282801 0.0032477668 0.0012741775 -0.00059171644 -0.0019654143 0.039329447 -0.016820386 0.0029314042 0.0017432442 0.0022832383 0.0021148163 -0.0021507689 0.0036769195 0.0012340605 -0.026527446 -0.0024573267 0.0005384228 0.0016997857 0.0070039444 -0.0032222462 0.0007045219 -0.0081959255 0.001959852 0.0033053989 0.024802256 -0.011849689 0.0006730027 0.0020788794 0.003290414 -0.0074413302 0.004271301 -0.014243861 0.0023930757 0.0020357454 0.012112311 0.0055095213 -0.00013044006 -0.004485561 0.005744483 0.0048167757 0.004838208 0.00050588587 0.0009421624 -0.019743249 -0.00025009533 0.0018998436 0.0052192546 0.0026655411 -0.008054023 0.018276615 -0.00581838 -0.0017813437 0.009697519 0.0044815196 0.001406484 0.0018772002 0.000719661 0.0059557976 -0.013110836 0.0010910297 -0.009871415 0.003855593 0.0011861196 -0.0074297874 0.0013004437 -6.7328576e-05 0.000508636 -0.003167857 -0.00019024423 -0.00053213956 0.0024703967 -0.007283 0.0024112076 -0.00020444633 -0.014254803 -0.0006962024 -0.002126364 0.0014161008 -0.022476612 0.0013587162 -0.010312424 0.0025712352 0.00024252907 -0.005364261 0.0056312117 -0.0019713396 -0.0036908474 -0.0008619988 -0.002848305 -0.0030975717 0.0036598388 -0.005878322 -0.0006077705 -0.003347302 -0.0043104673 -0.0009929776 0.0006514417 0.013633063 -0.00467109 -0.003499331 -0.00044132717 0.008462996 -0.004951619 -0.003936668 0.0021011815 -0.00032398992 0.017343592 0.004121669 0.014419776 -0.0015416305 -0.01995819 0.00609429 0.0011290305
-0.00074217434 0.0018654958 -0.010017565 0.00033476815 0.011162277 0.001094017 0.00026583453 -0.01427429 -0.0006437879 -0.0039433483 -0.0064517404 0.005513918 0.0262962 0.0006396082 0.0018732583 0.0023162118 0.0030895676 -0.01177561 0.0017238321 0.00845392 -0.007781659 -0.0023803548 0.0030928045 0.0016055227 0.0013139935 0.001038642 -0.0048068524 -0.0005596423 -0.003009017 0.00033817074 -0.01992532 -0.0030706103 -0.0077665253 -0.01245336 0.001702738 0.0032279803 -0.002386702 0.0056515485 0.0022334985 -0.0039722756 -0.0006266146 0.0018150227 -0.028204354 0.00050874765 0.0019086433 -0.0016770688 -0.0005069829 0.001075055 -0.0041002943 0.0010394985 -0.003571615 -0.007803301 0.021446181 0.0008803697 -0.006062102 0.0012702846 -0.0012141229 0.0036968924 -0.0032686647 0.0063963216 -0.0040995255 0.0070515745 0.0039592753 -0.001336488 -0.0021262409 0.016522674 -0.0018979606 0.0381244 0.002115554 -0.00064610085 0.0017273432 0.0026935406 -0.003010823 -0.0048875436 0.0010690202 -0.027404571 0.010478365 0.00058802956 -0.014978318 -6.7445086e-05 -0.0035271302 -0.02191352 0.013157297 -0.004894703 -0.0008407671 -0.005106494 -0.03351866 -0.0046592075 0.005833287 -0.0033829531 -0.008634852 0.02005413 0.0033680971 0.005188077 0.008960574 0.0018689521 -0.037162002 0.007888375 -0.0038793262 0.008973511 -0.038325038 0.0070805284 -0.004242712 -0.000120777135 0.0042427364 0.0020605496 -0.0016268988 -0.012946539 -0.011527016 0.0008826237 0.00084757543 -0.008316103 -0.010157165 -0.006754022 -0.006204699 -0.0017832611 0.0011156294 -0.0011743739 -0.009704722 -0.0017831323 -0.000999379 -0.0027563877 -0.0043413294 0.0019133999 0.0021635275 -0.009825362 -0.0024172629 -0.0056682886 0.0047878753 -0.00045221692 -0.010801417 -0.0010107461 0.0023220065 -0.00068836776 -0.0040731584 -0.0009037941 -0.0017267949 0.0029431023 -0.004005442 0.0024547062 -0.0008607347 0.00060790946 0.0019458091 0.0021284746 0.00025778974 -0.008208409 0.0021486792 0.004230963 -0.0008793598 0.00037128842 0.0032522648 0.009085545 0.009101031 -0.00054123567 -0.007987816 0.008060022 -0.003985843 0.0022451233 0.020022376 0.0017634069 -0.010508015 -0.0041343337 -0.0021207577 0.0030423724 -0.0052310317 0.00033232654 -0.003738085 -0.0023870338 -0.006445637 -0.0059712073 0.0007769915 -0.013400839 -0.016064579 0.008639394 -0.0051727653 -0.0055347825 -0.0024932548 -0.0049615055 -0.0008361005 0.00058853347 -0.008617439 0.0027184156 -0.0018735187 0.0011599794 -0.0026342068 2.1150609e-05 8.051206e-05 0.010253437 -0.003504568 0.002539809 0.0015427745 0.0055652754 -0.01881112 0.0015034527 -0.0007260936 -0.00074172765 -0.00072445587 0.003134121 -0.012387502 0.001112551 0.0017211642 0.014725709 -0.005289591 0.008126698 -2.1024453e-05 -0.0014374793 0.0006080916 -0.0005680612 -0.003016411 -0.0039280443 -0.0002684262 0.0012293896 0.0039468063 -0.005725495 0.0076183593 -0.00023855755 0.0008225825 -0.0031847893 0.009530397 0.00053774513 -0.003108076 0.017304512 0.0071523623 0.012373233 -0.00088724616 0.00032900408 -0.004089725 0.0005316289 0.0027840564 -0.0034212568 0.0011992689 -0.007760478 0.001530939 0.0059186616 -0.019810528 0.0028115518 0.0014886529 -0.015031009 -0.009356819 0.0012805915 -0.00665861 -0.020927116 -0.00041903148 0.0028458282 0.00024415934 0.0003073369 0.004143703 0.0040653003 0.0007488195 -0.0034308345 -0.0035947387 -0.0034306457 0.002512578 -0.010471197 0.0026894629 0.0015755023 0.00013805661 0.0012137085 0.012578612 -0.0025606889 0.0029736839 0.0029494395 7.224475e-06 0.0047592814 -0.0021553708 0.067301944 0.0011056192 0.005738947 -0.0020428495 0.0031188452 0.0010574075 0.00534356 0.002647876 0.0034521252 -0.0017931444 -0.0019254732 0.0040544313 0.0049814573 -0.00086782663 0.0007152166 0.0033106292 0.007587885 -0.00064110366 -0.0015358443 0.0026951435 -0.0023403566 0.0003611817 0.010076098 -0.0026623516 0.0015440419 0.0014694952 0.0011748875 0.0005566035 -0.005605067 0.004347104 0.00092125766 0.004161745 0.0032720463 -0.00012373111 -0.0095842155 -0.0011518769 0.001889381 -0.00094485004 -0.009152298 -0.0034187762 -0.002881422 0.0015176936 0.003127914 -0.00025063998 -0.0021352943 -0.0028586476 0.004426214 -0.00030361087 0.001203955 0.00032816286 0.0022611413 0.005600883 -0.00017151124 -0.00017879422 -1.4419869e-05 0.004386693 0.025482913 0.0023936243 0.0044242446 -0.0011885843 -0.0010662832 0.0016915482 -0.00427221 0.0040219403 -0.0052118464 0.0011482635 -0.015770314 0.01502895 0.0019691095 0.003001927 -0.0040449384 0.003065098 0.0005491025 0.0041979086 -0.0013591197 -0.004635616 0.026359446 -0.009383879 -0.0040174234 -0.003943 -0.007305837 0.005969599 -0.0020386318 -0.00060209486 -0.006207269 0.004341009 -0.00504548 0.029456165 0.012381667 0.00072473224 0.0029095258 -0.002297344 0.001325156 -0.0013277075 -0.00040064825 -1.7877199e-05 0.0059991213 0.009150211 -0.0052668285 0.017718773 0.00071787415 -0.0110378135 0.0071171653 0.0045030317 -0.0007282021 0.0017532321 0.007978693 0.0009733517 0.00021573606 -0.003362716 0.0032129933 -0.0027983724 0.00069084374 0.014525427 -0.004211872 -0.0029678948 0.00072427746 0.0033405174 -0.0010958457 0.0033477093 -3.938768e-05 -0.024652885 -0.0029369474 0.0035231013 -0.00074855203 -0.00105253 -0.0026357449 -0.0038207672 -0.0012626429 -0.0012085305 0.010100363 0.0088484995 3.2765412e-05 -0.005132252 -0.0051802336 -0.0031640474 0.0032223195 0.0034966334 0.0002543595 0.034253735 -0.0028090095 -0.003903096 -0.00067278306 0.0021403362 -0.0017760978 0.0017009231 -0.0006728072 0.0015094387 0.011720807 0.0013205002 -0.0023245155 0.0041279416 -0.013553232 -0.0007849626 -0.0025253394 -0.015125975 6.583133e-05 0.002095922 -0.007748594 -0.011356566 -0.0060536694 0.0066612754 0.003086443 0.000984269 0.0010897412 0.010119509 0.0029540174 0.00137198 0.009245451 0.01597826 -0.0016581591 -0.0038193201 0.006436266 -0.0045056534 0.022522578 0.0019818675 0.0026301357 -0.008971115 0.0041054804 0.0070308754 0.019047286 0.0005067207 0.0008369957 0.010737118 0.00055260264 0.01012048 -0.020481389 -0.008775284 0.0011709282 -0.00083923555 -0.012720944 0.0042501157 0.025099674 -0.00035306608 0.0024654868 -0.0024733827 -0.00083804125 0.002633 0.0050439155 0.0034624767 -0.0015361633 0.0013628949 -0.0004978261 0.004116164 -0.0012164537 0.003981813 0.001287862 -0.0023714202 0.00056214054 -0.0017551419 -0.0058258576 -0.00071394764 0.03692895 -0.00093167723 -0.00027992157 -0.0018463458 -0.0049583176 0.0021310018 -0.014768206 -0.0033685574 0.0016357376 -0.00013601073 0.005711246 0.021804478 0.0048902053 0.009288381 -0.00047875897 0.0001681476 -0.0003581415 -0.001262455 0.0009377476 0.007426043 -0.0025230343 -0.00066851167 0.00083639764 -0.019062418 -0.0049467413 0.0005112849 0.0022649658 -0.001786891 0.003684749 0.0032351064 0.006185112 -0.0015834643 0.0249779 -0.0024300348 0.0021812278
-0.00021563028 -0.0020992788 -0.0075916327 0.00026226504 -0.015264783 0.0020294364 0.004321172 -0.028463097 -0.0050050933 -0.003880234 -0.014725671 -0.015972564 -0.006148773 -0.0042378805 -7.5650505e-06 -0.0060322075 0.0076027936 0.0029338107 0.0067251865 -0.006207584 -0.0070856074 0.0048552654 -0.0033189356 0.00016169471 0.0015015223 -0.0020284352 0.007982658 0.0025627112 -0.0030239273 -0.00779172 -0.0048581692 -0.00041797498 -0.0100794295 -0.01323656 -0.0019949374 -0.00031781953 0.0034074183 0.0038391566 -0.003826992 -0.0014849425 -0.0045226994 -0.0043510376 0.019209381 -0.00021460411 -0.0014991588 0.002462845 -0.0038706106 -0.004919117 0.005937768 0.0012999874 0.00033766442 0.0037343826 -0.019544074 -0.002125241 0.00012559257 -0.0010911543 0.00033458802 -0.0021948803 -0.00088793086 0.0073000425 0.001978525 0.0018401587 -0.013850444 -0.000940989 -0.0023775757 0.008266697 0.0063432585 -0.01721605 0.0035543025 0.00018382585 0.005909417 0.0009423292 -0.00055179244 0.0005260567 -0.0011801337 0.008536358 0.021709347 -0.0008980343 0.0024889011 0.0024191826 -0.0010271377 -0.008006965 -0.0014280437 0.0031082812 0.00047050446 -0.0009160742 0.008022638 -0.0006847693 0.0007738213 0.00070757 -0.011330419 -0.0030755054 -0.0035375261 -0.0022797408 2.6179514e-05 0.0017010513 0.008695483 0.01586275 0.0029356258 -0.0050835353 -0.0202119 0.0032541698 -0.0041221175 -0.0042918343 -0.006530241 0.014086271 -0.002114566 0.0140032265 -0.0060636895 0.002069595 -0.014356838 0.0070083174 -0.0054492285 -0.0002319147 -0.0016245078 -0.0033513547 0.0022592228 -0.0002953915 -0.038176134 0.0002641644 -0.003616559 -0.002584109 -0.0015392684 0.0055350424 0.0023940464 0.013648138 0.005009145 -0.00735577 0.04674616 0.0029080047 -0.0009181421 0.0042307777 -0.00029429112 0.00071368256 0.0039518876 -0.0012759999 0.0037020573 0.002483471 -0.003373617 -0.0023520903 1.5724536e-05 0.0002373256 0.003567655 0.00049964205 0.001084648 -0.016922444 0.0025110901 0.0041530035 0.0011109218 -0.0029333488 0.004377121 -0.011534639 -0.0026453065 -0.002514442 0.004374008 0.01189428 0.0019786719 0.00047584076 0.009771403 0.00275583 -0.0054264143 0.0010487289 -2.6803973e-05 -0.0009618089 3.203461e-05 0.0011298212 -0.003923832 -0.0002679453 0.011063248 -0.008131354 0.00015644195 -0.015164966 -0.0051564933 -0.009725119 -0.0035903093 -0.0060568955 0.0023782987 0.0036028808 -6.694445e-05 -0.0023374401 0.02010527 -0.00078423106 0.002275681 0.006034593 0.00426587 0.00015246862 0.0038138956 -0.0026673842 -0.0012321403 -9.680095e-05 0.0027915852 -0.0012633118 0.0224813 0.0006945854 0.00095566286 0.0041634995 -0.0007648803 0.0007199997 0.002915464 -0.009503511 -0.0016237159 0.0052747815 -0.002474085 -0.0054466617 0.0073092654 -0.005575977 -0.0010351643 -0.0031113257 0.0008995489 -0.008879474 -0.00022855739 0.0026222672 -0.0024407757 0.0034902033 0.0024523032 0.00467063 -0.0060543497 0.0059418413 0.012581378 0.001404701 0.0086853225 0.0238304 -0.0010735214 0.0048545855 0.008452432 0.0029900004 -0.002588375 0.0015560243 0.00028774177 0.0017933389 4.6664816e-05 0.0016172663 0.016254695 0.003521035 0.02070537 -0.0009614921 0.0008977124 -0.004267917 -0.009058866 0.0020902953 0.026513373 -0.016092103 0.000696382 -5.6763256e-05 -0.001431107 -0.0004013602 -0.0031546243 -0.0025674494 -0.00075094175 0.0007007973 0.0028249482 -0.0029796576 0.0013317945 0.015300665 0.0020311696 0.013868683 0.004330944 0.0031955165 -0.00740833 -0.00329727 -0.0009078759 0.002278772 0.0033611837 0.0023573206 0.00036481174 -0.040323578 0.0050059985 0.009553056 0.0048025837 0.0031404875 0.0017517067 0.0033542523 0.006455324 0.007619537 -0.0006500742 -0.00014825918 0.00042616186 0.0045571155 -0.0028652712 0.0005180912 -0.0010918243 -0.024645837 -0.0012510443 0.002364353 -0.006266376 -0.0017678702 -0.0020972122 0.0036047148 0.0045563313 -0.002539377 -0.00024204659 -0.0015538019 -0.0018587116 0.0058126524 0.0038643412 -0.0015771558 -0.004562456 0.0053409254 -0.002597392 0.0071699712 -0.005692362 -0.0051053693 0.00021114085 0.021080378 -0.00240569 -0.017470147 -0.00030429216 0.0010763574 0.0011416764 0.002132688 0.0128326155 -0.011569646 -0.001192302 -0.0042922716 0.003836673 0.002825344 -0.0022544058 0.00019778458 -0.0075364006 0.0022619201 -0.003800002 0.022225909 0.00032959695 -0.008209491 0.00079092936 -0.001804298 0.0022800781 0.0037879439 0.006805345 0.0030961828 0.0018804519 -0.0015102067 -0.024413958 -0.0012153217 -0.0026709803 -0.009223801 0.00737458 -0.00045142887 -0.013154926 -0.0019466615 -0.0008628593 0.004234711 0.016460655 -0.0001377237 -0.012910456 -0.005553972 0.0048775813 0.001109498 0.0020953491 0.0026644797 -0.0005815882 -0.002587532 0.0026688005 0.006518063 -0.00012925414 -0.0029195633 -0.0011568442 0.026179358 0.008671726 0.0029724347 -0.008266596 -0.011374521 -0.00941272 -0.0062839347 0.006349169 0.0022350769 0.00036516256 -0.007341609 -0.0013221182 -0.0013148952 0.0019368206 -0.0024722093 0.0025114988 0.0006397219 0.0003952608 -0.0002839249 0.0016266926 0.004678592 0.025529195 0.0034406579 -0.00030256444 -0.015669443 -0.004410384 -0.00056387665 -0.0025906465 -0.0016313792 -0.016890204 -0.0007905433 -8.599908e-05 -0.002746719 0.0016360633 -0.00047859547 -0.0023887688 -0.0010084535 -0.0057868967 -0.025697969 -0.01241015 -0.0004085833 0.0053773713 -0.002750722 0.0047363937 0.0016463969 0.0003265207 -0.0015473143 -0.0077196825 0.010950217 -0.0025442378 0.0018073117 -4.9015063e-05 -0.0011216631 0.0018656695 0.0021812178 0.00016354218 -0.009700547 -0.0027973212 0.003591482 0.0030854081 0.0022941313 -0.00068337045 0.0005546313 -0.008356711 0.0005972721 0.0022311797 0.012059462 -0.005880948 0.0015860728 -0.0024277645 0.0016009061 6.246305e-05 0.0009075503 -0.003638194 -0.00031717413 0.00091675366 -0.0046101343 0.0023560964 0.0011898408 -0.0022778758 0.0003361253 -0.005590573 -0.007132487 0.002361918 -0.000658649 -0.010817084 -0.0015811854 0.00043962608 -0.0038876403 -0.00036070566 0.010691666 -0.006505486 -0.0020307337 0.0061133364 0.045053244 0.0024512473 0.003446914 -0.0030982478 0.0033509084 0.009725329 0.006402869 0.0009077961 -0.009662294 0.0036059974 -0.0047029858 0.032201428 -0.00023966501 0.0008791059 -0.0032118824 -3.0897045e-05 0.002687243 0.000111313566 7.021771e-05 0.00357653 7.669855e-05 0.0018258385 0.058040395 0.004643246 -0.0025017133 0.0035829803 -0.0004732916 0.0005590997 0.0011270201 0.0010943719 0.006525504 0.0014084736 -0.008769265 -0.00089070597 -0.0008228726 -0.00010047416 -0.0017150808 -0.021640798 0.0032796606 0.0129839 0.00073625887 0.003044974 0.008530342 -0.003026931 0.0008464944 -0.007819301 0.00016941965 0.0038670497 -0.0011605782 0.020437565 0.0053877095 0.00079375424 0.0014846988 -0.002820854 -0.010368348 -0.0021953324 0.0022282298 0.0016334874 -0.0023266424 0.0012825201 -0.0013099378
0.0019733098 -0.0023781895 -0.009658329 -0.003307713 -0.007465381 0.0027295272 0.0038430467 -0.044953845 -0.0022488919 0.0024595542 0.0010768253 -0.007448183 0.011248161 -0.001094845 -0.003018122 -0.00062815176 -0.0009348735 0.011724503 0.0057864827 -0.000682529 0.017195743 -0.00069018354 -0.0010224823 0.0014253819 0.00042793847 -0.001524582 0.0015224998 0.0021942165 -0.0012932143 0.009477975 -0.014312016 0.0009687949 -0.0011046573 0.0026414657 -0.017787937 -0.0034385049 -0.0015019665 0.00020283282 -0.00049038883 -0.0076682186 -0.00037119264 -0.0027716903 -0.008579235 0.004409462 0.0022305418 0.0033801673 -0.0040863557 0.0081319185 -0.0051567527 -0.0006774627 0.0009559489 0.0041971514 -0.015971497 0.00021028922 -0.0028794096 0.0013058028 0.0003768615 -0.00028561553 -0.0065826043 0.004658863 -0.0005850647 0.0029516916 0.016433265 -0.005981498 0.001710933 -0.0032973676 0.0029355912 -0.046232987 0.0052269967 -0.0012925413 -0.0129389 0.0024947913 -0.0033017062 -0.0014438691 0.0038811327 -0.027526025 0.012118112 4.847093e-05 0.0036191407 -0.0007467747 -0.010368622 0.00043280455 0.007641157 -0.0011127511 0.00046247526 0.005377155 -0.007180453 -0.0025055786 0.0022347819 0.00070699275 -0.023264615 0.0016601051 -0.0019604177 -0.0008405132 0.0054602567 0.0019065278 -0.0044466294 -0.017344236 -0.0020691233 -0.054667786 -0.02082052 0.012396935 0.0009293843 -0.0012290591 5.226707e-06 0.007152951 0.0062160413 -0.014779282 -0.03065158 -0.0037550116 0.011381393 -0.007593074 -0.00055206596 0.024702521 -0.00097566453 0.002226665 -0.0011360331 -0.0011287848 -0.0021484084 -0.002724855 -0.00316928 0.0010874511 0.0053140875 -9.084416e-06 0.0021744869 0.0038839725 -0.0009892917 -0.0033322051 0.019044653 0.0029563277 -0.0020492133 -0.002701555 -0.0029119533 -0.0066508004 0.0014995559 0.002776221 -0.0056605865 -0.0035050954 0.012820072 0.00036192895 -0.0066575604 0.0058324942 -0.001655384 -0.0031000562 0.009130671 0.0054786154 -0.0019295573 0.0018150695 0.008147906 -0.0024082002 -0.0048008333 0.005950138 -0.003289255 0.0025590637 0.0067204842 0.005652519 0.007294216 0.00026699321 0.0016373101 0.0026037323 0.032635607 0.0029573645 -0.0025229973 -0.0036483167 0.0017119606 -0.00010127986 0.00043061105 -0.0007715663 0.020346545 0.0037871462 -0.003547204 -0.0017114743 0.007862611 -0.005063747 0.0040715877 0.0056573534 0.0039046248 0.0027679142 0.0029616386 0.00058280403 0.020080954 -0.0005612418 -0.001194643 0.005730763 0.00046946286 3.891811e-05 0.0044853464 0.0064631863 -0.0020411478 -0.0008559563 0.0007258973 -0.0062362966 -0.021462914 -1.7417167e-05 0.0022836463 -0.009499076 0.0006631378 -0.0015551159 -0.0049214168 0.02682181 0.0022370184 0.054074157 0.0038046387 0.0034732793 0.0027822354 -4.0283838e-05 -0.003432398 0.0015128456 0.0016291939 -0.013899129 0.0009817556 0.0005309152 0.00027369772 0.0025349755 0.0012708913 -0.0014280054 0.0064625456 0.013179999 -0.001927086 0.0019893963 -0.01781003 -0.027641544 0.00080644473 -0.01688448 -0.011721798 -0.0028691068 0.0033382121 0.0021296984 -0.00033708673 -0.0010022834 -0.004225718 -0.0014695066 0.0012148013 -0.009731613 0.03328041 -0.00044769907 -0.0052149124 0.022919117 -0.006862427 0.000505247 0.00818825 -0.0068864925 0.001002917 -0.0030954638 0.000957947 0.004238747 0.005726263 -0.014459247 -0.004615886 0.0016668742 0.004522768 -0.00070002343 -0.0008588937 -0.011670751 0.0005658603 0.018095363 0.0038134546 0.0017606736 0.010274398 0.0007090231 -0.0039870897 -0.0032091476 0.00056941656 0.00033412437 0.0003773082 0.010179071 -0.0052675377 0.016604772 0.0006136544 -0.0022993041 0.0051683784 0.0022569874 0.009598268 -0.004208575 0.003923334 0.003430969 -0.0012996267 -0.00064660364 0.0004363043 0.0058745383 0.0039709336 -0.02492685 6.7568094e-06 0.0025534565 0.001058647 -0.002514136 0.018433034 0.009200366 -0.0034061652 -0.0043267077 -0.000989385 0.000950394 0.0037544274 0.006149727 -0.0021837982 -0.0037834076 2.8650098e-05 0.0021058216 0.0009636554 -0.011374523 -0.007347243 0.0021620733 -0.00016791411 -0.004063216 0.0023710085 -0.009635264 -0.003513434 0.00067488896 0.002649896 0.004239463 -0.0108379 -0.0032480722 0.0017767708 -0.0028924183 0.0054646875 -0.0010279997 -0.009503351 0.00071178656 -0.008041222 -0.0015233189 -0.0017632983 0.0002936618 0.0017481294 0.013323416 -0.010043938 -0.001887329 0.0023732288 -0.0010689293 -0.010499426 -0.00066020805 -0.0013035879 -0.01123811 0.0023231248 -0.0013480935 -0.0016051602 0.0034086513 0.0042680376 -0.0015112682 -0.012845447 -0.007177319 0.0076409196 -0.0075101554 0.00511696 -0.015609185 0.00734161 0.0006732952 -0.0024805607 -0.0026089733 -0.0007994354 -0.056689635 0.0049512233 0.0010939807 -0.010622458 0.0019948094 -0.001391977 0.002292357 -0.002301349 -0.0036488257 0.014374622 0.0029362678 -0.003053477 -0.012496736 0.0060590925 -0.0029395665 -0.022414824 -0.002505661 -0.026309023 -0.010955642 0.0044104247 0.0012653462 0.0031815611 0.00035976875 -0.0065980335 4.3117623e-05 0.00037799886 0.00028886044 -0.0013830912 0.004680143 -0.009368559 0.0030038268 0.0031380656 0.0016622811 7.725893e-05 0.00063923706 0.00010948855 0.007063426 -0.0053747594 -0.0077859582 -0.0015769114 -0.010302195 0.004588568 0.0033683348 0.0028315787 0.00011865138 0.006710116 -0.03364791 0.0029201258 0.0021026358 0.0024702973 0.0075173844 -0.0020077408 -0.0025501766 -0.0017007504 -0.002418658 -0.010620176 0.016442928 -0.00011816498 0.003931147 -0.0014614181 -0.00032364074 0.0040752226 0.0074759866 0.001354724 -0.0038394337 -0.005849843 0.0052067894 -0.0031382232 0.012064002 -0.0013272874 0.0045087324 -0.0147139495 -0.00032112157 0.0014512932 0.012017938 -0.0027878615 0.00078244385 0.0022270393 0.0030702373 0.016479062 -0.0040015625 -0.002917315 0.0030134653 -0.003728261 0.0057678777 0.023514561 -0.010787949 -0.007738997 -0.01651253 0.01257745 0.0052956375 -0.0032674137 0.0036574793 -0.011489667 0.007012519 -0.003298896 0.012546035 -0.000337048 0.00019950549 0.005383765 0.0038281973 -0.00695276 0.029349303 -0.0016080416 0.003410282 -0.0022887767 0.006783012 0.00021296815 0.026366228 0.0014850954 0.017412348 0.004939014 0.00093456154 0.022425164 0.0009371575 -0.0018809004 -0.0028833007 0.0013998306 -0.0005340858 0.0017921277 0.0060036243 0.008321257 0.00035454624 -0.021244943 0.043718837 0.0035511565 0.0031209209 -0.00015713462 0.033763632 -0.002216668 0.0035098903 -0.0018350711 0.002569429 -0.00033243783 -0.0017542131 0.0009830705 0.0018270477 -0.000114663424 -0.0043859826 -0.01519677 0.0017583183 -0.003197874 0.0015853869 -0.0023509467 0.0043598516 0.0004237798 -0.0006036546 -0.010447409 -0.0018812729 -0.006841118 0.0018727444 0.05579907 -0.0022091607 -0.0030413289 0.0037863886 0.0061695934 0.00459105 -0.0013384888 0.006201352 0.0014421575 0.0033449563 0.0065421397 0.0043169493
0.00097649434 -0.0002978425 -0.0019855946 0.0018403691 -0.0028435993 -0.0006790822 0.0028580737 0.0032104943 0.0004552167 0.0015475025 3.4829045e-05 -0.003914802 0.024841245 -0.0023457496 0.0012407033 -0.0012532988 -0.003981707 0.00034689673 0.0009763568 -0.002176728 0.0024629885 -0.0016978261 -0.0008828998 0.0017434688 0.0020512666 -0.0016215069 -0.0013796062 0.0009838905 -0.0018714614 -0.0012289397 -0.0037551408 0.00100289 0.0015383622 0.003669614 -0.0011943347 0.0016013128 -0.00051804713 0.0027525907 0.0010759861 -0.0005014563 -0.0006020239 -0.001078849 -0.0021322735 0.0014403145 -0.00026778475 -0.0002664001 0.0022036056 -0.0024289754 -0.0014329326 0.00066488225 -0.00083829934 0.00041889175 0.0042103557 0.00036619126 0.000488804 0.00044056753 0.0005309424 0.00023642942 0.00030658848 -0.00060489104 -0.000530539 -0.00050752517 0.0034485434 -0.00035324067 0.0017421483 0.0021251035 0.0020145273 -0.0060904934 0.0013913387 -0.0022696075 -0.00034216003 0.002464611 3.8005415e-05 -0.00019959897 -0.00058559136 -0.0049394933 -0.014841791 -0.00019248156 0.0036351532 -4.543639e-05 -0.0037905746 0.0014362744 -0.0044803633 0.0002656459 0.0026413733 0.0023042613 -0.0038034897 0.0027725736 -0.0017336122 -0.001422927 -0.0016710619 0.0022430778 0.003994727 0.0008589795 5.6354977e-05 0.0009721245 0.0034124185 0.002703749 0.0020789853 -0.0039773327 -0.00094736845 -0.0040023946 -0.0024646744 -0.0007737414 0.0015200936 -0.003243028 0.0029066661 0.00012789179 0.0035401848 0.0004222439 -0.0022513962 0.004869098 -0.0019058224 0.0031510207 -0.0016604142 0.0022545035 -0.0003055528 -0.00051605987 0.0075488184 0.0013027857 -0.00015776907 -0.0017895615 -0.0011436986 -0.0014765911 -0.0017130878 0.000700669 0.0020314825 -0.0018468607 -0.0037001632 -0.0001687108 -0.0046130046 0.0003551694 0.0010068044 0.0012730693 -0.002347924 -0.0006156957 -0.000426891 0.00012984616 -0.00038934356 -0.0018626407 0.008431549 -0.0016527019 0.0008198197 -0.00023334932 0.0025215368 0.0009861547 0.002126542 -0.00091448164 0.0023335768 0.00029326495 -0.0002139884 0.0008834302 -0.0004551279 -0.0010589523 0.006044197 -0.0030382015 0.00051227596 0.0024200866 0.0021418051 0.0022964817 -0.0052944655 -0.0013498313 -8.849607e-05 0.00011976602 0.00014780444 -0.000114001 0.003447088 -0.0004097306 -0.0022755093 -0.001847754 0.0030352385 0.0033854735 0.0014909965 0.017671596 -0.0020338902 0.00022723651 -0.0009183892 0.0011311945 0.00085247797 0.0019936967 0.01066602 0.0006123614 -0.0025416114 0.0023707696 -0.0008142544 0.0010008969 0.0006283549 0.005092984 0.00082792266 -0.0010858799 6.827416e-05 0.00088438875 -0.0022675896 0.0004589407 -0.0002454078 0.001284039 0.00077200384 0.0018768994 0.0046373163 0.00039434142 8.890767e-06 0.011995593 -0.0016672735 0.00421006 -0.00067611947 0.0007178558 6.9888265e-05 0.0006468351 0.0001064751 -0.004565897 0.0007555775 0.00036093933 -0.0012216781 0.0010747301 -0.0046759206 0.00032315377 -0.0019383947 -0.001998427 -0.007689301 0.00027734163 0.0031678171 -0.0013284987 0.00065834017 0.0019435616 0.006839423 -0.0018822688 -0.0012696458 -0.0002991903 -3.9694376e-05 -0.0011218576 -0.0015246775 0.002154709 -0.0009926033 -0.0018292645 -0.007398925 -0.00040315613 0.0044845617 0.0008544525 -0.00040222483 0.00054964697 -0.0065681827 -0.0005690128 -0.0006819255 0.00043282978 -0.00026694615 0.00028277084 0.0005852948 -0.014388119 0.00039642432 -0.00055379735 -0.0011598235 -0.0015109128 0.00065762794 0.0017955286 0.0008689076 -0.0036520436 -0.00067944895 -0.0004495981 0.026809877 0.0006527066 0.00077368197 -0.00080194103 -0.00018574248 0.001244599 0.0020097517 -0.012359528 0.0006999596 0.005940779 -0.000863836 0.0012719637 -0.0015604987 -4.2873482e-05 -0.0011145914 0.006319841 0.0014652123 -0.0011981889 -0.00020376153 -0.00085131254 -0.0006720514 -0.0014968787 -0.00054875575 0.0048055863 0.00015690019 -0.0031997093 0.0007019483 -0.0014846952 -0.018015891 0.0022350242 -0.00012673213 0.0013257734 0.0002981202 -0.00079769315 0.002108239 0.0011735794 -0.0016507835 -0.00080067053 0.0026946743 -0.00024595906 -0.00064414256 -0.0068809935 -0.007809986 -0.0008313989 0.00034924844 0.0029376694 0.0026098655 0.00025509612 -0.0008647891 -0.00025357903 -0.0027255162 -0.001026615 0.00081282057 -0.0053486773 0.0012312245 0.002409955 -0.00012444261 0.0018818515 -0.002811516 -0.00015716591 -0.020639936 -0.0015953465 0.0015806002 6.5219297e-06 -0.0012871916 0.00021217437 -0.0027212568 -0.004501833 -0.0011981408 -0.003957111 -0.00088549085 -0.0019889295 0.0020172677 0.000590479 -0.02910147 0.0008154562 -0.00018770344 -0.0025639066 -0.000851554 0.00097819 0.007477399 -0.004196274 -0.0010414544 -0.0046460186 -0.002896827 0.0012046508 -0.0058168406 0.0024053764 0.0029660698 -0.00079664215 -0.0012659059 -0.0004922815 0.0008010498 -0.002918785 0.0032533195 0.0020640327 -0.0007867313 -0.00039668492 0.0003444522 0.001984156 -0.00026969245 -0.00016839223 -0.00028441966 -0.00196273 0.0016316646 -0.0027954306 0.0020583135 0.0012983993 0.0038013926 -0.0006455 0.0010943676 -0.00086491485 0.0014073218 0.00080826745 0.00047879724 -0.0011492427 -0.00055110926 0.0017453568 -0.00093752705 -0.00020490806 -0.002310604 -0.00019935405 0.0005940075 0.03824932 -0.0017466674 0.00031081503 -0.0011197563 0.00141322 0.003875768 0.0025979814 -0.00052315474 -0.0015652936 0.001948996 0.0011059551 -0.00080394023 -0.0013663116 0.009462932 0.00772529 0.00028825455 0.002563772 0.00421705 -0.0036595524 0.0030930792 4.5891116e-05 -0.00072666374 -0.0033836204 0.03271162 -0.014237653 -0.00046665227 0.00044411907 -0.0008226839 0.001361342 0.0017664491 0.00084876345 0.0008499327 0.0014481326 -0.0022059167 -0.00070407597 0.00068936707 -0.0005108283 -0.0012565063 -0.0024424882 0.0074751894 -0.00025464586 0.00060644414 0.0019259169 0.0015122966 -0.00095922867 -0.00044702482 0.0009940701 0.00019664083 -0.0020649785 -7.289377e-05 0.0012900468 0.0020549232 0.0023158 -0.0028226457 -0.0026099482 0.0002235424 -0.00047842768 -0.0028128757 -0.004030033 -0.0011439828 -0.002554703 -0.0073980154 -0.0020757169 -0.001319541 0.00019632462 -0.00064862834 0.0019906322 0.0025370338 0.00021245539 0.0029559901 0.00085000123 -0.0032947417 0.0011406302 -0.0004255325 0.0055362475 0.0011157804 0.001451035 0.0011013959 -0.008454021 0.0007965155 -0.0024194003 0.0042925067 0.0013175785 0.00012869042 0.00015507462 -0.0011661225 0.00043752402 -0.0008049262 0.0019350215 0.001838925 2.5694682e-05 -0.003362428 -0.013625948 0.0007011793 -0.0014945343 0.00086637994 0.006137484 -0.0011078136 0.0019393608 0.0015312037 0.00022043585 -0.00013738008 0.0003600165 -0.0011290818 -0.0011181368 0.00067986845 7.699211e-05 0.009446808 -4.0702504e-05 -0.012241588 0.0010427805 0.0018658605 -0.0002251371 -0.0010132462 -0.00036086357 -0.005872831 -0.0021629804 0.0018887916 -0.00093322195 -0.003939201 0.00033366727 -0.00048076472 0.0014746155 -0.002575602 -0.016105147 -0.0017357682 -0.0018380487 0.00018019837 0.0027408814 -0.0013894713 -0.0033988217
0.0013433176 -0.0007768173 0.007328526 0.0021183486 0.00469185 0.00011426225 -0.0011790096 -0.0024957315 0.00041957918 -0.0037095426 -0.0024920774 0.0031233714 0.007909563 -0.00014207783 0.0018564127 -7.9040845e-05 -0.001055994 0.003552356 0.0013804573 0.00025760892 0.004828568 0.0009545482 -0.0005559807 -0.0015515508 -0.00020715133 0.0020194089 -0.0028834746 -0.005830641 -0.0012829703 0.0021089208 0.002115399 0.00072833925 -0.0028542012 -0.0003280877 0.0025842655 0.0010660632 0.00091033493 -0.0022363872 -0.0014186816 0.00062350946 -0.0013789176 0.00025251813 0.01899498 0.00093271316 -0.0007979957 -0.000110081084 -0.002548307 -0.0022910417 0.00072760606 0.001548976 -0.0009311833 -0.0010009797 0.00047214673 0.0014773069 -0.0021789672 -0.004585329 0.0013346924 -0.00093047955 -0.00042409293 0.0029663637 0.0010223247 -0.00025652224 0.0038378495 0.0019982657 -0.0024142326 -0.00078783446 0.0015911957 -0.014221794 0.0013854555 0.00029448175 -0.0031821292 -0.0017976483 0.00068193726 -0.009077117 -0.00043461422 -0.00089798187 0.005619896 0.0009552872 0.003967348 0.00082412176 5.7208986e-06 -0.0002632761 0.00056509464 0.0006435444 -0.00011623387 -0.00067594444 0.0095363995 0.00035761172 0.00053394143 0.000326814 -0.0022046876 0.0020395033 -0.0038740402 -0.0093641635 -0.00076846126 0.00037260196 0.0070673693 0.00063128996 0.0013174798 0.004473354 0.004646966 0.0020326027 0.0027140605 -0.0008494526 0.003411937 -0.006731508 -0.0030855606 0.0009293158 0.0033984405 0.001559506 0.0034668928 -0.0017265518 -0.001841073 -0.00014614036 0.0005246539 -0.0022898226 -0.0014952822 0.00011903208 -0.0006772352 -0.0019708637 -0.0025962691 0.00066611543 0.0006149514 0.0016467358 0.0021713872 -0.012186937 0.0012321762 -0.00035323168 0.002639852 -0.0028833726 -0.025909618 -0.00033090572 0.000123851 0.00042571244 -0.0015027286 0.0010256062 -0.0003165109 0.0010274367 0.0013118614 0.0008137393 0.0012195073 -0.0009498512 0.0020210582 0.001548993 -0.0013863916 0.003569717 -0.0023430083 0.0005509434 0.0021324737 -0.001978917 -0.0028016444 -0.0060191094 0.017344655 0.0005988145 0.0012637222 -0.0018467287 -0.0006296566 0.001099442 0.0029510865 -0.0008162661 -0.0021515742 0.0034061917 -0.000547881 -0.0009915187 -0.0025603757 0.0009393684 0.00039473927 -0.0015786407 0.0011197616 -0.0014776911 0.0008300192 -0.0006981694 0.005432264 0.0020011258 0.0011187735 0.0039685676 -0.00055503607 -0.0015563666 -0.00032685674 -0.00012871093 0.0029010251 0.00023653507 0.0017499737 -0.00031821293 0.0027326555 0.0011829154 -0.0021356167 0.0009786125 0.0010746595 0.0017755207 -0.00022868099 0.0015105559 0.00699951 0.0018105162 -0.0047710543 0.0024604856 -0.003019313 0.00047878173 0.0025784627 -0.00030339163 0.0022434962 -0.0014107613 0.003126257 -0.015488584 0.0045812875 0.0011439382 -0.0007899528 -3.8299208e-05 0.001458748 0.00045712086 0.002536033 0.0006707374 -0.0016789781 -0.00033499306 0.0030779887 -0.0027605006 0.0023386288 -0.0011295312 -0.0029330794 -0.002052785 0.0036324735 -0.0046054954 -0.0047683986 0.0027484365 -0.0025171884 -0.002286173 0.00042876098 0.000411249 0.000836661 -0.00018944348 0.0014841617 -0.0002006382 -0.00097238016 -0.0003722597 -0.0012051412 -0.00038897488 -0.0016150199 0.008496854 0.0030374837 0.0025522031 -0.0033452562 -0.0022106126 -0.000561444 -0.002034814 0.0012789676 -0.0011135767 0.00013521362 -0.0033356666 0.00021392462 0.0026361407 0.00085167855 -0.00023287146 -0.0003053212 0.0016776654 -0.0012128839 -0.00031494204 0.0015221554 0.00018903046 0.0012988746 0.0012071593 0.0024547838 0.00028090365 0.0003881049 -0.0004300661 0.0007234224 -0.0029368286 -0.0057939794 -0.0028525796 0.00010885464 -0.00023981789 -3.9393053e-05 -0.002735357 0.004270495 -0.0027946262 -0.0009328732 1.4663629e-05 -0.00040044705 0.00093554583 -0.0024832173 0.002754387 0.00061811105 -0.0033975856 0.0010057552 0.00035538652 0.0012699384 0.0015610382 0.0033888433 -0.0027543125 -0.00045919523 -0.0010848815 -0.00022300193 -0.0020545945 -0.0011684268 -0.014828798 -8.626895e-05 -0.00090273854 0.0002509672 0.00038268729 -0.0011535853 0.0015672076 -0.0050458745 0.00078936724 -0.0027035987 0.009089819 0.0024860331 0.0009368252 0.0003723746 0.000111973204 0.0013457066 -0.00034008792 -0.00031002116 -0.0006657545 -0.0026563883 -0.0029035779 0.007563318 -0.0005211207 -0.006459749 0.0010653868 4.866026e-05 0.0012710806 0.00088058744 -0.00049597124 0.00078156847 -0.0015871864 -0.0035064626 0.0012760794 -0.0007614754 -0.0013783484 0.0005814304 0.0010449718 0.00034689595 -0.0013614554 -0.0024681522 -0.00036641813 -0.00046263364 0.009518452 -0.0018963587 0.0008767514 0.00076019095 -0.017855214 0.0024177488 0.02033843 -0.0033917099 -0.000921701 0.0005670441 0.0003778971 0.006886507 0.00011621742 -0.001270354 1.1185194e-05 -0.0009439927 0.0013078009 0.0030781943 -0.0028804303 0.0005109599 -0.00011018378 0.00025671392 0.0017621169 -0.0032493675 0.00078567985 -0.0014137946 0.0006640829 -0.00386086 7.3373274e-05 0.008065454 0.00013218858 -0.0022281364 0.002400389 0.00054088247 -0.0028008735 0.0015966279 -0.0012742875 0.0029458408 4.7643796e-05 -0.00042039226 -0.00072342955 -0.0004989666 5.960976e-05 -0.00451173 -5.7252717e-05 0.002392422 0.0019057927 -0.001358228 -0.00035340234 -1.1885479e-05 0.0021200383 0.0031584662 0.0011868537 0.0014487661 -0.004542909 0.0003197526 0.0008184038 0.0013410427 0.0005074373 -0.00067081273 -0.0001676774 0.00011846135 -0.0008716397 0.0023164477 0.0006321516 0.00018810862 -0.0030420208 0.0027079876 0.0016190507 0.0033063006 0.0041008466 0.0010064831 -0.0020729448 -0.0013286722 -1.7932995e-05 0.0008386852 0.00085433485 -0.00059481803 -0.0025091916 -0.000394519 0.00047888444 -0.0007878308 -0.0070125065 -1.8626677e-05 -0.004783655 0.0049278447 0.0017914668 -0.0016209024 0.0036015084 0.0061958893 0.0017305027 -0.0021299806 -0.0032244786 -0.0005052234 -0.0009847209 -0.0024123716 -0.0007149423 -0.00074271014 0.0031676993 0.0026790136 -0.0015660982 -0.0032150124 0.00094439666 0.0050296634 0.016106734 0.0005422221 0.0002358059 0.0061850194 0.0001484803 -0.0013510216 -0.0044536376 0.0004197421 -0.00038960166 -0.0028300956 -0.0009437622 -0.0037462048 0.0026746572 -0.0018736533 0.0008898013 -0.0011948053 -0.004791472 0.0011965829 -0.0029887566 -0.00020882305 0.0034986571 -0.0004678789 -0.0016374185 0.0024835789 -0.00077824714 0.0019141391 0.0045085633 6.5633256e-05 0.0006274662 -0.00092380616 0.0018517683 -0.00057039125 -0.00014324144 0.001511853 0.001581036 -0.00024117694 -0.00116842 -0.0011471318 -0.003198777 0.00025727204 0.0018252443 0.001173575 0.0017764273 0.00032506074 -0.015564732 -0.00010659391 0.00069571304 0.00011504513 -0.0005571212 0.0001956943 -0.0031968325 -0.0014676588 0.0005476606 -8.592299e-05 -0.0028808538 0.00040682516 -0.0008019407 -0.0003057867 -0.0018116448 -0.0003959806 -0.0012609116 -0.00021655178 -0.0028232166 -0.00017525446 0.0008017778 -0.00044770897 -0.0038430484 4.3103555e-05 0.009166009 0.001086921 -0.02187785 0.0023189695 0.00013597828
-0.0010761383 -0.0039997464 0.008193625 0.0015607788 -0.0027198447 0.0025290647 -0.0010146702 0.0077268663 0.0015168088 -0.005535699 0.020223238 -0.0061745187 0.028284416 -0.0026191147 -0.002413721 -0.000712927 0.0036283447 -0.0020166857 -0.0089537315 -0.002532245 0.0048505934 -0.004538633 0.0003495088 -0.003219692 0.00041979537 -0.0035387392 0.01191068 0.009256283 0.00020703122 0.000529363 -0.0055523873 0.003142485 -0.001044087 -0.008832666 -0.019054309 -7.667268e-05 -0.0011127339 0.017702907 -0.00060928165 0.0019251532 -0.0009971501 -0.00027500992 -0.012467217 -0.0004118288 0.0007842961 0.0033511005 0.0017887952 0.000671821 -0.0015075277 -0.0011563925 0.0023604645 -0.0020157737 0.0023378148 0.0026062753 -0.0024935098 7.978821e-06 -0.0012330841 0.0033329849 0.0024610334 0.0022132257 -0.0007562309 0.0059821005 -0.015075399 0.0019284892 -0.00024037143 0.0077108736 0.0009792062 0.0070769577 0.0021000593 -0.0026589008 0.00904278 0.0009393841 -0.004470237 0.0032217503 -0.002974207 0.005328077 -0.01618341 -0.00056437636 0.008098259 -0.0005010554 0.0020424596 -0.0023631968 0.0046637845 -0.006539773 -0.0025046205 -0.016975088 -0.006599189 0.00019734005 0.0011438557 -0.0012678816 0.009267723 0.0037387141 -0.002262115 -9.822276e-05 -0.006477999 0.0035504117 0.010065758 -0.002406877 -0.0005768125 0.010349757 0.0072543854 0.0034418402 0.0025248404 -0.0009972429 0.0010116252 -0.0015788116 -7.362644e-05 -0.0018382852 -0.006207349 0.0033066918 0.008392953 -0.03007374 0.011054629 0.0007501128 -0.0026433116 0.0013797558 -0.00087076804 -0.00043697318 -0.004650796 0.00084682665 -0.003399551 0.0004502033 0.000974272 0.0027117075 0.00037888673 0.00085518125 -0.0007590605 0.004054033 0.005649146 7.280452e-05 -0.004659433 -0.000704542 -4.59112e-05 0.0017718484 0.003067642 0.0016693451 -0.002258538 -0.0005333506 -0.00024379544 -0.001114656 -0.010200769 0.0014305273 0.0022559715 -0.002277909 -0.0002711819 -0.0067818137 0.0006225146 0.001072685 0.0010324484 -0.0019398808 0.004807246 -0.0066732517 0.008718603 -0.0023205173 -0.0050923913 0.012353567 0.0018981829 0.0016327278 -0.0038927742 2.8208078e-05 0.011695566 0.00086354546 0.0033104902 0.0024798505 -0.0013053961 -0.0009394455 -0.005605029 -0.0005799478 -0.015149549 -6.830555e-05 -0.00069758785 0.005420891 -0.0044664973 0.007135475 0.0022259108 -0.0013469768 -0.0025034058 -0.0004885973 0.008453335 0.004029745 0.0011017902 -0.0015216895 -4.4648532e-05 0.0003725193 -0.0004550578 -0.0009795226 0.0017908398 -0.006384957 -0.0005855749 -0.0010285014 0.0012165139 -0.0022091737 -0.007841428 0.004325739 0.0043887086 -0.0030223706 -0.0018239355 0.002500497 -0.0077249743 -0.005642074 -0.0014276258 -0.00128398 -0.002879595 0.00977502 -0.0048414054 -0.0027331165 0.0011329368 -0.0032076375 -0.00039019666 0.00037323087 -0.0024382567 0.0011538303 0.0015073507 -0.0012375275 -0.015255189 0.00024597856 0.024054868 0.008183903 0.0017482403 -0.0007607044 -0.0033010133 -0.007924573 -0.004046294 -0.0015326472 0.0034879646 -0.0046701725 0.0012134513 0.0007998168 -0.004626273 0.002794372 0.0027185227 0.0003627795 9.514375e-05 0.008445032 0.00043598944 0.0016675408 -0.001024148 0.009045409 0.028866388 0.00800929 0.008421429 0.008566296 0.0017596465 0.00067932764 0.001993902 -0.00038921353 0.0034140854 -0.012730074 -0.0025292467 0.00096706924 0.0009431746 -0.00051828794 -0.005358842 -0.007980676 -0.0034014995 -0.0008313561 0.0036273547 -0.00034017456 0.012871178 -0.006063932 -0.0018152939 0.0016293669 -0.0014599987 -0.0005354538 0.00013786832 0.02217206 0.004527681 0.0039490475 0.00012608789 -0.0019333996 -0.0009903954 -0.0033688308 -0.003965951 -0.009503526 0.0021280628 -0.0018516505 -0.0028362016 -0.00026600872 1.7789653e-05 0.00095522415 0.0003392782 -0.0018045664 0.0034941004 0.0009261776 0.002926297 0.0033071404 -0.007859675 0.0010582644 0.0075476845 0.002211731 -0.0027685496 -0.0016647745 0.00079518504 -0.016858716 0.00015833191 -0.00027784007 -0.0024286064 -0.0012524851 -0.00047935534 0.006610553 0.016699642 0.0010448726 -0.0047695087 -0.0250228 -0.004330294 -0.0047485908 0.0016313797 -0.0031573898 -0.001077312 0.004976817 -0.00041183998 -0.0026603588 0.003328582 0.0038247819 0.0027429927 0.0016562878 0.0004482337 7.732738e-05 0.0004124455 4.9905357e-05 -0.0010211278 -0.009759293 0.0024854473 -0.007644789 0.0022559485 0.0012887216 -0.0021970712 -0.00976008 0.004163668 0.0023073282 0.0005284457 -0.0017000674 0.0031656802 -0.00083257625 -0.0009935453 0.028543323 0.009463132 -0.0037479554 -1.5269071e-06 -0.0054211416 -0.0024288013 0.005067594 0.0060676862 -0.0018182313 0.004926075 0.008414958 0.003249563 -0.00083209784 -0.0026538435 0.0009099324 0.0010332686 -0.0033127083 -0.004323873 -0.0029919732 0.0016898633 0.0017070796 0.0043226583 -0.00030078532 0.004210607 -0.001012114 0.005240366 0.0044563697 0.0024998325 0.0030534547 0.006345587 0.0021065162 -0.0001002826 -0.0014732569 0.0026150667 0.0018983645 0.001536191 0.00030246464 -0.023953198 -0.00088024925 -7.046325e-05 0.002205008 -0.0020022923 -0.0016950491 -0.0037910724 0.00086461054 0.0012965632 0.0077793323 -0.0066790087 -0.0032698698 -0.0036228262 -0.0011406178 0.0069429767 0.008781441 -0.000111565576 -0.0016130552 -0.0018548309 0.0020160447 0.004004429 0.0015994348 0.0038825828 -0.0009076083 -0.009548119 -0.002744197 0.01098125 -0.0067642643 0.003076979 0.00084666756 0.0014231197 0.0027548526 -0.009237977 0.015571807 -0.00075143384 0.00032155213 0.0015445616 0.0025236206 0.00020209858 -0.002037583 -0.00023310323 -0.010232559 -0.0019304209 0.0039303564 -0.0014732555 0.009063393 -0.00028712922 0.00031521398 -0.024276547 -0.00026193756 -0.0001942413 -0.012963088 0.014960162 0.00019887279 -0.0010483046 -0.005495517 -0.00067860424 -0.00087796064 0.012715711 0.0034069822 0.00023492522 -0.007831447 0.012809846 -0.0012051128 0.0005634424 0.0040975893 -0.004596921 -0.00013018679 0.0011302505 -0.00022769543 0.0015384152 -0.0027946455 -0.00077113556 0.0007510422 -0.0017633148 0.0026029178 -0.030492334 -0.0008503782 -0.016922353 -0.014919557 0.00837566 0.00077571 -0.0012497046 -0.0027173168 0.005153668 0.012089421 0.0034423182 0.0037086455 0.001343642 -0.00068621564 0.009227318 -0.0040821927 0.0012659522 -0.0054597296 -0.003146978 -0.0017306544 0.0024618234 0.0006895154 -0.004938512 0.0022627427 0.0060430723 0.011295677 -0.000619718 0.0054070707 -0.00011153662 0.011933828 0.000563752 -0.009566649 -0.00047349662 -0.0011173802 -0.002061307 0.0011312589 -0.0049598403 0.0011915414 0.00090033165 1.0996193e-05 0.0010869679 0.002283262 0.0036503826 -0.0019988636 0.0012985223 -0.0011859672 -0.002410548 -0.00037770063 0.014733348 0.00244815 -0.00038734905 -0.0014537297 -0.0026936703 -0.0010950196 0.003292654 0.0028676959 -0.00013543683 0.0014397004 -0.0016561621 0.011464714 -0.0021567913 0.009148861 0.003696878 0.0023698139
0.0028140368 -0.00032405622 0.012335304 0.0018901539 -0.0021597682 0.0023894256 0.0029733814 0.00068926177 -0.0009321318 -0.0017607631 -0.010601833 -0.0018956653 -0.016312419 0.0010110735 0.0022961132 -0.002683744 0.015454249 0.0065624514 -0.0018659561 0.0029882577 0.007414667 0.0017838593 -0.0017093082 -0.0032247074 -0.0025444443 0.005071177 -0.010278321 0.00790973 -0.0006987504 0.0015206233 0.0041371817 0.0067120097 0.0069149877 0.00437442 -0.0010871042 0.0024744223 -0.002408763 -0.017938636 -0.0031367936 0.0008574739 -0.0014902481 0.00064479496 0.025381573 0.0059476215 -0.0019547977 0.00071891735 -0.0021459213 -0.011253258 -0.00066121685 0.0011293282 -0.0009709448 -0.0032074403 -0.0030039782 -0.00014417115 0.0009736563 0.0018829926 -0.0010551197 -0.0039758836 0.004238039 -0.003209576 0.0012045789 -0.0017645996 -0.016169392 0.0014481088 0.0014810584 0.016732667 0.0009621503 -0.045557316 0.00121156 0.0054105613 -0.0054595624 -0.0012112294 0.0035753276 0.0051469402 0.0041316743 0.032453597 -0.0008279464 0.0029415207 -0.014750039 0.00091604784 0.00016946063 -0.022635158 -0.009108028 0.00080168387 -0.00022489972 0.015004979 0.04125191 -0.0019474345 -0.00045630825 -0.0015515052 0.014035183 0.0016012631 0.0033565965 0.0029006295 -0.0068810945 0.001964939 0.056048244 -0.0029719207 -0.0019924033 -0.0009419367 0.027716145 -0.01177827 0.0004858124 -0.00013799446 -0.00931747 0.02437836 -0.0021191665 0.0052301814 0.024940116 0.00353873 0.0023881532 -0.0054272246 -0.0052789743 0.0051674414 0.0030768476 -0.0037794635 0.00033034082 -0.0020547912 0.0076029184 0.0029803878 -0.0024099743 0.00011522845 0.000979654 -0.0014745088 -0.0014835264 0.00439477 -0.0017618682 -0.010419794 -0.00370716 -0.0058785914 0.007672257 0.0008882497 -0.0022984403 0.00035187358 -0.0032898807 -0.0035102507 -0.000482461 0.0042114966 0.0013804865 0.00089903607 0.0092930375 9.922204e-05 0.0005829796 0.0009484403 -0.0055041756 -0.00029235848 -0.0051667076 -0.001874271 -0.0007385003 -0.0032156555 0.0020920287 -0.011275735 -0.011665092 -0.002783985 0.011915259 0.000131947 -0.0013772852 -0.00032140448 -0.021515787 -0.0017749785 0.006138699 0.0055298884 0.0022755556 -0.005521003 -0.002253296 8.189483e-05 0.0061455476 0.0013934693 -0.009505946 -0.0064010713 0.002533189 0.006283395 -0.008202531 -0.010011897 0.0005407298 0.0035421045 0.004374198 0.0021675543 5.2102873e-06 -0.0036698838 0.01469679 0.00037949774 0.0016342173 -0.00440331 0.0036436978 -0.0003524657 -0.0038769983 -0.006787238 -0.0032394326 0.005868692 -0.0032123723 -0.002350033 0.01145998 -0.0030566156 -0.004403198 -0.009982879 -0.0014894429 -0.004097608 0.0034134234 -0.0019719992 0.0056125424 0.0061051473 0.0026571269 -0.010914857 -0.0021832914 -0.0009603495 -0.0030399528 2.7896926e-05 -0.0051458376 0.0047510373 0.0042111776 -0.0026365481 0.0004412844 -0.0045330445 -0.003441507 -0.002848699 -0.001893673 -0.012366874 -0.00419159 -0.001867586 0.0028188892 -0.022989549 -0.005665596 0.0025648016 -0.0030305544 -0.003719997 0.0006013126 -0.0055979546 0.0045897407 -0.010617631 0.0036305673 0.0013388122 -0.011138004 -0.0021971504 -0.0007821126 -0.0025299268 -0.0026079996 0.01796835 0.0072300625 -0.0037584782 -0.0091202445 0.018947598 0.0009662705 -0.00064533675 -0.0026612887 6.783948e-05 0.0018956726 0.0016840964 -0.0012568453 -0.0007248391 0.0018739646 0.0021245426 -0.0015099638 0.013161578 -0.00441465 -0.0012517088 -0.00041678813 -0.0059353895 -0.0055691116 0.0008928818 -0.001553064 0.0030195832 0.0042609815 0.0044931555 0.0032269175 -0.024969103 0.0087244855 0.0068342416 0.0019319673 -0.0015992789 0.0019918107 -0.002710644 0.014678842 0.0018445774 -0.0014740757 0.0020443976 0.0052125277 0.0077913115 -0.0017706268 -0.0022241285 -0.0021170047 -0.017515289 0.0023543837 -0.0035108062 0.005471915 0.0007461673 0.003951276 -0.002661297 1.5386547e-06 -0.0007352823 0.0015777661 0.0033483019 0.0016402754 0.0033232786 0.0022545853 0.00048664535 -0.0012304608 0.0022617287 0.00014981083 0.0057999473 -0.0033591164 -0.00053542637 -0.00040912395 -0.014744714 -0.0005099472 0.0029946263 0.0041684927 -0.0030690047 -0.0010225166 -0.0109760715 -0.0060442206 0.0039383587 0.0014461125 -0.008895 0.0071177096 -0.00012725753 0.008733212 -0.0011056414 0.0018886061 0.002462968 -0.0012005693 -0.018981317 0.0008169853 -0.0020998784 3.517756e-05 0.0031392516 0.0013254689 0.0065732533 -0.003971545 0.0013892015 -0.0006446614 -0.012622858 -0.012030864 -0.001322416 -0.0011777022 -0.0029613087 0.0042448943 0.0023590245 -0.0033312493 0.0075105364 0.00038892185 -0.0225337 -0.0023712015 0.009066914 0.0068013417 0.0063699414 0.0012503056 -0.0005060823 -0.0021464603 -0.007998264 -0.001098735 -0.0017528953 0.008752133 -0.019318806 0.00067085266 0.00068518776 0.0012643989 0.0016336283 0.0015879959 0.0005467543 -0.002648984 -6.185877e-06 0.02164028 -0.0019423204 -0.011656093 -0.00074561225 0.014611496 0.012033991 -0.0014397426 -0.0029103486 0.0015682648 0.00073386676 -0.0021021576 0.0004461834 -0.0037026375 0.0009469441 -0.0007659367 0.0033729756 -0.01293049 0.0056315125 0.0035088796 0.002892065 0.0018279229 0.0022134122 0.0018278841 -0.0006922031 0.0194977 -0.0038697268 -0.0011189611 -0.005663405 0.0019393496 0.0013362203 0.00020143116 0.0010970256 0.0074298587 0.016231624 0.0116975615 -0.0016389149 0.0033707372 0.023045251 0.00029657275 0.0036750832 0.0008293849 -0.0010659992 -0.03598854 -0.006621617 0.0020762268 -0.0011939835 -0.0023609553 0.0032936505 0.002796098 0.0015861369 -0.0008141766 0.0045755273 -0.0035664274 0.002872587 -0.00261835 0.00722567 0.0046236725 -0.0018941635 0.016255949 0.0026787566 -0.00234196 0.010083053 0.023818491 0.005043994 -0.0009576649 -0.0031425045 -0.008934636 0.0007133438 0.01875712 -0.0031481814 -0.0013758199 0.0021981956 -0.009502006 -0.0016741565 0.009977259 0.006270647 -0.013154584 -0.00590856 -0.0012548974 -0.0041582845 0.005713757 0.0030664634 0.0018521319 -0.010005411 -0.0010341272 0.0031101424 -0.011064315 -0.0024915468 -0.019032687 0.016902857 -0.010304832 0.00031037052 0.0005395968 -0.0009911845 0.0038606205 -0.014633765 -0.003630623 -0.007605756 -0.0030632042 0.0022245254 0.007544998 -0.0015756203 0.0015272299 0.0068810233 -0.0017062409 0.001153107 -0.0013852873 -0.00346196 0.012858713 -0.0002666642 -0.009655634 -0.0016533496 -0.002317461 -0.0003419869 0.00028577464 -0.035771422 0.0047307727 0.000688993 0.0012724065 -0.0033247229 0.0012025167 0.015576446 0.004058792 0.002300476 -0.0015678924 0.0013151225 -0.012480645 -0.0010318968 -0.0045098336 -0.00054265454 0.0009291308 -0.0097061815 -0.0020930602 -0.0068115084 0.009954105 -0.00082149403 0.001500472 -0.0014176661 0.028337248 -0.0023292212 -0.00097246544 0.003038086 -0.0062928363 0.0045166295 0.00015514347 -0.01176397 0.004234956 -0.016711697 -0.0027516214 -0.002896401
0.0006532382 -0.00050646235 0.013990224 0.00028067295 0.003222781 0.0009872513 0.00058159983 -0.0019655174 -0.0035266064 -0.0011513799 0.011774904 0.0056762225 0.013537337 0.0020582953 0.001227621 -0.002122348 0.0029446112 0.0020865586 -0.009630161 0.0016616503 5.848994e-05 0.00082541764 0.00023560437 -0.0021950873 0.0042545856 -0.0015322416 -0.002704633 -0.002230018 -0.00035076143 -0.011638501 0.031464066 -0.00063219713 -0.004663243 0.007303805 -0.009709939 -0.0017407398 0.00090712967 -0.012856376 0.0045318305 0.0014768627 0.004113625 -0.0029380291 0.0061387545 -0.0013808955 0.001220935 -0.005206926 0.00040520515 -0.0012766767 -0.00059608306 0.0010515517 -0.002087355 -0.0045678024 0.011081285 -0.0022060764 -1.7830539e-06 -0.0004040875 -0.0031976067 -0.000656236 0.0017394004 0.007972809 0.0007209792 -0.017837038 -0.0013738819 -0.0016441963 -0.00085449143 -0.0012284712 0.0039256867 0.0008846154 0.002844296 -0.00056259846 0.019290993 -0.00056846905 0.00011468696 -0.009898104 0.0020654483 -0.004950793 -0.009177252 -1.02186395e-05 0.0042019454 -0.0033213773 -0.00029359877 0.002836435 -0.0031919195 0.0012954887 0.0018148317 0.024932768 -0.016262844 0.00060004304 -0.00038792964 -0.0018098356 0.0116432365 -0.0011329559 -0.016412886 -0.0068214964 -0.008499223 0.0016494083 -0.02039422 0.00691459 0.0022067218 -0.009785223 0.0123133715 -0.005156314 0.0012641216 -0.00054298335 0.029482057 0.021349192 0.00059145375 -0.012679476 -0.007257676 0.0033858104 0.003234872 0.0031155678 -0.0048722676 0.011374881 0.0008560228 0.00047534198 -0.003287101 -9.478741e-05 0.03596533 -0.004499995 -0.00043334262 0.0013624326 0.0027022199 -0.0018245117 0.0013559862 7.8231125e-05 0.002310267 -0.0051803975 -0.011670493 0.0023359044 -0.0072129406 -0.00017928776 -0.0016791822 0.0030993216 0.0016937976 5.1529783e-05 0.0019660299 -0.0009124637 -0.019966362 0.0019089162 -0.004895905 0.0007929363 0.0055973143 -0.0004603217 -0.00457833 -0.0019144582 0.001772286 0.0020871966 0.0038487 -0.0016138221 0.000973563 0.010155976 0.0014813127 0.0026929781 0.0058766003 0.009675628 0.005001888 0.0016980112 0.011206356 -0.0005716277 0.0028227696 -0.0018460955 0.0033491189 -0.0026644499 -3.8289054e-05 -0.0031555726 -0.00054044585 -0.0005884648 -0.006343582 -0.0028318025 -0.00096581917 0.016543638 0.009760257 0.003956696 0.002724777 -0.0014047727 0.0024473225 0.0003936025 -0.0027646536 0.003750993 -0.008534927 0.00091653666 -0.0043384065 -0.004518562 0.0033888838 0.0023420637 -0.004635053 -0.008094259 -0.0017617154 -0.0016232334 -0.00044302797 -0.003481451 -0.025436021 -0.0032100324 0.0041679153 0.0033086322 -0.0033398161 -0.0014499768 -0.025683194 -0.00335431 0.003099473 0.013147232 -0.00012778383 -0.004812438 -0.02447665 0.004488608 0.00034947958 -0.002788724 -0.0031631142 -0.0016279652 -0.00072324043 0.0038398157 -0.00028912196 -0.001764034 0.0010522478 -0.00024309203 -0.01017227 -0.00026414034 -0.00636676 -0.0041224523 -1.6636135e-05 -0.0106884055 -0.0028904048 0.005674021 0.0006724711 0.0049981833 -0.00038491352 -0.00154996 -0.00077737996 -0.0016669489 -0.0021965494 -0.0033459477 -0.012833965 -0.010262651 0.023152329 0.0018550378 -0.001396358 -0.017891886 0.004762527 -0.0049692066 0.002740189 0.014374565 -0.000820384 0.0025545796 0.00071544753 0.0062807905 0.002173588 0.004624107 -0.0038784514 -0.0019880289 -0.0013540611 0.0010443118 -2.882683e-05 0.0066834316 0.002225698 0.003288113 0.0011112238 -0.0025648328 0.00020344876 0.002363615 -0.0025201822 0.0023845136 0.0017202372 0.0013168267 0.00021970097 -0.0008346162 0.016777564 0.009450841 -0.002984042 -0.002573499 -0.00016243462 -0.0041398173 0.0063404194 -0.03021921 0.0030363905 -0.002275689 0.0022987428 -0.0005305571 -0.0042840336 0.0050333366 -0.0048280684 0.029870706 0.004058042 -0.0044491957 -0.0028374332 0.0027349745 -0.007245042 -0.0051946947 0.0011789907 -0.0022242893 -0.0011469038 0.0017191367 -0.0037550943 -0.0027546682 -0.0006601706 0.00044829218 -0.0001650066 -0.006702327 -0.004260341 0.0033671164 0.032554056 0.00025543015 -0.0041994136 -0.015761893 0.00063394714 -0.011995457 0.0017417144 -0.0021975976 0.0006776506 0.0050810496 0.01845788 0.0028305969 8.6362765e-05 0.013783843 0.0053883675 -0.0022051062 -0.0010927105 0.0040194076 0.0010943769 -0.0014499837 -0.0017881944 -0.024091762 0.000292859 0.004886197 0.012107294 -0.0038247255 -0.00035399225 0.0032926619 0.0011882399 0.0044558663 0.0019373002 -0.0050122 0.026727902 -0.0011735144 0.0009308296 0.007340971 0.04906459 -0.0002878777 0.01593306 -0.0025035685 -4.1964402e-05 0.005157692 -0.011685279 -0.009396761 0.009940544 0.00062295905 0.0039821374 0.0038228563 0.0002778029 -0.0037620098 0.0043364433 0.009134449 -0.005522415 -0.006846 -0.0030936701 -0.006021728 -0.00042594713 -0.0035248965 -0.0080633545 0.004858153 -0.0072110384 0.010903775 -0.00935289 -0.0018247471 0.002931705 -0.00046348706 0.0052272114 0.0047340766 -0.0024598422 -0.00011657713 -7.1929746e-05 -0.0024973506 -0.008245628 -0.0016777825 0.0018755025 0.0016860858 0.0035731252 0.0009218813 0.0025440666 0.0020133785 0.0029252681 0.0014778407 0.0020907256 0.0033558107 -0.00072875567 0.0031194189 0.0090201115 -0.002366031 0.0028054924 0.007900908 -0.00043470602 4.326736e-05 -0.0059938496 0.00089506083 -0.008044086 0.031692337 0.010097956 -0.0014911103 0.0006235255 0.003715742 -0.004325462 -0.003315977 0.0008738206 0.0012051394 0.015664779 -0.008205801 -0.0006886164 -0.0031025365 0.0030706264 0.00039368545 -0.00028682686 0.0016652002 -0.00065780093 0.005428506 0.0007246474 0.0011062537 0.0029213466 -0.0058747334 -0.002264925 -0.0012649426 -0.0065235854 -0.00096764957 0.00026044354 -0.0059740236 0.0025379076 0.0012684807 -0.0005546356 0.0006163706 0.0057280073 0.0035933394 -0.003843195 0.0010931125 0.0037858787 0.008746243 -0.0032082645 0.0048693996 0.005060306 -0.006174636 -0.00950077 0.0042561884 -0.0032333534 -0.00040524988 0.009571507 0.006046058 0.0038911104 0.009087349 -4.0152605e-05 -0.0049713594 0.0028495954 0.00021588127 0.0030810852 -0.022197999 -0.0018550156 -0.0005164734 0.005751912 -0.00019318685 -0.0008878083 -0.019954119 0.001070962 0.002762453 -0.0015672394 0.0015885055 -0.020549513 -0.0046282005 0.0037990343 -0.0013931452 -0.0029868493 0.0008877236 -0.0022985414 0.0034220328 0.0035715715 -0.0021976086 0.0030549252 0.008326147 -0.00032528784 -0.002716031 0.00018802047 0.011011063 0.0004875193 0.0012314266 -0.00019375855 0.0035191579 0.0027546315 0.0059221736 0.0022376778 -0.00050600054 -0.0075123995 0.0037496206 0.018969102 -0.00093739363 -0.010552591 0.0014745839 0.0006228294 -0.006665169 -0.0014958362 -0.0009984793 -0.011961425 3.3050554e-05 0.006138213 0.0028297077 -0.0128097255 0.0074450113 -0.00268594 0.0012634222 -0.012972229 0.0014755557 0.0012085085 -0.0029030545 0.0043786764 -0.0050414694 -0.0021512255 0.0032909287
-0.0008359837 -0.00894234 0.0018617295 0.0011886015 0.017187005 0.0009054166 0.0033503822 0.01628275 0.0024247344 0.0066557466 -0.0053933044 -0.011382285 0.00897238 -0.0031769928 -0.002376279 -0.004827871 0.0026638904 -0.007108127 0.007833299 -0.0056585195 0.002886096 0.004540301 -0.00027197358 0.0010203245 -0.004108081 0.0019023945 -0.004595809 -0.002558622 -0.0014365052 -0.0076959566 -0.0031643359 0.0021340752 0.011605142 0.008450463 -0.00082252227 -0.0010322822 0.00018907242 -0.012752965 0.0016670019 0.00036009747 -0.0023662678 0.0049296822 0.0058347853 0.0011571062 -0.0033936528 0.00064963556 0.0009136092 -0.005105916 -0.0010018499 0.0010279125 -0.00080230157 0.004709291 -0.00014893421 7.2954026e-05 -0.003819034 -0.0028625415 -0.001471529 -0.00138005 -0.0064326543 -0.00078118755 0.002065459 0.0041939523 -0.020792898 0.0043184403 -0.00073428935 -0.009397116 -0.0010980157 -0.030211013 0.0013281795 0.00037375433 -0.004188315 0.007180955 -0.0021351692 -0.0041439906 0.0071827127 -0.024586633 -0.02326897 -0.0031384607 -0.0033647704 -0.002513172 0.0011130786 0.0021456198 0.022101656 -2.1199001e-05 0.0019933626 -0.003733337 0.0082495585 -0.0042311703 -0.00038222916 0.003438258 0.0068002134 -0.008547745 0.001566473 -0.0007569223 0.009318899 -0.0012800619 0.0076093283 -0.007886331 -0.0020956013 -0.0010438418 -0.0002895322 0.006954112 -0.0003101252 -0.0033753933 -0.008961335 0.1094584 -0.0018029081 0.01688314 0.012136339 -0.0039267144 -0.007018165 -0.0069694645 -0.015558734 4.3706616e-05 -0.0033285227 -0.0044871783 0.004080145 -0.0011090627 0.018566547 -0.00260289 -0.0040076147 -0.0025330198 0.00075457315 -0.00070977095 0.0023875888 -0.0068130367 -0.0015184616 -0.030354744 -0.0017926518 -0.0025662847 -0.022448083 -0.0043015005 -0.001564338 -0.0022470085 0.001547738 -0.0016755792 0.0026062585 -0.00075989135 0.005740789 -0.0024503004 -0.013763951 -0.0011192503 -0.00071816123 0.001072719 0.0064365165 -0.0035138996 0.004250584 -0.0021248993 0.0029063574 0.0028583172 -0.001542202 -0.0028825572 0.0075622085 -0.00043571455 -0.009964885 0.0031056982 0.0037487452 -0.0009196753 -0.020992152 -0.0034242624 0.006182271 0.00039622455 -0.0013427312 0.00011734085 0.002182167 -0.00039017608 -0.0055821934 -0.00012203436 0.008176238 -0.010004356 -0.0022510379 0.010865257 -0.0010539878 -0.023967694 0.0026852516 0.01975153 0.0065502548 0.0014092309 0.0022720625 -0.00038730205 -0.0002273329 -0.0019336689 -0.005543979 -0.0030287916 0.0028785118 -0.0010650159 -0.001441465 0.015906626 -0.0058263913 -0.00079002144 0.0018257701 -0.004787406 0.010950808 0.00047653524 0.005629468 0.0062268507 -0.0012575237 0.0023584284 -0.022062182 0.0060928287 -0.0049471194 -0.007974811 -0.0054693567 -0.017634697 -0.057510756 -0.0030031453 -0.0044375467 -0.0023012783 -1.7340917e-05 0.00468327 0.0011749266 0.0022326084 -0.00047809372 0.004332271 -0.013714045 -0.004034308 -0.01335424 0.010679169 -0.0006848889 0.0010949606 0.02178145 0.028209819 0.0044972356 -0.019809505 0.00055636885 -0.00012116342 0.00019643814 -0.0047153016 0.0012898188 0.002762779 -0.0012714172 0.000689583 -0.023735916 0.00511176 0.0035314986 0.0036120673 0.0036810385 -0.019730855 0.009265276 0.017307764 -0.008677302 0.009213395 0.0032326053 0.00021568818 -2.4254756e-05 -0.0073728524 -0.0013040863 -0.0060930913 0.0008307759 9.4653704e-05 -0.000713913 0.0008200933 0.001711969 0.036526892 0.0012802558 -0.01733795 0.0022068496 0.0001756747 -0.0036712252 0.0019621323 -0.0041804807 0.005407617 0.0013251326 -0.0008200154 -0.00032828725 -0.00047831042 -0.0071412334 0.021484677 0.002801799 0.0061949403 1.9153462e-05 0.0005758803 0.004243087 -0.014501547 0.00036534006 2.2243854e-05 0.0014740921 0.0007618862 0.001982418 0.002320821 3.0310252e-05 0.07201929 -0.0009996773 0.0010350143 0.0043812646 -0.0032590008 0.009559224 0.014132854 0.00061199244 -0.00057490903 0.00043331628 0.0056577045 -0.0013616649 -0.0046291007 -0.0034741082 0.0018535978 0.0026795962 -0.0014764771 -0.0017937077 0.0019344717 0.017542524 -0.00095104263 -0.0014147962 -0.0075126626 -0.002491356 0.0062500155 0.00077214185 -0.0014588938 -0.002571037 -0.005635624 -0.01446267 0.0006512136 0.0009904004 -0.0073319725 -0.007115146 0.00035259206 -0.002802893 -0.006258431 0.0056831306 -0.004024606 0.0019156444 -0.014761334 -0.0011722111 0.010661728 -0.014778971 -0.0029242786 -0.00035179974 0.009955925 0.00013709861 -0.0029622628 -0.0036318537 0.012876147 0.0016956709 0.00044074614 0.0024848275 0.017884582 0.027102234 -0.0009811016 -0.0039709853 -0.00460881 -0.0030975472 0.0061996724 0.007823881 -0.009124206 0.010288018 -0.0054795863 0.010788561 -0.0042452756 0.0014833742 0.0047413744 3.9038725e-05 0.0051204073 -0.0031553279 -0.02205897 -0.0011882266 0.005584495 0.0019089506 0.0022456315 0.0061136936 0.00036003152 0.0019634296 -0.04648231 0.013234158 -0.00070678396 0.0061055254 -0.0033094885 0.009409784 -0.0038144311 0.009760331 0.00011278566 -0.0004758108 0.003095868 -0.0020301277 -0.0028535742 0.003271115 0.0017252049 -0.006297632 -0.004343652 0.013891726 0.0023131517 -0.0012358654 0.0095279785 -8.815521e-05 0.0051153987 0.0013845798 0.0024077026 -0.0055914116 0.0031519434 0.00010221809 0.015940327 0.0007787569 0.0028284553 -0.0002476276 0.004739967 0.007900017 0.04948997 -0.0019323414 -0.0041364636 0.00458329 0.003756373 0.0009134943 -0.000107287386 0.001993144 -0.0020549677 0.0035126135 -0.00032251197 -0.0014569429 0.0030455692 -0.0053028995 0.0037527506 0.0010615499 0.0030392727 -0.002205313 0.0002082211 -0.0011539054 0.002344547 -0.0026827916 0.004422338 -0.00085244636 -0.008106801 -0.0034886582 0.0054057525 0.0019492991 0.002431233 -0.0071324003 0.000504697 0.0026869352 0.0005136801 -0.016458066 -0.0071290797 -0.00024597332 0.0033115568 -0.0025931667 0.007936517 -0.013956253 -0.008603807 0.013474091 0.016073084 0.006243516 0.0007238064 -0.004180162 0.0017890222 -0.0070701963 0.011566927 -0.0039014793 -0.011398695 0.0025274043 0.006155577 -0.013397361 -0.00021129451 0.004975681 -0.009003792 0.014295796 0.00089783897 0.00055913517 -0.009255323 0.00087722624 -0.016131198 0.0003553859 -0.009152745 -0.000546685 -0.0009788945 -0.025313579 0.00026814372 -0.002349752 -0.00445545 -0.0027946709 0.002845717 0.0013752803 -0.0039132326 -0.004903357 0.0011878927 0.0048335027 -0.003259961 0.001160202 -0.0003344415 -0.0039122305 0.009926427 2.3067805e-05 -0.0054642335 0.0016583825 -0.0002598552 -0.0017047193 -0.007418039 0.0014737711 -0.0017190967 -0.0031661948 -0.001417421 0.00034312328 -0.000492646 -0.001319887 -0.0015755238 -0.0047712433 0.006982107 -0.0040276474 -0.003315736 -0.00060675305 -0.00018137292 -0.001744966 0.0073336433 -0.0062814276 -0.004799508 -0.0006653035 -0.00094862445 0.02614574 0.01351935 0.0027244627 -0.012027889 -0.0034506277 -0.0081254905 -0.00013182727 0.0012986136
0.000896847 -8.670626e-05 0.00023134555 -0.00043179578 -0.0011744839 0.00059507467 -0.00056309556 0.00070916984 -0.0010428646 -0.00077256997 -0.020516591 -0.0027506847 -0.0055883653 0.0008507607 -0.0007540917 7.787197e-05 -0.0021561135 -0.00024499075 -0.040066715 5.2803134e-05 -0.0035136105 0.0014653929 0.0017056363 3.1067342e-05 0.0007654937 -0.0001806751 -0.0024576471 -0.0006084651 -0.002315971 0.0013875844 -0.002509358 -0.0024956935 0.002597739 0.0022364145 0.0019356691 0.00041483558 -0.0005531988 -0.00010147556 -0.0013590713 0.0007085864 -0.000117957185 -0.00037321277 -0.019035352 -0.00163292 -0.00019322743 -0.0013600489 -0.0006791036 -0.008281911 -0.0016784689 0.0013877233 0.00257818 -0.00025057697 0.0009243537 -0.0008936718 0.00017530024 -0.00096996943 0.002242398 -0.00026172661 -0.0016830784 0.0003632582 0.00014714057 -0.00052434683 -0.0072149495 -0.0011974662 0.0008886869 0.0013544282 -0.000304984 -0.0026746674 -0.0013067995 -0.0007049493 -0.0048369747 -0.0013117241 -0.002294355 4.3404274e-05 0.00096133014 -0.00467049 0.017481962 -0.00027413762 0.0015244652 0.00032361504 -0.0010232963 -0.0015128681 -0.00068396865 0.0005112097 0.00025616668 -0.0065926556 -0.003806097 -0.0021263163 -0.0004864972 -0.0015753552 -0.004489255 -0.0019699866 0.00071681786 -0.002850976 -0.00036430653 0.0010468556 -0.00143776 0.0015045927 -0.0013085777 -0.003751972 0.002717861 -0.005948991 0.0016288912 -5.8556747e-05 -0.0019987226 -0.0008501117 0.0009696576 0.00051492744 0.006448937 0.00016310406 0.0007188623 -0.0016623787 -0.0043254457 0.004599449 -0.0010972555 0.0011117804 -0.0029532441 0.00018436021 -0.0028043624 -0.00013426377 -0.0014405157 0.0024590855 -0.0014133909 0.0019956047 0.00046451596 0.0018530798 0.00069846574 0.0061723464 -0.006668129 -0.0018506341 -0.0024592304 -0.000857842 -0.00103267 0.0007833123 0.00036198786 -0.00012284116 -0.0023431103 0.00049490196 -0.00056996325 4.388728e-05 0.0033170106 -4.162436e-05 0.0006101009 -0.0007826014 0.0011310176 -0.002495065 -0.00093398505 -0.0003417259 0.0003704617 -0.0012331015 -0.0038759285 -0.0050444733 0.00047355116 -0.00033346895 0.025384473 0.0012369739 -0.0024293815 0.0016192899 -0.0024905102 9.422429e-05 0.0042267893 -0.00026504637 0.0010748939 -0.000631566 -0.0005809894 0.0018488283 -0.010115119 0.0020757224 0.0040550395 -0.0048532314 0.001402327 0.0034012292 -0.0017691694 0.0022209205 0.0020642804 -0.005543736 -0.0007417852 0.001251082 0.0015724715 0.0021151644 0.0052220486 -0.00068523403 0.00028758807 0.0028868872 0.00016718618 8.733202e-05 -0.0006259276 0.0022773296 -0.0013660473 0.0007307249 0.0036145805 0.00056265015 0.00052472576 -0.00091927766 0.0014719919 0.003562471 0.0027492153 0.0020911372 0.013397216 -0.0013823783 0.0033306098 -0.00057878625 -0.0009909323 -0.0006660592 -0.0032379334 0.000194827 -0.0002699824 -0.00028038525 0.0031943931 -0.0005727414 -3.2804123e-06 0.00026450647 0.0014171689 -0.00024716603 0.010847979 0.00027862113 -1.5720807e-05 0.005877523 0.027729658 0.0013782446 0.009954318 0.0020006492 -0.00014578244 -0.00037575865 0.0012001834 0.00067453895 -0.00060571724 0.00019909555 -0.0023801622 0.001952781 -0.001374903 0.0020455527 0.0011055205 0.00094410783 -0.0024867225 0.0017354867 0.00044725946 -0.010111116 -0.0009628873 -0.0005126935 -0.0069260565 -0.0026525683 -0.0035388835 -0.0033643758 0.00015012325 0.0006755527 0.00032839883 0.006060242 -0.0018047023 0.00032120306 -0.001868217 0.0012019096 -0.0033374245 -0.004056347 0.001467299 -0.001578575 -0.0004131499 0.0005646833 0.004603028 -0.0018882541 -0.0010828644 0.0015508891 0.0018350113 0.0006780223 0.0019151068 -0.008787561 -0.00018126791 0.0006969841 -0.00024816793 0.0015851309 0.0026877914 -0.0029741973 0.00083623367 0.007498825 -0.00090043765 0.0017373913 -0.0015930007 -0.0002957718 0.0012954957 0.0007720222 0.0005835204 0.01124668 -0.0012005398 -0.0013364492 -0.0010914817 -0.0017017263 0.0014142416 0.0066701476 -0.0015119995 0.00019219222 0.003199953 -0.00095015304 -0.0022962731 0.010201746 -0.00078406656 0.0025361937 0.00018056846 9.9494864e-05 -0.0013411511 0.0023457308 -0.004678965 0.00014716633 0.0013868453 0.018300489 1.7569811e-05 0.006392371 2.345209e-05 0.0016856163 0.0037612596 0.0042116335 -0.0010947229 -0.0035508752 0.0028050847 -0.0011633874 -0.00025020464 0.00037430765 6.170297e-05 0.0008780236 0.0042001456 0.0001299955 0.00057191186 -0.00461277 0.00028711115 -0.00020696981 -0.002551496 0.00053246855 -0.00051112816 -6.955697e-05 0.0021101844 -0.0007163828 0.00068898953 -0.0004828015 0.0075102216 0.0011419874 0.0006063689 0.026191352 0.0077431984 -0.0015188374 0.010328181 0.0017028742 0.0001687905 -0.00012406791 -0.001917248 0.0017410074 -0.0046883165 -0.0048710685 -0.0008045938 -0.00018937081 0.0010551705 -0.0030231029 0.0012291763 0.0018467765 -0.001989427 -0.0027699217 -0.0014249834 -0.00032834185 0.0010461843 -0.0028371708 -0.004806395 0.00016000214 0.0007860658 -0.0071139364 0.0030609586 -0.00010785675 0.0013844027 -8.322346e-06 -0.0010893495 -0.0021747858 -2.803575e-05 0.0005817047 -0.0016254373 -0.0018537502 -0.004296158 -0.0020434684 -0.0017333357 0.0013431958 -0.0015454076 -0.0009534453 0.00058811303 -0.0027248838 0.00075797824 -0.008837112 -0.0027880466 0.00077773887 0.001357877 -0.0029656333 0.0020578743 0.0014142393 0.0014722965 0.0008141731 0.0001538498 -0.00026096485 0.0018063295 -4.1131054e-05 0.003226854 0.009320065 0.0008485711 -0.0016207005 0.001523182 -0.0014838466 -0.0021559543 -0.0012217952 0.0010103459 -0.0003396186 -0.004562005 -0.00035256424 0.00093431433 -0.00059210806 0.0016063729 -0.0012773284 0.0016377248 0.0002679716 7.311722e-05 -0.0007085245 0.0022492777 0.0014673385 0.0002903658 0.003131796 0.00094448833 -0.0012179404 -0.015967425 -0.0008038128 -0.0017188533 0.0055975574 -0.00824657 0.0016804183 -0.0009796581 -0.00121953 0.0026052594 0.00081601704 0.0024248334 -0.0001311917 -0.0010735082 0.003665384 -0.008048365 0.0011648156 -0.000443153 -0.002641924 -0.00029753768 0.0042856354 0.0022305795 0.0018721708 -0.0005302965 -0.0015827941 0.0019570342 -0.000592752 -0.00046795027 -0.0018434594 -0.008662465 -0.0007514707 -0.00046454204 -0.010930294 -0.004339314 -0.00034758187 -0.00048480718 0.003247658 0.0006860149 -0.0006506229 0.0015150843 0.01584182 0.00010718809 0.00035832427 0.000112673784 -0.0007210122 -0.00012463941 0.0006191963 0.001027237 -0.0028957897 0.00051645987 0.0001660334 -0.0009041173 -0.0020136859 -0.0045885844 -0.0016790091 -0.00032477808 0.0029983937 0.0019261296 0.0022870346 -0.00012031978 0.000352777 0.0015078767 0.0013605483 0.00079658517 0.0032224397 -0.0035230904 -0.000867752 -0.00012952718 -0.003454842 0.010238432 -0.002120872 -0.014030168 -0.00078521576 -0.0031657452 -0.0015316214 -0.0013179482 -0.0018228779 -0.008102002 0.00061900396 -0.0020101313 -0.0025522972 -0.0040527205 -0.0013559449 0.0019718127 -0.00030700653 -0.0032271692 -0.0028830785 0.001298393 -0.00037512672 -0.0014258112 -0.0010877997 0.0029981958 0.005674465
