-0.0009804365 0.0015726072 -0.00081366295 0.00084517954 0.0011481034 0.0017341382 0.0006414522 -0.0017873342 0.0023865926 0.0068988292 0.0029429048 0.0027942848 0.0043253917 -0.0006342021 0.00018385988 0.0031286478 0.0014358677 0.002426572 -0.0023392916 -0.0005556702 0.00075179595 -0.0019820197 -0.0013213205 -0.0010288436 -0.0042575 0.006017413 -0.0066750254 0.005250709 0.006165017 -9.774946e-05 0.0027181609 0.0047322344 0.0071761534 0.00050303753 0.0009422833 0.00016782904 -0.0024907596 0.00036895188 -0.016179476 0.000663743 -0.000311961 0.0009514799 -0.011859019 0.00091637875 -0.00032683212 3.5413083e-05 0.002217415 0.0022316857 9.445633e-05 0.0021187677 -0.000678925 0.002559387 0.0026368962 0.0047691595 -4.2712574e-05 0.0029807887 -0.00042383713 0.0038671982 -0.00046133721 -0.000427947 -0.0036167814 0.00026994204 -0.00019679338 -0.002809351 -0.00030415977 -0.013594255 -0.0002780407 0.0009329074 -5.0045037e-05 0.0018993893 0.0004609373 0.0002904833 0.0042214063 -0.00021719246 -0.0016391037 0.008014031 0.002099338 0.0034782118 -0.0016240336 0.0002784613 0.00044812265 -0.000726848 -0.023082988 0.00095629814 -0.00021514205 -0.0010150641 3.8156986e-06 0.0054356107 0.00028932284 -0.0007551326 -0.0007256988 -0.0006276286 0.0023074648 -0.000116930554 -0.00025342312 -0.00063098985 -0.007701795 0.0011207035 -0.009983872 -0.002420915 -0.00036514227 0.0004895598 -0.0010541449 0.0024321245 -0.0008860246 0.00022276101 0.0012406156 0.00079791475 -0.002987898 -0.0061514666 0.0014501517 -0.00030424885 -0.0005089059 4.899627e-05 -0.017152654 0.00045964227 -0.0015267439 -0.010070185 0.0015079299 0.0019515606 -0.00534171 -4.6506764e-05 -2.274457e-05 0.01774602 0.0006348653 -0.0013801996 -0.00114115 -0.001994512 0.00085480924 -0.0021304442 0.0007471483 -0.0003871406 0.0033513568 -4.6560883e-05 0.0027530794 -0.0007240919 -0.002298722 -0.0054994654 -0.00030338622 0.0035950476 0.0024654293 0.00055365375 -0.0021571228 -0.0012282771 0.0011420103 -0.0003115717 -0.0050301156 -0.0016467425 -0.0011139964 0.0019168775 0.0003033769 0.0004319217 0.0049659484 0.0018450106 -0.000699011 -0.0004655175 -0.0020944583 -0.0015896899 0.0002116915 -0.0014634734 -0.0034251474 0.002656802 -0.00033439332 -0.0021506855 0.00058789534 -0.00031120292 -0.00096908706 -0.00071292365 0.0014491369 -0.0036314996 -0.0004661872 0.0019120865 0.004972907 0.00014863904 -0.0014504405 0.00016436024 0.0021043648 0.0019428767 -0.002497824 -0.0052195746 0.00097537634 -0.00069905876 -0.00044156268 0.00036837414 0.001891546 -2.3966219e-05 0.0011147321 -0.0036645639 0.0015350136 -0.005031263 -0.003040807 0.0027629798 -0.0027645575 0.000845165 7.176873e-05 -0.009111711 0.0010478839 0.0022456518 0.004630697 -0.00043151426 0.003113907 0.0006021777 -0.0017403763 0.00063684525 -0.00069695106 0.00027721652 -0.0017207828 -0.005019387 0.0027326632 -0.002485001 0.00039646926 0.018332958 -0.00016132634 0.0043854387 0.0055252532 -0.0023119804 -0.0021470808 0.0013676381 -0.0066863163 -0.0022990084 -0.0020888327 0.0010299806 0.0026144877 -0.0035813896 0.0003955758 0.00038414248 -0.0025798387 -0.000418158 -0.0006604518 -0.0007385974 0.007926117 -0.00199246 6.606358e-05 0.00029755945 -0.00087224174 -0.0013628772 0.0048507084 0.00019109751 -0.0012654971 -0.0001673337 -0.0007580345 -1.024453e-05 0.010329196 -0.007980304 -0.0010288558 -0.0005495459 -0.00013411394 0.0031215146 0.0042768116 -0.0070517645 0.0006649522 0.0013133092 0.002797856 0.00096451776 -0.00018492469 -0.0006231283 0.0023164193 0.0010748908 -0.009523922 0.00022788646 -0.0010641147 0.0012379735 -0.00355346 0.00080810173 0.0002515437 -0.0014421439 -8.358771e-06 0.0012929224 -0.00031030132 -0.00015104038 -7.098131e-05 0.0006501749 -0.0072695236 -0.006724962 -5.2434996e-05 -0.0022868398 -0.008797137 -0.00027150396 0.0027711042 0.018092575 -0.007370953 -0.008707381 0.001325114 -0.00254314 0.0015277015 -0.011309786 0.003285342 -2.9681254e-05 -0.00035138294 0.0024224254 0.004059226 0.003951226 0.0039041105 -0.0011304235 -0.0021135833 -0.006802168 0.0016606635 -0.002123918 -0.00049189164 -2.9685195e-06 -0.0047929874 0.003905573 -0.0063699796 -0.0001728794 -0.0022835692 7.145809e-05 0.00060004235 -0.0024694894 0.00018443735 0.002724966 -0.00066672347 0.0016998674 -0.00040903714 0.0027053638 0.00042933814 0.010454451 -0.00076835643 -0.0019277184 0.0041151643 0.00087529584 0.0017717474 -0.0018673302 0.0004980972 -0.0007673966 0.0018049964 -0.0012252879 -0.0014829382 0.0033237108 0.0011961306 -0.0030922387 0.00040947975 -0.00091327034 -0.0028715718 -0.00036520613 -0.0017573424 0.014658906 2.872753e-05 -0.00021495587 0.0016875037 0.00051144225 -0.0070597874 -0.0019579905 -0.011014473 -0.0017816442 0.0051578446 0.0007599652 0.0007898067 -0.0008814241 0.0005611595 0.00667382 0.000596232 0.00075345323 0.0034438942 -0.00038431853 -0.00010640742 0.0018532777 0.0004702004 -0.0005969291 -0.0046649114 -0.0043299138 -0.0015523972 0.0009237826 -0.0001834485 -0.0015671565 -4.3778156e-05 -0.00028586847 -0.0028058465 0.0015291736 -0.0010460214 0.0006862418 0.004375961 0.000790137 0.0006600726 0.0015544494 0.0020260864 1.0679802e-07 -0.0008480088 0.0002716674 -0.0017298049 -0.0110571105 0.00013294691 0.0001289448 0.00085404515 0.012585158 0.0025174697 0.0010891483 0.00059478456 0.0043791244 0.0014561452 0.0018176984 0.0009226336 -0.00069085555 0.00018932838 0.0008261729 -0.0013119593 0.00028610264 0.00092593307 -0.0010771209 -0.0011328562 0.0014232898 -0.00041145633 0.0043129604 -0.0052440637 -0.004097053 -0.006495491 -0.00064647314 0.00049725064 -0.001573201 -0.0040813023 -0.0060035456 0.0019178843 -7.213386e-05 -0.0003416324 -0.00063288264 -0.0012948887 0.0016671143 -0.0013599987 0.004908323 -0.008048508 0.00089393876 -0.0003510787 0.0028417138 0.0010832 0.0022591567 0.0007114052 -0.0006654243 -0.00017645443 -0.014389336 -0.0011422693 0.0024447856 4.8564318e-05 -0.0009773365 0.0013043773 -0.00072676106 0.001411639 0.027446477 -0.0035150647 0.004044116 0.0008120657 -0.0003700831 0.001323423 -0.0025809028 -0.00096389034 -0.00042590022 0.0021631625 -0.0039845775 -0.0028194822 -0.004413576 -7.872284e-05 0.0012175195 0.0027145322 0.0013949174 0.005984979 0.0201408 0.0001339059 -0.000727953 -0.0028152836 0.0032875177 0.002627949 -0.0007508079 0.00037304204 -0.0043632924 0.0027630515 -0.000699689 0.008329576 -0.0017868708 -0.0014250304 0.0044796322 -0.00076443725 -0.0002786618 0.0018606345 -0.0020076854 -0.00012550116 -0.00012606697 3.6118894e-05 0.0033447612 -0.0023300122 0.0008662146 0.008068072 -0.0049586426 0.0018140002 -0.0019704255 0.001902751 -0.0003050327 0.00011746508 0.0021537 0.0002028011 0.00014614756 -0.0012411026 -0.0012386922 0.00070040533 -0.0014035283 -0.0008481023 0.00076939934 -0.0008212669 0.0031243102 0.00061569776 -0.0011799393 0.0019765059 -0.0013770489 -0.0010475765 0.002387823 -0.0015531917 -0.0020926697 -0.00042547172 0.0011939208 -0.004735975 -0.0013229533 0.0013378633 -0.0006605024 -0.0004903071 -0.0023433624
0.0021949473 -0.0034197979 -0.0009081161 -0.00359366 0.0013493618 -0.005598152 0.0067145857 0.0010547197 -0.0036065474 0.027205544 -0.007239439 -0.004784214 -0.005107408 -0.002240263 -0.000102748614 0.0022403656 -0.00077856146 -0.0029081784 -0.002193901 -0.0019908946 -0.0012690196 0.0075150323 0.00077352405 0.0036379085 0.00051439134 -0.003911871 -0.020133987 -0.0072476785 0.0038585532 0.0018191182 -0.00061302737 -0.00943142 0.00081919867 0.00235399 -0.0009361699 -0.006897415 -0.00092562096 0.017380632 0.0003493384 0.0042439676 0.00073400274 -0.00073534535 -0.009765948 -0.010253681 -0.0008896408 -0.023985507 0.0007225838 3.6735957e-05 -0.0041925116 -0.00453836 -0.003156014 0.008353309 0.006351764 -0.0054443157 -0.0023667964 -0.008983102 8.2260885e-05 -0.0017030525 -0.0020862538 0.002222305 0.0023578475 0.0020706889 0.00049210835 -0.0037518973 0.0035650241 -0.010416559 -0.0042239996 0.002785479 -0.016631575 0.00015857298 0.0010712896 -0.0002593729 -0.009785397 -0.0006201256 0.00095024053 -0.017172266 0.0075433254 0.0025989998 -0.016330022 -0.0018647433 -1.921305e-05 -0.00034167102 0.011554857 0.0035549006 -0.0012556808 -0.002895205 0.0014780858 -0.008180818 -0.0009919981 -0.018296653 -0.00016982916 0.002586295 -0.00018580654 0.0014230399 0.002436908 0.0033172194 0.0033501517 0.0007211051 -0.0010559635 -0.007082097 -0.0048910477 0.0014952519 -0.0005290906 -0.0012845836 -0.00039658582 0.012021766 -0.0027352658 -0.0009971714 0.0049756956 -0.0017431873 0.001983285 -0.0039783083 -0.0013493523 -0.003472571 0.0040916568 0.0022007022 -0.006351733 -0.004568866 0.002419837 -0.00081970735 0.0010058836 -0.0013888163 0.0010713085 0.00033196283 -0.00095469685 0.0037090662 0.007598576 -0.004866772 0.0014788129 0.0035565859 -0.0016288979 0.0046381257 -0.007763968 -0.0020740004 -0.014050883 -0.008565814 -0.001592204 -0.0013582137 0.004979359 -0.010572631 0.0017484563 0.0054141423 0.0006957899 0.002137026 -0.007740404 9.434069e-05 -0.0025481568 -0.00022213877 -0.006423588 -0.0012323024 -0.0030352415 -0.0008832391 0.012659292 0.0007547434 0.0026123296 -0.0015964501 -0.0032452745 0.00010250346 -0.0018715215 0.011469114 -0.012638227 -0.0023029498 -0.0014797124 0.0039511896 -0.011250994 -0.0010228646 -0.0021555538 0.0039744107 0.004021432 0.00033356578 0.00023295745 0.0012937521 -0.00086246553 0.00012972423 -0.0018461563 -0.017155241 -0.0025919992 0.013629447 0.00061763794 -0.0024187553 0.00021486978 -0.002189695 -0.0021478324 0.000706382 -0.0073212795 0.0025368962 0.0020841586 0.0057361727 -0.025710719 0.0049122446 0.00938777 -0.001238228 0.00063527137 -0.0016162653 -0.0027498435 0.003251066 0.0004252854 0.002559004 0.0021929538 0.0014754105 -0.004202432 -0.004466841 -0.0058994754 -0.0013105267 0.0007870073 0.002795481 -0.001531045 0.010184321 0.0013076235 -0.0029701046 -0.0025274346 0.0008549953 -0.0065886276 -0.0009720989 0.0033801883 -0.0012168268 -0.0028783854 -0.00963654 0.011307616 0.00020517744 -0.002275202 0.0009781221 -0.020088548 -0.0031148223 0.001214213 -0.02068889 0.014775161 -0.0007497578 0.0014779973 0.004823936 -0.0047463914 -0.004377829 0.00014563749 0.00066684914 0.0014995313 0.0024900972 0.006661904 -0.00072509015 0.00029497282 -0.011761909 -0.010366097 2.6302618e-05 -0.010845579 -0.008462341 0.00084728264 -0.0024161625 0.0018824346 -1.4708813e-05 -0.009321338 -0.003286454 -0.00067733147 -0.0054566544 0.00021920397 0.00029467087 -0.0019041615 -0.0023394595 0.0071967323 -0.0030808512 -0.001216686 -0.0005384888 0.0015148703 0.00062147086 -7.919746e-05 0.0025176154 -0.0043390244 0.00071865466 0.00088582607 0.0016885591 0.0013659544 0.038687848 0.00067853666 -0.002120323 0.0029889976 -7.113485e-05 0.00096480944 -0.0010166728 -0.0016359682 0.0009792085 0.0074134525 -0.0062677623 -0.022314532 -0.0049574864 -0.011066997 -0.0121497195 -0.0030471198 0.00020563313 0.0022972862 -0.002401329 -0.0012664538 -0.0032425828 -0.004746512 0.015411802 0.0056266556 0.0010199681 0.0027767457 -0.0047490136 -0.007319822 -0.0026541234 -0.0051353243 -0.0015538018 -0.0030688595 0.0039650686 -0.004357241 -0.00052179204 -0.004512342 -0.0022479263 -0.0008079541 -0.003444528 0.006310617 -0.0022733607 -0.006639269 -0.0019689156 -0.00092224457 -0.00025279683 -0.0046831383 0.0019491574 -0.0014643901 0.0024339047 0.0004788726 0.0039116894 -0.0004979133 -0.0020910844 -0.0011802552 0.0033172627 -0.011706405 -4.9627375e-05 0.0025117535 0.0007017319 -0.0033683782 -0.001151269 -0.0012712224 -0.002607042 -0.00042670715 0.0011742599 -0.0024487542 -0.0049409918 0.00037216 -0.003841268 0.009767866 0.002565113 0.0041269525 -0.005382682 0.002101418 -0.003956394 -0.013252251 0.014939952 -4.7216505e-05 0.00067676743 0.012381253 -0.004798477 0.0020870613 -0.0024835938 0.00432216 -0.00074090663 -0.016385311 0.003077574 0.0023131364 0.005743109 -0.0020100374 0.0023388395 -0.0029517529 -0.0038967154 -0.009293059 0.008205259 -0.002313407 0.0023987642 -0.0013347554 0.00017368219 0.006865088 -0.003772001 0.005113567 0.011368386 -0.00079856685 -0.0010698256 -0.00014610394 -0.0015903768 -0.0011007342 0.0026208411 0.0013233569 -0.003258101 0.00070063537 -0.00079525757 0.00032564573 0.0010785968 0.0019792677 -0.00032239506 0.003184119 0.0034665635 5.77934e-05 -0.006018313 0.0007297165 -0.005323483 -0.0017253691 0.000619079 -0.007171022 -0.0011873855 0.0025860472 0.0056771343 0.016998766 -0.0035307163 0.005018837 -2.2499025e-05 0.010533362 -0.0069916765 0.029286396 0.0016294892 0.0040417677 -0.0027835343 -0.00015480144 0.010939328 -0.004658143 -0.0046110703 -0.0026762986 0.0035901743 0.0038096295 0.008291545 -0.0025897953 -0.010065795 0.005434462 0.008608665 -0.012788748 0.025810637 -8.836489e-05 -0.0014145444 0.0020243756 -0.0054412605 0.0016375183 -0.0014211247 -0.002352122 -0.003511252 0.004545702 0.017426603 -0.0056513255 0.0003059113 0.004014873 -0.015630959 -0.0023569125 -0.013089086 0.010983767 -0.0019630843 0.0005237234 0.001537146 0.00057870796 -0.00019258432 -0.0013635161 0.0032936248 -0.0049744877 0.007286059 0.00030970684 3.823086e-05 -0.0009999829 0.006716984 0.032223396 0.0060797166 -0.0034570277 -0.0008941131 0.0003375314 -0.03214262 0.0069123404 0.00045061414 0.0027584438 0.008496845 0.0009530808 -0.0023032464 -0.004069242 0.0023066003 0.00075622764 -0.0074786954 5.092358e-05 0.0027178887 -0.00089031237 -0.03524432 -0.005607412 0.001362478 0.00031826884 -0.007813182 0.00050153467 0.0014361243 0.008735545 0.0018130532 -0.0008398216 -0.00045464898 -5.730645e-05 -0.0042533986 -0.0008603014 0.0011488575 -0.0009954739 -0.0017812059 0.014893391 -0.0024611116 -0.0009841743 0.0016675215 -0.0011677105 -0.0024767763 -0.0035499316 -0.00035236648 0.026980119 0.0031931363 0.00090392516 -7.814529e-05 -0.00015364087 -0.000192202 -0.0068802717 -0.001065501 -0.00142223 -5.318786e-05 -0.001683106 0.002770869 0.0037256149 -0.00060872507 0.00056111114 -0.002142918
0.0038838969 0.0022453216 0.0015447541 -0.020451155 -0.0016439337 0.006444962 0.0016790618 0.0012182768 -0.004683038 -0.0055063646 0.0021421215 -0.007146399 -0.011943522 -0.0012212615 -0.0010186345 0.007877053 -0.003350273 0.00018457707 -1.655408e-05 -0.012794521 0.0016422321 0.0020981175 -7.833884e-05 0.01573155 -0.0039750584 -0.002459423 0.01525595 -0.005911571 0.00532199 0.002285221 -0.0024295512 0.033155944 -0.00035023314 -0.002576074 0.004003077 0.002509691 0.00090300303 -0.0076647676 0.013269865 0.0019630787 0.0004973683 -0.0032406533 0.0013764037 0.0016967353 -0.0010685801 0.0014128026 -0.0017346563 0.00853978 0.00051645737 -0.005401987 -0.004552301 -0.0029249373 0.0030088378 0.0056500975 -0.002028821 -0.0045999577 -0.0006666827 -0.042564314 0.0010351279 -0.013455261 0.0068267086 -0.0045754523 0.0015404895 0.01273268 -0.00037722688 -0.05313459 0.0017525146 0.0027437427 0.0047561917 -0.0031397901 0.0034620545 -0.001211388 -0.006725756 0.0014107964 0.0039692046 -0.018220246 -0.002084077 -0.010521566 -0.0020200235 0.000721917 0.0021467728 -0.00018304444 0.028232543 -0.004164524 0.0020270273 0.0007054146 0.010268607 -0.007181292 0.00064858794 0.0023450858 0.0031777173 0.0048052263 3.3295248e-05 0.0014523934 0.0018720167 -0.0016101835 -0.008444499 -0.010784986 0.00028521635 0.014790746 0.003320737 0.003991106 -0.00096691534 -0.0022435838 0.0010053847 -0.009104889 -0.0007685096 -2.9200475e-05 -0.0044986834 -0.0091122 0.0007893838 0.0026380247 0.001604924 -0.00086899963 -0.0017904113 -0.00012603082 0.01921005 -0.0079653 -0.002381238 -0.014593365 -0.005588875 -0.001227165 -0.0008435238 0.0047755297 0.001706908 -0.002040632 -0.0042096185 0.009556534 -0.001004376 0.0038507066 -0.0042208196 -0.0031829404 -0.014623292 -0.0009285073 -0.0026653474 -0.000846463 -0.0017827288 -0.012662148 -0.014799306 -0.0060138875 0.0009212451 0.0032906176 -0.0028094223 -0.00209447 0.002840162 0.005050798 0.004395881 0.0034426255 0.010578866 -0.0051550507 0.0009158753 0.00044576847 -0.0016243024 0.000590605 0.00044361263 -0.0022853178 0.014163504 0.015543675 -0.0035725234 -0.0015722127 -0.015782489 -0.0052774195 0.00036494943 0.0005378019 -0.0030938915 0.003115538 -0.001966867 0.0015478556 -0.001227229 0.014371141 -0.0019861993 0.018313836 0.0007237768 -0.0013106181 -0.0011468043 0.008971843 0.0013824927 0.016505394 -0.001108491 -0.0022321586 0.0020745758 -0.012688868 -0.0033019972 -0.0020752389 0.0068677417 -0.00024480486 0.0024809982 0.00051102845 0.0048581115 -0.0042834915 0.002119388 -0.006382273 -0.005245956 -0.0027090034 0.007891677 0.0041350983 0.015077612 -0.002155619 -0.006090625 0.00047445015 -0.002188623 -0.0015527682 0.005104023 0.00046295312 -0.00020135481 0.0064821187 -0.0018132948 -0.003240792 -0.00024234693 0.0034452514 0.0036584781 0.0029136103 3.8416823e-05 0.0040138974 -0.0201341 0.0041274056 -0.0014494439 0.010285241 0.02822731 0.0012550533 0.0022101507 0.0016303352 0.0024885305 0.0014714781 -0.006226865 0.008438687 0.0042141257 -0.0017442454 0.0013409827 0.0018779925 -0.0072946087 0.0054754685 0.0025260411 0.004820132 -0.00067608064 -0.0020157106 0.00092357397 0.0016909818 -0.002013939 -0.0058990717 0.0011780463 0.0011359656 -0.00063330634 -0.012416726 0.0021749716 2.5666553e-05 0.0013219889 -0.00023946434 0.0050771083 0.0064610154 0.001743846 -0.0026364203 -0.0010419574 -0.0012812583 0.0022617707 0.0009265026 0.008106593 0.0024691694 0.017754097 -0.00065516995 -0.0027437618 -0.0006303253 -0.01253723 -0.0036744643 -0.0061479 -0.0020068511 0.0029307802 0.00055251364 0.0062613045 -0.030927848 0.0027927614 0.011765204 -0.0023635095 -0.012972974 0.00049347983 0.002927128 -0.0040380643 -0.0006750965 -0.0034246936 0.007363183 0.00088106125 -0.008037831 -0.0061913617 -0.00016536501 3.302504e-05 0.0025432606 0.004375371 0.0029055637 0.002269656 -0.0021452254 0.004015877 -0.006805148 0.015487792 0.003584229 -0.0011805982 0.009748765 0.0005287828 0.0017622019 -0.0076154647 0.0014571807 0.0037473699 0.012151856 0.003645476 -0.0022875478 -0.012606013 -0.00085049437 0.000516167 -0.001408944 0.007288786 -0.0028084063 0.0020783248 0.0011216811 0.0039118007 0.0011433475 -0.0010938459 0.005816534 -0.0018156236 0.0013626411 -0.0012942516 -0.0013553551 0.0022467552 0.00028594956 0.003713725 -0.00080524845 0.0009455935 0.001059154 -0.0017479956 -0.0030102537 -0.00029300805 0.0017196423 -0.0017603299 0.0063022873 0.001683481 -0.0015321998 -0.0026295707 0.00050923723 -0.0020851642 -0.0010574382 -0.0027516983 -0.0032858385 0.0039006216 -0.0010442797 0.019625215 0.0050652525 -0.0027655382 0.0017807975 0.00048373637 7.373584e-05 0.00016611522 -0.011015606 0.002063531 0.00043323173 -0.0040190457 -0.00085509935 -0.0033297208 0.00068268256 0.004004747 -0.007230131 0.0014598526 0.012647637 0.002771131 0.0014278751 0.0075826664 0.0024673855 -0.002347484 0.0040579326 -0.00017710301 0.0005663156 0.0013122857 -0.0008501086 0.009777995 -0.00044325506 0.0017712241 -0.00087904773 0.00024213591 0.000874151 -1.0088914e-05 0.0011998418 0.0029595848 -0.0009414162 0.0034899255 0.0011978729 0.0033715856 0.011931531 -0.0057938453 -0.013812388 -0.0012903555 -0.009925401 0.00072633656 -0.0018324136 -0.0024634846 0.0018482312 0.0014396065 0.0016700233 -0.010169875 -0.00054984377 0.0018735696 -0.014274557 0.0011772966 0.0018782706 0.0023554044 0.0008047571 0.0010475342 0.0022793924 0.031125937 -0.0029444334 0.002999763 -0.0017856492 -0.0009559803 -0.013116072 0.0008885905 -0.0013030135 -0.0059474166 0.0024627096 -0.013433082 -0.0073534176 0.0019456601 0.0004653586 0.0049094805 -0.005655849 -0.006252182 0.0019861667 0.0066137626 -0.0059360797 -0.0013783018 0.011430164 -0.0013057076 0.0099627385 0.0040773633 0.0005601544 0.0009957097 0.00036624857 -0.00033050257 0.0044248784 0.0012616116 -0.008203104 0.005264455 -0.0125156585 -0.028899482 0.009450005 0.0030051859 -0.00013856053 0.000782501 0.0016610023 -0.00333187 0.00029992338 0.01451593 -0.0039859773 -0.00031383426 0.002964023 0.0007009169 0.0142448945 -0.0021620481 -0.006590968 -0.0040072706 0.0021373066 -0.004062875 0.0022331248 0.021981351 -0.0014130049 -0.00027562332 0.010437521 0.00021976767 -0.00021853915 0.0027954131 0.0010489719 -0.002327722 0.010866933 -0.0015212157 0.0015297638 -0.0028843202 -0.0133121675 -0.0003333721 0.0011770335 -0.0011600348 -0.009002421 0.0021904616 -0.0005914622 -0.006318191 0.0031767092 -0.0078065116 -0.0016868794 -0.0023859811 0.00045916057 0.00076536596 0.0013695899 -0.0014399244 0.0031015424 0.0018193735 -0.0010602758 0.00029116502 0.0007350519 0.0012410916 0.0010674536 -0.003592981 0.011078164 -0.0045034126 0.00040410436 0.0016432293 -0.008226984 -0.003488443 -0.0020081557 -0.0018540308 -0.00011282451 0.0026184022 0.0006393583 0.0049550994 0.0024775616 -0.0027147967 -0.0019706236 0.012689405 0.0012328496
0.0004049765 -0.0007880443 0.003293072 0.045572605 -0.002095989 -0.0014356985 -0.004423246 -0.00052971364 -0.007268811 0.03258968 -0.0018424158 0.014892257 -0.0013078151 2.0192327e-05 -0.00426335 -0.00017412672 -0.0049184994 -0.0010137067 -0.0021627825 0.012953317 -0.0007126977 -0.0005241375 -0.00095050485 -0.008351754 0.0006201174 -0.0055533266 -0.0067189597 -0.0031989615 0.00062503194 0.0032088181 0.00087436964 0.018225959 -0.001869536 -0.0016080231 0.0019003762 -0.0014224525 -0.0009706186 -0.0014050127 -0.0108923195 0.0002465525 0.002866209 0.0040549044 0.0070767147 0.0038478686 -0.0013157236 -0.0051452243 -0.0021357764 -0.0010774747 -0.00082356395 -0.0017468834 -0.00040216403 0.00364531 -0.0030238207 0.0014011323 -0.0008729634 0.004024383 0.00020803144 0.023007037 0.003006627 0.0044718604 -0.0017790718 0.004022866 -0.00020602198 -0.003522158 -0.001133211 0.031544782 0.0006567219 0.00073766016 -0.0074341847 -0.0027186377 -0.0011100053 0.00015839559 0.0046826834 -0.0024996563 0.0023959351 -0.003796632 0.007761421 0.005172783 -0.0006781372 0.0004897804 0.00019554146 -3.7748294e-05 -0.002802786 -0.004159615 -0.0008985736 0.002802017 0.0053820666 0.0011210992 -0.0026302948 -0.001847151 -0.0013465647 -0.0010079704 -8.426439e-05 -0.0009559961 -0.0021894265 0.0007834776 -0.005868661 0.00038654037 -0.00031544903 0.025080942 -0.00010973552 -0.0014735926 0.0018118775 -0.0011119583 -0.00043934584 -0.011140096 0.0019320229 0.00018042921 -0.014683127 0.0011693757 0.00064031914 -0.00037415564 -0.00029432608 6.9594906e-05 -0.00016619873 0.0011995317 0.001662626 -0.0022551552 -0.0013120429 0.0002372194 0.0040491046 -0.0010682895 0.00047419383 -0.0014187155 -0.0056970012 -0.0001232784 -0.011359266 -0.010010392 0.0018158323 -0.003230193 0.0007103555 0.0023848217 -0.0012025385 0.001445157 -0.0026380953 0.0021640793 0.0008589748 0.00095604255 0.0050283377 -0.004010567 0.0006269726 -0.00047839512 -0.0005794498 -0.0022230174 0.0021424543 0.000110963294 -0.006230605 0.0030404865 -0.009989202 -0.0008788958 -0.0007515774 0.0009372183 -0.0028533486 0.0012836038 0.0019740802 0.0015447546 0.0023632 -0.00665413 0.016900532 -0.0052793957 0.014147463 -0.00034450795 -0.0007481683 0.0039696065 0.010264386 0.0014157103 -0.0018226197 0.0022520164 -0.0019201427 0.063299246 0.00053709204 -0.0008581804 0.0045631076 -0.00044093243 -0.0017832704 -0.0019823513 0.0011446757 -0.014245439 0.00021171961 0.0018550174 -0.0013315816 0.008779323 0.004072633 -0.0069682566 0.0100179985 -0.0012708126 -0.0012704701 -0.0026006424 -0.00080361264 -0.04139016 -0.000120425626 0.0080486955 0.0040196944 0.0019619274 0.0015453176 0.0049048737 0.0014263376 0.0006887628 0.013107523 0.0030609241 0.0004036416 -0.00092584407 0.045428026 -0.00060444867 0.0018325597 0.0018219913 0.0007504296 -0.0035127 0.0002052262 0.0043698247 0.0010250307 -0.0010386476 -0.0036135577 0.0014929904 -0.0036465041 -0.0013292024 0.00046384282 0.050351135 -0.010265484 0.00180187 -0.004355043 0.0017060576 0.008365449 0.010425011 0.0014286732 -0.0017960271 -0.0019687328 0.0012266808 0.00046173122 -0.00038302896 -0.005672275 0.012765727 -0.0010832981 -0.002370556 -0.0005066086 0.002553276 0.0028409197 -0.0016503026 -0.00068470696 0.025399351 -0.070205644 0.00031784957 -0.0045076986 -0.0044464013 0.0031677545 9.8489756e-05 0.0050214836 -0.00060410565 0.0007066291 -0.00090337207 0.0006247626 0.00025531143 -0.00015200299 0.00083640416 0.0010663144 0.00074749504 -0.0050449385 -0.00085296045 0.001674568 -0.00040333404 -0.0006169432 -0.0018543049 0.0010592607 0.0004191895 -0.006257753 0.000102615915 0.002157241 -0.0011050581 0.008662193 0.0898915 -0.0018791077 0.002103123 0.00957947 -0.00044211512 -0.00481706 0.0023349475 -0.0010369623 0.0023758986 -0.0030057377 -0.0011009065 0.004330134 -0.004826455 0.006493886 0.00513212 -0.00074332603 -0.0013642465 0.0014406005 -1.1504582e-05 0.0031838703 0.00096315506 0.0013192166 0.00013476097 -0.0010359745 0.0003367364 -0.0009449009 0.004432007 -0.0012245696 -0.0002845763 -0.00041580413 0.00012405188 -0.004065073 0.00073158706 -0.003106803 0.0012727374 0.006295994 -0.00036569292 0.0028975976 -0.0023956064 0.007630415 -0.00028149827 -0.00044467044 -0.0005411647 0.00013975719 -0.0003443374 0.00913579 -0.0014298495 -0.0015488967 -0.0031590643 0.0023483655 -0.0013008881 -0.00019648016 0.0026996185 -0.0014054099 0.0031804058 -0.00039705908 0.0019218508 -0.00053200946 0.000105357925 0.0017150348 -0.0036967576 0.00054945477 0.0028590285 0.0040043457 0.00019835158 -0.0013452155 -0.0028675443 -0.002010192 7.22365e-05 0.0022988603 -0.0034116586 0.011654994 0.0028037613 -0.00087176275 -0.0027739229 0.016817162 0.0026478972 -0.00093240547 -0.00019604467 0.0031837523 0.00042179888 0.004658183 0.0003523302 -0.0028015003 0.00012020439 0.0043282635 -0.0009640851 -0.0017506 0.026212377 -0.0011254908 0.0018775561 0.000120672325 0.0003828041 -0.0031298487 0.00019601332 -0.0024944618 0.0021077588 0.003834542 0.00040873812 0.0018578814 0.0002498179 0.0033338484 -0.0008334717 -0.00013436962 -0.0030108797 -0.003275182 -0.008587759 0.0013334369 0.00033825642 -0.00017863046 0.0014753543 -0.0013257118 -0.0022864405 0.001340174 0.0004750658 0.0007832594 -0.0031802205 9.184357e-05 -0.0046949354 0.00054676627 -0.0041148337 -0.00584862 -0.0019091679 0.0031187572 0.00047859421 -0.023429178 0.0013059602 -0.0016442098 -0.019876646 -0.006410483 0.00691097 -9.760214e-05 -0.0011975054 -0.0025261957 0.017515156 0.0022267543 -0.000104381754 0.0027080374 -0.00503746 0.0032168955 0.001060028 -0.0010604033 -0.0009993543 0.004742694 0.0011261016 -0.0017772617 0.013743003 0.0012786546 0.020486861 -0.0021028905 -0.0021252783 0.0012136437 0.0007341038 -0.0025567247 0.00012470962 -0.00056094164 0.006096645 8.878154e-05 2.5214116e-05 -0.0004069766 -0.0031071845 -0.0015376597 -0.00031516567 0.0037621036 -0.0048876335 0.006765368 0.0052203117 -0.00014970993 0.00089930644 -0.011868735 0.005851158 0.00040222766 -0.013908178 -0.00084223907 -0.0024015799 0.0022383402 0.0037033148 -0.00044958206 0.0006833837 -0.00031521992 -0.0022967611 -1.8342535e-05 -0.00026808277 -0.0061836913 -0.0020026073 0.0021718931 0.0016811229 -0.0028800545 0.035419628 0.0031546773 -0.00016452889 0.0008890017 0.007193062 -0.0018258085 0.00038876227 0.0041701035 0.0014609732 0.0014802773 -0.010206795 -0.000347069 0.000733258 -0.0006415012 0.014578813 -0.0019115745 0.0015670832 -0.0028798922 -0.0064313016 0.0051803933 -0.0032451875 -0.002089109 0.011062372 -0.0007074486 0.0023395417 -0.0043205437 0.0019115645 -0.00074371306 -0.0014971808 -0.0010084223 -0.0027879898 0.0022995283 -0.0014059314 -0.0022633132 0.00059227715 0.017033504 -0.0034574578 -0.001080147 -0.048791233 -0.015681095 -0.0014037255 0.0019525646 -0.0015962882 0.001980755 -0.001061279 -0.010609069 0.00095604855 0.0005725398 -0.00046653615 0.004912686 0.0013761602 -0.0040884092 0.00045696652 0.0048665786 -0.0017611203
3.647009e-05 -0.0007179661 0.00043663871 -0.0048592053 -0.00040933595 0.0033437985 -0.0013705435 0.0005902592 -0.0004713169 -0.017023614 -0.0029677975 0.014328579 0.0058867903 -0.001543602 -0.0004498349 0.003462172 -0.002721523 -0.004179792 -0.00069785636 -0.011209012 0.0016694154 0.00025117953 -0.0020842887 0.005315416 -0.0043707355 -0.00920211 -0.004798227 0.013985223 -0.0049014436 -0.00030459568 -0.002350741 0.02797757 -0.0011106583 0.0040568365 0.0027491273 0.0035147795 0.001983241 0.0040757935 -0.0034978013 -0.001057824 0.0044201077 -0.005824542 0.002695886 -0.00259385 0.00014340313 0.0052686003 -0.0014895864 0.008334953 0.0010934897 -0.0015720202 -0.002619651 -0.0011387226 0.0010450953 -0.001533867 0.0025065679 -0.0018465575 -0.003948669 -0.033772085 -0.0005789904 0.006199758 0.0069749556 -0.0019439005 0.0011461054 6.965031e-06 -0.004195938 0.013169958 0.0020798885 0.0017018768 0.004370146 0.00036033307 3.4481134e-05 -0.00036533628 0.004333534 0.00068579306 0.0010538783 -0.0072610136 0.0017300198 -0.00523028 0.0013899908 -0.00036411665 -0.0005208131 0.0021754906 -0.0054525905 0.0022277734 0.00336766 0.0010074998 0.0016534226 0.009727541 0.0002187667 0.000228057 -0.0013714085 0.0034551849 -0.00074348174 0.0011220318 -0.00022808349 -6.401818e-05 0.02311241 0.007484106 -0.00088129414 -0.014863246 -0.000346734 0.0011073207 0.0014477744 0.0004649794 -0.0014899848 0.002974551 0.00027500934 -0.0013830325 0.003859892 0.0035108642 0.0020569772 0.0014774515 0.0010554874 0.00031643768 -0.00067022647 0.0066543263 -0.008692599 -0.0014163161 0.0023371822 8.934332e-05 0.00012227584 0.0001390351 -0.00073666155 -0.002865944 -0.0013107419 -0.001043976 0.010628939 0.004088439 -0.0029676363 -0.006066854 0.000635214 0.0013122457 0.0075309062 0.00017756072 0.0013912106 -0.000644684 0.0021377525 -0.003396186 0.002958877 0.006785143 -0.012564478 0.0020053615 0.0029259494 0.0004883619 -0.0017308672 0.0009911917 -0.020577453 -4.431716e-05 -0.0009468242 0.00078711426 0.0022993512 -0.0030226011 0.0005652435 -0.00056551857 -0.004877983 0.00089881796 -0.0061265337 -0.0045809285 -0.00028370938 -8.185593e-05 0.001701447 0.00065584935 0.0017941826 -0.014670122 0.0016266176 0.0007011108 -0.000910909 0.0009379008 -0.000890557 0.003021228 -0.00025389018 0.0011074219 0.00079484994 -0.00062920136 0.0009716045 0.0049463883 -0.0021154508 0.01090707 0.0023155706 -0.0033501596 -0.0010247901 -0.0048043905 0.00079960993 0.0059241178 -0.009251452 0.0030404762 -0.002029098 -0.0021748403 -0.002649178 -0.051495716 -0.0075942585 -0.002703977 -0.0060459273 -0.001675346 -0.0058663446 0.0017863167 -0.0051605157 -0.004134669 -0.019502247 -0.0005759954 -0.0013547281 0.000823041 0.011481279 -0.0012406252 -0.0020047885 -0.0025112014 -0.0012992499 -0.0056281174 -0.0019151722 0.003519889 0.00081528287 -0.0029235396 0.0011417569 0.0028972432 0.005633505 -0.0020094872 0.0035754018 -0.040235262 0.037913766 -0.0023298932 0.00023478254 0.00058883254 -0.0028976225 -0.0019818316 0.001147995 0.0018858928 0.0044091097 -0.0025998922 -0.003429034 -0.00090470427 0.007722107 0.017735193 6.1506995e-05 0.0027898639 0.0019368362 0.00011152159 -0.001084635 0.0013817457 -0.0032980212 -0.0043894183 -0.0060426914 0.00028707107 -0.00666998 0.00030417828 0.0005848792 -0.0016834852 -0.0007385111 -0.0012021359 -0.005810726 -0.0016270286 0.0032750624 -0.0010468571 -0.0011170356 -0.0021035192 0.0009066581 0.001183604 0.00050122966 -0.0029184218 -0.00911885 -0.00061593164 -0.00235953 0.000496025 0.0056537637 -0.0007520618 -0.0009803569 -0.0011888446 -0.00082933804 0.002027214 -0.004638448 -0.040952064 0.0038280257 -0.0023397156 -0.0015784123 0.00086314627 0.00011393058 0.0001270101 0.0012040372 0.0007687351 -0.00011633397 0.0029613634 0.0040167156 0.0009233766 -0.00012954551 0.00085849443 0.0028373078 0.00010548974 -0.01254452 -0.0025841966 -0.00083077897 0.0022974738 0.002021108 -0.0031253812 0.0033791822 -0.0031762149 -0.00083520426 0.0034392443 -7.928279e-05 0.0012256876 -0.0010429422 -0.0006371536 -0.009293261 -0.0053703184 0.00061673886 0.0034600745 -0.0026741552 -0.0011419095 -0.0001273146 -0.0007694982 -0.0009934424 -0.002016481 0.009405771 -0.0016938505 -0.0008154874 -0.0011613971 -0.013330238 -0.002220744 0.0032929801 0.0013486999 0.0012514251 -0.00051798293 -0.0021923392 0.0034414202 0.0011451968 -0.0011873654 -0.0027101857 0.0007119192 0.0023550713 -0.00033632058 -0.0007557263 0.0018419068 0.0019064945 0.0023156304 -0.002124345 0.0020901596 -0.0020794643 0.0010922003 -0.0008686507 -0.0016308363 0.0031807933 -0.002724213 0.0001637914 -7.8271405e-05 -0.012177619 0.009591811 -0.005502249 -0.0040256404 0.0012926868 0.0004986046 0.000107002954 -0.0046952595 -0.0015829162 0.0018980078 0.0032401066 -0.0012717758 -0.0012717317 0.001342495 0.001176595 -0.0040008943 0.0030954804 -0.0025567294 0.00031924725 -0.008456215 -0.0012874294 0.0045864587 0.0105677815 -0.0026800937 0.0012210337 -0.00095838326 -0.002966848 0.00010298046 0.008326544 -0.002417414 0.00071654335 -0.0018838834 -0.0013530861 0.007946991 -0.00027734725 0.0016207207 0.0016671709 0.0029894789 0.0017868618 0.0008823499 0.0009697566 -0.0049044183 -0.014048426 -0.0014321326 -0.0021009871 0.009676949 0.003553376 -0.013507075 -0.0022161948 -0.0017659885 -0.0021142645 8.5315616e-05 -0.007977984 -0.0049471497 -0.0018949028 -0.016070928 -0.0006770938 -0.012670544 -0.0012941139 -6.544796e-06 0.0033699095 -0.004676726 -0.005459835 0.00030643944 -0.0038310285 0.00023906976 0.0025457533 -0.0007931746 0.0019062224 -0.004103566 0.006948114 -0.0011362429 -0.0015044194 0.0016309434 5.8386675e-05 -0.008263382 -0.0006512752 0.012880655 -0.00094345055 0.007897067 0.0025178122 -0.0031872573 0.0013072497 -0.008425467 -0.0021072673 -0.006490208 0.0012365638 0.003522466 0.002396091 0.0019760511 0.0030503378 -0.002871384 0.04133165 0.0060327356 0.0004063863 0.0036292963 -0.006398018 0.0052880915 0.003364835 0.0011192259 -0.0004841782 0.0019440547 0.001805358 -0.026452368 0.0026771396 0.00058654265 0.0002968535 5.1880784e-06 0.0009547546 -0.007821078 0.0034692336 0.0030585078 -0.0015011772 -0.002164615 -0.0026120325 -0.008840085 -0.008650086 -0.0027149955 0.04575604 0.0010691901 -0.001366633 0.0035254024 -0.0031043806 -0.0037779505 -0.0025948472 -0.00082146825 -0.002366502 0.001323738 -0.0010731706 -0.012663989 -0.0019467112 -0.0011226819 -0.00092682906 0.0018878616 -0.0027400036 -0.0006984913 0.0028011133 0.0059233815 0.0034790002 0.0015845204 0.0009743237 0.0060274517 0.00054728397 -0.0012385135 0.0006026809 -0.0018324386 0.003816263 0.00092444534 -0.000201576 -0.0032646637 -0.0048707784 0.0010134598 0.0002549741 0.03803808 0.018099029 0.00013199821 -0.0022790518 0.002946227 -0.0028269573 -0.0014923238 0.0104923695 0.0011174629 -0.001008643 -0.0055713286 -0.0008516222 0.001205677 0.0059053 0.00043739125 0.0036582586 -0.0028161332
-0.0009272396 -0.003257754 -0.0018625738 0.0008894492 0.00088660594 0.0019534887 0.0015166095 -0.00066970073 0.0036503149 0.019603666 0.0023427063 0.0014364893 -0.0025672324 -0.00055511907 -0.0028761178 0.00090400357 -0.0012592655 -0.0014372504 -0.00031832053 0.00056032056 -0.0005869244 -0.00035150012 0.0006353422 -0.0006729906 0.0027526997 0.00093655125 -0.04172012 0.028159833 0.00412057 -0.0003348578 0.0035727697 -0.0061458265 -0.0008176908 -0.0031338444 0.0016794204 0.00076698855 -0.0019699323 -0.01389723 0.0022372738 0.0016550613 -0.0010649795 0.0023613984 0.00644113 -0.0043082284 0.0008431049 -0.0021555868 0.0017500432 0.0061207134 0.00091693905 -0.0005732288 -0.0011772596 -0.0063254545 -0.0018932043 0.00039790987 0.00024578744 -0.0011367621 0.0007043158 -0.007889722 -0.0030093174 -0.0006761205 0.0066026775 0.002766683 -0.0016156705 -0.0058977203 3.295205e-05 -0.001371684 -0.0027828258 0.0001822177 0.0028655753 0.0009346951 -0.0016618595 -0.0012664358 0.0018714062 0.00064886466 0.0028989564 -0.0043264837 -0.008034021 -0.0019170545 -0.0031864434 0.00041168125 0.00041936644 0.0022752907 0.011752327 0.0004132894 -0.0014030398 0.0012931373 -0.002105225 0.0023462775 -0.00035324576 0.0007752668 -0.0019167757 -0.00034341167 0.0015140026 -0.00024226813 -0.0024832964 -0.0015295196 -0.0025130308 0.0026092632 0.0014633688 -0.004069348 -0.0009306646 0.0009580223 -0.0006923914 0.00028291348 0.000979358 0.00508049 -0.0019693405 0.00050519465 -0.002570924 0.0019490113 -0.002645232 -0.00042370713 -0.00055467506 -0.0005759325 0.001927373 0.0018582648 -0.0017631254 0.0017230532 0.0006312095 -0.00085474335 -0.003760005 -0.0023860333 0.0012782469 0.0013139341 -0.0019870002 -0.00056353095 0.0018279859 -0.0031790512 0.0037164162 -0.00094524876 -0.0024968942 0.0025625816 0.001032314 0.0017515367 -0.0019352026 -0.002879997 -6.820694e-05 -0.0016242595 -0.0030220377 0.004466468 0.00316531 0.0013559529 0.024598988 0.0016243097 0.011077317 0.0023763133 -0.00015034515 0.0011828265 0.0038989165 -0.0028443479 -0.0008956021 -0.0018079396 0.001923321 0.0009812972 0.0068932837 0.00048890564 -0.004667272 -0.0020190224 -0.00019010981 7.0723814e-05 0.005989191 -0.0027429848 -0.0016107458 -0.0021436522 -0.01844272 -0.00025840607 -0.0027264843 -0.0008940623 0.0014557451 0.009639668 -0.00014083092 0.003886016 -0.006242044 0.0018344559 0.0007854532 0.0043816976 -0.0038109492 0.009713007 -0.0012397381 0.0011192225 -0.00042020727 -0.0031140763 -0.00080761826 -0.009579889 0.0031535905 0.0024591577 0.0015482147 1.7336428e-05 0.005843213 -0.0045730653 0.0028134212 -0.0058434303 0.0021007154 -0.0021497952 -6.729037e-05 0.003134658 -0.007455856 0.0014546488 -0.0033156753 0.0029934486 -0.0034069356 -0.00025368432 -0.005931893 0.000120069206 0.0005450062 -0.002560042 -0.0019446115 0.0026533199 -0.00020263648 -0.0018102732 0.0015989098 0.00051977084 0.0036165556 0.0012573866 -0.003575963 -0.0014798162 -0.0012205492 -0.0015407766 0.0209816 0.0032605776 -0.0010065179 -0.0022460006 0.0013942046 -0.003937431 9.199959e-05 -0.0044373577 0.004924293 -0.0005393563 0.0010428097 0.00012986877 0.009796674 -0.00019941923 -0.0005823402 -0.0013999763 -0.0014889583 -0.001329836 -0.00217737 0.0022703132 -0.00234347 -0.0067600165 0.008535693 -0.0019295958 0.002625422 0.0009692548 0.0032772417 0.0036753512 -0.00082088675 0.0006103792 -0.004611014 -0.00084308337 -0.001150939 -0.006023191 0.0010151094 -0.0024060037 0.00028820263 -0.0015188297 -0.0022990855 -0.0007170407 -0.00070479675 0.0008017453 -0.0011428652 0.0006962552 0.00022516685 -0.0004931283 -0.0042334227 -0.0002575784 -0.00090045633 0.00071871805 -0.0005775519 -0.014893542 0.0014925565 0.0018070402 -0.0210754 -0.00029774845 -0.0013405338 -0.0010518227 0.00029681704 -0.00024714053 -0.000403712 -0.0014819504 0.004515991 0.00027939733 0.00092578895 0.00014273504 -8.150594e-05 0.002723808 0.0018866895 0.0035206738 -0.0022546886 -0.0021038179 -0.0014120317 0.0009255854 0.0052360147 -0.0023167103 0.0024518813 -0.0010527339 -0.002501126 -0.00023944724 -0.0026964955 0.0031124393 0.0043882476 0.0012437322 0.0006007526 0.0010729348 -0.00047692386 0.003237454 -0.00024128493 -0.0010164134 -0.0031009344 0.00059279485 -0.001979455 0.0005353366 0.00043040208 -0.0028511058 0.003268533 -0.0017475368 -0.000876436 -0.0007377175 -0.0013357128 -0.0026023942 -0.0028103509 -0.002450808 -0.0013385025 -0.0013840655 -0.003313216 0.0020178275 0.0005532644 -0.0016363708 -0.0013748849 -0.006942599 0.002287323 -0.0022518216 0.00010975593 -0.0012089587 0.0011697628 0.0006954874 0.00065609906 -0.021741152 0.0034587078 -0.0014219998 -0.0034684746 -0.0017023926 -0.0021981567 -0.0056728995 0.009165068 -0.0009436917 0.00060018117 -0.0018975534 -0.0013795025 -0.0029370463 -0.0014189917 0.0018834916 -0.0043296204 0.0020254387 0.0037184148 0.0026504232 0.0032846974 0.0011926678 -0.0066775694 -0.0022645527 -0.002695121 0.011043219 0.001201491 -0.038647655 -0.0025975099 -0.0015674991 0.0008071013 4.1234798e-05 -0.0015750463 0.003631909 0.0038445638 -0.0015188111 -0.00304527 -0.00047654385 -0.0022065674 0.032074217 -0.0023401526 0.0015379395 0.0017881757 -0.00025189522 0.0096350135 -0.0006573632 -0.0033542488 0.00084408344 0.03556277 0.0013565893 -0.0024614288 0.003028029 0.002567793 -0.0046309866 -0.00036027416 0.0006048265 -0.00055858947 0.00089794205 0.007778967 0.003367907 -0.0003990914 0.0103861205 0.015136196 0.013415807 -0.0003722859 -0.001231778 0.0012687964 -0.0029497659 0.0019315643 -0.00080777897 -0.0015485361 -0.037755925 -0.001660225 0.0007614225 -0.00026012873 0.003773387 0.0039264583 -0.0015812505 0.0009961717 -0.00040527017 -0.0012592151 0.00441343 0.0010718018 -0.0051849415 -0.054310285 -0.0086220475 0.0012261495 -0.0034824898 -0.0007744211 -0.0032074936 -0.0010851393 0.0018200834 -0.000112755886 0.00038871187 -0.00046008613 -0.005059734 0.0010756433 -0.0006612526 0.0040308023 -0.0014322567 0.0045406967 0.0006675742 0.01218621 -0.0016448351 0.0027901465 0.0013338285 0.0010766673 3.1316515e-05 0.00023342887 -0.008583474 0.003989635 -0.0028694172 0.0006109653 0.0007276418 -0.0018637285 -0.0050449483 0.0080464 -0.0023496905 -0.0019688744 -0.011034024 -0.0017415051 -0.0016825967 -0.0024255887 0.0012794533 -0.0051392564 -0.001242179 0.0017224768 0.0021184254 0.0003412231 0.0010364172 0.0017658897 0.016421268 -0.0008417914 0.0003121206 0.0022303073 -0.002645179 0.0005665944 0.0011613099 0.0006318181 0.0024918735 -0.001953848 0.0008629791 -0.00057232287 2.477392e-05 -0.0009151217 0.0009566447 -0.0012398849 0.0014422972 -0.00081484835 0.0016128246 0.0022928752 0.00028828144 0.0021247643 0.0009042715 0.00040169217 -0.000845874 -0.002529073 0.0006287692 -0.0023248848 -0.02007696 -0.015658349 -0.0004140285 -0.00032998645 -0.0026998068 0.0024428668 0.0006815272 0.0027561218 -0.0013054599 0.00055947574 0.0015888077 -0.0010925503 0.0018402201 0.0063976264 0.0004888708 0.0012059073 0.0015768205
-0.00064027496 0.002703651 0.0019084451 0.0010641613 0.002954065 0.0005599751 0.0009014813 -0.00041391712 0.005279565 -0.004526483 -0.00055104285 0.0030412548 -0.002154082 -0.0009843288 0.0027425769 0.00049349054 -0.0020297682 -0.004874041 -0.0011661691 0.005615775 0.0027650704 -0.0014491734 -0.002306619 -0.0010241447 0.0030877367 -0.004502102 0.0028829756 0.00069817546 0.00693771 0.0028758922 0.0021037725 -0.003863158 0.0061078807 -0.00017483918 0.002400936 0.0045560147 -0.0013310176 0.00378461 0.010691658 -0.00063640275 0.0024966095 -0.004903267 0.005432137 -0.0012210617 -0.002269263 -0.0017442127 -0.0013096262 -0.0032215994 -0.0013025621 -0.0014046514 -0.0020089704 0.0027837432 -0.0013548505 -0.008010293 -0.00018468768 0.0065968777 0.0015974584 0.0019724441 0.0012194095 0.004975148 0.0015729837 0.00046875203 0.00027516024 -0.004731643 0.0004935543 0.023252627 0.0015206621 -0.000113753566 -0.00057853496 0.00058611727 0.0018910337 -0.0018111845 -0.0013796083 0.0004499189 0.0017898778 -0.008146992 -0.002417137 -0.0020350236 -0.0003781918 3.9110924e-05 -0.000108691565 -0.0004543359 0.011631544 -0.0017086606 -3.4476958e-05 -0.0010570993 -0.0005015867 -0.0032633464 0.0025801694 0.002320888 0.0015364364 -0.0005243603 0.00026283268 -0.0012110029 0.00051574333 -0.0013411313 0.00641465 0.0018645306 -0.0056486847 -0.0015488738 0.0011870008 -0.0014569724 -7.2426556e-05 -0.0007022458 0.00034874192 0.005149877 0.0008121585 -5.9577073e-05 0.004557733 0.004390731 -0.00091118517 0.0009007684 0.0003396308 0.0012354921 0.01943368 0.0014068366 0.0011090102 -0.012869963 0.004788034 -0.00019712713 0.004055214 -0.00036737593 -0.0013354671 0.007892215 0.00011817701 -0.0030425547 0.0024622178 -0.00012384793 -0.00011474896 0.002104845 0.001293216 0.0014797348 -0.0031804296 0.0002713846 -0.0006192844 0.00069343 -0.00046532144 0.0031431918 0.0022952084 0.0017397563 -0.0058510546 -0.0022419437 0.00034560866 -0.0011740107 -0.0019362754 -0.001578077 -0.0011847375 0.0005431314 -0.005896375 -0.000733547 0.0012041434 0.0002650654 0.0026262605 -0.0011610067 -0.0016970043 -0.0030106842 0.00010346319 0.0021528332 -0.00075684325 0.0011861449 0.0081278505 0.0029364016 -0.0010259697 0.0017899241 0.0011630473 0.001671114 0.0013087946 -0.001182817 -0.00024803221 0.00014159258 -0.0019702518 -0.00030837464 -0.0014857231 0.00034046944 0.000329333 0.006150032 0.0033519354 0.00054272055 0.0016074885 -0.0023067605 -0.0006713786 0.00414441 -0.0015609335 0.0009724213 0.0022778695 0.0004118938 -0.0015087846 0.0018484464 0.00040722155 0.00018360832 0.00011059408 0.0034567951 0.00080469146 0.0028537847 -0.0011771717 0.002225985 -0.0010337484 -0.0020845982 0.00021689599 0.00062986545 0.00071490835 -0.0006604321 -0.0009888429 -0.0014758401 -0.002296961 -0.0014922116 0.0017688088 -7.495301e-05 -0.0007991738 -0.00074525864 0.0036880341 0.015851133 0.002966235 0.0054123816 -0.0065666726 -0.0004796397 -0.0008474482 -0.0057695513 -0.004648224 0.0015576323 -0.0021269962 -0.0016406386 0.0030061596 0.0033988755 -0.00085772347 -0.002055428 0.0020398041 -0.0017523085 0.0009164515 0.00047479963 -0.009506069 0.00068122003 -0.00038418238 -0.006284778 -0.0012120424 0.004198341 -0.0019849741 0.00094459625 -0.00036354456 -0.0066951565 0.0021738552 -0.0024972567 -0.008245243 0.009517852 0.001498961 -0.0009955881 0.00069482264 0.0026516826 0.0031551912 -0.0013927328 0.00056142913 0.0024681946 -0.0002817016 0.0003423554 0.0012067736 -0.0011511263 -0.0065259025 0.0013955394 0.0036475114 -0.0005204069 -0.00034344412 6.3254745e-05 -0.0046059564 0.0012556546 0.0010668078 0.00068681827 -0.000933249 0.0037515913 -0.0014662073 0.0036963846 0.0012424333 0.003372178 -0.0008945377 0.0033156383 -0.0011639254 0.00025446506 -0.011794644 -0.0018118481 -0.00080061174 -0.020421857 0.009403457 0.029420087 0.0032453663 -0.0025018787 0.0017823839 0.006715801 -0.0041800234 -0.0060318145 0.0009821035 0.00017264161 0.008256663 0.0017900134 -0.0037017677 0.0026229576 0.00065802416 0.008703205 -1.5118573e-05 -0.00045937175 0.0009384942 -0.0011342169 0.004055207 -0.005843082 -0.00034624938 -0.0007201217 0.0017675398 0.0008142715 -7.112893e-05 0.00015368105 0.010531912 0.0013622815 -0.0031832485 -0.0014409302 0.00069712545 0.0035132 0.00024051208 -0.026921159 0.0028552078 0.0004987431 0.006982329 -0.0012617346 0.0007242059 -0.0008559402 0.00015613725 0.0007001715 0.0001239616 0.00023489071 0.0019732704 0.0015739035 -0.00036661257 -0.0015339059 -0.0007150022 -0.004078722 0.00046953702 0.0013630297 0.00087282667 -0.013086628 0.0010267327 -0.0015678274 0.0013440073 -0.00052535936 0.0026826502 -0.0024953356 0.00497417 0.004230568 0.000577759 -0.004852575 0.0017076911 -0.0029057 -0.00072399544 -0.0025168485 -0.0017972972 8.166167e-05 0.0036349148 -0.002164997 0.0045577474 0.002314633 0.001837049 0.0023586783 0.005345883 -0.0008848979 0.00030478873 -0.0012164022 -0.0016529994 0.002040695 0.005976337 0.0021215226 -0.0035147653 0.0019076415 0.006018773 0.0010110511 0.0030113566 -0.0002269493 0.0021895682 0.00033634575 -0.00078226964 -0.003862177 0.002578969 0.0004069096 -0.0012969368 -0.013661831 -0.0029097204 0.0014906229 -0.0012807623 -0.01187107 -0.0023664427 0.0022365872 -0.0009722254 -0.003220146 0.0016731966 0.0012094821 0.0012276842 -0.0020532247 0.0032035091 0.0023798738 0.0023214775 -0.0005437045 -0.00069283263 0.0065616975 0.000704727 -0.0021466548 0.00087780284 0.0010671439 0.00050509087 0.0053488635 0.0006203448 0.0024261882 0.0013350588 -0.00084357057 -0.000466314 -0.0070895697 0.0011525031 0.00022728689 -0.0005770008 0.0014277397 0.002537863 -0.0028679585 -0.00014917558 -0.0014811745 0.006541105 -1.2219188e-05 -0.0046146438 -0.00087487395 0.0013186632 -0.001409871 -0.0010053082 0.0012164478 -0.0010321205 0.0105011035 -0.004233566 0.0007551216 0.002984865 -0.0017365635 0.0011876143 -0.0023335202 0.0020145287 -0.01854572 -0.004419249 0.0024790321 0.006858658 -0.0031046756 0.00035632995 -0.0006967566 -0.001120343 -0.001910212 -0.0007302213 0.00092859834 0.0022943479 0.0008907271 3.907196e-05 0.0030089663 0.000106901534 -0.00044790108 -0.0066198106 -0.007314409 0.0006757492 -0.003525141 0.0025193791 -0.001340402 -0.0054346034 0.0012637952 0.0019734749 0.00086516165 -0.0008592825 -0.00021278507 -0.011311355 4.762015e-05 -0.0010317458 0.003558785 -0.00072832213 -0.002224701 -0.0012923056 0.008536705 -0.0015381308 -0.0040672375 0.00030938227 -0.00023886109 -0.0007456211 -0.00034184885 -0.0006786992 -0.001887232 -0.00544561 -8.473121e-05 0.00027298764 -0.0006611207 -0.0023639419 -0.0009831596 0.00048080203 0.000381041 0.0037516595 4.8727095e-05 -0.00024176996 0.00094131666 -0.00094165734 -0.0017174056 0.0007716475 -0.0047959983 -0.00027866047 -0.0010192359 5.45232e-05 -0.0057554683 0.00034336504 0.0012654018 0.005016184 -0.0011313878 -0.0028707518 -0.0019945805 0.003535663 -0.0014041966 0.0043013077 -0.00057449896 0.00012957293 -0.00058499124
-0.0024539924 -0.0041666725 -0.0019178377 0.0010761163 0.0032226627 0.017128438 0.0014397748 0.0043252376 0.0012632422 -0.036323257 0.0053152256 -0.00058620155 -0.0025865897 -0.0008709367 -0.0011605019 -0.002001572 -0.00331556 -0.0032066002 -0.004052079 -0.0053893034 -0.0016511943 0.0052209543 0.0023891302 -0.0004218179 -0.016955404 0.003744178 0.03621675 0.0046642665 -0.00021607884 0.0010936098 -0.0010108639 0.01506605 -0.00045391556 0.00013706512 -0.0016153649 -0.0011242807 0.0028644183 -0.0070227114 0.0022769195 -0.0007818707 -0.0014921541 -0.008400913 0.0055877063 0.013698456 -0.0024940998 0.022190336 0.0029978761 -0.01086021 0.0012984048 -0.0027991445 0.00072455127 0.0025796525 -0.00039443735 0.0006898076 -0.0035273633 -0.0006686308 0.0005618544 -0.010761199 0.00482773 -0.008116153 0.0075185653 0.00428762 -0.0030010329 -0.008790106 -0.0022583276 -0.011924722 -0.0016125946 -0.00084601215 0.003299948 -0.0050017084 0.000249407 0.00025998548 0.0021347618 -0.0037895732 -0.001143136 0.010709555 -0.0018378983 -0.0015824408 -0.0111131035 0.004173318 0.0033451002 -0.0015652021 0.0105499 -2.9213914e-05 -0.0019062635 -8.723733e-05 0.008815715 0.013153944 0.0025212085 0.0062383367 0.0002634774 0.0005175989 0.00294058 -4.1995747e-05 0.0011075832 0.002021209 0.0028361927 0.0057025068 0.0009052176 0.0035974982 -8.4005575e-07 -0.0033212355 0.0010640054 0.0013357231 0.0043089944 -0.014153423 -0.0004357756 -0.0005575223 -0.005547867 -0.003404914 -0.0004491421 -0.00054408424 0.00086464005 -0.004539476 -0.004972017 -0.003372949 -0.0002360099 -0.00040609442 -0.0031980157 -0.00095440296 0.004959791 -0.0034693882 0.00025220096 0.00025699276 -0.00066958135 0.0009044321 0.00035391015 0.013967461 -0.00068476045 0.0067946 -0.00041879417 0.000610201 -0.0016580194 -0.0017829494 -0.009878496 4.6051122e-05 -0.0013846551 0.0035964125 0.0024236776 0.007161241 0.0010558519 -0.005412847 -0.0024186852 -0.00025773214 0.0053939326 -0.0014023694 0.0015282677 -0.004152862 0.00071935944 0.0006664856 -0.00016571462 -0.0027408355 -0.01667854 0.0018745044 0.015413631 0.002728762 -0.006220724 0.014907524 0.00525136 -0.00570673 0.0009750748 -0.002635802 0.0026053938 -0.0052494262 0.003985627 0.00030934456 0.0024527463 -0.0022000798 -2.94923e-05 -0.009475434 -0.0029886968 -0.0061388286 -0.00014867396 -0.001173692 0.0010752577 0.008972083 0.003579285 0.011114547 0.00089153025 -0.0003825697 -0.0017955553 -0.0012333546 -0.0011601318 0.011456347 0.008287277 0.0017676281 0.0019042022 -0.005848826 0.02575453 0.010088348 0.007373117 -0.0063890642 -0.00573362 0.0013314685 0.0050648395 0.0026857497 0.0030921442 -0.00284109 -0.0042630536 -0.0026726096 0.00011644584 -0.0017250519 -0.0014040029 -0.0013459158 0.00022754377 0.0004031395 0.014025601 0.0035342313 -0.0017689116 -0.0019547055 -0.00015446167 0.005112009 0.009010394 0.0019026172 -0.0012941135 0.000355685 0.0010128458 0.007574452 0.0020149471 -0.0063500446 -0.003501759 -0.0024312795 0.0065330537 0.0026800677 -0.0023708197 -0.02377535 -0.009417729 -0.001356997 0.00088132574 -0.0024608 0.00019030874 0.008163498 0.0013347684 0.010060054 -0.002380295 -0.0014274699 -0.00675662 0.0032288707 -0.0012137133 0.0073333695 0.00925037 -0.0021965953 0.009555482 0.008690941 -0.0019855322 -0.0018670218 -0.0015467046 -0.001529904 -0.0034634084 -0.0107933385 0.0026040033 -0.00036933282 0.0031744577 -0.0028336672 0.0015941791 9.700127e-07 -0.0009414238 -0.0011188899 0.004524241 0.0030126227 -0.0015972604 -0.0027627978 0.006891899 -0.00075911684 -0.010309354 0.0001311434 0.0051502706 0.0020618758 0.0032613694 -0.016040837 -0.0016898155 -0.009019161 0.0035163837 -0.011082069 -0.0006774976 0.0035954458 -0.001946559 0.0009996067 0.00019026839 0.020728441 0.0076354835 0.005023376 -0.0041269404 0.0048480644 0.0016370652 -0.0017983225 -0.0052418956 0.0064915353 -0.00446463 0.0020314057 -0.0044548023 0.01708689 -0.002800136 -0.00090000575 -0.0007474643 0.020917725 0.010773341 -0.0017936337 -0.0059859585 0.0001927729 0.0027297935 -0.0031295817 0.009795223 0.004824424 -0.0024257503 0.0014524797 -0.003501043 -0.0029392997 0.0045750206 0.0013522743 -0.0051060384 2.285911e-05 -0.0023313314 -0.0030731813 0.006987462 -0.0020506496 -0.0006571375 -0.0014608449 0.0054873605 -0.001562448 0.0019126106 -0.00026071921 -0.004456878 -0.0039422633 -0.006115791 -0.0020453099 -0.0009201383 0.0014907984 -0.004426998 -0.0018156215 -0.0034751077 0.003822551 -0.0010415092 -0.0019361492 -0.0011022335 0.00033977474 -0.0017811268 -0.0041144844 0.007217026 0.0022873536 -0.0043650116 0.0016400227 0.017335089 -0.005202966 -0.013083291 0.009643325 -0.0034921155 0.002133262 0.010844968 -0.010923893 0.0010355726 -0.0010828892 0.0029327297 -0.0020336935 0.00943121 -0.00047215202 0.00050922146 -0.008484939 0.0069848336 0.0047945376 -0.00295288 0.0029997847 -0.0029306158 -0.0014234013 0.0022044103 -0.00085576036 -0.0009935652 0.000520279 -0.022059726 -0.0028330483 0.002838827 0.011826163 -0.0001302571 -0.0021475323 -2.0812126e-05 0.012114588 0.0026110497 -0.003949511 -0.0017719249 0.0016504987 -0.0046231737 0.0029565613 0.007914123 -0.00515255 -0.032086667 -0.00025803855 0.004985357 -0.008026255 0.00073435367 0.0017275325 0.001992565 0.0004997323 0.0040679458 0.00205118 0.0041861166 0.0022382012 -0.0021779125 -0.0014046006 -0.0037359935 -0.0020446172 0.0010175789 0.00027589404 0.0021627245 -0.01060255 -0.011276661 0.00062738213 -4.7322552e-05 -0.002292296 0.000288266 0.007235311 0.006153317 0.00020476524 -0.00319989 -0.0034171375 0.01493302 -0.0079837255 0.0003908663 -0.012212582 -0.024055911 -0.0013349701 0.010218596 -0.016421944 -0.0030392364 -0.0019426503 0.0011265681 0.008937896 0.0019227067 0.0038649081 -0.00082050706 -0.001205308 0.0024724838 -0.020001601 -0.00015879466 0.012977819 0.0016774393 0.0012024645 -0.009589048 -0.011009793 -0.024923995 0.00080857106 0.0017400373 0.004018047 -0.004284773 -0.0026414352 -0.0030972932 0.0050217463 -0.004559914 -0.007343289 0.00056488137 0.0006879181 0.0014794555 0.008322508 -0.024811031 -0.0017906612 0.0017004281 0.00015007639 -0.0011465496 0.003986414 -0.00326561 -0.0016273406 0.0044048163 -0.0019602866 -0.0025422855 0.0006777068 0.0027350679 -0.0050142673 0.0003375249 0.011833631 -0.00014800738 0.0012365956 -0.0018799808 0.01724492 0.009360859 0.005976604 -0.003516785 0.009002613 0.0012441241 -0.005113767 -0.0072234706 0.0075837383 -0.0021184417 -0.0004891573 0.0027961554 -0.015688142 0.0004429777 -0.0028756382 -0.0029780609 -0.0018106531 -0.010160466 0.0016489623 -0.0026100525 0.0011992524 -0.0005187182 -0.0005251043 -0.0007982944 0.033211105 0.006383203 0.0028603608 -0.00228715 0.0009243933 0.0013506927 0.003615049 0.0059542214 0.0028221614 0.0032230276 0.0029434634 0.0067329383 0.001664788 0.0022021336 0.0006343088 0.0024144647 -0.0011293647
-0.0006197934 0.00421332 -0.0013786193 0.0058702645 -0.0020892557 -0.0017293908 -0.0022718909 -0.0022486537 0.015047757 -0.004093531 -7.2187e-05 0.0064588343 0.029793404 -0.0038031428 0.0022005714 0.010944906 -0.0014599974 -0.0003280455 0.0002605933 0.0026072045 0.0023362616 0.016398245 3.917662e-06 0.0003610101 -0.001551687 0.0014200977 -0.013386377 0.009513322 -0.0043128827 0.0014810343 -0.004155278 -0.016419457 -0.0019960501 -0.0014191952 -0.006634732 -0.0082964385 -0.0055915317 -0.0030923323 -0.010879559 -0.00012538132 -0.00023341947 0.0009470161 0.006037893 0.0012242703 0.00041605235 0.0008191262 0.002029411 0.008403287 -0.00096839934 0.001479195 -0.011671699 0.003994531 -0.007469321 0.0053596785 0.0028937717 0.004473589 0.013543239 0.029365698 -0.00065209216 0.0057385582 -0.012748268 0.007984914 -0.0016980233 0.011196065 1.49971775e-05 0.031788737 -0.0011298695 -0.0011431305 0.00043952852 -0.00519284 0.000693352 0.001938889 0.0025701735 -0.0043173814 -0.0019864063 0.032822758 -0.0024886471 -0.0076007894 -0.006752687 0.0023478798 0.0011538632 -0.0026090427 -0.044226285 -0.002279409 -0.0022178548 -0.0006039574 0.002207788 0.009600962 -0.0013786512 0.0026483922 -0.00080052053 0.00067967776 -0.0010546087 -0.00095619523 0.010957148 0.0004215046 0.011485615 0.005158522 0.008142333 -0.009132201 0.0022181564 0.0013763311 0.0009770554 -0.0009985287 0.0015341085 0.0068163425 -0.0034931435 -0.0028356358 -0.001422747 0.009101819 -0.000281078 -0.0046943515 -0.003198088 0.00056980626 0.0037375947 -0.001124657 -0.006095634 0.00045524657 0.0014204152 -0.012414309 -0.00040372123 -0.0014259502 0.004066925 0.0006215421 -0.0045252494 0.004697962 -0.0002428846 -0.0011354239 -0.0020923987 -0.008014824 -0.0013974248 0.0008099916 0.0014558139 0.0024573612 -0.006317318 -0.0087556355 0.0006619273 -0.006975082 -0.013643709 0.006406148 0.003037893 -0.008293614 -0.0049503255 0.0005999041 -0.0011417094 0.0010410757 0.003235757 0.0023247951 -0.009167363 -0.0002889279 -0.00032821068 0.000725345 0.0028295903 0.00048159316 -0.009656911 0.0013306601 -0.0046686144 -0.0061524156 0.0029493894 -0.0068240482 0.015737332 0.0047940006 -0.0023906722 -0.007847426 -0.0015226792 -0.001420957 -0.000107489446 -0.0022148383 -0.0025014335 -0.012091594 -0.0024779972 0.015578647 0.0027124553 -0.0002864118 -0.0011574276 -0.000963041 -0.0010017972 -0.013608646 -0.0013350692 0.0076449662 0.0033674168 0.0064336373 0.000121170226 0.005315442 -0.0034223236 0.0016750543 -0.00085766026 -0.0022193596 -0.000635776 -0.006581265 0.00047067404 0.006034382 0.002585141 -0.0008635886 -0.009675157 -0.0016898107 -0.0077388994 -2.0978438e-05 0.001179983 -0.0013020901 0.00083649025 -0.001223015 -0.009420902 -0.0020022292 -0.0015930956 -4.4780943e-05 0.0076986947 -0.001677824 -0.0013006014 -0.00021642166 0.002029843 -0.003752864 0.013870058 -6.080496e-05 0.012135656 0.0021451793 0.0022048666 -0.0011008772 -0.033094537 -0.007889632 0.000702777 -0.001409853 -8.3201194e-05 0.0016202023 -0.0021725877 -0.0006523503 -0.023228426 0.0005249284 -0.0012085249 0.00069198414 0.0009922385 -0.0041421507 -0.0008148842 -0.0022578442 -0.0024188666 0.0050843074 -0.0052515888 -0.002123805 -0.00045791472 -0.004547723 0.004456644 0.003604675 0.0026704476 0.013478677 -0.00084214204 -0.0019283585 -0.00018936205 -0.0012751784 0.004257895 0.0052384282 0.00076695357 -0.0002549239 0.0007492357 0.0033772418 0.0011077562 0.0023200212 0.00087655016 -0.0032509882 -0.009433267 -0.00071673613 0.00076259294 -0.0013629188 -0.016072968 0.0008945203 0.010782114 -0.0028851684 0.0010199444 0.0010523506 -0.020972619 -0.00015821865 0.0006169706 0.010620292 0.006743624 0.010044666 0.0005939822 -0.0019816647 0.0018044712 0.0014591749 0.0069315364 -0.0064940667 0.009020921 0.009440246 -0.008485574 0.001008131 0.0024674241 0.0002906021 0.00045445273 0.0011203595 -0.0027151178 -0.00081398356 0.0041893986 -0.0051850094 -0.012654582 0.0028988828 6.608687e-05 -0.0054196105 -0.010502807 -0.0014404577 -0.011444581 -0.001980121 -0.0017923332 -0.009851155 0.00050295616 -0.0021406075 0.0048677786 -0.0032722163 0.0039063185 -0.0013210789 -0.0004212552 -0.0013625821 0.00031517318 0.0008784546 0.00029048044 0.003927869 0.0006356538 -0.010719228 -0.0014228906 -0.001024436 -0.0014803273 -0.000106280626 -0.0010620328 -0.0014956417 0.0019700709 0.0024304779 -0.004135819 0.0004043246 -0.0012860287 -0.000632045 0.0025369464 0.004899774 0.0017793638 0.013767585 1.8062115e-05 -0.0021425718 0.0025839154 0.0033989581 0.00016755374 -0.004446368 -0.0005412739 0.0034628585 -0.0006484539 -0.00020022808 -0.029560955 -0.0005342608 0.00918245 0.0103776045 -0.000397545 -0.0022482302 0.006715994 0.031922895 -0.0004908524 -0.006092604 0.003313731 0.0051442683 0.0074398722 0.00036096908 -0.0011365258 -0.007432246 0.0026369256 -0.010476216 0.00072456483 0.006892249 0.0041665193 -0.0018058411 0.002577472 0.0009789901 -0.002121359 0.0019387767 -0.006885344 0.0020463883 0.0004046049 0.0012877756 0.0019648012 -0.0008376141 0.0033544109 -0.0020240394 0.0019511352 -0.0024053587 0.0010706784 -0.00037020358 -0.0018645484 0.00035894683 0.008262398 -0.017291341 -0.01055932 8.231739e-05 -0.00035336093 0.013963529 -0.0013001153 0.00437028 -0.0004243644 -0.004217516 -7.364535e-05 0.0024488738 0.0029326132 0.00200497 0.002660474 0.014908818 -0.008363674 0.004322734 0.0022287176 -0.0013964127 -0.0013872175 -0.006974589 -0.031286985 0.0014709367 0.0022095467 -0.0064410903 0.0044149705 -0.0021883924 -0.0018933358 0.0042854287 -0.0024772321 0.0026210055 0.004376095 -0.010189594 -0.0010183367 0.0011116861 -0.0053040436 0.0023059954 0.01765238 0.00081138196 -0.0006474236 -0.0034466654 0.00041941763 -0.013549246 0.0016870237 -0.0046916683 0.0034260391 -0.0020813718 -0.00694316 -0.003909455 -0.0013530769 0.00020682001 -0.0016746031 0.004648117 0.0017116291 -0.012642131 0.026763525 0.0055265804 -0.0015650773 -0.0012331526 0.002482641 -0.002909581 -0.0034683084 -0.0035796633 -0.000982678 -0.001232745 -0.0016428916 0.0052205827 -0.0007011105 0.01655348 -0.004792984 0.0024524056 0.00037049377 -0.0012079964 -0.013057469 0.017308267 -0.014312036 -0.00061499135 -0.006950016 0.009743009 0.0013981025 -0.0031190796 -0.0017179302 0.0034098423 -0.0011150241 -0.0048102317 0.0019388321 -0.0031767634 -0.0018879934 0.015335554 0.006616128 -0.0023091193 -0.0006526055 0.009164578 -0.0020197234 0.00047122827 0.003567534 -0.003131768 -0.0024116135 -0.00073687156 -0.0008194031 -0.0027464458 -0.001794763 -0.0040483847 -0.001932399 0.0004249568 -0.011645144 0.0021216534 -0.0018715123 0.0018196426 0.0039109807 0.0032138254 0.0042964546 0.004693908 0.0022383155 0.0023761215 0.0025477763 -0.008773615 -0.0053470638 0.0008510403 0.0031063557 -0.003071658 0.0018717636 -0.0019253797 -0.00544308 -5.6112614e-05 0.010556042 -0.0033013297 -0.009661487 -0.00332274
-0.00028085732 0.00021723362 -0.0010806549 0.009446107 -0.0022303828 0.042991437 0.000488912 0.0020738493 -0.009168491 -0.010224021 -0.0028096745 0.0006872718 0.002232628 -0.0017129096 0.0021709416 -0.0012222959 0.00063835655 0.002511847 0.0030707514 0.0004041433 0.00012602645 -0.00028355847 -0.0015740817 0.0037789615 -0.0016129616 -0.0041888305 0.01591161 -0.009358143 -0.0018765244 -0.0003044624 -0.003941964 0.00010091264 0.0031963356 0.0025195712 -0.0019522349 0.00047631533 0.001621632 -0.0010981098 -0.0030073344 -0.0021663718 -0.007730703 -0.011473077 -0.00042913988 0.0041710907 0.00036027838 0.0007945462 0.00089003326 0.0018596536 0.0003264681 0.0031861078 -0.0023075927 -0.004624573 0.016271697 -0.00064017443 0.0018439516 0.0086633805 0.0023530512 -0.013419493 -0.0002518102 -0.00079136266 0.0070347805 -0.010317959 0.0018395117 0.0011219338 -0.002143338 -0.0059549413 0.00042451284 0.0028678784 -0.0030515976 0.001460649 0.0014110109 0.0012257935 -0.003748246 0.0005197114 -0.0039567584 0.013219736 0.0018790825 0.0038892538 0.0008033847 0.00017489599 -0.0036043352 0.0002250856 0.0103339525 -0.0010748289 -0.0008097024 0.000749192 0.0020528042 0.0019451454 -0.0005360628 -0.0059608505 0.00026596073 0.0023900638 -0.00018042202 -0.00068593776 -0.0042018206 -0.0030071735 0.004079323 0.04371366 0.00070213364 -0.009702136 0.0021419823 0.0025863668 0.0022280791 0.0018032478 -0.0016496853 0.00229761 4.534426e-05 -0.0006850968 -0.009037388 -0.00452669 -0.004204796 0.002427955 0.0018404111 0.0038059438 0.0028087154 -0.0012307678 -0.0026651812 -0.0003269508 0.013920308 -0.0026460916 -0.0052497652 0.0003160993 0.0023967936 -0.0048371106 0.0046047363 -0.0035496464 -0.001087206 -0.008094953 0.002670397 0.008520196 -0.0007395301 0.002013589 -0.0018111364 0.0015329625 0.00017602569 0.0035556834 0.00018620655 0.0020325978 -0.0015849328 0.0017866648 -0.0007719049 0.0044306046 0.0017865604 -0.0005155988 0.0030612047 0.00025693432 0.00078400073 0.00092790654 0.004790164 0.00050861825 0.00019756593 0.0016256883 -0.0024387601 -0.0016070876 -0.0056035924 0.0028497009 -0.0028765353 -0.0063769277 0.0016841468 0.02540533 -0.0012966968 0.0026778828 -0.001240664 -0.0029070445 -0.039340064 -0.0017584909 -0.0010619482 -0.0033421852 0.0014850538 -0.019658653 0.00077060313 -0.00093321217 -0.0036325334 0.0026594773 0.0024530562 -0.0028382107 0.000843887 0.013961907 0.005046676 -0.0040030377 0.004291804 0.0077534886 -0.0007442249 0.024193633 -0.05828205 -0.0013476595 -0.0015658536 0.0010337456 -0.0024118708 0.00658828 -0.0015178876 0.0030971356 -0.002034692 -0.00074757595 0.0020633196 0.00068140443 -0.01251595 -0.0006462593 -0.002236124 0.0016013673 0.0012255799 -0.0008558695 -0.0012402431 -0.0008033789 -0.0011766851 0.0026728157 0.004439704 0.0024904802 -0.0022036196 0.00065319636 -0.0012538531 -0.0018240646 -0.006251495 0.0035400335 0.0060358522 -0.0016136474 0.00054496335 0.0023231246 0.01909047 -0.0060414434 0.0036993476 -0.0014492822 -0.0016953995 -0.0045382925 -0.0014496612 0.0033453056 0.05605803 0.0020103205 0.0049130865 0.0022877594 0.00264932 -0.013645209 0.004152945 0.004636856 0.003657253 0.0041394588 0.0020979836 0.0020990479 -0.00080938934 0.00094021176 0.016091404 0.0035525546 0.0010938691 -0.0017715356 -0.000658699 0.0030311085 -0.0014892888 -0.0027541104 0.0013308617 0.00019327163 0.00071742845 0.00079860917 -0.0006636711 7.660434e-05 0.0017286075 0.00015986488 0.002960287 0.0021410715 -0.0029505217 0.0008395973 0.0008697086 -0.0008646009 -0.0013086745 0.0026737284 -0.0059643555 -0.0018950943 -0.0022447696 -0.00086302595 0.04643905 0.00047011365 -0.005129791 0.00053081906 -0.014659082 0.018984765 0.0001927452 -0.00301876 1.32637515e-05 0.0011683754 0.005125396 0.0061502643 0.0018554636 0.0012622164 -0.043955345 -0.007971474 0.00092552515 -0.0007902903 0.0013895169 0.0014912259 0.0026873308 2.2788034e-05 0.0004679566 -0.00081346376 -0.004752528 -0.0015344559 0.0014596487 0.005827851 0.025217973 0.0002839738 0.0065639038 -0.00017273835 -0.0050108265 0.0067356615 0.0028014297 0.000407309 -0.0065731006 0.00030939333 -0.0014349252 0.00420745 -0.00086813985 -0.00053321576 -0.0022183298 0.00088648 0.0010136886 0.0006903201 0.000102192964 -0.003624118 -0.00035976048 0.00075277576 0.00018083231 -0.0019285055 0.0023586745 -0.0011214806 -0.0012290035 -0.0030259343 0.0027701291 -0.0020914075 -0.002730547 0.001048795 -0.0023707564 -0.0006690491 0.0006911203 0.002076288 0.0008011792 -0.0020778878 0.0017760429 -0.003930717 0.0026567476 -0.0038369992 -0.001669447 -0.0022191186 -0.0028441395 -0.003871961 0.020846166 0.00018816066 -0.012967437 -0.0022488125 -9.154089e-05 -0.0018895679 -0.00039164745 -0.0066532805 0.003353114 -0.0028641531 -0.003389786 -0.0017201591 -0.010236395 -0.0022189296 0.0048611932 -0.006693553 -0.0010588241 0.0020291624 0.003447685 0.0005669735 0.00079430727 0.010035675 0.0011666376 -0.0027855025 0.0029637704 0.0030530067 -0.0009843832 0.0017578716 0.0022380361 -0.0036851591 0.000552871 0.00032580574 0.00021366712 0.005328814 -0.0017969313 0.0010338238 0.00072490243 -0.0003452663 0.0025504683 0.00073162303 0.00084031647 -0.002118676 0.049330503 0.0031647275 0.000683378 0.0042340634 -0.002431698 -0.010011391 0.004733107 0.00036371243 0.0016075356 -0.0016095311 0.004139687 0.00096010324 0.0033722792 0.06318112 0.005169105 0.00123857 0.0045641707 -0.001994271 -0.008863059 -0.016692804 -0.013189191 0.0003923134 -0.0015707896 -0.0055718557 0.002638795 -0.0038648257 0.0043826518 0.004843718 0.0031632993 0.0028990714 0.0029133395 0.014603623 -0.000327531 -0.00833804 -0.003784815 0.0035048416 -0.0027757213 -0.0034589882 -0.0011230313 -0.00031269703 -0.0009246421 0.003759481 -0.0011074392 0.00052207714 -0.00042190062 0.0019986592 -0.0023665642 -0.00031238998 0.0009479472 0.005023604 -0.0019722101 -0.0063132276 -6.758383e-05 0.00075488933 0.0047559994 0.004797738 -7.343307e-05 0.011463749 -0.0022368676 -0.0016083057 -0.0015197311 0.0053214687 0.004239444 0.0013756772 0.00105248 0.0012233453 0.0034122628 -0.0008295553 0.0341355 -0.0026427947 0.0021996666 -0.0015517027 0.005273816 -0.049504306 -0.006271182 -0.00064086664 0.0066713123 0.0038057764 -0.0022882568 -0.0011441223 -0.0049234745 0.0017198588 0.00079631864 0.006119091 -0.0017018396 0.00016864578 0.0017349019 -0.0051177307 0.0041290508 -0.00028348435 0.0030931495 0.01262696 0.01790366 0.0016940689 0.0026261695 0.0022910906 -0.00024327052 -0.0010108659 0.008364779 0.002613995 0.0019822982 -0.0015962599 -0.00084509526 0.00070290733 -0.0052348487 0.0013859048 -0.0005774376 0.0025847957 -0.009752285 -0.0020910348 0.0018051399 0.041158557 0.012053288 0.0032670575 -0.0007529121 0.0005048515 -0.001866943 -0.002000013 0.019713983 0.0005969145 0.000838362 0.002374033 0.010685135 -0.001733856 -0.004393335 -0.00024002782 0.0024349075 -0.0017933388
0.0012627656 -0.0018673639 -0.0016763427 -0.004075491 0.00091081375 -0.0344903 -0.004988811 0.0019125339 -0.0051686196 0.0013507239 -0.015063045 0.002292126 -0.015000585 -0.0009285005 0.0005771481 0.0022231753 -0.0005371094 -0.003234164 0.032871366 -0.0042127287 0.000830049 0.00060527795 -0.0010064575 -0.0024684113 0.0022610426 -0.00030724672 -0.012441987 0.0010925024 0.00069947675 -0.001904482 -0.0005649205 -0.0061624725 0.0053606625 0.0026081922 0.0008438136 6.0771676e-05 -0.00048931874 -0.0023004655 0.003395417 -0.0016939063 -0.019738933 0.0048444765 -0.001480692 0.00200138 -0.0036300835 0.0007660474 -0.002654565 0.007954382 0.0009821552 -0.0011717171 -0.00072801684 0.0033766208 -0.018201396 0.00066396757 0.0016248593 0.007844344 0.0026579057 0.04258242 1.1366885e-05 0.0033440003 0.0066229133 0.010657583 -0.0005907706 0.0013976356 0.0020962828 -0.0054941005 0.0022020694 0.0008624768 -0.0039060665 -0.0017255329 0.0022377197 0.0019367167 -0.003120651 -0.0013708387 0.0017929338 0.04336893 -0.0011786537 -0.0048430907 -0.0034811937 0.0036524811 0.0002664882 -0.0010046734 0.017800162 -0.0024376172 0.00019475841 0.0006431208 -0.0006124035 -0.0022481005 -0.002418051 -0.004969 -0.0005179773 -0.002642582 0.00035835817 0.0047840653 -0.0006789586 -0.0017331472 0.00028501305 0.0090001095 0.00044955098 0.0062154396 -0.004838222 0.0020335033 0.0047169044 0.0011267421 0.0018482718 -0.009686564 9.136793e-05 -2.4874513e-05 0.0015159167 -0.004564149 0.002926973 -0.0018029877 -0.002031716 0.0019172338 -0.0007019132 0.0034767438 0.0041002682 -0.0025198497 0.0037082848 0.0004351975 0.0024279142 0.0018259975 0.0015649972 -0.00048111 0.002074499 0.00021187915 -0.0034290266 0.0071912673 0.0015758674 -0.0011726219 0.0015942203 0.0006475097 -0.0018184035 0.0033668398 0.0021514825 -0.0038858857 0.00014032517 -0.0031655177 0.0069957296 -0.000745357 -0.004693378 -0.007277321 -0.00370171 0.00034631044 0.0010989046 -1.9918863e-05 -0.0005206444 -0.00071703614 0.013660682 0.0018620617 -0.0010074833 0.00020975887 0.0075826417 0.00064881745 0.0019072942 -0.0019420489 -0.0014422194 -0.022377007 -0.0027293134 -0.0048112352 -0.006709153 -0.023553712 4.408872e-05 0.0017902865 -0.003578004 0.0013908071 -0.0030813683 0.00053294236 -0.00032530093 -0.017561764 0.0032872919 -0.000857296 -0.007868469 0.0008031676 -0.00060452626 0.004418133 -0.0012340806 -0.001966866 0.0007397958 0.0071058655 -0.0047392105 -0.0052193333 -0.0018971012 -0.015692523 -0.0108227935 -0.0013659395 0.0006577441 -0.0061464864 0.0089067295 -0.00057349907 -0.007965226 -0.002513513 0.002591315 0.00036372524 0.006035867 0.0028766168 -0.007873137 -0.0024119928 0.004914315 -0.00015771038 0.000104256826 0.003375338 0.006939461 -0.00026598293 0.0008667382 -0.0036718834 0.00066018116 -0.00016998882 -0.0009049355 -0.0014735109 0.001719821 0.0030686264 0.0016483599 -0.002877243 0.0012201422 0.0029619248 0.0022901064 0.009518636 -0.02810972 0.0072961603 0.0041264878 -0.00061351486 0.0010701792 0.032465126 0.0026915534 -0.003997775 -0.0151275825 -0.0014321825 0.00022000198 0.0059777326 -0.0060868883 -0.001256911 -0.0001970831 0.002845003 0.0024938004 -0.00043944104 0.0011192565 -0.0002264919 -0.0018077847 -0.0011492491 -0.008501352 -0.0021878032 -0.005296108 -0.0056324704 -0.0016463085 -0.00061567425 -0.00011289376 0.002185809 -0.005315771 -0.005626302 0.0011704768 0.00115239 0.00027477118 0.00015434244 9.911795e-05 -0.0012076825 -0.0069815773 0.0013422061 0.0060706222 -0.00072765234 -8.625493e-05 -0.0029799247 0.0022525745 -0.0013000974 0.007399497 0.0011650778 0.0013550937 0.0019306334 -0.0044679726 -0.008395505 -0.0016577793 -0.0028243747 -0.0021126969 -0.009316369 -0.0016177404 -0.00043373552 -0.0048955036 -0.00021420931 -0.005896809 0.004621844 0.0015155814 -0.0008200011 -0.050197452 0.0025236332 -0.00015449758 0.0003057104 0.00045505393 -0.0062840534 0.0011956234 0.0020051997 -0.0033446057 0.004299143 0.00718346 1.8408548e-06 -0.0010930632 0.002851411 -0.0060795066 0.0009443459 0.0014756151 0.00022403563 0.0035320963 -0.001763006 -0.00821919 -0.0015690736 -0.0049111284 -8.3645745e-08 4.9494305e-05 0.0007287114 -0.003497434 0.002284809 0.0041325605 -0.003190573 0.0012107268 -0.0018287669 -0.0010851147 0.0018032801 0.0007238763 0.0011387444 0.00054322963 0.00022168914 -0.0024668442 0.00024731076 -0.0015240636 -0.0043248665 0.0020799774 0.0014085142 0.004479363 0.0008786045 -0.002586387 0.005171896 -0.00080522016 -0.0041468632 0.0038004457 0.002987153 0.0010882468 0.0062499 0.0001572392 -4.9276397e-05 -0.00019116458 0.00351988 -0.0042132162 -0.00049759535 -0.00470525 0.0016127328 -0.00025211685 0.0039221775 0.00092393334 -0.0015861006 -0.0029850453 0.003705489 0.0012111652 -0.0013615725 0.0017641402 0.0007843137 0.0012068094 -0.0012286722 0.0007006408 -0.0030124804 0.004180076 -0.0041869334 0.0019750495 -0.002517897 -0.0004997482 -0.0054829973 0.0016816233 0.0016590807 -0.0008504247 -0.000536455 -0.00027024053 0.00010419446 0.004011202 0.00902908 0.00016270913 0.0013653515 -0.0015045641 -0.0018763961 0.0016597934 -0.00080919516 -0.0006639147 -0.0026581672 0.016704056 0.0025755467 0.0015246958 0.005809755 -0.030447572 -7.83982e-05 0.0017767578 -0.0039795656 -0.0014420901 0.0025164115 -0.0032776918 0.0012736482 -0.006911652 0.00024365942 0.0028940702 0.0030064662 -0.0011964295 0.00080466503 0.0013193131 0.000655676 -0.0004750561 -0.0017664997 0.0013223361 0.011000766 -0.004317822 0.00086346746 -0.0008897597 7.3816445e-05 0.0018098742 -0.0049946033 0.003690731 -0.026055327 0.04159668 0.0012749765 0.003741575 -0.00079480687 0.00080922805 0.008870477 0.012707281 -0.0007002715 -0.0032224492 0.00033160017 0.0003067494 -0.0025936218 0.00040671756 0.013737489 0.0015382008 0.0016913054 0.00049622176 0.0011459019 -0.002205405 0.00823118 -0.0009831154 0.0001229838 -0.0019007735 0.0038843786 -6.6572175e-05 -0.001121311 -0.0053061415 -0.0035445741 0.00066953065 0.0016759251 0.0040506693 -0.000640472 -0.001009165 -0.0029896216 0.0009476414 -0.0034991428 -0.0008909692 0.0013397073 -0.00015949487 -0.0055112545 -0.012406403 0.00034424887 0.0023149666 -0.0012005677 0.0031009896 0.034935534 0.009112161 0.0006409715 0.0062029213 0.00019566108 -0.0012932059 -0.0007940596 -0.0004618633 0.009907869 0.004282989 -0.0015814897 0.0020466694 0.0009899235 -0.0016808949 -0.003147029 -0.012045627 -0.00059150753 -0.0003325879 0.0004851927 0.0018449115 -0.00042683704 -0.0095510185 -0.001744684 0.003670426 0.0009152215 -0.019858764 -0.0028761863 0.0010601614 -0.0023324392 -0.00046933885 0.001471646 0.0068457164 0.0022875934 -0.0010642018 0.000100795754 0.0065029697 -0.00052438094 0.0008759586 -0.010451679 -0.006267021 0.0019693172 -0.0002041141 0.0027729091 0.0025754669 0.001349676 0.005274812 0.00017495199 0.0007116808 -0.0018158922 0.007986439 -0.001808826 -0.0076189153 0.00028368414 0.0015189864 -0.0021907515
0.00023650161 0.0006937337 -0.0036077648 -0.0028967906 -0.00011160009 -0.0036431644 0.017537285 -0.00062276336 0.004619272 -0.0103989355 0.0039011303 -0.000591069 0.0031551337 -0.00020041656 0.0022639912 -0.00023575634 -0.00036446477 -0.0009972636 -0.002390693 0.0037302815 0.001545307 -0.0033329462 0.00038058177 -0.002706566 -0.004820175 0.00022524943 0.0039586374 0.0004438725 0.002456733 -0.0016184992 0.0018921413 0.0019463862 -0.0015403903 0.004934214 0.00032853326 -0.00042044104 0.0023832473 0.0017468976 0.0007845084 -0.002109358 0.0006458516 0.00048271555 0.0034174607 0.0022434033 0.0003128842 -0.0017135441 0.0010084176 -0.004117721 0.0010134927 -0.0010405332 0.00031252392 -1.695674e-05 0.0031594243 9.642976e-05 -0.00055896636 -0.0036069436 -0.0003240069 -0.022400584 -0.0030224947 -0.006165605 0.0033689567 0.0025886504 -0.00024153208 0.005950439 0.00066066877 -0.010235443 -0.0013585755 -0.0023381019 -0.00057901035 0.00023344767 -0.0014274691 0.002297813 -0.00017513028 0.00020590007 0.000544682 0.002630317 -0.015987765 0.0030624974 -0.0044250838 -6.7382796e-05 -8.706961e-05 0.0010672708 0.0030018662 -0.0017313999 -0.00073321635 -0.0012353426 0.0018801912 -0.00012978035 0.003333512 0.0020859065 0.0005281456 -0.0006807734 0.0013234203 0.00078957353 -0.0015549443 -0.00019602946 0.001758327 0.008167622 -0.0005144511 0.009952283 0.0016179126 -5.2256783e-05 0.00069084263 -0.0011554161 0.000116406576 -0.015002556 0.0041746567 0.0021421227 0.0011139034 -0.0009842832 6.737419e-05 -0.0014089473 -0.00044745643 0.0014526577 0.0021545372 -0.0006229828 -0.0011539233 0.002845366 0.0017598043 0.0029725942 -0.0038323666 -0.0016488037 -0.0006966838 -0.0016129812 -0.0042411746 0.0016257676 -0.0016321942 -0.0036369201 0.000115013165 -0.0007471781 0.0030694352 0.00041387483 -0.0019012033 -0.000642784 0.0016260755 4.6076315e-05 0.001093045 -0.00052888895 -0.0023648506 -0.001889469 -0.0042566685 0.010773281 -0.0038644455 0.00020502681 0.0014836699 -0.0027879619 -0.0016637078 -0.001846537 -0.007216269 -0.0011770644 -0.0009310973 -0.00072834594 -0.00015661042 0.0007722151 0.0009215495 -0.00028210104 -0.0007125199 -0.015761897 0.00058995315 -0.006818846 -0.001171914 -0.0024394116 -0.001130233 -0.00013512836 -0.02019227 -0.00059573323 0.0007096459 -0.0019334891 -0.0014847784 -0.010334097 0.000793751 -0.0019237236 -0.0051461835 0.0011168625 -4.8315756e-05 -0.0013606618 -0.0014239496 0.009286139 -0.0026704767 -0.0051325588 0.0013447283 0.0009341352 0.00023120051 -0.0003802368 -0.0036806068 -0.00081168266 0.00015029419 0.0018174064 -0.00081211823 -0.002592294 0.003025318 0.00077666756 0.03657566 0.0012734041 -0.003671749 -0.00030805613 -0.013320721 -0.0005011824 0.00082743866 0.0016577429 0.0019448104 0.00025102517 -0.0028477327 0.00025887167 0.0015899749 -0.014560267 -0.003922824 -0.0046999273 0.0014878709 0.00084757933 0.0005768928 0.00013679794 -0.0040418613 0.001421315 -0.00039428996 0.0024567137 -2.6361338e-05 -0.002610573 0.0067061107 0.0034792682 -0.0016348667 2.6974183e-05 -0.0010749461 -0.00033303775 -6.195911e-05 0.0011240073 0.0038846799 0.0021309352 8.447276e-05 0.00076413446 -0.002813172 0.0028266709 -0.00074967725 -0.0027514016 -0.0012759771 -0.0007948977 0.0062628603 0.0009897413 0.0010202541 0.0045039216 0.0103659695 0.0018039665 -0.0033349928 -0.0023168898 0.0014558575 -0.02422038 -0.0001442921 0.0029434212 -0.0019560922 -0.00037921584 -0.0012673123 -0.0013343358 -0.0006123421 0.0019940964 -0.0018450445 0.0003748323 -0.0063226754 0.0017428438 -0.0007457178 -0.0004880755 -0.0015559933 -0.00085075025 -0.0034601276 -0.0009292893 -0.026671302 0.00056528434 3.436982e-05 -0.00066300354 -0.0027526938 -0.031748228 -5.2763455e-05 0.0006087404 -0.0075081736 0.006466789 -0.002868958 -0.00032819546 0.001998774 0.0007748048 0.00703177 0.0008870334 0.00047766705 0.0009356535 0.0043655722 -0.028226413 -0.00064928655 0.0034590126 0.0035420156 -0.00055905076 -0.0010594879 -0.0010647264 -0.0002142239 -0.003851418 0.0021034935 0.00060740433 0.0016906713 -0.003209745 0.006070943 0.0015529431 0.004028049 -8.936214e-05 0.0013318066 0.008241531 -0.0025363697 -0.0007064466 0.003090489 0.001971466 0.00087697594 -0.0017528621 -0.002028619 0.00032241433 0.006347679 0.002379761 0.00024160332 0.005009563 -0.004798557 0.0006920034 -0.00070379704 -0.0012351106 -0.003797003 -0.000904723 -0.002221878 0.00044348385 -0.001314061 5.3368505e-05 0.0011351345 5.3760672e-05 -0.00068983104 -0.0032750512 0.0008813359 -0.0015695387 0.0007210018 -0.0032866911 0.001374113 0.0023914466 -0.00076382695 -0.00022553562 -0.00062807684 -0.0032775714 0.00022188433 0.0009844569 -0.0013155855 0.0014357503 -0.0037601509 -0.003572962 0.009264761 0.0043124263 -0.0001505007 0.0022350086 0.0017515816 -0.0003098265 -0.001246177 -0.002081763 0.03864649 -0.000112079346 -0.0030539823 0.0006451091 0.0025465023 -0.0034652972 0.0077815936 -0.0009647022 -0.0009375263 0.0056199245 0.0020583451 -0.0027352914 -0.0014514799 0.0022801773 -0.0023483916 0.003461449 0.016890343 0.0008071788 0.0011938281 -0.0002295545 -0.0023507895 0.00025926414 -0.000115182855 0.0030747673 0.0005868733 0.00051414245 -0.00066820567 -0.0019042074 0.0074872198 -0.00029981908 0.00033815936 -0.00017583233 0.011754322 -0.0024259565 0.00055956916 0.0049586967 -6.16203e-05 -0.0008310611 -0.009101516 0.0017645278 -0.007529512 -0.0008328637 0.0070197047 -0.0008770691 -0.0014413018 -0.0039804378 0.011455758 0.00043880174 0.0013420939 0.0015468308 -0.00028162546 0.003100486 -0.009855587 0.0011053637 0.0028127402 0.0017344771 -0.0014388293 0.0023706204 -0.0016606464 0.011585025 0.004960487 0.0013174157 0.0019954792 0.0014736198 -0.0018097123 0.009974506 0.008579069 -0.008571331 -0.014630022 0.0020367876 -0.00013497609 0.00029393984 -0.0020625477 -0.0029626074 -0.00064842723 0.0001214973 0.00057365693 -0.00089323346 0.004855125 -0.0006449679 -0.0005266745 -0.002537611 0.0010424228 -0.0005691614 -0.0032526683 -0.0015985735 -0.00012388025 0.0009393909 -0.00047935316 0.0023490237 -0.00035313738 -0.0012025437 0.00042427354 -0.0014727042 0.002478835 0.002010903 -0.00030579796 0.00063225086 0.00046901713 -0.0012426091 -0.019010082 0.00013967669 0.0015197776 0.008631145 -0.00024935824 0.017214445 0.0018231503 0.0008215529 -0.003566966 -0.0003760704 6.19149e-06 0.001325866 -0.006614864 -0.0030927053 -0.00010474235 0.052614946 0.0011034206 0.00011041471 -0.00066523516 0.044165574 -0.0006933693 1.4290519e-05 -0.00036732308 0.002720427 -0.0010487904 -0.001263246 0.0010295577 0.00028064902 0.0011427759 0.00075425714 -0.007352544 -2.211904e-05 0.0003896846 0.0009958332 0.0005629695 0.0038427955 0.00047204102 -0.0015792897 0.0007787318 0.0019691181 -0.0045326836 -0.0042258217 0.0007639328 0.004126822 -0.00257571 0.0019264553 0.0007257951 -2.051042e-06 0.002585715 -0.0033763421 0.003440824 -0.0018323258 0.0018924316 -7.2373114e-05 -0.0053292783 0.002589431 0.004509187 0.0014659817 -0.0027132386 0.0003751145
