-0.0012719295 0.00047425338 -0.0016225121 0.0012908842 0.0007004555 -0.0003864664 0.0014986073 -0.0032510064 -0.000500214 0.00052303646 0.0019561104 0.0002908206 0.0016602088 0.0006557096 0.00044064288 0.0015923057 0.00038828817 0.002135863 -0.0001592572 -0.0003422904 0.00019057923 -0.0057852822 -0.000903675 0.0015579232 -0.00084018655 0.00037099962 -0.001963639 -8.511173e-05 0.007770401 0.00022696241 0.00038711543 0.00024402988 0.00048720394 0.00027450718 -0.000671178 0.00040977765 -0.00036727433 -0.0012392486 -0.0012391153 -0.000437873 -0.0003818756 -0.004965508 0.0018319112 -0.0020921936 -0.0023794612 -0.0017410925 -0.004062034 0.0015852439 0.0001757801 -0.0023947025 -0.002741919 0.0001305757 -0.0015631916 0.00017214548 0.0005180928 -0.00095290865 -0.00048381978 0.0008955473 0.0011518623 0.00044202173 0.004483958 -0.0003221725 -0.0002118167 -0.0005932598 0.00070324884 1.1133735e-05 0.00093467836 0.0001781108 -0.0005447835 -0.0008335812 0.0005161543 -0.00068539014 0.0010855265 -0.006090845 0.0006414677 -0.0019868645 -0.0006651939 0.0011611197 -0.000425186 0.010145119 0.0015216422 -0.0024079187 0.00066608144 -0.00035407546 -0.00047581273 -0.00065097807 -0.00060075306 -0.0013819936 -0.00033261624 -0.0010513895 0.0007533337 -0.0087207 9.022906e-05 -0.00015495544 -0.00030541766 -0.0011602256 -0.0016662071 0.0017587865 0.0002853084 -0.0006775476 3.5050332e-05 0.0002408395 -0.0021025385 0.0015213136 0.0020730433 -0.004471537 0.0027526314 -0.0007527913 0.0012155598 0.00015842827 0.0013172401 -0.0023986797 0.001225135 0.00087194424 0.00028717596 0.00032378722 -0.005063779 -0.0009228436 -0.003933312 -1.50674105e-05 0.00029676108 -0.000962832 -0.0009481211 0.0019411986 -0.00017771518 0.00010673019 -0.00333848 0.00067617086 -0.0019459319 -0.00022707641 -0.0018592037 -0.0019421024 0.0010430044 -0.0017079068 0.0007687001 -0.0013200996 0.0030252005 -0.0019301679 0.0002792502 -0.0022851105 0.0005576434 -0.0023532826 0.0006727697 0.0025843615 -5.3837426e-05 7.750604e-05 0.00064778724 0.00081641367 -0.0009342699 -0.00028816162 -0.0008949776 0.0004381582 -0.008022276 0.0016310099 5.3626703e-05 0.0004930021 0.0020414991 -0.002036569 -0.0030817287 0.0014168964 -0.0005484505 -0.0026233816 -0.0032076968 -0.003242727 4.4780558e-05 0.0016870889 -1.6135458e-05 -0.0052337768 0.0010726295 -0.0007652514 -0.0005365451 -0.0022648803 -0.0013085491 0.00022870899 -0.0012334103 0.00030433811 0.0016934829 0.00064657326 -0.00048632387 0.00040727947 0.00016538265 0.00080373796 -0.0010824996 -0.0021676377 -0.0009954057 -0.0010913792 0.00048775 -0.0018600001 -0.008022504 0.00843718 -0.003993731 -0.0013177429 -0.0019964925 -0.0031470517 -0.0032686477 0.00051488617 -0.0015565217 0.00063082814 0.00050286535 -0.00082781113 0.011158042 0.00091858406 -0.00094046514 0.0037017432 -0.0019241143 -0.0010716027 0.0011559965 -0.001219635 0.0018690961 0.0004004026 0.0039954027 -0.0011203235 -0.0017605275 -0.00034512236 -0.00066332205 0.0021547177 -0.00080184813 0.00086831674 0.001111998 0.003647168 0.0021809638 0.00042578645 -0.00085103593 0.0008617006 0.00076138857 0.0031089361 -3.744878e-05 -0.0016102835 0.0012346302 0.0020431106 0.0031412537 -0.00023808722 7.538283e-05 -0.00010084105 0.0011358182 -3.8000133e-05 -0.0008010251 0.0030607642 3.8619215e-05 0.0010094205 0.006086899 -0.0008511332 -0.001971152 0.0006402479 -8.1638165e-05 0.00044609103 0.0011131066 0.0024420042 0.00031984935 0.0006674249 0.00090441015 -0.0008334998 -0.013196513 0.0006800574 0.001330183 0.0012502561 0.000106671396 0.0018984976 0.0005337251 0.0006156707 -0.0012960259 0.0009251099 0.0016668682 -0.0012794649 -0.00047573796 -0.00058047136 -0.00091272534 -0.0013390277 0.00013890481 0.0018661055 0.00070171297 -0.0023871202 0.0018107428 -0.0011163015 -0.00031311382 -0.0016639445 -0.0010578529 -0.00064339995 0.0021187551 0.0014457682 -0.0013670455 -0.0026584566 -0.00045990682 0.0028095006 0.0005326432 -0.0015552022 -6.858382e-05 0.0012259317 -0.0007602149 -0.00011857653 -0.0006202242 0.0013120997 -0.00028008915 -0.0002615871 0.00040248132 -0.0012788594 -2.813138e-05 -0.00048196482 0.00054167106 0.00029159946 0.0005533324 -0.00072049856 0.001592526 0.0023200354 0.0023355216 0.00029849913 0.0017901817 -0.00014197288 -0.0015759951 -0.0019161815 0.00038784894 0.0013596234 -0.0009459109 -0.0008007661 -0.0004962109 -0.0025051837 0.005463459 -0.00064879336 5.537699e-05 -0.00031821599 4.3980335e-06 -0.0017278307 -0.0011707599 0.00049879425 5.523138e-06 0.0015641227 -0.001129541 0.0028994656 -4.0644572e-05 0.0027350155 -0.0010391516 -0.006007689 9.9461584e-05 0.0036172061 -0.000974352 -6.2925224e-06 0.0005517611 -0.0006176412 0.0020103536 0.0009508179 -0.00075187976 0.0018109175 0.00059673487 0.0012012317 -0.00050097366 0.0015408387 0.0010555618 -0.00037465864 0.000107643755 0.0010321434 -2.3632227e-05 0.00033136163 -6.729855e-05 -0.001037562 0.00016085376 -0.0003851356 0.00819677 0.0010486015 -0.000681759 -0.00802563 -0.0015765099 0.00069501705 -0.0008020456 0.0011497503 0.0014431351 -0.0059940186 -0.00025030164 0.0031081117 -0.00038657535 0.0033856118 -0.0010216091 0.0051373225 -0.0007031136 0.00085777487 0.00070524984 0.0024017731 -0.00069544924 0.00036948393 3.222426e-05 -0.0067867716 -0.00034875763 0.0009331616 0.0030188605 -0.019793373 0.004019345 -0.00266763 0.0011618132 5.654657e-05 0.00023648086 -0.0039250045 0.0013517304 0.0023771427 -0.0004133322 -0.008073421 0.0068119043 9.558235e-05 0.0015641104 -0.0058397385 -0.00053592783 0.0026251005 -0.00020834418 -0.0005499974 -0.0023233837 -0.00036952875 0.0009240463 -0.009029476 -0.0016669503 -0.00049613306 -0.0013871402 0.0011852216 -0.00019605346 0.00035968752 -0.0016927128 0.0007601327 0.010447378 -0.0032285757 0.0007091416 -0.0032827302 0.001443237 0.0010883793 -0.0008141291 0.0019455372 -0.002607096 0.00031553424 0.00013013094 0.0017709319 -0.0013310661 -0.000488635 -0.007088443 -0.00093489786 -0.0026915304 -5.5724122e-05 0.0011319222 0.00246845 0.001085372 0.001550042 -0.0021869543 0.0022002712 -0.0012058154 0.0005426346 0.0005642284 -0.00046308283 -0.000508558 -0.00048362333 0.010024567 0.0037128858 -0.00025441239 -0.0004327409 -7.241275e-05 0.0016685099 0.00030498568 -0.017554268 0.00010421826 0.002378326 0.0019672834 0.0007407465 0.02634045 0.0017366699 0.003982221 0.0015104703 0.00044321726 0.0014737664 0.0017741561 0.00030369428 -0.0012903784 0.0017946272 -3.9144026e-05 -0.000865043 0.0004345772 0.00015451289 0.00071174797 -0.0011516882 0.0007587691 0.0033992536 0.00026604277 0.0015010005 -0.0022540588 -0.00038658222 0.0028645936 0.0006044919 9.23259e-05 -0.0005329772 0.0018276752 0.001334817 0.006271891 -0.0020269 -0.0031738298 -0.00801247 -0.001134805 0.0008189235 0.0021013122 -0.00032883073 0.0005658663 -0.00017819421 0.0009076204 -0.00038457446 0.0022065598 -0.0015714624 0.00046830013 -0.0020095815 -0.0024451665 0.00017220477 -0.00039832576 -0.00011394114 -0.0019452812 0.001476963 0.00038328127 0.0018952249 -0.00076886703 0.0011051126 0.003713046 0.00044054913
-0.0011079686 0.0016943454 -0.002663792 -0.0018682128 0.0032205253 0.0026427435 0.0032796108 0.007967855 -0.0016237458 -0.00060021406 -0.0025723358 -0.003044716 0.0024888127 -0.004114422 0.001503484 0.0040516895 3.77292e-05 0.011042333 -0.00059818086 0.0016087771 0.0036914856 0.00043209977 -0.0008928544 0.00025397688 0.0034673333 -0.0012578563 0.0040375823 0.00052074075 -0.0042845174 -0.000121409525 -0.0027897204 0.0006458321 -0.00086274534 -0.0038568533 0.0034374136 -0.0011098613 -0.0033502558 -0.0068964073 -0.0008912471 -0.00070412457 -0.0034908715 -0.00016950171 0.0028366328 -0.0056032226 -0.0032674186 -0.005998112 -0.004730369 0.0029490208 -0.00043227393 -0.012229394 0.024425093 -0.0029399619 0.000983352 0.0019291859 0.008260255 0.0011288002 0.0038294932 0.002940848 0.0030030294 0.0071049635 -0.0047212285 -0.0019342032 0.0016215399 0.0025037494 -0.0023223679 -0.00075269246 -0.0024907892 0.00019401024 -0.00084166875 0.0026671563 -0.0018670706 0.0035213404 0.001953985 0.0027222033 -0.0007046018 0.0005932143 0.018487085 0.0010829192 -0.001638502 -0.000739944 -0.0036775968 0.0045826756 -0.0029852393 0.003997644 0.000965359 -0.0011423278 -0.001024832 -0.0014662452 -0.0065869284 0.0022420608 -0.0016505473 -0.026925182 0.0033599911 -0.00023501737 0.0010848 0.0053475625 2.9326591e-05 0.0016617217 -0.0010060999 -0.0028525393 -0.0031425748 -0.0027918909 7.608706e-05 -0.001000166 0.0024014188 -0.0004063027 0.0014226414 -0.00031748536 -0.000231708 -0.0012916173 -0.00082067103 -0.0014875081 -0.0016064122 -0.004009244 0.0020801208 0.0044340226 -0.008366218 -0.00065725076 -0.0014171201 -0.008236502 0.0007160262 -0.00030214712 -0.0008370194 -0.01434574 -0.003096456 0.00045021152 0.0026827704 -0.00015319155 0.0047771577 0.003342901 0.0034332396 0.0030092224 0.0027407035 0.0017249158 -0.0010216812 0.00045416376 -0.0018113867 -0.0009170163 0.023545131 -0.0014058481 -0.012261962 -0.0024208429 -0.021452816 0.00012744518 -0.0030884051 5.5867124e-05 -0.001628719 0.0011936864 0.0013527992 -0.00095710845 -0.0018604564 -0.0029174369 -0.00018983839 -0.0015776459 -0.00021139625 -0.0030348762 -0.00012200682 -0.012134785 -0.0006137737 -0.00241817 0.0011669532 -0.00041468916 0.005522873 -0.0009859857 0.0037486064 0.00057568954 -0.00037989655 0.00043136827 0.0047696764 0.0017326947 -0.0076446165 0.004382874 0.0023407901 -0.0060479757 -0.0002835305 0.0017716981 -0.011179885 0.013720337 -0.0008851051 0.0031894413 0.00019037187 0.0059822947 -0.0016025164 -0.002134566 0.0006601216 0.0007608746 -0.0008042951 0.00781058 -0.00011795333 0.014136264 -0.0040192036 0.0019186215 -0.0011063212 0.0019803206 -0.00085102255 -0.0013486483 0.005595943 0.0017067034 0.0014794209 0.022686044 -0.0020965214 0.0057206084 -0.0030193727 0.0078013083 0.001163224 0.0011515731 -0.0012337002 0.0059764064 0.00069196534 -0.0015813938 -0.00929815 -0.00072986854 -0.0020353256 0.0029620142 0.00013047969 0.00948604 -0.0006318468 0.002137217 0.0019100232 0.013258338 0.004325724 -0.001186147 -0.011060942 0.00064960186 0.0035508212 -0.005015174 -0.0044155098 0.00461778 0.00070062553 0.0071106157 -0.001662141 0.00058617885 3.380256e-05 -0.00018132362 0.0030445603 -0.0023754458 0.0015220047 0.013831289 0.0010503753 0.0022205343 0.00025780217 0.0069355043 -0.00078662264 -0.007510879 -0.0012006441 0.000414893 -0.008269357 -0.0010531994 0.0017676387 0.007026676 0.005930723 0.00091829227 -0.0072295647 -0.0011231476 0.0010771751 0.0035941768 -0.0011665164 0.0026090029 -0.0013367414 0.0026157624 0.0019688986 -0.0024252431 0.0024093862 -0.00040232082 -0.002151738 0.0008568733 -0.0010418295 -0.0132302195 -0.00084055396 0.00030299093 -0.0034286429 0.0066199033 -0.0008813761 0.0012794405 0.004505684 0.0019249673 -0.0014401539 0.00015684588 -0.0027561993 0.0026269106 -0.021182433 0.024705252 -0.0024985336 0.0033199568 -0.0035148407 -0.0005919411 0.0016065324 0.0016562518 0.0020656178 -0.004320909 0.0033231406 -0.0073575107 0.00027056763 0.00027273636 -0.004203795 0.020589074 -0.0033746236 0.0013888369 -0.0052088816 0.0016107208 -0.0011600631 0.005836692 0.001340954 0.0011975288 0.0008355741 0.0005387358 -0.00064945145 -0.0013845033 0.003135357 0.001908838 -0.002590458 0.0009958098 0.0032732836 0.0029058303 0.0015703839 -0.025686167 -0.009128349 0.0057111657 -0.0016213278 -0.004506022 -0.0015684809 0.0027826389 0.002400429 0.002557394 0.00071474054 -0.0030326713 0.001598254 -0.0018893257 0.00016785582 -0.0007936301 7.109415e-05 -0.007397886 -0.0022129284 0.0016015574 0.0032072668 0.002181179 -0.0015116708 0.0007783126 -0.0010853896 -0.0006701559 0.0002259279 -0.00064111763 0.01735391 0.001996023 0.0022645488 0.001933764 -0.0013364226 0.0010298663 -0.0041049817 0.0045580817 0.00045381568 0.00149483 -0.0016356137 0.0034154197 0.00053390313 -0.0021014854 0.0139685385 -0.00029827637 0.0046622534 -0.0009956376 0.0016213025 0.0008138606 -0.0010052267 0.0053996975 0.0021844415 0.00042004482 0.00082732184 4.2346444e-05 -0.023001516 -0.0022506395 -0.017039564 -0.0039860113 0.0039856713 -0.013355393 0.0012300012 0.0023357582 0.0011491877 -0.013126497 -0.0018215645 -0.0076835346 0.0004244881 -0.0002488166 -0.012644578 0.0003388701 0.0076753465 -0.018249419 0.00043501964 2.7211721e-05 -0.013704332 -0.00080881047 0.00078505423 -0.0004209544 -0.0017875948 0.012705588 -0.001835717 -0.0068174107 -0.0032965413 0.012382955 6.0388054e-05 -0.002230641 0.0053553865 -0.0067445566 -0.016649349 0.0006008574 -0.0005737629 0.0053962586 0.0010087843 0.00031170342 0.0031530827 -0.0017581846 0.006961196 0.0055254265 -0.0033824851 0.0026435207 -0.010229901 -0.005809311 -0.0006237284 0.00067767914 -0.0009206118 9.8255936e-05 0.0003292777 0.0016082776 -0.0032953483 0.003144637 0.0034062106 0.0040129637 -0.002093774 0.0032804569 -0.00436645 0.002391807 -0.0029332673 0.005837755 0.0062785065 -0.008369332 0.0003760838 -0.011347962 0.000114509305 -0.001944739 -0.001394534 -0.0028322411 -0.002202438 0.011564393 0.0026598235 0.00091179146 -0.003855645 -0.02344602 0.0041786246 -0.0014603443 -0.0010513328 -0.0020449897 0.0017476189 0.024835464 -0.00045983182 0.00629545 -0.0023113277 0.0021189689 0.00449411 -2.5705393e-05 -0.006174765 -0.0037218877 -0.0014064217 -2.64398e-05 0.0016528099 -0.0017138077 0.0015779185 -0.0018005655 -0.0025197798 -0.002334737 -0.004997577 0.0043303207 -0.0047972053 0.0018105383 0.0026310894 0.025101583 0.0012175543 0.0021631857 0.0007246519 5.7882507e-06 0.0017403091 -0.002862549 -0.0047809426 0.0018794871 -0.00011926952 -0.0012622933 0.013773893 0.002483729 0.0024284986 0.0033299124 0.0022981772 -0.0014812057 0.00039090132 -0.00052272587 0.0013981508 -1.1168886e-05 -0.008967551 0.00088051637 0.00059394643 0.00092626794 -0.0048113484 0.0040742564 0.0009047423 0.0016086297 -0.0024944171 0.0041568573 -0.0020752675 0.00024043946 0.001156073 -0.00028546335 0.0015332737 0.0012356509 0.019566655 -0.020533707
-0.0030882517 0.00090508984 -0.004796142 -0.002134188 0.003329913 0.0014440838 0.003285917 -0.0039194 0.00052422663 -0.0010359477 -0.001802229 0.020135574 -0.00019200888 -0.002530063 -0.0017445525 -0.007756957 0.0055276616 -0.007007391 0.00064798596 0.0027919642 -0.0021467044 -0.0353234 0.00021169495 -0.002447446 0.0032893035 0.00017586119 0.001891777 0.0015641858 -0.030293882 0.00092294463 -0.0038577795 0.00037684198 0.001780576 0.005521837 0.0071356418 0.000733022 0.001863589 -0.013773365 -0.0020413934 -0.001927936 -0.0005727849 -0.008071353 -0.0011180376 0.00035748893 -0.000108252054 0.0036963867 7.5411466e-05 0.00010493459 0.002339708 0.011957623 0.0032032551 -3.5061286e-05 0.014660037 -0.004448641 0.00027120064 0.00012122214 0.0053536016 0.018069506 0.0047955485 -0.024044812 0.008874581 0.0022525259 0.0050207805 -0.002292015 -0.003710827 -0.00062929984 -0.0025489612 -0.00066230784 0.00031870056 -0.00095382094 -0.0014013452 -0.00072243746 0.0028924665 -0.010544147 -0.0018478214 -0.00035723756 -0.009751365 -0.0025287983 -0.0005450857 -0.0013437163 -0.007977095 0.013018544 -0.0021205596 0.0011343808 -0.0047237077 -0.00087724405 0.00090618373 0.017884314 0.0011312714 0.003024546 0.003235865 -0.0037554894 0.00077214267 -0.0052367263 -0.002817536 -0.0035849684 -0.0034940941 0.005720673 0.0033794525 -0.0008892893 0.006554733 0.0035699524 0.0013787431 -0.0035559456 -0.004865636 0.010765307 0.0016246851 0.004570478 -0.002442727 0.0059859017 -0.005607196 0.005818839 0.004747201 0.003657336 0.0057766545 -0.00481868 -0.0038805797 0.0036724925 -0.012120353 -0.018150095 0.004549622 -0.0041970485 -0.0023771492 -0.009396483 0.0037893774 0.0021877815 -0.0019099407 -0.0057067303 -1.5191247e-05 -0.0072695613 -0.005372339 0.004808325 0.0016899758 -0.00094363507 -0.0032665592 -0.0034888783 0.0015286085 -0.0018141821 -0.013747434 0.0026785408 -0.0032134566 -3.1731503e-05 0.0008084788 0.0031470384 -0.00031203937 -0.0025949543 -0.0044480865 -0.004281928 -0.0030290354 -0.0040901145 0.0047753495 0.00081124133 0.00711786 -0.0014812489 0.0023158388 0.0025191114 -0.00019708577 -0.0033235503 0.0062732664 0.009087246 -0.006840336 -0.0054168706 0.006460597 0.0042679114 -0.0039520226 0.0012195504 -0.0032762145 -0.01769058 0.0007644307 -0.00015771006 0.0077710794 0.018654726 -0.00091852783 0.0031074057 0.0003171057 -0.0015218566 0.003725067 0.011963094 0.0021635296 0.0014288715 -0.000191925 -0.0012661035 0.0028972996 0.0032112924 0.0027992453 -0.0019293724 -0.0013310668 0.0152996825 -0.0022348347 0.0069695404 0.003315844 -0.00047839552 0.002302064 -0.0035986686 0.0021473558 0.035870343 0.0004758531 0.005474844 -0.0042676856 0.017209282 -0.008658461 0.0064114975 0.0018963832 0.015551966 -0.0012037496 -0.0048661227 -0.003134476 0.0010185787 0.0019180415 -0.002866789 -0.034131013 0.004162561 0.0030908724 -0.0032743844 0.0030801597 -0.010382922 0.00395551 0.0014849586 -0.00029005413 -0.0011518059 0.002780468 -0.0011023611 0.0059790374 0.0030666632 0.008634136 0.008820529 -0.005590164 -0.012044761 0.0027822298 0.009216244 -0.0013226472 0.002666625 -0.0027331244 0.00030149688 0.004187289 -0.0003370648 -0.0011622383 0.009628117 -0.0065583573 0.0019614426 0.014402039 0.0021565987 -0.0031046446 -0.0065166745 0.0017510995 -0.0037240672 -0.014488943 0.0020909228 -0.003501882 -0.014262795 0.00027109057 0.0002138034 0.015208413 0.00089092675 -0.0008835536 0.0033571671 -0.006685165 -0.00066932855 0.006072667 -0.0022375877 0.0014072377 0.00360839 0.003776973 0.0022533245 -0.0069128964 0.003573597 -0.00019607224 -0.004458905 -0.0025212541 -4.644816e-05 0.0014150528 0.02884493 0.005226397 0.009927268 -0.0010329214 0.0012562594 -0.0028928681 -0.001959205 0.0032219796 0.0009494304 0.017724954 0.02059656 0.0030720853 -0.00084948406 -0.00286746 -0.0012221496 0.0028962465 -0.0014609699 0.0026126879 -0.00092508236 0.000925453 0.012233452 -0.0022044329 0.0043836273 -0.0052076653 0.018532723 -0.0023800766 -0.0004865682 -0.0014721785 -0.0019041125 -0.0028747069 -0.001235071 0.0026439114 -0.002414522 -0.0020002762 0.0004962923 -0.0008540948 0.0022094017 0.000102934035 0.0049349265 0.0029923322 0.0027238883 -0.0011812885 0.0039267694 -0.005437232 -0.0022140876 0.005615296 -0.00075627456 0.00517064 -0.007148861 0.0007382191 0.00065788196 0.0012800256 -0.0067360145 -0.00081700593 0.004072845 -0.0003047245 0.0036296106 -0.0012412597 0.0037208553 -0.0030484216 -0.0010214166 0.0010591518 0.0014135381 -0.0026482905 0.0051014624 0.00074742973 0.0022265294 -0.0044071446 -0.0017133079 -0.0029014165 0.0034017188 0.0048877313 -0.00018095842 0.007770716 -0.0014371413 -0.001558107 0.00018102616 0.0048473245 6.736995e-06 0.0022835021 -0.0010543843 0.0018233486 0.005999117 -0.003636618 9.8538214e-05 0.007125862 0.002645513 0.011494144 0.007301172 0.002268792 -0.0019705507 -0.0007525682 -0.0014536368 -0.0015210677 0.0029985113 0.0051835775 0.0017636685 0.0017673236 -0.0029616507 -0.0023085352 -0.008623556 -0.009005953 0.009013004 -0.006295247 -0.02021897 -0.0022531112 -0.0107429465 0.0022881576 0.0029668203 0.003976685 0.0016993606 -0.0025964035 -0.02202625 0.006611068 -0.010035558 -0.0041511925 -0.005870468 0.0057058274 -0.004611845 -0.0026192353 -0.003887907 -0.0044504325 -0.008061132 -0.02292367 -0.003666986 -0.0029179608 0.0016927464 -0.0032071199 -0.00040724676 0.0015062205 0.009474541 -0.0062056403 0.0027205977 -0.00086032756 -0.009408829 -0.001215201 0.000102413935 -0.000889808 0.0017858776 0.0036102321 0.00026149309 0.0008246826 0.002077747 -0.008620674 -0.0067066783 -0.002914246 0.02556294 0.005706616 -0.00011867927 0.0019316218 0.0020665564 -0.0032695234 0.0040058424 0.0021445712 0.014406016 -0.0006268396 0.004216947 -0.01936407 -0.0009277824 -0.00042218843 -0.0039915396 -0.0027754633 0.004188712 -0.0010831528 -0.006746892 0.0025461216 0.0028093543 0.00067920226 -0.0053686253 -0.0026445603 0.01898162 0.0016476685 -0.0007687862 -0.0071084597 0.0034567206 -0.0015221745 -0.00032756838 -0.00057399744 0.000506976 0.00060555874 0.0035031568 0.00017278272 0.008420242 -0.0013352499 -0.0048036366 0.018863088 -0.0028465847 -0.0042902892 -0.00749504 0.0030765897 -0.0058929827 0.007710937 -0.0030749014 0.00355738 -0.00013338283 0.00029861307 -0.0038532028 -0.0059203184 0.0019061569 0.0023115776 -0.007389464 0.00085560395 -0.0069549205 -0.002443858 -0.002897691 -0.0055596093 0.004630012 -0.00041638978 -0.004202013 0.005051909 0.0012322648 0.0015785495 0.0030623234 -0.005648274 -0.012669114 0.0064879293 0.01366471 0.0006380924 0.0015636504 -3.4258435e-05 0.014422588 -0.0015424325 -0.010016429 0.007904251 -0.009553591 -0.0030180754 0.00019463545 -0.009681868 0.0017035876 0.0039675077 0.0066817733 0.0015432218 -0.00010818552 0.0014900015 0.0071283476 0.0016648901 0.00010125632 -0.0027648401 -0.0020509912 -0.020769102 0.014628558
-0.0049956217 -0.00035596645 0.0057162615 -0.00013701331 -0.0011202384 -0.002046053 -0.0008186329 -0.022859769 0.00425217 -0.0031458254 0.0014674556 0.02242035 -0.0014772195 -0.0008828102 0.0033362925 -0.0047468455 -0.00041746494 -0.0116497055 -0.003563057 -0.0014938039 0.0023358068 0.03481877 0.0018932814 0.0020319642 0.0034502563 -0.0029674827 -0.0010257338 0.008399775 0.041884925 -0.003928762 0.0016588946 0.0059896642 0.003161639 -0.006437801 0.0013724652 -0.00451541 0.001815581 -0.0064784694 -0.00041597613 -8.3388026e-05 -0.00082276575 -0.004538932 -0.002377735 0.0007199154 0.0055434387 -0.0039201914 -0.0051962547 -0.007033104 0.00040932425 -0.009409588 -0.016980875 -0.0038257737 -0.011328337 0.0025399127 -0.005212615 -9.560295e-05 0.00034423172 -0.0019714509 -0.0007992709 0.006508888 0.001579096 -0.0018917127 0.0035093415 0.0029619064 0.008291462 -0.0049146726 -8.011429e-05 -0.002562069 -0.006235365 0.00537303 -0.007705883 0.0002573378 -0.001568361 -0.01803726 0.0027829527 -0.00525043 0.0016358236 0.0011365907 -0.004170593 0.007457317 -0.001245121 0.00450094 0.0026450267 -0.0027414882 -0.0028348223 0.00013439781 -0.00035071906 -0.0276998 -0.001354266 0.0038404544 0.0018071108 -0.00888645 -0.00268468 -0.0025570944 -7.679485e-05 0.0015332428 -0.0008166251 -0.01482509 -0.0036896872 0.0013889901 0.0013933708 -0.0009152376 -0.0005076822 -0.0014264986 0.0010593216 -0.0017657636 0.0033131803 0.00027922852 0.0011876691 -0.005812817 0.004191513 0.0008970454 0.004429646 0.00055552553 0.0035287603 0.00521626 0.009709497 -0.0043958095 -0.0025730093 -0.0037532486 0.005018247 0.0014986558 0.0017903133 0.024075886 -0.005777377 0.0057783616 0.0011667116 0.0045907553 -0.0030120846 -0.0022089167 -0.005618475 -0.0027056905 -0.00077537575 -0.0010407929 -0.0040327245 0.002870746 0.0050180345 0.017607428 -0.028397262 -0.00028764262 0.028008576 0.0027339892 0.0009621052 0.0065261736 0.0006220038 -0.0022077993 0.002982063 0.018750388 0.0040718606 -0.0060704295 -0.0018569367 -0.0032995956 0.022399632 -0.0052415254 -0.0010581844 -0.00013446076 0.0008891071 -0.0036830937 -0.0018582867 -0.007584178 0.0030400893 -0.001982947 0.016963787 0.0030948014 0.0007978381 -0.0012605493 -0.0007579211 -0.04183816 0.0034759801 0.0015068267 -0.0025676312 0.017080644 -0.0020708418 0.0012940306 0.0024431457 -0.0046911864 0.013230644 -0.000994184 0.0019846063 0.0014072264 0.002953514 0.00034813985 0.0015090066 0.00086923374 -0.0019234584 0.0005886594 0.0016443636 0.050649256 0.0047385115 -0.007879708 -0.0015653839 0.00097319036 -0.022010302 -0.004562022 0.0005750004 -0.012326808 -9.410323e-05 0.011833368 0.0065816874 -0.025255997 -0.022743298 -0.0008368186 -0.0006292989 -0.033249598 -0.008106342 0.001978612 0.0009918971 0.0065084198 0.0027737673 0.0051018675 0.004587234 -0.0039402302 0.0024968828 -0.002526786 0.00058904 -0.0034217827 -0.0018557573 -0.0019805278 -0.002119681 -0.02747297 -0.010961151 0.00040653828 0.023166085 -0.0012179136 -0.02249501 0.0064482843 -0.0014491079 -0.000864092 -0.0030467622 -0.0014583734 0.0060454104 0.0013083626 -0.0064044734 0.0010636463 -0.0022465398 0.0032355543 -0.0013499098 0.012904324 0.0030578133 -0.003139265 -0.0045400313 0.005101257 0.00800178 -0.0050585098 -0.004106324 -0.0022682336 -0.014071593 -0.0031910138 0.0063243588 -0.007038346 -0.0017930365 -0.002366155 -0.020332564 0.004397992 -0.002367138 -0.0044852374 0.0017128146 -0.0015276107 0.0022416962 0.001175798 0.0016379954 0.000458176 -0.0020121683 -0.001900979 -0.0053467164 0.006448571 -0.004515808 -0.01858063 0.001579901 0.00014820324 0.002378118 -0.018978594 0.0018452833 -0.018103756 -0.0023470195 -0.00046629822 0.00059245166 -0.0011080458 0.003965016 0.0026331926 -0.014503695 -0.03982445 0.0029308372 -0.0036740652 0.00022078976 0.0020465136 -0.0012051015 0.0022557192 -0.00073356996 -0.0017458169 -0.0052879136 -0.0048491783 -0.0049633984 -0.0027056078 0.0135439355 -0.01863355 0.0010198707 0.003290542 0.0027231548 0.00110821 0.002675248 0.015488788 0.001843686 -7.400636e-05 0.00607003 0.00061785197 -0.0017230558 0.00013699927 -0.002080688 0.0013522095 0.0042330003 -5.8122598e-05 0.0038515513 -0.0034010005 -0.007257274 0.0057984926 -0.0012437148 0.0008183849 0.0014612296 -0.007498408 -0.00019127702 0.0011120783 0.0021016144 -0.0049970397 -0.004381705 -0.0010394831 0.00040381483 -0.0016230844 0.0013545161 0.0015276993 -0.00026818342 0.02859669 -0.0012938572 0.012156099 0.0009544963 -0.0039015242 -0.0008589927 0.00043062202 -0.005122089 0.0009560065 0.0028025142 -0.0049640196 0.019914858 -0.0026084895 0.01092171 -0.002439512 -0.0044367225 -0.0007469919 -0.0010284974 0.0008662724 -0.0038758402 0.0002207271 -0.0055851443 -0.00028339704 -0.0032877098 0.0048419544 0.007409224 -0.00017472984 0.014280615 0.013076541 -0.0022067796 0.0018766295 -0.00066902424 0.00040343052 -0.020636821 0.0001480083 -0.00085100223 -0.005792991 0.012110444 0.0009366374 -0.009489175 -0.020763451 -0.011691994 -0.004558545 0.0031928276 0.011112884 0.001211035 0.010255665 -0.0024078856 0.004827779 -0.0016389176 -0.0015503159 -0.027212335 -0.008903469 0.0022611807 0.003215021 0.005586578 -0.0013933233 -0.010126539 0.0041227583 0.00016481467 0.0014794165 0.004524671 0.0060016923 -0.0019192832 0.009038802 -0.0014856394 -0.027427321 -0.0032534194 0.004975484 0.029037885 0.00703304 -0.00724565 0.0010117476 -0.0035968 -0.0017663338 -0.0023587043 -0.0016242464 0.0035138007 -0.00063957134 -0.013396344 0.00073809136 -0.0011392606 -0.0026911406 0.001371124 0.0022544384 0.0002193432 0.0013184466 -0.0018917545 0.00084013195 -0.00453718 0.0031563912 0.03285527 0.0001645187 3.4770754e-05 0.040223245 0.016014455 -0.008787262 0.025770588 -0.0005359081 -0.002879189 0.002599859 0.00203392 -0.0062867883 0.0032296274 0.0061473055 -0.001912177 0.010137417 0.0056287367 -0.0048913583 -0.0033220665 -0.010430875 -0.0022166513 0.00073488214 0.024506636 0.015307224 0.0034980243 0.0037317832 -0.0003837064 0.0014067858 -0.0011840689 -0.0026822612 0.0014236559 -0.0031892846 0.00021162051 0.0004650845 -0.018460708 0.004568179 -0.008278829 0.0015924632 0.0064568487 -0.00017506664 0.00023067935 0.0019107184 0.004465413 -0.00066223455 -0.0042273575 -0.00022947577 0.014741808 0.0027787087 -0.004759318 0.0015649968 -0.003171171 0.012313607 -0.0014886932 0.0018337485 0.031316683 -0.0048786686 0.003508384 -0.002030665 0.016857227 0.0015532513 0.0053136153 0.0018595448 -0.0056925723 -0.008798981 -0.006802363 0.0061440086 -0.0026710732 0.0027326576 0.0048918827 0.0159937 -0.00027456612 0.005863508 0.0074296617 -0.013812936 0.021658663 0.0009819109 0.005300329 -0.0003391122 0.0030534717 0.0021927592 -0.0008429868 0.006269902 0.0050368444 0.012347338 -0.0014435636 0.001361578 -0.00192534 -0.0045570494 0.009387564 -0.0047789803
-0.0033868542 0.00011381562 -0.011379199 -0.0028321294 0.0006688018 0.0026702394 0.001514996 -0.0153335305 -0.0045691654 -0.004302682 0.0016055385 -0.008637225 0.0044909664 -0.0035866438 -0.001566571 -0.022025518 0.0032204452 -0.032279 0.0049971123 0.0010975547 -0.0030627267 -0.0022847967 -0.00082971907 -3.9527713e-05 -0.0014655117 -0.00046354835 -0.0020510044 0.00451512 -0.039810035 0.0019183083 0.005634987 0.00096697843 -0.0026174018 0.005140696 -0.0017057775 -0.0034585635 0.0024811185 -0.009329885 0.0008479411 -0.0012080773 -0.001183982 -0.017221395 7.746574e-05 0.00075123186 -0.0027759261 -3.1908377e-05 0.00019210042 -0.00036933605 0.0009453867 -0.016197853 -0.027088758 0.0012267131 -0.009673761 -0.0008762602 0.0047308947 0.0021603256 -0.0010320625 -0.00018205216 0.0004566826 0.0013884807 -0.013328249 0.0007251491 0.00022557842 0.0015229686 -0.0037301155 0.00026309292 -0.0065954784 -0.0058918307 0.0037534086 0.0015276727 0.004114501 -0.0035590467 -0.005608992 -0.008686016 -0.0082937125 -0.0044086766 0.009419872 -0.0008982649 0.0014993112 0.008957237 -0.0033413125 -0.0036609883 -0.002055813 0.0020644718 0.0035828184 -0.0018794001 0.0015837473 -0.008048485 -0.0053576394 0.005114654 -0.00058411056 0.019421482 0.00048105267 -0.0017945485 -0.0052122353 -0.0070984433 -0.00033983437 0.01797669 -0.00079141767 -0.001387979 0.0068347566 -0.0057373587 0.0030653712 0.009288883 -0.0015395023 0.013174519 -0.0018459631 0.002682719 -0.00010400828 0.00013937341 -0.00029480376 0.0052743824 0.0025381818 0.00056995 -0.001271773 -0.0015485457 0.013210302 0.0026153682 0.0074117854 0.0022080273 0.0023926373 -0.00066789676 0.00032147742 0.014153095 0.006513063 -0.00022193775 0.004191187 0.0007501649 0.003126571 -0.005311383 0.0073168245 0.0018240833 0.0049462435 0.0007649158 0.00087457895 -0.0066130734 -0.006309502 0.0047814786 0.0028595845 0.004918942 0.014677453 -0.0021326458 -0.013849115 0.0017552458 -0.0034994234 -0.0021213097 -0.0042989454 -0.013894147 0.0006413651 0.0009221251 -0.0020884082 -0.0004313358 -0.0036229857 0.012537285 -0.0012672126 0.00019753097 0.0014959968 0.0010446204 0.00048360368 -0.003798019 0.007227909 -0.0057421583 0.003205505 0.0075582024 0.002053761 -0.0009790098 -0.003601774 -0.052442867 -0.0016275055 -0.00013720806 -0.027671121 0.017732555 0.00053012784 0.00061427295 0.0042999294 -0.002844475 0.009203445 0.008971761 0.004069644 -0.004357849 -0.0032260322 -0.0075849397 -0.0048585488 -0.0016544806 -0.0011755173 0.0045198416 -0.0017000793 -0.001351774 0.006749098 0.0012077154 0.0012796269 -0.0025661394 -0.032952085 0.016057482 0.00025169368 0.0045844447 0.002938753 0.012958508 -0.00078028697 -0.01571161 -0.004412605 -0.0015240038 -0.0013949355 0.005277883 -0.0033026645 -0.0037809063 0.00018744935 0.0007144949 -0.004049671 -0.00015663813 -0.009885944 0.0075652758 0.0027510184 0.0027026357 -0.002030829 -0.0067415563 0.0020190992 0.0034126719 -0.001734575 0.020554649 -0.002017697 0.00412455 0.021092802 0.0021546285 -0.0145999575 0.007939265 0.005099642 0.0008898012 0.00586539 -0.011032368 0.0026582717 -0.008828052 -0.005958464 0.0015479717 -0.0005520437 0.0019760227 -0.009170212 -0.002433331 -0.0005091181 -0.00080352265 0.0025744266 -0.0003515488 0.0011303858 0.006569084 0.0016972115 0.002043174 0.017420152 0.0011558642 0.0003725424 -0.024378918 0.0020876653 -0.00070608093 -0.007050849 -0.004318993 -0.0010605761 0.004308735 -0.00030332824 0.014924912 0.0020505185 0.0028077448 -0.0024799139 -0.0057855174 -0.0040495703 0.00019562182 0.026129358 2.9061307e-06 0.0017823605 -0.009301625 -0.0032127057 0.0033879273 0.007612618 0.015384271 -0.004015152 0.0070583574 0.00031390353 -0.00511164 0.002299871 0.0051125283 -0.0025247508 0.0008014029 0.00147268 0.015084312 0.0019303008 0.007936696 -0.0026184334 -0.0012522384 0.0030033952 -0.0024085494 -0.0005765276 -0.0014001401 0.0052605085 0.04869749 -0.0010010697 0.00016577163 -0.0026144043 -0.019135641 0.0018492539 -0.0032242294 -0.006097758 0.0034499257 0.0014020484 0.0006077889 -0.0058599855 0.0021320633 -0.0023216929 -0.0009003208 0.004173528 -0.0020501763 -0.0014521374 0.0002413013 0.002653964 0.0006607307 -0.0009522932 0.002203218 0.0008251148 0.004911094 -0.0055973907 -0.0015914019 0.0028691282 0.0005612747 -0.009069926 -0.0018400537 0.0059975493 -0.0067850123 -0.00022443249 0.0024964965 0.0020212699 0.005457044 0.00025294346 0.0015384438 0.004904069 0.015503486 -0.0046840976 -0.0077066803 0.0019288253 -0.00036641085 -0.004696642 -0.0010848675 -0.004776672 -0.009288859 0.004997809 -0.0011765305 0.01078981 0.0027196151 -0.0048645637 0.002097104 -0.004992392 -0.0023812647 -0.0040489337 0.0016825377 -0.0015723165 2.3187076e-05 -0.0044789617 0.0009985641 0.00210081 -0.0021632514 0.10176621 -0.0053307055 -0.0011872292 0.0004645243 -0.002971804 0.0046303063 0.00028644546 -0.0038338422 0.03343531 -0.005354452 0.0040679774 9.145854e-05 0.022858795 -0.00021248883 -0.026199723 -0.008825406 0.014300978 0.022290967 0.001159214 -0.010567408 -0.00084967865 -0.007503149 -0.0012055645 -0.008024829 -0.004438206 0.0029585543 -0.022328045 0.021889796 -0.018360883 -0.0019030175 -0.007849676 0.0003253907 0.0055303257 0.001035431 0.0021582267 0.00077847793 -0.0019747908 0.025994131 0.002811116 0.00046935823 0.0031822585 -0.0058894707 -0.0037570624 -0.0016721946 -0.0028677965 0.0099368105 0.004156539 0.00052514655 0.0015797853 -0.0020894257 -0.00071946596 0.0006829068 0.00074257224 0.002499889 -0.003737057 -0.003436757 -0.0022882447 0.0003766093 -0.00426622 -0.012808853 -0.0008437086 -0.008797573 0.0016903554 -0.006737643 0.0013659892 -0.00092933467 0.002581503 -0.002445627 -0.0050552203 0.06480436 0.002805661 0.008186809 -0.024335505 0.0021105006 0.00055780605 0.01910393 -0.0016629742 0.009177066 -0.0073787165 -0.0037373132 -0.0012623963 0.001961118 -0.0077688796 -0.000353029 -0.0012735698 -0.0004025408 -0.00035373963 -0.0011086804 0.017610468 0.030340403 -0.0010383812 -0.005911861 -0.0008854986 -0.0028257912 -0.0016478949 0.007309924 -0.0017116045 0.004207603 -0.0027805276 0.0045281635 -0.014369556 0.0034670006 0.007922258 0.002951035 -0.00032142093 0.0077527887 0.0040743146 0.0009950331 -0.0024787844 0.0031828238 -0.0002386422 -0.002931952 -0.005123867 -0.003933 0.00024735715 -0.00030765226 0.0017167182 -0.008898313 -0.0034900305 -0.0019144814 0.006377672 0.0040901094 0.0014631598 0.0010285145 -0.011487307 0.0028550301 0.004353458 0.0011652049 0.0051338025 0.0034568019 -0.017897602 -0.00065773784 -0.00371846 -0.0031450174 0.0039684274 -0.013367984 0.0038205178 -0.04446539 0.009868031 0.0077752657 -0.015559058 -0.00742741 -0.0031448696 0.0043422794 0.007959308 -0.0027917754 -0.0049949954 0.0026929574 -0.002328444 0.008395285 -0.0016029581 0.0046021687 -0.0018658396 -0.00090595824 0.0046608387 0.008780735
-0.0008417245 -0.0014032146 -0.0017587123 0.0008658263 -0.0006222501 -0.001016485 0.0031354262 -0.0070242435 0.0015672446 -0.0004986467 -7.946734e-05 0.0017817174 0.0008907082 0.0010724368 -0.00071892835 0.0030620417 -0.002427721 -0.0015642385 -0.0018835461 0.0006472513 -0.00028397865 -0.0027709808 0.000796327 0.0015707776 -0.00091908075 -0.0004916459 0.0008996432 -4.6330817e-05 -0.0015273222 0.00019427677 0.0007708504 0.0015908708 0.00019809027 0.0028210422 -0.0020870757 -0.002080705 -0.0005453049 -0.0032722189 0.00044987374 0.0008772078 -0.0009164785 0.00358504 -0.00025758002 0.00343702 -8.081462e-05 0.0020255572 0.0024655175 -0.000513084 -0.00017053174 -0.0034241923 -0.0112769045 -0.00076583825 0.0029110145 -0.0005639131 0.020983787 -0.0014072788 -0.0007568273 0.010206964 0.0007709704 0.00012735165 0.00223155 -0.000516602 0.00038051605 -0.0010680687 0.0005441474 0.0003663504 0.0021302742 0.00045998272 -0.00071318186 0.00043102607 -5.177583e-05 -2.349776e-05 -0.00031487225 0.011143921 -0.0006585226 0.0015347234 -0.003845154 0.0010845419 4.4517303e-05 -0.0048041344 0.0013032026 -0.0003281609 0.0006970672 0.0006183648 -0.0037901471 -0.0002311359 0.00086504087 -0.001645006 -0.00033513817 -0.0017886446 0.0008550149 0.0043359883 0.0011570512 -0.00017537262 0.0008918324 2.2308774e-05 -0.0013203506 0.0043496937 2.4630548e-05 0.00064275437 -0.00023085221 0.00033073348 0.0004251538 -0.00085515575 0.00018966962 -0.0019168097 0.00044238626 -0.0029190246 0.0007580504 -0.002771885 -0.0013157837 -0.00023580497 0.0002231922 0.009236874 -0.0019279559 0.002849867 0.0019095871 -0.0008518365 0.0066569573 -0.00043716826 -0.00094889145 -0.0020392723 9.292209e-05 -0.002282788 -0.0010893308 0.0001564473 0.0012624267 0.002454354 0.0020207623 -6.5267035e-05 0.0063209273 -0.0008184913 -0.0014230168 -0.00030393346 0.0020134929 -0.0005718983 0.0003627655 0.0024392174 -0.0020308243 0.00041156853 -0.006306465 -6.1917446e-05 0.0032920914 -0.0015236576 0.0003256934 0.0021776373 0.0012638986 -0.004620674 0.0008602329 0.0016597427 0.0013983968 -0.0012915693 -0.0027302946 0.0009713795 -0.00020424783 -0.0017835783 0.00067082886 0.0005566846 -0.001310212 0.00045136607 0.0061220815 0.00018814635 0.00042078263 -0.0020584033 -0.00042943243 -0.00022518606 0.0019825909 -0.0032399197 -0.0022986578 -0.0004011637 0.0046186703 -0.022009518 -0.0011217004 -0.0022950529 -0.00012227107 -0.0006146951 0.0008629918 -0.0026965996 0.0015913807 0.0012143522 0.0016905068 -0.0023167292 -0.000496829 0.0013992595 2.815019e-05 -0.0035018898 0.00010789514 0.010260745 -0.002162474 -0.0014676162 0.0070250668 -0.00076790806 -0.004103046 0.005792212 -0.0033362245 -0.0038115783 -0.0016110747 0.004422139 0.0006063303 0.02316125 0.00939633 -0.0023274035 -0.0004882866 -0.009571781 0.0002038931 0.0013702448 -0.000857083 -0.0031503066 0.0013535669 0.0011609121 0.006484944 0.001871737 6.82435e-05 0.0009733681 -0.002358647 2.3202037e-05 -0.0010197475 -0.0004937006 -0.0004409244 -0.00033578553 -0.0037574705 -0.0013750275 -0.0015710331 0.00093423005 0.0010271484 0.009301143 0.002814174 0.00033201108 0.0011466177 0.0030970548 0.00093890406 -0.001043178 6.189814e-06 0.000440943 0.00040393902 -0.001136188 2.7046275e-05 0.0053009465 0.0002670501 0.00039765055 -0.003252544 0.00053869915 -0.0010713841 -0.010282206 0.001218456 0.0003922748 -0.001893247 0.001598676 0.0004957649 0.00223006 0.0012058985 -0.0014296034 -0.005514504 0.0012357455 -0.00018962419 0.0002619546 -0.0027612587 -0.0011151353 -0.00039081575 -0.0008519663 -0.002075965 -5.57316e-05 0.00076390756 0.00042992726 -0.0021733874 -0.0006017509 0.0028881056 0.00058018253 0.0007997249 0.0017477651 -0.00011046312 0.011608154 -0.0012919313 -0.00030966214 -0.00078317407 -1.3312729e-05 0.00014922518 0.001484673 0.0028807758 0.0010072313 0.004507982 -0.002380345 0.0013783431 0.00024974975 0.00074883155 -0.0020250434 -0.0012863142 -0.0013720739 0.0006720207 0.0006406295 4.2389718e-05 -0.01050523 -0.00011702325 0.0017920978 -0.0017918365 -0.008338089 0.00050792267 -0.0030919383 0.0022457999 -0.00048907805 -0.0014777794 0.0008192565 -0.00085024006 -6.366935e-05 0.0018948249 -0.00016336537 0.0005328636 -0.0019774516 1.0119885e-06 0.00046622718 0.00018105873 0.0011410981 8.806273e-05 -0.0021645026 -0.0025789754 0.0012757474 -0.0125651825 8.274322e-05 0.0014560524 0.0017316489 0.0031768903 -0.0011541545 -0.0021745628 0.0012031496 -0.0015560784 -0.0014314648 -4.146636e-05 0.00046011395 0.0005309185 -0.0016702212 6.194593e-05 0.004246088 0.0015803335 -0.00091343 -0.00015473571 0.00031531721 0.0014800436 -0.00033169056 0.0008651696 0.00016131945 0.0011904679 -0.0004936085 -0.0041024345 -3.1851334e-05 0.0009886834 0.0011522425 0.002658425 -0.00030061224 0.00058094936 0.002176325 0.0012826358 -0.0032480198 0.00039246507 0.0013193461 -0.00030469627 0.00093603076 -0.0041287737 -0.00020376747 0.0011265293 0.001580144 -0.0032652717 -0.00077520404 -0.00077339937 0.0014110028 -0.001485657 -0.0029064184 -0.00011773465 -0.0010240141 -0.001515599 0.0011318688 0.0023382134 -0.00340578 0.0010911295 -0.004286407 0.0011469041 -0.0024975813 -0.0012415831 0.0025658866 0.0010970036 0.0038027551 -0.0013274064 0.0006451505 0.008631872 -0.002741306 0.0025523037 -0.0024206697 -0.002043729 -0.00010533018 -0.0016957347 0.0014695538 -0.0012794533 -0.0040494134 -0.0005222619 0.0003513591 0.0039204196 0.0021465418 0.0011033263 -0.0070251795 0.0016189464 -0.0010685215 0.0034096572 -0.0019632042 -0.0028587983 0.0004132341 0.0008732431 -0.0007398344 0.0004740475 0.00051362795 -0.0030999533 -0.00057973206 0.003389988 -0.00047288256 0.003925773 -0.0007497026 0.0019424845 -0.00036363542 0.0010688858 0.007552858 -0.0006022283 -0.0022072513 0.0005307744 -0.00020041478 0.004077844 -0.0004985553 -0.0006151542 0.00036196655 -0.0019556945 -0.00017328063 0.002472103 -0.0013665826 -0.00077686075 -0.00027731998 0.00039181896 0.0011350635 -0.0005820616 0.003524277 -0.0030282263 0.0014349504 -0.0013761618 -0.0010128785 -2.5199977e-05 0.0005217262 -0.000555079 0.0027735562 0.005330042 -0.0050918586 0.00073155266 -0.0011373532 -0.0011782044 -0.0006609381 -0.0008946135 0.00789746 0.0025975674 0.0020802335 0.0023148328 0.00093108835 -0.00057188387 0.0005888057 -0.0016090852 0.0008081763 -0.00073615747 0.0011525014 -0.0012908535 -0.0013950268 -0.0007904161 0.00056601444 -0.0006183681 -0.00059314433 0.0010207783 -0.00094702624 -0.0015787377 -3.8141392e-05 -0.00018027324 0.009790284 0.0006303734 0.002440256 -0.0036167686 0.0010110906 0.0020932222 0.0034143648 -0.0025437754 -0.0010165233 0.000102590115 -0.00013848982 -0.0041288533 0.0011770682 0.00080568535 -0.0001715217 0.0017631247 -0.0013318402 0.0011850891 0.0030855087 0.00047445032 -0.003495544 0.0030562063 0.0021177952 0.0005036939 -0.0016547446 -0.0026320808 0.002270312 -0.00047017098 -0.0020598357 0.00082743244 0.00040621182 -0.0014328434 -0.0025113958 0.0008249279 -0.000363301 -0.0017537554 0.00022212329 -0.023568114 -0.00025707897
0.00072671246 0.00044498083 0.0006381263 -0.0010732765 -0.0035381836 0.0020363324 0.00043479985 0.001857455 -0.000567654 0.000926001 0.00066230696 0.0005067124 -0.0010471117 0.0006573754 0.00017319406 -0.002588925 3.7881437e-05 -0.0069972533 0.0009858406 -0.001159003 0.0009660529 0.011886102 -0.00061103137 0.0003202142 -0.0008811567 8.548355e-05 0.00086645834 0.00022721678 -0.0054832287 -0.0012332068 0.00081775006 -0.0003740381 0.0010812103 0.00082275004 -0.0001913762 0.0022995714 0.0011942693 -0.0011859013 -0.0009988487 0.0010112616 0.00076491386 0.0039395518 -0.0011400264 -0.0024617517 -0.001190874 -0.0010098268 -0.0014117686 0.0017104322 -0.0011601388 0.0026897576 0.00051350566 3.8027803e-05 0.0033143072 -2.6385324e-05 -0.0011161963 0.0021271238 0.00089751143 0.001194787 -0.002907616 0.0003251926 0.0010097466 -0.00023136231 0.0021261272 0.00035243432 0.0020770386 0.001834947 0.0015092528 7.4550415e-05 0.0002955379 0.0005828139 -0.00037516977 -0.0012707873 -0.0004469489 0.009111821 0.0013059026 -0.00013081395 -0.0014877267 -0.0013850771 0.0022420587 -0.0049855136 -0.001500667 -0.0042810165 -0.00040290863 -0.0007127756 0.0010211015 -0.0010523427 0.00032320883 0.0002942037 0.0030887485 4.1112894e-06 -0.0005752634 0.0061302027 -0.0006921667 0.0013998919 0.0003014945 -0.000694087 0.00043729364 -0.00017514147 8.341197e-05 0.0002839954 0.002018461 -0.0007869758 -0.0012257923 -0.00024456723 2.5882016e-05 0.002740322 0.0005700939 -0.0034437047 -0.0005488709 0.00028392693 0.0005785277 -0.0023500517 -0.0004213474 -0.00091776403 -0.00065431546 0.0010020444 -0.0017313912 -0.0006068454 -0.008800773 0.0007535905 -0.00011169262 -0.0012311602 0.0003853627 0.0009999536 -0.0015079755 -0.001033854 0.00082170096 -0.00066062814 0.00016451314 0.0017896602 -0.0008276511 0.0010692739 -0.00016545075 0.00013223138 -0.00067596167 -0.000780886 -0.00086573116 0.0054724445 -0.0019742728 -0.001298108 -0.0013198544 0.00038150573 0.001722381 0.00019270768 0.0008578862 -0.0023576804 0.002108305 2.1114907e-05 0.00040152046 0.0018407279 0.0006702963 0.0018646298 0.00953702 -0.00043906743 0.001868329 0.00083937263 -0.00029935874 0.00246107 0.0010498225 -0.0046829605 0.0039855647 0.00086171844 -0.0026710874 -0.00040890687 0.0009140684 0.001544427 -0.0020375352 -0.00032080896 0.00068445137 0.0017895178 -0.0019050175 -0.0011656175 6.575799e-05 -0.0003096518 -0.0022897222 -0.0009434515 0.0013344631 -0.0013997601 0.0010215305 0.0013432096 -0.00049285433 -0.002195382 -0.0012843207 -0.00020647567 -0.00027013052 0.0012899569 0.00023370725 -0.002488442 0.0056379493 -4.840645e-05 -0.0011015092 0.0008879406 0.0011247107 0.004355119 0.0004994607 0.006577807 0.0016523898 0.00023044339 -7.7870915e-05 -0.001583581 -0.0026893376 0.0036690834 -0.0011391459 -0.011567018 -0.00046816148 0.0015916373 -0.00075567927 0.0024657983 0.0014152076 -0.0012365069 -2.5261623e-05 0.00040419618 0.0018753973 -0.0020037426 -0.001668403 0.0033326445 0.002150247 -0.00029913493 0.00044064026 -0.00015681096 -0.0020520207 -0.0031129618 0.0045936806 -0.0012181194 0.0003623004 0.003152038 -0.0029487552 0.0003431856 0.00054980436 -7.802759e-05 0.0019370525 0.000692813 -0.000124744 0.00055302173 0.0015017181 -0.0014287712 -0.002737768 0.0005516702 -7.111405e-05 -0.00039476412 0.01048553 0.00047032328 0.000553088 -0.0028373275 0.00010758602 0.0013369697 0.00071911677 0.0007693801 -0.002714798 0.0046768934 0.00015969896 -0.00084789656 0.0035456333 -0.0023493709 0.0010349017 0.0013732498 -0.0005683802 0.0019957998 -0.001808097 -0.0014781676 0.001965655 -0.00072027295 0.0010302012 0.0010299225 0.004084283 -0.00067064905 -0.00027916668 0.0016976808 -0.00046087927 0.00023487846 0.00074318575 -0.006685454 0.0012677168 -0.0035580513 0.00032641084 -0.0016828219 -0.00042408053 0.0002260696 -0.0019510516 -0.0007352132 0.0009227138 -0.0009566319 0.0014789479 0.00015535331 0.0015983637 -0.0011978367 -0.00019934312 0.0019956955 -0.00051666546 -0.001112397 0.00046436643 -0.0005897082 0.0008129842 0.0002925607 0.00089839404 -0.0018371186 0.0015486359 0.0016539955 0.0012443594 0.000896242 -0.00043551502 0.0007041331 -0.001015513 -0.00043646814 -0.0007341158 -0.0012158499 0.0017401254 -0.0011254488 -0.001625377 -0.0002943214 -0.00042282548 -0.0015620398 0.00044946471 -0.00063709094 0.00041651056 0.00020399054 -0.004214532 -0.0006829526 -0.00037268375 0.0013187847 -0.000708723 -0.0009440347 0.0010651476 0.0007181826 0.0020146968 0.002374215 -0.0011046778 0.0022628258 -0.0021681967 -0.00063173537 0.0011810532 0.00724131 -0.001763818 -0.0026352028 0.00066931173 -0.0008804967 0.00025376337 -0.0008890535 0.00018997023 -0.00031705658 0.0009175985 -0.0021667008 -0.0011089287 -0.00039197152 -0.0014670916 0.0014936012 0.0011957851 0.00017851364 0.0010115646 0.0012245079 -0.000121463025 -0.0007545295 0.00036852356 -0.0019810896 0.0005519772 0.0009690269 0.0030768195 -0.00046080712 0.0019315201 -0.0012927945 -0.0011550909 0.00048644678 0.0010272475 -0.0016006221 0.0011941462 -0.0007540307 0.0012378205 -1.906145e-06 0.0020652015 0.0009797083 -0.00061244186 -0.0007797843 -0.0017739302 -0.0021516897 0.0013152171 -0.00088940765 -0.00013576729 0.0020525185 0.0013673354 -0.0030657265 0.00034143854 0.0023148682 -0.006456326 -0.008981255 0.012448527 0.0067067724 -0.002838199 0.0015598885 -0.00093625905 -0.00086904014 0.0009977488 2.0819525e-05 0.00020861378 -0.0062354305 -0.012886693 -0.00037140073 0.0006043463 -0.0013661436 -0.0004652689 -0.001306377 -1.1342918e-05 -0.0024382963 0.0036907701 4.3921056e-05 -0.0001565797 -0.0027926262 -0.00089749874 -0.0009239583 -0.00021237675 -0.00035577433 0.0016085654 -0.0016654065 0.0011441874 -0.0025427807 -0.008605122 0.0018070808 -0.0004118911 -0.004046761 0.0014827839 -0.0015151185 -0.0033505203 0.0014921075 -0.00038779882 -0.00055751106 0.0001710373 0.0020271253 -0.0011058059 0.0005818449 0.024835823 -0.0009872218 0.0007707722 0.0007082839 0.0013025033 0.00050364627 0.0007494945 0.0032357522 -0.0003297383 -0.0025818106 -0.0021332223 -0.0009184057 0.00026139148 2.5688441e-05 0.0012626343 -0.00072262815 -0.015184384 -0.0030139661 -0.0021110945 -0.00047310002 -0.0002362204 -0.00144017 -3.6213634e-05 0.013779285 0.0011107181 0.00031777547 0.000634335 -0.00031976966 -0.004246167 0.0006211673 0.0037808423 -0.00041544883 -0.0009980943 -0.00033437685 0.0010378903 0.0008169697 -0.0016182415 0.001436114 -0.0012543536 0.00018263854 -0.010468619 -0.0017932744 9.095125e-05 -0.001157532 0.00022515425 -0.0023641814 -0.0005225195 -0.00041453104 -0.002144316 0.0008243227 0.00036168634 -0.00020549663 -0.0072970935 -0.0005319543 0.0007672141 -0.0010979983 -0.00059036544 -0.00040897026 0.0019779573 0.014115213 -0.0005328586 0.0019231829 -0.0015913111 -0.003143299 -0.000248299 0.001385091 -0.0039686156 -0.009115262 -0.00089664507 -0.0010883709 0.0006626167 -0.0021558923 0.0003969716 -0.0016761675 -0.00020843952 -0.002083009 -0.0015409176 -0.0007505971 0.001337556 0.0009480934 0.0018754104 0.0003338471 0.0016366724 0.0019592755
8.8987006e-05 -0.0020435397 -0.0055605653 0.004758977 -0.0024446321 -0.00060394156 0.0018709078 -0.00030977157 0.0030132455 -0.0034389864 0.003246664 -0.015737701 -0.0022747132 0.002835872 0.00017810352 -0.009004072 -0.0010776949 -0.0047055106 0.0005268931 -0.0005256258 0.0016756403 -0.019814143 -0.0010331313 -0.00030612652 -0.0034954138 0.00014703682 0.0005908114 0.0004562553 -0.024999764 -0.0002470934 8.184436e-05 -0.0013058501 -0.00029836374 -0.0035736167 0.00081188686 0.003082588 -0.0022530367 0.008992875 0.0033818441 0.0013293127 -0.002494392 0.014334317 0.0015554785 -0.0045942063 0.0013212829 0.00063568866 -0.011558486 -0.0034162838 0.0035555111 -0.009686188 -0.0028331885 -0.0013854402 -0.0014130218 -0.006491486 0.0003764495 0.0037466884 0.0015774659 0.012547067 0.00021092831 0.0052905325 0.0056360364 0.00070375577 0.00026664752 0.0035236154 -0.0019578992 0.00086438924 0.0012106587 0.0032273089 0.00011724815 -0.0004743191 0.00068838865 -0.0031897891 -0.00284992 0.008083469 -2.0301597e-05 -0.0011460225 -0.017295454 0.0012497393 -0.001167461 -0.0116682025 -0.00165272 0.00081632496 0.00031721467 0.00047669892 -0.0113970535 0.0013088847 0.00031059253 0.014413977 -0.0014904635 -0.0006632906 -0.0007557295 0.01869795 -0.0011904102 0.0009689134 0.003344655 -0.00495542 0.00031968075 -0.01032434 -0.0012213947 0.0013618403 1.0314437e-05 -5.6770063e-05 -0.00079406565 -0.001054708 0.0014836163 0.015766975 -0.0029262286 -0.0003068227 -0.0005594349 0.0042457744 0.0015722178 -0.0058569214 0.0019145847 -0.029464748 0.0020956786 -0.0018841381 0.00069088687 -0.0010411129 -0.0015044226 0.006351708 -0.0021195984 0.0035361927 8.983653e-05 -0.021165542 -0.0018302368 -0.0022007888 -0.00053711515 -0.00053457165 -0.0057368865 -0.0021472939 0.015186788 0.0026297315 0.0032792524 0.00040913603 -0.0029066785 0.006463787 -0.00027484764 -0.0015917912 0.002682181 0.0025252406 0.009122862 0.0040056934 0.009140825 0.0060927616 -0.0017472061 0.00022749539 0.005114089 0.0021918775 0.0033746765 -0.0012384144 0.0027466624 -0.0006962717 0.0051353434 0.0012995729 0.0018557985 0.0002826132 -0.00040748515 -0.0045090034 0.0010452295 -0.0008660509 -0.00387742 -0.001940434 0.02430398 -0.00093050743 0.00019142113 0.0010312349 -0.002016926 0.01703993 -0.0015015114 0.0029342987 0.008821125 -0.011156777 -0.0014317423 0.0017461921 0.0028878923 0.0013280446 -1.0537571e-05 -0.0119255595 0.0010930952 -0.001896128 -0.0038083694 -0.003302025 0.00045497483 0.001293827 0.0030414886 0.0036049497 0.003043074 0.012484698 0.0012529491 -0.0006997192 -0.0027399042 0.0001611096 -0.0015919999 -0.011833765 0.00015863832 0.016997313 -0.0009768498 -0.006969311 0.00323098 0.0005117571 0.022030313 0.010257 0.0029806043 0.010621053 0.0025919238 0.0030294782 0.00022767248 0.0011282007 0.00071234844 0.002402061 -0.0035371822 0.0010333352 -0.0010665344 -0.00069929386 0.0021547752 -0.0028406417 -0.003749129 0.0029685118 -0.001780503 0.007342325 0.00012934637 -0.0022875273 -0.009399088 7.043159e-05 -0.0014658055 -0.0036473484 -0.001706991 0.0033742518 -0.001868955 0.0058143795 -6.0333405e-06 0.0022134944 0.0005658414 0.0018894807 -0.0029810504 -0.0004929519 0.0029280067 0.028957292 0.004415046 -0.0018961341 0.00828402 0.005133751 -0.0013001531 0.013267431 -0.0012970337 -0.00044840793 -0.003660867 -0.00086735276 0.001014103 -0.009264222 -0.00066213205 -0.0042030765 0.010444667 -0.00013995398 0.0011902584 0.0043928702 -0.0033866225 0.0037918207 -0.0013391337 -0.0026491557 0.000532692 -0.0008929266 0.003505213 0.0029663623 0.0070744385 0.0034898703 -0.00052467023 0.01318984 0.0022675311 0.0018829902 -0.0016945096 -0.004591601 0.0009447097 0.011835294 0.005411 -0.0017198327 0.00010753973 0.0010879682 -0.0005437623 0.0017556443 -0.0060757482 0.0120195 0.0054889857 -0.0052574556 0.00060611585 0.003665092 -0.0017151998 0.0016795383 0.0035484044 0.0007826513 0.0007905438 0.01495406 -0.00018456067 0.00059541356 -0.001548781 -0.009583525 -0.00020384318 0.0046238527 0.001892028 -0.0014828827 0.00066891214 -0.012186906 0.004543387 0.00029022217 0.0018586108 -0.0023276147 -0.0027048616 -0.0016190617 0.0028547724 -0.014201784 -0.0026429063 -0.00084817776 -0.0031207441 -0.004519714 0.00016530561 0.024591984 0.005792965 0.0014865785 0.00074189005 -0.0024156924 0.0038261914 -0.001719507 0.0005734421 -0.0004351194 0.0049019298 -0.0008729164 -0.0022406422 0.0018101474 -0.003413238 0.003524235 0.0015400024 -0.0015471367 0.00097471604 -0.0039838506 0.0017215915 -0.004343023 -0.0005734962 0.0016229183 0.004891058 0.0024462158 0.0023146574 -4.7821348e-05 -0.035860334 -0.0028011324 0.0018289275 -0.0016684841 -0.008864286 0.0013456565 -0.0016236189 -0.0021701942 0.0006740351 0.003120225 -0.0014725806 0.001596854 -0.005056201 0.0011800526 0.0077638254 0.0018025079 0.003954882 0.0009101458 -0.004234859 0.0022954803 0.0023802333 -0.003130586 0.0008041375 0.0052022566 -0.0022455424 -0.00039667694 0.012723044 0.001671868 0.00023149082 -0.010587587 -0.011205706 0.01897591 -0.0045358 -0.00252473 2.8702269e-05 -0.0066021285 0.0015071125 -0.009455458 -0.00016847737 0.001339592 -0.003021006 0.000120900026 -0.009473222 -0.010155706 -0.0016727021 -0.0003325503 -0.002427722 -0.007137819 0.0012083646 -0.004544969 -0.0007603079 0.013397386 0.025313681 -0.007005246 0.00038740467 0.006923747 -0.0016670671 0.0048921052 0.0057211327 0.0095352745 0.010356007 0.003728686 0.006387014 0.0077528753 0.004451536 -0.0029340854 -0.00063355133 -0.0028880788 -0.007618261 -0.001594619 -0.0010613445 -0.0034539823 -0.0034812074 0.0032118098 -0.00589358 0.009141157 0.002475058 -0.00038767047 -0.0024998817 0.002584494 0.004015738 -0.0010399434 -0.0016560958 0.0025167076 -0.005178657 -0.005406561 -0.017948218 -0.0043352316 -0.00028265946 0.0014461315 0.007976318 -0.0061564543 -2.301593e-05 0.009065908 -0.005459237 0.0030173915 0.0068618995 -0.0016270801 -0.0019668662 0.001906809 -0.0009876207 -0.00056069315 -0.0004644482 0.001659361 0.0012409309 -0.0021204236 0.0004646371 0.0011571429 -0.0013708831 -2.3510374e-05 0.0040203864 -0.00030447013 -0.0027697412 -0.0010281582 -0.0014695209 0.0015429743 0.0032121825 0.0060435347 0.0007311421 2.4259041e-05 0.0040788604 -0.002572239 0.003923163 0.0015090043 0.004322152 -0.002090748 -0.0028925077 -0.005319773 -0.0010689452 0.0020447199 -0.0008585882 -0.0017018686 0.0006905112 -0.004122913 -0.0007132236 -0.0006879555 0.0035044467 0.0041716998 -0.017791012 0.00089574733 0.0032047592 0.001944488 -0.0052004065 0.0030044776 -0.0008103286 -0.0039116815 -0.0007906837 0.0034666143 0.0002244754 -0.0077681136 0.00015481646 0.010018389 -0.0075120386 -0.008742511 -0.011862554 -0.0008302873 -0.0019620375 -0.0002991283 -0.0019633071 0.0013868273 0.0026583143 -0.0013186797 -0.0030161848 -0.0018226444 0.00018594736 0.0028281892 -0.00026919026 -0.0004851455 -0.0019602752 -0.012917907
0.00059683906 0.00056034105 -0.010939427 -0.0015851478 0.00041820251 0.004125822 0.0023475096 -0.006232612 0.0024147187 0.002831415 -0.0013183206 -0.003272311 0.0021996705 -0.00085027324 0.00038341345 0.00298641 -0.0013736435 -0.0110838795 0.0013780729 0.0062158103 0.0009886308 0.028412659 0.0011857933 0.0009910525 0.002345414 0.0064558284 -0.0031453092 0.0023845246 0.025957106 0.0006909525 -0.0008711857 0.0018207283 -0.00016245438 0.0024563144 -0.00041914286 -0.00037991282 -0.0025773724 0.017537368 -0.002466067 -0.0009025775 -0.00076914846 0.016432233 0.0012089398 -0.0008053898 0.004838949 -0.0053507667 0.0014192216 1.7638618e-05 -0.006361882 -0.014877836 0.0055105696 -0.009855358 0.014362571 0.003454838 0.011420658 0.001565651 -0.00243955 -0.015015227 0.0016157398 -0.009206725 -0.016354827 0.0010776494 0.00048560867 -0.0005340752 0.0058844127 0.0014999335 -0.0013826943 0.0006096423 -0.0013364034 -0.000539848 0.0025348214 -6.1685564e-06 -0.0021651906 0.004195976 0.0015545439 -0.00020141478 -0.007053061 -0.00053217675 0.0017906091 0.0056330673 -0.0057007507 -0.0022142057 -0.006322583 0.0013891858 0.010194675 0.0030382306 0.00034313148 0.00408192 -0.0025598474 -0.0005492369 0.0062910933 0.012705227 0.0018067454 0.0031800028 0.0012550052 0.002909469 0.00085066597 0.012894432 0.00065917714 0.0044614593 0.0034269178 -0.002227272 -0.0040131854 0.0054606446 -0.003564205 -0.010603331 -0.0022744157 -0.008738801 -0.0006895775 0.0019253439 -0.00023244011 0.008357126 -0.0008626424 -0.0010599627 -0.00048026157 -0.00038037615 -0.0057761124 0.0024401674 0.00044675803 -0.023616444 -0.0007193166 -0.0035143392 0.0014374364 0.008276454 0.0037875653 -0.0027745448 0.0016745168 0.004679646 -0.00011296139 0.0021389995 -0.0046110605 0.0028942926 0.0031746207 -0.0011701866 0.0036939343 0.0068623973 0.0012676435 0.0036698557 0.0040729246 0.0029261783 0.007272274 0.0029232632 0.0005247545 0.0063097593 0.001066623 -0.008600469 0.0041135834 -0.007072024 -0.003825916 -0.0018180008 0.0002945437 0.0033813633 0.010328637 -0.00027966357 0.003981987 -0.0021000602 -0.00080857845 -0.011550325 -0.0035786526 -0.011637006 -0.021355728 -0.0031554042 0.0019551038 0.0042393627 0.00094829896 -0.0004704236 -0.0006712877 0.0019689712 0.005137762 -2.9985145e-05 -0.009172315 -0.0045054583 -0.002515384 -0.0007176408 -0.0003037181 0.0025787817 -0.015828105 -0.00015320421 -0.0065347417 0.0021250558 4.5222332e-05 0.002307305 0.0029987807 -0.0025536057 -0.0037973975 -0.0042939284 0.0009086553 -0.012272784 0.0053981855 -0.0072093294 0.0033169293 0.00043425287 0.0041070622 -0.0064443913 -0.0023666194 -0.014415501 0.00074531743 0.008786047 -0.0014181071 -0.01613398 0.020763617 0.0003542168 -0.002786685 -0.01567825 0.0030100555 0.00085763866 -0.0017068547 -0.0014593734 0.0012795307 0.00021838973 0.025020571 0.0031122782 0.0015882252 0.0022435822 -0.00013840568 0.006339276 -0.0065260082 0.0058925697 -0.0016098798 -0.0065555354 0.004730981 -0.0028178738 -0.03114023 0.0034113505 -0.010649128 0.0049693743 1.7108505e-07 -0.001082015 7.140666e-05 0.00014975041 -0.002410321 0.00062909623 0.0013219768 -0.0029699998 0.0023568708 0.0018104004 -0.0019137015 -0.0062366747 0.0025000288 -0.003002705 -0.010240155 -0.0020235418 0.0069557237 0.0017426648 0.005256877 -0.00055672566 -0.0106460275 -0.003982337 0.00018987193 0.021996617 0.0020504065 0.0018226982 -0.003127537 0.0026381877 -0.001241932 -0.00035671642 -0.00232611 0.005338033 -0.0075629214 -0.0013857686 -0.00069854414 0.0002246687 0.0027467976 -0.00061814015 0.015115905 0.0018793189 -0.0016863378 -0.00033456806 -0.00076062727 -0.0015001681 -0.0005290982 -0.020181336 -0.0014342897 -0.0021324554 0.000841508 -1.8420478e-05 0.0017727846 -0.0012754357 -0.005912684 0.00041029815 -0.010349375 -0.0062552164 0.0006436696 -0.0039417325 0.0016768653 0.004389161 0.003168652 -0.00015826733 -0.0015297027 0.00083084067 0.0015775078 -0.0063164877 -0.0010305187 -0.0006794114 -0.00024420646 -0.017371608 0.0016641013 0.0033060112 0.0026413526 0.00011594672 -0.0020212543 -0.001923569 -0.0030959703 -0.005840364 -0.0016236049 0.0002890419 -0.0032541435 -0.0043277866 -0.002900423 -0.008103329 0.0022640873 -0.0021310668 0.00046213833 0.0005366627 -0.0022273916 0.00820633 -0.008719185 0.0034550875 -0.00016853987 0.0067125903 0.0037069307 -0.003279249 0.00011096935 0.0020825055 -0.002689196 -2.2705355e-05 -0.0036990335 0.0026793398 0.0012143778 0.005151446 0.005723476 0.0032064822 0.005468443 0.010566858 -9.9101875e-05 -0.0013414354 -0.0020774296 0.0006796457 0.0019961842 0.0019232032 -0.005618384 0.009857281 -8.474901e-05 -0.004622856 -0.0063926717 -5.0754497e-05 0.00667729 0.0013775335 -0.002153191 0.0024435504 0.0024946367 0.0019418932 0.0017513309 -0.0022968494 0.0026538803 -0.003114601 0.013106367 -0.0016090836 0.016484728 -0.0025118182 0.0018871804 0.000740057 -0.0013107854 -0.0012139718 0.0015912587 0.018614816 0.0047240625 0.009024274 0.014753628 0.004245 0.008001715 0.0047469228 0.008354785 -0.0045660324 0.0019539709 0.02014302 -0.00022149422 0.009598317 0.0008151217 -0.008377421 -0.001988752 0.0004967602 0.0016933442 0.024006369 0.009682097 0.022703936 0.011506761 0.0007660865 -0.0052950936 0.013814684 0.005896862 -0.003342409 -0.0006422569 0.0047296695 0.03158041 -0.0033595704 -0.0033828502 0.0063255993 0.002113564 -0.0011535146 -0.004964284 -0.001215187 0.010282709 0.0042600906 -0.000112058086 -0.0038595253 -0.0036525477 -0.0023621323 0.004312566 0.0016567879 0.0035636777 0.0015736124 1.3921987e-05 0.0031942644 -0.00014470708 -0.0107800355 0.005053797 -0.01575837 -0.0008798896 0.0029618025 -0.004114592 -0.000110974834 0.00542468 0.0038382001 0.0022660114 -0.00542701 -0.0011314404 0.0037443892 0.0089504635 0.00084146124 0.0046648285 -0.0063205096 0.0032063797 -0.0123124095 0.005960535 -0.009519785 0.0023521287 -0.00026997383 -0.00024073213 0.0018807235 0.0072033857 0.0013544045 9.4346135e-05 -0.0005660095 0.0046704635 0.0035356465 -0.0028935215 0.0056305868 0.0011365827 0.00060241047 0.0034379063 -0.007281631 -0.0024331575 -0.0009057146 0.0005680434 -0.00019513203 -0.027147653 -0.0035588162 -0.004079499 -0.01388599 -0.0027691429 0.00030098337 -0.0031938355 0.00238005 -0.0015523671 -0.0020555076 0.0023026755 -0.00019617197 -0.0049550785 -0.00012942101 -0.0032069588 -0.0020323973 -0.0038632231 0.014504779 0.000107641135 0.0011040118 -0.0056861965 -0.001240588 -0.0005313501 -0.0072727595 0.0153942 -0.0025262677 0.0057350183 0.0039344975 -0.0004321951 0.004771444 -0.00029444572 -0.009612338 -0.00078584626 -0.0006779881 0.0027930595 0.0065363916 -0.0019388007 -0.0015582656 0.006703582 0.009461687 -0.006875274 -0.0011497572 0.002099467 -0.004781221 -0.0020541907 -0.002277892 0.0023304021 -0.0018891528 -0.004818591 0.0028917925 -0.0020840373 0.0028508285 0.00095072575 -0.003081804 0.010746467 0.010162504
0.00048235248 0.003695702 -0.010140237 0.0004686251 0.004075905 0.0024290462 0.0005011638 -0.007817398 0.0035558585 -0.0027947137 0.0016251811 -0.03626957 0.007708851 0.0024996162 -0.0041566966 0.006453783 0.0048137074 0.0124844555 -0.0024242369 0.00022116101 3.630556e-05 -0.021848405 0.0059978706 0.0014495847 -0.00056970346 -0.0046205525 -0.0028567577 -0.0019441803 -0.022050288 -0.0009785362 -0.0015134298 0.0007399828 -0.0022653693 -0.002413407 -0.000307689 -0.0005831774 -0.0019445418 0.009132435 0.0026225422 0.003839151 0.00067185244 0.03611255 -0.00046985692 0.020046307 -0.00062636717 0.0012459586 -0.016679848 0.0011352998 0.0011794004 0.0019098727 -0.003518941 0.0025704592 0.010363305 -0.0040064706 0.026541963 -0.0018913675 -0.0031478105 -0.009899434 0.005660712 -0.009365942 -0.023604918 -0.001225602 0.0031825523 -0.0026290435 -0.0020572431 0.000731443 -0.0021262115 -0.0032245035 3.1871532e-05 0.0072480603 -0.003871089 -0.0044417917 -0.0037876228 0.020426093 -0.0028244467 0.004119455 -0.010054516 -0.0020058684 -0.0021835566 -0.0075671957 -0.0018971452 0.01591803 0.0033240253 -0.0018856172 -0.007835187 0.0019035595 0.006734354 -0.005255296 0.0011002598 0.0033234078 -0.0004803137 0.008042899 0.0023476216 -0.0029783214 -0.0023980583 -0.0015228132 -0.002157007 -0.0018106992 0.0016719789 -0.0062479484 -0.004167545 -0.00046385342 0.0033441263 -0.0029749488 0.0035068789 -0.0051678848 -0.0027347382 0.004524557 -0.003304573 -0.0027072227 3.7542573e-05 0.008116043 0.002362161 -0.01466261 -0.0002918243 -0.0026336303 0.0037641746 -0.002545726 0.0039354134 0.019065855 0.0007195164 -0.0031763804 -0.002683726 -0.005775286 0.00033173975 -0.000870762 -0.0016576239 -0.003842935 0.0025413246 -0.005715685 -0.023014432 -0.001156475 0.0011375439 9.817477e-05 0.001948285 0.0049043098 -0.0020567593 0.007100729 0.040083185 -0.0018318709 -0.014797798 -0.00016506533 -0.01862629 0.00079643534 -0.000722207 -0.0052197617 -0.003917114 0.01497384 -0.0066147293 -0.004316677 0.003798324 0.00034425798 0.003749795 0.001017345 0.004537734 -0.0034427473 -0.0023211285 -0.0014863802 0.001245114 0.016900126 -0.0023152423 -0.0032929776 -0.008354654 -0.00022191291 0.0015279298 -0.0055553266 0.0023312224 0.0061394875 -0.0025487642 -0.0013360066 -0.010722363 0.008069262 -0.00075573614 -0.0031042437 -0.0062818844 -0.0047348994 -0.010865125 -0.015356153 -0.0025971278 -0.003842765 -0.0067445594 0.0062485277 -0.00037079613 -0.004762042 0.0053696837 -1.7835966e-05 0.004837723 -0.009923809 0.0013823347 0.015345828 -0.023460172 -0.0005207257 0.0077473396 0.030220449 0.0038124395 -0.00175627 -0.0022177005 -0.0119274305 0.00071323605 0.020328049 0.027556004 0.0056739766 0.0038194405 0.023616027 -0.0016780735 0.0022951593 5.4475906e-05 -0.0027351843 -0.0044336873 0.0010187527 0.0050498354 0.0020654637 -0.0007020511 0.00059671816 -0.0039510066 0.013819029 0.0005541156 -0.000693726 0.004208959 0.018798009 -0.00066266244 -0.0032254788 -0.036889162 -0.0009891602 0.019763185 -0.009753943 -0.0042647272 0.010581727 0.002067415 -0.01649386 0.0022635758 0.0052028247 -0.0037975851 -0.0062440406 -0.0037340298 0.001455988 -0.0007556369 0.00730331 0.0023892184 0.0030293635 -0.005006959 -0.0027544417 0.0060308655 0.008230556 0.0019463209 0.003169725 0.0012777178 -0.00024489776 0.0030842584 -0.02327093 -0.0053008976 -0.0005570056 0.0042692046 0.0036991076 -0.0030545106 -0.0006204043 -6.620593e-05 -0.0023031996 -0.00045459607 -0.0009238945 -0.002439647 -0.00021679868 -0.0053173252 -0.0023526147 -0.0006332739 0.004866128 -0.008692238 -1.7307559e-05 -0.0038778845 -0.0007173459 0.00032147477 0.030404748 0.00048776684 -0.004328935 -0.001822591 -0.006322425 0.003507476 0.0036553896 0.0016580482 0.0013020318 0.011925076 0.04147452 -0.0004778685 -0.007457784 0.00018387208 -0.0016024798 -0.0027162682 0.007592947 -7.308944e-05 0.0016075912 -0.0015398605 -0.011994654 0.0011204511 -0.0020929251 0.002184284 0.017029658 0.0010189519 0.0022140427 -0.0029638878 0.0018091294 0.0027250783 -0.008192603 0.007701791 -0.00036597197 0.0014675906 0.002561277 0.005491603 -0.002122267 -0.0015266109 0.0036456524 0.002390258 0.00034252187 -0.00048077997 -0.002354257 -0.0050725173 -0.006499822 -0.016640516 0.0005908352 0.0004934245 -0.005893462 0.0018087672 -0.00046001858 -0.0011226858 -0.0030058618 -0.0019522852 -0.0071731806 0.0041379165 0.0056314743 -0.0072859097 -0.0028164503 0.0025933206 -0.04023109 -0.00577866 -0.025493883 -0.005444303 0.00035447866 0.0023685268 -0.0014516738 -0.0033476753 0.0044919043 0.0006936427 -0.005211533 -0.026297268 -0.0025172706 -0.012453937 -0.0027689103 -0.021617826 7.382683e-05 0.00014925479 -0.0011891844 0.0018038347 -0.0020245593 -0.0062270937 -0.0005791655 -0.0045929714 -0.0006377873 0.005616676 0.0019959265 0.0057544634 -0.0015188351 -0.0020213705 -0.0025293664 0.0024183907 -0.00022674334 0.010939082 -0.0068384353 0.002362991 0.002181839 -0.019087814 0.0006150545 0.009602214 0.03501309 0.00029678358 -0.004145971 0.00281264 -0.0069344076 0.00014938132 -0.0095624365 0.000499487 0.0051328666 -0.0061460314 -0.0021954617 0.017816192 0.0003850009 -0.007192331 -0.02248428 0.049244557 -0.0024349273 0.0012278564 0.040381048 0.0024843016 -0.002877694 0.0006474747 -0.026698468 -0.002802158 0.015666936 0.0038724095 -0.002191412 -0.0043323543 0.0038399321 -0.013963101 0.014374719 -0.01658887 -0.0021911985 0.00086802046 -0.007513515 0.003327117 -0.002933926 0.0037347812 0.0013798886 0.032406382 0.0021075367 -0.0028579293 0.0021164408 0.006583248 0.026324697 -0.0022825522 0.009577169 -0.005508129 0.00091823126 -0.0047212285 -8.01216e-05 -0.002063016 -0.00079629023 -0.0013882321 0.003777756 -0.011599489 -0.008973895 -0.014933161 -0.00018067277 -0.0013623046 0.0028224506 -0.003260041 -0.00372358 -0.0032932234 0.015499522 0.0007426792 -0.00025351494 -0.008910195 -0.0023060981 -0.00040762805 0.0027789166 -0.0028110887 0.0003939759 -0.018467968 0.015197217 0.004322269 -0.0014871531 -0.00033732105 -0.0028672395 -0.0030954643 0.012025966 0.0017271864 -0.012090111 -0.0050243777 -0.0012390551 -0.0121960435 -0.0003931452 0.032502454 0.001979047 0.004003092 -0.0046430947 0.0036151384 -0.0046521947 -0.0049664406 -0.00089565763 0.0020084924 0.003872227 -0.0046270937 -0.004153515 0.00035492884 -0.0010700471 -0.0019244598 -0.023988487 -0.0038939246 0.0018549924 -0.010926557 -0.0037631616 -0.00013759652 -0.0065288004 0.024348583 -0.00078257313 -0.0020697624 -0.0027400285 0.027791768 -0.0066142357 0.006849635 0.00096718693 -0.0019374621 0.0042001964 -0.003232304 -0.008700657 -0.0043046554 -0.003706427 -0.0031855835 0.0049723517 0.006236759 -0.001174765 0.010020302 0.0011640232 0.00082453736 0.0028737395 -0.000121614095 -0.0019600627 -0.00041510616 0.006076599 -0.0054917615 0.0019990262 -0.00038397 -0.0019216023 0.012212083 0.0049425783
0.0005073016 0.0016291417 -0.0016396926 -0.00044501692 -0.0005577772 -0.0034288222 0.0023775613 0.001091544 -0.0026941905 -0.0018029972 0.005505259 -0.0103098275 0.0023858638 -0.0034919395 -0.0014559219 -0.0018596278 0.001241115 0.021917034 -0.0007041747 0.0033711197 0.002881995 -0.0067018415 -0.0029865082 0.00027967972 1.27174635e-05 -0.0021636283 -0.00055968383 0.0019329687 -0.012142605 0.0111403465 -0.002315707 -0.0004418737 0.0013987768 0.018891996 -0.0043276376 7.21159e-05 -0.003727251 0.017255306 0.0037996618 0.0041105063 0.0028258343 0.0015254004 -0.00062730187 -0.016078984 -0.001377172 6.973405e-05 -0.003878546 0.0038214107 0.0021349967 0.0030620408 -0.0025997183 0.0015285375 -0.008179039 -0.0022047143 0.0009380222 -0.004750526 0.0008671515 -0.0037258058 0.0016026384 -0.0033768653 -0.013368529 -1.1984194e-05 -0.0013066747 0.00089106115 -0.0011070014 -0.0017696152 -0.00039890324 0.0050591887 0.0011635879 -0.0020234212 0.0012458384 -0.0029950195 -0.0038895796 -0.0017231544 -0.0033054792 0.002409651 0.009200976 -0.0013519194 0.0015426354 -0.0105167655 0.007253002 0.000791242 -0.0013807919 -0.001954345 0.0058092074 0.00668679 1.0243931e-05 -0.0103002405 -0.003817529 -0.010011039 -0.0052468386 -0.005981851 0.0020045054 0.0023914985 -0.005367028 -0.0020191902 0.001755073 -0.0024711208 0.00095375645 -0.0014392405 -0.00483725 -0.0018588159 -0.006232911 0.0029035534 -0.0037080697 0.0049549094 -0.002262634 -0.002108607 0.003070233 0.0006641829 0.005622868 0.0090350015 0.0032743076 0.00086246507 -0.00298108 0.00025970442 -0.0020172982 -0.0071040364 -0.020913599 0.016297562 -0.0027528724 -0.01006148 0.003079085 -0.009972061 0.0041616466 -0.0006277118 -0.0028508853 0.013820832 -0.0012415057 -0.0022774192 -0.027980527 -0.0032326623 6.417575e-05 -0.00040485125 8.0251426e-05 -0.008939454 -0.0025389206 0.011726915 0.013593599 0.0022930782 0.0010742062 0.002407272 -0.0051819673 -0.0045447703 0.005390499 0.0040448676 -0.0040413435 0.005569821 0.004544172 0.0018977358 -0.0047845254 0.0036002991 0.014046314 -0.012834394 -0.0023274503 0.006628303 -0.0010555309 0.009584494 0.002211169 0.00041888264 -0.01871354 0.001773153 0.0086465245 0.02682086 -0.0029642377 -0.00026794153 0.0047973655 0.010633247 -0.0026494935 0.0018153205 0.006290761 0.0018211738 0.0021649823 0.0002933731 0.0015951012 0.0036402715 -0.003308933 -0.005068011 -0.0008372715 -0.0007136662 0.0017602363 -0.0039858106 0.0015250794 -0.003344955 -0.0017379124 0.0017286969 -0.0044262647 -0.0150818955 -0.018302625 0.011624479 -0.011759887 -0.003997308 -0.011386749 0.0009120996 0.0004685316 -0.03089908 -0.00026277365 0.0074253716 0.005943722 0.0067794705 0.02544508 0.011938258 -0.0025667222 -0.0049153296 0.003548312 0.0020666732 -0.0029641064 -0.0064714956 0.0015947699 0.0006940295 0.017987631 0.0018134477 -0.00084245537 0.00040899435 -0.00042417223 0.0067505194 0.0002731869 0.0017254924 -0.005710709 -0.0073939157 0.011257719 0.0017130965 -0.05220205 8.413163e-05 -0.021278236 0.0006044413 0.0092051765 -0.010052742 0.0033858642 0.004653563 -0.0008323422 -0.003830003 -0.0016682072 0.0066582575 -0.0018967445 0.0015623174 -0.0030234822 0.0034945996 0.002087361 -0.0026435961 0.006726009 0.0053915665 0.0029376426 -0.008217156 -0.0038349228 0.0025658724 -0.0072853 0.0021378153 0.0024951792 -0.0031707934 -0.00087484345 -0.0003310989 -0.014939634 0.0052126134 0.0086485 0.0007417329 -0.0027299298 0.015485358 -0.0037680143 0.0052961996 0.0013052257 -0.00047215543 -0.0027424346 -0.0017371495 0.00851266 0.0017245788 -0.0015023489 0.011435289 -0.0004151754 0.0017313736 0.00421403 0.07178894 -0.007580166 0.00391282 0.00084381574 -0.00030374178 -0.0023386127 0.0017123999 -0.0029734897 -0.0017092015 -0.0101134265 0.0174263 0.0049384586 0.013358506 0.005320116 -0.00025071748 -0.0040055173 -0.003077472 -0.0038442016 -0.0033794136 0.0045627747 -0.02558615 -0.0025596926 0.0045199227 0.0053815483 -0.017335592 -0.0030247658 -0.006744499 -0.0023786013 -0.0013487563 -0.0006099689 0.0055968002 -0.007800437 -0.003405134 -0.0008993996 -0.0017355796 0.0057278126 -0.0039621927 0.00010594563 0.018375214 -0.002690111 0.0017483244 -0.007326989 0.0064470004 -0.0011365382 0.0055253296 -0.008954383 -0.0034430032 0.00025515628 0.016524242 0.0012086055 -0.00016218153 0.001781761 0.00025552994 -0.006923838 -3.634533e-05 -0.0038048849 -0.004140728 -0.0039465385 0.00044371467 -0.0004032431 -0.02524412 -0.0008843209 -0.013868568 -3.39013e-05 -0.0025709919 0.0026740804 -0.004702678 -0.0011402376 -0.00038999514 0.004660012 -0.004998025 -0.025220705 -2.840618e-05 -0.033835385 -0.00081372756 -0.014826686 0.003487857 -0.004841957 -0.0007107576 0.0017467127 0.005616164 9.604294e-05 -0.001791641 -0.00048754865 -0.004387664 -0.0016169493 0.0019827816 -0.00046152118 0.027221384 -0.005923281 0.0023625288 -0.004178302 0.0013922418 -0.005349236 0.015168526 0.002331148 -0.008993911 0.051419806 -0.0044083283 -0.009012624 0.004981184 0.0005093674 -0.00012405837 -0.0029524562 0.019547869 -0.0020550017 -0.022533543 -0.003565103 -0.0013713008 0.0037302575 0.0013879267 -0.0045632133 -0.009461949 0.006820203 0.005555281 0.054322794 -0.0021215503 0.008032908 -0.014195598 0.0032274474 -0.0015286393 -0.003343877 -0.012818258 -0.0104971705 -0.018321836 0.0018344452 -0.00480563 0.002927257 -0.005070685 -0.0069737653 0.008719943 0.0020132805 -0.003228947 -0.005172711 0.010150861 -0.0014296989 0.0033964303 0.0012342453 -0.0007093889 -0.007205291 -0.0015422805 -0.0009303613 -0.0012608041 -0.0076591903 0.0066078436 -0.008598327 -0.01026734 0.0050460394 -0.00082809426 0.0007750879 -0.0018785279 0.014844275 0.0029160287 0.0043990505 -0.024545467 0.0036898165 -1.9832012e-05 0.007823611 0.001073979 0.003961374 0.0071350695 0.006932588 0.004634897 -0.0016020318 -0.0072194166 0.0005561441 -0.005226434 0.0025565661 0.0015407223 0.00093307934 -0.017214954 -0.0034638008 -0.0005882696 -0.02590878 0.014138404 -0.0049533723 0.0014980381 0.00035373084 -0.0023540282 -0.0038111997 -0.0119377645 -0.0073405425 -0.005940681 -0.0006975738 0.0048635444 0.014758431 0.0028868807 -0.033909872 -0.0028769493 -0.0005500334 0.0047242856 -0.0019035155 -0.0018289528 -0.0025688838 -0.003660041 -0.00031276833 -0.0006637538 -0.016395198 -0.0029431293 -0.0005329242 -0.00048433593 -0.002782532 0.008023289 -0.0028804832 -0.00047203127 0.023416072 -0.0009484649 0.0026621195 0.0020018206 0.09403023 0.0052958843 0.0005708604 -0.00097000797 -0.0008397884 -0.00601347 -0.035697978 0.0061743944 0.004381613 -0.00074659934 0.0037831326 0.014768984 -0.0007620842 0.01068065 0.014273149 0.0036753088 0.0007029812 0.0025398934 0.004557226 -0.0027296098 0.003812119 -0.0028416414 0.005602095 -0.0008446537 0.0050792643 0.0058525507 -0.0031458323 -0.0024798496 -0.0017239676 -0.004340053 -0.0018331603 -0.0048958575
0.0007944689 -0.00091174385 0.00369596 0.0002408417 -0.0010456624 0.00082978007 -0.002401785 -0.00064385694 0.001233481 0.0008553247 0.00046700952 -0.00095554825 0.0030597395 -6.0322272e-05 0.0033778525 0.0018664035 0.00072623097 0.00061318616 -0.0010220752 0.0009116736 -0.00037203604 -0.021459097 9.9749835e-05 0.00047517705 0.002119731 0.0019146858 -0.0016734796 0.0013248844 -0.011256233 0.0014320047 -0.000474229 0.0015298536 0.0004923916 0.0014982786 0.00060914655 0.0012903422 0.0008393526 -0.0010388918 0.00017680184 -0.001317461 -0.00070729194 0.004573719 0.00050053914 4.9703638e-05 -0.0009945346 0.0005627685 0.0009855727 -0.0018385209 -0.00047143042 -0.0018275849 -0.0014555736 0.002737448 0.002489295 -7.917479e-05 0.0007586203 -0.0016850585 -0.0020155245 -0.0038183704 -0.00085396477 0.00043700775 0.00018999049 -0.0014410138 4.532457e-06 -0.0007626662 0.02054893 0.0015425856 -0.0005709116 -0.0012647411 -0.0007774232 -0.001496215 -0.0011279233 0.0002590422 -0.002376332 -1.6999971e-05 -0.0009171201 0.0004895121 -0.0016079977 0.00059770775 -0.0007402288 0.006047911 -5.503091e-05 -0.002337003 -0.00036743935 -0.0009263679 0.0039599524 -1.1286498e-05 0.001024816 -0.00503419 -0.0006734573 0.0004778256 0.0017933948 0.00030237873 -0.00082651497 2.0892614e-05 0.00054019556 1.903647e-05 0.0019754737 -0.0036938894 0.00041583454 -0.00021521751 -0.00025568155 -0.0022582652 -0.001038872 0.00028460877 -0.0002935524 -0.0010630348 0.00030694864 -0.0010736038 -0.0026963516 0.0018955847 0.0005657412 -0.001961975 -0.001386996 -0.0093283905 0.00024821475 0.0003671883 0.0016798999 0.0008442271 0.0016060336 0.0023489404 -0.0024143804 -0.0023878035 0.002121875 0.0048014177 -0.0002490908 -0.001227815 0.0005237616 -0.0019735885 0.00095725537 0.0035227682 -0.0026282375 -0.0014924787 -0.0019289685 0.00020104242 0.002159695 0.0010235312 -0.0022153833 0.0017687819 -0.00030774958 -0.001398036 0.001302446 7.9294616e-05 0.005584294 0.0011871121 0.0016986612 0.0023866578 -0.00088669424 -0.0007827855 -0.0005836128 -0.00025306098 0.0027987522 0.000812883 -0.0006686506 0.0006865777 0.0013032879 0.002208765 0.0017982301 -4.2610583e-05 0.0004612664 0.021866174 -0.001426019 -0.00036921017 -0.00039575313 -0.00025812903 -0.0007788393 -0.002071597 -0.0010215569 0.0007074957 0.001703319 0.0013202314 -0.00023110157 -0.0035440414 -0.0012893706 0.00022122366 0.001092396 0.0002793581 -0.004634176 0.012343358 -0.0002937847 0.0022338314 -0.0015857916 -0.0013565362 0.0010605806 -0.0004912518 -0.0012379074 -0.0012735559 0.0007043577 -0.0033348675 -0.00081856106 -0.0015605876 0.0026671183 -0.0018218175 -0.0003837668 -0.015097118 -0.0005265149 -0.0072957734 0.0017241775 -0.0046091876 -3.3141384e-06 0.0031830198 0.006736217 0.0009384133 0.00088052434 -0.016764918 0.00038323077 0.0017528723 -0.0007473626 6.933533e-05 -0.0009369698 -0.0034816116 -0.0035568667 0.00087717135 -0.0016370447 0.0008061616 0.0017326141 -0.004254156 -0.001481413 -3.456533e-05 -0.00062047754 0.0015495955 -0.0012727634 0.0004971698 -0.0051682433 -0.00030823567 0.0022753691 -0.00059318147 0.0024438081 -0.0012894567 -0.0018906329 0.0008064935 -0.0018271615 -0.0012016253 3.1395135e-05 -0.000769286 0.00048149287 -0.000296523 -0.0025405062 -0.0023400746 0.002233181 0.00080367166 -0.00059760973 -0.0005731547 0.00037069235 0.006874039 -0.0017263799 0.0012322969 -0.0029329043 0.0012588386 -4.5407924e-05 -0.006377509 0.0015209871 0.0007194696 0.0025484667 0.00028649956 -0.00048159517 -4.308914e-05 0.00024659082 -0.0022222803 -0.00026825047 -0.0005381849 -0.00037909913 -0.0008330895 0.003472426 0.0020759692 -0.0037621867 -0.0018342887 0.00038773345 0.0043437392 -0.0002494316 -4.536148e-05 0.0016575253 0.0075885854 0.00038364631 -0.0008926587 0.0007005789 -0.0006649487 -0.00082703494 -0.00069135847 -0.0007226585 0.0011088524 0.008691558 0.0110953795 0.00089679734 -0.00072591583 -0.00023424775 -0.0016298869 -0.0013876058 -0.00034391612 -0.00022965182 0.0004493542 0.000418516 0.006381348 0.00086447987 0.0021088338 0.001009311 0.0058731483 -0.0017518427 0.00077057106 -0.0012479976 -0.00022051325 -0.00039439855 -0.00077402464 0.0001934482 -0.00047565147 -0.0004222511 -0.0021798378 -0.0006145566 0.0013654006 -0.0015700827 0.0024657517 0.0036169623 -0.00041597037 -0.0019990802 -0.000981305 -0.0003099933 0.0030230244 -0.0036703523 0.0018578571 0.0006411828 -0.00017883276 0.002097767 -0.0009945307 -0.00092813786 0.0006706642 0.0015839753 0.001124986 -0.0011504997 -0.0017225152 0.0013766557 0.00046281688 -0.0011190904 0.0069999155 0.00068536197 -0.0002648567 -0.0006265874 -0.002569775 0.0009072608 -0.00077815476 0.00038430383 -0.0015647563 0.0007641732 -0.00047746082 0.016817493 0.00018639838 0.0015796048 -0.001487995 -0.002053321 0.001476492 0.0034811236 0.0014733202 -0.0030428327 -0.0018967284 -0.0004969121 -0.0025757821 -0.0023614177 -2.4510002e-06 0.00020195964 -0.00010406011 0.0005887189 -0.014090108 -4.2206066e-05 -0.0019928925 0.0003254806 0.0003028333 0.0012985211 0.00061028916 -0.00054887444 -0.0024993864 -0.008721335 0.0010268888 0.0039348127 0.0080350945 0.0007647385 -0.010484644 7.430122e-05 -0.00022180812 0.0016252642 -0.016405625 0.0015486163 0.005003122 0.00033060898 -0.0014810271 -0.009813358 0.00042745718 -0.0038883898 0.0030122318 -0.0009105331 -0.00012963823 -0.0013771342 -0.010244674 -0.0012211556 -0.00027477133 -0.0013804131 -0.003679819 0.005053186 0.0040198546 0.00062782323 0.0006056053 -0.0015710219 -0.0007400715 -0.0019619903 0.0060470705 -0.0010474027 -0.0026032936 0.00037694367 -0.00287677 -0.002056159 0.00025783794 0.0007663468 -0.00017737105 0.00011066545 -0.00043675952 -0.00037680205 0.00015821728 0.0003532645 -0.002723808 0.00079420727 -0.0030263348 0.00032949858 0.0002282353 0.00041509565 0.00061424566 -0.0017262773 -0.00029933732 -0.0010882276 -0.0026336845 0.0005858548 0.0006439878 0.016944816 0.0008390577 0.00011679268 0.00052474975 0.0012690792 -0.0008344532 0.00149198 0.001669956 7.155632e-05 0.0007125436 0.0014545611 0.006173458 -0.00022991197 -0.0011378778 0.001815478 0.00083085295 0.001698502 0.0025675062 0.00023225468 -0.00143187 -0.0009834534 0.0011557564 -0.00076059485 -0.002177237 -0.00062898383 0.0006557537 -0.002656937 -0.00022576294 -0.00012230533 0.00022814615 -2.2698376e-05 0.0014887808 -0.00059919583 -0.00045456193 -4.0466193e-07 0.00019543609 -0.0002930156 -4.2789594e-05 -0.0001117413 -0.0012596921 -7.84135e-05 0.00097141665 0.0021708896 -0.0013772056 0.0010655952 0.0008996205 -0.001042001 0.0008257885 -0.00030652847 0.00053605693 0.0015210205 -0.0016605671 0.005392281 0.000405574 -0.0016159334 0.0014935309 -0.0057811723 -0.0032225032 0.003435067 0.0022541313 0.00022474094 0.0009435858 0.00031920057 0.0014932125 -0.00085108407 -0.001073351 -0.00020871393 0.004778765 0.0014497819 -0.00019875434 -0.0013143503 0.00043058026 0.00022845007 0.009677478 -0.0008765782 -0.0013125238 0.00068306393 -0.0015534834 0.0009778443 -0.0020646125 0.00029901307 -0.0022828244 -0.00012771878 0.0025185468
