0.003327589 -0.0014626231 -0.00095691043 0.004310381 -0.0014376908 -0.0032062936 0.016264288 -0.0059961397 -0.0039687855 0.011899965 0.0016521043 0.0029423886 -0.0034001954 -0.0032153837 -0.004591111 -0.010937662 -0.00033901553 0.001204351 -0.0029251487 0.0027147336 0.0012118651 0.0024839542 0.002659077 -0.0071996055 0.0016041856 0.006918595 0.0024308134 0.0037841264 -0.00021600744 -0.0066318964 0.008820383 -0.018248346 -0.004247309 0.0039830008 0.0023249292 -0.0049996986 -0.0013662056 0.0033535766 0.00038919318 -0.00054043724 -0.00027252716 -0.0074582747 -0.021895126 -0.0050151814 -0.0025177943 -0.016044956 -0.0014267892 0.004065126 -0.0016622777 -0.0057096975 0.00089255406 -0.0030942038 0.0069627366 0.004943765 -0.00019269958 -0.0070213415 -0.0060025323 -0.0033275534 0.0020566464 0.0045956993 -0.006047302 -0.00088325085 -0.0016883374 0.0001203608 1.5879608e-06 -3.0983076e-06 0.0030638278 -0.0014838157 -0.0019271987 -0.004066927 -0.008455835 0.0016993423 0.0067099733 -0.002654485 0.00399739 -2.8150203e-05 -0.0016871121 -0.004437261 0.002868078 -0.00044025813 -0.000644107 0.0030689738 -0.0008280724 -0.007563766 -0.001479145 0.00065771 -0.0040515666 0.00020750657 -0.00047174652 0.02853293 -0.0020741713 0.0031338516 0.0016319737 0.0013480724 0.0049315863 7.498608e-05 -0.0116552785 -0.0025329606 -0.0051092855 -0.00062857807 -0.00010304503 -0.0003328521 0.0014006041 -0.0010078308 0.0002936407 0.005093656 -0.00587639 -0.006204875 0.0056501366 -0.0046018325 -0.0012825453 -0.0044449437 -0.011172861 -0.0031521383 0.0012426035 5.3668842e-05 0.0002270285 -0.0119147245 0.006411415 0.0042628082 -0.0067190877 0.00049858936 -0.0012909031 0.0021371876 -0.0004475663 -0.0013541958 -0.0030071717 0.0020879647 0.008558551 -0.0045500556 0.0026892636 0.0009456208 0.009063526 -0.001409957 0.0028360514 0.00016589089 0.0020756624 0.0018667709 1.932525e-05 -0.0013124818 0.004440844 0.0018079808 0.004313027 0.004214782 0.00035249605 0.00046228178 -0.0010668456 -0.0021635154 0.009922515 0.005009213 0.0017514225 0.00015002603 0.0039813425 0.0031575146 -0.0034832223 0.009853499 -0.010356044 -0.0026107028 0.007747436 0.003692866 0.0035250725 -0.0002675514 0.005844213 -0.006402772 0.0023696818 0.0033946612 -0.0007469001 -0.0010304569 7.764922e-05 0.0010606139 -0.0010823136 -0.014763902 0.0022361462 0.003632089 -0.0055874228 0.0076510343 0.0029344507 -0.001327825 -0.0007307239 -0.0043968745 -0.000555652 0.0019424375 -0.00014761278 0.0011898425 -0.005380684 0.02406473 -0.0011244409 -0.007594463 -0.022301989 -0.0062849303 0.0024212827 0.002946412 -0.00083803054 -0.008674108 -0.0047007203 -0.01671625 -0.0007793465 0.002632544 0.006479908 -0.0031441695 -0.0011008021 -0.0011893135 0.00029105245 -0.0009742721 0.0047978787 0.0024106964 -0.009135979 -0.0031418935 -0.00026693117 -0.025238588 0.0034940578 -0.005459932 0.0040424936 0.008088162 0.013620756 0.0013415616 -0.0016126623 0.018518517 -0.0056800274 0.0001362518 0.0059294757 0.003047093 -3.1481035e-05 -0.00060177577 -0.008810083 0.008744937 -0.006100951 0.027223544 0.0040377327 -0.00050820183 0.0011161547 0.0052420367 -0.0026045043 -0.005195653 -0.004546536 -0.002216286 0.0017966366 -0.0011725127 -0.006630011 -0.0021762878 0.0060507595 -0.0017132021 0.009050896 0.0007319674 0.0011974713 -0.00094978506 -0.0017156529 -0.008215746 -0.0030529483 -0.00041614464 0.0023149133 0.00028404873 -0.0010015727 -0.015128686 -0.0021611396 0.010664936 0.0046039205 -0.0039654807 0.0025242118 -0.005671247 0.0028842455 0.00042155688 -0.0023804936 0.0037372618 -0.0028821363 0.0061658737 -0.002413852 -3.3901175e-05 0.004935072 -0.01283963 0.0007167546 0.004490273 0.0046024863 -0.009756219 -0.003937206 0.0010050343 0.0016495539 -0.0045096586 -0.0037695721 0.0003423705 -0.0022021413 0.0007381906 0.001962979 -0.010663687 0.0049444484 -0.0040673595 0.0020413757 -0.006610257 -0.0012479643 -0.010599878 -0.00096456945 0.008324443 0.003965281 0.0018789587 0.0048334766 0.0006805049 -0.0045560496 -0.0029746701 0.004332221 0.0032246318 0.00086824666 0.003602267 -0.0072716977 0.00048888335 -0.012910702 0.00012635914 -0.0014161723 -0.0055564763 0.0022390692 -0.00315526 0.009765827 -0.0014841199 0.0010556084 0.0022490858 0.00090192637 0.034816984 0.0014420459 0.00016507453 0.004065403 -0.0019307416 -0.0036001543 -0.0010049257 0.0031954322 -0.00071795663 0.003950911 0.0015753283 0.0030996478 0.0006674067 0.0031718349 6.1281295e-05 -0.00040709644 0.0043358905 -0.004304806 -0.00089784106 0.0029988005 0.006465764 -0.00072787865 0.0017729903 0.019093059 -0.0015086931 -0.0011734249 -0.0007216099 0.0049420637 0.006045858 0.0020629643 -0.0028781316 0.0012148559 -0.0060557714 -0.0066164234 0.006816524 -0.0005670406 0.009647758 -0.0004192181 -0.0014514629 0.0021940386 0.00462949 0.0021262455 -0.0067961714 -0.0083167795 -0.006219267 -0.0007080664 -0.0038689137 -0.0031891002 -0.015073459 -0.0076706125 -0.0027765566 0.0015063619 0.0017754158 0.0020491448 0.009658078 0.020584542 0.025151042 0.0019227623 -0.0015024487 0.0022905867 -0.0035454286 -0.0077062133 -0.012359022 -0.0019605213 -0.0012831192 0.0026706106 0.0002781906 -0.004396219 0.0032022293 0.0008439671 0.009533383 -0.0022966764 0.002290575 0.0007799486 -0.00019374235 0.0017431747 0.00023494518 -0.00022130099 -0.0036407295 -0.0019956348 0.0007643588 -0.0022217305 -0.00041141987 0.002767783 0.000118898635 -0.030901847 -0.00070915645 -0.00038026433 -0.002765556 0.005333328 0.002521196 -0.004639117 -0.0052798474 0.00092271465 0.00030146193 0.0003064674 0.0010602861 -0.002314843 -0.00028716426 -0.0047315573 -0.0028599189 -0.0036829924 0.008475114 -0.005046259 -0.0036576947 -0.003107467 -0.008447946 -0.0060228636 -0.0023283693 0.00044138785 -0.00025695126 -0.004329569 0.00074115273 -0.003727612 -0.0009523289 -0.0014270592 -0.0003831642 0.001326349 0.002776251 -0.0007192811 0.0051241335 0.010954191 -0.008922322 -0.025069535 -0.0022648883 0.0032728543 0.009094429 -0.0033121398 0.0015073137 -0.002973512 -0.0019067894 0.000714765 -0.0011062503 -0.0042161057 0.00045525728 0.0030501261 0.0010783795 0.002064609 0.012521069 -0.008257808 0.014757803 0.0040201675 -0.0065032067 0.0010511582 0.012536099 -0.019049235 0.010915059 0.0018236177 -0.022322178 0.002246171 -0.0021856828 0.014285473 -0.0058961916 0.001011747 0.0005158188 -0.0006527251 0.000652792 0.0050364556 0.0006306292 0.0004782715 -0.0005324 -0.002357763 0.009473264 0.006112593 0.0024143516 0.0004324847 0.0010899077 0.00648055 -0.0050653946 -0.00095343625 0.0021301191 -0.001964116 -0.0025759863 -0.00053292507 0.005849744 -0.0013039437 0.00078694994 -0.001918614 0.0036833987 -0.002736814 0.0026426893 -0.010109684 0.0047680084 0.0016333094 -0.0015612626 0.0021706608 -0.001104704 0.008865712 0.0018081155 -0.0021881287 -0.0006921481 0.0036788778 -0.0018663963 -0.0062846085 -0.001815324 -0.0039515854 -6.707408e-05
-0.010995008 0.007168164 0.00028481116 0.010014083 -0.007710101 -0.0064611617 0.010945394 0.003449269 0.0017500594 -0.03736122 -0.002947637 -0.010660379 -0.009691474 0.00633794 0.036793556 -0.007745345 0.0010786077 0.0031426298 -0.0031222182 0.008325856 -0.0015835006 0.011512228 -0.0014389614 0.0048501375 -0.00706332 -0.0034594228 -0.0022960885 -0.024400387 -0.002825883 -0.00400277 -0.0060992343 -0.010391428 -0.011623198 0.012500386 -0.003911698 -0.0033159093 -0.0019758968 0.00071907026 0.0052726343 -0.0027890422 0.0004920243 -0.0028787882 0.00085009687 -0.0015208675 -0.015398593 -0.016115831 0.003036852 -0.0020778354 -0.010912016 -0.00662477 -0.023995977 0.0060436735 -0.0018086358 -0.0029232737 0.0023117773 -0.0036829864 -0.0075151934 0.012061807 0.00571419 0.0273486 -0.006876546 0.0061728023 0.0016335214 -0.006210313 0.0011333389 0.005165284 0.009218208 -0.036988195 0.0067468076 0.0009707879 -0.012691735 0.0012749449 -0.02373451 0.01873894 -0.0064681354 0.021893999 -0.0041073626 -0.023987243 -0.0027300944 0.0019675654 -0.0033460723 0.00498037 0.013855956 -0.002154098 0.0012908515 -0.010567067 -0.0056766006 0.010807071 0.01016547 -0.005840095 -0.0020558017 -0.0037007178 -0.0036476355 -0.0024633417 -0.008514621 0.011071819 -0.0038779483 -0.007285622 -0.011016453 0.03512947 0.0014225522 0.0018624759 -0.00390058 1.7144426e-05 -4.3709388e-05 -0.015912533 0.011031005 0.0007856182 0.003740359 -0.006557678 -0.0024061939 -0.023122476 -0.0026932096 -0.008477463 0.0006497494 0.004145884 0.0015585324 -0.017094228 -0.0030046816 -0.0055855913 0.0076896967 -0.0019546202 -0.003316384 7.455227e-05 -0.002551317 -0.0025141074 0.009708679 0.008558758 0.032482218 -0.003513359 -0.00125502 0.0040546395 -0.03347595 -0.004861677 -0.0038414465 -0.014689882 0.0005713912 0.0018056959 0.0043022907 -0.0020968188 0.0076133995 0.015071362 -0.010898838 0.001179823 -0.0018306315 0.0071092197 -0.0005683594 -0.005515288 -0.014174055 0.0042461855 0.006718252 0.00033078797 0.023284655 0.0033142273 0.011758258 -0.0026739673 -0.0020391368 0.0069948398 -0.0013880254 0.0012216021 0.0053931675 0.0009735845 -0.01290446 0.011373804 0.0005874627 0.003846279 -0.0019412054 0.006027055 -0.0010970664 0.012567156 0.00036268285 0.003378321 0.0111223 -0.002621522 -0.0017982703 -0.010772205 -0.004234022 -0.00022968846 -0.0055545233 -0.0015932219 0.0030879874 -0.001002866 0.0019400854 -0.009970786 0.007022765 -0.0005068608 -0.010623053 -0.066239886 -0.02627242 -0.0032858166 0.019811329 0.0022484993 0.0036699483 -0.0024936264 -0.00074085436 0.01498039 0.014900694 -0.001965135 0.007876271 -0.0003324242 -0.0007250439 -0.0036237983 0.0009697539 0.0019053973 0.003843796 0.00018411549 0.0032015687 -0.021118116 -0.003385727 0.008778699 -0.00259282 0.0017047446 -0.005322201 -0.0022444082 0.020103235 -0.0020271647 -0.0015809261 -0.0127617875 -0.005867194 -0.002948694 -0.007420189 0.0013230117 -0.002704874 0.0035935768 0.0069733495 -0.0053777774 0.013795205 -0.0007761973 0.0033724816 -0.0015807943 -0.0019275667 -0.020365385 0.00891511 0.01239387 0.0022714618 -0.001131129 -0.005029009 0.007113459 -0.020193974 0.0032252944 0.0010225442 -0.0028592981 0.013177986 0.0009151979 0.0015979605 -0.010045451 0.0034630925 -0.009101302 -2.350467e-05 0.00595754 0.0036851724 -0.0081722345 -0.0028819926 -0.0005590413 -0.011941303 0.016945295 0.022651019 0.0065023485 0.00773808 -0.0038928967 0.00463719 0.00060256815 -0.0026295215 0.004268011 0.0031005668 0.004154329 0.0063314005 -0.009654133 -0.006383739 0.027445618 0.00026978643 0.009328289 0.0005579513 0.020711113 -0.0067990883 0.0004998685 0.002338585 -0.013055676 -0.0007751003 0.00192395 -0.011539247 0.004693437 -0.0026612103 -0.0055985753 -0.016316462 0.00046324782 -0.00790088 0.0032866145 -0.0008325468 0.0058874045 0.008972825 -0.003905893 0.0050162603 -0.0036151218 -0.009831924 -0.0031863812 0.004456908 -0.0061319484 -0.07930716 -0.0074849217 0.0021931962 -0.0017214358 0.003627477 0.0020319775 0.03162463 -0.000583992 -0.007365125 -0.0068475814 0.0041232463 -0.0020173476 -0.023965629 -0.00095116923 0.004091045 -0.010720326 -0.0005253899 0.0010098605 0.00023215493 0.004226983 0.0036130713 -0.0014082623 -0.0010203716 -0.00091534894 -0.0019288785 -0.0046593365 -0.021400783 0.004394957 -0.00026779636 -0.001738937 -0.005544133 -0.005086429 0.00029530204 -0.029500406 -0.00095619017 -0.0021869927 -0.012988909 0.0041949176 0.0038375529 0.018873002 -0.01021694 -0.016438028 0.0012873859 0.003829817 -0.0069528148 -0.0012327215 0.0009539999 -0.007445983 -0.0012067525 0.022738593 -0.03027572 -0.027071955 0.0007750269 -0.015781704 -0.0027602895 -5.3263837e-05 -0.021923652 0.004187849 -0.0039030765 -0.0012668207 0.0012031209 -0.00822034 0.0030177042 0.010598093 -0.014968879 0.0031466614 -0.007940704 0.0056972536 -0.006050271 0.00541501 0.000957334 -0.045485277 -0.0060903174 -0.0066218334 0.0045008743 -0.0013668049 0.00074233627 0.0130802095 0.011278164 0.0196849 0.0076636225 -0.0010175603 -0.00028161204 -0.0051503046 -0.006153198 0.04708837 -0.030581784 0.004078869 0.0025747018 -0.00051437895 0.0052352985 -0.0017055138 0.00055145717 -0.0147559885 0.0033921795 -0.00028812935 -0.0037552319 0.00081217143 -0.00048990524 -0.0077513936 0.0022073614 -0.00012917376 -0.0013815762 -0.00011490373 -0.0039106263 0.00017927116 0.023037422 0.005932959 -0.002412386 -0.022183884 0.0037822223 0.002972182 0.0015688757 0.009751466 -0.01008444 -0.017131988 0.018210944 -0.016086685 0.0003550933 -0.033157397 -0.0064547025 0.0064227344 -0.021481704 0.016756004 0.0024658947 -0.00038661924 -0.0049464153 -0.0069383164 -0.006945223 -0.0017018822 0.0038479534 -0.0026997824 0.0017681164 0.009605158 -0.009731274 0.0021172166 0.012531046 -0.008551893 -0.008568581 -0.015668197 0.00546574 -0.010057801 0.013150831 -0.021509584 0.003124728 0.0027199623 -0.001010821 -0.0016322992 0.0008954128 0.02128991 -0.010385934 -0.0076237116 0.0016081948 0.005708418 -0.0072018653 -0.0055719907 0.009567162 0.003103718 -0.006543081 0.010318415 -0.0020600073 0.008017873 0.019953268 0.014805675 0.003229045 -0.0016897667 0.0061705527 0.0009580846 -0.0012491099 0.022453172 0.0038335458 -0.0006373641 0.0020256117 0.010048226 0.008449939 -0.0063999 -0.0025553189 0.0046294 0.0038566322 -0.0038160307 0.0026553418 0.017214285 0.002463495 0.0032158738 -0.002301097 -0.002215346 -0.0070271925 0.0023155757 -0.001538287 -0.0011383755 -0.0026028848 -0.0430026 2.471654e-05 -0.0009382744 -0.026081331 0.005694666 0.00404001 0.010405564 0.0098675545 -0.00035101254 -0.0039654104 -0.007734057 0.004855842 0.002230753 -0.0008249459 -0.00015945121 0.0019844256 0.0047345893 -0.004046114 -4.1724194e-05 -0.008743527 -0.00020481792 -0.014576766 0.0011332394
0.004223704 0.005206737 -0.0041962597 0.009653973 -0.008570507 0.009398503 -0.019982262 -0.001295976 0.0041363244 0.02880886 -0.004041151 0.013258966 0.0026009197 0.0011270004 0.025616316 -0.0024063252 0.004548019 -0.0022025136 -0.0058526117 -0.002933892 -0.0058423653 0.005693138 -0.0022338184 0.007363933 -0.036157433 0.0068543856 0.0012313984 -0.035737146 -0.0008505084 0.012972045 0.036992006 0.021038739 0.024451427 0.0068864487 0.0030968 -0.0071366057 0.0015628239 0.0033065297 0.0008530048 0.001242484 0.001179299 0.0015449104 -0.0010597574 -0.0019151337 -0.010708373 0.019445935 -0.004038129 -0.008204513 0.011004947 -0.0050735055 -0.0039283186 -0.013486398 0.0029925457 -0.0018600674 0.0016922607 -0.003164161 0.0028379965 0.00074108853 -0.0028140747 -0.030845327 -0.0050648004 -0.0034258727 -0.005736253 0.00077252777 0.008273948 0.01328084 -0.005271676 0.008042473 -0.01162329 0.003582871 -0.018935641 0.002696168 -0.012063944 -0.0017676381 -0.0023160523 0.0014774195 -0.001682385 -0.017351247 0.0011483048 0.031433865 -0.004685587 0.0006796162 -0.008974043 0.0057846787 0.0026097163 -0.025603572 -0.005515669 0.002084734 -0.007911524 -0.0034270755 -0.0013398202 -0.0019470414 -0.004893735 -0.00040310086 -0.0041547385 0.011294606 0.00033607532 0.007797953 -0.003180499 -0.013829817 0.0016336028 -0.005087588 0.010877555 0.0013824741 -0.0038725142 -0.0035315165 0.004316764 -0.0006793658 -0.0027212247 -0.010593531 0.0017008147 -0.011387251 -0.005433205 0.0049245665 -0.005279139 0.00042973095 -0.0028144675 -0.015009746 0.0001332597 -0.00819402 -0.015300048 -0.0031746267 0.0002735953 0.001220334 -0.016531378 0.00031637243 0.01109604 0.008640368 0.0057193963 -0.004678881 0.00087972323 0.006631941 -0.004837488 0.0051202667 0.002632795 0.01153636 -0.002929671 -0.02059744 -0.040272098 0.0011682743 -0.0041666143 -0.003195334 -0.004370828 0.006108301 -0.0016249971 -0.004842195 0.00078425807 0.02306071 0.009891944 0.03288592 0.0053456454 0.00059818407 -0.0127286995 0.004541814 -0.004969328 -0.00070321735 0.01904434 0.0014499696 -0.0010869557 -0.0049557267 -0.008851875 0.0051166485 -0.0021910933 -0.01541791 0.0020026816 0.002609295 0.005248457 0.0122269755 0.0039338106 -0.020275304 -0.0036800508 0.009740648 0.008197477 -0.012130089 0.0028925252 -0.0016068544 0.00017916523 -0.007515145 0.0013446083 0.00029509197 0.00025489586 0.004536768 0.0008132955 0.004277386 0.008288175 0.0036679253 -0.009758604 -0.007998255 0.010741448 -0.019139325 0.025095545 0.0045609847 0.0010231924 0.0022000873 -0.0064965445 0.022591183 0.035049453 -0.0033196236 0.02346688 0.0036904844 -0.0022520074 0.0017461618 -0.0049303384 0.0020601086 0.03877167 0.0038840657 0.014877323 0.0035768882 0.0024417401 -0.0059719807 -0.0048698685 -0.010966658 -0.017568124 -0.018701209 -0.019572606 -0.00335898 -0.001953156 -0.009547414 0.012384708 0.014548069 -0.0040870565 -0.0027795504 0.02314113 -0.02473603 -0.003658691 0.01612411 -0.01137793 0.012937165 0.004352984 -0.004675377 -4.030281e-05 0.019517586 -0.0047461623 0.019602131 0.0021643944 -0.0064826673 -0.002399082 -0.017605156 0.019089459 -0.00061951135 -0.0081810225 0.00095096725 0.016323378 -0.00015924407 0.0025545224 0.004726933 -0.002626565 -0.020988721 0.0046744393 0.013485473 -0.0050115185 0.007412119 0.0006117819 -0.0048195613 -0.018792454 0.06309682 -0.0072667026 -0.02529071 0.028833833 0.0029843245 0.03396872 0.0015027901 -0.00212258 0.00014569525 -0.012366083 -0.015083807 0.013197996 0.0045295106 -0.028688494 -0.022483375 0.008204174 0.008447308 -0.008127526 -0.012651484 -0.00011005539 -0.008506692 -0.009951656 0.0019080659 -0.0043492015 0.008173633 0.006626067 0.0026232575 -0.008994281 -0.00012436147 0.027942715 -0.014354672 0.008171366 0.0049294606 0.00302858 -0.01491815 0.0040696417 -0.012166983 0.010644108 0.005546678 0.0056860438 -0.0038061547 -0.0059904857 -0.0016822044 -0.0026683086 0.018353073 0.009315782 0.000512302 0.015893426 -0.0011439164 -0.039731003 0.0071165687 -0.00052217866 -0.004466659 0.0015743637 0.0047044097 -0.0015671557 -0.0007868116 0.0030990837 -0.02363935 0.0030779745 0.0027650318 -0.0014224495 0.02011979 0.0038017768 0.0020395655 -0.003029906 -0.00063193444 -0.0011709193 0.004008382 -0.0037541867 -0.00092545606 0.0065125395 0.0031116544 -0.0038190936 -0.00040222978 -0.005134811 -0.0055547776 -0.014782245 -0.00065979204 -0.004089374 -0.027039105 -0.0022212614 -0.0015658638 -0.008135404 0.00350746 0.0028732289 2.8161514e-05 -0.0008386758 0.0028841638 -0.011511755 0.00015815195 -0.005366025 -0.0039443714 -0.022499135 -0.0012288714 0.01316416 -0.017393421 -0.00295995 0.0011185348 -0.0033554996 0.0018753469 0.0020185658 0.0041465587 -0.004685047 0.012277156 -0.0017044855 0.0066043683 0.012583542 0.019831367 0.0011030548 0.0016904924 -0.004716271 0.007237532 0.0010785158 0.017234014 0.021856923 0.0006970823 2.8801016e-05 0.004058179 -0.0028011566 0.008050106 -0.011434512 0.01222771 0.011887462 -0.0019813017 -0.002228096 -0.00113486 0.0045007668 0.0164541 -0.015296359 -0.022212699 -0.007538794 0.0028582003 -0.00094180444 -0.006952473 0.0014103247 0.0030250226 -0.009653367 -0.0019183436 -0.005047623 2.196586e-05 -0.00038742385 -0.0029652852 -0.008275298 0.0012343425 0.022054663 0.0036228132 -0.008637943 -0.0082827015 0.016731549 0.020108648 -0.0026936885 -0.00023190858 0.0025887198 -0.010793731 0.0027568417 -0.017101474 0.027574081 0.0057962607 -0.008789478 -0.010801243 -0.0020051275 -0.008823984 -0.023227857 -0.0060311207 0.00862996 0.043813545 -0.00790856 -0.006739629 0.005441605 0.032267064 -0.0035756442 0.00296472 -0.0006104538 0.026020018 -8.923998e-05 0.008978317 -0.0071705957 0.00078455906 -0.0105918655 -0.004194885 0.0033557108 -0.034165755 -0.009081047 -0.024615064 0.0047295266 -0.006068801 0.00022407387 0.0066901655 0.0021246418 -0.0045582494 0.0027148908 0.009608223 0.022215873 -0.03197491 0.0062659374 0.009705056 0.0047061043 0.00051547226 -0.010364614 -0.013286064 -0.0022673768 -0.020930978 -0.0009864282 -0.01921905 -0.005761097 0.0035352758 -0.008652838 -0.00477275 0.0026308335 -0.008630956 -0.00014878545 0.022723464 -5.8948353e-06 0.0073670545 0.0022970003 0.00352672 0.0011267932 0.002169818 0.0042304834 0.014410294 -0.01816052 0.03416904 -0.005984917 -0.008779093 0.00040730886 0.005221024 -0.02011389 -0.0052675195 0.0027612308 0.00025339724 -0.00056268607 0.006392059 -0.0004349957 0.01596345 0.00014950527 -0.00037489517 -0.009221511 -0.0053781946 0.0038170125 0.003581871 0.015612424 -0.006289938 -0.00043669724 0.013263054 -0.004750551 -0.00011617585 -0.00054872606 -0.005937124 -0.0012486051 0.0021953427 0.00040999675 -0.0026783515 -0.009250788 -0.0063148434 0.008215424 -0.008893295
0.0007672595 -0.00026849346 0.0012673023 0.022405637 0.0035314176 -0.00184102 0.0014330986 0.0037603902 0.0002755683 0.041683003 0.0034638867 -0.00070368533 -0.009559825 0.0016367168 0.00044713987 -0.0024882623 -0.0036436182 -0.0025867159 0.0051387735 0.007298483 0.0008565457 0.005030106 0.0006273143 -0.010963766 0.0010463222 0.0076553365 0.0006864435 0.0023043165 -0.0026341565 0.0094080325 -0.0037137633 0.011120018 -0.033480193 0.0040074587 -0.0031616024 -0.002944985 -0.00056308386 0.017549263 -0.004671198 -0.00017185809 -0.0012087931 0.0025956165 -0.006543063 -2.8085096e-05 0.008188409 -0.0353949 0.0031955051 0.025023784 0.0015669044 0.0055008084 0.0040773596 0.0050061927 0.0061955824 0.006166132 0.0019573255 -0.0022655553 -0.00069534045 -0.0044320356 -0.0005025961 0.05966679 -0.0002347058 -0.00070031517 0.0009832054 0.002502024 0.0005459326 0.002770227 -0.00075803837 0.0013834271 -0.0027114325 -0.0026865797 -0.015964592 -0.0029102524 -0.005521544 0.002136577 -0.00357613 -0.013427857 0.0070728604 0.0003872506 -0.0009237792 0.00579818 -0.0034645346 0.0015348274 -0.00042875588 -0.001006104 -0.00042450082 0.0028709895 -0.014284374 -0.0017699297 -0.001189376 -0.000955497 -0.00019829851 -0.0037284126 0.005083792 -6.270669e-05 -0.0040654726 1.3925634e-05 0.006895376 -0.012488763 0.0016307946 0.021555074 -0.00014892944 0.007370426 -0.018168682 0.0033112036 0.00065715285 0.015506508 0.0007099361 0.010416989 -0.004596013 0.0029410447 0.0016419719 0.012218331 0.003433433 0.010047887 -0.0016824822 -0.00042177294 0.0020558075 0.019020231 0.0011038264 0.003672579 -0.0076116347 0.0013841863 0.0011252898 0.0021364952 -0.0015358434 0.0033863909 -0.004713271 -0.000584742 -0.011681172 0.0016932933 0.0013196843 0.0060211 0.030205185 -0.001915276 -5.272233e-05 -0.0027476635 -0.005377747 -0.004160708 0.004067285 -0.004309654 0.010079992 0.005751161 -0.009145207 -0.004302198 0.0016963915 0.0034042534 0.0060175173 0.027905047 0.00035115282 -6.503454e-05 -0.00056359224 -0.0004162498 -0.001118935 -0.00094400835 -0.0041264934 0.00026143657 -0.0047590015 0.0026375176 0.006382438 -0.0018766284 -0.002856943 0.0021726878 -0.0009119921 0.011872299 -0.0015990334 -0.002698132 0.003251428 3.2321135e-05 -0.0022914952 0.04204326 0.0014961006 -0.0029600179 -0.0011941468 -0.0049990667 -0.0033525475 -0.001018448 0.0016411468 -0.004192414 0.0059479624 -8.369311e-05 0.001270506 -0.0013415396 0.00058779394 0.008398269 -9.251337e-05 -0.0060941316 0.0030726925 -0.0026056462 -0.01247781 -0.013370404 -0.009116793 0.005801395 -0.0009654236 0.00042452518 -0.0028267356 0.0043365527 -0.067769885 -0.002256236 -0.001280822 0.0008227003 -0.0024405702 -0.00086072914 0.033432674 0.00411568 0.0036553221 -0.0023513832 -0.011105018 0.0037440814 -3.3942724e-05 -0.009802121 -0.00028239834 -0.0047298395 -0.003628959 -0.01592113 -0.008356464 -0.0005830247 0.0024756046 0.017714245 0.002640918 0.0061905226 0.0045061363 0.0048806597 -0.00667625 0.022437077 -0.004651651 0.016845256 0.017400391 -0.0075754803 0.00068812544 -0.004897794 -0.002499775 0.0064442162 -0.003814332 0.005412716 0.001145318 0.005057945 -0.0010462876 0.00094783446 0.0041464325 0.014046975 0.0014984808 -0.0008264081 0.012431081 -0.0019966355 -1.8911496e-05 -0.00046732483 0.0017287335 0.0034923754 -0.0026654014 0.003685952 -0.0031979713 -0.011125816 -0.0006451392 0.0055362135 -0.0022038831 0.01649753 -0.0021767174 -0.0020146787 0.011575081 0.0012306664 0.0008163515 -0.00052592915 -0.0054470645 0.0041739643 0.0027155443 -0.002052821 0.009622364 0.02770377 0.053631723 0.04590071 0.011737011 -0.011813807 0.0017620112 -0.010671807 0.0010478848 0.00020479916 0.001327233 -0.016411088 0.0044373185 0.0004943649 0.020524692 -0.005094189 -0.0017778941 -0.0064353785 0.0059124357 0.0037782143 0.000659781 0.014144922 -0.0023194957 -0.0028940265 -0.0011293155 0.023873363 0.0051069623 0.00037325028 -0.015271559 -0.0009554985 0.004157722 -0.004721851 0.0025664973 0.0016655518 -0.0020434347 -0.0008112911 -0.05565115 0.00021379515 0.008968822 0.0010142587 -0.0021659133 0.003043647 -0.0014775548 -0.003780833 -0.01581813 0.0009119348 -0.0025378568 -0.006114062 0.0028463006 -0.0010253682 0.0035955098 2.4058554e-05 -0.0003495115 0.0020250345 -4.269284e-05 0.0021566104 -0.0023950974 -0.002111425 0.003068572 -0.0027753913 0.003663878 -0.0011346707 -0.001461718 0.0004174891 0.0051404876 -0.00788725 -0.007720889 -0.00027341698 0.0009881596 -0.0011748428 0.0014214565 -0.022012878 -0.005390478 -0.00013244705 -0.0035031403 0.0017586289 -0.0030605192 0.00802721 0.018939305 0.0038618336 0.0027238305 0.01957195 0.010003477 -0.010125819 0.004513805 -0.0046599545 -0.0027010874 -0.0020045894 -0.0012305067 0.0010873564 0.0019430734 0.021619828 0.0074314624 -0.003115164 0.0013439184 0.0005548714 0.0013091094 0.005840477 0.0020491534 0.00050123094 -0.0016560546 -0.0018000449 0.0016909143 0.015089876 0.01172208 0.008385495 0.0034176265 0.0017177952 0.0017734184 -0.00050740445 -0.008814389 -0.0067240875 -0.002552472 0.003406069 0.00028870572 -0.00067517615 6.745894e-05 -0.0016835874 0.055561442 -0.0041750846 -0.00027010756 -0.013597702 -0.00020959253 -0.0036873282 0.0068826135 0.0019795436 -0.0036481416 0.0025498054 -0.033508006 -0.0008311325 -0.0001861322 0.00067585096 -0.0002622526 0.0052710143 0.008531574 0.005329492 -0.006100717 0.014450049 0.020325715 0.004331149 0.002532351 -0.0031327927 3.3240085e-05 0.0152708795 0.0018866352 -0.003986191 0.0012110205 0.0010192266 0.0016713026 0.01900375 0.0029335658 -0.016161313 -0.040926628 0.003884149 0.0076930355 0.0005412439 0.0035066071 0.005268593 0.002915207 0.02798705 -0.0043981485 -0.00047234097 0.007313602 0.002641818 0.0018347389 0.0022208558 0.0038614774 0.00015318872 -0.0075290147 0.005835973 -0.0040045693 0.018383183 -0.028654296 0.0020824946 0.0006910815 -0.0018201923 -2.1855609e-05 0.00040556764 0.0007833285 9.24569e-05 -0.0010156858 -0.022333592 0.0020581952 -0.031056678 0.0014489538 -0.0018756997 0.0032581813 -0.0028009478 -0.0013860159 -0.011386416 5.3767566e-05 0.0045480453 0.0024620183 -0.015037721 -0.03388016 -0.008551582 0.022047577 -0.003006265 0.0043960675 -0.0024097364 0.0048282384 0.019343669 0.0017666114 -0.002796392 0.0027105066 -0.0022606908 -0.017251568 -0.0019761906 0.004149144 -0.0069809644 0.0029000465 -0.0035026532 0.0043179025 -0.0012680971 0.0020252813 0.0046645957 0.040685833 -0.00076890417 -0.0018308985 -0.0012183299 0.003890431 0.0033805016 0.0005827965 0.0055421297 -1.557864e-05 8.420174e-05 0.0010761776 -0.006052046 -0.0015767884 0.003604531 0.002922267 0.00021900392 -0.0004422622 -0.0070577064 0.001383646 -0.0032952214 -0.00826614 -0.0023443548 -0.0021946935 -0.0007602591 -0.0024478054 0.0005569608 0.023289306 0.04974886 0.0062605715 -4.5171873e-05
0.0041962164 -0.0074711773 -0.0006075412 0.035255425 0.0054978337 -0.001365599 0.02929991 0.00281045 0.0041735847 0.013828941 0.0032070135 -0.00799983 0.008847813 -0.019454943 0.023247566 -0.0029584935 0.006457553 -0.0009287873 0.007614115 -0.02166429 -0.00046802926 0.0012223485 0.0016371083 0.00565179 0.01724684 -0.003832019 -0.0037513655 -0.0012265631 0.0047174995 0.002290344 0.0010166797 -0.0028524739 -0.008136631 0.0014412423 -0.0013343934 -0.002594996 -0.0011316498 0.003979206 0.002964025 -0.0007637247 -0.0018179953 -0.0037008945 0.0051807864 -0.009026937 0.001395993 0.010630339 -0.0034988225 0.0063746735 0.010030354 -0.010926083 0.006280494 -0.0006059917 -0.00018233975 0.004015004 -0.0004490253 -0.00023621529 0.00081573095 0.04545299 -0.00042545662 -0.015885998 0.011638132 -0.00039891922 -0.0038849704 0.001122321 0.0012659177 -0.005985182 -0.0054269177 0.003578674 -0.0015426792 -0.008784272 -0.0022107242 0.0015189053 0.009658627 0.005017431 -0.00780302 0.00905121 0.014096472 0.0005099282 0.0011231403 -0.0063049733 0.0011338722 0.0009957044 0.022271937 0.0025252576 -0.00085303304 0.013818867 0.011957446 -0.0019352139 0.0015600129 -0.0073400093 0.0028889368 0.0002590628 -0.015135486 0.0017082946 0.0055605527 0.0033881282 0.0027443166 -0.0008186108 -0.016199963 -0.023923544 -0.0017261114 -0.0061675785 -0.016608158 0.0006712276 -0.0030083836 0.013673969 0.0008716109 -0.00040724175 0.011071721 -0.004626725 0.00029232615 -0.028786752 -0.0032516154 0.0028632088 0.0046502952 -0.0017026336 0.007242527 -0.028063435 -0.0005990912 0.011157304 0.014601611 0.0019938978 -0.0029603406 -0.0032762184 -0.007939887 -0.000894637 -0.00062507606 0.0014889167 0.012845843 -0.0028557435 0.0008501124 -0.019171145 -0.00095281505 0.00020325776 0.0042711142 0.012925618 0.0015868844 -0.002072296 0.0012839163 0.0056204875 -0.015454939 0.003330729 -0.0023558417 0.011863355 0.00024889273 0.004090368 -0.0077041294 0.038542736 0.00074935646 -0.0048766322 0.0015495957 0.00023181037 0.00456139 0.0011425931 -0.005026372 0.0045127454 -0.008808572 -0.010962582 0.0014803691 -0.0016831936 -0.005885061 0.0012662219 -0.0034088853 -0.0128157465 -0.0054283203 0.0015944929 0.00024344912 -0.002638845 0.0064944294 -0.024648912 0.00088885037 0.0028555295 9.0435824e-05 0.0055768755 0.007488351 -0.0020052353 -0.0018141349 0.0063202446 0.0023701363 -0.0019892552 -0.0025025264 0.0026823527 0.0008527475 -0.003155956 -0.0015742595 -0.008346398 -0.014316213 0.0041688555 -0.00011967558 -0.03550324 0.020481663 -0.0019731526 -0.0033464518 -0.00082779437 -0.0017640501 -0.010689351 0.043415114 -0.0013634256 0.008844164 0.005693255 0.0042571602 -0.00613738 -0.0038271823 0.0016027647 -0.016028335 -0.006173952 0.0057260813 0.003767057 -0.0006365206 0.011333851 0.0047273748 0.0049421196 0.0073083066 0.009368272 -0.008538973 -0.00092259474 0.00129487 -0.018205663 0.0008019896 0.0015335942 -0.00016501454 0.0028016127 0.010459433 -0.0064096446 -0.0022093018 0.018507265 0.0030634215 -0.004886878 0.016610473 -0.0042097825 0.0025730545 0.00015423792 0.0018563495 -0.00037748867 0.003471884 -0.00096104055 0.006041589 0.00029255264 -0.013144272 0.0036727278 -0.00035367912 0.0030854873 0.00591542 0.0042778146 0.005033221 -0.0009786575 -0.0023714893 0.0011252223 -9.827039e-06 -0.0030973346 -0.007748415 -0.0026882177 -0.0010536914 -0.013093672 0.0030738642 -0.023830699 -0.01421093 0.0034608524 -0.007833337 -6.43003e-05 -0.0013261876 0.0006990322 -0.0049920897 0.0065704314 0.0008933181 0.0072367014 0.0010272553 0.0049832542 -0.03235291 -0.019635351 0.009641249 -0.008301817 -0.00374942 0.008405007 -0.000885598 0.007674543 -0.0043494557 -0.0005677838 -0.002915212 0.012058552 -0.010068438 0.001072222 -0.0064266375 0.023759516 -0.011937697 -0.008843483 0.0035308457 0.0010205737 -0.00056670315 0.007379522 -0.0025826157 -0.010654707 0.005321899 0.006368503 0.015684295 0.0008402735 -0.0011897394 0.005468487 -0.0027982907 -0.0032935094 -0.034271892 -0.009429561 0.03946912 0.0026382601 0.0002682813 0.0012174218 -0.00024787203 0.00097327225 0.00028614164 -0.0030272962 0.008455297 0.00043888672 0.00085003127 0.00675696 0.0014723836 0.0063671805 0.0018701061 0.004219914 0.0016281528 -0.0013245908 0.00086809695 -0.0002866341 -0.00039477876 0.0021172126 -3.110864e-05 -0.002128459 -0.00040154057 0.00024281986 0.00034814846 -0.0028221847 -4.8515707e-05 -0.0022029532 -0.005023706 0.002362242 -0.0040629734 0.0052310126 0.00024828082 0.001777422 0.006515975 -0.0038482277 -0.0020657321 0.002879921 0.0050146123 0.014793725 -0.02115367 -0.00069271354 -0.0027671545 0.0008394655 -0.0023349014 0.0054140547 -0.005941824 0.018117325 0.000910244 -4.126504e-05 -0.0022165875 0.002876657 0.0021043073 -0.0029643965 -0.011663777 -0.008200734 0.0013611588 0.005946178 0.00012222797 0.009654275 0.0035507525 -0.0016883472 -0.0017984647 -0.0015511162 -0.02726122 0.00021908383 0.0026462404 -0.012948812 0.0003099847 0.003655693 -0.0029643164 -0.0018561905 -0.022420535 -0.006094507 -0.0061506554 0.00407927 0.00015369085 0.003826319 0.017016008 0.01545946 -0.026362892 0.0067139165 -0.008393083 0.0026576556 0.0025313944 -0.0039940225 0.0013843075 -0.018390575 -0.0042810235 0.00094575086 -0.028931925 -0.0020005768 0.0005457775 0.0020176102 0.00047968712 -0.0061401525 0.0077588614 0.002314027 0.0075001414 -0.004404286 -0.0066503026 -0.0016443325 -0.002183954 -0.0074558575 0.0015902214 -0.00038058244 -0.003130848 -0.025185544 0.0022201608 -0.0038527264 -0.0006458109 0.002372885 -0.0023790007 -0.0040211817 -0.0028558827 0.014130594 -0.002574233 -0.020688051 0.008837503 0.0031712393 -0.0006861762 0.017134042 -0.0022033383 -0.0045033386 -0.0056895697 0.003022856 0.0043765493 0.009139929 -0.010249621 0.003139035 0.010518424 0.010376686 0.0083231395 0.00832057 -0.016565582 0.008424981 0.008068304 -0.0016918218 0.0010850428 -0.0062007755 0.001910486 6.8678186e-05 0.0028577936 -0.017434632 0.0064124186 -0.023785682 -0.000952642 0.0026651355 0.0054246513 -0.004201858 -0.0016685488 0.0008325224 -0.0056749964 0.009936063 0.0052606487 0.0078025083 -0.002936231 0.00949305 0.000596685 0.00054279226 -0.011098709 0.00014881465 0.009018346 -0.0036918384 0.00083710835 -0.0006535258 0.003686259 -0.004626731 0.019708812 0.00022508342 -0.00061326625 -0.00640634 0.0006091394 -0.0041644126 -0.003280438 0.07328762 0.0035399587 -0.009306363 0.022723049 0.008251727 0.0016169643 -0.0011550296 -0.0042403336 -0.0029860805 -0.0027975373 -0.013489114 0.0006495814 -0.004825982 0.0011042034 0.0029038487 -0.0016190013 -0.017138882 -0.0022578195 -0.0021345725 0.003070123 -0.004959055 -0.0029032659 0.00039093755 -0.0030817466 0.002359706 0.0014007894 -0.0018121913 0.001262805 -0.0003135364 0.00054967107 -0.005095366 -0.0052378806 -0.0011469022
-0.0014087672 0.0074225278 0.003673842 0.0024975776 -0.005357863 0.00586168 0.003318078 0.00204377 0.00027829944 -0.0032543696 -0.0006168894 0.0064488803 0.001616372 0.006527022 0.016468864 0.0021338265 -0.003597428 0.0050518718 0.00053172477 -0.008744678 -0.0013338684 0.0024244606 0.0033730648 0.006658009 0.00047318867 -0.0010543677 0.00017177143 0.011520446 -0.0017221987 -0.0035766743 -0.0025336812 -0.008692554 0.0144502 0.0044102925 -0.0007027328 0.007261726 0.0036306218 -0.0006072791 0.000605965 -0.0008433399 -0.0004176108 0.000809403 -0.000849477 -0.013442153 0.00020397753 -0.024491915 -0.003142328 -0.00789108 0.00019047094 -0.06585787 0.0013577731 0.001664698 0.0138052935 0.0011359912 -1.3586237e-05 0.0021244553 0.0029444096 0.0038954562 -9.4604744e-05 -0.011524358 0.0106142135 0.0022046184 -5.3037576e-05 0.001182348 0.0023272308 -0.0029943397 -0.0014292062 5.6527304e-05 -0.0024254404 -0.0024681992 0.0032086805 0.00050768163 0.0069021704 -0.0024997483 -0.00033700463 -0.026577847 0.00039037713 -0.0042030644 0.0001479389 -0.002255579 -0.0005438033 -0.003257595 0.0013575067 -0.002245707 -0.0004978286 -0.005551918 0.0071522314 -0.0015158844 -0.0016958725 -0.0033381842 -0.0010675937 -0.00028494225 0.0006201703 -0.0024785188 0.0021261603 0.0026633693 -0.0040279864 0.008561912 0.008823268 -0.014515695 -0.0011571469 -0.0028538804 0.0082649635 0.0018039983 0.0017390596 0.0044685802 -0.0007890419 -0.0044686445 -0.0007801421 0.000646945 -0.00022834857 -0.0020036108 0.003523751 0.008087264 0.0037578838 -0.0015412612 0.002107468 -0.0036292984 0.0004954403 -0.003455063 -0.0043385644 -0.0010334738 0.0007729103 -0.0024923082 0.0019007992 0.0024698633 -0.00029291888 0.0012482804 -0.009144205 0.0023728693 0.0024359417 -0.015607724 0.0074380264 -0.010616629 -0.0006654682 0.0044709686 -0.0017641517 0.00034047657 0.0050602388 0.0029776557 0.0109519325 -0.0018030127 0.0033487217 -0.00789512 0.0034268629 0.0010732139 0.0034838673 -0.011954004 -0.0014887581 0.0018341684 0.0008967135 0.0022629397 -0.003938946 0.0006906036 -0.0049723205 -0.00081220816 0.0055069327 0.0030213438 0.0020466992 0.0031225528 0.0004689537 0.005148844 0.0018380065 -0.0035247456 0.002688346 0.0019533432 0.00067701924 -0.0064761904 0.00052352337 -0.00089053134 0.0027399228 0.0018079389 -0.008203321 -0.00034220866 0.003614613 0.0019056031 -0.0023131345 0.008767259 -0.0022529685 0.0031526391 0.003372025 0.002352245 -0.0011270519 -0.010659219 -0.0025381786 0.0035692805 0.0049761976 -0.0033126518 0.007290894 -0.003953963 -0.0030911819 0.001610871 0.00079843105 0.0008335082 0.0010073055 0.007786981 -0.02315182 -0.003058024 0.0074133407 -0.00074663496 -0.00022909071 -0.0036313294 -0.0021880702 0.0012562993 -0.0004990111 -0.0019539585 0.0022707682 0.0013982902 0.00042659382 0.0042695394 -0.0011967068 -0.0015904446 0.00041801555 0.052124932 0.0076229554 -0.0028733327 -0.0036175745 -0.00327079 -0.010922894 -0.0012368523 0.0016132711 -0.0013448577 0.0008803917 -0.009905776 -0.00087525375 -0.0018168159 0.021150997 0.0005306305 0.0039053673 -0.0027177068 -0.00094706716 -0.0023631782 0.001528685 0.0027998833 0.0015692445 0.0013195203 -0.00032941106 -0.0007761606 0.0012343907 0.0001896153 0.0036284428 0.0034052886 -0.0108223 0.0019499513 0.0044521857 0.0013393442 0.0016498886 -0.0015122414 0.00036487237 -0.021303505 0.0028586588 0.00031319365 0.0022608736 -0.011330312 0.0028390377 0.001943541 0.0011346715 0.002396425 -0.00031460097 -0.0010621204 -0.0020119825 -0.0022329981 0.0009526171 -0.0019473018 0.0010229917 -0.0028036607 -0.0006771607 -0.009262988 0.0036442776 -0.025332801 0.012052262 -0.001806959 -0.005880545 -0.022834277 -0.0012926373 0.003184805 -0.0020919808 0.019297635 -0.000373104 0.0087431995 -0.006502317 0.0066682003 0.004203903 -0.007995598 0.0005082141 0.017259935 -0.0012125084 -0.0054298197 -0.0013154119 -0.011505391 -0.0039133052 5.3720356e-05 -0.0010588089 0.011836569 -0.028357645 -0.002658795 0.001676559 0.0026261986 -0.012266028 0.003081125 -0.00031966937 -0.0068234834 -0.030138856 0.0010230296 0.006458239 -0.0015801826 -0.0014895963 0.0020086362 -0.0009879114 -0.0032195009 -0.00082728517 -0.004268263 0.0021533489 -0.0019703573 -0.0016003718 0.0064737103 0.00093582406 0.0021314053 0.0017595663 0.0010573553 -0.00022714336 0.0005813787 0.0012480229 -0.0008190546 -0.0027611144 -0.00080156245 0.0017749683 -0.00019420465 -0.010256608 0.0034772998 -0.00032271075 0.0051791244 4.1288957e-05 -0.0008170587 -0.0017149016 -0.0032891051 0.0019424653 0.0018339677 0.0070432425 -0.0008652067 0.00047868554 -0.0014087402 -0.00025879333 -0.013401928 -0.009268996 -0.00085806806 0.006319001 0.011681802 0.0040020505 0.0050131176 -0.00019987207 0.01015812 0.00047321728 -0.0034529772 0.0038543884 -0.00076759927 0.0023348264 -0.0014650434 0.00085827534 0.0043042377 -0.0021648847 0.0062287706 -0.0005679629 -0.00475782 -0.00064118544 0.0009151228 0.0019721617 -0.00020312628 0.012880906 -0.0148348585 0.007966602 0.04683313 0.0009543985 -0.00030168585 0.0015727849 0.0018988426 -0.010356972 0.055112317 0.008942992 0.003478331 0.00056766474 0.0009950217 0.0011656522 -0.01612021 0.0078637665 -0.0002202801 0.015630122 0.012251184 0.0023416062 -0.0012358992 -0.00025981886 0.0042033317 0.0051682172 0.0021210602 -0.0121130245 0.0022964592 0.00017365487 -0.004080786 -0.003169342 0.012500294 -0.0076922416 -0.00092039286 0.0058663315 -0.005248444 0.0014400496 -0.00023395593 0.00017919039 -0.0012276425 0.0016220794 -0.0039526 0.0016655904 -0.0026076993 0.001341921 -0.0013926737 0.0013229854 0.00016465868 -0.0012533969 -0.0040513836 -0.0034441452 -0.0014415085 0.00033814143 -0.0036610875 0.0080080265 -0.0053351414 0.004013371 -0.011422426 -0.00020657516 0.0002935564 -0.001525416 -0.0012125308 0.0007421155 -0.0056349966 0.004526131 -0.005524989 -0.011238262 -0.00043209587 0.0037957097 0.0036880695 -0.0016112922 -0.00014304729 0.000191444 0.0092880875 0.0012482756 0.0018667142 -0.0011192977 -0.002941386 0.002094535 0.01001642 0.0049825357 -0.04004029 0.0005200351 0.011397275 0.0022212132 -0.00039977755 0.0012182022 -0.004629294 -0.001303964 -0.010905293 -0.0006900004 0.017628377 0.0035121317 -0.004717499 0.00064320845 0.00016083615 -0.00016360146 -0.0064974553 -0.0006772715 0.0034424895 -0.0024694707 -0.0020860063 0.005239824 0.0016971796 -0.0018152107 -0.00046967532 0.0030452174 -0.0010844423 0.0052593686 -0.0024676505 -0.016283894 -0.0036599392 -0.00019002736 -0.0021978882 -0.0063627004 -0.002828508 0.0031234974 -0.0030127955 0.0055596093 -0.00088312704 0.002799771 0.023684546 0.0011131136 -0.0015908688 -0.0027501592 -0.016614981 0.00069616677 -0.0009271542 0.0075082635 -0.0016074531 -0.00043981607 9.16342e-06 -0.0007876327 0.0028833104 0.011145911 0.0016242313 0.0002291926 -0.0012266648 -0.0008163268 0.0004223855 -0.0067333435 0.0013084605 -0.003798879 1.9051857e-05
0.00022013402 0.0016949158 0.0006759329 -0.0033785368 -0.0030079416 -0.002768915 -0.002091156 -0.0026039889 0.0012269022 0.004545977 0.0012604323 -0.0020486368 0.00034485446 -0.0012685625 -0.004949993 0.0011618295 -0.0016895771 -0.0012866114 0.0012805673 0.0026916787 0.0015855464 0.0012476598 0.0011758 -0.0009891121 0.0024127832 -0.0051745814 0.0039776675 0.005012434 0.0011236037 0.00263445 0.0044502546 0.018235318 0.0037220877 0.006753977 -0.00029163188 -0.0062892414 -0.0012762744 0.0016033859 0.0065183756 -0.001181816 -0.00402784 -0.010184355 0.01520704 -0.0057781413 0.0054811873 -0.010673111 -0.0027989005 0.00567205 0.0027402306 0.0006851692 0.0020235418 0.0002953476 0.0034016357 0.006269399 0.0005116754 -0.006087197 0.0005588315 0.0012579376 0.0013716705 -0.0038131764 -0.0012190557 -0.006930276 -0.0014401603 0.0010744359 0.000862659 -0.00376186 0.004007046 0.0044066813 -0.0023832258 -0.0004898507 -0.026667736 0.0018457661 0.0024394663 -0.0003853527 -0.0026041877 0.0048653716 0.0018012705 0.00097350497 -0.002955005 0.0013954119 -0.0011676946 0.003278885 -0.0033194122 -0.0011062782 -0.00021304926 -0.008455258 0.003623089 -0.00043022083 -0.0011778908 -0.027956314 -0.0018019285 -0.0014914586 0.0013413673 0.0005981433 -0.0005911792 -0.0031473658 0.010693232 0.0064165103 0.0052812453 0.0041978955 0.0008938101 0.009451028 0.011130752 -0.0047476753 -0.0005143317 -0.0010087137 -0.0010888141 0.008126168 0.0058269002 0.0025772278 0.00058106444 -0.0025177551 -0.01019335 0.0014941612 0.0022386184 -0.00014586645 0.0010096357 0.00020805547 0.0025483815 0.0011708292 0.0043377457 0.0006370394 -0.00072625355 -0.0006439991 0.0022111372 -0.0007898534 -0.0040709656 0.0019136384 -0.008433738 -0.0020071676 0.0005684544 -0.00027919826 -0.010658009 0.00039667316 0.0025127921 0.0032054079 0.0070646266 0.00059214025 -0.00115469 -0.0012324331 0.0008009183 0.0017516982 0.0001690762 0.0030655204 0.0010703676 0.003439414 -0.00015253708 -0.0010409422 -0.009652372 -0.007436922 -0.0023676518 0.0021904486 -0.011044068 0.005474557 -0.0015982913 0.012092591 0.0017576541 -0.0003438429 0.0010187805 -0.0014822527 0.0037206602 0.0004041446 0.005098381 -0.0038526016 -0.0029733197 0.0004634945 0.00037627967 0.010443424 0.005700171 -0.0012249727 0.0023878813 -0.008076781 -0.0030161475 0.0036905406 0.000538432 0.005378742 0.0020549581 0.0012893513 -0.006103392 0.0012337699 0.0020491348 0.0022643178 0.0020255968 -0.0010648648 -0.002644965 -0.02307359 -0.002883054 -0.006064853 0.01847614 -0.002034511 -0.002038684 0.006138254 0.0049757063 0.008856777 -0.0035749357 0.0129587175 -0.017155144 0.0011096228 0.0013856243 -0.00010765717 -0.0019896037 -0.0033854134 0.0021251678 0.0005985709 -0.0065958095 0.0010167512 -0.00023094018 -0.0027503325 -0.00070112624 0.033209685 0.006380616 0.02805228 0.002087454 0.00020112924 9.7045806e-05 0.0013739616 -0.0010730965 0.0041166754 0.0035722088 0.0023352143 -0.0002713013 0.00035070573 0.00097114535 -0.0011081315 0.007390503 -0.007647408 0.006312012 0.019249517 -0.0011220216 -0.0005378102 0.0018476124 -0.00292312 -0.0018045807 -0.0016037404 -0.0041916627 -0.0010340561 0.005631618 0.0054932237 0.008678418 0.0058965962 0.0033265909 -0.0044667325 -0.0030690795 0.0008618413 -0.0012744119 0.0054934686 -0.00036214665 0.003748344 0.00047319592 -0.0029735263 -0.0009905425 -0.002363017 0.00017846278 -0.0033597306 0.0043670046 -0.026324864 -0.01069423 -0.0012612831 0.005086955 -0.0009047274 -0.0018821427 -0.000108607135 8.777035e-05 -0.0102971485 -0.0032421094 -0.0012410686 0.0010722621 -0.0015059012 0.0134133 -0.005400998 0.0032972307 -0.0033149482 0.009347004 0.00025571507 -0.0013993529 -0.0028694298 -0.0033350396 0.0065172305 -0.0005082543 0.0063920924 0.0018615696 -0.0016791809 0.0042389673 -0.015037568 -0.00016341703 0.0041561504 -0.0036653234 0.004574578 0.0010238404 -0.006430338 0.012450695 0.0028568932 0.00453496 0.0005951072 -0.0019145884 -0.00082476507 -0.0010439754 -0.005266749 0.0024715282 -0.0068796296 0.006343652 -0.0034630601 -0.0068428237 -0.0024728125 0.010064559 0.0010942983 0.0016179481 -0.0024363322 0.000979136 0.003796286 -0.00205135 -0.0006134168 -0.00045723355 0.00011573696 -0.0022989074 -0.030164048 0.0013203514 0.0004855118 -0.00042135222 0.0025251524 -0.001996779 -0.0039599803 0.00070287863 -0.0020625447 -0.0005622234 -0.002022014 -0.00206934 -0.0044190614 -0.0031720717 0.00017529806 0.003945603 -0.0028788284 0.003052246 -0.00021660034 0.0004262878 -0.0013862106 0.00064426725 0.0068984153 -0.004235661 -0.0024351245 0.0032613478 -0.002078296 0.0062816297 -0.0023377705 -0.003953624 0.002127654 -0.0003774954 -0.0062752417 0.024431363 0.010076916 0.0013405926 -0.0023272333 -0.0024519751 0.0005600275 0.007045635 0.0011715345 0.0016877071 0.0024146435 0.00077926466 0.0023366644 0.00082421646 0.0005929807 -0.0017623969 -0.00027658936 0.011473152 0.001091961 0.0013960393 -0.0019341154 0.008491683 -0.005381353 -0.0006624566 -0.007882289 -0.0010754926 0.0030277313 0.0034318478 0.0048741577 0.0044715693 0.003959153 -0.004421582 -0.0060592475 0.00210168 -0.0015307765 0.0030795059 -0.0046026614 0.0019646669 -7.70877e-05 -0.007403359 0.0043722684 0.0010519883 -0.00035220306 -0.0011285865 -0.0019756858 -0.004092081 0.00060381443 -0.0072710332 -0.00046656936 -0.0028511884 0.008148469 -0.0010298063 0.0013878351 0.0016147142 0.00075953046 -0.0014946832 -0.0041404874 0.0021556418 0.00042356137 -0.0012001237 0.00862109 0.0019870107 -0.0039199153 0.00029329697 -0.0025371462 -0.0106572835 0.0028516708 -0.0017111009 -0.0040692715 0.0002100847 -0.0035031824 0.009538384 -0.00044211646 -0.006770005 -0.0023098679 0.0022272416 -0.0023524212 -9.948385e-05 -0.008532357 -0.004765833 0.0020742947 -0.000841117 -0.0033147035 -0.0028604544 -0.008780443 -0.0028890395 0.0014048464 -0.0018689001 -0.009319858 -0.010633999 0.002342201 -0.023566213 0.0017463311 0.0017522399 -0.0013833876 -0.0032803265 0.005825578 -0.0010066718 0.0014459365 0.00041492304 -5.313526e-05 0.002681846 -0.011714282 0.0004721443 0.0008136476 -0.0029316035 -0.010959199 0.0066049993 -0.015277057 0.0042012646 0.0036345997 -0.0011441353 0.00061791047 -0.009180604 -0.0040363474 -0.003177007 0.01836588 -0.0034118232 -0.0026073428 -0.007327121 -0.0018207687 0.0006133552 -0.00011152931 -0.0068349447 0.008375585 0.0021271475 0.0034647528 0.0017854976 -0.0003920244 0.0040657814 -0.010522618 -0.0013058996 0.0013944606 -0.013120693 0.0023248459 -0.008356281 -0.0050428226 0.0044059022 -0.002301917 -0.0007199978 0.0001401458 2.1443502e-05 -0.00960226 -0.0035003026 0.0016074084 1.9252744e-05 -0.010128595 -0.0013255568 0.0011991592 0.005626719 -0.0016476422 0.0020310604 -0.009844321 -0.00040632483 -0.00073379284 -0.002556849 -0.00028813595 0.0025056815 -0.0040585175 0.0012210206 0.0015900534 -0.0031345394 -0.0014505327 0.0006793833 0.0028538802
-0.014259183 -0.014658188 0.0017746574 0.0035923773 0.0015383584 0.015397093 -0.016796248 -0.002865895 -0.009696278 -0.0026340503 -0.0020553218 -0.0029324184 0.0023553846 -0.0046238564 -0.014748554 -0.010232927 0.0018230429 0.0024343191 -0.005613935 -0.014362171 0.0021507302 0.022092814 -0.008703493 -0.025882758 -0.009986883 0.0136091 -0.009103487 -0.011418468 -0.0014904302 0.016082337 -0.006776056 0.009342538 -0.009020958 0.0065031354 -0.0009075519 -0.004405374 -0.00017439852 -0.0020522277 0.0032933601 0.002462684 -0.003059064 0.00044485208 -0.0010467836 -1.5882528e-05 0.010545991 0.02860112 -0.009250886 0.000116122115 0.00828973 -0.0026932734 -0.011541355 0.0046008425 -0.0064634453 -0.0037052105 0.0019919574 -0.0017412276 -0.0035391345 0.0009492671 0.0062723146 0.008369004 0.013376624 0.0045794956 0.0019745145 -0.004957692 0.0015489752 0.008401226 0.0036440492 -0.0012320081 0.0019453992 -0.00017746155 -0.014391022 -0.0010155166 -0.01013358 -0.011363493 0.0011389072 0.01466705 0.008197124 -0.0069429614 0.00240824 -0.015209015 0.0048843706 0.0046458575 0.0041314987 0.0031264646 0.002429894 0.006576777 0.008889975 0.0091544585 -0.01326788 -0.004797382 0.000431952 -0.0008225939 0.0007627465 -0.0003998319 -0.013580378 -0.0030107708 0.01153347 0.014262692 0.0074181994 -0.03451074 0.0032215656 -0.012732891 0.013107171 0.004763272 -0.00078975107 -0.012516584 -0.0095285075 -0.0088791195 -0.0044824244 0.0076328586 -0.0062360833 -0.00992659 0.008542339 0.0041118925 -0.0021633285 -0.005163723 -0.0063079 0.0055830413 0.0006708641 -0.0015943154 -0.01113092 0.0008299557 -0.0002905631 -0.0005944226 -0.00054287317 -0.0031857425 0.0014814156 0.0065814704 -0.012980317 0.00080273754 0.0037960047 0.0036218418 -0.013369418 0.0058691935 0.0006348807 0.024207503 0.010136938 -0.00078687083 -0.0045201136 0.020169798 -0.009533235 0.0012224817 0.03831324 0.008534318 0.00018401243 0.0004842148 0.006570014 0.021605667 0.04540037 -0.0006947547 0.0063243764 0.001342173 -0.015424734 0.0014677742 0.015222208 -0.00604639 -4.621129e-05 0.0029998575 -0.0024239472 0.004240348 0.015029058 -0.0050833104 -0.013258251 -0.023045007 0.012761223 -0.0039233635 -0.0018173282 -0.015209895 0.004333353 -0.008985217 0.0028743532 -4.08841e-05 -0.022894107 0.004973401 0.00012007558 -0.0031506976 0.0005113744 0.014242831 0.0031882273 0.0010252807 -0.00028026008 -0.0027715818 -0.00022683547 -0.0073452876 -0.0016671114 0.0023070164 -0.01413828 -0.009839751 0.02438275 0.0033171072 0.02091882 -0.0013710345 0.010910521 0.0020419138 0.0020927568 0.007555832 0.046998356 0.0082496125 0.007644676 0.015956424 -0.00041985908 0.0047722138 -0.002832296 -0.0035543218 0.008896581 0.0066541457 0.01879283 0.004187568 -0.00023325272 -0.004198404 0.0146114575 0.00215474 -0.0095462855 0.013789596 -0.050084893 0.00018074001 0.0059202234 0.0022571636 0.008028873 -0.00031440266 -0.010549344 0.002293534 0.016120566 -0.0038897758 -0.0015474127 -0.0018302208 -0.047375936 -0.0023677642 -0.0054928674 -0.002820186 -0.00066767837 0.062640324 -0.0016596552 0.0035039254 -0.00476204 -0.00055123755 -0.0033031278 0.01952377 -0.0014857879 0.0066534844 -0.0063731405 0.00117809 -0.010461168 -0.0029865955 -0.0008427006 0.0060867816 0.0006414895 -0.01470139 0.002883744 0.026082922 0.002086084 -0.0066907997 -0.0028196734 -0.0106545 -0.009689607 -0.0042882157 0.0064734844 0.004462556 -0.009580486 0.0012327117 -0.011012325 -0.0038668846 0.0005161913 -0.002699248 0.004255087 -0.0107600335 -0.0055914675 0.02634748 -0.0014552303 -0.013600321 -0.0064629144 -0.003716667 -0.001805308 0.0007762275 0.004042862 -0.003844108 0.0020969468 -0.00094989344 0.0015515813 -0.009182861 0.0032555098 0.005646269 -0.0066885147 -0.0012115841 0.0016253522 -0.0274743 0.013820986 -0.004715471 -0.0004965697 -0.0092766695 -0.017346678 0.0050486824 -0.00076829665 -0.00810981 0.004017407 -0.006204924 -0.0055029374 -0.0065969783 0.023157792 0.00086459675 0.008688875 -0.0019087975 0.048173428 0.00059947354 -0.01959564 -0.0014474846 0.0018056002 -0.0006965297 0.006278074 -0.0066443994 0.00011656111 0.0019871553 0.00034520018 -0.010512645 -0.001990609 0.00044286373 -0.0038935605 0.002415186 -0.008421774 -0.0049836547 0.00077931414 2.272264e-05 0.0036998792 0.0031249023 -0.009949602 -0.0001514567 0.005297819 0.005356896 0.0045338124 -0.010949534 0.00061891804 0.010707515 -0.0022563396 -0.0018173797 0.0024094942 -0.014015698 -0.004368269 -0.0067984276 0.024981614 0.009949245 -0.0006270884 -0.004803463 0.0045308108 -0.0008996951 -0.04678779 0.0008584944 0.0021778748 0.012331748 0.009207974 0.003603945 -0.0017068201 0.031820744 -0.0034172158 -0.004467785 0.013667918 -0.00021994875 0.0017862215 0.00027290528 -0.017396707 0.013216349 0.0032876788 -0.004176439 -0.022773746 0.013007628 0.0055474215 -0.0005155782 0.006119167 0.006055802 -0.006442013 0.027420396 0.0046208794 -0.013038006 -0.007232994 0.0019048818 0.005250042 0.010856836 0.0056539928 0.0070742024 -0.018410528 0.003876941 -0.0005531404 0.003506442 0.018347263 -0.011218164 0.0038105238 -0.011750244 -0.0103115495 0.00094602606 0.002658576 0.00013871951 0.0028871414 0.015147309 0.008083711 0.001158887 0.017633911 0.0075170994 -0.0049195094 -0.0007471454 0.020654192 0.0068429112 0.0017935035 7.9791e-05 -0.0067183753 -0.0011754271 -0.012931373 0.009020476 -0.003846669 0.026801882 0.0010698002 -0.0020015212 -0.006135814 -0.0019226634 -0.038608022 0.009841032 0.039498214 0.024816398 0.0038609402 -0.010924011 0.006242175 -0.006722157 0.0045089866 0.01598921 0.00959611 0.00627505 -0.0004088036 0.0056343586 0.0010685485 -0.0020823746 0.005838236 -0.008429228 -0.002300665 -0.009959683 0.006319268 0.008095448 -0.00797746 0.00014563513 0.015915863 -0.005905686 0.015483735 0.00011867984 -0.016796436 0.014772023 0.0019219563 0.0018758973 0.0006445442 0.0009370227 0.004552641 -0.005320472 0.00603997 0.01917273 0.0036389327 0.0022341418 0.015542164 -0.0154566355 -0.016576128 0.014004122 0.002269282 0.004010822 0.0006131939 0.006424261 0.0007105175 -0.009867733 0.0006863267 -0.0039937953 -0.0029100098 -0.01313931 -0.0031724034 -0.025206035 0.00012208041 -0.0040050447 -0.0014867871 0.013143775 -0.007629596 0.0028636723 0.00014511484 -0.0007430565 -0.008284732 0.008045252 -0.01747618 -0.0054758852 -0.002585432 -0.008449311 0.006542881 -0.00045251806 0.0015433691 -0.0001925625 -0.0055116992 0.0018952246 0.0012854703 -0.0110361045 -0.0007823828 -0.0011810289 -0.0061941044 -0.0006692579 0.00092253846 0.00050624437 0.019471768 -0.0015991554 -0.0022629474 0.0038092765 -0.0046447515 -2.9726525e-05 0.0068909284 0.0044932067 0.0019427752 0.00041538873 -0.0011547724 -0.0005976205 0.00378921 0.00035407554 0.0012499994 0.01858328
0.0016961251 -0.011020641 -0.0025339643 -0.023055747 0.026892316 -0.01401695 0.019266602 -0.003161847 0.0010547771 -0.004072937 0.0021400305 0.0043774033 0.0065784925 -0.014186229 -0.028840892 0.008853768 -0.013321982 -0.004018953 0.002610882 -0.0026971002 -0.0041862163 0.0045557567 0.002505483 -0.010066417 0.035026226 3.5493133e-05 0.0017529659 0.08268319 0.0025683546 -0.0012774492 0.013092814 -0.0073471176 -0.0060680276 -0.0030669693 0.0062537943 0.0025908584 0.0026701144 -0.013332117 -0.0068449206 -0.0010961075 -0.0004022444 0.009504636 -0.0039223586 -0.0045018177 -0.00424244 0.019668952 -0.0023863392 -0.0041577867 -0.010275541 0.0059323004 -0.010417567 -0.0045145736 0.009311589 -0.005963738 -0.003600114 0.0026597984 -0.002500615 -0.003394101 -0.00048652675 -0.0014491798 0.0041937325 0.0022682413 0.004563331 -0.0026923611 0.0035889007 -0.013058752 0.0261404 -0.0036943357 0.030633448 -0.00796063 -0.03777456 -0.0035864096 0.018517764 -0.006071047 0.011559973 0.008139279 -0.006614159 -0.0029232139 -0.0017795656 0.002138696 0.001989951 0.0037473706 0.005095141 -0.0047604707 0.0012941606 0.020996748 0.021910973 0.03455953 -0.0012796917 0.00032420515 0.0027999256 -0.0012221694 0.011484836 -0.0005237518 0.012435821 0.013091179 -0.009000561 -0.0006032198 -0.000491382 0.0010623443 -0.0028558597 -9.866481e-05 -0.010880136 -0.0044303266 -0.004144767 0.005958585 -0.002961405 -0.012446274 -0.010587449 0.0059753424 -0.002123657 0.012001727 0.0031821555 0.009044409 -0.0062450576 0.0017696567 0.0032091402 0.024142874 -0.002201697 0.0008986869 0.0060840915 -0.0017395992 -0.0038937605 0.002753238 0.01764855 0.0008752379 -0.0096119745 -0.0007893289 -0.011305745 -0.011170329 0.0019013587 -0.0057067033 -0.0049389238 -0.0013994665 -0.0032236336 -0.0046133716 -0.0020253116 -0.011400385 -0.015204409 -0.0100815585 -0.011041415 -0.004998477 -0.0044695553 -0.003082137 0.0007010614 0.0081541715 0.0051481533 -0.030312836 -0.004392337 -0.018888146 0.005891632 0.0015086612 0.007125203 -0.015321544 0.007103661 0.006462711 -0.0051848763 -0.006501919 0.012751676 -0.017062938 -0.0023585795 -0.004070047 -0.0140003 -0.007215167 0.0016906171 -0.0023788284 0.00086815405 0.0026725982 0.002950382 -0.0051286966 0.0018696797 0.0034713545 -0.008685012 -0.009437227 0.0077062594 -0.00050417974 0.0012947654 0.010663038 0.006574687 4.123704e-05 0.002341731 -0.0027290282 0.0014402777 0.0075191557 -0.018215787 0.0037114655 0.0003478943 -0.013654758 0.0012358845 0.0057913926 -0.013800665 0.0027353973 0.012269892 -0.0045864754 -0.0031685017 -0.026732754 -0.0058160922 0.0018735558 -0.02136127 0.0049109063 -0.004443424 -0.008299247 -0.005744779 0.0055193277 -0.023816952 -0.00047597667 -0.018498395 -0.0040059816 0.0024895102 0.0066481913 -0.007636907 0.021863118 0.02673232 0.0015652303 0.031442173 0.0021711353 0.003608325 0.0011053709 0.017736532 0.009106861 0.012953044 0.0005599052 -0.018246042 -0.025522714 -0.0056256047 -0.0043746717 -0.019330235 0.00094216765 -0.014766453 0.004083077 0.0019377922 -0.0026294151 0.0017118274 -0.013834376 0.0065535023 0.0013914425 -0.00013113223 -0.007909843 -0.0127964895 -0.006736164 -0.00520376 -0.0046899915 -0.003350456 -0.0006019126 0.0027472544 0.008094108 0.0014510388 0.033841733 0.0016327021 -0.004811517 0.00032771096 -0.0045198225 0.001966814 1.8735678e-05 -0.0020030995 -0.038192045 -0.0085915895 -0.02013049 -0.04354436 0.00053626427 0.020218639 0.0024210978 0.00013872689 0.04238203 -0.0030241916 0.028849576 0.0010375566 0.004744675 0.011870053 0.0070784795 0.0026224777 -0.0047487686 -0.0065963874 0.0018633687 -0.0037783138 -0.009278984 -0.0036109288 0.011762442 -0.008002043 -0.016306527 -0.0068265204 0.002169777 -0.01787001 -0.015194165 -0.010592969 0.015181845 0.009328604 0.005310544 0.0010232545 0.00033512746 0.0058310856 0.00862547 -0.016210632 0.00017218514 -0.0076000732 0.004208805 0.0009919505 0.0017857412 0.009932707 0.001165906 -0.0059487815 -0.009007145 -0.0058961 -0.005857405 0.0045452076 -0.000921179 0.00020614728 -0.003422749 0.0010637591 0.007880504 0.0038876152 -0.000376007 0.0034436171 -0.018314835 -0.0032055604 -0.005498085 -0.00043912223 0.008866706 -0.0033022922 0.0026741424 0.0009720575 0.0007398157 0.006103951 -0.002811335 -0.0068907468 0.0020705406 -0.0016326044 -0.0013508442 -9.3690905e-05 0.0011520929 -0.003495986 0.015179694 0.015364666 0.0012543169 -0.0051524704 0.024852034 -0.0018161621 -0.014294735 0.022521587 0.006911178 0.002149305 -0.00017212448 -0.0006971495 0.004887619 -0.0029267117 0.0017247647 -0.00052236737 0.005148235 0.021441553 0.014670692 0.027057134 0.05021319 -0.000709903 -0.0076089404 0.022296647 0.0023199068 -0.0026777165 -0.005522126 0.011681257 -0.020025525 -0.0030062194 0.0039341645 0.009279487 -0.020657612 -0.0013582886 0.0021881917 -0.0030979246 0.00349163 -0.0044457605 0.0043775854 0.005469751 -0.0272332 -0.0033157284 0.004962641 -0.0026664818 0.0171955 -0.005160083 -0.027162263 0.0068267724 -0.0025493193 -0.0041292654 -0.00016223066 -0.0054874327 -0.00027443556 0.009541817 -0.0010831739 -0.0010562249 0.005179452 -0.004415039 -0.0012918558 0.000711557 0.00061368884 0.0028779644 0.0009801643 -0.008524121 -0.0025600498 2.047642e-05 0.008493823 0.0045634853 -0.004030573 -0.009516085 0.003377849 0.018695403 0.0042658113 -0.020333566 0.009323088 0.004284972 0.017127752 -0.0029913958 -0.0030419366 0.005546794 0.022926673 0.014570633 -0.0016166868 0.005257373 0.0018724466 0.0024335578 0.03563018 0.013668735 -0.006926584 0.01863827 -0.036327273 0.0038883192 0.0043166815 0.00021183143 0.022900991 -2.5950708e-06 -0.0010749002 -0.016218606 0.017344182 -0.0009541954 -0.007685036 0.009150663 0.0037536044 0.0035159097 -0.002391949 0.0044189715 0.008564159 0.003095825 -0.0009694148 -0.010842917 -0.0077244295 -0.0024946847 0.015544422 0.0053848135 -0.0056393268 0.003672057 -0.01073286 -0.009952546 0.042444546 -0.0029573226 0.018767443 0.004612582 0.0034665666 0.0070746304 0.011619872 -0.019326648 0.0046224813 -0.00837148 0.016696744 0.00012789146 -0.006476476 0.008411318 0.0141945565 0.003930934 -0.0037802495 -0.001471227 -0.032591734 -0.0022958342 -0.0029748115 -0.0022763265 -0.00036619444 0.0034397545 0.0023176542 0.006379809 -0.0066903867 0.018794969 -0.018479498 -0.0010273441 -0.006868855 0.0026981242 -0.00566246 -0.0005982976 0.009175167 0.0033382592 0.0012112136 0.0006434928 -0.00042410917 -0.0010952923 0.016785946 -0.0010652009 0.004236469 -0.006158656 0.0007940963 -0.0032756117 9.250088e-06 -0.033598024 0.0007308653 0.0014788229 -0.013108132 0.0004599872 -0.0014623594 -0.0077596977 -0.0034580866 0.0027396516 0.00038214392 -0.0032166957 -8.317828e-05 0.002007706 0.001343751 -0.0027151285 0.0026121077
0.00083865307 0.016828569 -0.0015670025 -0.008427753 -0.005804359 0.012826178 0.0019348742 -0.0040060487 -0.0018041756 -0.05017099 -0.0019651088 -0.00024192738 -0.0022483335 -0.0002887744 -0.0035321943 -9.782178e-05 -0.0017855191 -0.000795503 -0.004915429 -0.002368431 0.0007751969 -0.002618331 -0.0016602377 -0.008147378 0.0051985695 -0.0058635236 -0.0045224945 -0.048328415 0.0014372959 -0.01796747 -0.0027031535 0.005693716 0.015212452 0.0033235506 0.0011969155 0.002124344 0.00053064857 0.018301964 0.00011840957 -0.0032674724 -0.0031375317 -0.0045583397 -0.0038742677 0.0031943691 -0.00288823 0.0020889398 0.0034688003 0.013755106 0.0039805723 -0.007207835 0.0017917027 -0.0017374781 -0.008549052 -0.0021800993 0.000694367 0.0053687063 0.0030888524 0.022236766 0.00018818284 0.027487835 0.0069389795 -0.0025035061 -0.0017535662 -0.002024218 0.0020793367 -0.007258211 0.0032665587 -0.00016737211 0.0012000381 0.0014263067 0.0055254376 -0.0005542458 -0.005943708 0.00080880197 0.012563188 0.008722359 -0.008542976 0.0058096633 -0.00043743505 0.0004036058 0.0021646263 -0.004805391 0.0044637965 0.0060368036 0.001195209 -0.00037582993 0.0042329263 -0.0024813314 0.009696517 -0.005094228 -0.0032054393 0.00037031408 -0.0026899907 0.0021547119 -0.0042784414 0.005035449 0.010982378 0.03523686 -0.001310041 -0.0054967566 0.00022572599 0.0021142252 0.03080093 0.00012382222 -0.0010042302 -0.0031533812 0.010393883 0.0038574059 -0.00594312 0.0037517075 -0.0019149446 -0.008044177 -0.003575125 0.0016723617 0.007050681 -0.0021689532 0.002555058 -0.028472098 -3.0976193e-05 0.0038325712 -0.00450457 -0.0012548107 -0.0017580449 0.0039134044 0.0014448832 -0.004012764 -0.0029790588 0.005877777 -0.0060120425 0.015062399 -0.0012449332 -0.012809312 -0.02272216 0.0017003239 -0.0037085877 0.004086835 -0.001217714 -5.6152083e-05 -0.000705732 -0.007954962 -0.019514298 0.006501325 0.0012484385 -0.00058545166 0.0019296653 -0.0010253827 -0.0034512612 -0.031894427 0.0057919486 0.0073312153 -0.0025856385 -0.0046908967 -0.004831816 0.008630277 0.006399297 0.001445492 0.0005595527 0.004563926 0.00018169613 0.053729244 -0.004108362 0.000102186925 -0.038250756 0.011545383 -0.012249376 0.0024017398 0.0023025498 -0.02494063 -0.00083613524 -0.003655038 -0.00014146842 0.004123634 -0.0056900983 0.0012628563 0.008326253 -2.931457e-05 0.001811542 0.040799998 0.001791967 -0.00039372226 -0.0014611261 0.0053956592 0.0019141098 -5.69924e-05 0.00050641835 0.0024445367 0.002581051 0.00012757123 -0.005904004 -0.0037816388 0.0023784759 0.0041259816 0.0016090593 0.0013667113 0.004843162 0.009227048 0.021513175 0.0016688807 -0.010660549 0.0082923155 9.30702e-05 0.0026864202 0.008016894 0.000105140214 -0.003183314 0.0037058243 -0.0022088168 -0.008817829 -0.0015433833 -0.0031708167 0.009174778 0.008859847 -0.008685546 -0.013128283 0.004000178 0.0036886765 0.00072139245 -0.0011878787 0.002756802 0.0035932558 0.02031309 0.0006408964 0.016386883 -0.031095203 -0.010307946 -0.008776114 0.053983703 0.0008258288 0.008960601 0.0027108947 0.0034004143 0.0001108364 -0.0011401147 0.00054522266 -0.0025419858 -0.0027340353 -0.002055073 -0.0011081027 -0.0089794835 0.00045014138 0.004288994 -0.0011335032 0.026810976 0.004910484 -0.00053496106 0.0038832158 -0.0053345505 0.0022762984 -0.0039392044 -0.0025694666 -0.0052825115 -0.00016992522 0.0010889652 -0.005821279 -0.007910362 0.0027117843 -0.00884215 -0.001211709 0.00076397246 0.00025402362 0.0030528123 -0.00082325516 -0.0034103938 0.004062936 0.0074865744 -0.012401632 -0.0048512258 0.00359793 0.006270782 -0.01644617 -0.002691805 0.0062924935 -0.0019545548 0.034785256 0.0018135039 0.00062598573 0.006769425 0.00974741 -0.003252374 0.00573133 -0.023561988 -0.004535303 -0.0014196552 0.0020108519 -0.014789819 0.0017831371 -0.013214383 -0.01711307 -0.0028896728 0.031230701 -0.0024835365 -0.0034002312 -0.007800904 0.0044231843 0.0036324174 0.0012972433 0.0035561996 -0.008856025 0.0035514329 0.0023698404 0.010596493 0.010083987 0.032895368 0.0034615942 0.0045504747 -0.0016763433 0.0024431164 -0.0009439163 0.002813285 0.0033502884 -0.0011648508 0.0032994526 0.00075779896 0.000110471985 0.0032236117 -0.0023733198 -0.0013805181 0.006131883 -0.005402492 0.0003609709 0.0015413578 0.00011222136 0.0007753913 0.0031873905 -0.0024803844 -0.0021510695 0.00032468373 -0.001059656 -0.0014560266 -0.008834179 0.004275281 -0.003564599 -0.002696914 0.0014488557 0.0018528758 0.0026928964 0.00017737749 -0.018091846 0.0066606086 0.005342814 -0.0013409376 -0.0014889023 0.0059059407 0.004039735 -0.00024018882 0.0054722563 0.0012551097 -0.0033269054 -0.0036963287 -0.0074456213 0.0077252407 0.005633334 -0.00060980883 0.003331818 0.0028719697 -0.00025808698 0.0002901786 -0.0027005358 -0.00925226 -0.0011725962 0.0008328945 -0.0047607347 0.0059710117 0.0096629495 -0.007507143 0.00033321357 0.000705812 0.0039500436 0.009200877 -0.01440965 -0.003302401 0.0027057724 0.000976621 0.0027034923 -0.0026280065 -0.0011393987 -0.0128408475 0.0059992936 -0.020399736 -0.0006458034 0.0029591902 -0.00016558933 0.0008439116 -0.001391066 0.0029736732 0.0013097242 0.0013317837 0.008311722 0.00030166798 -6.226205e-05 0.00076737016 -0.021538286 -0.0007831299 -0.00020251106 0.0010319774 -0.00081764424 -0.0021832404 -0.0021586297 -0.005409648 -0.0035446296 -0.0085293725 -0.0032700633 -0.013980907 -0.0046407925 -0.00855693 0.00081757375 -0.0042716907 -0.010523367 0.001329245 0.0034033959 0.00045306058 0.0075532775 0.012727696 -0.01542504 -0.0033407891 0.0072354637 0.00070546934 0.011066471 0.012956347 0.0044979095 -0.0016640835 0.03922672 0.005782561 0.002092424 0.0015169716 -0.010627951 -0.0020659985 -0.0022147477 0.008006139 0.00065030216 0.001901424 -0.006265856 0.005336696 0.005003281 0.004367272 -0.0016086441 -0.0013416159 -0.003237517 0.005925667 0.0013526339 0.015850727 0.009307752 0.0047478415 -0.0009551607 0.0010070663 0.004932291 -0.0042149206 9.770456e-05 -0.0023926594 0.044423427 0.00038330906 0.00096100214 -0.0033810204 0.0016487866 0.0077497717 0.01579161 -0.001661033 -0.0035068013 -0.0007522285 0.031224797 0.051722433 0.0042911577 -0.005453502 0.0020415678 -0.0031754796 0.004630391 0.0043148217 -0.0015424932 0.0037795953 0.0017699398 0.0012540994 0.0047722403 0.0005992976 -0.0031188226 0.0012939748 0.014128688 0.006013425 -0.014859864 0.0025609208 0.005130299 -0.0027950066 -0.0018040321 -0.012568732 -0.02117714 0.0007958353 0.00051878794 0.013943059 0.0030350836 3.5525725e-05 0.018312734 2.6824104e-05 -0.0027229697 -0.003822586 0.0014851992 -0.0006075331 0.009550707 0.054497287 -0.0041393917 0.0042580734 -0.0087346 0.004855922 -0.0020887377 0.04347757 -0.0025297937 -0.0005298837 -0.0021492832 0.0062613203 6.41467e-05 -0.007833197 -0.00032106068 4.412389e-05 0.00072158955
-0.0070957406 -0.004135723 -0.0009813149 -0.004557121 -0.0092568835 0.001513814 -0.0126876915 -0.0014846228 -0.0004236027 -0.013757869 0.00027398867 -0.002730802 -0.006180703 0.002915302 -0.01514188 -0.010535928 0.00025491318 -0.004017702 0.010469319 -0.012073074 -0.00046161457 -0.0029594603 -0.0040656533 -0.012757753 -0.004895204 0.0041463445 -0.0028749618 0.01991361 0.0026615483 0.01718907 0.0022657432 -0.0031662753 0.014696798 -0.0036701057 0.0005216856 -0.004204206 0.0004230928 0.011811419 0.0012783227 -5.075083e-05 -0.0017971474 0.0034437946 0.006971594 0.0020348644 -0.0015424502 -0.0065160464 0.0022159994 0.010164157 -0.001772113 0.019222954 -0.009081961 -0.0010075493 0.013679083 0.0049514226 -0.00057345565 -0.004424794 -0.0039138836 0.012896836 -0.0018823297 0.0036182827 0.006078284 0.0026682504 -0.0014137242 -0.0030115435 -0.00075288163 -0.0011764697 -0.0009907447 0.009835153 -0.003424638 0.0005051889 -0.018279752 -0.00070610293 0.0024171472 0.0016545015 0.015895316 0.003121767 0.0032016255 0.0049211597 0.0019190442 0.0021592407 0.0041747456 -0.0015174693 0.0072829193 -0.0039483947 0.0026607139 -0.023911983 0.00025061125 0.004066375 0.0075795823 0.0014366971 -0.0016787329 0.0021197395 0.0008477576 5.272619e-05 0.010901753 -0.0059412587 -0.00016336406 0.0014281763 -0.0035927151 -0.0022917995 -0.0063805636 0.0023491117 0.019087723 -0.006581859 -0.0004175485 0.06460005 -0.007024104 0.004475777 -0.0035635522 0.001481204 -0.00041302288 0.010968845 0.0020380388 -0.0071587698 -0.00035252888 -0.000550892 0.0008483724 0.038424395 -0.0008707924 0.01399933 0.0069227535 -0.0028287233 0.005128108 0.004432733 0.008883504 2.9255389e-05 -0.00033545075 -0.008150324 -0.0024324541 -0.010973766 -0.0028878835 0.0009548014 0.013040393 -0.0060411147 -0.0007244707 0.006707207 0.0077727768 0.0013862494 -0.0016799538 0.0013514431 0.010984954 0.0023347104 0.0030790358 -0.0027296157 -1.4988431e-05 0.00041304805 0.0036637434 -0.0013561952 0.0042036795 0.009177229 0.0054571885 -0.0016064049 -0.00074021425 -0.009886581 -0.0048987735 -0.0017818733 -0.0036748648 -0.044199463 -0.0008886452 -0.001552609 -0.008054641 -0.0021645606 -0.03523429 0.013545677 -0.010309186 0.0025726974 0.0010669485 0.014697909 -0.012088092 0.009502462 0.0002478042 0.00091537123 0.0031743322 0.00095663435 -0.010551316 -0.00065003603 0.0013138303 0.008097827 0.0034352215 0.0013463162 -0.0032802173 0.0012217094 0.00083983765 0.00042713826 0.014345645 -0.0040164166 -0.0023726455 -0.0030408537 0.0046479404 -0.007824914 -0.0127998665 -0.00069061946 -0.013770145 0.007979764 0.0043503526 0.00037322237 -0.025263848 -0.00384169 0.015976593 -0.021451445 0.0012085234 -0.0059088236 0.0060155974 -0.0046667573 -0.0033250493 0.0060514538 0.0010346818 0.016613675 -0.0014433316 -0.00079850043 0.0089004645 0.002485241 0.0018845792 0.0014095854 0.016219053 1.26993245e-05 0.0039406978 0.005251372 0.0050785816 -0.0034624077 -0.005057133 0.00085593294 0.0016029044 0.008666586 -0.029217068 -0.02152483 -0.0093128225 0.006564642 -0.013866406 0.00536129 0.003150879 -0.012276901 0.0055152895 -0.0024000935 0.0025178152 0.0031853924 0.004785603 0.0029416783 0.012622008 -0.0062956554 -0.0015784737 0.0016438711 0.004135683 0.004065495 -0.004740764 0.00066313945 0.0005858168 -0.014083531 0.0010389028 -0.023348505 0.0024027464 0.0008335559 0.0037698161 0.0064118975 -0.0026730692 0.03369291 -0.01609411 -0.0028693753 0.014319374 0.0005049148 -0.002228785 -0.0010059712 0.0020344253 -8.259605e-05 0.009209178 0.008279098 -0.016705692 0.014312728 -0.0044424557 -0.011502006 -0.0026094164 -0.00077623175 -0.002084743 -0.003043927 0.00068632665 -1.1607255e-05 -0.0004459318 -0.022501238 -0.0019119603 0.013090337 0.0129653085 -0.002257058 -0.005293289 0.0068442454 -0.0008362514 0.0012446884 0.014005958 -0.03875645 0.00071912503 -0.022070449 -0.00086866907 0.012307484 0.007968547 -0.0016487326 -0.0029487913 -0.0010426908 -0.00021906535 0.004495233 0.0030449687 0.0045809336 0.005945207 -0.011415698 -0.025578385 0.0028717464 0.0057923454 0.0024605624 -0.0018788924 5.0090628e-05 0.0030295968 0.00111234 0.007906747 0.0010979727 0.0025429826 0.002654638 -0.0037897278 -0.00028932802 0.0009915368 -0.002393432 -0.0011418613 -0.0013746414 0.00021428967 -0.0024313799 -0.0019806488 -0.0018790603 0.0012940086 -0.00048709856 0.00012526478 -0.0011396294 -0.0059729298 -4.077941e-05 0.0009920775 -0.0054741655 0.0061432933 0.0007596351 0.0006854161 -0.006549767 -0.006061947 0.004200354 -0.014988203 -0.017057013 -0.002075817 0.00068248983 -0.0010799204 -1.1299234e-05 0.026431525 0.0022901858 0.00068957626 0.0072919712 -0.0045483205 -0.004536252 -0.002862867 -0.03083334 0.0008751819 0.00044149728 0.0028499772 -0.00016264574 0.0011794775 0.008651483 0.013258487 -0.004182153 -0.00071104406 0.0030338843 -0.00018256012 0.016389526 0.010711002 0.0039582555 0.003372572 0.000365444 0.008425675 0.0043364093 -0.0017573518 0.028257195 0.0016513643 0.0001842346 -0.001106509 -0.0013091111 -0.008464669 0.0028254031 0.015561532 -0.0033635506 -0.0027582478 0.002116059 0.0030524903 -0.0026794872 -0.012147361 -0.0055987197 0.00037603136 -0.018935375 0.0021280008 0.0043189484 0.0044178767 -0.01529041 -0.007578792 0.00041841538 -0.003323235 -0.00027473381 0.0022447086 0.017408539 0.006407947 -0.0019309428 0.0020545146 -0.0021517237 -0.0060091685 -0.008473838 0.0014821781 0.000785094 -0.0025604435 -0.0039567584 0.0029380359 0.0013114309 -0.002816918 -0.01591932 -0.010146549 -0.006474921 0.0037981742 -0.0022468232 0.00033392018 0.008004116 0.010872986 -0.006033223 -0.002825828 -0.028055647 -0.002907187 0.0045204926 -0.0020187944 0.023267865 0.0015415006 -0.001574816 0.013771837 -0.0029282519 -0.00032482 0.007420876 0.010910849 -0.002115711 -0.0019192692 8.210363e-05 -0.004586986 -0.0062091197 0.006991534 -0.0019843716 -0.023850586 0.016228924 0.0006212476 -0.005236152 0.00039545228 0.005909514 -0.006311064 0.00036031767 -0.0007451176 0.003106463 0.0026510847 0.01153483 0.0020957931 -0.009186294 -0.0035267747 -0.0041732234 0.0015266981 -0.016637035 -0.0051121637 -0.001010353 0.0153618185 0.005748113 0.0006353384 0.0018044882 0.0058351494 0.008240012 -0.0010753936 -0.005718397 -0.0025017418 0.0030823087 -0.00048503923 -0.0013800367 -0.0078516435 0.0026189834 -0.0055747903 -0.016541757 -0.0011623034 0.0047123935 -0.0023189364 0.00032663817 -0.00041230346 -0.0061561484 -0.020830227 -0.00011556864 0.0020228992 0.00273598 -0.0051312493 -0.0006749094 0.0019821322 -0.013170304 0.0014774686 0.0026936855 -0.00631722 0.05299507 0.0038343174 0.0011831835 -0.03966218 -0.0033777358 0.0015189052 0.008798267 0.0021981625 0.00040450253 -0.00247222 -0.00034879628 0.00032648921 -0.0020059645 -0.003889517 -0.0011771042 -0.003659049 0.006589209 -0.0010092846 0.00041034105
0.00040069717 -0.00013546323 0.00042471377 0.01887902 -0.0008653289 -0.005251637 0.006813234 -0.0050412314 0.003024114 0.0328224 -0.0050846185 0.0036397981 0.0022313506 0.0024475735 -0.009557344 -0.00050694664 -0.004323541 -0.0018349857 -0.0042636287 -0.0065075746 0.0023795324 0.0046898844 -0.001671372 0.011667831 0.0004735968 -0.001132468 -0.0012081856 -0.0030449808 0.0015476613 0.0012860313 0.0014727379 0.0055614407 -0.00647401 0.0057531153 0.002393695 -0.00018405537 0.00010751537 -0.007356479 -0.00079339347 0.0005803902 0.003427219 -0.001159442 -0.0110354135 0.002769326 0.00313356 -0.014566875 0.003244066 -0.0031730083 -0.001748282 -0.005281075 -0.0026356091 -0.0022136483 0.066312164 -0.0035634218 -0.0027083044 -0.002848503 -0.0013194463 0.00020622091 -0.0007463353 -0.052084934 0.0057806023 -0.0002670467 0.00013774644 0.0016974957 -2.4236162e-05 -0.008509531 0.001662991 -0.0010985705 0.0012016904 0.00026848385 -0.0028647624 0.0021236194 -0.00036545857 0.0051159193 -0.0026218037 0.0034837006 -0.014785039 -0.0052674212 -0.0009471371 0.004234851 -0.0030507855 0.0020261533 -0.007974395 -0.0065753055 0.00314105 -0.007341137 0.0007883099 0.0043204124 -0.0031027058 -3.4087032e-05 5.4759603e-05 -0.0009693626 -0.0014103604 -0.00027380796 0.0037906077 0.00048337752 -0.0013332216 0.0071841558 -0.00656603 0.009876933 -0.0033330573 0.0052618897 -0.0022109519 0.0013139903 0.0007593387 0.0044734827 0.002273981 -0.004293625 0.0022371043 -0.0059921807 -0.0005209859 -0.014143427 -0.00026905222 -0.0007187337 0.0015152643 0.0013543399 0.0020490629 0.0510981 -0.0034754248 -0.0043507447 -0.05460376 0.00032542954 0.0003098097 0.0026224973 0.0023104544 0.0030517771 0.0075254682 -0.001696485 -0.0056097833 0.0024088144 -0.00014770782 -0.0012158393 0.01821999 -0.0015630285 0.001726165 -0.00028562688 0.0005920327 -0.00077406666 -0.0014277133 -0.00059051573 0.0032036866 0.024277074 0.003227519 0.005934117 -0.0014107849 0.0021758461 -0.0022364445 0.0031178838 -0.009642635 -0.00024916691 -0.0003922701 -0.003610603 0.0021199533 0.0057107913 -0.005149063 -0.0013497446 -0.0022547825 -0.0021276446 -0.0037845196 -0.0048130048 0.008581859 0.0020794354 0.0013573087 -0.0020285437 0.013635864 0.00022340301 -0.0013827304 -0.005270305 0.0067431354 -0.0056974413 0.0017108998 -0.0028178429 0.0053471606 -0.0014497285 -0.0065999716 0.0019441167 0.0016398781 0.0040412755 0.007569326 0.00024642827 0.00080690556 0.00031193622 0.0014760471 -0.0051417677 0.0036931732 -0.004570296 0.0048691705 -0.0006439543 0.001473064 -0.000808507 0.00011993473 -0.00019461745 0.033637583 -0.0019046268 -0.0012238037 0.0012488622 -0.025940679 0.0012967498 0.0023689 -0.0033448853 -0.0013051026 0.00017514834 -0.003824506 0.00031350245 -0.0037535587 -0.004748543 -0.007926194 -0.026918016 -0.0013941689 -0.002517887 -0.0020044176 0.0025478017 -0.003428329 0.0074907932 -0.0167833 0.0009230038 0.0017558761 0.00016006321 0.0018935527 0.0020095147 0.00218986 -8.678493e-05 -0.007089836 -0.0020990334 -0.008810605 -0.011550334 0.013143778 0.0014898512 -0.0015855402 0.004765976 -0.0013713198 0.001959217 -0.00036466538 0.00015506231 -0.0012483984 0.0040493673 -0.0037517755 -0.002945703 0.004232936 0.0024959818 -0.0008565643 0.002116319 0.0018582984 -0.006591656 -0.0024408067 -0.0104698595 0.002013917 0.004519351 -0.0058963713 -0.0136473 0.0009835695 0.002750517 -0.0006101281 -0.005380126 -0.00040968583 -0.004690677 -0.012912683 0.00078382186 0.002186444 -0.0005948095 0.001907777 -0.0011311013 -0.0016422983 0.0061532254 -0.022754945 0.0051682107 0.006300813 0.0038100767 0.00848287 -0.025564253 -0.00022272755 -0.0057507977 -0.0022652906 0.0017299413 0.00029393047 0.00293897 0.0052292524 0.009627361 0.0032145702 0.0029294083 -0.0069364686 -0.0015702266 -0.0062277727 -0.029121052 -0.0048934654 -0.0038439583 0.00061657006 -0.011565999 0.0023647354 0.0013446512 0.0038146838 0.0034962934 0.0020176182 -0.007774041 0.010149163 0.0010471266 0.00041973553 0.010155688 0.0025686426 -0.003320291 0.0019684336 0.007790152 0.03180712 -0.00039096986 -0.0022356266 0.0006490297 0.0011537368 -0.0021500438 -0.0038761247 0.004604607 0.0042100986 0.0014188876 -0.0032000728 -0.0003599214 -0.0011047398 0.0036027106 -0.00024039076 -0.0030535776 -0.0015058792 0.0010132019 0.003909792 -0.0034430213 0.0004135629 -0.0003810898 0.00087176537 0.00077674113 0.00041561242 -0.0017780939 0.0032989802 -0.009241238 0.0033686107 0.0030337158 -0.0034349316 -4.3253433e-05 -0.00022222745 0.0031281752 -0.0022198798 0.00852566 -0.0018103241 0.009596143 0.0009430141 0.0024398593 0.0031425678 -0.011060083 0.011948783 0.00046921527 -0.002231234 -0.0050343336 -0.0039582956 0.015205897 -0.0035586231 -0.004277343 -0.0011477772 0.00012181097 -0.0068826415 0.0010554449 0.00054261956 0.0015232745 0.0063550575 0.0009102014 -0.0010909447 -0.0002908168 7.2893044e-06 -0.007522474 -0.0043802876 0.00092295447 0.0023776374 0.0019435603 0.010312657 0.028213015 0.0013782735 0.010930401 -0.00078973983 -0.0012979956 -0.002290186 -0.00010485204 0.002390184 -0.0039488403 0.01620217 0.0021857878 0.0003263769 -0.0026111768 0.0015732094 -0.0025744885 -0.01099064 -0.0042179483 0.020984463 0.02304113 -0.0005100753 0.0004815241 -0.006454234 0.0068212193 -0.0021693693 -0.0028939755 -0.0026795585 0.002493135 -0.0003948972 -0.009538067 0.0027987028 -0.00021734518 0.007935264 -0.0026152043 -0.0010617321 -0.00039855842 0.003838828 0.005934573 -0.0028619478 -0.010740586 -0.002916431 -0.001317656 0.00095314614 -0.00072125084 0.007563707 0.002324463 0.0018157098 -0.0026342005 0.0005305053 0.0023416248 0.021714684 -0.0035412554 -0.010786391 -0.0044240616 -0.0031781802 0.002639572 0.0027560513 0.004324966 0.0012149799 -0.000591108 0.0075967484 0.0001884627 0.0019205698 0.00576912 -0.004359641 -0.003036678 -0.0035674446 0.0003645868 -0.008694549 -0.004201989 -0.0074978243 0.0074773203 0.0033646934 -0.0055300416 -0.0018225701 -0.0014318555 0.0017173798 0.003116385 0.0015491156 -0.005426335 -0.0030464884 0.004793679 -0.0015425402 -0.0028587293 0.0028618877 0.003937216 0.0017306869 0.004162257 -0.0003679385 -0.027719134 -0.00017898848 0.004132845 0.025783755 0.0006627409 -0.0015525414 0.0024944313 0.0055146776 0.0060808547 -4.6388603e-05 0.005499604 -0.0026953097 0.0028513668 0.0021576674 0.0013401684 -0.0015528011 0.0015131251 -0.00022859438 0.00041352486 0.000163688 -0.00053504674 0.0036446897 -0.0049835644 -0.0027982786 -0.010062932 -0.00292921 -0.007385474 0.00089120114 -0.0030920221 -0.008331888 0.00024280316 0.0041377326 0.0052206647 0.0029726867 0.0004743272 0.0027968916 0.019664284 -0.0007526409 -0.0018202409 -0.006814521 0.00025750545 -0.0017448354 -0.011878914 -0.002029819 0.0015795502 0.0007788317 0.00045492197 0.002767535 -0.0006785911 -0.0002741555 -0.0009799483 -0.0014920962 0.0012242905 0.023833845 0.00458633
