0.37039626 0.069518805 -0.049249556 0.041177906 0.1601077 -0.00019728545 0.19561727 0.10086176 0.08212913 -0.24813388 0.05183067 0.05459341 0.056516904 0.122031294 -0.044925343 -0.19875193 -0.017131792 0.083563834 0.003085308 -0.14601886 -0.06021578 -0.046672758 -0.0021146347 -0.13848348 -0.0082652895 0.011305154 -0.21668917 -0.013449308 0.070144795 0.06750266 -0.041229043 0.012400743 0.07198359 -0.039478578 -0.051583737 0.011665578 -0.029092144 0.027518936 0.032393806 0.038262643 -0.035471827 0.012608425 0.01340557 -0.03945258 0.008341068 0.057947546 -0.09423831 0.023432536
0.16271803 0.030935997 0.07595169 0.34817186 -0.032448974 0.059071817 -0.0527494 -0.048451252 -0.44997534 0.092539 -0.04814066 -0.2547466 0.15382293 0.22210059 0.1317147 0.024761572 0.024746075 0.102476254 0.008510327 -0.056159593 0.10883564 -0.020017657 -0.0711413 0.036950417 -0.08183836 0.21015787 -0.09337071 -0.07476991 -0.0018823767 0.1061006 -0.21522793 0.13521045 -0.06250482 0.006280165 -0.0012624149 0.020691587 -0.0074562854 -0.046784755 0.022544922 -0.022432577 -0.07301788 0.029090174 -0.040101524 0.01469118 -0.0011202117 0.013335163 0.07456987 -0.044654388
-0.24194053 0.17292763 0.09342978 -0.14832094 0.035085015 0.10791009 0.29910308 -0.009183596 -0.22407697 0.1379222 -0.036285687 -0.07615649 0.3176871 0.09764255 0.21559112 0.13030294 0.09130884 -0.0052874205 0.27951032 -0.034128513 0.19716242 0.09628365 -0.044165526 -0.1522016 0.13239984 -0.07083959 0.16495256 0.041830946 -0.0040338556 0.09714922 0.052423228 -0.0007887814 0.028957762 -0.010193169 -0.13582422 -0.08941923 0.0046681887 0.0027756135 0.020406408 -0.03682322 -0.06698016 -0.056981117 -0.015959049 -0.018349621 0.009657997 0.052419703 0.006609812 -0.0027035016
0.085425295 0.088737175 0.07941372 -0.019122291 0.06274119 0.07846191 0.007278563 0.0062578116 0.101665705 0.013501345 -0.10174302 0.16490352 0.19283141 0.1246954 -0.07678545 0.0017008955 0.04867941 -0.1315969 0.1145391 0.077483706 0.048881516 0.18113941 0.10167959 -0.14876312 0.05876254 -0.06940152 -0.07873359 0.074880406 -0.047581077 -0.082763575 0.05486886 0.24112476 0.11308364 0.02140805 -0.035764072 -0.001311358 -0.023781387 0.05857791 0.021089185 0.060553767 4.9098722e-05 -0.011396541 0.021826273 -0.00602768 0.03481357 0.04831657 -0.020826023 0.0034816735
0.05784039 0.0012450971 0.043018967 -0.34337866 -0.06430582 -0.028499728 -0.018059267 -0.15665203 -0.50046587 -0.2540598 0.007201988 0.029498952 0.17050299 0.17191492 0.0004158215 -0.13373049 0.036085937 0.32393435 -0.005068004 -0.19838013 -0.074738584 -0.22453624 -0.2522462 -0.21913835 0.062194675 -0.28300416 0.18989725 0.17424536 0.04805748 0.08238546 0.058157124 -0.12964097 -0.19006146 0.019942967 0.04990836 0.033596087 -0.022911033 0.0114434 -0.013324774 -0.008562573 0.0242617 -0.04065011 -0.0018013441 -0.0065670973 -0.04589416 0.013455758 0.009578374 -0.0069911084
-0.008517931 -0.09782576 -0.02217728 0.03835577 -0.023640648 -0.0237608 0.034085248 0.079597875 -0.08890586 0.030915761 0.13650751 -0.035611574 -0.20507133 0.019614259 -0.14458221 0.13546883 -0.10878074 -0.12049212 -0.11079756 0.0059374357 0.19999631 -0.090929255 -0.07613677 -0.13692473 0.028403915 0.11458499 0.041181054 0.17910507 -0.07844819 0.048697148 -0.041710373 0.018042544 0.06622238 -0.040911254 0.16453679 0.13463683 -0.00438487 0.01896432 0.006604108 0.04085948 0.016576098 -0.06791838 0.013592843 -0.017456416 -0.011247885 0.03994923 -0.005773649 -0.07238109
0.13624607 0.045717556 -0.034101035 -0.19255951 0.04873797 0.01944057 0.02347147 0.072632216 -0.1816522 -0.19769078 0.010616972 -0.10051945 0.10011195 0.024453769 0.11158129 -0.038347807 -0.069625385 0.0040783305 -0.057176463 0.12706923 0.029341219 0.0794735 -0.022155277 0.13277118 0.015642496 -0.09012735 0.12871668 0.14357781 -0.12819105 0.032837126 -0.034433026 -0.15813524 -0.027708644 0.008821482 -0.02487803 -0.08102878 -0.02983263 0.01816213 -0.027459312 -0.012380715 -0.089916565 -0.0058993944 0.032126162 0.0032037438 0.014124512 0.021920314 0.04360129 0.016391478
0.003830145 -0.14172733 0.102907196 -0.06564205 0.0092234425 -0.0025890276 -0.075727925 0.028250266 -0.012831403 0.066003986 0.03457885 -0.21404602 -0.0055482187 -0.100545116 0.20402811 0.07747273 -0.13345352 -0.14069133 -0.2637809 -0.15736422 0.15128873 -0.019402022 -0.12924848 -0.08462342 -0.061354253 0.09178649 0.15886343 -0.004897881 -0.06010738 0.0073284083 -0.06452858 -0.17937858 0.059995443 -0.02633326 0.012230923 -0.06546561 0.032230653 0.008174906 -0.0022820577 0.026903044 0.011473455 -0.026338797 0.0027143853 -0.03027541 -0.028892517 -0.0041376213 0.044653688 0.0047367676
-0.19850713 0.067774765 0.15457442 0.020774469 -0.16424249 0.042722538 -0.3847632 -0.38842046 -0.1998435 0.14197975 0.09602725 -0.12306347 0.0020250233 0.11608872 0.2762069 -0.14973189 -0.065332904 -0.07662302 0.15941256 -0.16543375 -0.5043245 -0.0060452586 0.10045699 0.011168636 -0.13019148 0.0041634752 0.1677466 -0.07807052 0.0020416798 0.10461984 -0.018695125 -0.05159379 -0.46426868 0.09616636 0.013960239 0.07342718 0.030913135 0.021130854 0.04278924 -0.07344511 -0.045320738 0.0675744 0.023458099 0.025585478 -0.053658377 0.022423575 0.008336636 0.021461481
0.05002081 -0.10460473 -0.05627443 -0.02967763 -0.050157957 -0.02342434 -0.07594407 0.043741405 -0.43058863 0.022961097 -0.13988659 -0.022385323 0.17324543 0.07148372 0.16050154 0.17452224 0.13432726 0.14464904 -0.038916003 -0.021512533 0.15658322 -0.102685615 0.1184383 0.038806874 0.0373223 0.07133372 -0.13364041 -0.13005216 -0.08824154 0.07886365 -0.06551459 0.10642558 0.010104844 0.009025219 0.011324627 0.041251108 -0.006029623 -0.005713334 0.007247801 -0.08922334 0.021356056 0.030855106 0.08073731 -0.047678955 -0.00346045 -0.08192747 -0.02984537 0.035906985
0.39180863 -0.11565292 -0.15587032 0.07188192 0.0545876 0.018865013 0.14933553 -0.04331417 0.11391614 -0.5178338 0.12336533 -0.07442328 0.045482617 0.059949394 -0.44086146 0.061967384 0.04083627 -0.0714885 -0.07690586 -0.11981312 0.0019474478 -0.072399825 -0.25965932 0.05917123 0.068101265 0.048674967 0.07112521 -0.13783586 0.0013398718 0.03458402 0.03644143 0.013189371 -0.02513328 -0.07319017 0.0065700808 -0.048609484 -0.01600036 -0.0029459759 0.005506821 -0.014046181 0.03059083 0.026606083 -0.004387445 0.022674084 0.01759759 -0.013364425 0.01462947 0.053531557
-0.060622808 -0.03439241 -0.07252006 0.012955469 0.029091166 0.013567858 0.12997866 -0.13696681 -0.3558188 0.062379077 0.13070357 -0.23608723 0.06787807 -0.017198848 0.113707766 0.1663453 0.05249937 -0.038257122 0.042005412 0.07102775 0.13428704 0.067784674 0.07425605 0.049185384 -0.045773536 -0.015021994 0.13984036 0.009641166 -0.01200639 0.13390924 0.025358228 0.025598647 -0.010294082 0.010826958 0.014145752 -0.10004057 0.059113894 -0.004372103 -0.040635295 -0.042429645 -0.045114134 0.023111599 -0.005508338 0.032574665 0.02640742 -0.011431684 0.03469666 -0.056955986
-0.23674227 -0.13351111 0.05736522 0.0060639274 -0.2246991 -0.0035102423 -0.2823412 -0.020735784 0.19998404 0.005459097 0.0060602585 -0.042498287 0.23922561 -0.042006146 0.28614557 0.053338505 0.0754456 0.26582938 0.08100209 0.21253428 -0.32163808 -0.07874883 0.034810886 0.13237058 -0.038163908 -0.10557404 -0.037020043 -0.11438574 -0.011924992 0.039579663 -0.01652163 -0.03769029 -0.05047042 -0.31588593 -0.20793647 -0.11006569 0.027035082 0.04901794 -0.041851714 -0.035123814 0.016364573 0.034680918 -0.007824524 0.033276763 0.028037075 -0.09859981 0.004734317 0.024434702
0.0048789983 0.047913346 0.08788359 0.17960137 0.13305227 -0.015285526 -0.0656753 0.0792575 0.32767087 0.19121085 -0.050217796 0.46468833 0.090278156 0.016448721 0.03692819 -0.09761474 -0.06693325 -0.025929747 -0.06282868 -0.1069241 -0.07777358 0.40637797 0.1488957 -0.12539098 -0.012182733 0.023451475 -0.05567725 0.035752922 0.024517363 -0.0037014305 0.0073497305 0.084147535 0.25189197 0.41475272 0.09687296 0.035791483 -0.017164584 0.036625423 0.029745173 0.018234886 -0.020256435 0.029722236 0.012479755 -0.015487413 0.00014937247 -0.008827125 -0.037841067 0.04726914
-0.06364502 0.15534104 -0.22931066 -0.019288724 0.032609876 -0.043834645 -0.3270508 0.25477073 0.24063706 -0.24126568 0.033327207 -0.031157522 -0.0051262565 -0.2683776 -0.27530366 -0.14898513 0.30856916 -0.046780333 0.032886412 0.010296864 0.08037497 0.1676261 -0.03265917 0.1742908 -0.015937777 -0.07960931 0.3086909 -0.10564896 0.09051766 0.011192302 -0.039351765 0.059533995 -0.00011597167 0.07783998 0.070827074 0.006028205 -0.01561696 0.057525802 -0.039910633 -0.0985828 -0.09975286 -0.00600168 -0.0047904965 -0.0036464005 0.025463184 0.020984177 -0.051780954 0.048150904
0.032696463 0.030452924 0.2520203 0.07213597 -0.06272769 0.036298253 -0.26096797 -0.06751287 0.23568475 0.015214646 0.0028800208 0.1232012 -0.027680516 -0.2231115 -0.378728 -0.43438986 -0.08993455 -0.16953936 0.06169167 -0.026441263 -0.34454256 -0.28659475 0.010429094 -0.1788341 -0.0004670343 0.16168003 -0.16449597 -0.1539388 -0.12436103 0.07676065 0.065217555 0.015657157 -0.18619175 -0.073505476 -0.05752477 0.054148372 0.013650969 -0.032107905 0.044179745 0.031140985 0.017064052 0.013433427 -0.026123848 0.007302243 -0.038146634 0.03075743 0.050402604 0.013372928
0.0698615 -0.036434904 -0.007064413 -0.005118742 0.03325784 -0.0324034 0.0916828 0.08187065 -0.016455255 0.055509888 0.115854315 0.088307865 0.07135782 0.15751076 -0.037187755 0.00846257 -0.1092992 0.29219377 -0.32988626 -0.21612927 -0.09088508 0.01689883 0.12901008 -0.18798503 -0.01709535 0.21405138 0.06844057 0.035490043 0.040432017 -0.0032944537 -0.043541063 -0.16743726 -0.013431633 0.114584684 0.03880761 0.070558004 -0.02054997 0.027847094 0.010971722 -0.008863792 -0.012703706 0.043455493 0.012968464 -0.0058057723 0.015043192 -0.003645747 -0.010905707 0.0067557287
-0.018447906 -0.06407981 -0.06055985 -0.056972045 0.16128984 -0.0059379134 0.10212331 0.074213736 -0.020234512 -0.0055031995 -0.070934 0.024192708 -0.23329936 -0.046910677 -0.07370433 0.015974248 -0.08658025 -0.021556552 0.14526111 0.0004816893 0.113665745 0.047810197 -0.008546917 0.031153927 0.19572856 -0.04695846 0.086386286 0.04296557 -0.06464339 0.10594616 0.1413998 -0.1048723 0.00536362 -0.08260503 0.022588192 -0.0027867947 0.018598739 -0.017909048 0.020066302 0.036517404 0.04238946 0.011318134 0.0045021446 0.038729757 0.061657157 -0.04593705 -0.09870617 -0.019101031
-0.06323137 0.07843812 0.10896342 0.043240324 -0.01775723 0.0009835447 0.045651957 0.006764177 -0.07797985 0.017227571 0.027622001 -0.025506556 -0.49029088 0.19699448 -0.34651428 0.29334673 0.18273178 0.20779832 0.10159823 0.11952766 -0.13316514 -0.22357942 -0.11554133 0.23480745 -0.07357449 0.007642056 0.05033931 -0.24018998 0.17605145 0.010288208 0.033094075 0.08632295 -0.15502967 -0.0073053413 0.11092997 0.12528245 0.016990442 -0.009528718 0.021608671 -0.12950331 0.011962465 0.057815738 -0.0010417035 0.01767775 -0.0042029363 0.04051086 0.012694147 0.045118578
-0.0035375017 -0.06646827 0.26771683 -0.02196587 -0.13973446 -0.050129503 0.018900126 0.32693496 0.21143594 0.15928838 -0.060262535 0.59929246 -0.21632 -0.017027425 0.3243737 0.03919238 0.052885473 -0.079283245 -0.39059305 -0.19558014 -0.20653354 0.23548946 0.15067393 0.15234752 0.03692517 0.17478658 -0.09511972 -0.11422392 0.05118597 0.085321814 -0.053802047 -0.11817849 0.044840854 0.23519813 -0.13199182 0.054926705 -0.006561565 0.017894914 -0.004910384 0.025401488 0.008454758 -0.026350461 0.0045422446 0.022925427 -0.060775377 -0.108857594 -0.0696449 -0.044211604
0.088059835 0.19363435 -0.020377213 -0.034115486 -0.11076363 0.004460672 -0.054773845 0.14376688 0.023787485 -0.03808897 0.13756359 0.15394081 -0.3340393 -0.21716185 0.040912926 0.062484007 -0.021221343 -0.20070781 -0.14879376 0.11203877 -0.10275235 -0.07495711 -0.062054776 0.019550156 -0.029067572 -0.08101346 -0.042848166 -0.2357284 -0.11717757 -0.13071205 -0.03761291 0.14091639 0.049949717 0.073774055 0.007751489 0.05760098 -0.01890337 0.018767074 -0.023785148 -0.06082829 0.013749583 0.052265424 -0.005235201 0.006182986 -0.041093588 0.006562769 0.062340297 -0.009353821
0.24752288 -0.36674914 0.27920485 -0.0508545 0.086360686 -0.06999381 0.34115228 -0.23077327 -0.06195109 0.075071394 -0.13259408 0.20491092 -0.08527846 -0.40412623 -0.27338344 0.18563135 0.32571572 0.18984835 -0.10225187 -0.16140848 0.28065693 -0.15683179 0.0105576655 0.20663345 0.014073866 -0.11694581 -0.24952137 0.28303993 0.017150508 -0.06513341 -0.06525353 -0.03967381 0.22130066 0.07792561 -0.09703076 -0.0029210402 -0.014280318 -0.00062492146 0.029909482 -0.0013191663 0.028237307 -0.00544207 0.018199578 -0.0070017166 0.021089269 0.02424612 -0.0024043794 -0.00175609
-0.10324705 0.07453569 -0.009349486 -0.04812696 -0.014198781 -0.0849153 -0.0732829 0.021280708 0.18019094 0.056711607 0.14317046 0.21315311 -0.037596285 -0.0608628 0.061113596 -0.06810082 0.0876479 -0.079504766 -0.0028758761 -0.011607923 -0.08008445 0.059689093 -0.00046283766 -0.06341801 0.15951982 -0.11597423 -0.012631005 -0.096724525 -0.0047419346 -0.07682159 -0.5508486 -0.028439814 -0.021748401 -0.006393486 0.020951798 -0.067215994 0.054204516 -0.0006468228 -0.039828878 -0.070774145 0.030333482 0.017152132 -0.031150702 0.022309314 0.024262069 0.018756915 -0.014180272 0.008298322
-0.050439782 -0.24257307 0.1444005 0.3361424 0.018699395 0.011713907 -0.21464592 -0.5203221 0.05265323 0.14538017 0.10979884 -0.38461357 0.21007319 -0.023259867 0.03032604 0.25539082 0.11798574 -0.10088831 -0.20470978 -0.05579807 0.051660687 -0.23411098 -0.18812872 -0.0942988 -0.05518322 0.17570639 0.12930124 0.2755644 0.044474725 0.11648117 0.06756934 0.19840811 -0.08223516 -0.13187289 -0.1859219 0.12396167 0.0005366423 -0.010186028 0.019427277 0.020190647 -0.038652297 -0.061344177 0.015723605 -0.03519637 0.033250906 -0.08829578 -0.033129986 -0.015931198
-0.06620229 0.055502433 0.04995692 -0.11693869 -0.14895505 0.07972804 -0.2775409 0.068146445 -0.27394038 0.07077335 0.029418657 0.032409042 0.08965457 -0.06437631 -0.021846043 -0.043412827 -0.04365661 -0.05022032 -0.037471112 0.02824144 -0.20011546 -0.18515031 0.0498105 -0.053303175 -0.13135634 -0.026451262 -0.17826073 -0.10460545 -0.009674155 0.105792664 -0.45059076 0.03859699 0.052092567 0.032196578 0.06689929 0.08980867 0.036076874 -0.019005781 -0.040841084 -0.0019729906 0.011168215 -0.018771408 -0.028390823 -0.018847024 0.015824147 -0.059875652 -0.008522075 -0.0394899
-0.13401861 0.049696397 0.017752206 0.18913504 0.06268633 0.046133377 -0.22819528 0.21612991 -0.06480176 0.07019124 0.107862964 -0.23360805 0.008210939 -0.019403057 -0.21882746 -0.04177677 0.13118166 -0.04054158 0.041146882 -0.013446553 0.18927887 0.032050926 0.049240388 0.024029521 0.25977513 0.15815456 -0.012588754 -0.002358448 -0.0010809912 0.023080306 0.03831526 0.13008988 0.04659824 -0.07901025 -0.013760222 -0.063287154 0.015936365 -0.0075716227 0.04073233 0.044952143 0.046397727 -0.02244704 0.08359766 -0.03645789 0.04735818 -0.019358996 -0.079759724 0.0737441
0.1299035 -0.016133292 0.20069972 -0.044585153 -0.024280306 0.03618832 -0.028194461 -0.031800393 -0.18778032 -0.19743453 0.12726884 0.07247156 0.02128962 -0.23143469 -0.12190579 -0.22033001 -0.08306764 -0.23257616 0.3826819 0.06860509 -0.0008016856 -0.017170297 -0.1790331 0.037576385 0.054531474 0.065134905 0.0008835335 -0.09857546 0.011255041 -0.017178178 0.063712284 -0.22945036 -0.030615196 -0.087454475 0.026336439 -0.13016494 -0.027008764 -0.02464811 -0.0076646525 0.043770287 -0.019660896 -0.03349273 0.011414304 -0.046736643 0.020391712 -0.059296843 -0.001290943 -0.09708256
0.0950428 0.045118622 0.043649774 0.21523419 0.035289936 0.037006147 0.037348278 0.3485493 -0.25375453 -0.08606385 -0.0453699 0.24874082 0.03241137 -0.060198817 0.32897484 0.28658035 0.06903701 0.1150755 0.13486055 -0.05662948 -0.20822999 -0.19902553 -0.29729143 -0.07776801 -0.021986479 0.10514615 0.07668438 -0.045745153 -0.022521079 0.023150958 0.06914816 0.062409885 -0.0053802687 0.010027277 0.010394569 0.00033941233 -0.00501399 0.04057915 0.08789203 0.0017566968 0.027382247 0.09133351 0.004292723 0.037680082 -0.06468399 0.00483007 -0.038208473 0.0802513
-0.08578604 -0.16291322 0.15948695 0.3692483 -0.051900093 -0.014929644 0.114748396 -0.4514659 0.019296074 0.12848207 -0.0027044814 -0.17656 -0.1898719 -0.1734034 0.013374638 0.13783005 0.0018149528 -0.14837256 -0.10567 0.12515967 0.3575001 0.13475674 0.009577912 0.058737244 0.09269029 0.024264088 0.08112207 0.024635738 -0.016807728 0.05604926 -0.01327019 0.17965737 0.14366196 0.017684883 0.033288155 -0.06297629 0.0043566036 0.01992032 -0.0069952193 -0.026444752 0.02105152 -0.03112548 -0.008690559 0.019154446 -0.040198714 -0.036559086 -0.017925333 0.0057470175
-0.028645134 -0.15479903 0.22932786 0.008474642 0.07118934 -0.004126234 0.36625615 -0.23997939 -0.14639468 0.005548922 -0.035707604 0.02042888 -0.12565942 0.019813212 0.24120763 0.10275466 0.06364284 0.12511769 0.00881634 -0.08300728 -0.06203488 -0.023561498 -0.0907635 -0.09305706 0.04951111 0.0545016 -0.14300907 -0.09712278 0.021022823 0.08802766 -0.020220378 -0.05328773 -0.08793717 0.1827098 0.0153347645 0.043375954 0.03928615 -0.017709427 0.032110523 -0.0102409525 -0.002155114 0.04600188 2.143534e-05 -0.011747134 0.021176465 0.036541987 -0.032714155 -0.0022371367
0.03716641 -0.13286667 -0.116436034 0.05491961 0.04519697 -0.031048747 0.121707864 0.05347494 -0.12259458 0.15574427 0.06755116 -0.010369397 -0.1784959 -0.081657976 0.28272575 0.22657026 -0.24227145 0.2463529 -0.0995421 -0.16572283 -0.008585572 -0.009781907 0.0030230759 -0.14519538 -0.019681333 0.08597726 0.011457557 -0.012521126 -0.13648634 -0.10006805 -0.001226029 -0.19776848 -0.050437395 0.017251343 -0.038464826 -0.035611313 0.0103577515 0.014120426 0.015394226 -0.014854736 0.029923806 0.019451609 0.011133964 0.021753265 0.010373801 0.03965469 -0.022121064 0.044497926
-0.118803896 0.102397405 0.06848336 0.14022656 0.0056851218 -0.11826172 0.13082193 -0.030393267 -0.03259376 0.11421542 -0.013468861 0.19509721 0.006038339 -0.021399641 -0.03746203 -0.08958671 -0.14562309 0.008141587 -0.1909899 0.01770937 -0.0129178325 -0.08129792 -0.04742964 -0.07963786 0.01193834 -0.08704735 0.017204344 0.073563755 0.04412434 -0.079846635 -0.23881163 0.2831118 0.13309574 -0.01797962 -0.039864026 -0.03230924 -0.017386042 -0.028407987 0.026001979 0.052862294 0.010177364 -0.074974865 -0.056455884 -0.030990954 -0.04280838 0.036549345 0.010556423 -0.05862676
-0.0039588343 -0.07832753 -0.10999227 -0.01689225 0.026725529 0.0089023225 0.14916892 -0.12156853 0.16206303 0.017963422 -0.005654773 -0.07537466 0.08374367 0.05945382 0.06886645 -0.048213292 0.06045833 0.08716711 -0.08547697 0.115237705 -0.13460197 -0.08507276 -0.11368979 0.009266929 0.4147254 0.019751456 0.020733714 0.030789653 -0.015494381 0.20761174 0.77326137 0.1489812 -0.095163815 -0.11674265 -0.073506914 0.08924745 0.0059058922 0.0055217575 -0.01157557 -0.0064472985 -0.013886682 0.0024220191 0.050639663 0.012835805 -0.0017214788 -0.016925143 0.013218248 -0.019853434
-0.025856342 -0.08315352 -0.008656916 0.12496558 -0.33875728 -0.012018691 -0.06083169 -0.22803226 0.38093293 0.07915577 0.06096134 0.21016799 0.0037060464 0.053117376 0.047072332 -0.040542297 0.034772977 0.04149432 0.34015968 -0.102313936 0.06594434 0.18593983 -0.16584256 -0.13957325 0.03745366 0.05030656 -0.13615683 -0.038843397 0.04286146 -0.052952394 0.057877824 0.009743044 -0.09527035 -0.078712694 -0.13718513 0.15207337 -0.017779017 0.03276824 0.0058115255 0.020305779 -0.02582674 -0.028398458 -0.029987965 -0.041941207 -0.09979562 0.05696692 0.08843549 0.0068463874
-0.1749979 -0.06138427 0.07578738 -0.36322257 0.18516609 -0.03249188 0.03680725 0.40065977 0.24587521 0.29959232 0.10947204 -0.08802077 0.041505493 -0.0016405667 0.0267186 0.18895017 -0.005216814 0.07113206 0.07754647 0.018217253 -0.15364394 -0.14190675 -0.12661715 -0.061849345 -0.030360982 -0.24572685 0.18771914 0.13165346 -0.053096574 -0.034223784 -0.060378008 -0.23917735 0.06700495 0.06025408 0.104404174 -0.0024591824 0.015021577 -0.0012933215 0.01623737 0.067328714 -0.037257623 0.024955597 0.007114866 0.0153021375 0.027554095 0.043645557 0.04527851 0.013467147
-0.087429166 0.0060116053 0.041758817 0.10730757 0.051799722 -0.032294493 -0.2144496 0.23515125 -0.0288436 0.08389974 -0.08506028 0.24449709 -0.18643616 -0.059753116 0.007976927 0.07001975 0.045452155 -0.0016992207 -0.14576896 -0.060630843 -0.22880946 -0.116708815 0.00012943646 -0.057987273 -0.061343215 -0.046959706 0.030029394 0.12608887 0.0718603 -0.029948954 0.0008444057 0.055108503 -0.1216621 -0.10208193 -0.088723786 -0.08936777 -0.021760082 0.042315777 0.024521824 -0.036402546 0.0055306097 -0.046954688 -0.021678548 -0.028344959 -0.036732145 -0.009950404 0.054714296 0.05324266
0.03987989 -0.047737993 -0.049617205 -0.009034007 -0.062299937 -0.03705599 0.058572378 -0.08606917 -0.11560926 0.030723264 0.11333466 -0.043536134 0.25434226 -0.15685116 -0.00089428434 0.0028825754 -0.040035658 -0.059286937 0.03838028 -0.15054153 0.16306826 0.18931937 0.14596398 -0.2595998 -0.03353292 -0.073401324 0.03732241 0.04015276 -0.016206417 0.06311891 -0.025778778 0.18511513 -0.004373796 0.123846725 0.13580723 0.13979574 -0.009934343 -0.0037828295 -0.032812 -0.0008528238 -0.012366278 -0.030518705 0.022950482 0.0076245437 -0.006768814 0.02758734 0.02176878 0.036878027
-0.14119932 0.034472484 -0.018068494 0.11587102 0.14070064 0.028140195 -0.13242844 0.06072077 0.38850766 -0.0056485157 -0.035631467 -0.02586452 0.22210173 0.14599042 -0.049527228 -0.078043915 0.08384219 0.21921052 0.018024852 0.0756371 -0.10009479 0.017040746 -0.095991224 -0.06550918 -0.022029065 0.10733845 0.18750384 -0.072345 -0.06804141 0.038873482 0.049475618 -0.0897918 -0.07204711 0.096251145 -0.015791658 -0.09720476 0.01048656 0.018878622 -0.017612433 -0.051421955 -0.059041582 -0.08458422 -0.038290165 0.08431653 0.005269615 0.10824417 -0.04346712 0.014065093
0.1419417 -0.104145825 0.017491823 -0.18804346 -0.029868906 0.03476376 -0.2956114 -0.20939817 -0.37352493 -0.07749628 -0.01947898 -0.3617599 0.15123624 0.16958676 -0.21948336 -0.028972346 -0.009957347 0.036813587 0.098828085 -0.093819365 0.17346695 0.1434679 0.19939351 0.07084979 0.05408262 -0.18340884 -0.058817085 0.02167826 -0.13953644 -0.01736748 0.10203676 -0.11269263 -0.10462265 -0.01905703 -0.009181994 0.007960104 -0.027911477 -0.020215359 0.01720444 -0.03562358 0.03555246 -0.028289597 0.007370373 -0.002431855 0.028763223 0.050232988 0.078859545 0.007925748
-0.10143001 -0.017907303 -0.021053648 0.0076174666 0.078972645 -0.016190099 0.0072427564 0.085411794 -0.16644236 -0.15880805 0.06589578 -0.040411234 -0.08679317 0.09205929 0.09200075 0.12894706 0.08692404 -0.022081468 -0.021073164 -0.01349381 0.12948608 -0.038564272 0.17805025 -0.12842326 -0.027929159 0.1224917 -0.044279534 0.037216537 0.055270337 -0.0018899221 0.0027358427 -0.023387428 0.11757007 0.24384181 -0.29616445 0.06299664 0.033477016 -0.05820565 -0.022991795 0.021412315 -0.06052261 -0.056030706 -0.03904197 0.027950052 -0.008822208 0.06141841 0.10625731 -0.05072022
-0.1227062 0.11172585 -0.094195984 -0.107865326 0.049359463 -0.0041913805 0.31582415 -0.050629135 -0.45725378 0.064871475 0.015252405 -0.11024679 0.2118606 0.4104252 -0.3735256 -0.028388485 -0.072195075 0.022187712 -0.075899065 -0.2522449 0.43773934 0.45857713 -0.11083832 -0.10023725 -0.08662162 -0.037044276 -0.15366282 0.12554358 0.023429938 -0.04495297 0.065867856 -0.13509548 0.22929047 0.14541318 -0.046270795 -0.07324531 0.029177086 -0.0014574582 0.022180388 -0.0014857278 0.025471993 0.033204053 -0.03302151 -0.010424709 0.013524557 -0.018568924 0.0937032 -0.021573206
0.13322324 0.05114877 -0.049220517 0.039453816 -0.12600456 0.018740494 0.1294322 -0.08918997 0.56305695 -0.17496186 0.02607601 -0.19368261 0.37330964 0.08266296 0.23089544 -0.052020323 0.015669942 0.14705962 -0.07242108 0.059982013 0.37083924 0.043031912 0.0054609636 -0.009406986 0.087315306 -0.07493231 -0.07176165 -0.25331625 0.0452934 0.03203916 0.025651727 0.04867368 -0.09563095 -0.033487458 0.057324246 -0.05891285 -0.028146043 -0.004162577 -0.0070735468 -0.041164204 -0.049482707 -0.01650265 -0.064733446 0.0032993904 -0.02531852 -0.020737788 -0.020283705 -0.032950703
-0.07410338 0.00031081634 -0.041386828 -0.15783079 0.085427485 -0.024910128 0.01616293 -0.11063854 0.10692857 -0.31426206 -0.043014552 0.032585166 -0.07328824 0.15585718 0.2287494 0.24989057 0.072861254 0.16080408 0.03583832 0.12626325 0.20416917 0.25279284 -0.07687926 0.1335409 0.009070593 0.024359273 0.15050013 0.16185251 0.049802657 -0.08503751 0.09267357 -0.16909423 0.086778 0.11420219 -0.032062467 -0.018468164 0.011139959 0.04519155 0.0016669121 0.060445555 0.035747945 0.0129343625 0.016322736 -0.0006710189 0.010282819 0.033585593 -0.044085417 0.06656715
-0.07137433 -0.15311128 -0.20885189 -0.12044257 0.20615011 -0.041121405 -0.05500534 0.121958755 -0.31433257 -0.16444106 -0.11785407 -0.041287053 0.03816485 -0.055361655 0.12003366 0.1396075 0.11973319 -0.085285336 0.0041028922 -0.06567064 -0.32152098 -0.24165858 -0.15025204 -0.041959453 0.091982074 -0.09731257 0.13532814 0.017911674 -0.048748523 0.051384557 0.17567983 -0.09446928 0.25907263 0.24758764 0.0011891061 -0.074865505 -0.00017136926 -0.0055154995 0.0273948 -0.020218048 0.006802346 -0.02030065 0.007225104 -0.013883647 -0.04334593 0.033340745 0.0028332695 0.035836607
0.10537468 -0.02705 0.04076243 -0.09154042 0.06802173 -0.09441958 -0.18818933 -0.06382231 -0.023726702 -0.1314133 0.14007765 0.29792908 -0.16377354 -0.12088516 0.13995603 0.20838173 0.18231994 -0.17364118 -0.21000719 0.1491826 0.049827036 0.1893172 0.103666715 -0.00037126642 0.14373472 -0.15463135 -0.10316313 -0.09872939 -0.08831523 0.09320361 -0.028346634 -0.06285356 -0.04399666 0.027160497 0.058427285 -0.07161011 -0.06727449 -0.0074575515 -0.011146227 0.013707917 0.0622378 -0.06244741 0.0027320643 -0.0076684593 0.07147488 0.041545793 -0.013224317 0.06616038
-0.023885246 -0.07113316 -0.22870627 -0.05655176 0.054821637 -0.0047319178 -0.03193601 -0.39641836 0.049811766 0.13706428 0.027501935 0.11370843 0.1389015 -0.09303754 0.05166013 -0.13356109 0.0052768365 -0.085510895 -0.30866298 0.166833 -0.097369365 0.041738763 -0.0030368348 -0.24389115 -0.09594029 0.06824437 0.09468093 -0.034898974 0.011886445 -0.0062373304 0.029143546 -0.07571321 -0.13799848 -0.083194956 -0.11755992 0.041937992 0.046948466 -0.03013708 0.0036096452 -0.07418055 3.723086e-05 0.054359358 -0.03191759 -0.049297452 0.029720608 -0.033363894 -0.066302314 -0.05066812
-0.047037162 -0.21183817 -0.23616157 -0.02752252 0.021677066 -0.07547644 0.2788238 -0.21698567 -0.0951717 -0.1928471 0.0481281 0.27198416 -0.033851355 -0.068081774 -0.19507441 0.08284182 0.10439633 -0.1476077 -0.04473413 -0.061638888 0.23434114 -0.03534724 -0.25635758 -0.20727131 0.0074675484 -0.03716471 -0.32931113 0.12941244 0.12378554 -0.06303034 -0.033332646 -0.067670226 0.031655233 -0.08146331 -0.06407687 0.030214496 0.01159056 -0.011706943 0.010781648 -0.03027122 -0.062158667 0.012037733 -0.010769082 0.008789732 0.027315753 0.045093834 -0.018605094 -0.003282043
0.034087196 0.12650906 0.08031221 -0.07086003 -0.08450949 -0.015061347 -0.2769845 -0.21970677 -0.018987704 -0.06384256 0.07695646 -0.1767599 -0.016407268 0.0652372 -0.033922914 -0.055641804 -0.30001882 0.118096925 0.1803789 -0.08952964 0.1132504 0.1907238 -0.013800403 -0.19064574 0.079755045 -0.08969184 -0.04849594 -0.018004782 -0.025826091 -0.002834793 0.132889 0.016886258 0.1264845 0.12279573 0.08878747 0.04002561 -0.033287603 -0.029006954 -0.015354387 -0.12544289 0.03933522 0.030049665 -0.039575174 -0.056969926 -0.0006691376 0.039519887 0.03165609 0.020818755
0.1290487 -0.10054624 -0.0721699 0.2095892 0.32810634 -0.029124202 0.42520952 -0.20730469 0.42548394 -0.08074293 0.087054655 0.43348932 -0.23461354 -0.016085863 0.15179616 0.026925784 0.03491634 0.059374027 -0.3007289 0.15926117 -0.107726194 -0.23041351 0.028387075 0.04295544 -0.017195255 -0.08764211 -0.17074145 -0.02502739 0.011534357 -0.05076122 0.0917717 0.22123887 0.053968243 0.006871634 -0.07332444 0.071077846 -0.01739682 0.0142692 0.04755994 0.057188235 0.0041371337 -0.0030444714 -0.031131042 0.03272604 0.04275283 0.08478105 0.0920167 0.013841034
0.50824517 -0.11115893 0.08549316 -0.027019514 -0.04497386 -0.054804474 0.19181071 -0.008476552 -0.08623594 -0.2037882 0.051850613 0.26168567 -0.08426512 0.057713386 -0.05104797 -0.1556744 -0.1565492 0.13402061 -0.1187076 0.05745222 0.131268 0.2869622 -0.11960355 0.025785953 -0.09367845 0.040864673 -0.09487069 -0.03658882 0.0718283 0.05965027 -0.046474997 0.07207385 0.08637444 -0.01925757 -0.07808019 -0.002451603 0.035113472 -0.021199116 0.0077134524 -0.00097379764 -0.031082861 -0.04797181 0.022727763 -0.033645473 0.04757431 0.0703004 0.09012052 -0.055647474
-0.16142471 -0.17522536 0.0015246352 0.060654316 -0.016463947 0.013522152 -0.07265075 -0.3786572 0.3779835 0.21405242 -0.0480356 0.34221995 -0.14063242 -0.071440406 -0.18206058 -0.18218999 -0.27086496 -0.19146273 0.09874147 0.0065936213 0.09150534 -0.007559538 0.19264099 -0.11423552 0.112241395 -0.08653338 -0.0013393522 0.006289191 -0.10973831 -0.031385005 0.07452502 -0.049597166 0.004876727 -0.03550564 0.048345078 0.059818618 -0.05609938 0.03281035 0.014379952 -0.0023523592 -0.010482544 0.0057170745 0.002898947 0.054851267 -0.008655169 -0.083152115 0.10710513 -0.018414248
0.64425 0.058214583 -0.06257231 0.08940066 0.11413741 0.017232627 0.33283752 0.17946994 -0.020938842 -0.3604151 0.13048746 0.08910039 0.0030858745 0.08382762 0.19139816 -0.021923851 0.075641535 0.19400549 0.027701747 -0.044671103 0.0025081711 0.16203155 0.018982774 -0.048511147 0.013665612 0.03227433 -0.17814897 -0.12035964 0.06250502 -0.022744764 -0.011173433 0.14079024 -0.07997123 -0.02885893 0.010022114 0.04933738 -0.0025616868 -0.008182129 0.02248043 0.046572033 0.01641202 0.006309105 -0.00026573063 -0.03724288 0.0068944613 -0.000636143 -0.086325705 -0.037896063
-0.06279623 0.08393368 0.06718309 0.04716224 -0.19799767 0.040146936 -0.092250556 0.6787991 0.06229014 0.025254644 -0.038102563 0.31738946 0.005252394 -0.2299204 0.101716876 -0.07829311 0.10458748 -0.040077623 -0.20972794 -0.28898653 0.21016173 0.34791633 0.020732671 0.0072742393 0.052325085 0.11059468 -0.15905704 0.02788545 -0.11833527 -0.04442037 -0.026071047 0.0078042545 0.03548703 0.007878343 -0.06958082 0.0826522 -0.016148215 -0.022972638 0.00733855 0.021110674 0.048690118 0.03635867 0.0013349202 0.0016467605 -0.025691463 -0.026915224 -0.039556015 -0.000964778
0.70690817 -0.13105175 -0.0391714 -0.27380264 -0.11837679 -0.012460715 0.23302975 -0.25164944 0.027416566 -0.5892187 0.11222257 -0.12582715 0.14129484 0.14052294 -0.047446802 0.1089226 0.074609056 0.009174564 -0.098202005 0.13488814 -0.03384257 0.046940107 -0.032888666 -0.009948967 -0.052553978 -0.15281819 -0.20294525 -0.14295453 -0.016033737 -0.018333808 -0.014053745 -0.14529924 -0.18011525 -0.09625774 -0.032755446 -0.0029683742 0.0047217505 0.0037162642 -0.0014674327 0.029478276 -0.025249008 -0.022005597 -0.016341422 0.010643656 0.0002004777 -0.017223584 -0.048384164 0.016932871
0.1618513 -0.0162116 -0.049215164 0.03764386 -0.049875915 0.03255701 -0.059341297 0.032071125 0.053164963 0.10874972 0.10443716 -0.019092044 -0.23567285 0.011348723 -0.0292104 0.15218905 -0.003375474 -0.17156741 0.22611663 0.04196162 0.023104042 0.12791605 0.07399709 0.061855055 0.007849435 -0.06069807 0.095558345 0.12534587 -0.028546536 0.007682971 0.08759388 0.14194255 -0.09656721 -0.023342105 -0.06323979 -0.024178365 0.034758445 -0.0012356167 0.012731202 0.0691772 0.03685352 0.104904994 -0.04599695 0.060696896 -0.05193225 0.028773688 0.017013503 0.040613722
0.026100155 0.03354101 -0.015574776 -0.192208 0.0151005415 0.03896171 -0.010744455 -0.116556585 0.099512674 -0.030765582 -0.061735693 -0.46282083 0.1750831 0.00529648 -0.09961725 -0.022739101 -0.042693824 -0.09260089 0.143482 -0.1339032 -0.08580089 0.062334925 0.15787469 0.011978832 -0.06138734 -0.11469021 0.039929383 0.11378419 0.0602118 0.038398344 -0.14854151 -0.04087209 -0.051258307 0.13777512 -0.014902259 0.022520198 -0.0046675764 0.0050659897 -0.0010000791 0.010717622 0.0374272 -0.0098677 0.01427655 0.02429454 -0.04952474 -0.0006341593 -0.07014582 -0.012503582
0.170769 -0.20047808 -0.058760058 0.36016983 -0.07888894 -0.019346884 -0.041730627 -0.31507376 0.07291756 0.069588035 -0.087946914 0.20901313 -0.29998568 -0.031622414 -0.05941434 0.25409845 -0.02754233 -0.067128986 0.23437712 0.24726333 0.23599271 0.062243886 -0.06540941 0.24364495 -0.008362289 0.078851074 -0.1115772 0.13661624 0.012560645 0.028376143 0.027739964 0.2140676 0.043002862 -0.008811924 0.04565293 0.010634666 0.0053677293 0.026062451 -0.035500392 0.027182117 -0.070587546 -0.007728597 0.0047025695 -0.020834427 0.009217485 -0.06469321 0.031706624 -0.0536483
-0.0770645 -0.020819228 0.034759104 0.05505504 -0.15472889 0.0072513884 0.07935447 0.11276179 0.4258977 -0.04292761 0.025908023 0.16144934 -0.07632678 0.0163362 -0.09919562 -0.12055592 -0.20242159 -0.012153215 -0.017195309 0.06592938 0.009095566 0.02648902 -0.025623372 0.12863603 -0.13949087 -0.047070462 -0.021186516 -0.005093944 -0.08239967 -0.12363089 0.012947248 0.031007223 0.1085995 0.04544467 -0.048606962 0.08312441 -0.02331798 0.006459893 -0.06210721 -0.055844504 -0.02880042 -0.048928104 -0.00073876313 -0.002340682 -0.048178196 -0.120271094 0.0036158615 0.06732744
0.022149635 -0.075184315 0.026799867 -0.12997366 0.1498476 -0.059024915 -0.0019675305 -0.1654883 -0.3009992 0.021916717 -0.094489135 0.034107618 0.053148612 0.06638662 0.14188595 -0.2778636 -0.036734246 0.01326445 -0.048950892 -0.06329376 -0.07937699 -0.108713225 0.0023711554 0.018359212 -0.02044293 -0.19413373 -0.015518278 0.0071132155 0.079364605 -0.0013166412 -0.014960337 -0.05491889 0.2746854 0.0063947667 0.004307775 -0.0056512468 0.021612298 -0.015789492 -0.0005460679 -0.0029744941 0.039405223 -0.024783073 -0.033118166 0.0051029427 0.091219105 -0.048479263 -0.055213157 0.06971694
-0.1641322 0.078000024 -0.014215737 0.19963665 0.14545587 0.17430125 0.028051345 0.21019644 -0.05094306 0.093197554 0.0803819 -0.050777826 -0.105579466 -0.15082511 0.033012398 0.09657503 -0.015299162 0.05509438 -0.07902254 -0.0045127072 -0.178831 0.008223913 -0.066217996 -0.14134148 -0.34815523 0.18735118 0.022408506 0.08021654 -0.025084201 0.004708359 -0.120385714 0.17332314 0.047357723 -0.109878674 -0.023407487 -0.06752574 -0.14584698 -0.06083208 0.011087226 0.016567547 0.044763204 0.043466248 0.021818511 0.019176014 0.016810587 -0.040967874 -0.056124132 0.0013645686
-0.049296804 0.075081035 -0.014807025 0.053026024 0.10347531 -0.094161734 0.0749048 0.03831279 0.4405594 0.11261885 -0.03727559 -0.13610587 0.1702493 -0.04277698 0.19335969 0.057962902 0.18151447 -0.054456312 -0.06406866 0.056687728 -0.08799962 -0.08362504 -0.097370535 -0.05888578 -0.117766954 0.028028984 0.041655704 -0.048672803 -0.0014065836 -0.0016502149 0.012958251 0.04840725 0.02757185 -0.027767524 0.09749495 0.08660107 0.010616227 0.032479472 -0.006378536 0.01981362 -0.031000871 -0.10615614 -0.010746225 0.0059928023 0.049225032 -0.008724416 0.08830538 0.0746635
0.028473245 0.04240629 -0.013536855 -0.014062705 0.003323424 0.10810141 0.1489171 -0.19079173 0.13157743 0.15627678 -0.1092727 -0.2760554 -0.19384474 -0.058424328 0.15187699 0.021868668 0.054503884 0.066938184 0.032240674 -0.106315106 0.12765808 -0.069056906 -0.027186764 -0.15857294 0.049256284 0.028568048 0.058738228 0.022224158 0.025211513 -0.06852732 -0.025287973 0.015344549 -0.03763344 -0.054469958 0.0013483117 0.14256951 -0.031025864 -0.027604464 0.037266944 0.030564405 0.016673123 -0.009149251 0.05810185 -0.042179745 -0.014400691 -0.0018902462 -0.0123842405 -0.05215387
0.02965548 0.018639294 0.06645888 0.026732663 -0.0073484075 0.087354936 0.08796844 -0.051479332 0.052961383 0.16060719 -0.08512273 0.22655262 0.093288824 -0.10015207 0.10350929 0.17414774 0.05113045 -0.23403205 -0.022250568 -0.106782645 -0.006600997 0.008630178 0.019317552 0.15644394 0.011144859 -0.0825437 0.107411295 0.13359968 0.043034706 -0.066534095 0.0018245118 0.1418783 0.016540626 0.058607597 -0.09685549 0.08036536 -0.004900896 0.01596353 -0.029164404 0.03920119 -0.017943919 -0.016682947 0.047227085 0.0273524 0.003507784 0.07895232 -0.10293039 0.0365263
-0.0634384 -0.05570368 -0.002647744 0.024027148 0.0047841705 0.017687935 0.13883193 -0.051375665 -0.24100925 -0.044465806 0.047900837 0.042217582 0.2874028 0.12037775 -0.034848835 -0.056479145 -0.085597165 0.037330408 0.27677092 -0.17430097 0.16251951 -0.037967004 -0.031012518 0.082701236 -0.086564794 -0.10819574 0.2100806 0.25344014 -0.052451525 -0.046379548 -0.17628786 -0.2322622 -0.12415689 -0.037367743 -0.014411805 -0.049017303 0.0013141609 0.006300136 0.019039905 0.042624116 -0.029864553 0.040420935 -0.0077273645 0.034475468 -0.02087479 -0.007085843 -0.02626547 0.004698726
0.13603473 0.17844827 -0.22925046 -0.037935328 -0.028427176 0.004486808 0.100639224 0.15613401 0.12314623 0.13461761 0.018025918 -0.121456325 -0.1377811 0.056583796 -0.0708323 0.00957487 0.02553063 -0.17878878 0.15294456 0.04633319 0.043314725 0.09364637 0.0081900535 0.23463452 -4.1659416e-05 0.066178165 0.018241419 -0.16274668 -0.13288866 0.04477645 -0.018394768 -0.08740602 -0.13596499 0.029114792 0.09918766 0.042841554 -0.023571368 0.02375186 -0.012211137 -0.012507338 -0.01785265 -0.0048516486 -0.022745179 -0.0138495425 -0.0065902723 -0.00013453262 0.048708078 -0.0003787357
0.049695734 0.010527039 -0.07498667 0.07204978 0.072226256 -0.011613915 -0.0054013627 -0.30522296 0.20395568 -0.069691665 -0.12288618 0.09517951 0.11009803 -0.17744374 -0.0054799872 0.18334803 -0.03771628 -0.43028107 -0.11909869 -0.028878683 0.063467704 0.093748614 -0.17017372 -0.0005656622 -0.090501204 -0.029160371 -0.038116373 0.3531099 -0.01091004 0.030081097 -0.004713232 -0.17830324 0.12594225 -0.18955176 0.074994825 -0.011918573 0.012099671 -0.0034461843 -0.018717587 0.08556642 -0.036369953 0.015410698 0.024381468 0.024077334 -0.020229895 -0.016957963 -0.020463042 0.027337907
-0.0005226739 0.030786041 -0.05005821 -0.08618822 -0.028992044 -0.019232491 -0.0748609 0.21323574 -0.38757235 -0.011440589 -0.01533959 -0.14457087 -0.048408687 0.0052021034 0.0660437 0.16913621 0.15124926 -0.080782175 0.023994232 -0.103686675 0.10356951 0.008949823 0.06422385 -0.08267934 -0.10179406 -0.04515503 0.0065889875 0.046513353 -0.06462136 0.016438432 0.027177704 -0.029242124 -0.11328061 -0.10998005 0.07439856 0.024773473 -0.021610666 -0.006687303 0.045144547 0.11568864 0.017844342 -0.08201905 -0.037925195 -0.06154477 -0.006003325 -0.033051047 -0.043729324 -0.09126642
-0.15637602 0.042097077 -0.123202324 0.18117839 0.021215828 -0.02127974 0.059522226 -0.07892896 0.010430267 -0.025029292 -0.09672282 -0.25966722 0.12433577 0.030140279 0.14469913 0.107059024 -0.030799894 -0.04891724 0.064151935 0.115084484 -0.20976454 0.11297191 -0.037427723 0.078879885 -0.027803432 -0.086886 0.10771206 -0.057891857 -0.002706982 -0.028582843 -0.0055533824 0.03684204 -0.11756822 -0.0061880965 0.039938353 0.09789244 0.0053887977 -0.0001150149 0.016886082 -0.032067977 0.021894863 0.039973352 -0.018490594 0.0035097015 0.009826386 0.035027385 -0.044600915 0.00061268033
-0.31449676 0.16341192 0.1308106 -0.05588625 -0.07963633 0.04656523 -0.050767384 0.22098692 0.35580075 0.17999123 -0.025128024 -0.1832976 -0.2339217 0.23064712 0.13960297 0.1775234 0.13531895 -0.045746572 0.13624102 -0.2925211 0.21710338 0.00081272726 0.07631584 -0.37829342 0.0025136562 0.13857785 -0.048575997 0.12524018 -0.058147583 -0.085796796 0.070444636 -0.10452859 0.23806489 0.022401055 0.025403393 -0.032846615 0.037825458 -0.045934383 -0.013291222 0.10381422 0.008161563 -0.040074162 -0.014642849 -0.057262067 -0.008807437 -0.06147238 0.052973922 -0.08471277
0.031450626 -0.10938711 0.02026592 -0.055993907 0.039321296 -0.001250312 -0.04745448 0.3389121 0.0794331 0.056602523 -0.07002404 -0.13778625 0.26648122 -0.14416517 0.19155003 -0.13825764 -0.05009713 0.10025957 -0.049245767 -0.12855324 -0.14019047 0.03073304 0.062361497 -0.0038718577 0.09464926 -0.17256653 -0.07203034 0.028015643 -0.1378072 0.019251445 -0.02248696 -0.0065418747 0.11877056 0.018745447 -0.07265247 -0.0011037535 -0.015572263 -0.0069078947 0.02999831 0.1250227 -0.016972193 0.03886888 -0.0044010263 -0.029002821 -0.007270854 -0.055985473 -0.04611908 -0.031680368
-0.11397413 0.10673847 0.011851054 0.1548999 -0.10081744 0.0070718597 -0.033867214 0.0540607 -0.3832197 0.1374948 0.100371085 -0.09023978 0.007510558 -0.01304716 -0.14469899 -0.08132857 -0.15823185 -0.016938634 -0.07656918 0.09728735 0.031666752 -0.023772735 0.0037269641 -0.008104868 0.3371666 0.026725797 -0.10255859 0.05815504 0.013746113 -0.03747842 -0.11918138 0.1392718 -0.04752037 -0.15248543 -0.13735163 0.027764201 -0.005196136 -0.0548404 0.02517908 0.07723141 0.04028341 0.060394682 0.022642992 -0.04514876 -0.023125427 -0.011860102 0.009143317 0.03153633
0.082384735 0.05199455 0.042566128 -0.12964267 -0.03925216 -0.20193468 0.0029637422 0.20303094 -0.29435968 -0.07722335 -0.04488473 0.048880465 0.055366136 -0.13839307 0.07677483 0.040925365 -0.031743653 -0.054507375 -0.026358636 0.02107972 0.022541756 -0.013379929 -0.0038362453 -0.042006183 0.47828466 -0.1546028 -0.043537553 0.0031216047 -0.02200693 0.0090125855 0.40695286 0.02381413 0.008555241 -0.04020669 0.06722881 0.007647503 0.115346886 0.0128294155 -0.018749654 -0.015218805 0.004991197 0.019120336 0.068182245 -0.021358572 -0.013687305 -0.0049412083 0.009778995 0.04010401
0.18335937 -0.11213244 0.32079676 0.3226759 -0.17880376 0.017109029 -0.13194758 -0.21653259 -0.21313713 -0.063529424 0.014664188 -0.08886064 0.119508766 0.17278305 0.07251609 0.24781886 0.092890896 0.08456128 -0.090238 -0.15292631 0.4157875 0.0030480677 -0.13917369 -0.014270122 -5.3672527e-05 0.19165063 -0.1334112 0.27196467 0.01161364 -0.016569547 0.070035055 0.09217861 -0.18460484 -0.1541046 -0.10186239 -0.024750933 -0.02122298 0.02926454 -0.037809134 -0.03691481 0.032773703 0.031711113 0.019482097 -0.0028267277 0.023047175 0.026029672 -0.08264689 0.0128656505
0.07788282 -0.16594476 0.10751248 0.08424089 -0.06919038 -0.006418866 0.04494867 0.10221118 0.040493134 -0.06907961 0.02981208 0.10402383 -0.113891974 -0.06797265 0.09236331 0.01834963 -0.004904759 -0.24089071 0.27159747 0.0011183877 0.0830425 -0.020297356 -0.07576651 0.12905787 -0.017074406 -0.09434379 0.048857808 0.1093165 0.037969247 0.021953572 -0.021708658 0.05597869 -0.057825737 -0.094752274 0.083917 -0.10618699 -0.048983388 0.018194439 -0.0044442033 -0.09223426 -0.06672106 0.009974912 0.038507838 0.048736688 -0.016369162 -0.020691216 -0.049517855 -0.010213407
-0.038299177 0.21843526 0.014304142 -0.025141727 0.068808794 0.03611896 -0.3598624 0.436927 0.2871784 -0.46035123 -0.031693116 0.18686284 0.048224434 0.025119552 -0.46367097 -0.27014053 -0.20658396 0.035530888 -0.052766517 0.03858121 0.15883166 -0.19825245 -0.27197614 0.12547942 0.08646708 0.016930522 0.12110323 0.13946828 -0.15264682 -0.07184972 -0.024967784 -0.019953817 0.1773701 -0.012882519 0.0062136394 -0.07310766 -5.1821422e-05 0.0068838554 0.041367266 0.010797539 0.05298673 -0.0058048978 0.0019859115 0.013520914 -0.043967623 -0.05761248 -0.07748803 0.03158139
0.09158672 -0.012571833 -0.010680369 -0.029495867 0.056799397 0.032737784 -0.19847733 -0.1599782 -0.5924487 -0.05928953 -0.073270865 -0.12592353 0.18151614 0.16421299 -0.017630948 -0.07375697 -0.13709837 0.15329744 -0.23019952 -0.1959534 0.058347832 -0.061851386 -0.0045643193 -0.09424045 0.23272043 -0.049906485 0.05652803 0.04786589 0.102964014 -0.104877554 0.005974277 0.09171653 -0.03337582 -0.009088863 -0.0063947504 0.03942118 0.041346714 0.04035722 -0.0064150323 -0.021540277 0.04858933 0.06322195 -0.04611674 0.008547319 -0.03488031 0.07564714 0.04667484 0.015435138
0.07127241 0.2588454 0.06452716 -0.06125205 -0.12576993 0.03089383 0.2962674 -0.24744938 -0.22515026 0.032117303 0.036864117 0.09092114 0.036704574 -0.15986058 0.09631649 0.13243872 0.25352228 -0.16741517 0.21569714 0.0855583 0.1874366 0.10727623 0.27165473 0.042814955 0.025785454 -0.0768 0.08359324 0.057017993 0.12079544 -0.116709456 -0.01010884 -0.04958525 -0.1293037 0.06662918 -0.026136864 -0.16904643 0.00077886257 -0.020442436 -0.08802485 -0.027320266 -0.016330732 0.0126298 0.026253551 -0.042528316 0.0070300945 0.031966798 -0.02192891 -0.006674317
-0.087879784 -0.16121385 0.1640975 0.12783806 -0.15493122 -0.03852538 -0.32801178 -0.2107017 -0.21376792 -0.037666056 -0.12100983 -0.17289816 0.023665298 -0.057329338 -0.05834549 -0.18815789 -0.106774256 0.056376677 0.002624882 -0.1261684 -0.08056004 -0.30468878 -0.048526052 -0.13238634 0.046004504 0.03279037 0.03052362 -0.031299815 0.008627974 -0.07653304 0.10178047 -0.07773078 -0.22285238 0.17476092 -0.009491072 -0.039569426 -0.021348089 0.02379142 0.0061991313 0.016107026 -0.050471622 0.019504346 -0.023259753 0.018989922 -0.016173098 -0.030734884 0.023041427 0.012440101
0.105002426 -0.13279803 -0.032908164 -0.109789036 0.08761874 0.019344691 -0.08674571 -0.38077474 0.09412505 0.0856758 -0.08748075 0.43156752 -0.14318177 0.094181105 0.05288988 0.073061526 -0.007649133 0.008840728 -0.19719939 -0.1264658 0.22045697 0.40625632 0.034071945 -0.17150694 0.07721825 -0.09755243 0.31362924 0.24940178 -0.023333004 0.10757962 -0.004230838 -0.059692893 0.12264414 0.10881206 -0.16964677 -0.031943433 -0.0057848496 -0.03681278 -0.0101451995 -0.046907812 0.00042355183 -0.06362716 0.0067556263 -0.0020475814 -0.03471476 0.065932736 0.044434644 0.022098247
0.08508445 -0.008841752 0.003393835 0.015442373 0.08430197 -0.03118696 -0.054369155 -0.013360146 -0.00066297414 0.19490378 0.10576902 0.03222129 0.2852838 0.14165084 0.034265622 0.13069244 0.1692002 0.11940062 0.14381683 0.063975506 0.030771984 0.069535956 -0.2003605 -0.12566593 -0.045636494 0.096184924 0.018718243 0.009003356 -0.024518274 0.17677991 -0.038711574 0.06720655 0.053786878 0.04039522 -0.013673942 -0.010447384 0.014926589 -0.0063034603 0.024628485 0.02756942 0.018813167 -0.01890228 -7.280806e-05 0.009788352 0.028144969 -0.006884711 -0.013546835 0.006297177
-0.10928558 -0.021934468 -0.035348468 -0.10028535 0.10684227 0.0649692 0.10480687 0.068044 -0.20426375 -0.07372829 0.08196893 0.025605628 0.053921 0.16448386 -0.28308064 -0.3356751 -0.15005024 0.02225105 0.206153 0.12857725 0.37212715 0.41877773 0.032151453 0.014063824 -0.0442694 0.18311694 0.13737418 -0.16263385 -0.154751 0.02381075 0.1421609 -0.17727628 0.09586494 0.123334534 0.11706383 0.12723196 0.050879188 -0.0014847869 0.008162231 0.021842001 -0.027106728 -0.06712115 -0.004416512 0.0059592864 -0.028797748 -0.009066789 -0.010298451 0.02201941
0.047979087 -0.093864195 0.11996634 -0.18085101 0.3845401 -0.047343943 0.3532241 0.1592715 -0.047054533 0.13747989 0.08705029 -0.24283779 0.4524264 -0.07400865 -0.23151577 -0.24069646 -0.055619106 -0.093332835 0.07405381 0.0030738646 0.18344057 0.16705596 0.28571925 -0.07475853 -0.025443876 -0.14702378 0.08825276 0.004592263 0.018488357 -0.08565779 -0.0067177396 -0.08229564 0.011500141 0.156283 0.08982819 -0.0685612 0.014798424 0.040497743 0.022124585 -0.076094836 0.004515189 0.013495174 0.027914144 0.048721477 0.060772475 -0.031147148 0.061376933 0.033179242
-0.033796895 -0.18102632 0.20694998 -0.27547136 -0.022530027 -0.046677474 0.11781235 0.10212392 -0.19663952 -0.07831081 0.11425744 0.07885308 0.008085781 0.2070944 -0.011620311 0.11568558 0.33488512 -0.03351402 0.04618788 -0.14843637 0.12719126 -0.024539437 -0.105069436 0.09360321 -0.07057062 -0.2541626 0.065380044 0.2317808 0.1517311 -0.037651286 0.121290915 -0.18930124 -0.044110544 -0.08214396 0.01919595 -0.028410072 -0.01829257 0.04594258 -0.031797882 0.04690771 -0.023580674 0.025459977 0.0016863439 -0.033048507 -0.009240675 -0.11491033 0.035760686 0.029328642
0.052657243 -0.13569874 -0.0044496795 0.08008165 0.14236589 -0.08133018 0.031282663 0.11345223 0.30382663 -0.085607134 0.054378506 0.2444089 -0.38320592 -0.2877432 -0.076351054 -0.26511008 -0.2453625 0.11819728 0.086573236 0.40138236 0.223316 0.23610727 -0.021546874 0.19815697 0.015312588 -0.049249243 -0.039503425 0.049318768 -0.09290906 0.081624836 -0.10335647 0.06345772 0.18792258 0.11100861 0.097967006 0.0335537 0.00044990712 -0.017497765 0.036431547 0.003196419 -0.08661262 -0.042146802 0.026489895 0.013133243 0.030604279 0.04291685 0.037644006 0.013651984
-0.12124768 0.0034465701 0.069235496 0.022256313 0.047887996 -0.033932544 0.092602916 0.05271338 -0.15734094 0.009454265 -0.103742555 -0.002393257 -0.18195932 -0.025050372 -0.10216635 -0.2846243 0.24881758 -0.27060768 -0.12300649 0.11178699 0.17727317 0.08583975 -0.0686337 0.216025 -0.13232349 -0.07315472 0.1363845 -0.15583025 0.05094877 -0.16665573 -0.08894408 -0.12174093 -0.13922916 0.031835657 0.07583045 -0.19157776 0.007850298 0.041831117 0.008192264 0.033859257 -0.055006646 -0.003299197 0.019195711 0.031965427 -0.029337691 -0.0017438299 -0.0040154755 0.077019595
0.060039613 0.09600516 0.12862661 -0.26749736 0.08103964 0.0560063 0.20981172 0.10297221 0.42017657 0.26089507 0.023139173 -0.1768474 0.34361687 -0.18633083 0.13665771 -0.033825587 -0.09422443 -0.011455985 -0.0069831065 0.063582055 -0.1273862 -0.25968012 -0.18638347 -0.09750398 0.18128043 -0.107396975 0.11782564 0.037233017 0.06604645 -0.028732784 0.02223877 -0.2082926 0.037917975 0.05339168 0.13272004 0.023559557 -0.04076352 0.010495083 0.021256622 -0.044062898 0.0046657557 -0.011891827 -0.024357492 0.003825341 0.026105355 -0.03976402 -0.009313856 0.010897674
0.006513463 0.2605391 -0.3466867 0.028425766 -0.07523934 0.059055816 0.15668797 0.38243455 0.14868332 0.07032476 0.083472855 -0.026362648 0.3575586 0.16719633 0.08571829 0.07584872 0.081089504 0.048281696 0.19487678 0.03562209 0.079088114 0.19050106 0.113038264 0.16133542 -0.07054154 0.019144457 -0.08159425 -0.13908218 -0.00089320284 0.013254004 0.047397986 0.15893708 0.045425087 0.031542264 0.012570191 0.1171609 0.041226745 -0.0012445288 0.013884958 -0.051715434 0.03352782 0.04585809 -0.033341024 0.005372069 -0.034253594 0.04353035 -0.014061784 -0.05549082
0.0328148 -0.010423872 -0.22012427 0.17650163 0.10832925 -0.008887714 -0.28040972 -0.15982778 0.66706306 0.36923918 -0.10772952 -0.014938243 0.38520277 0.22366372 0.19914173 -0.16083567 -0.1431894 -0.01768912 -0.104750596 -0.0863093 0.14091805 -0.024100605 -0.15122439 -0.070051536 -0.012910741 0.022791257 0.2200965 -0.21885751 0.13694696 -0.034463264 -0.02295898 0.102561675 0.059295047 -0.028104043 0.20583397 0.09607863 0.0024320423 0.0245371 -0.018773843 -0.0009963333 -0.024480328 0.006115209 -0.0027651966 0.05420234 -0.0059666275 -0.06555541 0.09000463 -0.034152094
0.03896329 -0.039269146 -0.055219114 0.064518355 -0.110066816 -0.09435805 0.20883738 0.12667288 -0.08412835 0.063807085 0.06647234 0.04456392 -0.21378599 -0.013189491 0.20738196 -0.13169985 -0.03653792 0.105837025 -0.08326245 -0.029281108 -0.11734392 0.031184133 0.031043502 0.12521753 -0.05935135 -0.05588796 -0.018826107 0.047188 -0.10598812 -0.049475685 -0.01083384 0.028716 0.047399182 0.1502758 0.0034491732 0.04879676 0.0378863 0.040647283 -0.07554694 -0.028679034 -0.028670272 0.049825504 -0.08036481 0.013393536 0.080355704 0.05921119 0.0066810343 -0.07507536
0.18868347 0.009885484 -0.08858703 -0.020885888 0.12486274 0.02746548 0.2412419 -0.12861267 0.24414279 -0.033516444 -0.116692424 -0.37778863 -0.109048024 0.20052499 0.02804469 -0.023307957 -0.10213897 0.075208165 0.12438144 -0.21261266 0.10592462 -0.17927742 -0.008777015 -0.11651578 -0.022621904 -0.041665707 -0.0027183702 0.012333032 -0.02879967 0.08097243 -0.0008319434 0.05791221 -0.09084917 0.02530515 0.07492469 0.053139184 0.01618035 -0.023082025 -0.008803177 0.025348797 0.016391171 -0.027073365 0.0067785233 -0.034927588 -0.024317238 0.041949783 0.012472264 -0.004771706
0.017048083 0.030218525 0.08073074 0.055587124 0.10343592 -0.0089294305 -0.10232213 -0.041987892 -0.1246402 -0.022041682 0.13712327 0.037454344 0.14279737 -0.2173237 0.039460205 0.047535162 -0.044505198 -0.02941726 0.26792353 -0.09698185 0.023772378 -0.012628305 0.058804713 -0.24626282 -0.08454919 -0.15772252 -0.0967323 -0.13914715 -0.10319386 -0.08891347 -0.012425506 -0.056390505 -0.0833597 0.06733037 0.059852052 0.016810311 0.00050494523 0.04847228 0.034120537 -0.06486101 -0.010519838 -0.0065202704 0.0036187486 0.049571503 0.034986306 0.056441102 -0.012738852 -0.028030941
-0.23205465 0.025739621 -0.11836971 0.00020048334 0.0076676477 0.03746183 0.20299086 -0.0312692 -0.08958433 0.19128855 -0.07887875 -0.034792252 0.07583083 -0.2054421 0.10818895 -0.0048099854 -0.15208729 -0.12507649 0.20049527 0.008215838 0.15998387 0.22305676 0.025870986 0.028783562 -0.058623873 0.054793302 0.20129377 -0.1901362 -0.0024723068 0.035848744 -0.17183605 0.08103559 -0.0015272368 0.13412313 -0.10494391 0.040201873 0.019916043 -0.03961137 -0.014499567 -0.09416051 -0.06501595 0.026524184 -0.010841124 -0.013066776 0.0015958004 0.053292863 0.009274444 -0.062200632
0.32250768 -0.11329463 0.060920846 0.059524912 -0.0011856904 -0.0481124 -0.00048755226 -0.057856843 0.057658304 -0.44719502 -0.10774968 0.046724297 -0.20793675 0.04653624 -0.13449094 -0.18850316 -0.008190878 0.03137725 -0.030216075 -0.13695262 -0.3278981 -0.16832899 -0.003940599 -0.27291077 0.00026584236 0.02158146 -0.19557832 -0.07764458 0.06655693 -0.0027774218 -0.057110973 -0.05128275 0.01596994 -0.0765107 0.008924275 0.0081585925 -0.0018419647 -0.025237234 0.037921164 0.0150956735 -0.009416128 -0.0008960289 -0.02805717 0.0037153282 -0.020536149 0.023526575 -0.04651721 0.011308031
0.20417184 -0.031839263 0.14267707 -0.11301582 -0.07744579 -0.009613082 -0.13646138 0.25590503 0.15316612 -0.3126737 -0.11765268 -0.17663504 0.20166655 -0.009714709 -0.043820232 -0.14509001 0.034910247 0.009746832 -0.0713116 -0.22525729 -0.0024871584 -0.058631063 -0.09900181 -0.2514122 -0.16679654 -0.0035470705 -0.09687939 -0.054910876 0.08110564 -0.010097473 0.19330095 -0.03219477 0.043594062 0.04514425 0.15265219 0.016034925 -0.031864822 -0.043059308 -0.00027678735 -0.058994837 0.053254116 -0.006089306 0.043247245 -0.003207416 0.025312357 -0.05462013 0.018907774 -0.035742447
-0.006594596 0.016671132 -0.073037855 -0.023842148 0.12611254 -0.0036691227 0.073097296 0.010279466 0.61317533 -0.120572425 0.07132708 0.1256047 -0.19214758 0.16431226 0.20851661 0.060894184 0.10615336 -0.025717178 0.08084491 -0.1449457 -0.1639697 -0.053945452 -0.06304395 -0.0013869336 -0.02949245 -0.017927542 -0.15855986 -0.08655323 0.070081204 -0.02207632 -0.11205918 -0.0099097155 0.023069508 -0.09288665 -0.103191674 0.0020528268 0.041796222 -0.01398318 0.004581088 -0.013259213 -0.021796102 -0.026742876 0.051889185 0.025247741 0.050917447 -0.0031143103 -0.02605769 0.0040200413
0.0097758 -0.007582573 0.07347243 -0.09482629 0.000572878 0.02957746 -0.2633364 -0.15046097 -0.27400273 -0.08335597 0.10952724 0.18336156 -0.08269682 0.11154095 -0.2655509 -0.12778918 0.029626604 0.08880415 -0.10992857 -0.029505908 -0.26063487 -0.33082062 -0.1247831 -0.023310285 0.23757789 0.0004492255 0.133463 -0.04407246 -0.0657286 -0.0060979896 0.175522 -0.09239683 -0.15390666 -0.15042776 -0.026131893 0.031358972 -0.0010244848 -0.05118183 0.037315927 0.057887543 0.02441906 -0.031506248 -0.029332142 0.0034793552 0.0067934645 0.0068108025 0.024945773 0.005696301
0.005409142 0.004711305 -0.044277027 0.07947431 0.012923454 0.025320519 -0.13780363 0.1866921 -0.058014996 0.14645974 0.035806008 -0.27511737 -0.28752017 0.0073500667 0.123167835 0.19316478 0.07577159 0.26955578 0.16350561 -0.1159649 -0.050478492 0.08929497 -0.006926229 -0.27553394 -0.003241926 -0.024585575 0.115617506 0.14401408 0.04685058 -0.033875216 -0.017162465 -0.10809042 0.05735158 0.04161577 -0.0030959186 -0.22632247 0.0091904225 0.042240143 -0.003487641 0.02194916 -0.012436701 -0.016322875 0.011407362 0.03725355 0.037025563 0.023112644 -0.006505232 0.0796002
0.052859094 -0.023169773 -0.023090348 -0.079643816 0.13185234 -0.008763197 0.4666092 0.24696606 -0.62928486 0.08107602 0.003858737 0.5183353 -0.42000863 0.07351875 0.33746383 0.4003056 0.1693355 0.068257704 -0.23700254 -0.07058113 -0.095661044 -0.21410978 0.0036843559 0.17204909 0.03048248 -0.08159084 0.22526132 0.023870142 -0.12982397 0.0056578135 0.042677663 -0.0677346 0.012850854 0.05033565 0.050700508 0.03312478 -0.029934479 0.024967538 -0.0075067007 0.04487326 0.010876739 0.0076761344 -0.022879478 0.012917662 0.054281462 0.04018789 0.113057144 0.0120853
-0.14630342 -0.005678632 0.051101677 -0.04163079 -0.04041639 -0.2537201 0.12861644 0.015119967 0.1125974 0.12765783 -0.036812343 -0.114952266 -0.09766398 -0.10187342 -0.0063214097 0.038905583 0.088169396 -0.023783656 0.06623385 0.10054772 -0.008623226 -0.069064185 0.013661888 -0.004935927 0.031283513 0.09540273 -0.006168756 0.060427435 0.028289303 0.10783826 0.36645538 -0.029836496 -0.021618899 -0.04672204 -0.014565704 -0.023950262 -0.066983305 -0.0391153 0.034189634 -0.054915376 0.037974287 0.017712057 0.034348197 0.0075172805 -0.04195289 -0.033774596 -0.023419324 -0.014013035
-0.055959113 -0.055443358 0.014000942 -0.27939546 -0.19079566 0.037721984 -0.023050515 -0.008638952 0.5438951 0.18002923 0.0043139146 -0.2437228 0.06570574 0.092492215 -0.049903274 -0.11446401 0.10330071 0.0109499395 -0.11666052 -0.13998885 -0.088196106 0.040936366 0.0975622 -0.03550792 0.034862295 -0.17797576 -0.21449727 -0.15284011 0.00068947155 -0.18316302 -0.11244026 -0.09955822 -0.117949426 -0.058014277 -0.021167312 0.09236952 -0.01389824 0.042174798 -0.028510494 -0.064287275 0.006771515 0.04044719 0.00339484 -0.04031138 -0.09957893 0.045513887 -0.068819396 -0.08501357
0.53504306 -0.006738222 0.06879726 -0.074251674 -0.013293455 0.004361287 0.34287962 0.19299869 -0.31409594 -0.5105279 -0.07275621 -0.10114223 0.028498968 -0.042980354 -0.027983828 0.06460391 0.0052303597 0.08039208 0.036965754 -0.1126943 -0.08012657 0.016694551 0.09511688 0.02219776 -0.012916813 0.0018899266 0.15955669 0.10255167 -0.07968215 0.0058488296 0.00038588617 -0.1080609 -0.087526664 0.014203996 0.017851064 0.017401356 -0.0015021417 -0.012118883 -0.032992076 0.004878263 0.025792979 0.012297518 -0.0072500496 -0.009053805 0.010296537 0.011024643 0.045267336 -0.0099579515
0.049473457 -0.075724356 0.15267818 -0.29184732 -0.034664948 0.04714807 -0.3280533 -0.020946585 -0.26488894 -0.178233 -0.015149459 0.016579207 -0.27088332 -0.048305515 0.266943 0.13107334 0.04314732 0.10795854 -0.053767283 0.05708097 -0.02563612 -0.2906788 -0.1416816 0.05955372 -0.124336556 -0.278106 -0.05351374 -0.109223925 -0.10742016 -0.043475926 -0.07041138 -0.18789789 0.122946866 0.13248478 0.085262164 -0.018135436 0.017997706 -0.0028179465 0.019942274 0.012841173 -0.036022857 -0.024967205 0.006532692 0.005272139 -0.015671246 -0.06976261 -0.0009072899 0.017499635
-0.074499175 -0.022553151 0.041697748 -0.07811008 -0.03193889 -0.060970657 0.09070758 0.0654352 -0.33856112 -0.18804657 -0.064892374 -0.065323964 0.09567508 0.037152287 -0.05986732 -0.13183632 -0.2930791 0.16924417 0.035472192 0.123738304 -0.022260355 0.033634387 0.010259829 0.049780633 -0.40811664 -0.14039154 -0.12562363 -0.05599152 -0.06293818 -0.02649188 0.2105046 0.17639105 0.10730719 0.060215678 -0.09956976 -0.018728904 -0.09426123 -0.019168451 -0.036866046 0.03960193 -0.010958687 -0.082859665 0.031737536 -0.023149155 0.015608717 0.045120977 0.00024054595 0.045163132
-0.0787297 -0.0070128078 0.17240132 -0.07744581 0.11584931 -0.06132759 -0.0623447 -0.10887642 -0.19680405 -0.020229882 0.017704658 0.06754838 0.2535041 0.09304509 0.17037162 0.22013721 0.08504162 -0.120904505 0.19645947 0.12496809 -0.15742873 -0.09996721 -0.06969549 0.15629886 -0.04374042 -0.098691784 0.019702232 -0.044429373 -0.013661476 0.111321196 -0.016290508 0.08931915 0.030215358 -0.02809165 -0.07564823 -0.08245183 -0.0095173875 -0.014908019 0.050230626 -0.042981017 -0.057666864 0.007797172 -0.026724106 0.008186146 -0.054356895 0.005492113 0.046456132 0.053984184
-0.15905726 0.005131843 -0.1342541 -0.20247786 -0.05009584 0.0073087183 -0.24191324 0.30810657 0.21762712 -0.14402804 -0.076009095 -0.006659443 -0.07235723 -0.044443313 -0.2663659 0.11316584 0.15132622 0.037891414 -0.07178419 0.13557217 0.003096738 0.012204813 -0.12836397 0.05930483 -0.020489102 -0.11043288 0.110956125 -0.22464624 -0.008283077 -0.054685064 0.054675598 0.0336247 -0.078696705 -0.10998653 -0.14882733 0.023094984 -0.019729896 -0.02238103 0.08513693 0.025942143 0.14272633 -0.004571752 0.004961668 -0.009246718 -0.026421323 -0.019104335 0.018474847 -0.03956034
-0.09930142 -0.049810413 -0.076912515 -0.11520421 0.046484657 -0.12345663 0.078113176 0.07638416 -0.16582802 0.11806639 -0.13674507 -0.16179721 -0.16177064 0.17675087 -0.16238514 -0.19648433 -0.2570877 -0.0023109429 -0.19759206 0.14080594 0.15534814 0.30422074 -0.07291524 0.21442583 0.059290227 0.10771485 -0.09914524 0.07499442 0.09119194 0.06152223 -0.07580898 -0.058112957 0.21058655 0.046503976 -0.17552948 -0.026723249 -0.10301679 -0.017881002 0.015039304 0.008722649 -0.04476643 0.0053526596 0.020745805 -0.06451261 -0.03757827 0.042071536 -0.022327147 0.052685093
0.102528945 -0.10022621 0.09724026 -0.21776684 -0.044572394 -0.038959935 -0.3468309 -0.11209062 -0.20623392 -0.04987014 -0.066194765 -0.24115506 0.05923015 0.05424236 0.0864004 -0.052635018 -0.13053448 -0.0027774423 0.18102863 0.033858113 0.20389847 -0.026851444 -0.07525394 0.1295181 -0.11373234 -0.03922144 -0.20444341 0.18061797 0.035099626 0.088702634 0.01075224 -0.19213995 -0.036156483 -0.16417372 0.06405314 -0.11162636 0.026521178 0.0034633158 0.00059527846 -0.026651993 0.041806903 0.0083708335 0.020785542 -0.02117276 0.006964348 -0.03248835 -0.004475914 -0.045555104
0.17160663 0.07656619 -0.030024823 0.07676711 0.056639068 0.05298749 -0.09103919 0.023354698 0.23651794 -0.48125085 -0.08071801 0.0013023043 0.23901935 -0.12342181 0.1450413 0.3153133 0.033897392 0.06909928 0.20823376 0.14624842 0.2915285 0.2977736 0.066451386 0.03353997 -0.046286453 0.052980825 0.12780857 0.12378347 -0.020484593 -0.06439926 -0.208135 0.13213155 -0.032655958 0.078898445 0.054296546 0.009220742 0.03359659 -0.013369011 0.043582708 0.037029065 0.025954489 0.0029158515 0.014401959 -0.0089650415 0.002354062 -0.042819276 0.060558412 -0.017851992
0.03439196 0.19626705 -0.11263665 -0.06774028 -0.06570025 0.011871533 -0.029796673 0.40346277 -0.06428994 -0.00018838869 -0.061306104 0.08638239 0.010699261 -0.2110493 -0.07027704 -0.14083448 0.039908867 0.14270607 0.04220784 0.028792053 -0.033947278 -0.08027038 -0.12011423 0.10041977 -0.03595558 0.016232997 -0.0040360996 0.14058338 0.015153491 0.04670737 -0.045213617 0.042760707 -0.037053216 -0.024951112 -0.051197585 -0.047605347 0.0007413489 -0.013982613 -0.02691843 -0.029430097 -0.007178784 -0.055455454 0.04010882 -0.008875131 0.0051063276 0.009938871 0.11159786 0.0013089831
0.023895308 0.0044498784 0.0052277143 0.09664438 0.0041697826 -0.12089554 -0.13145936 0.07092887 -0.47013167 -0.16413817 -0.025861979 0.012739028 -0.011163146 0.23387529 -0.045823667 -0.04433054 -0.114461124 0.15456828 0.034638077 -0.12167594 -0.14021584 -0.035726305 0.041492082 -0.01136938 -0.089882165 0.12791885 -0.005742276 0.08200054 0.026224758 0.121753134 -0.10307386 -0.18568036 0.13021743 0.105859 -0.0058633457 -0.12571636 0.041726533 0.011701206 0.020740807 0.010613124 0.031221867 0.015366705 0.092238806 0.019722372 -0.013408133 0.055314988 0.055938836 0.039366588
-0.07853104 -0.027555315 0.014268861 -0.011154773 0.030445049 0.2265101 -0.10992753 -0.08650879 -0.020212136 0.067505375 -0.12881374 -0.023453526 -0.01049005 0.032369584 -0.085025266 -0.05010767 -0.08313648 0.026827056 -0.09452593 -0.016582835 -0.02573539 -0.033999313 0.038806956 -0.015945198 -0.46902144 -0.04860615 0.022275424 -0.08012416 -0.012112507 -0.0022163077 -0.7954035 0.056432106 0.0007215329 -0.035079397 -0.08230609 0.044860367 -0.016979432 0.015392171 0.0051963227 -0.014532953 -0.0249909 0.010071832 -0.096297495 -0.0013390575 0.016623054 -0.013976883 0.034945637 -0.017688867
-0.034358732 -0.08023942 0.20995913 -0.5955306 0.040111814 -0.028012466 -0.3103048 0.29863667 0.30698246 0.06550341 0.12078888 -0.09737098 0.0065714493 -0.043678142 0.19236115 0.19230746 0.08521606 0.08985317 0.19596131 0.06890844 -0.018778529 -0.17576502 0.058913816 0.08244332 -0.025488505 -0.07133526 0.2355728 -0.0023455457 -0.11763105 0.10490538 0.098875776 -0.38843971 -0.010562878 0.28439012 -0.10556134 0.033185046 -0.053248554 -0.0023259707 -0.060500737 -0.075207815 0.04832265 0.0081101 0.0015567403 -0.032619126 -0.009648376 0.014061997 -0.0915678 -0.061611224
0.06277553 -0.08985363 -0.043138392 -0.014598646 0.060702596 -0.0068611032 -0.109550685 0.027472654 -0.212466 0.0074596913 0.07089656 0.08641793 0.27200326 -0.07740702 0.052401766 0.05316886 -0.12334633 -0.21035154 0.22595516 0.11094998 -0.11397087 -0.045244996 -0.17430842 0.22419626 0.10594877 0.10871255 -0.17336547 -0.11351052 -0.14265718 0.06617978 0.031846184 -0.116312556 0.094880074 0.15889479 0.13911384 -0.0017752968 -0.059088387 -0.048156396 0.0122391945 0.069024056 0.060452927 -0.032488633 -0.012734464 -0.049722098 -0.032550987 -0.015828237 -0.012805817 -0.04990385
-0.26896623 0.03319066 0.046759855 0.33412737 -0.11406816 0.009521277 -0.25973028 -0.2638062 -0.3564901 0.22567587 -0.033903725 0.2002428 -0.101369515 -0.1469098 -0.16780347 0.14644313 -0.034880422 -0.049669217 -0.17398426 0.19894287 -0.1741751 0.029518068 0.21866138 0.081509404 -0.05361454 0.12868893 0.013134257 0.18660527 0.14398931 -0.07992489 0.058030423 0.28029677 -0.090081565 -0.24378252 -0.24058658 0.03814149 0.0071652313 0.0048606033 -0.047429327 0.068453856 -0.033591118 0.08739327 0.03232305 -0.020484895 0.033313826 -0.066730365 0.06635617 -0.02712471
0.015654713 -0.052301023 -0.020061877 -0.17414705 0.045464415 0.04016274 -0.013471397 -0.08210727 -0.21028563 -0.0695415 -0.07616968 0.13099207 -0.064031996 -0.3486126 0.2591455 0.2534628 0.067956306 -0.06635629 0.14758353 0.13120724 0.1769052 0.05858174 0.026073266 -0.21493922 0.05913779 -0.12245428 0.099862725 0.08501628 0.09010537 -0.12480467 -0.017433818 -0.09886906 -0.11916283 -0.26261684 -0.117814384 -0.07034054 -0.0040834816 0.033613876 0.01744194 -0.04022597 -0.01395771 0.022532042 0.020756539 0.032798987 -0.031317182 0.02314022 0.023322998 0.039154075
0.036421575 -0.0673379 0.08823462 0.121741354 -0.1760465 0.07863683 -0.2622321 -0.07633749 -0.044890296 0.032576397 -0.01354154 -0.18044081 0.08453854 0.0663975 -0.017285649 0.05262751 0.27467865 0.038345456 0.103263155 0.10091487 -0.15446958 -0.17828566 -0.1409004 0.20126203 0.04802724 -0.0049731107 -0.007097932 -0.05016986 -0.022307048 0.038396247 -0.012621144 -0.059281986 -0.16931531 -0.06946666 0.020595472 -0.033224326 -0.08383496 -0.024310581 -0.008397011 -0.055923842 -0.018392505 -0.05458739 0.042713337 0.07898341 -0.05200147 -0.02166167 -0.033328917 -0.044835564
0.2572302 -0.17376667 -0.011303901 0.062253814 -0.26637164 -0.046490856 -0.1148614 -0.44489118 0.28876635 -0.1776312 0.0006827663 -0.12078453 -0.08754054 -0.2545003 0.08494955 -0.102319546 0.0038161543 -0.40870103 -0.032652307 0.0339128 -0.19467853 -0.07449629 -0.24548349 0.14041696 -0.014091893 -0.15415159 -0.028042855 0.015346737 0.011077675 -0.03524563 0.05922427 0.14620897 -0.1509736 -0.087946005 0.0644294 0.04714535 0.015415281 -0.02365967 -0.026126219 0.06770019 -0.04585035 0.020910874 -0.005185399 -0.003538762 -0.0399143 -0.08056258 -0.013393758 -0.031503838
0.03512807 0.08217322 0.031093413 -0.034478255 0.05236805 0.065305606 -0.025324924 -0.09974341 -0.12656446 0.004234775 -0.021994157 0.0077028656 0.03392847 -0.32676703 0.14121851 0.117752224 -0.35312805 -0.055960074 0.06293073 0.0938574 -0.19710062 -0.12155473 0.062819004 -0.04465549 0.011647466 -0.2531146 0.10373625 -0.0144173335 -0.22756237 0.0934849 0.03402362 0.16328344 0.05661128 0.09156064 0.057253476 -0.1765409 0.01721589 -0.014074799 0.015304047 -0.041172225 0.007583801 -0.035771657 0.0037454849 -0.013084311 -0.015027419 0.057021286 -0.016398417 0.11709965
0.23461463 -0.15653202 0.11759831 -0.14217132 0.00809245 -0.11252083 0.090392895 0.026301704 -0.22202966 -0.02467443 0.13003911 -0.27975434 0.1955521 -0.06980015 0.10050625 0.20585798 -0.16580595 0.10548481 0.17225277 0.034923065 -0.055126257 -0.18978533 -0.04112026 0.07148687 -0.077502616 -0.1443624 0.0044206856 -0.0063362075 -0.16448979 0.06315554 -0.06924789 -0.16606341 0.008058714 0.046272296 0.021532 -0.015508361 0.0053916196 0.03986366 0.014292504 0.04835605 0.04307387 0.06708496 -0.017896147 0.03945678 0.02795791 -0.0129904235 0.06582552 0.05601921
-0.10910968 0.05033115 -0.050847493 0.13136241 0.10047797 0.010516442 0.16111904 0.19235098 -0.020562382 -0.02204377 0.020622034 -0.033431675 0.009259875 -0.055951767 -0.21726543 0.1740185 0.1862825 -0.016235864 -0.016629674 0.012043723 0.10511232 -0.18042694 -0.06842113 -0.14375724 0.0965863 0.22559635 -0.13740838 0.081635416 0.18273048 0.13558188 -0.057742417 0.14205873 -0.13456616 -0.17335516 -0.022110317 0.15101092 -0.035326697 0.019959906 0.0039535104 0.027714377 -0.019746106 0.0136138955 -0.010590619 0.004858365 -0.009106368 -0.024572928 -0.028083267 0.0005983224
0.014720107 0.1056648 -0.01799745 -0.014447686 -0.04596137 -0.05963804 0.20861052 -0.12870014 -0.037872713 0.18003976 -0.06396404 -0.15206605 -0.11738124 -0.1639935 0.028915485 -0.028376665 0.09517537 -0.19494545 0.27910072 -0.15637366 0.15195131 -0.047707494 -0.1038751 -0.30108973 -0.06779351 -0.039712943 -0.11093015 -0.14283669 0.021487534 0.08873893 -0.006296761 0.053420845 0.0984221 -0.100351356 -0.052024636 -0.09231372 0.033310596 0.0008788864 -0.0229007 -0.04782311 -0.011178162 0.014813017 -0.03515242 -0.005516291 0.010894218 -0.019995647 0.027971558 0.0002361014
0.04154025 0.006710555 0.08503703 0.07026064 -0.018987317 0.0074284854 -0.3723347 0.15477078 -0.12632264 -0.0334682 -0.1363849 -0.23046754 0.1601196 -0.018753756 -0.07508375 -0.18554413 0.1084647 -0.20293109 0.113905594 -0.20971633 0.08871852 0.36981502 0.14682117 -0.077671126 -0.10861906 -0.042985596 0.040953193 -0.041285247 -0.023311399 0.026967986 -0.013547176 0.088908695 0.1306573 0.3583097 0.082313865 -0.030308649 -0.012421502 0.03181481 -0.027465045 -0.10214305 -0.09541755 0.032488238 0.0025805407 -0.03636767 -0.042999562 0.111066714 0.06649646 -0.005832725
-0.3999109 0.2685405 -0.15625624 0.10289371 0.087994814 0.0034930888 -0.18269351 0.39744627 -0.114558004 -0.21536319 0.042490393 0.17326187 -0.16383436 -0.29695237 -0.70097905 -0.0735641 0.16401878 0.08914056 -0.0059907436 0.028981427 0.30593893 0.195835 -0.08829388 0.013347994 0.015797623 0.038943797 0.13888918 -0.18754761 0.13736323 0.04673212 -0.017861497 0.031858176 -0.14653127 0.0540399 -0.018996118 -0.0074500605 -0.01711179 0.022602864 -0.021659557 -0.06997414 -0.093742 0.004405332 -0.015569788 0.012051227 0.021290442 0.0672788 0.13802724 -0.007719653
0.0013193599 -0.07613007 -0.0613214 -0.01717293 0.10730928 -0.05850668 -0.20770466 0.05088123 -0.23516296 -0.050962377 0.0006627553 -0.013699709 0.21691403 0.026939837 -0.019778965 0.036322497 -0.043506008 0.19978589 0.07102321 0.10562925 -0.13305639 -0.17751378 -0.20854029 0.05637141 -0.047167838 -0.01736308 0.1543223 0.14330186 0.048667744 -0.054759335 -0.0003591163 0.04061659 0.041340034 -0.075111434 -0.24753968 -0.07144588 0.041099492 -0.017371647 -0.06418872 -0.06641375 -0.022764148 0.042892314 0.00013775185 0.028105723 0.050698444 -0.0023941074 0.004376225 0.047192153
-0.04709673 0.014299532 0.060498025 0.20136291 -0.09213133 -0.18347786 -0.2479942 -0.100400895 -0.26894084 -0.017104894 0.05212497 -0.055925228 0.05479672 -0.0345374 -0.14721398 -0.21009906 -0.04227863 0.059444048 0.028800359 0.006752645 -0.10839304 -0.119440444 -0.10137956 -0.03387706 0.4300254 0.1208998 0.10629314 0.041672885 -0.073523626 -0.016898058 -0.045171477 0.102282956 -0.1152344 -0.060770385 -0.030180704 0.011308974 0.1209905 0.026238255 0.0008794467 -0.059717294 -0.03208974 0.05115795 -0.03703749 0.012889719 -0.028681858 0.004732111 0.012455034 -0.0036696314
0.10935352 -0.04031613 0.05323444 -0.22805344 0.015089311 -0.0022684159 -0.02813042 -0.018342907 -0.11152629 -0.03304973 -0.070909895 0.034110874 -0.25711256 -0.07300782 -0.018576019 -0.04212988 -0.08145522 -0.1602492 0.23407136 0.0012977794 0.10239015 -0.18014345 -0.064058244 -0.17114039 -0.3173503 -0.24979897 0.043128856 0.1659441 -0.19215533 -0.15986577 0.23807213 -0.23093995 -0.07449652 -0.037961986 0.007385692 -0.026941443 0.019979998 0.03115868 -0.07677933 0.020104943 -0.06070722 0.00013210322 -0.002277515 -0.023032637 0.034115132 0.0019441157 0.0136750685 -0.0773687
-0.055620044 0.00295609 -0.21894303 -0.049033716 -0.10187023 -0.0005329549 0.053421106 -0.20404582 0.3426727 0.14807107 -0.036586594 -0.1332804 -0.16613539 -0.035447303 -0.069258705 0.0016167507 0.029849865 0.16176617 0.006829062 0.20584589 0.0060661878 0.18642187 0.080234915 0.08055759 -0.105774894 -0.036397714 0.018163458 -0.00659246 -0.06253268 -0.057856973 -0.00054964365 -0.08979402 0.060670443 0.15654087 -0.06868192 -0.081279196 -0.034758672 0.020641977 0.0097893495 0.005093193 0.051473312 -0.0083841365 -0.02420268 0.01004442 -0.019157415 0.031017838 -0.1320916 0.034867045
0.18017866 -0.08707554 -0.037035976 -0.031110995 0.032311946 0.06531292 0.32587436 -0.14791718 0.20147143 -0.04153682 0.014328921 -0.3365256 0.4174079 -0.03482824 0.020814482 -0.011612523 -0.06091504 0.025395477 0.16050193 0.13681352 0.07653833 0.034796827 0.07920473 0.013271425 0.02070061 -0.053841848 -0.04725841 -0.015699409 -0.04525386 0.00689506 0.037520565 0.087674946 -0.040100183 -0.028208 0.024008505 0.004567519 0.036804564 -0.028876605 0.055458587 0.015060838 -0.066881485 0.025891745 0.0062265755 -0.004180455 0.02164529 0.00990055 -0.0080276765 -0.01630213
-0.10222791 -0.0739362 -0.08203939 0.0075952983 0.07056136 -0.0041543036 -0.1587006 -0.13874513 -0.10920787 -0.08655349 -0.13272572 -0.1638486 0.0863874 0.055748556 0.029873583 -0.06982231 0.096278936 0.06316377 0.053137314 0.011509382 -0.40877327 -0.11089858 -0.11033946 -0.025062755 0.03994771 -0.020973237 0.020783693 0.071245745 -0.03701204 0.019570507 0.06270486 -0.012036295 0.065012924 -0.14053962 -0.11703493 0.08897516 -0.0042578722 -0.060527697 0.0035100565 0.04474478 0.06126402 -0.010022769 -0.030625843 0.010658842 0.06985934 -0.029123217 0.115810305 -0.02297024
0.20169702 -0.044747863 -0.08757449 0.037632458 0.07141358 -0.047060367 0.033613987 -0.35633725 -0.26336613 -0.08473675 -0.010503135 0.27168876 0.12785903 -0.08310114 -0.06527764 -0.056983 -0.018253319 -0.09345312 -0.24423768 0.22238281 -0.10798944 -0.048895814 -0.091910124 0.03457245 0.004534978 0.0373824 -0.1258614 -0.0040145507 -0.0018363945 -0.016773107 -0.0272414 -0.112162516 0.11147747 0.21364251 -0.067558095 -0.018151656 0.0026073288 0.011804098 -0.004773472 0.04026844 0.03037229 -0.011892048 0.030413637 -0.010583758 -0.0033533722 -0.018372891 -0.04486493 -0.021285927
-0.04074774 -0.103078954 0.024643438 -0.0038828035 -0.0032465584 -0.021960963 0.06632582 0.056951623 -0.33056337 -0.1040511 -0.0863036 -0.05082867 -0.17599185 -0.042308886 0.15324163 -0.043171845 0.014400542 0.05488808 -0.22901484 0.2495714 0.0044197426 -0.051206082 -0.024726937 0.07232576 0.11540168 -0.122642465 -0.07136333 0.17979625 0.042962793 -0.031220129 0.027506715 0.08921788 0.18932287 -0.055803776 0.015919479 -0.034401212 -0.016709523 0.039292123 0.024402063 0.015780702 0.05858413 0.02821606 -0.021394983 -0.025890518 -0.0057442663 -0.053370755 -0.016050285 0.0037561655
0.03902613 -0.06228226 -0.07509617 0.000362815 0.1225173 -0.057791118 -0.055166434 -0.025679462 0.2884313 0.0046192226 0.08095383 0.09776169 0.18518974 0.07297191 -0.12286593 -0.1458486 -0.1028948 0.106021345 -0.049412798 0.07541158 0.06761921 -0.15664868 -0.060849283 0.16927846 0.21049282 -0.06103675 -0.13589117 -0.19764572 0.052090116 -0.057894688 -0.008645848 0.008639264 -0.14068536 0.06179063 0.16505662 -0.10630157 0.059493907 0.016107175 0.048833568 0.0020689224 0.024153957 -0.010970653 0.015542832 0.03615331 0.04154511 0.032462023 -0.017869383 0.0021773544
-0.079020396 -0.025750982 -0.041364383 0.09092906 -0.014317861 -0.08551442 0.08452676 -0.14126807 -0.21752301 -0.013393603 0.064072095 0.14873576 -0.14312226 0.06762946 0.40946725 0.18019713 0.17936516 0.038034417 0.17031024 -0.17923902 -0.014200415 0.10647865 -0.13005699 -0.3337321 -0.017034966 0.21677294 0.11578619 0.01790849 0.009961738 0.14008306 -0.07200511 -0.098850705 0.099996835 -0.020106724 0.076133326 -0.026788412 -0.0039079566 -0.056617334 -0.02443613 -0.01942476 0.019445572 -0.040662974 -0.014454104 -0.006826592 -0.03391163 -0.06289891 -0.015767546 0.032222137
-0.06089975 -0.078452 0.05114969 0.13732068 -0.18749915 -0.022499187 -0.6002566 -0.35928386 -0.004039941 -0.25292984 0.13558519 -0.14265503 -0.030907312 0.09276824 -0.1841769 -0.2345309 0.040452473 -0.034575302 0.08605167 0.21705157 -0.76619935 -0.3237515 0.045305192 0.13401163 -0.11376957 0.006205212 -0.075094216 0.092935435 0.104414195 -0.015375712 0.03828148 0.13897185 -0.09444664 -0.05504897 0.050285783 0.0017825805 0.04143271 -0.017609369 -0.013520445 0.012119855 0.023082735 -0.024369713 -0.017663298 -0.009176532 0.017944682 -0.064456984 0.009060542 0.0058347145
-0.18690541 -0.033948965 -0.19979678 -0.15772742 0.028755499 0.043743685 -0.09300418 0.10021313 0.08321 -0.34705746 -0.105749734 -0.13833454 -0.015422496 0.28563493 -0.5733104 -0.2507244 -0.11197846 0.22531536 -0.037618227 -0.1343473 0.3400027 -0.032141704 -0.009625151 0.0008680819 -0.0066192984 -0.13362128 -0.0045438525 -0.43891487 0.024626924 0.05911284 0.0701197 -0.02585361 0.0043480033 -0.025904963 0.010209572 0.039753806 0.01437177 -0.012795299 0.104376405 -0.11490589 0.015566134 0.005385378 -0.024536308 0.04478709 -0.036635693 0.08618413 0.07617954 0.058282718
-0.15861523 0.03518021 -0.0049793287 -0.13630542 0.10568847 0.03545714 -0.08936986 0.034021553 -0.2775675 0.12627675 -0.02544906 0.16400832 -0.043562386 -0.1229362 -0.10509866 -0.066916764 -0.22842677 0.015308819 0.083572246 0.01074947 -0.0751479 -0.14786877 0.035874136 -0.014182478 -0.09552815 -0.21574242 0.20193939 0.13595355 0.011737348 -0.06561797 -0.31325838 -0.12065806 0.116071805 0.0238326 0.025718605 -0.08598523 0.049494766 0.00063055096 0.025944088 0.047593914 -0.01690118 0.06886109 -0.011985743 0.021840747 -0.020983417 -0.09017794 0.092261575 0.028782576
0.065911375 0.012822487 -0.044947818 0.22483024 -0.006151115 -0.042576596 -0.121246785 -0.20822363 -0.043744974 -0.22395258 0.13055484 -0.20934197 0.03957702 -0.100105904 -0.032453604 -0.18612075 0.023109697 -0.10276558 -0.04348792 0.11151917 -0.0682246 -0.006006742 -0.04604613 -0.018512663 0.07128389 0.09298504 0.061375137 0.13583346 -0.102086715 0.094953515 -0.036721654 0.12687555 -0.09160343 0.037432343 0.013554019 0.027388547 -0.051371254 0.0026623418 -0.032619298 0.0024963443 -0.0040465477 -0.003518915 -0.014773362 -0.0046701105 -0.011222559 0.012418407 0.007422349 0.04519939
0.24315497 -0.006031086 0.09829701 -0.062016398 -0.04368835 0.014711377 -0.24373564 -0.37555283 -0.026550546 -0.27906123 0.06160393 0.013374838 0.025776086 0.10978937 0.1516907 0.14445463 0.11156179 0.035388105 -0.14409369 -0.11768656 0.020228487 -0.092389636 -0.13684314 0.07541695 -0.1970522 -0.0497782 0.087329775 0.027581988 -0.05147601 0.023528697 -0.012744227 0.06782433 -0.051368114 0.024702905 -0.019458491 0.03559712 0.0032910472 -0.06312602 -0.0016606151 0.04852202 0.08249907 -0.05572569 -0.030082736 -0.07053654 -0.027215125 -0.028750803 0.0060010725 -0.021316405
-0.058002084 0.0047123902 -0.23447932 0.051917978 0.121654734 -0.0069910735 -0.30560538 -0.25807902 0.14804372 -0.31156552 0.13070387 0.058348723 0.11540711 0.1923617 0.07027705 -0.057843048 -0.23566827 -0.118108235 0.01539346 0.31432977 -0.57382804 -0.09819 0.16980179 -0.19497003 0.044695638 -0.02005908 -0.0141125675 0.011887438 0.014618221 -0.08179203 0.022929162 0.064011395 0.33362705 -0.18576749 0.08438836 -0.05412474 -0.009843812 0.016662944 -0.0018947101 0.005011909 -0.04316723 0.0137916785 -0.019373674 0.0035937363 0.02146086 -0.01118245 -0.00921584 -0.019734487
-0.01533445 0.03627693 0.03292572 0.005599461 0.03856735 0.021178903 0.24445552 0.38391668 -0.04780975 -0.048106577 -0.059893787 -0.31645778 0.10298117 -0.27143463 -0.23497859 0.093999244 0.10041253 -0.16253622 0.09597646 -0.118451886 -0.1588241 -0.32051462 0.116941646 0.14160274 0.11132661 -0.020823155 0.03715491 0.24742143 -0.019742338 -0.037614275 -0.0075904643 -0.016620459 -0.1852052 -0.07732489 -0.08343539 0.10135 -0.017914476 0.042381864 -0.0130248405 0.0022672783 -0.03244864 -0.003957397 0.008065485 0.04355516 0.035170708 0.03773778 0.046763975 -0.0055616954
0.26040164 -0.18914129 -0.081706986 -0.052136555 -0.03541445 0.012835484 -0.35482606 -0.3004882 0.075228095 -0.41333368 0.08814241 -0.24674582 -0.027830502 -0.050175894 -0.1159586 -0.14834936 -0.16367213 0.07940622 -0.10050306 0.20876075 -0.071439356 -0.33940086 -0.08618289 -0.070243806 0.12078927 0.027193483 -0.006035868 0.02278848 0.11017412 -0.0034389899 -0.07121989 -0.09881567 0.03887746 0.119384065 -0.043739457 0.03392786 0.000522632 0.02616744 -0.0012405309 -0.030026436 -0.022062518 0.015642246 0.025575947 -0.010965001 -0.039368473 -0.0126435 -0.03769684 0.0059351684
0.14814201 0.14823127 -0.07955895 -0.15736394 0.16718572 -0.029153388 0.36269465 0.76877314 0.26845834 0.112457275 -0.047339395 -0.014460813 -0.019402593 -0.23239368 0.20471068 0.0057286443 -0.084116235 -0.07683955 -0.24605832 -0.58989936 0.029161388 -0.12333275 0.040370315 -0.15145454 0.02844859 -0.02469244 -0.095641136 -0.0061296844 0.04555108 0.02915642 -0.030516421 -0.123943485 0.19333915 0.03352569 -0.04864762 -0.04277334 -0.02030709 -0.0026670163 0.0072911084 0.012087306 -0.016426949 -0.007649381 0.0003617612 -0.028977884 0.023105364 -0.0017775769 0.012612007 -0.027464183
-0.089422144 -0.09156772 -0.07307525 -0.311973 -0.11283875 -0.07964681 -0.08381482 -0.09671325 0.20472859 0.29325762 0.02419449 -0.2719496 0.2637489 0.08876567 0.1567325 0.10716744 0.050554704 0.11211177 0.16947915 -0.13820527 0.10393344 0.012759804 0.031444304 -0.06819294 -0.10327645 -0.07044478 -0.10839916 -0.058273256 -0.0042543365 -0.036490146 0.011989681 -0.20165502 -0.07899958 -0.14824256 0.058558352 -0.022844158 -0.060614076 0.007132614 -0.011142439 -0.015324557 0.060937416 -0.035070453 0.021261955 -0.015049989 -0.0057271807 0.043748625 -0.021905739 0.046780646
-0.02160201 -0.059790082 -0.04094102 -0.02602632 -0.03659896 -0.08091277 0.119342536 0.044386655 -0.11550355 0.17186823 -0.072441146 0.022885298 0.29009992 -0.219108 0.115111 0.10346054 0.118930265 0.07465698 0.32215068 0.043692216 -0.038765978 -0.108848244 0.08420601 -0.164068 0.023914661 0.13550831 0.0514604 0.062755875 0.0563688 0.041882902 -0.09579458 -0.12834306 -0.055258334 -0.1061407 0.09473062 0.085074164 -0.020161927 0.020040944 -0.0015300892 -0.0041173836 0.016372595 0.016069321 0.0090022795 0.02627166 -0.017608734 0.003929683 0.017289499 -0.014588311
-0.11758296 -0.017814923 -0.03563879 0.25077653 -0.042205784 -0.08242828 -0.2046045 -0.15762632 0.18547352 -0.13914208 0.008130564 0.17028125 -0.11394225 -0.050553445 -0.0052565983 0.07233914 -0.097989365 -0.050259884 -0.13906135 0.21232061 0.026213214 0.17397867 0.061099537 0.05507951 -0.08715433 0.07130147 -0.0070286784 0.16671126 0.09548495 -0.01568381 0.0155418245 0.18746887 0.09669354 -0.080591775 0.019565208 0.024987433 0.002205204 0.04394541 -0.016062355 -0.052768197 -0.054276865 -0.015214973 0.017643154 -0.031955454 0.019331131 -0.031890154 0.105378754 -0.03387856
0.065586 -0.122414835 -0.019475555 -0.017941669 -0.12996946 -0.018692914 -0.26513478 0.221588 0.13277322 0.0077137877 0.05244561 -0.34187233 0.2738091 -0.3636501 -0.13715066 -0.31146243 -0.14316411 -0.10986171 0.15886207 0.06672696 -0.1132397 -0.10263874 -0.090446346 -0.18149641 -0.117469944 -0.032739133 0.116846226 0.2614991 -0.061932106 0.07683798 -0.008845778 0.039176274 -0.033239502 0.050325423 0.0103191845 0.015587121 0.019445281 0.006005431 -0.013718601 -0.019118631 0.04208383 -0.029129975 -0.019701999 -0.011315323 -0.0040007844 -0.0047488534 -0.008154657 -0.016332626
0.01641326 0.026923042 0.03701774 -0.072253786 -0.030016482 -0.01549176 -0.009012148 -0.011834803 -0.11551405 -0.05694273 0.11306841 -0.03685487 -0.113131054 -0.2918425 -0.027232066 0.20194596 -0.038826726 -0.1937068 -0.15423952 0.22418953 -0.3217734 -0.08352511 -0.07509787 0.08380463 -0.030109972 0.0324993 0.3191677 -0.0045149936 0.0021982265 0.053508837 -0.08364853 -0.34725028 0.18745677 0.1315689 0.02984968 0.024272285 -0.015117194 -0.012924085 -0.052262124 -0.015901133 -0.02196999 0.045752604 0.01749956 0.032782804 -0.045630742 -0.009705945 -0.033319883 0.026345968
-0.22203095 0.12913105 -0.055202994 0.27380377 0.022390127 0.025692008 0.16938426 0.16657293 0.028329473 -0.100820884 -0.08962035 -0.5166845 0.23759945 0.09061935 0.19389723 0.0928987 -0.06438966 0.16505097 0.09520567 -0.071807824 0.15373108 0.21890986 0.04754931 -0.087976605 0.08736685 0.18153977 0.05449592 -0.023448363 -0.054887094 0.043717835 -0.017014597 0.1185943 -0.075671144 -0.036048763 -0.104197614 0.07714748 -0.014738857 -0.009248924 -0.00090117485 -0.019770937 -0.02136325 0.013014078 -0.0365162 0.014506399 0.0194277 0.014892613 0.078424014 -0.010695869
0.03685798 0.052394018 -0.031073708 0.05338651 -0.11914869 -0.02883976 0.06012571 -0.041424498 -0.06827072 0.08463599 0.021070931 -0.0006781349 0.12557954 0.1928617 -0.08966486 0.096653014 0.018488608 0.10091755 -0.29448032 -0.12661831 0.06509356 0.06863412 0.105982035 0.09052068 -0.015460343 -0.14991449 0.08356959 0.20629074 -0.051302265 0.0988901 0.0008360292 -0.04801053 0.22811691 -0.14748602 -0.14743458 0.14727622 -0.0023011595 0.023565892 -0.03545338 0.10083138 0.01967556 0.031663626 -0.00639144 0.02394215 -0.03202137 -0.054402396 -0.014230348 -0.024430733
0.31683165 -0.22210935 -0.010249385 -0.13524726 0.0382749 -0.060307156 -0.075431 0.23542315 -0.63793063 -0.08964164 -0.086725034 0.17030841 -0.04246613 -0.19858189 0.096990675 -0.0066061523 -0.13326511 -0.11989416 0.11254865 -0.07556198 -0.049957477 0.0042722486 0.060193278 -0.008322425 -0.009823113 -0.17141399 -0.08420704 0.019856531 -0.027188364 -0.04287271 -0.07093853 -0.010598742 0.10560452 -0.012510556 -0.0069608698 -0.051879212 -0.02994109 0.0388664 0.032706313 0.011401726 0.04099053 -0.022574073 -0.00083709264 -0.043086972 0.03714338 0.010541875 -0.03138858 -0.02518376
-0.027779678 -0.14090034 0.0956944 0.16362892 -0.116480485 0.010272416 -0.05686647 -0.5454723 0.2725868 0.18053801 0.025118887 -0.37540585 -0.037543453 0.25729898 -0.1674112 -0.1950726 0.14997676 -0.016028652 -0.043910917 -0.18394697 0.15592344 -0.03173531 -0.0016453441 0.016972441 -0.03575772 0.072020575 0.053405877 -0.16969007 0.080316015 0.032004982 -0.036362052 0.023101205 -0.02099046 0.08146848 0.096139185 -0.058034237 0.005332322 -0.0003412574 -0.028053343 -0.0728874 -0.08244467 -0.011833649 -0.01715312 0.010923043 0.042323664 0.022211412 0.06875525 -0.017069237
-0.041657288 -0.042805027 -0.025820553 0.028647458 -0.09041552 0.0098260455 -0.11316972 -0.024306891 0.048070714 -0.033818875 -0.073618196 -0.037294287 -0.07406505 0.08758354 0.02937373 0.06388553 -0.052066557 0.32128438 -0.021428805 0.027930941 0.20015003 -0.32521 0.23494753 -0.24085101 -0.06780908 -0.0044947476 -0.032742586 -0.013792267 -0.12670366 0.029016687 -0.023187336 -0.07557426 -0.0075780563 -0.29336149 -0.0723132 -0.24504203 -0.012072102 -0.009800169 -0.009373326 -0.04294475 -0.021490082 -0.025888534 0.010067726 -0.053706054 -0.077747785 0.082825854 0.004886733 -0.038662337
-0.19752002 -0.045525134 0.08891983 0.08288667 -0.16765139 -0.04477059 -0.28997433 -0.13857567 -0.4150135 -0.021616869 -0.01930227 0.119429566 -0.034142885 0.021625936 -0.2679078 -0.09349706 -0.091100894 -0.064233094 -0.07579452 -0.024627293 0.07896268 -0.0837107 -0.067817226 0.040694617 0.004699937 0.04498892 -0.23383461 -0.107447006 0.0020451916 -0.059522174 -0.053624228 0.057370108 -0.09639945 0.042904206 0.0713175 -0.056236487 -0.021220738 -0.012766311 -0.041793812 0.03970861 0.031817243 0.023273233 0.0062635285 -0.02448493 -0.030109068 -0.028710298 0.0034861863 -0.0003117339
0.1324675 0.06297533 0.05787943 -0.05808283 -0.02650632 0.116234586 -0.09778817 -0.056723844 -0.3334272 -0.09608577 -0.0034059165 0.13658734 0.041449286 0.22758752 0.11132261 0.10722812 0.09092456 -0.023161199 0.22324614 -0.14496008 -0.09451938 -0.09659316 -0.15464538 0.071435444 0.16929828 0.079342745 0.026931338 0.07124751 0.073666885 -0.0054926095 -0.06814102 -0.02771125 -0.029144973 0.10690233 -0.04565675 0.13517322 -0.007319316 0.035842527 0.023432655 0.012881941 -0.0074361227 0.012666403 0.031999733 0.012937551 -0.033214238 0.09704638 -0.025866438 0.106611975
0.10254076 -0.14099944 -0.055596158 -0.17323628 -0.04220833 -0.09922958 0.0129802395 -0.1231483 0.69396126 0.047526326 -0.072179005 -0.04837503 0.093971126 -0.04383945 -0.05892401 0.0153546035 0.06917589 -0.11180119 0.016819928 -0.16478238 -0.1155711 -0.048719037 -0.0038950248 -0.15938962 0.116790086 0.055132736 0.012075441 -0.023679538 0.0046122507 -0.039890807 -0.021170411 -0.1046532 0.05044301 -0.14900565 -0.018028306 -0.016063372 0.031516038 0.044663165 0.06433418 -0.046755765 0.05414412 0.048962448 -0.049793337 0.03529537 0.07974305 -0.01184945 0.016417388 -0.0032379546
0.21749747 0.10957763 0.07173617 -0.03260016 -0.082618244 0.008768657 -0.16390574 -0.16210362 -0.13786969 -0.23092581 -0.067193836 0.24207121 -0.07842854 -0.05921532 -0.1176261 0.14112735 0.13277796 -0.09182163 -0.09046753 0.45866162 -0.19818234 -0.1493331 0.022832511 0.34944338 -0.122757345 -0.066745974 -0.033126224 0.06962856 -0.07658003 -0.0744837 -0.0072558895 0.100178726 -0.065700315 0.077375606 0.030922685 -0.014687191 0.018463148 0.008877992 -0.02410873 0.027186776 -0.022362484 0.009643111 0.009389238 -0.007044819 0.020982 -0.020462131 0.019875277 -0.026694376
0.044776436 -0.013902624 -0.0040528094 -0.025732806 0.047846586 -0.047820922 -0.10686046 -0.0653385 -0.038264222 0.10196787 0.044412382 0.06627544 0.10708171 0.086740784 0.032167174 0.058472645 -0.049903248 -0.09099081 0.02210419 -0.011924445 0.2558163 0.11868508 -0.15627894 0.028572768 0.026862357 -0.09668527 0.018206364 0.08345409 -0.024023838 -0.09450731 -0.012796267 0.18624909 0.09252655 0.024756616 -0.07721426 0.06753215 -0.03801157 -0.079043284 0.017262302 0.04004712 -0.009932223 -0.0147429025 0.031156313 0.0018401947 0.027375264 -0.08762196 0.050097346 -0.11246304
-0.2256784 0.07837396 -0.15157011 -0.17661355 0.042734485 0.018997159 -0.09697109 0.24579631 0.055032317 -0.05666779 0.032550234 0.22171324 -0.12334034 -0.1769177 -0.6692708 -0.23834825 0.16322745 -0.037351895 0.12458787 -0.05118211 -0.024401627 -0.07076697 0.09345443 0.19318493 0.0034676 -0.14315552 -0.12080922 -0.10681912 0.11785728 0.037793204 0.123064205 -0.14306661 -0.08002937 -0.0034351826 0.10470102 -0.039008986 -0.0050697997 0.015401534 0.0011178721 -0.08653557 -0.051795162 0.012716409 -0.049780987 0.009830434 0.002545875 0.03141551 0.01943316 0.01605916
0.05978194 -0.10832007 0.10866558 -0.31500775 -0.019005744 -0.10012494 -0.119561054 -0.029391835 -0.4674355 -0.2707372 -0.009372951 0.05507553 -0.01669076 0.16593686 0.022496872 -0.11148128 -0.13224772 0.16812807 0.15764438 -0.09529222 0.07820059 -0.0090344045 0.068427466 -0.05081906 -0.026278023 -0.17916939 -0.09464979 -0.014924443 0.12665123 0.014770892 -0.1348556 -0.2065422 -0.05839865 -0.20204833 -0.10657897 -0.066107586 -0.017010845 0.051745422 -0.061186783 -0.06816377 -0.024874143 0.029335938 -0.013900484 -0.050940756 0.08318301 -0.00912747 0.032226883 -0.044124816
-0.09609863 0.029918842 0.1428397 -0.2352188 0.021973915 0.025745556 0.11849326 -0.11319184 -0.20965648 -0.19494754 0.11006038 -0.056677427 -0.027111432 -0.17775737 0.21632835 0.037247762 -0.075902775 -0.113536306 0.0209987 0.010177045 0.0088294335 0.018209264 0.17916286 -0.057985388 0.121266454 0.03418576 0.024745831 -0.09741047 -0.030307997 0.08908716 -0.064337775 -0.1268283 0.104046285 -0.14311504 0.026819097 0.08268151 0.008913999 -0.013679704 0.052311957 0.111264065 0.053449698 -0.040545266 0.0015675024 -0.0038193637 -0.049497284 0.03508784 -0.039582696 -0.027957987
0.041334927 -0.13426653 -0.047013227 0.018275369 0.019191248 -0.039582953 -0.18273677 -0.52583086 -0.0948408 -0.38502643 -0.125205 -0.118356615 -0.030359643 -0.06363307 0.09667247 0.15381564 -0.08116504 0.0012211534 0.11900978 0.32302022 -0.2657683 -0.20810679 0.16796362 -0.069493204 -0.0031523923 0.05178457 -0.06977143 -0.11112769 0.01740645 0.028421456 0.031599842 -0.055978365 0.26614082 0.019927833 0.011613245 -0.01930475 -0.0044940547 0.016448487 0.00974411 -0.016975828 0.018787883 -0.007376398 -0.009709968 0.03047732 0.01602347 0.03411312 0.003261807 0.031229809
0.037240706 0.03324534 -0.0703252 -0.057422087 -0.07366952 0.062337577 0.05932991 -0.04206424 -0.32279453 0.012750288 -0.11270797 0.1080149 -0.11432246 0.12360402 0.008138225 0.022894608 0.055504274 0.30232334 0.014530738 -0.033933405 -0.124597736 0.033386484 0.00047575185 -0.25310117 0.04579019 -0.18833284 -0.020243363 -0.032258343 -0.04314851 0.33546522 -0.129746 0.028174216 -0.08897792 0.044001047 0.07643617 -0.3840719 0.014721337 -0.039571233 -0.027192628 0.049299937 -0.033724204 -0.003303633 -0.0011798103 -0.0080208415 -0.023524517 0.044082493 0.0051347357 -0.047546204
-0.078027904 -0.2397171 0.10706302 -0.08019913 -0.15650079 -0.044420086 -0.115129545 -0.09927682 0.16348399 0.1317433 -0.024147449 -0.3591818 0.23715267 0.13179679 -0.020905172 0.09336098 0.21970454 0.02134494 0.0011889677 0.10596989 0.1706839 0.048996493 -0.11854599 0.11696409 -0.17901383 0.06570217 0.10787326 -0.07075764 -0.007222265 0.109512895 -0.14186604 -0.12017516 0.051197898 -0.012663226 0.043023843 0.06922484 -0.028190259 -0.036068857 -0.011504978 -0.049551923 0.06114102 -0.08125023 0.038228463 -0.004998071 -0.001192069 0.0024301887 0.034372307 0.022702528
-0.030822705 -0.11228917 0.05673582 -0.08696497 -0.10365489 0.08307833 -0.014863955 -0.027898896 0.04771134 0.09967237 -0.056681115 -0.5274987 0.20423153 0.11103676 -0.008629152 0.16355197 0.12114412 -0.028258504 -0.08526071 -0.12728235 0.07749336 -0.08262647 -0.12657748 0.07508181 0.17984955 -0.15347552 0.017534142 -0.03133047 -0.09947594 -0.09185639 0.089256406 0.015654474 -0.037045427 -0.026551291 0.004744524 0.063274786 0.065824226 -0.033242963 -0.05227075 -0.030346068 0.028279765 0.08085795 0.0012765666 0.03981602 0.005665679 -0.05474369 -0.037517797 0.014471308
0.0009292801 -0.041526187 0.108226016 0.09661144 -0.047751233 -0.01619716 -0.088194214 0.28756922 0.14716074 -0.106518134 -0.11720553 -0.2511686 0.13185932 0.117508486 -0.33384776 -0.44624555 -0.10191887 -0.106473885 -0.1313462 -0.18178402 0.11844748 0.13038927 0.38533705 -0.06920256 -0.058511704 0.029899377 -0.11483916 0.07590764 -0.027843561 0.049596857 -0.053896233 0.12060224 0.30839393 0.14675844 0.01714351 0.019739341 -0.00038740592 -0.016499177 -0.0059276903 -0.020542784 -0.012980963 0.018912133 -0.016539328 0.00019088188 0.012644026 -0.04343091 0.007366827 0.051166996
-0.12477029 0.105892934 0.024752911 -0.04473265 -0.14747638 0.06752907 -0.13109326 -0.22654897 -0.2994236 0.11826083 -0.1103428 -0.059287846 0.0853156 0.07821596 -0.020325366 -0.14960368 -0.07115432 0.008503054 -0.04445086 -0.062191263 -0.19545314 -0.16098784 -0.039617136 -0.06553615 0.00012091705 0.08388329 -0.15664199 -0.1421331 -0.06850154 0.018839434 -0.010900711 -0.13486901 -0.03830742 -0.009337915 -0.076120116 -0.030115172 0.021261064 0.051093522 0.05291691 0.0021869752 -0.016989056 -0.044763595 0.054248977 0.021497333 -0.030041141 0.02195252 0.045787014 0.04532551
-0.16972029 0.071631946 -0.017718704 -0.18004867 -0.0060658585 -0.15248947 -0.028758492 0.0028411811 0.037722606 0.09783169 -0.12321656 0.12446929 -0.007469283 0.06908364 -0.13812149 0.041329253 0.09694117 0.009169124 0.09007023 -0.12731394 -0.14363497 0.020242931 0.110755265 -0.16578417 0.5983889 -0.037509307 0.057477485 -0.024944294 -0.07829284 -0.0556779 0.22862463 0.02690653 -0.040711075 0.07294078 0.1307839 0.049628306 0.16028579 -0.010142033 -0.041222148 0.058385603 0.03531501 -0.04210008 0.0344275 -0.04488821 -0.004888715 -0.0639656 -0.018003248 -0.051607776
0.010516954 -0.007985964 -0.022799032 -0.022078648 -0.0040670373 0.048496015 0.040678177 0.009402179 -0.12305118 -0.023542764 -0.0573034 0.027556257 0.010883698 0.0748421 0.20895833 0.14102587 0.01646358 0.16293414 0.15178517 0.00039879428 0.09980492 0.0006401225 -0.08010547 -0.048411924 -0.5517625 0.11197441 0.0796442 0.07809639 0.116558604 -0.03013782 -0.40746212 0.11150461 -0.07343868 -0.16786806 -0.13752724 0.33663443 0.0024997601 0.007226204 -0.0006045073 0.009172286 -0.015376674 -0.031915154 -0.02738375 -0.003452003 0.0019111139 -0.0044548064 -0.006557458 0.04928349
-0.29321313 -0.05323937 0.023560068 -0.15743463 0.008118369 0.023311472 -0.398812 -0.05133611 -0.49277392 0.06208685 0.07477804 0.14465073 -0.14599468 -0.044231717 -0.10002197 -0.014983859 -0.12747662 -0.010400556 -0.1841323 0.19317323 -0.06973113 -0.03880991 -0.040685255 0.07921705 0.1521711 0.00040016076 -0.010347865 0.03746166 -0.011842654 0.11034959 0.043913316 -0.08023631 0.03426935 0.053642932 -0.05106526 -0.03785218 -0.032919265 -0.0011895306 0.008115651 0.006457844 0.018634483 -0.033271782 0.0069088843 -0.03607892 -0.019998988 -0.0032372123 -0.06420147 -0.02170787
0.057436995 0.00982533 -0.031855833 -0.044509813 0.0057663396 0.073990054 0.045554727 -0.038572103 0.05035175 0.34462056 -0.14241105 0.07678183 -0.23206912 0.14327629 -0.0518744 -0.132621 -0.0004672199 -0.20034833 0.040404685 0.058533784 -0.102611914 -0.024171436 -0.13542564 -0.04540423 -0.003745246 -0.06401112 0.09950189 0.13583802 0.08931335 -0.15382883 0.023746956 0.01228561 0.1337108 0.12958486 0.027743012 0.059703298 0.011146006 -0.007262311 0.04664343 0.003321956 0.02996223 0.048949335 0.0064540417 -0.02165916 0.035269257 -0.0035417445 0.0079459725 0.027262649
-0.014830598 0.063382015 -0.12410298 -0.050293475 -0.031765677 0.091009274 0.024437563 -0.13244939 -0.0858809 -0.18987222 0.0816278 -0.030677207 0.059274264 0.15682267 -0.16286175 -0.079700366 -0.06070302 0.040703464 0.19916636 -0.05848442 0.17182599 0.011685249 0.03868522 -0.09572422 -0.08324592 -0.040642023 0.09221868 -0.04806296 -0.04698199 -0.03633524 0.04508187 0.098698586 0.040960945 -0.03363094 -0.018895786 -0.0504794 -0.014545051 -0.061562423 -0.089150876 0.057095148 0.019133179 -0.03629389 -0.00806523 -0.010134199 0.031832226 -0.049895793 -0.033167765 -0.07529729
-0.16324249 0.059460577 0.008982068 -0.012096535 -0.13568254 -0.0065764594 -0.20510615 0.07904045 0.08471065 0.0561417 0.09595801 -0.09583444 0.2895435 -0.019144928 0.14729948 0.10961784 0.093902856 -0.22003284 -0.09673471 0.2635957 0.30252168 -0.1851408 -0.2281147 0.097715 -0.032199368 -0.00913168 -0.039658014 -0.03261578 0.08040139 -0.07393084 -0.04042296 0.07032091 0.14062393 0.032610647 0.117830686 0.033863995 0.01243534 0.018751813 -0.038483236 -0.059381984 0.007590669 0.025283888 -0.0009209691 0.0484973 0.014252287 0.0211979 -0.0062581776 -0.01858314
0.18825302 -0.02955054 0.061378874 -0.17187451 0.049660895 0.05635632 -0.11173687 0.24016234 0.21142352 -0.18951206 -0.0980739 -0.109186724 0.046854027 -0.40142325 0.2927969 0.3881881 0.33513367 -0.122096665 0.3107756 0.21440774 0.08443128 -0.03834439 -0.17965785 0.14138347 0.019010264 -0.27801934 0.18072233 0.18280041 0.06874512 -0.015786285 -0.061206207 0.06872166 -0.06201421 -0.05432144 0.00092491385 -0.015211739 0.0022369751 -0.0026464532 -0.015056103 -0.04163678 0.029531354 0.014671148 0.011570506 -0.028010678 -0.022654254 0.046193484 -0.073431805 0.033104192
