-0.0913059
-0.21829264
0.060119927
-0.16564672
-0.21197042
0.059363145
-0.17470993
0.043680985
0.09762643
0.07249821
-0.23975307
0.0012059293
0.06771673
0.12191545
-0.23788653
-0.16964445
0.09967595
-0.10574263
-0.12266308
-0.15792134
0.056184843
-0.13807468
0.045234285
0.035025626
0.00054237334
0.005464747
0.030877808
0.06809918
-0.0755101
0.06096704
-0.16089189
-0.19156624
-0.117654584
-0.26304716
-0.28141868
-0.28614745
0.034888156
-0.14733675
0.04539931
-0.007277587
0.03305176
-0.25567448
0.029492782
0.0017264856
0.07579885
-0.047190215
-0.085763335
-0.0982377
-0.27549565
-0.005159309
0.021968648
0.019776814
0.11885256
-0.1317571
0.08816526
0.07718321
-0.2708481
-0.20778576
-0.22308658
0.05868105
0.02535902
0.013142538
-0.0861871
-0.22181675
-0.20624731
-0.010188213
-0.056805756
-0.041609894
0.029477805
0.03731969
-0.2200377
0.047467228
-0.2068605
-0.011176685
-0.16479324
-0.23297696
-0.12406344
-0.1686334
0.046163674
0.086208425
-0.20401523
-0.12742813
-0.20491254
-0.21308628
-0.08573251
0.03547896
-0.037333064
-0.11587132
-0.1615513
-0.0573375
0.11439511
-0.24308044
-0.020958947
-0.18571596
-0.16836385
0.06324733
-0.17008804
-0.43898192
-0.008977655
-0.28171667
-0.10557423
-0.13414246
0.033392698
-0.08538353
-0.12823017
-0.09306773
-0.39556265
0.047109615
-0.20172939
-0.19800921
-0.16811164
0.018520728
0.0054381764
0.16482687
0.07609945
0.070206426
-0.42507187
0.0069042505
-0.13664593
0.03790126
-0.310289
0.045220576
0.027215533
-0.23420005
-0.19338053
-0.018000554
-0.22493553
-0.06885457
-0.20340043
0.03978783
-0.26613453
-0.18761608
-0.17297758
-0.17810868
-0.13061978
0.053405326
-0.04066234
0.054124385
-0.04285415
-0.07176411
-0.073782116
-0.15856597
0.13177449
-0.18418664
-0.013858958
-0.23177345
-0.25415626
0.13285802
0.027798448
-0.16771814
-0.2838272
-0.2019124
0.082159
-0.12432575
0.103829354
0.03925276
-0.124778196
-0.04758655
-0.2273577
-0.17427103
0.054308984
-0.25143108
-0.19323948
-0.052679762
-0.20418915
-0.29836875
-0.043460328
0.012971408
0.05019458
-0.06555795
-0.008925889
-0.008538478
0.053240657
-0.028538885
0.04648534
0.17671669
-0.07987845
-0.234563
-0.2714627
0.04273861
-0.072629005
0.043445263
-0.08720099
0.08739465
0.07454554
-0.11887989
0.054158576
-0.16407011
0.014957217
-0.036939334
0.09297331
-0.16811194
0.051123843
-0.15482402
-0.07179162
-0.06790096
-0.092656784
-0.18989997
-0.11081667
0.014439465
0.113628656
-0.1823322
-0.13478786
0.15843712
-0.025883388
-0.20849253
-0.16177775
0.108959764
-0.119564064
0.13064484
0.033486184
-0.20225814
-0.18059187
0.043758124
-0.011161902
0.14986537
0.09105768
-0.28316435
-0.16903272
-0.2828284
-0.031666495
0.0368592
0.063225634
-0.07440397
-0.012008693
-0.124289155
0.03227276
-0.3050982
-0.0041929735
-0.10376115
-0.2552302
-0.12116501
-0.1410529
0.026505336
-0.04944154
-0.014695294
-0.26485944
-0.0895609
0.062393572
0.017686166
-0.14137189
-0.22564012
0.021506097
-0.16179949
-0.17871618
-0.26071757
0.005625746
0.01596958
-0.14872986
-0.24251868
0.04109664
0.09250267
-0.012681302
-0.2474468
-0.018580137
-0.05604197
-0.1220873
0.1338087
-0.22521728
-0.14157689
-0.121460564
0.037423395
-0.27313152
-0.12192611
0.06405318
-0.15746677
0.015133027
-0.34901956
-0.040035423
0.14399534
-0.024498712
0.0955262
0.03516653
0.060455665
-0.17343824
0.01314695
-0.21940206
-0.08933633
0.0665426
0.037047364
-0.32132852
-0.1169315
-0.1693959
0.14154488
0.05327483
-0.014309055
-0.027590003
-0.14421633
-0.28824723
-0.34001073
-0.12843567
0.035464972
0.0064953114
-0.06442005
0.079692006
0.17142314
-0.07129502
0.0048746583
0.110668786
-0.37167537
-0.19915816
0.028022124
0.13834007
-0.14801946
-0.19029334
0.00871817
-0.14897062
0.039028183
0.010673592
-0.118409246
0.062389035
-0.102928914
-0.0476619
-0.47159278
0.036960762
0.042853717
-0.17497145
0.04396571
0.035259414
-0.0027852412
0.04509566
0.03409421
0.05099114
0.07853548
0.08632579
-0.023482125
0.003587876
-0.18595445
0.15803744
-0.2999305
-0.12686682
-0.06320038
-0.006615815
-0.103774436
0.111832
0.052550558
0.030854084
0.016115105
0.09225788
0.10319854
-0.29216054
0.11558367
-0.045803867
0.08617775
-0.17035443
0.016124278
-0.20431817
-0.17753729
-0.0026294698
-0.23909774
0.06610128
-0.077397004
-0.158203
0.13043697
-0.18302296
0.117304236
-0.06155523
-0.11438177
0.057553727
0.08399909
0.1543723
0.122120194
0.01577347
-0.25164548
-0.082556
-0.16373786
0.0425472
-0.057612933
-0.0030572892
0.0430072
0.05090684
0.025229203
-0.11990422
-0.13308297
-0.14313808
-0.23790461
-0.18250942
0.114835925
-0.353707
-0.0031840655
0.0555278
0.001726158
-0.18627717
0.01742049
-0.19752847
-0.0028295019
-0.24754934
0.10509928
-0.032811765
-0.1898839
0.012225699
0.06212298
-0.28744194
-0.03363057
0.09891101
-0.20451577
-0.05965589
-0.19135973
0.08411839
0.045396507
-0.25704193
0.021691052
-0.050739616
0.047812164
0.0283752
-0.004794193
-0.22491477
-0.1324039
-0.14171892
-0.22469975
0.08599415
-0.047509927
0.001625195
0.031889398
-0.11543485
-0.086586274
-0.029160485
0.07775754
-0.03448153
-0.25001016
-0.14695485
0.04208413
-0.17044364
-0.15301387
0.06078428
-0.11995481
-0.16221307
0.04677725
0.077209815
0.0117224185
-0.24884664
0.063501105
-0.18555418
0.053105295
0.07143055
0.0013217914
-0.26789457
0.156068
-0.11372429
-0.13121076
-0.17189439
-0.19033597
-0.15244742
-0.02653474
0.022943897
-0.040010307
0.022027675
-0.15568021
-0.094228625
0.006795079
-0.26803756
0.010774357
-0.22577535
-0.19040419
-0.029995827
-0.13683401
-0.07149735
0.030356364
0.053475425
-0.16055445
0.06578158
-0.070422
-0.12469344
-0.26703998
-0.05748209
-0.15487424
0.011153991
-0.23248017
-0.15357564
-0.040307578
0.075221494
-0.032226972
-0.23316789
0.05843062
0.029746745
0.044514306
0.04090504
0.07014767
-0.3283103
-0.0825742
-0.17610176
0.03172813
-0.12680347
0.10601882
0.058075015
0.039003097
0.044831477
-0.16664486
-0.22072728
-0.10387452
0.074342646
-0.023093564
-0.13810308
0.038853098
-0.06243183
-0.1196692
-0.2632378
-0.22614819
-0.17431208
-0.10864994
-0.048677504
-0.14806317
0.053754084
0.021895634
0.020042893
-0.18618119
-0.19823445
0.063485205
-0.18981437
-0.11399148
-0.1400732
0.07398385
