-0.018692648 -0.11642345 0.043958567 -0.029157354 0.017008029 0.13636717 -0.061463486 0.13832676 -0.009675573 -0.045532215 0.01846011 -0.010170876 0.00016011209 0.05461069 0.004025858 0.06490347 0.019293047 -0.041560136 -0.0028661932 -0.07890776 0.041763764 0.030707963 0.035381373 0.06529112 0.06947787 -0.042462338 -0.0004913261 -0.046769723 0.07745531 0.06809293 0.0016291246 -0.006318485 0.10643985 -0.028276887 0.041571613 0.052294113 -0.014409149 -0.008769645 0.025434166 -0.007348668 0.030609809 -0.019552998 0.0041445717 -0.027902558 0.09543359 0.034387138 -0.006959844 0.05669755 -0.041252866 0.07098846 0.028325064 -0.047707103 -0.05732613 0.022903584 0.057146527 -0.017686928 -0.015912347 -0.015013258 -0.07848843 0.036266934 0.02787973 0.061002053 -0.076839946 0.019127825 -0.03532438 0.006409462 0.079023615 0.0034656043 0.015258779 0.050488092 0.049872786 0.009942643 0.04706883 0.089309245 0.008492923 -0.0339643 0.04185211 -0.038478132 -0.06454335 0.042845733 0.09141301 0.095438704 0.08038608 0.016798887 0.005523451 0.04646278 -0.0395264 -0.08338351 0.008009888 -0.0063898577 0.03190262 -0.06712714 0.09708908 0.05845266 0.0072401008 0.0029992617 -0.013451455 -0.0040798634 -0.061216116 0.03631048 -0.05092705 0.019407934 0.04389402 -0.08938341 -0.037778024 0.03135475 0.024814755 0.020110236 -0.01461021 0.002466426 0.00459672 0.06900222 -0.12000856 -0.0797164 -0.027208386 0.0068401042 0.041180924 0.030202677 -0.07013839 -0.016631104 0.09711025 0.08256481 0.041002873 -0.006068052 -0.037419945 -0.019933723 -0.009654104 -0.006807568
-0.11578422 0.029962447 0.08376833 -0.033227473 0.13987668 0.05455083 -0.08597833 -0.017452318 0.003443877 -0.018097488 -0.02159615 0.04798374 -0.011032848 0.016855655 0.016688554 -0.11014852 -0.039502673 -0.048176914 -0.01970088 -0.002013786 0.021020077 0.015933217 0.069507495 0.02849088 -0.008414874 -0.07719168 0.06041719 0.069983646 -0.016764043 0.03904152 0.057278406 -0.010163717 0.0039402037 0.01956636 0.08403888 0.13779981 0.05965759 -0.024976732 0.05031885 -0.043596376 0.020331085 -0.06477693 -0.07972829 0.046404228 0.050879225 -0.051900342 -0.035779845 0.019332927 0.079393126 -0.0056416015 -0.048830166 0.028909262 -0.0003116732 -0.018039279 0.11861357 0.053631682 -0.068123184 -0.046974495 -0.0118137095 0.038247537 -0.04400437 -0.046434205 0.034264445 0.032947008 0.06320191 -0.008960014 -0.011534272 0.011425384 -0.025433453 -0.04304344 0.027878987 0.03555817 0.0284663 0.04059881 0.00040825823 -0.010246928 0.0013822541 -0.01510359 -0.06999523 -0.08517754 -0.046312932 -0.0019019137 0.06658553 0.048396584 0.037459012 -0.011088468 0.010523647 0.024710476 -0.089190096 -0.030563 -0.055776995 -0.012066757 -0.023369264 -0.035859425 0.0118470695 -0.04951261 -0.047189705 -0.10449912 0.034656607 0.1192958 -0.011826371 -0.10485316 0.08743032 0.009643161 0.036191918 -0.01982235 0.033587642 0.0014401642 0.107988164 0.008570072 0.013721385 0.06564139 0.061389085 -0.035743836 -0.023224592 0.11967681 -0.045562662 -0.029754248 0.021292808 0.029199025 -0.0005695583 -0.011101253 -0.009113002 0.073123164 -0.008080944 -0.00945948 0.013787495 0.0132085625
-0.018998645 -0.005426614 -0.14424035 0.02273104 0.0004097167 0.022706497 0.07308409 -0.023993997 -0.016239913 -0.014751023 -0.035761073 0.04129262 -0.05623472 -0.02218784 0.05929985 0.030662132 -0.03268945 -0.005274157 -0.056171294 0.034893945 0.006298244 -0.07200129 -0.05420771 0.04273605 -0.025758233 0.034942664 0.018080037 -0.05571595 0.10100261 -0.028804073 0.04893793 -0.04673382 0.024869647 0.06284511 -0.0022038992 0.022681601 0.0491638 -0.011616225 0.006934321 -0.0281985 0.06705822 0.09806838 0.030473508 0.007702902 -0.054679684 -0.030687265 -0.004100688 -0.0043250853 -0.040923763 0.052947912 0.058603045 -0.053774655 -0.041431688 0.018202182 0.037048385 0.110046454 0.00051538605 -0.039052032 -0.00548021 -0.079550624 0.1335033 -0.026100162 0.015877161 -0.00923499 -0.04679209 0.016294306 -0.04605567 -0.02625721 -0.03374093 0.027940003 0.012001904 0.013536822 -0.1034135 -0.058199443 0.00427109 -0.033461127 -0.09299011 0.0005681419 0.0136328945 0.054314367 0.086968385 0.02310852 -0.010069204 -0.02563346 -0.034691714 0.050854247 0.0027077028 0.055113446 0.0074907034 -0.018606424 -0.048464376 -0.06294276 0.09261774 -0.023879927 0.03484717 0.006929262 0.02352047 -0.04871468 0.0218116 -0.05874423 -0.007851349 -0.05794125 -0.054395474 0.030304832 -0.03455844 0.0249684 -0.055049427 -0.13817205 -0.04946827 0.014330323 0.0656054 0.058473 -0.027802814 0.0093379645 0.014120288 -0.019936433 0.07584797 -0.017660847 0.04224172 0.01487046 0.00856314 0.05385437 -0.0015326184 0.03439228 -0.071347594 0.041432712 -0.05678387 -0.035727985
-0.04135975 -0.09443141 -0.08651293 -0.110269025 0.09682929 0.033304807 0.092638016 0.067732245 -0.0305194 -0.060793072 0.016385987 -0.030612344 0.045777783 -0.03744264 -0.008304987 -0.034111824 -0.02796195 0.044194818 0.009053592 0.06023611 -0.03704016 -0.045075096 -0.08381434 0.013677839 -0.014003085 0.024352755 0.0047448287 -0.015492162 0.023412075 -0.026831374 0.005104214 0.09156069 0.039950512 0.004795446 0.015738113 -0.11333445 -0.0032003303 0.024285512 -0.0019776637 -0.014843883 -0.03007126 0.047150005 0.025282338 -0.09585024 0.07008218 -0.0063022976 0.06203952 0.061909553 0.0155605525 0.024665846 0.08791772 0.102886856 -0.087905176 0.041954968 -0.05441241 -0.09121566 -0.043544848 -0.0024162591 -0.037939902 -0.02762327 -0.10893244 -0.11584776 -0.13595678 0.026665576 0.056237083 0.07347587 0.018289955 -0.070757106 0.047235336 0.016269406 0.03734925 -0.02521078 -0.06406537 0.015793372 -0.0050843647 -0.017310727 -0.03166617 0.014468365 0.059662886 -0.09789398 -0.039987504 -0.037529327 0.014066857 0.01611105 0.0064464537 0.023667552 0.07124159 -0.039867535 0.028221335 0.036932148 -0.06842222 0.03725565 -0.081596866 -0.046608724 -0.038146332 -0.008003137 0.010008715 0.039697323 -0.06874266 -0.013003852 -0.005539362 0.016905256 -0.052884683 0.086207926 0.05046964 0.021715345 0.012546847 -0.0038404607 0.029823804 0.004181433 0.016116966 -0.13124003 0.03379429 0.025418265 -0.006495507 0.04709186 -0.06014273 -0.053767826 -0.054704726 -0.037983388 0.028719032 0.049230337 0.046472132 -0.009721861 0.055541985 -0.044530228 -0.049708195 0.018566726
-0.07489424 0.021658916 -0.06296608 -0.02399988 0.07813517 0.09309065 0.0058107246 -0.04676901 -0.0056930603 0.017042639 -0.0063295653 0.049144868 0.026235644 -0.04176402 -0.08724274 0.011638362 0.034220662 -0.029753033 0.040885057 0.09041862 0.042990204 -0.034688696 -0.057536934 -0.08763751 0.03141129 -0.028000683 0.023749596 -0.0002815442 -0.032664377 0.101810776 0.033037726 0.09036883 0.00057685643 0.02358075 0.028331308 -0.05441124 -0.035633657 0.002434406 -0.023559729 -0.04870706 -0.027033577 -0.006491182 -0.029707408 0.03119355 -0.07129184 -0.008912104 -0.02349621 -0.050016385 0.08286952 -0.01861026 -0.013137007 -0.058688477 0.060378563 -0.042177096 -0.012997783 -0.0022411118 -0.010801895 -0.08174349 -0.0062530446 -0.05562043 -0.062010594 -0.0336425 0.11834692 -0.032979306 0.018157272 -0.018601412 -0.08927876 0.05274501 -0.014803978 -0.03833122 -0.0015978821 0.01155563 0.051511962 0.00790467 -0.026825177 0.020012468 -0.06428332 0.0035532746 -0.021392174 0.06681975 -0.01866051 0.028599283 -0.08721446 -0.0045689195 -0.05196061 0.026454369 -0.02962839 0.08660297 -0.021241583 -0.042756215 0.06684154 -0.0025804825 0.043565903 -0.039615132 0.103662014 -0.029300712 0.0010357379 -0.070148535 -0.016665425 -0.14714064 -0.083107956 -0.018440245 0.10565832 0.0029989723 -0.053725664 0.0037742578 -0.029993566 0.0021158285 -0.027143791 0.048772108 -0.012182145 0.06164298 -0.0672078 -0.052426975 0.010795774 0.056917936 -0.028052201 0.06563424 0.14232154 0.059241682 -0.019132681 0.093475804 0.022977669 -0.0012994028 -0.0489666 -0.033123817 0.03697463 -0.041990295
-0.12757625 -0.08012202 -0.11288674 -0.14792559 -0.01757955 0.09393356 -0.041373573 0.13598105 -0.0027480407 -0.0573543 -0.057084583 -0.0008880897 -0.01258265 -0.06973812 -0.066398315 -0.024635727 -0.023093034 -0.04037929 0.05079556 0.0012352464 -0.014134314 0.008850816 -0.044497926 0.019426653 0.009770607 -0.15922798 0.04953453 0.014650768 -0.01864895 -0.09842989 -0.123706594 0.07552301 -0.047577575 -0.0826296 -0.011208734 0.052773755 0.044816703 -0.012277243 0.004140184 0.023113178 -0.036305062 -0.04335158 -0.011706346 -0.035028324 -0.057808027 -0.0074481517 -0.012975913 -0.029163938 0.019163707 -0.009800528 -0.011782467 0.010309623 -0.0053334846 -0.04606772 0.06724761 -0.011591061 -0.017254053 0.01649081 0.044236884 0.107972324 0.05280221 0.010749579 -0.019596267 0.05717301 0.0069055194 0.011861253 -0.01890332 -0.07116797 -0.059078027 -0.019138021 -0.06788795 -0.040794984 -0.040257983 -0.1103624 -0.044931192 0.0044394094 -0.08948482 -0.03794048 -0.026482044 0.025795687 -0.06603562 -0.059328567 -0.13715464 -0.0013417646 0.019559663 -0.033772632 -0.016482705 0.036239356 -0.009054235 0.016988562 -0.013532793 0.016581869 -0.0047302255 -0.12432323 -0.03594292 -0.024600547 -0.017299335 -0.005491625 -0.054379508 0.0020956122 -0.009977859 0.04869278 0.025074728 -0.0342335 -0.020737115 -0.0071113603 -0.0018885892 0.014497376 -0.017088233 -0.10470947 -0.049384147 0.047606464 -0.016876156 0.030904945 0.097622 0.010232364 0.012230008 -0.11512032 -0.0427139 -0.029444957 -0.044340853 -0.06115048 -0.047430985 -0.010615782 -0.06218846 0.04360249 0.002518606 -0.056491483
-0.03387201 0.007918293 -0.07194139 -0.022147367 0.0055247373 -0.02089559 0.060517095 -0.0065252106 -0.033232596 -0.06331965 0.021901565 -0.002058821 -0.06626496 -0.023563871 -0.0061707655 0.081562236 0.0023259972 -0.015408627 0.03015399 0.0060940944 0.033984598 0.034509335 -0.015366066 0.07721307 0.00962708 0.015155209 -0.010193519 0.048867784 -0.007069145 -0.075530484 -0.039434448 -0.088995084 -0.00087517884 0.033539787 -0.043433357 0.19415447 -0.06852226 0.028720435 0.08319147 0.0019597828 -0.045978412 0.049090244 0.0295274 0.05604514 0.015436373 -0.007980778 0.04805487 0.005973655 0.006616389 0.009706799 0.03955276 -0.03210067 -0.014678636 0.03975495 0.017915668 0.06952966 -0.05296883 0.06070826 -0.062169302 0.081013486 -0.012631249 0.0650297 -0.07171043 0.009749742 -0.04124732 -0.0014681764 -0.0038797902 0.05234041 0.053414542 -0.08585879 -0.074774995 -0.03665138 0.058083378 -0.015558851 -0.014995083 -0.036898874 0.009062891 0.0641824 0.04200163 0.03585093 -0.043276094 0.015791627 -0.05453227 0.049119733 -0.039059035 -0.016207142 -0.0038765117 -0.045624726 -0.0067672343 0.0710421 -0.009618224 0.07884822 -0.036987163 -0.06198696 0.0066184103 -0.015024202 0.015756208 0.072020665 -0.047802974 0.051488277 -0.02230208 0.01239907 -0.061515294 0.013010824 -0.033371367 -0.026966332 0.01625968 -0.052525558 0.08712765 0.0398928 0.053952772 0.095210075 0.058034394 -0.077354975 0.0104303565 0.04876967 -0.008232336 0.046047717 0.007004422 0.028538955 0.0046036225 0.058394846 -0.060012206 -0.04273736 0.0060673663 -0.025765343 -0.005029383 -0.022825606
0.01950516 0.15340416 0.05570065 0.007605391 -0.0021710126 -0.06614633 -0.1027101 0.014879923 0.0023293805 -0.0032847058 0.003920417 0.0465425 0.030972917 0.014345665 0.0057283062 0.013621216 -0.12152999 0.006530065 0.045263924 -0.074288175 0.080144905 0.051483434 -0.02219603 -0.03773708 -0.0114462245 -0.0035048316 0.0006027692 0.039051298 -0.098335214 -0.06604048 -0.04850496 -0.042348064 0.01989179 -0.016540712 -0.10267041 -0.013040434 -0.051723126 -0.035368416 -0.0071070543 -0.05304971 0.034820512 0.07434248 -0.0073810373 0.1213602 0.06625816 0.043949287 -0.008724714 0.14264815 0.05383004 -0.043836255 -0.073197916 -0.025879782 -0.053925756 0.08551256 -0.09970391 -0.03162585 0.020840209 0.075452104 0.038644485 0.007922681 0.04906756 -0.05002091 0.04467766 0.075314924 -0.042546917 -0.013835814 -0.0078979 0.008303131 -0.050419003 0.11474495 -0.034006305 -0.1340668 -0.00019331706 0.011466503 0.035810273 -0.13711739 0.016345736 0.13533168 -0.0011491053 -0.0074352324 -0.0095621105 0.057533525 0.06761508 0.04303464 -0.05257487 0.0009144852 0.032958455 -0.021837708 0.027908817 -0.009476755 -0.051491316 0.008397891 0.025911447 -0.08687991 0.054632533 -0.005482153 0.0763172 -0.083884306 -0.033331662 0.009637865 0.039415427 -0.052913405 -0.06930671 -0.05906834 -0.084036484 0.037784103 -0.07450436 0.02235488 -0.05694897 0.032514833 0.0144866435 -0.0046228166 -0.02339768 -0.07287382 -0.00546547 -0.08256919 0.015305614 -0.06291602 0.060781475 0.00572553 -0.007620075 -0.01154619 -0.12028319 -0.035183214 0.022434577 0.039246023 -0.027190758 -0.052093174
-0.006398748 0.0043641776 0.017048411 -0.10489716 -0.054072827 -0.05212059 -0.024826122 0.036007058 0.04849721 -0.014096942 -0.03108304 -0.054793105 -0.021868356 0.008306746 0.064203426 0.07400699 -0.018518124 -0.024900205 0.018420588 0.020748034 -0.014864853 -0.028982176 0.08405618 -0.031476516 -0.014334387 0.029967273 0.02226383 -0.019017922 -0.06542979 -0.004545138 -0.123309724 -0.06440884 -0.05342556 0.029505942 0.096468106 -0.030093553 -0.013202518 0.05024477 0.03430658 -0.025087824 0.033182036 0.109706946 0.07656265 -0.011528647 0.026187394 0.026204763 0.045897774 0.029174868 0.08297862 0.0544028 0.016634105 0.13912769 0.03221878 0.0035887589 0.037209127 -0.028503787 0.05560372 -0.019910347 0.0026819205 0.02279459 -0.050123576 0.033314202 0.02633852 -0.0021730822 0.05174854 0.024731748 0.0057357666 0.022149676 -0.019367207 -0.06382459 0.07919217 -0.013780321 -0.02314468 -0.026416004 -0.03813611 0.062126398 0.00039134224 0.067981735 0.042369463 -0.049604576 0.053112775 0.011159316 0.10031004 -0.05343528 -0.045883514 -0.0027629405 -0.0208478 -0.051133987 0.045528013 0.036354028 0.10041303 0.035585552 -0.040493064 -0.030539118 -0.0029975527 -0.07411259 -0.021631742 0.06760689 0.083286464 0.046669118 -0.005431687 0.0019300733 -0.0069075795 -0.0011074381 -0.027231846 -0.0009837615 -0.061043352 0.037056718 0.0026391158 0.05198002 -0.0018926976 -0.0358961 -0.0751559 0.0016080635 -0.006439634 0.053320505 0.012958153 0.031866193 -0.114510946 -0.023882745 0.055465072 -0.076403916 -0.029310985 -0.08081768 0.010233589 0.006046876 0.014339377 0.003861944
-0.06403384 -0.040190626 -0.0393526 -0.0057190303 0.04043166 -0.0012827439 0.028953765 -0.002846599 0.026540693 -0.0044597825 0.011496726 0.042918127 0.0017808273 -0.01425271 -0.026095299 -0.07445244 -0.0066908454 -0.011027574 -0.031878177 -0.004833691 -0.17916755 -0.012516897 -0.04580999 -0.010978728 0.10933002 -0.022629604 -0.02021391 0.052937567 -0.0123645635 -0.09944717 -0.047645297 0.0367889 0.05587052 -0.0120970085 -0.02964616 0.026120722 0.051843658 0.03355389 0.021508928 0.008649482 0.051309675 0.13337484 0.0041274987 0.070241205 0.0046638534 0.07766228 0.04990366 0.060529664 0.05147506 -0.010574122 -0.007811902 -0.0350373 0.044869516 0.0024815213 0.007340327 0.044707287 -0.015107278 -0.07770486 0.047576133 0.006303604 -0.046267156 -0.054096285 -0.011594378 0.048854344 -0.05646165 -0.061775737 -0.044029426 -0.035387788 -0.04934148 -0.05467652 0.08329054 0.10314752 -0.024808541 -0.16435069 -0.03326663 -0.010163165 0.013346172 0.01739308 0.031135077 0.043860402 -0.009520392 0.108459294 -0.06781048 -0.049732164 -0.008403644 -0.0072623044 0.0016466407 0.04244954 -0.015708152 -0.057150323 -0.041556377 -0.021578396 0.00966682 0.030061826 0.05945109 0.02207135 -0.07341312 -0.02337529 0.06306386 -0.03089072 -0.015902184 0.014258542 -0.016082644 0.035675276 -0.009121016 -0.02691353 0.06782222 0.06045818 0.049300447 0.045549817 0.005397853 0.028685665 0.0052197753 -0.06341167 0.008990453 -0.044804562 0.13913223 0.06610608 -0.022197895 0.03130255 -0.021230794 0.0005982008 -0.04099455 0.08960963 -0.047011144 -0.09103225 -0.00710978 0.014676737
0.02707616 -0.014841052 -0.016083166 -0.08467668 -0.01879827 -0.00788512 0.011873924 0.03229359 0.062814236 0.0068287277 0.036334235 -0.025482055 0.095938876 -0.0952653 0.028300831 0.16204599 -0.032226436 0.03661196 -0.005262708 0.0024097222 -0.07288247 -0.03427994 0.074118845 0.011338036 0.0058837677 -0.032642413 -0.025034662 0.005498485 0.028164078 -0.03418384 0.03835601 -0.054353774 -0.018656718 -0.1664773 0.021706231 0.035149924 -0.011258709 -0.00047317622 0.055849575 0.036684915 0.0030067484 -0.04827275 -0.06816401 -0.025571432 0.046650182 0.04136568 0.006396839 -0.007998483 -0.029846756 -0.045412183 -0.07179031 0.04463836 -0.12703621 -0.028428487 0.057973213 -0.07781877 -0.0047005517 -0.014382019 0.035439022 -0.028173232 -0.009031108 -0.01841402 0.072743624 0.018302053 -0.009822807 -0.024993053 -0.0047451323 -0.0661882 -0.015269356 -0.05531845 -0.09998948 -0.079078145 -0.042527407 0.025262559 -0.009081281 -0.022728173 0.05962597 0.028859913 -0.092256896 -0.054249473 0.12581229 -0.014164467 -0.025824754 -0.0397075 0.03220941 0.045971673 0.022156358 -0.05676273 0.025686912 -0.09403633 -0.06964797 0.10130445 -0.09087927 0.011577737 -0.013816268 0.00090349914 -0.04793834 -0.037035607 -0.009708558 0.013518601 0.009286342 -0.010847577 -0.006168101 0.022657605 0.02206909 0.06523084 -0.051691838 -0.011657805 0.007707511 0.037542503 0.006563936 -0.075763546 -0.0021041753 -0.029834626 0.0022648147 -0.004156265 -0.039241835 0.018345287 0.06643491 0.017336028 -0.010047627 -0.04328421 0.039313965 0.017900856 -0.07258627 -0.009636616 0.035051383 0.044158246
-0.085342966 -0.041035317 -0.013670663 -0.014751158 -0.007025327 0.08061379 -0.07019822 -0.10539826 0.053282563 -0.025590595 0.05420803 0.018639961 -0.012883677 -0.049634006 -0.050465748 0.06663433 0.046058364 -0.023807839 0.025366578 -0.034676798 0.013518608 0.013035785 0.04225267 0.012123551 -0.010773053 0.059294637 -0.024039026 -0.000808831 0.00331704 0.067815766 0.033422202 -0.07831896 -0.061965372 0.049036082 -0.03685886 -0.079712726 -0.0017961878 0.008859009 -0.07661409 -0.001663537 0.057839964 -0.074850775 -0.075125046 -0.08573601 -0.07158282 -0.01962284 -0.0057618045 0.10504884 0.018054029 0.006018498 0.025742698 -0.10506799 -0.005636639 0.050453197 -0.07074761 -0.11267353 -0.020713069 0.030397594 -0.06621094 0.012017127 0.071071535 0.08784185 -0.14450009 0.061928615 -0.0422913 -0.12250183 -0.08190102 0.010426283 0.008135301 0.11566774 -0.010789309 -0.045364056 -0.019140033 0.10674382 0.028682286 -0.098547764 -0.042761054 -0.028480005 -0.024394812 -0.022427766 -0.0870189 0.038142603 0.06037067 0.008759626 0.036935363 -0.007911988 0.044213522 0.004026981 0.044750754 -0.043980315 -0.0018582442 0.02283121 0.057415906 0.05851882 0.016278245 -0.08284137 0.005845963 -0.040498983 -0.028442344 -0.046053406 0.03322981 -0.0377083 0.060235664 0.035159715 -0.018364802 0.038017534 0.0022984575 0.033301238 0.042987145 0.08779486 0.037265543 0.0018738955 0.06974631 -0.046031393 0.028273664 0.014694987 0.07128935 0.039294474 -0.03672753 -0.010823858 -0.11765668 0.038789537 0.031167606 0.0074577294 -0.06993102 0.019123526 -0.053588726 0.023614407
0.012108507 -0.039193626 0.0044401297 0.022685781 -0.07777201 0.0424741 -0.03051616 0.051602203 -0.014366867 0.002084945 -0.037133995 -0.03681477 -0.0891207 -0.01705001 -0.029794656 -0.013834296 0.014535996 -0.050408598 -0.023836968 -0.06788755 -0.004457756 0.034310035 0.023276234 0.017680192 -0.022598062 0.016225653 0.026791848 0.11353024 -0.060850576 -0.049878176 -0.064721934 0.053703744 -0.07893787 -0.051445007 -0.0127165625 0.09187772 -0.05797158 0.030424684 0.03481798 0.017725077 -0.04854888 -0.00635063 0.022484455 0.05587483 0.0507253 -0.041190237 -0.05844827 0.025879456 0.0045133117 -0.02499699 -0.075665385 0.045888517 -0.067441024 0.029281842 -0.05693527 0.085202605 -0.1093084 -0.065861486 -0.010078448 -0.028214755 0.055250622 -0.0704161 0.036655374 0.032523546 -0.013795145 0.10962653 -0.06609873 0.04193604 0.012961927 0.041377902 -0.031292915 0.029907424 -0.056639276 -0.04371717 -0.029924832 0.07610495 -0.08699193 0.058985837 0.015415843 0.057152655 -0.032808505 -0.012186053 -0.019030174 0.01175792 -0.0772983 -0.014469729 -0.048894696 0.028514631 -0.0077421335 -0.06116657 -0.058970783 -0.004830875 0.038951904 -0.09966264 0.086065575 0.070652574 -0.05453374 -0.022427818 -0.08678458 0.06638276 0.048763905 -0.07300254 -0.07203819 -0.069986105 0.031263217 -0.009018402 -0.031313896 0.010246529 -0.0067697978 0.13202642 -0.026243236 0.037609674 -0.015297181 0.008759985 -0.025909452 -0.095081106 0.020472636 -0.016878666 0.011149651 0.16729383 0.010324287 -0.029962312 -0.052173786 0.026970925 0.033702917 -0.047803573 -0.00964926 0.01483343
-0.121114194 -0.10541493 0.02782501 0.030736422 0.029746484 0.060959548 0.01086344 -0.025815502 -0.038167335 -0.048767436 0.034956437 -0.0019106664 0.06785345 0.039764926 0.022137038 -0.0094798785 -0.012564231 0.0044199736 0.07662332 -0.04718588 -0.09340067 -0.043609463 -0.00013996144 -0.010067552 -0.06676775 0.07095929 -0.092043266 0.04381137 0.02223066 0.00033603754 -0.02148479 -0.0018611384 -0.0024538103 0.010142171 0.016091125 0.15854104 0.01842567 0.06628197 0.046451725 0.067557886 0.067823894 -0.024931861 0.028467359 0.09734091 0.03199405 -0.011140515 0.041537058 0.039344203 -0.007602271 0.033831477 -0.021510446 0.032221157 -0.08311801 0.12224485 -0.008948999 0.033712268 -0.040111568 0.08086187 -0.003197489 -0.035698123 -0.13360977 0.09841876 -0.053181842 0.040143877 0.036321603 -0.07138621 0.053689893 0.06433413 -0.09343028 -0.022160519 -0.036102295 0.04893691 -0.092365764 0.08033651 0.0033390762 -0.078863725 0.07380538 -0.058771353 -0.029438281 0.061519194 0.015670018 -0.057631854 0.021561325 -0.0076094656 -0.0052503925 0.10491743 0.1085875 -0.02984655 0.0307018 -0.019310366 0.015482628 -0.021491487 -0.06262989 0.026006822 0.031496275 0.011248124 0.0035367392 -0.0014770437 -0.02459128 -0.062075146 -0.011442658 -0.01760979 0.055317618 -0.045968104 0.03727801 -0.047767177 0.08292698 -0.051963896 -0.038457226 -0.004911778 -0.020026457 -0.0030792896 0.022289246 0.026961232 -0.027753664 -0.036170352 0.0010912762 -0.028195033 -0.0030218197 0.09185713 -0.020368295 -0.06845793 0.040135816 0.053691786 -0.0028404177 0.03709424 -0.040308975 -0.024776198
0.0844359 -0.057707135 0.012664891 0.024877349 -0.022237899 0.050447203 -0.048401438 0.0461685 -0.015642434 0.043557584 -0.0054914216 -0.025082888 -0.018108623 -0.02201612 -0.020003714 -0.029118871 0.014619244 -0.04158691 -0.054062225 0.051935565 0.014324255 -0.02891517 -0.032883476 0.047715556 -0.0024176843 -0.04291169 0.0058451174 -0.0077634817 -0.0659785 0.031887773 -0.04000379 -0.027902093 0.042944726 -0.061900433 0.019380445 -0.035090048 0.043860372 -0.041274615 0.0060508293 -0.02955986 0.107431225 0.05251716 -0.006779193 -0.02097614 0.035708696 -0.021252746 -0.0077757663 0.026915453 -0.011414834 0.035434216 -0.049414597 -0.011936041 0.017225973 -0.059258755 -0.025003182 0.018010585 -0.026125068 -0.027218902 -0.04266697 -0.00661433 0.008773358 0.039157674 0.02492779 -0.045014 0.019721042 -0.052424163 -0.04676358 0.001005868 0.03207122 -0.10896598 -0.032884166 0.033495966 -0.026993988 0.020434001 -0.08617635 -0.0030731296 0.050120667 0.0014743631 -0.02592574 -0.0005076075 0.0070893844 -0.006160146 -0.04336999 -0.009952591 0.015525353 -0.085084006 -0.010544255 -0.11075563 -0.03811659 -0.023988727 0.031297132 -0.033444688 -0.018197283 -0.012597575 0.09839411 -0.027040651 0.0049345344 -0.026528094 -0.020183688 -0.023696147 -0.033592697 -0.029794162 0.004414567 0.00071228825 -0.08616508 0.0047203354 -0.10039572 -0.012673212 0.02656585 -0.005774748 0.03057347 -0.053449903 0.07718951 0.012318747 -0.027348293 0.008932063 0.010017863 0.1352246 0.03661782 -0.024051525 0.019550854 -0.001385325 -0.09792394 -0.063366145 0.06911193 -0.044553902 -0.08406424 -0.04658001
0.06655058 0.056957256 -0.010855327 0.06664137 0.029672142 -0.062949784 -0.03868404 0.0752689 -0.023278229 -0.07635042 0.051426653 0.10379288 0.0005756615 0.022060884 -0.059737667 0.031487502 0.015173211 0.028237918 -0.001581132 -0.08559927 0.0055795237 -0.016116256 0.03772039 0.096612535 -0.038177233 -0.036910016 0.009871571 -0.073300846 0.016722327 -0.031119261 0.04785729 0.040015772 0.02684031 -0.024351338 -0.07759059 0.009496693 0.05498939 0.006335434 -0.014563208 -0.0645555 -0.11289085 0.04201837 -0.00014417709 -0.06385101 0.06646671 -0.0042718397 -0.07462267 0.016418125 -0.04590388 -0.044966474 0.028561482 0.023588235 0.016766492 -0.07088653 -0.010763816 -0.0012076243 0.04565768 -0.048434004 0.042539068 -0.04296005 -0.091921866 0.036090508 0.032206956 0.08608357 0.11056693 0.015291793 -0.03228213 -0.0024242878 0.09541528 0.0017415645 -0.015647084 -0.08032552 0.04574756 -0.06493448 0.02266471 -0.062974624 0.056273617 0.06623814 -0.039657086 -0.018957717 -0.03350009 -0.03801343 0.08625447 0.04250783 -0.011918742 0.022280546 -0.07054836 -0.039593004 0.01026585 0.011079322 -0.059649322 -0.039764628 -0.098557256 0.014182475 0.124918066 0.012189636 -0.02307191 -0.10824122 0.0341358 -0.00980287 -0.0705869 -0.0072734384 0.008118678 0.058604084 0.019575542 -0.04328152 -0.02287596 0.018540984 0.06399696 -0.067335896 -0.0442064 -0.013827599 -0.020014971 0.0025630153 -0.009900571 -0.023411755 -0.03759735 0.044929147 0.0086207725 -0.010231551 0.014587693 -0.041608267 -0.112518586 -0.08696484 0.029648507 0.041014683 0.009317642 -0.08441242
