0.06354188 0.067482196 -0.005396255 -0.07566888 -0.056436863 -0.0074208733 -0.038604088 0.0024149057 0.017804446 -0.04522655 -0.13914785 -0.0480618 -0.3063819 0.075682245 0.012621092 -0.030931173 0.034412164 0.058715213 -0.13333176 -0.025089337 -0.090947635 0.12166016 -0.14675875 0.15632226 -0.09047537 0.011688455 -0.02450625 0.11930195 -0.04234156 0.21294783 0.022726493 -0.0014918265 -0.051083744 -0.0019649088 -0.057386894 -0.08431189 0.07184179 -0.031400528 0.06995488 0.059655312 0.15345491 0.08648233 -0.058354672 0.019277837 -0.0021570034 0.040741507 -0.16914171 0.08017228 0.13210721 -0.033200234 -0.004411026 -0.012065194 0.069685504 0.16401084 0.104568444 -0.024947835 -0.01458678 0.06379958 0.01703151 0.07482235 0.12954792 0.053805683 0.04728014 -0.03378078 -0.093123846 0.028090812 -0.071260646 -0.06583341 0.0017980105 -0.019596789 -0.005147718 -0.19621567 0.0014472089 0.079264365 -0.0070126457 0.06391139 0.016329791 0.014635104 0.14052789 0.07543067 0.015679091 0.013709634 -0.23994185 0.052733254 -0.064267196 -0.074514605 -0.04703708 -0.019620765 -0.16519113 0.09848382 -0.0024180966 -0.10741232 0.0809703 -0.05174626 0.022106867 -0.11551986
0.16845948 0.007400576 0.03495781 0.006088487 0.0005897815 0.09943977 -0.048988476 -0.013586711 -0.10840289 -0.001890836 0.063332565 0.042800628 -0.00078579556 0.05565968 -0.0907882 -0.0072439425 -0.18077534 -0.10133555 -0.07224979 -0.101531945 0.13238224 -0.00044203099 0.00093850074 -0.062535174 -0.17585433 0.051153827 0.027491543 0.026949927 0.012788558 0.05879972 0.057167467 -0.043717626 -0.111744545 -0.12185234 -0.14712071 -0.073898256 -0.037590146 0.05994418 -0.016857939 0.053456243 -0.047557596 0.020450853 -0.18786703 0.041978493 -0.0625936 -0.084500656 0.03352067 -0.109426945 -0.2237124 -0.01059456 -0.048045028 -0.075626574 -0.07678217 -0.04537301 0.2092653 -0.105596654 -0.0019895327 -0.0016765413 0.100531824 0.09065009 0.060021374 0.072359584 -0.013738071 0.0140086925 -0.10546748 0.0064181276 0.16339102 -0.004886694 -0.012462997 -0.028382935 -0.07040045 -0.07939489 0.21943603 0.027298667 -0.017826933 0.012027911 -0.05251274 -0.009929264 0.071326144 0.12000538 0.078401744 0.111953534 0.163917 0.07326286 -0.034293734 -0.00573516 -0.04694276 0.057004303 0.07689532 0.03457019 0.04698161 0.009117271 0.0031897405 0.0638377 0.12932523 0.10999862
-0.068747126 0.07516079 -0.001207202 -0.070386395 0.038204476 -0.106259614 -0.030753024 -0.047380928 0.0639387 -0.12754641 -0.055180464 -0.12772858 -0.009239288 -0.060492147 0.024445616 0.046908733 -0.042182215 -0.06651227 -0.042137295 0.0634691 0.04982509 -0.055511404 0.14499639 0.05631719 0.11973915 0.07187652 0.07336881 0.017277263 0.046313874 -0.16093747 0.09294059 -0.10488398 -0.019412907 0.028121354 0.14504836 0.086116485 -0.06424173 -0.032474324 0.09116983 0.10174618 0.20054421 0.14024734 -0.14218903 0.07860569 -0.018285196 -0.05128497 0.060396217 -0.075966686 0.15781793 -0.05101209 0.06596446 0.03701561 0.09027844 0.03306938 0.25151834 -0.13804118 -0.032308377 0.036784094 0.061975434 0.08524001 0.010973992 -0.06363142 0.002147717 -0.109812014 0.022534765 -0.1401324 -0.011170807 0.03087056 0.05330587 -0.036369458 -0.116768524 0.04845458 -0.16941208 -0.06306426 -0.009039881 0.035976786 0.08639148 0.06889391 -0.016525855 -0.058259413 0.04763224 0.080571555 0.014130624 -0.04637685 -0.0020273742 -0.03315753 -0.025597727 0.003865245 -0.107696496 -0.21483071 0.030628443 -0.16672279 0.036105573 -0.06771755 0.022550113 0.025027374
0.08640398 0.011258854 0.069712706 0.11351241 0.04084384 0.16712943 0.11173276 0.027134709 -0.08829361 0.091681786 -0.033824388 -0.16008464 0.22707501 -0.04434793 -0.042928908 -0.05897031 -0.19156449 -0.071518265 0.08942229 0.06564734 -0.005178131 0.08451554 0.0855494 -0.0060591637 0.19938481 -0.039127845 -0.0011351432 -0.06707463 -0.1760371 -0.034213934 -0.18333268 0.09452378 0.058667194 0.06731523 -0.039267257 -0.0056141675 -0.0053807627 0.06756411 -0.049652647 -0.024643116 -0.115392536 0.034629267 -0.036735695 -0.03353727 0.04340299 -0.0052743107 0.04376663 -0.040054295 -0.058731265 0.08520613 0.012322821 0.032583475 0.023801284 0.04989897 -0.1441464 0.11867059 -0.014833785 0.039711904 0.074688174 0.14061475 0.009919675 -0.03847912 -0.14521594 0.014643517 -0.20116626 0.13116649 0.057023745 0.034448225 0.08274498 0.044569895 0.17482994 -0.073508166 -0.04566555 0.012321483 -0.009214724 0.09274953 0.029118886 0.100711375 -0.07478435 -0.07225184 0.029340236 0.020423407 -0.041369952 -0.15683575 0.01730026 0.030969415 0.027594684 0.072213836 -0.15391225 0.03682903 -0.03445925 0.05435452 -0.045977917 -0.093859494 0.05818304 0.02672281
-0.040950045 0.020281967 -0.045608398 0.07585992 -0.24394186 0.0048545 0.077689715 -0.011417653 0.041215893 -0.019803783 -0.10960856 0.007831385 -0.094636895 0.0636808 0.0049551185 -0.0012316332 0.13359828 0.050449558 -0.07519748 -0.006399892 -0.08206545 0.014200962 -0.122807994 -0.07817847 0.116335705 0.069798656 -0.057201553 0.10509288 -0.13880962 0.05803645 -0.018908098 0.009130995 0.08436288 -0.03709211 -0.030667188 0.004967539 0.05336147 -0.05870184 0.052794002 0.046710167 -0.044926688 0.042826913 -0.029122997 -0.052328497 0.045823656 -0.11577645 0.20974432 -0.20220804 0.042856246 -0.030189632 0.04500288 0.052593473 0.09036967 0.15499991 0.13894743 -0.08677945 -0.055437542 -0.027616577 -0.0044183685 0.00062967505 0.10198732 -0.025554184 0.0026210307 -0.008094969 -0.12788226 0.020418355 -0.1595755 -0.01700327 0.042532727 0.011866157 0.104032494 -0.04499518 -0.030000795 -0.02263205 -0.045092314 -0.085742526 -0.04149864 0.01549645 -0.004937218 -0.03406005 0.010750938 0.0077071176 0.20583981 0.10331479 -0.11362775 -0.0315761 -0.011692329 -0.097391464 0.20574898 -0.12327456 -0.07745329 -0.09455389 -0.02275581 -0.019654898 -0.19221711 0.07939468
-0.05119116 0.0630859 -0.0014892735 0.052033696 -0.061413575 0.13163738 0.044033043 -0.06161698 0.017542848 -0.005782565 -0.0616001 -0.081056684 -0.17241672 0.122989334 0.055664465 -0.008279437 0.094369926 0.09598373 -0.23212528 -0.13430357 -0.027581554 -0.028864138 0.086747795 -0.039718978 -0.0920484 -0.104565196 -0.0382954 0.016829006 0.13413258 0.042117186 -0.085150294 -0.0684851 0.08670763 -0.0649986 0.03753896 0.06924384 -0.037493497 0.028619472 -0.017541297 -0.14834726 -0.08647722 -0.053581215 0.12045594 -0.0072002173 0.07817917 0.13131839 0.16868189 -0.09623016 -0.08823 -0.0819208 -0.016019935 -0.06022566 0.04335455 -0.10065561 -0.14239332 0.11985499 -0.02776658 0.040479463 0.08745879 0.16552703 0.048779227 0.1294567 0.04414966 -0.014720629 0.19394068 0.041709464 -0.015078525 -0.08196141 0.039498013 -0.11793733 -0.0894857 -0.049901024 0.04371881 -0.042265557 -0.05766015 -0.008097191 -0.064007424 0.08477655 0.19973615 0.11456143 -0.0027436235 -0.14076877 -0.06207177 -0.14898789 -0.055579145 -0.062307745 -0.08098038 -0.04297477 -0.03670517 0.0663687 -0.07018654 0.06378614 -0.10535749 0.062644735 -0.12428495 -0.034776885
0.05349327 -0.058911335 0.04905214 -0.18896729 -0.096729636 -0.044577118 0.13699822 0.0672505 0.025494056 -0.029117431 0.02530325 -0.13578044 0.035640404 -0.030287817 0.12321087 -0.01697473 -0.03810762 0.08181134 -0.00951374 -0.0031058085 0.014103082 -0.114836864 -0.112546645 -0.11048979 0.054209046 0.03030052 0.08746797 -0.044447817 0.20079657 -0.03376203 -0.18784155 0.05093941 -0.016180974 -0.00064476085 -0.107213296 -0.123488955 0.11586079 -0.013919095 0.07246277 0.007054715 -0.114743866 -0.12654194 0.024420498 0.049757794 0.037518308 -0.08117245 -0.029858237 -0.05634834 0.042282544 -0.0033125961 0.04218081 0.08935871 0.10938466 0.086635455 0.077633366 -0.017446075 -0.012481818 0.06316065 -0.054472875 0.016449826 0.12592353 0.0802823 0.033195168 0.0010762957 0.1986115 0.012680763 -0.2568705 0.057576865 -0.026892338 0.023952661 0.05334104 0.07336891 0.2001418 0.11599875 -0.012402617 0.04963226 0.096844286 0.11160771 0.015111868 0.034782015 0.08566964 0.04212839 -0.055885885 0.084869824 -0.093743764 0.093293585 -0.018808477 0.1594489 -0.13921463 0.06612511 -0.06765158 -0.05275994 0.08617337 -0.17298606 0.1099167 -0.09444637
-0.06910846 -0.0025579378 0.041274667 -0.13866368 0.07055001 -0.03704925 -0.12882 0.030213047 0.012527285 0.026449263 0.058814675 -0.02018489 -0.15236425 0.023461176 0.039177988 0.12705584 -0.011736709 0.19124648 -0.011070305 -0.0041400027 -0.05290599 -0.14016457 0.10124961 -0.017905427 -0.025065187 0.05927567 0.044729296 0.036273092 -0.14744118 0.0494998 0.07605955 0.031678986 -0.062986 0.004849044 -0.14497589 0.102492325 0.04993572 -0.013808722 0.045120988 0.19549534 -0.15577544 0.24113433 0.07196124 -0.019027203 0.04231457 -0.10675697 0.28443435 -0.017166317 0.055500112 -0.020342378 -0.032586142 -0.032336216 -0.057488654 0.0062121456 -0.12126478 0.069782026 -0.060137663 -0.060947534 -0.04529175 -0.075270854 -0.0045886184 -0.01436319 -0.040624157 -0.0008489346 -0.07889597 0.2378887 0.073456936 -0.007423329 -0.033991396 0.07064607 -0.032657966 -0.12818012 -0.133793 -0.025104849 0.025046062 -0.08749464 0.1100678 -0.1035293 -0.035192538 -0.019130154 0.035977382 -0.16303454 0.05037365 -0.17278364 0.040341802 -0.098992206 -0.0051030237 0.021339197 -0.011569812 0.06901646 0.058853507 -0.008734813 0.07725047 -0.10076412 0.043383084 -0.041723356
