-0.066066965 0.028207917 -0.094673224 -0.016509999 0.08175712 -0.010216227 0.08504008 -0.016235322 0.07730412 0.0658292 0.22625445 0.05027107 -0.118528485 -0.05571384 -0.048848193 0.012705928 0.13585995 -0.10097165 -0.016292538 -0.040662736 -0.006485603 0.04205022 -0.23092921 -0.029629039 0.0020363592 0.043795325 -0.06747233 0.10470239 0.07424513 0.1034358 0.028357524 0.054662112 0.0056413747 0.0008220291 0.034439173 0.019453041 -0.19385369 -0.03415268 0.012465513 -0.056211703 0.20846075 -0.021837376 -0.057042304 0.039537996 0.054460175 -0.003834401 0.13103168 0.16799729 0.07530751 0.030088603 -0.003070293 0.1338933 -0.1037985 0.14711721 0.1650068 0.026271552 -0.024876585 -0.025649332 0.05500092 -0.07764448 0.15102814 -0.08019368 -0.017269028 -0.1251319 0.12636654 -0.25739202 -0.049172394 0.11400227 0.08615596 -0.029512191 0.06570515 -0.021863502 -0.108071916 -0.030422017 0.001949327 0.10750954 -0.047402505 0.15035884 -0.18789326 -0.02188303 0.08042668 -0.039039083 0.14765781 -0.232757 -0.08782214 -0.06609334 -0.0543777 -0.08633759 -0.07236496 -0.17216997 0.006461814 -0.03272787 0.027970714 0.036129493 0.18434554 -0.08922548
-0.004371316 -0.067064226 -0.14978285 -0.032889605 -0.061550032 -0.14266509 -0.046675388 -0.050259322 -0.09372047 -0.10595743 -0.09425581 -0.13240902 0.044597864 -0.017816717 0.016154394 -0.08464349 -0.12570296 -0.23215118 0.090983994 0.044455916 -0.038944535 0.030115047 0.0075089675 -0.0059424937 0.025770657 0.06817108 -0.011923777 0.14196922 -0.04741219 0.03299043 -0.018163651 -0.041085333 0.031679235 0.061032105 0.05101252 0.09355349 0.06506743 -0.03217703 -0.06370637 0.20952527 0.10907316 0.034953117 0.10881562 -0.053923786 0.05233482 0.009388938 -0.065865934 0.07128963 -0.12794277 -0.043859694 -0.028248282 0.039584164 -0.060821738 0.06674127 0.038446378 0.096381575 -0.0343889 0.04897225 0.1185928 0.06293279 -0.20026737 0.039663967 -0.008026769 0.04904465 0.07992978 -0.037454013 -0.35937458 0.037421532 -0.009519819 0.025814956 -0.010652391 -0.05383833 -0.20905854 -0.0418678 -0.014557585 -0.069896236 0.011903897 0.06744425 0.12570858 -0.021572473 0.0031667799 0.12873572 -0.042661574 0.09307889 0.0740588 0.08447013 -0.19920436 -0.16627954 -0.12512396 -0.09845205 0.21454214 0.07326774 -0.093784235 -0.058126315 0.02863389 0.1088761
0.02268962 -0.020429688 0.07801057 0.109314546 0.15483925 0.11416038 -0.08651955 0.13371448 0.063311815 0.030339401 -0.10791191 0.10795585 0.05273164 0.0028616241 -0.04608239 0.062652804 -0.014982763 0.129805 -0.02196885 0.06428984 0.0798452 0.01644748 0.011521517 0.05431538 0.04608895 -0.013168086 0.0038825606 -0.026921367 0.11149502 0.0047161966 -0.11570489 -0.039899994 0.111884214 0.049162667 0.006887637 0.19661681 -0.0863644 -0.05192609 0.035489194 0.084424056 0.021734312 -0.15045175 0.07487868 0.06836065 -0.04796766 0.12916394 0.05478239 0.053808708 -0.13054612 0.0046590604 0.04050656 -0.073813945 0.07404622 -0.037327494 0.075106524 -0.05031198 0.086997025 0.0070059574 -0.0575303 -0.051867705 0.0498603 0.06522075 -0.09037077 0.063209206 -0.16609506 0.014997989 0.052898854 0.014440416 0.043789074 0.027790125 0.11711496 0.018051494 -0.29984844 0.026589265 -0.013096141 -0.042765353 -0.006941038 0.11366525 -0.025574487 -0.04209628 0.04136001 0.071175516 -0.05972354 -0.020981085 0.10056516 -0.051680535 -0.020855434 -0.15666457 -0.04187598 -0.118730694 -0.09342164 0.14747478 -0.033569746 0.010064479 -0.2119044 0.05993013
-0.040215183 -0.030833581 0.07835163 -0.0012518198 0.24832076 -0.031148512 0.045808718 0.040398482 0.016848218 0.00494033 -0.0040957225 -0.13129845 0.16077931 0.0068342155 -0.031922024 -0.018466394 -0.0598045 -0.062155068 0.07980003 -0.014647152 0.03100236 -0.108590275 0.092580125 -0.11422943 0.07856571 -0.04973508 -0.028364152 -0.10268334 -0.015523799 -0.16129361 -0.074916236 -0.060398612 0.020514065 0.060051106 0.16160682 0.27347356 -0.0822293 -0.10665173 -0.0030585795 -0.12805392 -0.033001352 0.00096943195 -0.052598998 -0.021147616 0.0722574 -0.11962568 0.08233424 -0.18588868 -0.030051148 -0.025520205 -0.07127397 -0.044330414 0.037748694 -0.0030425438 0.19867422 -0.00051488844 0.018702565 0.01949917 -0.08986501 0.09516278 0.08043595 -0.055182427 -0.039899006 0.014002505 -0.11818378 0.03715495 -0.15447953 0.027320653 0.0025378554 -0.10748192 -0.18297562 -0.05097735 -0.08793172 -0.020008216 0.054331794 0.076897316 0.06642493 0.13882355 -0.10885248 -0.07468752 0.01692917 -0.11832543 0.16308436 -0.18181401 -0.01817084 -0.035282865 -0.08958856 0.10167901 -0.21117099 0.02395687 0.027043965 -0.0834713 0.042731874 -0.010242726 -0.0089930445 -0.12209249
-0.009222884 0.1275999 -0.052600004 0.02642091 0.019827608 0.041572165 -0.09035365 -0.22223577 -0.05969288 -0.05633339 0.032867797 0.05667131 -0.038029708 0.026101042 -0.013714541 0.031147348 -0.049683373 -0.0733301 0.03318528 -0.035484333 -0.014026102 0.028584294 -0.08769704 -0.024825763 0.10578171 -0.001739757 0.043090314 0.07696892 0.08096426 -0.020077536 -0.1034172 0.06377102 0.09415273 -0.03640802 0.054323103 0.17425661 0.10199832 -0.08219955 0.0039245724 -0.14046012 -0.090794824 -0.11142419 0.15334225 -0.06910675 -0.13234743 -0.038942147 -0.12177773 -0.06904871 -0.008649519 -0.04314758 0.005261235 -0.041846003 -0.21840125 -0.009019596 0.1470612 -0.048049577 0.028755797 -0.06236966 -0.058736518 0.07526414 -0.109860554 0.085801125 0.020761454 -0.00014546158 0.07696054 0.013567087 0.051830597 -0.016538188 0.029815763 -0.07568782 -0.010192832 -0.14795989 0.1784679 -0.013775769 -0.037937414 0.050116993 -0.042343304 0.036828462 -0.23416284 0.010245566 0.04911226 0.02904014 0.12303433 0.065816686 -0.10039347 0.030212458 0.08975256 0.041617066 0.12215587 -0.079942144 -0.07199027 0.07576923 -0.03291057 -0.05530343 -0.1747593 0.07111754
-0.084046595 0.079322785 -0.049650993 0.012418607 -0.115433276 -0.10825543 -0.15133074 -0.16998073 0.022920247 0.02763784 -0.034869082 0.016448295 -0.06061543 -0.064278945 -0.050395522 -0.09150488 -0.11810651 -0.042835616 0.01339133 -0.069467224 -0.03181647 -0.11834468 0.020684471 -0.15901646 0.03977135 0.010146892 0.028147854 0.054296147 0.10755141 0.07695623 -0.022631086 0.0017811159 -0.000119932454 0.16541247 -0.036004774 0.06514297 0.2440345 -0.0004383993 0.021950897 0.05788973 -0.20129977 0.070732005 0.10057076 0.016869256 0.04449878 -0.050120447 0.14437427 0.09160091 0.10011977 0.028344013 0.015255549 -0.025451439 -0.104291044 -0.27123258 -0.008586572 -0.026596986 0.007907317 -0.06534098 -0.07821021 -0.07611838 -0.24953657 -0.023593405 -0.03417852 0.056927912 -0.17954502 0.04448649 -0.07925797 0.07899264 0.040882017 0.07396094 0.06797191 0.18816382 0.1756632 -0.048212662 0.039487917 -0.0510892 0.12167701 -0.09625946 -0.16727868 -0.03725688 0.04860152 0.0012713649 0.0568557 -0.015915822 -0.1201147 -0.017534873 -0.12405963 0.018694937 -0.13824981 -0.002075806 0.06740908 -0.048951365 0.037907075 0.06624291 0.100921325 -0.058716077
-0.033115212 0.007911284 0.12503116 0.0427971 0.13797307 0.07610252 -0.018862763 0.00017537775 0.0049555344 -0.056190662 -0.038945004 -0.15648496 -0.047679394 0.043307703 -0.049151875 -0.025469072 -0.06895283 -0.2173918 -0.059119854 0.015140504 0.015003006 0.04972311 0.07149559 0.15288258 -0.030482136 0.065323316 -0.04025783 -0.06657162 -0.22661927 -0.11824831 0.08173489 -0.04562881 -0.016341038 -0.055702705 -0.03603563 0.08220826 0.16289186 0.025380094 0.002761899 -0.09053712 -0.056102235 -0.06436163 0.10497609 0.04601955 -0.062412765 -0.04832903 0.010661438 0.08840529 -0.027664026 0.03780439 0.031886186 -0.022297636 0.019618817 -0.016417429 -0.25493923 -0.11976768 0.027960854 -0.03557208 -0.06894869 -0.022123592 -0.19702193 0.048508737 0.0021261873 -0.10874803 0.13895707 -0.085194685 0.107617415 0.0041822004 0.045362756 0.07786434 0.11887422 0.1200735 0.07550257 0.017146276 0.028592529 0.03381556 0.004300346 0.054703396 0.16487938 -0.043324377 0.051421113 0.014432496 0.00473378 -0.015550462 0.06109992 0.0013846632 0.02618066 -0.020725243 0.009109849 -0.055699922 -0.045871176 0.069544315 -0.003241316 -0.027232708 -0.06667325 -0.047695037
-0.0266856 0.084816664 -0.016253382 0.11620836 0.0011757716 0.03169516 -0.092257075 0.026326986 0.0477061 0.071660124 0.1512452 -0.13446064 -0.054979235 0.04072665 0.0015133616 0.0031536412 0.109426625 0.05474821 -0.016833149 -0.0160246 0.15869667 0.02764066 0.1062664 -0.059866607 0.07052859 -0.012794521 0.0031888117 0.022086028 -0.0049567493 0.08282692 -0.12221008 0.047494065 0.070731275 0.036104396 0.10120766 -0.081106074 -0.054079928 -0.010743595 -0.009604561 0.09508528 -0.13267185 0.034079082 0.10386739 -0.02157322 -0.081386924 0.01529466 -0.025816368 0.0005154684 -0.15518877 0.00821836 0.0264437 0.029106662 -0.056949064 -0.16844341 0.07006825 -0.05810418 0.11870247 0.064138666 0.04260682 0.06984691 0.011864654 0.10951908 0.042547207 -0.11554809 0.2567456 -0.26403654 0.095079914 -0.10739353 -0.020156037 -0.09022507 -0.12374971 0.090570346 -0.13013197 0.009098805 -0.03701681 -0.023600526 0.073149644 -0.090191856 -0.10942281 -0.018475605 0.046654623 0.10428466 0.020358967 -0.052337497 0.07596459 -0.029186495 0.032303523 0.011504211 -0.12754938 0.13072613 -0.14239565 0.11585997 -0.019959386 -0.13170603 0.013918981 -0.23203476
