0.5012296
0.49423137
0.3084742
0.40606135
0.49079755
0.6297459
0.25679404
0.48788354
0.5314842
-0.10922477
-0.71938175
0.2502206
0.45457932
0.5245042
0.45827252
0.1298608
-0.020953441
0.05358207
0.46320263
0.19794737
0.49350825
0.42410427
0.48434222
0.57466507
-0.68746847
-1.8466939
0.5919683
0.6489392
0.5025774
0.34104043
0.4357863
0.50112987
-0.7118176
-0.58036923
0.5283162
0.38255262
0.28500938
0.008662443
0.38463998
0.40366438
0.47393322
-0.14848275
0.443044
0.3150935
0.25908312
0.16541599
-1.2035029
0.3654661
-0.59722036
0.21335459
-0.10701764
-0.5378677
0.45344192
0.40402
-1.2166274
0.2261937
-0.41485015
-0.47187132
0.28516987
0.5503984
-0.47741994
0.74738914
0.41165078
-0.58299285
0.4005097
0.56716275
0.060175486
0.008499973
-0.44500977
-0.17611802
0.39606142
-0.121144906
-0.17958747
0.5518839
0.48241243
0.65221375
0.6354625
-0.9963661
-0.5363057
-0.39083952
-0.60671943
-0.37296906
0.5635701
-0.52780145
-0.61446774
-0.58822376
-0.60486317
0.15234831
0.62075347
0.5253624
0.0016002776
0.46397713
0.59581167
-0.095547676
-0.100063145
0.44792387
0.4790588
0.5436688
-1.0739286
0.016718253
0.28474015
0.63772094
-0.6271265
0.16155435
-0.35989007
0.49159077
-0.6292986
0.030563928
0.39910027
0.45161852
-0.56767726
-0.55501854
0.47507268
0.3132859
-0.40383255
-0.54335845
0.44965747
-0.097970605
-0.49733877
0.57415354
0.53253835
-0.2323286
0.3766618
-0.51366633
0.46722257
-0.5777168
0.443952
0.2668101
0.48334208
0.37634644
0.49473685
-0.46673748
-0.2464529
-0.29153898
0.46175793
-0.462474
0.47897232
0.080683134
-0.53485185
0.33796477
-0.0978601
0.41600463
0.44966602
0.2684301
0.04564515
-0.7501722
0.6057615
0.41861817
0.48137492
0.22539541
-0.21653083
-0.65123963
0.38107964
-0.38190752
0.5217173
0.16685098
-0.054038744
0.42709878
0.54879504
0.31277803
0.599383
-0.44005206
0.11652994
0.26691678
0.11661734
0.23929162
-0.56433773
-0.048651244
0.36984307
0.51997143
-0.54714483
0.49757951
-0.5621477
0.55670416
0.18612248
0.454578
-0.57003653
-0.29110613
0.19061556
0.027043482
0.4189987
0.22630113
0.40467784
0.014958928
0.44185376
0.5552231
-0.23443191
0.5287222
0.6501836
0.42357466
0.34747908
0.6125872
0.57403404
0.6388495
0.27411962
-0.07738361
0.45571098
0.499727
0.5881643
0.504309
0.36347154
0.6409377
0.31187153
-1.4460509
0.42249644
0.2257285
0.5591963
0.4753894
0.4503052
0.46835676
-0.39423266
-0.23587908
0.004329937
0.6270034
-0.24639939
-0.69574285
0.08013702
0.5268811
0.4655024
0.4733277
-0.10328125
0.3770319
-0.32273766
-0.09079687
0.14094836
0.56679887
-0.52210194
-0.544984
0.26665476
0.38278446
0.69564956
0.26661006
0.44542047
-0.86721534
0.5265346
0.5012998
0.24001253
-0.020786079
0.54341453
0.1981818
0.49979746
0.1836812
0.4494488
0.17533852
0.022365347
-0.05448304
0.4093066
-0.11589433
-0.07083653
-0.26279196
-0.228217
-0.43353215
0.28714603
-0.81931734
-0.20019901
0.308416
0.31392473
0.55283433
0.56514
-0.6260533
-0.468914
0.5141141
0.47311613
0.6979422
0.61732256
0.54062366
0.3301481
-0.6604178
-0.43324772
-0.6191829
0.5848201
-0.5816079
-0.06999065
0.24805002
0.25805908
0.43280637
0.048545215
-0.1515157
0.39110938
-0.7566663
0.31847692
0.62155676
0.5256343
0.17793244
0.44929484
0.44507384
0.43267092
0.56074023
-0.024386762
0.37567148
-0.5665699
-0.060008235
0.5951446
-0.33808836
-0.52531666
0.31111234
-0.5796132
0.6078604
0.33045328
-0.0870888
0.62464815
-0.6743195
0.45241475
0.5719249
0.17160156
0.4455458
0.08462772
0.4916156
-0.72920686
-0.48677328
-0.6291491
-0.07647411
0.36650532
0.06652021
0.47588643
0.30277786
0.43777856
-0.80939823
0.5325744
0.25600183
-1.4088614
-1.1113583
0.36079577
0.42197183
-0.521967
-0.6309707
0.50225115
0.51853514
0.52112156
0.17348751
0.46659362
0.27365613
-0.4062652
-0.26189202
0.38655967
-1.356468
-0.5108171
0.47898266
-0.1577926
0.49384618
0.69744766
0.2510536
-0.43845442
0.3667887
0.25909308
0.469932
-0.6866204
0.45585984
-1.1441057
0.40224376
0.045709133
0.27338362
0.3079981
0.21802685
0.14903316
0.47894457
0.73872036
0.47441623
0.61443275
-0.090882175
0.3951607
-0.19141483
0.540247
0.4436475
0.37237346
0.4527934
0.04435816
0.4232671
0.5391929
-0.7398455
0.5719149
-0.6048835
0.36515796
0.7177063
0.7136244
0.43220598
0.30437848
0.5629963
0.4765651
-0.52112126
0.482258
-0.05770613
0.6589989
0.39847648
0.526942
-0.6106129
-0.9659185
0.09656796
-0.091947325
0.80583096
0.43248236
0.4611234
0.38342032
-0.6492763
-0.2378063
-0.6376632
0.46970785
0.045015436
0.44007495
0.26178315
0.32683134
0.45271802
0.284444
-0.5606741
0.440996
0.5223438
0.49827573
0.3947539
-0.03754885
0.4305396
-0.21802203
0.5150581
0.7402537
0.42123514
0.6640081
-1.4183596
-0.46864304
0.67683256
-0.8104823
0.495795
0.6603055
-0.5811731
0.44569334
0.5055826
0.38279712
0.46116552
0.34855664
0.6539341
0.353414
0.47678876
-0.34198698
0.47783646
-0.509215
0.3192039
0.43207243
0.47059172
0.45393756
-0.43491855
-0.15218905
0.48978457
-1.114097
0.27557626
-0.058844358
0.7621321
0.50565207
0.46822053
0.17035943
0.20768157
-0.5235899
-0.8674844
0.55619997
-0.6656623
-0.6057348
-0.5862754
0.40814734
0.47394678
0.4059067
-0.21329635
0.43925482
-0.56712526
-0.67019385
0.3718756
-0.23506138
-0.093082234
0.40324864
-0.56788474
-0.1428277
0.50479275
0.44717893
0.3994751
0.2240645
0.5779495
-0.11318177
0.009701067
0.41045249
0.44754758
0.4604603
0.2482278
-0.14530098
0.527676
0.10482058
0.4046159
-0.6640448
-0.18658008
-0.3013423
-0.30124268
0.2286219
0.68522674
0.22799245
0.0142212855
0.46848252
-0.6392533
0.5984382
-0.6613997
0.591151
-0.5028344
-0.4030169
0.4508709
0.5055831
0.49934644
-0.7293365
0.41763294
0.8327583
0.41162968
0.17791553
-0.06928857
-0.5666488
0.1520239
-0.2631395
0.3449141
-0.5809412
0.1023082
