-0.8305391
-0.10318744
-0.039003428
-0.42158285
-0.08453005
0.24970074
-0.18718848
-0.4094075
-1.2307922
-0.9282685
-0.65385264
-0.3279564
0.23707157
0.12027455
-0.439663
-0.5889737
-0.18276483
0.50742596
-0.08879392
0.085290626
-0.4416981
-0.6404886
0.040399976
0.20471275
-0.03638633
-0.13080905
0.1627625
0.037004672
0.04497988
0.3644074
0.43932524
-0.20244606
-0.2057225
-0.7707476
0.141926
-0.4287314
-0.6209142
0.053408194
-1.100525
0.08535503
0.32651338
-0.64825886
-0.683738
0.4380546
-0.19329369
0.23255818
0.063290626
0.13029005
-0.11176068
0.39584687
-0.58208656
0.19542593
-0.65681684
-0.31769454
-0.20000416
0.34520993
0.41874626
-0.85322225
0.1657412
0.04193204
-0.9199244
0.0066926293
-0.08563388
0.123175256
0.1354098
-0.5771689
-2.0309336
0.28002924
-2.4711146
-0.79620594
0.2504201
-0.03486825
-0.52160645
-0.8015601
-5.2890368
-0.124727055
-0.40283787
-0.37980658
0.23787937
-1.0673536
-0.49224603
-0.50727606
0.216677
0.2528567
-0.95289004
-0.92672753
0.07764429
0.26005155
0.068600364
0.21859379
-0.19543241
-0.46924713
-0.27835953
0.09510634
-0.19199212
0.15128969
0.1365064
0.25708562
0.29031345
-0.72291696
0.44874102
-0.08962505
0.097064
0.46220648
0.08010781
-0.01740582
0.3883845
0.29021856
-0.36596116
-0.1144989
0.03631651
-0.69101495
-0.373197
-0.036309235
-0.6837232
0.43948695
0.34093747
0.21155128
-0.79532504
0.29678598
0.30946696
-0.08479054
0.26485112
0.13486208
0.24715531
0.12352284
0.24774429
-0.3164482
-0.3371363
-0.14168082
-1.0034504
0.15151477
-0.28392226
0.23712005
0.29012245
0.34688324
0.006396539
-0.5661895
0.07834909
-0.036535937
-0.8057399
0.4803111
-0.35425806
-1.14338
0.19566987
-0.61208767
0.056037758
-0.65427524
0.3290705
-0.36817122
-0.5539302
-2.1406684
0.016860584
0.21094535
-0.27186966
0.008978769
-0.1814652
0.24374819
0.08544213
0.09194544
-0.57900214
0.40771756
-0.48865455
0.12232427
-0.2697831
-0.29895625
-0.13212857
-0.73266774
0.013171099
0.09552426
0.32339746
-0.17863825
-0.3155132
0.28677404
0.18340193
0.052134108
-0.65878296
0.16058931
-0.335177
-0.33194515
0.15965444
-0.52889735
0.43066064
0.21010491
-0.29100555
-0.16422851
-0.5226005
-0.81169873
-0.0010952207
0.027968056
0.22170761
0.030280543
0.1204479
0.0055166725
0.15454449
-0.32105565
0.25210607
-0.34339628
0.41221252
-0.09168271
-0.81811094
-0.020908007
0.30553576
-0.1881741
-0.08529374
-0.3995776
0.3579366
0.36012584
-0.7240479
-0.36085662
-0.39912364
0.05494669
-0.093235284
-0.040945627
-0.6448811
0.27974346
-0.09078667
-0.8387959
-0.6576615
0.2144862
-0.47339332
-0.6985437
0.27243468
0.22419806
-0.06701577
-0.0030518519
0.21651487
0.3205907
0.032948412
-0.6920287
0.31203786
-0.87632316
-0.2636558
0.3257314
-0.31794602
-0.45822737
0.21758676
-0.08201892
-0.95788217
0.28024557
0.041667975
0.33819547
-1.1194383
0.42493942
-0.769276
-0.036479425
-0.49398175
-0.9320452
0.043933414
-0.41596374
0.081592046
-0.14411776
-0.5715544
-0.4589688
0.2092182
0.32435197
0.34346962
0.38181522
-0.53337103
0.3519254
-0.48228192
0.43583447
-0.22392032
0.26015857
0.41553503
0.37952092
0.033176925
0.39398292
0.14827654
-0.92068195
-0.06546141
0.17537427
-0.15075861
-0.16704072
0.39971069
-0.104391135
0.09271023
-0.2255137
0.40434623
-0.39054352
-0.06650144
0.16731364
-0.7084606
-0.6167979
0.212175
-0.5446176
-0.8502821
-0.67207617
-0.8163166
0.30396447
-0.09521821
-0.66298795
-0.4999332
-0.34525034
0.41720542
0.06432145
-0.73744357
-0.5826533
-0.33317456
0.11461785
0.0028433355
0.15502737
0.3261143
-0.7431988
0.24270503
-0.45298475
-0.86967826
0.3017626
-0.92565906
0.28104517
0.312413
0.025365645
-0.21244158
0.23276809
-0.78181404
0.2074107
-0.6714354
0.15609351
0.24819611
0.27703723
-0.029960392
-0.4052403
0.06538348
-0.08122269
0.20670645
-0.44268474
-0.8042468
-0.7443164
-0.6884433
0.37896347
-0.876224
-0.80776197
0.46840543
-0.41531068
-0.853499
-0.81196636
-0.22884667
0.34931108
-0.78651464
-0.8748863
-0.53515756
-0.09041001
-0.96054286
-0.7111025
0.3913419
-0.19780171
0.28553066
0.20978163
0.39706162
0.3186597
-0.029375002
0.27323464
0.13363811
0.08331739
-0.3256023
0.11060288
0.39353147
-0.29293406
-0.13300891
-3.0997016
-0.13730562
-0.33744967
-0.718049
-0.0012988698
0.26541105
-0.36368525
-0.30027997
-0.43911234
0.24323796
0.0013915485
0.30482137
0.23029745
-0.29902822
-0.5704921
0.5786395
0.22734149
0.40225145
0.33217525
-0.45016536
0.25922266
-0.4723874
-0.53085184
-0.043786254
-0.050747443
0.15625566
0.31479475
0.050194845
0.11755374
-0.28051585
0.23974223
-0.9222785
0.054758426
-0.006108803
0.18370284
-0.19817372
-0.7049234
-0.41631255
0.28727788
-0.05375594
0.37317044
-0.43803558
-0.45267168
-0.13701198
-0.7068061
-1.630752
-0.18606919
-0.4571374
-0.7899556
-0.30326575
0.030373966
0.15190044
0.26207235
0.016141307
-0.7330318
-0.1772683
-0.987295
0.07541432
-1.0868849
-0.19484161
0.09138039
-0.28580472
0.3831918
-0.42903444
0.34518784
0.12097908
-0.19595283
0.30406567
0.32122633
-0.70529926
0.121815644
0.20937051
0.11870243
0.19935843
-0.22743411
-0.1251172
0.33348617
-0.40379184
-0.34505036
-0.40436342
0.51565754
-0.057667397
-2.99361
0.2256943
0.47258738
-0.115936294
0.4007339
-0.76396763
-0.029282376
-2.6037748
-0.59262836
0.4441505
-0.9231046
0.3705662
-0.18128864
-0.77658874
-0.34894022
-0.51098126
-0.44621095
0.20763166
0.00424566
-0.024895681
-0.0707081
-0.1641169
0.027339505
0.09260447
0.014199227
-0.6329545
0.41567373
-1.0903097
-0.0694333
0.14107987
-0.80064785
0.076296486
-0.49671364
0.17498127
0.33583486
0.21973234
-0.6290989
0.13648914
-0.9187081
-0.76466715
-0.0348609
-0.6519412
-0.08100536
-0.3869942
0.116700366
-0.10285165
-0.2389428
-0.31080163
0.257149
-0.7343759
-0.50002486
-0.6391153
0.52301866
-2.970176
0.3328177
0.22018862
0.2050801
-0.47748327
-0.026532121
-0.1959554
-0.7002499
0.078407474
0.34941047
0.40727863
-0.33582813
-0.42571348
0.21193425
0.051342305
-0.50346756
0.16001342
-0.8211626
