-0.77498585
0.21983704
-0.57102025
-0.28585348
-0.55548626
0.15701914
0.079934455
-0.45706347
-0.9252004
-0.7713098
-0.114355505
0.25305393
0.23216528
0.26117328
-0.07981733
0.04888236
0.19840837
0.30025995
0.40954307
-0.21590611
-0.32251403
-0.7324575
0.12422112
0.14584468
0.2583047
0.14123715
0.092630886
-0.3446834
-0.12820868
0.10039043
0.28824344
-0.5637343
0.031857625
-0.70830023
0.013350145
-0.14461763
-0.22641316
-0.022916747
-1.1810431
-0.35648546
-0.20029534
-0.7391439
-0.38825405
0.2973412
-0.27299204
-0.4235514
0.3034305
-0.10562399
0.1210164
0.45927796
0.37655726
0.23312481
-0.5335328
0.05281675
-0.33229145
-0.42096874
-0.7300678
-0.6175032
0.31966162
0.20498799
-0.7268654
0.11265885
-0.19465236
0.2068591
0.4076937
-0.67455524
-0.90655726
0.06923306
-1.3488668
-0.74340415
0.19995707
0.31298718
-0.5673953
-0.79199624
-0.32123637
-0.5813849
-0.17985626
-0.046814416
0.1188188
-0.4982778
-0.046638332
-0.5761252
0.31836075
0.2364228
-0.6656871
-0.73281485
0.30964845
0.24318682
0.07608753
0.11573051
0.41482627
0.3424491
0.0007549085
-0.34911078
-0.68744016
0.43389213
0.21819027
0.3095738
0.33345047
-0.20598423
0.44559127
0.33369565
0.6349078
0.22688563
0.28271028
0.23771743
0.13900143
0.15074895
0.043406907
0.0070022275
-0.12899844
7.24764e-05
-0.0063197487
0.09956331
-0.68258035
0.14650784
0.3543604
0.23970726
-0.6736626
0.43438077
0.24239975
-0.04023485
-0.052655835
0.08701854
0.3325224
-0.8005328
0.16824846
-0.052441254
0.16101532
0.013842879
-0.8678094
-0.43062735
-0.1521987
0.41035694
0.35574
0.4432688
0.24098971
-0.43109846
0.2814352
0.22656925
-0.96748
0.19636661
-0.5311367
-1.2383469
0.17318879
-0.53294843
-0.036994494
-0.8462759
-0.26287854
-0.16113356
-0.46331152
-0.8715614
-0.14618364
0.35919753
-0.1895094
0.47289014
-0.11733533
0.22786745
0.052815378
0.022854874
-0.51370084
0.4150297
-0.7368033
0.2204712
-0.35165757
-0.41248336
0.023361165
-0.67072165
-0.98296803
0.1649714
0.45764822
0.34293038
-0.15891485
-0.047651324
0.4734063
-0.36128426
-0.60528797
0.14694676
-0.3991498
-0.28877223
0.15359624
-0.6395751
-0.334259
0.43619412
-0.12975228
0.10745181
0.25178382
-0.80531645
-0.40246937
-0.20217948
0.3057795
0.060642764
-0.65920883
0.107613996
-0.26025513
-0.3989688
-0.508789
-0.48557487
0.2941349
-0.34205392
-0.6736927
-0.43954995
0.01661694
-0.13040324
-0.23243779
-0.6298026
0.41415086
0.05801628
-1.3777486
-0.42270115
0.43846673
-0.10330281
0.01485638
-0.13344327
-0.5627288
0.28066394
0.26953936
-1.0122243
-0.65830356
0.022387158
-0.82215405
-0.7177231
0.50963485
0.21609169
-0.034430575
-0.1531445
0.015799277
0.13022572
0.05779877
-0.4499511
0.32576102
-0.88075024
-0.055246633
0.43668798
-0.20163694
-0.69601035
0.20091191
-0.22762738
-0.77821416
0.14515969
0.34781542
-0.35829705
-0.9856543
0.3868168
-2.7405095
0.29722652
-0.3698752
-0.8749344
0.14964066
-0.38111803
-0.2683801
-0.5464409
-0.22041626
0.0033935022
0.122602716
-0.62023175
0.16775753
0.20979464
-0.32437414
0.19167317
-1.5186566
0.41157806
-0.3526039
0.39549714
0.39974535
-0.14066601
0.4483739
0.008158952
0.002814894
-1.0641047
0.2646534
0.19993474
-0.53246623
0.3639374
0.5321613
-0.40213752
-0.29122567
0.099531986
0.43827844
-0.52862424
0.09493201
0.18130767
-0.56160766
0.029362299
-0.064081006
-0.46541196
-0.9695587
-0.11953515
-0.94478637
0.19146924
0.16616206
-0.3986763
0.082923174
-0.23806623
0.41930944
-0.12921134
-0.35693341
-0.7622446
0.3993032
0.033995654
0.048080012
-0.04361376
0.3219127
-0.7351805
0.3528775
0.1962849
-1.1982578
0.110876076
-0.7606982
0.09646594
0.16657856
-0.4486999
-0.4015844
-0.108310945
-0.68545586
0.12739383
0.2556212
0.2588297
0.35203543
0.06904902
0.12868479
-0.38245898
-0.22594501
-0.69936174
-0.21738511
-0.024399512
-0.65478635
-0.5663212
0.38515204
0.16932032
-0.82142824
-0.5091748
0.44548678
-0.53339654
-0.2464149
-0.5867112
0.040070053
0.1867715
-0.70849484
-0.8608112
-0.21191542
-0.6195718
-0.8687206
-0.6995939
0.2521108
-0.05979602
0.15037812
0.14004108
-0.51032394
-0.17147033
-0.6841965
0.12901711
0.19067273
0.0022385141
-0.52962947
-0.008982879
0.38172913
0.5046316
0.12640028
-0.7706044
0.05897985
-0.36856902
-0.65868396
0.038508594
-0.079891294
-0.16420771
-0.5629856
-0.53500444
-0.877125
0.08884215
-0.021531498
0.23879205
-0.03468323
-0.44540596
0.42054692
0.1907742
0.37400344
0.054029487
-0.5550246
0.16883865
-0.48816958
0.30473092
-0.06183568
0.28397956
0.04013301
0.33034667
0.087614514
-0.40262288
-0.50421757
0.20637928
-0.80998427
0.24898015
0.29337358
0.29099482
0.23891766
-0.46611562
0.20406441
0.18519485
0.158445
-0.36124402
-0.31759286
-0.32338294
0.14558308
-0.58257633
-2.081056
-0.04528601
-0.30725384
-0.965604
0.01629951
-0.40564027
-0.53942573
0.3640914
0.17338762
-0.83883625
0.23408103
-0.7883193
0.1827168
-1.1601664
-0.20895538
0.08333073
0.019103697
0.37094134
-0.07907388
-0.039910283
-0.23118855
-0.6208759
-0.7231704
0.23247415
-0.8927315
0.18867834
0.108343884
-0.2591596
0.13835472
-0.2679553
0.21933907
0.26204658
-0.40492773
0.057926465
-0.5607883
0.041062307
-0.122496344
-0.31848055
0.08432861
-0.20739214
-0.19304244
0.29087585
0.34494504
0.009055921
-2.0342932
0.23363596
0.037705455
-1.1007671
0.2729973
-0.5709807
-0.9032195
-0.15325165
-0.7161044
-0.1277868
0.044246837
0.23697808
-0.40440693
0.26287144
0.15646468
0.20809475
0.3640924
0.20749073
-0.14721768
0.3198797
-0.76376456
-0.08502333
0.10079763
-1.2842858
0.27183995
-0.7630995
0.42588323
0.10372116
0.40648425
-0.7702793
0.08338822
-0.96309215
-0.59261364
0.40261325
0.022568375
-0.2919352
0.23636653
0.2348903
0.23058611
-0.03758458
0.14033067
-0.21899137
-1.1415923
0.24967381
-0.68114626
0.36077988
-1.1856325
0.13845272
0.37186566
0.029846027
-0.23820874
-0.35578495
-0.66301715
-0.73857677
-0.18969826
0.25458366
0.32725078
-0.08233817
-0.43462044
0.3114488
-0.5599521
-0.37020475
0.092962176
-0.90589535
