-0.80900174
0.3930263
0.39798138
-0.6277885
-0.0600057
0.42503512
0.27515367
0.16986552
-0.02214071
-0.28931597
0.029238207
-0.08760518
0.3013798
0.351997
0.12519413
-0.70308083
0.18361981
-0.48069996
-0.7205486
-0.6458501
-1.8292602
0.42967296
0.2769983
-0.4751631
0.6205246
0.40358582
0.23167327
-0.66809934
-0.55822074
0.1772848
0.35190433
-0.16057163
-0.12890506
-0.5196832
-0.30395722
0.20599598
-0.3341741
0.35230294
0.22865672
-0.0033188951
0.3082856
0.24286246
-0.63386387
0.008246906
0.28526092
0.3944787
-0.08191567
0.26940957
-0.5950345
-0.65499383
-2.0701368
-0.2597793
0.34704494
-0.057844736
0.19474865
-0.30135655
0.03154764
-0.32036865
0.4811288
-0.66978586
-0.24345893
-1.3974115
-0.26160327
-0.980861
-0.3801165
0.038871523
-0.20893535
-0.47212517
-0.598164
-0.21510719
-0.06818158
0.14622429
-0.046071474
-0.62655973
-0.010871535
-0.45073977
0.5816657
0.25043157
-0.039467275
0.38245603
-0.5756844
-0.6749373
-0.2583025
0.007982494
-1.3008059
-0.7249565
-0.22338751
0.47449335
-0.207088
0.22379218
-0.72744817
-0.38660657
-0.074241005
-0.11086363
0.51482683
-0.736154
-0.2605396
0.36724514
-0.5208806
-0.06895708
0.48991647
0.18967961
0.05251897
-0.2728995
0.42252934
0.37619364
-1.0427643
-0.47691712
-0.37742206
0.122381106
-0.52860105
-0.54080546
-0.6882827
0.22910562
0.4812039
0.20116189
0.023122555
0.14847806
-0.37655166
-0.7312599
-1.8525699
0.43625462
-0.28987896
0.34038058
-0.850537
0.34700638
-1.6958737
-0.035782382
0.2593301
-0.5849254
-1.4710625
-0.027888756
-0.54024416
-0.68637943
-1.2596576
-0.52281654
0.5200452
0.55865526
0.42239
0.16128445
0.09188214
0.19386528
-1.0202179
-0.48209807
-0.09440159
0.031482775
0.23080322
-0.6097941
0.11053851
-1.0282643
0.45379308
-0.23295249
0.005671381
0.4340361
-0.5609618
-0.34672815
-0.6641961
0.34463328
-0.65177286
0.1175244
-0.64910454
-1.1599078
-0.5828653
-0.41177878
-0.5055378
0.19713339
0.15740469
0.29317534
-0.67275196
0.20738265
0.292517
-0.13183416
-0.61049527
0.5666858
-1.7346858
0.44481048
-0.15649472
0.4547793
-0.24088599
0.20448276
-0.039420262
-0.27163324
0.62477773
-0.7085828
0.4759016
-0.082904
-0.48585135
-0.6957868
0.17922795
0.037517622
-0.25199488
-0.53995764
-0.49626288
0.58701336
-0.3495764
-0.011103091
-1.0284165
-0.60962874
-0.28525978
0.3992302
-0.027475333
-0.66901785
-0.06323007
-0.5899649
-0.17685981
0.069400005
-0.51967925
-0.030083308
0.4091409
-0.94130886
0.36155057
-0.16163088
-0.8966668
-0.35545227
-0.874433
-0.7909558
-0.093270935
0.20254952
0.2947721
-0.44060943
-0.06431248
0.15709792
-0.21577637
0.31089115
-0.16549276
0.3392121
0.017049434
-0.20628695
0.28066382
0.13799948
-0.62089163
0.41914937
0.15699151
-0.5246668
0.36527842
-2.185674
-0.6548613
-0.13994472
-1.022604
0.1911178
0.022518482
0.40064391
-0.31792188
0.33141997
0.2518685
-0.7755951
0.43114263
0.32378492
0.19476038
-0.56992424
0.1310359
0.59129375
-0.063098565
-0.2835735
-0.36331418
-0.7331469
-0.14381832
-0.64200526
-0.30724624
-0.11338604
0.3645488
0.16775586
-0.48562282
0.47457016
-0.28140098
0.24151222
-0.6382245
0.52749777
-0.045913827
-0.49085885
0.46883577
0.5355694
0.5973123
0.115255095
0.28036758
0.32781884
-1.177545
0.3610481
-0.050200596
0.15650994
-0.04034329
-1.7970122
0.22955681
0.18419419
0.060551964
-0.2548409
-0.8960615
-0.92838794
0.044115216
-0.16987707
0.47073781
0.2781637
-1.0165265
-0.26954424
0.2880227
-0.30259672
-1.1166035
-0.60875887
0.3911818
0.48194534
0.03959336
0.2965173
-0.77641636
-0.74827814
0.3483536
-0.40379897
-0.75788516
-0.16253221
0.13010217
-0.029790958
0.19680525
-0.14634724
0.4251731
-0.030832704
0.22241078
0.36557165
-0.07084643
0.12363206
0.25219685
-0.19153404
-0.8421507
0.20317079
0.3267153
0.4172914
-0.16650225
-0.69763654
-0.02737713
-0.27941748
0.0057751946
0.2135504
-0.025212731
0.42367393
-0.011850394
0.39964068
0.25209275
0.2057898
0.009125554
-0.7335933
0.25374794
-0.53351396
0.2505827
0.473512
0.16043691
-0.7529239
-0.052996367
0.26834485
0.30129138
0.26997107
0.3332293
-0.18313086
-0.7143936
-0.38605925
0.109007105
0.11728165
0.03538336
0.43876627
0.009804707
0.31404254
-0.030213896
0.44858396
-0.14806898
-0.5016303
-0.62203735
-1.9184664
0.40721473
-0.16235645
0.63901925
-0.3117944
-0.4110731
-0.196828
-0.077978835
0.2503628
-0.69017994
0.014124197
-0.76432186
-0.9530676
-0.6348367
0.20084547
-0.3000403
0.07133868
-0.36412886
-0.5685958
-0.17346193
0.48522747
0.16854446
-0.097248
0.36465514
-0.08673635
-0.42052805
-0.35547596
-0.55667186
-0.4037209
0.2202099
-1.3150474
0.27297488
0.39916828
-0.25360337
-0.5074668
-0.27139577
0.04497084
-0.4554952
-0.3053212
-0.1366277
-0.16095738
-0.6525985
0.5927832
-0.124869555
0.4227866
0.08614057
0.43870795
0.18672487
-0.75849515
0.40349475
0.20196068
0.46545726
0.2911085
-0.042804684
-0.49371848
0.1426045
0.4214489
-0.47892496
0.1444383
0.43482175
0.4258662
0.41768888
-0.8398593
-0.2567151
-0.6953531
0.34405842
-1.0793526
-0.51766527
0.09924942
-0.07640486
0.39717877
-1.8546638
0.55033255
-0.6126833
0.29301187
-0.032991353
0.17895028
0.3471205
-0.33017164
-0.5199831
0.3999529
-0.65031695
-0.14526889
-1.8802322
-0.6252235
0.08924284
-0.1657783
0.4594982
-0.5928153
-0.3282482
-0.25083297
0.27361962
0.331114
0.26718405
0.19229437
-0.2771256
-0.44273815
-0.5780376
-0.2830094
0.40316975
-1.2652606
0.19545874
0.4015726
0.3242531
-0.5109319
-0.51737285
0.1553687
-0.36850113
-0.52558726
-1.0276645
0.19994538
-0.22925112
-0.11840811
0.04157376
-0.6557301
0.3868858
-1.3098772
0.20415233
-0.15325917
-0.67567164
-0.77187365
0.373608
0.054393146
-0.76230156
0.070594735
-0.24098568
-0.56438446
0.13815047
0.3688469
-0.24343844
0.41085705
-1.7729417
-0.5616238
0.24132615
0.2458687
-0.038347393
0.16137445
-0.7510661
-0.57163644
-0.7188716
0.012524468
-0.3952407
-0.6285976
-1.6365367
-0.14468195
0.08718894
0.44476455
0.45160615
-0.84131086
