-0.67039734
0.07310549
-0.35216188
-1.5550064
-0.6597795
0.37521407
0.25507692
-0.052109066
-1.4500251
-0.5743724
-0.039088484
0.2971121
0.19007342
0.370984
-0.029589202
0.30096713
0.18000717
-0.13923419
0.19511065
0.29942408
-0.40191677
-0.4094585
0.43252787
0.21970114
0.03686657
0.043002438
0.14051619
-0.24200056
-0.1047128
0.14978944
0.4219123
-0.026117267
-0.0068731727
-0.44262537
0.2085464
0.09046884
-0.08200237
0.15112357
-0.9064179
0.24406698
0.3154241
-1.9292481
0.023266224
0.2283231
-0.31980404
0.1287264
0.05908369
0.1535684
-0.109853536
0.43876603
-0.0843042
0.09023746
-0.8498808
0.27372268
0.10154313
-0.0723655
-0.47009945
-0.032509338
0.15369613
0.15179732
-0.2012903
0.24602711
-0.0050009424
0.2891817
-0.15121348
-0.14032824
-0.42543262
0.16055882
-0.7668285
-0.6868764
-0.12104631
0.3767381
-0.42176494
-0.5620948
0.36075374
-0.052059047
-0.28600824
-0.18783335
0.22200441
-0.39564013
-0.15308711
0.015702195
0.025321947
0.2440682
-0.7740101
-0.5561453
-0.21658762
0.33655688
-0.32224518
0.2093547
0.44478452
-0.023499912
0.2373357
-0.32767203
-0.2803447
0.2587516
0.45508033
0.27445078
0.060170293
-0.38523498
0.34812874
0.32526103
0.33414134
0.28305495
0.28423625
0.11033268
0.4347175
0.20413008
-0.10947275
-0.007329536
-0.122408345
-0.57928336
-0.2562333
0.15560576
-0.53841966
0.29163176
0.23548208
0.13588998
-0.5106261
-0.020908715
0.27505225
-0.14907013
0.28896704
-0.1279245
-0.10841631
0.15853179
-0.08567356
-0.0031094607
0.090061106
-0.29054606
-0.93573946
0.17970046
-0.039373092
0.38762963
0.1737181
0.28234977
0.35813493
-0.31936768
0.16133593
0.020948038
-0.6516839
0.21435149
0.12051286
-0.5789296
0.2034955
-0.11817976
-0.051390957
-0.7407134
0.3970283
0.22209802
-0.13327652
-0.06843456
0.19918309
0.1558722
-0.097519055
0.5338249
0.20542508
0.1367529
-0.30116722
0.0745957
-0.41607702
0.32720503
-0.1598837
0.2085567
-0.21961054
0.16409297
-0.010916419
-0.28149584
-0.3671336
0.14069891
-0.21504909
-0.20911115
-0.34837675
0.33858383
0.3634691
-0.17064138
-0.2836637
0.022185737
-0.10641928
-0.17895004
0.121631905
0.11075066
-0.022275452
0.1766636
0.0075846454
-0.08914546
-0.0395368
-0.58618045
0.3364929
-0.006689936
0.25003794
0.15340665
-0.4048955
0.070858836
-0.12339326
-2.1808035
-0.531968
-2.0772502
0.20003021
-0.049218904
-0.53864634
0.39425603
0.23792382
-0.08539241
0.09525865
0.2110636
0.43628162
0.04514616
-0.69352067
-0.22249389
-0.25430632
-0.060451254
0.102907464
0.11365696
-0.032603525
0.34752578
0.015176445
-0.51457727
-0.2690407
0.17049108
-0.65657204
-0.4864595
0.23349096
0.12007069
0.034248624
0.058086846
-0.010835256
0.2339276
-0.13706936
-0.18086596
0.20262055
-0.702663
-0.058508027
-0.23324838
-0.11007694
-0.3501977
-0.06425726
-0.04462058
-0.64109534
-0.02162655
0.18610243
0.486649
-0.13674445
0.19194433
-0.19043317
0.34356317
-0.2145706
-0.39530587
-0.0334718
0.17742796
0.31846598
0.26312447
0.03318916
0.05778105
0.12432515
-0.13188666
0.4127533
0.20296066
-0.42785275
-0.08863553
-0.2568173
0.3133023
-0.27766365
0.047450226
0.39248082
0.35158274
0.37904915
0.039014913
0.10897293
-0.6872275
0.3031777
0.30300266
0.24667214
0.06714987
0.23533224
0.31584972
0.05488834
0.011542146
0.28083494
-0.044789765
-0.08394407
0.15633099
-0.39170566
0.043760628
0.07496477
-0.029824924
-0.64500046
-0.37580395
-0.6328464
-0.051744
0.18290569
-0.702694
-0.34721893
0.13921848
0.32523692
-0.093380064
0.06470848
-0.39192283
-0.25535223
0.22986306
0.23785585
-0.09443191
-0.07796038
-0.6217971
0.21233732
0.04128364
-0.742338
0.20338556
-0.64679855
-0.094404325
0.29976806
0.31171355
-0.23078245
0.44158465
-0.62327325
-0.739655
-0.53084785
0.2634937
0.14144553
-0.021585071
0.29322347
-0.21042985
-0.15043525
0.06363066
-0.01756865
-0.13749558
-0.5299339
-0.32658228
-0.26364765
0.30730006
-1.5719415
-2.1767457
0.41227204
-0.2794556
-0.32275888
-0.17108941
0.43257487
0.21857971
-1.0304534
-0.6946144
-0.20385233
-0.01328382
0.059744664
-0.64071375
0.3013241
-0.030795123
0.11604445
0.28063586
-0.04385122
0.37467235
-0.48768684
0.007887415
-0.0029809703
-0.12402112
-0.3266978
0.047098614
0.2982407
0.02465541
0.090615466
-0.55078405
0.1910347
0.38878906
-0.7606281
0.02201039
0.22302784
-0.19564569
-0.091161184
-0.013047978
0.286048
0.13164166
0.19738878
0.13296969
0.097444646
-0.06030732
0.28758353
0.27497843
-0.14852503
-0.33491716
-0.5927744
0.23862566
-0.33156043
0.12981904
-0.23569193
0.023758508
0.37616298
0.13001819
-0.0023390898
-0.13681807
0.03182758
0.15023175
-1.0555052
0.0027866068
0.2175916
0.27685484
0.3373858
-0.31147712
-0.11821531
0.18385294
0.19776739
0.17166214
-0.018956384
-0.09964079
0.08886852
-0.50091445
-0.6812833
-0.078437656
0.2751081
-1.0095506
0.08946273
0.34355155
0.19963202
0.00019810034
0.27417824
-0.62132394
-0.18284689
0.11660919
0.3474938
-1.056818
-0.22408105
0.24960825
0.29810506
0.319768
0.34377694
0.3933829
-0.036285516
-0.13783343
-0.24333604
0.35765335
-0.82444745
0.025947072
-0.04011034
0.23686221
0.052876797
-0.016534492
0.32451698
0.23256369
-0.12811248
0.05960216
-0.3250641
0.21035302
-0.18081273
-1.8638376
0.2789676
0.3628638
0.36652717
0.19123644
0.2836972
-0.04807294
-0.25032103
-0.7695239
-0.13373753
-0.7579699
0.18762772
0.06473974
-0.4461335
-0.13170613
0.11884587
0.0068079457
0.22839005
0.21021618
-0.18524577
0.03346614
-0.117250666
0.357543
-0.046795722
0.3454343
0.024430634
0.28324488
-1.2590848
0.13788772
0.1285046
-0.6963991
0.050596464
0.111942515
0.045395043
-0.39873067
0.10007104
-0.34771425
-0.0021415763
-0.87221885
-0.21745753
0.060081918
0.040802047
0.24263154
0.5426619
0.0787006
0.3577952
0.21814665
0.12999561
0.24977547
-0.47963154
0.011350011
-0.603223
0.27151734
0.08130029
0.29217857
-0.059946965
0.14934908
-0.16918503
-0.039315674
-0.989548
-0.54709053
0.31745946
0.30671027
0.24400903
0.18062595
0.26352724
0.12749898
-0.0027690402
-0.5373946
0.1441656
-0.56050116
