-0.96590775
0.30187818
-0.6301017
-0.28688237
-0.7180359
0.34332213
-0.45639956
0.11915474
-0.84023386
-0.72531897
-0.2525134
-0.039073896
0.21361013
0.08256733
-0.21450867
-0.54337996
0.18194482
-0.19771867
0.4772047
-0.06488584
-0.95703006
-0.44973838
-0.66670865
0.108995445
-0.4956858
-1.1675066
-0.048732806
-4.485035
-0.03893844
-0.02154012
0.30083606
-0.76256794
-0.74861187
-0.90256876
-0.40122882
-0.25585693
-0.38418922
0.19867514
-0.3520404
-0.00694113
0.17259784
-0.12921612
-0.51595116
-0.68468344
-0.42085537
-0.37754646
-0.116188325
-0.4173512
-0.6855212
-0.8763341
0.028240232
-0.24973804
-0.96613294
0.07891044
-0.41053686
-0.5085463
-0.28645772
-0.8209966
0.09759788
-0.12328389
-0.85961485
-0.14049926
-4.497138
0.33649576
-0.25915855
-0.458722
-0.5752817
0.16615199
-3.6110625
-1.010166
0.20017023
-0.07560248
0.32164955
-0.14314832
-0.39627418
-0.5619611
0.33652338
-0.3381456
0.20321555
-0.59564984
-0.13409197
0.20045
0.012020273
-0.13508067
-0.5742828
-0.5836588
0.011815744
0.5393021
-0.3462151
-0.18257199
-0.5160628
-1.083747
-0.037480038
-0.188819
-0.36680886
0.19833413
-0.35608563
-0.312942
-0.21189979
-0.0911815
0.45387223
0.4270657
0.24915926
-0.059233353
0.024128553
-0.20119695
0.14525232
0.35228878
0.16961864
-0.062164746
-0.02762847
-0.547811
-0.1930321
0.22207794
-0.7614302
0.1515764
0.08111187
0.3054827
-0.83211946
-4.1387405
0.010328982
0.07603635
-0.36368638
-0.1759252
-0.21374643
-4.8916497
-0.04132631
-0.42550763
-0.12422816
-0.6043107
-1.242023
0.12307729
0.2770576
-0.014732279
0.0824387
-0.49357864
-0.17137545
-0.38044873
0.013036427
0.23526329
-0.9660789
-0.44959965
-0.46315828
-0.93268484
-0.06514862
-0.41460985
-0.52955544
-0.48616073
0.33848408
-0.7198392
-0.71147925
-0.41047925
0.30188215
-0.33445156
-0.45989192
0.4318142
0.16219413
0.07861985
-0.66526765
0.45264277
-0.8765637
0.266532
-0.4571255
-0.074288994
-0.73312384
0.08707805
0.27476382
-0.26820266
-1.1505944
0.17915918
-0.45848092
-5.85207
0.20376581
-0.0880331
0.41186514
-0.5012034
-0.33679113
0.036756374
-0.04874794
-0.45103973
0.42608368
-0.5339058
-0.732601
0.03882565
-0.4397922
0.12930793
-0.18487795
-0.71629775
0.2205826
0.2607855
-0.21232232
-0.22003244
-0.63750446
-0.5581033
-2.584085
-0.29239905
0.37069955
-0.07780796
0.15357375
-0.43791008
-0.5910052
-0.37950194
0.061880972
0.0014024017
-0.05439589
-0.50436515
-0.27529487
-0.04600525
-1.2597668
-0.72909665
-0.3084984
0.10067615
0.17846648
-0.22725625
-0.114728145
0.16461329
0.12406809
-0.8407627
0.16709161
0.34790838
-1.1665215
-1.045725
-0.20720266
0.57437915
0.0013402973
0.27120546
0.18759567
-0.14486165
0.11751283
-2.7728064
0.03860085
-0.7573843
-0.2718168
-5.1588655
-0.3622106
-0.15397131
-0.47990724
0.42436185
-0.75434995
-0.055471826
0.13849643
0.1308607
-1.0553676
-0.26360834
-0.91739774
0.5077547
-0.042115707
-0.5340399
-0.33613166
-0.38483384
-0.3770214
-0.44728008
-0.11959541
0.40376022
-0.036541168
-0.28335488
-0.027089272
0.36486316
-1.0063958
-0.022289593
0.03288296
0.4355794
-0.57983047
-0.2559225
0.31236574
0.087400466
-0.50917256
0.11711256
-0.06016142
-0.66824794
0.40752554
0.23292847
0.15300336
0.07834157
-0.36615232
-0.7996408
-1.0094647
0.12341927
0.28179103
-0.44686738
-0.3421608
0.25274104
-0.5109716
-0.33351287
0.3175686
-0.7862272
-2.7559786
-0.5654541
0.16104235
-0.06134741
0.07992006
-0.99941903
-0.66932136
-0.016550336
-0.14998534
0.15742517
-0.5361068
-0.5134051
0.021290757
-0.058957454
-0.23268771
-0.27050897
-0.18601796
-0.28111762
0.28467166
0.1714709
-1.0359069
0.08610797
-3.8012545
-0.043635126
0.124996655
-0.6649295
-0.33428222
0.62131953
-0.94299334
-0.6746186
-1.8465492
-0.550929
-2.3204386
-0.5259815
-0.1540699
-0.42167324
-0.087626405
-0.3443285
0.003577042
-0.67383134
0.13025606
-0.5065596
-0.42986962
0.34198195
-0.97724044
0.3229176
0.18627325
-0.24964403
-0.43613362
-0.8046674
-0.3149104
-0.061443977
-0.826737
-0.38635296
-0.40786403
0.4196532
-3.6065807
-0.09104409
-0.51137334
-0.44165713
-0.5080951
0.004909099
-0.50828934
0.43477276
-0.8228105
-0.16286719
0.058230124
-0.18541573
-0.0483517
-0.2740413
0.06651829
-0.22908457
-0.33664602
0.001816248
0.031030893
-0.05873045
-1.2375709
-0.17074348
0.1416672
-0.36212054
-1.4173234
0.13487652
0.43942088
-0.0499792
0.37834972
-0.6955853
0.0650796
-0.43096036
-2.8836925
-0.09653852
-0.19913253
-0.012689976
-1.1205453
0.27861586
-5.3979087
0.11453534
-0.38849103
-0.59602624
0.3155874
-0.24119051
-0.37864214
-0.615474
0.17019357
-0.16934772
-0.6272848
-0.80109334
0.1535958
0.21855183
-0.5073133
-0.77936995
-0.10837948
0.16527867
0.13897528
-0.9125941
0.1260776
-0.42609087
-0.012158512
-0.596627
-0.3650863
-0.6053063
0.12665732
-0.16745876
-0.24476343
-0.022240628
-0.43481043
-0.5694658
0.14767207
-0.5702594
-0.9186206
-0.9003318
-0.13205303
-0.60460275
-0.33458054
0.07275517
-0.38771564
-0.39407843
0.08663563
0.32960132
-0.5802617
-0.116641834
-0.09358458
0.19347256
-0.7121019
-0.2779682
-0.2807095
0.11274024
-0.13244624
-0.7225102
0.34648567
0.15248716
-0.12303549
-0.25903046
0.011847311
0.30852214
-0.18008047
-0.11736773
0.18561919
-0.081343085
-0.51553404
-0.5286241
-0.8335463
0.29276866
-0.86779034
-0.15988648
0.10617607
-1.0029635
-0.52204365
-0.95523226
-0.64521253
-0.5966167
-0.31726563
-0.3885232
-0.8180416
0.062010646
0.642421
0.17798641
-0.016071985
-0.086623035
0.3945347
0.6014963
0.010347942
0.17794663
0.17964591
-0.89531523
-0.11959474
-1.1397369
-0.19636755
0.05527342
-0.16997035
-0.37576833
-0.3437677
0.026106814
0.11420933
-0.33153617
-0.6331801
-0.024620293
0.17744741
-0.3391442
-0.0054763663
0.3034757
0.61050874
0.010365676
-0.49028218
-0.7952479
-0.55288446
-0.34531587
-0.3132912
-0.5680292
0.120966375
0.6269926
-0.35911274
-0.14467831
-0.27088147
-0.09426259
-0.2829237
-0.7743372
-0.0014470108
-0.37709448
0.033207495
0.5096128
0.08330343
-0.008818844
-2.773917
-1.0229943
0.5957017
-0.6111458
