-0.23575129
-0.009295118
-0.16347325
0.12526932
-0.18885481
0.26149625
0.16202126
0.21941186
-0.39254007
-0.2789094
-0.0025057637
0.13399522
0.22625811
0.06725202
0.11164628
0.03979154
0.14693527
-0.17631322
0.23696578
0.07972473
-0.38807487
-0.112953074
0.10724349
0.12412163
0.03028237
-0.077712156
0.065336056
-0.106502146
0.013606237
0.17491348
0.17462163
-0.17073284
-0.084427305
0.080459334
0.2127896
-0.4859121
-0.2442521
0.09676359
-0.3001468
0.023844946
0.080310754
-0.3789203
-0.15762162
0.13571122
-0.0320933
-0.17790805
0.15562385
0.029936701
-0.22382446
0.25065988
0.1849571
0.104082756
0.13387875
0.15334241
0.040581275
-0.26029167
-0.2424108
-0.09644878
0.2356579
0.037218556
-0.46039605
0.034569185
0.065228984
0.2175424
0.21338737
-0.16402945
-0.12517186
-0.11660871
-0.46218812
-0.30447182
-0.21272531
0.11425786
-0.10278423
-0.41971076
-0.028345153
-0.016489347
-0.17732322
0.119696796
0.13032578
-0.27792683
0.09038976
0.15351292
0.07105464
0.156775
-0.18356313
-0.34790146
0.18861581
0.16787861
0.08759092
0.10383803
-0.1546656
-0.027365565
0.110386476
0.03063905
-0.10674635
0.14656837
0.11510217
0.14077535
0.05041709
0.17267811
0.2169984
0.0020027016
0.104585
0.06830696
0.1837561
0.04709151
0.1147107
0.18803681
-0.013580437
0.17074068
0.06666616
-0.04840478
-0.18560353
0.037665404
-0.27011445
0.17284203
0.14887731
0.04392068
-0.43820798
0.24479458
0.16244012
0.004983071
0.17350662
-0.016183045
0.16076334
0.14439352
0.17667526
-0.12780744
0.0070855366
0.033832166
-0.35554367
-0.011654772
0.03797737
0.1926545
0.14877345
-0.26344767
0.16984652
-0.19773185
0.10897544
0.025431216
-0.25837222
0.26268113
0.12660594
-0.411975
0.03158327
-0.13423103
-0.0007733448
-0.3493409
0.09650496
-0.040754035
-0.2830043
-0.036564633
0.13271977
0.07933581
-0.064612046
0.2223527
0.041887853
0.13331023
0.050518733
0.08919025
-0.29471022
0.20014292
-0.046507493
-0.102068424
-0.14734529
0.16657081
-0.07486821
-0.4588596
-0.0026621784
0.13517712
-0.14462852
0.0845258
-0.037187096
-0.10896611
0.19094758
0.044330977
0.09005049
0.032115225
-0.08016738
-0.03762314
-0.04952958
0.06536802
-0.23117572
0.16172926
-0.26353508
0.12445656
-0.19219913
-0.3661636
0.06988137
0.15330625
0.15460281
0.08698074
-0.28094986
0.021815252
0.018160574
0.08454815
-0.13804406
-0.19690827
0.1558332
-0.004396059
-0.16084507
0.1360512
0.18480249
0.08593812
0.06830351
-0.29346466
0.23907723
-0.27969185
-0.22765732
-0.38541982
0.040103894
0.08423064
0.05388494
-0.03186979
-0.1457188
0.07478143
0.12658454
-0.2891501
-0.3601864
0.18065184
-0.3105017
-0.2663393
0.06827437
0.10009564
0.08591525
0.13658494
0.070392005
0.17632452
0.12136429
0.12276663
0.17209022
-0.26523426
-0.057790153
-0.14468327
-0.025119085
-0.07226831
0.015341162
0.045969047
-0.36873958
0.2315608
0.14925852
0.15109342
-0.3059084
0.276392
-0.39779812
0.15632772
-0.12661336
0.030669678
0.09355727
-0.15744212
-0.0757439
-0.08091657
0.03475323
-0.03336493
0.15626432
-0.1301342
0.2760388
0.18787123
0.06838227
-0.05948842
-0.2607898
0.22837321
-0.23937431
0.159046
0.2543715
0.2186021
0.11943991
0.19068177
0.07000933
-0.4774424
-0.059322577
0.11298609
-0.09558862
0.11971841
0.059041377
0.10734891
-0.1495858
0.13251267
0.0868755
-0.19393507
-0.17880937
0.17558871
-0.16252422
-0.08049127
0.0671871
0.04167368
-0.28023493
-0.12651317
-0.2664699
0.13731293
0.13270545
-0.19863269
-0.13253343
0.0834327
0.21948408
0.108970456
-0.0654057
-0.0447522
0.113231145
-0.018044248
0.15360951
-0.010943813
0.09234895
-0.34764537
0.17412533
0.15361086
-0.3468729
0.174659
-0.4887629
0.08904215
0.17541116
-0.12152932
-0.023666078
-0.024839744
-0.38219434
0.12121413
-0.1845659
0.12863648
-0.1979518
-0.24203238
0.09657694
0.08415532
0.068526976
0.15771697
0.056678217
0.05994611
-0.17192495
-0.07739583
0.20037755
0.08014918
-0.3965684
-0.015680216
0.17828386
0.19437245
-0.08584563
-0.059550155
0.21738653
0.16876861
0.10227719
-0.36300078
-0.19283059
-0.15431395
0.095410265
-0.08528695
0.23623021
0.15991528
-0.25964817
0.2030338
-0.07017943
0.19376922
-0.16453822
0.025000801
0.13332169
-0.14247514
-0.06505863
0.059728354
0.24359173
0.0051203603
0.006658615
0.062020764
-0.056382485
0.17166139
-0.46197435
0.103012264
0.07953374
-0.25450394
-0.10550429
0.15695173
-0.46277857
0.116507195
-0.10611471
0.02960518
0.18425597
-0.095482334
0.034987554
0.18542548
-0.18396966
0.027433569
-0.3206699
0.12695795
0.029274883
0.11461648
-0.077981435
-0.012912185
0.19187191
0.19281647
0.10015491
0.021052534
0.060625732
0.037188485
0.049718086
0.09429077
0.118447885
0.18978858
0.25729856
-0.35567012
-0.44982162
0.1266508
0.11821861
-0.13478762
0.17892106
-0.11669554
-0.054594368
-0.43709165
-0.19645815
-0.056338
0.054598227
-0.16869335
0.09323434
0.10680114
0.17043056
0.14961754
0.17389756
-0.2623623
0.13271001
-0.011188754
0.108957835
-0.37217736
-0.007955726
0.17401846
-0.28223094
0.1458042
-0.0030151315
-0.06021644
-0.0569567
-0.03793574
0.06397671
0.11016481
-0.47556424
0.030719237
0.095494345
-0.01002088
0.12918003
0.14918892
0.18371831
0.16040961
0.14221644
0.006341866
-0.17905948
0.25461566
0.047068994
-0.011657123
0.15796526
0.23249938
-0.0013178859
0.08941188
-0.022158336
0.03903052
-0.34531084
0.052991044
0.10546853
-0.45284608
0.029656546
0.029094538
-0.3131801
0.09360188
-0.12962157
0.1072394
0.107812434
0.19020462
-0.086639054
0.054698672
0.07974586
0.08915853
0.11206191
0.25085446
0.12130611
0.16172038
0.11681429
0.1573288
0.16327211
0.15988438
0.072264664
-0.16940823
0.109228715
0.19392584
0.16329904
0.0049079177
0.05977255
-0.35302955
-0.051645543
0.13734385
0.142947
0.062092114
0.29558232
-0.03268189
0.14932185
-0.27003452
0.11451264
0.21762666
-0.2011383
-0.14507005
-0.19883084
0.11597836
0.05902026
0.07655291
0.07850101
0.09530437
0.176513
-0.13587892
-0.30817923
-0.42894664
0.038829852
-0.052551776
0.15835515
-0.3045922
-0.05614571
-0.29603326
0.19517864
-0.31792966
0.22361407
0.055162244
