0.10552011
-1.1551979
-0.5791222
-0.55681765
0.34302163
0.025651036
0.27106667
0.43284202
0.24373786
-0.56440246
-0.4134192
-0.21734725
-1.2209827
0.12433985
0.5732067
-0.35445243
-0.28778782
0.06818512
0.22658719
-0.60915124
-1.2408341
-0.8957889
-0.79065245
0.35548392
-0.78969634
-0.6447468
-1.0695854
0.6509296
-0.18447869
0.40347475
0.06517204
-0.3968268
0.33247906
0.41219932
0.15671733
-0.2951525
0.3351136
-0.54019076
-0.06517363
0.12967376
-0.29047522
-0.40207428
-0.007553895
0.08355423
-0.98673636
0.1751919
-0.7045753
-0.118000485
0.5829026
0.3808338
-0.580119
-0.2768795
0.13417129
-0.8640681
-0.5902867
-0.2748582
-0.07419446
-1.126995
-0.114970565
0.226506
-1.4144081
-0.06931495
-0.9687328
-0.81182367
-0.15714677
-0.3519668
-0.2591103
-0.37192434
0.39832175
-0.58337754
-1.5682265
0.15459694
-1.0367324
0.4319972
-0.8155923
-0.62326884
-0.9586532
-0.29756746
0.59163374
-1.3618209
0.06489304
-0.8915372
0.22838394
-0.007179616
0.6681674
0.20814757
-1.0731754
-1.1928626
-0.15115799
-0.2475493
0.32306206
-0.93072045
-0.025341809
-1.0057234
0.15966064
0.18126296
-0.6771815
-0.5273364
-1.0109656
0.1399725
-0.85757774
0.061498754
0.027127394
-0.30720666
0.15787594
-0.40546298
-0.5939986
-0.012193908
-0.29182002
-0.2090506
0.30070466
-0.63958794
-1.1031171
-0.7692188
-0.01605543
-0.094089985
0.12627184
-0.44169816
0.1776742
0.74331
0.039648253
-0.934847
-0.3869355
0.37473097
-1.2512178
0.2469535
-0.724072
-0.1345662
-0.20371626
-0.9941905
-0.06404424
0.037629552
-0.64408726
-0.06604548
-0.7953637
-0.21098967
0.12583181
-0.21566397
0.27843848
0.08781999
0.1063612
-0.26905003
-0.89085805
0.6103848
-0.42864263
0.37096563
-0.26659265
-0.5424001
-0.058817394
-1.0824835
-0.9124571
-0.07427178
-0.010918368
0.14679219
-0.48156974
-0.17940271
-0.17490298
-0.3494909
0.37246665
-0.27321178
0.3758385
0.41045675
-0.48237666
-1.4444556
-0.495872
0.105517395
-0.7160706
-0.8994996
0.11347313
0.10371463
0.56731576
-0.90877044
0.054276127
-0.18947421
0.16500853
-0.2910681
0.4337913
0.16128904
-1.2295452
-0.2445223
-0.5364621
-0.56248635
-0.6723814
-1.5639632
-0.14436984
-0.8888957
-0.54390544
-1.4218634
-0.93661004
0.22370344
-1.0296472
-0.06048363
-0.37394515
0.36124527
-0.9335715
0.13880497
-0.7887877
-0.66396743
-0.4286705
0.11988087
0.27255479
0.33440986
-0.037810378
-0.8792656
-0.46982113
0.29856837
0.14078172
0.09121657
-0.037095197
0.06384797
-0.8423924
0.021357434
-0.6953757
-1.1881832
0.107990734
0.43212205
-0.00364589
0.30928403
0.23611426
-0.87082195
-0.60116524
-0.025980372
-1.1242559
-1.1583781
0.009089194
-1.300161
-0.43511197
-0.2581539
-0.8263986
-0.16958942
-0.32086217
-0.77080405
-0.48000628
-0.62837535
-0.4889659
0.5089177
-0.60992944
-0.11007608
-0.6645861
-1.0528603
0.26129833
-0.014348296
-1.0456628
-0.67197514
0.10169819
-0.052710675
-0.28268138
-0.48453134
-0.38453016
0.20764726
-0.12872854
-0.23636514
0.4129892
-0.28519174
-1.1103256
-0.44974002
-0.10912487
-1.0293598
0.1280314
-0.25860575
-1.2921817
0.6348182
0.06893143
-0.51332814
0.5266638
-0.34057608
-0.084320135
-0.49922127
-1.1572906
0.084119864
0.67531496
0.21798635
0.23368095
0.13935128
0.18778497
-1.1392205
0.6608341
-1.3930279
0.26081663
-0.040749986
0.26422578
0.33705994
0.33659744
-0.21293026
-0.31160423
-0.27805948
0.46480283
-0.43031755
-0.78727645
-1.1467263
-0.42909634
-0.9461911
0.2793741
-0.99706197
-0.99184173
-0.633802
-0.5751928
-0.29767185
-0.9711069
-0.2374492
0.010133254
0.20505993
-0.051476054
-0.17948008
-0.408049
-1.1227164
0.09057521
0.22213297
0.30214828
-0.15055187
-0.11780718
0.010289774
-1.0890796
-0.04530719
-0.38197535
0.26875782
0.3865937
0.3485207
-1.0992016
-0.4940846
-1.2963047
-0.17661066
0.27026844
-0.2006243
-0.6955772
0.42124766
0.022469563
-1.2474883
-0.33723763
-0.90803427
0.46029356
-0.6290575
0.41423196
-0.6186699
0.29234532
0.22394706
-0.3093598
-0.301647
-0.6938712
0.59527767
0.007431318
-0.58174455
0.3888906
0.43917578
-0.1703202
-0.57590044
-0.06714419
-0.25444058
0.5608886
0.33091137
-0.54054946
0.16244985
0.005396111
-0.5656439
0.23947228
0.5316352
-0.022833882
-1.0176188
-0.30008993
-0.11298565
0.24769206
0.016419064
0.097710006
-0.3746022
0.44147867
-1.1144956
-0.60328287
0.31342787
0.31536284
0.18419522
0.08966266
-0.30737877
-0.14998353
0.005182827
0.3099949
-0.11908625
0.06239189
-1.1803452
-0.057560742
0.023127992
-0.5958231
-0.47769755
-0.9768014
-1.0644233
-0.970779
-0.61174446
0.3767312
-0.23138626
-0.67999816
-0.07756208
-0.5392192
-0.75533336
-0.093047254
-0.3727638
-0.19385435
-0.1957142
0.18818076
-1.1792294
-0.6249621
0.6257147
0.53651613
0.27190402
0.14743139
0.2739972
-0.06540578
0.45677978
-0.053277504
-0.85132354
-0.027915077
0.44343495
0.2437708
-1.1193446
0.074275255
0.04086102
-0.08391486
-1.3303812
-0.8588964
-0.91872674
0.13260074
-0.00814506
-0.93043053
-0.099711634
-0.06662619
-0.53331226
-0.37269813
-0.013284182
0.3200751
-0.08186212
0.14741535
-0.37336856
-0.7442518
-0.5014246
0.6366198
-0.5419965
-0.7143201
-0.87021065
-0.5280321
-0.056013737
-0.43048775
0.53105044
-0.23625974
-1.0368798
0.4411251
-0.945916
-0.3668417
-0.1942762
-1.0400935
-0.0027148419
-0.4641642
-0.62895924
-0.15710561
0.17557384
0.5017712
-1.038527
-0.7573346
-1.1865219
-1.0732086
-0.67883486
-0.34687382
-0.18001527
0.020647848
-0.10059989
-0.005292208
0.099856146
-0.0677837
0.4109568
-1.1782897
-0.15011553
0.3609404
-0.8204798
-0.19935079
0.6107208
0.57607037
-0.24281767
-0.25178564
-0.78835475
0.08207317
-0.34196168
0.29093212
-0.8019156
-1.025995
-0.13913295
-0.5188767
-1.1364825
0.09695825
-1.2549204
0.23474348
-0.17836167
0.4292436
0.14558743
-0.9597286
-0.80093586
-0.24368796
-0.8377051
0.5923866
0.10712291
0.19954509
0.12592678
-1.0947942
0.1670716
-0.04765111
0.02396861
-0.85821646
-1.5439111
-0.5616953
-0.26378062
-1.24014
-0.6157381
-0.39491716
-0.21027282
-0.024900373
-0.69018936
