-0.94428897
0.2029342
-0.17537235
-1.7788323
-0.56682706
0.055898674
0.05630399
-2.0087135
-5.907765
-0.79744923
-0.23616348
-0.40025702
0.19135357
0.23311625
0.37950504
0.15484725
0.09094846
-0.61904407
0.32691613
0.16076753
0.05210904
-0.7156787
-0.083162
-0.061148122
0.024417415
0.13594718
-0.14703017
-0.5183647
-0.24433085
0.009365257
0.41805798
-0.7022292
-0.1634856
-1.294397
-0.15261626
-0.3491938
-0.2612794
-0.2883376
-1.0205117
-0.7123644
-0.6330064
-0.5484126
-0.5635685
0.07624846
-1.2377286
0.1794614
0.25248417
-0.024675986
-0.29008842
-0.10577559
-0.14234124
0.055319153
-0.999251
0.052714594
-0.2503587
-0.5064705
-0.71441776
-0.5100834
0.48872316
0.2869262
-0.8482437
0.24413659
-0.5118091
0.2932585
0.109215185
-0.5379349
-2.7416244
-0.49777344
-5.8821297
-0.653237
-0.20172994
0.35116616
-0.11879585
-0.875094
0.14666353
-0.3647489
-0.7655806
-0.10963893
-0.021528762
-0.46839133
-0.4348646
-0.8298854
0.0024864862
-0.0057246247
0.11745571
-0.7439074
0.25648403
0.40927562
-0.10359135
0.24361444
0.15471093
0.26897177
-0.5375593
0.048677646
-0.50187266
0.4937616
-0.470683
0.11680164
0.3759797
-0.7798391
0.4448315
0.16650267
0.5253932
0.22264309
0.17394714
-0.26558867
-0.022460919
-0.07099575
-0.6818354
0.4317935
-0.11086209
-0.31454292
-0.52866155
-0.3114721
-0.8193796
0.011259297
0.03734627
-0.063221835
-0.99109745
0.25905156
0.18000993
-0.22523633
0.1737799
0.037418332
0.0753972
-2.3837094
-0.035661325
0.078532204
0.33667073
-0.47061095
-3.808004
-0.3489032
0.0537775
0.2860248
0.19116691
0.3304992
0.49050376
-0.5207958
0.01460159
0.06677293
-1.0451031
-0.057401843
-0.56218123
-0.56820285
-0.088227235
-0.2298153
-0.24866511
-0.6539174
0.13093357
-0.37247038
-0.8357601
-1.0889677
0.4627718
0.019631675
-0.5613475
-0.01610912
-0.011148343
0.32431448
-0.23721914
-0.5435369
-0.92004865
0.26978078
-0.4527423
0.034697335
-0.57398564
-0.5608885
-0.26158816
-4.288679
0.23153672
0.47223315
0.24104573
0.019390445
-0.14273824
-0.51802707
0.3018478
-0.5175526
-0.4939499
-0.3319055
-0.5384245
-0.47168994
0.0728695
-0.51857734
-0.52594167
0.3126877
-0.6471615
-0.19809952
0.3312112
-0.8744072
0.20739692
-0.31110254
-4.9133387
-0.017185327
0.068300836
0.018095097
-3.0852656
-0.44791824
-0.65655905
-0.440183
0.0728078
-0.34494904
-2.1438289
0.27277395
-0.093730025
-0.256303
-0.37250695
-0.6074062
0.2593675
-0.17262425
-1.3572795
-0.50528
0.27262932
0.10832753
-0.26574734
-0.38602597
-0.6444293
0.058444496
-0.05538282
-4.1722383
-1.0110452
0.1423493
-0.7694969
-0.8474651
0.4498002
-0.6114458
0.06364406
-0.015420583
-0.21004982
0.3185137
-0.10701248
-0.38497743
0.16200845
-4.546773
-0.48528162
-0.7864901
-0.078934535
0.18059438
0.008622814
-0.15554766
-0.97106487
-0.058584712
0.17257635
-0.1198651
-0.74014336
-0.624415
-0.69282705
0.07672896
-0.12544176
-1.0067816
0.111590385
-0.45944166
0.3039343
-0.30978972
-0.17605922
0.23967016
0.10748911
-0.35280898
0.52379084
0.30276957
-0.44947067
0.14645237
-0.6702906
0.40794694
-0.15404145
0.39942327
0.15996316
0.15793523
-0.20900641
0.035041947
-0.29188254
-0.73581815
0.22539929
0.17307577
-0.66483283
-0.1564654
-0.035086077
0.39668715
-3.3307228
0.22604452
-0.37987396
-0.5356805
-0.61755574
0.1336932
-0.63743055
-0.60221916
0.25252965
-0.58963376
-0.77017605
-0.51032996
-2.6401107
-0.24829485
0.05361238
-0.6130211
-1.5071065
-0.53950083
0.46114364
-0.040799968
-0.8296021
-0.712288
-0.007793199
0.06650574
-0.097822905
0.3949593
0.29171914
-2.7723413
0.18857771
-0.5602313
-1.524372
0.19840655
-0.836325
-0.10957195
0.53517044
0.2534813
-0.35483155
-0.6175738
-0.98978204
-1.2668058
0.01921574
-0.41353548
0.4193192
0.09685573
-0.255289
-0.8013728
-0.111791655
-0.083653964
0.14614485
-0.09778724
-0.6709565
-0.6089656
-0.45499635
0.03562782
-0.7623197
-0.67838055
0.20670454
-0.7791829
-0.27596673
-0.36088482
0.2568294
0.0769882
-0.8681555
-0.8750346
-0.25192186
-0.6602646
-0.84325546
-0.75162876
-0.114154354
0.23412272
0.27724072
0.23771974
0.13142072
0.32858068
-0.16807482
-0.19533186
-0.2952651
-0.5712149
-0.42531306
0.20091785
-0.11119922
0.09242903
0.104123704
-1.0233673
0.22859761
-0.20791252
-2.4228647
-0.085390285
0.30625066
-0.46536383
-0.025557337
-0.32394674
0.008905951
0.22376333
0.41250068
0.045906115
-0.2487889
-0.2679705
0.20950635
0.2388953
0.2460108
-0.11133472
-0.8960062
0.3333752
-0.3972877
0.21153308
-0.22506635
-0.023503738
0.31802762
0.25668538
-0.030120013
0.19978692
-0.5245558
-0.042095546
-0.592014
0.095069855
-0.0060963472
0.06430499
0.54494524
-0.00048514284
0.17369288
-0.10045385
0.038938746
-0.1250929
-0.4762783
-0.14224318
-0.42542967
-0.6827821
-0.56230897
-0.7418657
0.09356213
-1.8703835
-0.5420373
-0.34046942
0.10922944
0.44023633
0.33207804
-0.83088493
0.0077011916
-0.455278
0.22472513
-2.3870463
-0.32880268
-0.004339142
-0.17749453
0.58172053
-0.34094527
-0.6279382
-0.24039562
-0.3461048
-0.72225326
0.16800311
-0.7802023
-0.14665587
0.01736705
0.05431098
0.09438777
-4.9267225
-0.3344424
0.12677623
-0.08494675
-0.29763755
-0.41463354
0.5114708
0.0556298
-0.06171835
-0.0921963
-0.36904454
0.11367446
-0.32328558
-0.33287844
0.076212436
-5.1417937
-0.62693185
0.202491
-0.8824883
-0.11375239
0.2954377
-0.81162345
-0.2975364
-0.5011866
-0.055476688
0.08615552
0.13836329
-0.44249615
0.30004025
0.1911405
-0.38812846
0.38665864
-0.17466156
-0.20695594
0.2720806
-1.4943343
-0.34771213
-0.056353614
-0.40568805
-0.021840787
-0.66522664
-0.016673017
0.30981642
-0.444445
-0.84740174
0.10119646
-0.84141743
-0.5005834
0.11651056
-0.24233113
-0.46250615
0.35074067
0.24542893
0.28530642
-0.43801165
-0.29324692
-4.6079984
-0.91465896
-0.3989329
-1.0194011
0.44323745
-0.56241447
0.25863293
-0.21341398
-0.49424782
-0.347114
-0.6458191
-4.098339
-0.7650563
-0.4114927
0.05896563
0.16345693
0.31974152
-0.5208265
0.21409523
-0.4460531
-0.09543434
-0.19429317
-0.9211961
