-0.69345963
0.26460606
-0.31424505
-0.15065873
-0.2578443
0.17069525
-0.2213807
-0.5810873
-0.80888766
-0.8280798
-0.5639678
0.31514275
0.4866792
0.2908738
-0.2626261
-0.51309764
-0.3896661
0.16841827
0.16014822
-0.13591467
0.22511715
-0.7448316
0.31347573
0.18899544
0.11581598
0.04522544
0.114185505
-0.27601424
-0.46399492
0.51969886
0.20875213
-0.5078997
-0.1420662
-0.5554306
0.21986437
0.007901471
0.49231124
0.15094732
-1.5711014
-0.67071176
-0.22330591
-0.6049681
-0.33778712
0.0019178848
-0.38463938
-0.34453866
0.325729
0.11894913
-0.026785975
0.23490316
-0.41007477
0.25031337
0.25047976
-0.06795471
-0.11264374
-0.31656212
0.037143134
-0.6702631
0.44950196
0.30823106
-0.8424245
-0.14612603
-2.178711
0.39599052
-0.07683921
-0.5457004
-1.2733116
0.10898821
-2.742288
-0.6180762
0.039944284
0.49873132
-0.22782186
-0.7770495
-0.081457734
-0.7950201
-0.26506722
-0.22879975
0.18825912
-0.5521105
0.05742824
-0.5244934
0.27852595
0.09823609
-0.6429862
-0.7566215
0.3181113
0.408989
-0.15510097
0.15135808
0.02082223
-0.6185841
-0.4701179
-0.27744475
-0.55256736
0.3921694
0.35195902
0.35807675
0.14782892
0.25534767
0.40123394
0.21714659
0.25967973
0.1282325
0.0723681
0.33760485
-0.030837962
0.44090948
-0.68408656
0.16214979
-0.35860476
-0.7478231
-0.42314753
0.14292802
-0.649815
0.18132137
0.43841732
0.2591559
-0.8118553
0.34177494
0.25512195
-0.24765725
-0.06653634
0.14069195
0.26814902
-0.59593594
-0.074209616
-0.4068732
0.04255263
-0.25965518
-0.8544177
-0.16946173
-0.13822484
0.095268495
0.33050904
0.4486296
0.38336664
-0.41653576
0.19582717
0.04379535
-2.4447918
0.43972692
0.28643253
-0.6777599
0.23433353
-0.38784742
-0.30586728
-0.87216294
0.33199963
-0.36451182
-0.71939534
-1.3721044
0.39929053
0.28518775
0.3332346
-0.40036887
-0.032597218
0.3425037
0.19770277
-0.062746644
-0.4270055
0.38836715
0.022056336
0.024851784
-0.44259754
-0.6146529
-0.09750843
-0.64990145
0.12665902
0.42285433
0.14607763
-0.22235845
-0.16123603
0.31200027
0.22667953
0.048568632
0.24824527
-0.09754773
-0.3856287
-0.36127332
0.1728382
-0.38202447
-0.23328944
0.2844144
0.1197027
-0.13618116
0.012985366
-0.7026291
-0.2525158
-0.0422505
0.3179426
0.19266723
-0.6427617
0.042871833
-0.75259435
0.07953897
-0.20327124
-0.41123754
0.24042499
-0.47540954
-0.73241055
-0.52107024
0.29717553
-0.22926085
-0.02667642
-0.6810448
-0.4484054
-0.25110963
-1.0385215
-0.40542835
0.30029088
0.069869466
0.20573243
-0.3247008
-0.23335756
0.20580983
0.14800437
-1.2446568
-0.7040146
-0.20325036
-0.6950742
-0.70163274
0.3285303
0.07715048
-0.067416996
-0.036287487
-0.010588011
0.18480928
0.17648304
-0.63621044
0.3428596
-0.73039824
-0.2586614
0.35317782
-0.07204899
-0.5735225
-0.1512282
0.025002003
-0.7352014
0.1290967
0.359364
-0.2679977
-0.5007775
-0.13163397
-2.9352326
-0.21787816
-0.32607892
-0.8580152
0.16790132
-0.3871693
0.09689251
-3.320071
-0.2978294
-0.26166642
0.42535865
0.28175014
0.47725904
0.26004305
-0.21089907
0.11002768
-0.5106979
0.44518602
0.20682438
0.37194186
0.44911686
0.2859122
0.3454235
0.31287363
0.026524803
-0.92624104
0.10431068
0.38045064
-1.0246274
0.27334666
0.34457368
0.29908267
-0.12794541
-0.2348355
0.35728288
-0.044073004
-0.28645745
0.1289584
-0.5927372
0.24637014
0.10405002
-0.38155502
-0.7153872
0.06900783
-0.73848206
0.14614508
0.103036135
-0.84199893
0.04956279
-0.1555353
0.43121597
0.15113913
-1.2548132
-0.68473303
-0.10353726
0.29091182
0.117782
0.17340127
0.015782757
-0.71261775
0.35803208
-0.39880398
-1.0562234
0.30384302
-0.9865718
0.12334446
0.49700925
-0.54606384
0.0059878454
-0.25077632
-0.93876797
0.052405544
-0.7554406
-0.34318942
0.25810468
-0.13439444
0.15134747
-0.30329224
0.2828361
-0.04649025
0.29750526
-0.3278771
-0.7136875
-0.34713972
-0.15280578
0.38224247
-0.8409971
-0.5928724
0.45433667
-0.35254845
-0.6246862
-0.41562748
0.4347948
0.20187119
-0.74245226
-2.900142
-0.31270778
-0.38247153
-0.5593569
-0.5118007
0.2354415
-0.12340055
-0.011084606
0.30571324
0.366625
0.09342603
-0.6194702
0.2139927
0.28705752
0.06801532
-0.38889834
0.21585158
0.3219657
0.09741436
-0.090983965
-0.88676953
0.10829048
-0.42509323
-0.5712593
-0.65250957
0.083688565
0.4623238
-0.37172568
0.26052207
0.32536638
0.38046634
0.3796943
0.35762373
0.11540867
-0.51845455
0.08921409
0.44586125
0.04632769
-0.44457778
-0.7016036
0.45855626
-0.7724899
-0.2610303
-0.20578447
0.20807566
0.4653161
-0.123871535
0.028560778
0.27695072
-0.20322084
0.25225967
-0.9751325
0.42122337
0.1731867
0.27402937
0.40588897
-0.5058192
0.39043805
0.2886483
0.0013446215
0.4014897
-0.3051487
-0.35819247
0.24303313
-0.6661668
-0.77077687
-0.5425648
-0.36328647
-0.6266498
-0.31019685
-0.044819556
-0.008294541
0.16276631
0.19780348
-0.8218781
0.18378712
-0.6564752
0.31341636
-1.5252646
-0.1223956
0.35672417
0.0621524
0.4031379
0.23171902
0.37480265
-0.10174274
-0.26143223
-0.6631387
0.23134625
-0.76183945
0.08133669
0.19355331
0.12219535
-0.056397665
-0.053187694
0.1550241
0.2369941
0.028507713
-0.17100526
-0.45287004
0.28553262
0.04797246
0.2973998
0.21373722
0.372112
0.057617664
-0.59260285
-2.8700373
-0.32840627
-0.82052064
-0.0519144
0.15418619
-1.1429336
0.16360186
-0.28924277
-0.8618594
-0.14642145
-0.56714785
-0.02722247
-0.20486566
0.17947102
-0.17265283
0.062125552
0.18973337
-0.16858372
0.4013434
0.40354735
0.4650372
0.15552811
-1.854277
0.016064858
0.2633863
0.15265396
0.08786565
-0.83402413
0.0907583
0.10939629
-0.09557599
-0.4842709
0.13212004
-0.8354481
-0.4727391
0.27699402
-0.17104165
-0.06376449
0.12260131
-0.0668499
0.01406619
0.17475764
0.029266946
0.13834174
-0.7674539
0.2306844
-0.58780664
0.16537946
-5.940537
0.1675755
0.2644871
0.1247199
-0.6622217
0.34159935
-2.3465633
-0.85580677
-0.0068951854
0.13775732
0.19499363
-0.7732965
0.30169472
0.35598332
-0.42423517
0.1425538
0.050297555
-0.7669403
