-0.48263597
0.29574502
-0.345045
-0.6488185
-0.15131661
0.23311956
-0.047298495
-0.27230236
0.060591925
-0.3373659
-0.043668266
-0.9401208
-0.4330813
-0.18883201
-0.16941439
-1.2027816
-0.6399151
0.017857831
-0.44016114
-0.46995705
-0.24759047
-0.41941875
0.1230327
0.10169065
0.41245833
-0.8887683
0.15619613
0.19193059
-1.0576228
-0.24334283
-1.2213565
-0.51300585
-0.66011673
-0.9132474
-0.67184806
0.10633881
-0.50833666
0.71914524
-0.045953814
-0.61407423
-0.14308225
0.3119732
-1.4516642
-0.8481784
0.07300263
-0.23647754
0.48195642
-0.8729696
-0.17539935
0.34772635
0.12112478
-1.0659438
0.10701301
-0.0053266245
-0.7568068
-0.9687226
-0.17307462
0.36884636
-0.04453335
-0.22717431
0.84485376
-0.92375654
0.28955764
0.30152792
-1.0295194
0.39218962
0.43851563
0.16825987
-0.36729437
-0.8475735
0.25080022
-0.33062443
0.1836494
-1.0039437
-0.6377192
-1.3050935
-0.4224956
-0.5302008
-0.4297289
-0.54272693
-1.0409594
-0.76491517
-0.7585824
-0.011423346
0.23040758
0.65797085
-0.39983898
0.42576164
-0.5069606
-0.26194438
0.31150764
-0.2980352
-1.0647326
-0.1741075
-0.26872325
-0.73931473
0.515722
-0.42942712
0.19584897
0.57049096
-0.23865342
-0.07958568
-0.72925276
-0.0416163
-0.7710137
-0.46765235
-0.5356331
0.20965135
-0.8966518
-0.4132962
0.20035377
0.2362006
-0.02017351
-0.47792226
0.06923504
0.63870656
0.043503493
-0.23746647
-0.2661168
-0.68906945
-0.3462322
-0.041591708
-0.907737
-0.8773613
0.5086615
0.7787285
-0.75471246
-0.70322263
-0.7175456
-0.2669131
0.36863744
-0.18119313
-0.37409353
-0.16397612
-0.5178023
-0.49223697
-0.41131034
0.3834628
-1.2188103
0.051962577
-1.0104239
0.26563993
-0.27334723
0.17270108
0.18801554
0.0473815
-0.11624034
-0.32710266
0.113356605
-0.36609298
0.5486683
-0.680146
0.088584945
-0.15979761
-0.055146225
0.2833297
-0.2941748
-0.30121094
-0.6315406
0.36172813
0.1867979
-0.8855777
0.05887906
-0.54679066
-0.96107197
-0.42002383
-0.17420462
-0.54960835
0.44881186
0.14293914
-0.89402217
-0.25590745
-0.7276252
-0.52704537
-0.22723863
-0.15594938
0.22108483
0.39982268
-0.9079222
-1.1341048
-1.0756325
-0.8014343
-0.15501662
-0.8119361
-0.42062172
-1.0454259
0.21486157
-1.0187373
-0.3536273
-0.06611359
-0.904077
0.31256056
-0.94326305
-0.11326567
-0.2696157
-0.5187482
-0.7884481
0.34159645
0.22946534
0.08863379
-0.8727949
-0.3219589
0.00097225304
-0.6599201
0.033631742
0.004493226
-0.72652423
-0.16167684
0.22042967
0.0778104
-0.34589913
-0.5235201
-0.73223716
0.13424648
-0.74856395
-0.48857316
0.3103335
0.01946451
0.18225768
-0.32623914
-0.33783922
0.54771626
-0.5572978
-0.88243616
0.8057891
0.29924992
0.80594504
-0.6903951
0.060533687
-0.21045054
0.20705672
-0.24827182
-0.06406815
0.507218
0.3094963
-1.3186146
-1.1169025
-0.8748779
-0.15539241
0.035162237
-0.5083852
-0.67961085
-0.67076373
-1.2029412
0.07309607
0.43240082
-0.21425053
-0.15785815
-0.27937812
-0.3484829
0.48201847
0.6960652
0.22552088
-0.96385515
-0.42653307
0.44489947
-0.97824603
-1.0917863
-0.5833079
0.003776269
-0.34536737
-0.92568904
-0.7760005
-0.6966709
-0.73841447
0.53631765
-0.006710975
-0.2397644
-0.31144047
-0.17897741
-0.49916846
-0.015203283
-1.1554025
-0.5043939
0.33155698
0.4701102
0.52058727
-0.7726126
-0.97932416
-0.34613743
-1.0703793
0.09110936
-0.9294309
-0.91195005
-0.9689878
0.045602743
-0.5922486
0.53336084
-0.14514144
-0.24372754
-0.3428858
0.15002507
-1.0665015
-0.36814794
-0.47678715
-0.92990017
-0.40134346
0.3532225
-0.090771995
-0.20290306
-0.54296356
-0.5318793
0.025885526
-0.8723955
-0.17444763
-0.014248711
-0.8579046
-0.3919421
-0.29050687
0.15362553
-0.7315637
0.61634296
0.4428904
0.58011675
-0.31941658
0.1022948
-0.5905244
0.51269114
0.3726994
0.12697932
0.14893414
-0.6439205
0.49899858
-0.98669964
0.44008029
0.41439456
-0.12110421
-0.17017326
-1.141467
0.37900138
-0.95209557
-0.977752
-0.6718416
-0.8437668
0.023008065
0.013966173
-1.2206738
0.21482632
0.32478806
0.61159116
-0.054857496
-0.34408584
-0.91748554
-0.11473482
-0.06956412
-0.116446614
-0.68197155
-0.20801544
-0.654708
0.52273345
-0.17433895
-0.72054255
-0.24496369
-0.66949624
0.2544691
-0.13794607
0.2848619
-0.04009729
0.12919782
-0.11088536
-0.29432848
0.1422038
0.04263565
-0.017475432
-0.031259384
0.7713219
0.17566422
-0.18583657
-0.4872837
-0.5059293
0.15487005
-0.3608389
-0.8808927
0.17056927
0.6152364
0.033907678
-0.6639986
-0.0787064
0.28958145
0.6686858
-0.16592708
-0.3077832
-0.50986886
-0.3952199
0.60542375
0.07048316
-0.16203468
-0.52040434
0.41889873
0.6658517
-0.65704316
-1.4266688
-0.53341603
0.7008423
-0.59798825
0.27408114
0.36503834
0.39911282
-1.0762411
-1.0400944
-0.6928617
-0.37295747
0.60058343
-0.4747228
0.3336805
-1.3094642
-0.88761014
-0.27855587
-0.36556017
-0.52539235
0.647559
0.25415465
-0.89830685
-0.0699169
-0.14939311
-1.079424
0.5713466
-0.37869862
0.02815325
0.37261194
-0.20603712
0.0748009
0.09456413
-0.7585956
-0.8268288
0.4888805
-0.017822675
0.073405616
-1.0548829
-0.46115905
-0.42469123
-0.043628603
-0.92127377
-0.48239672
-0.6013658
0.009990886
-0.9430461
-0.013193943
0.16881132
-1.0442394
0.33027998
0.2893743
-0.91367984
0.13590784
-0.802293
0.3019319
0.4242262
-0.34177035
-0.6422784
-0.887693
0.4089978
-0.37742808
-0.17777309
0.36275902
-0.75445944
-0.25134522
0.262655
-0.18784519
-0.8372648
-0.1790289
0.0025502318
-0.38963902
-0.9471003
-0.21971706
0.49429026
0.27856952
0.57323563
0.26319924
0.051865995
-0.78656435
0.44551662
0.09346474
-0.80790293
0.48326316
-0.3254298
-0.33135444
-0.952165
0.033367433
-0.6565248
-0.8299377
0.34803724
-0.67721283
0.3126292
-0.3720594
-0.30078888
-0.40956408
-0.18564191
-0.31311658
-0.71502256
-0.63794756
-0.1301896
-0.24989021
0.45454395
-1.087036
-1.1143013
-0.92104
-0.7973693
-0.06372269
-0.03385133
-0.3101575
0.4202073
-0.95790297
-1.0836343
0.36422342
-0.8841019
-0.16462067
0.17593706
0.11922284
-0.119853094
0.51367265
0.22858967
-0.21264817
