-0.4210169
0.40560973
-0.07125659
-0.45985356
-0.06636458
0.23023035
0.24189171
0.23774876
-0.12071542
-0.32540298
0.31569165
0.13766503
0.11088644
0.16086587
-0.2127509
-1.162387
0.2510784
-0.573864
-0.49415973
-0.47797206
-0.34482798
0.39545432
0.31890202
-0.0048783594
0.5022477
0.2556956
0.24083397
-0.64997274
-0.4397449
0.09234837
0.34129414
-0.28726792
-0.50843596
-0.9626848
-0.39578688
0.21167499
-0.3714643
0.16563952
-0.06957934
-0.2744921
-0.5692225
0.21806198
-1.5582138
0.085701235
0.23401058
0.35648665
-0.53551185
0.08749552
-0.9635059
-0.44718224
-2.030292
-0.26198864
0.061519764
-0.3539487
0.32063562
-0.44188118
-0.3034124
-0.31798235
-0.06905651
-0.48395407
-0.040082224
0.12050276
0.028190507
-0.45960945
0.40550584
0.19747634
-0.3708519
-0.774649
-0.6350872
-0.29918984
-0.057992462
0.2905412
-0.291954
-0.53010845
0.010446309
-0.48279545
0.27632424
0.19276471
-0.042447504
-0.31985378
-0.1503438
-0.5073704
-0.1058822
0.39196736
-0.69437855
-2.059813
0.111262836
0.6453024
-0.17484415
0.34075782
-0.5338038
-0.29590756
-0.021755505
0.15332742
-0.104702406
0.021569489
-0.15780386
0.036981996
-0.5934358
0.017681286
0.32789406
-0.4269788
-0.43703005
-0.025001094
0.2721473
0.29617637
-0.6951967
0.2817561
-0.36659956
0.4212416
-0.34907785
-0.36275536
-0.53833497
0.19572197
0.2803144
0.22135556
-0.04520118
0.11749824
-0.5424012
-0.03378486
-0.26762065
0.3851174
0.04588861
0.16706109
-0.5354243
0.3360052
-3.3561459
0.106027246
0.25760102
-0.4264643
-2.4196737
0.036377613
0.5165625
-0.4539122
-0.122106545
0.024099713
0.30616242
0.10361328
0.35191837
0.09731658
-0.5427161
-1.7077944
-0.6433522
-0.32016277
-0.027810201
0.354146
0.087464936
-0.11839442
0.25953048
-0.55723304
0.097091414
-0.39782807
-0.33839476
0.3407551
-0.8594786
-0.43255165
-0.61405283
0.17963997
-0.49010378
-0.35014477
-0.42229015
-0.72524786
-0.5009059
-0.20037392
-0.6962203
0.18341702
0.07674755
0.27167782
-0.31975737
0.046008285
0.24356611
0.23096505
-2.3126132
0.21537061
-0.57311064
0.40972495
-0.13895242
0.06487121
0.11985566
0.25685558
-0.13205107
-0.48528188
0.28990158
-0.27406034
0.29879782
0.37183636
-0.5143914
-0.5581615
0.39029455
0.4147047
-0.054913405
-0.5135253
0.049930427
0.3948039
-0.34748498
-0.10300169
-0.64736706
-0.461613
0.37717566
-0.3630639
-0.047690444
-0.12908441
-0.066682085
-0.73705304
-0.086685255
0.14625834
-0.90262043
0.341264
0.39393884
0.035869334
-0.06384094
0.09985138
-0.2573111
-0.01099549
-0.16800547
-0.57024735
0.04818832
-3.8625467
0.27625966
-0.30183706
-0.25856307
0.01744634
-0.12758021
0.105277434
-0.29406533
-0.00914299
0.048320152
-0.1719683
0.07165003
0.13233128
0.043143313
0.034202386
0.10509455
-0.461744
-0.035320614
-0.38642743
-0.13805969
-0.16735554
0.13095967
0.14221625
0.06008934
0.32754233
-0.1256976
0.25476286
0.26294345
-0.551072
0.33179107
0.24919029
0.122251876
-0.57911617
0.012329188
0.2694113
0.06430021
-0.27583694
0.23679051
-1.84134
0.055246383
-0.5970725
0.34823146
0.27044252
-0.08985069
-0.03134438
-0.3660287
0.3030279
0.18705711
0.13799213
-0.19236448
0.31674445
0.21090034
-0.58301926
0.4861438
0.4376265
0.6930775
0.26932377
0.15203585
-0.117530614
-0.14850004
0.35868287
0.4352085
0.100411534
0.061936628
-0.41370395
0.029773112
-0.039233435
0.25768438
-0.30517468
-2.6011188
-1.5683252
0.18451004
0.0741611
-0.056384135
0.35442314
0.07330642
-0.4763412
0.09058318
-0.20977889
-0.68212664
-0.40148228
0.35116872
0.34132212
-0.08947671
0.30124357
-1.4311765
-1.019436
0.43004167
-0.34401965
-0.3743125
-0.0075340965
0.29054105
0.11046522
0.19961344
0.14801398
0.4469208
0.018712372
-0.30349058
0.15345214
-0.46951345
0.22915784
0.26532567
0.10436741
-1.0542723
0.034455944
0.22203611
0.2986987
-0.006845158
-0.6529666
0.11125177
-0.37640646
0.26860243
0.22779615
-0.09169891
0.39593348
0.28888616
0.28446883
0.31979075
0.30379656
-0.28309575
-0.13202429
0.15809874
-0.14910713
0.37714246
0.35680568
0.15960597
-0.26976424
0.042169213
-0.032587316
0.011965898
0.2412311
0.1987274
0.12685144
-0.5772934
-0.22897044
-0.059206337
-0.22085723
0.10606287
0.25629857
0.27705953
0.42618734
0.24097086
0.29113707
-0.32988808
-0.4163745
-0.1406975
-0.7852457
0.12071906
0.040889014
-0.13586555
-0.21136856
-0.64079964
-0.120842256
-0.4242685
-0.2946635
-0.2137903
0.25977972
-0.43406457
-0.26430723
-1.0501474
0.11877671
0.13705485
-0.09389521
0.22225778
-0.25764015
-0.28695032
0.1626808
-0.14483322
-0.24499701
0.44685408
0.20127994
-0.24146794
-0.12992479
0.029863749
-0.35948944
0.14566971
-2.0521724
0.2185601
0.33843273
-0.039575506
-0.38893318
0.19751765
0.10556101
-0.18756434
0.008619828
0.15858188
0.35962898
-0.28652266
0.35199296
0.14456423
0.3047869
0.44643208
0.16173638
0.13307488
-0.5169553
0.1278509
0.1574826
0.2695627
-0.31556636
-1.9412327
-0.34474158
0.16641906
0.3853077
-0.49605072
0.23191929
0.3957664
0.38045403
0.18917304
-0.254679
0.06325557
-0.57154125
0.2301208
-0.6465066
-0.111168794
-0.05619895
0.21833035
0.27865827
-1.7944995
0.58339655
-0.45512772
0.13057697
0.2929761
-0.26996562
0.26418266
-0.3324873
-0.46277633
-0.6569737
-0.5053455
0.06050134
-2.849267
-0.5954898
-0.094150744
-0.28502637
0.033639006
-0.010243061
-0.08574233
-0.01995569
0.12069195
0.37481907
0.40345743
0.3523053
0.053798098
-0.37228623
-0.31022573
-0.19966881
-0.14428718
-0.47786623
-0.127722
0.4259022
0.26087692
-2.2325323
-0.25717717
0.15111387
-1.1161455
-0.5191603
0.42637953
-0.120218016
-0.04876108
-0.19102955
-0.15517795
-0.61961627
0.123681515
-0.39416376
0.2112512
0.07003382
-0.5147766
-0.62918484
0.21918552
0.18405788
-0.6472633
-0.10069138
-0.5179967
-0.46878126
0.20351839
0.121669345
0.07994558
0.26891023
-0.4031499
-0.25976872
0.27465734
0.27587613
0.16748068
0.11226483
-1.1560035
-0.31305227
-0.46097204
0.20701322
-0.08109198
-0.8876593
-0.51364803
-0.3735768
0.04043336
0.28106603
0.21581835
-0.6242451
