-0.25299707
0.24032292
0.4254465
-0.30029613
-0.6582601
-0.057578314
0.28716633
-0.13816345
0.37748992
0.48118657
0.18490244
0.39558938
-0.27268463
-0.12191541
-0.31919196
0.44515964
-0.6721543
-0.30383945
0.3541068
-0.3007317
0.52097225
-0.46370378
0.33699888
0.52283806
-0.43207437
0.105362594
0.49398366
0.44456652
0.5282338
0.05329353
0.12731755
0.6023532
0.4690391
-1.0527261
0.051126715
0.50716776
0.39914054
-0.15562
0.42776188
-0.037072305
0.1809443
0.05967629
0.027379321
-0.5987043
0.2791156
0.14034311
-0.5596716
-0.21415259
-0.25364378
0.25760287
-0.22746204
-0.03677917
0.041301847
0.5358467
-0.38004217
0.33686104
-0.6938444
0.19321021
-0.108991586
-1.2708026
0.30612487
-0.32542974
-0.7218586
0.2103314
0.34167022
0.678638
-0.62526125
-0.29764268
-0.38497558
-0.88385576
0.25626728
0.3816866
0.15836798
0.38338566
-1.002563
-0.087226965
0.5788445
-0.53895986
-0.7454243
-0.19388543
0.44714287
-0.44965166
0.5059958
0.30488813
0.56637067
0.32963625
0.47132453
0.47752622
0.43526262
-0.060079083
-1.2068737
0.47607422
-0.5861179
0.4338378
0.35405257
0.34169775
0.022930149
0.8368568
0.48001254
0.38487133
0.51000017
-0.09992367
0.46643355
0.5072003
0.06254022
-0.15591367
0.3905967
-0.7843567
-0.1883834
-0.4042726
0.40854615
0.5383397
0.33026767
-0.23734356
-0.13078839
-0.033847246
0.35346708
0.49642885
0.07339977
0.31926182
-0.7333087
0.233664
0.3400065
0.27088952
0.32127592
0.45790508
-0.37949246
0.53556585
-0.09098353
0.21412301
0.3021861
0.35552943
0.4524989
0.42577225
0.13596664
0.36951998
-0.030363865
0.3243992
-1.426976
0.29877207
0.545997
0.48853257
-0.895028
0.48782122
0.20925342
0.027933842
0.38538507
0.57501155
0.35350925
0.4779353
0.042913806
-0.6037794
0.548474
-0.014078197
0.3844239
0.488133
-0.37501058
0.4446708
-0.57768875
-0.12392369
0.45017323
-0.5527995
0.5144654
-0.54636323
-0.008219969
0.46364242
-0.5305275
0.07064371
0.53887314
0.47779307
0.09861206
0.4894144
0.39278683
0.41979453
-0.499115
-0.18167605
-0.7191134
0.35906476
0.24981196
0.4499518
-0.64383745
-0.14792806
0.4923686
0.36188072
0.42133912
-0.3985612
0.11421205
0.028319106
-0.09333722
0.12276388
-0.009737007
-0.42694846
-0.7851535
0.0065436307
0.4550202
0.57682043
-0.50923926
0.4341218
0.43493107
0.4505168
0.5319409
0.23790763
0.42485213
0.15838921
-0.50364447
0.63747334
-0.6207175
0.41224355
0.34798333
0.4372204
0.20152912
-0.83202785
-0.011193593
0.7138676
0.32225838
0.3100067
-0.7481121
0.4584426
0.43309182
0.017777042
-0.46480206
0.45787752
-0.530279
0.45385543
0.81365407
0.434039
0.12674475
-0.82717985
0.24232869
0.4854127
0.11731212
-0.5125203
0.47672176
0.30494174
0.59539527
0.3938183
0.22082052
0.23167537
0.52423507
-0.92047024
-0.5663247
0.22148259
0.4692305
0.468662
0.07101617
0.45814267
0.47654247
-0.16903238
0.3195975
-0.54313755
0.37640288
-0.025487665
0.48797894
0.35614038
0.34720746
0.37108803
0.077250876
-0.124960065
-0.53053504
0.3975235
0.28351066
0.3900462
0.3695913
0.44539392
-0.1346367
0.39874467
-0.12779321
0.31484413
0.082276314
0.41443643
0.26779366
0.4314931
0.2300519
0.51997375
0.4060356
0.39778605
0.38261384
-0.8744538
-0.16926168
0.47293422
-0.42378134
-0.47458664
-0.26836482
0.44619435
0.42474887
0.5779085
0.55736697
-0.08067387
0.51534283
0.36014038
0.40636298
0.17567332
0.59967387
-0.26176253
0.39023405
0.42756236
-0.79744345
-0.5958596
-0.51902634
0.45539474
0.59417576
-1.0304363
0.35440168
0.14184995
0.38732085
-0.19400284
0.31762683
-0.4392867
-0.6465089
0.14620966
0.6071395
0.47735524
-0.023224486
0.42779943
0.6152274
-2.43975
-0.18875447
0.4394647
-0.114528015
-0.38641724
0.4847585
0.41462618
0.4183948
0.5199437
0.12537907
-0.47124994
0.53479016
0.27335545
0.42516333
0.38441092
-0.24306001
0.42259035
0.46275064
-0.20159431
0.5065295
-0.07008523
0.6319573
-0.003465891
-0.5063261
-1.6886396
-0.55298406
0.3344762
0.4790644
-0.56584024
-0.51583713
-0.43346334
0.48519406
0.29647985
0.4947474
0.66523427
0.11770306
0.38083246
0.5230534
0.0885856
0.45200303
0.48783714
-0.49079278
0.6342097
0.2726932
-0.06683906
0.7057467
0.39384872
0.1785715
-0.43196112
-0.49889088
0.3547969
-0.6578382
0.4392966
0.45594746
0.2469662
-0.1553373
0.38466415
0.43982708
-0.14416145
-0.009285785
0.4802447
-0.40935686
-0.45228586
-0.05725063
-0.6623963
0.25327054
0.3781864
-0.11232969
-0.04938827
0.47664642
-0.41578752
0.42255777
-0.53314066
0.07486775
0.35564342
-0.9863316
0.43788624
0.31254852
0.21426988
0.39193255
0.43369398
-0.11034791
0.46283644
0.48248547
-0.61266434
-0.08203303
0.5208046
0.31287062
0.5209925
0.37273484
-0.47377306
-0.8726141
-0.7159669
0.43831828
0.44868982
0.32709646
0.34885472
-0.3961812
0.19576307
-0.23952484
-0.5001147
-0.2383691
0.5990795
-0.9487079
-0.7591455
-0.61359525
0.3956505
-0.5855848
0.5934819
-0.5402381
-1.7943554
0.019107072
0.71262085
-0.3609405
-0.4293523
-0.9027989
-0.023149556
0.1856948
0.1223262
0.3855206
0.37030837
0.427838
0.4672638
0.5136846
0.49030668
-0.6995446
-0.5333433
0.30759865
0.468513
-0.112681806
0.49647132
-0.08313736
-0.79970604
0.4931106
0.49541575
-0.024986444
0.492614
0.812105
-0.62877846
-0.33215493
-0.44602928
-0.529778
-0.10844836
-0.08749868
-1.1073502
0.32177573
-0.20860867
-0.54881555
-0.3670213
0.43341205
0.33934814
-0.6369013
0.41411543
0.4809716
0.31877097
-2.0131366
0.40492398
-0.5941236
0.42835504
0.32215264
0.18358412
0.48609003
0.6714837
0.41039678
-0.15418427
0.068075106
-0.13760316
0.124076754
0.0073307226
0.420024
-0.08628313
0.38599893
0.29883197
0.39611077
-0.6044862
-0.11014553
0.1704795
0.37281963
0.48046777
-0.41069797
0.48951584
0.54215866
0.39009476
-0.55021095
0.39482084
0.009476568
0.28138313
0.42949742
-0.085216284
0.43594998
0.4300414
-0.033557422
0.41933438
-1.2053894
0.41127253
-0.36734602
-0.58739346
