0.17828308
0.20719974
-0.25169367
0.21615343
-0.041693024
-0.066979714
-0.011307094
-0.05769113
-0.05939109
-0.1952463
-0.121439606
-0.03839673
-0.31164196
-0.25674108
0.06127948
0.12636602
0.24692374
0.35936195
0.29811323
0.017163996
-0.29193532
0.26734257
0.13445574
0.16857767
0.0069142864
-0.122574195
0.2921732
-0.037080705
-0.075578764
-0.08151494
-0.088023536
0.30466822
0.23399505
-0.16165465
-0.08850875
-0.1950031
-0.28679717
0.20499289
0.1322688
-0.10102315
-0.11754282
0.24984331
0.31661054
-0.19780621
-0.09192534
0.35099265
0.3382626
-0.25685215
-0.24351716
0.23440957
0.002992096
-0.37864274
0.19485873
-0.091887034
-0.1184823
0.12753488
-0.20127666
-0.26249808
0.17995411
0.19327842
-0.3355453
-0.17938505
0.15679847
-0.08481181
-0.0551687
-0.03639831
0.14406718
-0.05054413
-0.08734634
0.1734798
0.18543386
-0.078561604
0.22238606
-0.23780005
0.24787077
-0.084610574
-0.063278295
-0.088481106
0.1805036
0.1674802
0.3205025
-0.12127429
-0.086707406
-0.004860523
-0.025593385
0.2349636
-0.021281578
-0.09040938
0.20317589
-0.12256847
-0.23644687
-0.15037975
-0.11709095
-0.11796871
-0.12084811
-0.1823846
0.2636867
0.24201041
-0.23662718
0.19028346
-0.016036756
-0.091391645
-0.14829376
0.032877896
0.14379342
-0.10135765
0.19977011
0.031325985
-0.08580589
0.33006653
-0.21855742
0.22277004
0.18855092
0.21099943
0.14086907
0.35018957
0.014048358
-0.06532463
0.19796066
0.14538628
0.1888894
0.27438128
0.2592479
-0.091794595
-0.03127238
-0.108429335
-0.120750815
0.23227818
-0.17723843
0.22699282
0.21211936
-0.12735331
0.18641141
-0.08816444
-0.124690495
0.23456237
-0.08012735
-0.015162925
0.16040233
0.015995706
0.23953377
-0.12527531
0.23046106
0.23287988
0.1667588
-0.022314986
0.01853611
0.1975365
0.005358705
0.28873152
0.24581753
-0.19254082
-0.22960266
0.16126026
0.20808369
-0.07996313
0.26416978
0.16798902
0.17470385
-0.062497023
-0.09229857
0.17945315
0.23797362
-0.052646153
-0.05405769
-0.10988246
-0.15192148
0.27527303
0.24145728
0.13877052
-0.070035584
-0.023551468
0.26405138
-0.014791264
0.2695416
-0.029757584
-0.17622562
-0.07362502
0.22776744
0.21592487
0.010691686
0.20350999
0.17520416
0.18267713
0.33191413
-0.10386653
0.13415031
0.22858834
-0.1579769
-0.13918562
-0.21201074
-0.26418734
-0.19558182
0.11030749
-0.22714308
0.22785732
0.16963471
0.2678439
0.14525151
0.080373734
-0.18141207
0.2859688
-0.10448311
0.29614294
0.2249754
0.21798465
0.3321612
0.16100167
0.14049271
0.23255596
0.18308619
0.28613248
-0.16945134
-0.09753555
0.16502933
-0.23281923
-0.05086241
-0.05322343
0.010846188
0.11870428
-0.02728887
-0.2769377
0.24172626
-0.094854146
0.14376119
-0.14262374
0.2598692
0.24504957
0.22434887
-0.047813125
0.21204719
0.24247462
-0.0699219
-0.08558754
0.15208833
0.08550602
-0.25724128
0.19106247
-0.017264558
-0.11922609
-0.19649592
0.29143605
0.096235976
-0.08981648
-0.03300165
0.2676293
0.20274337
0.23643173
-0.280242
-0.32798502
-0.10185123
-0.1353754
-0.11936453
0.2728201
-0.24619204
0.17992012
0.11463851
-0.078434795
0.25040537
-0.25924498
0.20589508
-0.1130587
-0.25560087
-0.04325273
-0.32724157
-0.091545016
0.22694053
0.2217092
-0.03889685
0.2063219
-0.3147595
0.2418325
0.24712525
-0.23029423
0.20766331
-0.24543817
-0.041104894
0.16031605
0.07084941
-0.21600267
0.13731252
-0.05028304
0.16851269
0.23336938
0.22939073
-0.019403104
-0.2514462
0.017640898
0.20498365
0.21208231
0.23580836
0.25971642
0.25770977
-0.113402545
-0.07333534
0.016654763
0.15507147
0.24324808
-0.21839434
-0.17798142
0.25544697
0.33133447
0.23065443
0.24646519
0.29964736
0.227277
0.2960798
0.14821967
0.24367243
0.23356211
-0.031241126
-0.21184847
-0.1350153
-0.045598824
0.012973287
-0.095988154
-0.07679624
0.069252275
-0.17456791
0.24869281
-0.086882174
-0.06317581
-0.10574806
-0.252639
0.29052404
-0.20846988
-0.23031689
-0.039491784
0.2421439
0.2733438
-0.31554085
0.26817915
-0.100888446
0.1309933
0.24169001
0.18059129
0.19034958
0.15403621
0.27111462
-0.17002778
-0.10677734
0.21956068
-0.26147553
-0.22591949
-0.059114713
-0.08126155
0.24613282
-0.20799255
0.0064934962
-0.19884787
-0.17579298
0.22121637
0.24802914
-0.08551237
-0.09545295
0.06632005
-0.30760795
-0.055534434
-0.08794855
0.16908026
0.14362139
-0.17059495
0.17018153
0.26185754
0.27194405
-0.21339902
0.26914126
0.140467
0.18547927
-0.07072603
-0.063600086
-0.07640451
-0.11971227
-0.02101039
0.2543638
0.2370651
0.28348833
0.15917717
-0.06389664
-0.053834192
0.18873875
-0.14270979
-0.042791016
0.26669773
-0.10320147
-0.22035114
0.22694685
-0.043908726
-0.072509885
0.22738098
0.19964692
-0.10219705
-0.07473112
0.27571592
-0.086562105
-0.03685215
0.26850244
-0.054211624
-0.15804753
-0.050062824
0.25673646
-0.21627289
0.08342032
0.27590898
0.26574257
-0.010593341
0.11834633
-0.071077935
-0.0073488886
-0.10155439
-0.0610026
-0.044088818
-0.18040536
-0.10747836
-0.048356686
0.18727373
-0.08063525
-0.021120628
-0.14088383
-0.24606429
-0.038420063
-0.07662306
-0.2969757
-0.19688532
0.24422829
0.24838997
0.2389393
-0.0945245
-0.06749344
-0.3234384
-0.21237074
-0.22898395
-0.061997484
0.03993425
-0.30241424
-0.15554073
0.12620117
-0.04065476
0.23865537
0.32330716
-0.09384687
-0.049579542
-0.08578616
0.20409176
0.18692726
0.21929118
0.20320013
-0.17111926
-0.1321364
-0.13663897
0.0017777542
0.20667297
0.16750169
0.24967337
0.25246248
0.23670894
-0.036876287
-0.122698255
-0.36428404
0.30493906
-0.075359456
0.21762456
0.041773837
-0.32310927
-0.2108385
0.27141622
0.22095923
0.24521565
-0.21350296
0.22996034
-0.16316432
0.30997846
0.008183752
0.15232536
0.20541094
0.16213216
-0.039191976
-0.21621823
-0.08030202
-0.19110872
0.16784866
0.17070717
0.18868682
-0.04223048
0.15861078
-0.18998168
0.21994951
-0.2450174
-0.23115027
-0.080604315
0.2326672
-0.29904997
-0.12203023
0.36426193
0.20998402
-0.03450226
0.1821181
0.15477222
-0.076787785
-0.1403116
0.11447841
0.19979925
0.1468445
-0.039920572
-0.07226003
-0.18574414
0.21075751
0.2940631
-0.11579111
-0.087077
0.19746538
-0.09207685
