-0.21205707
0.43082732
0.21639267
-0.39323178
0.26670197
0.19665276
0.03077356
-0.39331102
-0.27787566
-0.3467519
0.065614775
-0.19877344
-0.34162056
0.054605275
-0.3837753
0.01848423
0.26000488
0.14927371
0.21634422
-0.28528598
0.42378855
-0.11388667
0.45411766
0.19159216
0.3694999
-0.29292563
-0.40556908
0.31645977
-0.3612454
-0.2803842
0.28525272
-0.2066003
-0.37638012
0.33161992
-0.2877206
-0.2794143
0.20785256
0.3225675
0.3122209
-0.2379266
-0.26214218
-0.15843552
-0.27576274
0.30046234
-0.3403382
-0.6687751
-0.49232316
-0.011266579
-0.03636919
-0.52462894
-0.08537275
-0.21489821
-0.31237116
-0.50765234
0.29465201
0.47103888
-0.3987408
0.19019158
0.46946582
0.42940155
-0.2253772
0.071299925
0.058233574
-0.08719767
0.06839971
0.23572181
0.22310671
0.32389542
0.08108612
0.3240883
0.17499092
-0.3132708
-0.18978043
-0.16456158
-0.19858499
0.40345302
-0.34990865
-0.44342738
0.06510463
0.39797792
0.021195617
-0.3338153
-0.2702447
0.24656479
-0.4418917
-0.12622985
-0.39294845
-0.062380914
-0.31192595
0.19341262
-0.3057543
0.09664064
0.23969287
-0.1690915
-0.1805156
0.44046485
-0.48014385
0.24491143
-0.35277066
0.24902649
0.4274887
-0.20588428
-0.28848928
-0.15264295
-0.22464709
0.25071567
-0.31228372
0.22819164
0.40498874
0.32178953
-0.38328916
-0.33590567
0.3664396
-0.4585964
0.099385105
-0.26751465
-0.41284075
-0.4496676
-0.53226054
-0.45690015
0.054126907
0.3316819
-0.3229988
-0.4171954
0.3698818
0.28964344
-0.37888837
0.047110964
0.24462469
-0.43126252
-0.21939036
0.044220608
0.22716776
-0.2133153
0.27996477
0.1451915
-0.13863602
0.27574214
-0.3142149
0.033143606
0.29116103
0.3415051
-0.25187412
0.3541566
0.2198693
0.023287652
0.4484938
-0.30107936
-0.37167442
0.29544064
0.17429212
-0.035186782
0.29882404
0.36049977
-0.26023495
-0.3119349
-0.15645182
-0.15319575
-0.19830462
-0.029606575
0.42234087
-0.21404994
-0.34015164
0.17396547
0.3660617
-0.17382747
0.35794124
0.33424625
0.2992794
0.21565418
-0.2332734
0.17967643
-0.29792768
0.38373485
0.21054026
-0.17187178
-0.21779072
0.19704509
-0.48244718
-0.2769561
0.20524019
-0.21983822
0.19440424
-0.42022875
0.4341448
-0.1564534
0.44172063
-0.26552895
-0.51525956
0.090090945
0.3755929
-0.43100396
-0.51567
0.2907013
0.31950223
0.39776206
0.3930687
-0.44593224
-0.43852866
-0.44835424
0.1410688
0.3071669
0.2607578
-0.014743643
0.34347022
0.08099371
-0.339807
-0.33384335
-0.5354114
-0.24764645
0.0693747
-0.19818157
-0.18825302
0.3454837
-0.32923147
-0.21180223
0.46132037
-0.45582137
-0.29064503
0.059850346
-0.2085229
-0.21646942
-0.37663487
0.4340415
0.3808527
-0.502811
0.322054
-0.17638355
0.27599365
0.28332463
0.025760932
-0.3478411
0.023630878
0.22345452
-0.27331164
0.2241439
0.11473472
-0.2590153
0.3206342
-0.16756377
0.36483487
-0.449636
-0.11614351
0.18577369
-0.4541688
0.37093672
-0.423101
0.07957152
0.33340505
0.22819637
-0.19295864
0.39180487
-0.27522373
-0.33568645
-0.4528912
0.26347297
-0.29730478
-0.017693179
0.16867603
-0.113624744
-0.2694978
-0.263371
-0.17822509
0.2525952
0.05592316
-0.07531962
0.28400487
0.14873773
-0.30106166
0.25375977
-0.41271105
0.21853103
-0.24715301
0.39312792
-0.24575324
0.35039946
0.344266
0.3448231
0.26729614
0.47782558
-0.20703164
-0.12905215
-0.22613582
-0.14782113
-0.30023465
-0.3529928
0.28873473
0.3931019
0.40089643
0.40145412
-0.38881087
-0.19015223
0.25164738
-0.013539506
0.2598944
0.38185072
0.268323
-0.13005467
-0.18551134
0.36513728
0.25521666
0.25268742
-0.28415364
0.036382586
-0.14152765
0.3308044
0.21233878
-0.27549142
0.4225482
-0.020689236
-0.38392803
-0.04856101
0.24344397
-0.23516034
-0.23684989
-0.26924956
-0.33923233
-0.4658552
0.2950461
0.13927479
0.02617748
0.29949495
-0.021653472
-0.2797542
0.2053562
-0.36704117
0.41800055
-0.21453655
-0.5282788
-0.29179266
-0.48531252
-0.46008927
-0.0054944707
0.26658446
0.2584571
0.36734053
-0.3520144
-0.23343663
0.17229906
0.07169513
0.20250437
-0.16979112
-0.29477143
0.2635388
0.3151062
-0.26141998
0.29527104
0.41251948
0.32813698
0.2896192
-0.39498904
-0.2068409
0.19342276
0.41069052
-0.29570958
0.060335148
0.0043878234
-0.40681985
0.45249102
0.2188764
0.26355845
0.33375528
0.25324833
0.40515655
0.22805487
-0.20222218
0.017037867
0.15775546
0.03050479
0.28525123
0.24362676
0.07986703
0.11823507
0.2077602
-0.35496902
0.2472561
0.30202758
-0.15671813
0.054093618
-0.4331618
-0.38117552
-0.39182156
-0.279775
-0.48940182
-0.0378538
0.055340096
-0.13292874
-0.022916488
-0.27775097
-0.40438062
-0.2815767
-0.34020853
0.04043654
0.39916176
-0.37649485
0.23149219
-0.23225656
-0.32020718
0.101881936
0.4341267
-0.22275461
-0.18659617
-0.10551381
0.295108
0.40200892
-0.2717999
0.27678633
0.26194203
-0.3360813
-0.2728586
-0.23589104
0.39214674
0.1955464
0.42249238
-0.3498311
0.32391116
-0.19144557
-0.34592414
-0.30456585
0.1953267
-0.34415808
-0.2522638
-0.3265858
0.08745826
0.119772725
0.28939408
0.466139
-0.254777
0.31965846
0.023055173
0.32295498
-0.35428417
0.3400386
0.1977318
0.3948397
0.3516031
0.42933452
0.269437
0.26705495
-0.32728732
-0.31671223
-0.26749524
0.27346987
0.064557746
-0.2122039
0.098759264
-0.16658325
0.004303009
-0.40328735
-0.40319398
0.23404197
-0.3978055
0.15821826
0.32432613
-0.29457468
0.24837793
0.01661354
-0.25680286
0.3546194
0.053856526
0.088199146
0.018853018
-0.31515548
0.065784276
-0.21737991
-0.13393928
-0.40095982
-0.3314614
0.27032435
0.48946908
0.24648935
0.39726776
0.07022231
0.16303575
-0.28829223
0.45386004
0.29586756
0.15051915
-0.36827454
0.16960602
-0.28718668
0.04352086
0.49966562
0.3496106
-0.40929285
-0.021103406
0.199333
0.35660303
-0.3462949
-0.61983013
0.18222009
0.5060667
0.06318829
0.20689233
0.40207103
0.23601793
-0.3449992
0.059450746
0.32093117
-0.3169541
0.2928517
-0.12818195
-0.4681146
-0.36475298
0.4280857
-0.081916176
-0.32514274
-0.22033174
0.11818768
0.2944603
-0.8091744
-0.14266205
