0.2558448
0.22806358
-0.24837628
0.29222852
0.36307874
-0.3441116
-0.04024727
-0.09258326
-0.14565127
-0.19763762
-0.10778163
-0.12305079
-0.3325029
-0.25008816
-0.2736391
0.16638571
0.328246
0.36928767
0.28335327
0.19895627
-0.37768236
0.28516886
0.08081897
0.23498334
-0.026867392
-0.20665668
0.38768485
-0.13670531
-0.062808774
-0.059630297
-0.07460378
0.30547577
0.29303756
-0.34723958
-0.22270894
-0.23854999
-0.32054833
0.26877818
0.21815579
-0.38906598
-0.13009353
0.29805794
0.34075242
-0.057908732
-0.21823728
0.4002283
0.349226
-0.18783474
-0.06640709
0.3599802
-0.2677078
-0.37860447
-0.29163647
-0.12405222
-0.23665233
0.20059118
-0.36314654
-0.3442752
0.25039813
0.26079834
-0.3131094
-0.29513747
-0.08416495
-0.1825256
-0.22817396
-0.07917028
0.2504161
-0.051830746
-0.37900433
0.23634209
-0.03373701
-0.19843918
0.2906439
-0.46894678
0.30891135
-0.1325175
-0.16852039
-0.14385755
0.20691477
0.3165865
0.29520264
-0.08693324
-0.37424496
0.17942037
0.17236406
0.28502554
-0.12393463
-0.25455824
0.30152288
-0.058837477
-0.33235645
-0.29726675
-0.14033835
-0.06469205
-0.11232806
-0.17983088
0.35901567
0.26939613
-0.19835068
0.2704959
-0.28439423
-0.051922582
-0.26179436
0.2814498
0.21947786
0.17386734
0.20434801
0.0018734483
-0.13631034
0.049104262
-0.26566282
0.1568253
0.24754363
0.2407245
0.20161043
0.32409462
0.018951703
-0.23311588
0.2875225
0.2958256
0.26805922
0.32684183
0.2527698
-0.2812166
-0.05141431
-0.06782363
-0.13555922
0.23697439
-0.073315814
0.34285584
0.22067107
-0.1957725
0.31638417
-0.08980165
-0.1144766
0.21575628
-0.18261641
-0.23383588
0.23725328
-0.17848231
0.31464383
-0.18240194
-0.0046891496
0.2106371
0.19196275
-0.03445049
-0.06503232
0.25892574
-0.059606288
0.29225016
0.39379242
-0.12335239
-0.16482483
0.25077128
-0.1798814
-0.11204168
0.3691158
0.24770102
0.29147512
-0.19175693
-0.13439527
-0.027051693
0.05951705
-0.053384006
-0.32206026
-0.2530657
-0.23196404
0.21627878
0.33811364
0.26843008
-0.03713136
-0.04612947
0.09024119
0.035739303
0.34357205
-0.14022514
-0.08768693
-0.22662637
0.28854018
0.3805484
-0.2851321
0.31062162
0.23779836
0.24977943
0.42117116
-0.2297528
0.2505461
0.25362393
-0.06458809
-0.15665922
-0.1354905
-0.37404472
-0.2224557
0.21199536
-0.30617917
0.2851699
0.15792583
0.3335244
-0.30537555
0.2198901
-0.27695763
0.34470773
-0.20127733
0.3226897
0.3088082
0.19789647
0.3928301
0.14115964
0.20457815
0.22287592
0.27675158
0.3422858
-0.3629193
-0.088817194
0.20686351
-0.09972008
-0.16718464
-0.020112017
-0.05844068
-0.0467135
-0.072523
-0.25132248
0.2848392
-0.18845177
0.23779817
-0.16292144
0.23964848
0.2400032
0.30406556
-0.0702565
0.2500017
0.18634434
-0.15759613
-0.12352619
0.24562559
-0.03275758
-0.28762245
0.24133481
-0.028269183
-0.18180895
-0.30815235
0.32933915
0.1444081
-0.11206344
-0.3083446
0.32472444
0.2984027
0.28836533
-0.29917657
-0.18913507
-0.23753351
-0.37748045
-0.21841943
0.29953572
-0.2765746
-0.23635943
0.20772356
-0.082623616
0.26534495
-0.4071052
0.20570223
0.14389919
-0.1256763
-0.0367922
-0.3075553
-0.17655851
0.2928461
0.20624232
-0.20356613
0.26855692
-0.3543952
0.311137
0.29961106
-0.29522577
0.25983474
-0.15111582
0.1466526
0.19910724
0.1968692
-0.17993149
0.24324082
-0.15461473
0.17178951
0.3243762
0.2930423
-0.06323225
-0.31671396
0.20137748
0.3054028
0.27124253
0.28224352
0.33349735
0.2947761
0.23290421
-0.0041768313
-0.07644378
0.19654472
0.2790642
-0.2228275
-0.3460641
0.32981533
0.26689532
0.24744238
0.25045007
0.3017687
0.25285146
0.3175536
0.22918701
0.24946609
0.25349858
-0.17816985
-0.34426224
-0.2133655
-0.24750069
0.24245441
-0.24379843
-0.28534338
-0.09229433
-0.14693238
0.30827355
-0.07164402
-0.28290704
-0.2280645
-0.20964107
0.30139688
-0.23175003
-0.28412542
-0.06088622
0.29019848
0.34737238
-0.293454
0.32884586
-0.15897967
0.16167274
0.29781345
0.25989583
0.03920214
-0.09665488
0.28068325
-0.3050409
-0.19545472
0.3072925
-0.14594066
-0.24485828
-0.10586092
-0.19253698
0.19643803
-0.25794554
0.027026657
-0.35870954
-0.068354934
0.27526516
0.31485632
-0.043257095
-0.19312102
0.17518581
-0.3719991
-0.16751681
-0.18727337
0.30746266
0.17059574
-0.32826743
0.25810406
0.27172592
0.32630363
-0.20794943
0.32904494
0.24216947
0.15006065
-0.08370631
-0.1606955
-0.18970613
0.25058717
-0.03132468
0.28573495
0.28868344
0.35486567
0.20261903
-0.12956645
-0.19626823
0.26425198
0.0052247425
-0.06605671
0.34567395
-0.06360041
-0.34907514
0.30537936
-0.11465893
-0.06218084
0.26736912
0.2911518
-0.14975093
-0.11786034
0.3517297
-0.035380192
-0.11750323
0.29738155
-0.1323038
-0.41261333
-0.12396434
0.26490888
0.055158332
0.24364094
0.28572237
0.35585755
-0.1095555
0.23641002
-0.19130707
-0.05875527
-0.080348894
-0.19936024
-0.06811337
-0.2998617
-0.10873936
-0.12266954
0.21472412
-0.13694175
-0.08512388
-0.2646273
-0.20720325
-0.09470771
-0.1833185
-0.34501854
-0.15325886
0.31740403
0.27082786
0.23842683
-0.3836328
-0.40955994
-0.28959078
-0.29907635
-0.27420276
-0.077103056
0.20396659
-0.2976987
-0.19943824
-0.09627582
-0.06423679
0.3699356
0.39166474
-0.27281323
-0.31544405
-0.11639044
0.25927123
0.24087746
0.2954753
0.24009174
-0.12665556
-0.27997732
-0.043320045
0.0028582083
0.24953686
0.21618402
0.3206072
0.3241
0.28775793
-0.18881948
-0.1764886
-0.3922427
0.25168613
-0.07093841
0.30581737
0.100685805
-0.35116583
-0.30749255
0.39373818
0.26363757
0.054748878
-0.32147282
0.25178224
-0.09864746
0.34492975
0.014701444
0.25297412
0.2874605
0.15127836
-0.06123364
-0.24308155
-0.17756297
-0.3824959
0.23983195
0.31861427
0.19203368
-0.15610334
0.25176683
-0.40942708
0.2669669
-0.19039543
-0.3937733
-0.11748985
0.24855788
-0.13677424
-0.2292789
0.012556258
0.33122253
-0.20989865
0.27620807
0.2476476
-0.13731699
-0.28585762
0.24005233
0.28547233
0.22743538
-0.06624305
-0.1896889
-0.19922592
0.2400048
0.2982276
-0.07128513
-0.1661443
0.22276253
-0.16380446
