0.27831554
0.2831057
-0.29067504
0.28096512
0.27599627
-0.15319769
0.0080271335
-0.15295759
-0.15408815
-0.06643224
-0.067011826
-0.10128027
-0.39815927
0.002451336
0.28107408
0.18158303
0.337376
0.3796621
0.32340178
0.15764047
-0.3632095
0.34523764
0.22935425
0.26389277
0.23181938
-0.22758235
0.34254035
-0.08958915
-0.07553697
-0.067879096
-0.029874042
0.3276778
0.28609076
-0.24409497
-0.32554734
-0.18858726
-0.08770753
0.30158374
0.25463676
-0.26180515
-0.11990013
0.3261749
0.318484
-0.17477107
-0.16445866
0.37694824
0.3484147
-0.34459078
-0.13393751
0.34717423
-0.064819165
-0.35605085
0.23122701
-0.13714229
-0.35706288
0.2589825
-0.16001335
-0.35153553
0.251383
0.30100918
-0.3407908
-0.23578918
0.2878958
-0.08708808
-0.33047244
-0.025748821
0.25568533
-0.09215002
-0.13118061
0.2521974
0.20115504
-0.16252398
0.32053453
-0.46462196
0.20554405
-0.13655491
-0.20051911
-0.09343583
0.29146448
0.26943716
0.34273842
-0.16316316
-0.0688264
0.18099087
0.17296392
0.33133355
-0.027947368
-0.2782172
0.2783647
0.19161703
-0.36503616
-0.28797236
-0.16690125
-0.1558325
-0.24546227
-0.11784354
0.31872854
0.27211198
-0.4057115
0.2964821
-0.14021027
0.2361106
-0.123392425
0.2863167
0.31828925
-0.10721805
0.22653788
-0.11743743
-0.17936964
0.35562602
-0.016695531
0.20718531
0.25099218
0.2680684
0.27642637
0.37381235
-0.25694865
-0.20398903
0.31050205
0.284131
0.25712284
0.33919173
0.27765274
-0.38791853
-0.021242864
-0.02653775
-0.0027653486
0.27647716
-0.1209112
0.27346247
0.26760626
-0.17946206
0.31811744
-0.09277658
-0.12489351
0.27989504
-0.08168884
-0.24136072
0.22644459
0.052931186
0.2907492
-0.22843964
0.019913275
0.3693851
0.19241159
-0.030277412
-0.13176323
0.24494395
-0.16526906
0.32660782
0.31666064
-0.24420848
-0.35128686
0.29678205
0.22354908
-0.035418265
0.30266336
0.22763681
0.2661701
-0.16116193
-0.27098566
0.3100661
0.20427875
-0.02482906
-0.056872774
0.12112342
-0.14283673
0.30150077
0.3017496
0.28790542
0.1589209
-0.25301754
0.2804681
-0.012202025
0.3592054
-0.07020577
-0.23651248
0.00019837882
0.28833032
0.33336827
-0.13481385
0.35554874
0.3166631
0.24839024
0.3427087
-0.19832157
0.27492067
0.20124918
-0.2635917
-0.19193181
-0.13739453
-0.13503595
-0.25374997
0.22474656
-0.08583988
0.3171326
0.23751007
0.3502633
-0.16781858
0.22379436
-0.24495491
0.38367122
-0.035410646
0.30562183
0.3317565
0.27159226
0.3535404
0.16966619
0.2716645
0.25336337
0.28360334
0.28012142
-0.19302323
-0.066088386
0.22912642
-0.31543404
-0.14287663
-0.09350349
-0.13840827
0.03784032
-0.20849442
-0.1895245
0.29407635
-0.18748559
0.24941254
-0.21067569
0.3011119
0.3073191
0.32017592
-0.16696528
0.29843935
0.30649975
-0.18731725
-0.09053985
0.26026645
-0.18643998
-0.23248525
0.22456118
-0.21887507
-0.295005
-0.13084453
0.3506149
0.23744152
0.05907586
0.16986498
0.34882402
0.3162877
0.25726438
-0.25465095
-0.27613738
-0.22356407
-0.06775512
-0.21720809
0.32005942
-0.1963308
-0.23489924
0.15036017
-0.18480243
0.32366452
-0.41094378
0.26959583
-0.011582829
-0.3898039
-0.10580832
-0.39644533
-0.10476462
0.30541915
0.26050296
-0.27723506
0.27976033
-0.111800574
0.2967114
0.3079208
0.18352881
0.31105953
-0.16917272
-0.22253251
-0.083602026
0.24292558
-0.21535203
0.26215428
-0.062035646
0.22493131
0.28644744
0.33292136
-0.137088
-0.103596576
-0.16584998
0.3195459
0.29093182
0.2984694
0.28600714
0.32205322
-0.0968828
-0.14221731
0.01766032
0.29318962
0.27889633
-0.28145656
-0.2341278
0.3313255
0.3474141
0.34411052
0.24736692
0.31020296
0.2826957
0.3244074
0.19326504
0.29107264
0.19228299
-0.16552474
-0.22007577
-0.04669962
-0.35784903
0.20643976
-0.050070543
-0.30368066
-0.18341348
0.16258286
0.33857936
-0.34740713
-0.061282754
-0.39870876
-0.1847584
0.2610809
-0.30140406
-0.3773305
-0.14651749
0.2606291
0.3755383
-0.3532776
0.31095126
-0.10452818
0.2355349
0.3071209
0.2796882
0.2546024
0.23140244
0.25679997
-0.24845539
-0.26833078
0.35119897
-0.22446023
-0.19262289
0.20813535
-0.07734927
0.34238234
0.18985958
-0.122729674
-0.3253268
-0.33725494
0.32830432
0.2357561
-0.29599765
-0.180289
0.34441617
-0.32648888
-0.108058766
-0.22187322
0.31528622
0.24014759
-0.38693333
0.26705855
0.223505
0.36514047
-0.27415183
0.32990116
0.2109897
0.28216246
0.2241954
-0.14844139
-0.14611858
0.27595636
-0.17974672
0.3073156
0.32147762
0.3494151
0.22676079
-0.08739797
-0.2267218
0.2570304
-0.26659188
-0.1291287
0.3673093
-0.29750538
-0.37278223
0.22445992
-0.122141495
-0.07866199
0.31151533
0.2850897
-0.1732061
-0.11001914
0.3727077
-0.06049742
-0.1907127
0.34670115
-0.045965794
-0.32594395
-0.1466347
0.3049051
-0.13673545
0.21943375
0.30978018
0.38119978
-0.039093744
0.27061844
-0.07907109
-0.13497023
-0.1525322
-0.06547327
-0.07956775
-0.26799196
-0.113205396
-0.03195931
0.23327458
-0.111533
-0.22132072
-0.13225466
0.18456247
-0.15752947
-0.1651865
-0.33815753
-0.17745739
0.28178695
0.27153182
0.24251615
-0.17921239
-0.14991115
-0.38845617
-0.4407697
-0.09157101
-0.06628894
0.21158749
-0.23360248
-0.10063873
0.25039655
-0.046589106
0.3613993
0.3001329
-0.33818045
-0.08233551
-0.09749061
0.28268692
0.16478083
0.24850093
0.15586877
-0.32270828
-0.25328875
-0.22565311
-0.072610304
0.2824172
0.29468334
0.33572283
0.32983875
0.31894302
-0.1726711
-0.16037954
-0.46973458
0.25070944
-0.112803034
0.30532518
0.25879526
-0.34444034
-0.31584573
0.37341455
0.2521994
0.31195232
-0.3789043
0.29112113
-0.02524292
0.39313635
-0.0705774
0.2220539
0.29552704
0.23820484
-0.27857968
-0.3628289
-0.08519699
-0.28633985
0.26576352
0.22751985
-0.02897258
-0.047743525
0.27644694
-0.43098283
0.26734108
-0.2361681
-0.31550872
-0.12841406
0.32729837
-0.46711406
-0.2331887
0.21231355
0.41830567
-0.036270946
0.21414474
0.2838666
-0.107587375
0.016950883
0.28354335
0.26404068
0.2426105
-0.06721745
-0.129884
-0.041638613
0.27709344
0.32876724
-0.15628198
-0.17420009
0.24416688
-0.100463696
