0.14428769
0.08695553
-0.19777569
0.17534533
0.20675455
-0.24665792
0.07560774
-0.14693813
-0.19844264
0.0082610445
-0.16113394
-0.08174422
-0.1786591
-0.07582819
0.14500691
0.074563704
0.22621635
0.20026225
0.20216419
0.052675586
-0.1693085
0.2432481
0.17275777
0.12819837
-0.05636295
0.008460524
0.22456706
-0.101427004
-0.08420253
0.17338748
-0.0016895236
0.17034201
0.16120155
-0.16423658
-0.2017216
0.01965242
-0.29417077
0.15657386
-0.039447732
-0.04701411
-0.20600863
0.16262418
0.2536277
-0.026419152
-0.100268126
0.29898697
0.18831368
-0.105076395
-0.135906
0.19976772
-0.06059644
-0.09967744
0.030423952
-0.051637914
-0.15303788
0.06602133
-0.12344233
-0.20191899
-0.02417377
0.2365553
-0.19142182
-0.059987303
0.10059124
-0.083952405
-0.16185892
-0.10935375
0.15662514
-0.038410332
-0.15786958
0.11731149
0.1406509
-0.13078968
-0.012415057
-0.31601053
0.14001462
-0.069296576
-0.01715393
-0.10097606
0.15713021
0.08161027
0.3127567
-0.03256033
-0.23295431
0.043127786
-0.0856626
0.0888047
-0.09217491
-0.062015273
0.17938687
-0.0065191817
-0.24503204
-0.12566704
-0.07172422
-0.15384258
-0.07206272
-0.14231394
0.21331255
0.15700224
-0.0844896
0.15663044
-0.0065179705
0.14693815
-0.2903738
0.15566035
0.2253043
-0.1095817
0.08437569
0.027533086
-0.073616326
0.20150185
0.067055024
0.12937807
0.12002458
0.12819034
0.09394515
0.19004783
-0.06382559
0.04103821
0.1617948
0.16978396
0.15117688
0.18498072
0.14597714
-0.09303
-0.02245296
-0.0995246
0.003391337
0.17121585
-0.1684623
0.15098342
0.09293637
-0.07379221
0.1740827
-0.14487016
-0.14333494
0.1611281
-0.17218995
-0.0056723896
0.13132092
0.077774644
0.1418996
-0.17909586
-0.034052584
0.16542296
0.19708699
-0.031693738
0.14786819
0.113146774
0.009750139
0.21960688
0.19990414
-0.109286256
-0.003393468
0.15310127
0.0038153455
-0.1942674
0.26506543
0.109723754
0.1677863
-0.075947486
-0.15993114
0.05566218
0.08083854
0.039601292
-0.26133296
-0.03795098
-0.19399625
0.032609288
0.1674873
0.13478132
-0.018163225
-0.12889929
0.25960156
0.13649869
0.21328183
-0.20449409
0.011013822
0.015142241
0.13544068
0.19042307
-0.1237389
0.16480173
0.28368962
0.13919431
0.2675611
-0.103268996
0.13285905
0.13656594
0.024962721
-0.2049816
0.02904974
-0.09714014
-0.07549919
-0.008766997
-0.13948983
0.15200855
0.1375118
0.12952839
-0.030080458
0.10130337
0.003116063
0.16726056
-0.21806772
0.17989773
0.18078873
0.124103345
0.25204298
0.08579491
0.019209431
0.09878763
0.120084405
0.17710494
-0.11388768
-0.13134925
0.11715661
-0.10586636
-0.06513352
-0.035085108
0.021972168
0.05557239
-0.14166696
-0.145878
0.17659411
-0.115938604
0.11011891
-0.08226884
0.1693575
0.16614182
0.22189856
-0.027578862
0.19985786
0.18359739
-0.18144254
-0.104631715
0.1051567
0.023711577
-0.24380742
0.06828668
-0.024157502
-0.109415755
-0.08395367
0.19869532
0.0529961
0.061719537
0.030200507
0.19862625
0.21048932
0.16311222
-0.08554278
-0.20062885
-0.14249423
-0.08140583
-0.13310918
0.17404264
-0.1564285
0.11622571
0.076100916
-0.08692343
0.18849747
-0.19936156
0.15195549
0.051400706
-0.06933472
-0.039042424
-0.24216102
-0.20927666
0.15548098
0.116613045
-0.19430779
0.12115541
-0.09173195
0.17166884
0.19289833
-0.14195639
0.1940014
-0.19888264
0.00038889857
0.16171314
0.13239993
-0.1328157
0.06926019
-0.057478566
-0.01872145
0.16677894
0.14201656
-0.02456581
-0.20589803
0.023067223
0.22636804
0.15637647
0.20714848
0.15583073
0.18686937
0.07550834
0.061712082
-0.0028840185
0.10079323
0.15062524
-0.102442905
-0.22004479
0.20808952
0.0768924
0.19209012
0.16396938
0.15587758
0.16693799
0.18923447
0.11012784
0.10359076
0.2050694
-0.097130015
-0.20853971
0.00065891416
-0.06348016
0.11369171
-0.13124214
-0.232272
0.023743922
-0.059110906
0.20989637
-0.18408997
-0.0033711258
-0.17105371
-0.15744936
0.18173645
-0.27613452
-0.09234073
-0.051337417
0.15843947
0.27090916
-0.20280203
0.15076199
-0.21021847
0.09577833
0.18513434
0.14200225
0.06679279
0.106901124
0.17812282
-0.04641816
-0.024568316
0.17765678
-0.1341628
0.016505096
0.09218435
-0.2444815
0.19324812
-0.050751984
-0.020950384
-0.07550857
-0.19232632
0.21251097
0.10438308
-0.018969126
-0.16485012
0.15410995
-0.19524825
-0.07462055
-0.07223999
0.14522241
0.08386165
-0.15629141
0.11829173
0.15723154
0.2211421
-0.19207385
0.24612221
0.12781814
0.13498779
0.045343813
-0.10695817
-0.085499264
0.07214671
0.027826142
0.19306344
0.15336865
0.25338277
-0.015258175
-0.09729267
-0.07619308
0.13324137
-0.0037333216
-0.10082805
0.19590123
-0.18039174
-0.08484926
0.1123409
-0.13389063
-0.090212576
0.17323375
0.14897805
-0.16925237
-0.029203257
0.20068473
-0.16282822
-0.0471406
0.2159972
-0.031043664
-0.24923776
-0.15664779
0.20025055
0.12021445
0.06953047
0.23172413
0.2241639
-0.12241936
0.14602724
-0.08092212
0.010528788
-0.20531966
-0.1339219
-0.06530092
0.062584355
-0.24886076
-0.034921095
0.14628969
-0.13634342
0.032268755
0.06656119
0.0448454
-0.1759335
-0.0585171
-0.19771452
-0.045616
0.18758167
0.062604405
0.107881814
-0.067325845
-0.062940024
-0.2024104
-0.2513201
-0.13720399
-0.12554927
0.04912568
-0.13159348
-0.20175645
0.16543114
-0.055310026
0.16843408
0.15929186
-0.16215017
-0.3400396
-0.25274184
0.13611028
0.090433255
0.15719242
0.14928155
0.019755201
-0.1576261
0.007681303
-0.040591445
0.04966353
0.17402357
0.19235131
0.20776077
0.19269884
-0.20755722
-0.10575788
-0.230513
0.19809516
-0.10030663
0.15033668
0.2940109
-0.2222915
-0.19558883
0.2525186
0.21251287
0.25786647
-0.025010094
0.11751934
-0.030429412
0.22038375
0.17377917
0.16884223
0.15086326
0.08433443
-0.0345061
-0.28047565
-0.13263394
-0.11433852
0.13122869
0.025284562
0.14282449
-0.033682816
0.15233205
-0.26701018
0.1479136
-0.3245995
-0.10127528
-0.08716055
0.11952037
-0.11090113
0.03546108
0.26514316
0.19660214
0.009165905
0.15004386
0.13772379
-0.19230562
0.002213509
0.10222506
0.1363304
0.1126512
-0.09288499
-0.1125187
-0.1431859
0.16132918
0.18665649
-0.13001917
-0.15868708
0.17569402
-0.14888032
