0.34912378
0.27100578
-0.42882597
0.41519004
-0.026767759
-0.051929142
-0.11813539
-0.076292664
-0.2472593
-0.10562993
-0.043421224
-0.21170872
-0.31142345
-0.18309352
-0.2624532
0.20028442
0.43096498
0.38303912
0.4084253
-0.0036169507
-0.40259814
0.3514981
0.18278587
0.34086847
-0.16907603
-0.15709783
0.43006304
-0.101865895
-0.09519692
-0.042778328
-0.2720972
0.36725733
0.25792712
-0.20285927
-0.18947276
-0.26246488
-0.40556058
-0.02314976
0.3804282
-0.18168098
-0.12273567
0.3806242
0.3705987
-0.0533522
-0.06862002
0.24894795
0.50872505
-0.1776242
-0.16868131
0.41413867
-0.016986502
-0.4449599
-0.05512138
-0.1167458
-0.1518136
0.19919927
-0.29083067
-0.38435096
0.28695983
0.33951014
-0.32750443
-0.15526912
0.36229926
-0.060556676
-0.062177468
-0.36132047
0.3326074
-0.21163484
-0.08878164
0.35504097
-0.1433823
-0.08307755
0.1708028
-0.44354257
0.3432298
-0.350689
-0.20429781
-0.1144771
0.4116159
0.33216587
-0.2369606
-0.035081074
-0.06411399
0.2559068
-0.21547621
0.3521587
-0.003287539
-0.33838698
0.37698692
-0.26638424
-0.43111056
-0.11044251
-0.2373614
-0.03860915
-0.12401715
-0.1789825
0.31338552
0.30576843
-0.4037039
0.4430316
-0.19546248
0.16040596
-0.26660478
0.3639196
-0.14151837
-0.3857878
0.3474809
-0.010896225
-0.50077784
-0.046323493
-0.33718938
0.28911775
0.3511423
0.31715217
0.26905406
0.35613367
-0.093958646
0.019997876
0.37349436
0.45248342
0.3849029
0.44436085
0.19722323
-0.38782272
-0.041257836
-0.27295983
0.26704496
0.22142047
-0.036930468
0.43558356
0.3609536
-0.37482926
0.4292027
-0.17112355
-0.15918545
-0.0629529
-0.1404088
-0.47490114
0.31664386
0.09799748
0.34391192
-0.11383901
0.12315787
0.35334507
0.18937038
-0.018943505
-0.07273485
0.3945438
-0.3380066
0.12607013
0.29191473
-0.21885584
-0.2521798
0.36304045
-0.07038938
-0.03235646
0.36883458
0.421271
0.38252544
-0.09422842
-0.37147692
-0.21523717
-0.22755869
-0.029020838
-0.080740176
-0.24510129
-0.13596131
0.3154353
0.34668994
0.40801442
-0.14630507
-0.30222312
0.15339345
0.21853572
0.4838183
-0.04236971
-0.23123656
0.082697265
0.50252026
0.40940225
-0.33056316
0.41838238
0.36117107
0.3058869
0.4245054
-0.21609093
0.4059288
0.26622677
0.210309
-0.28571406
-0.2670433
-0.090776816
-0.2824572
-0.051215034
-0.4787364
0.45333874
0.49705455
0.38223994
-0.18215586
0.24503194
-0.18778577
0.39861122
-0.20320722
0.22782971
0.3957825
0.34397256
0.42033783
0.36816484
-0.11540383
0.3528431
0.40053162
0.43812117
-0.31711945
-0.06264425
0.38217822
-0.5297015
-0.05195821
-0.07213922
-0.3369085
-0.1839801
-0.32034713
-0.28989172
0.35279578
-0.14385806
0.35759017
-0.34401277
0.4310075
0.36667782
0.4193314
-0.26536772
0.31432697
-0.24501297
-0.3799377
-0.025804577
0.3255951
-0.2757215
-0.42924264
0.41701418
-0.05176951
-0.30173284
-0.2366487
0.50166583
-0.22697327
-0.17327571
-0.41053703
0.2576726
0.38569543
0.2944617
-0.2774818
-0.4424331
-0.16551264
-0.39279917
-0.21802461
0.40477815
-0.24219953
-0.34701476
0.25771704
-0.0682118
0.36830586
-0.485098
0.38047
-0.015859263
-0.23906475
-0.23922291
-0.3426708
-0.19658008
0.40697843
0.3073679
-0.23318535
0.32874036
-0.35212213
0.32954225
0.40109503
-0.040252633
0.34646684
-0.354405
-0.11340125
-0.04450538
0.1881869
-0.48277017
0.3361178
-0.2447566
-0.11629233
0.3062601
0.45206636
-0.032873355
-0.28062573
-0.050933037
0.2460422
0.3864904
0.4313391
0.396518
0.3016322
0.33434275
-0.15455043
0.04617067
0.25313887
0.0077599525
-0.10388465
-0.31783727
0.36327088
0.04708966
0.35525516
0.32527706
0.120194174
0.3329637
0.36934876
0.3197946
0.31078145
0.32559028
-0.04473427
-0.3728774
-0.33575282
-0.31384853
0.32492274
-0.11068898
-0.34763223
0.29490715
-0.2830361
0.46496168
-0.27195194
-0.286148
-0.36309183
-0.2984696
0.3635637
-0.26541817
-0.5212801
0.010127123
0.30019188
0.3962709
-0.26575077
0.38563588
-0.10741535
0.31680506
0.3903523
0.36954802
-0.03137006
0.23016556
0.29542673
-0.10972634
-0.3428546
0.30396616
-0.33693075
-0.07268225
0.19143234
-0.12701276
0.30848286
-0.1752355
-0.14131658
-0.39991513
-0.073193945
0.45031896
0.40689638
-0.16155444
-0.32528353
0.029045539
-0.35749817
-0.23627919
-0.10419813
0.35773593
0.26882747
-0.27662948
0.22711843
0.27345377
0.48953184
-0.17671047
0.28665853
0.35819438
0.30557585
-0.13379002
-0.17029548
-0.19382784
0.07148754
-0.12741339
0.49022812
0.3843373
0.41298
0.29843506
-0.22699527
-0.36157626
0.31056783
-0.1210503
-0.041251507
0.43139294
-0.29121262
-0.44090062
0.40715808
-0.099090025
-0.072033525
0.4818998
0.3529931
-0.10095261
-0.19063535
0.4624519
-0.10302431
-0.2626454
0.5060119
-0.325728
-0.31738493
-0.2864574
0.37388495
-0.24872226
0.34220573
0.22952291
0.4353181
-0.30413926
0.2031034
-0.16517182
-0.3210135
-0.543219
-0.2472495
-0.23491302
-0.2564555
-0.14553975
-0.016429847
0.39169452
-0.32043105
0.2374607
-0.22072382
-0.17665441
-0.14747658
-0.06068791
-0.27429527
-0.074206926
0.362459
0.34647974
0.37285578
-0.09374818
-0.3296253
-0.26329055
-0.31345442
-0.30294678
-0.07973481
-0.045046005
-0.25501877
-0.22319433
-0.079532996
-0.30878788
0.34561083
0.3466584
-0.34940413
-0.678913
-0.09196885
0.3798307
0.33064127
0.40830448
0.3577528
-0.25677332
-0.08177071
-0.24051309
-0.014818091
0.2962369
-0.2793315
0.4055923
0.4057582
0.4701337
-0.40433368
-0.16467845
-0.44634113
0.4930935
-0.17562562
0.43660432
0.05331803
-0.33364493
-0.3892596
0.18955742
0.3872918
-0.17607242
-0.2483137
0.40611455
-0.21388645
0.4423461
-0.38779205
0.12926304
0.42881295
0.29976988
-0.33746257
-0.29467237
-0.22824919
-0.3375778
0.30081475
0.26741052
0.032673053
-0.2842588
0.30251947
-0.10306397
0.38038823
-0.48986495
-0.4117108
-0.31578562
0.35523856
-0.28822076
-0.27820715
0.030656705
0.38093078
0.035942107
0.33622745
0.35242906
-0.06707863
-0.0050080847
0.31034485
0.43059486
0.33578405
-0.03806319
-0.33586276
-0.19125704
0.46811754
-0.25094396
-0.2988859
-0.08610693
-0.5588221
-0.41222998
