-0.28956184
0.20931575
-0.23956184
-0.4006589
0.25273952
0.26178604
0.19968127
-0.06510205
-0.15423347
-0.43223068
0.1841074
-0.2077974
-0.24353877
0.23976287
-0.24124157
-0.09428962
0.2971788
0.24745612
-0.16392937
-0.09096296
0.33564654
0.28330028
0.2197758
0.22170006
0.22120452
0.24640684
-0.33433968
0.27143347
-0.37523526
-0.15411392
0.16363913
-0.1229868
-0.15357621
0.32196587
-0.09235705
-0.15868603
0.260504
0.3134009
0.21385787
-0.1239844
-0.17305233
-0.10901723
-0.13111585
0.27820525
-0.2847953
-0.08098783
-0.16600272
-0.21354257
0.16523997
-0.14943182
-0.1266113
-0.18620649
-0.34295452
-0.30811703
0.26673147
0.34208754
-0.3386705
0.20554715
0.33687258
0.24954385
-0.33969676
-0.23403288
0.18763521
-0.18524352
0.16512755
0.312584
0.24491979
0.2731231
-0.07222971
0.3377893
0.25914136
-0.2574302
-0.11821085
0.12640254
-0.33992565
0.26174155
-0.30254862
-0.28655094
-0.1988234
0.24108171
0.25051224
-0.1241976
0.3417883
0.15598893
-0.4440397
-0.098649606
-0.22563016
0.3038401
-0.19846766
0.24879794
-0.4058081
0.17042516
0.29984054
-0.16598456
-0.09000301
0.30125096
-0.2801853
0.19453014
-0.23843482
0.3084869
0.2825026
-0.042498555
-0.15818885
-0.29594833
-0.27735385
0.2096135
-0.05687408
0.13464357
0.33505103
0.20677385
-0.38704985
-0.48717573
0.2457561
-0.20975502
0.22746034
-0.2790545
-0.101204894
-0.19648848
-0.19695076
-0.12687837
-0.13243678
0.24578145
-0.32193127
-0.1442263
0.2417861
0.33166093
-0.29565597
-0.30053756
0.26918212
-0.38271248
-0.24577126
-0.06725091
0.26649186
-0.24958135
0.26656845
-0.32854486
0.27260715
0.14999206
-0.14655599
0.261999
0.29243797
0.25790557
-0.25436047
0.24620977
-0.049024176
-0.08128237
0.29634872
-0.21901941
-0.35155338
0.23433414
-0.27596128
-0.2877791
0.19893336
0.18787938
-0.058718976
-0.23503385
-0.1311781
-0.26909074
-0.15368162
0.21887124
0.28390065
-0.16260707
-0.17207937
0.19117863
0.22415142
-0.36441278
0.29688376
0.24295056
0.27196634
0.2752406
-0.057271153
0.19908854
-0.12788552
0.21977483
0.24197768
-0.33773667
-0.29363146
0.19840255
-0.33927494
-0.30739748
0.21056807
-0.18133156
0.1929609
-0.26032946
0.28278553
-0.14584072
0.23812273
-0.17917569
-0.15231255
0.3060913
0.30671522
-0.12811154
-0.14161964
0.14976269
0.27001217
0.23860025
0.26675475
-0.2279534
-0.09257275
-0.18393172
-0.26816884
0.3266651
0.27739814
-0.17536391
0.25826278
0.20566638
-0.16628695
-0.30602583
-0.17203067
-0.129815
-0.06907533
-0.18943924
-0.17839642
0.26216486
-0.24793221
-0.23664884
0.25486344
-0.40375718
0.32643506
-0.22156689
-0.22300455
-0.06789654
-0.4173807
0.28435183
0.2900841
-0.19284268
0.21595313
-0.041372903
0.2115904
0.22824895
-0.111883916
-0.30116853
-0.20831051
0.21869373
-0.22167826
0.19107622
0.20923288
-0.20009789
0.26129195
-0.4001111
0.25560153
0.17027828
-0.21786451
0.21054606
-0.27332288
0.2419341
-0.14213933
0.19130361
0.22353391
-0.28952014
0.32918978
0.2812318
-0.059335764
-0.3764841
-0.1172412
0.31844622
-0.25346264
-0.14033331
0.13654402
0.1587498
-0.19286735
-0.38711354
-0.19716759
0.22625887
0.3286488
-0.16483867
0.27986348
0.2759555
-0.15926155
0.30134124
-0.31048706
-0.22886519
-0.1608364
0.29154184
-0.17274334
0.3211395
0.22864239
0.18116827
0.31221595
0.32519522
-0.2638943
-0.056338776
-0.22693966
-0.11166422
-0.27636412
-0.42612463
0.21110512
0.23695974
0.3099056
0.2702329
-0.1407852
-0.16206555
0.2258409
0.27246335
0.27343395
0.25044554
0.28515723
0.28542367
-0.38172576
0.2880454
0.25256658
0.2895509
-0.2001542
-0.19556896
-0.39660165
0.22864112
0.23060776
-0.23810901
0.28254643
0.24493624
-0.14705238
-0.18840833
0.2328671
0.25279924
-0.21637267
-0.14320444
-0.18576945
-0.1409337
0.29524744
0.25949815
-0.14771576
0.3329877
0.17800422
-0.23213457
0.32342756
-0.20483403
0.2263196
-0.20809491
-0.47655827
0.27201837
-0.16628948
-0.13201815
0.21781753
0.2750655
0.27358416
0.27445817
-0.36586654
-0.14995086
0.15915747
0.27360573
0.19769637
-0.107406795
-0.18714355
-0.15052202
0.15648441
-0.1979531
0.23631375
0.27891263
0.29368326
0.28578034
-0.14041749
0.18806748
0.28011376
0.26714694
-0.28547978
0.10501228
0.18551327
-0.28075868
0.3022737
0.22879153
0.21731023
0.1636126
0.20048112
0.30088273
0.26860955
-0.21994498
-0.19577342
0.25664496
0.17710291
0.1862361
0.30601653
0.3132697
0.27071893
-0.33744487
-0.21174653
0.28187075
0.282812
-0.12825328
-0.3591851
-0.35287434
-0.31649786
-0.13666217
-0.18252781
-0.21962893
0.23901765
-0.014549493
-0.23992889
0.17980933
-0.20372908
-0.35575682
-0.47295603
-0.16919024
-0.16066867
0.31206292
-0.37930605
0.23585194
-0.25694633
-0.2378392
-0.20000607
0.31239492
-0.16498104
-0.1370704
-0.46259916
0.257581
0.25947282
-0.2428768
0.1774871
0.32721376
-0.22883321
-0.26800454
-0.36764172
0.30520692
0.24832727
0.28562817
-0.2173325
0.25888994
-0.23523669
-0.24635154
0.2560156
0.20835282
-0.31004784
-0.24062416
-0.34704164
-0.2127454
-0.29297355
0.24833822
0.32425183
-0.46378526
0.21357669
0.19964367
0.22119626
-0.38988832
0.23469792
0.15181571
0.2686125
0.2856461
0.33392873
0.3144214
0.2815609
-0.14721671
-0.09667171
-0.28472552
0.32654583
-0.14098565
-0.1496163
0.28563523
-0.26021993
0.15717566
-0.35071287
-0.30503345
0.26261288
-0.30558938
-0.18055518
0.28333026
-0.24978733
0.19861647
0.20063402
-0.42079446
0.3250741
0.23101944
0.19949645
0.1770999
-0.17539237
0.2197624
-0.081506625
-0.38895148
-0.36513177
-0.39032513
0.24008541
0.31770584
0.25043604
0.2300444
-0.2286362
0.14494349
-0.19685629
0.32337657
0.2573972
0.20202479
-0.14960344
0.15450563
-0.4166742
-0.25624558
0.3171118
0.24231213
-0.263748
0.22638933
0.34178263
0.28465408
-0.20102137
-0.28531384
0.27181304
0.3133894
-0.07943302
0.24205522
0.28299236
0.20353489
-0.3320719
-0.4089678
0.18596281
-0.056489643
0.25712496
-0.083272845
-0.17800342
-0.33504647
0.27297717
-0.18386324
-0.2697644
0.28068483
0.2783383
0.3032882
0.17684564
0.22396916
