0.01639385 -0.06211715 -0.013586982 -0.10346469 0.08905726 -0.0061791628 -0.20240799 0.03707489 -0.11650956 0.05040225 -0.030005911 -0.20411827 -0.1121636 -0.055140223 -0.14504667 0.017808313 -0.15221491 -0.07460083 -0.20334272 -0.023148587 0.009002909 0.1650909 0.046829805 -0.027615009 0.009119595 -0.14930394 -0.05432272 -0.027783182 -0.14200674 0.13539627 -0.07566336 -0.2212741 0.0834342 0.0300584 -0.13757071 -0.035481665 0.12425445 -0.115505256 -0.00071985496 0.090633154 0.019778648 -0.017724175 -0.08811678 0.16928159 -0.13687007 -0.01965796 0.03788369 -0.1159487 0.063204244 0.13607813 0.006880188 0.026666699 -0.04844658 -0.05620304 0.30600587 0.05235029 -0.054201175 -0.011558127 0.05141407 -0.28332904 -0.15197566 0.10219849 -0.08217688 0.22791868 0.074706055 0.059378874 -0.051111035 0.008415797 -0.12823832 -0.022182576 0.007546092 -0.15216278 -0.16622055 0.0028274516 -0.066966474 0.040392388 -0.16257274 -0.2541658 0.16923743 -0.04318764 0.023605833 -0.16089316 -0.14086504 -0.01942532 -0.056317113 0.088279895 -0.08438535 -0.1273854 -0.09257087 -0.18670595 -0.050296936 -0.12859254 -0.14555584 -0.045237496 0.034335203 -0.0050393366 0.011638108 -0.12840243 -0.1270872 0.041825596 -0.017534118 0.03621565 -0.005935218 0.015334282 0.053040035 0.12971963 0.039176665 0.015740842 0.07355919 0.014015232 0.20783421 -0.13017993 0.09852359 -0.107744455 0.16122335 0.0479137 0.024533087 0.08432685 -0.2865872 -0.05342141 -0.26890987 0.06719009 0.07540611 -0.008596089 -0.09958656 -0.044627152 0.17472571 -0.10774982 -0.040743485 0.043783322 0.04341337 0.023780271 0.034763943 -0.037918963 -0.04998611 -0.06320688 -0.056208167 -0.018312518 0.03312742 -0.14936727 -0.020066097 -0.0108273905 -0.0059256465 -0.17182153 -0.038242415 -0.09794487 -0.04856976 0.017100897 -0.05472219 -0.019018486 -0.051943637 -0.11811302 -0.042875115 -0.077715695 -0.008517787 0.06747739 -0.019414665 -0.007937372 0.06598518 -0.16415982 -0.1615073 -0.17823195 -0.0054509994 -0.04359202 -0.0097580515 -0.11067909 -0.16775808 -0.09379736 -0.014942546 0.18047313 -0.115717396 -0.032698505 -0.11340353 0.020794941 0.055351477 -0.20249453 -0.06671936 0.011309277 -0.08321105 -0.23474322 0.135851 -0.1097913 0.057277553 -0.07359677 -0.010423616 -0.03675313 0.002300742 -0.08309794 0.08222988 -0.1720886 -0.11328238 -0.15645279 0.005530535 0.021635909 -0.11691138 -0.059983715 -0.11752639 0.08041268 -0.09477926 0.1878068 0.02157242 -0.17310344 -0.19013369 0.058249947 -0.03651278 -0.032474384 -0.12878525 0.007499545 0.011392468 -0.11715987 0.015674677 -0.14673577 -3.896401e-05 -0.06327749 0.14335857 -0.17465597 -0.057179336 0.032160223 -0.027831635 -0.08977615 -0.02105313 -0.07697772 0.06131157 -0.07068326 -0.07317501 -0.21037191 -0.13681585 -0.112820685 -0.032730617 -0.087303415 0.0038446903 0.24113543 2.6740949e-05 -0.09411069 -0.04585855 0.018722843 0.034059778 0.18359236 -0.0684272 -0.047926717 0.022416512 -0.30715272 -0.025375294 -0.02148139 -0.14095452 -0.08918447 -0.016784435 -0.16551144 0.091873266 -0.099386744 -0.05528192 0.031184997 -0.0068708933 0.044852227 -0.12680934 0.092312574 -0.09279574 0.07499042 -0.12715676 -0.053124364 -0.013319369 -0.043599315 -0.014331369 -0.064586304 0.10104216 0.07140909 -0.17498595 -0.11064717 -0.0069627613 -0.027565628 -0.1282336 -0.043972876 -0.07600568 -0.011450948 0.053357866 -0.22854544 0.035591956 -0.07496865 0.050979346 -0.04534628 -0.075633585 -0.22981295 -0.21239634 0.08762101 -0.102370195 -0.115247704 0.05865543 -0.050813064 -0.034230642 0.020946652 0.02407101 0.098374434 0.015908713 -0.057118353 -0.04547044 -0.049587626 -0.025011323 -0.070687935 -0.0669929 0.020720294 0.061482426 0.05122483 -0.070969895 -0.106589265 -0.19651479 0.0748296 0.08383042 -0.040186163 0.052792434 -0.04543724 -0.038246036 -0.18280107 -0.04688682 -0.066543326 0.035917465 -0.097467065 -0.036912058 -0.15033787 -0.082743384 -0.030845664 0.009732454 -0.108054355 -0.08911051 -0.029115995 -0.018957542 -0.42509246 -0.0011313512 0.06796135 0.07409192 -0.032397114 -0.047418866 -0.05152304 -0.05115577 -0.00086312176 -0.055093307 0.023177126 -0.051657204 -0.028188586 -0.0144440755 -0.0800543 -0.12552868 -0.06602451 -0.06165383 0.004580976 0.025284586 -0.007800277 -0.23643148 0.038284916 0.0230162 -0.02722174 0.03904188 -0.2637934 0.13181186 -0.084236346 -0.083276786 -0.09769984 -0.042735558 0.0070040454 -0.02004536 -0.077082664 -0.052381724 0.17218992 -0.1354455 -0.063079044 -0.106317386 -0.23516613 -0.090435855 -0.03870552 0.04736241 0.0009791836 -0.08178582 -0.01196489 -0.081283465 -0.073888585 0.052068125 0.015442807 -0.13043661 -0.03731626 0.23047085 -0.080135494 -0.10690988 0.052067183 0.044122983 -0.045842227 -0.033684682 -0.14577669 -0.08480472 0.07409746 -0.056660503 -0.17799444 -0.04210224 0.019596726 0.038319528 -0.071001485 -0.059982084 0.06692001 0.029144142 -0.16677302 0.05489499 -0.10338449 0.03153599 -0.0025509626 -0.20680802 0.07298804 -0.058840208 0.044782285 0.041904055 0.119830705 -0.1420255 -0.11697679 0.06571745 0.093782365 -0.1822958 -0.013107128 0.06916549 0.073852815 -0.00044109006 0.18854876 -0.03699076 0.10070369 0.02408232 0.10934841 -0.03255047 -0.05180238 0.03235421 -0.079401575 -0.28579777 -0.0013692864 -0.0205292 -0.116172306 -0.12489129 -0.03691616 0.028325915 -0.038839184 -0.07758639 -0.075086564 -0.0151831405 -0.12201501 0.09810475 0.05001568 0.03703492 -0.036096044 0.0071329023 -0.06560015 -0.039892014 -0.075047344 -0.12465257 -0.063687086 0.093381085 0.088937744 -0.027720932 -0.1329393 0.050671466 0.0031735452 -0.034338273 -0.1933468 0.03648655 -0.08975333 0.10948568 -0.09398112 -0.053096283 0.051356986 -0.11809796 -0.029089255 0.029453589 0.03183097 -0.07076091 -0.057903275 -0.08966414 -0.046625894 -0.10140914 0.03350898 -0.02362006 -0.109609716 -0.0075750155 -0.0048656017 -0.010359873 -0.013663555 -0.0318968 -0.024529975 0.009512418 -0.1549157 -0.032558564 -0.039966483 0.034719083 -0.08105623 0.046544995 -0.024826868 -0.027951883 -0.102601826 -0.028041003 0.12004614 0.033447575 -0.056288667 0.09399499 -0.020481726 -0.15765387 0.023611465 -0.013705159 -0.09182597 -0.0064639617 -0.05947594 -0.1421263 -0.016337916 0.029480662 -0.058550067 0.03861882 -0.26543367 -0.020794248 -0.06973656 0.081039816 0.09678206
0.018601833 -0.040923905 -0.04583499 0.057212494 -0.020706162 0.018877396 0.061684545 0.055310268 0.07389129 0.014817398 -0.017088713 0.025981216 0.021891657 0.06251095 -0.014587624 -0.043343678 -0.15583566 -0.007496508 -0.031671826 0.07381404 0.010333923 0.062151793 0.021181105 -0.024342394 -0.024127392 -0.041061327 -0.034465995 -0.04351261 -0.08534139 0.009328354 0.012273393 -0.06801188 0.03727752 0.08604465 0.037324954 -0.04398568 -0.096405126 0.02184424 0.024259472 0.024981681 0.06512888 0.07130637 -0.017163338 0.033599265 -0.045785595 0.009960266 -0.037672892 0.002644196 0.018630352 0.005637258 -0.043525994 -0.024056517 0.003875881 -0.033068065 0.059795205 -0.04785494 0.08380897 0.02803738 0.02695741 -0.011283283 0.026137982 0.050471477 0.05497252 -0.0045303735 -0.009397984 0.07211463 -0.0467567 -0.0017128284 0.039596643 -0.004540364 -0.019652942 0.06497813 -0.047041982 -0.04138128 0.056813046 0.04940978 0.08075566 0.046726037 -0.012143797 -0.05601108 -0.021349655 -0.008691112 0.0061337473 0.08560823 0.07124571 0.072372034 0.008091603 -0.012456734 0.07620311 0.011338816 -0.015693294 -0.045344096 -0.0048548356 -0.018256247 0.013175694 -0.030559137 0.03324874 -0.003528214 0.06303983 -0.05405061 0.009593597 -0.036426224 -0.007227886 0.05940103 -0.019293189 0.06259609 -0.039578628 -0.03797585 -0.0020423427 -0.012060776 -0.2061886 -0.04091632 -0.040125508 0.0036480608 -0.14916837 0.007513809 0.01603951 0.041737556 0.022316422 0.028471738 -0.042151544 0.05288158 0.116961166 -0.035167363 -0.07221007 -0.013611462 0.012782583 0.023635367 0.059968673 -0.017665042 0.019596599 -0.006688169 -0.010389243 0.04193675 0.024322854 -0.028212091 0.042974647 -0.12276399 -0.17819348 -0.013971491 0.012021022 0.019518444 0.056227654 -0.033511024 0.011204468 0.04100824 0.011336097 0.037525423 -0.00061477936 0.029985901 -0.034078326 0.031041136 -0.102382734 0.023897238 0.021377113 -0.0449848 0.044113424 0.0036102317 -0.033932302 -0.050563212 0.08879132 0.011040889 0.074691035 -0.04213715 0.029796988 0.0036082424 -0.020120274 -0.12941076 0.0311648 0.010778943 -0.08908798 -0.051928896 -0.06258568 0.03905068 -0.0009717982 0.024239914 -0.03656687 -0.013013848 0.008964327 -0.10235724 -0.14726675 -0.05554114 -0.0098156445 -0.098807655 -0.0137075465 -0.025861809 0.026358292 0.018517224 0.038771655 -0.018314743 0.018902827 0.023760699 0.0045293616 0.026065968 -0.019178757 0.031858023 -0.057968378 0.07369593 -0.01958203 0.043023445 0.04318147 0.0328765 0.044775672 -0.03796539 0.07440158 -0.027262965 -0.037458695 0.037478846 -0.046629716 0.039304025 0.03945071 -0.07284361 0.035532966 -0.10405975 0.04000304 0.037243206 0.015220059 -0.073519595 0.009237075 0.088703096 -0.073027134 -0.024807591 0.038753383 0.06293568 0.008526769 0.020866964 0.032283932 -0.06688426 0.06955883 -0.048825767 -0.03000418 -0.016065609 -0.013652574 -0.015936235 -0.061585996 0.035404593 0.0061898734 -0.022167228 0.042744614 0.025496032 -0.0779235 0.026723843 0.045175876 -0.009684486 0.0777668 0.06475701 0.0017617359 -0.125858 0.05131731 -0.041679744 0.027623547 0.07393981 0.0086309025 -0.031045021 0.07626427 -0.03088226 -0.005296509 -0.0018570635 0.0005288955 0.0035419047 -0.055600137 -0.04051702 0.041535985 -0.083915845 0.037244275 0.0009413899 0.014302564 -0.001190952 -0.011346577 -0.0015830639 0.013937438 0.027791461 0.045595374 0.052000873 -0.012670223 -0.011808157 -0.08773429 -0.0068215854 0.011487329 -0.0872889 0.023963658 -0.00986331 0.047870424 0.02242078 0.043547705 -0.07855676 -0.01965964 0.052898932 0.032573503 -0.04316953 -0.0001411175 -0.025400825 -0.025570406 0.03757919 0.08893284 -0.018676516 -0.03579561 -0.06353116 0.049430326 0.013917226 -0.01300166 0.0004279566 -0.006452563 -0.038619574 -0.024572587 -0.11030881 0.0014812748 -0.0011191363 0.10060023 0.036805954 -0.0030534943 0.013236991 -0.010924658 -0.014104576 -0.03529289 -0.035383217 0.029614102 0.030613583 -0.009495202 -0.0227706 0.031299435 -0.02274643 0.012863334 0.014413517 -0.06750261 -0.10956561 0.049497627 -0.037301928 0.069940485 -0.18782496 0.032888357 0.0068804366 0.06400394 0.019981943 -0.0060306014 -0.0040134876 -0.025629979 0.023821792 0.0021295461 -0.04418894 0.036524106 -0.0050059166 0.0071105417 0.008748541 0.045781348 -0.05352994 0.051396977 -0.07755611 0.0889371 -0.03257813 0.04328132 -0.011156795 -0.09910774 -0.041312214 0.08139132 0.053120933 -0.0153072765 0.042979404 0.0008726762 0.05593887 0.015135788 -0.021215312 -0.12927566 0.06061676 0.06179264 -0.023280317 -0.09773305 -0.008860377 -0.026973044 -0.040301982 0.019566365 0.049409986 0.030885736 -0.10215169 -0.0073405625 0.10356842 -0.041099045 -0.024781624 0.017685 -0.018508296 -0.02716777 -0.053594913 -0.022702904 -0.028170584 -0.06796024 0.019648317 0.011851772 -0.01109898 0.036062792 0.054921854 -0.030793346 0.010174019 -0.017495118 -0.0047571007 0.0021759581 -0.005169872 0.05878367 0.009631042 -0.035686858 0.075315565 0.03701687 -0.09675671 0.035726886 -0.0030841855 0.036048446 0.040387515 -0.018905561 0.02710827 -0.012976259 -0.075957045 0.029049609 -0.07029485 0.012863418 -0.0063153906 0.021141183 -0.06499629 0.0375311 -0.04980161 0.09722989 0.08012872 -0.13454814 0.03530131 -0.000100193196 0.036188114 -0.018011428 -0.010356254 -0.03327547 -0.117134154 0.041519195 0.010329581 -0.022176888 -0.13536645 0.0063222502 0.026206898 0.021663446 -0.0049991217 0.018168855 0.0848118 -0.024953272 0.014298823 -0.039555762 0.025324248 -0.123066604 0.05245994 -0.0648431 0.013926006 -0.06525469 -0.017850641 0.00034326722 0.003360989 -0.047036204 0.019555997 -0.042091504 -0.027276637 -0.08192233 -0.021380307 -0.0130397 -0.0858245 0.037645176 0.043340076 -0.047871497 0.0010574502 0.011892631 0.023784103 0.05640879 -0.021976441 0.036267444 0.017057939 0.03631345 -0.050282415 0.05329274 0.008111534 0.006365128 -0.012710935 -0.048166472 -0.08763029 -0.061695386 -0.040999107 -0.07475344 -0.055004686 0.012506378 -0.004248423 0.05051149 0.03777062 -0.08203773 0.06427966 0.032605797 0.0011534783 -0.16391718 -0.12722619 -0.008076952 -0.06201828 0.042672478 0.041334953 -0.0039404393 0.10809712 -0.049434695 -0.13481063 0.06338076 0.05273796 -0.022154678 -0.134209 0.017010776 0.07530851 -0.006083061 -0.022274256 0.016807502 0.065355875 0.024221476 0.037506003 0.037538186 -0.0029923203
-0.02028665 -0.015113508 0.08097222 0.011549293 -0.09091854 0.016072473 0.030911308 -0.074995466 0.033830166 -0.0613626 0.061242506 -0.2442794 0.03855571 -0.042341795 0.06709034 0.07306242 -0.40080297 -0.08228452 0.0077014216 -0.004455636 -0.081390485 -0.06794809 0.041334968 -0.07505653 -0.022712868 0.06352213 -0.07741362 0.0003102416 -0.17018183 -0.0016074473 0.033600945 -0.037207168 -0.009373227 0.026412284 -0.15356195 0.0034230256 -0.05258762 -0.0029577755 -0.052039143 -0.04085757 -0.023057334 0.00565752 -0.006011055 -0.02034515 -0.054634262 0.015353519 -0.030317925 -0.043722853 -0.023903236 -0.02215604 -0.0038916746 0.050138116 -0.042526845 -0.08183841 0.046700943 -0.0034473687 0.037446 -0.03943116 -0.0016974254 -0.17930152 0.0074866996 -0.048936926 -0.023879271 -0.035504706 -0.0496486 0.013729821 -0.11957643 0.06226404 -0.033632427 -0.021387689 -0.040469974 -0.039682977 -0.2289319 -0.020069689 -0.015561069 -0.06749476 -0.020313378 -0.13284025 -0.022919217 0.016049286 0.0036628386 -0.18096732 0.021180362 -0.023370719 0.012875592 0.010559442 -0.009742754 -0.13600583 0.052033927 0.06792045 -0.06674939 -0.3652715 0.060167946 -0.10762076 -0.057655293 0.029473415 -0.09580679 -0.06898455 -0.09823371 -0.0045593097 -0.01708304 -0.018306775 -0.079269856 0.029414326 0.029095447 0.044246793 -0.1595238 -0.0028065592 -0.03586355 0.030043887 -0.20728923 -0.019490479 -0.1721339 0.03158423 -0.17263694 0.049608566 0.07083081 0.07014892 0.07568171 -0.0010983526 -0.09555644 -0.0008455494 0.021407563 0.01758511 -0.09900134 -0.015536126 -0.0389739 -0.030506073 0.052132115 0.033015367 -0.11147646 -0.08149144 0.005326831 0.029056778 0.061902173 -0.031313647 -0.024205947 -0.076337755 -0.016757704 -0.049353447 -0.011307911 -0.067681745 -0.019332105 0.0060685216 -0.117512606 0.06366135 0.04569102 -0.019856397 -0.06841121 0.042294707 -0.08396114 -0.040411707 -0.069592774 -0.043030746 9.8332726e-05 -0.010978042 0.06961697 0.010082574 0.036615595 -0.34221077 -0.056784373 0.04013563 -0.05067166 -0.037869267 0.033413045 -0.01316075 -0.00012922611 -0.047989197 -0.024571795 -0.012667573 -0.0020596175 -0.008980189 -0.14452052 0.032820623 0.047686085 -0.046313766 -0.03431742 -0.06680926 0.010392132 -0.22491878 -0.14289336 -0.072041705 0.03736223 -0.004492036 -0.041669182 -0.010040498 0.011933793 -0.0028327373 -0.07306139 0.10136286 -0.099508956 -0.08461683 -0.23201475 -0.024707323 -0.018629236 -0.048700165 -0.098930776 -0.011143525 -0.022203654 -0.0790696 0.035699762 -0.070667535 -0.0026121093 0.012850789 -0.06419973 -0.016942369 0.038479906 -0.098846234 -0.08604559 0.017243247 -0.08863618 -0.15464245 0.02507919 0.0548039 -0.071489856 0.010090104 -0.028109381 -0.07546324 -0.049626682 0.09137156 -0.00066452264 -0.038164675 0.009218907 -0.011224837 -0.043165457 -0.14975166 0.10671935 0.013996534 0.076129444 0.04131135 -0.06067293 -0.03213508 -0.019667905 0.018302443 0.046630964 -0.002088657 -0.07440538 -0.11638183 0.0020738305 -0.06417255 -0.050735865 -0.068005145 -0.038801007 0.04324118 -0.073332585 0.019082041 0.035780527 -0.20910755 -0.05959692 0.028211152 0.012282136 -0.017496772 -0.010022691 -0.09836245 0.048468027 -0.011284587 -0.002058691 -0.07504269 -0.04118008 -0.027752228 0.023570519 -0.06765852 -0.0044531436 0.013486037 0.012346417 -0.05778312 -0.113211535 0.032090284 0.009879118 0.050175536 0.07549298 -0.12473241 0.05490111 -0.05325256 -0.079193674 -0.21384855 -0.021923605 -0.08637684 -0.044066377 0.0039398004 -0.094588846 -0.017617969 -0.016133554 -0.035733614 0.027065538 -0.029716652 0.08110388 -0.021615222 -0.15055603 0.00995395 0.00010074678 -0.035251196 0.0066979127 -0.07979536 0.07380432 -0.042649798 0.00888546 -0.10556042 0.012873648 0.041197218 -0.06358243 0.050417766 -0.021084527 0.043097317 -0.02845712 -0.0027109587 0.09905117 -0.020769553 0.07797747 -0.012312022 -0.03476845 -0.047391124 0.031691305 -0.019020423 0.037478257 0.048548687 0.009188293 0.0006703002 -0.11945631 -0.09213094 -0.080985375 0.013884624 -0.0027399852 -0.032007374 -0.062237613 -0.26787174 -0.017408125 -0.048179816 -0.006326537 -0.08171756 -0.08222293 0.056500193 0.01911692 -0.040423874 -0.015752545 -0.013879723 -0.10916524 -0.09515112 -0.02465598 -0.1890515 0.066721275 -0.038325205 0.07999608 -0.0255738 0.046160784 0.02102811 -0.061302118 -0.05335977 -0.032124057 -0.019014074 0.016055662 -0.07006607 -0.17664452 -0.034587797 0.064617604 0.054077294 -0.011550208 0.02695747 -0.015436503 0.030786822 0.0289321 0.024388699 -0.29493284 0.04976137 0.0064561386 -0.09006981 -0.050547965 -0.032998357 0.05944595 0.02188918 0.044055007 0.03849126 -0.0077969087 0.025567668 -0.003777354 0.027495133 0.047704548 0.07047125 -0.02144148 0.046090282 -0.085799195 -0.0029835762 -0.0605904 -0.096463524 -0.0062339725 -0.0877703 -4.6327594e-05 0.025053766 -0.037520718 -0.020879239 0.05903334 -0.02282617 -0.030773863 0.026265612 -0.0034808556 0.0339073 -0.018247293 -0.074763425 -0.021055065 0.06710205 0.044738166 -0.04277192 -0.1476071 -0.0209588 -0.12279062 -0.041371122 0.0026672115 0.037642304 -0.028522316 -0.0058104615 -0.092211574 -0.020201016 0.04451522 -0.10432635 -0.04250097 -0.11524983 0.028185602 -0.07194893 -0.0011023207 0.0015486463 -0.025699364 0.016929427 -0.29474944 -0.039503243 0.02822462 0.01597081 0.008680313 -0.05931042 -0.06031549 0.08675326 0.021731164 -0.00672062 -0.12045019 0.03739048 -0.04224574 0.03600582 0.06809428 0.07277366 -0.044886187 -0.10134526 0.0566676 0.011734375 -0.002097037 -0.0026742567 -0.03534966 -0.17900506 -0.040590126 0.07389555 -0.08279376 -0.056492656 -0.04956508 0.022301715 -0.06465174 0.01405551 0.005805799 -0.09255376 -0.13958432 -0.06874918 -0.10884436 0.09270618 0.010323189 0.008970077 -0.08581593 -0.04604884 -0.025737837 -0.008340976 -0.017419351 0.045617897 0.0068236417 -0.1743802 0.0142525 -0.073212214 0.04211672 -0.017924912 0.052768324 -0.053686917 -0.04338532 -0.024047857 0.0027178638 0.07006012 0.0011960337 -0.0054005794 0.028606426 -0.058498763 -0.0067619975 0.023691176 0.0065217176 0.044525925 -0.05891654 -0.26172414 -0.0044796 0.00018643889 0.010017849 0.028808208 0.029358445 0.06760637 -0.12947193 -0.05134616 0.06445099 0.047586784 -0.020502446 -0.29347005 -0.0018706032 0.008388649 0.008912052 -0.076872565 0.0101523725 -0.0549737 0.014097348 -0.10459245 -0.16609646 -0.033969272
0.006754329 -0.06847814 0.023371791 -0.07479349 -0.120285235 0.006198242 0.015862435 -0.023847496 -0.018999003 0.045373935 0.04511843 -0.13921495 -0.0033803142 -0.08465232 0.025707314 -0.02360927 -0.30920506 -0.08323522 -0.009816185 -0.017459214 0.009970141 -0.10161406 -0.15176426 -0.042724766 -0.037597053 -0.07565693 -0.023865119 -0.10693357 -0.13361809 -0.06537681 0.04304993 -0.05600657 -0.012098614 -0.06416646 -0.08066446 0.03537685 -0.13136098 0.03325942 -0.04061148 -0.06794753 -0.013428159 0.118004195 0.012578435 -6.187798e-06 -0.04083744 0.05710783 0.023165602 0.04974992 0.02773557 -0.019331103 -0.033492174 -0.050235737 -0.0074062925 -0.033547327 0.031503122 -0.008783306 -0.00012511265 0.02143355 -0.053045884 -0.07179447 0.012302681 0.09304075 0.05463652 0.056448903 -0.021827929 0.042076763 0.012114824 -0.029400107 0.0183827 0.00091861596 -0.08882914 -0.06591505 -0.16510996 0.044616774 0.03902263 -0.094232656 -0.05756824 -0.014022534 -0.117073745 -0.035266854 0.020706153 0.014345056 0.031609103 -0.06232499 -0.052109428 0.022941764 -0.026882282 -0.12923025 0.031765074 -0.050241925 -0.010206173 -0.22938852 0.02828964 -0.018621136 -0.012883754 -0.14357889 -0.15395908 0.07677252 -0.027882416 -0.022484127 -0.025049193 0.0015206286 -0.06297994 0.047043562 0.12588926 0.0024427 0.037670948 -0.0016688614 0.02065368 -0.03667438 -0.24931505 -0.03924971 -0.10716846 -0.038749658 -0.240226 -0.030836275 0.060354833 -0.035243973 0.04042053 0.063640855 -0.08358757 -0.0035650916 0.05504541 0.049712654 -0.014798878 -0.044341654 -0.039801892 -0.013813051 -0.059943423 0.018014219 -0.0928017 -0.12459382 0.01694775 -0.08640283 0.04086209 0.05678778 -0.0018980736 -0.04258935 -0.08331971 -0.020538075 0.072184354 -0.018869132 -0.04234048 -0.15930152 -0.052713905 0.034785926 -0.046488088 0.027544467 0.0025655201 -0.0013691349 -0.0045170225 -0.121938355 0.03901818 -0.015784735 -0.009656466 0.05713555 0.06650914 0.0914252 -0.016089175 -0.277989 0.0041401456 -0.021986922 0.067521706 -0.059448596 0.060211968 -0.05926681 0.017009 -0.08132634 -0.05308389 0.022623451 0.0060002473 -0.071381725 -0.17244366 0.061740406 0.050681148 0.08563447 0.010658593 -0.1181511 0.027732955 -0.16456342 -0.14050269 -0.018164814 -0.010048975 0.054965492 0.031160178 -0.11383418 0.09078921 -0.05091881 -0.029538112 0.10561327 -0.05917986 -0.097842045 -0.2380603 0.031157458 -0.10609931 -0.087118454 -0.044497184 0.028552806 0.04296662 0.0089759 -0.045153458 -0.0030146183 -0.07644984 0.04880664 0.003924918 0.06474997 0.033605784 0.025728475 -0.051566675 0.017670259 -0.04427009 -0.07374152 -0.040101826 0.031340532 -0.082369566 0.02346134 -0.15751125 -0.019830495 0.026131922 0.04770052 0.035262614 0.00090705266 -0.05956084 -0.13368243 0.018948622 -0.0031396612 -0.024918478 -0.03971622 0.026129207 -0.007882591 -0.03455058 -0.084457316 -0.035886966 0.0011951607 0.027120959 -0.010596457 -0.14416644 0.04579922 -0.075947806 -0.1393195 -0.065665446 0.065234415 -0.021791972 0.096578605 -0.03567995 0.09249451 -0.015050702 -0.1708156 -0.00084419094 -0.1718831 0.01197964 -0.04894692 -0.003503127 -0.1454211 0.04816408 -0.108052194 -0.02428779 -0.045275856 -0.036085587 -0.13858622 -0.06383374 -0.023442525 -0.030571483 0.056950506 -0.078173496 0.07263884 -0.086580664 0.041906197 0.0022173487 0.03710145 -0.05018413 -0.11628289 0.08070329 -0.013107909 0.05160053 -0.09357458 0.0061775255 -0.16780452 -0.009136448 0.032824498 -0.083139725 0.07618613 -0.046562374 0.040638003 0.08634655 0.045663208 0.007927001 0.014818216 -0.016570114 -0.07449954 0.022974722 -0.05143974 -0.04602114 0.023670172 0.07890405 0.02101918 0.060164884 -0.07354481 -0.027050843 -0.074246325 -0.043678157 -0.104390055 0.07681749 -0.039638355 -0.0244535 -0.049937855 0.0048527457 -0.014138754 0.028853672 -0.01590461 0.01245144 0.05121776 -0.10690757 -0.070154816 0.0041628373 0.03481327 -0.04231282 0.04131196 -0.005900904 -0.07290058 0.038113322 -0.08369954 0.012008962 -0.11176267 -0.018921582 -0.17061819 0.00074252253 0.061159514 -0.075384125 -0.030856151 -0.020618707 0.05444329 0.04918724 -0.059974823 -0.00860267 0.029941153 -0.01892437 -0.15276739 -0.08237525 -0.11251936 -0.085331336 -0.12505926 0.044909354 0.023715502 0.093105495 -0.062662736 -0.02181446 -0.031708 0.0010548385 0.0404955 -0.011039569 -0.0589996 -0.11645656 -0.0703976 -0.031004274 -0.008475891 -0.015241508 -0.12844306 -0.029447375 0.033606514 0.01953169 0.02274907 -0.18749978 0.0005456773 -0.0762345 0.01312663 -0.052872676 -0.013467021 0.07731568 0.0077342126 0.027835174 -0.00064134516 -0.032864567 -0.029546252 -0.05487912 0.06821881 0.07684276 0.0036654149 -0.07516119 0.06748065 -0.032165408 0.032781284 -0.025904026 -0.13769232 -0.023866229 -0.08571518 -0.035531513 0.05597193 -0.016332071 -0.0682243 -0.033575222 -0.028772185 0.046686724 0.07933361 -0.03848481 0.029232355 -0.05466356 -0.009522508 -0.04104515 0.072140306 0.0071984874 0.026275018 -0.026319792 0.021245519 -0.07143421 0.015155097 0.060937483 0.00080395443 0.005119671 0.0034420365 0.0002583365 -0.03602857 0.023366332 0.04801651 0.04010616 -0.08151176 -0.020722833 -0.06567429 -0.071094945 -0.0064245104 -0.05737247 0.031182095 -0.10428254 0.0055465056 0.07578919 -0.05808323 0.07558074 -0.061923675 0.023520458 0.016869588 -0.027943604 -0.016542466 -0.08581645 0.0017935402 -0.04657982 -0.0029644824 -0.03365361 0.02134399 -0.03072436 0.051880088 0.054217625 0.096046336 -0.026205128 -0.11043935 -0.12749745 -0.117954746 -0.004231299 -0.00071383576 0.009208448 -0.059789762 -0.19986233 0.0045190654 0.05266079 -0.06248502 -0.08501565 -0.21958315 0.01383059 -0.088267826 -0.003106832 0.009246856 -0.0051293154 0.017829502 -0.01216528 -0.07415882 -0.001905266 -0.00047367642 0.06530076 -0.026378412 -0.25007913 -0.08422161 -0.027099648 0.055689935 0.05216316 0.030373579 0.0034308273 -0.073752016 0.0044162315 -0.03778803 0.009542449 0.029359398 -0.010705734 -0.027202712 -0.018107703 0.023429722 -0.031019012 0.019723779 0.00072247355 -0.07519927 -0.035104904 -0.21259919 -0.0895478 -0.08111276 -0.0044651595 -0.020053865 0.06647279 0.08670193 -0.018135004 -0.066798404 0.088546984 0.024135407 0.011736893 -0.25873882 0.06280933 -0.04468092 0.06676449 -0.03418607 0.0036413257 -0.05235775 -0.12916452 -0.064751625 -0.0656906 -0.043853097
-0.035975587 -0.18339834 0.06287266 0.06461576 -0.16984886 -0.3679129 -0.48991585 0.072910026 -0.009042453 -0.012617516 -0.015236555 -0.027202249 -0.04172686 -0.1358706 0.020599551 0.049713805 -0.13535453 -0.063099876 -0.19760591 -0.095718816 -0.038617402 -0.1434042 -0.058780298 0.0383842 -0.02852053 0.007318529 0.09806693 0.027266981 0.13536543 -0.05216898 -0.030363364 0.054845065 -0.16683196 0.044508174 -0.15469062 -0.027814003 0.11960592 0.07527831 -0.031108016 -0.30207112 -0.31876612 0.041116785 0.04143591 0.09130691 0.10057755 0.005295461 0.019543879 -0.083661065 -0.21660131 -0.13925125 0.19724554 0.10104159 -0.13127647 -0.05096398 -0.1723857 0.019759404 -0.111473404 -0.31691164 -0.029668506 -0.042568367 -0.12557712 -0.088719115 0.0055136066 -0.0022372438 -0.028405162 -0.318457 -0.0061879293 -0.012819073 -0.105497606 -0.04243494 0.029994626 -0.31036237 -0.079828635 -0.00951603 -0.020133082 -0.3853185 -0.09263624 -0.017857533 -0.25856432 0.010815947 -0.11560172 0.07273261 -0.01891492 -0.15636249 -0.19397804 -0.21132758 -0.014695042 0.023617895 -0.14210087 -0.029743636 -0.008095228 -0.038289554 -0.028670834 -0.0810398 -0.048935227 0.023558898 -0.09175468 0.042604126 -0.3395632 0.06810902 -0.06498289 0.004431767 0.024685163 -0.10850647 0.027751112 -0.016080946 -0.020367248 0.020124922 -0.1242273 -0.018572893 0.002368765 0.039909285 -0.22355513 -0.25892645 -0.04727948 -0.027504865 -0.024017235 -0.093604386 -0.023327297 -0.13353142 -0.02108046 -0.16539584 -0.014587311 0.14601593 -0.036447547 -0.09815548 -0.12802584 -0.08829358 0.0072024567 -0.050098237 -0.2915046 -0.111554265 0.006767681 -0.022929443 -0.04003404 0.027260905 -0.41141263 0.18620802 0.12179898 0.015495145 -0.04212754 -0.13507675 -0.0025237005 -0.03451923 -0.023919549 0.0068223556 -0.26235205 0.011323291 0.0069157123 0.008593209 0.03825663 0.039961837 0.022880252 -0.3046928 0.025496084 -0.04440394 -0.06859239 0.003767167 0.035394754 0.017190536 -0.26014733 -0.00782894 -0.008932993 0.0076864907 -0.12571451 -0.026622975 -0.2280743 0.07260687 -0.13634884 -0.13946782 0.0015776833 0.023829028 -0.20466694 -0.11445876 -0.04707955 -0.0033923541 0.049409673 0.027048146 -0.06596134 -0.020761602 0.071296304 -0.09211342 -0.01551696 -0.0028319792 0.0029568214 -0.11354599 -0.0004966917 -0.0118936375 -0.18444067 -0.08368918 -0.20320985 -0.2903163 -0.07238796 -0.0035049918 0.11155751 0.08963202 0.096396394 -0.15267323 0.030672673 -0.26795498 -0.21661805 -0.0407381 0.008751306 0.038009707 -0.053804822 0.07910323 0.018543491 -0.29952446 0.0957205 -0.008528884 -0.11109246 -0.043834604 -0.035960656 0.114499345 -0.21335419 -0.11799764 -0.37149748 0.014839058 -0.07280891 -0.119278856 0.025217252 0.057028104 -0.12989117 -0.20171021 -0.44834563 -0.09697243 -0.16884877 -0.053595304 -0.05549033 -0.044738796 0.023297412 -0.16464792 -0.037532587 -0.02330551 -0.015408499 -0.09587936 -0.1879597 -0.059493594 -0.29048645 -0.036890868 0.02251313 -0.16002052 -0.1534643 0.05995644 -0.3930354 -0.1316283 -0.047547832 0.06291503 -0.29281047 -0.19715841 -0.29703122 -0.10923176 -0.0058113304 -0.25260177 -0.035576716 -0.0034933097 -0.09106672 -0.007944964 -0.06582492 -0.017054133 0.07353405 0.015414032 -0.078374684 0.10037103 -0.026284833 0.07032069 -0.16044436 0.046719726 -0.061722703 0.100722425 -0.091544054 -0.10557964 -0.08673814 0.055544965 -0.16137987 -0.10851818 0.103905074 0.08396044 0.081337936 0.12416837 -0.28030914 -0.054410517 -0.08096509 0.06117828 -0.08183585 0.04976684 -0.088854946 -0.0309978 0.008910009 -0.039999668 -0.054550525 -0.08087687 -0.21594103 -0.07465091 -0.2694797 -0.027703209 -0.012307225 -0.05289063 -0.108733624 -0.08854235 -0.07492711 -0.07183497 0.029228456 -0.004190069 -0.08022532 0.1411431 -0.080673754 -0.07784693 -0.19569893 0.002379792 0.029854672 -0.14218174 0.022449037 0.033403456 0.049441565 -0.010027031 -0.07495078 0.016477123 0.08146723 -0.014048427 0.0052366913 0.0044020033 -0.12151464 -0.1081668 0.013864776 -0.10027522 0.044070564 -0.09523348 -0.16146854 0.11730463 -0.15273856 -0.051097695 -0.08605944 -0.3106027 -0.02865252 0.0036251054 0.031270407 -0.15494649 0.0063580666 -0.1337193 0.031526707 -0.07096524 -0.05653634 -0.012596516 -0.044555444 0.05445199 0.00022710634 0.056964345 -0.23174801 0.0107741775 -0.25781676 0.115888655 -0.043891568 -0.10758375 -0.14061509 0.021737618 0.03587578 0.06775932 -0.105451584 -0.22147968 -0.053168442 -0.02118194 -0.01383414 -0.19094072 0.0050975536 -0.06772831 0.089358024 -0.023801755 -0.03198085 0.010760107 0.00025656552 -0.27059174 -0.17180856 0.046158403 0.00027665426 -0.01835596 0.014386672 0.0905387 -0.13137195 -0.005495941 -0.08688941 -0.0038079177 -0.025461884 -0.114556365 0.14817797 -0.036261026 0.03211548 0.0040753675 -0.24454662 -0.063168325 -0.034621455 -0.075801656 0.01236682 0.07640344 -0.1544191 -0.022768483 -0.036837846 -0.3685814 -0.010958319 -0.11926312 -0.036146417 0.023351757 -0.2631697 -0.28033692 0.000779398 -0.0012506945 -0.01592391 -0.060780253 0.033793233 0.07101566 -0.047436938 0.041135028 -0.023476064 -0.0061312267 -0.05483633 0.049506273 -0.032941602 -0.116919495 -0.19360135 -0.032693096 0.15181035 -0.039504103 -0.0557246 -0.07263226 -0.107058905 -0.035794657 0.040981553 0.09696265 0.051567197 -0.086347796 -0.06133158 -0.01058628 -0.76683265 0.009622219 -0.12384724 -0.0075153736 -0.052580185 -0.2317489 -0.19056262 -0.20476796 0.0038108823 -0.07178074 0.10187959 -0.036923334 0.007457278 -0.04417341 -0.032574676 -0.1011444 -0.02882085 0.03829332 -0.067032486 0.004899636 0.00671726 -0.026348237 -0.048696395 0.030556612 0.02418084 -0.10296915 -0.06095126 0.1117581 -0.0008871049 0.023841824 0.09300518 -0.034041386 -0.056632485 0.036608193 0.0844361 -0.21457788 -0.06816878 -0.02414916 -0.09498709 -0.0015338907 -0.02353192 -0.005653127 0.028897757 0.09677689 0.12092174 -0.12941246 0.14862111 -0.08095939 -0.048648417 0.043641135 -0.021088205 -0.17599328 0.088165656 -0.11306548 -0.06871286 -0.07105238 0.18590842 0.056237124 -0.038371623 0.094859086 -0.14014296 -0.0201565 -0.00087257393 -0.24024525 -0.0013034387 0.1592602 -0.048491877 -0.07924179 -0.022369916 0.122359104 0.011138782 0.011966705 -0.002596965 -0.06931344 0.10168482 0.022747122 -0.12749368 -0.011904078 -0.00055874954 -0.056234118
0.11751021 -0.12842159 -0.13146925 -0.13553487 -0.06116745 -0.012196791 0.027865613 -0.01647842 0.08675634 -0.088663384 -0.04333916 -0.013127884 -0.1026528 -0.17625889 0.034727253 -0.12238208 -0.025849981 -0.1316134 -0.25285697 0.107622035 -0.097490504 -0.092458926 -0.047492456 -0.09748544 0.006448349 -0.018539919 -0.09855907 -0.14657326 -0.009773408 0.007069642 0.14081623 -0.1344789 0.028899785 -0.021527866 -0.12943004 -0.22254826 -0.17000797 0.13815473 -0.092278525 0.013522293 -0.07033455 0.029644802 -0.012921479 0.15620418 -0.051929362 -0.14021246 0.033574127 -0.14915584 -0.10395528 0.04010368 -0.04989996 0.059138693 -0.09516173 0.03741021 -0.3936321 0.007399686 0.04275361 0.020055199 0.0788405 0.11014361 0.070971794 -0.028830446 0.12333694 -0.07979353 -0.039056 -0.022775475 0.033940595 0.090732634 -0.010770471 0.19486977 -0.075829715 -0.06368118 -0.056831833 -0.02542158 -0.024123909 -0.039680675 -0.15627775 0.05830936 0.1349275 -0.08893535 0.12757482 -0.33707646 -0.104329005 -0.107495785 0.069985665 0.007479258 -0.045460153 -0.16667803 0.031038567 0.0070752865 -0.067232855 -0.05938448 -0.14506708 -0.085595295 0.056121357 0.12875964 0.033967778 -0.07903876 -0.038292553 -0.064013675 0.076876685 -0.03203687 -0.05400473 0.17204717 -0.17658618 -0.03214606 -0.039790515 0.01154496 0.035678823 -0.039665926 -0.043138813 -0.14935806 0.008656172 0.038965154 -0.06890111 0.027314214 -0.05479934 0.13444382 0.0020458587 0.10015979 0.041509975 0.045500178 -0.049773388 -0.14056674 -0.06583649 0.054086864 -0.120391704 -0.115355894 0.0031178007 0.014270638 -0.21657884 -0.09842741 -0.03155269 -0.055295672 0.024596011 -0.18686835 -0.005081392 0.0036688172 -0.031410832 0.08087911 -0.20019846 -0.04824022 0.20191717 -0.13649529 0.25049993 -0.020995166 -0.01267284 -0.07286897 -0.104481064 -0.049759664 -0.25793198 -0.08622961 -0.17225967 0.041435085 -0.06834991 0.040293477 -0.13680504 0.059893556 -0.13688067 -0.027334183 0.05304305 -0.010608402 0.050559536 -0.0975932 0.12172329 -0.0562992 -0.03904665 -0.13287114 0.10079226 -0.035450067 -0.006906466 -0.085383736 0.005298855 0.009465456 0.04139215 0.16065264 -0.04193745 0.15940191 0.015167037 -0.08892823 -0.010679669 -0.18654084 -0.06434316 -0.062610894 -0.059755906 -0.07866323 0.110032104 0.16644752 0.07531409 -0.062659085 -0.006767943 -0.0060073743 -0.047017757 0.01647279 -0.29339787 -0.12552054 -0.076830216 -0.12981571 -0.050899103 -0.21325369 -0.019972354 0.04087584 0.056407142 -0.0031681836 0.15518524 -0.04494906 0.033268187 -0.039893948 -0.08241948 0.0875063 -0.20590061 0.00015624933 -0.04322344 -0.061818525 -0.08443384 -0.18541065 0.006138557 -0.045577347 0.019302387 0.028223885 -0.1169204 -0.08823676 0.20559183 0.0069215596 0.016020477 -0.15163887 0.012809691 -0.08343085 -0.043721247 -0.0938711 -0.06013497 -0.17458785 0.42909837 -0.06460539 0.015562334 -0.28945294 -0.22353162 -0.11729473 0.09322815 -0.14291619 -0.04039636 0.11529515 -0.039790176 -0.032032207 -0.06727125 -0.08347215 0.0011954267 -0.030949978 0.04583557 -0.13678412 -0.013835696 -0.0022861212 0.07912639 0.10391873 -0.01236949 -0.045620132 0.11866872 -0.23458199 -0.04807978 -0.07913278 -0.10623363 0.009985591 -0.053025488 -0.16437723 -0.044749193 -0.058088806 -0.14103112 -0.060995147 -0.04060635 -0.029624868 -0.049274836 -0.2646532 -0.084041566 -0.03993854 0.02427439 -0.0012636053 -0.16423137 -0.14791688 -0.09166377 -0.05669613 -0.10973995 -0.09351452 -0.111507446 -0.074002154 -0.036476407 -0.031885084 0.02594781 0.06829118 -0.058160603 -0.19399862 -0.08875817 -0.11752242 0.23487991 -0.0821661 -0.053728517 0.055083062 -0.029019639 -0.21544445 0.24060506 -0.22448352 -0.15032263 -0.08571943 -0.00020033774 -0.03523591 0.273235 0.010105729 0.03359003 -0.048505068 0.09969724 -0.05528225 -0.09127697 0.037516758 -0.06484344 -0.054489564 0.08840968 -0.16090907 -0.055897295 -0.23152997 -0.014366602 0.041160658 -0.042187214 -0.02349449 0.012634934 -0.044802345 -0.22684854 -0.009790385 0.017943569 -0.18937056 -0.019861527 -0.030800324 -0.18625568 0.057486266 0.0063244803 -0.07415772 0.16631651 0.01967687 -0.12287033 0.14161184 -0.025760757 -0.0053380765 -0.007685024 -0.13707446 -0.06279855 -0.04768295 -0.026432803 -0.14669411 0.100447975 -0.17272621 0.007041831 -0.09482366 -0.018275557 -0.04726619 -0.035256777 -0.1000365 -0.00096738763 0.15570891 -0.025858518 -0.031990513 0.065384954 0.078821585 0.014314127 0.07055828 0.005106854 0.13932423 -0.01721998 0.00043308426 -0.09999362 -0.011993424 0.028130125 -0.15624167 -0.061382037 -0.027285906 0.047314253 -0.104595385 0.006756514 0.12660356 -0.073685884 -0.056396667 -0.28027546 0.0096957 -0.14326109 -0.14257774 -0.041980907 -0.167135 -0.12575212 -0.050522495 -0.0665048 0.030339854 0.0051410752 -0.05605773 0.019188376 0.014639683 0.042595502 -0.12050834 0.068845995 0.021925459 0.28532103 0.016549973 -0.029248022 0.06842119 0.15969442 -0.09457809 -0.037370797 0.063349254 -0.108233005 0.12490108 -0.08759549 -0.0049733785 -0.026606672 -0.032053616 -0.19838865 0.00042653753 -0.008882481 0.05665348 0.1098331 -0.018200794 0.06770348 -0.18446802 0.0012398504 -0.080444016 -0.02501753 -0.029694835 -0.024870027 0.07433989 -0.121249944 -0.028022684 0.27732068 0.018807624 -0.012995225 0.06657937 -0.092235066 -0.034460634 -0.1445971 -0.05069651 -0.07435959 0.19301787 -0.04650903 -0.09089508 0.012562344 -0.037048183 -0.1325311 0.16978858 -0.013767937 0.0009868063 -0.07189154 -0.13992515 -0.11415166 0.13616207 -0.09126743 -0.028263044 -0.071130365 -0.07342266 -0.19836697 0.05055055 -0.07320553 -0.22868209 -0.021187665 -0.14330424 -0.03035389 -0.15249012 0.04658309 0.022300929 -0.074263036 0.086635284 0.0564474 -0.0938945 0.071888685 0.09891178 -0.030482393 -0.051355965 -0.20341146 -0.14794184 0.07508244 0.17938447 -0.041944087 0.012684046 -0.018979948 0.03234883 -0.0880405 -0.054920647 0.01638429 0.014580765 0.019611234 0.31063393 -0.043421216 -0.32618937 -0.023892915 0.09412697 0.0011862766 -0.05843599 -0.106801726 -0.06602041 -0.034110673 0.07088686 0.029756352 0.023786126 -0.08360409 -0.05971285 -0.10107107 -0.038695563 -0.072761655 -0.044187598 -0.08456483 -0.09014717 -0.14198253 -0.12041117 -0.17029223 -0.0059095966 0.0018626655 -0.13599984 -0.15239446 0.073123746
-0.043294743 -0.0070452373 -0.037191138 0.0061056474 -0.007247063 0.015717708 0.042940814 -0.035950948 -0.010776618 -0.049851466 0.0061362507 0.0043397066 0.04417734 0.030194923 0.041151673 -0.040563293 -0.1527369 0.008168779 -0.051279638 0.028859707 -0.049652345 0.08746169 0.042013105 -0.048696578 0.022032898 0.027562477 -0.017581452 -0.06612791 -0.03859457 0.07200611 0.04335667 -0.10377517 0.055313796 0.07180893 0.052559778 -0.046079278 -0.07483689 -0.023829136 -0.030555923 0.021833485 0.064270504 0.02554387 0.05148929 0.05444525 -0.056391563 -0.040882144 0.032136574 0.02945525 0.05831712 0.05347147 -0.06561814 -0.03695603 -0.034148052 0.052457836 0.018590057 -0.0063759764 0.0682769 0.087004766 0.051441204 -0.05936717 0.073071204 -0.002523656 0.025111808 -0.065572366 -0.0031587922 0.032611728 0.04116583 -0.0064294385 0.02185158 -0.013373936 -0.006930759 0.073561154 -0.083015606 0.03103048 0.052816983 0.013887952 0.052893057 0.037862718 0.047865335 -0.045446366 0.05154409 -0.03594617 0.034456357 0.09267206 0.03393712 0.06518108 0.055088583 -0.007822542 0.030629627 -0.038442012 0.0051190685 -0.044615347 0.006792929 -0.0311678 0.01653383 -0.012708989 0.03539644 -0.054842588 0.030307721 -0.08833436 0.08669212 0.015670912 0.007224215 0.06891801 -0.009151293 0.047715086 -0.09509397 -0.042415574 0.03278826 0.008039707 -0.14546847 -0.043607302 -0.0403047 -0.003593685 -0.14165768 0.012966987 0.051988915 0.07956258 -0.016948301 0.08860676 -0.03174629 0.011689713 0.114393346 -0.032399617 -0.039560925 0.015695216 -0.026383543 -0.039414722 0.032549575 0.03679232 -0.0078013325 -0.050346535 0.033511963 0.018626962 -0.021920945 -0.010269755 0.055937983 -0.15983061 -0.14077269 0.027540144 0.026309812 0.06516101 -0.014345977 -0.021285206 -0.01115331 0.01751201 -0.01462524 0.027375732 0.0142067885 0.021499256 -0.02068473 -0.023297714 -0.09042159 0.025360117 -0.018329138 0.028541641 0.020228319 0.026797501 0.00046050167 -0.06945708 0.08527429 -0.035326693 0.05745364 -0.0048094494 -0.007915842 -0.0011706338 0.0274393 -0.09032354 0.03415445 0.089606576 -0.0115778595 -0.051274 -0.00323608 0.10184766 0.016410246 0.011759573 -0.013957925 0.009679829 -0.030116247 -0.08098901 -0.12459939 -0.016804976 0.02928643 -0.008209565 -0.052037884 0.023727486 0.0842081 -0.0034185138 0.0060066083 0.03342569 -0.025907079 0.038120646 -0.01278492 0.0748762 -0.04958133 -0.002031322 -0.05215383 0.021046318 -0.014111562 -0.03612735 0.038470626 0.024268422 0.0674721 0.010566687 0.062381156 0.00578355 -0.005274747 0.08626425 -0.04566921 0.041019566 0.022878025 -0.043091517 0.0027170973 -0.10632701 0.016429132 0.02213772 -0.012581255 -0.081596345 0.021119112 0.0929252 -0.069979414 -0.044906348 0.04661381 0.042445216 0.044431284 -0.05108837 0.040462695 -0.04452281 0.05894561 0.012775951 -0.00803349 -0.013738774 -0.023552101 0.039453104 -0.071034245 0.025074705 0.028530054 -0.018217636 0.0501735 0.03628563 -0.11448169 0.0067119217 -0.025477778 -0.003544437 0.06335487 0.01707204 0.026899172 -0.08673334 0.0055400366 -0.00861499 0.020162746 -0.002086228 -0.029581852 -0.017484354 0.051058393 -0.058712453 0.026187826 -0.06896688 -0.0035659932 0.032026023 -0.072020575 -0.00608571 0.016458776 -0.10482714 0.010881074 0.042566847 0.014818814 -0.04368801 -0.002518447 -0.0012940144 -0.024212657 0.04612058 -0.017487459 0.03152114 0.023988169 -0.07845537 -0.054971956 -0.0036908279 -0.053803857 -0.07416456 0.063396074 0.065378696 0.010976474 0.03828852 0.039515223 -0.058770392 -0.0031561623 0.04253154 0.0040922035 -0.079257034 0.0082816295 -0.00038998725 0.009535696 0.009351884 0.10364872 0.018010288 0.019576965 -0.081244625 0.025812056 0.003764554 0.011084064 -0.016348438 -0.014761225 0.032019354 0.032004353 -0.06672406 0.014787954 -0.025494022 0.042030405 0.02438796 -0.040874835 0.044779997 0.016148986 -0.0393969 0.019316996 -0.07333626 0.035428375 0.010159553 -0.06274382 -0.049252786 0.029877156 -0.063973494 0.03680282 0.02304318 -0.07282927 -0.08280008 0.012712591 -0.03570389 0.062034186 -0.12045087 -0.023850616 0.010227242 0.040126584 0.026312336 -0.023456395 0.016256182 -0.044445373 0.028583111 -0.011557038 -0.09809232 0.013940884 -0.0060160942 0.02475232 0.012560072 0.010993959 -0.038919345 -0.022473441 -0.07501846 0.028338492 -0.04644243 0.055856608 -0.009300542 -0.11388866 -0.09754082 0.048868727 0.04510501 -0.028035248 0.033127025 0.003653569 0.07431738 -0.008607548 -0.041327156 -0.07843653 0.013630217 0.05562918 -0.0106140515 -0.080878146 -0.017011339 -0.007832526 -0.054118577 -0.01777116 0.010180638 0.078703314 -0.07869876 -0.049137212 0.05808198 0.0050232043 0.0011008381 0.022120828 0.06665742 0.018971259 0.0017881917 -0.0662757 -0.028281521 -0.028906642 -0.02509385 -0.03542589 -0.046080064 0.015638605 -0.00061871496 0.024729533 0.03335382 -0.002157987 -0.034071315 0.012954167 0.03186432 0.09494519 0.0518805 -0.028536126 0.027489897 0.026491724 -0.10600679 0.0046242485 0.03519096 0.01470388 0.055177946 0.00057871424 -0.0052829795 -0.067004494 -0.061979912 -0.028294394 -0.03844309 0.0063195615 0.01436702 -0.015608499 -0.004204655 0.09451567 -0.039605927 0.0827253 0.026321905 -0.08076294 0.019792791 -0.03023982 0.06332123 0.05526022 0.043984137 -0.0011293413 -0.08905823 0.05436673 0.05731457 -0.032769915 -0.1274102 0.0048056366 -0.028101327 0.0463776 -0.009974363 -0.0064047836 0.080797285 0.0778573 -0.011451646 -0.041047446 0.06817026 -0.13651063 0.051995065 -0.036720805 -0.011555681 -0.023820277 -0.022195656 -0.008871942 0.029825618 0.0030597507 -0.0020471073 -0.027951958 0.045411404 -0.01837378 -0.039501365 -0.021594265 -0.07634243 0.017243564 -0.009123752 0.04908996 0.013540707 -0.0062515642 0.003222164 0.049835403 -0.012430732 -0.0024551398 0.03652258 0.0053468742 -0.006975287 0.030650862 0.023626763 0.06617452 0.010977613 -0.045926664 -0.13332793 -0.06344288 0.036945626 -0.11132259 0.01771527 0.054519173 0.037016533 0.024537526 0.07064718 -0.0354812 0.07698381 0.053323854 0.006508873 -0.09783719 -0.103431344 0.021331538 -0.07138897 -0.04852969 0.052196465 -0.049641777 0.040514465 -0.033646658 -0.1307784 0.0033613367 0.006872602 0.04478175 -0.112460315 -0.0055070403 0.09122601 -0.058574315 0.0154085485 0.0040865648 0.06938202 -0.009601169 0.0004608339 0.05351054 -0.04191724
0.011707527 -0.08325743 -0.018875495 -0.12475502 0.092711456 -0.09296941 -0.1714556 0.049525235 -0.057396255 0.020617936 0.011809181 -0.04779026 -0.034346074 -0.036679883 0.01953184 -0.10711733 -0.15747005 -0.18565936 0.034168612 -0.11171428 0.01862813 -0.000626394 -0.0709592 0.0031056337 -0.108546816 -0.057164997 -0.027958022 -0.007355368 -0.10186929 -0.08292697 -0.15533207 -0.1225607 -0.11992642 -0.014171527 0.03403644 0.044061795 -0.049221702 -0.07516191 -0.11641229 -0.18923712 0.035077196 -0.089112334 -0.007882265 -0.022053326 -0.059467193 -0.0061815903 0.07700816 -0.083610035 -0.083355814 -0.066616595 -0.008407501 -0.027559236 -0.102405064 -0.028465388 -0.06582051 -0.008892891 -0.006740427 -0.07699106 0.023694342 -0.11685754 -0.15203296 0.014603124 -0.009770417 -0.09377174 -0.030995721 -0.16511202 0.020297114 -0.14458776 -0.014727303 -0.09852792 -0.13773377 -0.15418115 -0.13616288 -0.029503724 -0.11692587 -0.04637693 -0.13474101 -0.111525975 -0.06789804 -0.099629 -0.07456286 -0.0262682 -0.045332905 0.002496439 -0.22829741 -0.15974168 -0.073282994 -0.10496933 -0.07875951 -0.039782535 -0.15614784 -0.19756234 -0.047404192 -0.057305798 -0.02643861 -0.023157893 -0.049228754 -0.019898126 0.059664417 -0.05086258 -0.105289996 0.049050234 -0.06983521 -0.09369563 0.027833968 0.022177495 -0.027790457 0.05497235 0.09952556 -0.15267962 -0.12472849 -0.07818665 -0.09306376 -0.047533065 -0.14544937 0.029210838 0.03520369 -0.054084297 -0.08488258 0.05145615 -0.17158547 -0.057720933 0.044984546 0.0483986 -0.06386011 -0.003135932 -0.06550194 -0.12512627 -0.10116378 0.08127366 0.0511281 0.03031498 0.038799502 -0.13045026 -0.009087603 0.007996641 -0.19022058 -0.17804071 -0.1505077 -0.046156973 -0.014827325 -0.06811795 0.029337706 -0.101538025 -0.1265947 -0.18733153 -0.16647726 -0.042781457 -0.04621696 -0.016755749 -0.09388609 -0.16149072 0.03437917 0.0075729685 -0.0047715213 0.016970411 -0.042500198 0.015034683 0.042222418 -0.15723032 -0.06357842 0.0056987037 -0.046764933 -0.11718269 -0.090124264 0.00044481608 -0.08829334 -0.063258156 0.026142586 0.0054428335 0.0019910713 -0.016041443 -0.09464277 0.031426564 -0.054548983 0.046707712 -0.02764121 0.015955046 0.04426372 -0.14549957 -0.15222053 -0.06774621 -0.048612583 -0.1534235 0.0028745902 -0.11880369 0.013209446 -0.021633342 0.048201002 -0.22511256 -0.14781918 -0.17916861 -0.122275986 -0.123954654 -0.003971138 -0.034861468 -0.115624696 -0.020454675 -0.021221088 -0.014846073 -0.19723059 -0.055881064 -0.119569615 -0.006787565 -0.15788996 -0.16045295 0.015732035 0.04633773 -0.11384608 -0.005607406 -0.13968165 0.07938332 -0.05511547 -0.10588313 -0.120537475 0.016434457 -0.07816315 -0.12879194 -0.11560846 -0.16066581 0.033286363 -0.026072096 -0.11192996 -0.102289975 0.008612244 -0.029753484 -0.06901062 0.03067434 -0.010795083 -0.13599816 -0.112440884 -0.099852175 0.048180573 0.01235648 0.051748388 -0.058663577 -0.0750754 -0.02043424 -0.13714997 -0.010735717 -0.048729796 -0.15820828 -0.07664094 -0.017499909 -0.011338822 -0.04961191 -0.033533186 -0.10937199 -0.05099553 -0.038536478 -0.2959312 0.0040784366 -0.058066797 -0.015521859 -0.078261025 -0.07109834 0.00030513227 -0.117433205 -0.063360654 -0.21206068 -0.04414759 0.0066032987 -0.043800466 0.10607578 -0.114399076 -0.060675375 -0.11931211 -0.04498068 -0.018184198 0.074210405 -0.108670846 -0.00085247285 -0.026480032 0.016993916 -0.20571008 -0.12464323 -0.1189807 -0.059077393 -0.08212321 -0.07686645 -0.13728213 -0.14099184 -0.05566962 -0.0049131275 -0.07253737 -0.15791872 -0.055305492 -0.09093791 0.0020261558 -0.16103715 -0.19724073 -0.11729022 -0.10104614 0.011818763 -0.0025257259 0.0009919788 0.03200051 -0.02417222 0.017017113 0.013715775 -0.007720278 -0.06085658 0.008152935 -0.07005931 -0.011468986 -0.08627599 -0.113788955 0.063279405 -0.0037312296 -0.09240605 0.014785722 -0.07315575 -0.022790067 -0.06590935 -0.017201126 -0.05236695 -0.121433266 -0.07114557 -0.003103021 0.049049582 0.012200239 -0.07078801 0.10553233 -0.11421593 -0.047185138 -0.22202924 -0.03452307 -0.0017085706 -0.08494725 -0.1289019 0.028842453 -0.012661808 -0.07115309 -0.098617606 -0.07052123 0.002993918 -0.059882745 -0.0035225144 -0.11225487 -0.09344086 -0.07446663 -0.05387859 0.02382647 0.026568804 -0.046951614 -0.09162848 -0.066233225 -0.031511284 0.02440783 -0.036412086 -0.09661839 -0.045303423 -0.08448524 -0.07769527 0.033352323 0.011943125 -0.041393515 -0.09752492 -0.026265161 -0.22831047 -0.025993349 -0.13875985 -0.22436048 -0.066888824 -0.17735559 -0.09602542 -0.057908453 -0.05678862 -0.00640505 -0.08107483 0.08612147 -0.15889052 -0.04911776 -0.06152944 -0.049591605 0.0013721845 -0.10526513 0.041468453 -0.10183292 -0.005359173 -0.15286522 -0.012923028 -0.120295614 -0.12305455 -0.12746526 -0.032967366 -0.016462224 -0.073542945 -0.109362476 -0.12343949 -0.042230885 0.05692048 -0.0265292 -0.032709606 -0.016184345 -0.043286216 -0.009806604 -0.109192215 -0.029169438 -0.12271136 -0.032919448 0.058026742 -0.07878471 -0.11386864 -0.004261939 -0.07079334 0.03960243 0.036269482 -0.029379077 -0.02700072 -0.004614671 -0.09728875 -0.10872292 -0.0039649876 -0.037284784 -0.038322624 -0.019318653 -0.041633513 -0.19150715 0.005084752 -0.11920269 -0.07164408 -0.048839718 0.0049143992 -0.025826158 -0.089336686 -0.16532864 -0.118310705 -0.0653676 0.05674887 0.0027609593 -0.1705499 -0.04607546 0.05104588 -0.18959537 -0.07604868 -0.019338846 -0.07227301 -0.084624834 -0.20163247 -0.13848303 -0.045568965 -0.182987 -0.16502003 -0.05380762 -0.12037223 -0.08881334 -0.1236993 -0.009622902 -0.06993848 -0.096978374 -0.10473017 -0.07434886 -0.071215644 -0.052944697 -0.16839285 0.056714237 -0.02809572 -0.01148076 -0.1394331 0.035676178 0.05431491 -0.07018488 -0.11760771 -0.026526453 -0.0048008338 0.016537603 -0.18160999 -0.089634925 -0.07662711 -0.0714178 0.074095905 0.020208888 0.030236576 0.05221555 -0.15144485 -0.08984715 -0.044523045 -0.12786803 -0.033265054 -0.010222897 0.08186774 -0.061586175 -0.098180555 -0.06382074 0.014982951 0.03078525 -0.0004928363 -0.1046114 -0.118230276 -0.08841832 -0.05914036 0.026264684 -0.08205174 0.044429872 -0.09617427 -0.008373388 -0.13799405 -0.122756384 -0.006844912 -0.04678721 -0.16689873 0.06617843 -0.031356834 -0.059767645 -0.05855182 -0.11238452 -0.011030378 -0.07768788 -0.031289462 -0.020342393 0.053671777
0.02299168 -0.00484622 -0.10374563 0.03376372 -0.013908334 0.05972782 0.032405958 -0.0027233893 0.0024903154 -0.0446503 -0.0024769637 0.047446247 -0.030341288 0.021940758 0.046270184 -0.05131438 -0.11759611 -0.0758433 0.047167324 -0.0016744377 -0.059340194 0.03821873 -0.011729487 -0.009194978 0.011878941 -0.01125544 -0.015895223 -0.031080082 -0.09010851 0.044361915 0.03733289 -0.058346104 0.006631896 0.09132507 -0.007898744 -0.017692972 -0.012852708 0.010600637 0.01890323 0.079808295 0.0038359365 0.008124989 0.02057607 0.01740578 0.0046375627 -0.026502658 -0.011071457 0.04364376 0.03590543 -0.00736552 -0.0776841 -0.028531121 -0.07776108 -0.004857791 0.013199087 -0.051715933 0.026577128 0.07189462 0.014304428 -0.043664772 0.040255494 0.052333347 0.01267556 0.015283261 -0.022199873 0.01756675 -0.040654145 -0.022675432 0.05952176 0.049832717 -0.03183083 0.01265756 -0.047088414 0.04775445 -0.010172302 0.00939787 0.060951956 0.058700126 -0.004342498 -0.04644451 0.013116643 -0.044073764 0.009901233 0.099324726 -0.014904577 0.017732829 -0.03109308 -0.0756319 0.049972307 -0.029738236 0.0351077 -0.065370835 -0.03288668 -0.03440597 -0.0038100213 -0.007454967 0.050185625 0.025497137 0.061004285 -0.078391746 -0.004129983 -0.0471342 0.018072244 0.068114154 0.00037594984 0.0054195123 -0.018939428 0.0077865445 0.05135216 0.008965194 -0.21283324 0.008064585 -0.030327037 -0.00036078584 -0.09364705 0.010000354 0.008372772 0.0681736 -0.03940155 0.047209255 0.0023130896 0.07644674 0.15544981 0.04024392 -0.031467292 0.07206172 -0.078238204 -0.030995967 -0.011428767 -0.017545294 -0.037490882 -0.069770925 0.032857247 0.0020080984 0.012012083 -0.028256573 0.07102777 -0.1687835 -0.11937762 0.03885428 0.01259633 0.035412416 0.07612863 0.020155452 -0.008783344 0.039233606 0.046747323 0.021772232 -0.013476908 0.020954847 -0.010895462 -0.046836786 -0.076966815 0.002217982 -0.0407154 0.009452071 -0.037900664 -0.017670324 0.032951202 -0.08569148 0.06576866 -0.028671503 0.056528457 -0.0167516 -0.04095267 -0.027840309 -0.04232854 -0.083343886 0.023146123 0.07148943 -0.024423812 -0.06568286 -0.09347669 0.024612641 -0.033878084 -0.008802489 -0.003790819 -0.072109036 0.0032925487 -0.09269411 -0.103534274 0.014142343 0.085290186 -0.096893616 -0.04114991 0.00017485327 0.036265388 0.040974718 -0.0073297685 0.02990154 -0.038399555 0.007787 -0.0036014586 0.039750855 -0.01831631 0.02353796 -0.0024305107 -0.009171206 -0.04275322 -0.0017390806 0.012203162 -0.010814952 0.013371573 -0.030298257 0.021547912 -0.05558132 -0.06830388 0.082029626 -0.033835117 0.025826871 0.030611072 -0.013336642 0.0012631795 -0.099309966 0.049229182 -0.032992914 0.069140665 -0.11089883 -0.027905196 0.07372221 -0.04618205 0.052210547 -0.008735026 0.05129976 0.076449715 0.0280629 0.03307784 -0.0047363397 -0.0003698522 -0.049400847 -0.014872463 -0.048272952 0.024355303 -0.02032617 -0.056520328 0.007175265 0.04517605 -0.024121556 0.088264585 0.012547691 -0.11199817 0.004863369 0.03011382 -0.04049762 0.012122525 0.08773288 0.0007445813 -0.091095015 0.07984074 -0.048815615 0.015053479 0.014665828 -0.02142672 0.020490749 0.038335904 -0.065458864 0.066954486 -0.0006513772 -0.009450451 0.0009671914 -0.02747739 0.0024471383 0.024519324 -0.05074719 -0.010111809 0.016736435 0.043823864 -0.044603717 0.023263007 0.03872568 -0.018893773 0.040129628 0.07943363 -0.029641956 0.04045801 -0.0951418 -0.06434241 -0.036679536 0.010000731 -0.056403488 0.04343086 -0.017296074 0.0035974567 -0.031247875 0.045056503 -0.07254475 -0.04533069 -0.024152674 0.03510134 -0.06299371 0.019421244 0.021085491 0.009779801 0.055125147 0.06705971 -0.04735013 -0.026938021 -0.009678424 0.0031228329 0.013356861 0.042808577 -0.000812682 -0.009170119 -0.040020302 0.009112313 -0.077185 -0.033466067 0.028058011 0.019773128 0.0039991084 -0.02212844 0.04320717 0.045287076 -0.03845823 -0.03142543 -0.0810418 0.029442687 0.018837307 0.007706902 -0.026027875 0.02651235 -0.079377346 0.05034817 -0.028389128 -0.08324013 -0.13186124 -0.022446236 -0.036556453 0.045687996 -0.1654178 -0.0036958177 -0.045654327 0.030357521 0.033471648 -0.08355549 -0.025422573 -0.05876754 -0.024484195 0.015297941 -0.114741206 0.026294693 -0.010817621 0.05017722 0.010644926 0.034895305 -0.0018951554 -0.018420251 -0.08486995 0.04735394 -0.004982395 0.045297872 -0.05847741 -0.09157082 -0.05313482 0.047197223 0.07429537 -0.055869404 -0.026016932 0.024506021 -0.010821918 -0.023466233 0.020325327 -0.15013148 -0.010276682 0.03033045 0.00700029 -0.06848247 0.038035687 -0.0054848734 -0.001435413 0.0439081 0.020032313 0.0012755253 -0.09293469 -0.074024 0.03833429 -0.099096335 -0.017499965 0.0025993239 0.051438473 -0.07941476 -0.017641341 -0.048551995 0.008518322 -0.077829376 -0.013391209 -0.059815038 -0.006027513 0.049673986 -0.005450698 -0.033770047 -0.028466789 -0.047770843 0.0042673433 -0.0042103073 0.013533957 0.03631923 -0.0035038204 -0.052636646 0.06931465 0.035839044 -0.12588319 0.018274263 0.016641827 0.047285613 -0.002448924 -0.032835253 0.039781842 -0.03655234 -0.046458367 0.017681448 0.014139065 -0.07521182 -0.022087492 -0.049544282 -0.04428281 0.041206367 -0.029935975 0.0032981816 0.046082746 -0.10701467 0.0431166 -0.044867296 0.07669234 0.015499057 0.026035145 0.007978775 -0.08608947 0.028310362 0.04343911 -0.04667707 -0.17892657 0.0020148794 -0.002102389 -0.0058418307 -0.04831516 0.012511147 0.11065073 0.018521594 0.062231235 -0.0718736 0.036500625 -0.16272925 0.008467923 -0.08951732 0.070952386 -0.06839253 0.05107746 0.028014418 0.054066755 -0.013736647 0.0054157367 -0.07746684 -0.0378094 -0.0031749925 -0.0301224 -0.012417012 -0.0593116 0.051069878 -0.02160571 -0.033205666 -0.044057462 0.037197523 0.055525173 0.06904533 0.01405837 0.011343225 -0.0035782796 0.052067447 -0.054752044 0.0038133527 0.041385464 0.020033076 -0.025611447 -0.07888895 -0.08376376 -0.12030545 -0.017388508 -0.06546089 -0.026802765 0.0050929547 -0.061532445 -0.024729377 0.049401153 -0.0062648626 0.09904826 0.024261767 -0.041597232 -0.108225316 -0.046095718 -0.038115643 -0.05583659 -0.00940453 0.0042519253 0.032694947 0.044908594 -0.05039145 -0.06445986 0.058176108 0.055003345 -0.047115475 -0.11561743 -0.048394926 0.04411796 0.009975016 0.011395339 -0.054923084 0.059876885 0.022158347 0.027914576 0.038104866 -0.024964191
-0.064173006 -0.07702419 0.047057897 -0.01527281 -0.1353103 -0.08000096 -0.34368244 -0.041811973 -0.07285117 -0.1525719 0.09371965 -0.08831298 -0.195866 -0.08168633 0.082354285 -0.025004948 -0.0432735 0.027305322 0.00954344 -0.03947669 0.068631425 -0.06221855 0.11402487 -0.1169881 -0.24389967 0.0018985108 0.09929782 -0.012299426 0.11332442 -0.06630381 -0.05180074 0.015189091 -0.109704904 -0.04535451 -0.055174462 -0.09317648 -0.022880282 -0.09510671 -0.09723674 -0.1299928 -0.25850767 0.008833144 -0.112407744 0.043013908 0.13803369 -0.109967194 -0.07583456 0.086696476 -0.049698 -0.3706527 0.007651092 -0.13954595 0.08409755 -0.14050092 -0.0664735 0.10806062 -0.14622569 -0.10477761 -0.22427407 0.01306196 0.09730591 0.057093084 -0.06889403 -0.079111405 -0.10632968 -0.14432488 0.033936355 0.06195404 0.054426543 -0.026828252 -0.0014351376 -0.08615805 -0.08481005 -0.20015056 -0.0323039 -0.0059457817 -0.015126168 0.106468394 0.10444316 -0.045245092 -7.3086485e-05 0.11083831 0.0504634 0.09565598 -0.07864195 -0.09610009 0.1471557 -0.039699975 -0.029509164 -0.003445077 -0.13053736 -0.087175146 0.015474497 0.17060606 0.07749148 -0.17817779 -0.030174976 -0.06520464 -0.033516876 0.050370265 0.16485369 -0.05704288 -0.37359306 -0.0651158 -0.025491167 -0.07989796 -0.091964535 -0.14730246 -0.004988011 0.014337303 0.06302439 0.17097105 -0.008597935 -0.037531324 -0.08640586 -0.09876615 -0.04869801 -0.24621579 -0.045508105 0.044011552 -0.23346312 -0.14633313 -0.041035663 0.07055753 -0.03275767 -0.09891127 -0.1641031 0.05662973 -0.10039198 -0.107011124 -0.096699305 0.00014778675 0.036362033 0.008823001 -0.12573817 -0.04553854 0.014222608 0.12460051 0.10229323 0.0039592306 0.047981426 -0.03212614 0.16996239 -0.07295001 0.2553069 -0.0902577 -0.12324289 -0.104214475 -0.10537831 -0.027664507 0.02490835 0.10809156 -0.021463055 -0.04806087 0.02041871 -0.055282936 0.04532092 -0.16977851 -0.12836295 -0.13721576 0.030496893 0.11014487 0.088576466 -0.043966025 -0.0979029 0.035473883 0.1332327 0.10276906 0.124817386 -0.08165587 -0.2001116 0.052473675 0.05487411 0.06847622 -0.0025256583 -0.069900036 -0.1415043 0.16922668 0.00043464525 0.18705161 0.11724612 -0.051918387 -0.16138583 -0.1181031 0.01614163 -0.09405287 -0.07355201 -0.48106697 -0.009545094 0.06429902 0.18487464 -0.07840272 0.1756983 -0.12305135 0.041328777 0.099412866 -0.0097733 0.05082732 -0.08469651 -0.02745909 -0.058440622 0.02341622 -0.079675384 0.10238892 0.013647252 0.06324481 0.03869717 0.056644958 -0.5151792 -0.0003385416 -0.092737205 0.052561216 -0.056599256 0.020178633 -0.10468009 -0.13330391 0.037781518 0.13088565 -0.46753073 -0.11142322 -0.24810779 -0.22707091 -0.0027695512 -0.17553972 -0.16927399 -0.0018769057 -0.050530728 0.030101826 -0.07687709 -0.038335044 -0.030510915 -0.018975854 -0.18776916 -0.020610582 -0.05349089 0.02979303 -0.08962482 -0.12815356 0.09955235 -0.089611396 0.07751629 0.10962794 0.12794682 0.10898448 0.024012089 -0.039395433 -0.14561231 -0.14024234 0.032889966 -0.1969069 -0.025608385 0.047885694 -0.022875078 0.08988362 -0.013493029 0.0107297525 0.13125888 0.027964812 0.12991963 -0.044483606 -0.05131973 -0.053230584 -0.07789267 0.09287685 0.029853532 0.037936304 0.090092964 0.11035128 0.07575302 -0.025238225 0.061627764 -0.0836143 0.07200358 0.021606663 -0.046803847 -0.0071512735 0.049647108 0.0052632084 0.08248631 0.16041584 0.0407038 0.007972289 0.0724941 -0.17722805 -0.05083476 -0.016751524 -0.3061471 -0.026930861 -0.023162667 0.035417568 -0.0634911 -0.030261664 -0.17095004 0.07773552 -0.056629214 0.035290092 -0.12805152 0.12558205 -0.016384475 0.06682786 -0.061126843 -0.01765541 -0.06469548 -0.1963633 0.01322264 0.07873741 0.026825765 0.03736418 -0.18176292 0.03894437 -0.035144046 0.1126826 0.15687907 0.15371269 -0.111517 -0.016062872 -0.15212223 -0.07500366 -0.30864984 -0.009977389 0.07610273 0.077557184 0.030883392 -0.0338702 -0.01765437 -0.20311473 -0.1763072 0.15854685 -0.030113393 0.064827904 -0.082910426 0.059358623 -0.012830937 0.034396 -0.102356404 0.07170226 0.05521187 0.055291496 -0.029473545 -0.16968516 -0.0869989 -0.023756107 -0.041833416 0.08921977 -0.023908023 0.2846312 0.14912942 -0.09995772 -0.48076952 0.12822625 -0.1341949 -0.102537975 -0.10180378 0.0896893 -0.09052111 -0.015521037 -0.065264806 0.029731287 -0.10237275 -0.024690362 0.031435803 -0.009411155 -0.04588612 -0.029474925 0.015259926 -0.05190202 -0.04660366 0.0011301406 -0.10803243 -0.2859873 0.12785113 -0.118911654 -0.20532563 0.08317085 -0.051528543 -0.07615979 0.075064756 -0.05848147 0.03237697 0.081846476 -0.00057941687 -0.07875729 0.59691095 0.15616177 0.119057246 0.18157718 0.1616638 -0.200503 -0.12667821 -0.021740038 -0.123898774 0.01379679 -0.21865788 -0.04723003 -0.14383046 -0.26803043 -0.005297066 0.105621465 -0.09185965 0.09204643 0.02389735 -0.03736329 -0.22080067 -0.036772426 0.20367725 -0.040450733 0.030505506 -0.08628822 -0.20539138 0.10758257 -0.135784 -0.04150394 -0.1632849 0.02735538 -0.0089190295 0.09127662 -0.16425598 -0.032113545 -0.06767661 -0.0021028738 0.075487904 0.00525992 0.049722183 -0.017066466 -0.09864573 0.3193069 0.09795927 0.17963958 -0.06129883 -0.10536381 -0.19051467 0.002813048 -0.22441225 -0.10854295 -0.11219187 -0.029030805 -0.06734116 -0.062991455 -0.12090964 0.08559811 -0.09882423 -0.061234184 0.08087815 -0.18961704 -0.015236261 0.015797175 -0.050737675 -0.12631564 -0.09177359 -0.0059660682 -0.03311368 -0.14687943 0.07455088 -0.20015988 -0.0237557 0.07793173 0.04248734 0.060129203 -0.038187902 -0.13421749 -0.089175306 -0.06618201 -0.013570397 0.0047077225 -0.27346754 -0.21040092 0.0154717555 -0.040611442 0.1432169 -0.13270028 0.089177184 0.19879712 -0.071983814 0.0063276016 -0.07166837 0.109314546 0.14781 -0.10888996 0.05128198 0.10535637 -0.29946518 0.10331797 -0.039755967 0.0799174 0.3297099 0.03387168 -0.13655357 -0.2964749 0.06839007 0.0900423 -0.16015026 -0.012084545 -0.018653803 0.032394867 -0.13318624 -0.13536476 -0.093866274 0.11336048 -0.094556175 0.0859853 -0.04526458 0.13339496 -0.045908008 -0.06268213 -0.16880064 -0.02039103 0.17734842 -0.008091077 0.042446926 0.047336355 -0.015008208 0.043711927
0.1705743 -0.07319026 0.1343346 -0.048880234 0.28683257 0.056112304 0.08091671 0.0031082584 -0.009258571 -0.30004996 -0.08351431 -0.044222716 -0.18154325 0.08590552 -0.10545211 -0.0027269942 -0.15899728 -0.10287595 -0.2219203 0.07840469 -0.15601511 0.07169706 0.1554245 -0.17798749 -0.09162551 -0.15411828 0.0738053 0.067420825 -0.20097484 -0.003459534 -0.21183431 -0.29261816 0.02576731 -0.01992262 -0.19048779 -0.083961785 0.03896298 0.051539183 0.0026124744 -1.3278868e-05 0.06901701 -0.015354504 -0.001476936 -0.08234532 0.017796343 0.0016818328 -0.020369524 -0.11469911 0.032020204 0.057665326 0.099381655 -0.06995432 0.08876192 0.033872932 -0.050924983 0.13566785 0.015151977 0.0846306 -0.089529 -0.187679 0.09641185 -0.002816972 0.14280045 -0.22932035 -0.14363936 0.035594746 4.631338e-05 -0.026013715 -0.008908369 -0.054108858 -0.03398479 0.026306791 -0.08314186 0.026008414 -0.17791674 0.038404573 0.01928022 0.011921302 0.13337697 0.1063903 -0.12806779 -0.084007576 -0.054896764 0.0041837753 0.03632096 -0.011811497 0.11341703 -0.023463055 -0.044952367 -0.014007072 -0.025255708 -0.20745572 -0.113846764 -0.075826205 -0.072102375 0.11016066 0.0015375977 -0.05728298 0.002940484 0.0771304 0.008625879 -0.45476672 0.0097664 0.081742 -0.118056774 -0.07373283 -0.025246037 -0.16393903 0.1400906 0.052167185 -0.021588692 -0.007817851 -0.023046372 -0.06759294 -0.13760108 0.07156475 0.04341486 -0.02317659 -0.06964338 -0.121222995 0.008606377 0.051110163 -0.07320408 -0.10644082 -0.42438707 -0.06899761 -0.10284477 -0.19808608 -0.07891604 -0.07719655 -0.012253058 0.32781163 0.034005176 -0.075825 -0.061813395 -0.095121264 0.024281194 -0.07090681 0.047127098 0.033593852 0.08017549 0.022907143 -0.088897094 -0.21413988 -0.11412648 -0.05685634 -0.055410102 -0.020335104 -0.058338314 0.019706719 -0.11122151 0.052674163 -0.2565261 0.038560636 0.0029480862 0.013371576 -0.022343822 0.040936936 -0.023554709 -0.11172 0.055157196 -0.06026235 -0.008861638 -0.03883281 -0.06291247 -0.060008086 -0.03570286 -0.02005005 -0.09880309 0.045126658 0.12184736 -0.0043701907 0.04868009 0.048650924 -0.019258706 0.09945822 -0.10131865 0.25033313 0.09359256 0.034430593 -0.109223664 0.10358645 0.013252465 0.066613756 -0.07958396 0.016687622 0.031083656 0.039121956 -0.05940914 0.01525291 -0.078504145 0.02925573 -0.043231416 0.020916525 0.0881111 0.1579162 -0.13104016 0.016555574 -0.06619344 0.035959337 0.036600035 0.037985794 -0.21995734 -0.027238335 0.044483963 0.093537994 -0.0525425 -0.02434617 -0.27434662 0.07652703 -0.031378385 -0.032480907 -0.043789845 0.094694756 -0.02249249 0.027762698 -0.06709144 0.02830693 -0.094534285 -0.033878647 -0.022152971 -0.031954434 0.036875565 -0.03621893 0.035699226 0.034895543 -0.018608883 -0.097775355 -0.0930445 -0.25317222 -0.06927678 0.015200243 -0.14337553 -0.098512486 0.13225377 0.029170347 -0.016289616 0.13678533 0.053272776 -0.0503386 0.012876567 0.042862758 -0.026879994 0.02141805 -0.03414321 -0.0209811 -0.039609663 -0.013205289 0.11107376 -0.11671155 0.042392395 -0.004733436 -0.43514767 -0.0047218725 -0.051176105 -0.033020236 0.007761106 -0.06934967 0.00094875845 -0.12147748 0.20841853 -0.101582944 -0.096754715 -0.15582661 0.02252056 -0.0030809017 0.021196073 -0.33688554 0.09955352 0.055877965 -0.12223872 0.08538632 -0.049120378 -0.25859827 -0.011923567 0.027098466 -0.04743338 -0.12730981 0.097336784 0.00069239654 0.021406185 -0.12549978 -0.029299408 0.00938885 0.049992263 -0.15855294 -0.019447576 -0.031072067 -0.013312211 -0.10314792 0.011923906 0.004775666 -0.17584299 0.028877715 0.091992386 -0.092191905 -0.072747104 -0.028063083 0.07180756 0.016620198 -0.090279 -0.017093396 -0.0285407 -0.09054567 -0.06589929 0.16777 -0.03938935 0.06702365 -0.045100536 -0.19872658 -0.19418687 -0.0064063706 -0.06955532 0.048495047 -0.022000572 0.061099548 -0.062425897 -0.2030674 -0.24443866 0.009094504 -0.055312682 0.06385668 0.087230496 0.011625716 -0.10068458 -0.14610459 -0.020511309 -0.049536478 6.4916654e-05 -0.14801492 -0.15895706 -0.06438567 0.037781212 0.06871346 -0.3184619 0.0670177 -0.111724146 0.06735231 -0.07163041 -0.084680624 -0.085225955 0.008793478 0.021824602 0.011149179 -0.06772388 0.05724834 -0.10467436 0.16272023 0.011302962 -0.21494229 0.04304865 -0.08310779 0.010903328 0.077098146 -0.048214197 0.012883591 0.057041995 -0.0113392 -0.17153229 -0.02665553 -0.06469221 -0.3101773 -0.06957127 -0.05083661 -0.026379805 -0.048747785 0.009606839 -0.104955845 -0.007823703 -0.06100945 -0.08795356 -0.01305427 0.019993925 0.053076986 -0.21794717 -0.022119677 0.10002786 -0.09396751 -0.03749738 -0.037594818 0.073504195 -0.07830826 0.12400838 0.15192387 -0.014553388 -0.1305217 -0.13950787 -0.1790752 0.02815687 -0.07573628 -0.11477852 0.012268219 0.01871515 0.03260706 -0.046010897 -0.05275708 0.084634095 0.037896223 -0.061236016 0.015921483 0.10192687 0.0735908 0.056377232 -0.023054017 -0.039828334 -0.017677888 -0.06370832 0.12436043 0.043885767 0.009711884 0.098762214 -0.07268292 -0.06961676 -0.08121201 0.08211096 -0.0762984 0.046627335 -0.060591206 -0.0012877786 0.03115672 0.009571365 -0.067310005 -0.07504319 -0.06727856 -0.12402427 -0.10526159 -0.059111454 0.10262337 0.011657905 -0.08099537 -0.2933719 0.25385115 -0.09743097 -0.2855168 0.03003018 0.0034048965 0.07123771 -0.074775085 0.00983742 -0.002129285 0.28293696 -0.016313279 0.07252355 0.057726234 0.016826322 -0.072830886 -0.36952552 -0.05737706 0.10591891 -0.018907847 0.23286305 -0.043162536 -0.062587194 -0.0370853 0.06085994 -0.053652275 -0.15453024 -0.14934492 0.045200396 -0.040124957 -0.012666274 -0.10736988 -0.021831151 -0.070614725 -0.0026288666 0.053444795 0.08572009 -0.021088392 0.010662193 -0.057365917 -0.14622465 -0.059343908 0.04936247 0.15652172 0.003469226 -0.049879115 0.03208533 -0.061853033 -0.1437403 -0.0979707 0.008749144 0.06676318 0.0044373116 -0.07668144 0.092283934 -0.09765179 0.12983617 -0.06582088 -0.06533471 -0.106686614 -0.46642432 -0.02635763 -0.10621298 -0.029000502 -0.058302257 -0.051020555 0.106689334 0.028484585 -0.042079493 0.087608375 -0.056620374 0.0039649922 -0.23837611 0.016520644 -0.14178689 0.05327026 -0.09063613 0.02042751 0.11781688 -0.095794626 -0.016437553 0.041913357
-0.15109694 0.04056625 0.058770426 -0.006604045 -0.13176823 -0.038926728 0.009633536 -0.17513919 -0.25067225 -0.051041733 -0.05824789 0.03923578 -0.029925633 -0.14508864 0.021822343 0.10753623 -0.01228513 0.1377056 0.18074651 -0.02208614 -0.14237387 -0.06803098 -0.06362779 0.039580915 -0.0038384022 0.12731647 -0.057524722 -0.0021896116 0.13503185 -0.17121384 -0.12069797 -0.09143907 -0.24697275 -0.09665005 0.07821993 -0.12785958 0.052606203 0.12224665 0.023856135 0.046326354 -0.06252825 0.15995161 -0.11201907 -0.06279205 0.14967276 -0.14321227 -0.09521165 0.028636765 -0.16894662 -0.10901486 0.09516102 0.022279104 0.010100998 -0.032463428 -0.23430201 0.031791344 -0.24057308 -0.04693594 0.07284342 0.043833118 0.111174904 -0.03383709 -0.014632076 -0.007965006 -0.11402807 -0.073029734 0.11856963 0.036990646 -0.03241354 0.00036640125 0.14129964 -0.00022433457 -0.075981095 -0.16032763 -0.2557874 0.16262107 -0.43763036 -0.12458241 0.099093385 0.039124727 -0.023969848 0.13843726 -0.010513282 -0.09249797 -0.19582975 0.14003594 0.07254583 -0.040139694 -0.12767541 -0.005613706 0.021059614 -0.097444646 0.20621544 0.32897586 0.13186103 -0.29136458 0.12627207 -0.32003534 -0.099372126 0.123897545 0.122811764 -0.07392658 -0.027895799 -0.15008895 0.18867117 -0.03769953 0.047498424 -0.011342453 0.036001258 -0.058975015 0.27394745 0.093075454 0.27214912 0.0036146527 0.06638026 -0.19389534 0.021650385 -0.32246545 0.17147265 -0.13223371 -0.12467257 -0.14247249 -0.20987041 -0.018620117 -0.09585486 -0.06803666 0.039639197 -0.010261587 0.06450334 -0.06156443 0.028732568 0.19887811 0.060625896 0.036753967 -0.14881864 -0.014805041 -0.058992878 0.16436197 0.10878384 0.049011424 -0.25074756 -0.15710391 -0.21793422 -0.09544179 0.22329532 -0.278875 0.0005424988 -0.13604483 0.106550455 0.05969448 -0.25082293 0.10358956 -0.16969804 -0.1864126 -0.024189832 -0.06750157 -0.06238955 -0.08532241 -0.11334679 0.07201198 -0.0012657251 0.07320542 -0.34224483 -0.041790947 -0.048082042 0.056490894 -0.014143555 0.07916128 -0.21883985 0.0826027 -0.037420657 0.030275324 0.015435 -0.07622508 -0.046159588 -0.10563005 0.18768756 -0.02719367 0.11975312 0.18894726 0.23369409 -0.0037758255 -0.12641665 -0.014269866 0.022678737 -0.088238604 -0.14938588 0.0040657124 0.018651402 0.17100461 0.018827774 -0.03792575 0.05455433 -0.08513168 0.053570963 -0.06762297 -0.22205588 -0.046471946 -0.028952 0.09169933 -0.08680606 -0.25180155 -0.07458118 -0.029999163 -0.01549355 0.140116 -0.013714343 -0.026282728 0.03704099 -0.031091416 0.042544845 0.17700404 -0.3212548 0.042659223 0.010741314 -0.11290968 0.09301851 0.13466908 -0.01724337 -0.01876934 -0.03676046 -0.13631037 -0.02859109 0.05783743 -0.09609812 -0.09177368 -0.063432135 0.15377955 -0.14308317 -0.20610689 -0.023873644 -0.13223913 -0.021799896 -0.07949726 0.13517833 -0.2239541 0.06320248 -0.08475947 -0.12185553 -0.016015144 0.08559223 -0.036541704 -0.12055233 0.07311053 0.23236588 -0.21359427 -0.17203768 -0.0128058735 -0.17867598 0.015868096 -0.012963344 -0.64927256 -0.012806386 0.00023012201 -0.041645005 -0.03419352 -0.023907933 0.01741776 -0.19938633 0.012206668 -0.17729089 -0.5923567 -0.2101972 -0.104640804 -0.21225204 -0.08141419 0.13491791 -0.26806834 -0.15299018 0.20420459 0.03906194 -0.052509114 -0.016000962 -0.11136917 -0.092077196 0.1680048 0.115861386 0.12019005 0.20940447 0.085784554 -0.12998465 -0.053852502 0.00522765 -0.057609405 -0.08232321 0.037088264 -0.099581465 0.049867205 0.12018847 -0.028613416 -0.16484745 -0.06962556 0.0040388107 0.12294363 -0.010726203 0.04379527 -0.16300401 0.0872526 -0.012977999 0.021128783 0.056695722 -0.11221408 0.045332056 -0.026680196 -0.028776484 0.18787295 -0.16108689 0.15013859 0.06437037 -0.0025460918 -0.42592868 -0.0603227 -0.044697873 0.090476215 0.058012117 0.10886519 -0.11039923 0.09088477 0.06656791 -0.037912544 0.077085435 -0.28174275 -0.0362204 -0.10159757 -0.01930837 0.035047024 0.07503618 -0.22695182 0.12363607 0.12492285 -0.10126381 -0.049285587 -0.16115303 -0.12877022 0.047272176 0.03126558 0.08017611 -0.121801 -0.27733263 -0.056444656 -0.028409488 0.12548824 -0.105137765 -0.12803175 0.023258222 0.067673564 -0.031468928 -0.004506518 -0.076490596 0.037006315 -0.041341078 0.08000251 0.16905968 0.090328775 -0.082005754 -0.051033534 -0.10969604 0.07627663 0.0230094 -0.058790956 -0.0609668 0.079408474 0.10429443 -0.019025533 -0.047219936 0.11858833 0.11381795 -0.017199572 -0.09328464 0.109218925 -0.082179 -0.022662621 -0.18055767 0.09184655 0.059743162 -0.06290626 0.15828817 -0.13471782 -0.11255574 -0.0019328689 0.10089735 -0.39482415 -0.060855083 -0.01254219 0.12058508 0.19479364 -0.05833552 0.0941403 -0.01847102 0.056051217 -0.33415902 -0.091582626 -0.012103479 0.009464342 0.004684602 -0.09661414 -0.0255012 -0.1966787 0.006570876 -0.025047686 -0.13230495 0.08622826 -0.0061326176 -0.008947107 -0.0021871862 -0.27054513 -0.035416644 0.027665028 -0.333021 0.18414332 -0.156237 0.07410692 -0.11554783 0.038238805 0.13129506 0.039343033 -0.07271152 -0.06261827 -0.13577242 -0.12536344 0.18453984 -0.16831866 0.18044585 -0.1920268 -0.05458751 0.063642435 0.07093835 0.0736324 0.050727125 0.069371 -0.11405574 0.06649635 0.06935101 -0.054288577 0.082707666 -0.25681332 -0.062255457 -0.19265929 0.14079988 -0.25659052 -0.02462256 -0.07036979 0.047651064 -0.017143534 -0.23625705 0.11271961 -0.3203284 0.04334486 -0.28333998 0.023915034 0.048286974 -0.017033556 0.23382047 -0.044534225 0.058020435 0.10200795 0.04178074 0.18009062 -0.06174687 -0.036651574 0.06930318 -0.0011030681 -0.46922937 -0.093436286 -0.2756172 0.066982396 0.02723879 -0.046138197 -0.16161892 0.11377945 0.20449397 0.1618432 -0.024555972 -0.07979685 -0.13822801 0.18388216 0.04079611 0.19119836 0.14253289 -0.14077713 -0.22770575 0.04410656 -0.010156579 -0.1012188 0.11495834 0.14815833 -0.05365161 -0.118953116 0.07925299 -0.078137085 -0.11535915 0.24130042 0.035444606 -0.018335354 -0.0508685 -0.13931371 -0.108544126 0.1726225 -0.078737065 -0.14586227 0.077092685 0.18086365 0.12268772 -0.039450303 -0.081165746 0.05266683 0.048768714 -0.03426175 -0.08422265 0.06636341 0.089541666 -0.026654033
-0.024968527 0.046533577 -0.08774531 0.1120454 0.15959446 0.07893516 -0.17398512 -0.11277421 0.018096767 -0.16442157 -0.005122029 -0.103978276 -0.11312498 -0.08631203 -0.14484417 0.16816248 0.037531793 -0.07948425 -0.028758166 -0.1548016 -0.027405662 -0.13009475 0.13410397 -0.08262499 0.011633898 -0.029598705 0.048704322 -0.022103028 0.017113002 -0.034267936 -0.14479485 -0.11235953 -0.015066351 0.02572884 -0.28664553 -0.12759648 0.0055622966 -0.03916297 -0.031960696 -0.11274667 -0.09098727 -0.09160331 -0.06651944 0.12588431 0.034455806 -0.14224187 0.03533285 0.013679648 0.010214739 0.04614712 -0.11605653 0.09553517 -0.017439451 -0.15375723 0.16553433 -0.035466764 -0.028938364 0.10641945 -0.013677822 -0.1638229 -0.16518463 0.0879882 -0.14666282 -0.09504161 0.021290291 0.002969006 -0.039152846 -0.057380177 0.04388441 -0.12430403 0.072232686 -0.08403738 -0.02194687 -0.014393241 0.025602251 0.06775105 -0.035889905 0.07102947 0.015295306 -0.046716735 -0.090340815 -0.0021188406 -0.11188897 -0.025839211 0.015899276 -0.14275548 -0.042287633 -0.08461123 0.043589327 -0.10566885 -0.064801425 -0.07214174 -0.039434984 -0.015907219 -0.03380856 -0.039253067 -0.05072226 -0.011726521 -0.16113822 -0.04341086 -0.15321694 -0.07304292 -0.008179529 0.010804025 -0.05209688 0.016870668 0.00924467 -0.072951734 0.094736375 -0.1031281 0.056539822 -0.05995463 -0.06531584 -0.038472794 0.0367165 0.10556288 -0.019694442 0.0020499357 -0.10012459 -0.090184204 -0.07952613 -0.03634284 0.100388944 -0.15246569 -0.122343875 -0.072384246 0.03417885 -0.049881406 0.0070267837 -0.006627773 0.027550124 0.070156954 -0.004800394 0.060885098 -0.11734761 0.054405082 0.08310981 0.10703916 0.044241466 -0.10221203 0.032293938 0.041679952 -0.07418517 -0.08628776 -0.101609714 -0.085157715 -0.060270786 -0.01477544 -0.06292394 -0.059462152 -0.011424966 0.007972827 0.0637525 -0.045115534 0.0019293725 -0.038265415 0.022662813 0.02040337 0.107676804 0.012425784 0.009071474 0.022847395 0.0003573245 -0.026005983 -0.004892711 -0.020761417 0.011506173 -0.024385994 0.111733995 -0.048629813 -0.044520333 -0.03556255 0.0049369633 0.016725065 0.013880277 0.040968325 -0.0363212 0.07023259 0.032716304 -0.059571162 0.02883125 -0.13520698 -0.02363146 -0.06976856 -0.0030904934 -0.07338966 -0.021340013 -0.046642885 -0.10342112 -0.059138756 -0.25310048 -0.1265377 -0.039192587 0.047868844 0.12658419 -0.06371069 -0.014428932 0.06711183 -0.06846213 0.07390344 -0.07550892 -0.06477134 -0.091214664 0.06456867 -0.14807959 -0.11084285 -0.19949266 -0.05922651 -0.1404092 -0.035352543 0.10440941 0.07893101 -0.0033750117 0.07032728 0.004292566 -0.046597518 0.05492954 0.03878322 -0.0768305 -0.05016078 -0.09317757 -0.027751314 -0.08744187 -0.049602598 -0.22917259 -0.089360975 -0.00097173074 -0.07722371 -0.15804622 -0.050360896 0.0010331358 0.03098672 -0.13773826 -0.14420862 -0.028913768 0.10152141 0.09925307 -0.11424329 -0.046483774 -0.21627036 -0.025421955 -0.13015968 -0.045162436 -0.14981686 -0.07147924 0.041941486 -0.014303514 -0.08676776 0.09143186 -0.14519908 0.048151445 -0.058574103 0.0044710995 -0.1299777 0.045014523 -0.05260233 -0.06419653 0.026527766 -0.021940561 -0.09622428 0.1724638 -0.10195565 -0.09008539 -0.03276839 0.028372986 0.18174204 -0.09141537 -0.06993618 -0.026823245 -0.04267982 -0.0742985 0.048448227 -0.009011532 -0.0007404487 -0.011180391 -0.02604613 -0.009364587 0.025415342 0.007896234 -0.009338435 -0.028955456 -0.10119235 0.035602402 0.012819891 -0.08277191 -0.0068200105 -0.044973098 -0.013362439 0.039520364 -0.003921491 -0.04134644 0.0015788897 -0.16408178 -0.09142638 -0.01987181 0.049205363 -0.10188469 0.062112708 -0.036099568 0.005697327 0.088937275 -0.055870466 -0.07933762 -0.04934008 -0.24788 0.09197487 -0.042486735 -0.124522634 0.041050464 -0.09986094 0.10227757 -0.0021425372 -0.15163258 -0.04587104 -0.05319187 0.047133587 0.08149131 -0.0198019 -0.21748465 -0.0971877 -0.020645965 -0.06584003 -0.09334636 -0.009843092 -0.034352574 -0.13748275 -0.11093917 -0.08179942 -0.029011738 0.0029031842 -0.0012861526 -0.111132175 -0.10682399 0.036090985 -0.19540597 -0.07715453 -0.07543142 -0.028541286 0.018287834 -0.12405568 -0.10318883 -0.022290254 -0.088411674 -0.0133628 -0.075366594 0.0015015847 -0.18937558 0.019052075 0.013298105 -0.065322466 -0.032952614 -0.11669901 -0.014059547 -0.03192447 8.019873e-05 0.05226166 -0.0050728787 0.10776056 -0.09832059 0.0057219197 -0.101530574 -0.063670196 -0.064307705 -0.015806487 0.03960791 -0.13737646 -0.022992497 -0.025943087 -0.05812309 0.037353218 -0.05047167 -0.034286153 0.019470243 -0.033283327 -0.13868336 -0.00813976 -0.007950135 -0.11122121 0.056925386 -0.11139696 -0.09704174 -0.028259762 -0.02184591 0.06333916 0.049065113 -0.118539244 -0.023867205 -0.10106515 0.013648996 -0.03734527 -0.071803324 -0.17993797 0.004124885 -0.07304022 -0.13699345 -0.15077034 0.0056039896 -0.09646666 -0.05035028 0.013581067 0.019919738 -0.06963756 -0.3113523 0.04187206 -0.05870762 -0.017441453 -0.06878918 0.079568364 0.010200939 0.01853855 0.0321283 -0.03149433 -0.042568497 -0.27629492 -0.120695576 -0.046524197 0.062963255 -0.04203856 -0.010248878 0.020801974 0.047260787 -0.013087821 -0.0464631 -0.06070249 -0.009055197 -0.042909022 -0.11773448 0.022460818 -0.03336744 -0.096252285 -0.21874337 0.09354785 -0.06434112 -0.06233728 -0.013882409 -0.11566788 -0.019260738 -0.023804985 -0.057615902 0.026045982 0.09819645 -0.0716405 0.005900582 -0.018116467 -0.0058372635 -0.23777121 -0.1028739 -0.1841356 0.0028289454 0.0028864979 -0.18599667 0.017380046 -0.08504716 0.053767305 0.0551516 -0.03498994 -0.17670928 -0.112441815 0.0044762907 -0.06472115 -0.08902951 -0.048747964 -0.062235158 0.0037221587 -0.11651346 0.024579523 -0.18388623 0.045118894 0.13949159 -0.01457315 -0.027751135 -0.1775878 -0.005506527 -0.21969876 0.04239793 -0.013666266 0.07713254 -0.00969336 0.030463671 0.11014533 -0.018768016 -0.0045748847 -0.017225338 -0.10459993 -0.009359108 0.056822203 -0.018252369 -0.09855175 0.06213328 0.11575742 -0.06633256 0.028978784 -0.19989686 -0.035421193 -0.29098672 0.09334183 -0.18549865 -0.03760256 -0.04180348 0.017561374 0.03408274 0.08762034 -0.117970176 -0.032157276 -0.123248436 -0.024832694 -0.017196873 -0.053149857 0.0037946966 -0.118811175 -0.03729466 -0.2240068
0.02945167 -0.03571656 -0.084046885 -0.038077746 -0.032934103 0.0025866872 -0.08192117 -0.0752195 -0.03437648 0.011272359 -0.04733218 0.027671257 0.046937883 -0.025106892 0.03575961 -0.076197736 -0.15603685 -0.055030275 0.03482764 -0.010821002 0.005497188 -0.0140064815 0.024036882 0.050772216 0.051969707 -0.006549211 0.0071834424 -0.024081782 -0.07125997 -0.009274565 0.012009103 -0.023006953 -0.008104088 0.02656121 -0.06180165 0.020155959 -0.08085493 0.045129508 0.0393004 0.029883208 -0.01954286 0.012408808 0.062824905 -0.0034033528 -0.12545352 0.039351348 -0.023421628 0.0166452 0.012390608 -0.0058956076 -0.061629012 0.08809847 -0.05682771 0.007398908 0.042359672 0.051489763 0.070307 -0.029795503 0.007833446 -0.03922767 -0.08573897 -0.023792554 0.03538559 0.058542516 0.06062764 0.04031934 0.018647926 -0.0013978941 0.015371401 0.026424995 -0.09808147 -0.07716812 -0.11367711 0.009042844 0.00022369559 -0.0017850959 -0.06936842 0.012202563 0.04762099 -0.08172064 -0.016807893 -0.07567374 0.0378863 -0.031187264 0.017329048 -0.0644038 -0.05688899 -0.10856994 -0.01658473 0.013971948 -0.0017544902 -0.061496723 0.03393473 -0.17753045 0.02310025 0.049153004 0.0019427678 -0.0057108183 -0.07309685 -0.060770597 -0.01711387 0.06429309 0.04708303 0.12822497 -0.0312196 0.015346838 0.071014486 0.024572022 -0.01288365 0.009937353 -0.20018771 -0.17425878 -0.12235851 -0.01926355 -0.19838911 0.0004775713 -0.028494794 0.047750738 -0.050947033 0.04739826 0.048203155 0.05816841 0.045075856 -0.074920036 -0.059807178 -0.020496452 -0.031847954 -0.09488384 0.039629634 0.074661024 0.026626796 0.0017164361 0.013459611 -0.03188456 0.048604004 0.02676482 0.01643755 -0.17371744 -0.1321556 0.022372177 0.0014725889 -0.035709657 -0.047765773 -0.027820539 -0.011183594 -0.04755605 0.029630117 0.07719223 0.036910757 -0.023664277 -0.06027565 -0.00025678985 0.0071281004 -0.010204248 0.07197434 0.07691564 0.041715484 0.027224377 0.027438778 -0.10763541 -0.055258542 -0.015417572 -0.058810305 -0.061419718 0.003669863 -0.04559241 -0.050905406 -0.08229148 -0.01805355 0.040440015 0.057616174 -0.11755955 -0.078296445 0.055997718 0.09053479 0.0019339599 0.08470156 -0.035028495 0.04890068 -0.1035514 -0.15338953 -0.0068407496 0.08069203 0.015320805 -0.012073337 -0.010538195 0.02788695 0.040108368 0.0020065075 -0.041689914 -0.055504866 -0.09752235 -0.041754268 0.0857399 -0.08828228 0.0056518777 -0.06474077 0.009877997 0.014592123 -0.010600694 -0.013255774 -0.0052521043 0.041907217 -0.032723505 -0.017100021 -0.06416376 0.020602176 0.017588615 0.00062240276 0.02678927 -0.047700044 -0.016346747 0.0017511087 -0.049811512 -0.02884137 -0.010626448 0.020321373 -0.097466044 0.051323663 0.005357403 0.038061358 -0.013510569 0.012784426 0.035455827 -0.017597605 0.03721571 0.04933089 0.061406422 -0.042287167 -0.081618845 -0.017922161 0.07010672 0.0348112 0.004758597 0.00039875682 -0.0016177294 -0.0031137445 -0.024722163 -0.03627057 -0.026713047 -0.06968678 0.010963759 -0.044498906 0.046314135 -0.009256856 0.021363517 0.022453263 -0.039698042 -0.053975023 -0.018336605 0.06170833 -0.04989426 -0.044066854 0.026677754 0.0008921811 -0.13121782 -0.060168 -0.010310308 -0.05156884 -0.0026830016 -0.059287358 -0.028321717 0.019874463 -0.08567378 -0.023250723 -0.004236189 -0.0006954823 -0.037810273 -0.00045870608 0.017244441 -0.014881859 0.012790706 0.022891315 -0.0049312944 0.018218666 -0.12142943 -0.048757013 0.012513753 -0.051778372 -0.060474508 -0.006627403 0.056424815 -0.063111946 0.10215392 0.026348818 -0.101556405 -0.02685568 0.05191996 -0.02564042 0.063197985 -0.02356882 0.030949906 -0.042901456 -0.053677972 -0.0012365147 -0.022813378 0.0549889 0.010412542 0.03897583 0.01006719 0.026037954 -0.0056353235 0.10258318 -0.053460784 -0.018392773 -0.083218955 -0.018956086 -0.06628355 0.029613232 0.08383487 0.038152993 0.031469233 -0.027280714 -0.05554914 0.04567455 -0.009975164 0.011988126 0.0012852269 0.0075389454 -0.0012830619 0.014610722 -0.028805347 0.02213941 0.03916444 0.034750998 -0.095527664 0.019495063 0.027944706 0.03632312 -0.15574037 -0.042662024 -0.029674392 0.02035308 -0.033750687 0.009963295 0.081487365 -0.026644984 -0.03908269 -0.018072434 -0.08919102 -0.072014846 -0.0713721 0.083440855 -0.033375546 0.0063387775 -0.064128995 0.013578965 0.09023851 -0.025890121 0.006493364 0.020148719 0.00987436 -0.065221466 -0.089369886 0.06423072 -0.021348242 0.018454818 0.005249564 0.06457306 0.033219967 -0.05765043 0.00090917526 -0.14637297 0.009754006 0.004593526 -0.01493757 -0.078203306 -0.0045279916 0.010922372 -0.04040334 0.046498246 -0.020169234 0.011968705 -0.0008093267 -0.0011467471 0.06319262 0.0052994806 0.0333743 0.017272238 0.0017192456 -0.07249486 0.0061009084 -0.03969324 -0.051489823 -0.11333429 -0.031565882 -0.031833995 -0.028784256 -0.027039861 -0.071619876 -0.010651978 0.04648541 0.028415218 0.07103946 -0.016387586 0.028376248 0.035650175 -0.035359673 -0.017785337 0.042414337 0.024331804 -0.03964233 -0.04815033 -0.0099200895 -0.060078736 -0.025599912 0.006566021 -0.0023369875 0.011448963 -0.04349868 0.0049840584 0.01891657 -0.009984501 -0.008540149 0.0304703 -0.013788182 0.050299674 0.03579415 -0.045568094 0.0023268578 -0.10276756 0.009302602 -0.0043303487 -0.024405384 0.016879376 -0.067748815 0.028314317 -0.14491318 0.032783676 0.059388395 0.035623413 -0.13816383 -0.0073813186 -0.029078394 -0.024806917 0.06679517 0.028719101 0.0067144274 -0.0013226464 -0.02581582 0.03690394 0.031268254 -0.13967356 -0.061905302 -0.01111014 -0.07035873 -0.052224107 -0.0060398323 -0.01955717 -0.04350795 -0.052803423 -0.003669029 -0.01775972 0.08370368 -0.0022630075 -0.080373354 -0.005056842 -0.017618489 0.060430232 -0.09325385 -0.0107792895 0.07631158 0.0018352959 -0.06310145 0.02361428 0.034096994 0.03175817 0.00554149 -0.02228041 -0.039148703 -0.1255022 -0.013540692 0.03683084 -0.014917871 0.04859848 -0.1210706 -0.09306733 0.048216294 -0.102859624 -0.01078226 -0.013924124 0.019731605 0.055503324 -0.04865415 -0.119322106 0.027764954 0.046703078 -0.012691367 -0.14648677 -0.06931738 0.017776925 -0.05926217 -0.0023305952 -0.0010638841 -0.0022912924 0.04875084 0.014924303 -0.07698401 0.0178583 -0.019170247 -0.035989724 -0.101897985 -0.055757556 0.064104185 0.08074531 -0.03679316 -0.039627057 0.04711668 0.011831269 -0.09737873 -0.07576283 0.027459025
-0.030754646 -0.029431121 0.0010133522 0.050551556 -0.012964341 -0.020066269 0.045872997 -0.048905563 0.072416395 -0.068022534 -0.033516817 -0.057045523 -0.022774985 -0.028991098 0.009610604 -0.0017477613 -0.14201406 -0.019318433 -0.035338804 0.04538621 -0.04828195 0.014971464 -0.009564784 -0.041932724 0.002255882 0.013206957 -0.035561632 -0.103456385 -0.09004229 -0.0030331719 0.004762594 -0.07928158 0.0006799008 0.038263205 -0.038632836 -0.056665253 -0.026350658 0.057029538 0.0038657924 0.0078065554 -0.01700855 0.058424268 0.03335348 -0.0029436022 -0.04243019 -0.03540264 -0.04372795 0.02653756 -0.0348341 -0.023117568 -0.020051016 0.04939081 -0.06063424 0.016834306 0.0720391 0.0275194 0.042064264 -0.009093026 -0.011497048 0.012648454 0.07894925 0.020877011 0.07257181 -0.04163028 0.029604964 -0.001564457 -0.030972306 0.043762784 0.030883377 -0.029779559 -0.023381708 0.012105472 -0.092896156 0.0061265333 -0.0067487806 -0.046213005 -0.015560099 -0.053523522 -0.016327914 0.03725962 -0.025393978 -0.07270115 0.039053347 0.0344347 0.018625017 0.024312552 0.028104858 -0.06257268 0.04691944 0.039117556 -0.028820056 -0.10752653 0.02907739 -0.05142637 -0.07015834 -0.005187258 0.037149098 -0.05260314 -0.014635094 -0.017308014 0.04111358 0.014956878 -0.03131803 0.05086263 -0.032700595 0.0206358 -0.07078283 0.029074538 -0.00798369 0.04489726 -0.1472301 -0.0128431935 -0.051843453 -0.03776626 -0.1587873 0.0010597581 0.0021811377 -0.015181486 0.047345165 0.0094573395 0.003760124 -0.0068020043 0.06636569 -0.0269495 -0.020014558 0.056673255 0.007739616 -0.0048595164 0.0617364 0.0142397145 -0.014386546 -0.037041936 -0.023269327 -0.06397716 -0.015876096 0.0018297161 -0.045458578 -0.14899212 -0.1022946 -0.0005499782 -0.0054935254 -0.028937312 0.027035613 -0.0006430907 0.028251566 0.007695681 0.03342958 -0.028441785 -0.008049423 -0.00074648706 -0.06771021 -0.03457719 -0.10599074 -0.028685838 -0.058077037 -0.042827506 0.051754113 -0.028231721 0.00954237 -0.12566721 0.039784394 0.015609166 0.014388303 -0.016585255 0.010599028 -0.11005793 0.016907403 -0.06602649 0.01774527 0.051957447 0.019506367 -0.024412237 -0.0013497922 0.005128346 0.0332745 -0.0143993255 -0.0071106288 -0.0146191595 -0.007624949 -0.0876563 -0.12957774 -0.0037282628 0.008928826 -0.042260647 -0.030944288 -0.044338647 0.064356506 0.0075322893 -0.005040142 -0.019958159 0.02160785 -0.03481944 -0.017899059 0.026592392 0.056472044 -0.012868635 -0.052704364 0.0010217777 0.038484544 0.003514231 -0.040204592 0.035305813 0.07052325 -0.03812399 0.04219068 0.006672743 0.041990373 -0.027437711 0.005820287 0.030339915 -0.034745514 -0.007894985 -0.017938811 -0.038022768 -0.010088292 -0.008679141 0.044567782 -0.10798961 -0.0119628515 0.019089738 -0.0680346 -0.053548485 0.05879443 0.0041817683 0.020247012 -0.011617071 0.030615047 0.006296463 -0.00765533 -0.02914871 0.03547997 -0.032043085 0.03476762 -0.014136492 0.018794518 0.0023922625 -0.052591827 -0.043282963 -0.0024584662 0.0647988 -0.05080514 0.030756788 -0.011216613 -0.013091845 -0.057970025 -0.045573544 0.060882993 -0.081657045 0.039521698 0.007994161 0.0007091519 -0.02655444 0.02060388 0.017781401 -0.015509735 -0.061005738 0.010515189 0.01667597 -0.026813768 -0.009403886 0.030297961 -0.017649554 0.053498067 -0.012025087 0.00503447 -0.0459624 0.01817949 -0.021298558 -0.026470348 0.032054625 0.009553274 0.0011989843 -0.024171334 0.014095695 -0.021501057 -0.011411589 -0.08722853 -0.0344765 -0.034461543 0.021486523 -0.054021113 0.03319838 -0.06272755 -0.057138655 0.036819436 -0.028201606 -0.016035788 -0.019869179 0.013665281 -0.07487942 0.006000384 0.0075415997 -0.04570421 0.00025291918 -0.0013898829 -0.004569835 0.0042427354 -0.03418678 0.043376643 0.02571407 0.04902783 -0.0331627 0.007272486 -0.0123902615 0.03533598 -0.078935675 0.034826282 0.0066339946 0.059941534 0.028396592 -0.018465953 0.011410934 -0.056416843 -0.06993395 0.02625551 -0.0019226781 -0.0073920814 -0.05613207 0.014972432 -0.018603468 0.0027620057 0.02082442 0.0030718537 0.026855132 -0.052793574 -0.123969615 0.02285777 0.009912297 0.01179431 -0.08165663 -0.024230206 -0.0113214245 -0.034914773 -0.060059745 0.036635015 -0.018491711 -0.051731877 -0.027874641 -0.035437584 0.0041482337 0.029472366 0.008385221 0.0066427416 -0.035749603 -0.0011369003 -0.017728318 -0.002668671 -0.07325077 0.03434836 -0.009665476 -0.027950844 -0.05020247 -0.014571989 -0.034628533 0.052319255 0.047961734 -0.0773587 0.015930148 0.04217779 0.01659392 0.012257648 -0.010951973 -0.105655506 0.043287814 -0.044631995 -0.00020445812 -0.06343456 -0.040703025 0.03722986 -0.008436981 0.02127385 0.0426948 0.007796644 -0.018858474 -0.0396565 0.04722625 0.00095624477 -0.016467322 -0.021473043 -0.0018137275 -0.07649596 -0.052175876 -0.048416723 -0.025851728 -0.083432026 0.020639917 -0.062097598 -0.013986757 -0.035462763 0.052807778 0.02068051 -0.039049532 -0.025489165 0.032504257 0.0064336727 -0.0020554569 -0.017243743 -0.0565085 -0.027586674 -0.0370595 0.005331582 -0.07489835 -0.03682357 -0.042808697 0.0021189584 0.018123984 0.022807965 0.05383921 -0.050855037 -0.08773635 -0.02769948 -0.04113115 -0.02810312 -0.018709583 0.044766646 0.008796031 0.008393584 -0.019385837 -0.027498828 0.04441811 -0.060837556 -0.02462704 -0.01663433 0.024246272 0.042854525 0.041255668 0.022939464 -0.04293884 0.004702557 0.068853766 -0.017394863 -0.07105886 -0.0444222 -0.019767534 -0.020685734 -0.04349883 -0.011528062 0.0371197 -0.015263953 0.0014434324 0.022815345 0.047742378 -0.10730698 0.036087826 -0.050645962 -0.034366596 -0.034881204 -0.015776882 -0.0008977769 -0.04325095 -0.06404085 -0.024969669 -0.03653041 -0.018709876 -0.011921045 -0.06692639 -0.005679523 -0.009426299 -0.010794114 0.051076774 0.03953952 -0.02479508 -0.019430595 0.021648487 0.017355258 0.012299293 -0.03885458 -0.0061326367 -0.02559231 -0.050337013 0.055239525 -0.021492137 -0.03727578 0.0068025673 0.023667516 -0.10912748 -0.07855985 -0.022235807 -0.07638357 -0.023779036 0.037418064 0.034518983 0.027268022 0.049207326 -0.08854261 0.09317941 0.051655233 0.04178371 -0.09322521 -0.105208695 0.015429439 -0.0061406735 0.02736575 0.06363687 0.0011673839 0.07389659 -0.047450803 -0.11288464 0.02204765 0.008437537 -0.0028478806 -0.11014044 -0.018901909 0.00924162 0.0029967963 -0.0056243697 -0.04053128 0.0127982395 -0.058552068 -0.00016116106 -0.036462642 -0.021306755
0.025551807 -0.08063674 -0.05718554 -0.022293182 -0.041738976 0.018443054 0.031009994 -0.054156575 0.018568013 0.013476307 -0.04531218 0.036890578 0.0049086013 -0.057784203 0.05987254 -0.0028547216 -0.103563435 -0.11151373 -0.061507437 0.007006993 -0.0017426237 -0.016921172 -0.009206696 -0.029816162 0.037371505 0.003789792 -0.0018749167 -0.011434091 0.002892254 0.09009551 -0.040253256 -0.073473014 0.04268554 0.062471516 0.008416371 -0.030993503 -0.13400961 -0.01158207 -0.049770016 -0.015084193 -0.012225312 0.026391588 0.029139178 -0.008096605 -0.008990316 0.025113998 0.050760936 0.07216333 0.007827377 -0.024205722 -0.045804314 0.041361395 0.007199821 0.0047076684 0.048481926 0.06741142 0.05129614 -0.007756007 -0.019548556 -0.05693095 0.036173474 0.034897786 0.060032718 -0.011737934 0.020268569 -0.029865168 -0.043962434 -0.026640207 0.011263501 -0.009072727 -0.019305846 -0.008189009 -0.16363347 0.02933427 0.028593065 0.0113888495 0.012013299 0.013926705 -0.018010696 -0.08993224 -0.0068707294 -0.07248099 0.021189138 0.026345855 0.01107855 0.020998782 -0.026853211 -0.04092546 0.010059708 -0.062384743 0.013708922 -0.050447788 -0.037570816 -0.089257896 -0.027504703 0.04112189 0.049346182 -0.02352423 -0.004613878 -0.012764553 -0.02651101 0.03491576 -0.022514524 0.07371668 0.030135155 0.06455442 -0.05158591 0.018195305 0.07792941 0.061533377 -0.16778304 -0.09654525 -0.10410119 0.011435411 -0.1613343 0.025377966 0.028535027 0.01727665 -0.021907886 0.005796963 0.021812798 0.015817786 0.03156129 0.007948597 -0.1220225 -0.031990234 -0.03776513 -0.04025755 0.0081216395 0.08447744 -0.01467226 -0.061915908 0.03198534 -0.0058832103 0.06321597 -0.046039835 0.011245602 -0.10749922 -0.087711394 0.038476054 -0.0029728229 0.06933077 0.012956142 -0.0037056773 -0.032849997 -0.019008705 0.016163452 0.023302324 0.001958421 -0.042635567 -0.09379784 -0.06274296 -0.06467902 -0.0024311575 -0.024024643 -0.015986482 0.012660729 0.060598984 0.06633902 -0.12473566 0.023339199 -0.03467259 -0.052371286 -0.04571905 0.02896829 0.010257683 -0.063968495 -0.09036249 0.03744853 0.07427865 -0.024213118 -0.036353856 0.010210151 0.005921412 -0.008922902 -0.0768154 0.029084567 0.011244764 0.01878275 -0.056488745 -0.15901393 -0.013096506 0.0912044 -0.027001629 -0.010431324 -0.018678239 0.02287456 0.0027662755 -0.0076574557 0.02074265 -0.07058357 0.007782941 0.002201357 0.034202468 -0.067310944 -0.02197214 -0.029389504 -0.0073999017 -0.024225399 0.0067149475 0.01243905 -0.020015044 -0.027551584 0.03426499 0.047981977 -0.03705509 0.017519578 -0.03243847 -0.013453451 -0.014542134 -0.10531408 -0.03392704 0.06311377 -0.041038953 -0.053493515 -0.031483557 0.022923859 -0.05874751 -0.038840536 0.036098048 -0.04272212 -0.012035176 0.014865322 0.030203754 0.029021235 -0.0049525644 0.047221325 -0.056241263 -0.03638059 -0.04137609 -0.11042847 -0.059457585 0.025553286 -0.0113296015 0.013784955 0.019548327 -0.062181346 0.07307927 -0.0046071997 -0.090881035 -0.06268337 -0.027722701 -0.016712518 -0.018124076 -0.005865343 -0.047656856 0.0040377537 -0.017262718 -0.024307244 -0.023251416 -0.020175608 0.016279858 0.032539334 0.022746772 0.053489625 -0.07471936 0.028604917 -0.033375077 -0.008339273 0.028331889 -0.05728838 -0.0699709 0.039375875 -0.03763459 -0.014154792 -0.025933253 -0.067732476 0.0010980136 -0.05517746 0.029709693 -0.045476258 0.0001461929 0.043322228 -0.026662583 0.03043921 -0.12838829 -0.02787405 -0.042529736 -0.08253836 -0.04603286 -0.05325127 0.06619288 0.016618479 0.05283899 0.036767367 -0.016078863 0.02770803 -0.050236523 -0.029450737 -0.00034950455 0.037912503 0.00021500837 -0.0071386467 -0.028897433 0.04069972 0.057381306 0.010935226 -0.02991531 0.03766372 0.021970738 -0.06879164 -0.020001061 0.025740828 0.027754795 -0.02236658 -0.070227645 0.017693037 -0.014905402 0.029353354 0.053844903 -0.038890928 -0.046198547 -0.0516305 -0.041928373 -0.03644303 0.011745674 0.00035811134 -0.06727339 -0.052603833 -0.10458508 -0.018769037 -0.06032208 0.019848345 -0.017778007 0.026249116 -0.12638219 0.030026074 0.0016309413 0.019045465 -0.14605846 -0.04867703 0.019435793 0.057352915 -0.024514118 -0.03680776 0.005477526 -0.004210425 -0.05758578 -0.07606587 -0.10056073 -0.005693741 -0.03996486 -0.004691405 0.046458546 0.028324503 -0.0028561335 0.0027136332 -0.053470884 0.060248446 -0.044752385 0.04378595 0.030610269 -0.10956672 -0.086516865 0.047236886 -0.0067261215 -0.057230715 -0.0071287607 0.023967069 -0.0022635888 -0.010298662 -0.0018716955 -0.21156077 0.0046190564 0.055540968 -0.062432475 -0.030755209 -0.05436675 0.024782263 -0.054487225 -0.054310028 0.041160457 -0.019876724 0.023311116 -0.05080536 0.029778188 -0.037513327 0.001674969 -0.054422237 -0.00785314 -0.038023725 0.017599115 -0.06426064 -0.0527665 -0.07068013 0.02891961 0.009235543 -0.005623247 0.030727826 -0.023597974 0.031479683 0.0136438925 0.036651153 -0.0090561155 -0.015302097 -0.009150274 0.07693304 -0.021857226 -0.031802073 0.024850845 0.06276405 -0.05684896 0.0062962817 -0.048520062 -0.05769536 0.022726912 0.027324077 0.043742258 0.016953897 -0.086726345 -0.034172047 -0.04507108 0.0128307715 0.031528123 0.00884199 -0.0019334394 0.07777971 0.0067899 -0.0068460475 -0.01265383 -0.11284131 0.035902515 0.027312597 0.064826034 0.022404918 -0.049093556 0.04066526 -0.0406139 0.012024415 0.061902866 -0.011715132 -0.121764794 -0.074890055 0.031420834 -0.027292086 0.04451147 0.06732755 0.039722953 0.022671295 0.002762442 0.026655281 0.061392825 -0.15361352 0.0016868585 -0.050181292 0.027670305 0.0027137562 -0.032723885 -0.07680505 0.009707223 -0.05053185 -0.050178375 0.015494466 0.06940156 -0.005689971 -0.099032454 -0.07278324 -0.0410576 0.016422728 -0.08153923 0.041625474 -0.007259128 -0.10010412 0.038410794 0.060321394 -0.018753413 0.023564193 0.032566506 0.026616538 -0.045335285 -0.047994003 -0.022726856 0.059045803 -0.027679134 -0.020706492 -0.11141804 -0.017959611 -0.0394771 -0.09133541 0.045533534 0.050376263 -0.005671465 -0.004643597 -0.009459155 -0.07368066 0.05436862 -0.019357758 0.0045121876 -0.14128108 -0.07617366 0.0068988404 -0.08935137 -0.0568418 -0.034785908 0.008439387 0.08960268 -0.03513813 -0.039980028 0.020293795 0.012158824 0.017726338 -0.12265464 -0.073724784 0.009000131 0.018192869 -0.1019573 0.008143668 0.04704456 0.0073703113 -0.052820776 -0.060655795 0.012304766
