0.015463094 -0.021666273 0.03778285 -0.08896429 0.036312226 -0.025343606 -0.08600955 -0.014155489 -0.015665533 0.005932567 -0.05166004 -0.06345969 0.027206378 0.06480331 -0.05158177 0.023063153 -0.0350163 -0.015362105 0.011272786 -0.13281208 -0.023854995 -0.15700047 -0.014981702 -0.021290436 -0.058192194 -0.03178356 -0.043327674 -0.00906413 -0.057349306 -0.0016453323 0.044154763 0.075993314 -0.03976302 -0.075919725 0.03474098 -0.055334795 -0.04857914 -0.05184389 -0.073891945 0.05973037 0.05348263 0.07297349 -0.1841007 0.044314906 -0.010028155 -0.21827465 -0.041178044 0.006504621 0.0640443 0.020774268 0.02587485 -0.04952634 0.023884444 -0.042315423 0.024540886 -0.025362354 0.020555736 -0.08212002 0.014067624 0.030657124 -0.043738984 -0.00293696 -0.004569041 -0.05237628 0.010154773 -0.005534382 -0.06018425 -0.006138471 -0.19251576 -0.1011057 0.01785177 -0.029938333 -0.017630694 0.0044629877 0.046302672 0.03287648 0.019155562 0.012826454 -0.06766938 -0.04228717 -0.07768566 0.03878495 -0.044418935 -0.047979992 -0.04304901 0.04808743 -0.04744815 -0.02237913 0.0009145306 -0.033385206 -0.009702085 0.00045501406 0.031303752 -0.08805994 -0.045030583 0.026300248 -0.025591599 0.035724655 -0.038353182 0.00026804258 0.017113263 -0.02034096 -0.0116888955 0.03187633 -0.0061802743 0.06794584 -0.008994637 -0.047415502 0.02981772 -0.062212978 0.04263657 -0.09258323 -0.00013119828 -0.02110189 -0.064039074 -0.052119378 -0.00042787506 -0.039571863 -0.059099685 0.085829504 -0.030927476 -0.06484124 0.002830364 0.00014188224 -0.028501444 -0.11506637 -0.0030730052 -0.059389673 0.01016865 -0.06710139 -0.0075664907 -0.058979597 0.03639086 0.08996754 0.01252139 -0.07216404 -0.062823445 0.16318466 -0.12270888 -0.005659664 -0.19740218 0.00413877 -0.051082846 -0.011989116 0.0015064299 0.008002967 -0.07460966 0.11917329 -0.038532704 0.009702605 0.034599505 -0.032237343 0.020189084 -0.008202976 -0.03200307 -0.0005168116 0.010303916 -0.12156076 0.0011144246 0.009627518 -0.02650146 0.051287122 -0.025010891 0.02606191 0.08448732 -0.23799743 -0.03799464 -0.035434756 0.0077747237 -0.07101378 -0.0052202493 -0.0017409794 0.05231969 0.011862767 -0.02864727 -0.008874973 0.022500776 0.046471465 -0.016154625 -0.015363885 0.04202894 0.010822032 0.06012511 0.0009510912 -0.020682225 -0.0729541 0.061518084 -0.03151031 -0.027831044 -0.003180873 -0.02842222 -0.040319555 0.017055064 -0.001627506 -0.030278439 -0.058254473 0.0039891666 -0.044067815 -0.045088958 -0.14466041 0.005359552 -0.034559388 0.06166946 0.028297374 -0.01723379 -0.064274766 0.010936307 0.030591398 -0.044695746 -0.23704536 -0.010835279 -0.030246036 -0.024814514 0.028461821 -0.057699926 0.013479839 0.009306 0.008043417 -0.029196834 -0.004206447 -0.12893158 -0.024905637 -0.12482883 -0.13680778 -0.014108875 -0.019414103 -0.072860494 0.04771454 0.01676291 -0.022320015 -0.07901814 -0.08950625 -0.029949341 0.012690137 -0.032020476 5.615976e-05 -0.011362356 0.00043077287 -0.011449157 0.06862241 -0.0828316 0.06767817 0.05144299 -0.03942521 -0.20643416 -0.045131892 0.057458155 -0.07188047 -0.0374647 -0.10559978 -0.019470513 -0.028524205 0.04820477 -0.19921406 -0.059303433 -0.022163777 -0.014012855 0.0044144634 0.025505267 -0.029332416 0.030526552 -0.037480947 -0.102517165 0.02212089 -0.005600234 0.013521805 -0.07363506 0.045947988 0.03668534 -0.015562169 -0.019992704 0.06345011 0.08446465 0.03489273 0.012825492 0.01862137 -0.09785677 -0.04787464 -0.13017981 -0.02840885 -0.0978913 0.069236785 0.010875398 0.00050821644 -0.016058084 0.019841477 -0.0779439 0.0646092 -0.057203874 -0.07129635 -0.03911236 -0.015994113 0.082976475 0.009743971 -0.025104886 0.038144194 -0.004324351 0.021329513 -0.02717696 -0.031354554 -0.057761595 -0.08096561 0.004158211 -0.0647742 0.0054531717 -0.006021032 -0.025512181 -0.046464674 -0.029583363 -0.043812003 -0.0054356214 -0.023370825 -0.02936866 0.04039431 -0.03783358 -0.12930676 -0.014774299 -0.11730861 0.031897888 -0.020610144 -0.042129837 -0.08403376 -0.07051387 0.042570855 0.03043812 -0.054315396 -0.2296316 0.0812308 -0.02393925 -0.015905706 -0.04615582 0.0060949926 0.020390391 0.016183738 0.008781496 0.03246936 -0.011560665 0.042058915 -0.0054106833 -0.25579226 0.023746796 0.036794808 -0.075010546 0.13023828 -0.004767316 -0.0059374063 -0.036095116 -0.051627226 -0.02832385 -0.028631605 -0.011547563 -0.05067173 -0.034788605 0.0414196 -0.024614494 0.028933235 0.04310406 -0.029130932 -0.026834924 0.03478351 0.050806683 -0.037999403 -0.07436217 0.019674964 0.028202634 -0.046911616 -0.080163464 -0.017256388 -0.11588116 -0.008731861 -0.03558634 0.051783323 -0.010329142 -0.13795231 0.024465885 -0.080267645 0.0485793 -0.0023636736 -0.18251365 0.018771047 -0.20169745 -0.010541405 -0.08088317 -0.026381006 -0.035413038 -0.12122562 0.040244624 -0.05141253 0.023252174 0.006445484 0.0370418 -0.07860537 -0.00065224705 0.049131352 0.06703625 0.013216684 -0.008273426 -0.042043947 0.010946585 -0.047050055 0.07819867 -0.02358703 0.036814798 -0.031165745 0.03306314 0.032938838 0.03198946 0.058633115 0.04234673 0.13574156 0.079915404 -0.048651345 -0.041248746 -0.012248078 -0.064712845 0.049272943 -0.04369812 -0.10125305 -0.027982412 -0.00684492 0.02423606 -0.015222463 0.043679677 0.022671817 -0.0473988 0.05339182 0.11737136 0.019835593 -0.05933299 -0.006834369 0.012454599 -0.14508282 0.044582162 0.08192314 -0.035546314 -0.042724524 -0.12053707 0.015805626 -0.012414835 -0.0075930343 -0.12461971 0.0037236388 0.019218683 -0.033604227 -0.020863228 -0.12841879 -0.13539222 -0.0045016115 -0.096456125 -0.050020263 -0.049341433 -0.09824935 -0.057453167 -0.060796767 -0.004795056 -0.042549524 0.07210251 -0.062040444 -0.017352864 0.07985969 0.027478673 -0.020024274 -0.024434626 0.047283646 -0.048111845 -0.022944145 0.017511027 -0.054855596 -0.044843506 0.0426475 -0.022792844 0.015084581 0.05547232 -0.006928463 0.051827237 -0.025207324 -0.013178927 0.028932147 0.0047532297 -0.12993726 0.0062978934 -0.020609612 0.003782812 0.038129147 -0.077050366 -0.012679385 -0.017353835 -0.058166556 -0.10616033 -0.10066894 -0.00850245 -0.056192983 -0.025644839 -0.0007071887 -0.16445181 -0.10209184 0.026085263 -0.02785097 -0.05067497 -0.0452976 -0.15633631 -0.061135888 -0.040235925 -0.040894944 0.008773937 -0.14587264 -0.014451269 -0.07353532 -0.08999333 -0.012756723 -0.010348099 -0.02034392
0.035184458 -0.07173424 0.035207644 0.009157475 -0.067240186 -0.03502737 0.043421015 -0.12710553 0.0009052387 -0.042158864 -0.015802616 0.04155438 -0.0566078 0.011713828 0.0077170646 -0.014397388 0.027222026 -0.0020550545 0.007449684 0.053359333 0.09289308 -0.029415293 -0.038509354 -0.06578681 0.0018756682 -0.01252649 -0.059873037 -0.033327296 -0.18111846 -0.054252844 0.031100702 0.060004476 -0.022632005 -0.1081972 0.115465686 -0.012508692 -0.02392533 0.012259012 0.038698826 -0.030475382 -0.027918715 0.03960597 -0.030387564 -0.07563901 0.089365765 -0.17053959 0.051627588 0.0117895715 0.0039698766 0.006888833 0.010564248 0.01681715 -0.03660138 -0.10426523 0.048825003 -0.038949724 -0.0572995 0.05032412 -0.032746732 -0.06303357 -0.075553775 0.004945763 0.035790157 -0.15413599 0.07418338 0.14972647 0.048153892 0.02170255 -0.2214843 -0.011388307 -0.2106066 -0.0015379912 0.074866414 0.0939195 9.5161195e-05 -0.111344464 -0.27303138 -0.06759484 -0.00875423 0.019571759 -0.040586423 -0.18094002 -0.011965125 -0.030643247 -0.06705245 0.03813543 -0.07638494 0.034294266 -0.070569105 -0.024420943 0.11468357 -0.083973154 -0.0779619 0.05383618 0.06575174 0.058564503 0.02456504 0.08208496 0.072846144 -0.07882602 0.034895964 0.0051966966 -0.009129443 -5.7189764e-06 -0.022961639 -0.10184722 0.026266564 -0.016803028 0.033416193 0.060630474 0.08452306 -0.07309805 0.03183776 0.07486697 -0.06758127 0.0311652 -0.044730518 -0.046792362 0.05472971 -0.047342885 0.06035139 0.009733858 -0.008258804 -0.03749619 0.034486406 -0.045825545 -0.07007117 0.0688004 0.02940748 0.018978657 -0.06768385 -0.04738839 -0.008836901 -0.011049699 0.050994787 -0.08381867 0.092341945 -0.03333064 -0.007040802 -0.04947332 -0.21297543 -0.020853072 -0.05623918 -0.0066953655 0.0021462787 -0.24370736 -0.13531108 -0.0008042276 0.044436824 -0.10859169 -0.005072436 0.010299533 -0.017981393 0.034352705 -0.07721103 -0.09746536 -0.09966888 -0.068771176 -0.042284 -0.022132225 -0.0047345962 -0.000105032464 0.03160728 -0.037664473 -0.12852593 0.15818053 -0.0019273243 -0.0985995 -0.13738927 0.010374285 -0.10625267 -0.16045941 -0.10911532 -0.05634237 -0.04483462 0.017458247 -0.2739871 -0.06420027 0.011607319 -0.11515708 0.01866014 0.014663705 0.0425649 -0.05991902 -0.031715233 -0.045091085 0.044372357 0.009321444 0.14792666 0.03917406 0.037562773 -0.037893664 -0.037508447 -0.006277227 0.023020457 -0.07219098 -0.031428948 -0.028237263 -0.02793368 0.0031873013 0.06491457 0.015713062 -0.0023028494 0.04472554 -0.022085704 -0.15676251 -0.04969477 0.023060055 -0.026797472 -0.08691768 0.01957234 -0.04616586 -0.017641796 0.039058708 -0.0101295635 0.008462676 0.029108003 0.031398803 0.0748163 -0.029382907 -0.080688484 0.05426708 0.022948004 0.07739783 -0.01083358 0.08905079 -0.024488369 0.02061358 -0.0005345469 -0.0579458 0.04030715 -0.09299201 0.106004044 -0.09123863 -0.008683929 -0.01971751 0.008103869 -0.05747448 -0.1305122 -0.00038430752 0.04185972 0.053024106 -0.08344296 -0.06391603 -0.1264267 -0.0030835643 0.016134446 -0.065495335 0.00013034687 -0.0734552 0.047133874 -0.3049621 0.010322867 -0.0031901728 0.060929224 -0.020103734 0.0059525636 -0.01129534 -0.13995692 -0.1500152 -0.031676833 -0.00974658 -0.09801676 0.012209142 0.02689088 0.0127928015 0.032879762 -0.012781383 0.01278363 -0.08640365 -0.10319955 0.067955956 -0.13864456 0.01242152 -0.062609784 -0.113386095 0.081907146 0.062246528 0.060396988 0.009153706 -0.08135319 -0.008763066 0.07268222 -0.023963807 -0.017542351 -0.1466066 0.034925237 0.04419841 -0.0011944339 -0.011938621 -0.05825451 0.052268 0.039208155 0.0257551 -0.000995283 -0.011828475 -0.20209262 -0.029415315 0.028917335 -0.003072734 0.050769214 -0.11283712 0.074126475 0.07282811 0.020945366 -0.026624562 -0.020370374 -0.01236907 0.11435525 0.10392406 -0.023879737 0.006304105 -0.084235266 -0.02490524 0.021445604 -0.00046805872 -0.039216157 -0.011983602 0.03214291 -0.102040544 -0.035128623 0.11440423 0.05094285 0.04751236 -0.031530507 -0.07778817 -0.046756275 -0.010404211 0.012940629 -0.071453705 -0.09161182 -0.049980212 -0.0017113801 -0.040412884 0.0923948 -0.0991782 -0.067020975 -0.011942175 -0.002754417 -0.16647643 -0.07753046 0.083888076 -0.032116134 -0.16271082 -0.026250446 0.030722 -0.0068323677 0.03056565 -0.09950736 0.0037460874 0.0039655115 -0.04599424 0.0835486 -0.18771587 -0.031519838 -0.004202991 -0.007584118 0.045637984 -0.056255654 0.03912388 -0.016043542 0.05025671 -0.093418196 0.07396536 -0.070447475 0.051228948 0.005813043 -0.022658922 0.019496653 0.025842026 -0.058975108 0.005433265 0.010582454 -0.096100874 -0.042389236 -0.05943984 -0.04225304 -0.22901474 0.21150541 -0.0550002 0.117536575 -0.05287399 0.008463738 0.015956352 0.054304317 0.06827919 -0.056355752 0.0780539 -0.021183448 0.047814097 -0.31074768 0.035089437 0.013328604 0.02523241 0.006545127 -0.1662215 0.05544575 0.01111843 0.04523262 -0.052092854 -0.014764748 0.003933357 0.017077152 0.021499233 -0.030893708 -0.07308826 -0.05237797 -0.11900235 -0.022203939 -0.018450398 0.05674625 -0.054085564 -0.10516985 -0.0092124315 0.03814252 0.019540522 -0.0005382209 -0.006833882 -0.03983589 -0.013462046 0.04942955 -0.048247445 -0.07745077 0.014393235 -0.1455406 0.023266807 -0.005683015 0.04601868 -0.23383848 -0.03355302 -0.026885156 -0.014854387 0.028258065 -0.100865304 -0.1393802 -0.01996687 0.027873892 0.06695997 0.09904297 0.004158105 -0.021010932 -0.1281898 0.03949932 -0.07201857 0.014534398 0.08911808 -0.16091187 -0.011009463 -0.049489208 0.025129221 -0.023884507 -0.018844578 0.043337543 -0.12592967 0.01921829 -0.0028076414 -0.13389821 0.11115114 -0.032374512 -0.0647755 -0.10769895 -0.0040657255 -0.082066424 -0.036914907 -0.030157369 -0.01183447 0.007767191 -0.07044621 -0.15311205 0.005651976 -0.05751832 0.031130562 0.008571935 -0.08457813 0.001972922 0.1340924 0.004360189 -0.036344297 0.04837044 -0.21097925 -0.09497157 -0.11271714 -0.07863425 0.049995698 0.028305477 0.030076975 -0.06012914 -0.028279502 -0.061826307 -0.046641972 -0.019786563 -0.048765123 -0.067771204 -0.035025768 -0.25473803 -0.01177888 -0.0051315916 -0.05311631 -0.21268116 -0.05431143 -0.20837149 -0.192774 -0.03738981 0.01130947 -0.04779845 -0.090956174 -0.09842299 -0.031970657 -0.0377508 -0.026845803 -0.014774841 -0.045244142
0.026090443 -0.025708877 0.12668891 0.06482483 -0.066956714 0.027607987 -0.0045279344 0.18727544 -0.11968013 0.004080392 0.032846246 0.024058461 -0.4248836 -0.107492864 0.09053721 -0.028011752 0.08935699 0.009555052 0.20731129 0.041903842 0.075828046 0.07651477 -0.004810153 0.014975322 0.0451919 0.0034346948 -0.129894 0.019015148 -0.110013254 -0.10454092 0.0902037 0.018924212 0.027161755 0.035962384 -0.12712543 0.17232531 -0.053860903 -0.013490316 -0.058076568 0.06397399 0.0642327 -0.0732251 -0.017205527 0.0841823 -0.003071722 -0.062818326 0.109575 0.03671895 -0.08273872 0.0043556252 -0.03102732 -0.14560752 -0.051297452 -0.01828524 0.06713776 0.07119721 0.009043218 -0.096842304 -0.12490766 -0.11536367 -0.1607589 0.08120237 -0.030309957 0.0052195196 -0.78671217 -0.054264963 -0.034203615 -0.72289795 0.13937393 0.07669962 0.03242945 -0.095259465 0.025428811 0.12922463 -0.14205852 0.03276397 -0.04580679 0.047894437 -0.082876086 -0.18609442 -0.033015553 -0.07905112 -0.20998585 0.013102242 -0.055858586 -0.12829219 0.11438528 -0.08287287 -0.026205858 -0.06778124 -0.29025662 0.0038937142 -0.2361904 0.07742539 0.18583193 -0.04887676 0.004165403 0.07013267 -0.07396571 0.04034881 0.0153809395 -0.08975017 -0.102105476 2.0242583e-06 -0.0019995577 -0.07178921 -0.257533 -0.24218494 -0.16114496 -0.26746026 -0.061179385 0.21237114 -0.23989452 0.15528452 -0.0723982 0.12283374 -0.027614769 -0.026368799 0.26958978 -0.1108712 0.01127078 0.059758272 -0.09757825 -0.15266278 -0.093374014 -0.114137776 0.083545275 0.09285387 0.0067347065 0.074517995 -0.22137593 -0.05130321 -1.0187882 -0.16489641 0.09601342 -0.65353656 -0.34597522 -0.17233807 0.026443731 -0.12684822 0.1717846 -0.036088828 -0.37170783 -0.0044536786 0.105958164 -0.05442153 0.18559405 -0.038633857 -0.18115528 0.09253647 -0.11490673 -0.0060761706 0.0533863 -0.06706419 0.08972883 0.037504323 -0.061229587 -0.089491166 0.08470174 0.07601529 -0.21422601 -0.12897323 -0.23638307 -0.18985231 0.07794086 -0.06644461 -0.38902617 -0.14415163 -0.034643587 0.01704388 -0.016037274 0.14797755 0.06239344 -0.08038773 -0.14730892 -0.12110495 -0.034238063 -0.21079715 -0.03142169 -0.073039405 -0.71016204 -0.11955023 -0.040125974 -0.4501922 -0.24523006 0.13742624 0.048776843 -0.22836204 -0.101376235 -0.012754234 -0.22317304 -0.054165218 -0.29611075 -0.09266481 0.023665251 -0.12685457 0.008504959 -0.13405427 -0.11106024 -0.061995797 -0.14008383 0.018370396 -0.105529666 0.09475568 0.007176395 -0.052009277 -0.20225072 0.15536155 0.10487794 -0.041580044 -0.5438316 0.008017866 -0.11671475 0.115249485 -0.014013868 -0.08854808 0.039290763 0.084037624 0.013001634 0.05075186 -0.012739344 0.00986328 -0.034637317 -0.13423042 0.00389792 0.007835722 0.19585833 -0.019326024 -0.1122056 -0.18398345 0.091611624 -0.054747216 -0.010297804 -0.206088 0.009375138 -0.05414288 -0.1605615 0.09248006 -0.066505216 0.12220602 -0.11230383 0.1278136 -0.13896284 0.07810858 -0.12668401 0.04992513 -0.06689599 -0.059383877 -0.06651983 0.05036443 -0.050421234 0.054194245 -0.23408517 -0.063767456 -0.08352604 0.036240757 0.016864525 0.022415493 0.017911352 -0.14392099 0.08046762 -0.10058331 0.059802316 -0.06322074 0.072682254 -0.078193806 -0.3317168 -0.0026269343 -0.013871942 0.30523473 -0.18860671 -0.060927104 -0.47712484 -0.03271167 0.027101899 -0.0429816 0.13328369 0.08810282 -0.8293979 0.044102263 0.047084562 -0.033365607 -0.14641866 -0.014217184 0.05499974 -0.09013453 -0.13382004 -0.11838177 -0.105335645 0.010560604 0.051642783 -0.11100041 -0.05581947 0.021110564 -0.07317199 0.0061553083 0.079825506 -0.09465646 -0.015776152 -0.13170364 -0.0669622 -0.078187205 -0.028507393 0.12650593 -0.10420413 -0.021607017 0.13140488 0.01898624 0.14649487 -0.036418498 0.057106104 0.0130804125 -0.11817103 0.024477119 -0.08363768 -0.048414204 -0.117052644 -0.026131995 0.021537924 -0.09256589 0.060338084 0.07777855 0.06982127 -0.16579098 0.039566755 -0.071253 -0.12586647 -0.014426174 -0.13909134 -0.3241466 -0.12704553 -0.08554898 -0.12276517 0.08742755 -0.024494039 0.049477737 -0.020172995 -0.07519742 0.03900665 0.18763629 0.0048322887 -0.21974136 -0.05244487 -0.08546529 -0.012987801 0.06919682 0.039924663 -0.0916877 -0.09054106 0.047952846 -0.084934674 -0.07489503 -0.039346386 -0.21062678 -0.1535696 -0.043957498 -0.0566227 0.10450308 -0.04035722 -0.06407514 0.20607129 -0.07601879 -0.07966112 -0.04638264 0.0009638273 -0.4615848 -0.040958315 0.062247094 -0.07584345 -0.059435338 -0.18460579 -0.06397378 -0.038203668 0.11971411 -0.040314093 -0.09356751 0.08135079 0.0067136907 0.022979828 0.09143713 0.14521746 -0.052753236 -0.15048483 0.0071311095 0.05444623 0.17815343 -0.05476206 -1.1439828 0.056245416 -0.11449138 -0.123527154 -0.045199018 0.13857555 0.064862676 -0.084594436 -0.014388519 -0.18526916 0.05477186 -0.026907135 -0.26854506 -0.057858992 0.02675054 -0.0067793103 -0.016949749 -0.008430957 0.040811528 0.0005887336 -0.153996 0.034999758 -0.032197896 -0.42754686 -0.0061944816 -0.11674749 -0.15507159 -0.07492926 -0.10422236 -0.2850461 0.17642522 0.124968685 0.013064009 0.004528959 0.08385093 -0.15876822 -0.31945214 0.04235491 0.10807379 0.01817584 -0.09824038 -0.03401135 -0.035444975 -0.037199747 -0.03604809 0.021479355 -0.15818079 0.040288113 0.010091494 0.02438994 -0.11864345 0.06907664 -0.005221256 -0.18450505 -0.15194124 0.021727711 0.025026437 -0.1817856 0.009960348 0.1732708 0.058816586 -0.067706466 -0.029854843 0.0066196336 0.05050947 0.050745152 0.077875234 0.093357965 0.19136895 -0.06339732 -0.17631671 0.060951907 0.08678651 -0.030466188 -0.05328533 -0.12232164 -0.049439877 0.0927088 -0.043090217 -0.20053093 -0.11876111 -0.26224688 -0.14275067 -0.045371335 -0.24671237 0.013174375 0.0041536973 0.044427954 -0.025906336 -0.055521797 -0.042578533 0.020264095 0.19104603 -0.0003124265 -0.094770506 0.14238083 0.12099381 -0.122802675 -0.018380795 -0.056847166 -0.018264445 0.017025234 0.020559609 0.12091341 0.0026816519 0.12670687 0.018370423 0.009024991 -0.077719264 -0.08129908 0.0047561494 -0.1808613 0.050432805 0.1576418 0.037954416 -0.0023447212 -0.0696398 0.05670867 -0.08153922 -0.06004366 -0.2554111 0.06494614 0.007301908 -0.26524228 -0.09303238
-0.08511823 0.008267679 -0.027464049 -0.010857468 -0.23859325 -0.020537911 0.044723354 0.074241824 0.023199892 -0.11094197 -0.056851134 0.058157362 0.04777996 -0.022798134 0.05350358 0.059528526 -0.021806087 -0.01975313 0.017168552 0.024965135 0.044805385 0.0610435 -0.018400809 0.06903218 0.045752652 0.015681671 0.08496117 0.04141803 -0.057711076 0.00060592085 0.016852928 -0.24919173 -0.07520954 0.11179123 -0.25403643 0.043777384 0.0099053355 0.0020699902 -0.075230755 -0.1471406 -0.020296372 -0.11243122 -0.019066595 0.07327777 0.109186195 0.20080453 0.03571804 0.08060777 -0.15465552 -0.02230724 -0.020617036 -0.041699447 -0.007361124 0.015650986 -0.029932862 0.026281813 0.0071349526 -0.063893445 0.028048208 -0.014390749 -0.07074612 0.018185895 0.11092375 0.057651434 -0.02807228 -0.029811667 -0.047175653 -0.0016476391 -0.2154584 0.055650067 0.09225283 0.019022789 0.04677305 -0.13239722 -0.05151403 -0.24278587 0.035180528 0.036385722 -0.0025273447 -0.003491397 0.029210415 0.058232628 0.12127982 0.06542963 -0.009144363 -0.25893876 0.042928934 0.0319586 -0.08399346 0.055534806 -0.12551512 0.023142084 -0.05136475 0.03465509 0.0484494 0.033848938 -0.002474126 -0.12797667 0.07216746 -0.01979572 0.01880001 -0.012627394 -0.13790962 -0.0036246842 0.04517161 -0.004071506 -0.040940262 -0.018494187 0.042147998 0.036612082 -0.042568468 -0.05094074 -0.18776424 0.028903605 0.012116463 0.0022169517 0.054998744 0.010723259 -0.023295296 -0.022426674 0.062990405 0.06143033 0.050879672 0.038871747 0.044695124 0.066779725 -0.021136537 -0.017522218 0.026587564 0.08413627 -0.027459502 0.10521357 -0.015916543 0.0041939667 -0.021104122 0.010615624 0.06384068 0.025202153 0.056974158 0.10351111 -0.23122951 -0.035156846 0.041217383 -0.12798932 0.03132282 -0.048189968 0.07589404 -0.030497545 0.0144052515 0.07222654 -0.120166354 0.09925992 0.024794001 0.052908935 0.055203818 0.101066515 0.046446417 0.05963829 0.03622287 -0.040242124 0.017175764 -0.015280614 -0.084611155 0.004052127 -0.07561304 0.1230856 -0.0970541 -0.0058723106 -0.0881526 0.02310691 0.07133236 -0.012445626 0.02580914 -0.0955359 -0.027216606 -0.010671832 0.05889087 -0.0308676 0.06291459 0.13757063 -0.062171806 -0.10702089 -0.07884675 -0.005514172 -0.0071915626 0.015152557 -0.15904984 -0.04431464 -0.02050458 -0.004968117 0.04582636 0.018552475 -0.06209501 -0.058359083 0.12192858 0.14498506 0.007042986 -0.13946825 0.012626337 0.027239192 -0.017381573 -0.20744589 -0.005560074 -0.013663457 -0.0022331802 -0.08141704 -0.13963518 -0.2406967 0.029741649 0.018425018 -0.008823597 0.011738753 -0.075805075 0.0036167256 -0.04996023 -0.11150011 0.010761749 -0.0058592157 -0.09984899 -0.021241065 -0.03711153 -0.08833386 0.038231373 0.06958827 0.056405958 -0.10213606 -0.020783475 -0.06751873 0.031958383 0.01920629 -0.0027284205 0.032993086 -0.014377979 -0.008189336 0.06847229 -0.03382999 0.009698409 -0.0371971 0.031993963 -0.0031726134 0.021272724 0.06748363 0.1327316 -0.11516751 -0.17683797 -0.11770114 -0.15290686 0.058936674 0.10151785 -0.06666613 -0.06014852 -0.067794465 0.016582401 0.09382139 0.027850214 -0.008588536 -0.05285987 0.013325561 -0.003210836 0.035486616 -0.14916481 0.011540305 0.00143124 0.009718851 0.08234313 -0.0096648345 0.004412863 0.0066998657 0.029389951 0.09490959 -0.071754694 -0.022136254 -0.012542593 0.04089559 -0.0060409494 0.05150097 0.032337192 -0.037433743 0.018136451 0.057470374 -0.020488858 -0.021597447 0.023326349 -0.0034749014 0.016848123 -0.01654939 0.052841194 0.018858356 0.011524882 0.051402356 0.044640876 -0.15997681 -0.025768124 -0.06422925 0.0037982143 -0.0046559726 -0.07868326 -0.04686645 -0.010939866 -0.0016016596 -0.026402608 0.029347476 -0.02444655 -0.054513987 0.020266036 -0.13254704 -0.0720702 0.032324757 -0.0075167166 0.07532468 0.06734816 -0.039109465 -0.0019800111 -0.13202311 -0.028978301 0.094975494 -0.01927058 0.13536857 0.06179406 0.0055413474 -0.03518444 0.04950103 0.038534712 -0.011383464 -0.031267956 -0.016326977 0.07024268 -0.21395144 -0.112019196 0.022230325 -0.02666001 0.057158366 -0.06653899 0.013155189 -0.03953775 -0.06429832 -0.035762236 0.056210548 -0.043812957 -0.18371412 -0.015651716 -0.26732463 0.13869464 -0.08834447 0.040840264 -0.06880457 0.03382842 -0.02872585 0.0027120668 -0.12715518 0.06276803 0.13093065 0.050770734 0.097494 0.027900746 0.027874613 -0.047521185 0.012771915 -0.036839362 -0.077628896 0.0102609275 -0.05310719 -0.0013179902 -0.0013526672 0.0090787 0.023511073 0.04550856 -0.03229773 0.13650995 -0.00429155 0.0041930787 -0.0061200145 0.042005204 0.018636229 -0.002137271 0.02733024 -0.049315408 -0.11472119 0.024714151 -0.009624128 0.1272227 0.033698037 0.028713938 0.03919457 0.034499574 0.049254112 0.052644067 -0.031509027 -0.041008193 0.022942187 -0.13179691 0.06824985 0.026479984 -0.00296594 -0.034217533 -0.039838362 0.02359448 0.11680539 0.06033242 -0.026673855 -0.027623048 -0.06741432 -0.07979418 -0.066741735 -0.12288021 -0.025445595 0.046118792 0.03496559 0.056963857 -0.005271954 -0.022560159 -0.025064817 0.038294446 -0.025811438 0.061983574 -0.088876285 0.07824674 -0.06673366 0.034351155 0.0102125425 -0.13603923 -0.025012963 -0.060129583 -0.04160287 0.0901708 -0.14154255 -0.40234056 -0.0022195512 -0.06662745 0.010126732 0.014536428 0.057513993 -0.09009863 0.036068667 0.07195654 0.00862662 -0.04957213 0.035842735 -0.003936039 0.02818553 0.12017156 0.02611784 0.0631052 0.056711987 -0.012395355 0.033036012 -0.18853778 -0.14008592 0.07427751 0.048815176 0.08164599 -0.014084999 0.015459641 0.089146845 -0.032630775 -0.059730727 -0.020903243 0.041220266 0.041255128 -0.0823346 -0.035967316 0.000852274 -0.05332771 0.036063638 0.04268275 -0.012548236 0.033195093 -0.01999159 -0.006632908 0.017023107 0.028066354 -0.016068552 -0.022124192 -0.1532308 0.054050557 -0.037359316 -0.035215974 -0.11834522 -0.009811845 -0.0011948283 -0.020707 0.12620316 -0.019888429 -0.035039175 0.021372827 -0.029193852 -0.01105533 0.018091282 -0.0021346689 0.09658705 -0.07588096 0.025864577 0.00029997487 -0.012000964 -0.1464282 0.031228742 -0.007968314 0.009974942 0.007915649 -0.0059069023 0.064451195 -0.013224867 0.009145041 -0.12745388 0.08580151 -0.06767428 -0.0446843 0.08854909 0.13964608 -0.075463235 -0.058428023 0.029398447
-0.04055592 0.07436871 -0.054243725 -0.055978138 -0.084211096 0.023362927 0.025235645 0.0046863095 0.029906899 0.06150312 0.0085630575 -0.09825791 -0.04462641 0.113008395 -0.036233496 0.07277826 -0.10972462 -0.08421691 -0.03460291 0.041153412 -0.07549396 -0.044603348 -0.016506275 -0.028920595 0.06264376 -0.1271413 -0.084373735 -0.024537822 -0.07031099 -0.016270706 -0.05722475 0.009748237 -0.13642305 -0.07055163 -0.1655223 -0.08558824 -0.04223104 0.1044646 -0.0021099525 -0.14755866 0.043504436 0.039765928 0.021052742 -0.055247143 0.053552713 0.020347983 -0.16858688 -0.030085653 -0.0024954595 -0.057413567 -0.034709755 0.15680957 -0.031719465 0.04302387 0.028457835 -0.15640095 -0.009195291 -0.03892812 -0.039532524 -0.0048808446 0.04036595 -0.024229286 -0.17597243 -0.056905605 -0.07737776 0.11665088 -0.03231291 -0.110885136 -0.20096353 0.048873205 -0.05368976 -0.1191767 -0.08942152 0.033870243 -0.19115177 0.009425701 0.039464455 -0.09741688 -0.027118554 0.011143022 0.0017206167 -0.014140947 -0.123395845 -0.035783123 0.010527301 -0.03968799 0.026434625 -0.0044618184 0.0268393 -0.098897174 -0.06766548 -2.289028e-05 0.10743171 -0.026155684 -0.01634 -0.020047057 -0.001028314 -0.10500305 -0.07163533 -0.011348235 0.013817768 -0.020924387 -0.033615958 -0.044316925 -0.010530637 -0.03051044 -0.07369178 -0.040459875 0.009969643 -0.05198242 0.06295295 -0.038242374 -0.12638988 -0.11925203 0.12845445 0.07441587 -0.08459735 0.050379988 -0.020186856 0.018175289 0.011668772 -0.096656494 -0.04756561 -0.0088527715 0.07680591 -0.013896764 0.062617585 0.06883821 0.09154184 0.020477891 -0.06916392 0.09950885 0.06934025 0.016116658 0.03375423 -0.088048875 -0.014375763 -0.018413939 -0.064379565 -0.04320281 -0.20100158 -0.019376602 -0.07298578 -0.09016233 0.06562547 0.08839914 0.061400946 0.18001509 0.02587369 -0.027058372 -0.10858936 -0.04989914 -0.06580328 0.0018266273 -0.041287225 0.053410925 0.07564983 0.04017557 -0.020436246 0.07970523 0.051099587 -0.008006612 -0.0004861172 -0.13432635 0.11024895 0.018207148 -0.10219431 0.008274733 -0.12347258 -0.08830585 -0.006849825 0.03478556 0.029181153 -0.080253534 -8.299204e-05 -0.03465436 0.021826457 -0.14151885 -0.00018471816 0.08353965 -0.02311392 -0.04359577 0.050799698 0.0073517375 0.0019616224 -0.018490463 0.13508849 -0.05573309 -0.033469092 0.02501454 -0.12672181 0.03513528 -0.011376931 -0.0031674593 -0.11205484 0.050584365 0.020160588 0.081242874 -0.014347432 -0.011826885 -0.012738521 -0.0329356 -0.053297866 0.017457495 -0.063811764 0.0041848486 -0.05080742 -0.062361248 -0.016176231 -0.10793099 -0.026667403 -0.043350376 -0.03650888 -0.026215492 0.031078357 0.042081464 0.011968746 0.05578682 -0.040531706 0.009216045 0.0012633133 -0.023912968 0.06304749 0.009299643 0.08588798 -0.0042939284 0.05717233 -0.009439492 -0.0115912175 -0.2123049 0.051088873 -0.018579641 -0.13983919 0.009511899 -0.05261755 -0.0132705355 -0.033475887 -0.0021823028 0.10601309 0.0042644935 -0.01605665 -0.009209031 0.029616892 -0.01506225 -0.1588037 -0.017543904 -0.05765018 0.021644415 -0.050499376 -0.08026013 0.022719136 -0.08937033 0.07382814 -0.01767243 -0.17314893 -0.007524246 -0.0007678431 0.042974982 0.036298785 -0.023738699 -0.08009864 0.022488536 -0.04078412 0.037381936 0.05430832 0.042105235 -0.05877425 -0.008631385 -0.0065690535 -0.04304731 -0.10230359 -0.1161081 -0.04915042 -0.027461685 0.034975316 -0.048237648 -0.028403837 -0.0058299666 -0.12215168 0.07026262 0.012094325 0.048742495 0.025809374 -0.07603884 -0.1752049 0.050666314 -0.0018252251 0.020868167 0.012200038 0.052370504 0.050636094 -0.07591357 -0.1744481 0.06984598 -0.014045535 0.07538687 -0.0027174745 0.057706904 -0.019596454 0.030458866 -0.0067804153 -0.016615065 0.03599988 -0.041311834 -0.005373604 -0.052500095 0.03280541 0.0719181 0.013927655 0.010816676 0.011501783 0.10052642 -0.06437174 -0.04510133 0.068603784 0.02582369 -0.090122476 0.012588231 0.109194495 -0.024119789 0.018670619 0.032035537 -0.1301987 0.048734926 -0.031055845 -0.05502761 -0.013815544 -0.04192505 -0.05189319 -0.033958852 0.03647614 -0.014946923 -0.004619178 0.060754754 -0.015518141 0.023678487 -0.06447364 0.04757445 -0.056914248 -0.20721902 0.024465619 -0.19237052 -0.1788635 0.14944181 0.03844698 -0.018948533 -0.061172497 0.05674419 -0.017160406 -0.015248056 -0.081011154 0.111555405 0.122763425 0.04040867 -0.043923587 -0.034444336 -0.05164572 0.0020365226 -0.016637344 -0.23448338 0.013668374 -0.09873039 0.0008865631 0.004031629 -0.12622416 -0.008248744 -0.08798707 -0.022325639 -0.17096663 0.025174204 -0.009531328 -0.022729183 0.023626039 -0.05496944 -0.028727388 0.015682949 -0.0034655703 0.13168658 -0.069222726 0.0070065237 -0.07737625 -0.039690875 -0.0871222 -0.016043015 -0.028733473 -0.033121962 0.054761834 -0.03293141 0.041680742 0.036223993 -0.080326185 -0.04944964 0.03173947 -0.0012822829 -0.004497592 -0.022291891 -0.0027447934 0.042474143 0.015671423 0.061855234 -0.0099246325 -0.03575875 -0.171539 -0.03310906 -0.04366922 0.00804899 -0.024448631 0.06930504 0.0069728163 0.016611097 0.024014799 -0.070036784 -0.046810057 0.080832146 -0.056805555 -0.1013635 -0.0057814335 -0.04935634 0.09696017 -0.03053464 0.00336488 0.030318607 -0.12313612 -0.008012681 0.049751706 0.030093327 -0.16188797 -0.01909297 -0.00896728 0.09475188 -0.08143577 -0.07302549 -0.079288624 -0.01782782 -0.051177356 -0.013113048 0.017154932 -0.039339993 0.012386083 -0.1576746 -0.011031936 -0.088501215 0.01449576 -0.03287655 0.028962586 0.08736641 -0.20370084 -0.15207392 -0.028671967 -0.06770071 0.07835278 0.00036084856 -0.020046694 0.018049318 -0.059977688 -0.0042353603 0.11675882 -0.07615055 -0.01718336 0.003859117 -0.016632244 0.0005001971 -0.031579576 -0.0029168217 -0.02132194 -0.045547884 -0.08482 -0.1722391 -0.14651492 0.060846787 0.08210039 0.014115483 0.014395332 -0.10422097 -0.10880953 0.03625597 0.00402448 0.032508265 -0.11727571 0.112927206 -0.050478466 -0.012145563 -0.015609923 0.06013378 0.024019256 0.057938594 -0.07464307 -0.09589077 0.048275676 0.0102217775 0.050850242 0.0052140625 0.14369108 -0.0039334223 -0.20844156 -0.30622822 0.013616521 -0.009826862 -0.027461128 -0.052581582 -0.14830315 0.09131463 0.038789567 -0.09899778 -0.025076635 -0.01155599 -0.031179141 0.09323774 -0.031826068 0.014620757 -0.06822403 -0.0052154534
0.061885644 -0.03331898 -0.5097365 -0.043628573 0.15102933 -0.024174677 -0.05796821 -0.11248499 -0.050101932 -0.029936027 -0.19070977 0.05596288 -0.054459896 0.10708372 -0.05493702 0.113101594 -0.04103971 0.012209359 0.062598266 0.085172914 -0.15462084 -0.12909776 -0.050062876 -0.06366237 -0.02806369 -0.077182874 0.03690835 -0.08373738 -0.006939396 0.003461009 0.019498358 -0.13608739 0.017667087 -0.23191158 0.0452693 -0.043726332 -0.112136185 -0.04033734 0.053993613 -0.046726443 -0.0029382068 -0.29879284 -0.095404506 -0.13373211 -0.1852478 -0.009388521 0.09030531 -0.038031258 0.12951279 0.038573343 -0.3645372 0.02170659 0.0100323185 -0.027467066 0.011967544 -0.05208406 -0.059032843 0.0020071305 -0.59924626 -0.022456521 -0.21998335 -0.18490514 -0.023116373 -0.045282353 0.020842211 -0.09470154 0.01855693 -0.012713206 0.20675088 -0.03757237 -0.050144676 -0.03661976 -0.04971707 -0.030018033 -0.03747697 -0.39149293 -0.007412413 -0.03866923 0.16162862 -0.02779282 0.023113817 -0.014512483 -0.0014549413 0.05592449 0.059729252 0.09742268 -0.13557456 0.029724287 -0.0076113436 0.16457677 -0.03818774 0.1853939 -0.05289439 0.009571505 -0.013077943 0.013126943 0.069435045 0.005150207 0.07136805 -0.00394087 -0.020414986 -0.053543765 -0.072125725 -0.04935672 0.063223176 0.00042387983 -0.039395403 0.013095716 -0.042923313 0.055104364 0.11030263 -0.06770912 -0.093288995 0.11613494 -0.030022938 -0.06650464 0.010666907 0.039040197 0.026061526 0.08105503 -0.03145489 0.10145846 -0.0052618594 0.0154054295 -0.10165966 -0.016397152 -0.03900961 0.048886828 0.017511593 -0.0531019 -0.0016378524 -0.10472305 0.07628839 0.12533675 0.09711051 -0.04467756 -0.042963654 0.012392632 0.03936943 -0.0050876327 0.14416292 -0.063681595 0.23860195 -0.06791299 -0.1453254 0.050201632 -0.37428346 -0.019616833 0.011015653 -0.056093093 -0.06874291 0.028863877 -0.018387128 0.017713543 -0.07665051 -0.19097297 -0.022478867 0.007821608 -0.027357526 -0.0490723 -0.08999776 0.05540244 0.08158271 0.08165822 -0.29859608 -0.029187646 -0.004767131 -0.0460738 -0.16915317 0.03882122 -0.4491889 -0.11468097 0.011330698 -0.12286586 -0.2024646 0.038766082 -0.023234824 0.005400093 0.099078 -0.030691126 0.042189352 0.0064638625 -0.010050924 -0.06183654 -0.024343912 0.11183819 -0.092753865 -0.046480324 0.07564239 -0.05354593 0.0058095865 -0.008536725 0.034750555 0.024423609 0.0017029344 -0.35288453 -0.12612404 -0.037815496 0.004001365 0.005169954 0.021903953 0.033008505 -0.07214491 0.21316406 -0.12717718 -0.0023497178 0.010327808 0.20551896 0.1171071 0.024786094 -0.054785028 -0.05743466 -0.07073414 -0.5545203 -0.043961138 -0.0015581502 0.011002288 -0.020539248 -0.2805686 0.18635425 -0.08771499 0.22426447 -0.114753425 -0.019730754 -0.11535749 -0.052485164 -0.023419907 0.046835113 0.099547505 -0.04936483 -0.1757671 -0.14394955 -0.022711318 -0.045635093 -0.03221499 0.086023375 -0.06256938 -0.099951014 0.1142055 0.13558874 -0.03692905 -0.061659563 -0.111008234 -0.31608787 0.09887437 -0.033705078 0.04041732 -0.0281734 0.011477937 0.13706642 0.024480257 -0.06687843 0.013927909 0.056931794 0.012914369 -0.003596449 0.0006464169 -0.03304969 -0.119149536 -0.031547587 0.031765867 -0.022895401 -0.13489577 -0.0018789449 -0.21668167 -0.046141222 0.021956118 -0.0355828 -0.011447164 -0.21736243 0.049618438 -0.10985016 -0.070405535 -0.006680115 0.15169413 -0.27242994 -0.03637866 -0.057918854 -0.0031529902 0.0060717952 0.05333078 0.093712226 -0.08683247 0.0043256325 0.091968074 0.05393363 -0.14059101 -0.1495895 -0.03441536 -0.11676132 -0.11700636 -0.14805542 -0.0779507 0.15127197 -0.041762453 0.02065499 0.088996276 0.117835194 -0.014849052 0.009744493 0.003762942 0.013447367 0.024209278 -0.12495536 0.07109064 -0.23414181 0.083058365 -0.022527395 0.10913073 -0.1544472 -0.033436082 -0.12253695 0.04309678 -0.49839875 -0.08718607 0.014640462 0.010629729 -0.11179499 0.06080623 -0.18920873 -0.05432047 0.110481456 0.12202096 0.01565736 0.07927081 -0.03747072 -0.19679682 0.04410913 0.038839508 -0.026421241 -0.045552567 -0.06296372 -4.2022893e-05 0.0048525715 0.056991957 -0.25822333 0.046533298 -0.03910262 -0.048267227 0.16184103 -0.0049417075 -0.081101775 0.13523813 -0.12482088 -0.036083043 -0.25282118 -0.0053184335 0.029466398 0.05182193 0.076641954 0.0024036355 -0.026483303 -0.005793283 -0.13452132 -0.1498851 -0.0118605 -0.0496768 0.0020384 -0.096768565 -0.035007384 -0.029105028 -0.0724745 -0.012285118 -0.011087859 -0.4405823 0.03790662 -0.041093655 -0.15044889 0.024503833 0.004707556 -0.043726325 -0.05936334 -0.07955563 0.021014204 -0.059548672 0.020636328 0.003006739 -0.050223947 0.07327499 -0.02050274 -0.019687256 0.034629446 0.1407463 -0.071619086 -0.040137324 -0.09851398 -0.25420353 -0.052864607 0.045143645 -0.2042808 -0.1744322 -0.12887008 -0.11871471 -0.021313135 0.06399665 -0.019313 -0.027317584 -0.060900595 -0.07423992 -0.29821718 -0.2656194 0.106256105 -0.033359375 0.16548204 -0.020764308 -0.16532677 -0.15620458 0.12569168 -0.07884657 0.16597661 -0.11273482 0.10717591 -0.15859386 -0.058792733 -0.08180338 -0.0033804018 0.07229947 0.06718703 -0.05970456 -0.0038914913 0.035901558 -0.15422468 -0.11845218 0.0076553933 0.02961354 -0.11155856 0.23938563 0.015113986 -0.078900084 -0.0035313438 -0.022872178 -0.14065836 -0.026408082 0.10375 0.04125094 0.03953441 0.023744568 -0.1673553 -0.21452512 0.0013730449 -0.1328084 -0.12100092 0.043184604 -0.11287139 0.06076749 0.05354035 0.12563726 -0.027042348 -0.45488346 -0.23909372 -0.092858344 0.048160892 0.11445829 -0.13044518 0.123847745 0.09968736 -0.012594158 -0.10295329 -0.10032738 0.031130148 -0.1604569 0.20378095 -0.038717367 0.12923548 -0.04790533 -0.023175223 -0.1271483 0.018458761 0.07486812 -0.012798705 0.039559383 0.06050251 0.134398 -0.07989601 0.17648321 0.00064981595 -0.018029056 0.1681054 -0.02534661 -0.09784011 -0.07725744 0.0011823582 0.056429148 0.062082764 -0.0013018781 -0.09517249 0.0854847 0.009196636 -0.006143928 0.080757216 0.016344028 0.0012126992 -0.03362761 0.05256145 0.103580624 0.09798834 -0.17811264 -0.09664405 0.00054346083 0.06350098 0.0116911745 -0.12529843 -0.14842784 0.037290916 -0.04631271 0.005020317 -0.08850622 -0.06877844 -0.20558812 -0.1873863 -0.009062032 -0.1357798
0.036413997 0.020824345 -0.007318324 -0.002744399 -0.016685037 0.04005676 -0.078779705 -0.021865385 -0.06241436 0.10783147 0.029718291 -0.053433917 -0.010908837 -0.013697325 0.016531782 0.10230039 0.032994848 0.002059154 -0.030910565 -0.03143954 -0.009215259 0.07202772 -0.08466828 -0.00017296075 -0.028122496 0.08075444 0.012161746 -0.10585204 0.036104146 -0.0325552 -0.01488913 -0.018289555 -0.028892227 0.0063907546 -0.02895729 -0.009236585 -0.05070327 -0.07394277 0.036897298 0.00090870145 0.02858278 0.036330767 -0.034956995 -0.039874457 0.028216913 -0.033836976 0.02088249 0.02039646 -0.12850557 -0.08863636 0.062404625 -0.027475342 -0.09215286 0.0035835966 -0.0074975556 -0.13117364 0.0046823015 -0.07277659 -0.06345412 0.0028593012 -0.043062426 -0.03792273 0.027865466 -0.06499191 -0.03959402 -0.09616149 0.06251665 -0.0040405868 0.012851325 0.06331661 -0.08138334 -0.04085003 -0.023107247 0.022538522 -0.075783506 -0.023696486 -0.007693818 -0.0017992343 -0.045798406 -0.017712224 -0.06954215 0.06298047 0.025547398 0.038461078 -0.05603172 -0.02016626 -0.023781804 -0.0036742478 -0.06973662 0.018265411 -0.008349689 -0.01018554 0.05074686 -0.03916614 0.08567957 0.013617005 0.0040993243 0.035468582 -0.023914875 -0.051369045 0.0013450899 -0.02366026 0.009681528 -0.1158197 0.049890604 -0.027715908 -0.016686367 -0.09616014 -0.032159485 -0.07545887 -0.024490967 0.009480967 -0.029758321 -0.017092254 -0.005161003 -0.019544765 0.031175677 0.00214961 -0.035228785 0.0075234203 -0.026686706 0.063836224 0.027355466 -0.046088785 0.029740404 0.014988304 0.027640937 -0.09624769 -0.040899828 0.019851007 0.028779078 -0.048959143 -0.0048523326 0.06070484 0.0016784932 -0.09361926 -0.08403751 -0.17115329 -0.062454693 0.015118004 -0.006430525 -0.038291395 -0.048486948 0.007551071 0.026024643 0.07373824 -0.029241791 0.0081932945 -0.04749387 -0.0011129215 -0.018813264 0.037906744 -0.0035238208 -4.5685425e-05 -0.041599702 -0.032768063 -0.09478152 -0.048526477 -0.12852466 0.03835065 -0.089687265 -0.0445513 0.02273153 -0.051680233 0.005243448 0.00077580207 0.007953762 0.0046075755 -0.007228777 -0.008169252 -0.049804825 -0.004847525 -0.05028701 -0.055482034 -0.024278767 0.013858174 -0.0682061 0.01386484 0.098916344 -0.140017 0.00035189072 0.012554433 -0.035701845 -0.00290077 -0.04209032 -0.04972268 0.005840846 0.035878967 -0.08444516 0.058913913 0.015076901 0.034035083 -0.07825034 0.03235722 -0.09305458 -0.02555339 -0.047862682 -0.07336827 0.048502896 0.07917439 0.09169456 -0.012473482 -0.13204335 -0.1009432 -0.047511008 0.06644255 -0.10407592 0.03688163 0.033694774 -0.10300255 -0.09909224 -0.1669111 -0.09492419 -0.049490836 -0.0072181486 0.028730933 0.0012192505 -0.052158434 -0.03043735 -0.020633638 -0.020836785 -0.0083473865 -0.04084232 -0.079548046 0.023679389 0.047477182 -0.08695185 -0.026538325 0.01007928 0.05032759 -0.06971354 -0.078451715 0.030020332 0.023001341 0.08203613 -0.08591219 -0.057331685 -0.048901208 0.11836144 -0.057415046 0.023340141 -0.0009923194 0.052382246 -0.037202947 -0.0077364044 -0.055849206 -0.040432993 0.006799022 -0.044338353 -0.01072973 0.021086065 0.09314923 0.013427158 0.004251456 -0.08241907 -0.00997984 -0.026751822 -0.02789915 -0.05289495 -0.031626057 0.041829087 0.0064851386 -0.071781725 -0.09478751 -0.03404993 -0.0068131783 -0.03741922 0.027393097 0.010766636 -0.07433539 -0.0736865 0.053141717 0.032369945 -0.04509051 0.0057598157 -0.059062097 -0.04769236 -0.014069009 -0.026175275 -0.04913029 -0.04579316 -0.01893749 -0.036502983 -0.0005997509 0.010030674 -0.06498068 -0.006801822 -0.075050965 0.031114487 -0.002315624 -0.08417486 -0.004274312 -0.002543829 -0.041374303 -0.06604995 -0.008085435 0.039138034 -0.08869585 -0.013184619 0.00096773176 -0.0016528424 -0.0151276775 -0.1320743 -0.03123575 -0.05890226 0.0064613945 -0.019973423 0.00027911086 0.06265922 0.033044763 -0.034096994 0.05711676 -0.0064697023 0.0033321255 -0.016408361 0.048839226 0.028588947 -0.06376983 -0.034703013 -0.030431477 -0.03514682 0.027790729 -0.034188826 -0.031582896 -0.08023332 -0.049889468 0.027091602 0.008774213 -0.01810858 -0.023253977 0.031570114 0.077367835 -0.039317768 -0.0008177729 -0.0054495535 0.05955987 0.00433834 -0.08729161 0.0042431764 -0.014639747 -0.0240459 0.019108932 -0.043789297 0.02741144 -0.000746693 0.0071854326 -0.04006882 -0.0726985 0.028317329 -0.07878062 0.13089935 -0.014734529 -0.061375245 -0.040651124 -0.0061773797 -0.0027749867 -0.013843027 0.03400962 0.032507986 -0.013555544 -0.029283745 0.0049229073 -0.037566453 0.02659895 -0.048490334 -0.032453384 -0.010911592 -0.06683623 -0.020133564 -0.043297507 -0.0012787213 -0.030182911 -0.06892488 0.03593255 0.012289538 -0.022446094 -0.017198522 0.03394308 0.09612249 0.032320194 0.020579727 0.010031919 0.022402363 -0.03583813 0.00013444328 -0.07773171 -0.06795923 -0.023460917 -0.0012362073 -0.0047269315 -0.0021238741 -0.021262174 -0.050981026 -0.09008774 0.030700961 0.031529717 -0.016170667 -0.054437682 0.07035423 -0.009854575 -0.03552386 -0.011485308 0.014824136 0.025790712 0.003687885 0.0013761021 0.025441477 0.012396701 -0.004961492 -0.08078915 0.0137374345 0.0016036233 0.0015780367 0.07221424 -0.03614599 0.033932004 -0.15138632 0.06778441 -0.03312589 0.024282878 0.009477544 -0.0021080335 0.021035263 0.032879878 -0.03380763 0.013023649 -0.07686812 -0.041199688 -0.08443651 -0.06648626 -0.08921295 0.013152827 0.017553477 -0.0041618343 -0.07737335 -0.107742704 -0.06588441 0.0018137438 -0.016485715 -0.06632629 -0.07711714 0.03373732 -0.02564272 -0.047302693 0.004920193 -0.059099123 0.034061287 -0.004935694 -0.05280669 -0.05496858 -0.032078825 -0.04854898 0.096239105 -0.012149025 -0.07547487 -0.006610364 0.05280745 -0.13017973 -0.029559905 -0.03797445 -0.027667489 -0.049985908 -0.019726574 0.017829973 -0.08211842 -0.034622304 0.009710125 -0.038655676 0.008079754 0.010934224 -0.004490091 -0.0016301667 -0.0758505 -0.008256939 0.03427849 -0.0629319 -0.1243954 0.009382992 0.02694384 -0.017090116 -0.0054077352 -0.038975567 -0.047554422 0.039886374 0.08462197 -0.08718832 -0.056293633 -0.07463302 0.0054707634 -0.035846993 0.0028262464 -0.006111446 0.050861396 -0.0597677 0.010842694 0.032824602 0.04255183 -0.0072994707 0.008897252 -0.13426906 0.06540075 0.027453441 -0.044615548 0.027391845 -0.10878786 0.057130344 0.014390685 -0.055122893 0.06412458 -0.0051356745 -0.028468361 0.003808246
0.028821787 0.009145567 -0.12148566 0.05026516 -0.10384753 0.037058618 -0.04559837 0.038825233 -0.10462647 0.019088399 -0.16310291 -0.014983765 -0.0366231 -0.021007624 0.06857878 -0.05239322 -0.038643703 0.015489792 -0.052501097 -0.049052395 -0.0877434 0.03389235 -0.09555986 -0.04608398 -0.09382917 0.12581985 0.019912105 -0.011200987 -0.3702924 -0.25514868 -0.017578643 0.1383824 0.0077134264 -0.61576307 0.055572893 -0.1535931 -0.16660956 -0.1930536 0.040915765 0.09282847 0.04676493 -0.034211185 -0.26684734 0.073518656 -0.00057467853 0.15555924 0.100529246 0.0150001785 0.0066942275 -0.0011871111 0.06415871 -0.041607838 -0.124025546 -0.27809763 0.08848189 0.04689025 -0.015973588 -0.11699257 -0.006001778 -0.045549177 -0.05720942 0.02714654 0.014156974 0.2112042 -0.053112917 0.14257705 0.08866664 -0.08206295 0.1572409 0.051355768 0.04120677 -0.034646366 0.008199594 0.115984514 0.08058858 0.01959935 -0.054397408 -0.06014142 0.010480179 -0.0042847903 -0.34053472 -0.120075695 0.025592312 -0.047768723 0.051509224 0.14944184 -0.015485767 -0.20469591 0.057780437 -0.0110811675 0.05385163 0.23929346 0.09282963 0.041365717 0.12971716 -0.005564693 -0.0052601616 0.1253063 -0.061883457 -0.07496432 -0.024953648 -0.020042622 -0.022139119 -0.06142807 -0.018610334 -0.11065725 -0.112207346 0.0107026715 -0.10321233 -0.034415808 -0.15202266 -0.124167904 -0.012666556 0.12062583 -0.049640223 0.029160235 -0.013604295 -0.017144727 -0.016917203 -0.087959975 -0.14171116 0.10147476 0.052743476 -0.010669508 -0.045698956 -0.08545446 0.06755907 -0.0058676926 0.22437719 0.0053160307 -0.036115833 0.0441789 0.025051171 0.12272047 0.10721612 0.0016447442 0.0092350785 -0.14836697 -0.05498536 0.0533434 0.06720496 0.013339529 0.043430325 -0.14201093 -0.13397391 -0.08733019 -0.02935156 -0.05696804 -0.04689397 -0.041449606 -0.19312027 0.10597508 -0.05009546 0.0057874057 -0.12539645 0.0025892493 0.073961206 0.12480127 -0.07226214 0.1503819 -0.2552159 0.059572212 -0.21236034 -0.018037155 0.10741005 -0.008016273 -0.14293978 0.13874272 -0.16280968 0.041402012 -0.057905033 -0.06489546 0.17282061 -0.042149767 -0.08221916 0.11228141 -0.025017934 -0.054701008 -0.16678077 0.12329539 -0.026058692 -0.07803464 0.08063229 -0.013802184 0.025867585 -0.13492794 -0.055963892 0.011373073 -0.011850104 0.032030866 0.14002609 -0.013609323 -0.13115531 -0.044498708 -0.03655135 -0.06688857 0.011064139 0.01052911 0.016800145 -0.11405066 0.35120782 -0.09523403 0.0061425865 -0.048794243 0.09059134 0.03471469 -0.28109595 0.022809519 -0.12540261 -0.10117012 0.04997762 -0.0703261 0.06145387 0.13522783 -0.012732875 -0.032546654 -0.12187484 0.06315363 -0.12612611 -0.023509385 -0.028819531 -0.11641353 -0.0052012834 -0.13277353 0.035552308 0.027402168 0.018666122 -0.120009534 -0.0027585274 -0.0108036455 -0.004969835 0.01831108 -0.19098674 0.0072702505 -0.18640101 -0.07696667 0.09395611 0.0032740962 -0.103861146 -0.020530833 -0.0060453163 -0.037383903 -0.16165875 -0.38479498 0.093471125 -0.064060844 -0.13021551 -0.34141302 0.047675397 -0.010631919 0.2032094 -0.13687551 0.2400861 0.1360233 -0.12843208 -0.076657146 0.028087975 0.05911533 0.050807513 -0.03652854 4.041796e-05 -0.00088007125 -0.023829008 0.025872689 -0.067583784 0.038604725 -0.11955361 -0.019407867 0.09506982 0.0487934 0.025038492 -0.2356537 -0.069661245 -0.18323286 -0.065453656 0.013673446 -0.10419312 -0.07582183 0.015296259 0.039996337 -0.20669211 -0.1113355 -0.028302167 -0.046785567 0.101273656 -0.027654879 0.14827627 -0.15084097 -0.2063046 0.10088013 -0.010247503 -0.09427438 -0.07020676 0.051818244 0.013213767 0.049640987 -0.014837518 -0.15924321 0.09579734 -0.1448407 -0.016817486 -0.18497731 0.17387496 -0.21777572 0.08561438 -0.06979473 -0.052686553 0.056796364 0.03209519 -0.035928395 0.17314696 -0.18676285 0.03311454 -0.01879167 -0.09181448 0.024055982 0.02672683 -0.025619596 0.05675279 -0.058759965 -0.027854277 -0.041556437 -0.0047252118 0.03683152 0.08021919 0.05192924 -0.0021620046 0.00065864506 0.003580701 -0.06863804 -0.023640526 -0.23028512 -0.007371089 -0.09963953 0.13659827 -0.01935611 0.048588764 -0.029426295 -0.07935827 0.1511785 -0.15648957 -0.10139725 -0.020184122 0.14641915 0.035493154 -0.14982586 0.07442719 -0.07209576 0.028784363 0.08979613 0.20621938 0.066611715 -0.06214205 -0.09157845 -0.046037674 -0.011317632 -0.09594273 0.080957375 0.027420688 -0.09237531 0.1610469 -0.060349863 -0.099639945 0.052133676 -0.091190904 -0.060906585 -0.082371645 -0.055966258 0.035598215 0.083035685 -0.19253036 -0.0054628924 -0.26438034 0.07522979 0.0542249 -0.035374634 -0.11116363 -0.10642457 -0.06633003 -0.085293554 -0.012569056 -0.04747525 -0.018435087 0.0011321211 -0.03955747 0.045726374 -0.04154585 -0.06717124 -0.12670565 -0.007930163 0.007786311 -0.12295095 -0.10136634 -0.06252766 0.022369055 -0.14904654 0.056915943 0.07613195 0.058240276 -0.033246 0.028820649 0.14357561 0.02163198 0.0053368704 -0.099809706 0.060760163 -0.03380565 0.034532137 -0.019133743 -0.102855496 0.19023018 -0.12679146 0.029235443 -0.087910436 -0.104928404 0.15653916 0.01843937 0.034137778 0.036919672 0.055552162 -0.06269469 -0.00292799 0.0004453373 0.022309868 0.102286816 -0.15925281 0.06459305 0.03358291 -0.031489294 -0.026249502 -0.05876112 -0.2042286 -0.06790782 0.0010951516 0.269378 -0.024021303 -0.00061911735 -0.10879832 -0.1132156 -0.061407384 -0.033614002 -0.019729478 0.19169685 -0.16224407 0.07469046 -0.0032736373 0.096567236 -0.0804517 0.07001336 0.02663985 -0.02812181 0.0796388 -0.044862278 0.048777457 0.0033020503 0.096873336 -0.32711697 -0.008686 0.13002697 0.09877792 -0.34117526 0.10542586 0.17484176 -0.009541873 -0.04880808 -0.026808618 -0.01300324 0.007130943 -0.10294971 -0.043634433 -0.0102424435 0.13308924 0.019912215 0.022838915 0.18262136 -0.047257774 -0.064363144 -0.099037714 0.0062207924 -0.097116075 0.103222325 0.015377955 -0.06026536 0.13393842 -0.031334978 0.08880076 0.008129227 0.018454766 -0.17212911 -0.048368737 -0.003238956 0.049540676 0.005587607 -0.0062383106 0.025828922 0.024529101 0.01746746 0.104433075 -0.61794406 0.0019001138 0.0030790756 -0.12700874 0.09943361 -0.070941515 -0.0030353197 -0.06604218 0.065457635 0.01350066 -0.06928982 -0.12434588 0.09190195 0.038620967
0.06873982 0.009193935 -0.17236012 0.06328555 0.016808264 -0.037223198 0.06297705 0.034357812 -0.054013334 -0.18531664 0.054392368 -0.28973034 -0.024988046 -0.0040566274 -0.038519748 0.05070622 0.009203491 -0.05938696 0.10510127 0.018095415 -0.0666404 0.035484575 -0.024568396 0.036554594 -0.07676661 0.042650912 -0.017008211 0.0856875 -0.26250002 0.064162366 -0.14594011 0.16670497 0.11840774 0.1292043 0.056148347 -0.23462957 0.061196778 -0.19914833 -0.0014976314 -0.047727708 0.06473047 -0.17620143 -0.19690324 0.027236497 -0.22098494 -0.11560005 -0.4360537 0.00869434 0.020361776 -0.030817961 -0.019014588 -0.061145507 0.033341702 0.11067707 -0.14483742 -0.18789513 0.018829463 -0.01197407 -0.13798599 -0.08972718 0.06790184 -0.046199698 -0.09832094 -0.1423401 -0.039437167 -0.10224676 0.07839914 -0.02046292 0.1651023 0.085114494 -0.12412423 0.13027312 -0.27866516 0.049538754 -0.04570311 -0.02475192 -0.06298434 -0.20771028 -0.03195898 -0.053432163 0.072171815 0.02813873 -0.033943433 0.038957734 0.0053649787 0.0704428 0.05923768 0.17135747 -0.16842356 0.10195366 -0.04005558 0.041231353 -0.025965806 -0.047659993 -0.07645484 0.0044039153 -0.44761944 -0.17838559 0.045632903 -0.038612153 0.026475629 0.015885988 -0.22569248 -0.051885337 -0.007916849 -0.023373475 -0.03979885 -0.09066843 -0.20848924 0.13805111 0.13264543 -0.05639401 -0.05346465 0.12816794 0.1424144 0.009043902 0.15587802 -0.0036086172 0.05953444 -0.18817608 -0.030890407 -0.3704248 0.07514194 -0.05478513 -0.079665236 0.09431681 -0.24046254 0.099222586 -0.1866735 -0.19422065 0.14839678 0.013764196 -0.019074023 -0.009998936 0.04451871 -0.1011843 0.06603393 0.040663805 0.054228213 0.0013358541 0.10986792 -0.088151716 -0.19850165 -0.11540388 -0.08363152 -0.014493312 0.021950223 -0.09724968 -0.01093048 -0.15863937 -0.0997454 0.053361837 0.12274313 -0.07945325 -0.05823816 0.06421433 -0.23858207 -0.11488901 -0.061585974 0.12393292 -0.16158618 -0.01656778 0.020207698 -0.0040603983 -0.084510215 -0.0063661328 0.008063864 -0.03704763 -0.15009859 -0.01686535 -0.010452359 0.02107121 -0.0038055026 -0.1744802 0.028580543 0.011108706 -0.27249438 -0.13947229 0.030730313 0.074375585 0.078244135 -0.032394506 -0.0058705295 -0.103149526 -0.13649301 -0.11488531 -0.10674692 -0.004840311 -0.067294724 0.05138282 0.073542036 -0.07939749 0.057399135 -0.017060287 0.02214371 -0.17069384 -0.23378743 0.0057900273 0.07392834 0.015890565 -0.1556153 0.05871474 0.013675868 0.16332439 -0.014683804 -0.13105737 0.031881534 -0.11655613 0.08427209 -0.08688868 -0.04895315 -0.04273546 -0.10958141 -0.06423898 0.10093084 -0.1503976 -0.025503244 0.10697628 0.055169385 -0.19356363 -0.21019346 -0.0032111674 0.01542392 -0.12115771 -0.0015801558 0.042938225 -0.00750308 -8.232583e-05 0.047944803 -0.17114495 -0.048416696 -0.0956612 0.06541069 -0.12666309 -0.10229658 -0.18366933 -0.01052226 -0.0040682866 -0.10820499 0.0005871298 -0.0149153415 0.015248655 0.13139082 0.059492595 0.076643005 -0.08143859 -0.027731441 0.088879935 -0.027581992 0.025618896 -0.3602394 0.07712205 -0.18378487 -0.04806814 -0.11249138 -0.060892634 -0.04341881 0.047622666 -0.0057210075 -0.16190673 0.052859135 0.037039444 -0.103722446 -0.0653479 -0.015546086 -0.049875014 -0.015226591 -0.046739537 -0.09026488 0.13541801 0.025431523 0.022863608 0.09906405 -0.10284899 -0.580804 -0.09285518 -0.013357475 0.05791103 0.01733801 0.0058508166 -0.14382794 -0.22452322 -0.0031610385 0.041524988 0.053797595 -0.109124005 -0.08276215 -0.057923757 0.042578086 -0.09765732 0.066438764 -0.044927716 0.00097112334 0.036602706 0.03889475 -0.085061885 -0.0068256985 -0.027583255 -0.005121195 0.0035021123 -0.0120060695 0.048191402 -0.19260868 0.08197117 -0.055210527 -0.19119437 0.019121414 0.007755777 0.12785155 0.012926082 -0.4256621 0.042775124 0.034332532 -0.055266216 0.16618085 0.12414348 0.043831326 -0.01706449 -0.10650963 -0.019686105 0.010840848 0.124094956 0.023613606 -0.01680678 -0.07358989 0.05307105 -0.0038918732 -0.15055902 0.0043765116 -0.07559576 0.033173867 -0.04458499 -0.017402768 -0.0438522 0.06559326 0.04492045 -0.058959484 -0.06161023 -0.057355586 0.2183547 -0.17917052 0.04947841 -0.011574634 0.021985743 0.010792803 0.107615 0.0734366 0.04815422 -0.10178739 -0.054621786 0.07156145 -0.05803731 0.046696234 -0.13384642 -0.07287503 0.0623449 -0.17424163 -0.0055773733 0.054285433 -0.13260153 -0.281042 -0.23145317 0.0036161134 -0.0045304582 -0.0010223978 0.008818554 -0.043787044 0.012338303 -0.0078022517 0.0793041 -0.06618015 -0.03258057 -0.05203506 -0.010306377 0.007329298 -0.1392321 -0.009122833 -0.1676407 -0.042874105 -0.06484726 0.009634221 -0.2094852 0.005529916 -0.043797955 0.12024282 -0.18413913 -0.11114338 -0.026607612 0.02490562 -0.03189307 -0.12954824 -0.084408216 0.030969292 -0.024144042 -0.012252006 0.036956936 0.05743759 -0.026809968 0.10149697 -0.06732865 -0.111892685 -0.018371716 -0.029021548 0.055761065 -0.09018268 0.029515829 -0.15154333 0.10652311 0.01771057 -0.0793834 -0.12207581 -0.10119 -0.08643046 0.0353223 0.038337566 0.0046142237 -0.047295593 0.10397269 0.056868054 -0.021841137 0.044259213 -0.08953597 -0.0478406 -0.039103992 -0.09296734 -0.11561717 0.041522473 0.025202887 0.061914373 0.09623085 0.090436384 -0.074764036 0.013811569 1.071288e-05 -0.17887905 0.06418817 -0.1331853 0.037665065 -0.21256329 0.10710945 0.066617124 -0.047777746 -0.038173534 -0.1526845 -0.05430081 0.041437354 0.25227484 0.02074299 -0.11470569 0.11312893 0.123495944 0.09803798 0.056473356 0.03160302 0.11272842 -0.048587088 -0.0283449 -0.008926727 -0.13353714 -0.006566904 0.05282244 0.030369474 -0.05151483 0.033201836 -0.059783544 -0.011592566 -0.18838474 0.093170755 0.17494841 0.016896812 0.039769385 -0.04489813 -0.037969574 -0.041382156 0.08470173 0.18423425 -0.16499923 -0.17106026 0.055477306 -0.004736431 0.15966778 -0.01703247 0.07072637 -0.16368288 -0.015970943 -0.15087543 0.12810725 -0.033408884 -0.09614738 0.08891822 0.09642097 0.019517027 0.0868129 0.05217419 0.08585411 -0.20550796 0.03288876 -0.1356987 0.012452178 -0.070008256 0.005068427 -0.030783268 -0.059975315 -0.13221253 -0.031202711 0.07662829 0.041551337 0.023960508 0.07403017 -0.10041783 -0.02455564 0.014130455
0.09605332 -0.04671165 -0.08750035 0.010649288 -0.07951422 -0.014269908 -0.016280752 0.03227951 0.04754881 0.041502286 -0.0428357 -0.07710629 -0.08829696 -0.017147195 -0.06809667 -0.05372757 -0.048741885 -0.076434806 -0.05358327 -0.11564286 -0.10044626 0.09288323 -0.07431869 0.0034923023 -0.07236886 -0.03529626 -0.06625136 -0.0156192165 -0.049843654 -0.00015419627 -0.034331582 -0.019792654 -0.040844433 0.03987231 -0.1048365 -0.038126722 -0.059174605 0.006431131 0.13686678 0.032807324 -0.019386994 0.043614183 -0.028052077 -0.003576955 0.07672231 -0.032639857 -0.0868524 0.017478107 -0.032757517 -0.09101866 -0.019432222 -0.072849736 -0.09824706 -0.0025939236 -0.058761064 -0.047104664 -0.09352434 0.027379273 -0.1347555 -0.12177962 0.07729569 -0.048382107 0.005985625 -0.056448612 -0.04544549 -0.062655345 0.17628199 -0.054082423 0.120761484 0.05299007 -0.13511637 -0.009365208 -0.041419733 0.08866362 -0.041099202 -0.08769835 -0.06731326 -0.03422924 -0.059072256 -0.014431959 -0.0129100485 -0.08835541 -0.065855585 -0.05471722 -0.009872196 -0.03764888 0.016222501 -0.03983381 -0.067213535 -0.02489328 -0.15233092 -0.04268915 0.017995972 0.0027382418 -0.057622217 -0.01483929 -0.092362165 -0.12074637 -0.020012258 -0.08506403 -0.006459508 -0.053343102 -0.023970883 -0.1011369 -0.028579725 -0.07656517 -0.10867124 -0.036397673 -0.04079314 -0.041141797 0.03521218 0.086527415 -0.09983968 -0.019968208 -0.027873054 0.020054778 -0.029288147 -0.050331578 0.13529298 -0.08671661 0.0012871724 0.0028198485 -3.7000114e-05 -0.056231853 -0.06541021 0.0015401486 -0.0033928475 -0.03618557 -0.014659297 -0.035533924 0.119048014 0.021370394 -0.0068940544 -0.06610599 0.0059064655 -0.0979427 -0.041116796 -0.07001614 -0.044729587 -0.047670487 0.09281932 -0.106421515 -0.12615837 -0.01524116 -0.038845945 -0.018782249 -0.0101232 0.08321058 -0.06851973 -0.105789594 -0.06268784 0.08530507 -0.05734261 -0.039096896 -0.12480951 -0.13396321 -0.111324936 -0.0038386567 0.0020305067 -0.04684008 -0.028587125 -0.03908706 -0.016064063 -0.092317596 -0.049574602 -0.05913682 -0.030025981 0.04193444 -0.05611959 -0.069598496 -0.07172205 -0.088416636 -0.044135794 -0.10938062 -0.023278633 -0.058176603 -0.14099643 -0.09869498 -0.00603617 0.016093297 -0.053415712 -0.12390018 -0.07019795 -0.061351474 -0.10196666 -0.031432033 -0.09894587 0.09192582 -0.022396095 -0.06109735 -0.07891945 -0.056151465 -0.03740295 -0.093484774 -0.03986039 -0.13471329 -0.112966396 -0.044397693 0.0025584034 -0.06902539 0.12751666 -0.06705767 -0.10811508 0.01507089 -0.0028739083 -0.0029911837 -0.072005525 -0.030146085 -0.0020824214 -0.050700933 -0.119162515 -0.015276615 -0.024657013 -0.08258436 -0.034135364 -0.02676602 -0.048580337 0.08927872 0.008914086 -0.06153932 -0.04431578 -0.04270471 -0.06085661 -0.064839095 -0.012132058 -0.041565575 -0.03389508 -0.06880076 0.007823258 0.041435856 -0.06996557 0.03298437 -0.012678993 -0.118460365 -0.003575582 -0.044670645 -0.01071638 -0.10339246 0.10346217 -0.06059167 -0.0631859 -0.07324853 0.029639008 -0.0958231 0.030702686 -0.016012618 -0.015100037 0.111266606 -0.038185984 -0.06621651 -0.053182922 -0.06315961 -0.045181677 -0.0517215 -0.06414214 -0.020368911 -0.03554509 -0.035049874 0.033719696 -0.11953063 -0.042031087 -0.052020155 -0.12100935 -0.04769908 -0.07084982 -0.048192073 -0.099681444 -0.009104114 -0.054355282 0.029453304 -0.027420593 -0.018320303 0.028341493 -0.08944571 -0.10481504 -0.17655577 -0.036601488 -0.053387042 -0.055005606 -0.12187625 -0.08882487 -0.056406744 0.07468779 -0.040351227 -0.06642589 -0.05493204 0.09749212 -0.0314736 0.07004015 -0.017790003 -0.04251963 0.037447087 -0.087384716 -0.050384223 -0.03438478 -0.06732625 0.10839002 0.009898549 0.0119955195 0.0044978037 -0.0067848773 -0.06913773 -0.055127185 0.13939956 -0.042939868 -0.046098746 0.10295501 0.018570032 0.02302364 -0.052789293 -0.07787021 -0.08876544 -0.013769792 -0.07448406 0.16185664 -0.04237723 -0.00070326525 -0.059277244 -0.015225231 -0.062290914 -0.046873398 0.023289857 -0.008620466 0.01798755 -0.06250578 -0.055044666 0.12242512 -0.0956577 -0.07600802 -0.10727732 0.09131941 -0.04336865 -0.0651938 -0.0776992 0.022948362 -0.04120909 -0.07241117 -0.006500083 -0.008346192 0.18057907 -0.056231134 -0.06304468 0.00044271315 0.002114625 -0.05959481 -0.013605661 0.053898267 -0.102046356 -0.12935504 -0.006453357 -0.028368035 -0.080457784 -0.06194664 -0.03160528 -0.03261009 -0.014296088 -0.089933604 -0.033020604 -0.05401232 -0.029927999 -0.06849863 -0.09663966 -0.026457258 -0.06129427 -0.08252956 -0.08848829 -0.04926459 -0.14235206 -0.12254908 -0.08119167 -0.08914401 -0.09629533 -0.06099115 0.046770316 -0.06572131 -0.036238868 0.013078859 -0.06995882 -0.052281845 -0.07388724 0.008458297 -0.022332145 -0.039610617 -0.0030288054 -0.043695685 -0.0027801164 -0.005520066 -0.07852817 -0.04656964 -0.062042624 0.10642176 -0.0985364 -0.06914267 -0.022713702 -0.075488254 -0.09995208 -0.009613423 -0.09004241 -0.024798298 -0.08225031 0.017287828 -0.054386847 -0.10124089 0.06395675 0.060641114 -0.031021254 -0.06687826 0.07577783 -0.028631393 -0.021778557 -0.032675564 -0.01110178 -0.024032773 0.0701402 -0.079218335 -0.017668035 -0.06560825 0.10737021 -0.037316926 -0.083769105 -0.009974012 -0.07494174 -0.07210806 -0.06252158 -0.04125967 -0.07473845 -0.025168011 -0.021945527 0.06678394 -0.055304855 -0.045776214 -0.008327844 -0.0025974477 -0.13087352 -0.091151774 -0.02944577 -0.049009237 -0.02528179 -0.006286805 0.0034009377 -0.059643652 -0.14336498 -0.05775097 -0.12505719 0.0008016707 -0.018038625 0.15639316 -0.06745447 0.11653237 -0.076607324 -0.073118605 0.09261163 -0.07948376 -0.006504967 0.14777596 -0.03196545 -0.028710946 -0.031428605 -0.077089876 -0.077160515 -0.07169527 -0.009941016 -0.0670768 -0.059812706 -0.08944539 -0.0996512 -0.11564606 -0.075760856 0.03951048 0.013570001 0.02486538 -0.015905267 -0.019287257 -0.08368319 -0.05661087 -0.064326376 -0.030170294 -0.055996373 -0.011851651 0.0843086 -0.05228052 -0.040083643 -0.023178985 -0.0056044585 -0.019009458 -0.08944749 -0.0063883904 -0.15595914 -0.102063775 -0.06557576 0.08546215 0.028218124 0.06601985 -0.04202856 0.1204994 -0.07169974 -0.038325835 -0.0062294737 -0.07115719 -0.027881062 -0.032781657 0.04096278 -0.016515043 -0.06838973 -0.056203455 0.035408773 -0.026196638 -0.071905114 -0.08337623 -0.1360233 -0.03756638 0.092581026
0.07315557 -0.0147404345 -0.05394541 -0.07314802 -0.033607908 -0.07746994 -0.039764963 0.0008320525 0.046432234 0.061577708 -0.07056492 -0.091102615 -0.12049013 -0.06618642 -0.063816376 -0.10412207 -0.08059227 -0.09511299 -0.001927518 -0.037716307 -0.14202103 0.07689482 -0.04721663 -0.03602523 -0.010208371 -0.023178421 -0.0636199 -0.019172275 -0.06633617 -0.010243636 -0.09362304 0.028084837 -0.07856111 -0.0013167469 -0.01743366 -0.07572261 -0.02880006 -0.00041068936 0.053693675 0.0020993894 -0.024456095 0.013941913 -0.10429451 -0.047239248 0.006144178 0.016871892 -0.0449897 -0.013700227 -0.015162459 -0.06926983 -0.04663204 -0.047745667 -0.062117964 -0.038733218 -0.025077866 -0.07097762 -0.031859674 0.011282919 -0.09188241 -0.11840893 0.0684409 -0.045179375 0.04915526 -0.06317446 -0.0775999 -0.008427162 0.07842712 0.00078529347 0.13549457 0.0888462 -0.0638817 -0.07400531 -0.06294569 0.056229018 -0.08190004 -0.0988826 -0.07284018 -0.085791044 0.011959434 -0.072894804 -0.008742147 -0.086397156 -0.04484847 -0.018368253 -0.025193872 0.05009782 -0.021191634 -0.044080846 -0.03815888 0.027293751 -0.07774008 -0.0637337 -0.05013754 -0.014291192 -0.041394725 -0.029813891 -0.06548487 -0.12408625 -0.013565999 -0.0473306 -0.0810445 -0.05220254 -0.023329541 -0.065713376 0.025342276 -0.019822184 -0.12669146 -0.025818726 -0.012332424 -0.049659524 0.03358816 0.0308675 -0.09105202 -0.008505265 0.0629701 -0.03400371 -0.033641186 -0.057081137 0.050789837 -0.034905776 -0.03585943 -0.007887568 -0.02616444 -0.040996272 -0.05899825 0.0319461 -0.053314134 -0.052522134 -0.049567156 -0.021664789 0.050103895 -0.023616107 -0.038850445 -0.07718231 -0.03750933 -0.16966921 -0.06315772 -0.025252724 -0.012645818 -0.05093642 0.09753908 -0.074472256 -0.08909042 0.046799514 -0.0684238 -0.020501418 -0.046301488 0.04994628 -0.107843116 -0.05992363 -0.007556572 0.046754193 -0.010058009 -0.01888323 -0.08603833 -0.034258734 -0.06541883 -0.0431549 -0.053941987 -0.022055073 -0.008933091 -0.055883504 -0.08649891 -0.09093571 -0.09190791 -0.03741199 -0.0041993386 0.0051082578 -0.08981267 -0.08438817 -0.108775854 -0.025112085 -0.061039302 -0.09416138 -0.07523116 -0.018795995 -0.105730735 -0.044477183 -0.047718056 -0.0012844667 -0.047976363 -0.08125317 -0.110958874 -0.050438132 -0.09264057 -0.003391924 -0.09085788 0.020747257 -0.04724588 -0.035625413 -0.015362482 -0.013419376 -0.019696267 -0.019221773 0.026132274 -0.059727278 -0.054891467 0.0064352644 -0.06446319 0.00063984515 0.04812067 -0.021853374 -0.10795842 -0.0038213483 -0.06241185 0.014796244 -0.07270533 -0.031489562 0.023102025 -0.043831956 -0.10489005 -0.015600732 -0.047975235 -0.07912248 -0.08106717 -0.07903213 -0.008748987 0.109257415 0.07841012 -0.073732935 -0.02700463 -0.0073885624 -0.046005134 -0.08958594 -0.0840938 0.008376589 -0.032723226 -0.0077592214 0.0026135223 0.02854218 -0.0790659 0.018702885 -0.012136285 -0.12102804 -0.057780337 -0.062237356 -0.060716588 -0.03543259 0.08342704 -0.012453112 -0.05946738 -0.078683265 0.051798593 -0.08663047 0.062035743 -0.062396012 -0.04276631 0.08571513 -0.07970389 -0.067990504 -0.049179368 0.034439825 -0.09652853 -0.06534203 -0.06040538 -0.08161054 -0.065943785 -0.038617846 0.020995429 -0.103559434 -0.020739835 -0.004307754 -0.07188997 -0.0031994502 -0.067521654 -0.048341945 -0.03944328 -0.025400592 -0.067742564 0.049722318 -0.04842953 -0.013280801 0.01668731 -0.06831906 -0.104351 -0.080872364 -0.078205 -0.07676292 -0.057563838 -0.086080246 -0.044514947 -0.017011328 0.021852762 -0.04200429 -0.021068195 -0.026693052 0.021882359 0.0016546265 0.07039239 -0.06657806 -0.046298124 -0.0026363828 -0.07832936 -0.026498714 -0.038886003 -0.016337432 0.094749026 0.030210042 0.010430034 -0.019150183 0.009975006 -0.10290008 0.008660374 0.052170806 0.00794889 -0.122480564 0.12373871 0.036884654 0.07346646 -0.04182072 -0.0627983 -0.099073894 -0.030288393 -0.09703589 0.10385897 -0.0044471817 -0.02779706 -0.06812274 -0.026966989 -0.030025197 -0.01560184 0.019212214 -0.0021185146 -0.056028564 -0.06619892 -0.051420525 0.1053929 -0.082486965 -0.011410548 -0.05335058 0.104941316 -0.048343226 -0.02222632 -0.061895397 0.02960022 -0.07053346 -0.119431585 -0.03959749 0.0151814865 0.08175411 -0.043173406 -0.042267356 0.034792043 -0.07178419 -0.106447734 -0.041595142 0.029768752 -0.03183371 -0.12241314 -0.018755447 0.0022692806 -0.14824261 -0.073743954 -0.00960241 -0.042864073 -0.074089594 -0.06485553 -0.0011280648 -0.061967257 -0.039540812 -0.05320758 -0.0586272 -0.0031382982 -0.010863116 -0.14479701 -0.07570896 -0.063932754 -0.05073244 -0.09991976 -0.0063752066 -0.11489271 -0.062372822 -0.08100697 0.010364602 -0.11039676 -0.02304777 0.011962781 -0.06350581 -0.03019553 -0.14090624 0.015520672 -0.030413149 -0.03709328 -0.019089999 -0.052271213 0.037206683 -0.010683189 -0.081184804 -0.10460312 -0.037401818 0.06376843 -0.10229589 -0.079344764 -0.025241561 -0.07236092 -0.074683405 -0.023142397 -0.06737364 -0.018890116 -0.07990551 -0.034737047 -0.0018240704 -0.004690481 0.055634942 0.084830835 0.007702521 -0.091050014 0.03895853 -0.044435292 -0.0973753 -0.074539155 -0.053420834 -0.04689087 0.10430906 -0.06040091 0.03032748 -0.1171292 0.12510806 -0.0041366145 -0.074909285 -0.07956801 -0.04542413 -0.022010181 -0.07095619 -0.02715505 -0.09902268 0.007995986 -0.05068872 0.04550855 -0.0876834 -0.07042611 -0.014621223 0.0158137 -0.0679906 -0.09220982 -0.073593006 -0.03889717 -0.078530386 -0.044129632 -0.06741094 0.01047227 -0.1378337 0.01350863 -0.0760899 -0.025117613 0.019647863 0.14098892 -0.09774421 0.08059177 -0.025384152 -0.070694245 0.13915165 -0.0153365405 0.018499898 0.06834578 -0.009367464 -0.058622178 -0.07021566 -0.066877075 -0.08848688 -0.058460496 -0.04541097 -0.02171136 -0.038280986 -0.015427091 -0.07969752 -0.11785961 -0.077766046 0.04981389 -0.012462961 -0.0057317987 -0.07059946 -0.038666654 -0.11019537 -0.07419954 -0.08006455 -0.04629392 -0.057798985 -0.016575359 0.10569644 -0.019242728 -0.026192399 -0.00053671113 -0.03805462 -0.052763153 -0.042519893 -0.046691798 -0.14676853 -0.09915271 -0.041748833 0.07069092 0.00028934394 0.02639672 -0.061514005 0.084790744 -0.07696662 -0.07211932 0.0046074386 -0.075163595 -0.04365698 0.004715191 0.06710329 -0.030047022 -0.0524616 -0.064649686 0.03524915 -0.03779091 -0.050991487 -0.051912088 -0.12429817 -0.017253391 0.10084586
0.00041530348 0.051192813 -0.04313578 0.078217365 -0.046631522 -0.14762063 -0.012458541 -0.020542203 0.0043549426 -0.012193503 0.034031678 0.016644385 -0.021911435 -0.023106484 0.085067175 0.096531436 -0.051452473 -0.02086551 0.04129459 -0.029605465 0.056662425 -0.05844086 -0.010599864 0.021907186 -0.06665175 0.060199447 0.034399863 -0.18661465 -0.059106294 -0.066694684 -0.03662997 0.14288498 0.09130985 0.06795578 0.09711806 0.019385712 -0.049311776 0.07433017 0.02459932 0.10298871 -0.038389146 -0.106605455 -0.069171645 0.09100641 -0.030504163 -0.53200084 -0.14038129 -0.031293575 -0.09562889 -0.11696471 0.0062754774 -0.02955771 -0.047124036 0.0596968 -0.14525533 0.038163222 -0.041811205 0.031864665 -0.0216177 -0.04568212 -0.055356737 -0.16026403 -0.028010596 -0.01449527 -0.025671437 0.034581937 0.018294161 -0.054816123 0.10261902 -0.013540016 -0.16715007 0.004447265 -0.02267004 -0.036163546 -0.08173212 -0.21359359 -0.023497267 -0.014138794 0.01457141 -0.13627799 0.060565095 0.054307517 -0.088261314 0.029929139 -0.06491667 0.035270777 0.05401527 -0.004378725 -0.17280073 0.07648466 0.020410877 0.11653327 0.08855292 -0.01363493 -0.057444267 -0.07515389 0.048968725 0.09574371 -0.065880656 -0.045126654 0.035351045 0.017968556 -0.1263135 -0.14248507 0.046504132 -0.075253494 -0.10132288 -0.01128259 -0.2105078 0.016226392 0.09854832 -0.0712416 -0.17756768 -0.08098206 -0.024917109 0.097099185 -0.0014172647 -0.0068802796 0.040925816 -0.08535385 -0.0070529943 0.038318634 0.012396384 -0.007856542 0.01999264 -0.11406337 -0.26743126 0.053358484 -0.08744571 0.008913748 -0.074163556 0.10364078 -0.07100837 -0.08843927 -0.036055807 -0.087778546 -0.055535257 -0.0023556645 0.018920818 -0.09986793 0.14555234 -0.020695552 -0.010256921 0.013850638 0.060374748 0.064214304 0.05143913 0.064453535 -0.0244368 -0.019595435 -0.1673901 0.07208985 0.009086377 -0.018831141 -0.027024636 0.061070457 -0.114797965 0.019778848 0.028079836 0.06852844 -0.098025024 -0.022328297 -0.2376153 -0.026241435 -0.056880664 -0.012566685 0.093671806 -0.063240655 -0.05176568 -0.053756736 -0.017620679 -0.057057153 -0.02111555 -0.130705 0.012411908 -0.017076017 -0.018991558 -0.13510102 -0.03016935 -0.028609006 -0.13297965 -0.053104777 0.013663448 -0.13477448 -0.040410563 0.078141905 0.022721589 0.02437604 0.014710615 -0.051797617 -0.028796641 0.06387517 -0.21018097 -0.014817435 0.021129362 0.07366292 -0.018685248 -0.03708753 -0.031334016 -0.012214844 0.05248646 -0.022868115 -0.01209603 0.031884544 -0.038333952 -0.004124928 -0.04087725 0.17241272 -0.099934064 -0.10354832 -0.027339453 0.0018211062 0.0017770167 -0.021898659 -0.09709202 0.013813846 0.107227184 0.020660937 0.048032146 -0.098334156 -0.14850275 0.09301227 -0.02442621 -0.07043031 0.002950937 0.024469592 -0.010400395 -0.12342838 -0.022201473 0.065255456 0.06231371 -0.06469401 0.1119059 -0.0045541255 0.11643353 -0.094517514 0.031432834 -0.067176096 -0.056973744 0.111551724 0.053374548 0.05899831 -0.08446055 0.015432441 0.05855597 -0.016263336 -0.10201605 0.0740591 -0.09934671 -0.032864533 -0.19565445 -0.015648492 -0.26022398 -0.027643528 0.023289802 0.028334321 0.03001033 -0.0099424925 0.100557454 -0.07584957 0.012677469 -0.058676727 0.0009836924 0.017989693 0.004959299 -0.034658827 -0.045796506 -0.027160183 -0.013722437 0.07884893 -0.0070841652 -0.13285749 0.019884441 -0.095988095 -0.09587546 -0.07376203 0.04183024 0.055227235 -0.004131931 0.048940375 0.04621558 0.00918149 -0.06397205 0.0075028213 -0.055689473 -0.0077630132 0.21873374 0.05883113 -0.00809469 0.07325557 -0.076110154 -0.094661325 -0.014975411 0.044335376 -0.017254202 -0.026665945 -0.06197938 -0.025038987 0.026738122 -0.17176667 0.0037533026 -0.053556547 -0.059996545 0.032778174 -0.049754627 -0.008393109 0.03898785 -0.0562488 0.0018812752 -0.03158125 -0.09314294 -0.10233498 -0.25613275 -0.03947983 0.052640103 0.00896405 -0.07734491 -0.011803497 0.012361158 0.07070533 -0.09011343 0.009845376 -0.14231049 -0.010730701 0.0016022865 0.090311654 0.022765763 -0.0055698855 0.069426484 -0.07371086 -0.094968446 -0.11120149 -0.014778306 0.045248542 -0.08982051 -0.039545756 -0.31765327 -0.07037236 -0.24136706 0.17769535 0.018529873 -0.13303798 -0.010303327 -0.034193374 -0.07877625 -0.07158319 0.10388829 0.033970214 -0.014970006 -0.032156497 -0.020709105 -0.03380681 0.03557192 -0.047791377 -0.08123329 0.0825739 -0.055935625 0.025425836 0.040870763 -0.12012937 0.01683604 -0.10849083 -0.023631768 -0.047060978 -0.16781192 -0.02856628 -0.0709977 -0.027326308 0.09062875 -0.087229915 -0.039140478 0.06140421 -0.0659035 -0.10945672 -0.022604972 0.0069145937 0.015786774 -0.020558715 -0.20823388 -0.10249821 -0.022681536 -0.20453998 0.04875998 0.03555654 -0.12158894 -0.07193247 0.064384624 0.06642488 0.11590161 0.010133822 -0.09107299 0.027138276 0.018243484 0.03077547 -0.14661524 -0.013166968 -0.018037325 0.009213109 -0.09600786 -0.059352342 -0.05245191 -0.16324802 0.0031646693 -0.013668946 -0.04851461 -0.046137415 0.07479421 -0.045620475 -0.024926446 -0.008307027 0.062155228 0.014439263 0.063095696 0.002074135 -0.04045706 -0.11831785 0.004113935 0.04158398 0.07688522 -0.23543909 -0.08924733 -0.009472122 -0.18872277 -0.025665866 -0.017565165 -0.055871606 -0.16622654 -0.029121716 -0.035900902 -0.022174267 -0.026350435 0.0015265747 -0.1012648 0.053073607 -0.045745645 0.053033575 0.05288035 -0.14584887 -0.13098638 -0.09145448 -0.055716835 -0.103041925 -0.057795838 -0.03344519 0.033293646 -0.063412465 0.1339004 -0.01658783 -0.13283353 -0.10222855 -0.053434413 0.02364234 0.081478365 -0.018746601 0.00035890035 0.048169874 -0.12728342 -0.14719012 0.007504339 0.010358505 -0.020266196 0.107600525 -0.07670647 -0.009470621 -0.022354165 -0.09232523 -0.092873834 -0.03131438 -0.038553253 0.0012500506 -0.1189093 -0.017172327 -0.034541253 -0.028959094 -0.01627616 -0.14513889 0.06787573 0.056730743 -0.06516607 0.012373744 0.05168415 0.0077833226 0.06834585 -0.0036165712 0.052153386 0.014627614 0.046927135 -0.05165117 0.0844984 0.035924695 0.024443699 0.047288995 -0.027622867 -0.006872196 0.057323884 0.035336412 -0.010918197 0.04092053 -0.016824253 0.06526648 0.01445223 -0.16584161 0.061050836 -0.18814155 0.041517455 -0.17321262 -0.078685716 -0.012713102 0.100829944 -0.004611216 -0.082189515 -0.05978647
0.022994768 -0.0037069381 -0.038594157 -0.018460058 -0.09008904 -0.0672895 0.035058677 -0.02095616 -0.20605333 0.18263564 -0.0098165795 0.031648636 -0.6859995 -0.046856537 -0.10562365 0.10572832 0.05761452 -0.004815291 -0.019975126 -0.0010623324 -0.011387372 0.15047248 0.06800311 0.012120857 -0.02969375 0.0705689 -0.09841724 0.12141603 0.119759284 -0.031580955 0.06502984 0.13417426 -0.013618065 0.06380973 -0.27263188 -0.0021101772 0.02985853 -0.02039033 0.09606549 -0.15821268 -0.034343228 0.05734746 0.006556268 0.022181123 0.02592714 -0.20843332 -0.01639103 0.032377828 -0.19245628 -0.06989963 0.058295824 -0.052207272 -0.2687947 -0.022554537 -0.1128858 -0.003387883 0.0013807885 0.0069519505 -0.09000868 -0.047691282 0.13434215 0.0062983674 -0.12949619 -0.041334234 -0.054077763 0.05388521 0.14106591 -0.011664444 0.21113 -0.07579679 -0.12972203 0.021049254 -0.2889035 0.011717666 0.06185818 0.025021369 0.06319363 0.121974215 0.03183719 -0.06473702 0.037601966 -0.08576818 -0.020050725 -0.0010491126 0.002223705 0.20559509 -0.09189683 -0.040902868 -0.017399084 0.16840234 -0.15613504 0.04613386 0.05049046 0.042657644 0.095081635 -0.033140045 0.09700858 -0.07220593 -0.09592484 -5.1236362e-05 -0.00075440534 0.09671508 -0.15317214 -0.2419991 0.008174191 -0.088695556 -0.13904479 -0.34232283 -0.10101294 -0.025367953 -0.13651484 0.18617105 0.018373778 0.05242561 0.2126922 -0.01009458 -0.058509972 -0.09814239 0.20709828 -0.4420221 -0.20450765 0.015191136 -0.010472237 -0.059871342 -0.070762195 -0.004255583 -0.028144015 0.20792887 -0.01681186 0.0503576 0.20670363 -0.010531395 -0.19140987 -0.021413071 -0.08458877 -0.48601335 -0.18323328 -0.045640063 -0.09291379 0.03815291 0.017295707 -0.58972764 -0.21827239 -0.14570111 -0.073658876 -0.007030669 -0.014311047 -0.027595922 -0.67720234 0.23005803 0.06887736 -0.11071313 0.059318222 -0.25866184 0.074782036 0.07485448 0.0123953875 0.004440509 0.019980786 0.019809607 -0.07802334 -0.17089342 -0.4350865 -0.094747156 -0.062559694 -0.054007817 0.023004754 -0.067644134 0.043832134 -0.022184972 -0.023810538 0.043314967 0.11759657 -0.048638016 -0.21883687 -0.0794234 -0.034636103 -0.018488457 -0.007596715 0.08495578 -0.14675015 -0.11799026 -0.1425845 -0.22987859 -0.22607689 0.024077192 0.05798196 0.21166974 -0.063045576 -0.027806876 0.013218743 0.007324882 0.04140056 -0.19202907 0.047393803 -0.08707703 0.00090732716 -0.087905146 -0.29946598 -0.10518993 0.0291891 -0.10743488 0.015061313 -0.037741277 0.0503638 0.07862948 -0.041019257 -0.04064789 0.17343989 0.073655024 -0.7927422 0.056410383 -0.11657521 -0.0026238982 -0.18928818 0.00015037955 0.022480786 0.20344853 -0.079499535 -0.05384887 0.074450575 -0.095141 -0.0182575 -0.0008128422 0.14639674 0.052641843 0.20828815 -0.1233264 -0.00042785157 0.097520925 0.062217485 0.20405917 -0.0060540913 -0.20876284 0.014307126 0.0920571 -0.048401598 -0.025498156 -0.044508714 0.018524416 -0.08044177 -0.022681808 0.004969537 0.061000798 -0.307755 -0.036516294 0.011234804 -0.01347921 -0.019010818 0.088067256 -0.025561146 0.04737365 -0.0524208 0.03931415 -0.18272823 0.039316073 0.02099412 0.0005876799 0.055585828 -0.18355177 -0.05665963 -0.28650296 -0.050897583 -0.06639967 -0.028626136 -0.12730189 -0.018954642 -0.056276485 0.03732647 0.1966877 -0.09867171 -0.025858818 0.069838904 -0.008959701 0.05047369 0.03648444 -0.137391 -0.040332273 -0.25545526 0.051923607 -0.024138264 0.015624864 0.05904895 -0.12834191 0.023769315 -0.087721884 -0.058380716 0.032086983 0.17014208 0.045152724 0.0013211365 0.23274046 -0.0402713 0.014497748 -0.1878271 -0.013012039 0.14633974 0.13078706 -0.036329575 -0.27828184 0.0012214818 -0.010926217 -0.109467395 0.09656917 0.030396929 0.032276485 0.1295948 -0.13211091 -0.09647469 -0.12315458 -0.10920962 -0.0013633504 -0.08619055 0.0037723011 0.17832963 -0.0005622298 0.09725653 0.054096173 -0.06795602 -0.04997711 0.26887798 -0.009593114 0.04322155 -0.06511567 0.07783435 0.1668391 0.03912682 0.03037854 0.060189374 -0.5225018 0.37683553 0.17346154 -0.18510307 -0.03948047 0.08345408 0.0693138 -0.060734175 0.083369076 0.14304984 0.17724052 0.04837314 -0.08873917 0.13980587 -0.022283074 -0.38948748 0.042188123 -0.09241543 -0.30173725 -0.005060997 0.0011800834 0.046577252 -0.06027346 -0.054500304 -0.26905623 -0.08320004 -0.092001036 -0.13574262 0.15766798 0.055551413 0.09465294 -0.0014732562 0.06719449 -0.020405522 -0.02613575 -0.05062596 -0.93462944 0.01542824 -0.014249927 -0.049746487 -0.0044296808 -0.015950944 -0.010267534 0.040022332 0.062805794 0.08181588 -0.15194304 -0.12386505 -0.024117889 -0.03598982 0.01954125 0.051382694 -0.008337843 0.045721263 0.058980208 -0.020414235 -0.0061374954 -0.055719443 -0.17986235 -0.19192748 0.0056613204 0.099578634 -0.115545526 -0.0011751786 0.03665663 -0.025038958 0.05397467 -0.48749527 -0.04666102 -0.039889894 -0.28494933 -0.10393115 -0.017786823 0.030567326 -0.0048545385 0.05380538 0.024392294 -0.06493241 0.044361386 0.062422607 -0.081811726 -0.43985242 0.20703226 -0.04157872 0.15450402 0.078688085 0.15339655 -0.17383239 0.15022334 0.08377928 -0.01763252 -0.06719051 0.065892346 -0.00811713 -0.22531062 -0.058930773 0.108850695 -0.020646898 0.07052071 0.037493005 -0.032645334 -0.17705806 -0.058073472 0.01862093 -0.2118544 -0.031230547 -0.07283862 -0.09385141 -0.07697261 -0.08039125 0.0034491536 -0.050875187 -0.015246964 0.03190024 -0.02292829 -0.16745268 -0.07418461 0.18497747 -0.0701011 0.034036074 0.08727904 -0.15884149 0.2745965 -0.0021500625 -0.0059042606 0.18794128 0.09575903 -0.022889618 0.12603465 0.020226967 -0.069752224 -0.117359325 -0.01374522 -0.016369259 -0.035687756 0.021701107 -0.3682046 -0.16541363 -0.01651369 0.14462332 0.08028609 -0.031935446 -0.38556007 -0.08699616 -0.02254082 0.058560487 0.105253935 0.037910618 -0.0626557 -0.002289723 0.067415774 -0.09937178 -0.00075275847 -0.005082581 -0.14114241 0.03581576 0.14084715 -0.102335975 -0.11915123 0.0061849165 0.067856565 0.13550766 -0.03497778 0.111537546 0.065541774 -0.28913733 -0.21911639 -0.12845919 -0.14547668 0.034239035 0.118596286 0.0360397 0.17012002 -0.043740213 -0.115213074 0.00064453046 0.29022068 0.084877335 -0.24247384 0.05446683 0.0084965 0.0031460726 0.09549784
0.056892008 -0.025430879 0.026653571 -0.06004931 -0.005890246 0.07854856 0.002776947 0.011895264 -0.09531678 0.09646214 -0.05423114 -0.013363286 -0.020559728 0.05694758 0.05874817 0.04216256 0.012346728 -0.039416328 -0.03411964 -0.0027588124 0.003946604 0.036603466 0.02575459 -0.020615319 -0.03341014 0.077095374 -0.013327358 -0.031549536 -0.049368106 -0.015805626 -0.03949526 -0.04951244 -0.0433091 0.029167868 0.008482769 -0.013339577 -0.03419255 0.08133517 0.026194472 -0.054983795 -0.022561263 -0.011125854 -0.031577796 0.056596298 0.011799182 0.001162218 -0.018547552 -0.021225037 0.019275008 -0.019926975 -0.014875835 -0.03306911 0.024861002 0.017645461 0.041290704 -0.014657143 -0.039823268 0.0011662078 -0.0069876583 -0.046669114 0.13346049 0.0026934699 0.05491312 0.007604127 -0.052400716 0.11100896 0.09591006 -0.0022181482 0.040398546 0.006838975 0.06978963 -0.0042934096 -0.0295917 -0.060329456 -0.07999264 0.015762273 -0.053471766 0.018349625 -0.04568535 0.025575684 0.00036754642 -0.06273274 -0.006375224 0.104710974 -0.022914873 -0.025059795 0.055287454 0.011460271 0.017222296 -0.051561154 0.052795984 0.011812368 -0.056743298 0.04708712 -0.016684657 -0.008544689 -0.046968866 0.016293585 0.007108475 0.018766735 -0.010160835 -0.040831327 -0.024772301 -0.00049227854 0.00819668 -0.01759026 -0.08982463 0.04894827 -0.0037693887 0.045942765 -0.0054760524 0.01520148 -0.043532036 0.023813495 0.008556223 -0.105163075 -0.046950176 0.030043779 0.036493227 0.04577998 -0.031211032 0.062164407 0.03226252 -0.017640311 0.052731577 0.005006924 0.0088378005 -0.04563651 0.01656984 0.01992835 0.01304308 -0.03660512 0.033570554 -0.027032623 0.005119311 0.030796831 -0.029780688 -0.060155805 -0.054053787 0.055979922 -0.029489195 0.00030600672 0.044772193 0.0012998766 0.0010281034 -0.040778387 0.03569184 0.051664267 -0.0064851 0.020140888 0.030299354 0.06363526 -0.024468109 -0.0049015284 -0.056819122 0.03458473 0.052729636 0.08267145 0.07662704 -0.013321895 -0.010838933 -0.021301214 0.006723572 0.009746666 -0.012639295 0.05347314 0.03765628 0.0031905335 -0.037847623 0.02626728 0.025299016 -0.07361469 0.0138258105 -0.00843372 0.0072195632 -0.027965313 0.001630506 0.056784026 0.009131513 -0.06614561 0.009557847 -0.030116625 -0.023059495 -0.015753662 0.0364022 -0.03641174 0.03701823 -0.01979225 0.021213725 0.002906538 -0.024172155 -0.010994161 0.0045570666 0.057909437 0.08886393 0.0053704195 0.021784171 0.018119786 -0.058709823 0.04830912 0.032110382 -0.01868908 -0.035646886 -0.06859852 -0.014768133 0.017336762 -0.03536719 0.021128934 -0.010841695 -0.15221553 -0.012376324 0.001659115 -0.05157959 -0.021498151 0.050706644 0.011575493 0.045671374 0.085625134 0.092830874 0.020116951 0.014428717 -0.0013154143 -0.01765833 0.012189301 0.018821388 -0.027146626 -0.040154405 -0.004052983 0.06976896 -0.01695679 0.008839368 0.013925846 -0.041356638 -0.034894813 0.0146408295 -0.03833882 -0.031527866 -0.0074443985 0.047067996 0.027168911 -0.005543451 0.010691746 0.005357685 -0.0643498 -0.024942117 0.068840936 -0.024843464 -0.052108414 0.031241264 0.00013405921 0.01117726 -0.019403605 -0.026391398 -0.06504259 0.030687207 -0.017979266 -0.026755368 -0.030093735 -0.04498894 -0.029273724 0.01345623 0.025323749 -0.066893086 -0.01120082 0.034622483 -0.02381194 0.007948155 0.06925814 0.057170533 -0.06949024 -0.039181616 -0.101370476 -0.02479097 0.022965616 -0.0037819415 0.052947726 0.003813617 -0.0026988506 0.004486716 -0.07591734 0.024196504 -0.026812173 0.054210562 0.0072566927 -0.0068631433 -0.041639943 0.06040332 -0.040867884 0.095165245 0.0015706703 -0.07966882 0.025602272 0.001535409 0.023051139 -0.018465325 0.01417099 0.0075831874 -0.008160436 -0.056688596 -0.015777733 -0.015328607 -0.0002592062 0.081179544 -0.03195342 -0.007965096 -0.026589915 0.027482204 0.069405295 0.004510386 0.016955437 -0.026206234 0.0048151016 0.03422235 0.044025045 0.17696908 0.021829376 0.034537442 -0.036610063 0.07582401 0.018450286 -0.020208823 0.012638824 0.017812284 -0.025742343 -0.02845983 -0.054809947 0.021303136 -0.007206128 0.02503326 -0.0188132 0.012188601 0.062470384 0.004370078 -0.030986305 -0.013285138 -0.032689516 0.0008160683 0.0014897373 -0.03995694 -0.018250156 0.04125605 -0.041476797 -0.019926762 0.025967546 -0.039185498 0.025205642 -0.05619869 -0.011433294 -0.012112474 0.06672211 -0.024793701 -0.029865524 0.019395625 0.013389125 -0.027717277 0.06816566 0.015209311 0.016527696 0.007179939 -0.0009900965 0.030670175 0.06415285 0.016508218 -0.02605207 -0.041141093 -0.023189204 -0.018033346 0.010415967 0.0018793925 -0.02578627 -0.01760643 -0.037502512 -0.06175823 -0.0058711404 0.047259457 0.020319441 0.08848757 0.075038016 0.028722806 -0.078563794 -0.027215075 0.04972635 0.013582494 -0.07573847 0.036558893 -0.014987651 -0.0527069 0.013034684 -0.0024744764 0.00317597 -0.009015627 0.030655883 -0.02040161 0.009691657 0.026389757 0.01532107 0.026741974 -0.033270124 -0.021276567 -0.064123936 0.017493581 -0.019165648 0.028295256 0.03719615 -0.01620717 0.032813713 -0.0022885022 -0.1224037 0.024893032 -0.027796006 -0.020337174 0.05509742 -0.061055534 0.08455566 0.035758886 -0.020118993 -0.026064323 0.0015059013 0.04294264 0.025504684 0.007662804 0.02803068 -0.029637156 -0.02612257 -0.126156 0.069797285 -0.003467092 0.00024755247 0.051213678 -0.0023804568 0.023673574 0.00817911 -0.032646935 0.00045910987 -0.07737719 0.028723475 -0.008048152 0.041783813 0.016941717 0.02996772 0.0114724245 -0.025569152 0.010974162 -0.016117861 0.03679652 -0.025491433 0.032837197 0.024393925 0.0340119 -0.008391027 -0.06153073 -0.01058178 6.440473e-07 0.010880972 0.00021560182 -0.03347472 -0.024129381 0.036066145 -0.03762638 0.012827502 0.04748068 0.06542421 0.00018216384 0.018673336 -0.021819972 0.021106211 -0.0049355743 -0.05403867 -0.026623663 0.009756626 0.14131957 -0.03162091 -0.027051352 -0.03168237 0.025607286 0.029538656 0.006374624 0.07379605 -0.007653046 0.0085059935 -0.039536733 -0.026486715 0.021154286 0.037005164 0.055272903 -0.0034895653 -0.017111477 0.023286382 0.034827493 0.056247987 0.026944362 -0.026726585 -0.002525591 0.013363638 0.037792817 -0.008079329 -0.023954323 -0.025443936 0.03400458 0.018853737 -0.05173138 0.04536302 0.057236183 -0.023850024 0.019990165 0.051149353 -0.021690158 -0.030018033 0.024044666 -0.006737875 0.042958137 -0.00023428813
0.032297675 0.05763655 0.006117689 0.065483615 0.038035925 -0.06827324 0.0016593251 -0.11215297 0.021135796 -0.02911596 -0.06550776 -0.04193084 0.03007132 0.042738613 -0.037333764 0.007921736 -0.08351021 -0.10762712 0.008021926 -0.06575944 -0.18224142 0.053620003 0.03718429 0.020272966 -0.023361932 0.024945823 -0.085039474 -0.003776637 0.059003852 -0.039264236 -0.016247941 -0.058558006 -0.039017733 0.063565485 0.039024886 -0.020295937 -0.068241574 -0.0060489764 -0.014620742 -0.24232526 0.055282533 -0.005975187 0.07617215 -0.044021748 -0.009106693 0.04323269 0.045624062 -0.06360049 -0.043159146 -0.03942352 0.1280719 -0.010727696 -0.05066919 -0.014928067 -0.036884952 -0.04320293 -0.07142266 0.06292623 -0.012296418 -0.06799937 -0.13446485 0.08957432 -0.00034780282 -0.012169299 -0.077180676 0.028949535 0.06694928 0.028563686 -0.24814744 0.10713244 0.02631949 -0.053382613 0.056364536 -0.054505073 -0.06516147 -0.31613827 -0.04786407 -0.0057098405 0.028301783 0.015576387 -0.04334065 -0.00783204 0.022200126 0.023693345 -0.09231114 -0.029725833 -0.039429583 -0.13120578 -0.05862305 0.047474954 0.0326545 -0.07541108 0.023838647 -0.07396416 0.075334154 -0.022197444 0.037803154 -0.06688347 0.01810305 -0.13553548 -0.056124642 0.02703668 0.079537556 -0.019418996 0.0637398 -0.011167823 -0.011103276 -0.035354335 0.085964225 -0.02664877 0.0732336 -0.056796692 -0.06567902 0.091259554 0.047562078 -0.012823679 -0.075312756 0.06166997 0.01411873 0.024399066 -0.033819072 0.07016688 -0.014023231 0.1069662 0.02871639 0.051496726 -0.039500788 0.022165876 -0.011838714 -0.0075126262 -0.0011223886 0.06518338 -0.01310419 -0.03905633 -0.08239431 0.03322258 0.014591007 0.04717963 0.007550273 0.04638045 -0.21261556 -0.0007969488 -0.020359403 -0.023049682 0.042919192 -0.07935933 -0.030396914 -0.055484798 0.043075237 -0.043351755 0.041995272 -0.009776873 -0.09967217 -0.11505353 -0.03161336 -0.12444529 -0.023750864 0.05874705 0.03078836 -0.06425617 0.095586665 0.035300884 -0.024591392 -0.04761182 0.13923837 0.1135188 0.027758708 -0.09200292 -0.031153224 -0.08998582 0.021457484 -0.13069816 0.0047847 0.027672045 -0.026081456 -0.04803464 0.04394139 -0.006982336 0.121416464 -0.035645656 -0.023657488 -0.020025061 0.013042582 0.014357553 0.02588485 -0.033550307 -0.21598405 -0.0019495424 0.04923683 0.04780876 0.011514042 0.03966363 0.035334487 -0.064316824 -0.022528961 0.038841482 -0.023855345 -0.114621945 0.025313495 -0.011173019 -0.00410313 0.002757057 -0.06332237 0.016986199 -0.0002037425 -0.02949489 0.071769394 -0.025710579 -0.037922982 0.003589484 -0.009532396 -0.120495826 -0.03828918 -0.0077032517 -0.016065689 0.007964304 -0.01517852 -0.015415912 0.06019747 -0.017405894 -0.061628804 -0.15080605 0.04997356 -0.07251643 0.005650809 0.10786498 -0.074150555 0.04758576 -0.10911678 0.12773752 0.041961953 -0.039269846 0.03930203 -0.05263527 0.042614028 -0.06162208 -0.022707036 -0.07019599 -0.0746836 -0.014760026 -0.055486098 -0.025231985 -0.06842332 -0.13463257 -0.24697544 0.07535151 0.012871968 0.028622577 0.076253764 -0.12438235 -0.07543021 -0.16451436 0.05570362 0.102999486 0.011855512 -0.092321396 -0.0048480155 -0.0335808 -0.094689906 -0.090375364 0.09313761 0.05231853 -0.11794252 0.006819899 -0.13665764 0.0272565 -0.0063061984 0.007698032 -0.05261975 0.0778776 -0.0018049519 0.0029062107 0.0109472135 0.10732179 -0.0934498 -0.010687056 -0.030574327 -0.040421616 0.009736882 -0.1122815 -0.006269663 0.035510167 -0.004844629 0.034975044 -0.012594636 -0.0096891485 0.04435721 -0.0051098987 0.09693099 0.027442647 0.0084108645 -0.023049993 -0.024134688 -0.022554982 -0.068372406 -0.026978115 -0.08449649 -0.012543604 -0.072869554 0.089969434 -0.087370194 -0.01336976 -0.017779114 0.095516995 0.058136508 -0.142005 0.017833997 -0.011329544 0.098798335 0.062133987 0.035613056 -0.0072150053 -0.08321492 0.011710404 -0.006149779 0.04103423 0.036195144 0.009670254 -0.011833596 -0.009255946 0.002174262 0.11533496 -0.019498749 -0.054877274 0.021433808 -0.043318477 0.04709236 -0.15604088 0.0292826 -0.003853604 -0.044713434 0.09649426 -0.046173267 -0.14435266 0.09928518 -0.18890998 -0.0852632 -0.024657723 0.05605999 -0.25138897 0.014270121 -0.015299655 0.0010855383 0.09342393 -0.03995806 0.0249247 0.048279926 0.03569253 -0.08885737 -0.003532573 -0.0208549 0.018075539 0.013747965 -0.07654953 0.032687105 -0.10577895 -0.0054149134 -0.03528073 -0.03677356 0.0016659257 -0.022467965 0.12957591 0.072012015 0.073029995 -0.09279966 0.039793517 0.0374086 -0.14049213 0.0032652211 -0.017411472 0.019853393 -0.080018945 -0.0013267122 -0.107954055 -0.14384104 -0.094476774 0.016925 -0.0930527 -0.051560547 -0.05203834 0.09506954 -0.13587762 0.025619643 -0.060594488 -0.07283007 0.051135365 0.022056837 -0.014289002 0.0018474861 0.0896409 -0.1405546 -0.0027235288 0.010838626 0.008482817 0.059275836 -0.085063085 0.038403016 0.035669506 -0.07465462 0.06801153 -0.21559966 -0.16280076 -0.12373808 -0.18070447 -0.022263383 0.091198966 -0.10813341 -0.15483944 0.05033478 -0.009668233 -0.05559211 0.056419034 0.00034931584 -0.021877125 0.0278979 0.15142162 -0.009332929 -0.058112755 0.026670052 -0.029374233 -0.07285138 -0.1136322 -0.0090422025 -0.019541778 -0.09661476 0.07127195 -0.10598962 -0.001509313 -0.06921342 -0.059857704 -0.018106787 0.063708834 -0.018315632 -0.035055622 -0.114022315 -0.02444642 -0.058669765 -0.05480673 0.060109537 -0.086606465 -0.045646768 -0.048553552 -0.12971723 -0.08531539 0.059754666 0.08223961 -0.12604998 0.01920899 0.025452921 0.023388753 -0.06741772 -0.11222111 0.036750086 -0.040889896 -0.024614304 -0.0030183347 0.03918082 0.028506676 -0.19220239 -0.017260963 0.013186586 0.02917105 0.013071557 -0.02967129 -0.03425695 -0.012911997 -0.014829339 0.072849445 -0.08723817 0.014471138 0.06763729 -0.049017303 -0.014431411 -0.396565 0.0021146943 -0.022870958 0.03596891 -0.080941506 -0.16604672 -0.14899649 0.068475485 0.01776177 -0.020628586 -0.030959733 -0.0040799575 0.02150521 -0.029785346 -0.032477066 -0.023699094 0.04733068 -0.21708442 0.12395449 -0.094952226 -0.03859609 -0.22648905 0.03742113 -0.06989651 0.055038888 0.1008505 -0.066756435 -0.13137841 0.01610653 -0.040025756 0.078265086 0.003541543 -0.02625775 0.040948726 0.0071022436 -0.11344741 -0.19245377 0.033408068 -0.09330427
-0.061821964 0.007898497 -0.030712625 0.07835996 -0.0079969615 0.0002581827 0.06437341 -0.03438707 -0.1046683 -0.07428127 0.06267304 0.016306117 -0.012868205 -0.073702686 0.014106187 0.0612796 -0.07857476 -0.05288987 0.015234316 -0.016838746 -0.0846675 -0.1130707 -0.031603962 0.06220601 -0.063836046 0.05531205 -0.048021525 -0.06356871 -0.33008227 -0.022292772 -0.036775168 -0.0013906896 -0.078368336 -0.20235933 0.07193255 0.019377112 -0.17174833 0.008479362 -0.015455316 -0.086436935 0.03634828 -0.091391645 -0.059089765 -0.13924555 -0.020882832 -0.20670213 0.035768326 0.07415522 -0.037819896 0.049370416 -0.05746656 0.0023104919 -0.047698677 -0.04550986 0.07980909 -0.10022866 -0.085294515 -0.009273043 -0.04095653 0.06399001 -0.18626978 0.04450979 0.009063398 -0.09592962 0.0065611666 -0.1052913 -0.02884447 -0.04306339 -0.20801985 0.01444131 -0.07824554 -0.08583236 0.026767181 -0.009755472 -0.001103853 -0.14190431 -0.13643861 -0.043093856 0.038819652 0.04883086 -0.0033549282 -0.11793257 0.059424393 -0.031015188 -0.097451665 0.043520518 -0.030211477 -0.084630944 -0.023493567 0.0115537355 0.026910258 -0.018385198 0.08948284 0.059021067 0.01667011 0.07126158 0.052818965 -0.0016597654 0.033331256 -0.1976606 -0.043425106 0.029099079 0.055484083 0.0075846002 -0.02550546 -0.0035983922 -0.07343528 -0.0011752498 0.091811776 0.028867407 -0.091699034 0.009807385 -0.034178242 0.096858524 -0.12740149 -0.089689754 -0.09804007 0.07137815 0.039634455 0.08276057 -0.020489844 0.005898793 -0.006102549 0.031237692 -0.060025867 -0.03970384 -0.082819745 0.07397253 0.00080832734 0.056435212 -0.04441396 0.025313508 0.008986611 0.027603887 0.06502629 0.01240143 0.024007088 -0.25400347 -0.018898498 0.08751936 -0.163514 -0.017855223 -0.02300576 0.032355636 0.018053116 -0.141808 -0.12591775 -0.20034856 0.030794235 -0.039077114 0.0075849495 0.027978923 -0.069990054 -0.060171034 -0.030910626 -0.14658958 -0.007192946 -0.0417425 0.017353445 0.045616996 -0.07168138 0.0018917331 0.0022841936 -0.03621667 0.054822005 -0.10261407 -0.03419432 -0.17422856 -0.050368812 -0.095280476 -0.024452431 -0.135857 -0.055417154 -0.043442167 0.029328158 -0.052789126 -0.110178486 -0.065761894 0.012366336 -0.12331662 -0.041881878 0.0034791904 0.027032197 -0.07074907 0.013103058 -0.11148037 -0.10222339 -0.00867136 0.102862954 0.051489998 -0.02241676 0.0035354875 -0.045660004 0.029962268 0.08869609 -0.06145935 -0.19390255 -0.09654988 -0.008546443 -0.041194387 0.055272255 0.014389126 -0.04808716 0.11264231 0.059789054 -0.026989283 -0.07489503 0.07411104 -0.0031618509 -0.22992271 0.010589692 -0.0636289 0.031584825 0.013301999 0.02890364 0.11843127 -0.015507616 0.028510123 -0.0036795991 0.0387717 -0.009501465 -0.10658062 0.07419795 -0.0030227734 0.04814666 0.07991464 -0.089394495 0.04840645 -0.018330172 -0.0020919377 -0.011199152 -0.07325828 0.018365912 -0.0700092 -0.026423043 -0.12180454 0.03599379 -0.04042299 0.011793668 -0.043495458 0.0031133953 0.041361023 -0.037657537 -0.13661969 -0.18990943 0.07035177 -0.008462905 -0.040730394 0.06862291 -0.16174144 3.877695e-05 -0.07186778 -0.014645221 -0.056488376 -0.00092008366 -0.048923876 -0.03227395 0.0045975773 0.01656554 -0.02897409 0.10797854 0.029936308 -0.1646859 -0.0012861405 -0.05421615 0.04463514 -0.0055598603 -0.013670927 -0.05562554 0.07189241 -0.07630707 -0.06923241 -0.032868616 0.018619128 -0.032145496 -0.08921823 0.081514224 0.06580976 0.07930815 0.035376962 -0.016487481 0.049405463 0.090376765 0.042069186 -0.043200195 -0.089359954 -0.23059683 0.007819432 -0.112064384 0.006716788 -0.008060867 -0.20022185 0.013512312 0.07282837 0.019084401 -0.023993835 -0.09224745 0.013983834 0.021033231 0.090617694 -0.029550657 -0.1619407 -0.030391816 -0.049857285 0.09731992 -0.032235734 -0.08242712 0.055281904 0.063967615 0.06776382 0.09863464 0.03889657 -0.044162355 -0.012366997 -0.04763577 0.062665865 0.09519344 -0.022063872 0.025971029 -0.083844624 -0.03805088 0.088881485 -0.0043073674 0.014188992 -0.05780773 0.0320868 -0.19774263 0.070347086 0.0040734247 0.03495201 -0.0277724 0.07917777 0.056799006 -0.26972938 0.029633101 -0.09397605 -0.018075487 0.019180989 -0.018225227 -0.15616773 -0.10783591 0.04367023 0.041683257 -0.018907305 -0.010216166 -0.041081555 0.021884248 0.04239029 -0.071187265 0.062486988 -0.049451444 -0.062073145 -0.016823037 -0.10905281 0.013024034 -0.09299681 -0.0071800654 -0.0062159607 -0.1285044 -0.052237704 -0.03256294 0.066642836 -0.16802183 0.06846859 -0.037711404 0.026048642 0.026116261 -0.035843488 0.045943737 0.016444145 -0.0937189 -0.074769646 -0.0927236 -0.17851388 -0.053842403 0.062119007 -0.04144281 -0.32692254 -0.12489573 -0.08011453 0.10305098 -0.23123017 -0.013922511 -0.081404515 0.045376614 0.020568077 -0.032331258 0.03594509 0.0006872045 0.03873589 -0.031655595 0.00143349 0.009631231 0.054000292 -0.0005372649 -0.032557353 0.034500647 -0.09748325 0.00626645 -0.012436896 -0.11466208 0.00064855564 -0.012090201 -0.045583304 -0.025942234 -0.12054142 -0.24403264 -0.13720994 0.037617244 -0.033004224 0.07035333 -0.02324039 -0.010999405 -0.115574166 0.041275177 0.08146241 -0.025621394 -0.05777117 -0.15559317 -0.037330534 -0.0897456 -0.11235845 -0.05959502 0.050963305 -0.19561316 0.041356713 0.0075073726 0.05763225 -0.15234897 0.0143436715 0.032603342 0.009290636 -0.042676874 0.038084462 -0.15200257 -0.02643075 -0.0969581 -0.043040138 0.11244158 -0.10830042 -0.029027348 -0.040594667 -0.03148959 -0.06687087 -0.0044688378 0.06664625 -0.08583425 -0.0026521033 -0.1322 -0.036249332 0.055699937 -0.06327763 -0.07964231 -0.18356241 0.007830196 0.07295681 -0.1193788 0.09503739 0.0045668907 0.018482419 -0.05959324 0.006243212 0.018636005 0.0041191326 -0.007723486 0.010294797 0.0021872853 -0.031145284 -0.102753736 0.020292394 0.04217563 0.019034022 -0.01884076 -0.073938034 -0.002813401 0.06980359 0.03779483 0.01521626 0.0033321588 -0.33169675 -0.13514543 -0.017991241 0.004698023 0.1178328 -0.0536913 -0.0024368826 -0.11545131 -0.026191687 -0.03479854 -0.0033643648 -0.008942617 0.014107224 0.054064456 0.014563948 -0.17238428 0.04248009 -0.074895136 0.039471835 -0.16972636 -0.051146604 -0.12940343 -0.057209756 0.017761212 -0.015278871 -0.092792384 0.017084973 -0.09421236 -0.02575148 -0.13870944 -0.23017484 0.008762183 -0.1064607
