0.013328821 -0.014007452 -0.05237853 0.048014678 0.0017095165 0.05664382 -0.15246731 -0.023894146 0.042773597 -0.0451472 -0.16437839 0.024399403 0.09411102 -0.079844385 0.03171649 -0.06582407 -0.082896 -0.074525736 0.052261468 0.12495339 0.047685094 -0.007710236 -0.035128105 0.017115042 -0.107477635 -0.060792495 0.054720193 0.050664995 0.013798627 -0.19935384 -0.005255858 -0.09836067 0.023343058 0.046402093 0.11253531 0.05874404 -0.2078323 -0.22800893 -0.13924514 -0.13728014 -0.059802372 0.03572992 -0.030350836 -0.21833915 -0.112100475 0.06925222 0.12190777 0.07482107 0.011067194 -0.14595805 -0.051296644 0.0016216508 -0.002287758 0.069130175 -0.041299257 -0.1197338 0.11125164 -0.08758266 0.035941765 -0.021921339 -0.0518809 -0.09491948 0.06115095 -0.09213679 0.063047685 0.11173709 -0.049081422 0.0486567 -0.03680391 -0.0037857753 -0.09649728 -0.041613914 -0.06520554 0.040714484 -0.1008101 0.045411997 -0.13332829 -0.050807472 -0.008396037 0.010209249 -0.064927205 -0.036376435 0.012220071 0.050469767 0.035125233 0.14813998 -0.045674104 0.039130963 0.011306435 0.0692855 0.031451616 0.010043704 0.009812271 -0.12823275 -0.12374914 -0.07605617 -0.006216499 0.05241409 -0.092518814 -0.08775365 -0.11039627 -0.03656718 0.08603245 0.043095484 0.16866444 0.0025210911 -0.22084035 -0.28410503 -0.02167586 -0.07451376 -0.040542915 -0.090624996 0.029517485 0.02081949 0.009246066 0.014359774 0.0010261289 0.074990995 0.03901111 -0.205473 0.05044077 0.03141881 0.060158823 -0.088888876 -0.032723017 -0.061936453 -0.0727431 0.01775385 -0.0070859077 -0.006584346 -0.0223702 0.07074525 -0.036096588 -0.039810315 -0.10590899 0.21123071 -0.21629149 -0.022791686 0.018694341 -0.16219819 -0.05441674 -0.035806444 0.12160683 0.015921861 -0.014698649 0.023543203 -0.016630186 -0.06159902 0.08363686 -0.08722431 -0.018032204 -0.03948671 -0.09098903 -0.02210231 -0.045383193 -0.08268987 -0.09590672 0.067442864 0.00021764603 0.0046531903 -0.019346543 -0.044321485 -0.043638367 0.05376039 -0.12126884 -0.07868223 0.041389387 0.0046820617 -0.03126651 0.016681455 -0.12544642 -0.056456186 -0.15388072 0.0091408705 0.039482784 -0.044307627 -0.02215214 0.14898048 -0.048517067 0.11518338 -0.01080917 -0.18129975 -0.026245365 0.31589267 -0.023468738 0.11626159 -0.26497388 -0.21334754 -0.06896022 -0.098815635 -0.005850162 0.09827964 0.13639635 -0.17763418 0.13863073 0.18896441 -0.0067115044 -0.17894873 0.09863696 0.026911367 -0.0070509515 -0.119966835 0.12508185 -0.023552805 -0.12109643 -0.00808893 0.016705913 0.045463797 -0.018606044 -0.082098186 -0.11049909 0.094785996 0.010252994 -0.04014161 -0.13592404 -0.10200939 0.05342364 -0.042538323 -0.058174245 0.0686354 0.046821963 0.09540951 0.105382174 -0.05051281 0.02029211 -0.0127303945 -0.19150823 -0.14318922 -0.13518341 0.0013383152 -0.1679813 -0.08040534 0.007938604 -0.052464817 0.023391116 0.31492206 0.023374211 -0.13240832 -0.060224205 -0.0056557395 -0.04487808 0.023771022 -0.010754234 -0.02019524 0.08301418 0.08632964 -0.14519994 -0.045619935 -0.06254511 0.012649659 0.08378209 -0.099079534 -0.075524755 -0.084419064 -0.09401453 0.029309293 0.027095644 -0.36752465 0.09210471 -0.15081796 -0.07342142 0.022779008 -0.072239056 0.061320215 -0.2023207 -0.097221136 -0.055115804 -0.09293321 -0.22578579 0.028843196 -0.14974391 -0.031244023 0.078919195 -0.11722866 -0.04451906 -0.16306488 0.015376094 -0.08152022 -0.07112598 0.038319986 -0.027137768 0.04396282 -0.116165586 -0.007590534 8.823815e-05 -0.015322157 -0.04337798 -0.08129393 -0.11293112 0.12566976 -0.12140663 0.085085034 -0.029158736 -0.04658983 0.03428387 -0.115928486 0.09123766 0.012050897 -0.06306745 0.09540533 0.057718568 0.08190344 -0.07919916 0.0065578423 -0.009068676 0.077116095 0.03319281 0.0069720987 0.061647672 0.00807308 -0.030331068 -0.08068896 0.021084324 -0.1612463 0.052457586 -0.18183565 -0.09802426 0.09108561 -0.13828425 -0.11040664 -0.0761711 -0.065654434 -0.10910409 0.10741574 0.026999947 0.062035337 -0.11341235 0.047969144 -0.022482691 -0.06991261 -0.09114938 -0.106482305 -0.08138167 -0.07791392 0.01976042 0.08490094 -0.052474916 -0.11552701 0.18531348 -0.08538302 -0.050364677 -0.063446015 -0.1372807 -0.041565906 -0.11553411 0.046025798 -0.09687705 -0.2224959 0.09337449 -0.0028322085 -0.012851569 -0.037042115 0.041723173 0.12349854 -0.011005183 -0.14368208 0.02760289 -0.03578521 -0.05666439 0.009996409 0.095868625 -0.089370504 0.06582567 0.0630884 -0.07705507 -0.116729915 0.0678318 0.0331138 -0.14870213 0.011937562 0.11803403 -0.17101133 -0.05193079 -0.030499427 -0.09570461 0.020717818 0.037837196 0.14676064 -0.038412966 0.023204451 0.14016011 0.0050783493 -0.19430546 -0.03896463 -0.06777634 0.026566967 -0.1823983 -0.035694074 -0.06795326 0.040277656 -0.0060047708 0.022842264 -0.047879815 0.008748603 -0.13818592 0.076913625 0.11563082 0.042432036 0.01317488 -0.07751771 0.052573897 0.011990205 -0.08248867 0.038197156 -0.035754774 -0.025053674 -0.1242792 -0.14047346 0.08842715 0.04423938 -0.006858702 0.010184398 0.013133415 -0.04669989 0.018656941 -0.042949308 -0.07144778 0.0373045 -0.06373029 -0.047856417 -0.13807125 -0.02984092 0.033371147 -0.056453366 -0.012904708 -0.05154146 -0.019837875 -0.104120955 -0.0059047337 -0.003999592 0.26717696 -0.09640567 -0.16052912 0.039205775 0.04705448 0.027819574 0.00809749 -0.009494397 -0.101465106 0.0005274066 0.014787018 -0.048572537 -0.071216755 0.011428491 -0.042319577 -0.09867245 0.103661135 0.01667766 -0.13465545 0.0029658158 0.05596281 -0.010397196 0.017172365 0.08313147 0.060053017 -0.09385904 0.0061407806 0.0033129551 0.009639558 0.03583441 -0.0359797 -0.13052766 -0.007498414 -0.09884661 0.025702458 0.000802788 -0.021841519 -0.21920715 -0.09736914 -0.042882387 0.09326087 0.0030404995 -0.027183121 -0.043036066 -0.033101857 -0.06318906 0.03875723 -0.13198496 -0.25282282 -0.07902024 0.050233178 -0.058005836 -0.05544139 -0.16461864 -0.014165346 0.009715079 -0.0184034 0.01913749 -0.10069547 -0.09207424 0.039356846 -0.17122881 -0.10165073 -0.05538457 0.149874 0.060154866 -0.13400069 0.100883625 0.032240707 -0.01979467 0.0047115632 0.086542696 -0.07338034 0.021948738 0.06310769 0.0021995385 0.20053762 0.07146776 -0.01937355 0.07317147 0.0529387 -0.095764644
0.061770618 0.09121527 0.08337859 3.883923e-05 0.04012324 0.028285643 -0.016273893 0.0058069634 0.05355073 -0.015665814 -0.017737316 -0.15201505 -0.048485722 -0.13522013 0.033640612 0.00026737512 0.029823454 -0.10426772 -0.013172744 -0.07465071 0.07275385 -0.079208404 -0.00064591126 -0.00852676 -0.040505175 0.03287255 0.03318276 0.04263477 -0.025597239 0.06949648 -0.11184264 0.017377455 -0.106218934 0.030328264 0.009002933 -0.011099739 -0.013683587 0.018479807 0.00041112612 -0.14805268 0.05792679 -0.057846483 -0.117737226 0.095758654 0.03944027 0.0864029 -0.06805918 -0.08171859 0.14240915 -0.042061295 -0.2593226 0.06458248 0.008957262 -0.10256647 -0.00014409772 -0.20471406 -0.15329863 0.009690294 -0.01602112 0.06876887 -0.049147833 0.020769922 0.088059284 -0.00043752603 -0.01861242 -0.0019649134 -0.01596104 0.118517004 0.051055048 -0.0064384276 -0.014011477 0.07417655 -0.014003553 -0.055658434 0.009560238 0.074176304 -0.19459258 0.02054144 0.017581118 -0.0016269416 -0.009312067 0.055030283 -0.0495832 -0.019079944 -0.10939581 -0.082466476 -0.02757145 0.043216746 -0.091548935 0.07411624 0.011800171 -0.006039806 -0.09510304 -0.027553227 -0.023559462 -0.01604721 0.028800644 0.08570744 -0.028649917 -0.09255594 -0.0062085157 -0.036979374 -0.014876916 -0.03202952 -0.23153947 -0.06316004 -0.060104705 -0.06147875 0.05040837 -0.12756528 0.11538984 -0.026239246 -0.041940283 -0.12642525 0.09925629 0.038724873 -0.047822468 -0.03558847 0.007737115 0.05714618 0.07935053 -0.0005975606 0.07884411 -0.11485287 0.008177294 -0.03770927 -0.08389845 0.022261228 0.16612668 -0.05668504 -0.0740036 0.035266954 -0.036926433 0.08900999 -0.02904225 0.02279796 -0.004164607 0.067190774 0.020630155 0.0047871913 0.007529081 -0.0053546224 -0.0637378 0.09060138 -0.12937547 0.03446088 -0.06234759 -0.0013458651 -0.13195704 -0.001486871 -0.03075843 -0.21126772 -0.15562382 -0.0028779826 -0.047218807 -0.06244793 -0.095577136 0.027511813 -0.06077577 0.012119778 -0.0042568473 0.06816281 -0.06590214 0.089327194 -0.0026147151 -0.10824729 -0.13642591 0.0006246 -0.19880524 0.07227408 0.016198605 0.008345194 0.025615111 -0.037636023 0.04135418 0.035899065 -0.08107299 0.026033614 0.03962576 -0.03966315 0.049919948 -0.00015562204 0.034334175 0.052113697 -0.013374178 -0.0150293205 -0.05067882 0.013598801 -0.24928795 -0.08149258 0.0024238091 0.074366935 -0.04761762 -0.038879592 -0.0515646 -0.0010257033 -0.009144266 -0.15681839 0.014136494 0.023394452 0.058421608 -0.087930985 0.04130443 0.13069323 0.063986056 0.020749452 -0.039915863 0.0442745 0.06441235 0.010514777 -0.07492036 -0.071407825 0.030955717 -0.021373777 0.00027772578 -0.1426981 0.039723013 0.018566936 0.03722294 -0.047756847 -0.05001547 -0.048470423 0.10108151 -0.005786309 0.12193667 -0.19398478 -0.03820589 -0.014003628 -0.011374034 -0.0033550968 -0.044394225 -0.1357761 -0.06909654 -0.027943697 0.0331926 0.013131907 -0.08035032 -0.028497573 -0.07675241 0.036630813 -0.0477052 -0.027160078 -0.13176319 0.038339324 0.12947515 -0.031546596 0.060491942 -0.12860574 -0.0075121038 0.052801505 -0.06407755 0.017765302 0.03271639 0.034896366 0.023355914 0.09266233 0.095727436 -0.29431185 -0.15740094 -0.017387629 -0.06658264 0.055595428 -0.16608687 0.0704906 0.06384262 0.013910002 -0.05287561 0.016597051 -0.023680437 0.08856111 0.054360226 -0.105634466 -0.057086434 -0.078038104 0.06694137 -0.040378984 0.045946658 -0.053408336 -0.036011968 -0.018344145 0.06440452 -0.042857617 -0.09352052 -0.047943026 0.110325575 -0.028803546 -0.013833468 -0.0226779 -0.029995693 -0.08309286 -0.18932146 -0.0039057443 -0.0024904727 0.10761982 -0.02128587 -0.051729906 0.039166562 -0.02057994 -0.018209727 0.03433791 -0.34339628 -0.06572744 0.059262086 -0.05587501 0.017980844 0.004577894 -0.10670321 0.017912367 -0.0013510145 -0.036544785 0.108936764 -0.05421626 0.04153717 -0.042073272 0.011517369 -0.042004824 0.071165085 -0.2390477 -0.01871616 -0.10323059 0.09485346 -0.033601735 -0.0603202 -0.12444636 -0.041285574 -0.105541885 0.0034199455 0.04268071 -0.041379217 -0.049865805 -0.02108998 -0.21380445 0.08831512 -0.022779636 -0.042890873 -0.070310265 -0.021555908 -0.03129472 0.037275206 -0.08622523 -0.14040983 0.116931535 -0.22684641 0.06796111 0.06077332 -0.086877055 -0.029474663 -0.16410151 -0.11836904 -0.07746349 0.038614806 -0.022907633 -0.004358174 0.09102656 -0.22759892 -0.03602734 -0.016547935 -0.10947078 0.020671261 0.04418196 0.096089795 0.06806864 -0.07462055 0.083226494 -0.057498906 -0.11745858 -0.06054756 0.0957793 -0.09574892 -0.05544229 -0.0485026 0.0093348725 0.015620193 0.04078998 -0.20793188 0.03197917 0.045230135 -0.0249404 0.006373331 -0.11364581 -0.018780123 0.029908784 -0.06417281 -0.0022187142 -0.044311054 0.04143861 0.012941132 -0.038382716 -0.020711532 -0.014089446 0.011856914 0.006824342 -0.002044171 -0.083671615 0.0028540494 0.018241776 0.015411313 0.0720482 -0.043377623 -0.129416 -0.018391404 -0.028632797 0.024185598 -0.017676279 0.024380056 -0.0044491948 0.022661757 0.026397604 0.10916677 0.09349221 -0.029686866 0.026407795 -0.021527158 -0.044915784 0.0118293995 0.017514454 0.0068821623 -0.069718786 -0.07012301 -0.038687117 0.0046302304 -0.021300046 -0.14607054 -0.08696237 0.053381186 0.051565286 0.032819115 0.14476444 -0.07514461 0.05352615 0.029714502 -0.014599183 -0.035419516 0.05086223 0.037696145 0.06955 0.0584742 0.016697489 0.029978806 -0.0359903 0.014372054 -0.02009221 0.021718757 -0.064744085 0.07290139 -0.08376136 -0.061974548 0.0022651486 -0.122487076 -0.10869518 -0.07798323 0.051581684 0.11975436 0.098661035 0.010526488 0.00023095106 -0.05166351 -0.017955624 0.018605202 -0.0011227578 -0.10940817 0.024651581 0.061176922 -0.032893665 0.042263996 -0.00034457204 -0.013159193 -0.012403114 -0.024881514 -0.05356765 0.0718763 -0.07908356 0.007427307 0.053049173 0.003104694 -0.16290504 0.004590052 0.003117099 -0.07766431 -0.0023536484 0.0389821 -0.3194771 -0.16889451 0.034783322 0.07758388 0.018334117 0.06447939 -0.085271135 0.01159507 -0.049611792 0.0041491874 0.02686079 -0.013362284 0.03593303 -0.06577925 -0.039349403 -0.049961343 -0.061544996 -0.08554858 0.044521987 0.05028307 -0.08463285 -0.16132051 0.03171294 -0.11150784 0.017962722 -0.0642245 0.07980736 0.034295823 0.025182031 -0.053185534 -0.15877523
-0.039581683 -0.03282441 0.015360983 -0.13571669 -0.061926797 -0.10034686 0.045399427 0.08389586 -0.056041107 -0.04718438 0.03826325 0.057054456 0.00048814714 -0.07629942 0.052223895 0.059223443 0.053446636 -0.036362436 -0.03908078 -0.020075155 -0.09178239 0.07114925 0.04384946 -0.07709979 -0.026044955 0.011773902 -0.08707186 0.058751777 0.06018489 -0.111941986 0.02774347 -0.057827488 0.018971663 -0.0593816 -0.034097936 0.0060334555 -0.13996807 -0.07634353 0.049987886 -0.0036370088 -0.0586548 -0.01564424 0.049641803 0.10078385 -0.004686575 0.08802364 -0.07721176 0.09176864 -0.03413241 -0.048057895 0.033239987 -0.02856448 -0.05100621 0.08247286 0.03794247 -0.0107394485 0.053448275 0.008962182 0.0032657622 -0.055624586 0.028057016 -0.097644165 -0.022542631 -0.17605379 -0.05948012 0.038712364 -0.1299818 0.03985377 -0.08235216 -0.06562128 0.013457021 0.049967103 -0.10647749 0.030973213 -0.102450594 -0.090303 0.027884068 0.07413436 -0.02580171 0.0460789 -0.06415936 -0.05122162 -0.05227698 -0.08853984 0.06284778 -0.051891513 -0.09678336 0.04930682 -0.113255836 -0.007506073 -0.021427082 0.14658612 -0.008175013 -0.012715427 0.012785342 0.045291174 -0.09357948 0.013708914 -0.0054766247 -0.048743542 0.0058383765 0.033763614 -0.0015776467 0.12996666 -0.05659106 0.011253735 -0.008477178 0.009123471 0.024255242 -0.05617071 -0.07799521 -0.0014703326 0.037753448 -0.052742846 -0.038776953 -0.06662792 -0.040040247 0.115139164 0.046471335 0.030366845 -0.042399473 -0.026880361 0.012774464 -0.020204095 0.006418538 -0.067516714 -0.10497438 -0.014380266 -0.061803326 0.03560874 -0.056668315 -0.031940635 -0.030210273 0.012470015 0.03590093 -0.059906594 -0.00038248935 -0.010373459 0.052916262 -0.061946437 -0.0020397697 0.017543606 -0.07312665 -0.114958555 0.042890247 -0.034673635 -0.11629794 -0.0971331 -0.1429222 -0.03343451 -0.025145188 0.03302277 -0.10925077 -0.007226636 0.064150296 0.061658513 -0.05650962 0.0349877 0.040066186 0.110440634 -0.027716314 -0.03460652 0.005729492 0.052685916 -0.07845412 0.072943844 0.031094845 -0.014527958 0.026119579 -0.08070011 0.07558675 0.053156495 -0.0428689 -0.12280143 0.003038962 -0.031130979 -0.01989573 -0.06625489 -0.031684775 0.038255364 -0.04497448 0.044304226 -0.026829652 -0.09204205 0.036108546 0.03538944 -0.04959966 0.025048088 0.076001115 -0.08372298 -0.112558186 -0.048600458 0.042224657 -0.0941683 -0.04123481 0.004993481 -0.06946566 0.06441089 0.020169673 0.022112435 -0.006562944 -0.0032171567 -0.1625183 -0.060018692 0.022295885 -0.012001681 0.04659973 -0.16942818 0.016733339 -0.009685445 -0.029208573 -0.05231589 -0.020170862 0.014424898 -0.04944305 0.035958447 -0.0339406 -0.094044484 0.009322464 0.029084738 0.061729047 0.024001285 -0.2764236 -0.040261377 0.10089746 -0.027751768 0.024949731 -0.027363518 -0.08855163 -0.009845242 -0.04484004 -0.11567943 0.040522546 0.0067602745 -0.07431298 -0.016983693 -0.008384804 -0.09505428 -0.017450357 -0.015481998 -0.06567513 -0.106073454 -0.06379401 0.00030084993 0.008827376 -0.07391654 -0.041865002 0.0342192 -0.077047065 -0.09288625 -0.17947663 -0.018970283 0.036485884 -0.008314628 0.085032955 -0.0095987 0.012796909 -0.07547165 -0.21868694 -0.09725011 0.025104718 -0.14291047 0.07661916 -0.009953624 0.08885627 -0.03690079 -0.14893979 -0.095870115 0.07332294 -0.012678816 -0.11763396 -0.13618617 -0.026614556 0.0011535973 -0.045328964 -0.008368987 -0.07486381 -0.05354016 -0.03301045 -0.06546054 -0.16019663 0.04931957 0.055801906 -0.11740511 0.009601305 -0.040329963 0.02451672 -0.049865942 -0.07046826 -0.20687623 0.12450886 0.04284574 0.08266875 -0.16650562 -0.034398034 0.015188849 -0.10937154 -0.0025220106 -0.022801608 0.061113276 0.035146415 -0.021384232 -0.034392536 -0.13169087 -0.008408415 0.03942943 -0.066538624 0.032950077 -0.15250187 0.05856137 -0.05403028 -0.031471193 -0.15290575 -0.14006636 0.04466502 -0.0065620565 -0.047882106 -0.015452199 0.04947837 0.028529145 -0.09654439 0.06893223 -0.03450241 -0.016916588 0.016656062 -0.04580603 -0.036188193 -0.069153845 -0.005124365 0.0376298 -0.10777006 0.054302484 0.013709682 0.03200074 -0.099860154 -0.036231164 -0.04202947 -0.02417463 0.0056460383 -0.0162245 0.0684065 -0.027514966 -0.025812425 -0.009422953 -0.016478915 -0.17811185 -0.13866024 0.0390662 -0.13838978 0.0092668105 -0.023249814 -0.010832597 -0.093893796 -0.012739976 0.030047884 0.00023060916 -0.14397374 -0.02734407 -0.03737984 0.00013143872 -0.09948554 -0.042657487 -0.059756763 -0.062787555 -0.09570744 0.05154582 -0.0825789 -0.12058341 0.033594478 -0.013567096 -0.10472231 -0.020339986 0.047618 -0.0578895 0.029796511 -0.08059675 -0.032810863 -0.03787118 0.06282561 0.010938582 -0.07916356 0.06837417 0.05372408 -0.031197226 -0.051431317 -0.24859692 0.04160137 0.013055128 -0.019508347 0.057231024 -0.05838727 0.001390373 -0.03970366 -0.10909703 -0.06422184 -0.05569346 0.047050703 -0.0325295 0.047294162 0.04701231 -0.093402 0.004264781 0.110363774 0.03691467 0.061520897 0.02945403 -0.08745887 0.012762887 -0.0945656 -0.06689327 0.03647699 0.08355644 -0.065295525 -0.007043508 0.03999314 -0.03667553 -0.079488814 -0.067091495 -0.002229494 0.063051075 -0.053430136 -0.05488152 -0.19268394 -0.02135564 -0.07665125 0.046803314 -0.054899365 0.004294569 0.048060287 -0.04561953 -0.012624322 -0.018591028 -0.049204577 -0.009307452 -0.03719192 -0.29926065 -0.025083741 -0.059650466 -0.015847178 0.0055623436 -0.07130656 0.08967386 -0.008541445 -0.071886934 -0.06840709 0.06455057 0.019547885 0.002642656 -0.00935269 0.06332557 -0.1281757 0.04218805 -0.13015567 -0.027967094 0.026359934 0.036352627 0.065978654 0.011381998 -0.00023115883 0.016907575 -0.0061777756 -0.006070242 -0.03141608 -0.07563246 -0.114631 0.024357546 -0.07828772 -0.051388405 -0.009938897 -0.04267649 0.016554901 -0.07532293 -0.0037544554 -0.052914776 0.039558157 -0.06172357 -0.026965631 0.07719615 -0.038017403 0.042486362 0.043147333 -0.029769193 0.017691467 -0.07924656 0.016964402 0.055287767 0.022368364 -0.049138676 0.06378199 0.051982075 -0.015088795 0.086162694 -0.11310991 0.01110467 -0.05209431 -0.017157825 0.07520806 0.09172627 -0.030711204 0.031986192 0.049085032 0.11395744 -0.05995365 -0.0036184427 0.042869862 0.033028495 0.00807238 0.043020874 0.051979095 0.04191865 0.008065622 -0.17299464
-0.011420221 0.029082447 0.026641479 -0.107969806 0.03107463 -0.053456534 -0.02850383 0.011358783 -0.0073822183 -0.008842748 0.0267146 -0.020043226 -0.05143796 0.010661914 -0.029322224 -0.0053026327 -0.014706114 -0.008614818 0.01138309 -0.0055075656 0.026264096 0.012392076 0.050749086 -0.016622256 -0.029627759 -0.0075253756 -0.117314175 -0.023032892 0.026816826 -0.012698565 0.013234265 -0.07247826 -0.04617069 0.056352556 0.0040269354 -0.0030516754 -0.06545626 -0.064095676 -0.016846102 -0.020052267 -0.052669633 -0.028587239 0.054624528 0.057370104 0.008475056 0.047571298 0.008928184 0.06981991 0.079502694 -0.026862618 -0.07861207 0.03891325 -0.023049615 0.030003909 0.010886328 0.049019013 0.035449572 -0.012143144 -0.008066222 -0.019654123 0.035250153 0.066409364 -0.07978599 -0.03877835 -0.040394075 -0.044866633 -0.10559387 -0.10020589 -0.02749691 -0.03710895 0.017129706 0.0023676264 0.0021719015 0.02865511 -0.0026266424 -0.13820967 0.020586498 -0.042123202 -0.005779992 0.032390345 0.031223636 0.0044221967 -0.03866007 -0.028155908 0.015000887 0.026683278 -0.0679837 -0.033229243 -0.14133652 0.05634984 0.005395895 -0.009311339 0.0021347797 0.025773538 -0.06953086 0.06595145 -0.055471577 -0.011382353 0.051561445 0.057902437 -0.07344993 0.0029769302 -0.000165576 -0.0020207919 0.019699423 0.080403455 0.017010905 -0.100091614 -0.0067397724 -0.06551226 -0.15633577 0.056516893 0.023403827 -0.057999685 -0.051034823 -0.05795772 -0.042857695 0.06270492 0.07329592 0.07738892 -0.01294075 -0.0650245 0.07785259 -0.088827014 -0.02172155 -0.008883026 -0.107001 -0.014333938 -0.08003912 -0.013193042 -0.047578275 -0.09388105 0.038392663 -0.017484974 0.021224184 0.08482966 0.010259488 0.02412152 -0.0075015626 -0.03574241 0.07182016 0.039547138 0.022280624 0.029533716 -0.017563479 0.013706046 -0.20293874 -0.022020347 -0.115888596 0.008040636 0.058908757 0.05312704 -0.011262674 0.027105572 -0.05378304 0.009336427 -0.007924244 0.028501602 0.012980496 0.034915388 0.029917656 -0.054178562 -0.110805 0.022236718 -0.050368838 0.06132232 -0.008440974 -0.016437232 0.018677916 0.014830985 -0.052772067 -0.0080571715 0.029921923 0.025271064 0.002753645 0.016913766 -0.045110323 -0.034533836 0.044999603 -0.018397288 -0.023487203 -0.009138798 0.05580303 -0.10229961 0.060441654 -0.05859024 0.07190513 -0.010420862 0.05607002 -0.021454915 0.053398505 0.0007185358 -0.024359578 -0.020216834 -0.05529192 -0.06918902 -0.102893226 0.0522226 -0.07467576 0.047295872 -0.002678235 -0.011566347 0.043982733 -0.033094175 -0.010988482 0.0059608957 0.044113994 -0.14515686 -0.009129322 -0.033630185 0.059808526 -0.06749186 -0.018000385 0.069552906 -0.11707423 -0.011038324 -0.022637116 0.019894013 0.021005437 -0.054582186 0.08027962 -0.034922432 0.021161467 -0.061258025 0.048047997 -0.032264233 0.0388121 -0.008466402 -0.007003448 0.023411026 0.024422081 0.07335624 0.00010521426 -0.013849505 -0.016501306 -0.084346004 0.014546357 0.066031195 -0.058919065 -0.053148005 -0.0052343537 -0.0831311 -0.02207719 -0.01469363 -0.010224575 0.034870885 -0.09913135 0.039317027 -0.008734413 -0.006146061 -0.12263713 -0.06892141 0.06963571 0.080796644 -0.025450058 0.0082545625 0.0012299363 0.013582511 -0.15014279 -0.08381169 0.0033937083 0.029761584 -0.023579154 0.017244758 -0.043440297 0.004016179 -0.174962 -0.020055573 -0.023583615 -0.060124587 -0.07131212 -0.10512908 -0.09977837 0.002078486 -0.032383896 -0.03138248 0.0081609525 -0.06834702 0.028890427 0.03560315 0.019129332 -0.0070671337 0.06297773 -0.08544374 -0.02200737 -0.02379993 0.082738936 -0.013853275 0.013937243 -0.1789846 0.045315485 0.06273077 0.019760977 -0.040494543 -0.027555397 -0.04646818 0.009005053 -0.026906552 -0.046310037 0.01867058 0.028172571 -0.0048914356 -0.116870195 -0.062136605 -0.007537472 0.07845088 0.009417252 0.10095275 -0.078406565 0.047433242 -0.079689115 0.030532235 0.01657838 -0.063238144 -0.0023885954 -0.049681272 0.048468575 -0.018914869 0.08196306 -0.0819315 -0.16695218 0.0023881295 -0.06008166 0.024810953 0.029665792 -0.08590242 -0.030459166 -0.19832802 -0.021983886 -0.015491582 -0.115121245 0.09446988 -0.0064192098 -0.027804205 -0.11962771 0.05669314 -0.07859294 0.0037711684 -0.026658386 -0.019314202 0.03946077 -0.044935267 -0.048472278 -0.022504304 -0.01512395 -0.14898089 -0.1327125 0.033220917 -0.14147846 0.034386374 -0.017014617 0.060552534 0.010928725 0.009400993 0.011202837 -0.024512291 -0.119797505 -0.07636403 0.04441396 0.01630657 -0.06048882 -0.06628431 -0.023881905 0.006555947 -0.056956157 0.022563284 -0.16550247 0.06812555 0.06338965 -0.04868976 -0.11098729 -0.03521115 0.024588495 -0.047870144 0.043731615 0.0066117267 -0.08041171 0.04791712 -0.041365962 -0.0151573075 0.0097143985 -0.020333247 0.061878156 0.022577563 -0.082056716 -0.10836751 0.012204289 0.0051760166 0.014213253 0.0038122348 -0.072951406 -0.043860164 0.028070806 -0.07532917 -0.044197764 -0.024871184 0.040774543 -0.005716298 0.06745592 -0.0043202722 -0.021186972 -0.00033307832 0.0324154 0.034336668 -0.11042999 0.052362986 -0.05196758 0.009414816 0.003576013 -0.1126576 0.06113281 -0.021991024 0.037661992 0.0104587255 -0.018425256 0.03622536 0.0022674177 -0.02928182 0.00872218 0.055332277 -0.042395435 0.048619147 -0.12993488 -0.003400847 -0.004389764 0.034319133 -0.047472548 -0.06671475 0.08723521 -0.045702755 -0.07948991 -0.023602854 -0.11520235 0.0077436846 0.03324211 -0.09785368 -0.014351871 0.01858061 -0.04958616 -0.05658054 0.01862199 0.035616104 -0.035107777 -0.0429961 0.04031704 0.045060676 -0.034527473 0.03733868 -0.029196389 0.03617459 -0.13394092 -0.006341358 -0.15938579 -0.02516594 0.031216083 0.09439087 -0.013638763 0.018658534 -0.0061065494 0.038454905 -0.016901832 -0.014944499 -0.009021683 -0.030342162 -0.05872732 0.012075672 -0.033198066 -0.051768348 -0.0002530455 -0.028221134 0.038791295 0.01584501 -0.042878106 -0.016972858 0.06842682 -0.097626165 -0.05801101 0.051769968 -0.079349265 -0.034044046 -0.02306515 -0.016935825 0.013776467 -0.059155468 -0.019943107 0.014456766 0.037015986 -0.020133445 -0.017030831 0.047677726 -0.019019345 0.00091835693 -0.106797375 0.010997216 -0.04577677 -0.050624173 0.037134044 0.0088577205 -0.029121542 -0.004270007 -0.017839074 0.061943796 0.004094679 -0.012971547 0.016294334 0.017982315 -0.08104519 -0.040423438 -0.013446199 -0.08413004 -0.037755538 -0.06478748
0.051359292 -0.02266204 -0.1302417 0.017807286 0.09904507 -0.021731745 -0.020104516 -0.069322795 0.116641745 0.14701554 0.04301703 0.019035097 0.004633541 0.009480839 -0.052142464 -0.14218147 0.04839287 -0.012401064 -0.013431053 -0.013551667 0.006890826 -0.1526937 0.052946433 -0.1056505 -0.0766708 0.05682516 -0.02492126 0.0004052564 0.062980294 0.06060852 0.010748941 -0.10754768 0.02521949 -0.07569035 0.027811348 0.003910792 -0.01655768 0.07416314 -0.18301304 -0.02795072 -0.079998516 -0.034282353 -0.10255812 -0.07437347 -0.07383642 0.21371354 0.06893135 0.070719756 0.14775074 -0.03998628 -0.034949712 -0.045350023 -0.006853815 -0.06623353 0.123062536 0.022093602 0.07088281 -0.20504887 -0.09775623 -0.10271012 0.08241086 -0.059284452 0.09222702 0.002462203 -0.07513068 0.0731772 0.008367734 -0.022862658 0.042787913 0.12550707 0.038806617 -0.01554964 -0.3343973 0.012224167 -0.14836335 0.003882432 0.0715479 -0.0036608188 -0.04803849 0.028414242 -0.23765616 -0.038997814 -0.04427236 0.105008036 0.04596162 0.106612295 0.05462591 0.049949072 0.08984738 -0.015133869 -0.015570471 0.10179289 0.059024297 -0.25598842 -0.01157184 -0.056157824 -0.091354035 0.021472571 -0.102310255 0.07190632 -0.043935034 0.001946999 -0.05567782 0.04728983 0.013242663 -0.054144323 -0.06315741 0.027285527 -0.002870337 0.024727669 0.043778248 -0.005365954 -0.018525342 -0.11618108 -0.040533345 -0.04857667 -0.009822266 0.09125547 -0.09708536 -0.08661788 -0.116971895 -0.06083942 -0.033536885 -0.19670214 -0.00967218 0.03636124 -0.07618726 -0.043527585 0.007280377 -0.04283552 -0.1520464 0.04586276 -0.1018046 0.009006201 -0.030448973 0.06952083 -0.002457522 0.050818093 0.011590633 0.062628634 0.0947415 0.093244284 0.0662065 -0.050957996 8.816974e-05 -0.017975848 0.08361243 -0.04121997 0.11599375 0.040818617 -0.16971491 -0.060779803 -0.12423332 -0.027969142 0.040166017 -0.10268526 0.03796808 -0.06649166 -0.003460699 -0.031265248 -0.09901723 -0.06998124 0.023378607 0.04815395 0.025433153 -0.045191772 -0.16475722 -0.076880045 -0.043847345 0.097902454 0.1890846 -0.042505886 0.03468535 -0.0131397005 0.0009129867 0.07514888 -0.1339043 0.17696112 -0.013659024 -0.053169083 0.08895573 0.0061689448 -0.064811245 0.06289518 -0.09280033 -0.064941905 -0.22462538 0.06226014 0.02203021 0.08169017 -0.3088774 0.0074546845 -0.011100881 -0.4161836 0.016446589 -0.07019839 -0.006154872 -0.07392603 0.013418107 -0.052826043 0.029129272 0.065483995 -0.010117807 -0.0070507354 -0.107974894 -0.09933875 -0.014261816 -0.008953274 0.078148946 -0.14013126 -0.29039985 0.06259018 -0.056717686 0.0306231 0.1184021 0.036288578 -0.0038215753 -0.08916029 -0.014942869 0.088118605 -0.04621297 0.06609577 -0.0560921 0.1559951 -0.14292665 0.104182355 0.0584499 -0.03804569 -0.019069696 -0.12747411 0.063409746 -0.03797439 -0.032962076 -0.13642935 0.0010527786 0.05991672 -0.0676595 0.03933309 -0.030826332 -0.038443215 -0.027324181 0.019497925 -0.09759874 0.08938102 0.0071783764 0.0747566 0.1161939 -0.00525385 0.0041835927 0.0069623203 0.1401359 -0.090844795 -0.033918537 0.088651605 0.122414306 0.11584221 0.059515666 -0.09901699 0.18526466 -0.10198878 0.040946554 -0.36138073 -0.07465827 0.056813277 0.052468356 -0.20636368 -0.037836947 -0.04058021 0.00020251144 -0.057082403 0.028503805 -0.03666069 0.016971953 -0.24122731 -0.16090895 -0.028375478 -0.03907118 0.039307974 0.07181337 -0.0033060499 0.02874937 0.013902205 0.032962877 0.035482522 0.073366106 0.042602014 0.13346387 -0.036302324 -0.14940554 0.11408997 0.00056313025 -0.0037117682 0.02151684 0.022739064 -0.1455412 -0.24608012 0.06855319 0.04654586 0.017445173 0.07095781 -0.0555837 0.0680965 0.076563604 0.011907991 -0.11553422 0.09195782 0.046058588 0.04182053 0.020433052 0.086235054 -0.12506679 -0.2243031 0.13354321 -0.13347195 0.056513153 0.015424631 0.05496431 -0.06940338 0.035260245 -0.008630424 0.098793596 -0.029671518 0.04601398 0.01499911 0.0492688 0.058537688 0.016240181 0.08768204 -0.07297504 -0.08808275 0.022029452 -0.1498748 0.037089717 0.03999204 0.09721008 -0.008102066 -0.07323708 0.08826586 -0.11694171 0.02553209 0.0371749 -0.12194361 0.069693595 0.036314107 -0.00525117 0.12277099 -0.40981346 -0.08095566 0.17045124 -0.0025493589 0.032370456 0.024010751 -0.018144302 0.113121934 0.09910605 0.06174459 -0.13869905 -0.011171459 -0.1590058 0.02798157 -0.187026 0.108440496 0.07605965 0.12079842 -0.0054399082 0.055386484 -0.03963836 0.02249667 0.1464315 -0.050006855 -0.044355705 0.059846923 0.08625276 0.12167606 -0.10029303 -0.03232787 -0.015335206 0.00812748 -0.052277707 -0.01337448 0.032834724 -0.014327192 0.056501534 0.028962454 -0.042419463 0.046246424 -0.023587257 -0.0037882077 -0.23698612 0.015998907 -0.061551493 -0.01416529 -0.1656864 0.08186808 0.05444214 -0.18306227 0.013646582 -0.17911252 0.25090832 -0.029632738 0.06306563 -0.115000345 0.1357344 -0.054738563 -0.06976539 -0.09886014 -0.02434314 0.059453137 -0.051325705 -0.07812701 -0.0124647925 0.1025412 0.042930353 0.031193534 -0.040502027 -0.1135393 -0.085745 0.010220653 0.10745213 0.069965646 -0.003555175 -0.11272802 0.09990559 0.029085277 0.10605664 0.027169354 -0.08948098 -0.10019506 -0.017895581 0.14436197 0.042562034 -0.060016036 -0.011815439 -0.069158174 -0.03938031 0.096687324 0.011383004 -0.03345185 -0.13378386 -0.022387957 -0.10245107 0.03334152 0.08108262 -0.10465197 -0.032094937 0.11346996 0.028640453 0.041231304 -0.10832279 -0.014423008 0.15987103 -0.027528873 -0.034076955 -0.18247381 0.032515418 -0.053786393 -0.037155226 0.1258741 0.082410105 -0.012517443 0.04061031 -0.10926683 -0.106195584 -0.18501103 0.0046353126 0.051574316 -0.00029753998 0.15486154 0.0026937504 0.17663376 0.049374808 -0.07849466 0.032654893 -0.07908406 -0.04473882 0.084533736 -0.07217576 -0.04921133 0.028531564 -0.10601502 -0.04458588 -0.06924644 0.15815628 0.030624991 0.027236389 0.0069616386 -0.08629105 -0.018876381 0.06723759 0.030459978 -0.091818005 0.07233337 -0.030999133 0.06326639 0.013359683 0.011296657 0.102991715 -0.03295867 0.030591289 0.072242185 -0.056887243 0.0439976 0.005061656 0.27101758 5.0795203e-05 -0.09502365 -0.15353224 0.14947592 -0.0002195572 0.040588737 -0.045028318 0.028730592
0.07252747 -0.04978923 -0.005991965 0.11589648 0.056176346 0.078432895 0.06807877 -0.044247594 0.018174764 -0.018565467 -0.046040345 -0.14083047 0.053193297 -0.025145425 -0.040936146 0.054140743 -0.041501682 -0.06383759 -0.057408597 0.017633487 -0.1493399 -0.010972516 -0.094648965 0.0007310945 -0.15248917 -0.006996629 -0.12915312 -0.017303793 -0.035364006 -0.0033559278 -0.12916291 0.0209515 0.0072792326 0.03862062 -0.16415384 -0.019656327 -0.1812504 -0.20142166 0.058622815 0.0626946 0.018199144 -0.052692957 0.009977915 -0.02918979 -0.018527688 0.022896508 0.026268857 0.048605636 0.06463854 -0.002972562 -0.20280427 0.043568835 0.014653934 -0.059951693 0.006933982 -0.107190825 -0.01183128 -0.10780776 -0.09407918 -0.1672764 -0.026780747 0.05417131 -0.009692338 -0.037211116 -0.003053068 -0.017923534 -0.025852555 0.05869363 0.016886609 0.05122697 0.033717364 0.012782072 0.03757355 -0.040049482 0.081959285 -0.049345225 -0.029301558 -0.048557024 -0.0028786361 0.06611793 -0.011469958 0.04402536 -0.059476543 0.050251387 -0.10924371 -0.026859425 0.005592893 -0.07808913 0.09700594 0.046596948 0.02811948 -0.0029524178 -0.0011606447 -0.12245282 0.107529625 -0.006410634 -0.034479026 -0.044558857 0.048688926 0.0002485076 -0.15293632 -0.03443633 -0.061768398 0.09419153 -0.14834826 0.04479628 -0.2565221 -0.113572955 -0.011808785 -0.058257326 -0.096832424 -0.04206888 -0.04886089 -0.18539913 -0.039463513 -0.044310816 0.023196267 0.0061603165 0.04770957 0.020293111 0.11000643 -0.020062106 -0.019550262 -0.048397038 0.037871026 0.02568243 -0.028578706 0.011236119 0.110715464 0.03178258 0.004845255 -0.0660149 -0.012483118 0.032250892 -0.11361682 0.095307365 -0.009455873 -0.068618216 0.013328579 -0.11081436 -0.026636126 0.024934063 -0.10531 -0.0024655247 0.09737347 -0.048376918 0.046021994 -0.21506582 0.11589569 -0.051220085 0.101938255 -0.07652481 -0.070743695 -0.05575373 0.13498044 -0.071235694 -0.09079854 -0.15692815 -0.034020763 0.08431882 0.0386865 -0.026585165 0.060237154 0.056503534 -0.10082389 -0.0675893 -0.036774125 -0.005760543 -0.02556269 -0.09141166 0.016285507 -0.06262166 0.0023959186 -0.16686004 0.04327643 -0.26090246 0.017634332 0.101538286 0.040785443 -0.009276833 -0.021301923 -0.030294595 -0.044278644 -0.10622251 0.09547667 0.16660628 -0.050742447 0.020177785 -0.0037497513 -0.11694059 0.015003203 -0.11306604 -0.04218569 -0.03924468 0.03868269 -0.007168469 -0.1071114 -0.06485875 0.06633772 0.046372075 -0.05565167 -0.025254438 -0.018736923 -0.011181732 -0.014769183 0.104627535 0.009074331 -0.039418314 0.01816339 0.009639433 -0.11235481 0.05482547 -0.020906774 -0.0104726525 0.0534771 -0.12935387 0.017501801 -0.043028843 0.016104627 0.06115406 -0.11333421 0.018021923 -0.004958753 0.019978525 -0.00942121 -0.20626853 -0.14428714 -0.02097684 -0.00064275105 -0.03734036 -0.11681895 -0.1496152 -0.005048018 -0.057635516 0.061328135 -0.005915301 -0.17394753 0.00838241 -0.07438972 -0.102120765 -0.0019088909 0.017213954 -0.101160616 0.0016587395 -0.15299812 -0.022094337 0.09397797 0.06377131 0.008465713 -0.042241093 0.12390765 -0.022529868 0.058110904 0.06834975 0.03275231 -0.024477765 0.041445266 -0.21696533 0.09902265 -0.096121095 0.0294545 0.08622298 -0.06737726 0.051594187 0.088989116 -0.045555748 0.121104345 -0.06861681 -0.04551319 -0.10188229 -0.066754825 0.02910408 -0.026843196 0.045964163 -0.13603318 -0.086973205 -0.04245401 -0.07420496 -0.07027065 -0.12892763 0.03743125 -0.022064468 -0.0270386 0.09575618 0.012784628 0.17664765 0.027041778 -0.05880751 -0.048878077 0.11073387 -0.18577127 -0.078160845 0.02074516 -0.09349038 0.015725188 -0.16038145 0.06700868 -0.17207724 0.120569326 0.027678322 -0.012540032 -0.07259063 -0.17582946 0.03283695 -0.019871522 0.050932955 -0.017641485 -0.0076269363 0.0844151 0.0877712 -0.02220705 -0.035188466 0.04489963 -0.2582327 -0.008677667 -0.008353354 -0.06314496 -0.052842338 0.09928213 -0.12240869 -0.088956736 0.0039358083 0.07163831 -0.03387188 -0.19737962 0.053611152 0.028712044 -0.060969684 -0.07458784 0.023390526 -0.14775966 0.00061433483 0.103349864 -0.015815333 0.059802905 0.06964 0.048024587 -0.07577736 -0.010723592 -0.085791245 -0.17872146 -0.025056416 -0.036639802 0.047102544 -0.058441136 -0.0023169413 -0.02498815 -0.13975173 0.059684817 0.0066461186 -0.06458105 0.058103845 -0.006453431 0.07083811 0.064140104 0.07191211 -0.030840281 -0.019703064 -0.017800242 0.017346986 0.06499505 0.123077035 0.07482634 0.11991726 -0.03005701 -0.11723469 -0.1082837 -0.104892544 -0.040525142 0.023194376 -0.06755232 -0.030447012 0.06223806 -0.029149646 -0.09555851 0.027340889 -0.009613192 -0.065901354 -0.0035548923 -0.069755115 0.0076096496 0.06710312 0.013138919 -0.005396795 -0.113104835 0.078837976 0.022367187 -0.05155795 -0.23441948 0.01004614 -0.1822777 -0.08499468 -0.027324105 0.040627092 -0.008492947 0.05604652 0.005448758 -0.0075302455 0.072362326 -0.17913736 -0.070588015 0.0728382 -0.11460209 -0.02028413 0.3069385 0.06516332 0.15339313 -0.037486516 -0.016221764 -0.12262839 -0.041022863 -0.014815834 0.02070493 -0.026716173 0.038815342 0.00051502575 -0.050405476 -0.027884051 0.0652228 0.012971369 0.03345657 -0.009815439 0.119806044 -0.058608495 -0.045824118 0.08802099 -0.0024354178 0.05993233 0.064612046 0.038997274 -0.050661985 -0.006110061 0.100621626 0.0035806485 -0.015401432 -0.11369058 0.03750029 -0.05948615 -0.031021196 -0.103662245 0.012811096 -0.06958327 -0.029712327 -0.02179385 0.004397166 -0.03476437 0.10079451 -0.14283627 -0.29020998 -0.04448612 0.10052619 -0.00279759 -0.08294911 -0.042886473 0.0064110346 0.14241719 -0.003950437 -0.11378218 0.015801722 0.08389173 0.015090395 -0.070100255 -0.012150315 -0.08160549 -0.07280413 0.06203807 0.044820387 -0.04622237 -0.049570885 -0.10852993 -0.008550299 -0.01567531 -0.108498506 -0.024943199 0.014348381 0.010601726 0.054140054 0.027431842 0.0005267209 0.0014154142 0.08863214 -0.003979292 -0.013123268 0.035010133 -0.08023978 -0.023094403 0.068409964 0.01279563 -0.018481785 0.0049121603 -0.007961685 -0.011765345 -0.079851575 -0.040542953 -0.06931859 -0.09806291 0.02081826 0.068504125 0.066056274 -0.013528295 0.012288188 -0.07908029 -0.091096975 -0.0789834 -0.05360047 -0.07905659 -0.105563685 0.062459443 -0.050669543 -0.11782495 0.04062683 0.018593423
0.17945047 -0.054486345 -0.13212647 0.03888694 -0.26082984 -0.037449073 0.038099647 -0.25959733 -0.22183454 0.16809566 -0.10943196 -0.18186674 -0.10811285 -0.020651007 0.07213375 -0.012725067 0.1213615 0.13281827 0.13762458 0.13503963 -0.08916143 -0.10217747 0.0923929 -0.037997276 -0.046383824 -0.059839603 -0.30847198 0.028799957 -0.031122126 0.05399772 0.0070995623 0.057411373 0.114203006 0.02361992 -0.0012497795 0.107714675 -0.0715993 -0.05238578 0.030166317 0.033722 0.029881591 -0.08681369 -0.25826913 0.0077593946 -0.101209916 0.070177436 -0.11876619 -0.30649185 0.009551398 0.027759308 -0.09777275 0.068506494 -0.21859863 -0.009300612 0.048051666 -0.10612131 0.08612104 -0.0065441807 -0.13394618 0.10472007 0.108353086 -0.034596924 0.07124465 -0.09125393 0.12783104 0.11861928 -0.110083416 -0.008967333 -0.031348195 0.06634495 0.06332468 -0.12851574 0.12535012 0.06924578 -0.0058662808 0.06830414 0.10098046 0.08930325 -0.075778246 0.15318432 -0.06083336 -0.09459577 -0.026585555 -0.21714166 -0.06024693 -0.27658358 -0.102119476 -0.06038988 0.09607393 -0.22276329 -0.084933996 -0.15926056 0.062422547 -0.10899719 0.0023271856 -0.01675167 -0.030167827 0.12852427 -0.12434267 -0.2277803 0.036768943 -0.05359302 0.05389477 0.12131949 -0.06317332 0.068087995 -0.085488 0.06078067 -0.105080105 0.022190824 -0.13281406 -0.16149044 -0.16050605 -0.084109984 -0.13382627 0.076787874 0.10761569 -0.058333077 -0.08325373 0.055492524 -0.2254253 -0.092815824 0.0012608824 -0.3432796 0.09442966 -0.043222908 0.030076807 0.014821841 -0.025659205 -0.04702642 -0.091407865 -0.15101579 -0.029458288 0.17589283 0.1727436 -0.053552266 0.037840948 0.0766516 -0.2298196 0.009176231 -0.12878717 -0.0001736057 0.15246631 0.059838194 0.032479346 0.17993851 -0.055927414 -0.09232938 0.07093875 -0.16758673 -0.11574749 -0.0848006 -0.16050085 0.08038578 -0.12591112 -0.16690369 -0.052107323 -0.11996155 0.11732273 0.056619596 -0.034424078 -0.038883064 -0.081992246 -0.10936728 0.04396905 -0.0008309114 -0.06666946 0.01491635 -0.05957172 -0.09506255 -0.054483593 0.011366143 0.042941894 -0.15035824 -0.064241275 -0.08581726 -0.03705426 0.13884659 0.07497697 -0.06813371 0.21392247 0.0389228 -0.017327257 0.02039992 0.04096696 -0.30574203 -0.08888439 0.07171041 0.023338638 -0.15384354 -0.007282482 0.20120001 -0.13991924 -0.0134959435 -0.012390429 -0.1558017 0.07133234 0.039954614 -0.033053637 -0.035886448 0.07053542 0.06809536 0.16024452 0.0871563 -0.06450618 -0.11847074 -0.1039498 -0.063622765 -0.20062846 -0.045974184 -0.019183215 0.07816933 -0.054690182 0.038828913 -0.02692286 -0.2517544 -0.020867515 -0.04002069 -0.021149801 0.19407499 0.2906095 -0.16909708 -0.041811325 -0.17300895 -0.09088801 -0.061079238 -0.013504366 -0.055366974 -0.014062274 -0.082979195 0.21845223 0.047969457 -0.10862683 -0.19380884 0.16378196 -0.072694495 -0.076264314 -0.026635604 -0.2235337 0.0009818177 -0.042863104 -0.0926364 -0.21196751 -0.101517506 -0.07477468 0.11349358 0.15016286 -0.00618671 0.060187545 -0.16666526 0.045094468 -0.04276532 -0.25004807 -0.020847384 0.0035647636 0.06898586 -0.035801128 -0.2040017 0.16319229 -0.30055222 -0.03161806 0.14371434 -0.13767971 -0.22211777 -0.0682233 -0.0048716157 -0.37100214 -0.079635695 -0.09772173 -0.11542863 -0.1467288 -0.01939982 0.12454651 -0.32124886 -0.009568309 -0.092375584 -0.20045486 -0.11265479 -0.054517116 0.005177038 -0.1580175 -0.07351153 -0.037332237 0.16703162 -0.19685669 0.08453874 0.06199619 -0.1591367 -0.04365772 0.18680164 0.002490883 -0.05466879 0.14679408 -0.16620436 -0.042438205 -0.03776189 -0.27804658 -0.11678897 0.14135876 0.0143235 -0.1194162 -0.040389184 -0.112165436 0.019060338 -0.14993837 -0.020711618 0.09155643 0.039850574 -0.01676572 -0.027242174 0.040120542 -0.059511416 -0.008669229 -0.03894978 0.010005787 0.14955959 0.13209327 -0.08171756 0.010154114 -0.068442754 -0.15827435 0.06342012 0.044301357 0.28400582 -0.0073030447 0.081423715 0.053064764 -0.17137823 -0.13320388 -0.065416194 0.051285215 0.12212309 0.068853185 0.14604537 0.0496766 -0.17484671 -0.08861082 -0.10503305 -0.13332933 -0.058493495 -0.2990188 -0.07213726 -0.042508878 -0.026749285 0.11432828 0.08744458 -0.09913512 0.042501185 0.12018996 -0.19947049 0.056968167 0.04245818 -0.07321734 0.007762822 -0.052552614 0.123590715 -0.13505727 -0.11039358 -0.121017285 -0.050120372 -0.1407077 -0.028802563 0.08536954 0.08406252 0.026956525 -0.2533506 -0.009450592 -0.03778597 -0.045710266 -0.04894156 0.12350834 0.07618051 -0.03739971 0.06013399 0.08002209 -0.1679049 -0.1648373 0.14162944 0.010845967 -0.18982047 -0.16513148 -0.07607272 -0.07722133 0.023973633 -0.027584657 0.03965408 0.023052923 -0.095357694 -0.05921556 0.15638554 -0.23007423 -0.12011121 -0.023673791 -0.03938072 -0.10374246 -0.060803205 0.033084154 -0.010373524 0.15564972 -0.07640608 0.10870105 0.047712393 -0.13061911 -0.04171157 0.0053546103 -0.015882477 0.17420956 -0.082562886 -0.069804475 -0.06653547 0.059781063 -0.14015706 -0.083062835 -0.07190331 -0.020390458 -0.069540136 0.011738626 0.070967466 -0.0074560177 0.051064912 -0.0137691265 -0.15140003 0.12603316 -0.025012106 0.005098472 0.30300626 0.09746478 -0.16050702 0.010893909 0.033332888 0.31181014 -0.55486083 0.0058267876 -0.006981633 -0.10680658 -0.15966466 -0.023026787 -0.029351484 0.13663593 0.1556162 0.026589422 0.16803786 -0.04405599 0.109262764 0.06286991 0.00734115 -0.0054083094 0.0044583688 -0.07260834 0.02473179 0.05303973 -0.02271735 0.03980515 -0.07764844 0.09000234 0.041207246 0.08372798 0.12350172 -0.1153275 -0.12664688 -0.071571864 0.08931245 -0.02832161 -0.03685323 -0.026270876 -0.08635577 -0.008754274 -0.46076316 0.0030441622 0.09915532 -0.01640069 0.093299255 0.015610609 0.013133869 -0.0879799 -0.28712586 -0.038463373 0.07593258 0.085238256 -0.1164601 -0.050416555 -0.7079074 0.044439316 0.0011524397 0.13943118 -0.0120885335 -0.06835963 -0.009729453 -0.054012164 0.029417822 -0.16519885 -0.15277793 0.015832722 0.021051817 -0.08926736 -0.029503426 0.0042392123 -0.048586838 0.09788533 -0.2736681 0.06394113 -0.056815248 0.12246576 0.15093307 0.07344031 0.009450357 -0.116818465 0.23619334 0.03772364 0.06629136 -0.06926888 0.10099432
-0.039791197 -0.060154535 -0.057924896 0.009442417 -0.046729073 0.022776362 -0.02038361 -0.00903731 0.015950745 0.009267971 -0.016123002 -0.024651157 -0.049471676 -0.022599975 -0.064331315 -0.020126905 -0.058717452 -0.0700233 -0.022869334 0.13299368 -0.052589815 0.0062301876 -0.05410589 -0.071607865 -0.026985966 -0.11551703 0.010006303 -0.054723706 -0.06027928 -0.117414095 -0.018724196 -0.02531218 -0.093341105 -0.055837188 -0.001839143 -0.05750423 -0.041188914 -0.076069206 -0.045233805 -0.038525257 -0.05465577 -0.013815323 -0.08716896 -0.055037882 -0.08411892 -0.021769183 0.12887348 -0.0709505 0.011044421 -0.05884148 -0.12135891 -0.05004464 -0.06279601 -0.058893494 -0.0900573 -0.067900375 -0.07238594 -0.1431008 -0.0315825 -0.03871195 -0.042203963 -0.024876263 -0.032856666 -0.03404911 0.062224746 -0.08003583 -0.012498197 -0.082335405 -0.016132524 -0.05567083 -0.0005462523 -0.082784005 -0.10169037 -0.026461957 0.08444033 -0.06931063 -0.031359956 -0.0022173584 -0.075846635 -0.04051852 -0.12964381 -0.04270931 -0.038996153 0.043159313 -0.025955398 0.049711507 0.036888484 -0.042465627 0.052743003 -0.033703562 -0.0027371943 -0.033279907 -0.019424524 -0.15665816 -0.030936617 0.006774319 -0.009480075 -0.010430812 -0.018225508 -0.12434288 -0.05737641 -0.07870627 -0.043391425 0.0034170279 0.005100502 -0.10899158 -0.11783199 -0.06699429 -0.032859016 -0.049231365 0.021242974 -0.026792742 -0.055474006 -0.027347974 -0.01930387 -0.039877508 -0.036871843 -0.03861529 -0.06575259 -0.0749597 -0.033473544 -0.033103902 -0.028733296 -0.07826938 -0.012802567 -0.05775367 0.06032372 -0.03922234 -0.035376437 0.007925637 -0.13054794 0.058441095 -0.040017042 -0.07496228 -0.0071661207 -0.03622458 0.0029072766 -0.0637766 -0.003930181 -0.089112945 -0.0851784 -0.030269675 -0.023920808 -0.030003585 -0.00088114245 -0.060133427 -0.017490523 -0.06896225 0.091690026 -0.15176927 -0.064867586 -0.06630516 -0.035531532 0.0011945685 -0.1161292 -0.098480456 -0.0058330265 -0.01884712 -0.05578379 -0.02827049 -0.016195396 -0.113343164 0.017956557 -0.01767527 -0.0157504 0.008577414 -0.09524321 -0.12560593 -0.05290208 -0.040203672 -0.035639305 -0.020003691 -0.023113089 -0.14092687 -0.08088055 -0.028095314 0.12172179 0.021406552 -0.06435245 -0.042133942 -0.034463104 -0.018544901 -0.09997161 0.07408376 -0.057645477 0.06438758 -0.03405373 -0.026841894 -0.04968846 -0.014737877 -0.116056085 -0.01952802 -0.045630675 -0.20926496 0.06287226 0.07478973 -0.0300806 -0.0063349023 0.062910445 -9.425778e-05 -0.043919567 -0.007489882 -0.0017003719 -0.012259993 -0.07616204 -0.06793651 -0.020377478 -0.09657028 -0.053567026 -0.019594425 -0.09236887 0.046762854 -0.039019 -0.06680259 -0.054641496 -0.15718907 -0.016851937 -0.16103019 -0.06866645 0.075001255 -0.0523083 -0.008866985 -0.043570053 0.04724575 -0.017718598 -0.021786511 -0.03485447 -0.03490396 -0.034092583 -0.10580771 -0.034146912 -0.04941911 -0.06397539 -0.049835343 -0.05726795 0.0476357 -0.024849508 -0.05264344 -0.18591142 -0.059892416 0.05488326 0.14094214 -0.0706109 -0.12165835 -0.0007809815 -0.039743736 0.0007627624 -0.04382558 -0.058246266 0.0034351477 0.10050583 0.015983982 -0.1211998 -0.029953865 -0.06739358 -0.07282733 -0.054386165 -0.10699612 0.14385909 0.011679187 -0.03238568 -0.014548933 -0.08399234 -0.034170106 0.02904088 -0.07957123 0.00040151877 -0.17934735 -0.03323365 -0.05859175 0.08215563 0.03587733 0.117525496 -0.053635117 -0.03927907 -0.110356845 -0.08993569 0.07935483 -0.04908673 -0.031884678 -0.011235876 -0.10087849 -0.021335132 0.09477188 -0.056207165 -0.053016387 -0.0028199074 -0.10533087 -0.10862273 0.18853724 -0.036306463 -0.011175582 -0.0013448638 -0.061391998 -0.053641323 -0.030275078 0.048246473 -0.055516135 -0.0064610788 -0.061089806 -0.015963508 -0.027895544 -0.08561189 0.03386143 -0.09397544 -0.054605175 0.013830558 -0.013745237 -0.0247876 -0.05709127 0.031237068 -0.07462284 -0.065179504 -0.12869449 -0.064461604 -0.03906629 -0.011155416 0.091557644 -0.021276174 -0.08446328 -0.038960427 -0.1183729 0.12932318 0.0777964 -0.0041419393 0.09131731 -0.039412368 0.0122478595 -0.17247777 -0.07669418 0.027385693 0.015554698 -0.04992056 -0.054379705 0.07396267 -0.032053165 0.08342029 -0.10664029 0.086046636 -0.0038939358 0.0023432497 -0.1056569 -0.051531356 -0.011842448 0.0121072065 0.01341921 0.0042437916 -0.13521239 0.07008569 -0.032840338 -0.050967734 -0.06831152 -0.09540071 -0.07300766 0.0061417413 -0.052031573 -0.028376525 -0.0032562655 -0.118131325 -0.08000158 -0.038272005 -0.011168656 0.13511372 -0.06014238 0.0181692 -0.19017793 0.051758092 -0.034547076 -0.10786181 0.079196 -0.029648285 -0.03463675 -0.03793933 -0.017738925 -0.066927575 -0.05712896 -0.07553691 0.08949671 -0.017715244 -0.06390757 0.038564723 -0.0237187 -0.0606427 -0.09954864 0.016683295 -0.11450326 -0.051351514 -0.07349046 -0.05049027 -0.020588446 -0.021317566 -0.022898447 -0.12069959 0.05678643 -0.057664122 -0.009932854 -0.08138236 -0.077983 0.016039949 -0.014683122 -0.049760748 0.0100434385 -0.08067519 -0.050635822 -0.02705424 0.024129888 0.030981991 -0.09418581 -0.04173326 -0.039713595 -0.097190544 -0.05101722 -0.038589075 -0.086040154 -0.13370839 -0.1029765 -0.037197597 -0.058231916 -0.0801538 -0.008028607 -0.1571029 -0.1351727 0.13485256 0.0009438446 -0.07229565 0.0089839995 -0.042496417 -0.10621746 -0.064432144 -0.027732858 0.05026816 -0.065037034 -0.003174737 -0.036746103 -0.071682386 -0.04879867 -0.016219651 -0.037115484 -0.036303617 -0.050464187 -0.010259746 -0.07068659 0.0075523895 0.06930647 0.007690556 -0.016170226 0.022422569 -0.027580196 -0.011188413 -0.05865557 0.1009437 -0.053994298 -0.005000005 0.008146901 -0.071407124 -0.07050209 -0.03181591 -0.014479721 -0.027507503 -0.03388293 -0.032372266 -0.08433819 -0.05799256 0.012226837 0.083299145 -0.05299568 0.04608716 0.0857465 -0.047457166 -0.09589562 -0.0904641 0.0075963675 -0.063373946 0.045356534 -0.012308008 -0.13612498 -0.020668548 -0.035657037 -0.06248294 -0.010421404 -0.010603607 -0.12421409 0.09553458 -0.06009954 -0.040918652 0.00574477 -0.073562756 -0.06885056 -0.05339828 0.0051202094 0.05473791 -0.056345157 0.009563045 -0.08178716 -0.19801748 -0.042373564 -0.061590586 -0.08981094 0.15267608 -0.006103781 -0.0062734955 -0.084942326 -0.18010251 -0.08380221 -0.06714891 -0.08049895 0.0061616004 -0.045265105 0.012422918 -0.06609836 -0.0037675623 0.047569696
-0.027221562 -0.027648462 -0.035333883 -0.07356919 -0.10369645 -0.114399716 -0.09889406 -0.049685124 -0.052793585 0.0387667 0.07531649 0.10043394 -0.03425163 -0.14059524 0.16470702 -0.039201405 0.08831164 -0.0794359 -0.048531428 -0.010931596 -0.13302775 -0.03037319 0.0037312412 -0.049893465 -0.099593796 0.018745873 -0.13296774 0.064583085 -0.009070706 -0.114745386 -0.12474173 0.025921902 -0.23510683 0.11700575 -0.03315297 -0.017508421 0.05655358 0.17309746 -0.0035954444 -0.099904 -0.011695079 -0.01940066 0.014489359 0.021837942 0.020414568 0.027405128 0.003557825 -0.08883982 0.053853076 0.11287352 -0.13330291 -0.029142719 -0.1060735 -0.12866846 -0.04384474 -0.010702323 -0.11468962 -0.101537645 -0.09734646 0.04321667 0.094698526 0.042729404 -0.03467584 -0.11687624 0.17357855 -0.0113216685 0.0036712727 0.07103028 -0.019649753 0.08658783 0.109816015 0.077207804 0.04123276 0.06567496 0.053379208 0.1366877 0.098867565 -0.14426447 0.01775445 -0.004681656 -0.11158685 -0.21173134 -0.056661643 0.049525585 -0.019254377 -0.06736111 0.032099094 0.04947938 0.08511427 0.0035597314 0.030923882 0.07917942 -0.1821275 -0.040980984 0.05967773 -0.06597514 -0.17762735 0.049204912 0.024769373 -0.049306463 0.06171287 -0.017748838 -0.0054233423 0.10845251 -0.082888894 -0.24231838 0.06269136 0.07399027 0.021775013 0.028065968 0.06918318 0.0034420628 0.025319252 -0.17271075 0.16129953 0.028328301 -0.10335795 -0.04505917 -0.03539443 -0.040389553 -0.06541621 -0.008536811 0.08138939 -0.10811055 0.053318623 -0.1378171 -0.08662952 -0.1028906 -0.0638182 -0.0632208 -0.073080495 -0.055064265 -0.111894146 0.03632159 -0.059538897 -0.008476783 -0.092982076 0.019524718 0.026619382 0.05683004 -0.24153602 0.0025805105 -0.0042796005 0.012395864 0.11992725 0.020554364 -0.014744078 -0.0711721 0.05842508 -0.058605045 0.13506255 -0.057047687 -0.12457289 0.0017113868 -0.14286959 -0.092919916 -0.035746224 0.027699484 -0.10531287 0.06260491 0.033761337 0.045846794 -0.0681985 0.011083698 -0.103378214 -0.11807532 -0.18606547 -0.07605072 -0.059428804 0.09832231 -0.05461951 -0.0046230797 0.041237958 -0.40823942 -0.06557861 0.030098908 0.024434252 -0.19991079 0.016934544 0.08177345 0.033869635 -0.036850635 -0.04309707 -0.0015481137 0.03984481 -0.07923759 -0.020298436 -0.1291774 0.017859127 0.029349035 -0.053311132 0.028376268 0.00026408664 -0.09943424 -0.016744016 -0.040326487 0.0029084804 0.07811264 0.08078993 0.0078762295 0.056509566 0.037471898 -0.03804101 0.045199655 -0.03564786 -0.11023176 -0.108515255 0.017892472 -0.034137905 -0.010281377 -0.086204 0.034600202 -0.02583622 -0.04537559 -0.13924739 -0.11645154 0.08276396 -0.024061706 0.02670777 -0.093718685 0.08845752 -0.12714604 -0.13930616 0.2798705 0.20893025 -0.0342452 0.001414419 -0.05067655 0.094417594 -0.072698794 0.087591775 -0.013222675 -0.108345926 0.014566714 0.085069224 -0.08407217 0.034181893 0.03114931 -0.18637817 0.039378475 -0.06588047 -0.0021297333 -0.04602067 -0.1302313 -0.14978118 0.02678594 0.0025872467 -0.06282157 0.06035133 -0.046593852 0.028024776 0.027637653 -0.13876298 -0.26560536 -0.0647605 0.10002314 0.08323603 -0.15219519 0.1400019 -0.04493844 -0.116303906 -0.03209935 -0.06399155 -0.10084031 -0.016555227 0.022443175 -0.011118871 -0.053827208 -0.05209432 -0.1128606 -0.019050965 0.012604086 0.024361284 -0.08433054 0.10637729 -0.0086823385 -0.07203472 -0.022959098 -0.10530164 0.060790293 -0.063832335 -0.07219322 -0.007476804 -0.007971891 -0.004150825 -0.007005089 -0.27725095 -0.03995379 -0.06391959 0.12527975 -0.023318695 0.10086656 0.08579097 -0.13863522 -0.07753938 -0.11056245 0.08097741 -0.050610002 0.17328526 -0.08003951 -0.30297005 0.033049505 0.061497696 0.064071655 -0.12275276 -0.06857078 0.118694276 0.03828181 0.042465743 -0.09113671 0.059355456 -0.15765293 0.096072815 0.055688452 0.08525325 -0.05514672 -0.0048782392 0.0145362355 0.17114927 0.07279293 -0.074950755 -0.021519773 -0.011955878 0.050558615 0.11187569 0.04875651 -0.056016356 0.028062899 -0.027393308 -0.15055168 0.06602168 -0.05897209 -0.04844202 -0.19142476 0.055930074 -0.0138124665 0.019199133 -0.13983737 -0.121694595 -0.20613334 0.047766153 -0.020344378 0.055899125 -0.014974183 -0.0175571 0.11053529 -0.022865225 -0.34289116 0.083914146 -0.039373454 -0.06490279 0.011701648 -0.13088427 0.10335347 -0.046686612 -0.0417239 -0.1386213 -0.007644809 0.011084673 0.01876251 0.0012565501 0.15240858 0.08544897 -0.04731724 0.01998432 -0.104699984 -0.027721804 -0.029032234 -0.10571313 0.043782033 0.1251863 -0.02045471 -0.051965997 -0.009854731 -0.038341653 -0.072949946 -0.081652865 -0.058775708 0.0045861066 -0.0032836415 -0.09052003 -0.15634221 0.051189188 -0.08156752 -0.042863484 -0.3098599 -0.06539336 -0.0051796795 -0.019177772 0.06756599 -0.09162881 -0.057157185 0.07565367 0.0044918107 0.07762233 -0.05541507 -0.078385 0.12582043 0.08471356 -0.020755835 -0.0100582475 -0.01667578 0.046453334 -0.07493261 0.0027890666 -0.02264463 0.10676131 0.056072574 -0.12583652 0.0022775223 -0.097745106 0.0044677895 0.049623065 -0.009543052 -0.017761132 -0.1033677 0.015716698 -0.02362707 0.024911486 -0.0018398697 0.009704137 -0.06399465 0.09166256 0.027492745 -0.043294698 0.09109219 0.00038729704 0.020760033 0.056544017 -0.00035568318 -0.026642185 0.02272315 -0.1301933 0.010391247 -0.13718481 -0.124748796 0.087794416 -0.101320304 0.017995507 -0.0125028845 0.045460913 -0.0909912 0.07077793 0.021642186 -0.15084241 -0.030004894 -0.21056528 0.041422617 0.18458886 -0.110484585 0.111434996 0.046381224 0.08655224 -0.09370795 0.021867355 0.045427985 0.0423934 -0.07342663 -0.17890657 0.0349916 -0.14272676 0.0044573382 -0.0022881883 -0.068171784 -0.06550159 0.030328078 0.051710714 -0.043601867 0.06663693 0.1247702 -0.030632883 0.033975136 0.0639346 -0.054168355 0.03160486 -0.13205232 -0.06529926 0.098949455 -0.045439467 0.034673117 -0.06664456 0.16068679 -0.12405859 -0.006461489 0.07130947 0.023682043 0.02886387 -0.088862725 0.0051061697 0.08183559 -0.04358643 -0.09566654 0.10728376 -0.071180455 -0.04634107 -0.044880185 -0.20497724 -0.029120732 -0.041195996 -0.057026904 0.09352519 -0.06064279 0.0048736506 -0.110894 -0.063304685 -0.13349155 0.011859758 0.15028386 -0.008550361 -0.013198956 -0.07813268 0.009795659
-0.005984288 0.04831242 -0.0722054 0.018954702 0.03546607 0.034241036 -0.070704214 0.03402743 0.12685157 0.056703325 -0.010802976 0.026856298 0.044916444 0.019319277 -0.03410224 -0.018577402 0.06744877 -0.12153397 -0.014343177 -0.008760985 0.000309559 0.009562918 0.0314865 0.05056981 0.015380779 0.04883643 -0.043265928 -0.00016311732 -0.078312725 0.058932036 0.028807715 -0.11017792 -0.10408694 -0.032193627 0.05783173 0.024348103 -0.118924074 -0.12842192 -0.038270514 -0.05033853 -0.034264743 -0.020899596 -0.04181479 -0.006529683 0.017087905 0.009078291 -0.10481792 0.023904672 -0.052549012 0.0058861524 -0.16024129 -0.014369502 -0.03296563 -0.01119971 -0.086253434 0.002112583 -0.030519139 -0.031257514 -0.027248707 -0.100815766 0.0987442 1.0098067e-05 -0.045552865 0.03902738 -0.07797897 0.071642205 -0.18677045 -0.03453254 0.056378365 0.026766337 0.0227956 -0.06342043 -0.048998266 -0.031963944 -0.006194206 -0.075301014 -0.036040425 0.02204381 -0.05641483 -0.077022545 -0.081999496 0.012610391 0.020735627 -0.03853137 0.018451668 -0.108075 -0.089115635 -0.09461777 -0.17285699 0.05270852 -0.019091442 0.042096015 -0.053959526 -0.01034401 -0.0450879 -0.0005701471 -0.030279843 -0.030627418 0.03593363 -0.07589817 0.0005604519 0.0017345168 -0.07778024 0.021355566 -0.099607445 -0.04389202 0.058624044 -0.08785729 -0.002876992 -0.004501577 -0.011298123 0.00077188987 0.023219377 -0.09911943 0.015967097 0.010655499 -0.0027598275 -0.010405622 0.042533975 -0.018399764 -0.028471582 -0.06394094 0.041616946 0.044617414 0.042215504 0.009241711 -0.18680687 -0.062571816 -0.042294215 -0.040298045 -0.119528875 -0.033294775 0.03347974 -0.048956573 0.013504655 -0.008059472 -0.0809139 0.02726311 0.0008078123 -0.018699832 0.06991796 0.004044663 -0.06811012 -0.055350326 0.0113074705 -0.005944893 -0.26324236 -0.10714469 -0.14386632 0.0041511627 0.025484117 0.018295607 -0.058462393 -0.021472825 0.03194634 -0.024640668 -0.07496399 0.061251573 -0.07443426 -0.013256127 0.021793935 -0.16553958 -0.052698586 0.06560909 -0.24597853 0.08855429 -0.10619205 -0.03471058 0.12530534 -0.01753396 0.001113779 -0.0031753678 -0.10389879 0.046914704 0.019759972 -0.057101186 -0.09434154 -0.08992249 0.01919832 -0.10637012 0.021077253 0.006925575 -0.023597645 -0.18936004 0.04573249 0.06885437 -0.059778653 -0.021698523 0.001731231 -0.0946022 -0.098179094 -0.01351854 0.072419815 -0.035531726 -0.018738745 0.017205875 -0.007255861 0.10122044 0.061992608 0.0653293 -0.001607964 -0.0046519134 -0.0019072995 -0.058953755 -0.02410812 0.02955562 -0.017929012 -0.06630285 0.050849106 0.006224911 -0.02517795 -0.14350331 -0.007868942 -0.0033908533 -0.13212268 -0.036217555 -0.03966758 0.026068432 -0.047516953 0.0036476823 -0.060489696 -0.018292647 0.021068154 0.057784967 0.036545232 -0.18071553 -0.06305885 -0.0011241201 -0.06634607 -0.019044714 0.026001671 -0.11055705 0.1324361 -0.029685544 0.010022927 0.0021560874 0.07675607 -5.394653e-05 -0.024541458 -0.018270956 -0.12901624 -0.020916257 0.015370493 0.0003344553 -0.10960841 -0.087985 -0.14146501 0.00781992 0.036044586 -0.040819407 -0.12877321 -0.054109886 0.07446677 -0.037892777 0.013489176 0.03964996 0.07150276 -0.11008252 -0.1704833 -0.21853079 0.040505067 -0.07633139 -0.04693227 -0.03400504 -0.025002658 -0.033941 -0.052560747 -0.055410124 0.045115057 -0.01048636 -0.07687683 -0.18516356 0.03310888 -0.022145096 -0.01941334 -0.072400734 -0.033588253 -0.05900073 0.033961054 0.013324641 -0.0032037264 0.047050603 0.04757646 -0.10805788 0.0063723745 -0.028109042 -0.095017485 0.0038913041 -0.005679824 -0.16264524 0.012341881 0.009272181 0.03652963 -0.01347014 -0.022143306 -0.09350332 0.0069452594 -0.0024447513 -0.0029209175 0.005422652 -0.022042282 0.04960182 -0.027038403 -0.16777337 -0.06572399 0.013753627 -0.023820817 -0.033695687 -0.019875454 0.032606214 -0.077489555 -0.08534731 -0.008908753 -0.00452004 0.014975925 0.020782728 -0.002918892 -0.06307017 0.059335206 0.012668281 -0.1267103 -0.07963746 -0.023193577 0.015671788 0.017566085 -0.07211539 -0.054731704 -0.085743256 -0.045298014 -0.05912481 -0.046192463 0.026576152 -0.05634044 -0.045992386 -0.16863951 0.091358766 -0.07508959 -0.0709415 0.0480017 0.04618842 0.07852707 -0.0669352 -0.0020468417 -0.068776004 -0.021934051 -0.18598402 -0.11780734 -0.028546197 -0.1678737 0.06503964 0.012918162 -0.033686984 -0.013735783 -0.029630499 -0.0049853153 -0.111551665 0.06613983 -0.05053611 -0.05421883 -0.08507844 0.07973739 0.09290585 -0.10838252 -0.043513723 -0.12941241 -0.016751913 -0.05207575 -0.090064324 0.0040678573 0.021210954 0.047085106 -0.0056230854 0.061043415 -0.04334646 -0.008311016 -0.06944531 -0.05568636 -0.120811716 0.010335715 -0.018269058 -0.10247316 -0.098649144 -0.033187464 -0.052494638 -0.13072604 0.021101363 0.0062447283 -0.014439552 -0.016839573 -0.010708243 -0.036187053 -0.04705462 -0.052534092 -0.022592777 0.07557547 -0.044166453 -0.054256916 -0.011550867 -0.0038836636 0.04110889 -0.012357821 -0.062283296 0.09097544 -0.033193868 -0.03990188 0.024972435 -0.043395594 -0.0674478 0.08495343 -0.10793448 -0.014401876 0.023920344 0.056864515 0.06196398 -0.046031166 -0.0611381 -0.0021402 -0.063302636 0.025125183 0.019914933 -0.0460044 0.050772145 -0.22440772 -0.057490673 -0.025125522 0.098195486 0.024945188 -0.14220208 0.085871026 -0.009065058 -0.050069895 -0.031090476 -0.056922775 -0.010193598 -0.020417454 -0.06279002 -0.027937457 -0.041168075 -0.10660956 -0.026587002 0.049565256 0.00079978013 0.04651642 -0.04601414 -0.00044476523 0.10676837 -0.030259395 -0.1017931 -0.04816412 -0.049553618 -0.22730118 0.07044349 -0.063833185 0.0037394408 0.02177156 -0.000975344 -0.0435995 -0.07483702 0.058521833 0.028926393 -0.046530396 0.0073805926 -0.03886333 -0.16077958 -0.0244438 0.038929813 -0.15905258 0.004333641 -0.045068614 -0.039405663 -0.03589476 0.052774217 -0.01882364 -0.12996812 -0.030437876 0.0039029885 0.02766301 0.089334965 0.024874153 0.010388996 0.0262763 0.015304414 -0.119380474 -0.08241974 -0.03857948 -0.011834015 0.015380979 0.0017982284 0.0039019785 0.0074519096 -0.009628642 0.02568844 -0.07881906 0.028721428 -0.051320683 -0.015923027 -0.11287363 0.037473895 -0.14930499 0.0059843473 0.024481008 0.00045162608 -0.11064921 -0.0062923715 -0.08405662 0.10206595 -0.0010837938 -0.050464448 -0.059604634 0.03938097 -0.03991577 -0.12461385
-0.0009236282 -0.004614496 -0.056382153 0.07672376 -0.033418328 -0.008682979 0.005029297 0.03811648 0.012660798 0.02937339 -0.049899306 -0.0053530266 -0.0653679 -0.04554912 -0.009614983 -0.08110266 -0.032683223 -0.11957246 0.00281829 0.0837119 -0.08618881 -0.044735264 0.0008404346 -0.053271804 -0.028812561 -0.04685867 0.012406224 -0.07402725 -0.08707192 -0.043768264 -0.021216743 -0.0030376397 -0.03905606 -0.0028130983 -0.077747114 -0.08452629 -0.03851441 -0.05852816 -0.015349388 -0.068019435 -0.07123288 -0.006788659 -0.10298841 -0.0120915305 -0.06589859 -0.035535816 0.10967576 -0.038762655 -0.008647139 -0.08582921 -0.066830255 -0.051921833 -0.06011574 -0.023845669 -0.08206074 -0.07786366 -0.07616437 -0.13792609 -0.016809285 -0.07702392 -0.022413414 -0.042601194 -0.00084046094 -0.0858586 0.102459505 -0.07004683 0.015404915 -0.048213314 -0.00965929 -0.001167026 -0.047441244 -0.028903086 -0.020911226 -0.08694497 0.010736945 -0.07457306 -0.06263798 -0.06280649 -0.07035972 -0.049897265 -0.09123463 -0.021879654 0.03446397 0.06419953 -0.012350131 0.043078717 0.01817551 -0.06551472 0.100007735 -0.053125978 -0.057652116 -0.025363982 -0.05956493 -0.13106321 -0.010368544 -0.019686786 -0.02152695 -0.05854263 -0.03717925 -0.1661015 -0.052039724 -0.0402788 -0.07406965 -0.04210405 -0.004114395 -0.10527048 -0.08981314 -0.08854749 -0.093579605 -0.056995966 0.03968853 -0.056285746 -0.043082986 -0.049963698 -0.06588153 -0.04861372 -0.024213614 -0.068584375 -0.116383895 0.005768839 0.018639106 -0.06139055 -0.04414049 -0.061869916 -0.062226098 -0.03138262 0.07746052 -0.014291025 0.007276823 -0.050021343 -0.13373125 0.020665888 -0.046369284 -0.07042077 -0.038940977 -0.06285916 -0.05354888 -0.045781158 0.00037644975 -0.09348961 -0.09170742 -0.057172596 -0.0050027827 -0.024350995 0.0071593416 -0.06797073 0.0414706 -0.012832266 0.07089106 -0.2264934 -0.0449907 -0.07341097 -0.009596365 -0.006970255 -0.072354995 -0.11512357 0.003148556 -0.029134095 -0.07460448 -0.0001903172 -0.044037398 -0.14320272 -0.05383311 -0.02083627 0.0041630487 -0.016781902 -0.060520913 -0.11442904 -0.018970644 -0.073678456 -0.03918085 -0.0863083 0.003627727 -0.082951635 -0.043081593 -0.045600105 0.09140602 0.04443503 -0.047488347 -0.044655688 -0.038930863 -0.011164833 -0.06832624 0.103260815 -0.0677202 0.07479521 -0.048853975 -0.06992856 -0.054402288 -0.024660677 -0.09145334 0.004133454 -0.028646626 -0.119961545 0.05931999 0.03800999 -0.070966326 -0.020817295 0.062420417 -0.028247675 -0.04277495 0.023656562 -0.06291049 -0.0896609 -0.041425444 -0.016081909 -0.06121573 -0.07794949 -0.02459916 0.00033328385 -0.09673668 0.078375414 -0.080971934 -0.042949084 -0.032973323 -0.17155729 -0.066215076 -0.16531898 -0.06403726 0.07073498 -0.066643864 -0.07000516 -0.038406976 0.007190408 0.00016258271 -0.033503287 -0.01231085 -0.06383397 -0.026628546 -0.057895977 0.04277217 -0.038040653 -0.09589761 -0.022901218 -0.069790706 -0.0070940536 -0.030951114 -0.064571224 -0.14927462 -0.06689122 0.112943344 0.10556867 -0.10229732 -0.11513098 -0.056748834 -0.047184866 -0.031810347 -0.063057296 -0.059609637 -0.059192613 0.12054212 -0.061428614 -0.061624344 -0.024866192 -0.07101779 -0.007622816 -0.053617403 -0.11718294 0.112953976 -0.0017461898 -0.056041516 -0.02197839 -0.039441388 -0.04450968 0.021009734 -0.002154156 -0.0040174583 -0.23425002 -0.07221504 -0.0005487347 0.056940127 0.013270082 0.07661073 -0.044331122 -0.021866236 -0.12025372 -0.12309095 0.026270121 -0.12698568 0.010642162 -0.047561105 -0.08711904 -0.014477029 0.10574978 -0.01601681 -0.048400845 0.0057870713 -0.14423718 -0.13794954 0.17198749 -0.05328508 -0.0013548302 -0.021766052 -0.07247497 -0.06975142 -0.043816984 0.05813172 -0.04920627 -0.03568769 -0.07262898 -0.01351972 -0.04049202 -0.14745747 0.09087164 -0.061351683 0.0009138515 0.025242072 0.022424912 -0.028285846 -0.09437179 0.07069335 -0.0625579 -0.0023390471 -0.055679232 0.003619581 -0.107624315 -0.093685724 0.034628686 -0.016285162 -0.09592846 -0.024801714 -0.11224017 0.07349885 0.047269166 0.0014799712 0.10095428 -0.070072636 0.06757285 -0.16621985 -0.05078782 -0.015744999 0.016332736 -0.041275382 -0.042169698 0.10015875 -0.07100036 0.03462237 -0.17172429 0.04692849 -0.0042123306 -0.027066369 -0.040307138 -0.038075853 -0.048373133 -0.06587329 0.012276675 0.018283783 -0.058891304 0.12628613 -0.05150799 -0.04806584 -0.04166896 -0.043885436 -0.08172259 -0.005803308 -0.06533749 0.0034876089 0.028338464 -0.11719119 -0.07827302 0.011584411 -0.006543741 0.06571882 -0.061664075 0.009690599 -0.1679936 0.04436687 -0.05442013 -0.09207614 0.042095825 -0.072087176 0.01218331 -0.059225008 -0.00092945487 -0.089231506 -0.08103609 -0.037905294 0.15271643 0.012022152 -0.094807275 0.05551761 -0.08118277 -0.017279824 -0.10051755 0.03601764 -0.09132812 -0.08634774 -0.042784847 -0.0057063135 0.0044223317 -0.0054432815 -0.04942824 -0.15050279 0.09934941 -0.039863326 -0.0064460486 -0.031485043 -0.020366447 -0.008612287 -0.012082036 -0.0031414411 -0.060212 -0.06721467 -0.01689135 0.023645308 0.012538859 0.058784813 -0.056405235 -0.021475773 -0.019548615 -0.055211134 -0.06147517 -0.049486276 -0.04922656 -0.10123094 -0.055709083 -0.062093504 -0.07857912 -0.05583668 -0.01362918 -0.120962456 -0.16430041 0.11051351 -0.027169649 -0.05827653 0.022829438 -0.022422776 -0.13442238 -0.01900665 -0.0425062 -0.0008298004 -0.07902218 -0.015775904 -0.05534424 -0.0003866951 -0.07607547 0.0065602777 -0.032243427 -0.045630947 0.025277324 -0.008826096 -0.044888258 -0.052154433 0.1251613 -0.030131392 -0.03806971 -0.025152039 -0.04399739 -0.009027339 -0.05598305 0.06260015 -0.08260701 -0.03872035 -0.015228504 -0.049484197 -0.05928136 -0.04222261 -0.04482482 -0.0041740444 -0.018947562 -0.041422077 -0.034388207 -0.030157784 -0.027745083 0.094572596 -0.07722687 0.09414353 0.05914894 -0.019440034 -0.05822825 -0.057249602 -0.03869367 -0.07091355 -0.010256046 -0.015292413 -0.10254271 -0.0692727 -0.026423078 0.004928767 -0.028208496 -0.042121165 -0.09385948 0.022440102 -0.080596015 -0.011561644 -0.04522608 -0.0054910695 -0.04751345 -0.033081856 -0.009806709 0.107812546 -0.064856805 -0.034036368 -0.009467533 -0.15340535 0.01101144 -0.0818084 -0.028953673 0.13543053 0.019810913 0.025494307 -0.12929803 -0.12224573 -0.03727233 0.01181427 -0.09642006 0.07624804 -0.043521926 -0.034572918 -0.029433612 -0.06534575 0.090634935
-0.020194786 -0.042243768 -0.03486317 0.0503249 -0.0042294785 0.12748426 -0.05105732 0.09013315 0.12615667 0.07777795 0.07398712 0.14118662 0.093029514 -0.34190756 -0.01313032 0.16048653 -0.023045087 -0.035256144 0.009673863 0.11927257 -0.0016355403 0.07443703 0.14937909 0.08350401 0.101661146 0.035492808 -0.0010851059 -0.07029552 0.10705354 -0.29019237 0.004726453 -0.35138777 -0.20357764 -0.0028348488 -0.03217027 0.14074516 -0.18100974 -0.10429115 -0.049660206 0.0062969043 0.052066598 0.11659603 0.07094731 0.061387748 -0.20396057 0.1368621 0.019382345 -0.061878465 -0.027250223 -0.06991732 -0.012069348 -0.10827708 -0.14990583 0.032031488 -0.19279224 0.015689056 -0.031560823 -0.037751477 -0.09087938 -0.01884545 0.19464457 -0.107193895 -0.3277295 -0.14912084 0.028903462 0.048984103 0.06198171 -0.17763786 0.0058828024 0.024474042 -0.042442285 0.07231563 -0.043292575 -0.05700621 0.006153082 0.111796 -0.16511822 0.07503661 -0.042720404 0.10836858 -0.1967585 -0.011272262 -0.16310853 0.12979512 -0.0033578735 -0.017186426 -0.14442058 -0.15378521 0.08241786 0.054787062 -0.008836254 0.0011296778 -0.06331679 0.0759344 -0.24765477 0.010980896 0.049149055 0.16819622 0.038239807 -0.15588343 -0.10401044 0.06003387 0.15511855 -0.11314432 -0.054704983 -0.0014553182 0.2077005 -0.04878714 -0.059164807 0.07193455 0.13196671 0.08356821 -0.04555561 -0.15387611 -0.15105246 0.013444246 0.23516706 0.09299741 0.038110048 -0.12754792 0.19659786 0.083621 0.008169486 0.12945132 0.03972316 0.14446689 0.17314795 -0.0299188 -0.20567495 -0.26380402 -0.21555087 0.01971231 -0.03313215 -0.083135985 0.09333899 -0.010182193 -0.26804307 0.13525818 -0.076777026 0.053155106 -0.10374763 -0.016693946 -0.086261414 -0.08855224 -0.37971625 -0.23804191 0.026256464 -0.20141037 0.11994921 -0.04942429 -0.087296605 0.08249101 -0.27196154 -0.21198511 -0.2791774 -0.3917075 -0.13469546 -0.0937898 -0.0900005 -0.010139676 -0.035525143 -0.062348403 -0.23507868 0.23116583 0.1929038 -0.13288276 -0.15698296 -0.044852033 -0.08287133 -0.005219362 0.06755697 -0.10192119 -0.066193104 0.01685972 -0.13978079 -0.036095463 -0.028587416 0.015419854 0.061165925 0.019317077 -0.07389058 0.03150994 -0.26211807 -0.02635179 -0.031058777 0.17237337 -0.10088571 -0.05591687 0.0034373521 0.02025017 -0.15983821 0.10156169 -0.046731792 -0.2984412 -0.108201966 -0.02472581 0.10409315 -0.037067294 0.015450224 -0.0417799 0.097436756 0.086700626 -0.05682472 -0.19515057 0.016702743 0.05045787 0.016162887 0.025107786 -0.08515182 -0.09821095 -0.06884537 -0.3976482 0.20340228 -0.09446055 -0.059300773 -0.14227785 -0.019432485 -0.010426841 -0.0022702098 -0.024623679 0.17545083 0.058090087 -0.1279877 -0.016801497 -0.07260896 -0.047963817 -0.2574061 0.103904344 0.013967632 -0.19872214 -0.015382792 -0.25976816 -0.107721575 -0.033023268 0.023391476 -0.05722132 0.16330263 0.20038551 -0.121482104 0.020614417 -0.035636827 0.004999653 -0.024042755 -0.23657314 0.04891553 -0.11346112 0.107491754 -0.043608647 -0.121074386 0.07820945 0.07602954 0.07456348 -0.117523976 0.34704512 0.1400615 -0.16375403 0.115552515 0.034397334 0.11437509 0.12059486 -0.33139133 -0.19065247 0.00772016 0.10031838 0.11019381 -0.021338426 0.0068078875 -0.05440482 -0.02774515 0.016021965 -0.15077183 -0.016944727 0.29489446 -0.06673114 -0.014085905 0.009218605 0.03040704 -0.15403967 0.077037044 -0.015559693 -0.032664847 0.07886499 -0.08954289 -0.06524869 -0.014779717 -0.038718425 -0.225033 0.011556365 -0.004491756 0.112497665 0.051638696 0.15053235 -0.0391444 -0.57294965 -0.13675073 -0.008370436 -0.026496084 -0.061481234 0.13057436 0.18927957 -0.07903966 0.007312059 0.0572623 0.050146505 -0.09620861 -0.0072353017 0.07469224 -0.15438443 -0.17221484 -0.03137651 0.24679387 -0.04894497 -0.21550457 -0.03684251 -0.057550505 0.13862924 -0.41003096 0.08767328 0.13528326 0.024829239 -0.21917343 -0.121086605 0.06721289 0.03005081 0.060841218 0.08116188 -0.16155386 -0.11785233 -0.23394637 -0.09160661 -0.27107602 -0.12967733 0.00522372 -0.17550234 0.03995391 0.059451662 0.047449935 -0.22142756 0.10012174 -0.029595785 -0.027076313 0.02054523 0.08183125 -0.26718846 0.01041922 0.06517922 -0.026164994 -0.11945201 0.13676539 -0.091246665 0.052295756 0.038488146 0.07633162 0.14686243 0.16178466 0.032344382 -0.08725293 0.13230251 -0.11094312 -0.15663964 -0.043269597 0.03115209 0.018063646 0.0049758977 0.07537583 -0.0822941 -0.2075395 0.050192367 -0.027539115 0.019095922 -0.08737964 -0.18871994 0.040565003 0.039896272 0.03421898 -0.022391772 0.08954516 -0.11307281 -0.027621126 -0.09214706 -0.061091408 0.11654219 -0.036644697 -0.09934783 0.0008702667 -0.38993612 0.10012289 0.06773227 -0.009182846 0.11710045 -0.2572631 0.12524562 -0.2822598 -0.08679414 0.084730655 -0.060276236 0.27983287 0.033082582 0.05865165 0.016613945 0.027393704 -0.11948094 0.06824099 -0.07532142 -0.11346451 0.04039223 -0.10603166 0.08622048 -0.09853562 -0.10054631 -0.03212333 0.11454065 -0.04774265 -0.004332135 -0.35961765 -0.1196249 0.027542913 -0.10165303 -0.082504526 0.011835274 -0.07020949 -0.01731928 0.11752374 0.0053882482 0.09547424 0.09126483 0.032957923 0.09345695 -0.09275139 -0.5678882 -0.30067033 -0.03483964 -0.46786904 0.105866544 0.046675026 -0.20382553 0.036634296 0.08753663 -0.21948029 -0.09759524 0.066492274 -0.023947129 -0.004801026 -0.14506385 -0.031141032 -0.17235295 -0.1943091 -0.16268656 0.17845094 -0.21979466 0.045268618 -0.0136349285 0.06007758 -0.1318193 -0.084581874 0.06858452 -0.033298668 0.035784125 0.009593589 -0.06524029 -0.023569226 -0.105122246 -0.023612395 0.00032807994 0.03661779 0.061164144 0.0107943155 0.5419826 0.06446689 0.22208148 0.023850134 -0.054151148 0.07855702 -0.08704274 0.028378874 -0.082991235 -0.007901178 -0.026466908 0.042291418 0.015466685 -0.028275615 -0.087906756 0.0564624 0.074083395 0.09110413 0.0012914452 0.06734803 -0.12524162 0.070553206 -0.15218648 0.09413318 0.090546936 0.16150111 -0.10450097 -0.09265062 0.013695295 -0.107909985 -0.12644117 0.12997651 -0.16705048 -0.09635033 0.11973865 -0.77228713 -0.0759023 -0.04190064 -0.19499443 -0.03126142 -0.17199025 -0.024060585 -0.15432443 -0.09592575 0.053897686
-0.0635029 -0.0011841138 0.02382714 -0.05191925 -0.0026205552 -0.11340377 0.025598336 0.0773356 0.010417304 0.0065762317 0.059350252 0.12411729 -0.0031573907 -0.046065856 0.07953077 0.03178033 0.10417867 -0.06080834 -0.16139048 -0.078991234 0.018499957 0.04899438 0.03659293 -0.04203049 -0.010329253 -0.023255974 -0.08997033 -0.022836197 0.048085105 0.0503062 0.017501514 -0.01792054 -0.063350976 -0.043952297 0.060312107 0.0016460012 -0.0148436725 -0.051667366 0.026725668 0.014390857 0.0703934 0.0067796865 0.036866542 0.03812311 -0.054662008 -0.032610252 -0.022373786 0.04711727 -0.07320464 0.039069857 0.056602623 -0.025573434 -0.060426254 0.16490814 -0.03146554 0.030832179 0.057797473 -0.09640185 0.054746557 -0.029135484 0.0713977 -0.029000327 -0.032417115 -0.07048157 -0.030746149 0.0060384697 -0.019642716 -0.09353242 -0.08796119 -0.03754335 0.00016243517 0.00379625 -0.17422551 0.0796428 -0.07296099 -0.07513082 0.022217661 0.08222848 -0.024410482 -0.017537702 -0.10203624 0.0057486985 -0.030169865 -0.02268427 0.05444715 -0.09448552 -0.011993026 0.040483452 -0.12532997 0.076466404 -0.0061824997 0.06498616 -0.08342746 -0.07351242 0.06320236 -0.031104991 -0.04919575 -0.021144422 -0.06685512 -0.060603525 -0.07965395 0.047132753 0.07780758 0.07651434 0.001495563 -0.07794547 0.055647194 0.02877445 0.018266976 0.022633621 -0.1360139 -0.0069881696 0.049871694 -0.052943304 -0.14440757 -0.0042433385 -0.02016784 0.089781165 0.015599304 -0.046371795 -0.06850616 -0.08146143 0.026249398 0.016397906 0.009433604 -0.08173074 -0.08850623 -0.03885529 -0.08680115 0.042024657 -0.041243337 -0.04429079 -0.019310858 -0.014370839 0.0074638682 -0.06409788 0.012958189 -0.1933594 0.021602526 0.0135608725 -0.05787663 -0.050447177 -0.099995494 -0.13141553 0.010146699 -0.053460926 -0.12160591 -0.043087013 -0.16158126 -0.055683237 0.05057178 0.0032089725 -0.102195814 -0.013024563 0.009179957 -0.009384998 -0.017599901 0.090367295 -0.039233033 0.11621868 -0.08469223 -0.15474617 0.028017707 -0.03999132 -0.0055309725 0.076155804 0.047405656 -0.009887683 0.07846348 -0.021843217 0.058289222 -0.011699618 -0.002359415 -0.112622984 0.0072860033 0.058196362 0.055773787 -0.15019597 -0.035356924 -0.035464287 -0.036225967 0.030297004 0.017829994 -0.12627694 -0.041121103 0.04431093 -0.076839596 -0.033127874 0.033681918 -0.045534793 -0.0764851 -0.06987644 0.0062638605 -0.08603589 0.04023438 0.032544527 0.03808293 0.052851953 0.010377961 0.00095087657 0.021819105 0.018809872 -0.110880606 0.025998395 -0.043920495 -0.09187524 0.029331848 -0.14631271 -0.0010514902 0.0077895876 -0.06940396 -0.04345806 0.013413576 0.0017894154 0.08287953 -0.0046206377 -0.042888034 -0.09898036 0.036591128 -0.046511777 0.030309211 0.047900762 -0.23376265 -0.026661675 -0.029582571 0.03955586 0.08746917 -0.04483597 0.025648313 -0.1117285 -0.03383476 -0.023066228 0.05952474 -0.08067501 -0.106531635 -0.09775889 -0.0037633341 -0.06427887 -0.040911246 -0.04706208 -0.054842554 -0.03089552 0.041333787 -0.07137576 0.1386883 -0.026847733 -0.025278524 0.010200423 -0.08138775 0.001156486 -0.121521525 0.029443715 0.07781709 -0.0275558 0.076942235 -0.06513067 -0.03165651 0.00745079 -0.12681316 -0.08873842 0.04596562 -0.18921657 0.14552045 -0.04896875 0.0041321116 -0.036600783 0.031045562 -0.091482386 -0.0021671043 0.10352266 -0.008591739 -0.11334584 0.0082041025 0.059269324 -0.018924946 0.052955527 -0.031322554 0.03911161 -0.04256858 -0.007004846 -0.105760925 -0.018557103 0.0050276415 -0.08775089 0.021446278 -0.055165388 -0.029086716 -0.100941695 -0.10398976 -0.12726101 0.124265715 0.0467576 0.014284498 -0.18689808 -0.02586532 0.012262344 -0.12108403 -0.012639354 -0.04354764 -0.0029769002 0.10447628 -0.005285446 -0.1300155 -0.10116749 -0.082603276 -0.014022338 -0.061865613 -0.04995363 -0.17436096 0.044988614 -0.1083251 -0.033314403 -0.17648588 -0.09140822 0.10434603 0.01624632 -0.13754198 0.059135627 0.03809699 0.022717953 -0.08105035 -0.05666136 -0.08052746 0.062091157 0.037676558 -0.048192605 -0.010751785 -0.12492843 -0.02264068 -0.046799287 -0.060458016 -0.049713966 0.07497715 0.011723676 -0.043303736 0.012040819 -0.05853023 -0.0046614455 -0.02269956 0.0026069898 0.0023046972 -0.051486894 -0.022518646 0.0064993966 -0.022969607 -0.1291071 -0.07414222 0.016416492 -0.17631045 0.008685839 0.050909415 0.040284254 -0.0733928 0.019336531 0.030145867 -0.04403418 -0.039435733 0.06565344 0.01132758 0.05445515 -0.13652837 -0.0297862 -0.0064768037 -0.016086236 -0.10665775 0.051972345 -0.068845645 -0.1257008 0.026490053 0.027436493 0.00043471012 -0.0054135793 -0.029893335 -0.10256601 0.043786738 -0.079785235 -0.023875449 -0.0592197 0.04724796 -0.046085507 -0.04591073 0.0025604619 0.027030272 -0.0611233 -0.044465415 -0.21390703 0.017076032 -0.040833343 0.0010373049 -0.0052069016 -0.15007634 0.07330713 -0.037667267 -0.057088673 -0.0025143381 -0.04220349 0.0026908698 0.026874838 0.033579323 0.07330194 -0.0047265496 0.021990232 0.041337628 0.034975596 0.06967713 -0.01661516 0.015965845 0.00037872363 -0.087783545 -0.0018957687 0.047873262 0.105507985 -0.081683375 0.04650148 0.01128532 -0.074031994 -0.049972083 -0.020371936 -0.033198573 0.05333722 -0.13074039 -0.066426046 -0.11148142 -0.12747702 -0.1292732 -0.04668133 -0.008913876 0.058790006 0.048386075 -0.1393261 -0.047085032 -0.007409651 -0.10719583 -0.12901808 -0.11124446 -0.3259519 -0.14778014 0.04309201 -0.09503972 0.03506432 -0.058184374 -0.07202793 -0.01753597 -0.03564484 -0.08291842 0.11251001 0.043147624 0.034285728 0.019982444 0.08558528 -0.08239605 0.047739893 -0.20430951 0.03286823 -0.04244574 -0.013416321 0.074207984 0.013942778 0.041430768 0.02778064 0.032424487 -0.04165684 -0.056291148 -0.102143444 -0.103434324 0.04536784 -0.024745688 -0.09197346 0.035039466 0.07473814 -0.031601448 0.018367166 0.11367961 0.010143729 -9.713338e-05 -0.072977744 -0.052070342 -0.0036808846 -0.0062290053 -0.0010568975 0.049634654 0.058676396 0.06314535 -0.08767347 -0.016742105 0.07820679 -0.008693808 -0.07199451 0.009923778 0.032481004 -0.0041443408 0.035297997 -0.01185737 -0.027612532 -0.04579854 -0.041346308 0.009034251 0.04185942 -0.023977302 -0.028241917 0.011865173 0.115506046 -0.004731781 -0.019201681 0.10568268 -0.044656344 0.0007436438 -0.010762009 0.03005445 0.00486914 -0.03194239 -0.099461876
-0.12870263 0.07653735 0.053078063 0.0030296925 -0.06637439 -0.008622769 -0.051227767 -0.09931481 -0.065366015 0.091495164 -0.04054296 -0.020875268 0.16391404 -0.09209838 -0.047583647 -0.038891543 0.062797695 0.07157721 0.07142869 0.18213767 0.076871395 0.04683794 0.08691399 -0.21913953 0.0049814214 -0.14634767 -0.054330196 -0.02823911 -0.0880106 -0.12724155 -0.014822645 -0.06710469 0.08915052 -0.04306705 -0.11292645 0.14789562 -0.16054422 -0.013323145 -0.019591404 0.2970245 0.09900887 0.016438665 0.04821365 0.01913281 0.053405203 -0.002365343 -0.07899451 0.1323434 0.08584036 0.040520936 0.01740772 -0.22129905 -0.05324251 0.04275388 0.02904458 0.053769235 0.10636293 -0.18039875 0.04341385 -0.03187569 0.020368509 0.076501265 0.019075165 -0.14626706 0.007275922 0.043951623 0.07744635 0.15084232 -0.0763346 -0.13221315 -0.012376728 -0.01971711 -0.30192778 0.05906889 -0.011269286 -0.13196388 0.11665736 0.03188934 -0.21472147 0.0031855325 -0.076238796 -0.14990878 0.04908864 0.08377509 0.14476012 -0.053311568 0.087832466 -0.012640611 0.12404083 -0.17444782 -0.021179168 -0.24899678 0.059967056 -0.35743862 0.076248355 -0.056236576 -0.05328449 0.16079694 -0.15249956 -0.06493689 -0.12972687 -0.0031868627 -0.022647578 0.16034347 0.006425018 -0.045535896 0.040246136 -0.13273697 -0.017678171 0.0091424445 -0.12768711 -0.011636099 -0.0017696382 0.015784236 -0.009375638 0.044203207 -0.031188624 -0.12102467 -0.2648614 -0.019693129 -0.008222017 0.037375644 0.03821037 -0.018268185 0.06474437 -0.13632467 0.0592816 0.08321867 -0.007331306 0.035043173 0.06698576 -0.060523927 0.02481921 -0.07744099 -0.030233167 -0.15225466 0.040496618 0.10888301 0.03758104 -0.006034884 -0.42373818 0.06562127 -0.0695128 -0.037214443 0.0447468 0.047260452 0.089289844 -0.051121365 0.15784799 -0.0064685517 -0.09442695 -0.0068271225 -0.017261175 -0.019633695 0.043702252 -0.21192366 0.015091967 0.017245268 -0.04807201 0.06981626 -0.25952157 -0.0035637019 0.064876415 0.061379023 0.022748528 0.0021045313 0.043847237 -0.16183472 -0.036221944 0.10710373 0.033651724 0.0007117533 0.064161964 -0.11059352 0.03796801 -0.055544514 -0.014330416 0.09794723 -0.0420154 -0.015790962 0.18833262 0.0018009362 -0.090115584 -0.1676549 0.053077087 0.026526079 -0.022165796 -0.036850866 0.04624287 0.019018374 -0.11953286 -0.0056452756 -0.042535715 -0.091233015 0.11512433 -0.0068429545 -0.10247199 -0.05658239 -0.087152876 -0.037191477 0.015158328 0.033253346 0.080543235 -0.017005013 -0.08141639 -0.21723838 -0.04165535 0.014217891 0.027726745 0.013145538 -0.22062561 0.03652365 -0.15988825 -0.095324814 0.09056883 0.075948864 -0.010947487 -0.38911286 -0.0013775282 0.16786802 -0.2177095 -0.013921705 -0.09761854 0.04913656 -0.08620573 0.014717022 -0.04099109 -0.10057223 -0.20929074 -0.16824299 0.049826752 -0.0034899348 -0.06346581 -0.03821678 0.031083306 0.0040485533 -0.046510603 0.056110438 -0.009637583 -0.18790601 0.18651627 0.03748238 -0.038976572 0.00321048 -0.05710321 0.09491508 0.03300187 0.1713837 -0.058480673 0.057934534 0.15886489 0.0060934313 0.031562194 0.014920605 -0.022650005 -0.10208463 -0.035321917 -0.15930595 0.15697934 -0.007163867 0.0995477 -0.05317362 0.006779226 -0.08595578 -0.028655231 -0.14380386 0.03204133 -0.5482394 -0.031478446 0.030250812 0.14199898 -0.0803489 0.093144484 -0.15931757 -0.2504263 0.009200611 -0.14953555 0.07703036 -0.11182219 -0.13787784 -0.023828542 -0.25129175 0.12255929 0.12266823 0.055263743 0.0904374 -0.014297288 -0.15052566 -0.17976454 0.15529302 0.12053302 0.015460199 0.031130023 0.019990655 0.016003923 -0.068725824 -0.06317269 -0.022880744 0.11795919 -0.09872665 -0.021783123 -0.054975446 -0.057747293 0.015680406 0.107125066 0.056996215 -0.06808458 -0.09560723 0.056436606 0.019831812 0.012555127 0.00937995 0.09742753 -0.28671727 0.010215362 0.09862451 0.05632359 0.005137786 -0.09409669 0.009688301 -0.022833021 -0.036155738 0.056149267 0.05798557 -0.05949869 0.1259161 -0.14308386 -0.13742362 0.09048616 0.060081467 -0.008486894 0.0009106606 0.030716922 0.11681196 0.028324869 -0.09101066 -0.024436537 0.09380758 -0.062206876 -0.08014481 -0.13037522 -0.118663065 0.075435944 -0.009849196 -0.119373694 0.19165064 -0.2006036 0.10700221 0.18875074 -0.22486722 -0.010144116 0.033242475 -0.2491853 0.016966777 0.043914817 0.1094084 -0.13750882 -0.0049386057 -0.029705465 0.027125202 0.07529685 0.031302117 0.14834076 0.042856015 -0.05174938 0.021395406 -0.032825954 -0.014092861 -0.108917974 0.06386981 -0.025879629 0.07502775 0.023401106 -0.058404807 -9.117052e-05 -0.2635596 -0.028866194 0.024034284 0.025026567 0.014651029 0.023346486 -0.2719154 -0.036984254 0.03712816 0.013968248 0.08410234 -0.037460707 0.110683285 -0.050131924 -0.06669333 0.061497957 0.011238745 -0.021286197 0.07518916 0.11593901 0.06983068 -0.03428139 0.075084224 0.10448748 -0.12086473 0.09200297 0.0861621 -0.1121951 0.018805614 0.026885834 -0.046716835 0.018663885 -0.12861668 0.084786445 0.0076918774 -0.04731924 0.07178703 -0.25697604 -0.23077634 -0.04078877 -0.057051376 -0.16885819 -0.20269547 0.105300665 0.05896647 0.028845154 -0.24945542 0.16544776 -0.04958555 -0.015247706 0.044985946 0.116697274 -0.112275235 -0.060838714 0.018595517 0.13292864 0.004216416 0.1034367 -0.044105396 0.025680866 0.21733777 0.021447336 0.008562621 -0.04030463 -0.05255549 -0.04582242 0.010204194 0.0632831 0.04361795 0.03321765 0.0042524687 0.10183471 0.06326765 -0.047690723 -0.035718624 0.15759705 -0.08549494 0.10716194 -0.005015772 -0.045624156 0.023829712 0.025168136 0.15314873 0.0026519287 0.04439519 -0.3939969 -0.07164961 -0.019896371 -0.020385308 0.059266504 -0.05487744 0.07751968 -0.092214756 0.030319717 -0.08325177 -0.14568073 0.04408989 0.042737473 -0.054230694 -0.06065126 -0.04960336 -0.08109735 -0.30029824 -0.053107124 0.015205414 0.061665874 -0.08965487 -0.0019656676 -0.20002556 0.04264279 0.0036834956 -0.046780925 0.03720522 -0.38527 0.02804466 0.06056273 0.009530898 -0.009630975 0.08389172 0.019084439 -0.13001102 0.010904284 0.034644555 -0.047248326 0.11144744 0.062864445 0.050152753 0.13197081 0.022399386 0.06695137 -0.0069602784 0.07610152 0.06877581 0.061384015 0.058404915 0.0810848 -0.028257739
-0.042419497 -0.055252433 0.06614416 0.11814617 -0.034482636 -0.009443936 0.11815101 0.051392343 -0.011118296 -0.008796982 -0.025039844 -0.08447849 0.033840608 0.016654016 0.023547912 0.12462858 0.017352536 0.015669992 0.08051774 0.08625966 -0.027565219 0.003710773 -0.07277243 0.05325068 -0.10712291 -0.053149704 0.054077167 0.0045220046 -0.01692343 -0.06256614 -0.04844137 0.0053457073 0.008047088 -0.023890303 0.039523415 -0.01642054 0.06451556 -0.026183743 0.062301762 0.0156213 0.0520774 0.03249717 0.047364686 -0.02974713 -0.0640314 -0.038709853 0.23026936 0.046969753 -0.030999472 0.021145055 -0.081679136 -0.019597579 0.042068932 -0.039744712 -0.03976086 -0.02331364 -0.028649168 0.019153733 0.01813848 -0.074572854 -0.027067922 -0.032302868 0.078605026 -0.066528 0.10667795 -0.027738042 0.17679879 0.04378037 -0.04040327 0.023108257 0.031168794 0.010592825 -0.019706918 -0.10845214 -0.022321235 0.02345195 0.04496771 0.013447411 0.004428287 -0.058616575 -0.042131536 -0.07696606 0.04419964 -0.08330206 -0.008834046 0.112049185 0.1225871 -0.014019808 0.094641745 -0.04363158 0.0492366 -0.011496269 0.036297448 0.034758046 0.06252301 0.059284184 0.03906659 0.0073695644 0.062898666 -0.05377532 0.0055214153 -0.018620733 -0.0039009063 -0.13117413 0.0031346227 0.06365022 -0.013308073 -0.06215759 -0.077262715 -0.06442188 0.021035422 -0.045895033 -0.024176938 0.08502254 -0.09321145 -0.043614138 0.1287414 -0.041768353 -0.011451776 0.07026031 0.002614344 0.03662109 -0.032752536 0.060114413 -0.052243616 0.11735835 0.16624759 0.047825377 0.01039191 -0.054531623 0.034089036 0.0963426 0.03899334 -0.035702128 -0.050796986 0.04367346 -0.01575269 -0.0052221064 -0.014414526 -0.07661291 0.0597009 -0.0326282 -0.024372293 -0.018409079 0.04433179 0.0099300835 0.075452425 -0.028837606 -0.02044006 -0.0776792 0.07264481 -0.05831667 0.10943972 0.02224941 0.0066398582 -0.07693969 0.05606022 -0.012601417 0.12258163 0.012484111 0.07655981 -0.070592575 0.054151762 0.038934667 0.11616775 0.03421214 -0.01870021 0.05792751 -0.066873685 0.0214663 -0.08840928 0.03254955 0.00747804 -0.04231613 -0.029233215 0.0005346093 -0.02799931 0.16890262 -0.017869752 -0.09791099 -0.06808745 -0.048688933 -0.00953307 0.078793675 0.030401135 0.113598935 0.047317736 0.06212916 -0.07718855 -0.04785723 0.019095749 0.040585637 -0.0946204 -0.0653042 0.12604348 0.11291879 -0.03027722 -0.04445626 0.00018303233 0.0012409671 -0.06523619 0.027518444 -0.08194164 -0.09213275 0.0512186 0.11084906 0.05316549 0.03554721 0.007782367 -0.0253578 -0.018261159 0.08526211 0.028523145 -0.022742601 0.06289877 0.009091481 0.049605433 -0.04953562 0.011917104 0.010269199 -0.043203376 -0.038126227 -0.015770016 -0.0829778 -0.03193926 -0.0135695115 0.0052989023 0.028681362 -0.011273845 0.07012469 -0.05381511 -0.03357191 -0.009575293 0.028836934 -0.0009936654 0.036113556 0.061083734 0.07212811 -0.06597753 -0.08591896 0.20755146 0.07100423 0.00905065 0.08513175 0.07254903 0.03633752 0.0350672 0.038983516 0.13140616 0.0867812 0.15639244 0.017215313 -0.00610681 0.09111237 0.07837522 -0.11548632 -0.012465175 -0.110187404 -0.06469832 0.109144226 -0.029378664 -0.054160587 0.022810407 -0.0096467575 -0.014329397 0.04126654 -0.027751246 -0.13736156 -0.08843146 0.0349088 0.117807046 0.13799559 0.08382199 0.03875711 0.026519341 0.004949289 -0.079201825 -0.04505622 -0.03465225 -0.03125269 -0.049145944 0.03376517 -0.05256307 0.23010953 0.009326293 0.05457424 0.12143649 -0.1090097 0.01297953 -0.06068112 -0.05997779 0.089945056 0.01742988 -0.08586442 -0.003345795 0.111483775 0.030176267 0.010751275 0.025706785 0.082287 0.018786717 0.057028152 0.04609629 0.14755706 -0.019688966 -0.09961841 0.07642696 0.019809958 0.006605872 0.010957719 0.04861445 0.0583563 -0.10815723 -0.10425738 -0.00036977895 0.083071224 -0.037778918 0.021265065 -0.030670986 -0.037828486 -0.012021432 0.05601962 0.21638909 0.11816755 0.07525809 0.16860792 -0.01364839 0.0006488084 -0.03780995 0.029451521 -0.04890357 0.07244161 0.094298206 -0.0037966957 0.19900905 -0.07979509 0.21238783 -0.0058328104 0.09581097 0.065887555 0.030713048 0.017098108 0.037673835 0.002726683 0.039912544 -0.007709991 0.12379499 -0.073287115 -0.050722484 -0.033944335 -0.09621371 -0.013443418 0.06896563 -0.07065407 -0.038193963 0.007375375 0.006016235 -0.045554463 0.013758722 -0.09878956 0.0057881535 0.018091328 0.1609043 -0.038834557 0.16967301 -0.038310587 0.07987233 0.03852955 0.05116067 0.15134834 0.005062178 -0.017779721 -0.1146748 0.09545412 -0.17608787 0.027487883 0.05175636 0.10613474 0.0769492 0.016178904 -0.008241526 0.0735965 -0.1312146 0.05400217 0.19313332 -0.03386729 -0.06726908 0.092345275 -0.021855429 -0.09357129 -0.010086101 0.061070904 -0.072582096 0.09012215 -0.0108104525 0.045647208 -0.01623284 -0.038037505 0.11335426 0.03263442 0.062123258 0.0055059507 -0.06477966 0.012646002 0.0888438 0.05325698 -0.05835981 -0.12629174 -0.037070956 0.0027730463 -0.0153207565 -0.02777564 -0.008002515 -0.03809208 -0.11881974 0.037468787 -0.01672158 -0.13074994 -0.024506738 -0.03805678 -0.047830414 0.061248228 0.033748053 0.045509577 -0.03489988 -0.0780528 0.003835704 0.075079344 -0.079583615 -0.086437255 0.0947187 0.04269396 0.07256921 -0.030219689 0.06975339 -0.078810856 -0.0023048597 0.004956016 0.052915223 0.096119896 0.03497721 0.058858786 -0.13295723 0.15766303 0.07010224 0.0017484443 0.1193197 0.024778498 0.09941998 -0.0074714287 0.014644037 -0.053804036 0.005129566 0.034636777 -0.034403935 -0.08726178 -0.07518301 -0.05939453 0.03061033 0.05865636 -0.03614994 0.018124279 -0.00887558 0.15784082 0.083293915 -0.012041281 0.13009052 0.02217228 -0.042601958 -0.04703412 -0.046168882 0.033658862 -0.086421765 0.04459324 0.062301088 0.005552574 0.040980376 0.096978895 0.0039653354 0.03277897 -0.051646367 -0.020309117 0.05672351 0.07671389 -0.04144945 0.024234727 0.02461817 -0.09688826 0.019634731 -0.0024427727 0.15069517 0.07983475 -0.0046763546 -0.02437352 -0.09714727 0.018499427 0.043784 0.035053886 0.1624455 -0.020293497 -0.004272833 -0.024647273 -0.052784976 -0.010641041 -0.033529535 -0.09815344 0.09197545 -0.055665717 0.012423492 -0.015181488 -0.050897893 0.23276655
0.057652954 -0.009346668 -0.04269685 -0.039679896 -0.01264442 -0.06970786 -0.2401298 -0.20267974 -0.0013383031 0.027154746 0.049225304 -0.025881253 -0.028822973 -0.0031051077 -0.00042921046 -0.0032290525 0.03300546 0.06722717 -0.014178408 -0.023252668 0.039304465 0.04474046 0.0020055152 0.0010905997 -0.23353508 0.018082965 -0.0991044 -0.069961555 -0.019417621 -0.011525317 -0.021759192 -0.10381079 0.030893601 -0.0056378413 0.021906227 0.0041180733 0.064710036 -0.029252198 -0.057404473 -0.0045316624 -0.011198243 -0.022364888 -0.044902038 0.04214111 -0.03818531 0.029587377 -0.0049651335 0.07217058 -0.04548301 -0.00096075825 0.04140246 0.026793823 -0.031497467 -0.057341464 -0.0137724 0.0060195504 -0.039345447 0.004478705 -0.00039229874 -0.06760577 0.043202817 0.058847588 0.040779598 -0.1692765 -0.12789135 -0.121676914 -0.056846216 -0.011156015 0.0024941703 0.0659289 0.024725057 -0.01748899 0.05889809 -0.117985226 -0.040738214 -0.09700801 -0.03831004 0.0079113785 0.050733782 0.03516968 -0.0010254452 -0.076954246 -0.046435926 -0.04235696 0.032198384 0.10777672 -0.15778467 -0.030509682 -0.16564366 0.010781437 0.034685988 -0.043279454 0.067798726 -0.006772761 -0.065804005 -0.026723415 -0.0028995313 -0.012490989 0.0033011166 -0.0474527 -0.019534854 0.013039871 0.003874994 0.06664173 -0.074617155 -0.016347863 0.04449263 -0.0033386278 0.009397714 -0.021267196 -0.016187126 -0.010552162 0.03904722 -0.0383067 -0.008090078 0.12080395 -0.017235436 0.016169813 -0.036493465 0.03121907 0.0622475 -0.012548675 0.0036914712 -0.105655126 0.04906584 0.029237628 -0.037113693 -0.01766871 -0.0645518 -0.06909096 -0.0032636332 -0.059390027 -0.0030270538 -0.12521346 -0.026721574 0.0782126 -0.040805113 0.070617974 -0.0018145601 -0.08088968 -0.04347578 0.06703864 0.01169336 -0.06831782 0.00054279744 -0.0009536057 -0.20397943 0.04096638 -0.11160813 -0.0034178311 0.014165257 -0.026598534 0.030859657 0.012522313 -0.043036293 0.04116032 -0.02292862 -0.020354027 0.045730162 0.047632325 -0.044260792 -0.06467662 -0.077222675 0.015236676 -0.020034967 0.07230144 -0.04461029 0.031928957 -0.01318905 -0.026348786 -0.00794912 -0.0605709 -0.023594972 0.039964337 -0.017702937 -0.05696731 -0.046065655 0.032982547 -0.046545256 -0.07801768 -0.02191818 -0.07696324 -0.09963037 -0.09923032 0.043327093 -0.13094962 0.029787136 -0.008754077 -0.036445346 -0.04478858 0.04716508 -0.018962186 -0.0011386891 0.0047401423 -0.030721882 -0.12650663 -0.09306455 -0.002298867 -0.02085141 -0.0121499775 0.029802065 -0.012056682 -0.022652486 -0.12230431 -0.12375279 0.012701285 0.0061244234 -0.02106727 -0.04594544 -0.005949806 0.038608007 0.027784241 0.058973324 0.08376803 -0.006239471 -0.05119141 -0.04623561 -0.041480232 0.0028728233 -0.040542804 0.025403079 -0.065113366 0.03369701 -0.09344041 0.03485064 0.010939075 -0.0060251094 0.02963737 -0.005453919 0.051890913 0.09279419 -0.013524778 -0.0029487163 -0.026599051 -0.011078968 -0.080054164 -0.034025926 -0.022832349 -0.09903762 -0.035968646 -0.016364723 -0.13149317 0.089937344 -0.045350138 -0.04649845 0.09971995 0.068740405 0.006760511 0.0064681466 -0.0064158877 -0.09043093 -0.13876273 -0.11621006 0.030157479 -0.017747672 -0.033208095 0.036234193 -0.02861204 -0.12889948 -0.18390286 -0.027164387 0.07408028 -0.091470815 -0.03520012 -0.07599516 0.0025747176 -0.020059245 -0.013568321 0.010874753 -0.0817314 -0.039496046 -0.14008223 -0.1056538 -0.05714303 0.024489386 -0.03900725 -0.1347526 0.034256395 0.00758758 -0.042724058 -0.085741214 0.003852386 -0.044530246 -0.050447796 -0.049611013 -0.02102623 0.05591071 -0.013826678 0.0009269545 -0.18995735 -0.03381129 0.020268701 0.054058142 -0.036801204 0.0008000431 -0.20430861 0.015640024 -0.012806845 0.0731304 0.048324283 -0.012404007 0.06910758 -0.010328692 -0.10565367 -0.0651369 -0.02630797 0.04211373 0.058893718 0.029417567 0.037284203 -0.048073813 -0.003063995 0.013042053 0.0053553274 -0.053016145 -0.055321444 -0.095783226 -0.037729785 -0.055849325 -0.15977082 -0.09319449 0.017762786 -0.10344675 -0.039231677 0.010882188 -0.017811438 0.016392505 0.010959246 -0.020286934 0.010286818 -0.21592215 0.04814455 -0.029098134 -0.0041867415 -0.116204746 0.0014086697 -0.12705016 0.0010827166 -0.112750314 -0.021694403 0.0030329325 -0.095678136 -0.024258547 0.0068180906 0.011046163 -0.116080984 -0.08567258 -0.07952216 -0.16624694 0.04144209 -0.015633678 -0.0043191947 0.016164834 -0.081547186 -0.08109496 0.020968206 -0.045493994 -0.19485152 0.05718184 0.044029023 -0.06446792 -0.019803517 -0.069873765 0.008036138 -0.044380955 0.01731287 -0.11682374 0.072910994 -0.048480965 0.0033844023 -0.05408862 -0.028751792 -0.033674728 -0.009545474 -0.03235914 0.07346728 -0.0832355 -0.07161773 0.028353179 0.014129766 -0.050421707 0.008387012 0.09456356 -0.0015388691 -0.06857759 -0.01356042 -0.14430258 -0.06580202 -0.030607017 0.017669452 -0.033522896 -0.034211 0.004376489 -0.08959701 -0.03588024 0.008439255 -0.027561132 -0.0015215605 0.018842716 -0.0883233 -0.016178219 -0.025773112 -0.02557603 0.023314374 -0.25530264 0.0024969974 -0.0326749 -0.0011467204 -0.024629118 -0.085040666 0.069543235 -0.04900719 -0.011159178 -0.020660456 -0.02324128 0.03387627 -0.03435264 0.048938345 0.036131356 0.019603506 -0.005954624 0.016692895 -0.19832082 0.032324936 0.01020155 0.039769147 0.0882245 -0.051792257 -0.013843841 -0.016678093 -0.19564354 -0.16875432 -0.035637297 0.05491774 0.015374696 0.016094714 0.009453008 -0.013621143 0.029968921 -0.03282742 0.03154409 -0.0010845851 0.023905689 0.059786227 -0.02024118 -0.025541926 -0.056668986 0.015050301 0.03222365 0.02505215 -0.11708052 0.077266134 0.050839096 -0.04234349 -0.061790608 0.034625806 0.004952305 0.024221208 -0.08225136 0.04762523 -0.0420626 -0.017929787 -0.024495017 -0.07991533 -0.0404581 -0.0044112415 -0.06326983 -0.0630956 -0.036280468 -0.019881958 0.028131226 0.048875693 -0.07459692 -0.07147231 0.01531397 -0.027827337 0.068312466 0.0375997 0.01346508 0.0123326 -0.077356055 -0.061858673 0.009038266 -0.032742716 -0.011967081 0.046233762 0.019022893 0.016475696 0.04589505 0.02531099 -0.08683383 0.0648402 -0.087889254 0.0015938891 -0.02936311 0.060796596 -0.008146621 0.008397936 -0.023752304 -0.020307722 -0.076127894 0.02494327 0.10007682 0.033416882 -0.08596276 -0.089969315 -0.052777756 -0.092513226 -0.02872518 -0.015098942 -0.006162074 -0.013343782
