0.024020595 0.18045817 -0.49687156 0.02030344 0.089270405 -0.36781088 -0.016497362 -0.41044557 -0.4072793 -0.25202402 -0.51838416 -0.44962853 -0.36347955 -0.08782879 0.034948528 0.024306525 0.057983276 0.056768753 0.0031329333 -0.04432707 -0.44866326 0.06305408 0.070630156 0.038189344 0.15007532 -0.11131171 0.021832159 -0.40618935 -0.40927747 -0.17035477 -0.25872064 0.083785065 0.0027674905 -0.50201184 -0.58850116 -0.041724987 -0.24120486 0.07020849 0.023770098 -0.27698126 -0.39861846 0.079847686 0.034580026 -0.3622518 -0.40533748 0.025295451 0.021214377 -0.3025112 -0.56931424 0.026797805 -0.48649594 -0.37095103 -0.2027834 -0.4211937 -0.45772424 0.063086 -0.46106985 -0.34141693 0.06462983 0.016261814 -0.5572373 -0.10256656 0.05219977 -0.55959207 -0.3742602 -0.4789734 0.009848925 -0.15948738 -0.45047104 0.04428206 0.0027224056 -0.34278464 -0.05191727 -0.38951156 0.066262245 -0.421821 -0.40407053 -0.26790345 0.16193634 0.05642093 0.02147979 -0.39148355 -0.50085944 0.05389306 0.013487482 0.056817193 -0.22254434 -0.5182127 0.061323103 0.013811038 -0.42031053 -0.39356306 -0.11975572 -0.86111504 -0.43620282 -0.38285193 0.03601632 0.0660133 -0.2771045 -0.022518193 -0.4162373 0.033337757 -0.048612494 -0.1422355 0.036994517 -0.13971391 0.01257287 -0.09240443 -0.6115773 0.036293525 -0.47209913 0.10099795 0.04928752 0.060285185 0.03268966 0.073528014 -0.07610668 -0.06619987 -0.28115976 0.03231816 0.024023224 -0.011267722 0.034602243 -0.28007752 -0.39779422 -0.3961779 -0.036135785 0.034640178 -0.46198595 0.067338705 0.032706704 -0.40745178 0.08773619 -0.27241084 -0.3998306 0.09232745 -0.39759266 -0.027898055 0.05989946 -0.085484944 0.026027452 -0.47031605 0.046754397 0.014932786 0.062419225 -0.39308763 -0.08820066 0.022582607 -0.011434928 0.024755659 0.091319345 -0.602178 -0.3917001 0.037469808 0.084904365 -0.42546818 0.07097392 0.09258062 0.011957475 -0.42422423 -0.5850507 0.04426037 -0.054796208 -0.39993092 -0.23250106 -0.15221962 -0.33649233 0.0027953135 0.054278687 0.063013814 -0.077691935 -0.35336387 0.03272902 -0.07793781 0.21543826 -0.4195365 -0.2635631 -0.033531133 -0.0027981012 0.000109095316 -0.37199602 0.023840075 0.035546254 0.09239124 0.009139737 -0.40932536 0.049740374 0.07166035 -0.21311086 -0.5271053 -0.59372747 -0.40800756 -0.5304263 -0.074143045 -0.37402555 0.06765782 0.0003037175 0.06345876 -0.38717157 0.034631994 -0.1890912 0.055793434 -0.35958907 0.031791497 0.03221452 0.07734016 0.040747218 0.04961791 -0.21028905 0.06751691 0.08444244 0.025825256 -0.07668287 -0.6435491 0.04007318 -0.7118222 -0.6035375 -0.4134167 -0.17056976 -0.41448548 -0.61760455 -0.32748216 0.037047166 -0.38159433 0.02029151 -0.40277833 -0.031883247 0.022965536 0.063648395 -0.43098176 0.05733774 0.06201759 -0.4235009 -0.4024763 0.07349931 -0.10672258 -0.5445605 -0.022704616 -0.16797365 -0.5036128 -0.46649832 0.02782147 0.019640706 -0.12677853 0.04423285 0.042727258 0.04120893 0.059256487 -0.5460099 -0.36718008 -0.21242335 -0.39977795 -0.39953822 0.09398392 -0.42965984 -0.12395431 0.029866824 -0.4180652 0.050861146 -0.46552873 -0.0017337254 -0.20189616 -0.5078487 -0.4268095 -0.57641363 -0.2048602 0.023493791 0.034686346 -0.427058 -0.019716918 -0.41279677 0.0074122143 0.03016028 -0.08105243 0.03389063 -0.40309623 -0.025638029 0.07791118 0.07655402 -0.46654326 0.08094212 -0.3682092 0.029264634 -0.012789295 0.043131497 -0.42299464 -0.4141958 -0.17127307 0.052815124 0.027794812 0.03858615 0.0059325206 0.08625241 -0.5040294 -0.33209834 -0.14054532 -0.0047236388 -0.07780061 -0.081302516 -0.5686128 0.023330823 0.039291315 0.10373112 -0.011390416 0.068244986 0.051487893 0.05100679 0.025561878 0.01238173 0.06886514 -0.36292902 -0.57927614 -0.3696674 0.013845025 0.05014159 -0.65030336 -0.36459684 0.11987929 -0.14074299 0.0013021649 -0.51690596 -0.1840264 -0.40903908 -0.43744364 0.02755588 -0.37019172 -0.07407894 -0.42632416 0.029214537 0.10427915 -0.413866 0.0207521 -0.37488002 -0.12713411 0.035127893 0.03507493 -0.024195507 0.03423353 0.05065611 -0.4968669 -0.40313312 0.06756708 -0.45494652 -0.43102622 0.014520496 -0.42651486 0.075181246 -0.20188893 0.022672025 -0.61770797 -0.4058969 0.028186781 0.06273438 -0.31201372 -0.8430466 0.09926746 -0.34178275 -0.41244537 -0.4236639 0.022915632 0.047623243 -0.5616671 0.05285785 -0.13918197 0.036721606 -0.3998921 0.038962156 0.035455387 0.07088562 0.08474019 -0.42348352 -0.42095298 -0.07024392 -0.09866458 0.10905306 -0.0003453434 0.045653876 0.013000766 -0.30561492 -0.48742354 0.055538703 -0.39420182 -0.417021 0.042753242 -0.51084936 -0.5064671 0.020252988 -0.41327053 -0.41284198 0.050673272 0.028186718 -0.31316268 -0.40529475 -0.039398536 -0.40820247 -0.44274193 0.016149618 -0.033320762 -0.6502026 -0.4172733 0.08233064 -0.8312446 0.21985817 0.05897386 0.11897413 -0.39874753 0.053408146 -0.50665885 -0.12094919 -0.39232546 -0.30213442 -0.42552805 -0.45939922 -0.3897234 -0.4077217 0.050215278 -0.43270373 -0.51555395 -0.28059772 -0.2288166 -0.39147687 -0.62286276 -0.5112363 -0.3575337 0.08063566 0.02595319 -0.07542952 -0.40071505 -0.48625004 -0.19929343 -0.78308755 -0.45571148 -0.26679188 -0.09142516 -0.45795423 -0.28544265 -0.26389685 -0.4400792 0.043109123 0.048266757 -0.38929626 -0.588208 -0.29874724 0.0041103223 0.08987693 0.012051097 0.072721235 -0.35336253 -0.50423294 -0.09907478 -0.08353174 0.02934638 0.10914423 0.082794406 0.04963789 -0.00012451789 -0.52318084 -0.13608457 -0.30695206 -0.17439246 -0.41515747 0.039266575 0.059588958 -0.4070072 -0.41362405 -0.10095787 0.12903202 0.05134944 -0.48653725 0.042937167 -0.3193428 0.018432833 -0.11431409 0.022297611 0.055002633 0.029900413 0.06437705 -0.2134382 -0.40474084 -0.37961018 0.0011678298 0.04459264 0.06193572 -0.3158658 0.12516244 -0.34158033 0.051201165 -0.22578233 -0.40159294 -0.42371914 0.12944132 -0.51694185 -0.26065665 0.100187086 0.08101807 -0.6367246 0.0065997136 0.11793579 -0.17481765 0.02838817 0.09325336 0.030308872 0.024263443 -0.4225118 -0.36519352 -0.17745204 0.062350385 0.033974092 -0.11838463 -0.3811486 0.009650891 -0.44076815
