0.13322186 -0.36828768 -0.3520504 -0.39314556 0.1461349 -0.3098247 0.097944684 0.18617378 0.07386887 -0.37891528 -0.43554458 -0.32494065 0.07241201 -0.39478308 -0.35852993 0.0646338 0.09065198 -0.32683378 -0.379343 -0.37859568 0.0440158 0.07845438 -0.32572925 -0.38808632 0.06303441 -0.3562565 0.1468996 -0.35357884 -0.32917002 0.13938448 -0.38153148 0.095099665 -0.32427332 0.07688297 0.14123319 -0.2796281 -0.33969742 -0.410155 -0.28136066 0.091324806 0.1494866 -0.3631107 -0.35886785 0.040954612 -0.305243 -0.32057434 0.08399183 0.10216603 -0.38586706 0.08741844 0.08112871 -0.3389325 0.08893019 -0.35061723 -0.3003397 0.057864297 0.07607196 -0.36766404 -0.39060995 -0.40682092 0.0052173394 -0.3621957 0.10367429 0.1323252 0.018732773 -0.35605747 -0.316856 -0.3175153 0.07582314 0.06029539 0.05125433 -0.401755 -0.365272 -0.3800774 -0.39748567 -0.35301903 0.092493095 0.004188234 -0.3092088 -0.40426153 0.041353703 0.11787704 -0.30558258 -0.27147666 -0.48681334 -0.3083989 -0.32896933 0.15326561 0.04650548 -0.3585924 -0.33293426 -0.3406695 -0.50165915 0.06389091 -0.34035525 0.10525924 0.10700724 0.11379728 0.22687535 -0.3807506 -0.37728631 0.0612151 0.021011675 -0.34575692 0.11781288 0.04804935 -0.37680146 -0.29690853 -0.34434012 -0.35060665 -0.33694237 0.06974853 -0.34600282 0.026254354 0.06118648 0.05487247 -0.3408723 -0.40129915 0.035589524 0.100662924 -0.5049278 0.12609118 -0.39847612 0.0606099 0.117674634 -0.3560228 -0.2924687 -0.2902687 0.08566548 -0.001286677 0.077263236 0.06489793 0.07946604 -0.31165245 0.10749828 -0.28352818 -0.30139166 0.11492144 0.140901 -0.40488112 -0.35176688 -0.34019038 0.08392089 0.13991322 0.082043365 -0.28578973 -0.34775507 0.18830793 -0.26876158 0.09590757 -0.29989174 -0.3799883 0.072126076 -0.3135447 0.08836401 -0.41319048 0.4219431 -0.3738728 0.09212453 0.11157721 -0.34452334 -0.36717913 0.0642797 0.07915061 0.03242232 -0.11655402 0.09583593 -0.38145956 -0.36086625 0.042741492 -0.38047135 -0.33201888 -0.35024998 -0.35827932 -0.3537126 -0.3570101 -0.3935361 -0.38187015 0.109186664 -0.38907093 0.14073378 -0.33839208 -0.31470904 -0.39775753 0.0998805 0.13225085 -0.4030355 -0.36185434 -0.38002902 0.07272859 -0.33322516 -0.34072915 0.13964084 0.13587286 -0.5715228 0.04807675 -0.32412803 0.02825395 0.042579867 -0.46430248 -0.311108 0.069258854 0.042673036 0.112356514 -0.30759633 0.052411668 0.081945226 0.11305674 -0.42830086 -0.28516215 0.11329566 0.028963508 -0.37255177 -0.45041868 0.09359584 0.08203093 -0.31006202 -0.3385322 -0.30267596 0.34728438 0.13321227 -0.3571756 0.16493344 -0.3335512 -0.31012717 -0.31396013 0.12762578 0.11500055 -0.39241096 0.10686847 0.12633891 0.059052244 -0.36987227 -0.30471495 0.091795884 0.12256233 -0.313519 0.051551383 -0.29223344 -0.38683513 0.10948656 -0.35101438 -0.41618425 -0.37987557 0.043134395 -0.34647384 0.073721565 0.059163738 0.055563405 0.002928427 -0.34367958 -0.3420901 -0.33336422 -0.34172142 0.11782515 0.09639648 -0.3605556 -0.3999337 -0.5018162 -0.35055777 0.13389686 0.059122644 0.093505576 -0.37484127 0.057727285 0.25930318 0.027328692 0.07354775 -0.3703231 -0.30197987 -0.36900568 -0.2952165 -0.4171423 -0.3196165 0.11712386 0.054685473 -0.28009415 -0.29234782 0.03259942 0.047877863 -0.3099457 -0.40602332 0.11936173 0.058997076 0.1453147 0.09248834 -0.3663054 0.12744693 -0.3251669 0.16341676 0.095607266 0.065562256 -0.41484293 0.052148633 -0.30957565 0.069168 0.07398599 -0.30386275 0.07049867 -0.34541103 -0.27179477 0.11217848 0.036092423 0.013306032 0.16075033 -0.35939 -0.3600196 -0.34838465 0.08458622 -0.39748088 -0.37712997 -0.40436077 -0.3970337 0.09383974 -0.3775927 0.116623946 0.12010082 -0.39027587 0.10078634 -0.3958374 -0.3715228 0.1364026 -0.3193532 0.076789714 0.11932644 0.11774499 0.040492535 -0.30756086 0.011001047 0.10074314 0.08494271 0.08138353 0.05718885 -0.40807965 0.035073735 0.09479618 -0.33765626 -0.30608135 -0.33327326 0.07341987 0.053117465 0.107155554 -0.3148825 -0.35937837 0.09214371 -0.37907368 0.07963678 0.09710574 0.036257133 -0.37538692 -0.24678397 -0.31090918 0.036973614 -0.42656973 0.1945591 -0.30122423 -0.37436607 0.04401741 -0.31289166 -0.30507377 -0.5243175 -0.31853166 0.11594263 -0.3498597 0.011507385 0.074302524 0.13109848 0.10255251 0.057963956 -0.31956077 -0.40196434 0.069771394 -0.3244407 -0.31596014 -0.40730387 0.12290705 0.051851835 -0.3153759 -0.31649736 0.097123764 -0.32916623 -0.41593122 -0.3189917 -0.34727114 0.16504969 -0.28888634 -0.30676234 0.038437117 -0.3676055 -0.32519186 -0.35724694 -0.5036854 -0.33401453 -0.30537692 -0.38570994 0.13537656 0.07041022 0.1017014 0.097988136 -0.32126114 -0.4096993 -0.38359773 0.028366772 -0.30050135 0.09656128 -0.40711635 0.048539117 0.059174724 0.077852 -0.35261002 0.06925723 -0.31335676 0.024310904 0.11709626 -0.23949684 -0.38723326 -0.4074627 0.08100261 0.031865116 0.111263275 0.38678977 -0.35434315 -0.3627889 -0.3967484 -0.3334818 0.039540946 -0.43771884 0.19285609 -0.38340014 0.10234104 0.07482228 -0.3146953 -0.39574593 -0.32906806 -0.48179343 -0.35097593 0.12850133 0.067886226 -0.387563 0.42149842 0.21402846 0.07203169 0.045931086 0.106665365 -0.3878157 -0.30610397 -0.3394005 0.14705877 -0.36064118 0.10352521 -0.3563472 -0.38253462 0.14713022 0.07917475 -0.36116162 0.09504602 0.07135621 0.13482527 0.11380592 -0.3244346 -0.1301661 0.10353302 -0.31467283 0.25224108 -0.32490113 0.13761574 -0.40486503 -0.2978724 0.14657837 0.10816015 0.039590713 -0.33081204 0.022275317 -0.354155 0.09824076 0.09633088 0.08736624 0.028321054 -0.3666478 -0.31740412 -0.36741897 0.13325824 -0.40432927 -0.3295986 -0.30815884 0.04938963 0.011943858 -0.3340198 -0.33605644 -0.3544844 0.065977015 0.062601395 0.05717039 -0.3860559 -0.33804026 -0.20377894 0.09269045 0.08593016 -0.29901904 -0.36947513 -0.2466929 0.11716445 0.1844853 -0.37739202 -0.32566905 0.012881079 0.06865404 -0.46459302 0.11619619 0.15553373 0.08934611 0.14000098
