-0.28179348 0.11294965 0.05303279 0.1028499 -0.20964362 -0.42750588 -0.2712179 -0.24393837 -0.2648134 0.09291226 -0.27210677 -0.33105394 0.13945723 -0.3359145 -0.25958827 0.090911224 0.09106624 -0.37746462 -0.23581547 0.1002534 0.08413256 -0.22223017 0.09532696 -0.26713976 0.08078234 -0.3060087 -0.28546494 -0.26221728 -0.25976235 -0.28499624 -0.323081 0.08486646 0.06861906 0.09628202 0.055950206 0.08907801 -0.30017152 -0.25740796 -0.28542998 0.08939539 -0.47581556 -0.28770676 -0.40457764 0.117080696 -0.6061472 -0.27948305 -0.54039264 0.099427216 0.095217586 -0.28594744 -0.33986172 -0.00050597335 0.058319416 0.082034424 -0.38301882 -0.30362734 -0.27591705 0.0951432 -0.26783225 0.10886948 -0.12732254 0.16000104 0.08898629 0.10427409 0.099783815 0.082657106 -0.25062114 -0.27135673 0.07233941 -0.28212968 0.2327699 -0.26630247 0.0816513 -0.28768378 0.12851499 0.046515904 0.06517337 0.10313883 -0.47479263 -0.23279636 -0.36188558 -0.22507851 -0.13316678 -0.23705119 0.109377965 0.11337824 -0.27334195 -0.38819376 -0.30583382 0.082222894 0.16455065 -0.2539046 0.18671474 0.14656073 -0.26447272 -0.24792182 -0.34438878 -0.24493295 -0.34405917 -0.24900493 0.099365294 0.1000068 -0.2859546 0.11438972 0.040554658 -0.31888705 -0.37478584 0.11080192 0.06863472 -0.39913395 -0.27544853 0.16677813 0.12164441 0.06368045 -0.22044164 -0.45336664 0.092123926 0.08222051 0.092758834 0.09790113 0.065658554 -0.20978081 0.09253421 -0.20911306 -0.24000461 0.10423043 0.10419653 0.13769995 -0.27729368 0.0997052 -0.36470124 0.07355599 0.08377478 -0.2532694 0.1828221 -0.3454829 0.046529565 0.07002546 -0.2792388 -0.3145986 0.107471935 -0.26968637 -0.27081272 -0.16297287 -0.13880007 0.09697127 -0.3401169 -0.30597448 -0.39212894 -0.28125206 0.10439469 -0.26081732 0.046349887 -0.11475458 0.10625713 -0.28998908 0.10391858 -0.2696046 0.11444497 0.1129331 -0.37877598 0.07997345 -0.1950453 0.09078429 0.04398299 0.060373176 -0.26200375 0.08863072 -0.3431337 0.06975468 0.088794716 0.07964465 -0.2701945 0.0715899 0.060696587 -0.43836758 -0.43521544 -0.26955733 0.055355385 -0.2697918 0.09414025 0.085244454 -0.24346665 -0.22179069 0.091567114 -0.3354897 -0.26623955 -0.27198178 -0.29022035 -0.26466867 0.11917588 0.12765354 0.05326766 -0.23084208 0.07380767 0.06712331 0.054939914 -0.36237538 -0.29632068 0.09534876 0.09002051 0.15128821 0.08833569 -0.22094937 -0.2190025 0.100434005 0.14842692 0.16462696 -0.21595448 0.05430542 -0.27772334 -0.3447501 -0.22900991 0.107969865 0.18752566 0.047328625 0.0907943 0.07429754 0.09461946 0.113835946 -0.32647294 -0.33157545 -0.27596205 -0.21170437 0.04684146 -0.32851976 -0.25234395 -0.27230752 0.049778167 -0.28463486 -0.28092846 -0.30206943 -0.2640921 0.09562856 -0.2722257 0.099862926 -0.31851977 -0.33731255 0.09175872 -0.42132533 0.08485384 -0.26025182 0.062000453 0.07834175 -0.2799258 -0.3316337 0.0844928 0.14457476 -0.28586605 -0.2982209 0.06445688 0.09449116 0.062320895 -0.26093692 -0.22450806 0.119396664 0.056254942 -0.32199574 -0.30171752 0.08365699 0.07802816 0.10595276 -0.32355142 0.090200804 0.09281235 -0.33908468 0.15382576 0.098301664 0.06432156 0.06632083 -0.44274658 -0.2336155 -0.2735317 0.04434157 0.14883462 -0.28224966 -0.24609336 -0.36854222 0.034834486 -0.2502298 -0.11327217 -0.2677362 -0.28027314 -0.2649533 0.081348404 -0.28502533 0.07389301 -0.40534997 -0.23480994 0.09710124 0.089640334 -0.2296816 -0.32228258 -0.36368105 -0.27105194 0.12616082 0.10339714 -0.26492554 -0.28696492 -0.3348534 0.06844303 -0.22951719 -0.23566502 -0.37874994 -0.32730326 0.124588296 0.07282589 0.06796176 0.08183565 0.070712715 0.08396264 -0.33733845 0.048927788 0.18410636 0.06671829 -0.27277502 -0.30559728 0.069272846 0.05829612 -0.25357094 0.080924325 -0.27909577 -0.3670208 -0.31006688 0.09214879 -0.42805424 0.09221717 -0.33461374 0.07671288 0.07454605 0.12056529 -0.29456198 -0.35159248 -0.2347529 -0.28824514 -0.30061576 -0.4025937 -0.28109244 0.10698673 -0.3252839 0.07057394 -0.24887118 0.095965154 0.06429805 -0.50099707 -0.26281393 0.1412213 -0.34474757 -0.1912604 0.12316693 -0.30199227 -0.048358023 -0.39884555 -0.22726133 0.12142213 0.09032743 -0.25567517 0.040250354 0.05137471 0.087631844 -0.00037406842 0.09680481 -0.2171371 0.08617621 0.10649924 0.07826721 0.06075277 0.08111115 -0.20984837 -0.27750427 0.07991107 0.10330825 0.11655791 0.090211116 -0.27529243 0.08310689 0.06757281 0.0763813 -0.2927658 -0.22043726 0.05898935 -0.2616954 0.09710562 -0.3020917 -0.3632196 -0.28582916 0.060207397 0.08285711 0.10139508 -0.27197674 0.07860879 0.13067164 -0.26683727 0.08804068 -0.28211424 -0.23246473 -0.2945779 0.11059936 -0.3593649 0.11593821 -0.27959654 0.08015328 -0.28414372 -0.3462024 0.12399188 0.08079784 0.084584706 0.08307042 -0.45775363 0.121123135 -0.31256482 0.07682823 -0.2519092 0.07766578 0.04379471 0.10240404 -0.2620489 -0.21740212 -0.45738724 0.09636195 -0.29869154 -0.36284283 -0.23437782 -0.2257988 -0.21425292 -0.3462037 -0.31804493 -0.22894353 -0.28641278 0.10227541 0.13441205 -0.2838541 -0.34072676 0.10735481 0.10136382 -0.38680434 -0.28146893 0.11251137 -0.291274 -0.26649407 -0.18581657 -0.24078974 -0.34452394 -0.39155096 -0.2823025 0.1152896 0.06349196 0.08699155 -0.23819226 0.088720515 0.036925852 -0.46912634 0.08820713 -0.28082475 0.097087756 -0.46806493 -0.2877669 -0.27164677 -0.28783914 -0.23788908 -0.26860732 0.11671902 0.044900242 -0.26415166 0.0762269 -0.2508764 -0.21613698 -0.456268 -0.3451394 0.097009055 -0.30175874 0.09106728 0.11926228 0.12879667 0.13426825 -0.28424072 0.089567855 0.07570595 -0.22160576 0.058528397 0.10943426 0.09549616 -0.4312015 0.07653185 0.06606633 0.08527181 0.08995328 0.09636027 -0.40154678 0.078849465 -0.30031067 -0.22975475 -0.3595552 -0.2148598 -0.24239285 0.09190271 0.09795434 0.04560574 0.12508069 0.06632113 -0.3631677 -0.2742096 -0.23574813 -0.27933016 -0.33413625 -0.49383116 0.08944658 0.08176666 0.07907904 -0.22544928 0.050725784 -0.27278543
