-0.3430363 0.08411253 0.18850958 0.13152152 -0.32521915 -0.35714808 0.061152324 0.21157931 0.07684838 -0.3661249 -0.23102857 -0.3618536 -0.30711982 0.11061755 0.041966923 0.06533385 0.035085987 -0.3425673 -0.33688354 0.056380067 -0.39518124 -0.3465857 -0.28981882 -0.45134908 -0.24628057 -0.3437291 -0.29048178 -0.38132098 -0.34350392 -0.2648776 0.08466784 -0.32455203 0.091339484 0.12131428 0.027552603 0.33238488 0.044003878 0.17372203 -0.41195834 0.16140056 0.14954951 -0.34548384 -0.43873912 -0.35529193 0.120146684 -0.35558826 -0.33468437 -0.33127347 -0.3251075 0.098207 -0.30668002 0.036870886 0.061682932 0.049648434 0.08191582 0.09877765 -0.34969604 0.11989195 0.19325644 -0.30194306 -0.2874024 0.097363405 0.09936363 -0.3483576 -0.42306912 0.10011082 -0.36721772 0.06739816 -0.27550477 0.094249636 0.06259459 -0.24613841 -0.26715764 -0.10876089 0.17225184 0.1518609 0.27697206 -0.27080458 -0.310829 -0.3421362 0.23493537 -0.3369188 0.04046792 -0.3382241 0.0841029 -0.31987554 -0.39620852 -0.3193893 -0.29827884 0.11742157 -0.38487777 0.08037814 0.2015355 0.088005275 -0.3656422 -0.3660699 0.07784969 0.18083145 -0.33089653 0.07670554 -0.3466421 0.081232585 0.12626739 0.08635567 -0.34831664 -0.33011654 -0.3662701 -0.33735514 -0.35300073 0.03943878 0.056478027 0.094849624 0.09003314 0.041303795 -0.35048205 0.17560016 -0.48148403 0.08867525 0.10347501 -0.300449 -0.37317815 0.046172652 -0.33695072 -0.2792751 0.043654665 -0.3698561 0.073089875 -0.3593683 0.12786627 0.027796734 -0.3483594 0.089188956 0.057486773 -0.37391794 -0.35673764 -0.31160626 0.12958694 -0.37208357 0.0509599 -0.265839 -0.3032239 0.074130595 0.16990034 0.10308966 -0.29723734 0.108306475 -0.3513932 0.17533241 -0.3665575 0.284874 -0.374481 -0.31974366 -0.35323995 0.15674749 -0.30580088 -0.31496993 -0.34638774 -0.30096245 0.09894081 -0.34838647 0.048548363 0.059075966 0.04780254 0.05407765 -0.28507093 0.081478715 -0.39903036 0.09831314 -0.36702192 0.1667793 -0.31425896 -0.44806495 0.042705003 0.07912629 -0.28872505 -0.34463862 -0.40334436 0.03034734 -0.2976635 0.12555657 0.053911913 -0.33412793 -0.35020015 -0.36956632 -0.32359192 -0.3565597 0.09101906 -0.23896219 0.57865524 -0.34662408 -0.28609392 -0.39180002 -0.3902837 0.3915965 -0.31965232 -0.32195666 -0.38292086 -0.24181823 0.063049406 0.1353725 -0.26679865 -0.34901655 0.16993672 0.10655868 -0.287124 -0.29262492 0.12859905 0.04337313 -0.35985425 -0.29448485 0.049368203 0.07979546 0.028279923 -0.3796272 0.11988411 0.12403941 -0.25611925 -0.35338092 0.124780454 0.06444769 -0.4184787 -0.20880264 -0.29117778 -0.25742105 -0.3028618 0.043918163 0.05504008 -0.30519092 0.13966165 -0.35561472 0.05466233 -0.33784905 -0.34778783 -0.3440815 0.042379305 0.06516418 -0.39231625 -0.24170092 0.05279138 0.38797724 0.059353292 0.09229998 -0.3177172 0.058861103 0.10520157 -0.36803815 -0.31721938 0.07037011 -0.33446726 0.057277407 0.08342206 0.081391856 0.0889147 0.08284187 -0.38656268 0.09982029 0.08316255 0.14347759 -0.24459839 0.2559294 -0.4039825 0.08385987 0.048598234 0.03998378 -0.29879928 0.049089324 0.04235537 -0.27996686 0.16291705 0.08497491 0.03687514 0.07973368 0.10583418 0.08087531 -0.3475933 -0.3195024 -0.2605894 0.10615986 -0.36143276 -0.34860954 0.053070433 -0.36790293 0.35254842 0.16269271 0.24983454 -0.37739164 -0.33273068 -0.32982183 -0.46562424 -0.32977128 0.09041225 -0.31964374 0.16143477 0.058466185 -0.27915683 -0.30178094 -0.38672578 0.24196036 0.28298682 -0.31467977 -0.30246684 0.07007513 0.13781942 -0.2990634 -0.33558545 -0.39404482 -0.32504952 0.11286813 -0.27457651 0.037026357 0.6254275 0.104098536 -0.34829 0.07286199 -0.36706486 -0.2923073 -0.3901672 0.044585593 0.06788799 -0.32436642 -0.35848102 -0.34652373 0.120050915 0.060311142 -0.35410106 0.17367277 -0.39559275 -0.35155094 0.0469962 0.054720305 0.089451976 0.059952736 0.060383 -0.32159385 -0.34662306 0.11448594 0.08806939 0.05036177 0.20002736 -0.33968374 0.02199825 -0.31098107 0.038122144 -0.324305 0.028014332 -0.38092703 0.058242917 0.03933339 0.047516845 0.06949756 -0.33980283 0.11399695 0.042769037 0.09689337 0.08101796 -0.41541943 -0.35244417 0.095634475 0.030327413 -0.36785552 -0.2829382 0.0826838 0.11699402 0.07176417 -0.50829464 0.07046388 -0.10853132 0.094318055 -0.29706296 0.056431003 -0.47576797 0.051530056 0.08375004 -0.34215227 -0.33320644 -0.37772587 0.049089193 0.05349884 -0.37070873 -0.42592853 -0.37407872 -0.367646 0.12358557 -0.24203892 -0.3216466 0.10854729 -0.24702853 0.084586054 -0.39390582 0.083180346 -0.33867374 -0.3191318 -0.3300944 0.06499395 -0.29987153 0.08963997 -0.3188026 -0.3536738 0.2007714 -0.47586653 -0.38792706 0.1611514 -0.3466275 -0.3403732 0.09317122 -0.3409699 0.112812094 0.11482483 0.12171732 -0.3620464 0.04448427 0.039980225 -0.31904465 0.11376959 -0.41893274 0.049674958 -0.34222266 -0.31772825 0.10063984 0.07988012 0.06422364 0.103529185 -0.33059454 0.044066448 -0.34960043 -0.2741481 -0.3402943 -0.2406384 0.06280626 -0.33959407 0.09007685 -0.31268275 -0.3883873 -0.28769493 -0.3030205 -0.2728174 -0.3220289 -0.35848877 0.10428676 0.11928543 -0.42976978 0.107384376 0.024249477 -0.31169403 -0.35461196 0.16574563 0.08462014 -0.25262192 -0.34019405 0.18917173 -0.41623136 0.08673295 -0.21642771 0.08615544 -0.3885589 0.08699552 -0.3297484 0.08621842 -0.25713515 0.07501526 0.1432017 -0.3544926 -0.30535024 0.10755956 0.114519596 -0.38767764 -0.3221689 -0.28476566 0.107334994 -0.2573085 -0.27826065 -0.24919844 0.12945996 -0.3255735 0.14737304 -0.42654872 0.08566336 -0.27748626 -0.30911812 -0.2731507 0.09018971 -0.31378064 0.084297255 -0.27759472 -0.34094137 0.11883467 0.1046529 -0.34279525 -0.21500883 -0.27515242 0.03930124 -0.34231502 -0.3492326 -0.28815797 -0.34442276 -0.33335003 0.10425091 -0.35843325 -0.35684496 -0.4260758 -0.33034822 -0.41244945 -0.23879841 -0.3962266 0.08487845 -0.35303402 -0.3457817 0.08524764 -0.3551668 -0.39633924 0.04016897 -0.32101822
