0.062350627 0.1402907 -0.44237766 0.104157075 0.07805182 -0.37232602 -0.010470961 -0.1946684 -0.36627182 -0.2462657 -0.33947206 -0.37059277 -0.450387 -0.19324858 -0.15045565 0.03332322 0.042791165 0.1122311 0.0404616 0.062106125 -0.3720834 0.08822325 0.15310663 0.06683286 -7.58478e-05 -0.26585537 0.06948141 -0.39554274 -0.35629693 -0.15928975 -0.003339652 0.05287737 0.07740106 -0.3751542 -0.45584399 -0.4069235 -0.48433673 0.028887862 0.06262758 -0.3151494 -0.34569842 0.048804663 0.055399816 -0.34946698 -0.39163992 0.108595826 0.060470916 -0.508672 -0.38522857 0.07122757 -0.48694825 -0.55266476 -0.3311707 -0.36738366 -0.35524058 0.08198708 -0.39404666 -0.43640283 0.061888773 0.07251978 -0.4373874 -0.4807391 0.0008844057 -0.4480456 -0.59411496 -0.30023092 0.060569704 -0.4320492 -0.47433525 0.032859232 -0.008686891 -0.4450469 0.052178845 -0.37943137 0.070669524 -0.36383194 -0.36286584 -0.34268814 0.072248936 0.09056905 0.0537882 -0.33781272 -0.38094306 0.07731004 0.06203133 0.04751211 -0.38663027 -0.43993828 0.06829988 -0.006615269 -0.4030949 -0.29948094 -0.32497162 -0.34577453 -0.3862268 -0.39154613 0.06990665 0.08708596 -0.36967713 0.06389094 -0.542766 -0.0072196033 -0.24698776 0.044062782 0.044935234 0.066021115 0.054854773 -0.3240053 -0.32408166 -0.0005604448 -0.39966157 0.16076982 0.10490662 0.0458131 0.05546516 0.10611032 -0.00053252827 -0.22913344 0.091270655 0.06033521 0.04989365 0.05662965 0.056823306 -0.55621654 -0.36582983 -0.32021827 -0.31578884 0.047294345 -0.40418828 0.08683752 0.07111548 -0.35331205 0.058143705 -0.3450255 -0.34811425 0.078415304 -0.32704479 -0.2663263 0.086004704 -0.23044783 0.055815727 -0.35335922 -0.003771814 0.03682482 0.08772676 -0.3492729 -0.0023460959 0.0435508 -0.0015951797 0.04241865 0.051720064 -0.34258085 -0.30875817 0.06997378 -0.21949026 -0.36080116 0.13345504 0.06650062 0.033643596 -0.51798797 -0.4268421 0.00026346915 -0.002018844 -0.33610213 -0.49840802 -0.25325683 -0.3267664 0.07226523 0.06828513 0.08391794 -0.026404718 -0.35448387 0.003182415 -0.007151052 0.08775372 -0.4346401 -0.00081530464 -0.15320414 0.02187953 0.090745665 -0.26650068 0.11621072 0.046033997 0.11488814 0.10799305 -0.502017 0.07861293 0.10385607 -0.19518793 -0.4263176 -0.14291969 -0.42495027 -0.15906915 0.07111469 -0.35416678 0.10710172 0.042144466 0.05886171 -0.41156003 0.05304887 -0.42045316 0.07524913 -0.49353585 0.08688667 0.035158888 0.031056244 0.10576667 0.12272848 0.09624604 0.077216595 0.06424594 0.062310822 -0.47682717 -0.36266726 0.047995016 -0.35743856 -0.4286189 -0.36277208 -0.27221376 0.0007116432 -0.36351013 -0.57243705 0.049223468 -0.24296273 0.056763373 -0.31434804 0.037763063 0.068878874 0.09114941 -0.41697127 0.047881495 0.086855836 -0.33700874 -0.29817137 0.077638604 -0.011402443 -0.5136899 0.011711293 -0.35255992 -0.35899043 -0.45894283 0.057857186 0.08652908 -0.3001672 -0.24187106 0.054908462 0.055806864 0.050093353 -0.44314572 -0.29207826 -0.26480392 -0.45839277 -0.3167055 0.07583539 -0.4856647 -0.28865555 0.04713545 -0.36722136 0.053923324 -0.45880154 -0.0037220607 0.14777789 -0.5138768 -0.3739915 -0.3637818 -0.54136145 0.07010544 0.08926301 -0.47813496 0.049860694 -0.266083 0.09821188 0.09964801 -0.2296983 0.050808243 -0.42219895 0.046435937 0.1325441 0.03149471 -0.45428735 0.012805294 -0.45718613 0.061504837 0.064339705 0.04305803 -0.3584656 -0.5520015 0.11003541 0.07767092 0.030174598 0.04418728 0.053648163 0.068440974 0.15939078 -0.30999607 -0.0023678464 0.07059755 0.027283175 -0.15848626 -0.46013504 0.063392326 0.054371603 0.07805636 0.16935377 0.0048891082 0.07800347 0.076262884 0.054256257 0.012500319 0.11347265 -0.43020213 -0.62773836 -0.5178642 -0.19277892 0.016207267 -0.33647272 -0.4973823 -0.36332938 -0.20416667 0.074122556 -0.19596575 -0.2633194 -0.367757 -0.457251 0.029852524 -0.48848334 -0.54212016 -0.35771906 0.04437405 0.051577132 -0.49861372 0.09266543 -0.36551037 0.03271374 0.07611811 0.027017431 -0.00409492 -0.00033476058 0.06567641 -0.48152044 -0.52847755 0.038748987 -0.46400493 -0.43163234 -0.0069974936 -0.2768471 0.093212694 -0.15944548 -8.097882e-05 -0.38615987 -0.3537164 0.07890085 0.052973837 0.002424181 -0.4162201 0.13046561 -0.34338462 -0.41410664 -0.6580756 0.050301928 0.036723442 -0.42600682 0.080938704 0.060719423 0.08971667 -0.44989637 0.05530291 0.02548054 0.09402676 -0.25548205 -0.42863253 -0.48840484 0.05909325 0.00014988445 0.10973168 0.019505713 0.117342375 0.037599158 -0.3665249 -0.2593586 0.083502285 0.0017670144 -0.36687234 0.08338365 -0.36332065 -0.39157474 0.07852228 -0.38790432 -0.36085054 0.08198395 0.0508628 -0.32229364 -0.5935196 0.07585444 -0.35798857 -0.41941983 0.080454305 -0.2867504 -0.46298712 -0.36675087 0.075172305 0.0011459719 0.055285193 0.119088076 0.105090044 -0.3247543 0.072268404 -0.39027095 -0.0033349758 -0.3514269 -0.38679293 -0.37011686 -0.47092742 -0.3508935 -0.38317832 0.05997098 -0.38424188 -0.34529662 -0.30977017 -0.16824713 -0.35081956 -0.64209384 -0.51283634 -0.37302092 0.070881374 0.051247966 0.13729845 -0.35943612 -0.3882888 -0.3814333 -0.4032547 -0.4877152 -0.35068274 0.077528246 -0.44778433 -0.38115758 -0.31511962 -0.36620748 0.09163398 0.04983834 -0.43930843 -0.38540724 -0.37206215 0.036938656 0.024729086 0.09182686 0.065932915 -0.20348611 -0.39419955 0.0011724025 -0.0012310724 0.059664004 0.051475573 0.062700406 0.043596417 0.09893215 -0.21581993 -0.24755731 -0.37844718 0.1226165 -0.36282414 0.05880491 0.000106156556 -0.49522743 -0.4894179 0.04583988 0.040249422 -0.0019400724 -0.34507397 0.048964385 -0.0066564227 0.038184945 0.00029781077 0.03549894 0.07016734 0.07095804 -0.00030070916 -0.17698485 -0.39050123 -0.4373344 0.045245785 0.08798579 0.0962321 -0.42987633 0.06916391 -0.3979609 0.031811632 -0.16453302 -0.47071913 -0.37783527 0.042840928 -0.36083236 -0.51064706 -0.00068285555 0.03330576 -0.17791058 0.015308551 0.06624089 -0.16197546 -0.3089766 0.053951446 0.04765265 0.06436327 -0.3698637 -0.6734328 -0.3505616 0.051585544 0.063263565 0.00041994982 -0.447597 0.04428183 -0.36645603
