0.0687858 0.09861141 -0.6280719 0.10773755 0.01484344 -0.4575349 -0.37433133 -0.44278485 -0.38486168 -0.43080994 -0.3825069 -0.4049862 -0.45810834 -0.31055805 -0.003001955 0.059054803 0.009315575 0.09214047 0.062126175 -0.31764627 -0.33442324 0.08788347 0.08460393 0.05237975 0.060476024 -0.03992129 0.02715298 -0.3792245 -0.510554 -0.49978873 -0.30925605 0.08563 0.08348251 -0.46494508 -0.55812526 -0.42924526 -0.48693764 0.029295264 0.0631457 -0.5775785 -0.378112 0.087543316 0.044645377 -0.38606742 -0.38329768 0.048906177 0.049968705 -0.4772371 -0.39708644 0.025014251 -0.448834 -0.611337 -0.36200392 -0.40118313 -0.4715949 0.048702087 -0.43957666 -0.44608328 0.034619424 0.05328331 -0.438245 -0.4827665 -0.31018624 -0.3904633 -0.38563606 -0.5345175 0.05900488 -0.4090283 -0.41853392 0.02658015 -0.012977347 -0.40122917 0.01577746 -0.4486976 0.04445414 -0.5046225 -0.252446 -0.37680903 0.090815246 0.029206403 0.07587718 -0.46693432 -0.37082615 -0.023628497 0.00041007574 0.00837922 -0.37544683 -0.38397637 0.09043008 -4.2116528e-05 -0.5888212 -0.33593237 -0.37749764 -0.22519696 -0.41441354 -0.37850595 0.13664791 0.0422517 -0.29810527 0.026541142 -0.3867606 -0.00014739209 -0.41567373 0.060101118 0.052706875 -0.5442924 0.055589136 -0.017925499 -0.43730676 0.06954189 -0.35248122 0.18692464 0.0976782 0.04310553 0.026898317 0.07117852 -5.7147026e-05 -0.16000915 0.17088354 0.08175721 0.07151794 0.043963477 0.0278502 -0.48684925 -0.37101412 -0.3382756 0.12856235 0.13101381 -0.557444 0.042999536 0.008020479 -0.48961222 0.06310175 -0.3713114 -0.2728153 0.021066764 -0.3756663 -0.00042467 0.05335499 -0.00071956014 0.025928535 -0.37653258 0.0012331338 0.0553129 0.22341157 -0.37653545 -0.004575167 0.0888286 -0.00033821125 0.04103182 0.053702958 -0.38724443 -0.3362112 0.05637319 -0.28175572 -0.462444 0.091677554 0.026189618 0.05368974 -0.44258887 -0.39712566 0.09979067 -0.25041664 -0.38194218 -0.3818643 0.12228931 -0.37447548 0.06660624 0.053028826 0.096181095 0.063532114 -0.40332523 0.076734304 0.05074733 0.07053216 -0.39850882 -0.0020176198 -0.1833 0.05739668 0.042047743 -0.0057356753 0.079994336 0.039333865 0.13748312 0.046507757 -0.5206766 0.10417553 0.08775008 -0.22772254 -0.7025841 -0.27555856 -0.46969286 -0.47053272 -0.041710254 -0.36755374 0.04844356 0.041151434 0.053203106 -0.45005295 0.08579517 -0.671304 0.06717287 -0.4276516 0.06869059 0.034717474 0.03547147 0.02796702 0.056765843 0.091406986 0.016987694 0.0794307 0.046800952 -0.34429628 -0.3958986 0.044772856 -0.38700464 -0.38642287 -0.38999873 -0.28124088 0.0016009228 -0.49517518 -0.4681453 0.032833394 -0.39620733 0.066884734 -0.3974694 0.124714375 0.05692162 0.053836003 -0.4692967 0.092795245 0.060479134 -0.399943 -0.3801449 0.06807398 -0.2626546 -0.55393934 0.024621412 -0.38855112 -0.5675123 -0.47912082 0.038576048 0.10115603 -0.32929444 0.078924455 0.094045974 0.05596671 0.096723855 -0.3939836 -0.25555882 -0.5038852 -0.45930114 -0.37913686 0.04374277 -0.43743584 -0.43578252 0.04704554 -0.3963402 0.06247719 -0.3673645 0.022622839 0.050272614 -0.48150057 -0.3996974 -0.20707762 -0.51048726 0.008102288 0.09265795 -0.4071377 0.0689549 -0.3577152 0.09615904 0.051539015 -0.14655466 0.02163373 -0.35898072 -0.3090056 -0.020708129 0.040586714 -0.40400684 0.025861776 -0.5453674 -0.21094702 0.063385844 0.055831883 -0.49853298 -0.44679928 -0.29393166 0.16398552 0.054062594 0.007119813 0.064721964 0.065455206 -0.3470492 -0.35596448 -0.001027189 -0.049806766 0.034516096 -0.3066224 -0.5951031 0.04494574 0.04949777 -0.0015643351 0.09725673 0.030524544 0.06398045 0.070371486 0.041218586 0.020965362 0.09329654 -0.40546715 -0.21993893 -0.58073705 -0.2983631 0.017207 -0.33760557 -0.37904167 0.09126613 -0.17966524 0.071242474 -0.38724872 -0.29660574 -0.4650267 -0.45694196 0.048121016 -0.5261388 -0.42553067 -0.38801324 0.061951235 -0.00041500444 -0.4578497 -0.0063138898 -0.39297912 0.052682076 0.061939176 0.00070603495 0.09144086 -0.14971119 0.03517121 -0.49316463 -0.5085343 0.045265224 -0.47435722 -0.26467502 -0.21010852 -0.36092708 0.097032025 0.07169799 -0.35197943 -0.4730251 -0.38311198 0.036408305 0.031050652 -0.19324642 -0.4093857 0.07184045 -0.43003666 -0.39972955 -0.4059108 0.022157343 0.06867591 -0.45484233 0.059915558 0.1122132 0.038740404 -0.20281966 0.062983476 0.054877013 0.08107413 -0.29858315 -0.39932954 -0.3986004 0.041458946 0.00075226126 0.06303754 0.019080697 0.07436702 0.066540025 -0.3977097 -0.6139921 0.04397002 0.10422135 -0.474866 0.073505275 -0.62159574 -0.44244614 0.043166075 -0.39015532 -0.39007682 0.08803544 0.05532058 -0.3909091 -0.39518365 -0.004931803 -0.38655064 -0.45007396 0.07521005 -0.26891854 -0.39484802 -0.3947978 0.05889406 0.046263207 0.06810488 0.09158616 0.012141094 -0.4239674 0.02117687 -0.39102212 0.050958063 -0.38020608 -0.40668595 -0.432026 -0.39561206 -0.3804306 -0.38383728 0.13150251 -0.42765105 -0.24420655 -0.3576489 -0.49727657 -0.38389483 -0.41622573 -0.39381292 -0.5130193 0.063044675 0.055989537 0.14085837 -0.4026798 -0.41423747 -0.64445764 -0.53925246 -0.39424342 -0.3808801 0.15750633 -0.42542917 -0.41812527 0.06954412 -0.395494 0.06064256 0.0574738 -0.5001585 -0.25434205 -0.4004131 0.048610285 0.11305685 0.08253039 0.07447822 -0.43679544 -0.3084699 -0.24620138 -0.33441055 0.020432977 0.07740694 0.08370164 0.06640846 0.12138702 -0.5013599 0.097523145 -0.4008026 0.1177426 -0.46115458 0.048699617 0.061216056 -0.3823154 -0.52288437 0.0019511341 0.05958934 0.05448452 -0.46724322 0.08423851 -0.337351 0.039299726 -0.28511015 0.14647058 0.19552588 0.08901745 -0.0027007621 -0.29131073 -0.38203248 -0.4664838 0.047439527 -0.022272253 -0.23835899 -0.44899642 0.081273995 -0.4576878 0.05504208 -0.32737786 -0.46976864 -0.40112776 0.04587816 -0.43350878 -0.6002762 0.1035393 0.08594212 -0.3738346 0.2014548 0.05800705 -0.3760076 -0.28161108 0.055676702 0.041568536 0.052914515 -0.45021686 -0.3832774 -0.46573007 0.09242795 0.12499947 -0.27719557 -0.39874864 0.043069903 -0.3862626
