0.1158878 0.037408646 -0.4319756 -0.14323868 -0.057623636 0.072903015 0.05978792 -0.034195635 0.022493023 -0.06600869 -0.021404766 -0.56711704 -0.40008414 -0.4557236 -0.43075123 0.07384277 -0.036810208 -0.54129344 -0.2582782 -0.14378828 -0.0001140713 -0.028315129 0.013014082 0.031052351 0.06946098 -0.4151755 -0.33622307 -0.43740612 0.03607233 0.043136224 -0.44891292 0.022794781 -0.2867197 -0.34237432 0.029896734 -0.6466385 -0.48357517 -0.038555577 -0.46995682 0.037757363 0.032044724 0.016396824 -0.5656155 -0.4077563 -0.40773895 0.04206451 0.04183513 -0.41038767 -0.40919152 -0.36433735 -0.021762505 0.0027347521 0.01991215 -0.12312324 0.054628056 -0.48496982 0.033149187 -0.27776244 -0.44894555 -0.23691283 0.028665083 -0.6474032 -0.5252118 -0.45463657 -0.33431822 0.03147387 -0.4502401 -0.37245464 -0.40278217 0.067836635 0.009983098 -0.35072792 -0.4546511 -0.39828613 0.019874241 -0.4610203 0.0742288 -0.12954246 -0.44938776 -0.13256979 -0.3690301 0.014937626 0.015209437 -0.05356769 -0.3044487 -0.19813477 -0.44100818 0.018141517 -0.41365105 -0.33747584 0.039223988 -0.5236534 -0.025121594 -0.4459168 -0.5205054 0.057586197 -0.45911705 0.08067287 0.014544852 -0.4417757 -0.44064683 -0.04617261 -0.03416735 -0.45026672 -0.5022238 0.003851593 0.036014475 -0.4780849 -0.452747 -0.41357195 0.041248173 -0.41552943 -0.3637056 -0.46578547 -0.62129444 -0.3368634 -0.5531438 0.08587758 -0.5875478 -0.367428 -0.41186723 0.033437934 -0.009694065 -0.40615463 0.047173798 -0.009353234 -0.3951008 0.0076214685 -0.4561857 -0.44269738 0.04603544 0.04756172 -0.63692695 -0.43937927 -0.41553724 -0.3527296 0.04529235 0.023700485 0.010140446 0.01971491 -0.09477457 0.03773497 -0.55438286 0.032140803 0.025888445 -0.22351813 -0.54091454 0.038589314 -0.4141502 -0.03288697 -0.44356325 0.016661981 0.03246341 0.0023779639 -0.43798092 -0.45145884 -0.16021943 0.042219043 0.03996877 0.091343775 -0.00837532 -0.35352087 -0.52580214 -0.012270589 -0.52782005 -0.40089387 0.027149376 0.035518024 -0.18387133 0.060700927 0.0288144 -0.42278117 0.013710583 -0.49536875 -0.18223321 -0.0009339991 -0.41237038 0.026411153 -0.014191243 -0.35301888 -0.4484862 0.05200937 0.016044395 0.047189455 -0.4478452 -0.48914123 0.05367637 -0.05903134 0.0291603 -0.4455354 -0.42812335 0.15523157 -0.45561868 0.07138981 0.06777733 -0.46072748 0.027497891 -0.42455626 0.056844857 -0.5918512 -0.40088105 -0.521243 -0.3790517 0.00581989 0.016109388 0.22502202 -0.47911993 0.27524108 -0.44507873 -0.10340698 -0.14552513 -0.0001893295 -0.65205365 -0.049104504 -0.4610925 -0.11517606 0.061302766 -0.41143358 -0.21805078 0.04759771 -0.44263196 -0.43647036 -0.45446602 0.11322357 -0.20480722 0.09240187 -0.31744418 -0.79309493 -0.045556303 -0.44680873 -0.4671845 -0.55351895 -0.4526032 0.040593434 0.028845834 0.004814995 -0.0031724272 -0.06572949 -0.44364217 -0.38506946 -0.41787314 -0.52608824 -0.030759767 0.062046003 0.05057389 0.036059886 -0.5503095 0.025735697 -0.5929497 -0.3649956 -0.3621105 -0.3190848 -0.4517067 -0.44390944 -0.3733533 -0.42871222 -0.027272856 0.071552366 0.030826032 0.028680561 -0.020373598 -0.55833656 -0.44089156 -0.17510757 -0.36316708 0.0151429325 -0.050594993 0.039872117 -0.052754268 -0.53597796 -0.48452488 -0.14377622 -0.3671624 -0.25262228 0.015227171 -0.005093701 -0.26666117 0.039451513 -0.34007245 0.107077934 -0.45182073 -0.42987314 0.028317917 -0.41555876 0.032254912 -0.44746882 -0.040122755 0.050804757 0.02376406 0.008600543 -0.475473 0.0053898925 -0.44412908 0.034617998 0.06285094 0.01790361 -0.46254316 0.028973548 -0.43265885 -0.00018517535 -0.44234243 -0.38766283 0.011031126 -0.43009707 0.02929555 -0.083940774 -0.4204927 -0.44707453 0.042772997 -0.45523927 0.044645775 0.012600538 0.02290844 -0.47763744 0.037168633 -0.39084348 -0.4310651 0.0726266 -0.08093838 -0.46312582 0.054305658 0.023255726 0.0119339265 -0.4145585 0.027984848 -0.04172071 -0.48604617 -0.18427044 0.010293577 0.0020698016 0.0662892 0.033238165 -0.5064096 0.05168269 0.00834755 0.027914865 0.019506942 0.07284265 -0.06461812 -0.43946385 0.068611674 0.06764614 -0.4394598 -0.42067748 -0.029964907 0.04861202 -0.1822432 0.021632198 0.030629972 -0.4914217 -0.075004265 -0.020904724 -0.4479023 -0.43831745 -0.44424918 -0.40455586 -0.46582258 0.019454135 0.001465605 -0.43582988 -0.4109837 0.041073862 -0.32020175 0.035216156 -0.0073284353 -0.3208044 0.059615273 -0.24589677 0.062170234 -0.4011368 -0.079654045 -0.15310608 -0.00033208288 -0.430746 -0.03141288 -0.42388758 0.14666997 0.002482931 -0.5446725 -0.5322484 -0.4101207 0.11048619 -0.31783164 0.024724334 0.026854903 0.038247425 -0.44929495 -0.41304454 0.06438041 0.033100016 -0.06317442 0.09395699 -0.38503394 0.0062074186 -0.015532359 -0.44566375 -0.4595833 -0.45610824 0.0131851025 -0.2769754 -0.32284793 0.05003257 0.005288814 -0.0135801295 0.013817542 0.011267323 0.012039883 0.01475422 -0.4626667 0.04648929 -0.42162964 0.010136454 0.029094212 -0.43654945 -0.40723455 -0.44884193 -0.39722386 -0.47134247 -0.45654255 -0.3764299 -0.4322091 -0.44803098 -0.4309014 0.033094812 -0.2939959 -0.46691316 -0.2944489 0.08246581 0.020135364 -0.46840137 -0.43965635 -0.36910346 -0.38283816 -0.50296044 -0.040204775 -0.064866714 0.0208385 0.014488843 -0.4394022 0.03336379 -0.22851191 -0.31172276 0.082292125 0.023113776 0.036169212 0.026638975 0.02453759 0.015970351 -0.34201735 -0.48000777 -0.008455854 0.022722788 -0.4213723 -0.46983477 -0.4410181 0.016106704 0.008076774 -0.48556477 -0.013787408 -0.4699882 0.048650928 0.10744835 -0.42274576 -0.000593721 -0.64813733 0.021319795 -0.46527642 -0.4288948 0.038699348 -0.30865806 -0.5016811 -0.0930948 -0.1491173 -0.4136407 0.034033623 0.06520385 0.0307882 -0.11650576 -0.22909513 -0.46666792 -0.45033044 -0.5160709 -0.45341203 -0.46815494 0.06113246 -0.33995643 0.004646014 -0.42424902 -0.29919353 0.11295191 -0.50319445 -0.07719923 0.051764756 0.017687477 -0.39150694 -0.08794647 -0.38549593 -0.05680592 -0.45244408 -0.44002074 0.05451013 -0.49395353 -0.25817567 0.019887818 0.06928381 -0.43512264 -0.24259214 0.018578129 -0.07579448 -0.09234398 -0.3228191 -0.43240964
