0.07962159 0.14251806 -0.33279094 0.0878344 0.0051472094 -0.37756392 0.00855442 -0.38697177 -0.33033022 -0.19070701 -0.47736642 -0.36553445 -0.31528977 -0.30566058 0.08314773 0.044644523 0.061879545 0.09904559 0.012190924 0.0044120206 -0.4083271 0.06369985 0.00075602694 0.028643768 0.0008485232 -0.2724577 0.04998234 -0.36275294 -0.3723776 6.326504e-05 0.0027173767 0.026913404 0.06764196 -0.458176 -0.37726438 -0.30726317 -0.25851047 0.00019099128 0.0015515941 -0.42576963 -0.34205985 0.097985946 0.083427824 -0.3377171 -0.3516197 0.051030945 0.032646652 -0.35831046 -0.3673127 0.10078623 -0.34415677 -0.40573224 -0.21506782 -0.37146136 -0.4659532 0.06561472 -0.47542882 -0.34221008 0.042611632 0.069626756 -0.44673008 -0.39238304 0.014273639 -0.4057281 -0.44924033 -0.31382903 -0.22913915 -0.4068064 -0.39864975 0.04182729 0.01891713 -0.37415928 0.004452328 -0.26337633 0.14037816 -0.44786823 -0.3678979 -0.34784114 0.14050525 0.00064061506 -0.3486428 -0.374447 -0.00011515406 0.0010655391 0.00018832773 0.028724276 -0.34331924 -0.4506926 0.05635498 -0.29108614 -0.5761925 -0.4225104 -0.4044244 -0.3455849 -0.38759777 -0.34984803 0.099016644 0.055112183 -0.17123267 0.022534182 -0.37006554 0.07926159 -0.0009479064 -0.1510721 -0.00017653717 -0.2168469 0.083865866 0.00069253356 -0.48011136 0.09078923 0.0006112361 0.08302228 -0.001016549 0.022733444 0.04492223 0.09888414 -9.178966e-05 -0.30331612 0.110916056 0.027251098 0.07242969 0.011417771 0.057968434 -0.35618916 -0.33649963 -0.5017575 -2.8207174e-05 0.12663893 -0.37366983 0.009815959 0.019819656 -0.34968275 0.09369414 -0.34433374 -0.34720027 0.0574129 -0.343222 -8.432615e-05 0.07271793 0.0041570626 0.012655847 -0.34170198 -0.00055500335 0.061708204 0.07821068 -0.25952354 0.00078820495 0.05409214 -0.00063240563 0.046682682 0.07093149 -0.46453556 0.00046218207 0.049792238 0.0025990487 -0.41062564 0.0660524 0.03838907 0.0155280465 -0.39370364 -0.36811104 0.0020202175 -0.0003603674 -0.40338933 -0.34923244 6.2636645e-05 -0.3340052 0.073587745 0.036896974 0.09703761 -0.0034960525 -0.5540794 0.23021813 -0.00035277856 0.10594431 -0.36334816 0.0010962526 -0.2648998 0.114909135 0.066667244 0.0016874307 0.17094442 0.049703542 0.083863914 0.09332177 -0.49809507 0.009114293 0.08085693 -0.00013844544 -0.3783065 -0.16670404 -0.40634674 -0.5225812 0.00040701692 -0.38491032 0.06767286 0.077150784 0.03798807 0.05408894 -0.2609316 -0.15889372 0.059819642 -0.34529313 0.06703927 0.028793255 0.015238232 0.062178526 0.103262216 -0.0020047445 0.0133487815 0.08149468 0.038402423 9.043149e-05 -0.38368598 0.019950885 -0.47730744 -0.3907269 -0.36009422 -0.00077258423 -0.25942048 -0.45911103 -0.4374061 0.051988505 -0.36695483 0.03312592 -0.2901838 0.06917955 0.046601214 0.076578796 -0.37710607 0.0747924 0.0075863814 -0.3705743 -0.3475179 0.09456327 0.0026971293 -0.38051638 0.035201404 -0.40276715 -0.43109542 -0.35673898 0.05294497 -0.001567965 -0.0014749143 -0.30358633 0.10072923 0.098983064 0.13450615 -0.3856679 -0.4457951 -0.17779104 -0.4809978 -0.3105165 0.04191694 -0.4385807 -0.28904772 0.050006907 -0.36706933 0.05447445 -0.36720046 0.018719735 -0.3099153 -0.36548996 -0.37053344 -0.4057775 -0.45596248 0.05073011 0.002344947 -0.4320221 0.058552373 -0.31419325 0.05235807 0.02805709 -0.36588788 0.05879821 -0.41113624 -0.00075824093 0.0980064 -0.3068279 -0.37371266 0.009255207 -0.39580896 -0.00012913551 0.05599258 0.048077647 -0.41479763 -0.3563714 0.00063181325 0.012464919 0.005437764 0.08340283 0.07743979 0.07567385 0.099539645 0.00053806644 0.0018435105 0.063872956 -0.0023139105 -0.22302352 -0.28507146 0.029679168 0.0719821 0.12270515 0.14861926 0.10212297 -0.006499773 0.069721766 0.07045731 0.019507602 0.08342308 -0.35522977 -0.47390822 -0.25855675 0.0036691898 0.002070315 -0.32069328 -0.50032485 0.0016748919 -0.002561495 0.05672782 -0.34521073 -0.00032888804 -0.2604674 -0.36745402 0.103869416 -0.37672696 -0.53686345 -0.4304461 0.025122244 0.07147865 -0.5717638 0.035871096 -0.31876245 0.0003186968 0.06615536 0.085073076 -0.17438897 0.04590368 0.066286825 -0.42249012 -0.37602374 0.07677253 -0.44010353 -0.22944078 0.038350713 -0.35859317 0.06452243 -0.35226375 -0.28734812 -0.49223664 -0.48324507 0.029871045 0.040811602 -0.22858806 -0.48656595 0.00062270585 -0.29922637 -0.37018928 -0.376462 0.064618245 0.12006095 -0.5618601 0.0941159 0.037880976 0.03677753 -0.59628284 0.0659577 -0.20170122 -0.012596516 -0.00019506224 -0.36957005 -0.3707272 -0.0007108976 -0.2573034 0.08234083 0.034855653 0.052769266 0.04924185 -0.56555974 -0.26764944 0.061583135 0.0023455385 -0.35960728 0.014845739 -0.43224305 -0.37334904 0.022642596 -0.3588674 -0.35875368 0.04701462 0.046985775 -0.2928951 -0.25489876 0.040919654 -0.35686198 -0.3562664 0.012460626 -0.0057992423 -0.24809495 -0.15915467 0.052418478 0.00020898946 0.023113234 0.091029614 0.06847327 -0.37461358 -0.0010753317 -0.36007762 0.0009935511 -0.3470686 -0.36202314 -0.3684968 -0.48814675 -0.35091436 -0.33167318 0.097891405 -0.38416687 -0.21928118 -0.25696495 -0.2615202 -0.2876713 -0.42903376 -0.24517316 -0.35725603 0.09590598 0.07865286 0.09530302 -0.36908698 -0.38644296 -0.47662988 -0.6000964 -0.36146444 -0.34599057 0.086434856 -0.2818265 -0.29892364 0.0055180667 -0.41795376 0.03669673 0.1114773 -0.37349084 -0.30137816 -0.37243757 0.071530566 0.052408867 0.07549119 0.075642794 -0.5699061 0.001750428 0.0038684043 0.0023569772 0.027221482 0.01837972 0.054015893 0.10500281 0.070689574 -0.29938462 -0.21915248 -0.25922456 0.048041523 -0.3574182 0.046195496 -0.42909858 -0.4230321 -0.45764256 -0.00026638043 0.09101683 -0.0040303213 -0.4452449 0.07225837 -0.13080765 0.025731811 -0.25923726 0.093515866 0.09898907 0.040169407 0.0011661914 -0.2303675 -0.35363415 -0.40766567 0.065109715 0.0002939073 0.1898777 -0.38627997 0.030531285 -0.31350443 0.07017333 -0.43289644 -0.5766325 -0.33807325 0.04946325 -0.44879618 -0.39881012 0.089746475 -0.0020271395 -0.3303397 0.09794569 0.103240654 -0.15405168 0.029404277 0.07874942 0.114353485 0.03901241 -0.5499726 -0.34720513 -0.29871836 0.07385812 0.0007540639 -0.047548328 -0.36482862 0.025767086 -0.35137424
