0.00075901404 -0.2523091 0.10926024 -0.26085708 -0.0011350074 -0.32687822 -0.10894632 -0.21418108 0.015583368 -0.087890185 0.066008106 -0.07014773 -0.09259902 0.17944765 -0.28215975 -0.27846766 -0.09793371 -0.2423865 0.13553226 0.13878295 0.2524781 -0.25166842 0.24093609 0.07488941 -0.26754212 -0.12265069 0.16388327 -0.06854747 -0.10420563 0.09267662 -0.13903975 0.055401936 0.21295103 -0.37258556 0.07388217 0.07046382 -0.09058738 0.067142844 -0.21790193 -0.25702807 -0.11335069 0.12688054 -0.116176166 -0.26784974 -0.122876495 -0.11137393 0.1693052 -0.12207639 0.19853048 0.15797952 0.15566911 -0.24203771 -0.083136484 -0.16646992 -0.08761379 -0.1393149 -0.10580338 -0.22066954 0.16732745 -0.18501553 0.08989212 -0.26858568 0.14647605 0.12168535 -0.10743341 -0.21286431 -0.221355 -0.10761919 0.06689473 0.079782985 -0.2409706 0.15989573 -0.14151531 0.12511921 -0.14483626 0.177281 0.05913934 -0.24731605 0.15037929 -0.13857709 -0.17194356 -0.0003139675 -0.1567908 -0.1660674 -0.22285545 -0.19221215 0.12996411 -0.000753012 -0.12254717 -0.25682613 -0.15848619 0.13071704 -0.32825318 -0.14774717 0.0005480145 0.09950906 -0.102176644 0.1006381 -0.25481075 -0.17299943 -0.17536657 -0.2307354 -0.10305064 -0.23653561 -0.23596999 0.07765683 0.06437784 0.23961625 0.061318573 0.09127576 -0.0006102035 -0.23557402 0.14651567 -0.1321866 -0.23918508 -0.12501124 -0.13808261 0.10125034 -0.13081643 -0.22574338 0.13494045 -0.13106237 0.0007251903 -0.24827057 -0.144669 -0.2548137 0.05089197 -0.23608345 -0.29027382 -0.14693937 0.107001245 0.038846467 0.08939282 -0.08278562 -0.15666704 -0.21438582 0.20523767 0.018923994 0.21156171 0.06593651 -0.09573847 -0.10525314 0.21765791 -0.06783629 -0.11367531 -0.2429506 -0.09004796 -0.19546327 -0.06161673 0.093779325 -0.22740483 0.14204827 0.10235007 -0.18636408 -0.13211954 -0.23594196 -0.09323114 -0.07633889 -0.16693299 0.20598026 -0.26476076 -0.16306777 -0.17934829 -0.29279456 -0.22470948 0.10174121 -0.09040406 -0.09233976 -0.23960131 -0.23039782 -0.23990583 -0.2673398 -0.17007735 0.15401633 -0.30671665 0.13869879 -0.20834824 0.13500863 9.984379e-05 0.13995372 -0.29630506 0.13542897 -0.23806946 -0.16578779 -0.08017359 -0.19522683 -0.106506266 -0.11485359 0.20341648 -0.13879995 -0.14101723 0.08206518 -0.20873283 -0.2799203 0.09990451 -0.18717593 0.08499584 0.105486795 0.087743446 -0.1810416 0.09279135 0.10814568 -0.13102129 -0.16358611 0.12950923 0.10585416 -0.17004405 -0.16131963 -0.23422495 0.046732068 -4.444851e-05 -0.21578678 -0.19944733 -0.13237743 -0.14779511 0.10662282 -0.23106678 0.12976341 0.12358237 -0.11419685 -0.2219539 -0.11003328 -0.2594017 0.10350085 0.15820262 -0.2509388 0.13148418 0.036046065 0.101293296 0.09040393 0.03355998 0.0698351 0.08943395 0.13975157 -0.24517378 0.04186829 0.16074091 -0.21389286 0.17382506 0.122452736 -0.1671732 0.05490038 -0.05602302 0.13227709 -0.19131179 0.14139089 0.16030852 -0.2434948 -0.1658557 -0.19314319 -0.19366854 0.117708914 -0.06258322 -0.17058262 -0.22602 -0.13414925
